
/* Species #31 : (Size 11) (AF 39.3636) (Age 22)  */


/* Organism #0 Fitness: 107 Error: 0 */
genomestart 0
trait 1 0.1 0 0 0 0 0 0 0 
trait 2 0.2 0 0 0 0 0 0 0 
trait 3 0.3 0 0 0 0 0 0 0 
node 1 1 1 3
node 2 1 1 1
node 3 2 1 1
node 4 2 1 1
node 5 2 1 1
node 6 3 0 2
node 7 3 0 2
node 14 1 0 0
node 24 1 0 0
node 72 1 0 0
node 84 1 0 0
node 136 1 0 0
node 172 1 0 0
gene 3 1 6 -0.0504409 0 1 -0.0504409 1
gene 3 2 6 0.013041 0 2 0.013041 1
gene 3 3 6 -2.20346 0 3 -2.20346 1
gene 3 4 6 0.933945 0 4 0.933945 1
gene 3 5 6 -2.35839 0 5 -2.35839 1
gene 3 1 7 6.39625 0 6 6.39625 1
gene 2 2 7 0.692755 0 7 0.692755 1
gene 1 3 7 4.12971 0 8 4.12971 1
gene 3 4 7 0.0669252 0 9 0.0669252 1
gene 1 5 7 -0.443433 0 10 -0.443433 1
gene 1 6 7 3.52948 0 16 3.52948 0
gene 3 5 14 -1.51053 0 26 -1.51053 1
gene 3 14 6 -2.22022 0 27 -2.22022 1
gene 3 3 14 -0.276288 0 54 -0.276288 1
gene 3 4 24 2.17029 0 55 2.17029 1
gene 3 24 6 0.39111 0 56 0.566075 0
gene 1 1 14 2.50693 0 78 2.50693 1
gene 3 4 14 0.669058 0 192 0.669058 1
gene 2 24 14 -0.63301 0 208 -0.63301 1
gene 1 6 72 -0.472683 0 220 -0.472683 1
gene 1 72 7 2.77073 0 221 1.59634 1
gene 3 24 84 -0.691123 0 263 -0.691123 1
gene 3 84 6 -1.44325 0 264 -1.26829 1
gene 1 14 72 -0.815429 0 381 -0.815429 1
gene 3 2 72 0.594286 0 458 0.594286 1
gene 2 3 24 -2.7804 0 483 -2.7804 0
gene 1 6 136 1.66018 0 492 1.16018 1
gene 1 136 7 3.6881 0 493 3.6881 1
gene 2 3 172 1 0 625 0 1
gene 2 172 24 -2.7804 0 626 0 1
genomeend 0

/* Organism #1 Fitness: 61 Error: 0 */
genomestart 1
trait 1 0.1 0 0 0 0 0 0 0 
trait 2 0 0 0 0 0.765353 0 0.656423 0 
trait 3 0.3 0 0 0 0 0 0 0 
node 1 1 1 3
node 2 1 1 1
node 3 2 1 1
node 4 2 1 1
node 5 2 1 1
node 6 3 0 2
node 7 3 0 2
node 14 1 0 0
node 24 1 0 0
node 72 1 0 0
node 84 1 0 0
node 136 1 0 0
node 172 1 0 0
gene 3 1 6 -0.0504409 0 1 -0.0504409 1
gene 3 2 6 -0.881368 0 2 -0.881368 1
gene 3 3 6 -1.52437 0 3 -1.52437 1
gene 3 4 6 0.933945 0 4 0.933945 1
gene 3 5 6 -0.970746 0 5 -0.970746 1
gene 3 1 7 4.77225 0 6 4.77225 1
gene 2 2 7 0.39069 0 7 0.39069 1
gene 1 3 7 0.580897 0 8 0.580897 1
gene 3 4 7 1.74933 0 9 1.74933 1
gene 1 5 7 -1.28662 0 10 -1.28662 1
gene 1 6 7 4.06444 0 16 4.06444 0
gene 3 5 14 -3.95421 0 26 -3.95421 1
gene 3 14 6 -2.53123 0 27 -2.53123 1
gene 3 3 14 -0.64964 0 54 -0.64964 1
gene 3 4 24 1.94563 0 55 1.94563 1
gene 3 24 6 0.39111 0 56 0.39111 0
gene 1 1 14 0.726515 0 78 0.726515 1
gene 3 4 14 2.88956 0 192 2.88956 1
gene 2 24 14 -0.108399 0 208 -0.108399 1
gene 1 6 72 0.983391 0 220 0.983391 1
gene 1 72 7 0.602595 0 221 0.602595 1
gene 3 24 84 -1.95628 0 263 -1.95628 1
gene 3 84 6 -3.25941 0 264 -3.25941 1
gene 1 14 72 -0.827213 0 381 -0.827213 1
gene 3 2 72 -0.248129 0 458 -0.248129 1
gene 2 3 24 0.107424 0 483 0.107424 0
gene 1 6 136 2.56843 0 492 2.56843 1
gene 1 136 7 1.7235 0 493 1.7235 1
gene 2 3 172 1 0 625 1 1
gene 2 172 24 -3.8671 0 626 -3.8671 1
genomeend 1

/* Organism #2 Fitness: 56 Error: 0 */
genomestart 2
trait 1 0.1 0 0 0 0 0 0 0 
trait 2 0.2 0 0 0 0 0 0 0 
trait 3 0.3 0 0 0 0 0 0 0 
node 1 1 1 3
node 2 1 1 1
node 3 2 1 1
node 4 2 1 1
node 5 2 1 1
node 6 3 0 2
node 7 3 0 2
node 14 1 0 0
node 24 1 0 0
node 72 1 0 0
node 84 1 0 0
node 136 1 0 0
node 172 1 0 0
gene 3 1 6 -0.0607722 0 1 -0.0607722 1
gene 3 2 6 0.28094 0 2 0.28094 1
gene 3 3 6 -3.12591 0 3 -3.12591 1
gene 3 4 6 1.66621 0 4 1.66621 1
gene 3 5 6 -3.44579 0 5 -3.44579 1
gene 3 1 7 7.19813 0 6 7.19813 1
gene 2 2 7 0.272315 0 7 0.272315 1
gene 1 3 7 5.05972 0 8 5.05972 1
gene 3 4 7 1.17272 0 9 1.17272 1
gene 1 5 7 -1.58399 0 10 -1.58399 1
gene 1 6 7 3.99335 0 16 3.99335 0
gene 3 5 14 -0.314594 0 26 -0.314594 1
gene 3 14 6 -2.87522 0 27 -2.87522 1
gene 3 3 14 0.340906 0 54 0.340906 1
gene 3 4 24 2.53116 0 55 2.53116 1
gene 3 24 6 -0.371732 0 56 -0.28425 0
gene 1 1 14 3.31075 0 78 3.31075 1
gene 3 4 14 -0.185937 0 192 -0.185937 1
gene 2 24 14 -1.43735 0 208 -1.43735 1
gene 1 6 72 -0.95663 0 220 -0.95663 1
gene 1 72 7 3.96456 0 221 3.37737 1
gene 3 24 84 -1.57817 0 263 -1.57817 1
gene 3 84 6 -0.455654 0 264 -0.368171 1
gene 1 14 72 -1.10957 0 381 -1.10957 1
gene 3 2 72 1.37062 0 458 1.37062 1
gene 2 3 24 -3.60029 0 483 -3.60029 0
gene 1 6 136 1.66018 0 492 1.41018 1
gene 1 136 7 3.02037 0 493 3.02037 1
gene 2 3 172 1.58292 0 625 1.08292 1
gene 2 172 24 -2.7804 0 626 -1.3902 1
gene 3 5 172 0.702881 0 733 0.702881 1
genomeend 2

/* Organism #3 Fitness: 9 Error: 0 */
genomestart 3
trait 1 0.1 0 0 0 0 0 0 0 
trait 2 0.2 0 0 0 0 0 0 0 
trait 3 0.3 0 0 0 0 0 0 0 
node 1 1 1 3
node 2 1 1 1
node 3 2 1 1
node 4 2 1 1
node 5 2 1 1
node 6 3 0 2
node 7 3 0 2
node 14 1 0 0
node 24 1 0 0
node 72 1 0 0
node 84 1 0 0
node 136 1 0 0
node 172 1 0 0
gene 3 1 6 0.040555 0 1 0.040555 1
gene 3 2 6 1.28519 0 2 1.28519 1
gene 3 3 6 -1.37335 0 3 -1.37335 1
gene 3 4 6 0.000319449 0 4 0.000319449 1
gene 3 5 6 -6.12993 0 5 -6.12993 1
gene 3 1 7 6.71201 0 6 6.71201 1
gene 2 2 7 -1.11845 0 7 -1.11845 1
gene 1 3 7 8 0 8 8 1
gene 3 4 7 2.32303 0 9 2.32303 1
gene 1 5 7 0.61153 0 10 0.61153 1
gene 1 6 7 2.30999 0 16 2.30999 0
gene 3 5 14 -1.01856 0 26 -1.01856 1
gene 3 14 6 0.204175 0 27 0.204175 1
gene 3 3 14 -2.30397 0 54 -2.30397 1
gene 3 4 24 1.1797 0 55 1.1797 1
gene 3 24 6 1.53524 0 56 1.53524 0
gene 1 1 14 2.86763 0 78 2.86763 1
gene 3 4 14 -0.0552077 0 192 -0.0552077 1
gene 2 24 14 2.08041 0 208 2.08041 1
gene 1 6 72 -0.283097 0 220 -0.283097 1
gene 1 72 7 5.1584 0 221 5.1584 1
gene 3 24 84 -0.691123 0 263 -0.691123 1
gene 3 84 6 2.65138 0 264 2.65138 1
gene 1 14 72 -1.39884 0 381 -1.39884 1
gene 3 2 72 3.66535 0 458 3.66535 1
gene 2 3 24 -2.5245 0 483 -2.5245 0
gene 1 6 136 -1.28165 0 492 -1.28165 1
gene 1 136 7 1.3202 0 493 1.3202 1
gene 2 3 172 -0.300357 0 625 -0.300357 1
gene 2 172 24 -1.89583 0 626 -1.89583 1
genomeend 3

/* Organism #4 Fitness: 22 Error: 0 */
genomestart 4
trait 1 0.1 0 0 0 0 0 0 0 
trait 2 0.2 0 0 0 0 0 0 0 
trait 3 0.3 0 0 0 0 0 0 0 
node 1 1 1 3
node 2 1 1 1
node 3 2 1 1
node 4 2 1 1
node 5 2 1 1
node 6 3 0 2
node 7 3 0 2
node 14 1 0 0
node 24 1 0 0
node 72 1 0 0
node 84 1 0 0
node 136 1 0 0
node 172 1 0 0
gene 3 1 6 -0.503036 0 1 -0.503036 1
gene 3 2 6 1.77157 0 2 1.77157 1
gene 3 3 6 -1.04922 0 3 -1.04922 1
gene 3 4 6 1.72569 0 4 1.72569 1
gene 3 5 6 -1.50951 0 5 -1.50951 1
gene 3 1 7 6.26644 0 6 6.26644 1
gene 2 2 7 -0.775249 0 7 -0.775249 1
gene 1 3 7 6.38868 0 8 6.38868 1
gene 3 4 7 -0.657885 0 9 -0.657885 1
gene 1 5 7 -1.93851 0 10 -1.93851 1
gene 1 6 7 6.02008 0 16 6.02008 1
gene 3 5 14 -1.34437 0 26 -1.34437 1
gene 3 14 6 -1.17291 0 27 -1.17291 1
gene 3 3 14 -0.115638 0 54 -0.115638 1
gene 3 4 24 2.65933 0 55 2.65933 1
gene 3 24 6 2.53779 0 56 2.53779 0
gene 1 1 14 4.04556 0 78 4.04556 1
gene 3 4 14 1.23809 0 192 1.23809 1
gene 2 24 14 -0.850991 0 208 -0.850991 1
gene 1 6 72 -1.88096 0 220 -1.88096 1
gene 1 72 7 3.77468 0 221 3.77468 1
gene 3 24 84 0.952552 0 263 0.952552 1
gene 3 84 6 -2.56264 0 264 -2.56264 1
gene 1 14 72 -1.2385 0 381 -1.2385 1
gene 3 2 72 0.85662 0 458 0.85662 1
gene 2 3 24 -0.424873 0 483 -0.424873 0
gene 1 6 136 1.86717 0 492 1.86717 1
gene 1 136 7 3.6881 0 493 3.6881 1
gene 2 3 172 1 0 625 1 1
gene 2 172 24 -2.7804 0 626 -2.7804 1
gene 3 5 172 -0.152711 0 733 -0.152711 1
genomeend 4

/* Organism #5 Fitness: 107 Error: 0 */
genomestart 5
trait 1 0.1 0 0 0 0 0 0 0 
trait 2 0.2 0 0 0 0 0 0 0 
trait 3 0.3 0 0 0 0 0 0 0 
node 1 1 1 3
node 2 1 1 1
node 3 2 1 1
node 4 2 1 1
node 5 2 1 1
node 6 3 0 2
node 7 3 0 2
node 14 1 0 0
node 24 1 0 0
node 72 1 0 0
node 84 1 0 0
node 136 1 0 0
node 172 1 0 0
gene 3 1 6 -0.0504409 0 1 -0.0504409 1
gene 3 2 6 0.013041 0 2 0.013041 1
gene 3 3 6 -2.20346 0 3 -2.20346 1
gene 3 4 6 0.933945 0 4 0.933945 1
gene 3 5 6 -2.35839 0 5 -2.35839 1
gene 3 1 7 6.39625 0 6 6.39625 1
gene 2 2 7 0.692755 0 7 0.692755 1
gene 1 3 7 4.12971 0 8 4.12971 1
gene 3 4 7 0.0669252 0 9 0.0669252 1
gene 1 5 7 -0.443433 0 10 -0.443433 1
gene 1 6 7 3.52948 0 16 3.52948 0
gene 3 5 14 -1.51053 0 26 -1.51053 1
gene 3 14 6 -2.22022 0 27 -2.22022 1
gene 3 3 14 -0.276288 0 54 -0.276288 1
gene 3 4 24 2.17029 0 55 2.17029 1
gene 3 24 6 0.39111 0 56 0.566075 0
gene 1 1 14 2.50693 0 78 2.50693 1
gene 3 4 14 0.669058 0 192 0.669058 1
gene 2 24 14 -0.63301 0 208 -0.63301 1
gene 1 6 72 -0.472683 0 220 -0.472683 1
gene 1 72 7 2.77073 0 221 1.59634 1
gene 3 24 84 -0.691123 0 263 -0.691123 1
gene 3 84 6 -1.44325 0 264 -1.26829 1
gene 1 14 72 -0.815429 0 381 -0.815429 1
gene 3 2 72 0.594286 0 458 0.594286 1
gene 2 3 24 -2.7804 0 483 -2.7804 0
gene 1 6 136 1.66018 0 492 1.16018 1
gene 1 136 7 3.6881 0 493 3.6881 1
gene 2 3 172 1 0 625 0 1
gene 2 172 24 -2.7804 0 626 0 1
genomeend 5

/* Organism #6 Fitness: 7 Error: 0 */
genomestart 6
trait 1 0.1 0 0 0 0 0 0 0 
trait 2 0.2 0 0 0 0 0 0 0 
trait 3 0.3 0 0 0 0 0 0 0 
node 1 1 1 3
node 2 1 1 1
node 3 2 1 1
node 4 2 1 1
node 5 2 1 1
node 6 3 0 2
node 7 3 0 2
node 14 1 0 0
node 24 1 0 0
node 72 1 0 0
node 84 1 0 0
node 136 1 0 0
node 172 1 0 0
gene 3 1 6 -1.09025 0 1 -1.09025 1
gene 3 2 6 -0.763706 0 2 -0.763706 1
gene 3 3 6 0.930751 0 3 0.930751 1
gene 3 4 6 0.594722 0 4 0.594722 1
gene 3 5 6 -1.72608 0 5 -1.72608 1
gene 3 1 7 7.3132 0 6 7.3132 1
gene 2 2 7 -0.865516 0 7 -0.865516 1
gene 1 3 7 4.13485 0 8 4.13485 1
gene 3 4 7 0.0669252 0 9 0.0669252 1
gene 1 5 7 -2.24605 0 10 -2.24605 1
gene 1 6 7 5.62316 0 16 5.62316 1
gene 3 5 14 -0.889701 0 26 -0.889701 1
gene 3 14 6 0.0833921 0 27 0.0833921 1
gene 3 3 14 -0.137243 0 54 -0.137243 1
gene 3 4 24 -1.50015 0 55 -1.50015 1
gene 3 24 6 2.79005 0 56 2.79005 0
gene 1 1 14 4.04944 0 78 4.04944 1
gene 3 4 14 3.09641 0 192 3.09641 1
gene 2 24 14 -1.5427 0 208 -1.5427 1
gene 1 6 72 -1.49859 0 220 -1.49859 1
gene 1 72 7 2.95218 0 221 2.95218 1
gene 3 24 84 1.06608 0 263 1.06608 1
gene 3 84 6 -2.60131 0 264 -2.60131 1
gene 1 14 72 0.634906 0 381 0.634906 1
gene 3 2 72 -1.12343 0 458 -1.12343 1
gene 2 3 24 -2.17061 0 483 -2.17061 0
gene 1 6 136 1.01946 0 492 1.01946 1
gene 1 136 7 2.00299 0 493 2.00299 1
gene 2 3 172 -1.36176 0 625 -1.36176 1
gene 2 172 24 -4.17649 0 626 -4.17649 1
gene 1 1 136 1.23318 0 741 1.23318 1
gene 3 3 84 -1.03958 0 761 -1.03958 1
genomeend 6

/* Organism #7 Fitness: 27 Error: 0 */
genomestart 7
trait 1 0.1 0 0 0 0 0 0 0 
trait 2 0.2 0 0 0 0 0 0 0 
trait 3 0.3 0 0 0 0 0 0 0 
node 1 1 1 3
node 2 1 1 1
node 3 2 1 1
node 4 2 1 1
node 5 2 1 1
node 6 3 0 2
node 7 3 0 2
node 14 1 0 0
node 24 1 0 0
node 72 1 0 0
node 84 1 0 0
node 136 1 0 0
node 172 1 0 0
gene 3 1 6 0.542276 0 1 0.542276 1
gene 3 2 6 -2.16803 0 2 -2.16803 1
gene 3 3 6 -3.89291 0 3 -3.89291 1
gene 3 4 6 1.51917 0 4 1.51917 1
gene 3 5 6 -3.34139 0 5 -3.34139 1
gene 3 1 7 5.551 0 6 5.551 1
gene 2 2 7 0.0486583 0 7 0.0486583 1
gene 1 3 7 2.92628 0 8 2.92628 1
gene 3 4 7 1.35921 0 9 1.35921 1
gene 1 5 7 0.58312 0 10 0.58312 1
gene 1 6 7 5.97185 0 16 5.97185 0
gene 3 5 14 0.670164 0 26 0.670164 1
gene 3 14 6 -2.79122 0 27 -2.79122 1
gene 3 3 14 -0.432131 0 54 -0.432131 1
gene 3 4 24 4.35714 0 55 4.35714 1
gene 3 24 6 0.016616 0 56 0.016616 0
gene 1 1 14 2.37641 0 78 2.37641 1
gene 3 4 14 -0.879003 0 192 -0.879003 1
gene 2 24 14 0.687548 0 208 0.687548 1
gene 1 6 72 0.219066 0 220 0.219066 1
gene 1 72 7 0.944892 0 221 0.944892 1
gene 3 24 84 0.0431856 0 263 0.0431856 1
gene 3 84 6 0.53105 0 264 0.53105 1
gene 1 14 72 -1.68029 0 381 -1.68029 1
gene 3 2 72 2.82022 0 458 2.82022 1
gene 2 3 24 -2.93624 0 483 -2.93624 0
gene 1 6 136 0.405068 0 492 0.405068 1
gene 1 136 7 3.6881 0 493 3.6881 1
gene 2 3 172 -0.526947 0 625 -0.526947 1
gene 2 172 24 -2.7804 0 626 -2.7804 1
gene 3 5 172 0.702881 0 733 0.702881 1
genomeend 7

/* Organism #8 Fitness: 7 Error: 0 */
genomestart 8
trait 1 0.1 0 0 0 0 0 0 0 
trait 2 0.2 0 0 0 0 0 0 0 
trait 3 0.3 0 0 0 0 0 0 0 
node 1 1 1 3
node 2 1 1 1
node 3 2 1 1
node 4 2 1 1
node 5 2 1 1
node 6 3 0 2
node 7 3 0 2
node 14 1 0 0
node 24 1 0 0
node 72 1 0 0
node 84 1 0 0
node 136 1 0 0
node 172 1 0 0
gene 3 1 6 -0.811817 0 1 -0.811817 1
gene 3 2 6 0.196894 0 2 0.196894 1
gene 3 3 6 -0.367242 0 3 -0.367242 1
gene 3 4 6 3.17524 0 4 3.17524 1
gene 3 5 6 -4.63246 0 5 -4.63246 1
gene 3 1 7 4.7163 0 6 4.7163 1
gene 2 2 7 2.51386 0 7 2.51386 1
gene 1 3 7 4.76178 0 8 4.76178 1
gene 3 4 7 -2.07489 0 9 -2.07489 1
gene 1 5 7 -2.07439 0 10 -2.07439 1
gene 1 6 7 1.89003 0 16 1.89003 0
gene 3 5 14 -1.94958 0 26 -1.94958 1
gene 3 14 6 -4.35191 0 27 -4.35191 1
gene 3 3 14 -0.0831747 0 54 -0.0831747 1
gene 3 4 24 3.18551 0 55 3.18551 1
gene 3 24 6 -1.13245 0 56 -1.13245 0
gene 1 1 14 1.32023 0 78 1.32023 1
gene 3 4 14 -1.68759 0 192 -1.68759 1
gene 2 24 14 -0.317206 0 208 -0.317206 1
gene 1 6 72 -0.958823 0 220 -0.958823 1
gene 1 72 7 1.97937 0 221 1.97937 1
gene 3 24 84 -0.195379 0 263 -0.195379 1
gene 3 84 6 0.983088 0 264 0.983088 1
gene 1 14 72 -0.848419 0 381 -0.848419 1
gene 3 2 72 -1.25513 0 458 -1.25513 1
gene 2 3 24 -2.38878 0 483 -2.38878 0
gene 1 6 136 3.42373 0 492 3.42373 1
gene 1 136 7 3.6881 0 493 3.6881 1
gene 2 3 172 -1.22541 0 625 -1.22541 1
gene 2 172 24 -2.7804 0 626 -2.7804 1
gene 3 5 172 1.65301 0 733 1.65301 1
genomeend 8

/* Organism #9 Fitness: 7 Error: 0 */
genomestart 9
trait 1 0.1 0 0 0 0 0 0 0 
trait 2 0.2 0 0 0 0 0 0 0 
trait 3 0.3 0 0 0 0 0 0 0 
node 1 1 1 3
node 2 1 1 1
node 3 2 1 1
node 4 2 1 1
node 5 2 1 1
node 6 3 0 2
node 7 3 0 2
node 14 1 0 0
node 24 1 0 0
node 72 1 0 0
node 84 1 0 0
node 136 1 0 0
node 172 1 0 0
gene 3 1 6 -0.611054 0 1 -0.611054 1
gene 3 2 6 -2.38807 0 2 -2.38807 1
gene 3 3 6 0.0899766 0 3 0.0899766 1
gene 3 4 6 1.47689 0 4 1.47689 1
gene 3 5 6 -3.41102 0 5 -3.41102 1
gene 3 1 7 5.35721 0 6 5.35721 1
gene 2 2 7 2.90382 0 7 2.90382 1
gene 1 3 7 4.14568 0 8 4.14568 1
gene 3 4 7 2.19985 0 9 2.19985 1
gene 1 5 7 -2.80297 0 10 -2.80297 1
gene 1 6 7 4.45529 0 16 4.45529 0
gene 3 5 14 0.391998 0 26 0.391998 1
gene 3 14 6 -0.0309027 0 27 -0.0309027 1
gene 3 3 14 -0.993897 0 54 -0.993897 1
gene 3 4 24 4.57841 0 55 4.57841 1
gene 3 24 6 -1.19124 0 56 -1.19124 0
gene 1 1 14 2.76414 0 78 2.76414 1
gene 3 4 14 2.202 0 192 2.202 1
gene 2 24 14 -1.08109 0 208 -1.08109 1
gene 1 6 72 -2.80818 0 220 -2.80818 1
gene 1 72 7 0.429754 0 221 0.429754 1
gene 3 24 84 -2.94248 0 263 -2.94248 1
gene 3 84 6 0.263866 0 264 0.263866 1
gene 1 14 72 0.607762 0 381 0.607762 1
gene 3 2 72 -0.0867378 0 458 -0.0867378 1
gene 2 3 24 1.03727 0 483 1.03727 0
gene 1 6 136 1.66018 0 492 1.66018 1
gene 1 136 7 0.250397 0 493 0.250397 1
gene 2 3 172 0.658508 0 625 0.658508 1
gene 2 172 24 -1.96274 0 626 -1.96274 1
gene 1 1 72 -0.29464 0 739 -0.29464 1
genomeend 9

/* Organism #10 Fitness: 23 Error: 0 */
genomestart 10
trait 1 0.1 0 0 0 0 0 0 0 
trait 2 0.2 0 0 0 0 0 0 0 
trait 3 0.3 0 0 0 0 0 0 0 
node 1 1 1 3
node 2 1 1 1
node 3 2 1 1
node 4 2 1 1
node 5 2 1 1
node 6 3 0 2
node 7 3 0 2
node 14 1 0 0
node 24 1 0 0
node 72 1 0 0
node 84 1 0 0
node 136 1 0 0
node 172 1 0 0
gene 3 1 6 -0.128797 0 1 -0.128797 1
gene 3 2 6 -1.55576 0 2 -1.55576 1
gene 3 3 6 -1.20634 0 3 -1.20634 1
gene 3 4 6 -1.44848 0 4 -1.44848 1
gene 3 5 6 -0.118753 0 5 -0.118753 1
gene 3 1 7 6.59684 0 6 6.59684 1
gene 2 2 7 1.92044 0 7 1.92044 1
gene 1 3 7 5.65997 0 8 5.65997 1
gene 3 4 7 -1.03564 0 9 -1.03564 1
gene 1 5 7 -1.77205 0 10 -1.77205 1
gene 1 6 7 2.34972 0 16 2.34972 1
gene 3 5 14 -0.321456 0 26 -0.321456 1
gene 3 14 6 -3.28603 0 27 -3.28603 1
gene 3 3 14 1.099 0 54 1.099 1
gene 3 4 24 2.63108 0 55 2.63108 1
gene 3 24 6 0.494714 0 56 0.494714 0
gene 1 1 14 4.20377 0 78 4.20377 1
gene 3 4 14 -0.932184 0 192 -0.932184 1
gene 2 24 14 0.248242 0 208 0.248242 1
gene 1 6 72 1.34101 0 220 1.34101 1
gene 1 72 7 3.95382 0 221 3.95382 1
gene 3 24 84 -0.986083 0 263 -0.986083 1
gene 3 84 6 -0.152562 0 264 -0.152562 1
gene 1 14 72 -1.74362 0 381 -1.74362 1
gene 3 2 72 1.28022 0 458 1.28022 1
gene 2 3 24 -4.07076 0 483 -4.07076 0
gene 1 6 136 0.322566 0 492 0.322566 1
gene 1 136 7 3.6881 0 493 3.6881 1
gene 2 3 172 1 0 625 1 1
gene 2 172 24 -4.97724 0 626 -4.97724 1
genomeend 10

/* Species #36 : (Size 15) (AF 30.2667) (Age 17)  */


/* Organism #11 Fitness: 129 Error: 0 */
genomestart 11
trait 1 0.1 0.454311 0 0 0 0.40762 0 0 
trait 2 0.2 0 0 0 0 0 0 0 
trait 3 0.3 0 0 0 0 0 0 0 
node 1 1 1 3
node 2 1 1 1
node 3 2 1 1
node 4 2 1 1
node 5 2 1 1
node 6 3 0 2
node 7 3 0 2
node 14 1 0 0
node 24 1 0 0
node 72 1 0 0
node 84 1 0 0
node 132 1 0 0
node 149 1 0 0
gene 3 1 6 -0.0263076 0 1 -0.0263076 1
gene 3 2 6 -1.03005 0 2 -1.03005 1
gene 3 3 6 -1.97928 0 3 -1.97928 1
gene 3 4 6 0.0470141 0 4 0.0470141 0
gene 3 5 6 -2.91502 0 5 -2.91502 1
gene 3 1 7 4.64276 0 6 4.64276 1
gene 2 2 7 0.299324 0 7 0.299324 1
gene 1 3 7 3.20512 0 8 3.20512 1
gene 3 4 7 0.504805 0 9 0.504805 0
gene 1 5 7 0.332292 0 10 0.332292 0
gene 1 6 7 2.34877 0 16 2.34877 0
gene 3 5 14 -0.548872 0 26 -0.548872 1
gene 3 14 6 -2.63546 0 27 -2.63546 1
gene 3 3 14 0.463239 0 54 0.463239 1
gene 3 4 24 0.815871 0 55 0.815871 1
gene 3 24 6 -0.34993 0 56 0 0
gene 1 1 14 0.973636 0 78 0.973636 1
gene 3 4 14 -0.63193 0 192 -0.63193 1
gene 2 24 14 -0.532311 0 208 -0.532311 1
gene 1 6 72 1 0 220 0 1
gene 1 72 7 2.34877 0 221 0 1
gene 3 24 84 0.08913 0 263 0.08913 1
gene 3 84 6 -0.34993 0 264 0 1
gene 1 14 72 -0.647237 0 381 -0.647237 1
gene 2 24 7 -0.53841 0 457 -0.53841 1
gene 3 4 132 1 0 477 0 1
gene 3 132 7 0.504805 0 478 0 1
gene 1 132 6 -0.0185902 0 489 -0.0185902 0
gene 1 132 149 1 0 543 0 1
gene 1 149 6 -0.0185902 0 544 0 1
gene 3 14 132 -0.496703 0 746 -0.496703 1
genomeend 11

/* Organism #12 Fitness: 7 Error: 0 */
genomestart 12
trait 1 0.1 0.454311 0 0 0 0.40762 0 0 
trait 2 0.2 0 0 0 0 0 0 0 
trait 3 0.3 0 0 0 0 0 0 0 
node 1 1 1 3
node 2 1 1 1
node 3 2 1 1
node 4 2 1 1
node 5 2 1 1
node 6 3 0 2
node 7 3 0 2
node 14 1 0 0
node 24 1 0 0
node 72 1 0 0
node 84 1 0 0
node 132 1 0 0
node 149 1 0 0
gene 3 1 6 -0.944666 0 1 -0.944666 1
gene 3 2 6 -1.03005 0 2 -1.03005 1
gene 3 3 6 -0.840929 0 3 -0.840929 1
gene 3 4 6 0.0561031 0 4 0.0561031 1
gene 3 5 6 -3.15323 0 5 -3.15323 1
gene 3 1 7 6.09004 0 6 6.09004 1
gene 2 2 7 -0.790915 0 7 -0.790915 1
gene 1 3 7 0.834739 0 8 0.834739 1
gene 3 4 7 -1.43732 0 9 -1.43732 0
gene 1 5 7 0.592484 0 10 0.592484 0
gene 1 6 7 4.13326 0 16 4.13326 0
gene 3 5 14 0.162716 0 26 0.162716 1
gene 3 14 6 -0.351213 0 27 -0.351213 1
gene 3 3 14 -1.33764 0 54 -1.33764 1
gene 3 4 24 1.28599 0 55 1.28599 1
gene 3 24 6 2.14908 0 56 2.14908 0
gene 1 1 14 0.394353 0 78 0.394353 1
gene 3 4 14 1.41594 0 192 1.41594 1
gene 2 24 14 -2.28364 0 208 -2.28364 1
gene 1 6 72 0.342849 0 220 0.342849 1
gene 1 72 7 3.61767 0 221 3.61767 1
gene 3 24 84 0.08913 0 263 0.08913 1
gene 3 84 6 1.34485 0 264 1.34485 1
gene 1 14 72 -2.85872 0 381 -2.85872 1
gene 2 24 7 2.37791 0 457 2.37791 1
gene 3 4 132 -1.06729 0 477 -1.06729 1
gene 3 132 7 -0.174879 0 478 -0.174879 1
gene 1 132 6 -0.0185902 0 489 -0.0185902 0
gene 1 132 149 0.459982 0 543 0.459982 1
gene 1 149 6 -1.16033 0 544 -1.16033 1
genomeend 12

/* Organism #13 Fitness: 39 Error: 0 */
genomestart 13
trait 1 0.1 0.454311 0 0 0 0.40762 0 0 
trait 2 0.2 0 0 0 0 0 0 0 
trait 3 0.3 0 0 0 0 0 0 0 
node 1 1 1 3
node 2 1 1 1
node 3 2 1 1
node 4 2 1 1
node 5 2 1 1
node 6 3 0 2
node 7 3 0 2
node 14 1 0 0
node 24 1 0 0
node 72 1 0 0
node 84 1 0 0
node 132 1 0 0
node 149 1 0 0
gene 3 1 6 0.222775 0 1 0.222775 1
gene 3 2 6 -1.03005 0 2 -1.03005 1
gene 3 3 6 -1.42584 0 3 -1.42584 1
gene 3 4 6 0.741113 0 4 0.741113 0
gene 3 5 6 -2.42523 0 5 -2.42523 1
gene 3 1 7 4.64276 0 6 4.64276 1
gene 2 2 7 1.07108 0 7 1.07108 1
gene 1 3 7 3.20512 0 8 3.20512 1
gene 3 4 7 -1.50685 0 9 -1.50685 0
gene 1 5 7 0.0240757 0 10 0.0240757 0
gene 1 6 7 2.34877 0 16 2.34877 0
gene 3 5 14 -0.548872 0 26 -0.548872 1
gene 3 14 6 -2.97124 0 27 -2.97124 1
gene 3 3 14 0.463239 0 54 0.463239 1
gene 3 4 24 0.399716 0 55 0.399716 1
gene 3 24 6 1.94973 0 56 1.94973 0
gene 1 1 14 0.973636 0 78 0.973636 1
gene 3 4 14 1.15108 0 192 1.15108 1
gene 2 24 14 -0.532311 0 208 -0.532311 1
gene 1 6 72 1 0 220 0 1
gene 1 72 7 2.34877 0 221 0 1
gene 3 24 84 0.08913 0 263 0.08913 1
gene 3 84 6 -0.10324 0 264 -0.10324 1
gene 1 14 72 -1.12115 0 381 -1.12115 1
gene 2 24 7 -2.92208 0 457 -2.92208 1
gene 3 4 132 0.791532 0 477 0.791532 1
gene 3 132 7 0.504805 0 478 0.504805 1
gene 1 132 6 -0.0185902 0 489 -0.0185902 0
gene 1 132 149 0.392686 0 543 0.392686 1
gene 1 149 6 -0.0185902 0 544 0 1
gene 3 149 14 -0.877438 0 752 -0.877438 1
genomeend 13

/* Organism #14 Fitness: 8 Error: 0 */
genomestart 14
trait 1 0.1 0.454311 0 0 0 0.40762 0 0 
trait 2 0.2 0 0 0 0 0 0 0 
trait 3 0.3 0 0 0 0 0 0 0 
node 1 1 1 3
node 2 1 1 1
node 3 2 1 1
node 4 2 1 1
node 5 2 1 1
node 6 3 0 2
node 7 3 0 2
node 14 1 0 0
node 24 1 0 0
node 72 1 0 0
node 84 1 0 0
node 132 1 0 0
node 149 1 0 0
gene 3 1 6 1.44297 0 1 1.44297 1
gene 3 2 6 -2.21076 0 2 -2.21076 1
gene 3 3 6 -3.18376 0 3 -3.18376 1
gene 3 4 6 2.41804 0 4 2.41804 0
gene 3 5 6 -0.467068 0 5 -0.467068 1
gene 3 1 7 2.53462 0 6 2.53462 1
gene 2 2 7 1.27314 0 7 1.27314 1
gene 1 3 7 5.04276 0 8 5.04276 1
gene 3 4 7 -1.68525 0 9 -1.68525 0
gene 1 5 7 -1.41582 0 10 -1.41582 0
gene 1 6 7 1.6854 0 16 1.6854 0
gene 3 5 14 1.13862 0 26 1.13862 1
gene 3 14 6 -0.486153 0 27 -0.486153 1
gene 3 3 14 1.98372 0 54 1.98372 1
gene 3 4 24 2.26392 0 55 2.26392 1
gene 3 24 6 0.522993 0 56 0.522993 0
gene 1 1 14 2.59483 0 78 2.59483 1
gene 3 4 14 -1.59119 0 192 -1.59119 1
gene 2 24 14 -0.447378 0 208 -0.447378 1
gene 1 6 72 2.95296 0 220 2.95296 1
gene 1 72 7 2.96653 0 221 2.96653 1
gene 3 24 84 2.04129 0 263 2.04129 1
gene 3 84 6 -2.81098 0 264 -2.81098 1
gene 1 14 72 -2.10132 0 381 -2.10132 1
gene 2 24 7 -2.96971 0 457 -2.96971 1
gene 3 4 132 1.08801 0 477 1.08801 1
gene 3 132 7 -1.49253 0 478 -1.49253 1
gene 1 132 6 -0.607407 0 489 -0.607407 0
gene 1 132 149 2.80618 0 543 2.80618 1
gene 1 149 6 -0.0185902 0 544 -0.0185902 1
genomeend 14

/* Organism #15 Fitness: 15 Error: 0 */
genomestart 15
trait 1 0.1 0.454311 0 0 0 0.40762 0 0 
trait 2 0.2 0 0 0 0 0 0 0 
trait 3 0.3 0 0 0 0 0 0 0 
node 1 1 1 3
node 2 1 1 1
node 3 2 1 1
node 4 2 1 1
node 5 2 1 1
node 6 3 0 2
node 7 3 0 2
node 14 1 0 0
node 24 1 0 0
node 72 1 0 0
node 84 1 0 0
node 132 1 0 0
node 149 1 0 0
gene 3 1 6 2.49568 0 1 2.49568 1
gene 3 2 6 0.145168 0 2 0.145168 1
gene 3 3 6 -3.66392 0 3 -3.66392 1
gene 3 4 6 0.735753 0 4 0.735753 0
gene 3 5 6 -4.25091 0 5 -4.25091 1
gene 3 1 7 2.85352 0 6 2.85352 1
gene 2 2 7 -1.58297 0 7 -1.58297 1
gene 1 3 7 1.3086 0 8 1.3086 1
gene 3 4 7 -0.835471 0 9 -0.835471 0
gene 1 5 7 1.98425 0 10 1.98425 0
gene 1 6 7 3.97323 0 16 3.97323 0
gene 3 5 14 -2.78273 0 26 -2.78273 1
gene 3 14 6 -4.55709 0 27 -4.55709 1
gene 3 3 14 0.385201 0 54 0.385201 1
gene 3 4 24 0.525635 0 55 0.525635 1
gene 3 24 6 -0.0692841 0 56 -0.0692841 0
gene 1 1 14 1.08021 0 78 1.08021 1
gene 3 4 14 -0.975788 0 192 -0.975788 1
gene 2 24 14 0.536747 0 208 0.536747 1
gene 1 6 72 3.49997 0 220 3.49997 1
gene 1 72 7 -0.7398 0 221 -0.7398 1
gene 3 24 84 1.54029 0 263 1.54029 1
gene 3 84 6 -1.40203 0 264 -1.40203 1
gene 1 14 72 -1.6027 0 381 -1.6027 1
gene 2 24 7 0.20712 0 457 0.20712 1
gene 3 4 132 -0.763969 0 477 -0.763969 1
gene 3 132 7 -0.171809 0 478 -0.171809 1
gene 1 132 6 2.02733 0 489 2.02733 0
gene 1 132 149 2.03527 0 543 2.03527 1
gene 1 149 6 -0.553704 0 544 -0.553704 1
gene 3 4 84 -1.98324 0 738 -1.98324 1
genomeend 15

/* Organism #16 Fitness: 17 Error: 0 */
genomestart 16
trait 1 0.1 0.454311 0 0 0 0.40762 0 0 
trait 2 0.2 0 0 0 0 0 0 0 
trait 3 0.3 0 0 0 0 0 0 0 
node 1 1 1 3
node 2 1 1 1
node 3 2 1 1
node 4 2 1 1
node 5 2 1 1
node 6 3 0 2
node 7 3 0 2
node 14 1 0 0
node 24 1 0 0
node 72 1 0 0
node 84 1 0 0
node 132 1 0 0
node 149 1 0 0
gene 1 1 6 -2.0222 0 1 -2.0222 1
gene 3 2 6 1.0653 0 2 1.0653 1
gene 3 3 6 -1.87376 0 3 -1.87376 1
gene 3 4 6 1.99754 0 4 1.99754 0
gene 3 5 6 -2.69015 0 5 -2.69015 1
gene 3 1 7 2.92635 0 6 2.92635 1
gene 2 2 7 1.21925 0 7 1.21925 1
gene 1 3 7 1.46075 0 8 1.46075 1
gene 3 4 7 0.0565532 0 9 0.0565532 0
gene 1 5 7 -1.58993 0 10 -1.58993 0
gene 1 6 7 1.38189 0 16 1.38189 0
gene 3 5 14 -1.54934 0 26 -1.54934 1
gene 3 14 6 -3.06039 0 27 -3.06039 1
gene 3 3 14 0.189318 0 54 0.189318 1
gene 3 4 24 2.98911 0 55 2.98911 1
gene 3 24 6 1.97032 0 56 1.97032 0
gene 1 1 14 0.129771 0 78 0.129771 1
gene 3 4 14 -1.55561 0 192 -1.55561 1
gene 2 24 14 -2.4552 0 208 -2.4552 1
gene 1 6 72 1.18003 0 220 1.18003 1
gene 1 72 7 2.42569 0 221 2.42569 1
gene 3 24 84 -1.25342 0 263 -1.25342 1
gene 3 84 6 0.373187 0 264 0.373187 1
gene 1 14 72 -0.247529 0 381 -0.247529 1
gene 2 24 7 -2.98734 0 457 -2.98734 1
gene 3 4 132 1.56266 0 477 1.56266 1
gene 3 132 7 -1.61249 0 478 -1.61249 1
gene 1 132 6 -1.4144 0 489 -1.4144 0
gene 1 132 149 -0.0269433 0 543 -0.0269433 1
gene 1 149 6 -0.0185902 0 544 -0.0185902 1
gene 3 4 84 -0.293019 0 738 -0.293019 1
genomeend 16

/* Organism #17 Fitness: 13 Error: 0 */
genomestart 17
trait 1 0.1 0.454311 0 0 0 0.40762 0 0 
trait 2 0.2 0 0 0 0 0 0 0 
trait 3 0.3 0 0 0 0 0 0 0 
node 1 1 1 3
node 2 1 1 1
node 3 2 1 1
node 4 2 1 1
node 5 2 1 1
node 6 3 0 2
node 7 3 0 2
node 14 1 0 0
node 24 1 0 0
node 72 1 0 0
node 84 1 0 0
node 132 1 0 0
node 149 1 0 0
gene 3 1 6 -2.12134 0 1 -2.12134 1
gene 3 2 6 -2.60532 0 2 -2.60532 1
gene 3 3 6 -2.34611 0 3 -2.34611 1
gene 3 4 6 1.18423 0 4 1.18423 0
gene 3 5 6 -5.01436 0 5 -5.01436 1
gene 3 1 7 4.16443 0 6 4.16443 1
gene 2 2 7 -0.0106753 0 7 -0.0106753 1
gene 1 3 7 3.08199 0 8 3.08199 1
gene 3 4 7 1.68375 0 9 1.68375 0
gene 1 5 7 -1.68833 0 10 -1.68833 0
gene 1 6 7 0.825483 0 16 0.825483 0
gene 3 5 14 -0.97005 0 26 -0.97005 1
gene 3 14 6 -1.19401 0 27 -1.19401 1
gene 3 3 14 2.70085 0 54 2.70085 1
gene 3 4 24 2.07733 0 55 2.07733 1
gene 3 24 6 0.765151 0 56 0.765151 0
gene 1 1 14 -0.800195 0 78 -0.800195 1
gene 3 4 14 1.86524 0 192 1.86524 1
gene 2 24 14 -1.94794 0 208 -1.94794 1
gene 1 6 72 0.773978 0 220 0.773978 1
gene 1 72 7 4.39067 0 221 4.39067 1
gene 3 24 84 2.54658 0 263 2.54658 1
gene 3 84 6 0.644304 0 264 0.644304 1
gene 1 14 72 -2.33717 0 381 -2.33717 1
gene 2 24 7 0.401539 0 457 0.401539 1
gene 3 4 132 -0.173164 0 477 -0.173164 1
gene 3 132 7 0.504805 0 478 0.504805 1
gene 1 132 6 -0.0185902 0 489 -0.0185902 0
gene 1 132 149 1 0 543 1 1
gene 1 149 6 -0.0185902 0 544 -0.0185902 1
genomeend 17

/* Organism #18 Fitness: 106 Error: 0 */
genomestart 18
trait 1 0.1 0.454311 0 0 0 0.40762 0 0 
trait 2 0.2 0 0 0 0 0 0 0 
trait 3 0.3 0 0 0 0 0 0 0 
node 1 1 1 3
node 2 1 1 1
node 3 2 1 1
node 4 2 1 1
node 5 2 1 1
node 6 3 0 2
node 7 3 0 2
node 14 1 0 0
node 24 1 0 0
node 72 1 0 0
node 84 1 0 0
node 132 1 0 0
node 149 1 0 0
gene 3 1 6 -0.0263076 0 1 -0.0263076 1
gene 3 2 6 -1.03005 0 2 -1.03005 1
gene 3 3 6 -1.97928 0 3 -1.97928 1
gene 3 4 6 0.0470141 0 4 0.0470141 1
gene 3 5 6 -2.91502 0 5 -2.91502 1
gene 3 1 7 4.64276 0 6 4.64276 1
gene 2 2 7 0.299324 0 7 0.299324 1
gene 1 3 7 3.20512 0 8 3.20512 1
gene 3 4 7 0.504805 0 9 0.504805 1
gene 1 5 7 0.332292 0 10 0.332292 0
gene 1 6 7 2.34877 0 16 2.34877 0
gene 3 5 14 -0.548872 0 26 -0.548872 1
gene 3 14 6 -2.63546 0 27 -2.63546 1
gene 3 3 14 0.463239 0 54 0.463239 1
gene 3 4 24 0.815871 0 55 0.815871 1
gene 3 24 6 -0.34993 0 56 0 0
gene 1 1 14 0.973636 0 78 0.973636 1
gene 3 4 14 -0.63193 0 192 -0.63193 1
gene 2 24 14 -0.532311 0 208 -0.532311 1
gene 1 6 72 1 0 220 0 1
gene 1 72 7 2.34877 0 221 0 1
gene 3 24 84 0.08913 0 263 0.08913 1
gene 3 84 6 -0.34993 0 264 0 1
gene 1 14 72 -0.647237 0 381 -0.647237 1
gene 2 24 7 -0.53841 0 457 -0.53841 1
gene 3 4 132 1 0 477 0 1
gene 3 132 7 0.504805 0 478 0 1
gene 1 132 6 -0.0185902 0 489 -0.0185902 0
gene 1 132 149 1 0 543 0 1
gene 1 149 6 -0.0185902 0 544 0 1
gene 2 84 7 -0.20995 0 742 0 1
genomeend 18

/* Organism #19 Fitness: 17 Error: 0 */
genomestart 19
trait 1 0.1 0.454311 0 0 0 0.40762 0 0 
trait 2 0.2 0 0 0 0 0 0 0 
trait 3 0.3 0 0 0 0 0 0 0 
node 1 1 1 3
node 2 1 1 1
node 3 2 1 1
node 4 2 1 1
node 5 2 1 1
node 6 3 0 2
node 7 3 0 2
node 14 1 0 0
node 24 1 0 0
node 72 1 0 0
node 84 1 0 0
node 132 1 0 0
node 149 1 0 0
gene 3 1 6 -2.28465 0 1 -2.28465 1
gene 3 2 6 -3.40914 0 2 -3.40914 1
gene 3 3 6 -4.04564 0 3 -4.04564 1
gene 3 4 6 -1.65502 0 4 -1.65502 0
gene 3 5 6 -2.6309 0 5 -2.6309 1
gene 3 1 7 2.93488 0 6 2.93488 1
gene 2 2 7 -0.436535 0 7 -0.436535 1
gene 1 3 7 1.40111 0 8 1.40111 1
gene 3 4 7 2.82033 0 9 2.82033 0
gene 1 5 7 0.598008 0 10 0.598008 0
gene 1 6 7 3.05089 0 16 3.05089 0
gene 3 5 14 1.263 0 26 1.263 1
gene 3 14 6 -2.06598 0 27 -2.06598 1
gene 3 3 14 -1.72963 0 54 -1.72963 1
gene 3 4 24 -0.714834 0 55 -0.714834 1
gene 3 24 6 -2.16676 0 56 -2.16676 1
gene 1 1 14 2.30006 0 78 2.30006 1
gene 3 4 14 1.84586 0 192 1.84586 1
gene 2 24 14 -0.194192 0 208 -0.194192 1
gene 1 6 72 -1.10818 0 220 -1.10818 1
gene 1 72 7 3.10189 0 221 3.10189 1
gene 3 24 84 -1.78885 0 263 -1.78885 1
gene 3 84 6 -0.441278 0 264 -0.441278 1
gene 1 14 72 -1.88659 0 381 -1.88659 1
gene 2 24 7 1.51136 0 457 1.51136 1
gene 3 4 132 1 0 477 1 1
gene 3 132 7 -1.92572 0 478 -1.92572 1
gene 1 132 6 1.33008 0 489 1.33008 0
gene 1 132 149 1 0 543 1 1
gene 1 149 6 -0.0185902 0 544 -0.0185902 1
genomeend 19

/* Organism #20 Fitness: 18 Error: 0 */
genomestart 20
trait 1 0.1 0.454311 0 0 0 0.40762 0 0 
trait 2 0.2 0 0 0 0 0 0 0 
trait 3 0.3 0 0 0 0 0 0 0 
node 1 1 1 3
node 2 1 1 1
node 3 2 1 1
node 4 2 1 1
node 5 2 1 1
node 6 3 0 2
node 7 3 0 2
node 14 1 0 0
node 24 1 0 0
node 72 1 0 0
node 84 1 0 0
node 132 1 0 0
node 149 1 0 0
gene 3 1 6 -0.824074 0 1 -0.824074 1
gene 3 2 6 -2.81773 0 2 -2.81773 1
gene 3 3 6 -3.60091 0 3 -3.60091 1
gene 3 4 6 -1.46602 0 4 -1.46602 0
gene 3 5 6 -3.87732 0 5 -3.87732 1
gene 3 1 7 3.74952 0 6 3.74952 1
gene 2 2 7 -0.0398301 0 7 -0.0398301 1
gene 1 3 7 2.36572 0 8 2.36572 1
gene 3 4 7 0.985204 0 9 0.985204 0
gene 1 5 7 1.0568 0 10 1.0568 0
gene 1 6 7 0.716634 0 16 0.716634 0
gene 3 5 14 -1.02285 0 26 -1.02285 1
gene 3 14 6 -0.694904 0 27 -0.694904 1
gene 3 3 14 0.713797 0 54 0.713797 1
gene 3 4 24 0.928707 0 55 0.928707 1
gene 3 24 6 2.0432 0 56 2.0432 0
gene 1 1 14 1.13174 0 78 1.13174 1
gene 3 4 14 -1.82733 0 192 -1.82733 1
gene 2 24 14 0.590916 0 208 0.590916 1
gene 1 6 72 1.58824 0 220 1.58824 1
gene 1 72 7 3.22063 0 221 3.22063 1
gene 3 24 84 1.40715 0 263 1.40715 1
gene 3 84 6 -0.668143 0 264 -0.668143 1
gene 1 14 72 0.878235 0 381 0.878235 1
gene 2 24 7 -1.84106 0 457 -1.84106 1
gene 3 4 132 1 0 477 1 1
gene 3 132 7 -0.0518188 0 478 -0.0518188 1
gene 1 132 6 -2.43613 0 489 -2.43613 0
gene 1 132 149 0.882961 0 543 0.882961 1
gene 1 149 6 0.765124 0 544 0.765124 1
gene 2 84 7 0.0087899 0 742 0.0087899 1
genomeend 20

/* Organism #21 Fitness: 18 Error: 0 */
genomestart 21
trait 1 0.1 0.454311 0 0 0 0.40762 0 0 
trait 2 0.2 0 0 0 0 0 0 0 
trait 3 0.3 0 0 0 0 0 0 0 
node 1 1 1 3
node 2 1 1 1
node 3 2 1 1
node 4 2 1 1
node 5 2 1 1
node 6 3 0 2
node 7 3 0 2
node 14 1 0 0
node 24 1 0 0
node 72 1 0 0
node 84 1 0 0
node 132 1 0 0
node 149 1 0 0
gene 3 1 6 -0.892601 0 1 -0.892601 1
gene 3 2 6 -1.03005 0 2 -1.03005 1
gene 3 3 6 -2.1626 0 3 -2.1626 1
gene 3 4 6 -0.638476 0 4 -0.638476 0
gene 3 5 6 -2.71249 0 5 -2.71249 1
gene 3 1 7 2.63949 0 6 2.63949 1
gene 2 2 7 -1.80999 0 7 -1.80999 1
gene 1 3 7 5.484 0 8 5.484 1
gene 3 4 7 0.62586 0 9 0.62586 0
gene 1 5 7 1.07257 0 10 1.07257 0
gene 1 6 7 4.59893 0 16 4.59893 0
gene 3 5 14 2.39635 0 26 2.39635 1
gene 3 14 6 1.69158 0 27 1.69158 1
gene 3 3 14 -2.32644 0 54 -2.32644 1
gene 3 4 24 -1.48815 0 55 -1.48815 1
gene 3 24 6 0.196794 0 56 0.196794 0
gene 1 1 14 -0.00834446 0 78 -0.00834446 1
gene 3 4 14 -0.308505 0 192 -0.308505 1
gene 2 24 14 -0.908149 0 208 -0.908149 1
gene 1 6 72 1.41438 0 220 1.41438 1
gene 1 72 7 2.34877 0 221 2.34877 1
gene 3 24 84 0.879727 0 263 0.879727 1
gene 3 84 6 1.10104 0 264 1.10104 1
gene 1 14 72 -2.72775 0 381 -2.72775 1
gene 2 24 7 -1.79471 0 457 -1.79471 1
gene 3 4 132 1.71797 0 477 1.71797 1
gene 3 132 7 2.45204 0 478 2.45204 1
gene 1 132 6 0.638653 0 489 0.638653 0
gene 1 132 149 -1.23817 0 543 -1.23817 1
gene 1 149 6 0.516256 0 544 0.516256 1
genomeend 21

/* Organism #22 Fitness: 9 Error: 0 */
genomestart 22
trait 1 0.1 0.454311 0 0.336824 0 0.40762 0 0 
trait 2 0.2 0 0 0 0 0 0 0 
trait 3 0.3 0 0 0 0 0 0 0 
node 1 1 1 3
node 2 1 1 1
node 3 2 1 1
node 4 2 1 1
node 5 2 1 1
node 6 3 0 2
node 7 3 0 2
node 14 1 0 0
node 24 1 0 0
node 72 1 0 0
node 84 1 0 0
node 132 1 0 0
node 149 1 0 0
gene 3 1 6 1.25642 0 1 1.25642 1
gene 3 2 6 -0.417466 0 2 -0.417466 1
gene 3 3 6 -3.05293 0 3 -3.05293 1
gene 3 4 6 -0.541035 0 4 -0.541035 0
gene 3 5 6 -3.18294 0 5 -3.18294 1
gene 3 1 7 4.52583 0 6 4.52583 1
gene 2 2 7 0.0327707 0 7 0.0327707 1
gene 1 3 7 1.1034 0 8 1.1034 1
gene 3 4 7 1.56853 0 9 1.56853 0
gene 1 5 7 0.390162 0 10 0.390162 0
gene 1 6 7 0.0775802 0 16 0.0775802 0
gene 3 5 14 -0.609618 0 26 -0.609618 1
gene 3 14 6 -2.58625 0 27 -2.58625 1
gene 3 3 14 1.96073 0 54 1.96073 1
gene 3 4 24 -0.478189 0 55 -0.478189 1
gene 3 24 6 -0.396082 0 56 -0.396082 0
gene 1 1 14 0.156398 0 78 0.156398 1
gene 3 4 14 -2.50032 0 192 -2.50032 1
gene 2 24 14 -0.524056 0 208 -0.524056 1
gene 1 6 72 0.410844 0 220 0.410844 1
gene 1 72 7 -1.11213 0 221 -1.11213 1
gene 3 24 84 1.30084 0 263 1.30084 1
gene 3 84 6 1.12953 0 264 1.12953 1
gene 1 14 72 -1.96455 0 381 -1.96455 1
gene 2 24 7 -2.54195 0 457 -2.54195 1
gene 3 4 132 -0.645469 0 477 -0.645469 1
gene 3 132 7 0.613044 0 478 0.613044 1
gene 1 132 6 -1.32629 0 489 -1.32629 0
gene 1 132 149 1 0 543 1 1
gene 1 149 6 0.729591 0 544 0.729591 1
gene 1 3 132 2.46732 0 748 2.46732 1
genomeend 22

/* Organism #23 Fitness: 25 Error: 0 */
genomestart 23
trait 1 0.1 0.454311 0 0 0 0.40762 0 0 
trait 2 0.2 0 0 0 0 0 0 0 
trait 3 0.3 0 0 0 0 0 0 0 
node 1 1 1 3
node 2 1 1 1
node 3 2 1 1
node 4 2 1 1
node 5 2 1 1
node 6 3 0 2
node 7 3 0 2
node 14 1 0 0
node 24 1 0 0
node 72 1 0 0
node 84 1 0 0
node 132 1 0 0
node 149 1 0 0
gene 3 1 6 0.763123 0 1 0.763123 1
gene 3 2 6 0.347317 0 2 0.347317 1
gene 3 3 6 -2.88939 0 3 -2.88939 1
gene 3 4 6 0.930855 0 4 0.930855 0
gene 3 5 6 -3.48891 0 5 -3.48891 1
gene 3 1 7 5.129 0 6 5.129 1
gene 2 2 7 -1.56497 0 7 -1.56497 1
gene 1 3 7 3.66661 0 8 3.66661 1
gene 3 4 7 1.71194 0 9 1.71194 0
gene 1 5 7 0.107301 0 10 0.107301 0
gene 1 6 7 0.661694 0 16 0.661694 0
gene 3 5 14 0.62137 0 26 0.62137 1
gene 3 14 6 -1.85657 0 27 -1.85657 1
gene 3 3 14 1.01172 0 54 1.01172 1
gene 3 4 24 3.04603 0 55 3.04603 1
gene 3 24 6 -1.17331 0 56 -1.17331 0
gene 1 1 14 0.922744 0 78 0.922744 1
gene 3 4 14 1.70726 0 192 1.70726 1
gene 2 24 14 0.688519 0 208 0.688519 1
gene 1 6 72 -0.0423481 0 220 -0.0423481 1
gene 1 72 7 -1.61133 0 221 -1.61133 1
gene 3 24 84 -1.24811 0 263 -1.24811 1
gene 3 84 6 -1.07806 0 264 -1.07806 1
gene 1 14 72 1.56444 0 381 1.56444 1
gene 2 24 7 -2.48491 0 457 -2.48491 1
gene 3 4 132 1 0 477 1 1
gene 3 132 7 0.504805 0 478 0.504805 1
gene 1 132 6 2.07881 0 489 2.07881 0
gene 1 132 149 1 0 543 1 1
gene 1 149 6 1.14902 0 544 1.14902 1
gene 2 84 7 -1.96947 0 742 -1.96947 1
genomeend 23

/* Organism #24 Fitness: 19 Error: 0 */
genomestart 24
trait 1 0.1 0.454311 0 0 0 0.40762 0 0 
trait 2 0.2 0 0 0 0 0 0 0 
trait 3 0.3 0 0 0 0 0 0 0 
node 1 1 1 3
node 2 1 1 1
node 3 2 1 1
node 4 2 1 1
node 5 2 1 1
node 6 3 0 2
node 7 3 0 2
node 14 1 0 0
node 24 1 0 0
node 72 1 0 0
node 84 1 0 0
node 132 1 0 0
node 149 1 0 0
gene 3 1 6 0.596039 0 1 0.596039 1
gene 3 2 6 -2.62585 0 2 -2.62585 1
gene 3 3 6 -3.74401 0 3 -3.74401 1
gene 3 4 6 0.637906 0 4 0.637906 0
gene 3 5 6 -2.50954 0 5 -2.50954 1
gene 3 1 7 6.45567 0 6 6.45567 1
gene 2 2 7 0.924045 0 7 0.924045 1
gene 1 3 7 4.43608 0 8 4.43608 1
gene 3 4 7 0.451326 0 9 0.451326 0
gene 1 5 7 -0.253258 0 10 -0.253258 0
gene 1 6 7 1.47418 0 16 1.47418 0
gene 3 5 14 -1.26118 0 26 -1.26118 1
gene 3 14 6 -2.62315 0 27 -2.62315 1
gene 3 3 14 -1.11089 0 54 -1.11089 1
gene 3 4 24 -1.91545 0 55 -1.91545 1
gene 3 24 6 -2.8244 0 56 -2.8244 0
gene 1 1 14 -0.368476 0 78 -0.368476 1
gene 3 4 14 -1.39707 0 192 -1.39707 1
gene 2 24 14 1.50104 0 208 1.50104 1
gene 1 6 72 1 0 220 1 1
gene 1 72 7 -0.0754442 0 221 -0.0754442 1
gene 3 24 84 -2.35782 0 263 -2.35782 1
gene 3 84 6 -1.42147 0 264 -1.42147 1
gene 1 14 72 0.923018 0 381 0.923018 1
gene 2 24 7 -2.2021 0 457 -2.2021 1
gene 3 4 132 3.01425 0 477 3.01425 1
gene 3 132 7 -1.88477 0 478 -1.88477 1
gene 1 132 6 -0.856664 0 489 -0.856664 0
gene 1 132 149 -0.910886 0 543 -0.910886 1
gene 1 149 6 0.724073 0 544 0.724073 1
gene 1 1 72 -0.0250258 0 739 -0.0250258 1
genomeend 24

/* Organism #25 Fitness: 14 Error: 0 */
genomestart 25
trait 1 0.1 0.454311 0 0 0 0.40762 0 0 
trait 2 0.2 0 0 0 0 0 0 0 
trait 3 0.3 0 0 0 0 0 0 0 
node 1 1 1 3
node 2 1 1 1
node 3 2 1 1
node 4 2 1 1
node 5 2 1 1
node 6 3 0 2
node 7 3 0 2
node 14 1 0 0
node 24 1 0 0
node 72 1 0 0
node 84 1 0 0
node 132 1 0 0
node 149 1 0 0
gene 3 1 6 0.38545 0 1 0.38545 1
gene 3 2 6 0.824476 0 2 0.824476 1
gene 3 3 6 -2.53476 0 3 -2.53476 1
gene 3 4 6 -1.19716 0 4 -1.19716 0
gene 3 5 6 -1.45649 0 5 -1.45649 1
gene 3 1 7 5.11894 0 6 5.11894 1
gene 2 2 7 2.66358 0 7 2.66358 1
gene 1 3 7 0.815966 0 8 0.815966 1
gene 3 4 7 -0.960151 0 9 -0.960151 0
gene 1 5 7 -0.28061 0 10 -0.28061 0
gene 1 6 7 1.14327 0 16 1.14327 0
gene 3 5 14 -1.26086 0 26 -1.26086 1
gene 3 14 6 -0.501299 0 27 -0.501299 1
gene 3 3 14 1.68183 0 54 1.68183 1
gene 3 4 24 1.80463 0 55 1.80463 1
gene 3 24 6 -2.42451 0 56 -2.42451 0
gene 1 1 14 1.59556 0 78 1.59556 1
gene 3 4 14 0.613676 0 192 0.613676 1
gene 2 24 14 0.211124 0 208 0.211124 1
gene 1 6 72 0.235406 0 220 0.235406 1
gene 1 72 7 4.7243 0 221 4.7243 1
gene 3 24 84 -0.715682 0 263 -0.715682 1
gene 3 84 6 1.48417 0 264 1.48417 1
gene 1 14 72 -2.75031 0 381 -2.75031 1
gene 2 24 7 -2.02851 0 457 -2.02851 1
gene 3 4 132 -2.28691 0 477 -2.28691 1
gene 3 132 7 -1.09333 0 478 -1.09333 1
gene 1 132 6 -2.35787 0 489 -2.35787 0
gene 1 132 149 1.82939 0 543 1.82939 1
gene 1 149 6 -0.0185902 0 544 -0.0185902 1
genomeend 25

/* Species #50 : (Size 22) (AF 19.8182) (Age 2)  */


/* Organism #26 Fitness: 49 Error: 0 */
genomestart 26
trait 1 0.1 0 0 0 0 0 0 0 
trait 2 0.2 0 0 0 0 0 0 0 
trait 3 0.3 0 0 0 0 0 0 0 
node 1 1 1 3
node 2 1 1 1
node 3 2 1 1
node 4 2 1 1
node 5 2 1 1
node 6 3 0 2
node 7 3 0 2
node 14 1 0 0
node 24 1 0 0
node 72 1 0 0
node 84 1 0 0
node 136 1 0 0
node 172 1 0 0
node 198 1 0 0
gene 3 1 6 -0.0504409 0 1 -0.0504409 1
gene 3 2 6 0.013041 0 2 0.013041 1
gene 3 3 6 -2.20346 0 3 -2.20346 1
gene 3 4 6 0.933945 0 4 0.933945 1
gene 3 5 6 -2.35839 0 5 -2.35839 1
gene 3 1 7 6.39625 0 6 6.39625 1
gene 2 2 7 0.692755 0 7 0.692755 1
gene 1 3 7 4.12971 0 8 4.12971 1
gene 3 4 7 0.0669252 0 9 0.0669252 1
gene 1 5 7 -0.443433 0 10 -0.443433 1
gene 1 6 7 3.52948 0 16 3.52948 0
gene 3 5 14 -1.51053 0 26 -1.51053 1
gene 3 14 6 -2.22022 0 27 -2.22022 1
gene 3 3 14 -0.276288 0 54 -0.276288 1
gene 3 4 24 2.17029 0 55 2.17029 1
gene 3 24 6 0.39111 0 56 0.566075 0
gene 1 1 14 2.50693 0 78 2.50693 1
gene 3 4 14 0.669058 0 192 0.669058 1
gene 2 24 14 -0.63301 0 208 -0.63301 1
gene 1 6 72 -0.472683 0 220 -0.472683 1
gene 1 72 7 2.77073 0 221 1.59634 1
gene 3 24 84 -0.691123 0 263 -0.691123 1
gene 3 84 6 -1.44325 0 264 -1.26829 1
gene 1 14 72 -0.815429 0 381 -0.815429 1
gene 3 2 72 0.594286 0 458 0.594286 1
gene 2 3 24 -2.7804 0 483 -2.7804 0
gene 1 6 136 1.66018 0 492 1.16018 1
gene 1 136 7 3.6881 0 493 3.6881 1
gene 2 3 172 1 0 625 0 1
gene 2 172 24 -2.7804 0 626 0 0
gene 1 1 72 0.44044 0 739 0 1
gene 2 172 198 1 0 756 0 1
gene 2 198 24 -2.7804 0 757 0 1
genomeend 26

/* Organism #27 Fitness: 63 Error: 0 */
genomestart 27
trait 1 0.1 0 0 0 0 0 0 0 
trait 2 0.2 0 0 0 0 0 0 0 
trait 3 0.3 0 0 0 0 0 0 0 
node 1 1 1 3
node 2 1 1 1
node 3 2 1 1
node 4 2 1 1
node 5 2 1 1
node 6 3 0 2
node 7 3 0 2
node 14 1 0 0
node 24 1 0 0
node 72 1 0 0
node 84 1 0 0
node 136 1 0 0
node 172 1 0 0
node 198 1 0 0
node 204 1 0 0
gene 3 1 6 -0.0504409 0 1 -0.0504409 1
gene 3 2 6 0.013041 0 2 0.013041 1
gene 3 3 6 -2.20346 0 3 -2.20346 1
gene 3 4 6 0.933945 0 4 0.933945 1
gene 3 5 6 -2.35839 0 5 -2.35839 1
gene 3 1 7 6.39625 0 6 6.39625 1
gene 2 2 7 0.692755 0 7 0.692755 1
gene 1 3 7 4.12971 0 8 4.12971 1
gene 3 4 7 0.0669252 0 9 0.0669252 1
gene 1 5 7 -0.443433 0 10 -0.443433 1
gene 1 6 7 3.52948 0 16 3.52948 0
gene 3 5 14 -1.51053 0 26 -1.51053 1
gene 3 14 6 -2.22022 0 27 -2.22022 1
gene 3 3 14 -0.276288 0 54 -0.276288 1
gene 3 4 24 2.17029 0 55 2.17029 1
gene 3 24 6 0.39111 0 56 0.566075 0
gene 1 1 14 2.50693 0 78 2.50693 1
gene 3 4 14 0.669058 0 192 0.669058 1
gene 2 24 14 -0.63301 0 208 -0.63301 1
gene 1 6 72 -0.472683 0 220 -0.472683 0
gene 1 72 7 2.77073 0 221 1.59634 1
gene 3 24 84 -0.691123 0 263 -0.691123 1
gene 3 84 6 -1.44325 0 264 -1.26829 1
gene 1 14 72 -0.815429 0 381 -0.815429 1
gene 3 2 72 0.594286 0 458 0.594286 1
gene 2 3 24 -2.7804 0 483 -2.7804 0
gene 1 6 136 1.66018 0 492 1.16018 1
gene 1 136 7 3.6881 0 493 3.6881 1
gene 2 3 172 1 0 625 0 1
gene 2 172 24 -2.7804 0 626 0 0
gene 1 1 72 0.44044 0 739 0 1
gene 2 172 198 1 0 756 0 1
gene 2 198 24 -2.7804 0 757 0 1
gene 1 6 204 1 0 771 0 1
gene 1 204 72 -0.472683 0 772 0 1
genomeend 27

/* Organism #28 Fitness: 7 Error: 0 */
genomestart 28
trait 1 0.1 0 0 0 0 0 0 0 
trait 2 0.2 0 0 0 0 0 0 0 
trait 3 0.3 0 0 0 0 0 0 0 
node 1 1 1 3
node 2 1 1 1
node 3 2 1 1
node 4 2 1 1
node 5 2 1 1
node 6 3 0 2
node 7 3 0 2
node 14 1 0 0
node 24 1 0 0
node 72 1 0 0
node 84 1 0 0
node 136 1 0 0
node 172 1 0 0
node 198 1 0 0
gene 3 1 6 -1.71761 0 1 -1.71761 1
gene 3 2 6 0.943456 0 2 0.943456 1
gene 3 3 6 -0.674879 0 3 -0.674879 1
gene 3 4 6 2.07551 0 4 2.07551 1
gene 3 5 6 -2.80277 0 5 -2.80277 1
gene 3 1 7 -0.0134022 0 6 -0.0134022 1
gene 2 2 7 0.692755 0 7 0.692755 1
gene 1 3 7 -1.05732 0 8 -1.05732 1
gene 3 4 7 -2.10001 0 9 -2.10001 1
gene 1 5 7 1.86981 0 10 1.86981 1
gene 1 6 7 4.54577 0 16 4.54577 0
gene 3 5 14 -1.51053 0 26 -1.51053 1
gene 3 14 6 -2.22022 0 27 -2.22022 1
gene 3 3 14 1.02193 0 54 1.02193 1
gene 3 4 24 2.31171 0 55 2.31171 1
gene 3 24 6 0.39111 0 56 0.39111 0
gene 1 1 14 -0.673854 0 78 -0.673854 1
gene 3 4 14 -1.16968 0 192 -1.16968 1
gene 2 24 14 1.49448 0 208 1.49448 1
gene 1 6 72 -0.0492744 0 220 -0.0492744 1
gene 1 72 7 4.09793 0 221 4.09793 1
gene 3 24 84 -0.594201 0 263 -0.594201 1
gene 3 84 6 -3.64788 0 264 -3.64788 1
gene 1 14 72 -2.9626 0 381 -2.9626 1
gene 3 2 72 -1.40843 0 458 -1.40843 1
gene 2 3 24 -1.77772 0 483 -1.77772 0
gene 1 6 136 0.398961 0 492 0.398961 1
gene 1 136 7 3.12726 0 493 3.12726 1
gene 2 3 172 -0.161631 0 625 -0.161631 1
gene 2 172 24 -0.880323 0 626 -0.880323 0
gene 1 1 72 -1.35127 0 739 -1.35127 1
gene 2 172 198 1.38398 0 756 1.38398 1
gene 2 198 24 -5.08177 0 757 -5.08177 1
genomeend 28

/* Organism #29 Fitness: 9 Error: 0 */
genomestart 29
trait 1 0.1 0 0 0 0 0 0 0 
trait 2 0.2 0 0 0 0 0 0 0 
trait 3 0.3 0 0 0 0 0 0 0 
node 1 1 1 3
node 2 1 1 1
node 3 2 1 1
node 4 2 1 1
node 5 2 1 1
node 6 3 0 2
node 7 3 0 2
node 14 1 0 0
node 24 1 0 0
node 72 1 0 0
node 84 1 0 0
node 136 1 0 0
node 172 1 0 0
node 198 1 0 0
gene 3 1 6 -0.0504409 0 1 -0.0504409 1
gene 3 2 6 -0.0783716 0 2 -0.0783716 1
gene 3 3 6 -0.161258 0 3 -0.161258 1
gene 3 4 6 2.90588 0 4 2.90588 1
gene 3 5 6 -0.16558 0 5 -0.16558 1
gene 3 1 7 7.72523 0 6 7.72523 1
gene 2 2 7 2.61038 0 7 2.61038 1
gene 1 3 7 6.08689 0 8 6.08689 1
gene 3 4 7 0.0669252 0 9 0.0669252 1
gene 1 5 7 -2.80563 0 10 -2.80563 1
gene 1 6 7 4.65205 0 16 4.65205 0
gene 3 5 14 0.263131 0 26 0.263131 1
gene 3 14 6 -4.66258 0 27 -4.66258 1
gene 3 3 14 -0.434389 0 54 -0.434389 1
gene 3 4 24 2.17029 0 55 2.17029 1
gene 3 24 6 0.762506 0 56 0.762506 0
gene 1 1 14 -1.17305 0 78 -1.17305 1
gene 3 4 14 0.669058 0 192 0.669058 1
gene 2 24 14 -1.95745 0 208 -1.95745 1
gene 1 6 72 -2.32988 0 220 -2.32988 1
gene 1 72 7 2.84636 0 221 2.84636 1
gene 3 24 84 -2.35752 0 263 -2.35752 1
gene 3 84 6 -3.87135 0 264 -3.87135 1
gene 1 14 72 -2.33404 0 381 -2.33404 1
gene 3 2 72 0.594286 0 458 0.594286 1
gene 2 3 24 -2.7804 0 483 -2.7804 0
gene 1 6 136 1.29922 0 492 1.29922 1
gene 1 136 7 3.6881 0 493 3.6881 1
gene 2 3 172 -1.10267 0 625 -1.10267 1
gene 2 172 24 -0.893717 0 626 -0.893717 0
gene 1 1 72 -0.337688 0 739 -0.337688 1
gene 2 172 198 3.14589 0 756 3.14589 1
gene 2 198 24 -1.27145 0 757 -1.27145 1
genomeend 29

/* Organism #30 Fitness: 14 Error: 0 */
genomestart 30
trait 1 0.1 0 0 0 0 0 0 0 
trait 2 0.2 0 0 0 0 0 0 0 
trait 3 0.3 0 0 0 0 0 0 0 
node 1 1 1 3
node 2 1 1 1
node 3 2 1 1
node 4 2 1 1
node 5 2 1 1
node 6 3 0 2
node 7 3 0 2
node 14 1 0 0
node 24 1 0 0
node 72 1 0 0
node 84 1 0 0
node 136 1 0 0
node 172 1 0 0
node 198 1 0 0
gene 3 1 6 -2.05616 0 1 -2.05616 1
gene 3 2 6 -1.40985 0 2 -1.40985 1
gene 3 3 6 -1.7431 0 3 -1.7431 1
gene 3 4 6 -1.10816 0 4 -1.10816 1
gene 3 5 6 -4.57827 0 5 -4.57827 1
gene 3 1 7 7.0844 0 6 7.0844 1
gene 2 2 7 2.85622 0 7 2.85622 1
gene 1 3 7 3.39483 0 8 3.39483 1
gene 3 4 7 -2.11499 0 9 -2.11499 1
gene 1 5 7 -1.76775 0 10 -1.76775 1
gene 1 6 7 3.83946 0 16 3.83946 0
gene 3 5 14 -0.457259 0 26 -0.457259 1
gene 3 14 6 -4.04237 0 27 -4.04237 1
gene 3 3 14 -1.94292 0 54 -1.94292 1
gene 3 4 24 1.43323 0 55 1.43323 1
gene 3 24 6 1.01888 0 56 1.01888 0
gene 1 1 14 2.78271 0 78 2.78271 1
gene 3 4 14 0.66571 0 192 0.66571 1
gene 2 24 14 1.59401 0 208 1.59401 1
gene 1 6 72 -0.472683 0 220 -0.472683 1
gene 1 72 7 2.77073 0 221 2.77073 1
gene 3 24 84 -2.92707 0 263 -2.92707 1
gene 3 84 6 -1.44325 0 264 -1.44325 1
gene 1 14 72 -0.815429 0 381 -0.815429 1
gene 3 2 72 0.594286 0 458 0.594286 1
gene 2 3 24 -0.972381 0 483 -0.972381 0
gene 1 6 136 0.172272 0 492 0.172272 1
gene 1 136 7 3.6881 0 493 3.6881 1
gene 2 3 172 1.395 0 625 1.395 1
gene 2 172 24 -1.5638 0 626 -1.5638 0
gene 1 1 72 -1.93038 0 739 -1.93038 1
gene 2 172 198 1.60828 0 756 1.60828 1
gene 2 198 24 -1.35336 0 757 -1.35336 1
genomeend 30

/* Organism #31 Fitness: 31 Error: 0 */
genomestart 31
trait 1 0.1 0 0 0 0 0 0 0 
trait 2 0.2 0 0 0 0 0 0 0 
trait 3 0.3 0 0 0 0 0 0 0 
node 1 1 1 3
node 2 1 1 1
node 3 2 1 1
node 4 2 1 1
node 5 2 1 1
node 6 3 0 2
node 7 3 0 2
node 14 1 0 0
node 24 1 0 0
node 72 1 0 0
node 84 1 0 0
node 136 1 0 0
node 172 1 0 0
node 198 1 0 0
gene 3 1 6 -0.0504409 0 1 -0.0504409 1
gene 3 2 6 1.54048 0 2 1.54048 1
gene 3 3 6 -1.42106 0 3 -1.42106 1
gene 3 4 6 -1.52512 0 4 -1.52512 1
gene 3 5 6 -2.35839 0 5 -2.35839 1
gene 3 1 7 5.05294 0 6 5.05294 1
gene 2 2 7 -0.565024 0 7 -0.565024 1
gene 1 3 7 2.14117 0 8 2.14117 1
gene 3 4 7 -1.60862 0 9 -1.60862 1
gene 1 5 7 -0.443433 0 10 -0.443433 1
gene 1 6 7 3.21001 0 16 3.21001 0
gene 3 5 14 -0.852404 0 26 -0.852404 1
gene 3 14 6 -2.22022 0 27 -2.22022 1
gene 3 3 14 -2.50831 0 54 -2.50831 1
gene 3 4 24 2.01392 0 55 2.01392 1
gene 3 24 6 -0.565443 0 56 -0.565443 0
gene 1 1 14 -1.20609 0 78 -1.20609 1
gene 3 4 14 2.10203 0 192 2.10203 1
gene 2 24 14 -1.09085 0 208 -1.09085 1
gene 1 6 72 1.92237 0 220 1.92237 1
gene 1 72 7 0.769719 0 221 0.769719 1
gene 3 24 84 1.47499 0 263 1.47499 1
gene 3 84 6 -3.78194 0 264 -3.78194 1
gene 1 14 72 2.39651 0 381 2.39651 1
gene 3 2 72 -1.83308 0 458 -1.83308 1
gene 2 3 24 -2.46603 0 483 -2.46603 0
gene 1 6 136 1.66018 0 492 1.66018 1
gene 1 136 7 1.48249 0 493 1.48249 1
gene 2 3 172 2.3961 0 625 2.3961 1
gene 2 172 24 -2.5801 0 626 -2.5801 0
gene 1 1 72 2.92728 0 739 2.92728 1
gene 2 172 198 -1.10959 0 756 -1.10959 1
gene 2 198 24 0.881959 0 757 0.881959 1
genomeend 31

/* Organism #32 Fitness: 8 Error: 0 */
genomestart 32
trait 1 0.1 0 0 0 0 0 0 0 
trait 2 0.2 0 0 0 0 0 0 0 
trait 3 0.3 0 0 0 0 0 0 0 
node 1 1 1 3
node 2 1 1 1
node 3 2 1 1
node 4 2 1 1
node 5 2 1 1
node 6 3 0 2
node 7 3 0 2
node 14 1 0 0
node 24 1 0 0
node 72 2 0 0
node 84 1 0 0
node 136 1 0 0
node 172 1 0 0
node 198 1 0 0
gene 3 1 6 1.02341 0 1 1.02341 1
gene 3 2 6 2.28675 0 2 2.28675 1
gene 3 3 6 -4.62162 0 3 -4.62162 1
gene 3 4 6 3.00225 0 4 3.00225 1
gene 3 5 6 -2.32413 0 5 -2.32413 1
gene 3 1 7 6.34598 0 6 6.34598 1
gene 2 2 7 -0.923629 0 7 -0.923629 1
gene 1 3 7 4.51658 0 8 4.51658 1
gene 3 4 7 -1.52945 0 9 -1.52945 1
gene 1 5 7 -2.76389 0 10 -2.76389 1
gene 1 6 7 1.65564 0 16 1.65564 0
gene 3 5 14 -1.51053 0 26 -1.51053 1
gene 3 14 6 -4.57965 0 27 -4.57965 1
gene 3 3 14 -0.968816 0 54 -0.968816 1
gene 3 4 24 4.18327 0 55 4.18327 1
gene 3 24 6 2.06865 0 56 2.06865 0
gene 1 1 14 1.2217 0 78 1.2217 1
gene 3 4 14 1.75451 0 192 1.75451 1
gene 2 24 14 -0.224105 0 208 -0.224105 1
gene 1 6 72 0.367275 0 220 0.367275 1
gene 1 72 7 2.77073 0 221 2.77073 1
gene 3 24 84 -0.827785 0 263 -0.827785 1
gene 3 84 6 -1.44325 0 264 -1.44325 1
gene 1 14 72 -1.71124 0 381 -1.71124 1
gene 3 2 72 1.70077 0 458 1.70077 1
gene 2 3 24 -2.85804 0 483 -2.85804 0
gene 1 6 136 -2.00678 0 492 -2.00678 1
gene 1 136 7 5.11211 0 493 5.11211 1
gene 2 3 172 1 0 625 1 1
gene 2 172 24 -2.94994 0 626 -2.94994 0
gene 1 1 72 -0.735214 0 739 -0.735214 1
gene 2 172 198 3.46721 0 756 3.46721 1
gene 2 198 24 0.548596 0 757 0.548596 1
genomeend 32

/* Organism #33 Fitness: 16 Error: 0 */
genomestart 33
trait 1 0.1 0 0 0 0 0 0 0 
trait 2 0.2 0 0 0 0 0 0 0 
trait 3 0.3 0 0 0 0 0 0 0 
node 1 1 1 3
node 2 1 1 1
node 3 2 1 1
node 4 2 1 1
node 5 2 1 1
node 6 3 0 2
node 7 3 0 2
node 14 1 0 0
node 24 1 0 0
node 72 1 0 0
node 84 1 0 0
node 136 1 0 0
node 172 1 0 0
node 198 1 0 0
gene 3 1 6 0.86248 0 1 0.86248 1
gene 3 2 6 -1.54487 0 2 -1.54487 1
gene 3 3 6 -2.20346 0 3 -2.20346 1
gene 3 4 6 1.26366 0 4 1.26366 1
gene 3 5 6 -3.95556 0 5 -3.95556 1
gene 3 1 7 1.69442 0 6 1.69442 1
gene 2 2 7 3.13615 0 7 3.13615 1
gene 1 3 7 3.03752 0 8 3.03752 1
gene 3 4 7 2.55913 0 9 2.55913 1
gene 1 5 7 -0.443433 0 10 -0.443433 1
gene 1 6 7 2.50091 0 16 2.50091 0
gene 3 5 14 -0.31643 0 26 -0.31643 1
gene 3 14 6 -4.71127 0 27 -4.71127 1
gene 3 3 14 -0.276288 0 54 -0.276288 1
gene 3 4 24 0.811585 0 55 0.811585 1
gene 3 24 6 0.869543 0 56 0.869543 0
gene 1 1 14 4.23924 0 78 4.23924 1
gene 3 4 14 1.82924 0 192 1.82924 1
gene 2 24 14 -2.13869 0 208 -2.13869 1
gene 1 6 72 -2.90091 0 220 -2.90091 1
gene 1 72 7 0.979081 0 221 0.979081 1
gene 3 24 84 -2.52081 0 263 -2.52081 1
gene 3 84 6 1.55771 0 264 1.55771 1
gene 1 14 72 -1.60026 0 381 -1.60026 1
gene 3 2 72 1.72801 0 458 1.72801 1
gene 2 3 24 -1.63403 0 483 -1.63403 0
gene 1 6 136 0.456601 0 492 0.456601 1
gene 1 136 7 3.22689 0 493 3.22689 1
gene 2 3 172 1 0 625 1 1
gene 2 172 24 -4.43946 0 626 -4.43946 0
gene 1 1 72 -2.4328 0 739 -2.4328 1
gene 2 172 198 -0.626936 0 756 -0.626936 1
gene 2 198 24 -0.742278 0 757 -0.742278 1
genomeend 33

/* Organism #34 Fitness: 9 Error: 0 */
genomestart 34
trait 1 0.1 0 0 0 0 0 0 0 
trait 2 0.2 0 0 0 0 0 0 0 
trait 3 0.3 0 0 0 0 0 0 0 
node 1 1 1 3
node 2 1 1 1
node 3 2 1 1
node 4 2 1 1
node 5 2 1 1
node 6 3 0 2
node 7 3 0 2
node 14 1 0 0
node 24 1 0 0
node 72 1 0 0
node 84 1 0 0
node 136 1 0 0
node 172 1 0 0
node 198 1 0 0
gene 3 1 6 1.55794 0 1 1.55794 1
gene 3 2 6 2.02374 0 2 2.02374 1
gene 3 3 6 -0.967816 0 3 -0.967816 1
gene 3 4 6 -1.44168 0 4 -1.44168 1
gene 3 5 6 -2.81189 0 5 -2.81189 1
gene 3 1 7 5.25614 0 6 5.25614 1
gene 2 2 7 3.1436 0 7 3.1436 1
gene 1 3 7 2.85947 0 8 2.85947 1
gene 3 4 7 -2.32222 0 9 -2.32222 1
gene 1 5 7 -0.407308 0 10 -0.407308 1
gene 1 6 7 2.50449 0 16 2.50449 0
gene 3 5 14 -3.54529 0 26 -3.54529 1
gene 3 14 6 -2.98701 0 27 -2.98701 1
gene 3 3 14 -0.664909 0 54 -0.664909 1
gene 3 4 24 0.740171 0 55 0.740171 1
gene 3 24 6 -2.28793 0 56 -2.28793 0
gene 1 1 14 -2.15909 0 78 -2.15909 1
gene 3 4 14 -0.412899 0 192 -0.412899 1
gene 2 24 14 0.84685 0 208 0.84685 1
gene 1 6 72 -1.51011 0 220 -1.51011 1
gene 1 72 7 2.77073 0 221 2.77073 1
gene 3 24 84 -0.691123 0 263 -0.691123 1
gene 3 84 6 -1.44325 0 264 -1.44325 1
gene 1 14 72 -1.65094 0 381 -1.65094 1
gene 3 2 72 -1.52335 0 458 -1.52335 1
gene 2 3 24 -1.80807 0 483 -1.80807 0
gene 1 6 136 -2.46449 0 492 -2.46449 1
gene 1 136 7 2.30154 0 493 2.30154 1
gene 2 3 172 -0.103407 0 625 -0.103407 1
gene 2 172 24 -0.685189 0 626 -0.685189 0
gene 1 1 72 1.05759 0 739 1.05759 1
gene 2 172 198 1.46563 0 756 1.46563 1
gene 2 198 24 -1.56619 0 757 -1.56619 1
genomeend 34

/* Organism #35 Fitness: 21 Error: 0 */
genomestart 35
trait 1 0.1 0 0 0 0 0 0 0 
trait 2 0.2 0 0 0 0 0 0 0 
trait 3 0.3 0 0 0 0 0 0 0 
node 1 1 1 3
node 2 1 1 1
node 3 2 1 1
node 4 2 1 1
node 5 2 1 1
node 6 3 0 2
node 7 3 0 2
node 14 1 0 0
node 24 1 0 0
node 72 1 0 0
node 84 1 0 0
node 136 1 0 0
node 172 1 0 0
node 198 1 0 0
gene 3 1 6 -0.556694 0 1 -0.556694 1
gene 3 2 6 -0.658041 0 2 -0.658041 1
gene 3 3 6 -2.2235 0 3 -2.2235 1
gene 3 4 6 -1.12949 0 4 -1.12949 1
gene 3 5 6 -1.57347 0 5 -1.57347 1
gene 3 1 7 5.87926 0 6 5.87926 1
gene 2 2 7 -0.823846 0 7 -0.823846 1
gene 1 3 7 3.29639 0 8 3.29639 1
gene 3 4 7 0.112418 0 9 0.112418 1
gene 1 5 7 1.8814 0 10 1.8814 1
gene 1 6 7 2.36376 0 16 2.36376 0
gene 3 5 14 -0.50936 0 26 -0.50936 1
gene 3 14 6 -4.55227 0 27 -4.55227 1
gene 3 3 14 0.548298 0 54 0.548298 1
gene 3 4 24 1.16636 0 55 1.16636 1
gene 3 24 6 -0.197889 0 56 -0.197889 0
gene 1 1 14 4.52028 0 78 4.52028 1
gene 3 4 14 -1.57961 0 192 -1.57961 1
gene 2 24 14 -1.84743 0 208 -1.84743 1
gene 1 6 72 0.867127 0 220 0.867127 1
gene 1 72 7 4.02582 0 221 4.02582 1
gene 3 24 84 -3.07488 0 263 -3.07488 1
gene 3 84 6 0.814726 0 264 0.814726 1
gene 1 14 72 -0.409988 0 381 -0.409988 1
gene 3 2 72 -0.776955 0 458 -0.776955 1
gene 2 3 24 -1.18142 0 483 -1.18142 0
gene 1 6 136 -0.294295 0 492 -0.294295 1
gene 1 136 7 3.6881 0 493 3.6881 1
gene 2 3 172 1 0 625 1 1
gene 2 172 24 -2.7804 0 626 -2.7804 0
gene 1 1 72 -1.98896 0 739 -1.98896 1
gene 2 172 198 -0.276214 0 756 -0.276214 1
gene 2 198 24 1.70545 0 757 1.70545 1
genomeend 35

/* Organism #36 Fitness: 4 Error: 0 */
genomestart 36
trait 1 0.1 0 0 0 0 0 0 0 
trait 2 0.2 0 0 0 0 0 0 0 
trait 3 0.3 0 0 0 0 0 0 0 
node 1 1 1 3
node 2 1 1 1
node 3 2 1 1
node 4 2 1 1
node 5 2 1 1
node 6 3 0 2
node 7 3 0 2
node 14 1 0 0
node 24 1 0 0
node 72 1 0 0
node 84 1 0 0
node 136 1 0 0
node 172 1 0 0
node 198 1 0 0
gene 3 1 6 -1.70077 0 1 -1.70077 1
gene 3 2 6 1.05641 0 2 1.05641 1
gene 3 3 6 -0.119378 0 3 -0.119378 1
gene 3 4 6 -0.173431 0 4 -0.173431 1
gene 3 5 6 -2.5922 0 5 -2.5922 1
gene 3 1 7 5.19827 0 6 5.19827 1
gene 2 2 7 3.14053 0 7 3.14053 1
gene 1 3 7 -1.04706 0 8 -1.04706 1
gene 3 4 7 -0.641346 0 9 -0.641346 1
gene 1 5 7 -0.283878 0 10 -0.283878 1
gene 1 6 7 3.54787 0 16 3.54787 0
gene 3 5 14 -1.52172 0 26 -1.52172 1
gene 3 14 6 -2.65523 0 27 -2.65523 1
gene 3 3 14 0.943088 0 54 0.943088 1
gene 3 4 24 0.0212634 0 55 0.0212634 1
gene 3 24 6 1.95681 0 56 1.95681 0
gene 1 1 14 2.74847 0 78 2.74847 1
gene 3 4 14 0.669058 0 192 0.669058 1
gene 2 24 14 -1.03918 0 208 -1.03918 1
gene 1 6 72 -2.06034 0 220 -2.06034 1
gene 1 72 7 2.11492 0 221 2.11492 1
gene 3 24 84 -0.456501 0 263 -0.456501 1
gene 3 84 6 -0.0343789 0 264 -0.0343789 1
gene 1 14 72 -1.13884 0 381 -1.13884 1
gene 3 2 72 -0.603938 0 458 -0.603938 1
gene 2 3 24 -2.76216 0 483 -2.76216 0
gene 1 6 136 1.90575 0 492 1.90575 1
gene 1 136 7 2.32554 0 493 2.32554 1
gene 2 3 172 -2.2842 0 625 -2.2842 1
gene 2 172 24 0.860541 0 626 0.860541 0
gene 1 1 72 -1.1533 0 739 -1.1533 1
gene 2 172 198 3.39726 0 756 3.39726 1
gene 2 198 24 -1.88858 0 757 -1.88858 1
genomeend 36

/* Organism #37 Fitness: 19 Error: 0 */
genomestart 37
trait 1 0.1 0 0 0 0 0 0 0 
trait 2 0.2 0 0.823058 0 0 0.916935 0 0 
trait 3 0.3 0 0 0 0 0 0 0 
node 1 1 1 3
node 2 1 1 1
node 3 2 1 1
node 4 2 1 1
node 5 2 1 1
node 6 3 0 2
node 7 2 0 2
node 14 1 0 0
node 24 1 0 0
node 72 1 0 0
node 84 1 0 0
node 136 1 0 0
node 172 1 0 0
node 198 1 0 0
gene 3 1 6 -0.714666 0 1 -0.714666 1
gene 3 2 6 0.105936 0 2 0.105936 1
gene 3 3 6 -0.884584 0 3 -0.884584 1
gene 3 4 6 -0.200522 0 4 -0.200522 1
gene 3 5 6 -1.53957 0 5 -1.53957 1
gene 3 1 7 6.85852 0 6 6.85852 1
gene 2 2 7 1.59083 0 7 1.59083 1
gene 1 3 7 -1.04988 0 8 -1.04988 1
gene 3 4 7 -0.0324314 0 9 -0.0324314 1
gene 1 5 7 -2.48485 0 10 -2.48485 1
gene 1 6 7 5.81864 0 16 5.81864 0
gene 3 5 14 -0.780952 0 26 -0.780952 1
gene 3 14 6 -1.24818 0 27 -1.24818 1
gene 3 3 14 1.67105 0 54 1.67105 1
gene 3 4 24 1.08281 0 55 1.08281 1
gene 3 24 6 0.39111 0 56 0.39111 0
gene 1 1 14 3.9682 0 78 3.9682 1
gene 3 4 14 -1.11003 0 192 -1.11003 1
gene 2 24 14 -0.502715 0 208 -0.502715 1
gene 1 6 72 -2.57648 0 220 -2.57648 1
gene 1 72 7 5.09193 0 221 5.09193 1
gene 3 24 84 -2.1106 0 263 -2.1106 1
gene 3 84 6 -0.787794 0 264 -0.787794 1
gene 1 14 72 0.119732 0 381 0.119732 1
gene 3 2 72 0.484646 0 458 0.484646 1
gene 2 3 24 -1.27989 0 483 -1.27989 0
gene 1 6 136 -0.793841 0 492 -0.793841 1
gene 1 136 7 1.80577 0 493 1.80577 1
gene 2 3 172 2.76987 0 625 2.76987 1
gene 2 172 24 -2.7804 0 626 -2.7804 0
gene 1 1 72 -0.543252 0 739 -0.543252 1
gene 2 172 198 -0.287232 0 756 -0.287232 1
gene 2 198 24 -0.295346 0 757 -0.295346 1
genomeend 37

/* Organism #38 Fitness: 17 Error: 0 */
genomestart 38
trait 1 0.1 0 0 0 0 0 0 0 
trait 2 0.2 0 0 0 0 0 0 0 
trait 3 0.3 0 0 0 0 0 0 0 
node 1 1 1 3
node 2 1 1 1
node 3 2 1 1
node 4 2 1 1
node 5 2 1 1
node 6 3 0 2
node 7 3 0 2
node 14 1 0 0
node 24 1 0 0
node 72 1 0 0
node 84 1 0 0
node 136 1 0 0
node 172 1 0 0
node 198 1 0 0
gene 3 1 6 -2.27315 0 1 -2.27315 1
gene 3 2 6 1.52362 0 2 1.52362 1
gene 3 3 6 -1.19651 0 3 -1.19651 1
gene 3 4 6 1.06016 0 4 1.06016 1
gene 3 5 6 -0.122295 0 5 -0.122295 1
gene 3 1 7 8 0 6 8 1
gene 2 2 7 0.129007 0 7 0.129007 1
gene 1 3 7 4.80584 0 8 4.80584 1
gene 3 4 7 0.877658 0 9 0.877658 1
gene 1 5 7 1.81884 0 10 1.81884 1
gene 1 6 7 4.27537 0 16 4.27537 0
gene 3 5 14 -1.86902 0 26 -1.86902 1
gene 3 14 6 -2.15504 0 27 -2.15504 1
gene 3 3 14 -1.67961 0 54 -1.67961 1
gene 3 4 24 2.00754 0 55 2.00754 1
gene 3 24 6 2.80086 0 56 2.80086 0
gene 1 1 14 0.070083 0 78 0.070083 1
gene 3 4 14 -0.474806 0 192 -0.474806 1
gene 2 24 14 -0.329102 0 208 -0.329102 1
gene 1 6 72 -2.32176 0 220 -2.32176 1
gene 1 72 7 2.4133 0 221 2.4133 1
gene 3 24 84 -1.20089 0 263 -1.20089 1
gene 3 84 6 -0.181771 0 264 -0.181771 1
gene 1 14 72 -2.12251 0 381 -2.12251 1
gene 3 2 72 -1.34415 0 458 -1.34415 1
gene 2 3 24 -1.13858 0 483 -1.13858 0
gene 1 6 136 -0.583978 0 492 -0.583978 1
gene 1 136 7 -0.0174655 0 493 -0.0174655 1
gene 2 3 172 -0.538183 0 625 -0.538183 1
gene 2 172 24 -4.10747 0 626 -4.10747 0
gene 1 1 72 1.04472 0 739 1.04472 1
gene 2 172 198 3.20947 0 756 3.20947 1
gene 2 198 24 -1.11076 0 757 -1.11076 1
genomeend 38

/* Organism #39 Fitness: 8 Error: 0 */
genomestart 39
trait 1 0.1 0 0 0 0 0 0 0 
trait 2 0.2 0 0 0 0 0 0 0 
trait 3 0.3 0 0 0 0 0 0 0 
node 1 1 1 3
node 2 1 1 1
node 3 2 1 1
node 4 2 1 1
node 5 2 1 1
node 6 3 0 2
node 7 3 0 2
node 14 3 0 0
node 24 1 0 0
node 72 1 0 0
node 84 1 0 0
node 136 1 0 0
node 172 1 0 0
node 198 1 0 0
gene 3 1 6 1.56468 0 1 1.56468 1
gene 3 2 6 2.33552 0 2 2.33552 1
gene 3 3 6 -1.16761 0 3 -1.16761 1
gene 3 4 6 1.11839 0 4 1.11839 1
gene 3 5 6 -1.22818 0 5 -1.22818 1
gene 3 1 7 5.72177 0 6 5.72177 1
gene 2 2 7 -0.301456 0 7 -0.301456 1
gene 1 3 7 2.2873 0 8 2.2873 1
gene 3 4 7 0.461205 0 9 0.461205 1
gene 1 5 7 -2.55357 0 10 -2.55357 1
gene 1 6 7 5.22503 0 16 5.22503 0
gene 3 5 14 -0.626411 0 26 -0.626411 1
gene 3 14 6 -1.12494 0 27 -1.12494 1
gene 3 3 14 -0.845082 0 54 -0.845082 1
gene 3 4 24 1.93695 0 55 1.93695 1
gene 3 24 6 1.10173 0 56 1.10173 0
gene 1 1 14 4.04832 0 78 4.04832 1
gene 3 4 14 1.39933 0 192 1.39933 1
gene 2 24 14 -2.39561 0 208 -2.39561 1
gene 1 6 72 -2.74176 0 220 -2.74176 1
gene 1 72 7 3.4772 0 221 3.4772 1
gene 3 24 84 0.507568 0 263 0.507568 1
gene 3 84 6 -0.588075 0 264 -0.588075 1
gene 1 14 72 -3.20578 0 381 -3.20578 1
gene 3 2 72 2.75557 0 458 2.75557 1
gene 2 3 24 -2.42007 0 483 -2.42007 0
gene 1 6 136 0.55078 0 492 0.55078 1
gene 1 136 7 4.7924 0 493 4.7924 1
gene 2 3 172 1 0 625 1 1
gene 2 172 24 -2.7804 0 626 -2.7804 0
gene 1 1 72 1.80204 0 739 1.80204 1
gene 2 172 198 1.89613 0 756 1.89613 1
gene 2 198 24 -4.07447 0 757 -4.07447 1
genomeend 39

/* Organism #40 Fitness: 8 Error: 0 */
genomestart 40
trait 1 0.1 0 0 0 0 0 0 0 
trait 2 0.2 0 0 0 0 0 0 0 
trait 3 0.3 0 0 0 0 0 0 0 
node 1 1 1 3
node 2 1 1 1
node 3 2 1 1
node 4 2 1 1
node 5 2 1 1
node 6 3 0 2
node 7 3 0 2
node 14 1 0 0
node 24 1 0 0
node 72 1 0 0
node 84 1 0 0
node 136 1 0 0
node 172 1 0 0
node 198 1 0 0
gene 3 1 6 0.417744 0 1 0.417744 1
gene 3 2 6 2.16895 0 2 2.16895 1
gene 3 3 6 -0.515041 0 3 -0.515041 1
gene 3 4 6 2.68915 0 4 2.68915 1
gene 3 5 6 -3.7034 0 5 -3.7034 1
gene 3 1 7 6.4196 0 6 6.4196 1
gene 2 2 7 -1.2253 0 7 -1.2253 1
gene 1 3 7 6.61734 0 8 6.61734 1
gene 3 4 7 -2.09 0 9 -2.09 1
gene 1 5 7 -2.67773 0 10 -2.67773 1
gene 1 6 7 2.18964 0 16 2.18964 0
gene 3 5 14 -0.917127 0 26 -0.917127 1
gene 3 14 6 -0.468583 0 27 -0.468583 1
gene 3 3 14 2.10067 0 54 2.10067 1
gene 3 4 24 0.412801 0 55 0.412801 1
gene 3 24 6 0.8215 0 56 0.8215 0
gene 1 1 14 0.294208 0 78 0.294208 1
gene 3 4 14 -1.75811 0 192 -1.75811 1
gene 2 24 14 -1.70978 0 208 -1.70978 1
gene 1 6 72 1.4199 0 220 1.4199 1
gene 1 72 7 2.4461 0 221 2.4461 1
gene 3 24 84 -0.190394 0 263 -0.190394 1
gene 3 84 6 -3.13267 0 264 -3.13267 1
gene 1 14 72 0.642093 0 381 0.642093 1
gene 3 2 72 -1.55349 0 458 -1.55349 1
gene 2 3 24 -1.32625 0 483 -1.32625 0
gene 1 6 136 1.48598 0 492 1.48598 1
gene 1 136 7 3.6881 0 493 3.6881 1
gene 2 3 172 1 0 625 1 1
gene 2 172 24 -2.7804 0 626 -2.7804 0
gene 1 1 72 -2.00064 0 739 -2.00064 1
gene 2 172 198 1 0 756 1 1
gene 2 198 24 -3.10092 0 757 -3.10092 1
genomeend 40

/* Organism #41 Fitness: 16 Error: 0 */
genomestart 41
trait 1 0.1 0 0 0 0 0 0 0 
trait 2 0.2 0 0 0 0 0 0 0 
trait 3 0.3 0 0 0 0 0 0 0 
node 1 1 1 3
node 2 1 1 1
node 3 2 1 1
node 4 2 1 1
node 5 2 1 1
node 6 3 0 2
node 7 3 0 2
node 14 1 0 0
node 24 1 0 0
node 72 1 0 0
node 84 1 0 0
node 136 1 0 0
node 172 1 0 0
node 198 1 0 0
gene 3 1 6 0.8409 0 1 0.8409 1
gene 3 2 6 -1.33251 0 2 -1.33251 1
gene 3 3 6 -2.20346 0 3 -2.20346 1
gene 3 4 6 0.890759 0 4 0.890759 1
gene 3 5 6 -1.65591 0 5 -1.65591 1
gene 3 1 7 -0.297979 0 6 -0.297979 1
gene 2 2 7 -1.54348 0 7 -1.54348 1
gene 1 3 7 4.12971 0 8 4.12971 1
gene 3 4 7 1.10589 0 9 1.10589 1
gene 1 5 7 0.0855459 0 10 0.0855459 1
gene 1 6 7 3.68819 0 16 3.68819 0
gene 3 5 14 0.969339 0 26 0.969339 1
gene 3 14 6 -4.19212 0 27 -4.19212 1
gene 3 3 14 -1.3475 0 54 -1.3475 1
gene 3 4 24 0.506996 0 55 0.506996 1
gene 3 24 6 1.53569 0 56 1.53569 0
gene 1 1 14 2.65386 0 78 2.65386 1
gene 3 4 14 0.873563 0 192 0.873563 1
gene 2 24 14 0.895728 0 208 0.895728 1
gene 1 6 72 1.92718 0 220 1.92718 1
gene 1 72 7 0.887003 0 221 0.887003 1
gene 3 24 84 -0.133486 0 263 -0.133486 1
gene 3 84 6 -1.76081 0 264 -1.76081 1
gene 1 14 72 -1.74155 0 381 -1.74155 1
gene 3 2 72 2.843 0 458 2.843 1
gene 2 3 24 -2.7804 0 483 -2.7804 0
gene 1 6 136 -1.67596 0 492 -1.67596 1
gene 1 136 7 2.09044 0 493 2.09044 1
gene 2 3 172 2.82838 0 625 2.82838 1
gene 2 172 24 -3.41726 0 626 -3.41726 0
gene 1 1 72 0.44044 0 739 0.44044 1
gene 2 172 198 0.441499 0 756 0.441499 1
gene 2 198 24 -3.93775 0 757 -3.93775 1
genomeend 41

/* Organism #42 Fitness: 20 Error: 0 */
genomestart 42
trait 1 0.1 0 0 0 0 0 0 0 
trait 2 0.2 0 0 0 0 0 0 0 
trait 3 0.3 0 0 0 0 0 0 0 
node 1 1 1 3
node 2 1 1 1
node 3 2 1 1
node 4 2 1 1
node 5 2 1 1
node 6 3 0 2
node 7 3 0 2
node 14 1 0 0
node 24 1 0 0
node 72 1 0 0
node 84 1 0 0
node 136 1 0 0
node 172 1 0 0
node 198 1 0 0
gene 3 1 6 -0.0504409 0 1 -0.0504409 1
gene 3 2 6 -2.26287 0 2 -2.26287 1
gene 3 3 6 -2.54346 0 3 -2.54346 1
gene 3 4 6 1.39118 0 4 1.39118 1
gene 3 5 6 0.342291 0 5 0.342291 1
gene 3 1 7 4.00372 0 6 4.00372 1
gene 2 2 7 1.52254 0 7 1.52254 1
gene 1 3 7 2.04371 0 8 2.04371 1
gene 3 4 7 -0.589553 0 9 -0.589553 1
gene 1 5 7 -1.85927 0 10 -1.85927 1
gene 1 6 7 3.17206 0 16 3.17206 0
gene 3 5 14 0.15435 0 26 0.15435 1
gene 3 14 6 1.75644 0 27 1.75644 1
gene 3 3 14 -0.392416 0 54 -0.392416 1
gene 3 4 24 3.91013 0 55 3.91013 1
gene 3 24 6 2.39232 0 56 2.39232 0
gene 1 1 14 2.50693 0 78 2.50693 1
gene 3 4 14 -1.31912 0 192 -1.31912 1
gene 2 24 14 -1.75348 0 208 -1.75348 1
gene 1 6 72 0.0694122 0 220 0.0694122 1
gene 1 72 7 2.77073 0 221 2.77073 1
gene 3 24 84 -0.304392 0 263 -0.304392 1
gene 3 84 6 -0.525999 0 264 -0.525999 1
gene 1 14 72 -3.02626 0 381 -3.02626 1
gene 3 2 72 0.723696 0 458 0.723696 1
gene 2 3 24 -2.95404 0 483 -2.95404 0
gene 1 6 136 -0.677627 0 492 -0.677627 1
gene 1 136 7 0.147734 0 493 0.147734 1
gene 2 3 172 -1.72833 0 625 -1.72833 1
gene 2 172 24 -4.1026 0 626 -4.1026 0
gene 1 1 72 1.60317 0 739 1.60317 1
gene 2 172 198 1 0 756 1 1
gene 2 198 24 -0.477296 0 757 -0.477296 1
genomeend 42

/* Organism #43 Fitness: 17 Error: 0 */
genomestart 43
trait 1 0.1 0 0 0 0 0 0 0 
trait 2 0 0 0 0 0.634852 0 0 0.788903 
trait 3 0.3 0 0 0 0 0 0 0 
node 1 1 1 3
node 2 1 1 1
node 3 2 1 1
node 4 2 1 1
node 5 2 1 1
node 6 3 0 2
node 7 3 0 2
node 14 1 0 0
node 24 3 0 0
node 72 1 0 0
node 84 1 0 0
node 136 1 0 0
node 172 1 0 0
node 198 1 0 0
gene 3 1 6 -1.13594 0 1 -1.13594 1
gene 3 2 6 -1.22849 0 2 -1.22849 1
gene 3 3 6 -1.97307 0 3 -1.97307 1
gene 3 4 6 -1.38041 0 4 -1.38041 1
gene 3 5 6 -2.32272 0 5 -2.32272 1
gene 3 1 7 4.97297 0 6 4.97297 1
gene 2 2 7 -0.611218 0 7 -0.611218 1
gene 1 3 7 1.64963 0 8 1.64963 1
gene 3 4 7 -1.89927 0 9 -1.89927 1
gene 1 5 7 0.707955 0 10 0.707955 1
gene 1 6 7 1.61351 0 16 1.61351 0
gene 3 5 14 -2.54294 0 26 -2.54294 1
gene 3 14 6 -3.96848 0 27 -3.96848 1
gene 3 3 14 -1.23889 0 54 -1.23889 1
gene 3 4 24 4.06343 0 55 4.06343 1
gene 3 24 6 1.99231 0 56 1.99231 0
gene 1 1 14 3.35303 0 78 3.35303 1
gene 3 4 14 -1.65285 0 192 -1.65285 1
gene 2 24 14 -2.86226 0 208 -2.86226 1
gene 1 6 72 0.716338 0 220 0.716338 1
gene 1 72 7 4.55738 0 221 4.55738 1
gene 3 24 84 -1.5953 0 263 -1.5953 1
gene 3 84 6 -0.0173166 0 264 -0.0173166 1
gene 2 14 72 -0.278957 0 381 -0.278957 1
gene 3 2 72 -0.443823 0 458 -0.443823 1
gene 2 3 24 -5.07474 0 483 -5.07474 0
gene 1 6 136 2.47796 0 492 2.47796 1
gene 1 136 7 2.13939 0 493 2.13939 1
gene 2 3 172 1 0 625 1 1
gene 2 172 24 -2.7804 0 626 -2.7804 0
gene 1 1 72 0.950397 0 739 0.950397 1
gene 2 172 198 2.17851 0 756 2.17851 1
gene 2 198 24 -2.7804 0 757 -2.7804 1
genomeend 43

/* Organism #44 Fitness: 15 Error: 0 */
genomestart 44
trait 1 0.1 0 0 0 0 0 0 0 
trait 2 0.2 0 0 0 0 0 0 0 
trait 3 0.3 0 0 0 0 0 0 0 
node 1 1 1 3
node 2 1 1 1
node 3 2 1 1
node 4 2 1 1
node 5 2 1 1
node 6 3 0 2
node 7 3 0 2
node 14 1 0 0
node 24 1 0 0
node 72 1 0 0
node 84 1 0 0
node 136 1 0 0
node 172 1 0 0
node 198 1 0 0
gene 3 1 6 -1.94201 0 1 -1.94201 1
gene 3 2 6 1.32564 0 2 1.32564 1
gene 3 3 6 -2.25331 0 3 -2.25331 1
gene 3 4 6 2.9824 0 4 2.9824 1
gene 3 5 6 -4.78661 0 5 -4.78661 1
gene 3 1 7 8 0 6 8 1
gene 2 2 7 -0.808246 0 7 -0.808246 1
gene 1 3 7 2.20612 0 8 2.20612 1
gene 3 4 7 2.19062 0 9 2.19062 1
gene 1 5 7 1.75382 0 10 1.75382 1
gene 1 6 7 1.60211 0 16 1.60211 0
gene 3 5 14 -1.66412 0 26 -1.66412 1
gene 3 14 6 -3.67561 0 27 -3.67561 1
gene 3 3 14 -0.428417 0 54 -0.428417 1
gene 3 4 24 3.31303 0 55 3.31303 1
gene 3 24 6 -0.448338 0 56 -0.448338 0
gene 1 1 14 1.03957 0 78 1.03957 1
gene 3 4 14 -0.0716594 0 192 -0.0716594 1
gene 2 24 14 -1.27034 0 208 -1.27034 1
gene 1 6 72 1.62749 0 220 1.62749 1
gene 1 72 7 3.96263 0 221 3.96263 1
gene 3 24 84 -0.578917 0 263 -0.578917 1
gene 3 84 6 -3.7703 0 264 -3.7703 1
gene 1 14 72 -3.22361 0 381 -3.22361 1
gene 3 2 72 1.63529 0 458 1.63529 1
gene 2 3 24 -2.19975 0 483 -2.19975 0
gene 1 6 136 3.25071 0 492 3.25071 1
gene 1 136 7 -0.437391 0 493 -0.437391 1
gene 2 3 172 1 0 625 1 1
gene 2 172 24 -2.47312 0 626 -2.47312 0
gene 1 1 72 1.33255 0 739 1.33255 1
gene 2 172 198 -1.72971 0 756 -1.72971 1
gene 2 198 24 -1.15623 0 757 -1.15623 1
genomeend 44

/* Organism #45 Fitness: 6 Error: 0 */
genomestart 45
trait 1 0.1 0 0 0 0 0 0 0 
trait 2 0.2 0 0 0 0 0 0 0 
trait 3 0.3 0 0 0 0 0 0 0 
node 1 1 1 3
node 2 1 1 1
node 3 2 1 1
node 4 2 1 1
node 5 2 1 1
node 6 3 0 2
node 7 3 0 2
node 14 1 0 0
node 24 1 0 0
node 72 1 0 0
node 84 1 0 0
node 136 1 0 0
node 172 1 0 0
node 198 1 0 0
gene 3 1 6 0.81904 0 1 0.81904 1
gene 3 2 6 2.24968 0 2 2.24968 1
gene 3 3 6 -0.732518 0 3 -0.732518 1
gene 3 4 6 1.53043 0 4 1.53043 1
gene 3 5 6 -4.29141 0 5 -4.29141 1
gene 3 1 7 6.53125 0 6 6.53125 1
gene 2 2 7 0.286226 0 7 0.286226 1
gene 1 3 7 3.83659 0 8 3.83659 1
gene 3 4 7 0.443752 0 9 0.443752 1
gene 1 5 7 0.475513 0 10 0.475513 1
gene 1 6 7 1.48195 0 16 1.48195 0
gene 3 5 14 -2.13317 0 26 -2.13317 1
gene 3 14 6 -4.59788 0 27 -4.59788 1
gene 3 3 14 0.301416 0 54 0.301416 1
gene 3 4 24 -0.0674288 0 55 -0.0674288 1
gene 3 24 6 0.0502671 0 56 0.0502671 0
gene 1 1 14 2.71111 0 78 2.71111 1
gene 3 4 14 -1.70073 0 192 -1.70073 1
gene 2 24 14 -1.97898 0 208 -1.97898 1
gene 1 6 72 -1.15568 0 220 -1.15568 1
gene 1 72 7 1.93687 0 221 1.93687 1
gene 3 24 84 -1.3188 0 263 -1.3188 1
gene 3 84 6 -0.524231 0 264 -0.524231 1
gene 1 14 72 0.106988 0 381 0.106988 1
gene 3 2 72 2.32916 0 458 2.32916 1
gene 2 3 24 -3.48746 0 483 -3.48746 0
gene 1 6 136 0.181062 0 492 0.181062 1
gene 1 136 7 -0.83632 0 493 -0.83632 1
gene 2 3 172 3.16096 0 625 3.16096 1
gene 2 172 24 -1.94121 0 626 -1.94121 0
gene 1 1 72 0.497322 0 739 0.497322 1
gene 2 172 198 1 0 756 1 1
gene 2 198 24 -0.682332 0 757 -0.682332 1
genomeend 45

/* Organism #46 Fitness: 18 Error: 0 */
genomestart 46
trait 1 0.1 0 0.973772 0 0 0.424796 0 0 
trait 2 0.2 0 0 0 0 0 0 0 
trait 3 0.3 0 0 0 0 0 0 0 
node 1 1 1 3
node 2 1 1 1
node 3 2 1 1
node 4 2 1 1
node 5 2 1 1
node 6 3 0 2
node 7 3 0 2
node 14 1 0 0
node 24 1 0 0
node 72 1 0 0
node 84 1 0 0
node 136 1 0 0
node 172 1 0 0
node 198 1 0 0
gene 3 1 6 -0.845525 0 1 -0.845525 1
gene 3 2 6 0.468426 0 2 0.468426 1
gene 3 3 6 -2.23226 0 3 -2.23226 1
gene 3 4 6 0.405503 0 4 0.405503 1
gene 3 5 6 -2.08241 0 5 -2.08241 1
gene 3 1 7 8 0 6 8 1
gene 2 2 7 0.0383163 0 7 0.0383163 1
gene 1 3 7 2.3019 0 8 2.3019 1
gene 3 4 7 1.2812 0 9 1.2812 1
gene 1 5 7 0.731173 0 10 0.731173 1
gene 1 6 7 1.04163 0 16 1.04163 0
gene 3 5 14 -1.03354 0 26 -1.03354 1
gene 3 14 6 -1.3016 0 27 -1.3016 1
gene 3 3 14 -0.578073 0 54 -0.578073 1
gene 3 4 24 1.6381 0 55 1.6381 1
gene 3 24 6 0.39111 0 56 0.39111 0
gene 1 1 14 -0.682027 0 78 -0.682027 1
gene 3 4 14 0.338437 0 192 0.338437 1
gene 2 24 14 1.47399 0 208 1.47399 1
gene 1 6 72 -1.59877 0 220 -1.59877 1
gene 1 72 7 4.81153 0 221 4.81153 1
gene 3 24 84 -1.53733 0 263 -1.53733 1
gene 3 84 6 -1.34783 0 264 -1.34783 1
gene 1 14 72 -2.75626 0 381 -2.75626 1
gene 3 2 72 -1.3507 0 458 -1.3507 1
gene 2 3 24 -0.718331 0 483 -0.718331 0
gene 1 6 136 -0.560554 0 492 -0.560554 1
gene 1 136 7 3.6471 0 493 3.6471 1
gene 2 3 172 -2.07817 0 625 -2.07817 1
gene 2 172 24 -3.6556 0 626 -3.6556 0
gene 1 1 72 0.942193 0 739 0.942193 1
gene 2 172 198 0.0998206 0 756 0.0998206 1
gene 2 198 24 1.91024 0 757 1.91024 1
genomeend 46

/* Organism #47 Fitness: 61 Error: 0 */
genomestart 47
trait 1 0.1 0 0 0 0 0 0 0 
trait 2 0.2 0 0 0 0 0 0 0 
trait 3 0.3 0 0 0 0 0 0 0 
node 1 1 1 3
node 2 1 1 1
node 3 2 1 1
node 4 2 1 1
node 5 2 1 1
node 6 3 0 2
node 7 3 0 2
node 14 1 0 0
node 24 1 0 0
node 72 1 0 0
node 84 1 0 0
node 136 1 0 0
node 172 1 0 0
node 198 1 0 0
node 205 1 0 0
gene 3 1 6 -0.0504409 0 1 -0.0504409 1
gene 3 2 6 0.013041 0 2 0.013041 1
gene 3 3 6 -2.20346 0 3 -2.20346 1
gene 3 4 6 0.933945 0 4 0.933945 1
gene 3 5 6 -2.35839 0 5 -2.35839 1
gene 3 1 7 6.39625 0 6 6.39625 1
gene 2 2 7 0.692755 0 7 0.692755 1
gene 1 3 7 4.12971 0 8 4.12971 1
gene 3 4 7 0.0669252 0 9 0.0669252 1
gene 1 5 7 -0.443433 0 10 -0.443433 1
gene 1 6 7 3.52948 0 16 3.52948 0
gene 3 5 14 -1.51053 0 26 -1.51053 1
gene 3 14 6 -2.22022 0 27 -2.22022 1
gene 3 3 14 -0.276288 0 54 -0.276288 1
gene 3 4 24 2.17029 0 55 2.17029 1
gene 3 24 6 0.39111 0 56 0.566075 0
gene 1 1 14 2.50693 0 78 2.50693 1
gene 3 4 14 0.669058 0 192 0.669058 1
gene 2 24 14 -0.63301 0 208 -0.63301 1
gene 1 6 72 -0.472683 0 220 -0.472683 1
gene 1 72 7 2.77073 0 221 1.59634 1
gene 3 24 84 -0.691123 0 263 -0.691123 1
gene 3 84 6 -1.44325 0 264 -1.26829 1
gene 1 14 72 -0.815429 0 381 -0.815429 1
gene 3 2 72 0.594286 0 458 0.594286 1
gene 2 3 24 -2.7804 0 483 -2.7804 0
gene 1 6 136 1.66018 0 492 1.16018 0
gene 1 136 7 3.6881 0 493 3.6881 1
gene 2 3 172 1 0 625 0 1
gene 2 172 24 -2.7804 0 626 0 0
gene 1 1 72 0.44044 0 739 0 1
gene 2 172 198 1 0 756 0 1
gene 2 198 24 -2.7804 0 757 0 1
gene 1 6 205 1 0 773 0 1
gene 1 205 136 1.66018 0 774 0 1
genomeend 47

/* Species #51 : (Size 26) (AF 24) (Age 2)  */


/* Organism #48 Fitness: 56 Error: 0 */
genomestart 48
trait 1 0.1 0 0 0 0 0 0 0 
trait 2 0.2 0 0 0 0 0 0 0 
trait 3 0.3 0 0 0 0 0 0 0 
node 1 1 1 3
node 2 1 1 1
node 3 2 1 1
node 4 2 1 1
node 5 2 1 1
node 6 3 0 2
node 7 3 0 2
node 14 1 0 0
node 24 1 0 0
node 72 1 0 0
node 84 1 0 0
node 136 1 0 0
node 172 1 0 0
node 199 1 0 0
gene 3 1 6 -0.0504409 0 1 -0.0504409 1
gene 3 2 6 0.013041 0 2 0.013041 1
gene 3 3 6 -2.20346 0 3 -2.20346 1
gene 3 4 6 0.933945 0 4 0.933945 1
gene 3 5 6 -2.35839 0 5 -2.35839 1
gene 3 1 7 6.39625 0 6 6.39625 1
gene 2 2 7 0.692755 0 7 0.692755 1
gene 1 3 7 4.12971 0 8 4.12971 1
gene 3 4 7 0.0669252 0 9 0.0669252 1
gene 1 5 7 -0.443433 0 10 -0.443433 1
gene 1 6 7 3.52948 0 16 3.52948 0
gene 3 5 14 -1.51053 0 26 -1.51053 1
gene 3 14 6 -2.22022 0 27 -2.22022 1
gene 3 3 14 -0.276288 0 54 -0.276288 1
gene 3 4 24 2.17029 0 55 2.17029 1
gene 3 24 6 0.39111 0 56 0.566075 0
gene 1 1 14 2.50693 0 78 2.50693 1
gene 3 4 14 0.669058 0 192 0.669058 1
gene 2 24 14 -0.63301 0 208 -0.63301 1
gene 1 6 72 -0.472683 0 220 -0.472683 0
gene 1 72 7 2.77073 0 221 1.59634 1
gene 3 24 84 -0.691123 0 263 -0.691123 1
gene 3 84 6 -1.44325 0 264 -1.26829 1
gene 1 14 72 -0.815429 0 381 -0.815429 1
gene 3 2 72 0.594286 0 458 0.594286 1
gene 2 3 24 -2.7804 0 483 -2.7804 0
gene 1 6 136 1.66018 0 492 1.16018 1
gene 1 136 7 3.6881 0 493 3.6881 1
gene 2 3 172 1 0 625 0 1
gene 2 172 24 -2.7804 0 626 0 1
gene 3 5 172 0.702881 0 733 0.702881 1
gene 1 6 199 1 0 759 0 1
gene 1 199 72 -0.472683 0 760 0 1
genomeend 48

/* Organism #49 Fitness: 59 Error: 0 */
genomestart 49
trait 1 0.1 0 0 0 0 0 0 0 
trait 2 0.2 0 0 0 0 0 0 0 
trait 3 0.3 0 0 0 0 0 0 0 
node 1 1 1 3
node 2 1 1 1
node 3 2 1 1
node 4 2 1 1
node 5 2 1 1
node 6 3 0 2
node 7 3 0 2
node 14 1 0 0
node 24 1 0 0
node 72 1 0 0
node 84 1 0 0
node 136 1 0 0
node 172 1 0 0
node 199 1 0 0
node 206 1 0 0
gene 3 1 6 -0.0504409 0 1 -0.0504409 1
gene 3 2 6 0.013041 0 2 0.013041 1
gene 3 3 6 -2.20346 0 3 -2.20346 1
gene 3 4 6 0.933945 0 4 0.933945 1
gene 3 5 6 -2.35839 0 5 -2.35839 1
gene 3 1 7 6.39625 0 6 6.39625 1
gene 2 2 7 0.692755 0 7 0.692755 1
gene 1 3 7 4.12971 0 8 4.12971 1
gene 3 4 7 0.0669252 0 9 0.0669252 1
gene 1 5 7 -0.443433 0 10 -0.443433 0
gene 1 6 7 3.52948 0 16 3.52948 0
gene 3 5 14 -1.51053 0 26 -1.51053 1
gene 3 14 6 -2.22022 0 27 -2.22022 1
gene 3 3 14 -0.276288 0 54 -0.276288 1
gene 3 4 24 2.17029 0 55 2.17029 1
gene 3 24 6 0.39111 0 56 0.566075 0
gene 1 1 14 2.50693 0 78 2.50693 1
gene 3 4 14 0.669058 0 192 0.669058 1
gene 2 24 14 -0.63301 0 208 -0.63301 1
gene 1 6 72 -0.472683 0 220 -0.472683 0
gene 1 72 7 2.77073 0 221 1.59634 1
gene 3 24 84 -0.691123 0 263 -0.691123 1
gene 3 84 6 -1.44325 0 264 -1.26829 1
gene 1 14 72 -0.815429 0 381 -0.815429 1
gene 3 2 72 0.594286 0 458 0.594286 1
gene 2 3 24 -2.7804 0 483 -2.7804 0
gene 1 6 136 1.66018 0 492 1.16018 1
gene 1 136 7 3.6881 0 493 3.6881 1
gene 2 3 172 1 0 625 0 1
gene 2 172 24 -2.7804 0 626 0 1
gene 3 5 172 0.702881 0 733 0.702881 1
gene 1 6 199 1 0 759 0 1
gene 1 199 72 -0.472683 0 760 0 1
gene 1 5 206 1 0 775 0 1
gene 1 206 7 -0.443433 0 776 0 1
genomeend 49

/* Organism #50 Fitness: 5 Error: 0 */
genomestart 50
trait 1 0.1 0 0 0 0 0 0 0 
trait 2 0.2 0 0 0 0 0 0 0 
trait 3 0.3 0 0 0 0 0 0 0 
node 1 1 1 3
node 2 1 1 1
node 3 2 1 1
node 4 2 1 1
node 5 2 1 1
node 6 3 0 2
node 7 3 0 2
node 14 1 0 0
node 24 1 0 0
node 72 1 0 0
node 84 1 0 0
node 136 1 0 0
node 172 1 0 0
node 199 1 0 0
gene 3 1 6 1.67378 0 1 1.67378 1
gene 3 2 6 -0.32873 0 2 -0.32873 1
gene 3 3 6 0.0259018 0 3 0.0259018 1
gene 3 4 6 -0.442764 0 4 -0.442764 1
gene 3 5 6 -4.29596 0 5 -4.29596 1
gene 3 1 7 6.49508 0 6 6.49508 1
gene 2 2 7 2.45073 0 7 2.45073 1
gene 1 3 7 5.16976 0 8 5.16976 1
gene 3 4 7 -1.34869 0 9 -1.34869 1
gene 1 5 7 0.714951 0 10 0.714951 1
gene 1 6 7 4.91225 0 16 4.91225 0
gene 3 5 14 0.414292 0 26 0.414292 1
gene 3 14 6 -3.34659 0 27 -3.34659 1
gene 3 3 14 2.07359 0 54 2.07359 1
gene 3 4 24 1.28892 0 55 1.28892 1
gene 3 24 6 0.220392 0 56 0.220392 0
gene 1 1 14 4.00373 0 78 4.00373 1
gene 3 4 14 1.01705 0 192 1.01705 1
gene 2 24 14 -1.57344 0 208 -1.57344 1
gene 1 6 72 -1.85366 0 220 -1.85366 0
gene 1 72 7 2.11819 0 221 2.11819 1
gene 3 24 84 -0.0469118 0 263 -0.0469118 1
gene 3 84 6 -1.57737 0 264 -1.57737 1
gene 1 14 72 -2.72471 0 381 -2.72471 1
gene 3 2 72 0.648673 0 458 0.648673 1
gene 2 3 24 -5.05245 0 483 -5.05245 0
gene 1 6 136 3.15811 0 492 3.15811 1
gene 1 136 7 4.38927 0 493 4.38927 1
gene 2 3 172 -2.09501 0 625 -2.09501 1
gene 2 172 24 -1.35332 0 626 -1.35332 1
gene 3 5 172 1.39707 0 733 1.39707 1
gene 1 6 199 1 0 759 1 1
gene 1 199 72 -0.472683 0 760 -0.472683 1
genomeend 50

/* Organism #51 Fitness: 17 Error: 0 */
genomestart 51
trait 1 0.1 0 0 0 0 0 0 0 
trait 2 0.2 0 0 0 0 0 0 0 
trait 3 0.3 0 0 0 0 0 0 0 
node 1 1 1 3
node 2 1 1 1
node 3 2 1 1
node 4 2 1 1
node 5 2 1 1
node 6 3 0 2
node 7 3 0 2
node 14 1 0 0
node 24 1 0 0
node 72 1 0 0
node 84 1 0 0
node 136 1 0 0
node 172 1 0 0
node 199 1 0 0
gene 3 1 6 -0.62814 0 1 -0.62814 1
gene 3 2 6 -1.47199 0 2 -1.47199 1
gene 3 3 6 -0.959651 0 3 -0.959651 1
gene 3 4 6 1.51426 0 4 1.51426 1
gene 3 5 6 -1.96322 0 5 -1.96322 1
gene 3 1 7 5.30173 0 6 5.30173 1
gene 2 2 7 0.0284631 0 7 0.0284631 1
gene 1 3 7 2.36052 0 8 2.36052 1
gene 3 4 7 -1.04717 0 9 -1.04717 1
gene 1 5 7 -2.90353 0 10 -2.90353 1
gene 1 6 7 1.43204 0 16 1.43204 0
gene 3 5 14 -0.188157 0 26 -0.188157 1
gene 3 14 6 -2.5019 0 27 -2.5019 1
gene 3 3 14 1.9833 0 54 1.9833 1
gene 3 4 24 0.224787 0 55 0.224787 1
gene 3 24 6 1.64699 0 56 1.64699 0
gene 1 1 14 2.56937 0 78 2.56937 1
gene 3 4 14 -0.929381 0 192 -0.929381 1
gene 2 24 14 -0.426858 0 208 -0.426858 1
gene 1 6 72 -0.16003 0 220 -0.16003 0
gene 1 72 7 4.39678 0 221 4.39678 1
gene 3 24 84 -1.75139 0 263 -1.75139 1
gene 3 84 6 -1.1501 0 264 -1.1501 1
gene 1 14 72 1.58781 0 381 1.58781 1
gene 3 2 72 -0.701766 0 458 -0.701766 1
gene 2 3 24 -2.73249 0 483 -2.73249 0
gene 1 6 136 1.3564 0 492 1.3564 1
gene 1 136 7 1.41304 0 493 1.41304 1
gene 2 3 172 1 0 625 1 1
gene 2 172 24 -2.7804 0 626 -2.7804 1
gene 3 5 172 0.702881 0 733 0.702881 1
gene 1 6 199 3.1601 0 759 3.1601 1
gene 1 199 72 1.10451 0 760 1.10451 1
genomeend 51

/* Organism #52 Fitness: 9 Error: 0 */
genomestart 52
trait 1 0.1 0 0 0 0 0 0 0 
trait 2 0.2 0 0 0 0 0 0 0 
trait 3 0.3 0 0 0 0 0 0 0 
node 1 1 1 3
node 2 1 1 1
node 3 2 1 1
node 4 2 1 1
node 5 2 1 1
node 6 3 0 2
node 7 3 0 2
node 14 1 0 0
node 24 1 0 0
node 72 1 0 0
node 84 1 0 0
node 136 1 0 0
node 172 1 0 0
node 199 1 0 0
gene 3 1 6 0.827307 0 1 0.827307 1
gene 3 2 6 -0.645959 0 2 -0.645959 1
gene 3 3 6 -3.96698 0 3 -3.96698 1
gene 3 4 6 0.933945 0 4 0.933945 1
gene 3 5 6 -1.05168 0 5 -1.05168 1
gene 3 1 7 1.0829 0 6 1.0829 1
gene 2 2 7 3.13482 0 7 3.13482 1
gene 1 3 7 1.74841 0 8 1.74841 1
gene 3 4 7 1.3468 0 9 1.3468 1
gene 1 5 7 1.70671 0 10 1.70671 1
gene 1 6 7 3.09665 0 16 3.09665 0
gene 3 5 14 -1.51053 0 26 -1.51053 1
gene 3 14 6 1.1326 0 27 1.1326 1
gene 3 3 14 -1.89593 0 54 -1.89593 1
gene 3 4 24 1.88236 0 55 1.88236 1
gene 3 24 6 0.510385 0 56 0.510385 0
gene 1 1 14 0.734615 0 78 0.734615 1
gene 3 4 14 -1.80363 0 192 -1.80363 1
gene 2 24 14 -1.18216 0 208 -1.18216 1
gene 1 6 72 -0.459537 0 220 -0.459537 0
gene 1 72 7 3.2135 0 221 3.2135 1
gene 3 24 84 -2.32056 0 263 -2.32056 1
gene 3 84 6 -1.6628 0 264 -1.6628 1
gene 1 14 72 -1.08923 0 381 -1.08923 1
gene 3 2 72 -1.94594 0 458 -1.94594 1
gene 2 3 24 -2.1658 0 483 -2.1658 0
gene 1 6 136 0.350499 0 492 0.350499 1
gene 1 136 7 3.6881 0 493 3.6881 1
gene 2 3 172 0.534653 0 625 0.534653 1
gene 2 172 24 -3.8213 0 626 -3.8213 1
gene 3 5 172 2.05482 0 733 2.05482 1
gene 1 6 199 0.951137 0 759 0.951137 1
gene 1 199 72 -0.472683 0 760 -0.472683 1
genomeend 52

/* Organism #53 Fitness: 24 Error: 0 */
genomestart 53
trait 1 0.1 0 0 0 0 0 0 0 
trait 2 0.2 0 0 0 0 0 0 0 
trait 3 0.3 0 0 0 0 0 0 0 
node 1 1 1 3
node 2 1 1 1
node 3 2 1 1
node 4 2 1 1
node 5 2 1 1
node 6 3 0 2
node 7 3 0 2
node 14 1 0 0
node 24 1 0 0
node 72 1 0 0
node 84 1 0 0
node 136 1 0 0
node 172 1 0 0
node 199 1 0 0
gene 3 1 6 0.640158 0 1 0.640158 1
gene 3 2 6 -2.40173 0 2 -2.40173 1
gene 3 3 6 -3.84669 0 3 -3.84669 1
gene 3 4 6 2.33068 0 4 2.33068 1
gene 3 5 6 -0.879247 0 5 -0.879247 1
gene 3 1 7 8 0 6 8 1
gene 2 2 7 0.687249 0 7 0.687249 1
gene 1 3 7 5.56499 0 8 5.56499 1
gene 3 4 7 2.36414 0 9 2.36414 1
gene 1 5 7 0.377942 0 10 0.377942 1
gene 1 6 7 5.60728 0 16 5.60728 0
gene 3 5 14 -0.34539 0 26 -0.34539 1
gene 3 14 6 -4.03001 0 27 -4.03001 1
gene 3 3 14 -2.04902 0 54 -2.04902 1
gene 3 4 24 3.30149 0 55 3.30149 1
gene 3 24 6 0.31635 0 56 0.31635 0
gene 1 1 14 3.33107 0 78 3.33107 1
gene 3 4 14 1.61815 0 192 1.61815 1
gene 2 24 14 -0.538507 0 208 -0.538507 1
gene 1 6 72 -0.0127029 0 220 -0.0127029 0
gene 1 72 7 5.11419 0 221 5.11419 1
gene 3 24 84 1.2244 0 263 1.2244 1
gene 3 84 6 -2.97119 0 264 -2.97119 1
gene 1 14 72 0.112011 0 381 0.112011 1
gene 3 2 72 1.45194 0 458 1.45194 1
gene 2 3 24 -1.46246 0 483 -1.46246 0
gene 1 6 136 3.95276 0 492 3.95276 1
gene 1 136 7 5.29124 0 493 5.29124 1
gene 2 3 172 1 0 625 1 1
gene 2 172 24 -0.469644 0 626 -0.469644 1
gene 3 5 172 -1.13232 0 733 -1.13232 1
gene 1 6 199 1 0 759 1 1
gene 1 199 72 -0.792768 0 760 -0.792768 1
genomeend 53

/* Organism #54 Fitness: 9 Error: 0 */
genomestart 54
trait 1 0.1 0 0 0 0 0 0 0 
trait 2 1 0 0 0 0 0.996167 0.404658 0 
trait 3 0.3 0 0 0 0 0 0 0 
node 1 1 1 3
node 2 1 1 1
node 3 2 1 1
node 4 2 1 1
node 5 2 1 1
node 6 3 0 2
node 7 3 0 2
node 14 1 0 0
node 24 1 0 0
node 72 1 0 0
node 84 1 0 0
node 136 1 0 0
node 172 1 0 0
node 199 1 0 0
gene 3 1 6 0.298727 0 1 0.298727 1
gene 3 2 6 1.99297 0 2 1.99297 1
gene 3 3 6 -3.44821 0 3 -3.44821 1
gene 3 4 6 0.750995 0 4 0.750995 1
gene 3 5 6 -3.61829 0 5 -3.61829 1
gene 3 1 7 5.74797 0 6 5.74797 1
gene 2 2 7 0.0649078 0 7 0.0649078 1
gene 1 3 7 3.67367 0 8 3.67367 1
gene 3 4 7 -0.79245 0 9 -0.79245 1
gene 1 5 7 0.651148 0 10 0.651148 1
gene 1 6 7 5.63718 0 16 5.63718 0
gene 3 5 14 -1.56887 0 26 -1.56887 1
gene 3 14 6 -0.0450591 0 27 -0.0450591 1
gene 3 3 14 -1.92523 0 54 -1.92523 1
gene 3 4 24 4.26745 0 55 4.26745 1
gene 3 24 6 0.220516 0 56 0.220516 0
gene 1 1 14 2.09846 0 78 2.09846 1
gene 3 4 14 -0.0866697 0 192 -0.0866697 1
gene 2 24 14 -2.29266 0 208 -2.29266 1
gene 1 6 72 0.275456 0 220 0.275456 0
gene 1 72 7 1.46269 0 221 1.46269 1
gene 3 24 84 -1.74808 0 263 -1.74808 1
gene 3 84 6 -2.82424 0 264 -2.82424 1
gene 1 14 72 -0.370615 0 381 -0.370615 1
gene 3 2 72 1.15421 0 458 1.15421 1
gene 2 3 24 -3.12837 0 483 -3.12837 0
gene 1 6 136 -0.0840327 0 492 -0.0840327 1
gene 1 136 7 -0.162953 0 493 -0.162953 1
gene 2 3 172 1 0 625 1 1
gene 2 172 24 -3.0164 0 626 -3.0164 1
gene 3 5 172 1.99178 0 733 1.99178 1
gene 1 6 199 -0.947435 0 759 -0.947435 1
gene 1 199 72 0.285 0 760 0.285 1
genomeend 54

/* Organism #55 Fitness: 4 Error: 0 */
genomestart 55
trait 1 0.1 0 0 0 0 0 0 0 
trait 2 0.2 0 0 0 0 0 0 0 
trait 3 0.3 0 0 0 0 0 0 0 
node 1 1 1 3
node 2 1 1 1
node 3 2 1 1
node 4 2 1 1
node 5 2 1 1
node 6 3 0 2
node 7 3 0 2
node 14 1 0 0
node 24 1 0 0
node 72 1 0 0
node 84 1 0 0
node 136 1 0 0
node 172 1 0 0
node 199 1 0 0
gene 3 1 6 -1.61765 0 1 -1.61765 1
gene 3 2 6 -0.129207 0 2 -0.129207 1
gene 3 3 6 -2.31663 0 3 -2.31663 1
gene 3 4 6 -1.12202 0 4 -1.12202 1
gene 3 5 6 -2.35839 0 5 -2.35839 1
gene 3 1 7 -0.784966 0 6 -0.784966 1
gene 2 2 7 -0.611824 0 7 -0.611824 1
gene 1 3 7 4.12971 0 8 4.12971 1
gene 3 4 7 2.30595 0 9 2.30595 1
gene 1 5 7 -2.12568 0 10 -2.12568 1
gene 1 6 7 3.66936 0 16 3.66936 0
gene 3 5 14 -0.794675 0 26 -0.794675 1
gene 3 14 6 -2.22022 0 27 -2.22022 1
gene 3 3 14 2.29551 0 54 2.29551 1
gene 3 4 24 -1.91113 0 55 -1.91113 1
gene 3 24 6 -1.07206 0 56 -1.07206 0
gene 1 1 14 0.621445 0 78 0.621445 1
gene 3 4 14 2.72266 0 192 2.72266 1
gene 2 24 14 -1.44731 0 208 -1.44731 1
gene 1 6 72 -1.1451 0 220 -1.1451 0
gene 1 72 7 1.56905 0 221 1.56905 1
gene 3 24 84 1.09423 0 263 1.09423 1
gene 3 84 6 -3.35311 0 264 -3.35311 1
gene 1 14 72 0.191793 0 381 0.191793 1
gene 3 2 72 0.613458 0 458 0.613458 1
gene 2 3 24 -1.49761 0 483 -1.49761 0
gene 1 6 136 -2.04889 0 492 -2.04889 1
gene 1 136 7 4.42627 0 493 4.42627 1
gene 2 3 172 0.0809614 0 625 0.0809614 1
gene 2 172 24 -4.11848 0 626 -4.11848 1
gene 3 5 172 -1.02133 0 733 -1.02133 1
gene 1 6 199 -0.0867302 0 759 -0.0867302 1
gene 1 199 72 0.774423 0 760 0.774423 1
genomeend 55

/* Organism #56 Fitness: 9 Error: 0 */
genomestart 56
trait 1 0.1 0 0 0 0 0 0 0 
trait 2 0.2 0 0 0 0 0 0 0 
trait 3 0.3 0 0 0 0 0 0 0 
node 1 1 1 3
node 2 1 1 1
node 3 2 1 1
node 4 2 1 1
node 5 2 1 1
node 6 3 0 2
node 7 3 0 2
node 14 1 0 0
node 24 1 0 0
node 72 1 0 0
node 84 1 0 0
node 136 1 0 0
node 172 1 0 0
node 199 1 0 0
gene 3 1 6 1.64388 0 1 1.64388 1
gene 3 2 6 1.74109 0 2 1.74109 1
gene 3 3 6 -4.51394 0 3 -4.51394 1
gene 3 4 6 -0.404748 0 4 -0.404748 1
gene 3 5 6 -3.71883 0 5 -3.71883 1
gene 3 1 7 5.59147 0 6 5.59147 1
gene 2 2 7 0.692755 0 7 0.692755 1
gene 1 3 7 4.12971 0 8 4.12971 1
gene 3 4 7 -0.23143 0 9 -0.23143 1
gene 1 5 7 -1.00638 0 10 -1.00638 1
gene 1 6 7 2.69093 0 16 2.69093 0
gene 3 5 14 -0.190569 0 26 -0.190569 1
gene 3 14 6 -0.4064 0 27 -0.4064 1
gene 3 3 14 1.0375 0 54 1.0375 1
gene 3 4 24 4.02244 0 55 4.02244 1
gene 3 24 6 -1.62243 0 56 -1.62243 0
gene 1 1 14 2.22418 0 78 2.22418 1
gene 3 4 14 -1.48384 0 192 -1.48384 1
gene 2 24 14 -2.70661 0 208 -2.70661 1
gene 1 6 72 -0.472683 0 220 -0.472683 0
gene 1 72 7 0.430437 0 221 0.430437 1
gene 3 24 84 -1.48111 0 263 -1.48111 1
gene 3 84 6 -3.53472 0 264 -3.53472 1
gene 1 14 72 -2.21769 0 381 -2.21769 1
gene 3 2 72 1.16037 0 458 1.16037 1
gene 2 3 24 -2.7804 0 483 -2.7804 0
gene 1 6 136 0.303454 0 492 0.303454 1
gene 1 136 7 3.6881 0 493 3.6881 1
gene 2 3 172 2.11298 0 625 2.11298 1
gene 2 172 24 -2.64746 0 626 -2.64746 1
gene 3 5 172 0.67174 0 733 0.67174 1
gene 1 6 199 0.840557 0 759 0.840557 1
gene 1 199 72 0.490356 0 760 0.490356 1
genomeend 56

/* Organism #57 Fitness: 49 Error: 0 */
genomestart 57
trait 1 0.1 0 0 0 0 0 0 0 
trait 2 0.2 0 0 0 0 0 0 0 
trait 3 0.3 0 0 0 0 0 0 0 
node 1 1 1 3
node 2 1 1 1
node 3 2 1 1
node 4 2 1 1
node 5 2 1 1
node 6 3 0 2
node 7 3 0 2
node 14 1 0 0
node 24 1 0 0
node 72 1 0 0
node 84 1 0 0
node 136 1 0 0
node 172 1 0 0
node 199 1 0 0
gene 3 1 6 -0.0504409 0 1 -0.0504409 1
gene 3 2 6 0.013041 0 2 0.013041 1
gene 3 3 6 -2.20346 0 3 -2.20346 1
gene 3 4 6 0.933945 0 4 0.933945 1
gene 3 5 6 -2.35839 0 5 -2.35839 1
gene 3 1 7 6.39625 0 6 6.39625 1
gene 2 2 7 0.692755 0 7 0.692755 1
gene 1 3 7 4.12971 0 8 4.12971 1
gene 3 4 7 0.0669252 0 9 0.0669252 1
gene 1 5 7 -0.443433 0 10 -0.443433 1
gene 1 6 7 3.52948 0 16 3.52948 0
gene 3 5 14 -1.51053 0 26 -1.51053 1
gene 3 14 6 -2.22022 0 27 -2.22022 1
gene 3 3 14 -0.276288 0 54 -0.276288 1
gene 3 4 24 2.17029 0 55 2.17029 1
gene 3 24 6 0.39111 0 56 0.566075 0
gene 1 1 14 2.50693 0 78 2.50693 1
gene 3 4 14 0.669058 0 192 0.669058 1
gene 2 24 14 -0.63301 0 208 -0.63301 1
gene 1 6 72 -0.472683 0 220 -0.472683 0
gene 1 72 7 2.77073 0 221 1.59634 1
gene 3 24 84 -0.691123 0 263 -0.691123 1
gene 3 84 6 -1.44325 0 264 -1.26829 1
gene 1 14 72 -0.815429 0 381 -0.815429 1
gene 3 2 72 0.594286 0 458 0.594286 1
gene 2 3 24 -2.7804 0 483 -2.7804 0
gene 1 6 136 1.66018 0 492 1.16018 1
gene 1 136 7 3.6881 0 493 3.6881 1
gene 2 3 172 1 0 625 0 1
gene 2 172 24 -2.7804 0 626 0 1
gene 3 5 172 0.702881 0 733 0.702881 1
gene 1 6 199 1 0 759 0 1
gene 1 199 72 -0.472683 0 760 0 1
gene 1 172 14 -0.231411 0 777 -0.231411 1
genomeend 57

/* Organism #58 Fitness: 56 Error: 0 */
genomestart 58
trait 1 0.1 0 0 0 0 0 0 0 
trait 2 0.450023 0 0 0 0.00194341 0 0 0 
trait 3 0.3 0 0 0 0 0 0 0 
node 1 1 1 3
node 2 1 1 1
node 3 2 1 1
node 4 2 1 1
node 5 2 1 1
node 6 3 0 2
node 7 3 0 2
node 14 1 0 0
node 24 1 0 0
node 72 1 0 0
node 84 1 0 0
node 136 1 0 0
node 172 1 0 0
node 199 1 0 0
gene 3 1 6 -0.0504409 0 1 -0.0504409 1
gene 3 2 6 0.013041 0 2 0.013041 1
gene 3 3 6 -2.20346 0 3 -2.20346 1
gene 3 4 6 0.933945 0 4 0.933945 1
gene 3 5 6 -2.35839 0 5 -2.35839 1
gene 3 1 7 6.39625 0 6 6.39625 1
gene 2 2 7 0.692755 0 7 0.692755 1
gene 1 3 7 4.12971 0 8 4.12971 1
gene 3 4 7 0.0669252 0 9 0.0669252 1
gene 1 5 7 -0.443433 0 10 -0.443433 1
gene 1 6 7 3.52948 0 16 3.52948 0
gene 3 5 14 -1.51053 0 26 -1.51053 1
gene 3 14 6 -2.22022 0 27 -2.22022 1
gene 3 3 14 -0.276288 0 54 -0.276288 1
gene 3 4 24 2.17029 0 55 2.17029 1
gene 3 24 6 0.39111 0 56 0.566075 0
gene 1 1 14 2.50693 0 78 2.50693 1
gene 3 4 14 0.669058 0 192 0.669058 1
gene 2 24 14 -0.63301 0 208 -0.63301 1
gene 1 6 72 -0.472683 0 220 -0.472683 0
gene 1 72 7 2.77073 0 221 1.59634 1
gene 3 24 84 -0.691123 0 263 -0.691123 1
gene 3 84 6 -1.44325 0 264 -1.26829 1
gene 1 14 72 -0.815429 0 381 -0.815429 1
gene 3 2 72 0.594286 0 458 0.594286 1
gene 2 3 24 -2.7804 0 483 -2.7804 0
gene 1 6 136 1.66018 0 492 1.16018 1
gene 1 136 7 3.6881 0 493 3.6881 1
gene 2 3 172 1 0 625 0 1
gene 2 172 24 -2.7804 0 626 0 1
gene 3 5 172 0.702881 0 733 0.702881 1
gene 1 6 199 1 0 759 0 1
gene 1 199 72 -0.472683 0 760 0 1
genomeend 58

/* Organism #59 Fitness: 56 Error: 0 */
genomestart 59
trait 1 0.1 0 0 0 0 0 0 0 
trait 2 0.2 0 0 0 0 0 0 0 
trait 3 0.3 0 0 0 0 0 0 0 
node 1 1 1 3
node 2 1 1 1
node 3 2 1 1
node 4 2 1 1
node 5 2 1 1
node 6 3 0 2
node 7 3 0 2
node 14 1 0 0
node 24 1 0 0
node 72 1 0 0
node 84 1 0 0
node 136 1 0 0
node 172 1 0 0
node 199 1 0 0
gene 3 1 6 -0.0504409 0 1 -0.0504409 1
gene 3 2 6 0.013041 0 2 0.013041 1
gene 3 3 6 -2.20346 0 3 -2.20346 1
gene 3 4 6 0.933945 0 4 0.933945 1
gene 3 5 6 -2.35839 0 5 -2.35839 1
gene 3 1 7 6.39625 0 6 6.39625 1
gene 2 2 7 0.692755 0 7 0.692755 1
gene 1 3 7 4.12971 0 8 4.12971 1
gene 3 4 7 0.0669252 0 9 0.0669252 1
gene 1 5 7 -0.443433 0 10 -0.443433 1
gene 1 6 7 3.52948 0 16 3.52948 0
gene 3 5 14 -1.51053 0 26 -1.51053 1
gene 3 14 6 -2.22022 0 27 -2.22022 1
gene 3 3 14 -0.276288 0 54 -0.276288 1
gene 3 4 24 2.17029 0 55 2.17029 1
gene 3 24 6 0.39111 0 56 0.566075 0
gene 1 1 14 2.50693 0 78 2.50693 1
gene 3 4 14 0.669058 0 192 0.669058 1
gene 2 24 14 -0.63301 0 208 -0.63301 1
gene 1 6 72 -0.472683 0 220 -0.472683 0
gene 1 72 7 2.77073 0 221 1.59634 1
gene 3 24 84 -0.691123 0 263 -0.691123 1
gene 3 84 6 -1.44325 0 264 -1.26829 1
gene 1 14 72 -0.815429 0 381 -0.815429 1
gene 3 2 72 0.594286 0 458 0.594286 1
gene 2 3 24 -2.7804 0 483 -2.7804 0
gene 1 6 136 1.66018 0 492 1.16018 1
gene 1 136 7 3.6881 0 493 3.6881 1
gene 2 3 172 1 0 625 0 1
gene 2 172 24 -2.7804 0 626 0 1
gene 3 5 172 0.702881 0 733 0.702881 1
gene 1 6 199 1 0 759 0 1
gene 1 199 72 -0.472683 0 760 0 1
genomeend 59

/* Organism #60 Fitness: 28 Error: 0 */
genomestart 60
trait 1 0.1 0 0 0 0 0 0 0 
trait 2 0.2 0 0 0 0 0 0 0 
trait 3 0.3 0 0 0 0 0 0 0 
node 1 1 1 3
node 2 1 1 1
node 3 2 1 1
node 4 2 1 1
node 5 2 1 1
node 6 3 0 2
node 7 3 0 2
node 14 1 0 0
node 24 1 0 0
node 72 1 0 0
node 84 1 0 0
node 136 1 0 0
node 172 1 0 0
node 199 1 0 0
gene 3 1 6 1.12458 0 1 1.12458 1
gene 3 2 6 -1.92379 0 2 -1.92379 1
gene 3 3 6 -1.12559 0 3 -1.12559 1
gene 3 4 6 -0.754405 0 4 -0.754405 1
gene 3 5 6 -2.48244 0 5 -2.48244 1
gene 3 1 7 4.15077 0 6 4.15077 1
gene 2 2 7 -1.02698 0 7 -1.02698 1
gene 1 3 7 5.71636 0 8 5.71636 1
gene 3 4 7 1.13664 0 9 1.13664 1
gene 1 5 7 1.12936 0 10 1.12936 1
gene 1 6 7 3.52948 0 16 3.52948 0
gene 3 5 14 -1.58126 0 26 -1.58126 1
gene 3 14 6 -1.98417 0 27 -1.98417 1
gene 3 3 14 -0.276288 0 54 -0.276288 1
gene 3 4 24 2.07176 0 55 2.07176 1
gene 3 24 6 -0.679246 0 56 -0.679246 0
gene 1 1 14 1.74379 0 78 1.74379 1
gene 3 4 14 0.669058 0 192 0.669058 1
gene 2 24 14 1.84705 0 208 1.84705 1
gene 1 6 72 -2.23497 0 220 -2.23497 0
gene 1 72 7 3.18422 0 221 3.18422 1
gene 3 24 84 -1.02268 0 263 -1.02268 1
gene 3 84 6 -0.213619 0 264 -0.213619 1
gene 1 14 72 -1.64593 0 381 -1.64593 1
gene 3 2 72 1.77382 0 458 1.77382 1
gene 2 3 24 -1.92571 0 483 -1.92571 0
gene 1 6 136 -0.0636344 0 492 -0.0636344 1
gene 1 136 7 1.27824 0 493 1.27824 1
gene 2 3 172 -0.687395 0 625 -0.687395 1
gene 2 172 24 -0.756348 0 626 -0.756348 1
gene 3 5 172 2.25416 0 733 2.25416 1
gene 1 6 199 0.450697 0 759 0.450697 1
gene 1 199 72 -1.683 0 760 -1.683 1
genomeend 60

/* Organism #61 Fitness: 15 Error: 0 */
genomestart 61
trait 1 0.1 0 0 0 0 0 0 0 
trait 2 0.2 0 0 0 0 0 0 0 
trait 3 0.3 0 0 0 0 0 0 0 
node 1 1 1 3
node 2 1 1 1
node 3 2 1 1
node 4 2 1 1
node 5 2 1 1
node 6 3 0 2
node 7 3 0 2
node 14 1 0 0
node 24 1 0 0
node 72 1 0 0
node 84 1 0 0
node 136 1 0 0
node 172 1 0 0
node 199 1 0 0
gene 3 1 6 -2.46731 0 1 -2.46731 1
gene 3 2 6 -0.880742 0 2 -0.880742 1
gene 3 3 6 -2.31818 0 3 -2.31818 1
gene 3 4 6 2.64314 0 4 2.64314 1
gene 3 5 6 -4.67745 0 5 -4.67745 1
gene 3 1 7 7.16754 0 6 7.16754 1
gene 2 2 7 0.031925 0 7 0.031925 1
gene 1 3 7 1.78415 0 8 1.78415 1
gene 3 4 7 -1.30025 0 9 -1.30025 1
gene 1 5 7 -0.926355 0 10 -0.926355 1
gene 1 6 7 3.88287 0 16 3.88287 0
gene 3 5 14 -2.43258 0 26 -2.43258 1
gene 3 14 6 -3.42579 0 27 -3.42579 1
gene 3 3 14 2.151 0 54 2.151 1
gene 3 4 24 1.35186 0 55 1.35186 1
gene 3 24 6 1.23665 0 56 1.23665 0
gene 1 1 14 4.27665 0 78 4.27665 1
gene 3 4 14 0.236342 0 192 0.236342 1
gene 2 24 14 0.508441 0 208 0.508441 1
gene 1 6 72 -1.66032 0 220 -1.66032 0
gene 1 72 7 1.05295 0 221 1.05295 1
gene 3 24 84 -2.76201 0 263 -2.76201 1
gene 3 84 6 0.385305 0 264 0.385305 1
gene 1 14 72 0.105542 0 381 0.105542 1
gene 3 2 72 1.7696 0 458 1.7696 1
gene 2 3 24 -1.1566 0 483 -1.1566 0
gene 1 6 136 -0.321495 0 492 -0.321495 1
gene 1 136 7 -0.673891 0 493 -0.673891 1
gene 2 3 172 2.15576 0 625 2.15576 1
gene 2 172 24 -2.7804 0 626 -2.7804 1
gene 3 5 172 0.702881 0 733 0.702881 1
gene 1 6 199 1 0 759 1 1
gene 1 199 72 -0.472683 0 760 -0.472683 1
genomeend 61

/* Organism #62 Fitness: 7 Error: 0 */
genomestart 62
trait 1 0.1 0 0 0 0 0 0 0 
trait 2 0.2 0 0 0 0 0 0 0 
trait 3 0.3 0 0 0 0 0 0 0 
node 1 1 1 3
node 2 1 1 1
node 3 2 1 1
node 4 2 1 1
node 5 2 1 1
node 6 3 0 2
node 7 3 0 2
node 14 1 0 0
node 24 1 0 0
node 72 1 0 0
node 84 1 0 0
node 136 1 0 0
node 172 1 0 0
node 199 1 0 0
gene 3 1 6 -2.36577 0 1 -2.36577 1
gene 3 2 6 0.498916 0 2 0.498916 1
gene 3 3 6 -0.0505214 0 3 -0.0505214 1
gene 3 4 6 3.41969 0 4 3.41969 1
gene 3 5 6 -3.73885 0 5 -3.73885 1
gene 3 1 7 8 0 6 8 1
gene 2 2 7 3.00103 0 7 3.00103 1
gene 1 3 7 5.06958 0 8 5.06958 1
gene 3 4 7 2.0154 0 9 2.0154 1
gene 1 5 7 -0.914838 0 10 -0.914838 1
gene 1 6 7 4.41437 0 16 4.41437 0
gene 3 5 14 -2.50503 0 26 -2.50503 1
gene 3 14 6 -1.92053 0 27 -1.92053 1
gene 3 3 14 0.490037 0 54 0.490037 1
gene 3 4 24 1.9336 0 55 1.9336 1
gene 3 24 6 2.3455 0 56 2.3455 0
gene 1 1 14 0.62504 0 78 0.62504 1
gene 3 4 14 -0.0962148 0 192 -0.0962148 1
gene 2 24 14 -0.948965 0 208 -0.948965 1
gene 1 6 72 0.959514 0 220 0.959514 0
gene 1 72 7 3.5311 0 221 3.5311 1
gene 3 24 84 0.832087 0 263 0.832087 1
gene 3 84 6 -0.531544 0 264 -0.531544 1
gene 1 14 72 -0.645038 0 381 -0.645038 1
gene 3 2 72 1.95254 0 458 1.95254 1
gene 2 3 24 -3.8052 0 483 -3.8052 0
gene 1 6 136 0.951772 0 492 0.951772 1
gene 1 136 7 2.34626 0 493 2.34626 1
gene 2 3 172 1.57856 0 625 1.57856 1
gene 2 172 24 -2.56401 0 626 -2.56401 1
gene 3 5 172 0.348301 0 733 0.348301 1
gene 1 6 199 -0.475212 0 759 -0.475212 1
gene 1 199 72 -1.57365 0 760 -1.57365 1
genomeend 62

/* Organism #63 Fitness: 8 Error: 0 */
genomestart 63
trait 1 0.1 0 0 0 0 0 0 0 
trait 2 0.2 0 0 0 0 0 0 0 
trait 3 0.3 0 0 0 0 0 0 0 
node 1 1 1 3
node 2 1 1 1
node 3 2 1 1
node 4 2 1 1
node 5 2 1 1
node 6 3 0 2
node 7 3 0 2
node 14 1 0 0
node 24 1 0 0
node 72 1 0 0
node 84 1 0 0
node 136 1 0 0
node 172 1 0 0
node 199 1 0 0
gene 3 1 6 1.07504 0 1 1.07504 1
gene 3 2 6 0.485574 0 2 0.485574 1
gene 3 3 6 -3.19761 0 3 -3.19761 1
gene 3 4 6 -1.43663 0 4 -1.43663 1
gene 3 5 6 -1.73087 0 5 -1.73087 1
gene 3 1 7 6.97233 0 6 6.97233 1
gene 2 2 7 0.266324 0 7 0.266324 1
gene 1 3 7 4.12971 0 8 4.12971 1
gene 3 4 7 1.90811 0 9 1.90811 1
gene 1 5 7 0.309225 0 10 0.309225 1
gene 1 6 7 2.29259 0 16 2.29259 0
gene 3 5 14 1.56158 0 26 1.56158 1
gene 3 14 6 -2.41691 0 27 -2.41691 1
gene 3 3 14 -0.838338 0 54 -0.838338 1
gene 3 4 24 3.20138 0 55 3.20138 1
gene 3 24 6 1.39186 0 56 1.39186 0
gene 1 1 14 -0.910669 0 78 -0.910669 1
gene 3 4 14 -0.619085 0 192 -0.619085 1
gene 2 24 14 0.441959 0 208 0.441959 1
gene 1 6 72 -0.142769 0 220 -0.142769 0
gene 1 72 7 3.04228 0 221 3.04228 1
gene 3 24 84 -3.18484 0 263 -3.18484 1
gene 3 84 6 -2.44041 0 264 -2.44041 1
gene 1 14 72 1.42236 0 381 1.42236 1
gene 3 2 72 -0.596813 0 458 -0.596813 1
gene 2 3 24 -2.62785 0 483 -2.62785 0
gene 1 6 136 1.66018 0 492 1.66018 1
gene 1 136 7 -1.09839 0 493 -1.09839 1
gene 2 3 172 2.2938 0 625 2.2938 1
gene 2 172 24 -4.57959 0 626 -4.57959 1
gene 3 5 172 0.634152 0 733 0.634152 1
gene 1 6 199 2.91696 0 759 2.91696 1
gene 1 199 72 -1.34329 0 760 -1.34329 1
genomeend 63

/* Organism #64 Fitness: 9 Error: 0 */
genomestart 64
trait 1 0.1 0 0 0 0 0 0 0 
trait 2 0.2 0 0 0 0 0 0 0 
trait 3 0.3 0 0 0 0 0 0 0 
node 1 1 1 3
node 2 1 1 1
node 3 2 1 1
node 4 2 1 1
node 5 2 1 1
node 6 3 0 2
node 7 3 0 2
node 14 1 0 0
node 24 1 0 0
node 72 1 0 0
node 84 1 0 0
node 136 1 0 0
node 172 1 0 0
node 199 1 0 0
gene 3 1 6 1.78825 0 1 1.78825 1
gene 3 2 6 -1.69305 0 2 -1.69305 1
gene 3 3 6 -4.66322 0 3 -4.66322 1
gene 3 4 6 -0.726473 0 4 -0.726473 1
gene 3 5 6 -0.700671 0 5 -0.700671 1
gene 3 1 7 8 0 6 8 1
gene 2 2 7 2.67842 0 7 2.67842 1
gene 1 3 7 4.28798 0 8 4.28798 1
gene 3 4 7 2.2528 0 9 2.2528 1
gene 1 5 7 -1.49137 0 10 -1.49137 1
gene 1 6 7 5.47104 0 16 5.47104 0
gene 3 5 14 -3.6297 0 26 -3.6297 1
gene 3 14 6 -3.22732 0 27 -3.22732 1
gene 3 3 14 -1.16845 0 54 -1.16845 1
gene 3 4 24 3.6799 0 55 3.6799 1
gene 3 24 6 2.03162 0 56 2.03162 0
gene 1 1 14 2.79241 0 78 2.79241 1
gene 3 4 14 0.340859 0 192 0.340859 1
gene 2 24 14 -1.95983 0 208 -1.95983 1
gene 1 6 72 -0.146785 0 220 -0.146785 0
gene 1 72 7 2.75463 0 221 2.75463 1
gene 3 24 84 0.384822 0 263 0.384822 1
gene 3 84 6 -0.0414368 0 264 -0.0414368 1
gene 1 14 72 -0.243666 0 381 -0.243666 1
gene 3 2 72 -0.118761 0 458 -0.118761 1
gene 2 3 24 -0.491315 0 483 -0.491315 0
gene 1 6 136 -0.683535 0 492 -0.683535 1
gene 1 136 7 0.985822 0 493 0.985822 1
gene 2 3 172 0.776304 0 625 0.776304 1
gene 2 172 24 -1.10343 0 626 -1.10343 1
gene 3 5 172 1.27335 0 733 1.27335 1
gene 1 6 199 2.46644 0 759 2.46644 1
gene 1 199 72 0.948637 0 760 0.948637 1
genomeend 64

/* Organism #65 Fitness: 7 Error: 0 */
genomestart 65
trait 1 0.1 0 0 0 0 0 0 0 
trait 2 0.2 0 0 0 0 0 0 0 
trait 3 0.3 0 0 0 0 0 0 0 
node 1 1 1 3
node 2 1 1 1
node 3 2 1 1
node 4 2 1 1
node 5 2 1 1
node 6 3 0 2
node 7 3 0 2
node 14 1 0 0
node 24 1 0 0
node 72 1 0 0
node 84 1 0 0
node 136 1 0 0
node 172 1 0 0
node 199 1 0 0
gene 3 1 6 -0.659944 0 1 -0.659944 1
gene 3 2 6 1.93495 0 2 1.93495 1
gene 3 3 6 1.006 0 3 1.006 1
gene 3 4 6 -1.97286 0 4 -1.97286 1
gene 3 5 6 -0.904738 0 5 -0.904738 1
gene 3 1 7 6.39625 0 6 6.39625 1
gene 2 2 7 1.12811 0 7 1.12811 1
gene 1 3 7 3.7183 0 8 3.7183 1
gene 3 4 7 0.0669252 0 9 0.0669252 1
gene 1 5 7 -1.09948 0 10 -1.09948 1
gene 1 6 7 1.3809 0 16 1.3809 0
gene 3 5 14 2.12594 0 26 2.12594 1
gene 3 14 6 -0.0622169 0 27 -0.0622169 1
gene 3 3 14 0.0121868 0 54 0.0121868 1
gene 3 4 24 1.08476 0 55 1.08476 1
gene 3 24 6 0.0643909 0 56 0.0643909 0
gene 1 1 14 2.44732 0 78 2.44732 1
gene 3 4 14 1.46979 0 192 1.46979 1
gene 2 24 14 0.700652 0 208 0.700652 1
gene 1 6 72 -2.74486 0 220 -2.74486 0
gene 1 72 7 4.84524 0 221 4.84524 1
gene 3 24 84 0.893322 0 263 0.893322 1
gene 3 84 6 -1.70442 0 264 -1.70442 1
gene 1 14 72 0.850133 0 381 0.850133 1
gene 3 2 72 2.2671 0 458 2.2671 1
gene 2 3 24 -2.12599 0 483 -2.12599 0
gene 1 6 136 1.66018 0 492 1.66018 1
gene 1 136 7 3.92751 0 493 3.92751 1
gene 2 3 172 1.7178 0 625 1.7178 1
gene 2 172 24 -4.36224 0 626 -4.36224 1
gene 3 5 172 2.12786 0 733 2.12786 1
gene 1 6 199 -0.0732001 0 759 -0.0732001 1
gene 1 199 72 1.12953 0 760 1.12953 1
genomeend 65

/* Organism #66 Fitness: 9 Error: 0 */
genomestart 66
trait 1 0.1 0 0 0 0 0 0 0 
trait 2 0.2 0 0 0 0 0 0 0 
trait 3 0.3 0 0 0 0 0 0 0 
node 1 1 1 3
node 2 1 1 1
node 3 2 1 1
node 4 2 1 1
node 5 2 1 1
node 6 3 0 2
node 7 3 0 2
node 14 1 0 0
node 24 1 0 0
node 72 1 0 0
node 84 1 0 0
