
/* Species #2 : (Size 8) (AF 100.75) (Age 27)  */


/* Organism #0 Fitness: 153 Error: 0 */
genomestart 0
trait 1 0.1 0 0.219329 0 0 0.111017 0.1051 0 
trait 2 0.2 0 0.144932 0 0.104772 0 0 0.229757 
trait 3 0.3 0 0 0 0 0 0 0 
node 1 1 1 3
node 2 2 1 1
node 3 2 1 1
node 4 1 1 1
node 5 3 1 1
node 6 3 0 2
node 7 2 0 2
node 9 1 0 0
node 22 1 0 0
gene 1 1 6 -5.57868 0 1 -5.57868 1
gene 3 2 6 -6.11623 0 2 -6.11623 1
gene 1 3 6 1.25207 0 3 1.25207 1
gene 3 4 6 1.52063 0 4 1.52063 0
gene 1 5 6 0.467323 0 5 0.467323 0
gene 3 1 7 -1.19597 0 6 -1.19597 1
gene 1 2 7 -3.80452 0 7 -3.80452 1
gene 3 3 7 -6.89361 0 8 -6.89361 1
gene 3 4 7 -6.92045 0 9 -6.92045 1
gene 1 5 7 -1.47908 0 10 -1.47908 1
gene 3 4 9 -1.36965 0 15 -1.36965 1
gene 3 9 6 -2.89943 0 16 -2.89943 1
gene 1 5 22 0.598242 0 54 0.598242 1
gene 1 22 6 1.40236 0 55 1.40236 1
genomeend 0

/* Organism #1 Fitness: 82 Error: 0 */
genomestart 1
trait 1 0.1 0 0.219329 0 0 0.111017 0.1051 0 
trait 2 0.2 0 0.144932 0 0.104772 0 0 0.229757 
trait 3 0.3 0 0 0 0 0 0 0 
node 1 1 1 3
node 2 2 1 1
node 3 2 1 1
node 4 1 1 1
node 5 3 1 1
node 6 3 0 2
node 7 2 0 2
node 9 1 0 0
node 22 1 0 0
gene 1 1 6 -1.38828 0 1 -1.38828 1
gene 3 2 6 -8 0 2 -8 1
gene 1 3 6 -1.07905 0 3 -1.07905 1
gene 3 4 6 -0.270528 0 4 -0.270528 0
gene 1 5 6 0.693627 0 5 0.693627 1
gene 3 1 7 -0.213517 0 6 -0.213517 1
gene 1 2 7 -2.80065 0 7 -2.80065 1
gene 3 3 7 -6.68581 0 8 -6.68581 1
gene 3 4 7 -7.09028 0 9 -7.09028 1
gene 1 5 7 -1.47908 0 10 -1.47908 1
gene 3 4 9 -1.36965 0 15 -1.36965 1
gene 3 9 6 -2.89943 0 16 -2.89943 1
gene 1 5 22 1.95085 0 54 1.95085 1
gene 1 22 6 -0.428123 0 55 -0.428123 1
genomeend 1

/* Organism #2 Fitness: 86 Error: 0 */
genomestart 2
trait 1 0.1 0 0.219329 0 0 0.111017 0.1051 0 
trait 2 0.2 0 0.144932 0 0.104772 0 0 0.229757 
trait 3 0.3 0 0 0 0 0 0 0 
node 1 1 1 3
node 2 2 1 1
node 3 2 1 1
node 4 1 1 1
node 5 3 1 1
node 6 3 0 2
node 7 2 0 2
node 9 1 0 0
node 22 1 0 0
gene 1 1 6 -5.17934 0 1 -5.17934 1
gene 3 2 6 2.04592 0 2 2.04592 1
gene 1 3 6 1.85099 0 3 1.85099 1
gene 3 4 6 -0.850868 0 4 -0.850868 0
gene 1 5 6 -0.69778 0 5 -0.69778 0
gene 3 1 7 -0.0719594 0 6 -0.0719594 1
gene 1 2 7 1.08171 0 7 1.08171 1
gene 3 3 7 -6.45352 0 8 -6.45352 1
gene 3 4 7 -5.56759 0 9 -5.56759 1
gene 1 5 7 -0.662076 0 10 -0.662076 1
gene 3 4 9 -0.0394394 0 15 -0.0394394 1
gene 3 9 6 -1.38615 0 16 -1.38615 1
gene 1 5 22 0.954046 0 54 0.954046 1
gene 1 22 6 1.10228 0 55 1.10228 1
genomeend 2

/* Organism #3 Fitness: 153 Error: 0 */
genomestart 3
trait 1 0.1 0 0.219329 0 0 0.111017 0.1051 0 
trait 2 0.2 0 0.144932 0 0.104772 0 0 0.229757 
trait 3 0.3 0 0 0 0 0 0 0 
node 1 1 1 3
node 2 2 1 1
node 3 2 1 1
node 4 1 1 1
node 5 3 1 1
node 6 3 0 2
node 7 2 0 2
node 9 1 0 0
node 22 1 0 0
gene 1 1 6 -5.57868 0 1 -5.57868 1
gene 3 2 6 -6.11623 0 2 -6.11623 1
gene 1 3 6 1.25207 0 3 1.25207 1
gene 3 4 6 1.52063 0 4 1.52063 0
gene 1 5 6 0.467323 0 5 0.467323 0
gene 3 1 7 -1.19597 0 6 -1.19597 1
gene 1 2 7 -3.80452 0 7 -3.80452 1
gene 3 3 7 -6.89361 0 8 -6.89361 1
gene 3 4 7 -6.92045 0 9 -6.92045 1
gene 1 5 7 -1.47908 0 10 -1.47908 1
gene 3 4 9 -1.36965 0 15 -1.36965 1
gene 3 9 6 -2.89943 0 16 -2.89943 1
gene 1 5 22 0.598242 0 54 0.598242 1
gene 1 22 6 1.40236 0 55 1.40236 1
genomeend 3

/* Organism #4 Fitness: 97 Error: 0 */
genomestart 4
trait 1 0.1 0 0.219329 0 0 0.111017 0.1051 0 
trait 2 0.2 0 0.144932 0 0.104772 0 0 0.229757 
trait 3 0.3 0 0 0 0 0 0 0 
node 1 1 1 3
node 2 2 1 1
node 3 2 1 1
node 4 2 1 1
node 5 3 1 1
node 6 3 0 2
node 7 2 0 2
node 9 1 0 0
node 22 1 0 0
gene 1 1 6 -5.41172 0 1 -5.41172 1
gene 3 2 6 -8 0 2 -8 1
gene 1 3 6 1.56466 0 3 1.56466 1
gene 3 4 6 2.13609 0 4 2.13609 0
gene 1 5 6 -0.41862 0 5 -0.41862 0
gene 3 1 7 -0.623182 0 6 -0.623182 1
gene 1 2 7 -4.78091 0 7 -4.78091 1
gene 3 3 7 -7.44188 0 8 -7.44188 1
gene 3 4 7 -5.79489 0 9 -5.79489 1
gene 1 5 7 -2.23826 0 10 -2.23826 1
gene 3 4 9 0.998597 0 15 0.998597 1
gene 3 9 6 -3.94808 0 16 -3.94808 1
gene 1 5 22 2.52285 0 54 2.52285 1
gene 1 22 6 1.40236 0 55 1.40236 1
genomeend 4

/* Organism #5 Fitness: 25 Error: 0 */
genomestart 5
trait 1 0.1 0 0.219329 0 0 0.111017 0.1051 0 
trait 2 0.2 0 0.144932 0 0.104772 0 0 0.229757 
trait 3 0.3 0 0 0 0 0 0 0 
node 1 1 1 3
node 2 2 1 1
node 3 2 1 1
node 4 1 1 1
node 5 3 1 1
node 6 3 0 2
node 7 2 0 2
node 9 1 0 0
node 22 1 0 0
gene 1 1 6 -5.57868 0 1 -5.57868 1
gene 3 2 6 -8 0 2 -8 1
gene 1 3 6 1.75615 0 3 1.75615 1
gene 3 4 6 -0.0408946 0 4 -0.0408946 0
gene 1 5 6 1.7248 0 5 1.7248 0
gene 3 1 7 0.416279 0 6 0.416279 1
gene 1 2 7 1.21351 0 7 1.21351 1
gene 3 3 7 -7.78488 0 8 -7.78488 1
gene 3 4 7 -6.51158 0 9 -6.51158 1
gene 1 5 7 1.17008 0 10 1.17008 1
gene 3 4 9 -2.66529 0 15 -2.66529 1
gene 3 9 6 -0.924101 0 16 -0.924101 1
gene 1 5 22 0.820589 0 54 0.820589 1
gene 1 22 6 -0.333329 0 55 -0.333329 1
genomeend 5

/* Organism #6 Fitness: 57 Error: 0 */
genomestart 6
trait 1 0.1 0 0.219329 0 0 0.111017 0.1051 0 
trait 2 0.2 0 0.144932 0 0.104772 0 0 0.229757 
trait 3 0.3 0 0 0 0 0 0 0 
node 1 1 1 3
node 2 2 1 1
node 3 2 1 1
node 4 1 1 1
node 5 3 1 1
node 6 3 0 2
node 7 2 0 2
node 9 1 0 0
node 22 1 0 0
gene 1 1 6 -4.99176 0 1 -4.99176 1
gene 3 2 6 -8 0 2 -8 1
gene 1 3 6 2.34794 0 3 2.34794 1
gene 3 4 6 3.63718 0 4 3.63718 0
gene 1 5 6 -0.235647 0 5 -0.235647 0
gene 3 1 7 -2.81802 0 6 -2.81802 1
gene 1 2 7 -2.91849 0 7 -2.91849 1
gene 3 3 7 -7.87533 0 8 -7.87533 1
gene 3 4 7 -5.95415 0 9 -5.95415 1
gene 1 5 7 -2.78689 0 10 -2.78689 1
gene 3 4 9 -1.90735 0 15 -1.90735 1
gene 3 9 6 -2.61769 0 16 -2.61769 1
gene 1 5 22 0.31344 0 54 0.31344 1
gene 1 22 6 1.40236 0 55 1.40236 1
genomeend 6

/* Organism #7 Fitness: 153 Error: 0 */
genomestart 7
trait 1 0.1 0 0.219329 0 0 0.111017 0.1051 0 
trait 2 0.2 0 0.144932 0 0.104772 0 0 0.229757 
trait 3 0.3 0 0 0 0 0 0 0 
node 1 1 1 3
node 2 2 1 1
node 3 2 1 1
node 4 1 1 1
node 5 3 1 1
node 6 3 0 2
node 7 2 0 2
node 9 1 0 0
node 22 1 0 0
gene 1 1 6 -5.57868 0 1 -5.57868 1
gene 1 2 6 -5.7491 0 2 -5.7491 1
gene 1 3 6 1.25207 0 3 1.25207 1
gene 3 4 6 1.52063 0 4 1.52063 0
gene 1 5 6 0.467323 0 5 0.467323 0
gene 3 1 7 -1.19597 0 6 -1.19597 1
gene 1 2 7 -3.80452 0 7 -3.80452 1
gene 3 3 7 -6.89361 0 8 -6.89361 1
gene 3 4 7 -6.92045 0 9 -6.92045 1
gene 1 5 7 -1.47908 0 10 -1.47908 1
gene 3 4 9 -1.36965 0 15 -1.36965 1
gene 3 9 6 -2.89943 0 16 -2.89943 1
gene 1 5 22 0.598242 0 54 0.598242 1
gene 1 22 6 1.40236 0 55 1.40236 1
genomeend 7

/* Species #4 : (Size 10) (AF 106.8) (Age 25)  */


/* Organism #8 Fitness: 158 Error: 0 */
genomestart 8
trait 1 0.1 0 0.447402 0 0 0 0 0 
trait 2 0.2 0 0 0 0 0 0 0 
trait 3 0.3 0 0 0 0 0 0 0 
node 1 1 1 3
node 2 3 1 1
node 3 2 1 1
node 4 3 1 1
node 5 3 1 1
node 6 3 0 2
node 7 2 0 2
node 9 1 0 0
node 21 1 0 0
gene 1 1 6 -8 0 1 -8 1
gene 3 2 6 2.56068 0 2 2.56068 1
gene 1 3 6 4.08877 0 3 4.08877 1
gene 2 4 6 1.54984 0 4 1.54984 0
gene 1 5 6 1.20358 0 5 1.20358 1
gene 3 1 7 0.0861432 0 6 0.0861432 1
gene 1 2 7 -1.28519 0 7 -1.28519 1
gene 3 3 7 -1.60875 0 8 -1.60875 1
gene 3 4 7 -5.1438 0 9 -5.1438 0
gene 1 5 7 -8 0 10 -8 1
gene 3 4 9 4.53691 0 15 4.53691 1
gene 3 9 6 -1.82918 0 16 -1.82918 1
gene 3 4 21 3.32837 0 50 3.32837 1
gene 3 21 7 -0.0460117 0 51 -0.0460117 1
gene 3 21 9 0.385194 0 62 0.385194 1
gene 3 7 9 -0.111142 0 117 -0.111142 1
genomeend 8

/* Organism #9 Fitness: 158 Error: 0 */
genomestart 9
trait 1 0.1 0 0.447402 0 0 0 0 0 
trait 2 0.2 0 0 0 0 0 0 0 
trait 3 0.3 0 0 0 0 0 0 0 
node 1 1 1 3
node 2 3 1 1
node 3 2 1 1
node 4 3 1 1
node 5 3 1 1
node 6 3 0 2
node 7 2 0 2
node 9 1 0 0
node 21 1 0 0
gene 1 1 6 -8 0 1 -8 1
gene 3 2 6 2.56068 0 2 2.56068 1
gene 1 3 6 4.08877 0 3 4.08877 1
gene 2 4 6 1.54984 0 4 1.54984 0
gene 1 5 6 1.20358 0 5 1.20358 1
gene 3 1 7 0.0861432 0 6 0.0861432 1
gene 1 2 7 -1.28519 0 7 -1.28519 1
gene 3 3 7 -1.60875 0 8 -1.60875 1
gene 3 4 7 -5.1438 0 9 -5.1438 0
gene 1 5 7 -8 0 10 -8 1
gene 3 4 9 4.53691 0 15 4.53691 1
gene 3 9 6 -1.82918 0 16 -1.82918 1
gene 3 4 21 3.32837 0 50 3.32837 1
gene 3 21 7 -0.0460117 0 51 -0.0460117 1
gene 3 21 9 0.385194 0 62 0.385194 1
gene 3 7 9 -0.111142 0 117 -0.111142 1
genomeend 9

/* Organism #10 Fitness: 70 Error: 0 */
genomestart 10
trait 1 0.1 0 0.447402 0 0 0 0 0 
trait 2 1 0 0 0 0 0 0.189927 0 
trait 3 0.3 0 0 0 0 0 0 0 
node 1 1 1 3
node 2 3 1 1
node 3 2 1 1
node 4 3 1 1
node 5 3 1 1
node 6 3 0 2
node 7 2 0 2
node 9 1 0 0
node 21 1 0 0
gene 1 1 6 -7.30611 0 1 -7.30611 1
gene 3 2 6 2.25783 0 2 2.25783 1
gene 1 3 6 6.34729 0 3 6.34729 1
gene 2 4 6 2.53452 0 4 2.53452 0
gene 1 5 6 1.34918 0 5 1.34918 1
gene 3 1 7 1.90615 0 6 1.90615 1
gene 1 2 7 0.904749 0 7 0.904749 1
gene 3 3 7 -1.2275 0 8 -1.2275 1
gene 3 4 7 0.828243 0 9 0.828243 1
gene 1 5 7 -7.15363 0 10 -7.15363 1
gene 3 4 9 5.86266 0 15 5.86266 1
gene 3 9 6 -3.3831 0 16 -3.3831 1
gene 3 4 21 3.32837 0 50 3.32837 1
gene 3 21 7 -1.33534 0 51 -1.33534 1
gene 3 21 9 2.08458 0 62 2.08458 1
gene 3 7 9 -0.874028 0 117 -0.874028 1
genomeend 10

/* Organism #11 Fitness: 84 Error: 0 */
genomestart 11
trait 1 0.1 0 0.447402 0 0 0 0 0 
trait 2 0 0 0 0 0.485925 0 0 0 
trait 3 0.3 0 0 0 0 0 0 0 
node 1 1 1 3
node 2 3 1 1
node 3 2 1 1
node 4 3 1 1
node 5 3 1 1
node 6 3 0 2
node 7 2 0 2
node 9 1 0 0
node 21 1 0 0
gene 1 1 6 -8 0 1 -8 1
gene 3 2 6 0.308212 0 2 0.308212 1
gene 1 3 6 2.94666 0 3 2.94666 1
gene 2 4 6 2.08403 0 4 2.08403 1
gene 1 5 6 2.25642 0 5 2.25642 1
gene 3 1 7 0.372999 0 6 0.372999 1
gene 1 2 7 -1.29663 0 7 -1.29663 1
gene 3 3 7 0.436534 0 8 0.436534 1
gene 3 4 7 -2.90642 0 9 -2.90642 1
gene 1 5 7 -8 0 10 -8 1
gene 3 4 9 6.46385 0 15 6.46385 1
gene 3 9 6 -0.481244 0 16 -0.481244 1
gene 3 4 21 5.39645 0 50 5.39645 1
gene 3 21 7 -0.0460117 0 51 -0.0460117 1
gene 3 21 9 0.385194 0 62 0.385194 1
gene 3 7 9 1.37897 0 117 1.37897 1
genomeend 11

/* Organism #12 Fitness: 158 Error: 0 */
genomestart 12
trait 1 0.1 0 0.447402 0 0 0 0 0 
trait 2 0.2 0 0 0 0 0 0 0 
trait 3 0.3 0 0 0 0 0 0 0 
node 1 1 1 3
node 2 3 1 1
node 3 2 1 1
node 4 3 1 1
node 5 3 1 1
node 6 3 0 2
node 7 2 0 2
node 9 1 0 0
node 21 1 0 0
gene 1 1 6 -8 0 1 -8 1
gene 3 2 6 2.56068 0 2 2.56068 1
gene 1 3 6 4.08877 0 3 4.08877 1
gene 2 4 6 1.54984 0 4 1.54984 0
gene 1 5 6 1.20358 0 5 1.20358 1
gene 3 1 7 0.0861432 0 6 0.0861432 1
gene 1 2 7 -1.28519 0 7 -1.28519 1
gene 3 3 7 -1.60875 0 8 -1.60875 1
gene 3 4 7 -5.1438 0 9 -5.1438 0
gene 1 5 7 -8 0 10 -8 1
gene 3 4 9 4.53691 0 15 4.53691 1
gene 3 9 6 -1.82918 0 16 -1.82918 1
gene 3 4 21 3.32837 0 50 3.32837 1
gene 3 21 7 -0.0460117 0 51 -0.0460117 1
gene 3 21 9 0.385194 0 62 0.385194 1
gene 3 7 9 -0.111142 0 117 -0.111142 1
genomeend 12

/* Organism #13 Fitness: 77 Error: 0 */
genomestart 13
trait 1 0.1 0 0.447402 0 0 0 0 0 
trait 2 0.2 0 0 0 0 0 0 0 
trait 3 0.3 0 0 0 0 0 0 0 
node 1 1 1 3
node 2 3 1 1
node 3 2 1 1
node 4 3 1 1
node 5 3 1 1
node 6 3 0 2
node 7 2 0 2
node 9 1 0 0
node 21 1 0 0
gene 1 1 6 -8 0 1 -8 1
gene 3 2 6 4.75009 0 2 4.75009 1
gene 1 3 6 6.5786 0 3 6.5786 1
gene 2 4 6 0.189482 0 4 0.189482 0
gene 1 5 6 -0.953492 0 5 -0.953492 1
gene 3 1 7 1.00511 0 6 1.00511 1
gene 1 2 7 -2.87931 0 7 -2.87931 1
gene 3 3 7 -4.0629 0 8 -4.0629 1
gene 3 4 7 -3.39483 0 9 -3.39483 0
gene 1 5 7 -7.33383 0 10 -7.33383 1
gene 3 4 9 5.04872 0 15 5.04872 1
gene 3 9 6 -2.65177 0 16 -2.65177 1
gene 3 4 21 5.16693 0 50 5.16693 1
gene 3 21 7 -0.40555 0 51 -0.40555 1
gene 3 21 9 0.385194 0 62 0.385194 1
gene 3 7 9 1.59376 0 117 1.59376 1
genomeend 13

/* Organism #14 Fitness: 158 Error: 0 */
genomestart 14
trait 1 0.1 0 0.447402 0 0 0 0 0 
trait 2 0.2 0 0 0 0 0 0 0 
trait 3 0.3 0 0 0 0 0 0 0 
node 1 1 1 3
node 2 3 1 1
node 3 2 1 1
node 4 3 1 1
node 5 3 1 1
node 6 3 0 2
node 7 2 0 2
node 9 1 0 0
node 21 1 0 0
node 105 1 0 0
gene 1 1 6 -7.30611 0 1 -7.30611 1
gene 3 2 6 2.56068 0 2 2.56068 1
gene 1 3 6 4.08877 0 3 4.08877 1
gene 2 4 6 1.54984 0 4 1.54984 0
gene 1 5 6 1.20358 0 5 1.20358 1
gene 3 1 7 0.0861432 0 6 0.0861432 1
gene 1 2 7 -1.28519 0 7 -1.28519 1
gene 3 3 7 -1.60875 0 8 -1.60875 1
gene 3 4 7 -5.1438 0 9 -5.1438 0
gene 1 5 7 -8 0 10 -8 1
gene 3 4 9 4.53691 0 15 4.53691 1
gene 3 9 6 -1.82918 0 16 -1.82918 1
gene 3 4 21 3.32837 0 50 3.32837 1
gene 3 21 7 -0.0460117 0 51 -0.0460117 1
gene 3 21 9 0.377506 0 62 0.377506 1
gene 3 7 9 -0.111142 0 117 -0.111142 0
gene 3 7 105 1 0 352 0 1
gene 3 105 9 -0.111142 0 353 0 1
genomeend 14

/* Organism #15 Fitness: 76 Error: 0 */
genomestart 15
trait 1 0.1 0 0.447402 0 0 0 0 0 
trait 2 0.2 0 0 0 0 0 0 0 
trait 3 0.3 0 0 0 0 0 0 0 
node 1 1 1 3
node 2 3 1 1
node 3 2 1 1
node 4 3 1 1
node 5 3 1 1
node 6 3 0 2
node 7 2 0 2
node 9 1 0 0
node 21 1 0 0
gene 1 1 6 -6.86934 0 1 -6.86934 1
gene 3 2 6 4.30473 0 2 4.30473 1
gene 1 3 6 5.37397 0 3 5.37397 1
gene 2 4 6 3.29523 0 4 3.29523 0
gene 1 5 6 0.928607 0 5 0.928607 1
gene 3 1 7 0.813581 0 6 0.813581 1
gene 1 2 7 -3.7055 0 7 -3.7055 1
gene 3 3 7 -2.23741 0 8 -2.23741 1
gene 3 4 7 -5.47836 0 9 -5.47836 0
gene 1 5 7 -8 0 10 -8 1
gene 3 4 9 6.82932 0 15 6.82932 1
gene 3 9 6 -3.34816 0 16 -3.34816 1
gene 3 4 21 3.49718 0 50 3.49718 1
gene 3 21 7 -0.0460117 0 51 -0.0460117 1
gene 3 21 9 0.385194 0 62 0.385194 1
gene 3 7 9 0.236856 0 117 0.236856 1
genomeend 15

/* Organism #16 Fitness: 84 Error: 0 */
genomestart 16
trait 1 0.1 0 0.447402 0 0 0 0 0 
trait 2 0.2 0 0 0 0 0 0 0 
trait 3 0.3 0 0 0 0 0 0 0 
node 1 1 1 3
node 2 3 1 1
node 3 2 1 1
node 4 3 1 1
node 5 3 1 1
node 6 1 0 2
node 7 2 0 2
node 9 1 0 0
node 21 1 0 0
gene 1 1 6 -8 0 1 -8 1
gene 3 2 6 0.33936 0 2 0.33936 1
gene 1 3 6 2.50842 0 3 2.50842 1
gene 2 4 6 1.34816 0 4 1.34816 0
gene 1 5 6 1.82072 0 5 1.82072 1
gene 3 1 7 1.01303 0 6 1.01303 1
gene 1 2 7 0.930975 0 7 0.930975 1
gene 3 3 7 -2.47794 0 8 -2.47794 1
gene 3 4 7 -7.50078 0 9 -7.50078 0
gene 1 5 7 -6.29636 0 10 -6.29636 1
gene 3 4 9 4.19271 0 15 4.19271 1
gene 3 9 6 -1.70692 0 16 -1.70692 1
gene 3 4 21 4.94083 0 50 4.94083 1
gene 3 21 7 -1.9485 0 51 -1.9485 1
gene 3 21 9 0.428108 0 62 0.428108 1
gene 3 7 9 -0.111142 0 117 -0.111142 1
genomeend 16

/* Organism #17 Fitness: 45 Error: 0 */
genomestart 17
trait 1 0.1 0 0.447402 0 0 0 0 0 
trait 2 0.2 0 0 0 0 0 0 0 
trait 3 0.3 0 0 0 0 0 0 0 
node 1 1 1 3
node 2 3 1 1
node 3 2 1 1
node 4 3 1 1
node 5 3 1 1
node 6 3 0 2
node 7 2 0 2
node 9 1 0 0
node 21 1 0 0
gene 1 1 6 -4.99656 0 1 -4.99656 1
gene 3 2 6 0.468334 0 2 0.468334 1
gene 1 3 6 5.01361 0 3 5.01361 1
gene 2 4 6 -1.10211 0 4 -1.10211 0
gene 1 5 6 -1.06509 0 5 -1.06509 1
gene 3 1 7 -1.26069 0 6 -1.26069 1
gene 1 2 7 -1.15982 0 7 -1.15982 1
gene 3 3 7 0.346586 0 8 0.346586 1
gene 3 4 7 -4.90704 0 9 -4.90704 0
gene 1 5 7 -1.42384 0 10 -1.42384 1
gene 3 4 9 5.96678 0 15 5.96678 1
gene 3 9 6 -1.82918 0 16 -1.82918 1
gene 3 4 21 1.85341 0 50 1.85341 1
gene 3 21 7 -0.0460117 0 51 -0.0460117 1
gene 3 21 9 0.365508 0 62 0.365508 1
gene 3 7 9 -2.30627 0 117 -2.30627 1
genomeend 17

/* Species #6 : (Size 10) (AF 91.4) (Age 23)  */


/* Organism #18 Fitness: 155 Error: 0 */
genomestart 18
trait 1 0.1 0 0 0 0 0 0 0 
trait 2 0.2 0 0 0 0 0 0 0 
trait 3 0.3 0 0 0 0 0 0 0 
node 1 1 1 3
node 2 3 1 1
node 3 2 1 1
node 4 3 1 1
node 5 3 1 1
node 6 3 0 2
node 7 2 0 2
node 9 1 0 0
node 26 1 0 0
node 52 1 0 0
gene 1 1 6 -6.48939 0 1 -6.48939 1
gene 3 2 6 3.70089 0 2 3.70089 1
gene 1 3 6 1.57418 0 3 1.57418 1
gene 3 4 6 1.72959 0 4 1.72959 0
gene 1 5 6 0.881494 0 5 0.881494 0
gene 3 1 7 1.51784 0 6 1.51784 1
gene 1 2 7 -1.89947 0 7 -1.89947 0
gene 3 3 7 -6.63537 0 8 -6.63537 1
gene 3 4 7 -3.37184 0 9 -3.37184 1
gene 1 5 7 -6.27696 0 10 -6.27696 1
gene 3 4 9 5.40704 0 15 5.40704 1
gene 3 9 6 -1.97643 0 16 -1.97643 1
gene 2 6 7 -1.8571 0 38 -1.8571 1
gene 3 3 26 4.22427 0 70 4.22427 1
gene 3 26 7 -4.41475 0 71 -4.41475 1
gene 1 2 52 1 0 172 0 1
gene 1 52 7 -1.89947 0 173 0 1
genomeend 18

/* Organism #19 Fitness: 57 Error: 0 */
genomestart 19
trait 1 0.1 0 0 0 0 0 0 0 
trait 2 0.15 0 0 0 0 0.14172 0.153675 0 
trait 3 0.3 0 0 0 0 0 0 0 
node 1 1 1 3
node 2 3 1 1
node 3 2 1 1
node 4 3 1 1
node 5 3 1 1
node 6 3 0 2
node 7 2 0 2
node 9 1 0 0
node 26 1 0 0
node 52 1 0 0
gene 1 1 6 -4.3662 0 1 -4.3662 1
gene 3 2 6 2.34037 0 2 2.34037 1
gene 1 3 6 1.11078 0 3 1.11078 1
gene 3 4 6 3.21552 0 4 3.21552 0
gene 1 5 6 3.64134 0 5 3.64134 0
gene 3 1 7 1.63711 0 6 1.63711 1
gene 1 2 7 -2.42031 0 7 -2.42031 0
gene 3 3 7 -4.87258 0 8 -4.87258 1
gene 3 4 7 0.269268 0 9 0.269268 1
gene 1 5 7 -4.02628 0 10 -4.02628 1
gene 3 4 9 4.58931 0 15 4.58931 1
gene 3 9 6 -0.415371 0 16 -0.415371 1
gene 2 6 7 -2.03286 0 38 -2.03286 1
gene 3 3 26 2.5276 0 70 2.5276 1
gene 3 26 7 -3.65441 0 71 -3.65441 1
gene 1 2 52 -0.886338 0 172 -0.886338 1
gene 1 52 7 -3.53079 0 173 -3.53079 1
genomeend 19

/* Organism #20 Fitness: 17 Error: 0 */
genomestart 20
trait 1 0.1 0 0 0 0 0 0 0 
trait 2 0.15 0 0 0 0 0.14172 0.153675 0 
trait 3 0.3 0 0 0 0 0 0 0 
node 1 1 1 3
node 2 3 1 1
node 3 2 1 1
node 4 3 1 1
node 5 3 1 1
node 6 3 0 2
node 7 2 0 2
node 9 1 0 0
node 26 1 0 0
node 52 1 0 0
gene 1 1 6 -8 0 1 -8 1
gene 3 2 6 1.93226 0 2 1.93226 1
gene 1 3 6 1.44761 0 3 1.44761 1
gene 3 4 6 3.17872 0 4 3.17872 0
gene 2 5 6 2.09275 0 5 2.09275 0
gene 3 1 7 -0.913412 0 6 -0.913412 1
gene 1 2 7 -3.2896 0 7 -3.2896 0
gene 3 3 7 -3.297 0 8 -3.297 1
gene 3 4 7 -3.33787 0 9 -3.33787 1
gene 1 5 7 -0.164991 0 10 -0.164991 1
gene 3 4 9 4.06568 0 15 4.06568 1
gene 3 9 6 -3.14069 0 16 -3.14069 1
gene 2 6 7 -3.88492 0 38 -3.88492 1
gene 3 3 26 -1.17677 0 70 -1.17677 1
gene 3 26 7 -2.40558 0 71 -2.40558 1
gene 1 2 52 -0.361905 0 172 -0.361905 1
gene 1 52 7 -1.29934 0 173 -1.29934 1
genomeend 20

/* Organism #21 Fitness: 98 Error: 0 */
genomestart 21
trait 1 0.1 0 0 0 0 0 0 0 
trait 2 0.2 0 0 0 0 0 0 0 
trait 3 0.3 0 0 0 0 0 0 0 
node 1 1 1 3
node 2 3 1 1
node 3 2 1 1
node 4 3 1 1
node 5 3 1 1
node 6 3 0 2
node 7 2 0 2
node 9 1 0 0
node 26 1 0 0
node 52 1 0 0
gene 1 1 6 -6.93276 0 1 -6.93276 1
gene 3 2 6 1.47031 0 2 1.47031 1
gene 1 3 6 -0.77007 0 3 -0.77007 1
gene 3 4 6 2.27791 0 4 2.27791 1
gene 1 5 6 -0.055753 0 5 -0.055753 0
gene 3 1 7 3.28826 0 6 3.28826 1
gene 1 2 7 -1.31344 0 7 -1.31344 0
gene 3 3 7 -6.77471 0 8 -6.77471 1
gene 3 4 7 -4.18067 0 9 -4.18067 1
gene 1 5 7 -6.15604 0 10 -6.15604 1
gene 3 4 9 4.04712 0 15 4.04712 1
gene 3 9 6 -2.6714 0 16 -2.6714 1
gene 2 6 7 -2.99742 0 38 -2.99742 1
gene 3 3 26 5.35561 0 70 5.35561 1
gene 3 26 7 -6.71432 0 71 -6.71432 1
gene 1 2 52 3.11642 0 172 3.11642 1
gene 1 52 7 -2.01616 0 173 -2.01616 1
genomeend 21

/* Organism #22 Fitness: 59 Error: 0 */
genomestart 22
trait 1 0.1 0 0 0 0 0 0 0 
trait 2 0.2 0 0 0 0 0 0 0 
trait 3 0.3 0 0 0 0 0 0 0 
node 1 1 1 3
node 2 3 1 1
node 3 2 1 1
node 4 3 1 1
node 5 3 1 1
node 6 3 0 2
node 7 2 0 2
node 9 1 0 0
node 26 1 0 0
node 52 1 0 0
gene 1 1 6 -0.479443 0 1 -0.479443 1
gene 3 2 6 -1.73339 0 2 -1.73339 1
gene 1 3 6 1.61201 0 3 1.61201 1
gene 3 4 6 -0.071575 0 4 -0.071575 0
gene 1 5 6 -1.77101 0 5 -1.77101 0
gene 3 1 7 0.052822 0 6 0.052822 1
gene 1 2 7 -1.89947 0 7 -1.89947 0
gene 3 3 7 -8 0 8 -8 1
gene 3 4 7 -1.15982 0 9 -1.15982 1
gene 1 5 7 -5.67246 0 10 -5.67246 1
gene 3 4 9 5.71104 0 15 5.71104 1
gene 3 9 6 -1.97643 0 16 -1.97643 1
gene 2 6 7 -2.04123 0 38 -2.04123 1
gene 3 3 26 2.42825 0 70 2.42825 1
gene 3 26 7 -2.29558 0 71 -2.29558 1
gene 1 2 52 1 0 172 1 1
gene 1 52 7 -0.0810935 0 173 -0.0810935 1
genomeend 22

/* Organism #23 Fitness: 74 Error: 0 */
genomestart 23
trait 1 0.1 0 0 0 0 0 0 0 
trait 2 0.2 0 0 0 0 0 0 0 
trait 3 0.3 0 0 0 0 0 0 0 
node 1 1 1 3
node 2 3 1 1
node 3 2 1 1
node 4 3 1 1
node 5 3 1 1
node 6 3 0 2
node 7 2 0 2
node 9 1 0 0
node 26 1 0 0
node 52 1 0 0
gene 1 1 6 -4.26856 0 1 -4.26856 1
gene 3 2 6 2.58047 0 2 2.58047 1
gene 1 3 6 1.98299 0 3 1.98299 1
gene 3 4 6 0.935703 0 4 0.935703 0
gene 1 5 6 0.755144 0 5 0.755144 0
gene 3 1 7 3.83596 0 6 3.83596 1
gene 1 2 7 -2.33617 0 7 -2.33617 0
gene 3 3 7 -4.60256 0 8 -4.60256 1
gene 3 4 7 -4.87689 0 9 -4.87689 1
gene 1 5 7 -5.36928 0 10 -5.36928 1
gene 3 4 9 6.09263 0 15 6.09263 1
gene 3 9 6 -2.82422 0 16 -2.82422 1
gene 2 6 7 -0.315459 0 38 -0.315459 1
gene 3 3 26 4.12559 0 70 4.12559 1
gene 3 26 7 -0.597592 0 71 -0.597592 1
gene 1 2 52 -1.84958 0 172 -1.84958 1
gene 1 52 7 -2.36727 0 173 -2.36727 1
genomeend 23

/* Organism #24 Fitness: 70 Error: 0 */
genomestart 24
trait 1 0.1 0 0 0 0 0 0 0 
trait 2 0.15 0 0 0 0 0.14172 0.153675 0 
trait 3 0.3 0 0 0 0 0 0 0 
node 1 1 1 3
node 2 3 1 1
node 3 2 1 1
node 4 3 1 1
node 5 3 1 1
node 6 3 0 2
node 7 2 0 2
node 9 1 0 0
node 26 1 0 0
node 52 1 0 0
gene 1 1 6 -5.7659 0 1 -5.7659 1
gene 3 2 6 4.74952 0 2 4.74952 1
gene 1 3 6 1.48701 0 3 1.48701 1
gene 3 4 6 4.32704 0 4 4.32704 1
gene 1 5 6 2.09275 0 5 2.09275 0
gene 3 1 7 3.57019 0 6 3.57019 1
gene 1 2 7 0.574794 0 7 0.574794 0
gene 3 3 7 -0.835598 0 8 -0.835598 1
gene 3 4 7 -0.114359 0 9 -0.114359 1
gene 1 5 7 -1.59654 0 10 -1.59654 1
gene 3 4 9 4.66429 0 15 4.66429 1
gene 3 9 6 0.921226 0 16 0.921226 1
gene 2 6 7 -1.39172 0 38 -1.39172 1
gene 3 3 26 1.55133 0 70 1.55133 1
gene 3 26 7 -1.8091 0 71 -1.8091 1
gene 1 2 52 -1.85136 0 172 -1.85136 1
gene 1 52 7 -0.0207594 0 173 -0.0207594 1
genomeend 24

/* Organism #25 Fitness: 155 Error: 0 */
genomestart 25
trait 1 0.1 0 0 0 0 0 0 0 
trait 2 0.2 0 0 0 0 0 0 0 
trait 3 0.3 0 0 0 0 0 0 0 
node 1 1 1 3
node 2 3 1 1
node 3 2 1 1
node 4 3 1 1
node 5 3 1 1
node 6 3 0 2
node 7 2 0 2
node 9 1 0 0
node 26 1 0 0
node 52 1 0 0
gene 1 1 6 -6.48939 0 1 -6.48939 1
gene 3 2 6 3.70089 0 2 3.70089 1
gene 1 3 6 1.57418 0 3 1.57418 1
gene 3 4 6 1.72959 0 4 1.72959 0
gene 1 5 6 0.881494 0 5 0.881494 0
gene 3 1 7 1.51784 0 6 1.51784 1
gene 1 2 7 -1.89947 0 7 -1.89947 0
gene 3 3 7 -6.63537 0 8 -6.63537 1
gene 3 4 7 -3.37184 0 9 -3.37184 1
gene 1 5 7 -6.27696 0 10 -6.27696 1
gene 3 4 9 5.40704 0 15 5.40704 1
gene 3 9 6 -1.97643 0 16 -1.97643 1
gene 1 6 7 -1.8571 0 38 -1.8571 1
gene 3 3 26 4.22427 0 70 4.22427 1
gene 3 26 7 -4.41475 0 71 -4.41475 1
gene 1 2 52 1 0 172 0 1
gene 1 52 7 -1.89947 0 173 0 1
genomeend 25

/* Organism #26 Fitness: 121 Error: 0 */
genomestart 26
trait 1 0.1 0 0 0 0 0 0 0 
trait 2 0.2 0 0 0 0 0 0 0 
trait 3 0.3 0 0 0 0 0 0 0 
node 1 1 1 3
node 2 3 1 1
node 3 2 1 1
node 4 3 1 1
node 5 3 1 1
node 6 3 0 2
node 7 2 0 2
node 9 1 0 0
node 26 1 0 0
node 52 1 0 0
gene 1 1 6 -5.48037 0 1 -5.48037 1
gene 3 2 6 3.12501 0 2 3.12501 1
gene 1 3 6 1.77214 0 3 1.77214 1
gene 3 4 6 1.5784 0 4 1.5784 0
gene 1 5 6 0.309192 0 5 0.309192 0
gene 3 1 7 -2.42329 0 6 -2.42329 1
gene 1 2 7 0.516755 0 7 0.516755 0
gene 3 3 7 -5.84737 0 8 -5.84737 1
gene 3 4 7 -1.79438 0 9 -1.79438 1
gene 1 5 7 -6.60535 0 10 -6.60535 1
gene 3 4 9 4.53281 0 15 4.53281 1
gene 3 9 6 -0.284019 0 16 -0.284019 1
gene 2 6 7 -3.37309 0 38 -3.37309 1
gene 3 3 26 6.05176 0 70 6.05176 1
gene 3 26 7 -4.41475 0 71 -4.41475 1
gene 1 2 52 -2.11491 0 172 -2.11491 1
gene 1 52 7 1.7325 0 173 1.7325 1
genomeend 26

/* Organism #27 Fitness: 108 Error: 0 */
genomestart 27
trait 1 0.1 0 0 0 0 0 0 0 
trait 2 0.2 0 0 0 0 0 0 0 
trait 3 0.3 0 0 0 0 0 0 0 
node 1 1 1 3
node 2 3 1 1
node 3 2 1 1
node 4 3 1 1
node 5 3 1 1
node 6 3 0 2
node 7 2 0 2
node 9 1 0 0
node 26 1 0 0
node 52 1 0 0
gene 1 1 6 -7.10163 0 1 -7.10163 1
gene 3 2 6 1.33515 0 2 1.33515 1
gene 1 3 6 1.42835 0 3 1.42835 1
gene 3 4 6 4.10642 0 4 4.10642 0
gene 1 5 6 -1.07061 0 5 -1.07061 0
gene 3 1 7 -0.100425 0 6 -0.100425 1
gene 1 2 7 -0.492571 0 7 -0.492571 0
gene 3 3 7 -8 0 8 -8 1
gene 3 4 7 -1.21914 0 9 -1.21914 1
gene 1 5 7 -8 0 10 -8 1
gene 3 4 9 6.77419 0 15 6.77419 1
gene 3 9 6 -1.53486 0 16 -1.53486 1
gene 2 6 7 0.25649 0 38 0.25649 1
gene 3 3 26 6.01929 0 70 6.01929 1
gene 3 26 7 1.58185 0 71 1.58185 1
gene 1 2 52 -1.67674 0 172 -1.67674 1
gene 1 52 7 -1.12381 0 173 -1.12381 1
genomeend 27

/* Species #7 : (Size 5) (AF 79.2) (Age 23)  */


/* Organism #28 Fitness: 32 Error: 0 */
genomestart 28
trait 1 0.1 0 0.447402 0 0 0 0 0 
trait 2 0.2 0 0 0 0 0 0 0 
trait 3 0.3 0 0 0 0 0 0 0 
node 1 1 1 3
node 2 3 1 1
node 3 2 1 1
node 4 3 1 1
node 5 3 1 1
node 6 3 0 2
node 7 2 0 2
node 9 2 0 0
node 21 1 0 0
node 27 1 0 0
gene 1 1 6 0.375465 0 1 0.375465 1
gene 3 2 6 -2.0871 0 2 -2.0871 1
gene 2 3 6 -1.65865 0 3 -1.65865 1
gene 3 4 6 -0.348243 0 4 -0.348243 0
gene 1 5 6 0.833507 0 5 0.833507 1
gene 2 1 7 0.491565 0 6 0.491565 1
gene 1 2 7 -2.08266 0 7 -2.08266 1
gene 3 3 7 -2.19587 0 8 -2.19587 1
gene 3 4 7 -0.713091 0 9 -0.713091 0
gene 1 5 7 -1.28937 0 10 -1.28937 1
gene 3 4 9 3.09735 0 15 3.09735 0
gene 3 9 6 2.46865 0 16 2.46865 1
gene 3 4 21 0.102663 0 50 0.102663 1
gene 3 21 7 -2.33506 0 51 -2.33506 1
gene 3 3 21 -4.6139 0 61 -4.6139 1
gene 3 4 27 2.14675 0 75 2.14675 1
gene 3 27 9 1.42387 0 76 1.42387 1
gene 2 2 27 1.41813 0 237 1.41813 1
genomeend 28

/* Organism #29 Fitness: 91 Error: 0 */
genomestart 29
trait 1 0.1 0 0.447402 0 0 0 0 0 
trait 2 0.2 0 0 0 0 0 0 0 
trait 3 0.3 0 0 0 0 0 0 0 
node 1 1 1 3
node 2 3 1 1
node 3 2 1 1
node 4 3 1 1
node 5 3 1 1
node 6 3 0 2
node 7 2 0 2
node 9 1 0 0
node 21 1 0 0
node 27 1 0 0
gene 1 1 6 -0.157841 0 1 -0.157841 1
gene 3 2 6 -3.59493 0 2 -3.59493 1
gene 2 3 6 -0.453266 0 3 -0.453266 1
gene 3 4 6 -0.599774 0 4 -0.599774 0
gene 1 5 6 -0.339947 0 5 -0.339947 1
gene 3 1 7 0.491565 0 6 0.491565 1
gene 1 2 7 -2.08266 0 7 -2.08266 1
gene 3 3 7 -2.18881 0 8 -2.18881 1
gene 3 4 7 -3.08015 0 9 -3.08015 0
gene 1 5 7 -2.51206 0 10 -2.51206 1
gene 3 4 9 1.71554 0 15 1.71554 0
gene 3 9 6 -4.5732 0 16 -4.5732 1
gene 3 4 21 3.065 0 50 3.065 1
gene 3 21 7 -2.33506 0 51 -2.33506 1
gene 3 3 21 -2.73563 0 61 -2.73563 1
gene 3 4 27 3.83264 0 75 3.83264 1
gene 3 27 9 -0.279182 0 76 -0.279182 1
gene 2 2 27 0.506644 0 237 0.506644 1
genomeend 29

/* Organism #30 Fitness: 98 Error: 0 */
genomestart 30
trait 1 0.1 0 0.447402 0 0 0 0 0 
trait 2 0.2 0 0 0 0 0 0 0 
trait 3 0.3 0 0 0 0 0 0 0 
node 1 1 1 3
node 2 3 1 1
node 3 2 1 1
node 4 3 1 1
node 5 3 1 1
node 6 3 0 2
node 7 2 0 2
node 9 1 0 0
node 21 1 0 0
node 27 1 0 0
gene 1 1 6 -0.157841 0 1 -0.157841 1
gene 3 2 6 -3.59493 0 2 -3.59493 1
gene 2 3 6 -0.453266 0 3 -0.453266 1
gene 3 4 6 -0.599774 0 4 -0.599774 0
gene 1 5 6 -0.339947 0 5 -0.339947 1
gene 3 1 7 0.491565 0 6 0.491565 1
gene 1 2 7 -6.08989 0 7 -6.08989 1
gene 3 3 7 -2.18881 0 8 -2.18881 1
gene 3 4 7 -3.08015 0 9 -3.08015 0
gene 1 5 7 -2.51206 0 10 -2.51206 1
gene 3 4 9 1.71554 0 15 1.71554 0
gene 3 9 6 -4.27759 0 16 -4.27759 1
gene 3 4 21 2.19947 0 50 2.19947 1
gene 3 21 7 -5.10862 0 51 -5.10862 1
gene 3 3 21 -3.01252 0 61 -3.01252 1
gene 3 4 27 3.83264 0 75 3.83264 1
gene 3 27 9 -0.310493 0 76 -0.310493 1
gene 2 2 27 0.506644 0 237 0.506644 1
genomeend 30

/* Organism #31 Fitness: 105 Error: 0 */
genomestart 31
trait 1 0.1 0 0.447402 0 0 0 0 0 
trait 2 0.2 0 0 0 0 0 0 0 
trait 3 0.3 0 0 0 0 0 0 0 
node 1 1 1 3
node 2 3 1 1
node 3 2 1 1
node 4 3 1 1
node 5 3 1 1
node 6 3 0 2
node 7 2 0 2
node 9 1 0 0
node 21 1 0 0
node 27 1 0 0
gene 1 1 6 -2.97625 0 1 -2.97625 1
gene 3 2 6 -2.18803 0 2 -2.18803 1
gene 2 3 6 0.672642 0 3 0.672642 1
gene 3 4 6 -0.572886 0 4 -0.572886 1
gene 1 5 6 0.0316091 0 5 0.0316091 1
gene 3 1 7 0.665627 0 6 0.665627 1
gene 1 2 7 -6.41444 0 7 -6.41444 1
gene 3 3 7 -5.22417 0 8 -5.22417 1
gene 3 4 7 -5.03288 0 9 -5.03288 0
gene 1 5 7 -4.64189 0 10 -4.64189 1
gene 3 4 9 -0.389487 0 15 -0.389487 0
gene 3 9 6 -6.82844 0 16 -6.82844 1
gene 3 4 21 1.22047 0 50 1.22047 1
gene 3 21 7 -4.81717 0 51 -4.81717 1
gene 3 3 21 -5.10569 0 61 -5.10569 1
gene 3 4 27 -2.03774 0 75 -2.03774 1
gene 3 27 9 0.871719 0 76 0.871719 1
gene 2 2 27 0.962389 0 237 0.962389 1
genomeend 31

/* Organism #32 Fitness: 70 Error: 0 */
genomestart 32
trait 1 0.1 0 0.447402 0 0 0 0 0 
trait 2 0.2 0 0 0 0 0 0 0 
trait 3 0.3 0 0 0 0 0 0 0 
node 1 1 1 3
node 2 3 1 1
node 3 2 1 1
node 4 3 1 1
node 5 3 1 1
node 6 3 0 2
node 7 2 0 2
node 9 1 0 0
node 21 1 0 0
node 27 1 0 0
gene 1 1 6 -0.49683 0 1 -0.49683 1
gene 3 2 6 -3.54863 0 2 -3.54863 1
gene 2 3 6 0.465392 0 3 0.465392 1
gene 3 4 6 0.581949 0 4 0.581949 0
gene 1 5 6 -0.450889 0 5 -0.450889 1
gene 3 1 7 2.6579 0 6 2.6579 1
gene 1 2 7 -4.08628 0 7 -4.08628 1
gene 3 3 7 -4.95727 0 8 -4.95727 1
gene 3 4 7 -2.94843 0 9 -2.94843 1
gene 1 5 7 -0.636373 0 10 -0.636373 1
gene 3 4 9 1.78738 0 15 1.78738 1
gene 3 9 6 -3.11993 0 16 -3.11993 1
gene 3 4 21 0.566149 0 50 0.566149 1
gene 3 21 7 -1.54659 0 51 -1.54659 1
gene 3 3 21 -1.40111 0 61 -1.40111 1
gene 3 4 27 3.45218 0 75 3.45218 1
gene 3 27 9 1.69168 0 76 1.69168 1
gene 2 2 27 0.0723026 0 237 0.0723026 1
genomeend 32

/* Species #8 : (Size 8) (AF 51.25) (Age 23)  */


/* Organism #33 Fitness: 132 Error: 0 */
genomestart 33
trait 1 0.1 0 0.447402 0 0 0 0 0 
trait 2 0.2 0 0 0 0 0 0 0 
trait 3 0.3 0 0 0 0 0 0 0 
node 1 1 1 3
node 2 3 1 1
node 3 2 1 1
node 4 3 1 1
node 5 3 1 1
node 6 3 0 2
node 7 2 0 2
node 9 1 0 0
node 21 1 0 0
node 28 1 0 0
gene 1 1 6 -3.54581 0 1 -3.54581 1
gene 3 2 6 -3.95882 0 2 -3.95882 1
gene 1 3 6 1.87738 0 3 1.87738 1
gene 3 4 6 3.19917 0 4 3.19917 0
gene 1 5 6 -1.90966 0 5 -1.90966 1
gene 3 1 7 -0.941809 0 6 -0.941809 1
gene 1 2 7 -1.35055 0 7 -1.35055 1
gene 3 3 7 -2.10526 0 8 -2.10526 1
gene 3 4 7 5.22862 0 9 5.22862 0
gene 1 5 7 -3.43129 0 10 -3.43129 1
gene 3 4 9 0.134516 0 15 0.134516 1
gene 3 9 6 -3.1215 0 16 -3.1215 1
gene 3 4 21 3.08072 0 50 3.08072 1
gene 3 21 7 2.08007 0 51 2.08007 1
gene 3 21 9 1.69068 0 62 1.69068 1
gene 3 2 28 2.61289 0 77 2.61289 1
gene 3 28 6 -7.07546 0 78 -7.07546 0
gene 1 3 21 -1.38661 0 103 -1.38661 1
gene 1 1 9 -0.890485 0 152 -0.890485 1
genomeend 33

/* Organism #34 Fitness: 38 Error: 0 */
genomestart 34
trait 1 0.1 0 0.447402 0 0 0 0 0 
trait 2 0.2 0.692132 0 0 0 0 0 0 
trait 3 0.3 0 0 0 0 0 0 0 
node 1 1 1 3
node 2 3 1 1
node 3 2 1 1
node 4 3 1 1
node 5 3 1 1
node 6 3 0 2
node 7 2 0 2
node 9 1 0 0
node 21 1 0 0
node 28 1 0 0
gene 3 1 6 -4.1231 0 1 -4.1231 1
gene 3 2 6 -5.3624 0 2 -5.3624 1
gene 1 3 6 3.68045 0 3 3.68045 1
gene 3 4 6 7.78585 0 4 7.78585 0
gene 1 5 6 -0.257915 0 5 -0.257915 1
gene 3 1 7 -2.34786 0 6 -2.34786 1
gene 1 2 7 -1.8238 0 7 -1.8238 1
gene 3 3 7 0.0665283 0 8 0.0665283 1
gene 3 4 7 2.72796 0 9 2.72796 0
gene 1 5 7 -1.82416 0 10 -1.82416 1
gene 3 4 9 -1.28512 0 15 -1.28512 1
gene 3 9 6 0.213061 0 16 0.213061 1
gene 3 4 21 1.72426 0 50 1.72426 1
gene 3 21 7 1.2552 0 51 1.2552 1
gene 3 21 9 3.6775 0 62 3.6775 1
gene 3 2 28 1.0668 0 77 1.0668 1
gene 3 28 6 -1.60192 0 78 -1.60192 0
gene 1 3 21 -3.56563 0 103 -3.56563 1
gene 1 1 9 -2.52355 0 152 -2.52355 1
genomeend 34

/* Organism #35 Fitness: 71 Error: 0 */
genomestart 35
trait 1 0.1 0 0.447402 0 0 0 0 0 
trait 2 0.2 0 0 0 0 0 0 0 
trait 3 0.3 0 0 0 0 0 0 0 
node 1 1 1 3
node 2 3 1 1
node 3 2 1 1
node 4 3 1 1
node 5 3 1 1
node 6 3 0 2
node 7 2 0 2
node 9 1 0 0
node 21 1 0 0
node 28 1 0 0
gene 1 1 6 -4.21791 0 1 -4.21791 1
gene 3 2 6 1.00795 0 2 1.00795 1
gene 1 3 6 3.00902 0 3 3.00902 1
gene 3 4 6 3.19917 0 4 3.19917 0
gene 1 5 6 -0.234306 0 5 -0.234306 1
gene 3 1 7 -1.72922 0 6 -1.72922 1
gene 1 2 7 2.31796 0 7 2.31796 1
gene 3 3 7 -3.51016 0 8 -3.51016 1
gene 3 4 7 3.41861 0 9 3.41861 0
gene 1 5 7 -4.07871 0 10 -4.07871 1
gene 3 4 9 1.87945 0 15 1.87945 1
gene 3 9 6 1.52842 0 16 1.52842 1
gene 3 4 21 1.03285 0 50 1.03285 1
gene 3 21 7 3.49138 0 51 3.49138 1
gene 3 21 9 4.08517 0 62 4.08517 1
gene 3 2 28 3.92881 0 77 3.92881 1
gene 3 28 6 -7.07546 0 78 -7.07546 0
gene 1 3 21 -2.84119 0 103 -2.84119 1
gene 1 1 9 -1.66214 0 152 -1.66214 1
genomeend 35

/* Organism #36 Fitness: 72 Error: 0 */
genomestart 36
trait 1 0.1 0 0.447402 0 0 0 0 0 
trait 2 0.2 0 0 0 0 0 0 0 
trait 3 0.3 0 0 0 0 0 0 0 
node 1 1 1 3
node 2 3 1 1
node 3 2 1 1
node 4 3 1 1
node 5 3 1 1
node 6 3 0 2
node 7 2 0 2
node 9 1 0 0
node 21 1 0 0
node 28 1 0 0
gene 3 1 6 -4.41271 0 1 -4.41271 1
gene 3 2 6 -2.74177 0 2 -2.74177 1
gene 1 3 6 1.78793 0 3 1.78793 1
gene 3 4 6 6.014 0 4 6.014 0
gene 1 5 6 -2.6642 0 5 -2.6642 1
gene 1 1 7 0.502634 0 6 0.502634 1
gene 1 2 7 -1.24922 0 7 -1.24922 1
gene 3 3 7 0.799079 0 8 0.799079 1
gene 3 4 7 5.01341 0 9 5.01341 0
gene 1 5 7 -5.50837 0 10 -5.50837 1
gene 3 4 9 -3.45124 0 15 -3.45124 1
gene 3 9 6 -1.02186 0 16 -1.02186 1
gene 3 4 21 0.935663 0 50 0.935663 1
gene 3 21 7 1.62391 0 51 1.62391 1
gene 3 21 9 0.030086 0 62 0.030086 1
gene 3 2 28 1.62271 0 77 1.62271 1
gene 3 28 6 -8 0 78 -8 0
gene 1 3 21 -4.42268 0 103 -4.42268 1
gene 1 1 9 -2.52355 0 152 -2.52355 1
genomeend 36

/* Organism #37 Fitness: 70 Error: 0 */
genomestart 37
trait 1 0.1 0.355126 1 0 0 0.890235 0 0 
trait 2 0.2 0 0 0 0 0 0 0 
trait 3 0.3 0 0 0 0 0 0 0 
node 1 1 1 3
node 2 3 1 1
node 3 2 1 1
node 4 3 1 1
node 5 3 1 1
node 6 3 0 2
node 7 2 0 2
node 9 1 0 0
node 21 1 0 0
node 28 1 0 0
gene 1 1 6 -3.70649 0 1 -3.70649 1
gene 3 2 6 -2.03728 0 2 -2.03728 1
gene 1 3 6 -0.067965 0 3 -0.067965 1
gene 3 4 6 6.11479 0 4 6.11479 0
gene 1 5 6 -2.41621 0 5 -2.41621 1
gene 1 1 7 -1.69684 0 6 -1.69684 1
gene 1 2 7 0.829014 0 7 0.829014 1
gene 3 3 7 -4.57892 0 8 -4.57892 1
gene 3 4 7 1.27358 0 9 1.27358 0
gene 1 5 7 -4.85461 0 10 -4.85461 1
gene 3 4 9 2.33374 0 15 2.33374 1
gene 3 9 6 -2.61785 0 16 -2.61785 1
gene 3 4 21 5.45072 0 50 5.45072 1
gene 3 21 7 -1.77119 0 51 -1.77119 1
gene 3 21 9 2.01204 0 62 2.01204 1
gene 3 2 28 -0.678283 0 77 -0.678283 1
gene 3 28 6 2.16435 0 78 2.16435 0
gene 1 3 21 -3.02677 0 103 -3.02677 1
gene 1 1 9 0.493457 0 152 0.493457 1
genomeend 37

/* Organism #38 Fitness: 5 Error: 0 */
genomestart 38
trait 1 0.1 0 0.447402 0 0 0 0 0 
trait 2 0.2 0 0 0 0 0 0 0 
trait 3 0.3 0 0 0 0 0.5225 0 0 
node 1 1 1 3
node 2 3 1 1
node 3 2 1 1
node 4 3 1 1
node 5 3 1 1
node 6 3 0 2
node 7 2 0 2
node 9 1 0 0
node 21 1 0 0
node 28 1 0 0
gene 1 1 6 0.679345 0 1 0.679345 1
gene 3 2 6 -3.51059 0 2 -3.51059 1
gene 1 3 6 2.61301 0 3 2.61301 1
gene 3 4 6 1.51458 0 4 1.51458 0
gene 1 5 6 -3.83814 0 5 -3.83814 1
gene 3 1 7 -2.60656 0 6 -2.60656 1
gene 1 2 7 -1.61006 0 7 -1.61006 1
gene 3 3 7 1.98447 0 8 1.98447 1
gene 3 4 7 3.18743 0 9 3.18743 0
gene 1 5 7 0.686935 0 10 0.686935 1
gene 3 4 9 0.134516 0 15 0.134516 1
gene 3 9 6 -0.833767 0 16 -0.833767 1
gene 3 4 21 1.2607 0 50 1.2607 1
gene 3 21 7 2.08007 0 51 2.08007 1
gene 3 21 9 2.75941 0 62 2.75941 1
gene 3 2 28 4.97244 0 77 4.97244 1
gene 3 28 6 -6.31884 0 78 -6.31884 0
gene 1 3 21 2.31589 0 103 2.31589 1
gene 1 1 9 -2.35618 0 152 -2.35618 1
genomeend 38

/* Organism #39 Fitness: 6 Error: 0 */
genomestart 39
trait 1 0.1 0 0.447402 0 0 0 0 0 
trait 2 0.2 0 0 0 0 0 0 0 
trait 3 0.3 0 0 0 0 0 0 0 
node 1 1 1 3
node 2 3 1 1
node 3 2 1 1
node 4 3 1 1
node 5 3 1 1
node 6 3 0 2
node 7 2 0 2
node 9 1 0 0
node 21 1 0 0
node 28 1 0 0
gene 3 1 6 1.09065 0 1 1.09065 1
gene 3 2 6 1.94832 0 2 1.94832 1
gene 1 3 6 0.8195 0 3 0.8195 1
gene 3 4 6 4.99435 0 4 4.99435 0
gene 1 5 6 -1.02438 0 5 -1.02438 1
gene 3 1 7 1.7606 0 6 1.7606 1
gene 1 2 7 -2.17439 0 7 -2.17439 1
gene 3 3 7 0.302332 0 8 0.302332 1
gene 3 4 7 2.15298 0 9 2.15298 0
gene 1 5 7 -1.12989 0 10 -1.12989 1
gene 3 4 9 -1.92185 0 15 -1.92185 1
gene 3 9 6 -1.54943 0 16 -1.54943 1
gene 3 4 21 -1.06075 0 50 -1.06075 1
gene 3 21 7 -0.140286 0 51 -0.140286 1
gene 3 21 9 -0.144766 0 62 -0.144766 1
gene 3 2 28 0.557076 0 77 0.557076 1
gene 3 28 6 -4.16181 0 78 -4.16181 0
gene 1 3 21 -2.18795 0 103 -2.18795 1
gene 1 1 9 -2.46552 0 152 -2.46552 1
genomeend 39

/* Organism #40 Fitness: 16 Error: 0 */
genomestart 40
trait 1 0.1 0 0.447402 0 0 0 0 0 
trait 2 0.2 0 0 0 0 0 0 0 
trait 3 0.3 0 0 0 0 0 0 0 
node 1 1 1 3
node 2 3 1 1
node 3 2 1 1
node 4 3 1 1
node 5 1 1 1
node 6 3 0 2
node 7 2 0 2
node 9 1 0 0
node 21 1 0 0
node 28 1 0 0
gene 3 1 6 -3.07833 0 1 -3.07833 1
gene 3 2 6 -3.95882 0 2 -3.95882 1
gene 1 3 6 0.5776 0 3 0.5776 1
gene 3 4 6 5.57595 0 4 5.57595 1
gene 1 5 6 -1.39694 0 5 -1.39694 1
gene 3 1 7 0.416819 0 6 0.416819 1
gene 1 2 7 -0.694363 0 7 -0.694363 1
gene 3 3 7 -0.895047 0 8 -0.895047 1
gene 3 4 7 5.95198 0 9 5.95198 0
gene 1 5 7 2.28091 0 10 2.28091 1
gene 3 4 9 -0.689954 0 15 -0.689954 1
gene 3 9 6 1.57919 0 16 1.57919 1
gene 3 4 21 1.13385 0 50 1.13385 1
gene 3 21 7 -0.381443 0 51 -0.381443 1
gene 3 21 9 -0.629292 0 62 -0.629292 1
gene 3 2 28 1.43432 0 77 1.43432 1
gene 3 28 6 -7.19003 0 78 -7.19003 0
gene 1 3 21 -2.28736 0 103 -2.28736 1
gene 1 1 9 -4.25943 0 152 -4.25943 1
genomeend 40

/* Species #12 : (Size 9) (AF 87.4444) (Age 22)  */


/* Organism #41 Fitness: 119 Error: 0 */
genomestart 41
trait 1 0.1 0 0.447402 0 0 0 0 0 
trait 2 0.2 0 0 0 0 0 0 0 
trait 3 0.3 0 0 0 0 0 0 0 
node 1 1 1 3
node 2 3 1 1
node 3 2 1 1
node 4 3 1 1
node 5 3 1 1
node 6 3 0 2
node 7 2 0 2
node 9 1 0 0
node 21 1 0 0
node 32 1 0 0
gene 1 1 6 -5.20743 0 1 -5.20743 1
gene 3 2 6 2.24807 0 2 2.24807 0
gene 1 3 6 3.47743 0 3 3.47743 1
gene 3 4 6 2.2815 0 4 2.2815 0
gene 1 5 6 -0.235951 0 5 -0.235951 1
gene 3 1 7 0.00731021 0 6 0.00731021 1
gene 1 2 7 -1.58029 0 7 -1.58029 1
gene 3 3 7 -3.24993 0 8 -3.24993 1
gene 3 4 7 -1.98833 0 9 -1.98833 0
gene 1 5 7 -5.83824 0 10 -5.83824 1
gene 3 4 9 1 0 15 1 1
gene 3 9 6 -5.45839 0 16 -5.45839 1
gene 3 4 21 1.20464 0 50 1.20464 1
gene 3 21 7 -0.331213 0 51 -0.331213 1
gene 3 2 32 0.9959 0 90 0.9959 1
gene 3 32 6 -0.135379 0 91 -0.135379 1
gene 1 2 21 0.681275 0 227 0.681275 1
genomeend 41

/* Organism #42 Fitness: 70 Error: 0 */
genomestart 42
trait 1 0 0 1 0 0 0 0 0.559399 
trait 2 0.2 0 0 0 0 0 0 0 
trait 3 0.3 0 0 0 0 0 0 0 
node 1 1 1 3
node 2 3 1 1
node 3 2 1 1
node 4 3 1 1
node 5 3 1 1
node 6 3 0 2
node 7 2 0 2
node 9 1 0 0
node 21 1 0 0
node 32 1 0 0
gene 1 1 6 -1.65025 0 1 -1.65025 1
gene 3 2 6 1.53584 0 2 1.53584 0
gene 1 3 6 1.75851 0 3 1.75851 1
gene 3 4 6 -2.41285 0 4 -2.41285 0
gene 1 5 6 -0.397598 0 5 -0.397598 1
gene 3 1 7 1.12286 0 6 1.12286 1
gene 1 2 7 -0.986967 0 7 -0.986967 1
gene 3 3 7 -5.49793 0 8 -5.49793 1
gene 3 4 7 -1.98833 0 9 -1.98833 0
gene 1 5 7 -0.597389 0 10 -0.597389 1
gene 3 4 9 1 0 15 1 1
gene 3 9 6 -4.76364 0 16 -4.76364 1
gene 3 4 21 -1.04242 0 50 -1.04242 1
gene 3 21 7 0.282207 0 51 0.282207 1
gene 3 2 32 0.948899 0 90 0.948899 1
gene 3 32 6 1.35632 0 91 1.35632 1
gene 1 2 21 -0.392129 0 227 -0.392129 1
genomeend 42

/* Organism #43 Fitness: 78 Error: 0 */
genomestart 43
trait 1 0.1 0 0.447402 0 0 0 0 0 
trait 2 0.2 0 0 0 0 0 0 0 
trait 3 0.3 0 0 0 0 0 0 0 
node 1 1 1 3
node 2 3 1 1
node 3 2 1 1
node 4 3 1 1
node 5 3 1 1
node 6 3 0 2
node 7 2 0 2
node 9 1 0 0
node 21 1 0 0
node 32 1 0 0
gene 1 1 6 -6.02565 0 1 -6.02565 1
gene 3 2 6 2.42359 0 2 2.42359 0
gene 1 3 6 1.65943 0 3 1.65943 1
gene 3 4 6 3.88188 0 4 3.88188 0
gene 1 5 6 0.0608816 0 5 0.0608816 1
gene 3 1 7 -0.471976 0 6 -0.471976 1
gene 1 2 7 -0.709496 0 7 -0.709496 1
gene 3 3 7 -4.7903 0 8 -4.7903 1
gene 3 4 7 -1.9947 0 9 -1.9947 0
gene 1 5 7 -3.6185 0 10 -3.6185 1
gene 3 4 9 1.07377 0 15 1.07377 1
gene 3 9 6 -5.6292 0 16 -5.6292 1
gene 3 4 21 1.41364 0 50 1.41364 1
gene 3 21 7 1.8436 0 51 1.8436 1
gene 3 2 32 0.9959 0 90 0.9959 1
gene 3 32 6 -2.1299 0 91 -2.1299 1
gene 1 2 21 0.9441 0 227 0.9441 1
genomeend 43

/* Organism #44 Fitness: 119 Error: 0 */
genomestart 44
trait 1 0.1 0 0.447402 0 0 0 0 0 
trait 2 0.2 0 0 0 0 0 0 0 
trait 3 0.3 0 0 0 0 0 0 0 
node 1 1 1 3
node 2 3 1 1
node 3 2 1 1
node 4 3 1 1
node 5 3 1 1
node 6 3 0 2
node 7 2 0 2
node 9 1 0 0
node 21 1 0 0
node 32 1 0 0
node 106 1 0 0
gene 1 1 6 -5.20743 0 1 -5.20743 1
gene 3 2 6 2.24807 0 2 2.24807 0
gene 1 3 6 3.47743 0 3 3.47743 1
gene 3 4 6 2.2815 0 4 2.2815 0
gene 1 5 6 -0.235951 0 5 -0.235951 1
gene 3 1 7 0.00731021 0 6 0.00731021 1
gene 1 2 7 -1.58029 0 7 -1.58029 1
gene 3 3 7 -3.24993 0 8 -3.24993 1
gene 3 4 7 -1.98833 0 9 -1.98833 0
gene 1 5 7 -5.83824 0 10 -5.83824 1
gene 3 4 9 1 0 15 1 1
gene 3 9 6 -5.45839 0 16 -5.45839 1
gene 3 4 21 1.20464 0 50 1.20464 1
gene 3 21 7 -0.331213 0 51 -0.331213 1
gene 3 2 32 0.9959 0 90 0.9959 0
gene 3 32 6 -0.135379 0 91 -0.135379 1
gene 1 2 21 0.681275 0 227 0.681275 1
gene 3 2 106 1 0 354 0 1
gene 3 106 32 0.9959 0 355 0 1
genomeend 44

/* Organism #45 Fitness: 87 Error: 0 */
genomestart 45
trait 1 0.1 0 0.447402 0 0 0 0 0 
trait 2 0.2 0 0 0 0 0 0 0 
trait 3 0.3 0 0 0 0 0 0 0 
node 1 1 1 3
node 2 3 1 1
node 3 2 1 1
node 4 3 1 1
node 5 3 1 1
node 6 3 0 2
node 7 2 0 2
node 9 1 0 0
node 21 1 0 0
node 32 1 0 0
gene 1 1 6 -2.85047 0 1 -2.85047 1
gene 3 2 6 0.125279 0 2 0.125279 0
gene 1 3 6 1.05319 0 3 1.05319 1
gene 3 4 6 1.6464 0 4 1.6464 0
gene 1 5 6 -1.36624 0 5 -1.36624 1
gene 3 1 7 -0.846895 0 6 -0.846895 1
gene 1 2 7 -4.02313 0 7 -4.02313 1
gene 3 3 7 -5.43974 0 8 -5.43974 1
gene 3 4 7 -3.26792 0 9 -3.26792 0
gene 1 5 7 -6.03375 0 10 -6.03375 1
gene 3 4 9 0.0338264 0 15 0.0338264 1
gene 3 9 6 -3.7387 0 16 -3.7387 1
gene 3 4 21 -1.12928 0 50 -1.12928 1
gene 3 21 7 -1.56355 0 51 -1.56355 1
gene 3 2 32 0.283864 0 90 0.283864 1
gene 3 32 6 -0.135379 0 91 -0.135379 1
gene 1 2 21 3.05298 0 227 3.05298 1
genomeend 45

/* Organism #46 Fitness: 78 Error: 0 */
genomestart 46
trait 1 0.1 0 0.447402 0 0 0 0 0 
trait 2 0.2 0 0 0 0 0 0 0 
trait 3 0.3 0 0 0 0 0 0 0 
node 1 1 1 3
node 2 3 1 1
node 3 2 1 1
node 4 3 1 1
node 5 3 1 1
node 6 3 0 2
node 7 2 0 2
node 9 1 0 0
node 21 1 0 0
node 32 1 0 0
gene 1 1 6 -2.17993 0 1 -2.17993 1
gene 3 2 6 1.35781 0 2 1.35781 0
gene 1 3 6 2.2409 0 3 2.2409 1
gene 3 4 6 1.66095 0 4 1.66095 0
gene 1 5 6 0.225092 0 5 0.225092 1
gene 3 1 7 0.0966576 0 6 0.0966576 1
gene 1 2 7 -2.01991 0 7 -2.01991 1
gene 3 3 7 -1.46848 0 8 -1.46848 1
gene 3 4 7 0.126154 0 9 0.126154 0
gene 1 5 7 -6.73443 0 10 -6.73443 1
gene 3 4 9 3.48254 0 15 3.48254 1
gene 3 9 6 -3.47707 0 16 -3.47707 1
gene 3 4 21 2.45097 0 50 2.45097 1
gene 3 21 7 0.394032 0 51 0.394032 1
gene 3 2 32 -1.15081 0 90 -1.15081 1
gene 3 32 6 -1.21493 0 91 -1.21493 1
gene 1 2 21 -0.459163 0 227 -0.459163 1
genomeend 46

/* Organism #47 Fitness: 79 Error: 0 */
genomestart 47
trait 1 0.1 0 0.447402 0 0 0 0 0 
trait 2 0.2 0 0 0 0 0 0 0 
trait 3 0.3 0 0 0 0 0 0 0 
node 1 1 1 3
node 2 3 1 1
node 3 2 1 1
node 4 3 1 1
node 5 3 1 1
node 6 3 0 2
node 7 2 0 2
node 9 1 0 0
node 21 1 0 0
node 32 1 0 0
gene 1 1 6 -2.9548 0 1 -2.9548 1
gene 3 2 6 0.220557 0 2 0.220557 0
gene 1 3 6 2.4084 0 3 2.4084 1
gene 3 4 6 1.25016 0 4 1.25016 0
gene 1 5 6 -0.12074 0 5 -0.12074 1
gene 3 1 7 0.972084 0 6 0.972084 1
gene 1 2 7 0.00806301 0 7 0.00806301 1
gene 3 3 7 -5.46875 0 8 -5.46875 1
gene 3 4 7 -4.40184 0 9 -4.40184 0
gene 3 5 7 -5.83824 0 10 -5.83824 1
gene 3 4 9 -0.671467 0 15 -0.671467 1
gene 3 9 6 -4.58988 0 16 -4.58988 1
gene 3 4 21 1.76154 0 50 1.76154 1
gene 3 21 7 -0.331213 0 51 -0.331213 1
gene 3 2 32 -2.18915 0 90 -2.18915 1
gene 3 32 6 -2.19217 0 91 -2.19217 1
gene 1 2 21 0.869021 0 227 0.869021 1
genomeend 47

/* Organism #48 Fitness: 75 Error: 0 */
genomestart 48
trait 1 0.1 0 0.447402 0 0 0 0 0 
trait 2 0.2 0 0 0 0 0 0 0 
trait 3 0.3 0 0 0 0 0 0 0 
node 1 1 1 3
node 2 3 1 1
node 3 2 1 1
node 4 3 1 1
node 5 3 1 1
node 6 3 0 2
node 7 2 0 2
node 9 1 0 0
node 21 1 0 0
node 32 1 0 0
gene 1 1 6 -5.77069 0 1 -5.77069 1
gene 3 2 6 3.7656 0 2 3.7656 0
gene 1 3 6 5.16415 0 3 5.16415 1
gene 3 4 6 3.62069 0 4 3.62069 0
gene 1 5 6 1.31735 0 5 1.31735 1
gene 3 1 7 -0.564428 0 6 -0.564428 1
gene 1 2 7 -2.29289 0 7 -2.29289 1
gene 3 3 7 -5.08736 0 8 -5.08736 1
gene 3 4 7 -2.41304 0 9 -2.41304 0
gene 1 5 7 -5.22827 0 10 -5.22827 1
gene 3 4 9 0.45511 0 15 0.45511 1
gene 3 9 6 -3.25507 0 16 -3.25507 1
gene 3 4 21 1.19584 0 50 1.19584 1
gene 3 21 7 2.13612 0 51 2.13612 1
gene 3 2 32 0.9959 0 90 0.9959 1
gene 3 32 6 -2.43938 0 91 -2.43938 1
gene 1 2 21 -1.72646 0 227 -1.72646 1
genomeend 48

/* Organism #49 Fitness: 82 Error: 0 */
genomestart 49
trait 1 0.1 0 0.447402 0 0 0 0 0 
trait 2 0.2 0 0 0 0 0 0 0 
trait 3 0.3 0 0 0 0 0 0 0 
node 1 1 1 3
node 2 3 1 1
node 3 2 1 1
node 4 3 1 1
node 5 3 1 1
node 6 3 0 2
node 7 2 0 2
node 9 1 0 0
node 21 1 0 0
node 32 1 0 0
gene 1 1 6 -3.06655 0 1 -3.06655 1
gene 3 2 6 2.78036 0 2 2.78036 0
gene 1 3 6 2.61662 0 3 2.61662 1
gene 3 4 6 3.06661 0 4 3.06661 0
gene 1 5 6 1.98547 0 5 1.98547 1
gene 3 1 7 -1.29641 0 6 -1.29641 1
gene 1 2 7 -2.77389 0 7 -2.77389 1
gene 3 3 7 -4.93412 0 8 -4.93412 1
gene 3 4 7 -4.08439 0 9 -4.08439 1
gene 1 5 7 -8 0 10 -8 1
gene 3 4 9 1.07322 0 15 1.07322 1
gene 3 9 6 -7.1567 0 16 -7.1567 1
gene 3 4 21 1.81455 0 50 1.81455 1
gene 3 21 7 1.07724 0 51 1.07724 1
gene 3 2 32 0.364657 0 90 0.364657 1
gene 3 32 6 -0.135379 0 91 -0.135379 1
gene 1 2 21 0.117135 0 227 0.117135 1
genomeend 49

/* Species #13 : (Size 6) (AF 65.3333) (Age 21)  */


/* Organism #50 Fitness: 112 Error: 0 */
genomestart 50
trait 1 0.1 0.889494 0.0561086 0 0 0 0 0.354927 
trait 2 0.2 0 0 0 0 0 0 0 
trait 3 0.3 0 0 0 0 0 0 0 
node 1 1 1 3
node 2 3 1 1
node 3 2 1 1
node 4 3 1 1
node 5 3 1 1
node 6 3 0 2
node 7 2 0 2
node 9 1 0 0
node 21 1 0 0
node 28 1 0 0
node 34 1 0 0
gene 1 1 6 -7.96521 0 1 -7.96521 1
gene 3 2 6 -4.38406 0 2 -4.38406 0
gene 1 3 6 -0.639306 0 3 -0.639306 1
gene 3 4 6 8 0 4 8 1
gene 1 5 6 -5.71558 0 5 -5.71558 1
gene 2 1 7 -2.11796 0 6 -2.11796 1
gene 1 2 7 -5.12191 0 7 -5.12191 1
gene 3 3 7 -6.95712 0 8 -6.95712 1
gene 3 4 7 -1.34871 0 9 -1.34871 0
gene 1 5 7 -3.90177 0 10 -3.90177 1
gene 3 4 9 3.98823 0 15 3.98823 1
gene 3 9 6 -4.14684 0 16 -4.14684 1
gene 3 4 21 1.00721 0 50 1.00721 1
gene 3 21 7 3.03986 0 51 3.03986 1
gene 3 21 9 -0.923163 0 62 -0.923163 1
gene 3 2 28 0.0778998 0 77 0.0778998 1
gene 3 28 6 1.23636 0 78 1.23636 1
gene 1 3 34 -1.27558 0 96 -1.27558 1
gene 1 34 6 2.01872 0 97 2.01872 0
genomeend 50

/* Organism #51 Fitness: 70 Error: 0 */
genomestart 51
trait 1 0.1 0.889494 0.0561086 0 0 0 0 0.354927 
trait 2 0.2 0 0 0 0 0.046364 0 0 
trait 3 0.3 0 0 0 0 0 0 0 
node 1 1 1 3
node 2 3 1 1
node 3 2 1 1
node 4 3 1 1
node 5 3 1 1
node 6 3 0 2
node 7 2 0 2
node 9 1 0 0
node 21 1 0 0
node 28 1 0 0
node 34 2 0 0
gene 1 1 6 -6.30887 0 1 -6.30887 1
gene 3 2 6 1.22198 0 2 1.22198 0
gene 1 3 6 -4.41574 0 3 -4.41574 1
gene 3 4 6 6.59954 0 4 6.59954 1
gene 1 5 6 -5.40237 0 5 -5.40237 1
gene 3 1 7 1.10504 0 6 1.10504 1
gene 1 2 7 -8 0 7 -8 1
gene 3 3 7 -8 0 8 -8 1
gene 3 4 7 1.36195 0 9 1.36195 0
gene 1 5 7 -8 0 10 -8 1
gene 3 4 9 4.29327 0 15 4.29327 1
gene 3 9 6 -3.63651 0 16 -3.63651 1
gene 3 4 21 0.197475 0 50 0.197475 1
gene 3 21 7 5.96425 0 51 5.96425 1
gene 3 21 9 -2.32184 0 62 -2.32184 1
gene 3 2 28 0.971896 0 77 0.971896 1
gene 3 28 6 0.80007 0 78 0.80007 1
gene 1 3 34 1.94342 0 96 1.94342 1
gene 1 34 6 -0.484489 0 97 -0.484489 1
genomeend 51

/* Organism #52 Fitness: 9 Error: 0 */
genomestart 52
trait 1 0.1 0.889494 0.0561086 0 0 0 0 0.354927 
trait 2 0.2 0 0 0 0 0 0 0 
trait 3 0.3 0 0 0 0 0 0 0 
node 1 1 1 3
node 2 3 1 1
node 3 2 1 1
node 4 3 1 1
node 5 3 1 1
node 6 3 0 2
node 7 2 0 2
node 9 1 0 0
node 21 1 0 0
node 28 1 0 0
node 34 1 0 0
gene 1 1 6 -8 0 1 -8 1
gene 3 2 6 -2.89822 0 2 -2.89822 0
gene 1 3 6 -1.57099 0 3 -1.57099 1
gene 3 4 6 8 0 4 8 1
gene 1 5 6 -6.19258 0 5 -6.19258 1
gene 2 1 7 -0.503617 0 6 -0.503617 1
gene 1 2 7 -5.38596 0 7 -5.38596 1
gene 3 3 7 -5.4447 0 8 -5.4447 1
gene 3 4 7 -1.25623 0 9 -1.25623 0
gene 1 5 7 -2.15848 0 10 -2.15848 1
gene 3 4 9 1.84345 0 15 1.84345 1
gene 3 9 6 -4.57871 0 16 -4.57871 1
gene 3 4 21 -0.98465 0 50 -0.98465 1
gene 3 21 7 1.94293 0 51 1.94293 1
gene 3 21 9 -1.30269 0 62 -1.30269 1
gene 3 2 28 -0.426542 0 77 -0.426542 1
gene 3 28 6 3.4025 0 78 3.4025 1
gene 1 3 34 0.533338 0 96 0.533338 1
gene 1 34 6 1.29623 0 97 1.29623 0
genomeend 52

/* Organism #53 Fitness: 70 Error: 0 */
genomestart 53
trait 1 0.1 0.889494 0.0561086 0 0 0 0 0.354927 
trait 2 0.2 0 0 0 0 0 0 0 
trait 3 0.3 0 0 0 0 0 0 0 
node 1 1 1 3
node 2 3 1 1
node 3 2 1 1
node 4 3 1 1
node 5 3 1 1
node 6 3 0 2
node 7 2 0 2
node 9 1 0 0
node 21 1 0 0
node 28 1 0 0
node 34 1 0 0
gene 1 1 6 -7.64962 0 1 -7.64962 1
gene 3 2 6 -4.41086 0 2 -4.41086 0
gene 1 3 6 0.0728302 0 3 0.0728302 1
gene 3 4 6 8 0 4 8 1
gene 1 5 6 -7.26697 0 5 -7.26697 1
gene 2 1 7 -0.214004 0 6 -0.214004 1
gene 1 2 7 -6.47864 0 7 -6.47864 1
gene 3 3 7 -6.54612 0 8 -6.54612 1
gene 3 4 7 -2.43397 0 9 -2.43397 0
gene 1 5 7 -1.48915 0 10 -1.48915 1
gene 3 4 9 5.29053 0 15 5.29053 1
gene 3 9 6 -2.44525 0 16 -2.44525 1
gene 3 4 21 -1.14746 0 50 -1.14746 1
gene 3 21 7 2.50145 0 51 2.50145 1
gene 3 21 9 0.355964 0 62 0.355964 1
gene 3 2 28 0.292077 0 77 0.292077 1
gene 3 28 6 1.19027 0 78 1.19027 1
gene 1 3 34 -1.27558 0 96 -1.27558 1
gene 1 34 6 3.00323 0 97 3.00323 0
genomeend 53

/* Organism #54 Fitness: 72 Error: 0 */
genomestart 54
trait 1 0.1 0.889494 0.0561086 0 0 0 0 0.354927 
trait 2 0.2 0 0 0 0 0 0 0 
trait 3 0.3 0 0 0 0 0 0 0 
node 1 1 1 3
node 2 3 1 1
node 3 2 1 1
node 4 3 1 1
node 5 3 1 1
node 6 3 0 2
node 7 2 0 2
node 9 1 0 0
node 21 1 0 0
node 28 1 0 0
node 34 1 0 0
gene 1 1 6 -8 0 1 -8 1
gene 3 2 6 -4.76322 0 2 -4.76322 0
gene 1 3 6 0.831304 0 3 0.831304 1
gene 3 4 6 8 0 4 8 1
gene 1 5 6 -6.33469 0 5 -6.33469 1
gene 2 1 7 -2.69116 0 6 -2.69116 1
gene 1 2 7 -4.29905 0 7 -4.29905 1
gene 3 3 7 -7.72003 0 8 -7.72003 1
gene 3 4 7 -0.697648 0 9 -0.697648 0
gene 1 5 7 -5.48324 0 10 -5.48324 1
gene 3 4 9 1.78875 0 15 1.78875 1
gene 3 9 6 -6.21939 0 16 -6.21939 1
gene 3 4 21 3.057 0 50 3.057 1
gene 3 21 7 4.19123 0 51 4.19123 1
gene 3 21 9 0.728228 0 62 0.728228 1
gene 3 2 28 -1.56609 0 77 -1.56609 1
gene 3 28 6 -0.026192 0 78 -0.026192 1
gene 1 3 34 1.4844 0 96 1.4844 1
gene 1 34 6 1.11747 0 97 1.11747 0
genomeend 54

/* Organism #55 Fitness: 59 Error: 0 */
genomestart 55
trait 1 0.1 0.889494 0.0561086 0 0 0 0 0.354927 
trait 2 0.2 0 0 0 0 0 0 0 
trait 3 0.3 0 0 0 0 0 0 0 
node 1 1 1 3
node 2 3 1 1
node 3 2 1 1
node 4 3 1 1
node 5 3 1 1
node 6 3 0 2
node 7 2 0 2
node 9 1 0 0
node 21 1 0 0
node 28 1 0 0
node 34 1 0 0
gene 1 1 6 -6.6981 0 1 -6.6981 1
gene 3 2 6 -2.9317 0 2 -2.9317 0
gene 1 3 6 -1.5368 0 3 -1.5368 1
gene 3 4 6 7.29071 0 4 7.29071 1
gene 1 5 6 -3.26287 0 5 -3.26287 1
gene 2 1 7 -2.90379 0 6 -2.90379 1
gene 1 2 7 -3.59086 0 7 -3.59086 1
gene 3 3 7 -4.63486 0 8 -4.63486 1
gene 3 4 7 -0.108398 0 9 -0.108398 0
gene 1 5 7 -4.72879 0 10 -4.72879 1
gene 3 4 9 3.054 0 15 3.054 1
gene 3 9 6 -1.87921 0 16 -1.87921 1
gene 3 4 21 0.908217 0 50 0.908217 1
gene 3 21 7 0.547668 0 51 0.547668 1
gene 3 21 9 -1.33721 0 62 -1.33721 1
gene 3 2 28 -1.22143 0 77 -1.22143 1
gene 3 28 6 -2.25924 0 78 -2.25924 1
gene 1 3 34 -1.27558 0 96 -1.27558 1
gene 1 34 6 -0.301875 0 97 -0.301875 0
genomeend 55

/* Species #14 : (Size 12) (AF 80.1667) (Age 20)  */


/* Organism #56 Fitness: 153 Error: 0 */
genomestart 56
trait 1 0.710644 0 0.267818 0.468051 0.260112 0 0.0747378 0 
trait 2 0 0 0 0.0727747 0 0 0.965273 0.0329634 
trait 3 0.3 0 0 0 0 0 0 0 
node 1 2 1 3
node 2 3 1 1
node 3 2 1 1
node 4 3 1 1
node 5 3 1 1
node 6 3 0 2
node 7 2 0 2
node 9 1 0 0
node 63 1 0 0
gene 1 1 6 -6.71879 0 1 -6.71879 1
gene 3 2 6 -2.64793 0 2 -2.64793 1
gene 1 3 6 -4.58173 0 3 -4.58173 1
gene 3 4 6 0.902941 0 4 0.902941 1
gene 1 5 6 -0.113929 0 5 -0.113929 1
gene 3 1 7 0.160542 0 6 0.160542 1
gene 2 2 7 0.170386 0 7 0.170386 1
gene 3 3 7 -3.12585 0 8 -3.12585 1
gene 3 4 7 0.753525 0 9 0.753525 1
gene 1 5 7 -8 0 10 -8 1
gene 3 4 9 -3.55704 0 15 -3.55704 0
gene 3 9 6 -0.801195 0 16 -0.801195 1
gene 2 7 9 -5.98324 0 89 -5.98324 1
gene 3 4 63 -1.58648 0 208 -1.58648 1
gene 3 63 9 1.75242 0 209 1.75242 1
genomeend 56

/* Organism #57 Fitness: 67 Error: 0 */
genomestart 57
trait 1 0.710644 0 0.267818 0.468051 0.260112 0 0.0747378 0 
trait 2 0 0 0 0.0727747 0 0 0.965273 0.0329634 
trait 3 0.3 0 0 0 0 0 0 0 
node 1 2 1 3
node 2 3 1 1
node 3 2 1 1
node 4 3 1 1
node 5 3 1 1
node 6 3 0 2
node 7 2 0 2
node 9 1 0 0
node 63 1 0 0
gene 1 1 6 -4.8827 0 1 -4.8827 1
gene 3 2 6 -4.33168 0 2 -4.33168 1
gene 1 3 6 -4.58173 0 3 -4.58173 1
gene 3 4 6 2.12221 0 4 2.12221 1
gene 1 5 6 -0.113929 0 5 -0.113929 1
gene 3 1 7 -1.53703 0 6 -1.53703 1
gene 2 2 7 0.0542836 0 7 0.0542836 1
gene 3 3 7 -4.15709 0 8 -4.15709 1
gene 3 4 7 1.60524 0 9 1.60524 1
gene 1 5 7 -8 0 10 -8 1
gene 3 4 9 -5.19232 0 15 -5.19232 0
gene 3 9 6 -3.16181 0 16 -3.16181 1
gene 2 7 9 -5.98324 0 89 -5.98324 1
gene 3 4 63 -1.58648 0 208 -1.58648 1
gene 3 63 9 3.37014 0 209 3.37014 1
genomeend 57

/* Organism #58 Fitness: 58 Error: 0 */
genomestart 58
trait 1 0.0209901 0 0.267818 0.468051 0 0.903157 0.0747378 0 
trait 2 0 0 0 0.0727747 0 0 0.965273 0.0329634 
trait 3 0.3 0 0 0 0 0 0 0 
node 1 2 1 3
node 2 3 1 1
node 3 3 1 1
node 4 3 1 1
node 5 3 1 1
node 6 3 0 2
node 7 2 0 2
node 9 1 0 0
node 63 1 0 0
gene 1 1 6 -6.94553 0 1 -6.94553 1
gene 3 2 6 -0.810317 0 2 -0.810317 1
gene 1 3 6 -2.39154 0 3 -2.39154 1
gene 3 4 6 -3.61204 0 4 -3.61204 0
gene 1 5 6 1.74893 0 5 1.74893 1
gene 3 1 7 -2.30424 0 6 -2.30424 1
gene 2 2 7 0.14222 0 7 0.14222 1
gene 3 3 7 -1.10046 0 8 -1.10046 1
gene 3 4 7 -1.31527 0 9 -1.31527 1
gene 1 5 7 -8 0 10 -8 1
gene 3 4 9 -3.76143 0 15 -3.76143 0
gene 3 9 6 -4.01615 0 16 -4.01615 1
gene 2 7 9 -8 0 89 -8 1
gene 3 4 63 1.66603 0 208 1.66603 1
gene 3 63 9 0.453135 0 209 0.453135 1
genomeend 58

/* Organism #59 Fitness: 70 Error: 0 */
genomestart 59
trait 1 0.710644 0 0.267818 0.468051 0.260112 0 0.0747378 0 
trait 2 0 0 0 0.0727747 0 0 0.965273 0.0329634 
trait 3 0.3 0 0 0 0 0 0 0 
node 1 2 1 3
node 2 3 1 1
node 3 2 1 1
node 4 3 1 1
node 5 3 1 1
node 6 3 0 2
node 7 2 0 2
node 9 1 0 0
node 63 1 0 0
gene 1 1 6 -7.49781 0 1 -7.49781 1
gene 3 2 6 -2.70073 0 2 -2.70073 1
gene 1 3 6 -1.80461 0 3 -1.80461 1
gene 3 4 6 0.463566 0 4 0.463566 0
gene 1 5 6 -1.04582 0 5 -1.04582 1
gene 3 1 7 1.18285 0 6 1.18285 1
gene 2 2 7 -1.34576 0 7 -1.34576 1
gene 3 3 7 -1.60334 0 8 -1.60334 1
gene 3 4 7 0.936356 0 9 0.936356 1
gene 1 5 7 -7.93709 0 10 -7.93709 1
gene 3 4 9 -1.71557 0 15 -1.71557 0
gene 3 9 6 -2.79655 0 16 -2.79655 1
gene 2 7 9 -7.79225 0 89 -7.79225 1
gene 3 4 63 -0.205756 0 208 -0.205756 1
gene 3 63 9 -2.27277 0 209 -2.27277 1
genomeend 59

/* Organism #60 Fitness: 102 Error: 0 */
genomestart 60
trait 1 0.710644 0 0.267818 0.468051 0.260112 0 0.0747378 0 
trait 2 0 0 0 0.0727747 0 0 0.965273 0.0329634 
trait 3 0.3 0 0 0 0 0 0 0 
node 1 2 1 3
node 2 3 1 1
node 3 2 1 1
node 4 3 1 1
node 5 3 1 1
node 6 3 0 2
node 7 2 0 2
node 9 1 0 0
node 63 1 0 0
gene 1 1 6 -5.38491 0 1 -5.38491 1
gene 3 2 6 -2.02738 0 2 -2.02738 1
gene 1 3 6 -1.15562 0 3 -1.15562 1
gene 3 4 6 -1.33858 0 4 -1.33858 0
gene 1 5 6 -1.85333 0 5 -1.85333 1
gene 3 1 7 0.115611 0 6 0.115611 1
gene 2 2 7 2.61114 0 7 2.61114 1
gene 3 3 7 -0.751858 0 8 -0.751858 1
gene 3 4 7 -1.92902 0 9 -1.92902 1
gene 1 5 7 -8 0 10 -8 1
gene 3 4 9 -5.48156 0 15 -5.48156 1
gene 3 9 6 -2.58519 0 16 -2.58519 1
gene 2 7 9 -6.24239 0 89 -6.24239 1
gene 3 4 63 -0.205756 0 208 -0.205756 1
gene 3 63 9 1.20459 0 209 1.20459 1
genomeend 60

/* Organism #61 Fitness: 76 Error: 0 */
genomestart 61
trait 1 0.710644 0 0.267818 0.468051 0.260112 0 0.0747378 0 
trait 2 0 0 0 0.0727747 0 0 0.965273 0.0329634 
trait 3 0.3 0 0 0 0 0 0 0 
node 1 2 1 3
node 2 3 1 1
node 3 2 1 1
node 4 3 1 1
node 5 3 1 1
node 6 3 0 2
node 7 2 0 2
node 9 1 0 0
node 63 1 0 0
gene 1 1 6 -8 0 1 -8 1
gene 3 2 6 0.253549 0 2 0.253549 1
gene 1 3 6 -0.864694 0 3 -0.864694 1
gene 3 4 6 -2.68613 0 4 -2.68613 1
gene 1 5 6 -1.86087 0 5 -1.86087 1
gene 3 1 7 -1.21688 0 6 -1.21688 1
gene 2 2 7 0.585398 0 7 0.585398 1
gene 3 3 7 -1.86418 0 8 -1.86418 1
gene 3 4 7 1.91798 0 9 1.91798 1
gene 1 5 7 -8 0 10 -8 1
gene 3 4 9 -2.83621 0 15 -2.83621 0
gene 3 9 6 -3.76395 0 16 -3.76395 1
gene 2 7 9 -4.74996 0 89 -4.74996 1
gene 3 4 63 0.936576 0 208 0.936576 1
gene 3 63 9 3.75916 0 209 3.75916 1
genomeend 61

/* Organism #62 Fitness: 70 Error: 0 */
genomestart 62
trait 1 0.710644 0 0.267818 0.468051 0.260112 0 0.0747378 0 
trait 2 0 0 0 0.0727747 0 0 0.965273 0.0329634 
trait 3 0.3 0 0 0 0 0 0 0 
node 1 2 1 3
node 2 3 1 1
node 3 2 1 1
node 4 3 1 1
node 5 3 1 1
node 6 3 0 2
node 7 2 0 2
node 9 1 0 0
node 63 1 0 0
gene 1 1 6 -5.66646 0 1 -5.66646 1
gene 3 2 6 -3.84298 0 2 -3.84298 1
gene 1 3 6 -2.11925 0 3 -2.11925 1
gene 3 4 6 -0.77882 0 4 -0.77882 1
gene 1 5 6 -1.7495 0 5 -1.7495 1
gene 3 1 7 2.56852 0 6 2.56852 1
gene 2 2 7 -1.73969 0 7 -1.73969 1
gene 3 3 7 -3.15796 0 8 -3.15796 1
gene 3 4 7 0.597942 0 9 0.597942 1
gene 1 5 7 -6.84814 0 10 -6.84814 1
gene 3 4 9 -3.15761 0 15 -3.15761 0
gene 3 9 6 1.54367 0 16 1.54367 1
gene 2 7 9 -3.92642 0 89 -3.92642 1
gene 3 4 63 -2.25119 0 208 -2.25119 1
gene 3 63 9 1.22706 0 209 1.22706 1
genomeend 62

/* Organism #63 Fitness: 59 Error: 0 */
genomestart 63
trait 1 0.710644 0 0.267818 0.468051 0.260112 0 0.0747378 0 
trait 2 0 0 0 0.0727747 0 0 0.965273 0.0329634 
trait 3 0.3 0 0 0 0 0 0 0 
node 1 2 1 3
node 2 3 1 1
node 3 2 1 1
node 4 3 1 1
node 5 3 1 1
node 6 3 0 2
node 7 2 0 2
node 9 1 0 0
node 63 1 0 0
gene 1 1 6 -8 0 1 -8 1
gene 3 2 6 -1.16874 0 2 -1.16874 1
gene 1 3 6 -3.29226 0 3 -3.29226 1
gene 3 4 6 0.912046 0 4 0.912046 1
gene 1 5 6 1.73906 0 5 1.73906 1
gene 3 1 7 -0.903535 0 6 -0.903535 1
gene 2 2 7 -2.1465 0 7 -2.1465 1
gene 3 3 7 -2.48618 0 8 -2.48618 1
gene 3 4 7 -0.00469845 0 9 -0.00469845 1
gene 1 5 7 -7.43772 0 10 -7.43772 1
gene 3 4 9 -1.44976 0 15 -1.44976 0
gene 3 9 6 -0.567731 0 16 -0.567731 1
gene 2 7 9 -8 0 89 -8 1
gene 3 4 63 -1.58648 0 208 -1.58648 1
gene 3 63 9 -1.00143 0 209 -1.00143 1
genomeend 63

/* Organism #64 Fitness: 63 Error: 0 */
genomestart 64
trait 1 0.710644 0 0.267818 0.468051 0.260112 0 0.0747378 0 
trait 2 0 0 0 0.0727747 0 0 0.965273 0.0329634 
trait 3 0.3 0 0 0 0 0 0 0 
node 1 2 1 3
node 2 3 1 1
node 3 2 1 1
node 4 3 1 1
node 5 3 1 1
node 6 3 0 2
node 7 2 0 2
node 9 1 0 0
node 63 1 0 0
gene 1 1 6 -8 0 1 -8 1
gene 3 2 6 -4.07786 0 2 -4.07786 1
gene 1 3 6 -6.38967 0 3 -6.38967 1
gene 3 4 6 0.932282 0 4 0.932282 1
gene 1 5 6 0.896372 0 5 0.896372 1
gene 3 1 7 -0.92955 0 6 -0.92955 1
gene 2 2 7 2.03816 0 7 2.03816 1
gene 3 3 7 -2.90009 0 8 -2.90009 1
gene 3 4 7 1.21306 0 9 1.21306 1
gene 1 5 7 -8 0 10 -8 1
gene 3 4 9 -4.57143 0 15 -4.57143 0
gene 3 9 6 -0.373713 0 16 -0.373713 1
gene 2 7 9 -6.28504 0 89 -6.28504 1
gene 3 4 63 -3.01365 0 208 -3.01365 1
gene 3 63 9 3.61235 0 209 3.61235 1
genomeend 64

/* Organism #65 Fitness: 65 Error: 0 */
genomestart 65
trait 1 0.710644 0 0.267818 0.468051 0.260112 0 0.0747378 0 
trait 2 0 0 0 0.0727747 0 0 0.965273 0.0329634 
trait 3 0.3 0 0 0 0 0 0 0 
node 1 2 1 3
node 2 3 1 1
node 3 2 1 1
node 4 3 1 1
node 5 3 1 1
node 6 3 0 2
node 7 2 0 2
node 9 1 0 0
node 63 1 0 0
gene 1 1 6 -7.02563 0 1 -7.02563 1
gene 3 2 6 -1.65913 0 2 -1.65913 1
gene 3 3 6 -2.47404 0 3 -2.47404 1
gene 3 4 6 1.2432 0 4 1.2432 1
gene 1 5 6 -0.271372 0 5 -0.271372 1
gene 3 1 7 -1.21519 0 6 -1.21519 1
gene 2 2 7 1.89876 0 7 1.89876 1
gene 3 3 7 -5.95982 0 8 -5.95982 1
gene 3 4 7 1.34848 0 9 1.34848 1
gene 1 5 7 -8 0 10 -8 1
gene 3 4 9 -2.87339 0 15 -2.87339 0
gene 3 9 6 -3.03447 0 16 -3.03447 1
gene 2 7 9 -4.46145 0 89 -4.46145 1
gene 3 4 63 -3.09062 0 208 -3.09062 1
gene 3 63 9 1.75242 0 209 1.75242 1
genomeend 65

/* Organism #66 Fitness: 69 Error: 0 */
genomestart 66
trait 1 0.710644 0 0.267818 0.468051 0.260112 0 0.0747378 0 
trait 2 0 0 0 0.0727747 0 0 0.965273 0.0329634 
trait 3 0.3 0 0 0 0 0 0 0 
node 1 2 1 3
node 2 3 1 1
node 3 2 1 1
node 4 3 1 1
node 5 3 1 1
node 6 3 0 2
node 7 2 0 2
node 9 1 0 0
node 63 1 0 0
gene 1 1 6 -7.15113 0 1 -7.15113 1
gene 3 2 6 -1.60487 0 2 -1.60487 1
gene 1 3 6 -2.3869 0 3 -2.3869 1
gene 3 4 6 -0.244982 0 4 -0.244982 1
gene 1 5 6 -0.296158 0 5 -0.296158 1
gene 3 1 7 -0.279708 0 6 -0.279708 1
gene 2 2 7 0.156303 0 7 0.156303 1
gene 3 3 7 -2.47626 0 8 -2.47626 1
gene 3 4 7 -0.0356315 0 9 -0.0356315 1
gene 1 5 7 -7.96327 0 10 -7.96327 1
gene 3 4 9 -3.35769 0 15 -3.35769 0
gene 3 9 6 -1.70594 0 16 -1.70594 1
gene 2 7 9 -6.49368 0 89 -6.49368 1
gene 3 4 63 -0.89612 0 208 -0.89612 1
gene 3 63 9 1.75242 0 209 1.75242 1
genomeend 66

/* Organism #67 Fitness: 110 Error: 0 */
genomestart 67
trait 1 0.710644 0 0.267818 0.468051 0.260112 0 0.0747378 0 
trait 2 0 0 0 0.0727747 0 0 0.965273 0.0329634 
trait 3 0.3 0 0 0 0 0 0 0 
node 1 2 1 3
node 2 3 1 1
node 3 2 1 1
node 4 3 1 1
node 5 3 1 1
node 6 3 0 2
node 7 2 0 2
node 9 1 0 0
node 63 1 0 0
gene 1 1 6 -5.5161 0 1 -5.5161 1
gene 3 2 6 -1.89106 0 2 -1.89106 1
gene 1 3 6 -2.38147 0 3 -2.38147 1
gene 3 4 6 -2.26279 0 4 -2.26279 1
gene 1 5 6 1.28278 0 5 1.28278 1
gene 3 1 7 0.120887 0 6 0.120887 1
gene 2 2 7 -1.97138 0 7 -1.97138 1
gene 3 3 7 -6.92835 0 8 -6.92835 1
gene 3 4 7 2.39799 0 9 2.39799 1
gene 1 5 7 -8 0 10 -8 1
gene 3 4 9 -2.05519 0 15 -2.05519 0
gene 3 9 6 -2.02642 0 16 -2.02642 1
gene 2 7 9 -6.72957 0 89 -6.72957 1
gene 3 4 63 -0.153388 0 208 -0.153388 1
gene 3 63 9 1.75242 0 209 1.75242 1
genomeend 67

/* Species #15 : (Size 7) (AF 67.5714) (Age 20)  */


/* Organism #68 Fitness: 159 Error: 0 */
genomestart 68
trait 1 0.1 0 0.245759 0 0 0.0394727 0.0373689 0 
trait 2 0.189063 0 0 0.0363874 0 0 0.0357327 0.0164817 
trait 3 0.3 0 0 0 0 0 0 0 
node 1 1 1 3
node 2 3 1 1
node 3 2 1 1
node 4 3 1 1
node 5 3 1 1
node 6 3 0 2
node 7 2 0 2
node 9 1 0 0
node 39 1 0 0
gene 1 1 6 -8 0 1 -8 1
gene 3 2 6 0.589448 0 2 0.589448 1
gene 1 3 6 -2.48082 0 3 -2.48082 1
gene 3 4 6 5.25509 0 4 5.25509 1
gene 1 5 6 0.225797 0 5 0.225797 1
gene 3 1 7 0.722721 0 6 0.722721 1
gene 2 2 7 6.53585 0 7 6.53585 1
gene 3 3 7 -0.487059 0 8 -0.487059 1
gene 3 4 7 1.33849 0 9 1.33849 0
gene 1 5 7 -4.54542 0 10 -4.54542 1
gene 3 4 9 -1.76591 0 15 -1.76591 1
gene 3 9 6 -0.548489 0 16 -0.548489 1
gene 3 4 39 3.13167 0 120 3.13167 1
gene 3 39 7 -3.43752 0 121 -3.43752 1
gene 1 5 9 0.799011 0 298 0.799011 1
genomeend 68

/* Organism #69 Fitness: 38 Error: 0 */
genomestart 69
trait 1 0.1 0 0.245759 0 0 0.0394727 0.0373689 0 
trait 2 0.189063 0 0 0.0363874 0 0 0.0357327 0.0164817 
trait 3 0.3 0 0 0 0 0 0 0 
node 1 1 1 3
node 2 3 1 1
node 3 2 1 1
node 4 3 1 1
node 5 3 1 1
node 6 3 0 2
node 7 2 0 2
node 9 1 0 0
node 39 1 0 0
gene 1 1 6 -8 0 1 -8 1
gene 3 2 6 0.778931 0 2 0.778931 1
gene 1 3 6 -0.333359 0 3 -0.333359 1
gene 3 4 6 4.88734 0 4 4.88734 1
gene 1 5 6 -0.814641 0 5 -0.814641 1
gene 3 1 7 -0.0620051 0 6 -0.0620051 1
gene 2 2 7 7.06367 0 7 7.06367 1
gene 3 3 7 -1.16236 0 8 -1.16236 1
gene 3 4 7 1.8351 0 9 1.8351 0
gene 1 5 7 -0.770846 0 10 -0.770846 1
gene 3 4 9 -3.17137 0 15 -3.17137 1
gene 3 9 6 0.0587737 0 16 0.0587737 1
gene 3 4 39 3.13167 0 120 3.13167 1
gene 3 39 7 -0.0864478 0 121 -0.0864478 1
gene 1 5 9 2.07668 0 298 2.07668 1
genomeend 69

/* Organism #70 Fitness: 67 Error: 0 */
genomestart 70
trait 1 0.1 0 0.215039 0 0 0.0345386 0.0326978 0 
trait 2 0.213934 0 0 0.0318389 0 0 0.0312661 0.379862 
trait 3 0.3 0 0 0 0 0 0 0 
node 1 1 1 3
node 2 3 1 1
node 3 2 1 1
node 4 3 1 1
node 5 3 1 1
node 6 3 0 2
node 7 2 0 2
node 9 1 0 0
node 39 1 0 0
gene 1 1 6 -6.82906 0 1 -6.82906 1
gene 3 2 6 2.67164 0 2 2.67164 1
gene 1 3 6 -0.072764 0 3 -0.072764 1
gene 3 4 6 4.7462 0 4 4.7462 0
gene 1 5 6 2.00045 0 5 2.00045 1
gene 3 1 7 -1.37262 0 6 -1.37262 1
gene 2 2 7 7.08448 0 7 7.08448 1
gene 3 3 7 -4.71111 0 8 -4.71111 1
gene 3 4 7 2.92787 0 9 2.92787 0
gene 1 5 7 -5.35857 0 10 -5.35857 1
gene 3 4 9 0.614436 0 15 0.614436 1
gene 3 9 6 -2.38565 0 16 -2.38565 1
gene 3 4 39 5.26945 0 120 5.26945 1
gene 3 39 7 -3.70268 0 121 -3.70268 1
gene 1 5 9 0.112992 0 298 0.112992 1
genomeend 70

/* Organism #71 Fitness: 49 Error: 0 */
genomestart 71
trait 1 0.1 0 0.245759 0 0 0.0394727 0.0373689 0 
trait 2 0.189063 0 0 0.0363874 0 0 0.0357327 0.0164817 
trait 3 0.3 0 0 0 0 0 0 0 
node 1 1 1 3
node 2 3 1 1
node 3 2 1 1
node 4 3 1 1
node 5 3 1 1
node 6 3 0 2
node 7 2 0 2
node 9 1 0 0
node 39 1 0 0
gene 1 1 6 -8 0 1 -8 1
gene 3 2 6 -0.940262 0 2 -0.940262 1
gene 1 3 6 -3.37893 0 3 -3.37893 1
gene 3 4 6 2.34668 0 4 2.34668 1
gene 1 5 6 2.62369 0 5 2.62369 1
gene 3 1 7 -1.9168 0 6 -1.9168 1
gene 2 2 7 4.70322 0 7 4.70322 1
gene 3 3 7 -1.14077 0 8 -1.14077 1
gene 3 4 7 -0.227498 0 9 -0.227498 0
gene 1 5 7 -3.09087 0 10 -3.09087 1
gene 3 4 9 -0.811794 0 15 -0.811794 1
gene 3 9 6 -2.1692 0 16 -2.1692 1
gene 3 4 39 4.14786 0 120 4.14786 1
gene 3 39 7 -2.31249 0 121 -2.31249 1
gene 1 5 9 1.7398 0 298 1.7398 1
genomeend 71

/* Organism #72 Fitness: 12 Error: 0 */
genomestart 72
trait 1 0.1 0 0.215039 0 0 0.0345386 0.0326978 0 
trait 2 0.213934 0 0 0.0318389 0 0 0.0312661 0.379862 
trait 3 0.3 0 0 0 0 0 0 0 
node 1 1 1 3
node 2 3 1 1
node 3 2 1 1
node 4 3 1 1
node 5 3 1 1
node 6 3 0 2
node 7 2 0 2
node 9 1 0 0
node 39 1 0 0
gene 1 1 6 2.06569 0 1 2.06569 1
gene 2 2 6 0.408513 0 2 0.408513 1
gene 1 3 6 -0.00539151 0 3 -0.00539151 1
gene 3 4 6 4.63395 0 4 4.63395 0
gene 1 5 6 2.7704 0 5 2.7704 1
gene 3 1 7 -0.790475 0 6 -0.790475 1
gene 2 2 7 3.8336 0 7 3.8336 1
gene 3 3 7 -1.70494 0 8 -1.70494 1
gene 3 4 7 -1.35167 0 9 -1.35167 0
gene 1 5 7 -5.85536 0 10 -5.85536 1
gene 3 4 9 -1.63413 0 15 -1.63413 1
gene 3 9 6 -1.17187 0 16 -1.17187 1
gene 3 4 39 -1.53214 0 120 -1.53214 1
gene 3 39 7 -1.37535 0 121 -1.37535 1
genomeend 72

/* Organism #73 Fitness: 57 Error: 0 */
genomestart 73
trait 1 0.1 0 0.245759 0 0 0.0394727 0.0373689 0 
trait 2 0.189063 0 0 0.0363874 0 0 0.0357327 0.0164817 
trait 3 0.3 0 0 0 0 0 0 0 
node 1 1 1 3
node 2 3 1 1
node 3 2 1 1
node 4 3 1 1
node 5 3 1 1
node 6 3 0 2
node 7 2 0 2
node 9 1 0 0
node 39 1 0 0
gene 1 1 6 -8 0 1 -8 1
gene 2 2 6 0.468436 0 2 0.468436 1
gene 1 3 6 -1.15772 0 3 -1.15772 1
gene 3 4 6 6.22224 0 4 6.22224 1
gene 1 5 6 2.61296 0 5 2.61296 1
gene 3 1 7 -0.449201 0 6 -0.449201 1
gene 2 2 7 8 0 7 8 1
gene 3 3 7 -4.75143 0 8 -4.75143 1
gene 3 4 7 2.56188 0 9 2.56188 0
gene 1 5 7 -6.69416 0 10 -6.69416 1
gene 3 4 9 0.436924 0 15 0.436924 1
gene 3 9 6 -3.00941 0 16 -3.00941 1
gene 3 4 39 0.787843 0 120 0.787843 1
gene 3 39 7 -1.08412 0 121 -1.08412 1
gene 1 5 9 1.39636 0 298 1.39636 1
genomeend 73

/* Organism #74 Fitness: 91 Error: 0 */
genomestart 74
trait 1 0.1 0 0.245759 0 0 0.0394727 0.0373689 0 
trait 2 0.189063 0 0 0.0363874 0 0 0.0357327 0.0164817 
trait 3 0.3 0 0 0 0 0 0 0 
node 1 1 1 3
node 2 3 1 1
node 3 2 1 1
node 4 3 1 1
node 5 3 1 1
node 6 3 0 2
node 7 2 0 2
node 9 1 0 0
node 39 1 0 0
gene 1 1 6 -8 0 1 -8 1
gene 2 2 6 0.32715 0 2 0.32715 1
gene 1 3 6 -3.66112 0 3 -3.66112 1
gene 3 4 6 6.97854 0 4 6.97854 1
gene 1 5 6 4.34597 0 5 4.34597 1
gene 3 1 7 0.819316 0 6 0.819316 1
gene 2 2 7 3.52696 0 7 3.52696 1
gene 3 3 7 -2.87555 0 8 -2.87555 1
gene 3 4 7 -0.0964054 0 9 -0.0964054 1
gene 1 5 7 -5.45607 0 10 -5.45607 1
gene 3 4 9 -2.89538 0 15 -2.89538 1
gene 3 9 6 -3.57432 0 16 -3.57432 1
gene 3 4 39 -1.29028 0 120 -1.29028 1
gene 3 39 7 -0.176186 0 121 -0.176186 1
gene 1 5 9 -2.33481 0 298 -2.33481 1
genomeend 74

/* Species #16 : (Size 9) (AF 71.2222) (Age 19)  */


/* Organism #75 Fitness: 118 Error: 0 */
genomestart 75
trait 1 0.1 0 0 0 0 0 0 0 
trait 2 0.2 0 0 0 0 0 0 0 
trait 3 0.3 0 0 0 0 0 0 0 
node 1 2 1 3
node 2 3 1 1
node 3 1 1 1
node 4 1 1 1
node 5 2 1 1
node 6 1 0 2
node 7 2 0 2
node 18 1 0 0
node 31 1 0 0
node 42 1 0 0
node 81 1 0 0
gene 2 1 6 -2.97824 0 1 -2.97824 1
gene 1 2 6 5.39556 0 2 5.39556 1
gene 2 3 6 -0.256314 0 3 -0.256314 1
gene 3 4 6 0.620994 0 4 0.620994 1
gene 3 5 6 -1.65636 0 5 -1.65636 0
gene 2 1 7 -3.11198 0 6 -3.11198 1
gene 2 2 7 0.500037 0 7 0.500037 0
gene 1 3 7 -3.8847 0 8 -3.8847 1
gene 1 4 7 -4.05837 0 9 -4.05837 1
gene 1 5 7 -1.16758 0 10 -1.16758 1
gene 2 2 18 -0.985929 0 36 -0.985929 1
gene 2 18 7 1.60585 0 37 1.60585 1
gene 3 7 6 -1.93266 0 43 -1.93266 0
gene 1 3 31 1.28482 0 86 1.28482 1
gene 1 31 7 2.85491 0 87 2.85491 1
gene 2 2 31 -0.706647 0 107 -0.706647 1
gene 3 7 42 -0.192181 0 132 -0.192181 1
gene 1 42 6 -2.24571 0 133 -2.24571 1
gene 3 5 81 1 0 273 0 1
gene 3 81 6 -1.65636 0 274 0 1
genomeend 75

/* Organism #76 Fitness: 82 Error: 0 */
genomestart 76
trait 1 0.1 0 0 0 0 0 0 0 
trait 2 0.2 0 0 0 0 0 0 0 
trait 3 0.3 0 0 0 0 0 0 0 
node 1 2 1 3
node 2 3 1 1
node 3 1 1 1
node 4 1 1 1
node 5 2 1 1
node 6 1 0 2
node 7 2 0 2
node 18 1 0 0
node 31 1 0 0
node 42 1 0 0
node 81 1 0 0
gene 2 1 6 -2.97824 0 1 -2.97824 1
gene 1 2 6 3.59922 0 2 3.59922 1
gene 2 3 6 0.267275 0 3 0.267275 1
gene 3 4 6 0.0332137 0 4 0.0332137 1
gene 3 5 6 -0.296302 0 5 -0.296302 0
gene 2 1 7 -0.72875 0 6 -0.72875 1
gene 2 2 7 0.807123 0 7 0.807123 0
gene 1 3 7 -5.57295 0 8 -5.57295 1
gene 1 4 7 -6.28548 0 9 -6.28548 1
gene 1 5 7 -0.59362 0 10 -0.59362 1
gene 2 2 18 -3.41802 0 36 -3.41802 1
gene 2 18 7 2.26892 0 37 2.26892 1
gene 3 7 6 -3.80827 0 43 -3.80827 0
gene 1 3 31 3.19376 0 86 3.19376 1
gene 1 31 7 -1.07875 0 87 -1.07875 1
gene 2 2 31 -0.899866 0 107 -0.899866 1
gene 3 7 42 -1.90979 0 132 -1.90979 1
gene 1 42 6 -2.24571 0 133 -2.24571 1
gene 3 5 81 -0.52258 0 273 -0.52258 1
gene 3 81 6 0.662391 0 274 0.662391 1
genomeend 76

/* Organism #77 Fitness: 70 Error: 0 */
genomestart 77
trait 1 0.423357 0 0 0.0200983 0 0.62676 0 0 
trait 2 0.2 0 0 0 0 0 0 0 
trait 3 0.3 0 0 0.0243514 0 0 0 0 
node 1 2 1 3
node 2 3 1 1
node 3 1 1 1
node 4 1 1 1
node 5 2 1 1
node 6 1 0 2
node 7 2 0 2
node 18 1 0 0
node 31 1 0 0
node 42 1 0 0
node 81 1 0 0
gene 2 1 6 -2.56093 0 1 -2.56093 1
gene 1 2 6 6.97088 0 2 6.97088 1
gene 2 3 6 0.357485 0 3 0.357485 1
gene 3 4 6 -0.895633 0 4 -0.895633 1
gene 3 5 6 -1.65636 0 5 -1.65636 0
gene 2 1 7 1.44704 0 6 1.44704 1
gene 2 2 7 1.68744 0 7 1.68744 0
gene 1 3 7 0.356583 0 8 0.356583 1
gene 1 4 7 -0.0276909 0 9 -0.0276909 1
gene 1 5 7 1.07679 0 10 1.07679 1
gene 2 2 18 0.938053 0 36 0.938053 1
gene 2 18 7 -0.432493 0 37 -0.432493 1
gene 1 7 6 -3.75412 0 43 -3.75412 0
gene 1 3 31 -0.473942 0 86 -0.473942 1
gene 1 31 7 0.993667 0 87 0.993667 1
gene 2 2 31 0.0538274 0 107 0.0538274 1
gene 3 7 42 0.598545 0 132 0.598545 1
gene 1 42 6 -2.12222 0 133 -2.12222 1
gene 3 5 81 1 0 273 1 1
gene 3 81 6 -3.38888 0 274 -3.38888 1
genomeend 77

/* Organism #78 Fitness: 98 Error: 0 */
genomestart 78
trait 1 0.261678 0 0 0.0100491 0 0.31338 0 0 
trait 2 0.2 0 0 0 0 0 0 0 
trait 3 0.3 0 0 0 0 0 0 0 
node 1 2 1 3
node 2 3 1 1
node 3 1 1 1
node 4 1 1 1
node 5 2 1 1
node 6 1 0 2
node 7 2 0 2
node 18 1 0 0
node 31 1 0 0
node 42 1 0 0
node 81 1 0 0
gene 2 1 6 -1.78952 0 1 -1.78952 1
gene 1 2 6 5.9947 0 2 5.9947 1
gene 2 3 6 0.971888 0 3 0.971888 1
gene 3 4 6 0.620994 0 4 0.620994 1
gene 3 5 6 -0.297958 0 5 -0.297958 0
gene 2 1 7 -5.47421 0 6 -5.47421 1
gene 2 2 7 0.00925954 0 7 0.00925954 0
gene 1 3 7 -4.81609 0 8 -4.81609 1
gene 1 4 7 -6.28148 0 9 -6.28148 1
gene 1 5 7 -2.92574 0 10 -2.92574 1
gene 2 2 18 -2.44334 0 36 -2.44334 1
gene 2 18 7 2.99049 0 37 2.99049 1
gene 3 7 6 -3.55646 0 43 -3.55646 0
gene 1 3 31 1.26511 0 86 1.26511 1
gene 1 31 7 3.36316 0 87 3.36316 1
gene 2 2 31 -2.11596 0 107 -2.11596 1
gene 3 7 42 0.202062 0 132 0.202062 1
gene 1 42 6 -0.686897 0 133 -0.686897 1
gene 3 5 81 1 0 273 1 1
gene 3 81 6 1.33741 0 274 1.33741 1
genomeend 78

/* Organism #79 Fitness: 70 Error: 0 */
genomestart 79
trait 1 0.1 0 0 0 0 0 0 0 
trait 2 0.2 0 0 0 0 0 0 0 
trait 3 0.3 0 0 0 0 0 0 0 
node 1 2 1 3
node 2 3 1 1
node 3 1 1 1
node 4 1 1 1
node 5 2 1 1
node 6 1 0 2
node 7 2 0 2
node 18 1 0 0
node 31 1 0 0
node 42 1 0 0
node 81 1 0 0
gene 2 1 6 -3.96042 0 1 -3.96042 1
gene 1 2 6 -1.40837 0 2 -1.40837 1
gene 2 3 6 1.0133 0 3 1.0133 1
gene 3 4 6 2.02462 0 4 2.02462 1
gene 3 5 6 1.28714 0 5 1.28714 0
gene 2 1 7 1.62823 0 6 1.62823 1
gene 2 2 7 0.500037 0 7 0.500037 0
gene 1 3 7 -6.33859 0 8 -6.33859 1
gene 1 4 7 -5.55989 0 9 -5.55989 1
gene 1 5 7 0.234627 0 10 0.234627 1
gene 2 2 18 1.0589 0 36 1.0589 1
gene 2 18 7 0.294246 0 37 0.294246 1
gene 3 7 6 -2.82542 0 43 -2.82542 0
gene 1 3 31 2.0773 0 86 2.0773 1
gene 1 31 7 3.2755 0 87 3.2755 1
gene 2 2 31 -0.997683 0 107 -0.997683 1
gene 3 7 42 1.61161 0 132 1.61161 1
gene 1 42 6 -1.01509 0 133 -1.01509 1
gene 3 5 81 -1.56709 0 273 -1.56709 1
gene 3 81 6 0.539376 0 274 0.539376 1
genomeend 79

/* Organism #80 Fitness: 46 Error: 0 */
genomestart 80
trait 1 0.261678 0 0 0.0100491 0 0.31338 0 0 
trait 2 0.2 0 0 0 0 0 0 0 
trait 3 0.3 0 0 0 0 0 0 0 
node 1 2 1 3
node 2 3 1 1
node 3 1 1 1
node 4 1 1 1
node 5 2 1 1
node 6 1 0 2
node 7 2 0 2
node 18 1 0 0
node 31 1 0 0
node 42 1 0 0
node 81 1 0 0
gene 2 1 6 -0.744365 0 1 -0.744365 1
gene 1 2 6 7.29785 0 2 7.29785 1
gene 2 3 6 -0.265485 0 3 -0.265485 1
gene 3 4 6 0.688435 0 4 0.688435 1
gene 3 5 6 -3.13395 0 5 -3.13395 0
gene 2 1 7 -4.70847 0 6 -4.70847 1
gene 2 2 7 0.546665 0 7 0.546665 0
gene 1 3 7 -1.81342 0 8 -1.81342 1
gene 1 4 7 -2.63615 0 9 -2.63615 1
gene 1 5 7 -0.329033 0 10 -0.329033 1
gene 2 2 18 0.405534 0 36 0.405534 1
gene 2 18 7 -0.291689 0 37 -0.291689 1
gene 3 7 6 -3.35673 0 43 -3.35673 0
gene 1 3 31 -0.0326056 0 86 -0.0326056 1
gene 1 31 7 2.95784 0 87 2.95784 1
gene 2 2 31 -0.596127 0 107 -0.596127 1
gene 3 7 42 -2.45173 0 132 -2.45173 1
gene 1 42 6 0.245452 0 133 0.245452 1
gene 3 5 81 1.94831 0 273 1.94831 1
gene 3 81 6 -3.40467 0 274 -3.40467 1
genomeend 80

/* Organism #81 Fitness: 42 Error: 0 */
genomestart 81
trait 1 0.423357 0 0 0.0200983 0 0.62676 0 0 
trait 2 0.2 0 0 0 0 0 0 0 
trait 3 0.3 0 0 0 0 0 0 0 
node 1 2 1 3
node 2 3 1 1
node 3 1 1 1
node 4 1 1 1
node 5 2 1 1
node 6 1 0 2
node 7 2 0 2
node 18 1 0 0
node 31 1 0 0
node 42 1 0 0
node 81 1 0 0
gene 2 1 6 -3.06488 0 1 -3.06488 1
gene 1 2 6 3.43283 0 2 3.43283 1
gene 2 3 6 1.98466 0 3 1.98466 1
gene 3 4 6 -1.3089 0 4 -1.3089 1
gene 3 5 6 -2.16611 0 5 -2.16611 0
gene 2 1 7 -3.7305 0 6 -3.7305 1
gene 2 2 7 1.84674 0 7 1.84674 0
gene 1 3 7 -3.76054 0 8 -3.76054 1
gene 1 4 7 -5.176 0 9 -5.176 1
gene 1 5 7 0.812272 0 10 0.812272 1
gene 2 2 18 0.165085 0 36 0.165085 1
gene 2 18 7 0.820676 0 37 0.820676 1
gene 3 7 6 -1.47291 0 43 -1.47291 0
gene 1 3 31 0.337322 0 86 0.337322 1
gene 1 31 7 3.55953 0 87 3.55953 1
gene 2 2 31 -1.96597 0 107 -1.96597 1
gene 3 7 42 -2.35349 0 132 -2.35349 1
gene 1 42 6 -4.72798 0 133 -4.72798 1
gene 3 5 81 1 0 273 1 1
gene 3 81 6 -1.65636 0 274 -1.65636 1
genomeend 81

/* Organism #82 Fitness: 72 Error: 0 */
genomestart 82
trait 1 0.1 0 0 0 0 0 0 0 
trait 2 0.2 0 0 0 0 0 0 0 
trait 3 0.3 0 0 0 0 0 0 0 
node 1 2 1 3
node 2 3 1 1
node 3 1 1 1
node 4 1 1 1
node 5 2 1 1
node 6 1 0 2
node 7 2 0 2
node 18 1 0 0
node 31 1 0 0
node 42 1 0 0
node 81 1 0 0
gene 2 1 6 -3.25764 0 1 -3.25764 1
gene 1 2 6 5.26919 0 2 5.26919 1
gene 2 3 6 -1.52772 0 3 -1.52772 1
gene 3 4 6 0.588057 0 4 0.588057 1
gene 3 5 6 -1.45069 0 5 -1.45069 0
gene 2 1 7 -1.20812 0 6 -1.20812 1
gene 2 2 7 0.774732 0 7 0.774732 0
gene 1 3 7 -1.50172 0 8 -1.50172 1
gene 1 4 7 -6.31158 0 9 -6.31158 1
gene 1 5 7 -1.68005 0 10 -1.68005 1
gene 2 2 18 -1.64578 0 36 -1.64578 1
gene 2 18 7 2.14089 0 37 2.14089 1
gene 3 7 6 -0.469253 0 43 -0.469253 0
gene 1 3 31 1.92244 0 86 1.92244 1
gene 1 31 7 2.86292 0 87 2.86292 1
gene 2 2 31 1.19839 0 107 1.19839 1
gene 3 7 42 -0.592163 0 132 -0.592163 1
gene 1 42 6 -0.690435 0 133 -0.690435 1
gene 3 5 81 -0.204583 0 273 -0.204583 1
gene 3 81 6 -3.48916 0 274 -3.48916 1
genomeend 82

/* Organism #83 Fitness: 43 Error: 0 */
genomestart 83
trait 1 0.261678 0 0 0.0100491 0 0.31338 0 0 
trait 2 0.2 0 0 0 0 0 0 0 
trait 3 0.3 0 0 0 0 0 0 0 
node 1 2 1 3
node 2 3 1 1
node 3 1 1 1
node 4 1 1 1
node 5 2 1 1
node 6 1 0 2
node 7 2 0 2
node 18 1 0 0
node 31 1 0 0
node 42 1 0 0
node 81 1 0 0
gene 2 1 6 -4.02251 0 1 -4.02251 1
gene 1 2 6 -0.0416666 0 2 -0.0416666 1
gene 2 3 6 0.672222 0 3 0.672222 1
gene 3 4 6 2.42113 0 4 2.42113 1
gene 3 5 6 -1.04163 0 5 -1.04163 0
gene 2 1 7 -5.41405 0 6 -5.41405 1
gene 2 2 7 -1.46609 0 7 -1.46609 0
gene 1 3 7 -5.32751 0 8 -5.32751 1
gene 1 4 7 -4.20644 0 9 -4.20644 1
gene 1 5 7 -0.339451 0 10 -0.339451 1
gene 2 2 18 -2.95683 0 36 -2.95683 1
gene 2 18 7 0.244882 0 37 0.244882 1
gene 3 7 6 -2.84934 0 43 -2.84934 0
gene 1 3 31 2.12594 0 86 2.12594 1
gene 1 31 7 4.88546 0 87 4.88546 1
gene 2 2 31 1.69246 0 107 1.69246 1
gene 3 7 42 -2.2178 0 132 -2.2178 1
gene 1 42 6 0.22311 0 133 0.22311 1
gene 3 5 81 1 0 273 1 1
gene 3 81 6 1.28121 0 274 1.28121 1
genomeend 83

/* Species #17 : (Size 9) (AF 93.4444) (Age 17)  */


/* Organism #84 Fitness: 143 Error: 0 */
genomestart 84
trait 1 0.1 0 0 0 0 0 0 0 
trait 2 0.2 0 0 0 0 0 0 0 
trait 3 0.3 0 0 0 0 0 0 0 
node 1 1 1 3
node 2 3 1 1
node 3 2 1 1
node 4 3 1 1
node 5 3 1 1
node 6 3 0 2
node 7 3 0 2
node 9 1 0 0
node 26 1 0 0
node 46 1 0 0
gene 1 1 6 -6.95167 0 1 -6.95167 1
gene 3 2 6 -0.0606138 0 2 -0.0606138 1
gene 1 3 6 2.70119 0 3 2.70119 1
gene 3 4 6 -1.21945 0 4 -1.21945 1
gene 1 5 6 6.50048 0 5 6.50048 1
gene 3 1 7 -2.97936 0 6 -2.97936 1
gene 1 2 7 -8 0 7 -8 1
gene 3 3 7 -1.90328 0 8 -1.90328 1
gene 3 4 7 -3.24595 0 9 -3.24595 1
gene 1 5 7 -6.71341 0 10 -6.71341 1
gene 3 4 9 1.06785 0 15 1.06785 1
gene 3 9 6 -6.59383 0 16 -6.59383 1
gene 2 6 7 -4.12754 0 38 -4.12754 1
gene 3 3 26 3.61652 0 70 3.61652 1
gene 3 26 7 -5.26611 0 71 -5.26611 1
gene 2 1 9 -0.80864 0 141 -0.80864 1
gene 1 5 46 1.39634 0 148 1.39634 1
gene 1 46 7 2.32588 0 149 2.32588 1
genomeend 84

/* Organism #85 Fitness: 108 Error: 0 */
genomestart 85
trait 1 0.1 0 0 0 0 0 0 0 
trait 2 0 0.308736 0.0634435 0 0 0 0 0 
trait 3 0.3 0 0 0 0 0 0 0 
node 1 1 1 3
node 2 3 1 1
node 3 2 1 1
node 4 3 1 1
node 5 3 1 1
node 6 3 0 2
node 7 3 0 2
node 9 1 0 0
node 26 1 0 0
node 46 1 0 0
gene 1 1 6 -7.61762 0 1 -7.61762 1
gene 3 2 6 0.341711 0 2 0.341711 1
gene 1 3 6 1.3418 0 3 1.3418 1
gene 3 4 6 -0.231203 0 4 -0.231203 1
gene 1 5 6 7.6107 0 5 7.6107 1
gene 3 1 7 -4.16512 0 6 -4.16512 1
gene 1 2 7 -7.3844 0 7 -7.3844 1
gene 3 3 7 -4.01664 0 8 -4.01664 1
gene 3 4 7 -2.5717 0 9 -2.5717 1
gene 1 5 7 -8 0 10 -8 1
gene 3 4 9 3.08479 0 15 3.08479 1
gene 3 9 6 -4.85246 0 16 -4.85246 1
gene 2 6 7 -4.12754 0 38 -4.12754 1
gene 3 3 26 3.61652 0 70 3.61652 1
gene 3 26 7 -7.01385 0 71 -7.01385 1
gene 2 1 9 1.23943 0 141 1.23943 1
gene 1 5 46 -0.325517 0 148 -0.325517 1
gene 1 46 7 3.03908 0 149 3.03908 1
gene 1 26 9 1.52195 0 348 1.52195 1
genomeend 85

/* Organism #86 Fitness: 143 Error: 0 */
genomestart 86
trait 1 0.1 0 0 0 0 0 0 0 
trait 2 0.2 0 0 0 0 0 0 0 
trait 3 0.3 0 0 0 0 0 0 0 
node 1 1 1 3
node 2 3 1 1
node 3 2 1 1
node 4 3 1 1
node 5 3 1 1
node 6 3 0 2
node 7 3 0 2
node 9 1 0 0
node 26 1 0 0
node 46 1 0 0
gene 1 1 6 -6.95167 0 1 -6.95167 1
gene 3 2 6 -0.0606138 0 2 -0.0606138 1
gene 1 3 6 2.70119 0 3 2.70119 1
gene 3 4 6 -1.21945 0 4 -1.21945 1
gene 1 5 6 6.50048 0 5 6.50048 1
gene 3 1 7 -2.97936 0 6 -2.97936 1
gene 1 2 7 -8 0 7 -8 1
gene 3 3 7 -1.90328 0 8 -1.90328 1
gene 3 4 7 -3.24595 0 9 -3.24595 1
gene 1 5 7 -6.71341 0 10 -6.71341 1
gene 3 4 9 1.06785 0 15 1.06785 1
gene 3 9 6 -6.59383 0 16 -6.59383 1
gene 2 6 7 -4.12754 0 38 -4.12754 1
gene 3 3 26 3.61652 0 70 3.61652 1
gene 3 26 7 -5.26611 0 71 -5.26611 1
gene 2 1 9 -0.80864 0 141 -0.80864 1
gene 1 5 46 1.39634 0 148 1.39634 1
gene 1 46 7 2.32588 0 149 2.32588 1
gene 1 26 9 0.0751804 0 348 0.0751804 1
genomeend 86

/* Organism #87 Fitness: 143 Error: 0 */
genomestart 87
trait 1 0.1 0 0 0 0 0 0 0 
trait 2 0.2 0 0 0 0 0 0 0 
trait 3 0.3 0 0 0 0 0 0 0 
node 1 1 1 3
node 2 3 1 1
node 3 2 1 1
node 4 3 1 1
node 5 3 1 1
node 6 3 0 2
node 7 3 0 2
node 9 1 0 0
node 26 1 0 0
node 46 1 0 0
node 107 1 0 0
gene 1 1 6 -6.95167 0 1 -6.95167 1
gene 3 2 6 -0.0606138 0 2 -0.0606138 1
gene 1 3 6 2.70119 0 3 2.70119 1
gene 3 4 6 -1.21945 0 4 -1.21945 1
gene 1 5 6 6.50048 0 5 6.50048 1
gene 3 1 7 -2.97936 0 6 -2.97936 1
gene 1 2 7 -8 0 7 -8 1
gene 3 3 7 -1.90328 0 8 -1.90328 1
gene 3 4 7 -3.24595 0 9 -3.24595 1
gene 1 5 7 -6.71341 0 10 -6.71341 1
gene 3 4 9 1.06785 0 15 1.06785 1
gene 3 9 6 -6.59383 0 16 -6.59383 0
gene 2 6 7 -4.12754 0 38 -4.12754 1
gene 3 3 26 3.61652 0 70 3.61652 1
gene 3 26 7 -5.26611 0 71 -5.26611 1
gene 2 1 9 -0.80864 0 141 -0.80864 1
gene 1 5 46 1.39634 0 148 1.39634 1
gene 1 46 7 2.32588 0 149 2.32588 1
gene 3 9 107 1 0 356 0 1
gene 3 107 6 -6.59383 0 357 0 1
genomeend 87

/* Organism #88 Fitness: 54 Error: 0 */
genomestart 88
trait 1 0.1 0 0 0 0 0 0 0 
trait 2 0.2 0 0 0 0 0 0 0 
trait 3 0.3 0 0 0 0 0 0 0 
node 1 1 1 3
node 2 3 1 1
node 3 2 1 1
node 4 3 1 1
node 5 3 1 1
node 6 3 0 2
node 7 3 0 2
node 9 1 0 0
node 26 1 0 0
node 46 1 0 0
gene 1 1 6 -8 0 1 -8 1
gene 3 2 6 0.646992 0 2 0.646992 1
gene 1 3 6 1.10701 0 3 1.10701 1
gene 3 4 6 -3.18318 0 4 -3.18318 1
gene 1 5 6 4.05276 0 5 4.05276 1
gene 3 1 7 -1.38667 0 6 -1.38667 1
gene 1 2 7 -6.78629 0 7 -6.78629 1
gene 3 3 7 -0.345468 0 8 -0.345468 1
gene 3 4 7 -5.54597 0 9 -5.54597 1
gene 1 5 7 -8 0 10 -8 1
gene 3 4 9 0.663634 0 15 0.663634 1
gene 3 9 6 -8 0 16 -8 1
gene 2 6 7 -4.43861 0 38 -4.43861 1
gene 3 3 26 4.20595 0 70 4.20595 1
gene 3 26 7 -6.82317 0 71 -6.82317 1
gene 2 1 9 -2.02825 0 141 -2.02825 1
gene 1 5 46 1.39634 0 148 1.39634 1
gene 1 46 7 0.704295 0 149 0.704295 1
gene 1 26 9 0.285615 0 348 0.285615 1
genomeend 88

/* Organism #89 Fitness: 20 Error: 0 */
genomestart 89
trait 1 0.1 0 0 0 0 0 0 0 
trait 2 0.2 0 0 0 0 0 0 0 
trait 3 0.3 0 0 0 0 0 0 0 
node 1 1 1 3
node 2 3 1 1
node 3 2 1 1
node 4 3 1 1
node 5 3 1 1
node 6 3 0 2
node 7 3 0 2
node 9 1 0 0
node 26 1 0 0
node 46 1 0 0
gene 1 1 6 0.187012 0 1 0.187012 1
gene 3 2 6 1.96261 0 2 1.96261 1
gene 1 3 6 -0.631316 0 3 -0.631316 1
gene 3 4 6 1.79408 0 4 1.79408 1
gene 1 5 6 7.14747 0 5 7.14747 1
gene 3 1 7 -3.97728 0 6 -3.97728 1
gene 1 2 7 -5.5749 0 7 -5.5749 1
gene 3 3 7 -2.87452 0 8 -2.87452 1
gene 3 4 7 -5.27797 0 9 -5.27797 1
gene 1 5 7 -6.43424 0 10 -6.43424 1
gene 3 4 9 1.8868 0 15 1.8868 1
gene 3 9 6 -6.75694 0 16 -6.75694 1
gene 2 6 7 -1.77889 0 38 -1.77889 1
gene 3 3 26 2.95841 0 70 2.95841 1
gene 3 26 7 1.03055 0 71 1.03055 1
gene 2 1 9 1.1055 0 141 1.1055 1
gene 1 5 46 2.66317 0 148 2.66317 1
gene 1 46 7 4.59736 0 149 4.59736 1
gene 1 26 9 0.0751804 0 348 0.0751804 1
genomeend 89

/* Organism #90 Fitness: 48 Error: 0 */
genomestart 90
trait 1 0.1 0 0 0 0 0 0 0 
trait 2 0.2 0 0 0 0 0 0 0 
trait 3 0.3 0 0 0 0 0 0 0 
node 1 1 1 3
node 2 3 1 1
node 3 2 1 1
node 4 3 1 1
node 5 3 1 1
node 6 3 0 2
node 7 3 0 2
node 9 1 0 0
node 26 1 0 0
node 46 1 0 0
gene 1 1 6 -8 0 1 -8 1
gene 3 2 6 0.957205 0 2 0.957205 1
gene 1 3 6 3.19405 0 3 3.19405 1
gene 3 4 6 1.21473 0 4 1.21473 1
gene 1 5 6 7.52524 0 5 7.52524 1
gene 3 1 7 -2.00462 0 6 -2.00462 1
gene 1 2 7 -8 0 7 -8 1
gene 3 3 7 -3.29729 0 8 -3.29729 1
gene 3 4 7 -4.47917 0 9 -4.47917 1
gene 1 5 7 -6.01496 0 10 -6.01496 1
gene 3 4 9 2.42037 0 15 2.42037 1
gene 3 9 6 -5.59116 0 16 -5.59116 1
gene 2 6 7 -3.15545 0 38 -3.15545 1
gene 3 3 26 2.56872 0 70 2.56872 1
gene 3 26 7 -6.20251 0 71 -6.20251 1
gene 2 1 9 0.908581 0 141 0.908581 1
gene 1 5 46 1.39634 0 148 1.39634 1
gene 1 46 7 2.28739 0 149 2.28739 1
gene 1 26 9 0.26332 0 348 0.26332 1
genomeend 90

/* Organism #91 Fitness: 39 Error: 0 */
genomestart 91
trait 1 0.1 0 0 0 0 0 0 0 
trait 2 0.2 0 0 0 0 0 0 0 
trait 3 0.3 0 0 0 0 0 0 0 
node 1 1 1 3
node 2 3 1 1
node 3 2 1 1
node 4 3 1 1
node 5 3 1 1
node 6 3 0 2
node 7 3 0 2
node 9 1 0 0
node 26 1 0 0
node 46 1 0 0
gene 1 1 6 -5.07368 0 1 -5.07368 1
gene 3 2 6 1.60205 0 2 1.60205 1
gene 1 3 6 -1.65603 0 3 -1.65603 1
gene 3 4 6 -2.14019 0 4 -2.14019 1
gene 1 5 6 6.1227 0 5 6.1227 1
gene 3 1 7 -3.56299 0 6 -3.56299 1
gene 1 2 7 2.42968 0 7 2.42968 1
gene 3 3 7 -2.96617 0 8 -2.96617 1
gene 3 4 7 2.36511 0 9 2.36511 1
gene 1 5 7 -6.79993 0 10 -6.79993 1
gene 3 4 9 -0.964814 0 15 -0.964814 1
gene 3 9 6 -0.591592 0 16 -0.591592 1
gene 2 6 7 -6.00827 0 38 -6.00827 1
gene 3 3 26 4.64133 0 70 4.64133 1
gene 3 26 7 -4.47602 0 71 -4.47602 1
gene 2 1 9 1.42875 0 141 1.42875 1
gene 1 5 46 2.20919 0 148 2.20919 1
gene 1 46 7 4.72871 0 149 4.72871 1
genomeend 91

/* Organism #92 Fitness: 143 Error: 0 */
genomestart 92
trait 1 0.1 0 0 0 0 0 0 0 
trait 2 0.2 0 0 0 0 0 0 0 
trait 3 0.3 0 0 0 0 0 0 0 
node 1 1 1 3
node 2 3 1 1
node 3 2 1 1
node 4 3 1 1
node 5 3 1 1
node 6 3 0 2
node 7 3 0 2
node 9 1 0 0
node 26 1 0 0
node 46 1 0 0
node 107 1 0 0
gene 1 1 6 -6.95167 0 1 -6.95167 1
gene 3 2 6 -0.0606138 0 2 -0.0606138 1
gene 1 3 6 2.70119 0 3 2.70119 1
gene 3 4 6 -1.21945 0 4 -1.21945 1
gene 1 5 6 6.50048 0 5 6.50048 1
gene 3 1 7 -2.97936 0 6 -2.97936 1
gene 1 2 7 -8 0 7 -8 1
gene 3 3 7 -1.90328 0 8 -1.90328 1
gene 3 4 7 -3.24595 0 9 -3.24595 1
gene 1 5 7 -6.71341 0 10 -6.71341 1
gene 3 4 9 1.06785 0 15 1.06785 1
gene 3 9 6 -6.59383 0 16 -6.59383 0
gene 2 6 7 -4.12754 0 38 -4.12754 1
gene 3 3 26 3.61652 0 70 3.61652 1
gene 3 26 7 -5.26611 0 71 -5.26611 1
gene 2 1 9 -0.80864 0 141 -0.80864 1
gene 1 5 46 1.39634 0 148 1.39634 1
gene 1 46 7 2.32588 0 149 2.32588 1
gene 3 9 107 1 0 356 0 1
gene 3 107 6 -6.59383 0 357 0 1
genomeend 92

/* Species #18 : (Size 9) (AF 79.3333) (Age 16)  */


/* Organism #93 Fitness: 132 Error: 0 */
genomestart 93
trait 1 0.1 0 0.447402 0 0 0 0 0 
trait 2 0.2 0 0 0 0 0 0 0 
trait 3 0.3 0 0 0 0 0 0 0 
node 1 1 1 3
node 2 3 1 1
node 3 2 1 1
node 4 3 1 1
node 5 2 1 1
node 6 3 0 2
node 7 2 0 2
node 9 1 0 0
node 21 1 0 0
node 28 1 0 0
node 34 1 0 0
node 51 1 0 0
node 56 1 0 0
gene 1 1 6 -6.82145 0 1 -6.82145 1
gene 3 2 6 -2.00706 0 2 -2.00706 1
gene 1 3 6 4.8214 0 3 4.8214 1
gene 3 4 6 5.46167 0 4 5.46167 0
gene 1 5 6 -2.89921 0 5 -2.89921 1
gene 3 1 7 0.259072 0 6 0.259072 1
gene 1 2 7 -5.42711 0 7 -5.42711 1
gene 3 3 7 -5.53053 0 8 -5.53053 1
gene 3 4 7 -6.64457 0 9 -6.64457 0
gene 1 5 7 -8 0 10 -8 1
gene 3 4 9 -0.0205627 0 15 -0.0205627 1
gene 3 9 6 -2.20405 0 16 -2.20405 1
gene 3 4 21 -0.803989 0 50 -0.803989 1
gene 3 21 7 2.64434 0 51 2.64434 1
gene 3 21 9 -5.68903 0 62 -5.68903 1
gene 3 2 28 6.0341 0 77 6.0341 1
gene 3 28 6 -3.08675 0 78 -3.08675 1
gene 1 3 34 -1.19607 0 96 -1.19607 1
gene 1 34 6 2.65432 0 97 2.65432 1
gene 3 21 51 2.17575 0 167 2.17575 1
gene 3 51 7 -2.22781 0 168 -2.22781 1
gene 1 5 56 2.27365 0 188 2.27365 1
gene 1 56 6 -4.48016 0 189 -4.48016 1
gene 3 5 21 -0.105846 0 260 -0.105846 1
gene 3 1 21 -0.667388 0 299 -0.667388 1
genomeend 93

/* Organism #94 Fitness: 132 Error: 0 */
genomestart 94
trait 1 0.1 0 0.447402 0 0 0 0 0 
trait 2 0.2 0 0 0 0 0 0 0 
trait 3 0.3 0 0 0 0 0 0 0 
node 1 1 1 3
node 2 3 1 1
node 3 2 1 1
node 4 3 1 1
node 5 2 1 1
node 6 3 0 2
node 7 2 0 2
node 9 1 0 0
node 21 1 0 0
node 28 1 0 0
node 34 1 0 0
node 51 1 0 0
node 56 1 0 0
node 108 1 0 0
gene 1 1 6 -6.82145 0 1 -6.82145 1
gene 3 2 6 -2.00706 0 2 -2.00706 1
gene 1 3 6 4.8214 0 3 4.8214 1
gene 3 4 6 5.46167 0 4 5.46167 0
gene 1 5 6 -2.89921 0 5 -2.89921 1
gene 3 1 7 0.259072 0 6 0.259072 1
gene 1 2 7 -5.42711 0 7 -5.42711 1
gene 3 3 7 -5.53053 0 8 -5.53053 1
gene 3 4 7 -6.64457 0 9 -6.64457 0
gene 1 5 7 -8 0 10 -8 1
gene 3 4 9 -0.0205627 0 15 -0.0205627 1
gene 3 9 6 -2.20405 0 16 -2.20405 1
gene 3 4 21 -0.803989 0 50 -0.803989 1
gene 3 21 7 2.64434 0 51 2.64434 1
gene 3 21 9 -5.68903 0 62 -5.68903 1
gene 3 2 28 6.0341 0 77 6.0341 1
gene 3 28 6 -3.08675 0 78 -3.08675 0
gene 1 3 34 -1.19607 0 96 -1.19607 1
gene 1 34 6 2.65432 0 97 2.65432 1
gene 3 21 51 2.17575 0 167 2.17575 1
gene 3 51 7 -2.22781 0 168 -2.22781 1
gene 1 5 56 2.27365 0 188 2.27365 1
gene 1 56 6 -4.48016 0 189 -4.48016 1
gene 3 5 21 -0.105846 0 260 -0.105846 1
gene 3 1 21 -0.667388 0 299 -0.667388 1
gene 3 28 108 1 0 358 0 1
gene 3 108 6 -3.08675 0 359 0 1
genomeend 94

/* Organism #95 Fitness: 6 Error: 0 */
genomestart 95
trait 1 0.1 0 0.447402 0 0 0 0 0 
trait 2 0.2 0 0 0 0 0 0 0 
trait 3 0.3 0 0 0 0 0 0 0 
node 1 1 1 3
node 2 3 1 1
node 3 2 1 1
node 4 3 1 1
node 5 2 1 1
node 6 3 0 2
node 7 2 0 2
node 9 1 0 0
node 21 1 0 0
node 28 1 0 0
node 34 1 0 0
node 51 1 0 0
node 56 1 0 0
gene 1 1 6 1.01166 0 1 1.01166 1
gene 3 2 6 -3.61172 0 2 -3.61172 1
gene 1 3 6 2.58573 0 3 2.58573 1
gene 3 4 6 4.95807 0 4 4.95807 0
gene 1 5 6 -0.608121 0 5 -0.608121 1
gene 3 1 7 0.259072 0 6 0.259072 1
gene 1 2 7 -3.9171 0 7 -3.9171 1
gene 3 3 7 0.477201 0 8 0.477201 1
gene 3 4 7 -7.35586 0 9 -7.35586 0
gene 1 5 7 -8 0 10 -8 1
gene 3 4 9 1.97422 0 15 1.97422 1
gene 3 9 6 -0.519757 0 16 -0.519757 1
gene 3 4 21 -2.88611 0 50 -2.88611 1
gene 3 21 7 2.10715 0 51 2.10715 1
gene 3 21 9 -7.52544 0 62 -7.52544 1
gene 3 2 28 1.50269 0 77 1.50269 1
gene 3 28 6 -5.42236 0 78 -5.42236 1
gene 2 3 34 -1.19607 0 96 -1.19607 1
gene 1 34 6 2.26462 0 97 2.26462 1
gene 3 21 51 -2.25311 0 167 -2.25311 1
gene 3 51 7 -1.58934 0 168 -1.58934 1
gene 1 5 56 2.27365 0 188 2.27365 1
gene 1 56 6 -4.48016 0 189 -4.48016 1
gene 3 5 21 2.22203 0 260 2.22203 1
gene 3 1 21 -2.39962 0 299 -2.39962 1
genomeend 95

/* Organism #96 Fitness: 16 Error: 0 */
genomestart 96
trait 1 0.1 0.668035 0.259736 0 0 0 0 0.165617 
trait 2 0.2 0 0 0 0 0 0 0 
trait 3 0.3 0 0 0 0 0 0 0 
node 1 1 1 3
node 2 3 1 1
node 3 2 1 1
node 4 3 1 1
node 5 2 1 1
node 6 3 0 2
node 7 2 0 2
node 9 1 0 0
node 21 1 0 0
node 28 1 0 0
node 34 1 0 0
node 51 1 0 0
node 56 1 0 0
gene 1 1 6 -4.87708 0 1 -4.87708 1
gene 3 2 6 -0.88869 0 2 -0.88869 1
gene 1 3 6 3.77382 0 3 3.77382 1
gene 3 4 6 7.10533 0 4 7.10533 1
gene 1 5 6 -5.31428 0 5 -5.31428 1
gene 3 1 7 1.03449 0 6 1.03449 1
gene 1 2 7 -5.19843 0 7 -5.19843 1
gene 3 3 7 -4.24991 0 8 -4.24991 1
gene 3 4 7 -7.62079 0 9 -7.62079 0
gene 1 5 7 -6.78225 0 10 -6.78225 1
gene 3 4 9 1.42137 0 15 1.42137 1
gene 3 9 6 -4.41015 0 16 -4.41015 1
gene 3 4 21 -2.52212 0 50 -2.52212 1
gene 3 21 7 1.8823 0 51 1.8823 1
gene 3 21 9 -6.8265 0 62 -6.8265 1
gene 3 2 28 6.422 0 77 6.422 1
gene 3 28 6 -5.00201 0 78 -5.00201 1
gene 1 3 34 1.59481 0 96 1.59481 1
gene 1 34 6 2.29198 0 97 2.29198 1
gene 3 21 51 2.71797 0 167 2.71797 1
gene 3 51 7 -0.182914 0 168 -0.182914 0
gene 1 5 56 0.234324 0 188 0.234324 1
gene 1 56 6 -4.48016 0 189 -4.48016 1
gene 3 5 21 -1.13013 0 260 -1.13013 1
gene 3 1 21 0.486077 0 299 0.486077 1
genomeend 96

/* Organism #97 Fitness: 70 Error: 0 */
genomestart 97
trait 1 0.1 0 0.447402 0 0 0 0 0 
trait 2 0.2 0 0 0 0 0 0 0 
trait 3 0.3 0 0 0 0 0 0 0 
node 1 1 1 3
node 2 3 1 1
node 3 2 1 1
node 4 3 1 1
node 5 2 1 1
node 6 3 0 2
node 7 2 0 2
node 9 1 0 0
node 21 1 0 0
node 28 1 0 0
node 34 1 0 0
node 51 1 0 0
node 56 1 0 0
gene 1 1 6 -4.25204 0 1 -4.25204 1
gene 3 2 6 -3.63849 0 2 -3.63849 1
gene 1 3 6 -2.26485 0 3 -2.26485 1
gene 3 4 6 4.26163 0 4 4.26163 0
gene 1 5 6 0.441647 0 5 0.441647 1
gene 3 1 7 1.60949 0 6 1.60949 1
gene 1 2 7 -7.65101 0 7 -7.65101 1
gene 3 3 7 -2.49703 0 8 -2.49703 1
gene 3 4 7 -0.0640041 0 9 -0.0640041 0
gene 1 5 7 -1.53584 0 10 -1.53584 1
gene 3 4 9 -0.665153 0 15 -0.665153 1
gene 3 9 6 -3.3553 0 16 -3.3553 1
gene 3 4 21 -3.53961 0 50 -3.53961 1
gene 3 21 7 0.0174238 0 51 0.0174238 1
gene 3 21 9 -6.00079 0 62 -6.00079 1
gene 3 2 28 -1.1955 0 77 -1.1955 1
gene 3 28 6 -4.41371 0 78 -4.41371 1
gene 1 3 34 -1.65292 0 96 -1.65292 1
gene 1 34 6 1.05139 0 97 1.05139 1
gene 3 21 51 1.19039 0 167 1.19039 1
gene 3 51 7 2.41925 0 168 2.41925 1
gene 1 5 56 1.12829 0 188 1.12829 1
gene 1 56 6 0.752993 0 189 0.752993 1
gene 3 5 21 -0.378846 0 260 -0.378846 1
gene 3 1 21 1.2584 0 299 1.2584 1
genomeend 97

/* Organism #98 Fitness: 132 Error: 0 */
genomestart 98
trait 1 0.1 0 0.447402 0 0 0 0 0 
trait 2 0.2 0 0 0 0 0 0 0 
trait 3 0.70644 0 0 0 0 0.329589 0 0 
node 1 1 1 3
node 2 3 1 1
node 3 2 1 1
node 4 3 1 1
node 5 2 1 1
node 6 3 0 2
node 7 2 0 2
node 9 1 0 0
node 21 1 0 0
node 28 1 0 0
node 34 1 0 0
node 51 1 0 0
node 56 1 0 0
gene 1 1 6 -6.82145 0 1 -6.82145 1
gene 3 2 6 -2.00706 0 2 -2.00706 1
gene 1 3 6 4.8214 0 3 4.8214 1
gene 3 4 6 5.46167 0 4 5.46167 0
gene 1 5 6 -2.89921 0 5 -2.89921 1
gene 3 1 7 0.259072 0 6 0.259072 1
gene 1 2 7 -5.42711 0 7 -5.42711 1
gene 3 3 7 -5.53053 0 8 -5.53053 1
gene 3 4 7 -6.64457 0 9 -6.64457 0
gene 1 5 7 -8 0 10 -8 1
gene 3 4 9 -0.0205627 0 15 -0.0205627 1
gene 3 9 6 -2.20405 0 16 -2.20405 1
gene 3 4 21 -0.803989 0 50 -0.803989 1
gene 3 21 7 2.64434 0 51 2.64434 1
gene 3 21 9 -5.68903 0 62 -5.68903 1
gene 3 2 28 6.0341 0 77 6.0341 1
gene 3 28 6 -3.08675 0 78 -3.08675 1
gene 1 3 34 -1.19607 0 96 -1.19607 1
gene 1 34 6 2.65432 0 97 2.65432 1
gene 3 21 51 2.17575 0 167 2.17575 1
gene 3 51 7 -2.22781 0 168 -2.22781 1
gene 1 5 56 2.27365 0 188 2.27365 1
gene 1 56 6 -4.48016 0 189 -4.48016 1
gene 3 5 21 -0.105846 0 260 -0.105846 1
gene 3 1 21 -0.667388 0 299 -0.667388 1
genomeend 98

/* Organism #99 Fitness: 77 Error: 0 */
genomestart 99
trait 1 0.1 0 0.447402 0 0 0 0 0 
trait 2 0.2 0 0 0 0 0 0 0 
trait 3 0.3 0 0 0 0 0 0 0 
node 1 1 1 3
node 2 3 1 1
node 3 2 1 1
node 4 3 1 1
node 5 2 1 1
node 6 3 0 2
node 7 2 0 2
node 9 1 0 0
node 21 1 0 0
node 28 1 0 0
node 34 1 0 0
node 51 1 0 0
node 56 1 0 0
node 104 1 0 0
gene 1 1 6 -7.01821 0 1 -7.01821 1
gene 3 2 6 -1.26486 0 2 -1.26486 1
gene 1 3 6 0.239423 0 3 0.239423 1
gene 3 4 6 4.74758 0 4 4.74758 0
gene 1 5 6 -4.88978 0 5 -4.88978 1
gene 3 1 7 -0.145325 0 6 -0.145325 1
gene 1 2 7 -5.42711 0 7 -5.42711 1
gene 3 3 7 -4.7883 0 8 -4.7883 1
gene 3 4 7 -4.87411 0 9 -4.87411 0
gene 1 5 7 -7.69647 0 10 -7.69647 1
gene 3 4 9 -2.1763 0 15 -2.1763 1
gene 3 9 6 -0.161672 0 16 -0.161672 1
gene 3 4 21 -0.397182 0 50 -0.397182 1
gene 3 21 7 0.713601 0 51 0.713601 1
gene 3 21 9 -1.75852 0 62 -1.75852 1
gene 3 2 28 6.49814 0 77 6.49814 1
gene 3 28 6 0.80296 0 78 0.80296 1
gene 1 3 34 -0.0796067 0 96 -0.0796067 1
gene 1 34 6 2.65432 0 97 2.65432 1
gene 3 21 51 2.62296 0 167 2.62296 1
gene 3 51 7 -0.499602 0 168 -0.499602 0
gene 1 5 56 4.71497 0 188 4.71497 1
gene 1 56 6 -5.01065 0 189 -5.01065 1
gene 3 5 21 -1.76229 0 260 -1.76229 1
gene 3 1 21 -1.31915 0 299 -1.31915 1
gene 3 51 104 -1.04152 0 349 -1.04152 1
gene 3 104 7 -1.695 0 350 -1.695 1
genomeend 99

/* Organism #100 Fitness: 73 Error: 0 */
genomestart 100
trait 1 0.1 0 0.447402 0 0 0 0 0 
trait 2 0.2 0 0 0 0 0 0 0 
trait 3 0.3 0 0 0 0 0 0 0 
node 1 1 1 3
node 2 3 1 1
node 3 2 1 1
node 4 3 1 1
node 5 2 1 1
node 6 3 0 2
node 7 2 0 2
node 9 1 0 0
node 21 1 0 0
node 28 1 0 0
node 34 1 0 0
node 51 1 0 0
node 56 1 0 0
gene 1 1 6 -7.32233 0 1 -7.32233 1
gene 3 2 6 -3.08869 0 2 -3.08869 1
gene 1 3 6 4.14137 0 3 4.14137 1
gene 3 4 6 7.72392 0 4 7.72392 0
gene 1 5 6 -2.89921 0 5 -2.89921 1
gene 3 1 7 0.52426 0 6 0.52426 1
gene 1 2 7 -3.15829 0 7 -3.15829 1
gene 3 3 7 -3.35631 0 8 -3.35631 1
gene 3 4 7 -4.19455 0 9 -4.19455 0
gene 1 5 7 -8 0 10 -8 1
gene 3 4 9 0.697649 0 15 0.697649 1
gene 3 9 6 -2.37153 0 16 -2.37153 1
gene 3 4 21 0.771685 0 50 0.771685 1
gene 3 21 7 2.64434 0 51 2.64434 1
gene 3 21 9 -5.39216 0 62 -5.39216 1
gene 3 2 28 7.97361 0 77 7.97361 1
gene 3 28 6 -0.86871 0 78 -0.86871 1
gene 1 3 34 -1.06662 0 96 -1.06662 1
gene 1 34 6 3.59761 0 97 3.59761 1
gene 3 21 51 0.243312 0 167 0.243312 1
gene 3 51 7 -2.93224 0 168 -2.93224 1
gene 1 5 56 2.27365 0 188 2.27365 1
gene 1 56 6 -1.27451 0 189 -1.27451 1
gene 3 5 21 0.0890802 0 260 0.0890802 1
gene 3 1 21 1.75496 0 299 1.75496 1
genomeend 100

/* Organism #101 Fitness: 76 Error: 0 */
genomestart 101
trait 1 0.1 0 0.447402 0 0 0 0 0 
trait 2 0.2 0 0 0 0 0 0 0 
trait 3 0.3 0 0 0 0 0 0 0 
node 1 1 1 3
node 2 3 1 1
node 3 2 1 1
node 4 3 1 1
node 5 2 1 1
node 6 3 0 2
node 7 2 0 2
node 9 1 0 0
node 21 1 0 0
node 28 1 0 0
node 34 1 0 0
node 51 1 0 0
node 56 1 0 0
node 104 1 0 0
gene 1 1 6 -7.81635 0 1 -7.81635 1
gene 3 2 6 -2.71092 0 2 -2.71092 1
gene 1 3 6 0.851977 0 3 0.851977 1
gene 3 4 6 3.06723 0 4 3.06723 0
gene 1 5 6 -1.43716 0 5 -1.43716 1
gene 3 1 7 2.56319 0 6 2.56319 1
gene 1 2 7 -3.67834 0 7 -3.67834 1
gene 3 3 7 -2.85634 0 8 -2.85634 1
gene 3 4 7 -5.55322 0 9 -5.55322 0
gene 1 5 7 -7.62042 0 10 -7.62042 1
gene 3 4 9 -1.93522 0 15 -1.93522 1
gene 3 9 6 -3.12511 0 16 -3.12511 1
gene 3 4 21 -0.591076 0 50 -0.591076 1
gene 3 21 7 -0.87329 0 51 -0.87329 1
gene 3 21 9 -2.24224 0 62 -2.24224 1
gene 3 2 28 8 0 77 8 1
gene 3 28 6 -2.10763 0 78 -2.10763 1
gene 1 3 34 2.11573 0 96 2.11573 1
gene 1 34 6 3.46201 0 97 3.46201 1
gene 3 21 51 2.12614 0 167 2.12614 1
gene 3 51 7 -4.36599 0 168 -4.36599 0
gene 1 5 56 0.0252686 0 188 0.0252686 1
gene 1 56 6 -4.48016 0 189 -4.48016 1
gene 3 5 21 0.141673 0 260 0.141673 1
gene 3 1 21 -0.667388 0 299 -0.667388 1
gene 3 51 104 1 0 349 1 1
gene 3 104 7 -1.92858 0 350 -1.92858 1
genomeend 101

/* Species #19 : (Size 5) (AF 60.8) (Age 15)  */


/* Organism #102 Fitness: 70 Error: 0 */
genomestart 102
trait 1 0.1 0 0 0 0 0 0 0 
trait 2 0.2 0 0.118724 0 0.311946 0.140034 0 0.39304 
trait 3 0.3 0 0 0 0 0 0 0 
node 1 2 1 3
node 2 3 1 1
node 3 1 1 1
node 4 3 1 1
node 5 2 1 1
node 6 1 0 2
node 7 2 0 2
node 18 1 0 0
node 57 1 0 0
gene 3 1 6 -1.53331 0 1 -1.53331 1
gene 1 2 6 5.96294 0 2 5.96294 1
gene 2 3 6 -6.38589 0 3 -6.38589 0
gene 3 4 6 1.62003 0 4 1.62003 1
gene 3 5 6 3.4188 0 5 3.4188 1
gene 2 1 7 4.05667 0 6 4.05667 1
gene 2 2 7 -2.06748 0 7 -2.06748 0
gene 3 3 7 -2.20246 0 8 -2.20246 1
gene 1 4 7 -0.840439 0 9 -0.840439 1
gene 1 5 7 -8 0 10 -8 1
gene 2 2 18 -1.88124 0 36 -1.88124 1
gene 2 18 7 -0.728854 0 37 -0.728854 1
gene 3 7 6 1.24072 0 43 1.24072 1
gene 1 4 18 1.93016 0 125 1.93016 1
gene 1 3 18 -1.91144 0 147 -1.91144 1
gene 3 18 6 -2.08112 0 171 -2.08112 1
gene 2 3 57 -1.05469 0 192 -1.05469 1
gene 2 57 6 -0.75389 0 193 -0.75389 1
genomeend 102

/* Organism #103 Fitness: 70 Error: 0 */
genomestart 103
trait 1 0.1 0 0 0 0 0 0 0 
trait 2 0.2 0 0.118724 0 0.311946 0.140034 0 0.39304 
trait 3 0.3 0 0 0 0 0 0 0 
node 1 2 1 3
node 2 3 1 1
node 3 1 1 1
node 4 1 1 1
node 5 2 1 1
node 6 1 0 2
node 7 2 0 2
node 18 1 0 0
node 57 1 0 0
gene 3 1 6 -1.61446 0 1 -1.61446 1
gene 1 2 6 3.54737 0 2 3.54737 1
gene 2 3 6 -7.08404 0 3 -7.08404 0
gene 3 4 6 0.520085 0 4 0.520085 1
gene 3 5 6 4.779 0 5 4.779 1
gene 2 1 7 1.64847 0 6 1.64847 1
gene 2 2 7 -1.61404 0 7 -1.61404 0
gene 3 3 7 -1.8009 0 8 -1.8009 1
gene 1 4 7 -4.44717 0 9 -4.44717 1
gene 1 5 7 -6.30397 0 10 -6.30397 1
gene 2 2 18 -1.25405 0 36 -1.25405 1
gene 2 18 7 1.67764 0 37 1.67764 1
gene 3 7 6 3.03678 0 43 3.03678 1
gene 1 4 18 4.23243 0 125 4.23243 1
gene 1 3 18 0.893905 0 147 0.893905 1
gene 3 18 6 -3.49344 0 171 -3.49344 1
gene 2 3 57 0.179107 0 192 0.179107 1
gene 2 57 6 0.291739 0 193 0.291739 1
genomeend 103

/* Organism #104 Fitness: 24 Error: 0 */
genomestart 104
trait 1 0.1 0 0 0 0 0 0 0 
trait 2 0.2 0 0.118724 0 0.311946 0.140034 0 0.39304 
trait 3 0.3 0 0 0 0 0 0 0 
node 1 2 1 3
node 2 3 1 1
node 3 1 1 1
node 4 1 1 1
node 5 2 1 1
node 6 1 0 2
node 7 2 0 2
node 18 1 0 0
node 57 1 0 0
gene 3 1 6 -2.80336 0 1 -2.80336 1
gene 1 2 6 1.21041 0 2 1.21041 1
gene 2 3 6 1.78574 0 3 1.78574 0
gene 3 4 6 0.402676 0 4 0.402676 1
gene 3 5 6 4.779 0 5 4.779 1
gene 2 1 7 1.64847 0 6 1.64847 1
gene 2 2 7 -1.61404 0 7 -1.61404 0
gene 3 3 7 -2.96083 0 8 -2.96083 1
gene 1 4 7 -4.90378 0 9 -4.90378 1
gene 1 5 7 -6.76383 0 10 -6.76383 1
gene 2 2 18 -1.80158 0 36 -1.80158 1
gene 2 18 7 -1.50864 0 37 -1.50864 1
gene 3 7 6 3.25139 0 43 3.25139 1
gene 1 4 18 4.70005 0 125 4.70005 1
gene 1 3 18 -0.972833 0 147 -0.972833 1
gene 3 18 6 -5.36214 0 171 -5.36214 1
gene 2 3 57 2.52631 0 192 2.52631 1
gene 2 57 6 -0.190048 0 193 -0.190048 1
genomeend 104

/* Organism #105 Fitness: 70 Error: 0 */
genomestart 105
trait 1 0.1 0 0 0 0 0 0 0 
trait 2 0.2 0 0.118724 0 0.311946 0.140034 0 0.39304 
trait 3 0.3 0 0 0 0 0 0 0 
node 1 2 1 3
node 2 3 1 1
node 3 1 1 1
node 4 1 1 1
node 5 2 1 1
node 6 1 0 2
node 7 2 0 2
node 18 1 0 0
node 57 1 0 0
gene 3 1 6 -1.61446 0 1 -1.61446 1
gene 1 2 6 3.54737 0 2 3.54737 1
gene 2 3 6 -7.08404 0 3 -7.08404 0
gene 3 4 6 0.520085 0 4 0.520085 1
gene 3 5 6 4.779 0 5 4.779 1
gene 2 1 7 1.64847 0 6 1.64847 1
gene 2 2 7 -1.61404 0 7 -1.61404 0
gene 3 3 7 -1.8009 0 8 -1.8009 1
gene 1 4 7 -4.44717 0 9 -4.44717 1
gene 1 5 7 -6.30397 0 10 -6.30397 1
gene 2 2 18 -1.25405 0 36 -1.25405 1
gene 2 18 7 1.67764 0 37 1.67764 1
gene 3 7 6 3.03678 0 43 3.03678 1
gene 1 4 18 4.23243 0 125 4.23243 1
gene 1 3 18 0.893905 0 147 0.893905 1
gene 3 18 6 -3.49344 0 171 -3.49344 1
gene 2 3 57 0.179107 0 192 0.179107 1
gene 2 57 6 0.291739 0 193 0.291739 1
genomeend 105

/* Organism #106 Fitness: 70 Error: 0 */
genomestart 106
trait 1 0.1 0 0 0 0 0 0 0 
trait 2 0.2 0 0.118724 0 0.311946 0.140034 0 0.39304 
trait 3 0.3 0 0 0 0 0 0 0 
node 1 2 1 3
node 2 3 1 1
node 3 1 1 1
node 4 1 1 1
node 5 2 1 1
node 6 1 0 2
node 7 2 0 2
node 18 1 0 0
node 57 1 0 0
gene 3 1 6 -1.30469 0 1 -1.30469 1
gene 1 2 6 1.01851 0 2 1.01851 1
gene 1 3 6 -7.08404 0 3 -7.08404 0
gene 3 4 6 0.00369401 0 4 0.00369401 1
gene 3 5 6 4.01952 0 5 4.01952 1
gene 2 1 7 2.85045 0 6 2.85045 1
gene 2 2 7 -2.80443 0 7 -2.80443 0
gene 3 3 7 -1.15595 0 8 -1.15595 1
gene 1 4 7 -4.44717 0 9 -4.44717 1
gene 1 5 7 -6.30397 0 10 -6.30397 1
gene 2 2 18 1.37832 0 36 1.37832 1
gene 2 18 7 4.01214 0 37 4.01214 1
gene 3 7 6 1.40994 0 43 1.40994 1
gene 1 4 18 -1.31541 0 125 -1.31541 1
gene 1 3 18 -0.878989 0 147 -0.878989 1
gene 3 18 6 -5.2172 0 171 -5.2172 1
gene 2 3 57 -0.516797 0 192 -0.516797 1
gene 2 57 6 -1.77029 0 193 -1.77029 1
genomeend 106

/* Species #20 : (Size 10) (AF 56.6) (Age 15)  */


/* Organism #107 Fitness: 131 Error: 0 */
genomestart 107
