
/* Species #18 : (Size 23) (AF 88.0435) (Age 46)  */


/* Organism #0 Fitness: 209 Error: 0 */
genomestart 0
trait 1 0.1 0 0.447402 0 0 0 0 0 
trait 2 0.2 0 0 0 0 0 0 0 
trait 3 0.3 0 0 0 0 0 0 0 
node 1 1 1 3
node 2 3 1 1
node 3 2 1 1
node 4 3 1 1
node 5 2 1 1
node 6 3 0 2
node 7 2 0 2
node 9 1 0 0
node 21 1 0 0
node 28 1 0 0
node 34 1 0 0
node 51 1 0 0
node 56 1 0 0
gene 1 1 6 -6.82145 0 1 -6.82145 1
gene 3 2 6 -0.884805 0 2 -0.884805 1
gene 1 3 6 5.02141 0 3 5.02141 1
gene 3 4 6 3.73367 0 4 3.73367 0
gene 1 5 6 -2.89921 0 5 -2.89921 1
gene 3 1 7 0.259072 0 6 0.259072 1
gene 1 2 7 -3.69136 0 7 -3.69136 0
gene 3 3 7 -2.76528 0 8 -2.76528 1
gene 3 4 7 -2.4384 0 9 -2.4384 1
gene 1 5 7 -7.96604 0 10 -7.96604 1
gene 3 4 9 -2.14863 0 15 -2.14863 1
gene 3 9 6 -2.97186 0 16 -2.97186 1
gene 3 4 21 -0.803989 0 50 -0.803989 1
gene 3 21 7 2.64434 0 51 2.64434 1
gene 3 21 9 -5.7177 0 62 -5.7177 1
gene 3 2 28 6.0341 0 77 6.0341 1
gene 3 28 6 -2.96143 0 78 -2.96143 1
gene 1 3 34 -1.18062 0 96 -1.18062 1
gene 1 34 6 2.99225 0 97 2.99225 1
gene 3 21 51 2.3319 0 167 2.3319 1
gene 3 51 7 -3.75394 0 168 -3.75394 1
gene 1 5 56 1.46305 0 188 1.46305 1
gene 1 56 6 -5.21613 0 189 -5.21613 1
gene 3 5 21 0.246296 0 260 0.246296 1
gene 3 1 21 0.338867 0 299 0.338867 1
gene 2 4 28 0.73151 0 443 0.73151 1
gene 2 51 6 -0.96858 0 607 -0.96858 1
gene 2 1 56 -0.770232 0 667 -0.770232 1
genomeend 0

/* Organism #1 Fitness: 209 Error: 0 */
genomestart 1
trait 1 0.407546 0 0.94248 0.832846 0.428364 0.422767 0 0 
trait 2 0.519517 0 0.478726 0.0505667 0.0514388 0 0 0 
trait 3 0.3 0 0 0 0 0 0 0 
node 1 1 1 3
node 2 3 1 1
node 3 2 1 1
node 4 3 1 1
node 5 2 1 1
node 6 3 0 2
node 7 2 0 2
node 9 1 0 0
node 21 1 0 0
node 28 1 0 0
node 34 1 0 0
node 51 1 0 0
node 56 1 0 0
gene 1 1 6 -6.82145 0 1 -6.82145 1
gene 3 2 6 -0.884805 0 2 -0.884805 1
gene 1 3 6 5.02141 0 3 5.02141 1
gene 3 4 6 3.73367 0 4 3.73367 0
gene 1 5 6 -2.89921 0 5 -2.89921 1
gene 3 1 7 0.259072 0 6 0.259072 1
gene 1 2 7 -3.69136 0 7 -3.69136 0
gene 3 3 7 -2.76528 0 8 -2.76528 1
gene 3 4 7 -2.4384 0 9 -2.4384 1
gene 1 5 7 -7.96604 0 10 -7.96604 1
gene 3 4 9 -2.14863 0 15 -2.14863 1
gene 3 9 6 -2.97186 0 16 -2.97186 1
gene 3 4 21 -0.803989 0 50 -0.803989 1
gene 3 21 7 2.64434 0 51 2.64434 1
gene 3 21 9 -5.7177 0 62 -5.7177 1
gene 3 2 28 6.0341 0 77 6.0341 1
gene 3 28 6 -2.96143 0 78 -2.96143 1
gene 1 3 34 -1.18062 0 96 -1.18062 1
gene 1 34 6 2.99225 0 97 2.99225 1
gene 3 21 51 2.3319 0 167 2.3319 1
gene 3 51 7 -3.75394 0 168 -3.75394 1
gene 1 5 56 1.46305 0 188 1.46305 1
gene 1 56 6 -5.21613 0 189 -5.21613 1
gene 3 5 21 0.246296 0 260 0.246296 1
gene 3 1 21 0.338867 0 299 0.338867 1
gene 2 4 28 0.73151 0 443 0.73151 1
gene 2 51 6 -0.96858 0 607 -0.96858 1
gene 2 1 56 -0.770232 0 667 -0.770232 1
genomeend 1

/* Organism #2 Fitness: 7 Error: 0 */
genomestart 2
trait 1 0.1 0 0.447402 0 0 0 0 0 
trait 2 0.2 0 0 0 0 0 0 0 
trait 3 0.3 0 0 0 0 0 0 0 
node 1 1 1 3
node 2 3 1 1
node 3 2 1 1
node 4 3 1 1
node 5 2 1 1
node 6 3 0 2
node 7 2 0 2
node 9 1 0 0
node 21 1 0 0
node 28 1 0 0
node 34 1 0 0
node 51 1 0 0
node 56 1 0 0
gene 1 1 6 -6.53645 0 1 -6.53645 1
gene 3 2 6 -0.879739 0 2 -0.879739 1
gene 1 3 6 3.12943 0 3 3.12943 1
gene 3 4 6 0.663156 0 4 0.663156 0
gene 1 5 6 -7.62869 0 5 -7.62869 1
gene 3 1 7 -0.238531 0 6 -0.238531 1
gene 1 2 7 1.31941 0 7 1.31941 0
gene 3 3 7 -0.0189218 0 8 -0.0189218 1
gene 3 4 7 -4.53989 0 9 -4.53989 1
gene 1 5 7 -5.05271 0 10 -5.05271 1
gene 3 4 9 -5.91554 0 15 -5.91554 1
gene 3 9 6 -5.16984 0 16 -5.16984 1
gene 3 4 21 1.49946 0 50 1.49946 1
gene 3 21 7 1.0005 0 51 1.0005 1
gene 3 21 9 -7.4356 0 62 -7.4356 1
gene 3 2 28 -1.17945 0 77 -1.17945 1
gene 3 28 6 -4.76376 0 78 -4.76376 1
gene 1 3 34 1.21291 0 96 1.21291 1
gene 1 34 6 4.90229 0 97 4.90229 1
gene 3 21 51 -0.55308 0 167 -0.55308 1
gene 3 51 7 -2.04283 0 168 -2.04283 1
gene 1 5 56 3.06321 0 188 3.06321 1
gene 1 56 6 -7.92861 0 189 -7.92861 1
gene 1 5 21 1.7407 0 260 1.7407 1
gene 3 1 21 -2.22696 0 299 -2.22696 1
gene 2 4 28 -1.72763 0 443 -1.72763 1
gene 2 51 6 -2.14765 0 607 -2.14765 1
gene 2 1 56 -1.83054 0 667 -1.83054 1
genomeend 2

/* Organism #3 Fitness: 18 Error: 0 */
genomestart 3
trait 1 0.1 0 0.447402 0 0 0 0 0 
trait 2 0.2 0 0 0 0 0 0 0 
trait 3 0.3 0 0 0 0 0 0 0 
node 1 1 1 3
node 2 3 1 1
node 3 2 1 1
node 4 3 1 1
node 5 2 1 1
node 6 3 0 2
node 7 2 0 2
node 9 1 0 0
node 21 1 0 0
node 28 1 0 0
node 34 1 0 0
node 51 1 0 0
node 56 1 0 0
gene 1 1 6 -0.229104 0 1 -0.229104 1
gene 3 2 6 -0.320525 0 2 -0.320525 1
gene 1 3 6 -1.83765 0 3 -1.83765 1
gene 3 4 6 1.88394 0 4 1.88394 0
gene 1 5 6 -6.74979 0 5 -6.74979 1
gene 3 1 7 1.29638 0 6 1.29638 1
gene 1 2 7 -3.72922 0 7 -3.72922 0
gene 3 3 7 -1.06724 0 8 -1.06724 1
gene 3 4 7 -6.32862 0 9 -6.32862 1
gene 1 5 7 -8 0 10 -8 1
gene 3 4 9 -4.56658 0 15 -4.56658 1
gene 3 9 6 -1.8632 0 16 -1.8632 1
gene 3 4 21 -0.463179 0 50 -0.463179 1
gene 3 21 7 2.95571 0 51 2.95571 1
gene 3 21 9 -5.23483 0 62 -5.23483 1
gene 3 2 28 6.50792 0 77 6.50792 1
gene 3 28 6 -3.87939 0 78 -3.87939 1
gene 1 3 34 -1.92235 0 96 -1.92235 1
gene 1 34 6 2.37497 0 97 2.37497 1
gene 3 21 51 3.58232 0 167 3.58232 1
gene 3 51 7 -1.54061 0 168 -1.54061 1
gene 1 5 56 1.54891 0 188 1.54891 1
gene 1 56 6 -7.77043 0 189 -7.77043 1
gene 1 5 21 3.37022 0 260 3.37022 1
gene 3 1 21 -2.11607 0 299 -2.11607 1
gene 2 4 28 -0.649913 0 443 -0.649913 1
gene 2 51 6 -3.22502 0 607 -3.22502 1
gene 2 1 56 -0.801589 0 667 -0.801589 1
genomeend 3

/* Organism #4 Fitness: 13 Error: 0 */
genomestart 4
trait 1 0.1 0 0.447402 0 0 0 0 0 
trait 2 0.309758 0 0.33047 0.0252834 0.13895 0 0.110555 0 
trait 3 0.3 0 0 0 0 0 0 0 
node 1 1 1 3
node 2 3 1 1
node 3 2 1 1
node 4 3 1 1
node 5 2 1 1
node 6 3 0 2
node 7 2 0 2
node 9 1 0 0
node 21 1 0 0
node 28 1 0 0
node 34 1 0 0
node 51 1 0 0
node 56 1 0 0
node 194 1 0 0
gene 1 1 6 -6.04304 0 1 -6.04304 1
gene 3 2 6 -4.68355 0 2 -4.68355 1
gene 1 3 6 2.92611 0 3 2.92611 0
gene 3 4 6 2.25666 0 4 2.25666 0
gene 1 5 6 -2.81729 0 5 -2.81729 1
gene 3 1 7 0.505221 0 6 0.505221 1
gene 1 2 7 -4.6533 0 7 -4.6533 0
gene 3 3 7 1.5244 0 8 1.5244 1
gene 3 4 7 0.188039 0 9 0.188039 1
gene 1 5 7 -8 0 10 -8 1
gene 3 4 9 -0.218883 0 15 -0.218883 1
gene 3 9 6 -2.64661 0 16 -2.64661 1
gene 3 4 21 1.22464 0 50 1.22464 1
gene 3 21 7 2.38018 0 51 2.38018 1
gene 3 21 9 -8 0 62 -8 1
gene 3 2 28 7.72037 0 77 7.72037 1
gene 3 28 6 -3.94013 0 78 -3.94013 1
gene 1 3 34 -0.275184 0 96 -0.275184 1
gene 1 34 6 2.4603 0 97 2.4603 1
gene 3 21 51 3.9524 0 167 3.9524 1
gene 3 51 7 -2.10329 0 168 -2.10329 1
gene 1 5 56 0.0419188 0 188 0.0419188 1
gene 1 56 6 -6.26905 0 189 -6.26905 1
gene 3 5 21 -2.4909 0 260 -2.4909 1
gene 3 1 21 1.91059 0 299 1.91059 1
gene 2 4 28 1.8356 0 443 1.8356 1
gene 2 51 6 0.661548 0 607 0.661548 1
gene 2 1 56 -2.54742 0 667 -2.54742 1
gene 1 3 194 0.644433 0 721 0.644433 1
gene 1 194 6 5.02141 0 722 5.02141 1
genomeend 4

/* Organism #5 Fitness: 7 Error: 0 */
genomestart 5
trait 1 0.1 0 0.447402 0 0 0 0 0 
trait 2 0.519517 0 0.478726 0.0505667 0.0514388 0 0 0 
trait 3 0.3 0 0 0 0 0 0 0 
node 1 1 1 3
node 2 3 1 1
node 3 2 1 1
node 4 3 1 1
node 5 2 1 1
node 6 3 0 2
node 7 2 0 2
node 9 1 0 0
node 21 1 0 0
node 28 1 0 0
node 34 1 0 0
node 51 1 0 0
node 56 1 0 0
node 194 1 0 0
gene 1 1 6 -6.61202 0 1 -6.61202 1
gene 3 2 6 -3.15255 0 2 -3.15255 1
gene 1 3 6 -2.18215 0 3 -2.18215 0
gene 3 4 6 1.34599 0 4 1.34599 0
gene 1 5 6 -1.53961 0 5 -1.53961 1
gene 3 1 7 0.259072 0 6 0.259072 1
gene 1 2 7 -4.4126 0 7 -4.4126 0
gene 3 3 7 -2.76528 0 8 -2.76528 1
gene 3 4 7 0.876009 0 9 0.876009 1
gene 1 5 7 1.91056 0 10 1.91056 1
gene 3 4 9 -1.54657 0 15 -1.54657 1
gene 3 9 6 -3.96012 0 16 -3.96012 1
gene 3 4 21 -0.988505 0 50 -0.988505 1
gene 3 21 7 4.44549 0 51 4.44549 1
gene 3 21 9 -4.49235 0 62 -4.49235 1
gene 3 2 28 6.80944 0 77 6.80944 1
gene 3 28 6 -2.96143 0 78 -2.96143 1
gene 1 3 34 -1.18062 0 96 -1.18062 1
gene 1 34 6 4.83476 0 97 4.83476 1
gene 3 21 51 3.50989 0 167 3.50989 1
gene 3 51 7 -1.74577 0 168 -1.74577 1
gene 1 5 56 1.46305 0 188 1.46305 1
gene 1 56 6 1.38159 0 189 1.38159 1
gene 3 5 21 0.0923467 0 260 0.0923467 1
gene 3 1 21 -0.445378 0 299 -0.445378 1
gene 2 4 28 1.11853 0 443 1.11853 1
gene 2 51 6 1.01776 0 607 1.01776 1
gene 2 1 56 1.66085 0 667 1.66085 1
gene 1 3 194 0.276947 0 721 0.276947 1
gene 1 194 6 4.5197 0 722 4.5197 1
genomeend 5

/* Organism #6 Fitness: 64 Error: 0 */
genomestart 6
trait 1 0.1 0 0.447402 0 0 0 0 0 
trait 2 0.2 0 0 0 0 0 0 0 
trait 3 0.3 0 0 0 0 0 0 0 
node 1 1 1 3
node 2 3 1 1
node 3 2 1 1
node 4 3 1 1
node 5 2 1 1
node 6 3 0 2
node 7 2 0 2
node 9 1 0 0
node 21 1 0 0
node 28 1 0 0
node 34 1 0 0
node 51 1 0 0
node 56 1 0 0
gene 1 1 6 -7.98152 0 1 -7.98152 1
gene 3 2 6 -2.93215 0 2 -2.93215 1
gene 1 3 6 5.88926 0 3 5.88926 1
gene 3 4 6 2.32137 0 4 2.32137 0
gene 1 5 6 -4.06321 0 5 -4.06321 1
gene 3 1 7 -1.00994 0 6 -1.00994 1
gene 1 2 7 -6.7707 0 7 -6.7707 0
gene 3 3 7 -2.72497 0 8 -2.72497 1
gene 3 4 7 -3.76759 0 9 -3.76759 1
gene 1 5 7 -4.61838 0 10 -4.61838 1
gene 3 4 9 -4.0645 0 15 -4.0645 1
gene 3 9 6 -0.887474 0 16 -0.887474 1
gene 3 4 21 3.40892 0 50 3.40892 1
gene 3 21 7 0.024009 0 51 0.024009 1
gene 3 21 9 -7.7309 0 62 -7.7309 1
gene 3 2 28 3.32283 0 77 3.32283 1
gene 3 28 6 -6.45939 0 78 -6.45939 1
gene 1 3 34 -5.9759 0 96 -5.9759 1
gene 1 34 6 1.99435 0 97 1.99435 1
gene 3 21 51 2.02215 0 167 2.02215 1
gene 3 51 7 0.125252 0 168 0.125252 1
gene 1 5 56 1.96756 0 188 1.96756 1
gene 1 56 6 -7.68981 0 189 -7.68981 1
gene 1 5 21 1.00134 0 260 1.00134 1
gene 3 1 21 -3.08506 0 299 -3.08506 1
gene 2 4 28 2.14843 0 443 2.14843 1
gene 2 51 6 -3.83993 0 607 -3.83993 1
gene 2 1 56 -3.33959 0 667 -3.33959 1
genomeend 6

/* Organism #7 Fitness: 89 Error: 0 */
genomestart 7
trait 1 0.1 0 0.447402 0 0 0 0 0 
trait 2 0.123911 0 0.426162 0 0.268113 0 0.22111 0 
trait 3 0.3 0 0 0 0 0 0 0 
node 1 1 1 3
node 2 3 1 1
node 3 2 1 1
node 4 3 1 1
node 5 2 1 1
node 6 3 0 2
node 7 2 0 2
node 9 1 0 0
node 21 1 0 0
node 28 1 0 0
node 34 1 0 0
node 51 1 0 0
node 56 1 0 0
gene 1 1 6 -7.66595 0 1 -7.66595 1
gene 3 2 6 -0.864373 0 2 -0.864373 1
gene 1 3 6 5.02141 0 3 5.02141 1
gene 3 4 6 5.79617 0 4 5.79617 0
gene 1 5 6 -2.89921 0 5 -2.89921 1
gene 3 1 7 1.44377 0 6 1.44377 1
gene 1 2 7 -4.77736 0 7 -4.77736 0
gene 3 3 7 -0.440105 0 8 -0.440105 1
gene 3 4 7 -1.24282 0 9 -1.24282 1
gene 1 5 7 -7.38431 0 10 -7.38431 1
gene 3 4 9 -3.14791 0 15 -3.14791 1
gene 3 9 6 -0.492385 0 16 -0.492385 1
gene 3 4 21 1.56624 0 50 1.56624 1
gene 3 21 7 -1.35008 0 51 -1.35008 1
gene 3 21 9 -4.25173 0 62 -4.25173 1
gene 3 2 28 6.35499 0 77 6.35499 1
gene 3 28 6 -4.98617 0 78 -4.98617 1
gene 1 3 34 -2.31766 0 96 -2.31766 1
gene 1 34 6 0.713679 0 97 0.713679 1
gene 3 21 51 3.24962 0 167 3.24962 1
gene 3 51 7 -4.31185 0 168 -4.31185 1
gene 1 5 56 3.00652 0 188 3.00652 1
gene 1 56 6 -1.84523 0 189 -1.84523 1
gene 3 5 21 -1.00214 0 260 -1.00214 1
gene 3 1 21 1.74191 0 299 1.74191 1
gene 2 4 28 2.55277 0 443 2.55277 1
gene 2 51 6 -0.103089 0 607 -0.103089 1
gene 2 1 56 1.55869 0 667 1.55869 1
genomeend 7

/* Organism #8 Fitness: 19 Error: 0 */
genomestart 8
trait 1 0.1 0 0.447402 0 0 0 0 0 
trait 2 0.395625 0 0.605286 0.0252834 0.0881976 0 0 0 
trait 3 0.3 0 0 0 0 0 0 0 
node 1 1 1 3
node 2 3 1 1
node 3 2 1 1
node 4 3 1 1
node 5 2 1 1
node 6 3 0 2
node 7 2 0 2
node 9 1 0 0
node 21 1 0 0
node 28 1 0 0
node 34 1 0 0
node 51 1 0 0
node 56 1 0 0
gene 1 1 6 -7.27792 0 1 -7.27792 1
gene 3 2 6 -1.11548 0 2 -1.11548 1
gene 1 3 6 3.72947 0 3 3.72947 1
gene 3 4 6 2.68579 0 4 2.68579 0
gene 1 5 6 1.14805 0 5 1.14805 1
gene 3 1 7 0.0642773 0 6 0.0642773 1
gene 1 2 7 -0.0791507 0 7 -0.0791507 0
gene 3 3 7 -3.39754 0 8 -3.39754 1
gene 3 4 7 -3.14845 0 9 -3.14845 1
gene 1 5 7 2.09289 0 10 2.09289 1
gene 3 4 9 -3.1828 0 15 -3.1828 1
gene 3 9 6 -2.47538 0 16 -2.47538 1
gene 3 4 21 -0.315213 0 50 -0.315213 1
gene 3 21 7 2.89876 0 51 2.89876 1
gene 3 21 9 -4.07009 0 62 -4.07009 1
gene 3 2 28 6.0341 0 77 6.0341 1
gene 3 28 6 -3.81464 0 78 -3.81464 1
gene 1 3 34 -1.26172 0 96 -1.26172 1
gene 1 34 6 2.10268 0 97 2.10268 1
gene 3 21 51 -1.01776 0 167 -1.01776 1
gene 3 51 7 0.147576 0 168 0.147576 1
gene 1 5 56 3.59261 0 188 3.59261 1
gene 1 56 6 -7.55437 0 189 -7.55437 1
gene 3 5 21 -1.40028 0 260 -1.40028 1
gene 3 1 21 -1.54388 0 299 -1.54388 1
gene 2 4 28 0.180494 0 443 0.180494 1
gene 2 51 6 1.06744 0 607 1.06744 1
gene 2 1 56 -0.566065 0 667 -0.566065 1
genomeend 8

/* Organism #9 Fitness: 53 Error: 0 */
genomestart 9
trait 1 0.1 0 0.447402 0 0 0 0 0 
trait 2 0.05 0 0.295931 0 0.339691 0.876588 0.225274 0 
trait 3 0.3 0 0 0 0 0 0 0 
node 1 1 1 3
node 2 3 1 1
node 3 2 1 1
node 4 3 1 1
node 5 2 1 1
node 6 3 0 2
node 7 2 0 2
node 9 1 0 0
node 21 1 0 0
node 28 1 0 0
node 34 1 0 0
node 51 1 0 0
node 56 1 0 0
gene 1 1 6 -6.76047 0 1 -6.76047 1
gene 3 2 6 -2.4284 0 2 -2.4284 1
gene 1 3 6 3.12551 0 3 3.12551 1
gene 3 4 6 3.50925 0 4 3.50925 0
gene 1 5 6 -2.11593 0 5 -2.11593 1
gene 3 1 7 -1.381 0 6 -1.381 1
gene 1 2 7 -2.54423 0 7 -2.54423 0
gene 3 3 7 -1.42621 0 8 -1.42621 1
gene 3 4 7 -2.05192 0 9 -2.05192 1
gene 1 5 7 -8 0 10 -8 1
gene 3 4 9 -1.96319 0 15 -1.96319 1
gene 3 9 6 -3.61573 0 16 -3.61573 1
gene 3 4 21 2.74357 0 50 2.74357 1
gene 3 21 7 -0.817075 0 51 -0.817075 1
gene 3 21 9 -4.97889 0 62 -4.97889 1
gene 3 2 28 3.60577 0 77 3.60577 1
gene 3 28 6 -3.11025 0 78 -3.11025 1
gene 1 3 34 -1.85833 0 96 -1.85833 1
gene 1 34 6 -0.317242 0 97 -0.317242 1
gene 3 21 51 1.50418 0 167 1.50418 1
gene 3 51 7 -6.17859 0 168 -6.17859 1
gene 1 5 56 2.7998 0 188 2.7998 1
gene 1 56 6 -3.97098 0 189 -3.97098 1
gene 3 5 21 0.672554 0 260 0.672554 1
gene 3 1 21 2.05932 0 299 2.05932 1
gene 2 4 28 -0.199289 0 443 -0.199289 1
gene 2 51 6 -1.84535 0 607 -1.84535 1
gene 2 1 56 0.542635 0 667 0.542635 1
genomeend 9

/* Organism #10 Fitness: 72 Error: 0 */
genomestart 10
trait 1 0.1 0 0.447402 0 0 0 0 0 
trait 2 0.2 0 0 0 0 0 0 0 
trait 3 0.3 0 0 0 0 0 0 0 
node 1 1 1 3
node 2 3 1 1
node 3 2 1 1
node 4 3 1 1
node 5 2 1 1
node 6 3 0 2
node 7 2 0 2
node 9 1 0 0
node 21 1 0 0
node 28 1 0 0
node 34 1 0 0
node 51 1 0 0
node 56 1 0 0
gene 1 1 6 -6.40063 0 1 -6.40063 1
gene 2 2 6 -1.20354 0 2 -1.20354 1
gene 1 3 6 2.72651 0 3 2.72651 1
gene 3 4 6 1.87854 0 4 1.87854 0
gene 1 5 6 -2.13015 0 5 -2.13015 1
gene 3 1 7 -1.12769 0 6 -1.12769 1
gene 1 2 7 -3.84755 0 7 -3.84755 0
gene 3 3 7 -1.52644 0 8 -1.52644 1
gene 3 4 7 -0.063788 0 9 -0.063788 1
gene 1 5 7 -5.8089 0 10 -5.8089 1
gene 3 4 9 -3.17455 0 15 -3.17455 1
gene 3 9 6 -4.54689 0 16 -4.54689 1
gene 3 4 21 1.35916 0 50 1.35916 1
gene 3 21 7 1.05652 0 51 1.05652 1
gene 3 21 9 -3.32871 0 62 -3.32871 1
gene 3 2 28 5.60403 0 77 5.60403 1
gene 3 28 6 -3.69393 0 78 -3.69393 1
gene 1 3 34 -3.20692 0 96 -3.20692 1
gene 1 34 6 4.69498 0 97 4.69498 1
gene 3 21 51 2.72532 0 167 2.72532 1
gene 3 51 7 -1.67441 0 168 -1.67441 1
gene 1 5 56 2.70158 0 188 2.70158 1
gene 1 56 6 -6.58063 0 189 -6.58063 1
gene 3 5 21 1.29402 0 260 1.29402 1
gene 3 1 21 -1.38211 0 299 -1.38211 1
gene 2 4 28 -1.7119 0 443 -1.7119 1
gene 2 51 6 -0.96858 0 607 -0.96858 1
gene 2 1 56 -0.866563 0 667 -0.866563 1
genomeend 10

/* Organism #11 Fitness: 159 Error: 0 */
genomestart 11
trait 1 0.1 0 0.447402 0 0 0 0 0 
trait 2 0.519517 0 0.478726 0.0505667 0.0514388 0 0 0 
trait 3 0.3 0 0 0 0 0 0 0 
node 1 1 1 3
node 2 3 1 1
node 3 2 1 1
node 4 3 1 1
node 5 2 1 1
node 6 3 0 2
node 7 2 0 2
node 9 1 0 0
node 21 1 0 0
node 28 1 0 0
node 34 1 0 0
node 51 1 0 0
node 56 1 0 0
node 194 1 0 0
gene 1 1 6 -6.82145 0 1 -6.82145 1
gene 3 2 6 -0.884805 0 2 -0.884805 1
gene 1 3 6 5.02141 0 3 5.02141 0
gene 3 4 6 3.73367 0 4 3.73367 0
gene 1 5 6 -2.89921 0 5 -2.89921 1
gene 3 1 7 0.259072 0 6 0.259072 1
gene 1 2 7 -3.69136 0 7 -3.69136 0
gene 3 3 7 -2.76528 0 8 -2.76528 1
gene 3 4 7 -2.4384 0 9 -2.4384 1
gene 1 5 7 -7.96604 0 10 -7.96604 1
gene 3 4 9 -2.14863 0 15 -2.14863 1
gene 3 9 6 -2.97186 0 16 -2.97186 1
gene 3 4 21 -0.803989 0 50 -0.803989 1
gene 3 21 7 2.64434 0 51 2.64434 1
gene 3 21 9 -5.7177 0 62 -5.7177 1
gene 3 2 28 6.0341 0 77 6.0341 1
gene 3 28 6 -2.96143 0 78 -2.96143 1
gene 1 3 34 -1.18062 0 96 -1.18062 1
gene 1 34 6 2.99225 0 97 2.99225 1
gene 3 21 51 2.3319 0 167 2.3319 1
gene 3 51 7 -3.75394 0 168 -3.75394 1
gene 1 5 56 1.46305 0 188 1.46305 1
gene 1 56 6 -5.21613 0 189 -5.21613 1
gene 3 5 21 0.246296 0 260 0.246296 1
gene 3 1 21 0.338867 0 299 0.338867 1
gene 2 4 28 0.73151 0 443 0.73151 1
gene 2 51 6 -0.96858 0 607 -0.96858 1
gene 2 1 56 -0.770232 0 667 -0.770232 1
gene 1 3 194 1 0 721 0 1
gene 1 194 6 5.02141 0 722 0 1
genomeend 11

/* Organism #12 Fitness: 102 Error: 0 */
genomestart 12
trait 1 0.1 0 0.447402 0 0 0 0 0 
trait 2 0.371714 0 0.361337 0.0252834 0.0465455 0 0 0 
trait 3 0.3 0 0 0 0 0 0 0 
node 1 1 1 3
node 2 3 1 1
node 3 2 1 1
node 4 3 1 1
node 5 2 1 1
node 6 3 0 2
node 7 2 0 2
node 9 1 0 0
node 21 1 0 0
node 28 1 0 0
node 34 1 0 0
node 51 1 0 0
node 56 1 0 0
node 197 1 0 0
gene 1 1 6 -6.82145 0 1 -6.82145 1
gene 3 2 6 -2.501 0 2 -2.501 1
gene 1 3 6 5.36489 0 3 5.36489 1
gene 3 4 6 1.56909 0 4 1.56909 0
gene 1 5 6 -5.3657 0 5 -5.3657 1
gene 3 1 7 0.259072 0 6 0.259072 1
gene 1 2 7 -3.69136 0 7 -3.69136 0
gene 3 3 7 -3.28043 0 8 -3.28043 1
gene 3 4 7 -4.36326 0 9 -4.36326 1
gene 1 5 7 -7.96604 0 10 -7.96604 1
gene 3 4 9 -4.56658 0 15 -4.56658 1
gene 3 9 6 -2.97186 0 16 -2.97186 1
gene 3 4 21 1.49946 0 50 1.49946 1
gene 3 21 7 2.64434 0 51 2.64434 1
gene 3 21 9 -5.23483 0 62 -5.23483 1
gene 3 2 28 5.12742 0 77 5.12742 0
gene 3 28 6 -3.99298 0 78 -3.99298 1
gene 1 3 34 -3.48432 0 96 -3.48432 1
gene 1 34 6 3.19024 0 97 3.19024 1
gene 3 21 51 3.07192 0 167 3.07192 1
gene 3 51 7 -1.54061 0 168 -1.54061 1
gene 1 5 56 1.46305 0 188 1.46305 1
gene 1 56 6 -6.59289 0 189 -6.59289 1
gene 3 5 21 0.246296 0 260 0.246296 1
gene 3 1 21 0.338867 0 299 0.338867 1
gene 2 4 28 0.73151 0 443 0.73151 1
gene 2 51 6 -0.96858 0 607 -0.96858 1
gene 2 1 56 -2.93118 0 667 -2.93118 1
gene 3 2 197 1 0 732 0 1
gene 3 197 28 5.12742 0 733 0 1
genomeend 12

/* Organism #13 Fitness: 70 Error: 0 */
genomestart 13
trait 1 0.1 0 0.447402 0 0 0 0 0 
trait 2 0.383669 0 0.483311 0.0252834 0.0673716 0 0 0 
trait 3 0.3 0 0 0 0 0 0 0 
node 1 1 1 3
node 2 3 1 1
node 3 2 1 1
node 4 3 1 1
node 5 2 1 1
node 6 3 0 2
node 7 2 0 2
node 9 1 0 0
node 21 1 0 0
node 28 1 0 0
node 34 1 0 0
node 51 1 0 0
node 56 1 0 0
gene 1 1 6 -8 0 1 -8 1
gene 3 2 6 0.0972726 0 2 0.0972726 1
gene 1 3 6 5.07801 0 3 5.07801 0
gene 3 4 6 5.60298 0 4 5.60298 0
gene 1 5 6 -4.99237 0 5 -4.99237 1
gene 3 1 7 1.13127 0 6 1.13127 1
gene 1 2 7 -5.84913 0 7 -5.84913 0
gene 3 3 7 -1.78148 0 8 -1.78148 1
gene 3 4 7 -1.39216 0 9 -1.39216 1
gene 1 5 7 -6.60867 0 10 -6.60867 1
gene 3 4 9 -0.0837283 0 15 -0.0837283 1
gene 3 9 6 -3.92057 0 16 -3.92057 1
gene 3 4 21 -2.77456 0 50 -2.77456 1
gene 3 21 7 4.76441 0 51 4.76441 1
gene 3 21 9 -6.99262 0 62 -6.99262 1
gene 3 2 28 8 0 77 8 1
gene 3 28 6 -1.39921 0 78 -1.39921 1
gene 1 3 34 -2.30857 0 96 -2.30857 1
gene 1 34 6 4.58056 0 97 4.58056 1
gene 3 21 51 2.26175 0 167 2.26175 1
gene 3 51 7 -5.52671 0 168 -5.52671 1
gene 1 5 56 -0.840268 0 188 -0.840268 1
gene 1 56 6 -3.90416 0 189 -3.90416 1
gene 3 5 21 -1.3128 0 260 -1.3128 1
gene 3 1 21 1.43865 0 299 1.43865 1
gene 2 4 28 -0.533471 0 443 -0.533471 1
gene 2 51 6 -2.22309 0 607 -2.22309 1
gene 2 1 56 -0.770232 0 667 -0.770232 1
gene 3 51 56 -0.487535 0 714 -0.487535 1
gene 3 1 34 -1.60166 0 723 -1.60166 1
genomeend 13

/* Organism #14 Fitness: 112 Error: 0 */
genomestart 14
trait 1 0.1 0 0.447402 0 0 0 0 0 
trait 2 0.519517 0 0.478726 0.0505667 0.0514388 0 0 0 
trait 3 0.3 0 0 0 0 0 0 0 
node 1 1 1 3
node 2 3 1 1
node 3 2 1 1
node 4 3 1 1
node 5 2 1 1
node 6 3 0 2
node 7 2 0 2
node 9 1 0 0
node 21 1 0 0
node 28 1 0 0
node 34 1 0 0
node 51 1 0 0
node 56 1 0 0
node 198 1 0 0
gene 1 1 6 -6.82145 0 1 -6.82145 1
gene 3 2 6 -0.884805 0 2 -0.884805 1
gene 1 3 6 5.02141 0 3 5.02141 1
gene 3 4 6 3.73367 0 4 3.73367 1
gene 1 5 6 -2.89921 0 5 -2.89921 1
gene 3 1 7 0.259072 0 6 0.259072 1
gene 1 2 7 -3.69136 0 7 -3.69136 1
gene 3 3 7 -2.76528 0 8 -2.76528 1
gene 3 4 7 -2.4384 0 9 -2.4384 1
gene 1 5 7 -7.96604 0 10 -7.96604 1
gene 3 4 9 -2.14863 0 15 -2.14863 0
gene 3 9 6 -2.97186 0 16 -2.97186 1
gene 3 4 21 -0.803989 0 50 -0.803989 1
gene 3 21 7 2.64434 0 51 2.64434 1
gene 3 21 9 -5.7177 0 62 -5.7177 1
gene 3 2 28 6.0341 0 77 6.0341 1
gene 3 28 6 -2.96143 0 78 -2.96143 1
gene 1 3 34 -1.18062 0 96 -1.18062 1
gene 1 34 6 2.99225 0 97 2.99225 1
gene 3 21 51 2.3319 0 167 2.3319 1
gene 3 51 7 -3.75394 0 168 -3.75394 1
gene 1 5 56 1.46305 0 188 1.46305 1
gene 1 56 6 -5.21613 0 189 -5.21613 1
gene 3 5 21 0.246296 0 260 0.246296 1
gene 3 1 21 0.338867 0 299 0.338867 1
gene 2 4 28 0.73151 0 443 0.73151 1
gene 2 51 6 -0.96858 0 607 -0.96858 1
gene 2 1 56 -0.770232 0 667 -0.770232 1
gene 3 4 198 1 0 734 0 1
gene 3 198 9 -2.14863 0 735 0 1
genomeend 14

/* Organism #15 Fitness: 81 Error: 0 */
genomestart 15
trait 1 0.1 0 0.447402 0 0 0 0 0 
trait 2 0.271714 0 0.543551 0.0252834 1 0 0.22111 0 
trait 3 0.3 0 0 0 0 0 0 0 
node 1 1 1 3
node 2 3 1 1
node 3 2 1 1
node 4 3 1 1
node 5 2 1 1
node 6 3 0 2
node 7 2 0 2
node 9 1 0 0
node 21 1 0 0
node 28 1 0 0
node 34 1 0 0
node 51 1 0 0
node 56 1 0 0
gene 1 1 6 -8 0 1 -8 1
gene 3 2 6 0.98563 0 2 0.98563 1
gene 1 3 6 5.7935 0 3 5.7935 1
gene 3 4 6 6.23236 0 4 6.23236 0
gene 1 5 6 -1.5622 0 5 -1.5622 1
gene 3 1 7 2.16667 0 6 2.16667 1
gene 1 2 7 -6.01768 0 7 -6.01768 0
gene 3 3 7 -2.16723 0 8 -2.16723 1
gene 3 4 7 -3.54537 0 9 -3.54537 1
gene 1 5 7 -5.62469 0 10 -5.62469 1
gene 3 4 9 -2.5076 0 15 -2.5076 1
gene 3 9 6 -3.86747 0 16 -3.86747 1
gene 3 4 21 0.07812 0 50 0.07812 1
gene 3 21 7 3.91255 0 51 3.91255 1
gene 3 21 9 -4.64668 0 62 -4.64668 1
gene 3 2 28 4.6987 0 77 4.6987 1
gene 3 28 6 -0.726395 0 78 -0.726395 1
gene 1 3 34 -1.70074 0 96 -1.70074 1
gene 1 34 6 3.89247 0 97 3.89247 1
gene 3 21 51 0.247888 0 167 0.247888 1
gene 3 51 7 -3.02054 0 168 -3.02054 1
gene 1 5 56 3.74137 0 188 3.74137 1
gene 1 56 6 -5.34735 0 189 -5.34735 1
gene 3 5 21 1.14664 0 260 1.14664 1
gene 3 1 21 -0.553168 0 299 -0.553168 1
gene 2 4 28 1.43668 0 443 1.43668 1
gene 2 51 6 -0.96858 0 607 -0.96858 1
gene 2 1 56 -0.38929 0 667 -0.38929 1
genomeend 15

/* Organism #16 Fitness: 87 Error: 0 */
genomestart 16
trait 1 0.1 0 0.447402 0 0 0 0 0 
trait 2 0.1 0 0.182214 0 0.226461 0 0.22111 0 
trait 3 0.3 0 0 0 0 0 0 0 
node 1 1 1 3
node 2 3 1 1
node 3 2 1 1
node 4 3 1 1
node 5 2 1 1
node 6 3 0 2
node 7 2 0 2
node 9 1 0 0
node 21 1 0 0
node 28 1 0 0
node 34 1 0 0
node 51 1 0 0
node 56 1 0 0
gene 1 1 6 -8 0 1 -8 1
gene 3 2 6 -0.428453 0 2 -0.428453 1
gene 1 3 6 -2.33136 0 3 -2.33136 1
gene 3 4 6 5.88604 0 4 5.88604 0
gene 1 5 6 0.173012 0 5 0.173012 1
gene 3 1 7 1.23572 0 6 1.23572 1
gene 1 2 7 -5.30119 0 7 -5.30119 0
gene 3 3 7 -1.30643 0 8 -1.30643 1
gene 3 4 7 -2.4384 0 9 -2.4384 1
gene 1 5 7 -6.20551 0 10 -6.20551 1
gene 3 4 9 -4.31928 0 15 -4.31928 1
gene 3 9 6 -4.92142 0 16 -4.92142 1
gene 3 4 21 2.27526 0 50 2.27526 1
gene 3 21 7 4.37821 0 51 4.37821 1
gene 3 21 9 -6.56174 0 62 -6.56174 1
gene 3 2 28 -0.48272 0 77 -0.48272 1
gene 3 28 6 -0.583597 0 78 -0.583597 1
gene 1 3 34 -0.760486 0 96 -0.760486 1
gene 1 34 6 4.88251 0 97 4.88251 1
gene 3 21 51 2.3319 0 167 2.3319 1
gene 3 51 7 -0.811438 0 168 -0.811438 1
gene 1 5 56 -1.7862 0 188 -1.7862 1
gene 1 56 6 -2.96017 0 189 -2.96017 1
gene 3 5 21 1.47577 0 260 1.47577 1
gene 3 1 21 -0.542704 0 299 -0.542704 1
gene 2 4 28 3.014 0 443 3.014 1
gene 2 51 6 -0.521538 0 607 -0.521538 1
gene 2 1 56 -0.770232 0 667 -0.770232 1
genomeend 16

/* Organism #17 Fitness: 209 Error: 0 */
genomestart 17
trait 1 0.1 0 0.447402 0 0 0 0 0 
trait 2 0.259758 0 0.421577 0.0252834 0.25218 0 0.22111 0 
trait 3 0.3 0 0 0 0 0 0 0 
node 1 1 1 3
node 2 3 1 1
node 3 2 1 1
node 4 3 1 1
node 5 2 1 1
node 6 3 0 2
node 7 2 0 2
node 9 1 0 0
node 21 1 0 0
node 28 1 0 0
node 34 1 0 0
node 51 1 0 0
node 56 1 0 0
gene 1 1 6 -6.82145 0 1 -6.82145 1
gene 3 2 6 -0.884805 0 2 -0.884805 1
gene 1 3 6 5.02141 0 3 5.02141 0
gene 3 4 6 3.73367 0 4 3.73367 0
gene 1 5 6 -2.89921 0 5 -2.89921 1
gene 3 1 7 0.259072 0 6 0.259072 1
gene 1 2 7 -3.69136 0 7 -3.69136 0
gene 3 3 7 -2.76528 0 8 -2.76528 1
gene 3 4 7 -2.4384 0 9 -2.4384 1
gene 1 5 7 -7.96604 0 10 -7.96604 1
gene 3 4 9 -2.14863 0 15 -2.14863 1
gene 3 9 6 -2.97186 0 16 -2.97186 1
gene 3 4 21 -0.803989 0 50 -0.803989 1
gene 3 21 7 2.64434 0 51 2.64434 1
gene 3 21 9 -5.7177 0 62 -5.7177 1
gene 3 2 28 6.0341 0 77 6.0341 1
gene 3 28 6 -2.96143 0 78 -2.96143 1
gene 1 3 34 -1.18062 0 96 -1.18062 1
gene 1 34 6 2.99225 0 97 2.99225 1
gene 3 21 51 2.3319 0 167 2.3319 1
gene 3 51 7 -3.75394 0 168 -3.75394 1
gene 1 5 56 1.46305 0 188 1.46305 1
gene 1 56 6 -5.21613 0 189 -5.21613 1
gene 3 5 21 0.246296 0 260 0.246296 1
gene 3 1 21 0.338867 0 299 0.338867 1
gene 2 4 28 0.73151 0 443 0.73151 1
gene 2 51 6 -0.96858 0 607 -0.96858 1
gene 2 1 56 -0.770232 0 667 -0.770232 1
genomeend 17

/* Organism #18 Fitness: 79 Error: 0 */
genomestart 18
trait 1 0.1 0 0.447402 0 0 0 0 0 
trait 2 0.2 0 0 0 0 0 0 0 
trait 3 0.3 0 0 0 0 0 0 0 
node 1 1 1 3
node 2 3 1 1
node 3 2 1 1
node 4 3 1 1
node 5 2 1 1
node 6 3 0 2
node 7 2 0 2
node 9 1 0 0
node 21 1 0 0
node 28 1 0 0
node 34 1 0 0
node 51 1 0 0
node 56 1 0 0
gene 1 1 6 -8 0 1 -8 1
gene 3 2 6 -0.884805 0 2 -0.884805 1
gene 1 3 6 4.26058 0 3 4.26058 1
gene 3 4 6 3.73367 0 4 3.73367 0
gene 1 5 6 -1.26421 0 5 -1.26421 1
gene 3 1 7 -1.78986 0 6 -1.78986 1
gene 1 2 7 -5.73003 0 7 -5.73003 0
gene 3 3 7 -2.36951 0 8 -2.36951 1
gene 3 4 7 2.24016 0 9 2.24016 1
gene 1 5 7 -7.93563 0 10 -7.93563 1
gene 3 4 9 -1.00568 0 15 -1.00568 1
gene 3 9 6 -1.8166 0 16 -1.8166 1
gene 3 4 21 -1.85679 0 50 -1.85679 1
gene 3 21 7 1.66883 0 51 1.66883 1
gene 3 21 9 -4.70304 0 62 -4.70304 1
gene 3 2 28 7.36996 0 77 7.36996 1
gene 3 28 6 -1.26505 0 78 -1.26505 1
gene 1 3 34 0.857008 0 96 0.857008 1
gene 1 34 6 3.12207 0 97 3.12207 1
gene 3 21 51 2.3319 0 167 2.3319 1
gene 3 51 7 -0.749863 0 168 -0.749863 1
gene 1 5 56 2.14571 0 188 2.14571 1
gene 1 56 6 -5.29072 0 189 -5.29072 1
gene 3 5 21 -1.27851 0 260 -1.27851 1
gene 3 1 21 0.0591552 0 299 0.0591552 1
gene 2 4 28 1.56474 0 443 1.56474 1
gene 2 51 6 0.0190561 0 607 0.0190561 1
gene 2 1 56 0.813159 0 667 0.813159 1
genomeend 18

/* Organism #19 Fitness: 209 Error: 0 */
genomestart 19
trait 1 0.1 0 0.447402 0 0 0 0 0 
trait 2 0.531472 0 0.600701 0.0505667 0.0722649 0 0 0 
trait 3 0.3 0 0 0 0 0 0 0 
node 1 1 1 3
node 2 3 1 1
node 3 2 1 1
node 4 3 1 1
node 5 2 1 1
node 6 3 0 2
node 7 2 0 2
node 9 1 0 0
node 21 1 0 0
node 28 1 0 0
node 34 1 0 0
node 51 1 0 0
node 56 1 0 0
gene 1 1 6 -6.82145 0 1 -6.82145 1
gene 3 2 6 -0.884805 0 2 -0.884805 1
gene 1 3 6 5.02141 0 3 5.02141 1
gene 3 4 6 3.73367 0 4 3.73367 0
gene 1 5 6 -2.89921 0 5 -2.89921 1
gene 3 1 7 0.259072 0 6 0.259072 1
gene 1 2 7 -3.69136 0 7 -3.69136 0
gene 3 3 7 -2.76528 0 8 -2.76528 1
gene 3 4 7 -2.4384 0 9 -2.4384 1
gene 1 5 7 -7.96604 0 10 -7.96604 1
gene 3 4 9 -2.14863 0 15 -2.14863 1
gene 3 9 6 -2.97186 0 16 -2.97186 1
gene 3 4 21 -0.803989 0 50 -0.803989 1
gene 3 21 7 2.64434 0 51 2.64434 1
gene 3 21 9 -5.7177 0 62 -5.7177 1
gene 3 2 28 6.0341 0 77 6.0341 1
gene 3 28 6 -2.96143 0 78 -2.96143 1
gene 1 3 34 -1.18062 0 96 -1.18062 1
gene 1 34 6 2.99225 0 97 2.99225 1
gene 3 21 51 2.3319 0 167 2.3319 1
gene 3 51 7 -3.75394 0 168 -3.75394 1
gene 1 5 56 1.46305 0 188 1.46305 1
gene 1 56 6 -5.21613 0 189 -5.21613 1
gene 3 5 21 0.246296 0 260 0.246296 1
gene 3 1 21 0.338867 0 299 0.338867 1
gene 2 4 28 0.73151 0 443 0.73151 1
gene 2 51 6 -0.96858 0 607 -0.96858 1
gene 2 1 56 -0.770232 0 667 -0.770232 1
genomeend 19

/* Organism #20 Fitness: 77 Error: 0 */
genomestart 20
trait 1 0.1 0 0.447402 0 0 0 0 0 
trait 2 0.531472 0 0.600701 0.0505667 0.0722649 0 0 0 
trait 3 0.3 0 0 0 0 0 0 0 
node 1 1 1 3
node 2 3 1 1
node 3 2 1 1
node 4 3 1 1
node 5 2 1 1
node 6 3 0 2
node 7 2 0 2
node 9 1 0 0
node 21 1 0 0
node 28 1 0 0
node 34 1 0 0
node 51 1 0 0
node 56 1 0 0
gene 1 1 6 -8 0 1 -8 1
gene 3 2 6 -1.91244 0 2 -1.91244 1
gene 1 3 6 7.31738 0 3 7.31738 1
gene 3 4 6 5.48574 0 4 5.48574 0
gene 1 5 6 -2.15759 0 5 -2.15759 1
gene 3 1 7 -0.213271 0 6 -0.213271 1
gene 1 2 7 -3.84111 0 7 -3.84111 0
gene 3 3 7 -0.361464 0 8 -0.361464 1
gene 3 4 7 -4.27607 0 9 -4.27607 1
gene 1 5 7 -6.0881 0 10 -6.0881 1
gene 3 4 9 0.0756434 0 15 0.0756434 1
gene 3 9 6 -3.87661 0 16 -3.87661 1
gene 3 4 21 -1.91384 0 50 -1.91384 1
gene 3 21 7 3.13107 0 51 3.13107 1
gene 3 21 9 -5.5952 0 62 -5.5952 1
gene 3 2 28 4.69233 0 77 4.69233 1
gene 3 28 6 -4.10182 0 78 -4.10182 1
gene 1 3 34 -2.59176 0 96 -2.59176 1
gene 1 34 6 0.863794 0 97 0.863794 1
gene 3 21 51 2.803 0 167 2.803 1
gene 3 51 7 -2.02895 0 168 -2.02895 1
gene 1 5 56 1.81285 0 188 1.81285 1
gene 1 56 6 -6.29828 0 189 -6.29828 1
gene 3 5 21 -1.32169 0 260 -1.32169 1
gene 3 1 21 1.65555 0 299 1.65555 1
gene 2 4 28 2.70965 0 443 2.70965 1
gene 2 51 6 -1.23805 0 607 -1.23805 1
gene 2 1 56 -0.770232 0 667 -0.770232 1
genomeend 20

/* Organism #21 Fitness: 70 Error: 0 */
genomestart 21
trait 1 0.1 0 0.447402 0 0 0 0 0 
trait 2 0.519517 0 0.478726 0.0505667 0.0514388 0 0 0 
trait 3 0.3 0 0 0 0 0 0 0 
node 1 1 1 3
node 2 3 1 1
node 3 2 1 1
node 4 3 1 1
node 5 2 1 1
node 6 3 0 2
node 7 2 0 2
node 9 1 0 0
node 21 1 0 0
node 28 1 0 0
node 34 1 0 0
node 51 1 0 0
node 56 1 0 0
node 194 1 0 0
gene 1 1 6 -8 0 1 -8 1
gene 3 2 6 1.72802 0 2 1.72802 1
gene 1 3 6 5.59772 0 3 5.59772 0
gene 3 4 6 5.3019 0 4 5.3019 0
gene 1 5 6 -2.64177 0 5 -2.64177 1
gene 3 1 7 2.63427 0 6 2.63427 1
gene 1 2 7 -5.55031 0 7 -5.55031 0
gene 3 3 7 -2.72105 0 8 -2.72105 1
gene 3 4 7 -4.48245 0 9 -4.48245 1
gene 1 5 7 -7.48306 0 10 -7.48306 1
gene 3 4 9 -2.14863 0 15 -2.14863 1
gene 3 9 6 0.963306 0 16 0.963306 1
gene 3 4 21 -0.793735 0 50 -0.793735 1
gene 3 21 7 2.58476 0 51 2.58476 1
gene 3 21 9 -3.94144 0 62 -3.94144 1
gene 3 2 28 5.31142 0 77 5.31142 1
gene 3 28 6 -1.13962 0 78 -1.13962 1
gene 1 3 34 -0.0546952 0 96 -0.0546952 1
gene 1 34 6 2.04092 0 97 2.04092 1
gene 3 21 51 1.26856 0 167 1.26856 1
gene 3 51 7 -0.775152 0 168 -0.775152 1
gene 1 5 56 2.62028 0 188 2.62028 1
gene 1 56 6 -6.98351 0 189 -6.98351 1
gene 3 5 21 0.279018 0 260 0.279018 1
gene 3 1 21 1.13081 0 299 1.13081 1
gene 2 4 28 0.73151 0 443 0.73151 1
gene 2 51 6 -2.68138 0 607 -2.68138 1
gene 2 1 56 -2.64623 0 667 -2.64623 1
gene 1 3 194 0.626258 0 721 0.626258 1
gene 1 194 6 2.57564 0 722 2.57564 1
genomeend 21

/* Organism #22 Fitness: 10 Error: 0 */
genomestart 22
trait 1 0.1 0 0.447402 0 0 0 0 0 
trait 2 0.519517 0 0.478726 0.0505667 0.0514388 0 0 0 
trait 3 0.3 0 0 0 0 0 0 0 
node 1 1 1 3
node 2 3 1 1
node 3 2 1 1
node 4 3 1 1
node 5 2 1 1
node 6 3 0 2
node 7 2 0 2
node 9 1 0 0
node 21 1 0 0
node 28 1 0 0
node 34 1 0 0
node 51 1 0 0
node 56 1 0 0
node 194 1 0 0
gene 1 1 6 -6.44321 0 1 -6.44321 1
gene 3 2 6 1.1814 0 2 1.1814 1
gene 1 3 6 7.08063 0 3 7.08063 0
gene 3 4 6 -0.942935 0 4 -0.942935 0
gene 1 5 6 -2.03687 0 5 -2.03687 1
gene 3 1 7 -0.0364191 0 6 -0.0364191 1
gene 1 2 7 -1.60533 0 7 -1.60533 0
gene 3 3 7 -2.42555 0 8 -2.42555 1
gene 3 4 7 -0.130293 0 9 -0.130293 1
gene 1 5 7 1.6492 0 10 1.6492 1
gene 3 4 9 -2.30385 0 15 -2.30385 1
gene 3 9 6 -2.14729 0 16 -2.14729 1
gene 3 4 21 -3.01195 0 50 -3.01195 1
gene 3 21 7 1.71992 0 51 1.71992 1
gene 3 21 9 -5.67741 0 62 -5.67741 1
gene 3 2 28 5.75045 0 77 5.75045 1
gene 3 28 6 -2.09493 0 78 -2.09493 1
gene 1 3 34 1.23831 0 96 1.23831 1
gene 1 34 6 2.24883 0 97 2.24883 1
gene 3 21 51 2.77733 0 167 2.77733 1
gene 3 51 7 -1.79912 0 168 -1.79912 1
gene 1 5 56 3.13936 0 188 3.13936 1
gene 1 56 6 -7.24602 0 189 -7.24602 1
gene 3 5 21 1.99508 0 260 1.99508 1
gene 3 1 21 0.634632 0 299 0.634632 1
gene 2 4 28 1.38702 0 443 1.38702 1
gene 2 51 6 -0.993086 0 607 -0.993086 1
gene 2 1 56 0.930161 0 667 0.930161 1
gene 1 3 194 1.18526 0 721 1.18526 1
gene 1 194 6 6.36917 0 722 6.36917 1
genomeend 22

/* Species #28 : (Size 22) (AF 56.2727) (Age 23)  */


/* Organism #23 Fitness: 211 Error: 0 */
genomestart 23
trait 1 0.1 0 0.447402 0 0 0 0 0 
trait 2 0.2 0 0 0 0 0 0 0 
trait 3 0.3 0 0 0 0 0 0 0 
node 1 1 1 3
node 2 3 1 1
node 3 2 1 1
node 4 3 1 1
node 5 2 1 1
node 6 3 0 2
node 7 2 0 2
node 9 1 0 0
node 21 1 0 0
node 28 1 0 0
node 34 1 0 0
node 51 1 0 0
node 56 1 0 0
node 137 1 0 0
node 147 1 0 0
gene 1 1 6 -5.40154 0 1 -5.40154 1
gene 3 2 6 -3.14208 0 2 -3.14208 1
gene 1 3 6 2.46921 0 3 2.46921 1
gene 3 4 6 4.4215 0 4 4.4215 1
gene 1 5 6 -1.80138 0 5 -1.80138 1
gene 3 1 7 -0.207589 0 6 -0.207589 1
gene 1 2 7 -2.20544 0 7 -2.20544 1
gene 3 3 7 -3.8707 0 8 -3.8707 1
gene 3 4 7 -5.21587 0 9 -5.21587 0
gene 1 5 7 -7.83166 0 10 -7.83166 1
gene 3 4 9 0.292378 0 15 0.292378 0
gene 3 9 6 -4.25586 0 16 -4.25586 1
gene 3 4 21 0.732229 0 50 0.732229 1
gene 3 21 7 3.91478 0 51 3.91478 1
gene 3 21 9 -6.70803 0 62 -6.70803 1
gene 3 2 28 7.27882 0 77 7.27882 1
gene 3 28 6 -1.63553 0 78 -1.63553 1
gene 1 3 34 1.30105 0 96 1.30105 1
gene 1 34 6 4.92143 0 97 4.92143 1
gene 3 21 51 2.19809 0 167 2.19809 1
gene 3 51 7 -0.402426 0 168 -0.402426 1
gene 1 5 56 3.27324 0 188 3.27324 1
gene 1 56 6 -1.40897 0 189 -1.40897 1
gene 3 5 21 1.76823 0 260 1.76823 1
gene 3 1 21 0.023025 0 299 0.023025 1
gene 3 9 137 1.35455 0 468 1.35455 1
gene 3 137 6 -1.84314 0 469 -1.84314 1
gene 3 4 147 1 0 517 0 1
gene 3 147 9 0.292378 0 518 0 1
gene 3 7 137 -0.384036 0 685 -0.384036 1
genomeend 23

/* Organism #24 Fitness: 4 Error: 0 */
genomestart 24
trait 1 0.1 0 0.447402 0 0 0 0 0 
trait 2 0.2 0 0 0 0 0 0 0 
trait 3 0.3 0 0 0 0 0 0 0 
node 1 1 1 3
node 2 3 1 1
node 3 2 1 1
node 4 3 1 1
node 5 2 1 1
node 6 3 0 2
node 7 2 0 2
node 9 1 0 0
node 21 1 0 0
node 28 1 0 0
node 34 1 0 0
node 51 1 0 0
node 56 1 0 0
node 137 1 0 0
node 147 1 0 0
gene 1 1 6 2.08265 0 1 2.08265 1
gene 3 2 6 -3.618 0 2 -3.618 1
gene 1 3 6 1.13576 0 3 1.13576 1
gene 3 4 6 1.97941 0 4 1.97941 1
gene 1 5 6 0.56214 0 5 0.56214 1
gene 3 1 7 1.77616 0 6 1.77616 1
gene 1 2 7 -2.85792 0 7 -2.85792 1
gene 3 3 7 -5.89915 0 8 -5.89915 1
gene 3 4 7 -6.14383 0 9 -6.14383 0
gene 1 5 7 -6.04753 0 10 -6.04753 1
gene 3 4 9 1.8958 0 15 1.8958 0
gene 3 9 6 -2.62344 0 16 -2.62344 0
gene 3 4 21 -0.768248 0 50 -0.768248 1
gene 3 21 7 5.84652 0 51 5.84652 1
gene 3 21 9 -8 0 62 -8 1
gene 3 2 28 6.41348 0 77 6.41348 1
gene 3 28 6 -1.10824 0 78 -1.10824 1
gene 1 3 34 -0.192304 0 96 -0.192304 1
gene 1 34 6 3.63466 0 97 3.63466 1
gene 3 21 51 2.26232 0 167 2.26232 1
gene 3 51 7 -0.402426 0 168 -0.402426 1
gene 1 5 56 2.22179 0 188 2.22179 1
gene 1 56 6 -1.22773 0 189 -1.22773 1
gene 3 5 21 -0.51422 0 260 -0.51422 1
gene 3 1 21 -1.29488 0 299 -1.29488 1
gene 3 9 137 1.40823 0 468 1.40823 1
gene 3 137 6 -0.663495 0 469 -0.663495 1
gene 3 4 147 1.90795 0 517 1.90795 1
gene 3 147 9 1.28536 0 518 1.28536 1
gene 3 7 137 0.166169 0 685 0.166169 1
gene 1 7 56 -1.91242 0 703 -1.91242 1
genomeend 24

/* Organism #25 Fitness: 8 Error: 0 */
genomestart 25
trait 1 0.862395 0 0.447402 0.899885 0 0 0 0 
trait 2 0.2 0 0 0 0 0 0 0 
trait 3 0.3 0 0 0 0 0 0 0 
node 1 1 1 3
node 2 3 1 1
node 3 2 1 1
node 4 3 1 1
node 5 2 1 1
node 6 3 0 2
node 7 2 0 2
node 9 1 0 0
node 21 1 0 0
node 28 1 0 0
node 34 1 0 0
node 51 1 0 0
node 56 1 0 0
node 137 1 0 0
node 147 1 0 0
gene 1 1 6 -3.23766 0 1 -3.23766 1
gene 3 2 6 -1.70692 0 2 -1.70692 1
gene 1 3 6 0.091797 0 3 0.091797 1
gene 3 4 6 6.90402 0 4 6.90402 1
gene 1 5 6 -1.94 0 5 -1.94 1
gene 3 1 7 -2.16813 0 6 -2.16813 1
gene 1 2 7 -3.70384 0 7 -3.70384 1
gene 3 3 7 -5.51079 0 8 -5.51079 1
gene 3 4 7 -2.95622 0 9 -2.95622 0
gene 1 5 7 -8 0 10 -8 1
gene 3 4 9 -1.98964 0 15 -1.98964 0
gene 3 9 6 -6.40268 0 16 -6.40268 0
gene 3 4 21 -0.969122 0 50 -0.969122 1
gene 3 21 7 1.96699 0 51 1.96699 1
gene 3 21 9 -8 0 62 -8 1
gene 3 2 28 8 0 77 8 1
gene 3 28 6 -2.67874 0 78 -2.67874 1
gene 1 3 34 0.448764 0 96 0.448764 1
gene 1 34 6 5.2955 0 97 5.2955 1
gene 3 21 51 1.44095 0 167 1.44095 1
gene 3 51 7 -1.02599 0 168 -1.02599 1
gene 1 5 56 2.97758 0 188 2.97758 1
gene 1 56 6 0.194818 0 189 0.194818 1
gene 3 5 21 1.15092 0 260 1.15092 1
gene 3 1 21 -2.41684 0 299 -2.41684 1
gene 3 9 137 2.11967 0 468 2.11967 1
gene 3 137 6 -1.84314 0 469 -1.84314 1
gene 3 4 147 1.22936 0 517 1.22936 1
gene 3 147 9 -1.44612 0 518 -1.44612 1
gene 3 7 137 -0.718663 0 685 -0.718663 1
genomeend 25

/* Organism #26 Fitness: 7 Error: 0 */
genomestart 26
trait 1 0.1 0 0.447402 0 0 0 0 0 
trait 2 0.2 0 0 0 0 0 0 0 
trait 3 0.3 0 0 0 0 0 0 0 
node 1 1 1 3
node 2 3 1 1
node 3 2 1 1
node 4 3 1 1
node 5 2 1 1
node 6 3 0 2
node 7 2 0 2
node 9 1 0 0
node 21 1 0 0
node 28 1 0 0
node 34 1 0 0
node 51 1 0 0
node 56 1 0 0
node 137 1 0 0
node 147 1 0 0
gene 1 1 6 -3.80403 0 1 -3.80403 1
gene 3 2 6 -4.92715 0 2 -4.92715 1
gene 1 3 6 -1.39588 0 3 -1.39588 1
gene 3 4 6 5.91651 0 4 5.91651 1
gene 1 5 6 -1.80138 0 5 -1.80138 1
gene 3 1 7 -1.20314 0 6 -1.20314 1
gene 1 2 7 2.3263 0 7 2.3263 1
gene 3 3 7 -5.18984 0 8 -5.18984 1
gene 3 4 7 -5.14636 0 9 -5.14636 0
gene 1 5 7 1.37608 0 10 1.37608 1
gene 3 4 9 2.11458 0 15 2.11458 0
gene 3 9 6 1.43499 0 16 1.43499 1
gene 3 4 21 1.16977 0 50 1.16977 1
gene 3 21 7 3.91478 0 51 3.91478 1
gene 3 21 9 -7.57294 0 62 -7.57294 1
gene 3 2 28 8 0 77 8 1
gene 3 28 6 -0.416473 0 78 -0.416473 1
gene 1 3 34 1.30105 0 96 1.30105 1
gene 1 34 6 5.27703 0 97 5.27703 1
gene 3 21 51 1.52433 0 167 1.52433 1
gene 3 51 7 1.18975 0 168 1.18975 1
gene 1 5 56 3.49165 0 188 3.49165 1
gene 1 56 6 -2.7121 0 189 -2.7121 1
gene 3 5 21 2.19015 0 260 2.19015 1
gene 3 1 21 1.13223 0 299 1.13223 1
gene 3 9 137 1.35455 0 468 1.35455 1
gene 3 137 6 -1.18138 0 469 -1.18138 1
gene 3 4 147 1 0 517 1 1
gene 3 147 9 0.292378 0 518 0.292378 1
gene 3 7 137 -0.384036 0 685 -0.384036 1
gene 1 7 56 -2.40573 0 703 -2.40573 1
gene 3 28 7 -0.843942 0 724 -0.843942 1
genomeend 26

/* Organism #27 Fitness: 64 Error: 0 */
genomestart 27
trait 1 0.1 0 0.447402 0 0 0 0 0 
trait 2 0.2 0 0 0 0 0 0 0 
trait 3 0.3 0 0 0 0 0 0 0 
node 1 1 1 3
node 2 3 1 1
node 3 2 1 1
node 4 3 1 1
node 5 2 1 1
node 6 3 0 2
node 7 2 0 2
node 9 1 0 0
node 21 1 0 0
node 28 1 0 0
node 34 1 0 0
node 51 1 0 0
node 56 1 0 0
node 137 1 0 0
node 147 1 0 0
gene 1 1 6 -6.92141 0 1 -6.92141 1
gene 3 2 6 -2.25681 0 2 -2.25681 1
gene 1 3 6 1.48188 0 3 1.48188 1
gene 3 4 6 -1.82039 0 4 -1.82039 1
gene 1 5 6 -2.17442 0 5 -2.17442 1
gene 3 1 7 -1.43363 0 6 -1.43363 1
gene 1 2 7 -3.43166 0 7 -3.43166 1
gene 3 3 7 -2.9249 0 8 -2.9249 1
gene 3 4 7 -6.09136 0 9 -6.09136 0
gene 1 5 7 -8 0 10 -8 1
gene 3 4 9 0.292378 0 15 0.292378 0
gene 3 9 6 -2.16725 0 16 -2.16725 0
gene 3 4 21 -1.06848 0 50 -1.06848 1
gene 3 21 7 2.19617 0 51 2.19617 1
gene 3 21 9 2.17843 0 62 2.17843 1
gene 3 2 28 7.75585 0 77 7.75585 1
gene 3 28 6 -1.34537 0 78 -1.34537 1
gene 1 3 34 -0.305469 0 96 -0.305469 1
gene 1 34 6 2.98261 0 97 2.98261 1
gene 3 21 51 2.84478 0 167 2.84478 1
gene 3 51 7 -0.513438 0 168 -0.513438 1
gene 1 5 56 -0.739763 0 188 -0.739763 1
gene 1 56 6 0.0314292 0 189 0.0314292 1
gene 3 5 21 1.63459 0 260 1.63459 1
gene 3 1 21 1.86594 0 299 1.86594 1
gene 3 9 137 1.44497 0 468 1.44497 1
gene 3 137 6 -3.68353 0 469 -3.68353 1
gene 3 4 147 2.63721 0 517 2.63721 1
gene 3 147 9 -0.348799 0 518 -0.348799 1
gene 3 7 137 -2.44545 0 685 -2.44545 1
gene 1 7 56 -0.0988118 0 703 -0.0988118 1
genomeend 27

/* Organism #28 Fitness: 99 Error: 0 */
genomestart 28
trait 1 0.1 0 0.447402 0 0 0 0 0 
trait 2 0.2 0 0 0 0 0 0 0 
trait 3 0.3 0 0 0 0 0 0 0 
node 1 1 1 3
node 2 3 1 1
node 3 1 1 1
node 4 3 1 1
node 5 2 1 1
node 6 3 0 2
node 7 2 0 2
node 9 1 0 0
node 21 1 0 0
node 28 1 0 0
node 34 1 0 0
node 51 1 0 0
node 56 1 0 0
node 137 1 0 0
node 147 1 0 0
gene 1 1 6 -6.93402 0 1 -6.93402 1
gene 3 2 6 -2.24358 0 2 -2.24358 1
gene 1 3 6 -0.667451 0 3 -0.667451 1
gene 3 4 6 0.693332 0 4 0.693332 1
gene 1 5 6 -1.99502 0 5 -1.99502 1
gene 3 1 7 0.862772 0 6 0.862772 1
gene 1 2 7 0.231157 0 7 0.231157 1
gene 3 3 7 -4.33878 0 8 -4.33878 1
gene 3 4 7 1.43024 0 9 1.43024 0
gene 1 5 7 -7.30202 0 10 -7.30202 1
gene 3 4 9 2.07533 0 15 2.07533 0
gene 3 9 6 -3.41119 0 16 -3.41119 1
gene 3 4 21 2.02084 0 50 2.02084 1
gene 3 21 7 -0.596493 0 51 -0.596493 1
gene 3 21 9 -6.64872 0 62 -6.64872 1
gene 3 2 28 -1.59088 0 77 -1.59088 1
gene 3 28 6 1.57107 0 78 1.57107 1
gene 1 3 34 2.63113 0 96 2.63113 1
gene 1 34 6 2.41822 0 97 2.41822 1
gene 3 21 51 0.346674 0 167 0.346674 1
gene 3 51 7 -3.04018 0 168 -3.04018 1
gene 1 5 56 2.83067 0 188 2.83067 1
gene 1 56 6 -0.344109 0 189 -0.344109 1
gene 3 5 21 4.0369 0 260 4.0369 1
gene 3 1 21 -0.718933 0 299 -0.718933 1
gene 3 9 137 0.738907 0 468 0.738907 1
gene 3 137 6 -2.43994 0 469 -2.43994 1
gene 3 4 147 0.554248 0 517 0.554248 1
gene 3 147 9 0.515888 0 518 0.515888 1
gene 3 7 137 2.06992 0 685 2.06992 1
genomeend 28

/* Organism #29 Fitness: 4 Error: 0 */
genomestart 29
trait 1 0.1 0 0.447402 0 0 0 0 0 
trait 2 0.2 0 0 0 0 0 0 0 
trait 3 0.3 0 0 0 0 0 0 0 
node 1 1 1 3
node 2 3 1 1
node 3 2 1 1
node 4 3 1 1
node 5 2 1 1
node 6 3 0 2
node 7 2 0 2
node 9 1 0 0
node 21 1 0 0
node 28 1 0 0
node 34 1 0 0
node 51 1 0 0
node 56 1 0 0
node 137 1 0 0
node 147 1 0 0
gene 1 1 6 -3.08234 0 1 -3.08234 1
gene 3 2 6 -2.61405 0 2 -2.61405 1
gene 1 3 6 4.54805 0 3 4.54805 1
gene 3 4 6 5.84225 0 4 5.84225 1
gene 1 5 6 -2.26439 0 5 -2.26439 1
gene 3 1 7 0.824385 0 6 0.824385 1
gene 1 2 7 -1.30222 0 7 -1.30222 1
gene 3 3 7 -5.19351 0 8 -5.19351 1
gene 3 4 7 -6.7944 0 9 -6.7944 0
gene 1 5 7 -8 0 10 -8 1
gene 3 4 9 2.55818 0 15 2.55818 0
gene 3 9 6 -2.60086 0 16 -2.60086 1
gene 3 4 21 -1.17299 0 50 -1.17299 1
gene 3 21 7 4.43217 0 51 4.43217 1
gene 3 21 9 -7.05555 0 62 -7.05555 1
gene 3 2 28 6.61445 0 77 6.61445 1
gene 3 28 6 -1.47661 0 78 -1.47661 1
gene 1 3 34 -1.00487 0 96 -1.00487 1
gene 1 34 6 3.14382 0 97 3.14382 1
gene 3 21 51 0.306013 0 167 0.306013 1
gene 3 51 7 -0.164473 0 168 -0.164473 1
gene 1 5 56 2.83515 0 188 2.83515 1
gene 1 56 6 0.0683514 0 189 0.0683514 1
gene 3 5 21 1.75766 0 260 1.75766 1
gene 3 1 21 1.96173 0 299 1.96173 1
gene 3 9 137 -0.962125 0 468 -0.962125 1
gene 3 137 6 -1.84314 0 469 -1.84314 1
gene 3 4 147 1 0 517 1 1
gene 3 147 9 0.292378 0 518 0.292378 1
gene 3 7 137 0.302855 0 685 0.302855 1
gene 1 7 56 -1.15732 0 703 -1.15732 1
gene 3 28 7 0.403365 0 724 0.403365 1
genomeend 29

/* Organism #30 Fitness: 87 Error: 0 */
genomestart 30
trait 1 0.1 0 0.447402 0 0 0 0 0 
trait 2 0.2 0 0 0 0 0 0 0 
trait 3 0.3 0 0 0 0 0 0 0 
node 1 1 1 3
node 2 3 1 1
node 3 2 1 1
node 4 3 1 1
node 5 2 1 1
node 6 3 0 2
node 7 2 0 2
node 9 1 0 0
node 21 1 0 0
node 28 1 0 0
node 34 1 0 0
node 51 1 0 0
node 56 1 0 0
node 137 1 0 0
node 147 1 0 0
gene 1 1 6 -4.06601 0 1 -4.06601 1
gene 3 2 6 -1.96667 0 2 -1.96667 1
gene 1 3 6 1.02343 0 3 1.02343 1
gene 3 4 6 6.68591 0 4 6.68591 1
gene 1 5 6 -4.1683 0 5 -4.1683 1
gene 3 1 7 0.265655 0 6 0.265655 1
gene 1 2 7 -0.445316 0 7 -0.445316 1
gene 3 3 7 -5.0675 0 8 -5.0675 1
gene 3 4 7 -4.34751 0 9 -4.34751 0
gene 1 5 7 -8 0 10 -8 1
gene 3 4 9 -2.13239 0 15 -2.13239 0
gene 3 9 6 -3.6705 0 16 -3.6705 1
gene 3 4 21 0.54997 0 50 0.54997 1
gene 3 21 7 2.57207 0 51 2.57207 1
gene 3 21 9 -8 0 62 -8 1
gene 3 2 28 8 0 77 8 1
gene 3 28 6 0.553796 0 78 0.553796 1
gene 1 3 34 0.544563 0 96 0.544563 1
gene 1 34 6 5.34425 0 97 5.34425 1
gene 3 21 51 0.949719 0 167 0.949719 1
gene 3 51 7 0.767142 0 168 0.767142 1
gene 1 5 56 4.14246 0 188 4.14246 1
gene 1 56 6 -0.842415 0 189 -0.842415 1
gene 3 5 21 2.11579 0 260 2.11579 1
gene 3 1 21 -1.37425 0 299 -1.37425 1
gene 3 9 137 -0.703801 0 468 -0.703801 1
gene 3 137 6 -1.84314 0 469 -1.84314 1
gene 3 4 147 0.756837 0 517 0.756837 1
gene 3 147 9 2.76078 0 518 2.76078 1
gene 3 7 137 -2.78851 0 685 -2.78851 1
genomeend 30

/* Organism #31 Fitness: 86 Error: 0 */
genomestart 31
trait 1 0.1 0 0.447402 0 0 0 0 0 
trait 2 0.2 0 0 0 0 0 0 0 
trait 3 0.3 0 0 0 0 0 0 0 
node 1 1 1 3
node 2 3 1 1
node 3 2 1 1
node 4 3 1 1
node 5 2 1 1
node 6 3 0 2
node 7 2 0 2
node 9 1 0 0
node 21 1 0 0
node 28 1 0 0
node 34 1 0 0
node 51 1 0 0
node 56 1 0 0
node 137 1 0 0
node 147 1 0 0
gene 1 1 6 -3.57303 0 1 -3.57303 1
gene 3 2 6 -0.941761 0 2 -0.941761 1
gene 1 3 6 0.497533 0 3 0.497533 1
gene 3 4 6 6.12689 0 4 6.12689 1
gene 1 5 6 -1.16225 0 5 -1.16225 1
gene 3 1 7 -2.2837 0 6 -2.2837 1
gene 1 2 7 -2.77231 0 7 -2.77231 1
gene 3 3 7 -1.74924 0 8 -1.74924 1
gene 3 4 7 -4.74644 0 9 -4.74644 0
gene 1 5 7 -8 0 10 -8 1
gene 3 4 9 0.362792 0 15 0.362792 1
gene 3 9 6 -2.98493 0 16 -2.98493 0
gene 3 4 21 -1.2343 0 50 -1.2343 1
gene 3 21 7 3.67882 0 51 3.67882 1
gene 3 21 9 -5.91547 0 62 -5.91547 1
gene 3 2 28 8 0 77 8 1
gene 3 28 6 -3.8129 0 78 -3.8129 1
gene 1 3 34 1.94749 0 96 1.94749 1
gene 1 34 6 5.92278 0 97 5.92278 1
gene 3 21 51 1.28882 0 167 1.28882 1
gene 3 51 7 -2.82583 0 168 -2.82583 1
gene 1 5 56 1.57985 0 188 1.57985 1
gene 1 56 6 -3.81291 0 189 -3.81291 1
gene 3 5 21 0.916999 0 260 0.916999 1
gene 3 1 21 -0.347565 0 299 -0.347565 1
gene 3 9 137 -0.598777 0 468 -0.598777 1
gene 3 137 6 -3.83614 0 469 -3.83614 1
gene 3 4 147 0.583515 0 517 0.583515 1
gene 3 147 9 0.292378 0 518 0.292378 1
gene 3 7 137 -0.715251 0 685 -0.715251 1
genomeend 31

/* Organism #32 Fitness: 61 Error: 0 */
genomestart 32
trait 1 0.1 0 0.447402 0 0 0 0 0 
trait 2 0.2 0 0 0 0 0 0 0 
trait 3 0.3 0 0 0 0 0 0 0 
node 1 1 1 3
node 2 3 1 1
node 3 2 1 1
node 4 3 1 1
node 5 2 1 1
node 6 1 0 2
node 7 2 0 2
node 9 1 0 0
node 21 1 0 0
node 28 1 0 0
node 34 1 0 0
node 51 1 0 0
node 56 1 0 0
node 137 1 0 0
node 147 1 0 0
gene 1 1 6 -7.7142 0 1 -7.7142 1
gene 3 2 6 -1.79673 0 2 -1.79673 1
gene 1 3 6 0.719295 0 3 0.719295 1
gene 3 4 6 5.19904 0 4 5.19904 1
gene 1 5 6 2.25344 0 5 2.25344 1
gene 3 1 7 -0.7061 0 6 -0.7061 1
gene 1 2 7 0.525139 0 7 0.525139 1
gene 3 3 7 -2.49443 0 8 -2.49443 1
gene 3 4 7 -3.11875 0 9 -3.11875 0
gene 1 5 7 -6.95469 0 10 -6.95469 1
gene 3 4 9 -0.985451 0 15 -0.985451 0
gene 3 9 6 -2.97715 0 16 -2.97715 1
gene 3 4 21 3.55801 0 50 3.55801 1
gene 3 21 7 0.912224 0 51 0.912224 1
gene 3 21 9 -6.97679 0 62 -6.97679 1
gene 3 2 28 3.36235 0 77 3.36235 1
gene 3 28 6 -0.570593 0 78 -0.570593 1
gene 1 3 34 1.7936 0 96 1.7936 1
gene 1 34 6 4.79936 0 97 4.79936 1
gene 3 21 51 3.38287 0 167 3.38287 1
gene 3 51 7 -0.669364 0 168 -0.669364 1
gene 1 5 56 1.9844 0 188 1.9844 1
gene 1 56 6 1.22772 0 189 1.22772 1
gene 3 5 21 5.60999 0 260 5.60999 1
gene 3 1 21 2.47783 0 299 2.47783 1
gene 3 9 137 4.12956 0 468 4.12956 1
gene 3 137 6 -1.84314 0 469 -1.84314 1
gene 3 4 147 -0.832813 0 517 -0.832813 1
gene 3 147 9 1.63717 0 518 1.63717 1
gene 3 7 137 -1.02195 0 685 -1.02195 1
genomeend 32

/* Organism #33 Fitness: 7 Error: 0 */
genomestart 33
trait 1 0.1 0 0.447402 0 0 0 0 0 
trait 2 0.2 0 0 0 0 0 0 0 
trait 3 0.3 0 0 0 0 0 0 0 
node 1 1 1 3
node 2 3 1 1
node 3 2 1 1
node 4 3 1 1
node 5 2 1 1
node 6 3 0 2
node 7 2 0 2
node 9 1 0 0
node 21 1 0 0
node 28 1 0 0
node 34 1 0 0
node 51 1 0 0
node 56 1 0 0
node 137 1 0 0
node 147 1 0 0
gene 1 1 6 -5.95384 0 1 -5.95384 1
gene 3 2 6 -2.2549 0 2 -2.2549 1
gene 1 3 6 3.06048 0 3 3.06048 1
gene 3 4 6 2.84732 0 4 2.84732 1
gene 1 5 6 -4.01884 0 5 -4.01884 1
gene 3 1 7 -2.33879 0 6 -2.33879 1
gene 1 2 7 -0.909313 0 7 -0.909313 1
gene 3 3 7 -2.65189 0 8 -2.65189 1
gene 3 4 7 -5.41816 0 9 -5.41816 0
gene 1 5 7 -5.78708 0 10 -5.78708 1
gene 3 4 9 0.292378 0 15 0.292378 0
gene 3 9 6 -5.58086 0 16 -5.58086 0
gene 3 4 21 -0.898787 0 50 -0.898787 1
gene 3 21 7 5.43075 0 51 5.43075 1
gene 3 21 9 -6.45853 0 62 -6.45853 1
gene 3 2 28 1.26811 0 77 1.26811 1
gene 3 28 6 -1.60049 0 78 -1.60049 1
gene 1 3 34 3.10883 0 96 3.10883 1
gene 1 34 6 4.92143 0 97 4.92143 1
gene 3 21 51 2.42647 0 167 2.42647 1
gene 3 51 7 0.0599979 0 168 0.0599979 1
gene 1 5 56 -0.245166 0 188 -0.245166 1
gene 1 56 6 1.08602 0 189 1.08602 1
gene 3 5 21 0.752739 0 260 0.752739 1
gene 3 1 21 -2.35169 0 299 -2.35169 1
gene 3 9 137 -1.09828 0 468 -1.09828 1
gene 3 137 6 -3.47201 0 469 -3.47201 1
gene 3 4 147 1.71495 0 517 1.71495 1
gene 3 147 9 -1.20575 0 518 -1.20575 1
gene 3 7 137 -2.06659 0 685 -2.06659 1
genomeend 33

/* Organism #34 Fitness: 137 Error: 0 */
genomestart 34
trait 1 0.1 0 0.447402 0 0 0 0 0 
trait 2 0.2 0 0 0 0 0 0 0 
trait 3 0.3 0 0 0 0 0 0 0 
node 1 1 1 3
node 2 3 1 1
node 3 2 1 1
node 4 3 1 1
node 5 2 1 1
node 6 3 0 2
node 7 2 0 2
node 9 1 0 0
node 21 1 0 0
node 28 1 0 0
node 34 1 0 0
node 51 1 0 0
node 56 1 0 0
node 137 1 0 0
node 147 1 0 0
gene 1 1 6 -7.8346 0 1 -7.8346 1
gene 3 2 6 -1.30557 0 2 -1.30557 1
gene 1 3 6 1.25252 0 3 1.25252 1
gene 3 4 6 4.9979 0 4 4.9979 1
gene 1 5 6 2.01083 0 5 2.01083 1
gene 3 1 7 1.36364 0 6 1.36364 1
gene 1 2 7 -0.446902 0 7 -0.446902 1
gene 3 3 7 -3.81237 0 8 -3.81237 1
gene 3 4 7 -4.3405 0 9 -4.3405 0
gene 1 5 7 -6.06372 0 10 -6.06372 1
gene 3 4 9 -0.284803 0 15 -0.284803 0
gene 3 9 6 -4.13233 0 16 -4.13233 1
gene 3 4 21 4.10678 0 50 4.10678 1
gene 3 21 7 -0.586656 0 51 -0.586656 1
gene 3 21 9 -8 0 62 -8 1
gene 3 2 28 3.95787 0 77 3.95787 1
gene 3 28 6 2.10648 0 78 2.10648 1
gene 1 3 34 3.51202 0 96 3.51202 1
gene 1 34 6 4.50443 0 97 4.50443 1
gene 3 21 51 1.539 0 167 1.539 1
gene 3 51 7 -3.0506 0 168 -3.0506 1
gene 1 5 56 2.74751 0 188 2.74751 1
gene 1 56 6 1.8116 0 189 1.8116 1
gene 3 5 21 4.04297 0 260 4.04297 1
gene 3 1 21 -1.3088 0 299 -1.3088 1
gene 3 9 137 2.86502 0 468 2.86502 1
gene 3 137 6 -4.24106 0 469 -4.24106 1
gene 3 4 147 -1.22188 0 517 -1.22188 1
gene 3 147 9 -2.95652 0 518 -2.95652 1
gene 3 7 137 -2.11926 0 685 -2.11926 1
genomeend 34

/* Organism #35 Fitness: 72 Error: 0 */
genomestart 35
trait 1 0.1 0 0.447402 0 0 0 0 0 
trait 2 0.2 0 0 0 0 0 0 0 
trait 3 0.3 0 0 0 0 0 0 0 
node 1 1 1 3
node 2 3 1 1
node 3 2 1 1
node 4 3 1 1
node 5 2 1 1
node 6 3 0 2
node 7 2 0 2
node 9 1 0 0
node 21 1 0 0
node 28 1 0 0
node 34 1 0 0
node 51 1 0 0
node 56 1 0 0
node 137 1 0 0
node 147 1 0 0
gene 1 1 6 -5.40154 0 1 -5.40154 1
gene 3 2 6 0.579857 0 2 0.579857 1
gene 1 3 6 4.95596 0 3 4.95596 1
gene 3 4 6 4.4215 0 4 4.4215 1
gene 1 5 6 -3.12042 0 5 -3.12042 1
gene 3 1 7 -1.52375 0 6 -1.52375 1
gene 1 2 7 -1.25436 0 7 -1.25436 1
gene 3 3 7 -2.77925 0 8 -2.77925 1
gene 3 4 7 0.10935 0 9 0.10935 0
gene 1 5 7 -5.62579 0 10 -5.62579 1
gene 3 4 9 0.987254 0 15 0.987254 0
gene 3 9 6 -3.40064 0 16 -3.40064 0
gene 3 4 21 1.43784 0 50 1.43784 1
gene 3 21 7 -0.576425 0 51 -0.576425 1
gene 3 21 9 -6.91085 0 62 -6.91085 1
gene 3 2 28 -0.402229 0 77 -0.402229 1
gene 3 28 6 1.74706 0 78 1.74706 1
gene 1 3 34 0.75 0 96 0.75 1
gene 1 34 6 -2.44781 0 97 -2.44781 1
gene 3 21 51 3.47708 0 167 3.47708 1
gene 3 51 7 -1.028 0 168 -1.028 1
gene 1 5 56 3.27324 0 188 3.27324 1
gene 1 56 6 -1.40897 0 189 -1.40897 1
gene 3 5 21 1.76385 0 260 1.76385 1
gene 3 1 21 -2.39934 0 299 -2.39934 1
gene 3 9 137 0.944023 0 468 0.944023 1
gene 3 137 6 -2.20249 0 469 -2.20249 1
gene 3 4 147 1.60161 0 517 1.60161 1
gene 3 147 9 -0.122844 0 518 -0.122844 1
gene 3 7 137 -0.384036 0 685 -0.384036 1
gene 1 7 56 -1.98865 0 703 -1.98865 1
genomeend 35

/* Organism #36 Fitness: 55 Error: 0 */
genomestart 36
trait 1 0.1 0 0.447402 0 0 0 0 0 
trait 2 0.2 0 0 0 0 0 0 0 
trait 3 0.3 0 0 0 0 0 0 0 
node 1 1 1 3
node 2 3 1 1
node 3 2 1 1
node 4 3 1 1
node 5 2 1 1
node 6 3 0 2
node 7 2 0 2
node 9 1 0 0
node 21 1 0 0
node 28 1 0 0
node 34 1 0 0
node 51 1 0 0
node 56 1 0 0
node 137 1 0 0
node 147 1 0 0
gene 1 1 6 -7.52523 0 1 -7.52523 1
gene 3 2 6 -3.46362 0 2 -3.46362 1
gene 1 3 6 4.74466 0 3 4.74466 1
gene 3 4 6 3.20803 0 4 3.20803 1
gene 1 5 6 -0.724537 0 5 -0.724537 1
gene 3 1 7 -1.34316 0 6 -1.34316 1
gene 1 2 7 -0.960787 0 7 -0.960787 1
gene 3 3 7 -1.52294 0 8 -1.52294 1
gene 3 4 7 -3.99955 0 9 -3.99955 0
gene 1 5 7 -8 0 10 -8 1
gene 3 4 9 0.256623 0 15 0.256623 0
gene 3 9 6 -1.61195 0 16 -1.61195 0
gene 3 4 21 0.371372 0 50 0.371372 1
gene 3 21 7 1.58708 0 51 1.58708 1
gene 3 21 9 -8 0 62 -8 1
gene 3 2 28 6.60439 0 77 6.60439 1
gene 3 28 6 -1.95099 0 78 -1.95099 1
gene 1 3 34 1.59813 0 96 1.59813 1
gene 1 34 6 2.00451 0 97 2.00451 1
gene 3 21 51 -0.975771 0 167 -0.975771 1
gene 3 51 7 -0.569329 0 168 -0.569329 1
gene 1 5 56 1.57533 0 188 1.57533 1
gene 1 56 6 -3.39496 0 189 -3.39496 1
gene 3 5 21 2.68589 0 260 2.68589 1
gene 3 1 21 -0.380844 0 299 -0.380844 1
gene 3 9 137 0.556959 0 468 0.556959 1
gene 3 137 6 -1.84314 0 469 -1.84314 1
gene 3 4 147 -0.142179 0 517 -0.142179 1
gene 3 147 9 0.321936 0 518 0.321936 1
gene 3 7 137 -2.07512 0 685 -2.07512 1
gene 1 7 56 -1.87271 0 703 -1.87271 1
genomeend 36

/* Organism #37 Fitness: 57 Error: 0 */
genomestart 37
trait 1 0.1 0 0.447402 0 0 0 0 0 
trait 2 0.2 0 0 0 0 0 0 0 
trait 3 0.3 0 0 0 0 0 0 0 
node 1 1 1 3
node 2 3 1 1
node 3 2 1 1
node 4 3 1 1
node 5 2 1 1
node 6 3 0 2
node 7 2 0 2
node 9 1 0 0
node 21 1 0 0
node 28 1 0 0
node 34 1 0 0
node 51 1 0 0
node 56 1 0 0
node 137 1 0 0
node 147 1 0 0
gene 1 1 6 -4.34667 0 1 -4.34667 1
gene 3 2 6 1.41775 0 2 1.41775 1
gene 1 3 6 2.25213 0 3 2.25213 1
gene 3 4 6 2.34433 0 4 2.34433 1
gene 1 5 6 -4.24407 0 5 -4.24407 1
gene 3 1 7 2.04425 0 6 2.04425 1
gene 1 2 7 -3.55961 0 7 -3.55961 1
gene 3 3 7 -3.8707 0 8 -3.8707 1
gene 3 4 7 -5.27682 0 9 -5.27682 0
gene 1 5 7 -8 0 10 -8 1
gene 3 4 9 0.00133113 0 15 0.00133113 1
gene 3 9 6 -4.25586 0 16 -4.25586 0
gene 3 4 21 0.24406 0 50 0.24406 1
gene 3 21 7 3.43219 0 51 3.43219 1
gene 3 21 9 -8 0 62 -8 1
gene 3 2 28 7.13566 0 77 7.13566 1
gene 3 28 6 0.667471 0 78 0.667471 1
gene 1 3 34 0.635333 0 96 0.635333 1
gene 1 34 6 -0.520507 0 97 -0.520507 1
gene 3 21 51 -0.108474 0 167 -0.108474 1
gene 3 51 7 -0.402426 0 168 -0.402426 1
gene 1 5 56 4.40706 0 188 4.40706 1
gene 1 56 6 0.778192 0 189 0.778192 1
gene 3 5 21 -0.659572 0 260 -0.659572 1
gene 3 1 21 -2.43032 0 299 -2.43032 1
gene 3 9 137 -0.499091 0 468 -0.499091 1
gene 3 137 6 -1.85621 0 469 -1.85621 1
gene 3 4 147 2.69193 0 517 2.69193 1
gene 3 147 9 -0.10113 0 518 -0.10113 1
gene 3 7 137 -2.32182 0 685 -2.32182 1
gene 1 7 56 2.29867 0 703 2.29867 1
genomeend 37

/* Organism #38 Fitness: 70 Error: 0 */
genomestart 38
trait 1 0.1 0 0.447402 0 0 0 0 0 
trait 2 0.2 0 0 0 0 0 0 0 
trait 3 0.3 0 0 0 0 0 0 0 
node 1 1 1 3
node 2 3 1 1
node 3 2 1 1
node 4 3 1 1
node 5 2 1 1
node 6 3 0 2
node 7 2 0 2
node 9 1 0 0
node 21 1 0 0
node 28 1 0 0
node 34 1 0 0
node 51 1 0 0
node 56 1 0 0
node 137 1 0 0
node 147 1 0 0
gene 1 1 6 -7.23211 0 1 -7.23211 1
gene 3 2 6 -1.37069 0 2 -1.37069 1
gene 1 3 6 0.556994 0 3 0.556994 1
gene 3 4 6 5.23111 0 4 5.23111 1
gene 1 5 6 -2.73103 0 5 -2.73103 1
gene 3 1 7 0.655431 0 6 0.655431 1
gene 1 2 7 -2.20544 0 7 -2.20544 1
gene 3 3 7 -0.421294 0 8 -0.421294 1
gene 3 4 7 -4.38654 0 9 -4.38654 0
gene 1 5 7 -1.50476 0 10 -1.50476 1
gene 3 4 9 1.35707 0 15 1.35707 0
gene 3 9 6 -4.04843 0 16 -4.04843 0
gene 3 4 21 2.17072 0 50 2.17072 1
gene 3 21 7 2.02527 0 51 2.02527 1
gene 3 21 9 -5.55592 0 62 -5.55592 1
gene 3 2 28 7.19925 0 77 7.19925 1
gene 3 28 6 1.28016 0 78 1.28016 1
gene 1 3 34 1.27817 0 96 1.27817 1
gene 1 34 6 5.35912 0 97 5.35912 1
gene 3 21 51 2.19809 0 167 2.19809 1
gene 3 51 7 1.07953 0 168 1.07953 1
gene 1 5 56 1.08139 0 188 1.08139 1
gene 1 56 6 -1.40897 0 189 -1.40897 1
gene 3 5 21 2.66543 0 260 2.66543 1
gene 3 1 21 -0.852346 0 299 -0.852346 1
gene 3 9 137 1.43561 0 468 1.43561 1
gene 3 137 6 -3.06955 0 469 -3.06955 1
gene 3 4 147 -0.801458 0 517 -0.801458 1
gene 3 147 9 0.554422 0 518 0.554422 1
gene 3 7 137 1.68059 0 685 1.68059 1
genomeend 38

/* Organism #39 Fitness: 57 Error: 0 */
genomestart 39
trait 1 0.1 0 0.447402 0 0 0 0 0 
trait 2 0.2 0 0 0 0 0 0 0 
trait 3 0.3 0 0 0 0 0 0 0 
node 1 1 1 3
node 2 3 1 1
node 3 2 1 1
node 4 3 1 1
node 5 2 1 1
node 6 3 0 2
node 7 2 0 2
node 9 1 0 0
node 21 1 0 0
node 28 1 0 0
node 34 1 0 0
node 51 1 0 0
node 56 1 0 0
node 137 1 0 0
node 147 1 0 0
gene 1 1 6 -7.10522 0 1 -7.10522 1
gene 3 2 6 -0.65878 0 2 -0.65878 1
gene 1 3 6 3.41932 0 3 3.41932 1
gene 3 4 6 1.957 0 4 1.957 1
gene 1 5 6 0.693939 0 5 0.693939 1
gene 3 1 7 -2.32287 0 6 -2.32287 1
gene 1 2 7 -1.32202 0 7 -1.32202 1
gene 3 3 7 2.2531 0 8 2.2531 1
gene 3 4 7 -3.70977 0 9 -3.70977 0
gene 1 5 7 -7.50232 0 10 -7.50232 1
gene 3 4 9 -0.0958587 0 15 -0.0958587 0
gene 3 9 6 -2.43665 0 16 -2.43665 0
gene 3 4 21 3.38738 0 50 3.38738 1
gene 3 21 7 -2.14094 0 51 -2.14094 1
gene 3 21 9 0.980588 0 62 0.980588 1
gene 3 2 28 8 0 77 8 1
gene 3 28 6 0.407196 0 78 0.407196 1
gene 1 3 34 3.20889 0 96 3.20889 1
gene 1 34 6 0.430941 0 97 0.430941 1
gene 3 21 51 2.70888 0 167 2.70888 1
gene 3 51 7 2.42505 0 168 2.42505 1
gene 1 5 56 3.53382 0 188 3.53382 1
gene 1 56 6 1.1281 0 189 1.1281 1
gene 3 5 21 1.63706 0 260 1.63706 1
gene 3 1 21 -1.76823 0 299 -1.76823 1
gene 3 9 137 2.71906 0 468 2.71906 1
gene 3 137 6 -2.17289 0 469 -2.17289 1
gene 3 4 147 -1.78208 0 517 -1.78208 1
gene 3 147 9 0.735392 0 518 0.735392 1
gene 3 7 137 1.96724 0 685 1.96724 1
gene 1 7 56 -0.0988118 0 703 -0.0988118 1
genomeend 39

/* Organism #40 Fitness: 5 Error: 0 */
genomestart 40
trait 1 0.1 0 0.447402 0 0 0 0 0 
trait 2 0.2 0 0 0 0 0 0 0 
trait 3 0.3 0 0 0 0 0 0 0 
node 1 1 1 3
node 2 3 1 1
node 3 2 1 1
node 4 3 1 1
node 5 2 1 1
node 6 3 0 2
node 7 2 0 2
node 9 1 0 0
node 21 1 0 0
node 28 1 0 0
node 34 1 0 0
node 51 1 0 0
node 56 1 0 0
node 137 1 0 0
node 147 1 0 0
gene 1 1 6 0.571955 0 1 0.571955 1
gene 3 2 6 -0.163498 0 2 -0.163498 1
gene 1 3 6 -1.1894 0 3 -1.1894 1
gene 3 4 6 2.39114 0 4 2.39114 1
gene 1 5 6 -2.04783 0 5 -2.04783 1
gene 3 1 7 -0.989945 0 6 -0.989945 1
gene 1 2 7 -0.200038 0 7 -0.200038 1
gene 3 3 7 -3.8707 0 8 -3.8707 1
gene 3 4 7 -5.4321 0 9 -5.4321 0
gene 1 5 7 -8 0 10 -8 1
gene 3 4 9 0.375932 0 15 0.375932 0
gene 3 9 6 -4.25586 0 16 -4.25586 1
gene 3 4 21 1.33265 0 50 1.33265 1
gene 3 21 7 1.7786 0 51 1.7786 1
gene 3 21 9 -8 0 62 -8 1
gene 3 2 28 7.27882 0 77 7.27882 1
gene 3 28 6 -2.88405 0 78 -2.88405 1
gene 1 3 34 -1.03554 0 96 -1.03554 1
gene 1 34 6 6.19345 0 97 6.19345 1
gene 3 21 51 1.29545 0 167 1.29545 1
gene 3 51 7 -2.24224 0 168 -2.24224 1
gene 1 5 56 2.36838 0 188 2.36838 1
gene 1 56 6 -1.49682 0 189 -1.49682 1
gene 3 5 21 1.45404 0 260 1.45404 1
gene 3 1 21 -2.44261 0 299 -2.44261 1
gene 3 9 137 3.84633 0 468 3.84633 1
gene 3 137 6 0.420419 0 469 0.420419 1
gene 3 4 147 0.799541 0 517 0.799541 1
gene 3 147 9 0.57908 0 518 0.57908 1
gene 3 7 137 -1.94078 0 685 -1.94078 1
genomeend 40

/* Organism #41 Fitness: 60 Error: 0 */
genomestart 41
trait 1 0.1 0 0.447402 0 0 0 0 0 
trait 2 0.2 0 0 0 0 0 0 0 
trait 3 0.3 0 0 0 0 0 0 0 
node 1 1 1 3
node 2 3 1 1
node 3 2 1 1
node 4 3 1 1
node 5 2 1 1
node 6 3 0 2
node 7 2 0 2
node 9 1 0 0
node 21 1 0 0
node 28 1 0 0
node 34 1 0 0
node 51 1 0 0
node 56 1 0 0
node 137 1 0 0
node 147 1 0 0
gene 1 1 6 -3.00164 0 1 -3.00164 1
gene 3 2 6 -0.883702 0 2 -0.883702 1
gene 1 3 6 2.79757 0 3 2.79757 1
gene 3 4 6 5.03418 0 4 5.03418 1
gene 1 5 6 -3.00286 0 5 -3.00286 1
gene 3 1 7 -1.85461 0 6 -1.85461 1
gene 1 2 7 -4.56859 0 7 -4.56859 1
gene 3 3 7 -3.10712 0 8 -3.10712 1
gene 3 4 7 -4.91854 0 9 -4.91854 0
gene 1 5 7 -7.38732 0 10 -7.38732 1
gene 3 4 9 -2.0353 0 15 -2.0353 0
gene 3 9 6 -2.69514 0 16 -2.69514 1
gene 3 4 21 0.294208 0 50 0.294208 1
gene 3 21 7 6.02473 0 51 6.02473 1
gene 3 21 9 -7.17927 0 62 -7.17927 1
gene 3 2 28 6.78692 0 77 6.78692 1
gene 3 28 6 -3.91516 0 78 -3.91516 1
gene 1 3 34 1.57706 0 96 1.57706 1
gene 1 34 6 6.54263 0 97 6.54263 1
gene 3 21 51 0.334332 0 167 0.334332 1
gene 3 51 7 1.42685 0 168 1.42685 1
gene 1 5 56 5.07362 0 188 5.07362 1
gene 1 56 6 -3.46308 0 189 -3.46308 1
gene 3 5 21 4.06055 0 260 4.06055 1
gene 3 1 21 -2.40822 0 299 -2.40822 1
gene 3 9 137 1.35455 0 468 1.35455 1
gene 3 137 6 -1.36957 0 469 -1.36957 1
gene 3 4 147 -2.35981 0 517 -2.35981 1
gene 3 147 9 1.25278 0 518 1.25278 1
gene 3 7 137 -1.82013 0 685 -1.82013 1
genomeend 41

/* Organism #42 Fitness: 6 Error: 0 */
genomestart 42
trait 1 0.1 0 0.447402 0 0 0 0 0 
trait 2 0.2 0 0 0 0 0 0 0 
trait 3 0.3 0 0 0 0 0 0 0 
node 1 1 1 3
node 2 3 1 1
node 3 2 1 1
node 4 3 1 1
node 5 2 1 1
node 6 3 0 2
node 7 2 0 2
node 9 1 0 0
node 21 1 0 0
node 28 1 0 0
node 34 1 0 0
node 51 1 0 0
node 56 1 0 0
node 137 1 0 0
node 147 1 0 0
gene 1 1 6 -3.04633 0 1 -3.04633 1
gene 3 2 6 -5.45715 0 2 -5.45715 1
gene 1 3 6 1.98163 0 3 1.98163 1
gene 3 4 6 1.95333 0 4 1.95333 1
gene 1 5 6 -3.42271 0 5 -3.42271 1
gene 3 1 7 -0.556815 0 6 -0.556815 1
gene 1 2 7 -4.18487 0 7 -4.18487 1
gene 3 3 7 -3.96018 0 8 -3.96018 1
gene 3 4 7 -7.05705 0 9 -7.05705 0
gene 1 5 7 -8 0 10 -8 1
gene 3 4 9 0.709283 0 15 0.709283 0
gene 3 9 6 -4.25586 0 16 -4.25586 1
gene 3 4 21 -0.541465 0 50 -0.541465 1
gene 3 21 7 1.87441 0 51 1.87441 1
gene 3 21 9 -4.97958 0 62 -4.97958 1
gene 3 2 28 8 0 77 8 1
gene 3 28 6 -3.10662 0 78 -3.10662 1
gene 1 3 34 1.06225 0 96 1.06225 1
gene 1 34 6 3.0477 0 97 3.0477 1
gene 3 21 51 1.73345 0 167 1.73345 1
gene 3 51 7 -1.36406 0 168 -1.36406 1
gene 1 5 56 3.27324 0 188 3.27324 1
gene 1 56 6 0.0151262 0 189 0.0151262 1
gene 3 5 21 3.78148 0 260 3.78148 1
gene 3 1 21 -0.419349 0 299 -0.419349 1
gene 3 9 137 1.39973 0 468 1.39973 1
gene 3 137 6 -2.8448 0 469 -2.8448 1
gene 3 4 147 -0.295243 0 517 -0.295243 1
gene 3 147 9 0.292378 0 518 0.292378 1
gene 3 7 137 0.18044 0 685 0.18044 1
genomeend 42

/* Organism #43 Fitness: 75 Error: 0 */
genomestart 43
trait 1 0.1 0 0.447402 0 0 0 0 0 
trait 2 0.2 0 0 0 0 0 0 0 
trait 3 0.3 0 0 0 0 0 0 0 
node 1 1 1 3
node 2 3 1 1
node 3 2 1 1
node 4 3 1 1
node 5 2 1 1
node 6 3 0 2
node 7 2 0 2
node 9 1 0 0
node 21 1 0 0
node 28 1 0 0
node 34 1 0 0
node 51 1 0 0
node 56 1 0 0
node 137 1 0 0
node 147 1 0 0
gene 1 1 6 -7.23036 0 1 -7.23036 1
gene 3 2 6 0.195028 0 2 0.195028 1
gene 1 3 6 3.94459 0 3 3.94459 1
gene 3 4 6 4.87572 0 4 4.87572 1
gene 1 5 6 -2.78539 0 5 -2.78539 1
gene 3 1 7 2.44917 0 6 2.44917 1
gene 1 2 7 0.458445 0 7 0.458445 1
gene 3 3 7 -5.08244 0 8 -5.08244 1
gene 3 4 7 -6.21218 0 9 -6.21218 0
gene 1 5 7 -8 0 10 -8 1
gene 3 4 9 -1.35758 0 15 -1.35758 1
gene 3 9 6 -2.38755 0 16 -2.38755 1
gene 3 4 21 3.47149 0 50 3.47149 1
gene 3 21 7 4.72747 0 51 4.72747 1
gene 3 21 9 -4.79866 0 62 -4.79866 1
gene 3 2 28 5.96094 0 77 5.96094 1
gene 3 28 6 0.0313067 0 78 0.0313067 1
gene 1 3 34 3.04436 0 96 3.04436 1
gene 1 34 6 2.63905 0 97 2.63905 1
gene 3 21 51 1.1653 0 167 1.1653 1
gene 3 51 7 -1.91302 0 168 -1.91302 1
gene 1 5 56 1.65361 0 188 1.65361 1
gene 1 56 6 -0.608822 0 189 -0.608822 1
gene 3 5 21 1.30158 0 260 1.30158 1
gene 3 1 21 -1.38089 0 299 -1.38089 1
gene 3 9 137 -1.64774 0 468 -1.64774 1
gene 3 137 6 -1.84314 0 469 -1.84314 1
gene 3 4 147 -0.110939 0 517 -0.110939 1
gene 3 147 9 -0.665765 0 518 -0.665765 1
gene 3 7 137 -0.429498 0 685 -0.429498 1
gene 1 7 56 -2.15937 0 703 -2.15937 1
genomeend 43

/* Organism #44 Fitness: 6 Error: 0 */
genomestart 44
trait 1 0.1 0 0.447402 0 0 0 0 0 
trait 2 0.2 0 0 0 0 0 0 0 
trait 3 0.3 0 0 0 0 0 0 0 
node 1 1 1 3
node 2 3 1 1
node 3 2 1 1
node 4 3 1 1
node 5 2 1 1
node 6 3 0 2
node 7 2 0 2
node 9 1 0 0
node 21 1 0 0
node 28 1 0 0
node 34 1 0 0
node 51 1 0 0
node 56 1 0 0
node 137 1 0 0
node 147 1 0 0
gene 1 1 6 -4.76623 0 1 -4.76623 1
gene 3 2 6 -5.50179 0 2 -5.50179 1
gene 1 3 6 4.55737 0 3 4.55737 1
gene 3 4 6 5.92278 0 4 5.92278 1
gene 1 5 6 -1.89134 0 5 -1.89134 1
gene 3 1 7 1.16115 0 6 1.16115 1
gene 1 2 7 -2.79838 0 7 -2.79838 1
gene 3 3 7 -5.18278 0 8 -5.18278 1
gene 3 4 7 -3.93346 0 9 -3.93346 0
gene 1 5 7 -6.70379 0 10 -6.70379 1
gene 3 4 9 -0.556548 0 15 -0.556548 1
gene 3 9 6 -2.62433 0 16 -2.62433 1
gene 3 4 21 2.83523 0 50 2.83523 1
gene 3 21 7 1.84667 0 51 1.84667 1
gene 3 21 9 -4.85779 0 62 -4.85779 1
gene 3 2 28 8 0 77 8 1
gene 3 28 6 0.0440282 0 78 0.0440282 1
gene 1 3 34 2.46143 0 96 2.46143 1
gene 1 34 6 4.93618 0 97 4.93618 1
gene 3 21 51 2.42094 0 167 2.42094 1
gene 3 51 7 -1.21832 0 168 -1.21832 1
gene 1 5 56 5.56522 0 188 5.56522 1
gene 1 56 6 -1.30563 0 189 -1.30563 1
gene 3 5 21 0.831125 0 260 0.831125 1
gene 3 1 21 0.857824 0 299 0.857824 1
gene 3 9 137 1.29537 0 468 1.29537 1
gene 3 137 6 -3.8378 0 469 -3.8378 1
gene 3 4 147 3.21899 0 517 3.21899 1
gene 3 147 9 -1.47205 0 518 -1.47205 1
gene 3 7 137 -2.06174 0 685 -2.06174 1
gene 1 7 56 -0.825556 0 703 -0.825556 1
gene 3 28 7 0.351492 0 724 0.351492 1
genomeend 44

/* Species #39 : (Size 21) (AF 81.619) (Age 6)  */


/* Organism #45 Fitness: 202 Error: 0 */
genomestart 45
trait 1 0.1 0 0.447402 0 0 0 0 0 
trait 2 0.2 0 0 0 0 0 0 0 
trait 3 0.3 0 0 0 0 0 0 0 
node 1 1 1 3
node 2 3 1 1
node 3 2 1 1
node 4 3 1 1
node 5 2 1 1
node 6 3 0 2
node 7 2 0 2
node 9 1 0 0
node 21 1 0 0
node 28 1 0 0
node 34 1 0 0
node 51 1 0 0
node 56 1 0 0
gene 1 1 6 -6.82145 0 1 -6.82145 1
gene 3 2 6 -0.884805 0 2 -0.884805 1
gene 1 3 6 6.13852 0 3 6.13852 1
gene 3 4 6 4.38469 0 4 4.38469 1
gene 1 5 6 -3.46551 0 5 -3.46551 1
gene 3 1 7 0.259072 0 6 0.259072 1
gene 1 2 7 -3.25161 0 7 -3.25161 0
gene 3 3 7 -3.04283 0 8 -3.04283 1
gene 3 4 7 -1.89434 0 9 -1.89434 1
gene 1 5 7 -7.96604 0 10 -7.96604 1
gene 3 4 9 -1.1853 0 15 -1.1853 1
gene 3 9 6 -2.20851 0 16 -2.20851 1
gene 3 4 21 -0.340642 0 50 -0.340642 1
gene 3 21 7 2.74202 0 51 2.74202 1
gene 3 21 9 -5.7177 0 62 -5.7177 1
gene 3 2 28 5.11842 0 77 5.11842 1
gene 3 28 6 -2.96143 0 78 -2.96143 1
gene 1 3 34 -1.18062 0 96 -1.18062 1
gene 1 34 6 1.99242 0 97 1.99242 1
gene 3 21 51 2.3319 0 167 2.3319 1
gene 3 51 7 -3.75394 0 168 -3.75394 1
gene 1 5 56 1.46305 0 188 1.46305 1
gene 1 56 6 -5.21613 0 189 -5.21613 1
gene 3 5 21 0.196914 0 260 0.196914 1
gene 3 1 21 0.338867 0 299 0.338867 1
gene 2 4 28 0.14563 0 443 0.14563 1
gene 2 51 6 -1.74249 0 607 -1.74249 1
gene 2 56 28 0.328783 0 677 0.328783 1
gene 1 9 7 -0.9524 0 692 -0.9524 1
genomeend 45

/* Organism #46 Fitness: 119 Error: 0 */
genomestart 46
trait 1 0.1 0 0.447402 0 0 0 0 0 
trait 2 0.2 0 0 0 0 0 0 0 
trait 3 0.3 0 0 0 0 0 0 0 
node 1 1 1 3
node 2 3 1 1
node 3 2 1 1
node 4 3 1 1
node 5 2 1 1
node 6 3 0 2
node 7 2 0 2
node 9 1 0 0
node 21 1 0 0
node 28 1 0 0
node 34 1 0 0
node 51 1 0 0
node 56 1 0 0
node 199 1 0 0
gene 1 1 6 -5.17883 0 1 -5.17883 1
gene 3 2 6 0.175406 0 2 0.175406 1
gene 1 3 6 6.52633 0 3 6.52633 1
gene 3 4 6 1.77086 0 4 1.77086 0
gene 1 5 6 -0.736397 0 5 -0.736397 1
gene 3 1 7 -0.091417 0 6 -0.091417 1
gene 1 2 7 -2.72958 0 7 -2.72958 0
gene 3 3 7 -2.99526 0 8 -2.99526 1
gene 3 4 7 -1.42196 0 9 -1.42196 1
gene 1 5 7 -8 0 10 -8 1
gene 3 4 9 -1.16168 0 15 -1.16168 1
gene 3 9 6 -1.04665 0 16 -1.04665 1
gene 3 4 21 -0.771585 0 50 -0.771585 1
gene 3 21 7 3.16629 0 51 3.16629 1
gene 3 21 9 -6.31749 0 62 -6.31749 1
gene 3 2 28 2.54515 0 77 2.54515 1
gene 3 28 6 -0.494859 0 78 -0.494859 1
gene 1 3 34 -1.61395 0 96 -1.61395 1
gene 1 34 6 1.12344 0 97 1.12344 1
gene 3 21 51 4.0974 0 167 4.0974 1
gene 3 51 7 -4.23183 0 168 -4.23183 1
gene 1 5 56 -0.110928 0 188 -0.110928 1
gene 1 56 6 -4.8704 0 189 -4.8704 1
gene 3 5 21 -1.31496 0 260 -1.31496 1
gene 3 1 21 -0.627145 0 299 -0.627145 1
gene 2 4 28 0.265828 0 443 0.265828 1
gene 2 51 6 -2.26385 0 607 -2.26385 0
gene 2 56 28 -1.35884 0 677 -1.35884 1
gene 1 9 7 -0.355751 0 692 -0.355751 1
gene 2 51 199 1 0 736 0 1
gene 2 199 6 -2.26385 0 737 0 1
genomeend 46

/* Organism #47 Fitness: 100 Error: 0 */
genomestart 47
trait 1 0.1 0 0.447402 0 0 0 0 0 
trait 2 0.2 0 0 0 0 0 0 0 
trait 3 0.3 0 0 0 0 0.0762588 0 0 
node 1 1 1 3
node 2 3 1 1
node 3 2 1 1
node 4 3 1 1
node 5 2 1 1
node 6 3 0 2
node 7 2 0 2
node 9 1 0 0
node 21 1 0 0
node 28 1 0 0
node 34 1 0 0
node 51 1 0 0
node 56 1 0 0
gene 1 1 6 -6.82145 0 1 -6.82145 1
gene 3 2 6 -0.884805 0 2 -0.884805 1
gene 1 3 6 6.13852 0 3 6.13852 1
gene 3 4 6 4.38469 0 4 4.38469 1
gene 1 5 6 -3.46551 0 5 -3.46551 1
gene 3 1 7 2.15412 0 6 2.15412 1
gene 1 2 7 -1.01952 0 7 -1.01952 0
gene 3 3 7 -3.04283 0 8 -3.04283 1
gene 3 4 7 -1.05662 0 9 -1.05662 1
gene 1 5 7 -7.96604 0 10 -7.96604 1
gene 3 4 9 -1.1853 0 15 -1.1853 1
gene 3 9 6 -2.20851 0 16 -2.20851 1
gene 3 4 21 -0.340642 0 50 -0.340642 1
gene 3 21 7 2.74202 0 51 2.74202 1
gene 3 21 9 -2.86589 0 62 -2.86589 1
gene 3 2 28 8 0 77 8 1
gene 3 28 6 -2.96143 0 78 -2.96143 1
gene 1 3 34 -1.22514 0 96 -1.22514 1
gene 1 34 6 1.99242 0 97 1.99242 1
gene 3 21 51 1.16033 0 167 1.16033 1
gene 3 51 7 -4.44278 0 168 -4.44278 1
gene 1 5 56 1.46305 0 188 1.46305 1
gene 1 56 6 -5.21613 0 189 -5.21613 1
gene 3 5 21 0.196914 0 260 0.196914 1
gene 3 1 21 0.338867 0 299 0.338867 1
gene 2 4 28 0.14563 0 443 0.14563 1
gene 2 51 6 -1.74249 0 607 -1.74249 1
gene 2 56 28 0.328783 0 677 0.328783 1
gene 1 9 7 -0.9524 0 692 -0.9524 1
genomeend 47

/* Organism #48 Fitness: 5 Error: 0 */
genomestart 48
trait 1 0.1 0 0.447402 0 0 0 0 0 
trait 2 0.2 0 0 0 0 0 0 0 
trait 3 0.3 0 0 0 0 0 0 0 
node 1 1 1 3
node 2 3 1 1
node 3 2 1 1
node 4 3 1 1
node 5 2 1 1
node 6 3 0 2
node 7 2 0 2
node 9 1 0 0
node 21 1 0 0
node 28 3 0 0
node 34 1 0 0
node 51 1 0 0
node 56 1 0 0
gene 1 1 6 -0.689621 0 1 -0.689621 1
gene 3 2 6 -0.995959 0 2 -0.995959 1
gene 1 3 6 8 0 3 8 1
gene 3 4 6 4.71051 0 4 4.71051 0
gene 1 5 6 -1.88614 0 5 -1.88614 1
gene 3 1 7 2.38151 0 6 2.38151 1
gene 1 2 7 -2.60317 0 7 -2.60317 0
gene 3 3 7 -0.439278 0 8 -0.439278 1
gene 3 4 7 -0.897419 0 9 -0.897419 1
gene 1 5 7 -6.9636 0 10 -6.9636 1
gene 3 4 9 0.300165 0 15 0.300165 1
gene 3 9 6 -0.437968 0 16 -0.437968 1
gene 3 4 21 1.68928 0 50 1.68928 1
gene 3 21 7 -1.32403 0 51 -1.32403 1
gene 3 21 9 -7.57897 0 62 -7.57897 1
gene 3 2 28 0.550098 0 77 0.550098 1
gene 3 28 6 -1.49247 0 78 -1.49247 1
gene 1 3 34 2.49169 0 96 2.49169 1
gene 1 34 6 -3.0849 0 97 -3.0849 1
gene 3 21 51 4.06769 0 167 4.06769 1
gene 3 51 7 -6.94076 0 168 -6.94076 1
gene 1 5 56 -2.48367 0 188 -2.48367 1
gene 1 56 6 -6.03669 0 189 -6.03669 1
gene 3 5 21 -0.720574 0 260 -0.720574 1
gene 3 1 21 -0.851784 0 299 -0.851784 1
gene 2 4 28 1.4256 0 443 1.4256 1
gene 2 51 6 -1.43257 0 607 -1.43257 1
gene 2 56 28 0.328783 0 677 0.328783 1
gene 1 9 7 -1.08504 0 692 -1.08504 1
genomeend 48

/* Organism #49 Fitness: 72 Error: 0 */
genomestart 49
trait 1 0.1 0 0.447402 0 0 0 0 0 
trait 2 0.2 0 0 0 0 0 0 0 
trait 3 0.3 0 0 0 0 0 0 0 
node 1 1 1 3
node 2 3 1 1
node 3 2 1 1
node 4 3 1 1
node 5 2 1 1
node 6 3 0 2
node 7 2 0 2
node 9 1 0 0
node 21 1 0 0
node 28 1 0 0
node 34 1 0 0
node 51 1 0 0
node 56 1 0 0
gene 1 1 6 -2.21536 0 1 -2.21536 1
gene 3 2 6 -1.7573 0 2 -1.7573 1
gene 1 3 6 2.11603 0 3 2.11603 1
gene 3 4 6 1.75079 0 4 1.75079 0
gene 1 5 6 -0.443568 0 5 -0.443568 1
gene 3 1 7 2.40871 0 6 2.40871 1
gene 1 2 7 -1.43207 0 7 -1.43207 0
gene 3 3 7 2.96828 0 8 2.96828 1
gene 3 4 7 -3.25856 0 9 -3.25856 1
gene 1 5 7 -8 0 10 -8 1
gene 3 4 9 -2.90843 0 15 -2.90843 1
gene 3 9 6 -3.08259 0 16 -3.08259 1
gene 3 4 21 -1.70604 0 50 -1.70604 1
gene 3 21 7 -0.320071 0 51 -0.320071 1
gene 3 21 9 -4.08607 0 62 -4.08607 1
gene 3 2 28 -0.39298 0 77 -0.39298 1
gene 3 28 6 1.08374 0 78 1.08374 1
gene 1 3 34 -1.40963 0 96 -1.40963 1
gene 1 34 6 1.36062 0 97 1.36062 1
gene 3 21 51 3.00429 0 167 3.00429 1
gene 3 51 7 -3.43321 0 168 -3.43321 1
gene 1 5 56 1.28066 0 188 1.28066 1
gene 1 56 6 -5.24859 0 189 -5.24859 1
gene 3 5 21 -2.20816 0 260 -2.20816 1
gene 3 1 21 2.47997 0 299 2.47997 1
gene 2 4 28 -1.07378 0 443 -1.07378 1
gene 2 51 6 -2.89526 0 607 -2.89526 1
gene 2 56 28 -3.68416 0 677 -3.68416 1
gene 1 9 7 -0.207948 0 692 -0.207948 1
genomeend 49

/* Organism #50 Fitness: 100 Error: 0 */
genomestart 50
trait 1 0.1 0 0.447402 0 0 0 0 0 
trait 2 0.2 0 0 0 0 0 0 0 
trait 3 0.3 0 0.499978 0 0 0.175957 0 0 
node 1 1 1 3
node 2 3 1 1
node 3 2 1 1
node 4 3 1 1
node 5 2 1 1
node 6 3 0 2
node 7 2 0 2
node 9 1 0 0
node 21 1 0 0
node 28 1 0 0
node 34 1 0 0
node 51 1 0 0
node 56 1 0 0
gene 1 1 6 -4.47365 0 1 -4.47365 1
gene 3 2 6 -2.85454 0 2 -2.85454 1
gene 1 3 6 5.2442 0 3 5.2442 1
gene 3 4 6 4.08891 0 4 4.08891 0
gene 1 5 6 -2.59434 0 5 -2.59434 1
gene 3 1 7 -0.412826 0 6 -0.412826 1
gene 1 2 7 -3.75071 0 7 -3.75071 0
gene 3 3 7 -1.94353 0 8 -1.94353 1
gene 3 4 7 -2.86352 0 9 -2.86352 1
gene 1 5 7 -8 0 10 -8 1
gene 3 4 9 -2.09883 0 15 -2.09883 1
gene 3 9 6 -0.933563 0 16 -0.933563 1
gene 3 4 21 1.52715 0 50 1.52715 1
gene 3 21 7 4.79481 0 51 4.79481 1
gene 3 21 9 -5.78819 0 62 -5.78819 1
gene 3 2 28 3.86019 0 77 3.86019 1
gene 3 28 6 -5.32447 0 78 -5.32447 1
gene 1 3 34 -2.41892 0 96 -2.41892 1
gene 1 34 6 0.205956 0 97 0.205956 1
gene 3 21 51 2.55338 0 167 2.55338 1
gene 3 51 7 -6.37405 0 168 -6.37405 1
gene 1 5 56 2.68622 0 188 2.68622 1
gene 1 56 6 -6.0505 0 189 -6.0505 1
gene 3 5 21 -1.18169 0 260 -1.18169 1
gene 3 1 21 0.303055 0 299 0.303055 1
gene 2 4 28 -1.76719 0 443 -1.76719 1
gene 2 51 6 -1.57735 0 607 -1.57735 1
gene 2 56 28 2.02224 0 677 2.02224 1
gene 1 9 7 -1.49925 0 692 -1.49925 1
genomeend 50

/* Organism #51 Fitness: 78 Error: 0 */
genomestart 51
trait 1 0.1 0 0.447402 0 0 0 0 0 
trait 2 0.2 0 0 0 0 0 0 0 
trait 3 0.3 0 0 0 0 0 0 0 
node 1 1 1 3
node 2 3 1 1
node 3 2 1 1
node 4 3 1 1
node 5 2 1 1
node 6 3 0 2
node 7 2 0 2
node 9 1 0 0
node 21 1 0 0
node 28 1 0 0
node 34 1 0 0
node 51 2 0 0
node 56 1 0 0
gene 1 1 6 -8 0 1 -8 1
gene 3 2 6 -0.936182 0 2 -0.936182 1
gene 1 3 6 6.91281 0 3 6.91281 1
gene 3 4 6 1.96736 0 4 1.96736 0
gene 1 5 6 -5.40375 0 5 -5.40375 1
gene 3 1 7 1.23867 0 6 1.23867 1
gene 1 2 7 -0.523821 0 7 -0.523821 0
gene 3 3 7 -2.32881 0 8 -2.32881 1
gene 3 4 7 0.537434 0 9 0.537434 1
gene 1 5 7 -8 0 10 -8 1
gene 3 4 9 -0.332328 0 15 -0.332328 1
gene 3 9 6 -1.04665 0 16 -1.04665 1
gene 3 4 21 1.18899 0 50 1.18899 1
gene 3 21 7 2.10159 0 51 2.10159 1
gene 3 21 9 -3.53088 0 62 -3.53088 1
gene 3 2 28 6.47717 0 77 6.47717 1
gene 3 28 6 -1.904 0 78 -1.904 1
gene 1 3 34 -0.671388 0 96 -0.671388 1
gene 1 34 6 -0.181054 0 97 -0.181054 1
gene 3 21 51 -2.25652 0 167 -2.25652 1
gene 1 51 7 -7.30989 0 168 -7.30989 1
gene 1 5 56 -0.842506 0 188 -0.842506 1
gene 1 56 6 -6.79248 0 189 -6.79248 1
gene 3 5 21 2.1138 0 260 2.1138 1
gene 3 1 21 0.338867 0 299 0.338867 1
gene 2 4 28 -0.36754 0 443 -0.36754 1
gene 2 51 6 -3.31377 0 607 -3.31377 1
gene 2 56 28 2.13291 0 677 2.13291 1
gene 1 9 7 -3.0691 0 692 -3.0691 1
genomeend 51

/* Organism #52 Fitness: 74 Error: 0 */
genomestart 52
trait 1 0.1 0 0.447402 0 0 0 0 0 
trait 2 0.2 0 0 0 0 0 0 0 
trait 3 0.3 0 0 0 0 0 0 0 
node 1 1 1 3
node 2 3 1 1
node 3 2 1 1
node 4 3 1 1
node 5 2 1 1
node 6 3 0 2
node 7 2 0 2
node 9 1 0 0
node 21 1 0 0
node 28 1 0 0
node 34 1 0 0
node 51 1 0 0
node 56 1 0 0
gene 1 1 6 -7.97654 0 1 -7.97654 1
gene 3 2 6 -2.74446 0 2 -2.74446 1
gene 1 3 6 8 0 3 8 1
gene 3 4 6 3.98024 0 4 3.98024 0
gene 1 5 6 -4.08084 0 5 -4.08084 1
gene 3 1 7 -1.95144 0 6 -1.95144 1
gene 1 2 7 -1.14087 0 7 -1.14087 0
gene 3 3 7 -2.60436 0 8 -2.60436 1
gene 3 4 7 -3.48256 0 9 -3.48256 1
gene 1 5 7 -7.6579 0 10 -7.6579 1
gene 3 4 9 -2.1592 0 15 -2.1592 1
gene 3 9 6 -0.778619 0 16 -0.778619 1
gene 3 4 21 -2.18886 0 50 -2.18886 1
gene 3 21 7 1.21107 0 51 1.21107 1
gene 3 21 9 -6.65301 0 62 -6.65301 1
gene 3 2 28 7.58976 0 77 7.58976 1
gene 3 28 6 -5.35974 0 78 -5.35974 1
gene 1 3 34 -2.17988 0 96 -2.17988 1
gene 1 34 6 -0.81367 0 97 -0.81367 1
gene 3 21 51 4.32467 0 167 4.32467 1
gene 3 51 7 -5.97765 0 168 -5.97765 1
gene 1 5 56 -1.58086 0 188 -1.58086 1
gene 1 56 6 -2.89843 0 189 -2.89843 1
gene 3 5 21 -2.33236 0 260 -2.33236 1
gene 3 1 21 0.499499 0 299 0.499499 1
gene 2 4 28 -2.12402 0 443 -2.12402 1
gene 2 51 6 -0.516519 0 607 -0.516519 1
gene 2 56 28 1.71601 0 677 1.71601 1
gene 1 9 7 -1.98338 0 692 -1.98338 1
gene 1 6 7 1.54116 0 727 1.54116 1
genomeend 52

/* Organism #53 Fitness: 62 Error: 0 */
genomestart 53
trait 1 0.1 0 0.447402 0 0 0 0 0 
trait 2 0.2 0 0 0 0 0 0 0 
trait 3 0.3 0 0 0 0 0 0 0 
node 1 1 1 3
node 2 3 1 1
node 3 2 1 1
node 4 3 1 1
node 5 2 1 1
node 6 3 0 2
node 7 2 0 2
node 9 1 0 0
node 21 1 0 0
node 28 1 0 0
node 34 1 0 0
node 51 1 0 0
node 56 1 0 0
gene 1 1 6 -8 0 1 -8 1
gene 3 2 6 -1.61195 0 2 -1.61195 1
gene 1 3 6 8 0 3 8 1
gene 3 4 6 4.50799 0 4 4.50799 0
gene 1 5 6 -4.03181 0 5 -4.03181 1
gene 3 1 7 0.974767 0 6 0.974767 1
gene 1 2 7 -4.14408 0 7 -4.14408 0
gene 3 3 7 0.883439 0 8 0.883439 1
gene 3 4 7 -1.35028 0 9 -1.35028 1
gene 1 5 7 -1.19255 0 10 -1.19255 1
gene 3 4 9 0.801015 0 15 0.801015 1
gene 3 9 6 -2.69729 0 16 -2.69729 1
gene 3 4 21 0.122704 0 50 0.122704 1
gene 3 21 7 -0.386019 0 51 -0.386019 1
gene 3 21 9 -5.7177 0 62 -5.7177 1
gene 3 2 28 6.38655 0 77 6.38655 1
gene 3 28 6 0.55173 0 78 0.55173 1
gene 1 3 34 0.557642 0 96 0.557642 1
gene 1 34 6 0.507571 0 97 0.507571 1
gene 3 21 51 2.3319 0 167 2.3319 1
gene 3 51 7 -1.53734 0 168 -1.53734 1
gene 1 5 56 2.23498 0 188 2.23498 1
gene 1 56 6 -4.41964 0 189 -4.41964 1
gene 3 5 21 1.78071 0 260 1.78071 1
gene 3 1 21 0.048661 0 299 0.048661 1
gene 2 4 28 -2.82047 0 443 -2.82047 1
gene 2 51 6 -2.04522 0 607 -2.04522 1
gene 2 56 28 0.75626 0 677 0.75626 1
gene 1 9 7 -3.21848 0 692 -3.21848 1
gene 1 6 7 1.45625 0 727 1.45625 1
genomeend 53

/* Organism #54 Fitness: 92 Error: 0 */
genomestart 54
trait 1 0.1 0 0.447402 0 0 0 0 0 
trait 2 0.2 0 0 0 0 0 0 0 
trait 3 0.3 0 0 0 0 0.0762588 0 0 
node 1 1 1 3
node 2 3 1 1
node 3 2 1 1
node 4 3 1 1
node 5 2 1 1
node 6 3 0 2
node 7 2 0 2
node 9 1 0 0
node 21 1 0 0
node 28 1 0 0
node 34 1 0 0
node 51 1 0 0
node 56 1 0 0
gene 1 1 6 -5.73757 0 1 -5.73757 1
gene 3 2 6 -0.215878 0 2 -0.215878 1
gene 1 3 6 3.30078 0 3 3.30078 1
gene 3 4 6 3.24934 0 4 3.24934 0
gene 3 5 6 -2.86415 0 5 -2.86415 1
gene 3 1 7 1.9075 0 6 1.9075 1
gene 1 2 7 -1.87455 0 7 -1.87455 0
gene 3 3 7 -0.820905 0 8 -0.820905 1
gene 3 4 7 -1.23929 0 9 -1.23929 1
gene 1 5 7 -6.84636 0 10 -6.84636 1
gene 3 4 9 -2.77023 0 15 -2.77023 1
gene 3 9 6 -2.9775 0 16 -2.9775 1
gene 3 4 21 -0.0303496 0 50 -0.0303496 1
gene 3 21 7 0.141936 0 51 0.141936 1
gene 3 21 9 -3.80569 0 62 -3.80569 1
gene 3 2 28 3.4636 0 77 3.4636 1
gene 3 28 6 -2.99849 0 78 -2.99849 1
gene 1 3 34 -1.41954 0 96 -1.41954 1
gene 1 34 6 0.0967819 0 97 0.0967819 1
gene 3 21 51 2.62886 0 167 2.62886 1
gene 3 51 7 -4.54954 0 168 -4.54954 1
gene 1 5 56 0.78478 0 188 0.78478 1
gene 1 56 6 -4.06379 0 189 -4.06379 1
gene 3 5 21 -0.559251 0 260 -0.559251 1
gene 3 1 21 0.0559145 0 299 0.0559145 1
gene 2 4 28 -0.685501 0 443 -0.685501 1
gene 2 51 6 -1.51637 0 607 -1.51637 1
gene 2 56 28 -0.757008 0 677 -0.757008 1
gene 1 9 7 0.848197 0 692 0.848197 1
gene 3 21 56 0.612494 0 738 0.612494 1
genomeend 54

/* Organism #55 Fitness: 118 Error: 0 */
genomestart 55
trait 1 0.1 0 0.447402 0 0 0 0 0 
trait 2 0.2 0 0 0 0 0 0 0 
trait 3 0.3 0 0 0 0 0 0 0 
node 1 1 1 3
node 2 3 1 1
node 3 2 1 1
node 4 3 1 1
node 5 2 1 1
node 6 3 0 2
node 7 2 0 2
node 9 1 0 0
node 21 1 0 0
node 28 1 0 0
node 34 1 0 0
node 51 1 0 0
node 56 1 0 0
node 200 1 0 0
gene 1 1 6 -6.82145 0 1 -6.82145 1
gene 3 2 6 -0.995959 0 2 -0.995959 1
gene 1 3 6 6.08045 0 3 6.08045 1
gene 3 4 6 4.38469 0 4 4.38469 0
gene 1 5 6 -3.46551 0 5 -3.46551 1
gene 3 1 7 1.49118 0 6 1.49118 1
gene 1 2 7 -2.5097 0 7 -2.5097 0
gene 3 3 7 -2.70558 0 8 -2.70558 1
gene 3 4 7 -1.89434 0 9 -1.89434 1
gene 1 5 7 -6.83616 0 10 -6.83616 1
gene 3 4 9 -1.1853 0 15 -1.1853 1
gene 3 9 6 -2.20851 0 16 -2.20851 1
gene 3 4 21 -0.664058 0 50 -0.664058 1
gene 3 21 7 2.74202 0 51 2.74202 1
gene 3 21 9 -5.7177 0 62 -5.7177 1
gene 3 2 28 5.11842 0 77 5.11842 1
gene 3 28 6 -3.3849 0 78 -3.3849 1
gene 1 3 34 -1.61395 0 96 -1.61395 1
gene 1 34 6 1.63373 0 97 1.63373 1
gene 3 21 51 2.50433 0 167 2.50433 1
gene 3 51 7 -5.10249 0 168 -5.10249 1
gene 1 5 56 0.360341 0 188 0.360341 1
gene 1 56 6 -5.76594 0 189 -5.76594 1
gene 3 5 21 0.152738 0 260 0.152738 1
gene 3 1 21 0.338867 0 299 0.338867 1
gene 2 4 28 0.14563 0 443 0.14563 1
gene 2 51 6 -0.516519 0 607 -0.516519 1
gene 2 56 28 0.328783 0 677 0.328783 0
gene 1 9 7 -2.04609 0 692 -2.04609 1
gene 2 56 200 1 0 739 0 1
gene 2 200 28 0.328783 0 740 0 1
genomeend 55

/* Organism #56 Fitness: 12 Error: 0 */
genomestart 56
trait 1 0.1 0 0.447402 0 0 0 0 0 
trait 2 0.2 0 0 0 0 0 0 0 
trait 3 0.3 0 0 0 0 0 0 0 
node 1 1 1 3
node 2 3 1 1
node 3 2 1 1
node 4 3 1 1
node 5 2 1 1
node 6 3 0 2
node 7 2 0 2
node 9 1 0 0
node 21 1 0 0
node 28 1 0 0
node 34 1 0 0
node 51 1 0 0
node 56 1 0 0
gene 1 1 6 -6.82145 0 1 -6.82145 1
gene 3 2 6 0.356133 0 2 0.356133 1
gene 1 3 6 4.00791 0 3 4.00791 1
gene 3 4 6 4.09068 0 4 4.09068 1
gene 1 5 6 -1.6226 0 5 -1.6226 1
gene 3 1 7 -1.03691 0 6 -1.03691 1
gene 1 2 7 2.00992 0 7 2.00992 0
gene 3 3 7 -1.05759 0 8 -1.05759 1
gene 3 4 7 -1.89434 0 9 -1.89434 1
gene 1 5 7 1.4765 0 10 1.4765 1
gene 3 4 9 -0.976678 0 15 -0.976678 1
gene 3 9 6 -4.22544 0 16 -4.22544 1
gene 3 4 21 -1.93579 0 50 -1.93579 1
gene 3 21 7 1.381 0 51 1.381 1
gene 3 21 9 1.15104 0 62 1.15104 1
gene 3 2 28 3.67102 0 77 3.67102 1
gene 3 28 6 -4.73145 0 78 -4.73145 1
gene 1 3 34 -0.0394334 0 96 -0.0394334 1
gene 1 34 6 2.03534 0 97 2.03534 1
gene 3 21 51 1.78694 0 167 1.78694 1
gene 3 51 7 -2.04056 0 168 -2.04056 1
gene 1 5 56 1.46305 0 188 1.46305 1
gene 1 56 6 -5.73926 0 189 -5.73926 1
gene 3 5 21 2.65905 0 260 2.65905 1
gene 3 1 21 2.70692 0 299 2.70692 1
gene 2 4 28 -1.01499 0 443 -1.01499 1
gene 2 51 6 -3.26038 0 607 -3.26038 1
gene 2 56 28 1.46785 0 677 1.46785 1
gene 1 9 7 -1.64593 0 692 -1.64593 1
genomeend 56

/* Organism #57 Fitness: 56 Error: 0 */
genomestart 57
trait 1 0.1 0 0.447402 0 0 0 0 0 
trait 2 0.2 0 0 0 0 0 0 0 
trait 3 0.3 0 0 0 0 0 0 0 
node 1 1 1 3
node 2 3 1 1
node 3 2 1 1
node 4 3 1 1
node 5 2 1 1
node 6 3 0 2
node 7 2 0 2
node 9 1 0 0
node 21 1 0 0
node 28 1 0 0
node 34 1 0 0
node 51 1 0 0
node 56 1 0 0
gene 1 1 6 -8 0 1 -8 1
gene 3 2 6 0.516045 0 2 0.516045 1
gene 1 3 6 6.36517 0 3 6.36517 1
gene 3 4 6 2.2784 0 4 2.2784 0
gene 1 5 6 -1.68385 0 5 -1.68385 1
gene 3 1 7 -0.62061 0 6 -0.62061 1
gene 1 2 7 0.649898 0 7 0.649898 0
gene 3 3 7 -4.84919 0 8 -4.84919 1
gene 3 4 7 -0.307877 0 9 -0.307877 1
gene 1 5 7 -7.96604 0 10 -7.96604 1
gene 3 4 9 -0.203862 0 15 -0.203862 1
gene 3 9 6 -0.723383 0 16 -0.723383 1
gene 3 4 21 -2.3719 0 50 -2.3719 1
gene 3 21 7 1.50431 0 51 1.50431 1
gene 3 21 9 -5.44747 0 62 -5.44747 1
gene 3 2 28 2.66815 0 77 2.66815 1
gene 3 28 6 -3.10631 0 78 -3.10631 1
gene 1 3 34 0.786705 0 96 0.786705 1
gene 1 34 6 2.5647 0 97 2.5647 1
gene 3 21 51 2.7033 0 167 2.7033 1
gene 3 51 7 -2.99019 0 168 -2.99019 1
gene 1 5 56 -0.667818 0 188 -0.667818 1
gene 1 56 6 -3.37399 0 189 -3.37399 1
gene 3 5 21 0.147531 0 260 0.147531 1
gene 3 1 21 0.329404 0 299 0.329404 1
gene 2 4 28 -1.13659 0 443 -1.13659 1
gene 2 51 6 0.796289 0 607 0.796289 1
gene 2 56 28 -0.554549 0 677 -0.554549 1
gene 1 9 7 -0.199026 0 692 -0.199026 1
genomeend 57

/* Organism #58 Fitness: 91 Error: 0 */
genomestart 58
trait 1 0.1 0 0.447402 0 0 0 0 0 
trait 2 0.2 0 0 0 0 0 0 0 
trait 3 0.3 0 0 0 0 0.0762588 0 0 
node 1 1 1 3
node 2 3 1 1
node 3 2 1 1
node 4 3 1 1
node 5 2 1 1
node 6 3 0 2
node 7 2 0 2
node 9 1 0 0
node 21 1 0 0
node 28 1 0 0
node 34 1 0 0
node 51 1 0 0
node 56 1 0 0
gene 1 1 6 -6.56682 0 1 -6.56682 1
gene 3 2 6 1.10049 0 2 1.10049 1
gene 1 3 6 4.93799 0 3 4.93799 1
gene 3 4 6 -1.98968 0 4 -1.98968 0
gene 3 5 6 -5.03853 0 5 -5.03853 1
gene 3 1 7 0.259072 0 6 0.259072 1
gene 1 2 7 -1.01952 0 7 -1.01952 0
gene 3 3 7 -1.78132 0 8 -1.78132 1
gene 3 4 7 -2.58073 0 9 -2.58073 1
gene 1 5 7 -6.82464 0 10 -6.82464 1
gene 3 4 9 -5.15918 0 15 -5.15918 1
gene 3 9 6 -4.67885 0 16 -4.67885 1
gene 3 4 21 2.95837 0 50 2.95837 1
gene 3 21 7 4.40619 0 51 4.40619 1
gene 3 21 9 -4.85311 0 62 -4.85311 1
gene 3 2 28 6.20066 0 77 6.20066 1
gene 3 28 6 -1.4956 0 78 -1.4956 1
gene 1 3 34 -1.81053 0 96 -1.81053 1
gene 1 34 6 1.06406 0 97 1.06406 1
gene 3 21 51 -0.527347 0 167 -0.527347 1
gene 3 51 7 -6.7098 0 168 -6.7098 1
gene 1 5 56 -2.32361 0 188 -2.32361 1
gene 1 56 6 -5.21613 0 189 -5.21613 1
gene 3 5 21 -0.993178 0 260 -0.993178 1
gene 3 1 21 -1.77974 0 299 -1.77974 1
gene 2 4 28 -0.38468 0 443 -0.38468 1
gene 2 51 6 -2.05343 0 607 -2.05343 1
gene 2 56 28 0.328783 0 677 0.328783 1
gene 1 9 7 -1.65961 0 692 -1.65961 1
genomeend 58

/* Organism #59 Fitness: 77 Error: 0 */
genomestart 59
trait 1 0.1 0 0.447402 0 0 0 0 0 
trait 2 0.2 0 0 0 0 0 0 0 
trait 3 0.3 0 0 0 0 0 0 0 
node 1 1 1 3
node 2 3 1 1
node 3 2 1 1
node 4 3 1 1
node 5 2 1 1
node 6 3 0 2
node 7 2 0 2
node 9 1 0 0
node 21 1 0 0
node 28 1 0 0
node 34 1 0 0
node 51 1 0 0
node 56 1 0 0
gene 1 1 6 -7.91446 0 1 -7.91446 1
gene 3 2 6 -3.08197 0 2 -3.08197 1
gene 1 3 6 5.47605 0 3 5.47605 1
gene 3 4 6 5.77045 0 4 5.77045 1
gene 1 5 6 -3.49739 0 5 -3.49739 1
gene 3 1 7 -0.236423 0 6 -0.236423 1
gene 1 2 7 -1.42512 0 7 -1.42512 0
gene 3 3 7 -2.99902 0 8 -2.99902 1
gene 3 4 7 -1.20494 0 9 -1.20494 1
gene 1 5 7 -8 0 10 -8 1
gene 3 4 9 -0.0723775 0 15 -0.0723775 1
gene 3 9 6 -2.10371 0 16 -2.10371 1
gene 3 4 21 2.47919 0 50 2.47919 1
gene 3 21 7 3.26257 0 51 3.26257 1
gene 3 21 9 -6.90656 0 62 -6.90656 1
gene 3 2 28 3.00912 0 77 3.00912 1
gene 3 28 6 -2.21428 0 78 -2.21428 1
gene 1 3 34 -3.54573 0 96 -3.54573 1
gene 1 34 6 -1.02216 0 97 -1.02216 1
gene 3 21 51 2.77173 0 167 2.77173 1
gene 3 51 7 -1.61575 0 168 -1.61575 1
gene 1 5 56 2.15099 0 188 2.15099 1
gene 1 56 6 -3.8174 0 189 -3.8174 1
gene 3 5 21 -2.13664 0 260 -2.13664 1
gene 3 1 21 -1.64062 0 299 -1.64062 1
gene 2 4 28 0.9193 0 443 0.9193 1
gene 2 51 6 -3.05709 0 607 -3.05709 1
gene 2 56 28 0.328783 0 677 0.328783 1
gene 1 9 7 -0.0738237 0 692 -0.0738237 1
genomeend 59

/* Organism #60 Fitness: 97 Error: 0 */
genomestart 60
trait 1 0.1 0 0.447402 0 0 0 0 0 
trait 2 0.2 0 0 0 0 0 0 0 
trait 3 0.3 0 0 0 0 0 0 0 
node 1 1 1 3
node 2 3 1 1
node 3 2 1 1
node 4 3 1 1
node 5 2 1 1
node 6 3 0 2
node 7 2 0 2
node 9 1 0 0
node 21 1 0 0
node 28 1 0 0
node 34 1 0 0
node 51 1 0 0
node 56 1 0 0
gene 1 1 6 -5.7981 0 1 -5.7981 1
gene 3 2 6 -1.02843 0 2 -1.02843 1
gene 1 3 6 8 0 3 8 1
gene 3 4 6 3.79401 0 4 3.79401 0
gene 1 5 6 -1.00676 0 5 -1.00676 1
gene 3 1 7 1.98603 0 6 1.98603 1
gene 1 2 7 -0.374313 0 7 -0.374313 0
gene 3 3 7 -2.57961 0 8 -2.57961 1
gene 3 4 7 -0.120117 0 9 -0.120117 1
gene 1 5 7 -7.94354 0 10 -7.94354 1
gene 3 4 9 0.749326 0 15 0.749326 1
gene 3 9 6 -0.469715 0 16 -0.469715 1
gene 3 4 21 -0.513725 0 50 -0.513725 1
gene 3 21 7 2.12472 0 51 2.12472 1
gene 3 21 9 -4.87597 0 62 -4.87597 1
gene 3 2 28 4.77267 0 77 4.77267 1
gene 3 28 6 -2.76824 0 78 -2.76824 1
gene 1 3 34 0.533275 0 96 0.533275 1
gene 1 34 6 2.67719 0 97 2.67719 1
gene 3 21 51 4.27056 0 167 4.27056 1
gene 3 51 7 -6.29918 0 168 -6.29918 1
gene 1 5 56 -0.627908 0 188 -0.627908 1
gene 1 56 6 -7.16521 0 189 -7.16521 1
gene 3 5 21 -1.06135 0 260 -1.06135 1
gene 3 1 21 0.338867 0 299 0.338867 1
gene 2 4 28 1.4425 0 443 1.4425 1
gene 2 51 6 1.61071 0 607 1.61071 1
gene 2 56 28 0.328783 0 677 0.328783 1
gene 1 9 7 -3.89202 0 692 -3.89202 1
genomeend 60

/* Organism #61 Fitness: 10 Error: 0 */
genomestart 61
trait 1 0.81946 0 0.447402 0 0 0 0 0 
trait 2 0.2 0 0 0 0 0 0 0 
trait 3 0.3 0 0 0 0 0.0762588 0 0 
node 1 1 1 3
node 2 3 1 1
node 3 2 1 1
node 4 3 1 1
node 5 2 1 1
node 6 3 0 2
node 7 2 0 2
node 9 1 0 0
node 21 1 0 0
node 28 1 0 0
node 34 1 0 0
node 51 1 0 0
node 56 1 0 0
gene 1 1 6 -5.65356 0 1 -5.65356 1
gene 3 2 6 1.2767 0 2 1.2767 1
gene 1 3 6 7.79386 0 3 7.79386 1
gene 3 4 6 3.75712 0 4 3.75712 0
gene 1 5 6 -1.67345 0 5 -1.67345 1
gene 3 1 7 1.85746 0 6 1.85746 1
gene 1 2 7 0.922399 0 7 0.922399 0
gene 3 3 7 -5.28017 0 8 -5.28017 1
gene 3 4 7 -0.300462 0 9 -0.300462 1
gene 1 5 7 -5.15826 0 10 -5.15826 1
gene 3 4 9 -1.9952 0 15 -1.9952 1
gene 3 9 6 -4.53042 0 16 -4.53042 1
gene 3 4 21 2.35128 0 50 2.35128 1
gene 3 21 7 0.355657 0 51 0.355657 1
gene 3 21 9 -3.35339 0 62 -3.35339 1
gene 3 2 28 6.53931 0 77 6.53931 1
gene 3 28 6 0.956484 0 78 0.956484 1
gene 1 3 34 -1.08679 0 96 -1.08679 1
gene 1 34 6 -0.449107 0 97 -0.449107 1
gene 3 21 51 -0.922564 0 167 -0.922564 1
gene 3 51 7 0.011629 0 168 0.011629 1
gene 1 5 56 2.56884 0 188 2.56884 1
gene 1 56 6 -0.440478 0 189 -0.440478 1
gene 3 5 21 -2.26204 0 260 -2.26204 1
gene 3 1 21 -2.29254 0 299 -2.29254 1
gene 2 4 28 0.762835 0 443 0.762835 1
gene 2 51 6 -0.189542 0 607 -0.189542 1
gene 2 56 28 0.579805 0 677 0.579805 1
gene 1 9 7 -0.0830348 0 692 -0.0830348 1
genomeend 61

/* Organism #62 Fitness: 83 Error: 0 */
genomestart 62
trait 1 0.1 0 0.447402 0 0 0 0 0 
trait 2 0.2 0 0 0 0 0 0 0 
trait 3 0.3 0 0 0 0 0.0762588 0 0 
node 1 1 1 3
node 2 3 1 1
node 3 2 1 1
node 4 3 1 1
node 5 2 1 1
node 6 3 0 2
node 7 2 0 2
node 9 1 0 0
node 21 1 0 0
node 28 1 0 0
node 34 1 0 0
node 51 1 0 0
node 56 1 0 0
gene 1 1 6 -7.73961 0 1 -7.73961 1
gene 3 2 6 -1.47224 0 2 -1.47224 1
gene 1 3 6 3.62696 0 3 3.62696 1
gene 3 4 6 4.66298 0 4 4.66298 1
gene 3 5 6 -5.1811 0 5 -5.1811 1
gene 3 1 7 0.19671 0 6 0.19671 1
gene 1 2 7 -2.08748 0 7 -2.08748 0
gene 3 3 7 -4.86484 0 8 -4.86484 1
gene 3 4 7 -3.36033 0 9 -3.36033 1
gene 1 5 7 -5.52546 0 10 -5.52546 1
gene 3 4 9 0.708756 0 15 0.708756 1
gene 3 9 6 -5.1812 0 16 -5.1812 1
gene 3 4 21 -1.38553 0 50 -1.38553 1
gene 3 21 7 1.54735 0 51 1.54735 1
gene 3 21 9 -7.06176 0 62 -7.06176 1
gene 3 2 28 5.21887 0 77 5.21887 1
gene 3 28 6 -2.6909 0 78 -2.6909 1
gene 1 3 34 -0.999162 0 96 -0.999162 1
gene 1 34 6 1.12777 0 97 1.12777 1
gene 3 21 51 4.11647 0 167 4.11647 1
gene 3 51 7 -2.40612 0 168 -2.40612 1
gene 1 5 56 2.81405 0 188 2.81405 1
gene 1 56 6 -6.82928 0 189 -6.82928 1
gene 3 5 21 0.556903 0 260 0.556903 1
gene 3 1 21 1.41608 0 299 1.41608 1
gene 2 4 28 2.34774 0 443 2.34774 1
gene 2 51 6 -1.19299 0 607 -1.19299 1
gene 2 56 28 0.855049 0 677 0.855049 1
gene 1 9 7 -0.89327 0 692 -0.89327 1
genomeend 62

/* Organism #63 Fitness: 69 Error: 0 */
genomestart 63
trait 1 0.1 0 0.447402 0 0 0 0 0 
trait 2 0.2 0 0 0 0 0 0 0 
trait 3 0.3 0 0 0 0 0.0762588 0 0 
node 1 1 1 3
node 2 3 1 1
node 3 2 1 1
node 4 3 1 1
node 5 2 1 1
node 6 3 0 2
node 7 2 0 2
node 9 1 0 0
node 21 1 0 0
node 28 1 0 0
node 34 1 0 0
node 51 1 0 0
node 56 1 0 0
gene 1 1 6 -6.70473 0 1 -6.70473 1
gene 3 2 6 0.988503 0 2 0.988503 1
gene 1 3 6 6.36183 0 3 6.36183 1
gene 3 4 6 7.2617 0 4 7.2617 1
gene 1 5 6 -6.11787 0 5 -6.11787 1
gene 3 1 7 -0.883295 0 6 -0.883295 1
gene 1 2 7 -2.95143 0 7 -2.95143 0
gene 3 3 7 -4.78793 0 8 -4.78793 1
gene 3 4 7 0.971285 0 9 0.971285 1
gene 1 5 7 -7.9555 0 10 -7.9555 1
gene 3 4 9 0.0842381 0 15 0.0842381 1
gene 3 9 6 -3.56535 0 16 -3.56535 1
gene 3 4 21 1.4334 0 50 1.4334 1
gene 3 21 7 1.73502 0 51 1.73502 1
gene 3 21 9 -6.61765 0 62 -6.61765 1
gene 3 2 28 7.36405 0 77 7.36405 1
gene 3 28 6 -3.80169 0 78 -3.80169 1
gene 1 3 34 -2.65571 0 96 -2.65571 1
gene 1 34 6 -1.2995 0 97 -1.2995 1
gene 3 21 51 1.19029 0 167 1.19029 1
gene 3 51 7 -3.68922 0 168 -3.68922 1
gene 1 5 56 3.20075 0 188 3.20075 1
gene 1 56 6 -3.07373 0 189 -3.07373 1
gene 3 5 21 0.817694 0 260 0.817694 1
gene 3 1 21 -0.566551 0 299 -0.566551 1
gene 2 4 28 -0.368734 0 443 -0.368734 1
gene 2 51 6 -1.64265 0 607 -1.64265 1
gene 2 56 28 0.774833 0 677 0.774833 1
gene 1 9 7 0.549873 0 692 0.549873 1
gene 1 6 7 1.59713 0 727 1.59713 1
genomeend 63

/* Organism #64 Fitness: 88 Error: 0 */
genomestart 64
trait 1 0.1 0 0.447402 0 0 0 0 0 
trait 2 0.2 0 0 0 0 0 0 0 
trait 3 0.3 0 0 0 0 0 0 0 
node 1 1 1 3
node 2 3 1 1
node 3 2 1 1
node 4 3 1 1
node 5 2 1 1
node 6 3 0 2
node 7 2 0 2
node 9 1 0 0
node 21 1 0 0
node 28 1 0 0
node 34 1 0 0
node 51 1 0 0
node 56 1 0 0
gene 1 1 6 -6.82145 0 1 -6.82145 1
gene 3 2 6 -0.884805 0 2 -0.884805 1
gene 1 3 6 7.25562 0 3 7.25562 1
gene 3 4 6 5.0357 0 4 5.0357 0
gene 1 5 6 -4.03181 0 5 -4.03181 1
gene 3 1 7 1.49118 0 6 1.49118 1
gene 1 2 7 -2.81185 0 7 -2.81185 0
gene 3 3 7 -2.70558 0 8 -2.70558 1
gene 3 4 7 -1.89434 0 9 -1.89434 1
gene 1 5 7 -6.83616 0 10 -6.83616 1
gene 3 4 9 -0.221967 0 15 -0.221967 1
gene 3 9 6 -1.44515 0 16 -1.44515 1
gene 3 4 21 -0.664058 0 50 -0.664058 1
gene 3 21 7 2.83971 0 51 2.83971 1
gene 3 21 9 -5.7177 0 62 -5.7177 1
gene 3 2 28 5.11842 0 77 5.11842 1
gene 3 28 6 -2.96143 0 78 -2.96143 1
gene 1 3 34 -1.61395 0 96 -1.61395 1
gene 1 34 6 1.63373 0 97 1.63373 1
gene 3 21 51 2.50433 0 167 2.50433 1
gene 3 51 7 -3.75394 0 168 -3.75394 1
gene 1 5 56 1.46305 0 188 1.46305 1
gene 1 56 6 -5.76594 0 189 -5.76594 1
gene 3 5 21 0.147531 0 260 0.147531 1
gene 3 1 21 0.338867 0 299 0.338867 1
gene 2 4 28 -0.44025 0 443 -0.44025 1
gene 2 51 6 -0.516519 0 607 -0.516519 1
gene 2 56 28 0.50244 0 677 0.50244 1
gene 1 9 7 -2.04609 0 692 -2.04609 1
gene 1 6 7 0.72238 0 727 0.72238 1
genomeend 64

/* Organism #65 Fitness: 109 Error: 0 */
genomestart 65
trait 1 0.1 0 0.447402 0 0 0 0 0 
trait 2 0.2 0 0 0 0 0 0 0 
trait 3 0.3 0 0 0 0 0 0 0 
node 1 1 1 3
node 2 3 1 1
node 3 2 1 1
node 4 3 1 1
node 5 2 1 1
node 6 3 0 2
node 7 2 0 2
node 9 1 0 0
node 21 1 0 0
node 28 1 0 0
node 34 1 0 0
node 51 1 0 0
node 56 1 0 0
gene 1 1 6 -5.17883 0 1 -5.17883 1
gene 3 2 6 -0.884805 0 2 -0.884805 1
gene 1 3 6 6.52633 0 3 6.52633 1
gene 3 4 6 5.0357 0 4 5.0357 0
gene 1 5 6 -5.40375 0 5 -5.40375 1
gene 3 1 7 0.259072 0 6 0.259072 1
gene 1 2 7 -2.81185 0 7 -2.81185 0
gene 3 3 7 -3.32038 0 8 -3.32038 1
gene 3 4 7 -2.06698 0 9 -2.06698 1
gene 1 5 7 -8 0 10 -8 1
gene 3 4 9 -0.332328 0 15 -0.332328 1
gene 3 9 6 -1.44515 0 16 -1.44515 1
gene 3 4 21 0.122704 0 50 0.122704 1
gene 3 21 7 2.83971 0 51 2.83971 1
gene 3 21 9 -6.31749 0 62 -6.31749 1
gene 3 2 28 4.20274 0 77 4.20274 1
gene 3 28 6 -0.494859 0 78 -0.494859 1
gene 1 3 34 0.136205 0 96 0.136205 1
gene 1 34 6 -1.33137 0 97 -1.33137 1
gene 3 21 51 2.3319 0 167 2.3319 1
gene 3 51 7 -3.75394 0 168 -3.75394 1
gene 1 5 56 1.46305 0 188 1.46305 1
gene 1 56 6 -5.21613 0 189 -5.21613 1
gene 3 5 21 0.147531 0 260 0.147531 1
gene 3 1 21 0.0809907 0 299 0.0809907 1
gene 2 4 28 0.265828 0 443 0.265828 1
gene 2 51 6 -2.5164 0 607 -2.5164 1
gene 2 56 28 0.50244 0 677 0.50244 1
gene 1 9 7 -3.06367 0 692 -3.06367 1
gene 1 6 7 0.72238 0 727 0.72238 1
genomeend 65

/* Species #40 : (Size 23) (AF 76.3043) (Age 6)  */


/* Organism #66 Fitness: 159 Error: 0 */
genomestart 66
trait 1 0.1 0 0.447402 0 0 0 0 0 
trait 2 0.2 0 0 0 0 0 0 0 
trait 3 0.3 0 0 0 0 0 0 0 
node 1 1 1 3
node 2 3 1 1
node 3 2 1 1
node 4 3 1 1
node 5 2 1 1
node 6 3 0 2
node 7 2 0 2
node 9 1 0 0
node 21 1 0 0
node 28 1 0 0
node 34 1 0 0
node 51 1 0 0
node 56 1 0 0
node 187 1 0 0
gene 1 1 6 -6.67765 0 1 -6.67765 1
gene 3 2 6 -0.884805 0 2 -0.884805 1
gene 1 3 6 2.63604 0 3 2.63604 1
gene 3 4 6 4.67781 0 4 4.67781 0
gene 1 5 6 -1.93957 0 5 -1.93957 1
gene 3 1 7 1.13611 0 6 1.13611 1
gene 1 2 7 -4.2468 0 7 -4.2468 0
gene 3 3 7 -5.05836 0 8 -5.05836 1
gene 3 4 7 -2.4384 0 9 -2.4384 1
gene 1 5 7 -6.56742 0 10 -6.56742 1
gene 3 4 9 -3.56494 0 15 -3.56494 1
gene 3 9 6 -2.97186 0 16 -2.97186 1
gene 3 4 21 -0.64543 0 50 -0.64543 0
gene 3 21 7 3.67261 0 51 3.67261 1
gene 3 21 9 -6.0064 0 62 -6.0064 1
gene 3 2 28 4.15349 0 77 4.15349 1
gene 3 28 6 -2.96143 0 78 -2.96143 1
gene 1 3 34 -2.10968 0 96 -2.10968 1
gene 1 34 6 4.40593 0 97 4.40593 1
gene 3 21 51 0.946716 0 167 0.946716 1
gene 3 51 7 -4.89272 0 168 -4.89272 1
gene 1 5 56 1.17259 0 188 1.17259 1
gene 1 56 6 -7.45923 0 189 -7.45923 1
gene 3 5 21 -1.70988 0 260 -1.70988 1
gene 3 1 21 -2.20745 0 299 -2.20745 1
gene 2 4 28 -0.643724 0 443 -0.643724 1
gene 2 51 6 0.400007 0 607 0.400007 1
gene 3 51 9 0.648705 0 672 0.648705 1
gene 3 4 187 -1.41708 0 693 -1.41708 1
gene 3 187 21 -0.803989 0 694 -0.803989 1
genomeend 66

/* Organism #67 Fitness: 24 Error: 0 */
genomestart 67
trait 1 0.1 0 0.447402 0 0 0 0 0.191905 
trait 2 0.2 0 0 0 0 0 0 0 
trait 3 0.3 0 0 0 0 0 0 0 
node 1 1 1 3
node 2 3 1 1
node 3 2 1 1
node 4 3 1 1
node 5 2 1 1
node 6 3 0 2
node 7 2 0 2
node 9 1 0 0
node 21 1 0 0
node 28 1 0 0
node 34 1 0 0
node 51 2 0 0
node 56 1 0 0
node 187 1 0 0
node 193 1 0 0
gene 1 1 6 -3.61575 0 1 -3.61575 1
gene 3 2 6 2.49685 0 2 2.49685 1
gene 1 3 6 4.96751 0 3 4.96751 1
gene 3 4 6 0.678177 0 4 0.678177 0
gene 1 5 6 -6.37748 0 5 -6.37748 1
gene 3 1 7 1.01824 0 6 1.01824 1
gene 1 2 7 -5.33897 0 7 -5.33897 0
gene 3 3 7 -4.04389 0 8 -4.04389 1
gene 3 4 7 1.88724 0 9 1.88724 1
gene 1 5 7 -6.54667 0 10 -6.54667 1
gene 3 4 9 -2.97922 0 15 -2.97922 1
gene 3 9 6 -0.691799 0 16 -0.691799 1
gene 3 4 21 -2.2017 0 50 -2.2017 0
gene 3 21 7 4.29011 0 51 4.29011 1
gene 3 21 9 -5.05228 0 62 -5.05228 1
gene 3 2 28 3.81089 0 77 3.81089 1
gene 3 28 6 -5.60741 0 78 -5.60741 1
gene 1 3 34 1.67494 0 96 1.67494 1
gene 1 34 6 -1.92373 0 97 -1.92373 1
gene 3 21 51 5.03679 0 167 5.03679 1
gene 3 51 7 -5.58377 0 168 -5.58377 1
gene 1 5 56 3.76406 0 188 3.76406 1
gene 1 56 6 -4.34541 0 189 -4.34541 1
gene 3 5 21 2.39943 0 260 2.39943 1
gene 3 1 21 2.51715 0 299 2.51715 1
gene 2 4 28 -1.28935 0 443 -1.28935 1
gene 2 51 6 -1.60323 0 607 -1.60323 1
gene 3 51 9 -1.47392 0 672 -1.47392 1
gene 3 4 187 2.88485 0 693 2.88485 1
gene 3 187 21 -0.484366 0 694 -0.484366 1
gene 3 3 193 2.31143 0 719 2.31143 1
gene 3 193 7 -0.953735 0 720 -0.953735 1
genomeend 67

/* Organism #68 Fitness: 125 Error: 0 */
genomestart 68
trait 1 0.1 0 0.447402 0 0 0 0 0 
trait 2 0.2 0 0 0 0 0 0 0 
trait 3 0.3 0 0 0 0 0 0 0 
node 1 1 1 3
node 2 3 1 1
node 3 2 1 1
node 4 3 1 1
node 5 2 1 1
node 6 3 0 2
node 7 2 0 2
node 9 1 0 0
node 21 1 0 0
node 28 1 0 0
node 34 1 0 0
node 51 1 0 0
node 56 1 0 0
node 187 1 0 0
gene 1 1 6 -6.51994 0 1 -6.51994 1
gene 3 2 6 0.427077 0 2 0.427077 1
gene 1 3 6 2.48487 0 3 2.48487 1
gene 3 4 6 -0.295887 0 4 -0.295887 0
gene 1 5 6 -1.31022 0 5 -1.31022 1
gene 3 1 7 1.71969 0 6 1.71969 1
gene 1 2 7 -7.46987 0 7 -7.46987 0
gene 3 3 7 -4.87061 0 8 -4.87061 1
gene 3 4 7 -1.846 0 9 -1.846 1
gene 1 5 7 -4.48677 0 10 -4.48677 1
gene 3 4 9 0.0435223 0 15 0.0435223 1
gene 3 9 6 -4.2463 0 16 -4.2463 1
gene 3 4 21 -4.0792 0 50 -4.0792 0
gene 3 21 7 2.11978 0 51 2.11978 1
gene 3 21 9 -8 0 62 -8 1
gene 3 2 28 7.86019 0 77 7.86019 1
gene 3 28 6 -5.01401 0 78 -5.01401 1
gene 1 3 34 -4.38983 0 96 -4.38983 1
gene 1 34 6 8 0 97 8 1
gene 3 21 51 -0.230088 0 167 -0.230088 1
gene 3 51 7 -6.87063 0 168 -6.87063 1
gene 1 5 56 -1.10062 0 188 -1.10062 1
gene 1 56 6 -7.78527 0 189 -7.78527 1
gene 3 5 21 -1.81107 0 260 -1.81107 1
gene 3 1 21 -3.56397 0 299 -3.56397 1
gene 2 4 28 -0.781441 0 443 -0.781441 1
gene 2 51 6 -1.18845 0 607 -1.18845 1
gene 3 51 9 2.4316 0 672 2.4316 1
gene 3 4 187 0.145311 0 693 0.145311 1
gene 3 187 21 2.427 0 694 2.427 1
genomeend 68

/* Organism #69 Fitness: 46 Error: 0 */
genomestart 69
trait 1 0.1 0 0.357197 0 0 0 0.0898485 0 
trait 2 0.2 0 0 0 0 0 0 0 
trait 3 0.3 0 0 0 0 0 0 0 
node 1 1 1 3
node 2 3 1 1
node 3 2 1 1
node 4 3 1 1
node 5 2 1 1
node 6 3 0 2
node 7 2 0 2
node 9 1 0 0
node 21 1 0 0
node 28 1 0 0
node 34 1 0 0
node 51 1 0 0
node 56 1 0 0
node 187 1 0 0
node 193 1 0 0
gene 1 1 6 -6.89021 0 1 -6.89021 1
gene 3 2 6 -2.45791 0 2 -2.45791 1
gene 1 3 6 6.87855 0 3 6.87855 1
gene 3 4 6 0.586383 0 4 0.586383 0
gene 1 5 6 0.913734 0 5 0.913734 1
gene 3 1 7 -1.60432 0 6 -1.60432 1
gene 1 2 7 -4.03026 0 7 -4.03026 0
gene 3 3 7 0.799821 0 8 0.799821 0
gene 3 4 7 -1.71693 0 9 -1.71693 1
gene 1 5 7 -5.44035 0 10 -5.44035 1
gene 3 4 9 -2.09674 0 15 -2.09674 1
gene 3 9 6 0.369079 0 16 0.369079 1
gene 3 4 21 0.535915 0 50 0.535915 0
gene 3 21 7 3.99457 0 51 3.99457 1
gene 3 21 9 -5.27768 0 62 -5.27768 1
gene 3 2 28 3.54494 0 77 3.54494 1
gene 3 28 6 -4.91115 0 78 -4.91115 1
gene 1 3 34 3.67595 0 96 3.67595 1
gene 1 34 6 6.76806 0 97 6.76806 1
gene 3 21 51 0.651375 0 167 0.651375 1
gene 3 51 7 -6.67779 0 168 -6.67779 1
gene 1 5 56 1.81143 0 188 1.81143 1
gene 1 56 6 -8 0 189 -8 1
gene 3 5 21 -3.56821 0 260 -3.56821 1
gene 3 1 21 -3.32538 0 299 -3.32538 1
gene 2 4 28 2.0721 0 443 2.0721 1
gene 2 51 6 -0.36494 0 607 -0.36494 1
gene 3 51 9 0.341797 0 672 0.341797 1
gene 3 4 187 1.91012 0 693 1.91012 1
gene 3 187 21 1.56624 0 694 1.56624 1
gene 3 3 193 1.301 0 719 1.301 1
gene 3 193 7 -2.0318 0 720 -2.0318 1
genomeend 69

/* Organism #70 Fitness: 111 Error: 0 */
genomestart 70
trait 1 0.1 0 0.447402 0 0 0 0 0 
trait 2 0.2 0 0 0 0 0 0 0 
trait 3 0.3 0 0 0 0 0 0 0 
node 1 1 1 3
node 2 3 1 1
node 3 2 1 1
node 4 3 1 1
node 5 2 1 1
node 6 3 0 2
node 7 2 0 2
node 9 1 0 0
node 21 1 0 0
node 28 1 0 0
node 34 1 0 0
node 51 1 0 0
node 56 1 0 0
node 187 1 0 0
gene 1 1 6 -4.05876 0 1 -4.05876 1
gene 3 2 6 0.156178 0 2 0.156178 1
gene 1 3 6 5.0297 0 3 5.0297 1
gene 3 4 6 2.06979 0 4 2.06979 0
gene 1 5 6 0.469025 0 5 0.469025 1
gene 3 1 7 1.65862 0 6 1.65862 1
gene 1 2 7 -3.69947 0 7 -3.69947 0
gene 3 3 7 -5.27137 0 8 -5.27137 0
gene 3 4 7 -1.31181 0 9 -1.31181 1
gene 1 5 7 -6.58748 0 10 -6.58748 1
gene 3 4 9 -4.47853 0 15 -4.47853 1
gene 3 9 6 -4.48639 0 16 -4.48639 1
gene 3 4 21 -2.36091 0 50 -2.36091 0
