
/* Species #1 : (Size 17) (AF 5958.88) (Age 16)  */


/* Organism #0 Fitness: 276 Error: 0 */
genomestart 0
trait 1 0.1 0 0 0 0 0 0 0 
trait 2 0.2 0 0 0 0 0 0.00622111 0.0105113 
trait 3 0.3 0.466009 0 0 0 0 0 0 
node 1 3 1 3
node 2 1 1 1
node 3 3 1 1
node 4 1 1 1
node 5 2 1 1
node 6 1 0 2
node 7 3 0 2
gene 3 1 6 -2.63569 0 1 -2.63569 1
gene 3 2 6 -0.663534 0 2 -0.663534 1
gene 2 3 6 -1.60901 0 3 -1.60901 1
gene 3 4 6 -1.53052 0 4 -1.53052 1
gene 3 5 6 -1.1613 0 5 -1.1613 1
gene 2 1 7 2.08466 0 6 2.08466 1
gene 1 2 7 -1.39827 0 7 -1.39827 1
gene 3 3 7 -2.24675 0 8 -2.24675 1
gene 3 4 7 0.0380312 0 9 0.0380312 1
gene 3 5 7 1.19544 0 10 1.19544 1
gene 1 7 6 -0.218465 0 14 -0.218465 1
genomeend 0

/* Organism #1 Fitness: 74 Error: 0 */
genomestart 1
trait 1 0.326147 0 0.327609 0 0.31993 0 0 0 
trait 2 0.2 0 0 0 0 0 0.00622111 0.0105113 
trait 3 0.3 0.466009 0 0 0 0 0 0 
node 1 3 1 3
node 2 1 1 1
node 3 3 1 1
node 4 1 1 1
node 5 2 1 1
node 6 1 0 2
node 7 3 0 2
gene 3 1 6 -3.17706 0 1 -3.17706 1
gene 3 2 6 1.42838 0 2 1.42838 1
gene 2 3 6 -0.934166 0 3 -0.934166 1
gene 3 4 6 2.2363 0 4 2.2363 1
gene 3 5 6 -0.709728 0 5 -0.709728 1
gene 2 1 7 3.62001 0 6 3.62001 1
gene 1 2 7 -3.14053 0 7 -3.14053 1
gene 3 3 7 -1.42187 0 8 -1.42187 1
gene 3 4 7 0.0380312 0 9 0.0380312 1
gene 3 5 7 1.13379 0 10 1.13379 1
gene 1 7 6 -0.0392856 0 14 -0.0392856 1
genomeend 1

/* Organism #2 Fitness: 76 Error: 0 */
genomestart 2
trait 1 0.326147 0 0.327609 0 0.31993 0 0 0 
trait 2 0.2 0 0 0 0 0 0.00622111 0.0105113 
trait 3 0.3 0.466009 0 0 0 0 0 0 
node 1 3 1 3
node 2 1 1 1
node 3 3 1 1
node 4 1 1 1
node 5 2 1 1
node 6 1 0 2
node 7 3 0 2
gene 3 1 6 -4.96343 0 1 -4.96343 1
gene 3 2 6 1.08815 0 2 1.08815 1
gene 2 3 6 -2.76919 0 3 -2.76919 1
gene 3 4 6 -1.43273 0 4 -1.43273 1
gene 3 5 6 0.842282 0 5 0.842282 1
gene 2 1 7 1.33377 0 6 1.33377 1
gene 1 2 7 -2.57985 0 7 -2.57985 1
gene 1 3 7 -0.276199 0 8 -0.276199 1
gene 3 4 7 -0.220849 0 9 -0.220849 1
gene 3 5 7 0.58847 0 10 0.58847 1
gene 1 7 6 0.409642 0 14 0.409642 1
genomeend 2

/* Organism #3 Fitness: 13 Error: 0 */
genomestart 3
trait 1 0.1 0 0 0 0 0 0 0 
trait 2 0.2 0 0 0 0 0 0.0059619 0.0100734 
trait 3 0.298828 0.407757 0.0229624 0.00260638 0 0 0 0 
node 1 1 1 3
node 2 2 1 1
node 3 1 1 1
node 4 1 1 1
node 5 3 1 1
node 6 3 0 2
node 7 3 0 2
gene 2 1 6 0.81026 0 1 0.81026 1
gene 3 2 6 -0.97821 0 2 -0.97821 1
gene 2 3 6 -0.945976 0 3 -0.945976 1
gene 3 4 6 -0.341454 0 4 -0.341454 1
gene 3 5 6 -2.1911 0 5 -2.1911 1
gene 2 1 7 2.60696 0 6 2.60696 1
gene 1 2 7 2.47074 0 7 2.47074 1
gene 3 3 7 -0.639485 0 8 -0.639485 1
gene 3 4 7 1.57793 0 9 1.57793 1
gene 3 5 7 -0.73825 0 10 -0.73825 1
gene 1 7 6 0.644553 0 14 0.644553 1
genomeend 3

/* Organism #4 Fitness: 27 Error: 0 */
genomestart 4
trait 1 0.552295 0 0.655217 0 0.63986 0 0 0 
trait 2 0.2 0 0 0 0 0 0.00622111 0.0105113 
trait 3 0.3 0.466009 0 0 0 0 0 0 
node 1 3 1 3
node 2 1 1 1
node 3 3 1 1
node 4 1 1 1
node 5 2 1 1
node 6 1 0 2
node 7 3 0 2
gene 3 1 6 -3.77006 0 1 -3.77006 1
gene 3 2 6 -1.74149 0 2 -1.74149 1
gene 2 3 6 -2.54928 0 3 -2.54928 1
gene 3 4 6 0.393223 0 4 0.393223 1
gene 3 5 6 0.357118 0 5 0.357118 1
gene 2 1 7 2.74322 0 6 2.74322 1
gene 1 2 7 -2.9301 0 7 -2.9301 1
gene 1 3 7 -2.78963 0 8 -2.78963 1
gene 3 4 7 -1.95104 0 9 -1.95104 1
gene 3 5 7 1.39738 0 10 1.39738 1
gene 1 7 6 0.0430084 0 14 0.0430084 1
genomeend 4

/* Organism #5 Fitness: 33 Error: 0 */
genomestart 5
trait 1 0.1 0 0 0 0 0 0 0 
trait 2 0.2 0 0 0 0 0 0.0060915 0.0102923 
trait 3 0.299414 0.436883 0.0114812 0.00130319 0 0 0 0 
node 1 3 1 3
node 2 1 1 1
node 3 3 1 1
node 4 1 1 1
node 5 2 1 1
node 6 1 0 2
node 7 3 0 2
gene 3 1 6 -4.59404 0 1 -4.59404 1
gene 3 2 6 1.62166 0 2 1.62166 1
gene 2 3 6 -3.67816 0 3 -3.67816 1
gene 3 4 6 -0.89435 0 4 -0.89435 1
gene 3 5 6 -0.411069 0 5 -0.411069 1
gene 2 1 7 2.20132 0 6 2.20132 1
gene 1 2 7 -3.83085 0 7 -3.83085 1
gene 3 3 7 -0.827788 0 8 -0.827788 1
gene 3 4 7 -1.0898 0 9 -1.0898 1
gene 3 5 7 3.33001 0 10 3.33001 1
gene 1 7 6 2.43874 0 14 2.43874 1
genomeend 5

/* Organism #6 Fitness: 66 Error: 0 */
genomestart 6
trait 1 0.326147 0 0.327609 0 0.31993 0 0 0 
trait 2 0.2 0 0 0 0 0 0.00622111 0.0105113 
trait 3 0.3 0.466009 0 0 0 0 0 0 
node 1 3 1 3
node 2 1 1 1
node 3 3 1 1
node 4 1 1 1
node 5 2 1 1
node 6 1 0 2
node 7 3 0 2
gene 3 1 6 -2.4981 0 1 -2.4981 1
gene 3 2 6 1.35949 0 2 1.35949 1
gene 2 3 6 -1.60901 0 3 -1.60901 1
gene 3 4 6 -0.368952 0 4 -0.368952 1
gene 2 5 6 1.37029 0 5 1.37029 1
gene 2 1 7 -0.211848 0 6 -0.211848 1
gene 1 2 7 -2.37017 0 7 -2.37017 1
gene 1 3 7 -0.105023 0 8 -0.105023 1
gene 3 4 7 2.51155 0 9 2.51155 1
gene 3 5 7 -0.600237 0 10 -0.600237 1
gene 1 7 6 -1.57126 0 14 -1.57126 1
genomeend 6

/* Organism #7 Fitness: 6 Error: 0 */
genomestart 7
trait 1 0.326147 0 0.327609 0 0.31993 0 0 0 
trait 2 0.2 0 0 0 0 0 0.00622111 0.0105113 
trait 3 0.3 0.466009 0 0 0 0 0 0 
node 1 3 1 3
node 2 1 1 1
node 3 3 1 1
node 4 1 1 1
node 5 2 1 1
node 6 1 0 2
node 7 3 0 2
gene 3 1 6 -4.20253 0 1 -4.20253 1
gene 3 2 6 -0.128964 0 2 -0.128964 1
gene 2 3 6 -2.75699 0 3 -2.75699 1
gene 3 4 6 0.0527478 0 4 0.0527478 1
gene 3 5 6 -0.100436 0 5 -0.100436 1
gene 2 1 7 -2.02657 0 6 -2.02657 1
gene 1 2 7 -1.21345 0 7 -1.21345 1
gene 3 3 7 -2.24675 0 8 -2.24675 1
gene 3 4 7 2.42831 0 9 2.42831 1
gene 3 5 7 2.45437 0 10 2.45437 1
gene 1 7 6 0.862727 0 14 0.862727 1
genomeend 7

/* Organism #8 Fitness: 19 Error: 0 */
genomestart 8
trait 1 0 0.833975 0.224794 0 0 0.920526 0 0 
trait 2 0.2 0 0 0 0 0 0.0059619 0.0100734 
trait 3 0.298828 0.407757 0.0229624 0.00260638 0 0 0 0 
node 1 1 1 3
node 2 2 1 1
node 3 1 1 1
node 4 1 1 1
node 5 3 1 1
node 6 3 0 2
node 7 3 0 2
gene 3 1 6 -4.67863 0 1 -4.67863 1
gene 3 2 6 -1.88074 0 2 -1.88074 1
gene 2 3 6 0.0540264 0 3 0.0540264 1
gene 3 4 6 -2.38058 0 4 -2.38058 1
gene 3 5 6 -4.43598 0 5 -4.43598 1
gene 2 1 7 0.794796 0 6 0.794796 1
gene 1 2 7 0.581027 0 7 0.581027 1
gene 3 3 7 -4.27373 0 8 -4.27373 1
gene 3 4 7 1.66429 0 9 1.66429 1
gene 3 5 7 3.9438 0 10 3.9438 1
gene 1 7 6 2.34842 0 14 2.34842 1
genomeend 8

/* Organism #9 Fitness: 16 Error: 0 */
genomestart 9
trait 1 0.552295 0 0.655217 0 0.63986 0 0 0 
trait 2 0.2 0 0 0 0 0 0.00622111 0.0105113 
trait 3 0.3 0.466009 0 0 0 0 0 0 
node 1 3 1 3
node 2 1 1 1
node 3 3 1 1
node 4 1 1 1
node 5 2 1 1
node 6 1 0 2
node 7 3 0 2
gene 3 1 6 -1.86951 0 1 -1.86951 1
gene 3 2 6 -1.47713 0 2 -1.47713 1
gene 2 3 6 -1.60901 0 3 -1.60901 1
gene 3 4 6 -1.96775 0 4 -1.96775 1
gene 3 5 6 -3.53183 0 5 -3.53183 1
gene 2 1 7 2.08466 0 6 2.08466 1
gene 1 2 7 0.938932 0 7 0.938932 1
gene 1 3 7 -2.43749 0 8 -2.43749 1
gene 3 4 7 -1.38379 0 9 -1.38379 1
gene 3 5 7 2.44379 0 10 2.44379 1
gene 1 7 6 1.67478 0 14 1.67478 1
genomeend 9

/* Organism #10 Fitness: 32 Error: 0 */
genomestart 10
trait 1 0.552295 0 0.655217 0 0.63986 0 0 0 
trait 2 0.2 0 0 0 0 0 0.00622111 0.0105113 
trait 3 1 1 0.389108 0.0601312 0 0 0 0 
node 1 3 1 3
node 2 1 1 1
node 3 3 1 1
node 4 1 1 1
node 5 2 1 1
node 6 1 0 2
node 7 3 0 2
gene 3 1 6 -4.14733 0 1 -4.14733 1
gene 3 2 6 1.40025 0 2 1.40025 1
gene 2 3 6 -0.766111 0 3 -0.766111 1
gene 3 4 6 -1.83318 0 4 -1.83318 1
gene 3 5 6 -1.47533 0 5 -1.47533 1
gene 2 1 7 2.19437 0 6 2.19437 1
gene 1 2 7 1.03455 0 7 1.03455 1
gene 1 3 7 -4.7419 0 8 -4.7419 1
gene 3 4 7 1.32658 0 9 1.32658 1
gene 3 5 7 0.580994 0 10 0.580994 1
gene 1 7 6 -0.218465 0 14 -0.218465 1
genomeend 10

/* Organism #11 Fitness: 31 Error: 0 */
genomestart 11
trait 1 0.1 0 0 0 0 0 0 0 
trait 2 0.2 0 0 0 0 0 0.00622111 0.0105113 
trait 3 0.3 0.466009 0 0 0 0 0 0 
node 1 3 1 3
node 2 1 1 1
node 3 3 1 1
node 4 1 1 1
node 5 2 1 1
node 6 1 0 2
node 7 3 0 2
gene 3 1 6 -3.69502 0 1 -3.69502 1
gene 3 2 6 -2.75576 0 2 -2.75576 1
gene 2 3 6 -2.25686 0 3 -2.25686 1
gene 3 4 6 -1.53052 0 4 -1.53052 1
gene 3 5 6 0.392508 0 5 0.392508 1
gene 2 1 7 2.75592 0 6 2.75592 1
gene 1 2 7 -3.71706 0 7 -3.71706 1
gene 3 3 7 -3.72001 0 8 -3.72001 1
gene 3 4 7 0.0380312 0 9 0.0380312 1
gene 3 5 7 1.98164 0 10 1.98164 1
gene 1 7 6 2.15182 0 14 2.15182 1
genomeend 11

/* Organism #12 Fitness: 276 Error: 0 */
genomestart 12
trait 1 0.1 0 0 0 0 0 0 0 
trait 2 0.2 0 0 0 0 0 0.00622111 0.0105113 
trait 3 0.3 0.466009 0 0 0 0 0 0 
node 1 3 1 3
node 2 1 1 1
node 3 3 1 1
node 4 1 1 1
node 5 2 1 1
node 6 1 0 2
node 7 3 0 2
gene 3 1 6 -2.63569 0 1 -2.63569 1
gene 3 2 6 -0.663534 0 2 -0.663534 1
gene 2 3 6 -1.60901 0 3 -1.60901 1
gene 3 4 6 -1.53052 0 4 -1.53052 1
gene 3 5 6 -1.1613 0 5 -1.1613 1
gene 2 1 7 2.08466 0 6 2.08466 1
gene 1 2 7 -1.39827 0 7 -1.39827 1
gene 3 3 7 -2.24675 0 8 -2.24675 1
gene 3 4 7 0.0380312 0 9 0.0380312 1
gene 3 5 7 1.19544 0 10 1.19544 1
gene 1 7 6 -0.218465 0 14 -0.218465 1
genomeend 12

/* Organism #13 Fitness: 74 Error: 0 */
genomestart 13
trait 1 0.552295 0 0.655217 0 0.63986 0 0 0 
trait 2 0.2 0 0 0 0 0 0.00622111 0.0105113 
trait 3 0.3 0.466009 0 0 0 0 0 0 
node 1 3 1 3
node 2 1 1 1
node 3 3 1 1
node 4 1 1 1
node 5 2 1 1
node 6 1 0 2
node 7 3 0 2
gene 3 1 6 -1.39728 0 1 -1.39728 1
gene 3 2 6 -0.663534 0 2 -0.663534 1
gene 2 3 6 1.43098 0 3 1.43098 1
gene 3 4 6 -3.49108 0 4 -3.49108 1
gene 3 5 6 1.09335 0 5 1.09335 1
gene 2 1 7 2.64022 0 6 2.64022 1
gene 1 2 7 0.60681 0 7 0.60681 1
gene 1 3 7 0.121297 0 8 0.121297 1
gene 3 4 7 1.83829 0 9 1.83829 1
gene 3 5 7 0.240107 0 10 0.240107 1
gene 1 7 6 -2.60859 0 14 -2.60859 1
genomeend 13

/* Organism #14 Fitness: 276 Error: 0 */
genomestart 14
trait 1 0.326147 0 0.327609 0 0.31993 0 0 0 
trait 2 0.2 0 0 0 0 0 0.00622111 0.0105113 
trait 3 0.3 0.466009 0 0 0 0 0 0 
node 1 3 1 3
node 2 1 1 1
node 3 3 1 1
node 4 1 1 1
node 5 2 1 1
node 6 1 0 2
node 7 3 0 2
gene 3 1 6 -2.63569 0 1 -2.63569 1
gene 3 2 6 -0.663534 0 2 -0.663534 1
gene 2 3 6 -1.60901 0 3 -1.60901 1
gene 3 4 6 -1.53052 0 4 -1.53052 1
gene 3 5 6 -1.1613 0 5 -1.1613 1
gene 2 1 7 2.08466 0 6 2.08466 1
gene 1 2 7 -1.39827 0 7 -1.39827 1
gene 1 3 7 -2.24675 0 8 -2.24675 1
gene 3 4 7 0.0380312 0 9 0.0380312 1
gene 3 5 7 1.19544 0 10 1.19544 1
gene 1 7 6 -0.218465 0 14 -0.218465 1
genomeend 14

/* Organism #15 Fitness: 100001 Error: 0 */
/* ##------$ WINNER 15 SPECIES #1 $------## */
genomestart 15
trait 1 0.326147 0 0.327609 0 0.31993 0 0 0 
trait 2 0.2 0 0 0 0 0 0.0060915 0.0102923 
trait 3 0.299414 0.436883 0.0114812 0.00130319 0 0 0 0 
node 1 3 1 3
node 2 3 1 1
node 3 3 1 1
node 4 1 1 1
node 5 2 1 1
node 6 1 0 2
node 7 3 0 2
gene 3 1 6 -2.44189 0 1 -2.44189 1
gene 3 2 6 -2.78759 0 2 -2.78759 1
gene 2 3 6 -1.93007 0 3 -1.93007 1
gene 3 4 6 -1.65723 0 4 -1.65723 1
gene 3 5 6 -3.26696 0 5 -3.26696 1
gene 2 1 7 4.26074 0 6 4.26074 1
gene 1 2 7 -0.0647052 0 7 -0.0647052 1
gene 1 3 7 -3.67643 0 8 -3.67643 1
gene 3 4 7 1.4455 0 9 1.4455 1
gene 3 5 7 -2.18502 0 10 -2.18502 1
gene 1 7 6 -2.48995 0 14 -2.48995 1
genomeend 15

/* Organism #16 Fitness: 5 Error: 0 */
genomestart 16
trait 1 0.1 0 0 0 0 0 0 0 
trait 2 0.2 0 0 0 0 0 0.0060915 0.0102923 
trait 3 0.299414 0.436883 0.0114812 0.00130319 0 0 0 0 
node 1 3 1 3
node 2 1 1 1
node 3 3 1 1
node 4 1 1 1
node 5 2 1 1
node 6 1 0 2
node 7 3 0 2
gene 3 1 6 2.22024 0 1 2.22024 1
gene 3 2 6 -0.336628 0 2 -0.336628 1
gene 2 3 6 0.458335 0 3 0.458335 1
gene 3 4 6 -1.08054 0 4 -1.08054 1
gene 3 5 6 -2.71227 0 5 -2.71227 1
gene 2 1 7 1.67835 0 6 1.67835 1
gene 1 2 7 0.414147 0 7 0.414147 1
gene 3 3 7 2.22216 0 8 2.22216 1
gene 3 4 7 0.417276 0 9 0.417276 1
gene 3 5 7 1.35678 0 10 1.35678 1
gene 1 7 6 -0.330548 0 14 -0.330548 1
genomeend 16

/* Species #2 : (Size 8) (AF 80.625) (Age 13)  */


/* Organism #17 Fitness: 130 Error: 0 */
genomestart 17
trait 1 0.1 0 0 0 0 0 0 0 
trait 2 0.2 0 0 0 0 0 0.00829481 0.0140151 
trait 3 0.3 0 0 0 0 0 0 0 
node 1 1 1 3
node 2 2 1 1
node 3 3 1 1
node 4 2 1 1
node 5 2 1 1
node 6 1 0 2
node 7 1 0 2
node 14 1 0 0
node 16 1 0 0
node 27 1 0 0
gene 2 1 6 -0.648945 0 1 -0.648945 1
gene 1 2 6 3.67887 0 2 3.67887 1
gene 2 3 6 -2.38639 0 3 -2.38639 1
gene 2 4 6 0.550899 0 4 0.550899 0
gene 3 5 6 -0.0388657 0 5 -0.0388657 0
gene 3 1 7 -0.145344 0 6 -0.145344 1
gene 3 2 7 -2.17394 0 7 -2.17394 1
gene 2 3 7 2.63773 0 8 2.63773 1
gene 1 4 7 3.16836 0 9 3.16836 1
gene 2 5 7 -1.21861 0 10 -1.21861 1
gene 1 4 14 -2.30459 0 27 -2.30459 1
gene 1 14 6 -0.678318 0 28 -0.678318 1
gene 3 5 16 -1.20391 0 32 -1.20391 1
gene 3 16 6 -1.63064 0 33 -1.63064 1
gene 2 4 27 0.249137 0 67 0.249137 1
gene 2 27 6 -2.81402 0 68 -2.81402 1
genomeend 17

/* Organism #18 Fitness: 50 Error: 0 */
genomestart 18
trait 1 0.1 0 0 0 0 0 0 0 
trait 2 0.2 0 0 0 0 0 0.00829481 0.0140151 
trait 3 0.3 0 0 0 0 0 0 0 
node 1 1 1 3
node 2 2 1 1
node 3 3 1 1
node 4 2 1 1
node 5 2 1 1
node 6 1 0 2
node 7 1 0 2
node 14 1 0 0
node 16 2 0 0
node 27 1 0 0
gene 2 1 6 -2.50625 0 1 -2.50625 1
gene 1 2 6 -0.86242 0 2 -0.86242 1
gene 2 3 6 -3.79403 0 3 -3.79403 1
gene 2 4 6 0.611827 0 4 0.611827 0
gene 3 5 6 -4.93387 0 5 -4.93387 0
gene 3 1 7 2.60441 0 6 2.60441 1
gene 3 2 7 -2.09213 0 7 -2.09213 1
gene 2 3 7 -0.447602 0 8 -0.447602 1
gene 1 4 7 5.34189 0 9 5.34189 1
gene 2 5 7 -3.2381 0 10 -3.2381 1
gene 1 4 14 -3.06737 0 27 -3.06737 1
gene 1 14 6 0.106681 0 28 0.106681 1
gene 3 5 16 4.77902 0 32 4.77902 1
gene 3 16 6 1.744 0 33 1.744 1
gene 2 4 27 3.19756 0 67 3.19756 1
gene 1 27 6 1.87726 0 68 1.87726 1
gene 1 16 14 -0.0803259 0 174 -0.0803259 1
genomeend 18

/* Organism #19 Fitness: 119 Error: 0 */
genomestart 19
trait 1 0.1 0 0 0 0 0 0 0 
trait 2 0.2 0 0 0 0 0 0.00829481 0.0140151 
trait 3 0.3 0 0 0 0 0 0 0 
node 1 1 1 3
node 2 2 1 1
node 3 3 1 1
node 4 2 1 1
node 5 2 1 1
node 6 1 0 2
node 7 1 0 2
node 14 1 0 0
node 16 1 0 0
node 27 1 0 0
gene 2 1 6 -0.121828 0 1 -0.121828 1
gene 1 2 6 2.21506 0 2 2.21506 1
gene 2 3 6 -0.0149949 0 3 -0.0149949 1
gene 2 4 6 1.81449 0 4 1.81449 0
gene 3 5 6 -2.10451 0 5 -2.10451 0
gene 3 1 7 -0.145344 0 6 -0.145344 1
gene 3 2 7 -1.42443 0 7 -1.42443 1
gene 2 3 7 2.63773 0 8 2.63773 1
gene 1 4 7 1.37168 0 9 1.37168 1
gene 2 5 7 -2.70737 0 10 -2.70737 1
gene 1 4 14 -4.2072 0 27 -4.2072 1
gene 1 14 6 -2.35142 0 28 -2.35142 1
gene 3 5 16 -1.33134 0 32 -1.33134 1
gene 3 16 6 -1.62489 0 33 -1.62489 1
gene 2 4 27 -1.92089 0 67 -1.92089 1
gene 2 27 6 -2.81402 0 68 -2.81402 1
genomeend 19

/* Organism #20 Fitness: 70 Error: 0 */
genomestart 20
trait 1 0.1 0 0 0 0 0 0 0 
trait 2 0.2 0 0 0 0 0 0.00829481 0.0140151 
trait 3 0.3 0 0 0 0 0 0 0 
node 1 1 1 3
node 2 2 1 1
node 3 3 1 1
node 4 2 1 1
node 5 2 1 1
node 6 1 0 2
node 7 1 0 2
node 14 1 0 0
node 16 1 0 0
node 27 1 0 0
gene 2 1 6 -2.50625 0 1 -2.50625 1
gene 1 2 6 3.67887 0 2 3.67887 1
gene 2 3 6 -2.38639 0 3 -2.38639 1
gene 2 4 6 0.690752 0 4 0.690752 0
gene 3 5 6 -2.95962 0 5 -2.95962 1
gene 3 1 7 -0.145344 0 6 -0.145344 1
gene 3 2 7 -2.09213 0 7 -2.09213 1
gene 2 3 7 -2.01697 0 8 -2.01697 1
gene 1 4 7 3.16836 0 9 3.16836 1
gene 2 5 7 -3.2381 0 10 -3.2381 1
gene 1 4 14 -3.06737 0 27 -3.06737 1
gene 1 14 6 -0.678318 0 28 -0.678318 1
gene 3 5 16 -1.20391 0 32 -1.20391 1
gene 3 16 6 -1.63064 0 33 -1.63064 1
gene 2 4 27 1.95564 0 67 1.95564 1
gene 1 27 6 1.87726 0 68 1.87726 1
genomeend 20

/* Organism #21 Fitness: 76 Error: 0 */
genomestart 21
trait 1 0.1 0 0 0 0 0 0 0 
trait 2 0.2 0 0 0 0 0 0.00829481 0.0140151 
trait 3 0.3 0 0 0 0 0 0 0 
node 1 1 1 3
node 2 2 1 1
node 3 3 1 1
node 4 2 1 1
node 5 2 1 1
node 6 1 0 2
node 7 1 0 2
node 14 1 0 0
node 16 2 0 0
node 27 1 0 0
gene 2 1 6 -2.79295 0 1 -2.79295 1
gene 1 2 6 1.40823 0 2 1.40823 1
gene 2 3 6 -3.94194 0 3 -3.94194 1
gene 2 4 6 -1.50998 0 4 -1.50998 0
gene 3 5 6 -1.7131 0 5 -1.7131 0
gene 3 1 7 1.16057 0 6 1.16057 1
gene 3 2 7 -3.44117 0 7 -3.44117 1
gene 2 3 7 -0.770814 0 8 -0.770814 1
gene 1 4 7 0.041091 0 9 0.041091 1
gene 2 5 7 -0.0567842 0 10 -0.0567842 1
gene 1 4 14 -4.24356 0 27 -4.24356 1
gene 1 14 6 1.85221 0 28 1.85221 1
gene 3 5 16 0.354248 0 32 0.354248 1
gene 3 16 6 -1.39975 0 33 -1.39975 1
gene 2 4 27 2.32271 0 67 2.32271 1
gene 2 27 6 -4.78677 0 68 -4.78677 1
genomeend 21

/* Organism #22 Fitness: 73 Error: 0 */
genomestart 22
trait 1 0.1 0 0 0 0 0 0 0 
trait 2 0.2 0 0 0 0 0 0.00829481 0.0140151 
trait 3 0.3 0 0 0 0 0 0 0 
node 1 1 1 3
node 2 2 1 1
node 3 3 1 1
node 4 2 1 1
node 5 2 1 1
node 6 1 0 2
node 7 1 0 2
node 14 1 0 0
node 16 2 0 0
node 27 1 0 0
gene 2 1 6 -4.58756 0 1 -4.58756 1
gene 1 2 6 -0.226843 0 2 -0.226843 1
gene 2 3 6 -1.25079 0 3 -1.25079 1
gene 2 4 6 1.67441 0 4 1.67441 0
gene 3 5 6 -5.61167 0 5 -5.61167 0
gene 3 1 7 2.80904 0 6 2.80904 1
gene 3 2 7 -4.60912 0 7 -4.60912 1
gene 2 3 7 -2.6683 0 8 -2.6683 1
gene 1 4 7 2.50981 0 9 2.50981 1
gene 2 5 7 -1.68654 0 10 -1.68654 1
gene 1 4 14 -5.81358 0 27 -5.81358 1
gene 1 14 6 0.78032 0 28 0.78032 1
gene 3 5 16 2.45907 0 32 2.45907 1
gene 3 16 6 3.1772 0 33 3.1772 1
gene 2 4 27 0.146689 0 67 0.146689 1
gene 1 27 6 -0.484682 0 68 -0.484682 1
genomeend 22

/* Organism #23 Fitness: 53 Error: 0 */
genomestart 23
trait 1 0.1 0 0 0 0 0 0 0 
trait 2 0.2 0 0 0 0 0 0.00829481 0.0140151 
trait 3 0.3 0 0 0 0 0 0 0 
node 1 1 1 3
node 2 2 1 1
node 3 3 1 1
node 4 2 1 1
node 5 2 1 1
node 6 1 0 2
node 7 1 0 2
node 14 1 0 0
node 16 2 0 0
node 27 1 0 0
gene 2 1 6 -4.93696 0 1 -4.93696 1
gene 1 2 6 -0.86242 0 2 -0.86242 1
gene 2 3 6 -1.57788 0 3 -1.57788 1
gene 2 4 6 0.690752 0 4 0.690752 1
gene 3 5 6 -2.95962 0 5 -2.95962 0
gene 3 1 7 2.60441 0 6 2.60441 1
gene 3 2 7 -3.21841 0 7 -3.21841 1
gene 2 3 7 -0.447602 0 8 -0.447602 1
gene 1 4 7 2.18587 0 9 2.18587 1
gene 2 5 7 -0.606339 0 10 -0.606339 1
gene 1 4 14 -5.05149 0 27 -5.05149 1
gene 1 14 6 1.17657 0 28 1.17657 1
gene 3 5 16 1.3479 0 32 1.3479 1
gene 3 16 6 1.744 0 33 1.744 1
gene 2 4 27 1.95564 0 67 1.95564 1
gene 1 27 6 1.87726 0 68 1.87726 1
genomeend 23

/* Organism #24 Fitness: 74 Error: 0 */
genomestart 24
trait 1 0.1 0 0 0 0 0 0 0 
trait 2 0.2 0 0 0 0 0 0.00829481 0.0140151 
trait 3 0.3 0 0 0 0 0 0 0 
node 1 1 1 3
node 2 2 1 1
node 3 1 1 1
node 4 2 1 1
node 5 2 1 1
node 6 1 0 2
node 7 1 0 2
node 14 1 0 0
node 16 2 0 0
node 27 1 0 0
gene 2 1 6 -5.02655 0 1 -5.02655 1
gene 1 2 6 1.44123 0 2 1.44123 1
gene 2 3 6 0.433466 0 3 0.433466 1
gene 2 4 6 -0.482972 0 4 -0.482972 0
gene 3 5 6 -5.79401 0 5 -5.79401 0
gene 3 1 7 2.9659 0 6 2.9659 1
gene 3 2 7 -2.00941 0 7 -2.00941 1
gene 2 3 7 1.34818 0 8 1.34818 1
gene 1 4 7 4.04895 0 9 4.04895 1
gene 2 5 7 -0.926993 0 10 -0.926993 1
gene 1 4 14 -2.73924 0 27 -2.73924 1
gene 1 14 6 -0.568016 0 28 -0.568016 1
gene 3 5 16 7.18825 0 32 7.18825 1
gene 3 16 6 1.74922 0 33 1.74922 1
gene 2 4 27 4.59395 0 67 4.59395 1
gene 2 27 6 -1.42296 0 68 -1.42296 1
genomeend 24

/* Species #3 : (Size 10) (AF 55.2) (Age 13)  */


/* Organism #25 Fitness: 91 Error: 0 */
genomestart 25
trait 1 0.1 0 0 0 0 0 0 0 
trait 2 0.2 0 0 0 0 0 0 0 
trait 3 0.3 0 0 0 0 0 0 0 
node 1 3 1 3
node 2 1 1 1
node 3 3 1 1
node 4 1 1 1
node 5 2 1 1
node 6 3 0 2
node 7 1 0 2
node 17 1 0 0
gene 2 1 6 -1.7919 0 1 -1.7919 1
gene 3 2 6 2.51368 0 2 2.51368 1
gene 1 3 6 -1.05408 0 3 -1.05408 1
gene 2 4 6 -1.43235 0 4 -1.43235 1
gene 3 5 6 0.46774 0 5 0.46774 1
gene 3 1 7 3.38 0 6 3.38 1
gene 1 2 7 2.914 0 7 2.914 1
gene 3 3 7 -1.74151 0 8 -1.74151 1
gene 3 4 7 -0.677254 0 9 -0.677254 0
gene 3 5 7 -4.00802 0 10 -4.00802 1
gene 2 6 7 1.53849 0 24 1.53849 1
gene 3 4 17 4.2618 0 34 4.2618 1
gene 3 17 7 -0.176548 0 35 -0.176548 1
gene 1 5 17 -0.475593 0 52 -0.475593 1
genomeend 25

/* Organism #26 Fitness: 74 Error: 0 */
genomestart 26
trait 1 0.158894 0 0 0 0.0216391 0 0 0 
trait 2 0.2 0 0 0 0 0 0 0 
trait 3 0.3 0 0 0 0 0 0 0 
node 1 3 1 3
node 2 1 1 1
node 3 3 1 1
node 4 1 1 1
node 5 2 1 1
node 6 3 0 2
node 7 1 0 2
node 17 1 0 0
gene 2 1 6 -5.09573 0 1 -5.09573 1
gene 3 2 6 4.53988 0 2 4.53988 1
gene 1 3 6 -0.501248 0 3 -0.501248 1
gene 2 4 6 -4.31177 0 4 -4.31177 1
gene 3 5 6 -2.8739 0 5 -2.8739 1
gene 3 1 7 5.42602 0 6 5.42602 1
gene 1 2 7 0.927629 0 7 0.927629 1
gene 3 3 7 0.194742 0 8 0.194742 1
gene 3 4 7 -0.954448 0 9 -0.954448 1
gene 3 5 7 -1.78446 0 10 -1.78446 1
gene 2 6 7 -1.85818 0 24 -1.85818 1
gene 3 4 17 8 0 34 8 1
gene 3 17 7 0.0649256 0 35 0.0649256 1
gene 1 5 17 -1.5679 0 52 -1.5679 1
genomeend 26

/* Organism #27 Fitness: 10 Error: 0 */
genomestart 27
trait 1 0.158894 0 0 0 0.0216391 0 0 0 
trait 2 0.2 0 0 0 0 0 0 0 
trait 3 0.3 0 0 0 0 0 0 0 
node 1 3 1 3
node 2 1 1 1
node 3 3 1 1
node 4 1 1 1
node 5 2 1 1
node 6 3 0 2
node 7 1 0 2
node 17 1 0 0
gene 2 1 6 -1.42463 0 1 -1.42463 1
gene 3 2 6 3.06457 0 2 3.06457 1
gene 1 3 6 0.70907 0 3 0.70907 1
gene 2 4 6 -4.06379 0 4 -4.06379 1
gene 3 5 6 -2.05776 0 5 -2.05776 1
gene 3 1 7 3.52125 0 6 3.52125 1
gene 1 2 7 0.724804 0 7 0.724804 1
gene 3 3 7 -0.244318 0 8 -0.244318 1
gene 3 4 7 -1.66664 0 9 -1.66664 0
gene 3 5 7 -2.14628 0 10 -2.14628 1
gene 2 6 7 0.492468 0 24 0.492468 1
gene 3 4 17 5.5081 0 34 5.5081 1
gene 3 17 7 0.803277 0 35 0.803277 1
gene 1 5 17 -0.475593 0 52 -0.475593 1
genomeend 27

/* Organism #28 Fitness: 54 Error: 0 */
genomestart 28
trait 1 0.765378 0 0 0 0 0 0.944667 0 
trait 2 0.2 0 0 0 0 0 0 0 
trait 3 0.3 0 0 0 0 0 0 0 
node 1 3 1 3
node 2 1 1 1
node 3 3 1 1
node 4 1 1 1
node 5 2 1 1
node 6 2 0 2
node 7 1 0 2
node 17 1 0 0
gene 2 1 6 -4.14953 0 1 -4.14953 1
gene 3 2 6 1.67241 0 2 1.67241 1
gene 1 3 6 -0.307296 0 3 -0.307296 1
gene 2 4 6 -1.92232 0 4 -1.92232 1
gene 3 5 6 2.30246 0 5 2.30246 1
gene 3 1 7 4.72134 0 6 4.72134 1
gene 1 2 7 0.974202 0 7 0.974202 1
gene 3 3 7 0.676638 0 8 0.676638 1
gene 3 4 7 -1.7385 0 9 -1.7385 0
gene 3 5 7 -4.58433 0 10 -4.58433 1
gene 2 6 7 1.31086 0 24 1.31086 1
gene 3 4 17 4.2618 0 34 4.2618 1
gene 3 17 7 -2.25835 0 35 -2.25835 1
gene 1 5 17 0.747336 0 52 0.747336 1
genomeend 28

/* Organism #29 Fitness: 35 Error: 0 */
genomestart 29
trait 1 0.1 0 0 0 0 0 0 0 
trait 2 0.2 0 0 0 0 0 0 0 
trait 3 0.3 0 0 0 0 0 0 0 
node 1 3 1 3
node 2 1 1 1
node 3 3 1 1
node 4 1 1 1
node 5 2 1 1
node 6 3 0 2
node 7 1 0 2
node 17 1 0 0
gene 2 1 6 -0.558962 0 1 -0.558962 1
gene 3 2 6 2.58291 0 2 2.58291 1
gene 1 3 6 -3.07438 0 3 -3.07438 1
gene 2 4 6 -1.33146 0 4 -1.33146 1
gene 3 5 6 0.770799 0 5 0.770799 1
gene 3 1 7 1.75517 0 6 1.75517 1
gene 1 2 7 4.86419 0 7 4.86419 1
gene 3 3 7 -4.19041 0 8 -4.19041 1
gene 3 4 7 -1.72879 0 9 -1.72879 0
gene 3 5 7 -1.92888 0 10 -1.92888 1
gene 2 6 7 -0.430968 0 24 -0.430968 1
gene 3 4 17 5.48333 0 34 5.48333 1
gene 3 17 7 1.60466 0 35 1.60466 1
gene 1 5 17 -0.0180665 0 52 -0.0180665 1
genomeend 29

/* Organism #30 Fitness: 34 Error: 0 */
genomestart 30
trait 1 0.1 0 0 0 0 0 0 0 
trait 2 0.2 0 0 0 0 0 0 0 
trait 3 0.3 0 0 0 0 0 0 0 
node 1 3 1 3
node 2 1 1 1
node 3 3 1 1
node 4 1 1 1
node 5 2 1 1
node 6 3 0 2
node 7 1 0 2
node 17 1 0 0
gene 2 1 6 0.310835 0 1 0.310835 1
gene 3 2 6 1.05528 0 2 1.05528 1
gene 1 3 6 -3.21949 0 3 -3.21949 1
gene 2 4 6 0.603438 0 4 0.603438 1
gene 3 5 6 -1.91353 0 5 -1.91353 1
gene 3 1 7 5.61906 0 6 5.61906 1
gene 1 2 7 2.74322 0 7 2.74322 1
gene 3 3 7 -1.96973 0 8 -1.96973 1
gene 3 4 7 1.0848 0 9 1.0848 0
gene 3 5 7 -2.19939 0 10 -2.19939 1
gene 2 6 7 1.6842 0 24 1.6842 1
gene 3 4 17 5.94271 0 34 5.94271 1
gene 3 17 7 -1.70264 0 35 -1.70264 1
gene 1 5 17 -0.475593 0 52 -0.475593 1
genomeend 30

/* Organism #31 Fitness: 56 Error: 0 */
genomestart 31
trait 1 0.1 0 0 0 0 0 0 0 
trait 2 0.2 0 0 0 0 0 0 0 
trait 3 0.3 0 0 0 0 0 0 0 
node 1 3 1 3
node 2 1 1 1
node 3 3 1 1
node 4 1 1 1
node 5 2 1 1
node 6 1 0 2
node 7 1 0 2
node 17 1 0 0
gene 2 1 6 0.107536 0 1 0.107536 1
gene 3 2 6 4.4983 0 2 4.4983 1
gene 1 3 6 -3.02712 0 3 -3.02712 1
gene 2 4 6 -0.518551 0 4 -0.518551 1
gene 3 5 6 1.16369 0 5 1.16369 1
gene 3 1 7 4.88651 0 6 4.88651 1
gene 1 2 7 5.29848 0 7 5.29848 1
gene 3 3 7 -1.7083 0 8 -1.7083 1
gene 3 4 7 -3.08812 0 9 -3.08812 0
gene 3 5 7 -6.35235 0 10 -6.35235 1
gene 2 6 7 3.50997 0 24 3.50997 1
gene 3 4 17 4.01688 0 34 4.01688 1
gene 3 17 7 1.39857 0 35 1.39857 1
gene 1 5 17 0.924076 0 52 0.924076 1
genomeend 31

/* Organism #32 Fitness: 88 Error: 0 */
genomestart 32
trait 1 0.217788 0 0 0 0.0432782 0 0 0 
trait 2 0.2 0 0 0 0 0 0 0 
trait 3 0.3 0 0 0 0 0 0 0 
node 1 3 1 3
node 2 1 1 1
node 3 3 1 1
node 4 1 1 1
node 5 2 1 1
node 6 3 0 2
node 7 1 0 2
node 17 1 0 0
gene 2 1 6 -3.49247 0 1 -3.49247 1
gene 3 2 6 2.51368 0 2 2.51368 1
gene 1 3 6 0.422768 0 3 0.422768 1
gene 2 4 6 -2.67325 0 4 -2.67325 1
gene 3 5 6 -2.04113 0 5 -2.04113 1
gene 3 1 7 3.38 0 6 3.38 1
gene 1 2 7 2.914 0 7 2.914 1
gene 2 3 7 0.812247 0 8 0.812247 1
gene 3 4 7 1.48381 0 9 1.48381 0
gene 3 5 7 -4.00802 0 10 -4.00802 1
gene 2 6 7 1.53849 0 24 1.53849 1
gene 3 4 17 7.87381 0 34 7.87381 1
gene 3 17 7 1.7831 0 35 1.7831 1
gene 1 5 17 -0.475593 0 52 -0.475593 1
genomeend 32

/* Organism #33 Fitness: 36 Error: 0 */
genomestart 33
trait 1 0.1 0 0 0 0 0 0 0 
trait 2 0.2 0 0 0 0 0 0 0 
trait 3 0.3 0 0 0 0 0 0 0 
node 1 3 1 3
node 2 1 1 1
node 3 3 1 1
node 4 1 1 1
node 5 2 1 1
node 6 3 0 2
node 7 1 0 2
node 17 1 0 0
gene 2 1 6 -1.01591 0 1 -1.01591 1
gene 3 2 6 1.8035 0 2 1.8035 1
gene 1 3 6 -1.59991 0 3 -1.59991 1
gene 2 4 6 -1.20574 0 4 -1.20574 1
gene 3 5 6 -1.19 0 5 -1.19 1
gene 3 1 7 1.22743 0 6 1.22743 1
gene 1 2 7 2.54841 0 7 2.54841 1
gene 3 3 7 -1.84124 0 8 -1.84124 1
gene 3 4 7 -1.39587 0 9 -1.39587 0
gene 3 5 7 -1.90609 0 10 -1.90609 1
gene 2 6 7 -0.851468 0 24 -0.851468 1
gene 3 4 17 4.52136 0 34 4.52136 1
gene 3 17 7 0.983532 0 35 0.983532 1
gene 1 5 17 1.4472 0 52 1.4472 1
genomeend 33

/* Organism #34 Fitness: 74 Error: 0 */
genomestart 34
trait 1 0.217788 0 0 0 0.0432782 0 0 0 
trait 2 0.2 0 0 0 0 0 0 0 
trait 3 0.3 0 0 0 0 0 0 0 
node 1 3 1 3
node 2 1 1 1
node 3 3 1 1
node 4 1 1 1
node 5 2 1 1
node 6 3 0 2
node 7 1 0 2
node 17 1 0 0
gene 2 1 6 -4.86122 0 1 -4.86122 1
gene 3 2 6 3.42542 0 2 3.42542 1
gene 1 3 6 -1.58126 0 3 -1.58126 1
gene 2 4 6 -4.60792 0 4 -4.60792 1
gene 3 5 6 -1.90557 0 5 -1.90557 1
gene 3 1 7 3.38 0 6 3.38 1
gene 1 2 7 2.914 0 7 2.914 1
gene 3 3 7 1.68267 0 8 1.68267 1
gene 3 4 7 2.96676 0 9 2.96676 0
gene 3 5 7 -2.45158 0 10 -2.45158 1
gene 2 6 7 -0.167013 0 24 -0.167013 1
gene 3 4 17 8 0 34 8 1
gene 3 17 7 3.43339 0 35 3.43339 1
gene 1 5 17 -0.0883394 0 52 -0.0883394 1
genomeend 34

/* Species #4 : (Size 9) (AF 40.1111) (Age 10)  */


/* Organism #35 Fitness: 90 Error: 0 */
genomestart 35
trait 1 0.1 0 0 0 0 0 0 0 
trait 2 0.1 0 0 0.312224 0 0 0.00829481 0.0140151 
trait 3 0.3 0 0 0 0 0 0 0 
node 1 1 1 3
node 2 2 1 1
node 3 3 1 1
node 4 2 1 1
node 5 2 1 1
node 6 1 0 2
node 7 1 0 2
node 14 1 0 0
node 16 1 0 0
node 26 1 0 0
gene 2 1 6 -3.33973 0 1 -3.33973 1
gene 1 2 6 5.53051 0 2 5.53051 1
gene 2 3 6 -0.142228 0 3 -0.142228 1
gene 2 4 6 -0.672012 0 4 -0.672012 1
gene 3 5 6 -0.90741 0 5 -0.90741 0
gene 3 1 7 2.70935 0 6 2.70935 1
gene 3 2 7 0.717555 0 7 0.717555 1
gene 2 3 7 3.3474 0 8 3.3474 1
gene 1 4 7 0.531586 0 9 0.531586 1
gene 2 5 7 -3.55027 0 10 -3.55027 1
gene 1 4 14 2.19569 0 27 2.19569 1
gene 1 14 6 2.41661 0 28 2.41661 0
gene 3 5 16 3.11806 0 32 3.11806 1
gene 3 16 6 0.838494 0 33 0.838494 1
gene 2 1 14 -0.688582 0 41 -0.688582 1
gene 1 14 26 -3.9235 0 64 -3.9235 1
gene 1 26 6 0.397371 0 65 0.397371 1
genomeend 35

/* Organism #36 Fitness: 28 Error: 0 */
genomestart 36
trait 1 0.1 0 0 0 0 0 0 0 
trait 2 0.1 0 0 0.312224 0 0 0.00829481 0.0140151 
trait 3 0.3 0 0 0 0 0 0 0 
node 1 1 1 3
node 2 2 1 1
node 3 3 1 1
node 4 2 1 1
node 5 2 1 1
node 6 1 0 2
node 7 1 0 2
node 14 1 0 0
node 16 1 0 0
node 26 1 0 0
gene 2 1 6 -5.65147 0 1 -5.65147 1
gene 1 2 6 5.53051 0 2 5.53051 1
gene 2 3 6 1.9579 0 3 1.9579 1
gene 2 4 6 -1.30626 0 4 -1.30626 0
gene 3 5 6 -2.81266 0 5 -2.81266 0
gene 3 1 7 2.50904 0 6 2.50904 1
gene 3 2 7 -1.52689 0 7 -1.52689 1
gene 2 3 7 1.96556 0 8 1.96556 1
gene 1 4 7 0.358677 0 9 0.358677 1
gene 2 5 7 -2.39231 0 10 -2.39231 1
gene 1 4 14 2.47574 0 27 2.47574 1
gene 1 14 6 -1.23924 0 28 -1.23924 0
gene 3 5 16 3.12668 0 32 3.12668 1
gene 3 16 6 -0.581277 0 33 -0.581277 1
gene 2 1 14 0.0174886 0 41 0.0174886 1
gene 1 14 26 -3.82167 0 64 -3.82167 1
gene 1 26 6 0.350035 0 65 0.350035 1
genomeend 36

/* Organism #37 Fitness: 5 Error: 0 */
genomestart 37
trait 1 0.1 0 0 0 0 0 0 0 
trait 2 0.1 0 0 0.312224 0 0 0.00829481 0.0140151 
trait 3 0.3 0 0 0 0 0 0 0 
node 1 1 1 3
node 2 2 1 1
node 3 3 1 1
node 4 2 1 1
node 5 2 1 1
node 6 1 0 2
node 7 1 0 2
node 14 1 0 0
node 16 1 0 0
node 26 1 0 0
gene 2 1 6 -1.28253 0 1 -1.28253 1
gene 1 2 6 4.44943 0 2 4.44943 1
gene 2 3 6 1.0941 0 3 1.0941 1
gene 2 4 6 1.09664 0 4 1.09664 1
gene 3 5 6 -2.80647 0 5 -2.80647 0
gene 3 1 7 2.57813 0 6 2.57813 1
gene 3 2 7 2.63479 0 7 2.63479 1
gene 2 3 7 3.82123 0 8 3.82123 1
gene 1 4 7 -0.912956 0 9 -0.912956 1
gene 2 5 7 -3.48771 0 10 -3.48771 1
gene 1 4 14 1.55035 0 27 1.55035 1
gene 1 14 6 0.144116 0 28 0.144116 0
gene 3 5 16 4.85654 0 32 4.85654 1
gene 3 16 6 2.09891 0 33 2.09891 1
gene 2 1 14 -0.688582 0 41 -0.688582 1
gene 1 14 26 -6.29956 0 64 -6.29956 1
gene 3 26 6 1.76494 0 65 1.76494 1
genomeend 37

/* Organism #38 Fitness: 97 Error: 0 */
genomestart 38
trait 1 0.1 0 0 0 0 0 0 0 
trait 2 0.1 0 0 0.312224 0 0 0.00829481 0.0140151 
trait 3 0.3 0 0 0 0 0 0 0 
node 1 1 1 3
node 2 2 1 1
node 3 3 1 1
node 4 2 1 1
node 5 2 1 1
node 6 1 0 2
node 7 1 0 2
node 14 1 0 0
node 16 1 0 0
node 26 1 0 0
gene 2 1 6 -2.94198 0 1 -2.94198 1
gene 1 2 6 5.36875 0 2 5.36875 1
gene 2 3 6 0.746629 0 3 0.746629 1
gene 2 4 6 -0.663102 0 4 -0.663102 1
gene 3 5 6 -0.567142 0 5 -0.567142 0
gene 3 1 7 0.318455 0 6 0.318455 1
gene 3 2 7 2.52775 0 7 2.52775 1
gene 2 3 7 0.630265 0 8 0.630265 1
gene 1 4 7 0.531586 0 9 0.531586 1
gene 2 5 7 -4.75994 0 10 -4.75994 1
gene 1 4 14 2.19569 0 27 2.19569 1
gene 1 14 6 0.0266799 0 28 0.0266799 1
gene 3 5 16 3.11806 0 32 3.11806 1
gene 3 16 6 1.03568 0 33 1.03568 1
gene 2 1 14 0.398676 0 41 0.398676 1
gene 1 14 26 -4.85934 0 64 -4.85934 1
gene 1 26 6 -0.365509 0 65 -0.365509 1
genomeend 38

/* Organism #39 Fitness: 30 Error: 0 */
genomestart 39
trait 1 0.1 0 0 0 0 0 0 0 
trait 2 0.1 0 0 0.312224 0 0 0.00829481 0.0140151 
trait 3 0.3 0 0 0 0 0 0 0 
node 1 1 1 3
node 2 2 1 1
node 3 3 1 1
node 4 2 1 1
node 5 2 1 1
node 6 1 0 2
node 7 1 0 2
node 14 1 0 0
node 16 1 0 0
node 26 1 0 0
node 56 1 0 0
gene 2 1 6 -4.65824 0 1 -4.65824 1
gene 1 2 6 4.75913 0 2 4.75913 1
gene 2 3 6 -0.333205 0 3 -0.333205 1
gene 2 4 6 0.814522 0 4 0.814522 0
gene 3 5 6 0.902632 0 5 0.902632 1
gene 3 1 7 3.42499 0 6 3.42499 1
gene 3 2 7 -0.269193 0 7 -0.269193 1
gene 2 3 7 1.94357 0 8 1.94357 1
gene 1 4 7 0.116995 0 9 0.116995 1
gene 2 5 7 -1.56736 0 10 -1.56736 1
gene 1 4 14 3.02616 0 27 3.02616 1
gene 1 14 6 3.93634 0 28 3.93634 0
gene 3 5 16 1.54977 0 32 1.54977 1
gene 3 16 6 3.16407 0 33 3.16407 1
gene 2 1 14 -2.36077 0 41 -2.36077 1
gene 1 14 26 -2.60218 0 64 -2.60218 1
gene 1 26 6 0.284099 0 65 0.284099 1
gene 2 4 56 2.64752 0 165 2.64752 1
gene 2 56 6 -0.672012 0 166 -0.672012 1
genomeend 39

/* Organism #40 Fitness: 14 Error: 0 */
genomestart 40
trait 1 0.1 0 0 0 0 0 0 0 
trait 2 0.1 0 0 0.312224 0 0 0.00829481 0.0140151 
trait 3 0.3 0 0 0 0 0 0 0 
node 1 1 1 3
node 2 2 1 1
node 3 3 1 1
node 4 2 1 1
node 5 2 1 1
node 6 1 0 2
node 7 1 0 2
node 14 1 0 0
node 16 1 0 0
node 26 3 0 0
node 56 1 0 0
gene 2 1 6 -1.85284 0 1 -1.85284 1
gene 1 2 6 7.06081 0 2 7.06081 1
gene 2 3 6 -0.864532 0 3 -0.864532 1
gene 2 4 6 -2.6922 0 4 -2.6922 0
gene 3 5 6 0.651242 0 5 0.651242 1
gene 3 1 7 5.19989 0 6 5.19989 1
gene 3 2 7 3.04835 0 7 3.04835 1
gene 2 3 7 4.2311 0 8 4.2311 1
gene 1 4 7 1.60354 0 9 1.60354 1
gene 2 5 7 -0.634447 0 10 -0.634447 1
gene 1 4 14 3.88468 0 27 3.88468 1
gene 1 14 6 3.55818 0 28 3.55818 0
gene 3 5 16 2.47831 0 32 2.47831 1
gene 3 16 6 0.838494 0 33 0.838494 1
gene 2 1 14 -0.688582 0 41 -0.688582 1
gene 1 14 26 -2.82092 0 64 -2.82092 1
gene 1 26 6 2.057 0 65 2.057 1
gene 2 4 56 3.37615 0 165 3.37615 1
gene 2 56 6 1.16706 0 166 1.16706 1
genomeend 40

/* Organism #41 Fitness: 57 Error: 0 */
genomestart 41
trait 1 0.1 0 0 0 0 0 0 0 
trait 2 0.1 0 0 0.312224 0 0 0.00829481 0.0140151 
trait 3 0.3 0 0 0 0 0 0 0 
node 1 1 1 3
node 2 2 1 1
node 3 3 1 1
node 4 2 1 1
node 5 2 1 1
node 6 1 0 2
node 7 1 0 2
node 14 1 0 0
node 16 1 0 0
node 26 1 0 0
gene 2 1 6 -4.22197 0 1 -4.22197 1
gene 1 2 6 3.22429 0 2 3.22429 1
gene 2 3 6 0.988932 0 3 0.988932 1
gene 2 4 6 -0.185007 0 4 -0.185007 0
gene 3 5 6 -0.410669 0 5 -0.410669 1
gene 3 1 7 2.98281 0 6 2.98281 1
gene 3 2 7 1.54323 0 7 1.54323 1
gene 2 3 7 1.0336 0 8 1.0336 1
gene 1 4 7 -1.7174 0 9 -1.7174 1
gene 2 5 7 -5.0802 0 10 -5.0802 1
gene 1 4 14 4.02208 0 27 4.02208 1
gene 1 14 6 0.641349 0 28 0.641349 0
gene 3 5 16 1.01045 0 32 1.01045 1
gene 3 16 6 2.39342 0 33 2.39342 1
gene 2 1 14 0.379379 0 41 0.379379 1
gene 1 14 26 -3.9235 0 64 -3.9235 1
gene 1 26 6 1.9439 0 65 1.9439 1
genomeend 41

/* Organism #42 Fitness: 21 Error: 0 */
genomestart 42
trait 1 0.1 0 0 0 0 0 0 0 
trait 2 0.1 0 0 0.312224 0 0 0.00829481 0.0140151 
trait 3 0.3 0 0 0 0 0 0 0 
node 1 1 1 3
node 2 2 1 1
node 3 3 1 1
node 4 2 1 1
node 5 2 1 1
node 6 1 0 2
node 7 1 0 2
node 14 1 0 0
node 16 1 0 0
node 26 1 0 0
gene 2 1 6 -3.33973 0 1 -3.33973 1
gene 1 2 6 -0.640228 0 2 -0.640228 1
gene 2 3 6 -2.01844 0 3 -2.01844 1
gene 2 4 6 1.50751 0 4 1.50751 1
gene 3 5 6 0.781231 0 5 0.781231 0
gene 3 1 7 5.12828 0 6 5.12828 1
gene 3 2 7 -2.07163 0 7 -2.07163 1
gene 2 3 7 4.00228 0 8 4.00228 1
gene 1 4 7 0.146201 0 9 0.146201 1
gene 2 5 7 -3.42003 0 10 -3.42003 1
gene 1 4 14 1.93942 0 27 1.93942 1
gene 1 14 6 2.74873 0 28 2.74873 0
gene 3 5 16 4.69639 0 32 4.69639 1
gene 3 16 6 -1.34623 0 33 -1.34623 1
gene 2 1 14 -1.90992 0 41 -1.90992 1
gene 1 14 26 -3.27914 0 64 -3.27914 1
gene 1 26 6 0.53382 0 65 0.53382 1
genomeend 42

/* Organism #43 Fitness: 19 Error: 0 */
genomestart 43
trait 1 0.1 0 0 0 0 0 0 0 
trait 2 0.1 0 0 0.312224 0 0 0.00829481 0.0140151 
trait 3 0.3 0 0 0 0 0 0 0 
node 1 1 1 3
node 2 2 1 1
node 3 3 1 1
node 4 2 1 1
node 5 2 1 1
node 6 3 0 2
node 7 1 0 2
node 14 1 0 0
node 16 1 0 0
node 26 1 0 0
gene 2 1 6 -3.8587 0 1 -3.8587 1
gene 1 2 6 -0.119164 0 2 -0.119164 1
gene 2 3 6 0.0381035 0 3 0.0381035 1
gene 2 4 6 -2.29282 0 4 -2.29282 1
gene 3 5 6 0.118443 0 5 0.118443 0
gene 3 1 7 -2.02405 0 6 -2.02405 1
gene 3 2 7 2.76323 0 7 2.76323 1
gene 2 3 7 2.72896 0 8 2.72896 1
gene 1 4 7 -0.410348 0 9 -0.410348 1
gene 2 5 7 -3.26185 0 10 -3.26185 1
gene 1 4 14 0.642386 0 27 0.642386 1
gene 1 14 6 3.72877 0 28 3.72877 0
gene 3 5 16 3.342 0 32 3.342 1
gene 3 16 6 1.22268 0 33 1.22268 1
gene 2 1 14 -0.688582 0 41 -0.688582 1
gene 1 14 26 -3.6546 0 64 -3.6546 1
gene 1 26 6 0.397371 0 65 0.397371 1
genomeend 43

/* Species #6 : (Size 9) (AF 61) (Age 10)  */


/* Organism #44 Fitness: 77 Error: 0 */
genomestart 44
trait 1 0.1 0 0 0 0 0 0 0 
trait 2 0 1 0 0.834275 0.166892 0.833712 0 0 
trait 3 0.3 0 0 0 0 0 0 0 
node 1 3 1 3
node 2 1 1 1
node 3 3 1 1
node 4 1 1 1
node 5 2 1 1
node 6 3 0 2
node 7 1 0 2
node 17 1 0 0
gene 2 1 6 -3.8628 0 1 -3.8628 1
gene 3 2 6 -0.673015 0 2 -0.673015 1
gene 1 3 6 -0.422679 0 3 -0.422679 1
gene 2 4 6 -1.09439 0 4 -1.09439 1
gene 3 5 6 -1.32447 0 5 -1.32447 1
gene 3 1 7 2.62863 0 6 2.62863 1
gene 1 2 7 6.70569 0 7 6.70569 1
gene 3 3 7 -1.69414 0 8 -1.69414 1
gene 3 4 7 0.802681 0 9 0.802681 0
gene 3 5 7 1.50813 0 10 1.50813 1
gene 2 6 7 -1.72413 0 24 -1.72413 1
gene 3 4 17 2.03156 0 34 2.03156 1
gene 3 17 7 0.282094 0 35 0.282094 1
gene 3 6 17 1.33696 0 51 1.33696 1
gene 3 3 17 1.28967 0 70 1.28967 1
genomeend 44

/* Organism #45 Fitness: 10 Error: 0 */
genomestart 45
trait 1 0.1 0 0 0 0 0 0 0 
trait 2 0.0125 0.928094 0 0.729991 0.206166 0.729498 0 0 
trait 3 0.841387 0 0.521768 0 0 0 0 0 
node 1 3 1 3
node 2 1 1 1
node 3 3 1 1
node 4 1 1 1
node 5 2 1 1
node 6 3 0 2
node 7 1 0 2
node 17 1 0 0
gene 2 1 6 -1.25512 0 1 -1.25512 1
gene 3 2 6 0.711753 0 2 0.711753 1
gene 1 3 6 -1.4863 0 3 -1.4863 0
gene 2 4 6 -1.87629 0 4 -1.87629 1
gene 3 5 6 -0.610192 0 5 -0.610192 1
gene 3 1 7 2.62863 0 6 2.62863 1
gene 1 2 7 7.22784 0 7 7.22784 1
gene 3 3 7 1.4193 0 8 1.4193 1
gene 3 4 7 2.50933 0 9 2.50933 0
gene 3 5 7 1.48898 0 10 1.48898 1
gene 2 6 7 0.273644 0 24 0.273644 1
gene 3 4 17 -1.21097 0 34 -1.21097 1
gene 3 17 7 0.614186 0 35 0.614186 1
gene 3 6 17 2.38643 0 51 2.38643 1
gene 3 3 17 -1.64175 0 70 -1.64175 1
genomeend 45

/* Organism #46 Fitness: 74 Error: 0 */
genomestart 46
trait 1 0.1 0 0 0 0 0 0 0 
trait 2 0.025 0.856188 0 0.625706 0.245439 0.625284 0 0 
trait 3 0.3 0 0 0 0 0 0 0 
node 1 3 1 3
node 2 1 1 1
node 3 3 1 1
node 4 1 1 1
node 5 2 1 1
node 6 3 0 2
node 7 1 0 2
node 17 1 0 0
gene 2 1 6 -1.21992 0 1 -1.21992 1
gene 3 2 6 -2.53682 0 2 -2.53682 1
gene 1 3 6 2.35092 0 3 2.35092 0
gene 2 4 6 2.27462 0 4 2.27462 1
gene 1 5 6 -0.495935 0 5 -0.495935 1
gene 3 1 7 4.50337 0 6 4.50337 1
gene 1 2 7 6.16242 0 7 6.16242 1
gene 3 3 7 1.47419 0 8 1.47419 1
gene 3 4 7 -1.68942 0 9 -1.68942 1
gene 3 5 7 1.17558 0 10 1.17558 1
gene 2 6 7 -2.84112 0 24 -2.84112 1
gene 3 4 17 0.350926 0 34 0.350926 1
gene 3 17 7 5.14444 0 35 5.14444 1
gene 3 6 17 2.45172 0 51 2.45172 1
gene 3 3 17 2.4131 0 70 2.4131 1
genomeend 46

/* Organism #47 Fitness: 74 Error: 0 */
genomestart 47
trait 1 0.1 0 0 0 0 0 0 0 
trait 2 0 1 0 0.834275 0.166892 0.833712 0 0 
trait 3 0.3 0 0 0 0 0 0 0 
node 1 3 1 3
node 2 1 1 1
node 3 3 1 1
node 4 1 1 1
node 5 2 1 1
node 6 3 0 2
node 7 1 0 2
node 17 1 0 0
gene 2 1 6 -5.06606 0 1 -5.06606 1
gene 3 2 6 -2.55574 0 2 -2.55574 1
gene 1 3 6 -2.37907 0 3 -2.37907 1
gene 2 4 6 1.26589 0 4 1.26589 1
gene 3 5 6 -1.99704 0 5 -1.99704 1
gene 3 1 7 1.33809 0 6 1.33809 1
gene 1 2 7 6.44865 0 7 6.44865 1
gene 3 3 7 -3.55823 0 8 -3.55823 1
gene 3 4 7 -1.27162 0 9 -1.27162 0
gene 3 5 7 0.20769 0 10 0.20769 1
gene 2 6 7 -2.79831 0 24 -2.79831 1
gene 3 4 17 0.293846 0 34 0.293846 1
gene 3 17 7 1.18354 0 35 1.18354 1
gene 3 6 17 0.287721 0 51 0.287721 1
gene 3 3 17 1.54262 0 70 1.54262 1
genomeend 47

/* Organism #48 Fitness: 6 Error: 0 */
genomestart 48
trait 1 0.1 0 0 0 0 0 0 0 
trait 2 0 0.370061 0 0.625706 0.307509 0.625284 0 0 
trait 3 0.3 0 0 0 0 0 0 0 
node 1 3 1 3
node 2 1 1 1
node 3 3 1 1
node 4 1 1 1
node 5 2 1 1
node 6 3 0 2
node 7 1 0 2
node 17 1 0 0
gene 2 1 6 -0.486827 0 1 -0.486827 1
gene 3 2 6 -1.64616 0 2 -1.64616 1
gene 1 3 6 2.27151 0 3 2.27151 0
gene 2 4 6 2.04021 0 4 2.04021 1
gene 3 5 6 0.486077 0 5 0.486077 1
gene 3 1 7 -0.376965 0 6 -0.376965 1
gene 1 2 7 5.15586 0 7 5.15586 1
gene 3 3 7 -0.337243 0 8 -0.337243 1
gene 3 4 7 -1.39088 0 9 -1.39088 0
gene 3 5 7 1.14657 0 10 1.14657 1
gene 2 6 7 -3.71526 0 24 -3.71526 1
gene 3 4 17 3.22894 0 34 3.22894 1
gene 3 17 7 4.69416 0 35 4.69416 1
gene 3 6 17 4.81671 0 51 4.81671 1
gene 3 3 17 -2.10138 0 70 -2.10138 1
genomeend 48

/* Organism #49 Fitness: 76 Error: 0 */
genomestart 49
trait 1 0.1 0 0 0 0 0 0 0 
trait 2 0.0125 0.928094 0 0.729991 0.206166 0.729498 0 0 
trait 3 0.3 0 0 0 0 0 0 0 
node 1 3 1 3
node 2 1 1 1
node 3 3 1 1
node 4 1 1 1
node 5 2 1 1
node 6 3 0 2
node 7 1 0 2
node 17 1 0 0
gene 2 1 6 -1.23024 0 1 -1.23024 1
gene 3 2 6 0.10057 0 2 0.10057 1
gene 1 3 6 0.287422 0 3 0.287422 0
gene 2 4 6 -0.232663 0 4 -0.232663 1
gene 3 5 6 -1.09935 0 5 -1.09935 1
gene 3 1 7 2.95292 0 6 2.95292 1
gene 1 2 7 7.13443 0 7 7.13443 1
gene 3 3 7 -1.13608 0 8 -1.13608 1
gene 3 4 7 -2.29328 0 9 -2.29328 1
gene 3 5 7 0.925761 0 10 0.925761 1
gene 2 6 7 -1.60225 0 24 -1.60225 1
gene 3 4 17 1.06791 0 34 1.06791 1
gene 3 17 7 -0.39244 0 35 -0.39244 1
gene 3 6 17 5.2752 0 51 5.2752 1
gene 3 3 17 1.90861 0 70 1.90861 1
genomeend 49

/* Organism #50 Fitness: 75 Error: 0 */
genomestart 50
trait 1 0.1 0 0 0 0 0 0 0 
trait 2 0.0125 0.928094 0 0.729991 0.206166 0.729498 0 0 
trait 3 0.3 0 0 0 0 0 0 0 
node 1 3 1 3
node 2 1 1 1
node 3 3 1 1
node 4 1 1 1
node 5 2 1 1
node 6 3 0 2
node 7 1 0 2
node 17 1 0 0
gene 2 1 6 -2.31651 0 1 -2.31651 1
gene 3 2 6 -3.62396 0 2 -3.62396 1
gene 1 3 6 1.52387 0 3 1.52387 0
gene 2 4 6 -1.97237 0 4 -1.97237 1
gene 3 5 6 0.748923 0 5 0.748923 1
gene 3 1 7 3.04037 0 6 3.04037 1
gene 1 2 7 4.85929 0 7 4.85929 1
gene 3 3 7 -1.71908 0 8 -1.71908 1
gene 3 4 7 2.90984 0 9 2.90984 0
gene 3 5 7 2.72695 0 10 2.72695 1
gene 2 6 7 -1.9538 0 24 -1.9538 1
gene 3 4 17 4.15977 0 34 4.15977 1
gene 3 17 7 3.04234 0 35 3.04234 1
gene 3 6 17 1.04772 0 51 1.04772 1
gene 3 3 17 3.39221 0 70 3.39221 1
genomeend 50

/* Organism #51 Fitness: 81 Error: 0 */
genomestart 51
trait 1 0.1 0 0 0 0 0 0 0 
trait 2 0.0125 0.928094 0 0.729991 0.206166 0.729498 0 0 
trait 3 0.3 0 0 0 0 0 0 0 
node 1 3 1 3
node 2 1 1 1
node 3 3 1 1
node 4 1 1 1
node 5 2 1 1
node 6 3 0 2
node 7 1 0 2
node 17 1 0 0
gene 2 1 6 -3.72303 0 1 -3.72303 1
gene 3 2 6 -0.747363 0 2 -0.747363 1
gene 1 3 6 -0.422679 0 3 -0.422679 0
gene 2 4 6 -0.96511 0 4 -0.96511 1
gene 3 5 6 -1.6711 0 5 -1.6711 1
gene 3 1 7 3.76441 0 6 3.76441 1
gene 1 2 7 8 0 7 8 1
gene 3 3 7 -2.04099 0 8 -2.04099 1
gene 3 4 7 -1.18279 0 9 -1.18279 0
gene 3 5 7 -1.76879 0 10 -1.76879 1
gene 2 6 7 0.312841 0 24 0.312841 1
gene 3 4 17 0.802977 0 34 0.802977 1
gene 3 17 7 -1.62536 0 35 -1.62536 1
gene 3 6 17 4.40813 0 51 4.40813 1
gene 3 3 17 1.51546 0 70 1.51546 1
genomeend 51

/* Organism #52 Fitness: 76 Error: 0 */
genomestart 52
trait 1 0.1 0 0 0 0 0 0 0 
trait 2 0 1 0 0.834275 0.166892 0.833712 0 0 
trait 3 0.3 0 0 0 0 0 0 0 
node 1 3 1 3
node 2 1 1 1
node 3 3 1 1
node 4 1 1 1
node 5 2 1 1
node 6 3 0 2
node 7 1 0 2
node 17 1 0 0
gene 2 1 6 -3.6293 0 1 -3.6293 1
gene 3 2 6 -1.65258 0 2 -1.65258 1
gene 1 3 6 -1.75848 0 3 -1.75848 1
gene 2 4 6 -2.06451 0 4 -2.06451 1
gene 3 5 6 -1.42191 0 5 -1.42191 1
gene 3 1 7 3.33899 0 6 3.33899 1
gene 1 2 7 7.21678 0 7 7.21678 1
gene 3 3 7 -1.29494 0 8 -1.29494 1
gene 3 4 7 0.208053 0 9 0.208053 0
gene 3 5 7 0.717127 0 10 0.717127 1
gene 2 6 7 1.11758 0 24 1.11758 1
gene 3 4 17 2.5257 0 34 2.5257 1
gene 3 17 7 0.620039 0 35 0.620039 1
gene 3 6 17 -1.05651 0 51 -1.05651 1
gene 3 3 17 -0.995137 0 70 -0.995137 1
genomeend 52

/* Species #7 : (Size 11) (AF 44.3636) (Age 10)  */


/* Organism #53 Fitness: 98 Error: 0 */
genomestart 53
trait 1 0.1 0 0 0 0 0 0 0 
trait 2 0.2 0 0 0 0 0 0 0 
trait 3 0.3 0 0 0 0 0 0 0 
node 1 3 1 3
node 2 1 1 1
node 3 3 1 1
node 4 1 1 1
node 5 2 1 1
node 6 3 0 2
node 7 1 0 2
node 17 1 0 0
node 28 1 0 0
gene 2 1 6 -0.770628 0 1 -0.770628 1
gene 3 2 6 1.03809 0 2 1.03809 1
gene 1 3 6 -3.19019 0 3 -3.19019 1
gene 2 4 6 0.273474 0 4 0.273474 1
gene 3 5 6 -1.84566 0 5 -1.84566 1
gene 3 1 7 2.0207 0 6 2.0207 1
gene 1 2 7 2.12973 0 7 2.12973 1
gene 3 3 7 -0.440688 0 8 -0.440688 1
gene 3 4 7 0.874532 0 9 0.874532 1
gene 3 5 7 -0.0235075 0 10 -0.0235075 1
gene 2 6 7 -0.554952 0 24 -0.554952 1
gene 3 4 17 1.82691 0 34 1.82691 0
gene 3 17 7 -0.209479 0 35 -0.209479 1
gene 3 4 28 1 0 71 1 1
gene 3 28 17 0.415365 0 72 0.415365 1
genomeend 53

/* Organism #54 Fitness: 74 Error: 0 */
genomestart 54
trait 1 0.1 0 0 0 0 0 0 0 
trait 2 0.2 0 0 0 0 0 0 0 
trait 3 0.3 0 0 0 0 0 0 0 
node 1 3 1 3
node 2 1 1 1
node 3 3 1 1
node 4 1 1 1
node 5 2 1 1
node 6 3 0 2
node 7 1 0 2
node 17 2 0 0
node 28 1 0 0
gene 2 1 6 -4.98773 0 1 -4.98773 1
gene 3 2 6 4.50117 0 2 4.50117 1
gene 1 3 6 -1.9379 0 3 -1.9379 1
gene 2 4 6 2.42149 0 4 2.42149 1
gene 3 5 6 -2.94348 0 5 -2.94348 1
gene 3 1 7 2.94117 0 6 2.94117 1
gene 1 2 7 0.879418 0 7 0.879418 1
gene 3 3 7 -1.56521 0 8 -1.56521 1
gene 3 4 7 2.70782 0 9 2.70782 1
gene 3 5 7 -0.0619112 0 10 -0.0619112 1
gene 2 6 7 3.93926 0 24 3.93926 1
gene 3 4 17 4.05183 0 34 4.05183 0
gene 3 17 7 -2.26731 0 35 -2.26731 1
gene 3 4 28 -0.579214 0 71 -0.579214 1
gene 3 28 17 -1.25457 0 72 -1.25457 1
genomeend 54

/* Organism #55 Fitness: 73 Error: 0 */
genomestart 55
trait 1 0.1 0 0 0 0 0 0 0 
trait 2 0.2 0 0 0 0 0 0 0 
trait 3 0.3 0 0 0 0 0 0 0 
node 1 3 1 3
node 2 1 1 1
node 3 3 1 1
node 4 1 1 1
node 5 2 1 1
node 6 3 0 2
node 7 1 0 2
node 17 1 0 0
node 28 1 0 0
gene 2 1 6 -0.770628 0 1 -0.770628 1
gene 3 2 6 4.26105 0 2 4.26105 1
gene 1 3 6 -3.19019 0 3 -3.19019 1
gene 2 4 6 0.273474 0 4 0.273474 1
gene 3 5 6 -1.84566 0 5 -1.84566 1
gene 3 1 7 3.16788 0 6 3.16788 1
gene 1 2 7 4.20689 0 7 4.20689 1
gene 3 3 7 1.07863 0 8 1.07863 1
gene 3 4 7 2.87015 0 9 2.87015 1
gene 3 5 7 -0.0235075 0 10 -0.0235075 1
gene 2 6 7 4.06133 0 24 4.06133 1
gene 3 4 17 1.82691 0 34 1.82691 0
gene 3 17 7 -0.209479 0 35 -0.209479 1
gene 3 4 28 -0.157742 0 71 -0.157742 1
gene 3 28 17 0.415365 0 72 0.415365 1
genomeend 55

/* Organism #56 Fitness: 13 Error: 0 */
genomestart 56
trait 1 0.1 0 0 0 0 0 0 0 
trait 2 0.2 0 0 0 0 0 0 0 
trait 3 0.3 0 0 0 0 0 0 0 
node 1 3 1 3
node 2 1 1 1
node 3 3 1 1
node 4 1 1 1
node 5 2 1 1
node 6 3 0 2
node 7 1 0 2
node 17 2 0 0
node 28 1 0 0
gene 2 1 6 -4.26861 0 1 -4.26861 1
gene 3 2 6 4.36391 0 2 4.36391 1
gene 1 3 6 1.19357 0 3 1.19357 1
gene 2 4 6 -2.01108 0 4 -2.01108 1
gene 3 5 6 -0.973951 0 5 -0.973951 1
gene 3 1 7 2.28765 0 6 2.28765 1
gene 1 2 7 3.33469 0 7 3.33469 1
gene 3 3 7 3.46778 0 8 3.46778 1
gene 3 4 7 -0.106737 0 9 -0.106737 1
gene 3 5 7 0.824075 0 10 0.824075 1
gene 2 6 7 -0.285505 0 24 -0.285505 1
gene 3 4 17 6.48034 0 34 6.48034 0
gene 3 17 7 0.176191 0 35 0.176191 1
gene 3 4 28 -0.153482 0 71 -0.153482 1
gene 3 28 17 1.44662 0 72 1.44662 1
genomeend 56

/* Organism #57 Fitness: 73 Error: 0 */
genomestart 57
trait 1 0.1 0 0 0 0 0 0 0 
trait 2 0.2 0 0 0 0 0 0 0 
trait 3 0.3 0 0 0 0 0 0 0 
node 1 3 1 3
node 2 1 1 1
node 3 3 1 1
node 4 1 1 1
node 5 2 1 1
node 6 3 0 2
node 7 1 0 2
node 17 2 0 0
node 28 1 0 0
gene 2 1 6 -6.69679 0 1 -6.69679 1
gene 3 2 6 0.652593 0 2 0.652593 1
gene 1 3 6 -0.346654 0 3 -0.346654 1
gene 2 4 6 2.11536 0 4 2.11536 1
gene 3 5 6 -1.84566 0 5 -1.84566 1
gene 3 1 7 0.827465 0 6 0.827465 1
gene 1 2 7 2.7184 0 7 2.7184 1
gene 3 3 7 -0.64029 0 8 -0.64029 1
gene 3 4 7 -0.607719 0 9 -0.607719 1
gene 3 5 7 1.9964 0 10 1.9964 1
gene 2 6 7 0.488622 0 24 0.488622 1
gene 3 4 17 3.93237 0 34 3.93237 0
gene 3 17 7 2.21595 0 35 2.21595 1
gene 3 4 28 0.503201 0 71 0.503201 1
gene 3 28 17 -0.308429 0 72 -0.308429 1
genomeend 57

/* Organism #58 Fitness: 13 Error: 0 */
genomestart 58
trait 1 0.1 0 0 0 0 0 0 0 
trait 2 0.2 0 0 0 0 0 0 0 
trait 3 0.3 0 0 0 0 0 0 0 
node 1 3 1 3
node 2 1 1 1
node 3 3 1 1
node 4 1 1 1
node 5 2 1 1
node 6 3 0 2
node 7 1 0 2
node 17 1 0 0
node 28 1 0 0
gene 2 1 6 -1.62256 0 1 -1.62256 1
gene 3 2 6 1.03809 0 2 1.03809 1
gene 1 3 6 -3.55711 0 3 -3.55711 1
gene 2 4 6 -2.06062 0 4 -2.06062 1
gene 3 5 6 0.218919 0 5 0.218919 1
gene 3 1 7 0.617942 0 6 0.617942 1
gene 1 2 7 2.13193 0 7 2.13193 1
gene 3 3 7 -1.47605 0 8 -1.47605 1
gene 3 4 7 -0.0138694 0 9 -0.0138694 1
gene 3 5 7 2.01619 0 10 2.01619 1
gene 2 6 7 -1.76716 0 24 -1.76716 1
gene 3 4 17 4.01081 0 34 4.01081 0
gene 3 17 7 2.21936 0 35 2.21936 1
gene 3 4 28 2.53385 0 71 2.53385 1
gene 3 28 17 1.90996 0 72 1.90996 1
genomeend 58

/* Organism #59 Fitness: 38 Error: 0 */
genomestart 59
trait 1 0.1 0 0 0 0 0 0 0 
trait 2 0.2 0 0 0 0 0 0 0 
trait 3 0.3 0 0 0 0 0 0 0 
node 1 3 1 3
node 2 1 1 1
node 3 3 1 1
node 4 1 1 1
node 5 2 1 1
node 6 3 0 2
node 7 1 0 2
node 17 1 0 0
node 28 1 0 0
gene 2 1 6 -2.43393 0 1 -2.43393 1
gene 3 2 6 2.64957 0 2 2.64957 1
gene 1 3 6 -1.90634 0 3 -1.90634 1
gene 2 4 6 2.02807 0 4 2.02807 1
gene 3 5 6 -0.927598 0 5 -0.927598 1
gene 3 1 7 0.885936 0 6 0.885936 1
gene 1 2 7 -1.22852 0 7 -1.22852 1
gene 3 3 7 0.771402 0 8 0.771402 1
gene 3 4 7 0.159632 0 9 0.159632 1
gene 3 5 7 0.106979 0 10 0.106979 1
gene 2 6 7 1.4275 0 24 1.4275 1
gene 3 4 17 1.02 0 34 1.02 1
gene 3 17 7 0.236038 0 35 0.236038 1
gene 3 4 28 -0.550705 0 71 -0.550705 1
gene 3 28 17 0.0085118 0 72 0.0085118 1
genomeend 59

/* Organism #60 Fitness: 73 Error: 0 */
genomestart 60
trait 1 0.1 0 0 0 0 0 0 0 
trait 2 0.2 0 0 0 0 0 0 0 
trait 3 0.3 0 0 0 0 0 0 0 
node 1 3 1 3
node 2 1 1 1
node 3 3 1 1
node 4 1 1 1
node 5 2 1 1
node 6 3 0 2
node 7 1 0 2
node 17 1 0 0
node 28 1 0 0
gene 2 1 6 -0.770628 0 1 -0.770628 1
gene 3 2 6 1.03809 0 2 1.03809 1
gene 1 3 6 -3.19019 0 3 -3.19019 1
gene 2 4 6 2.44572 0 4 2.44572 1
gene 3 5 6 -1.84566 0 5 -1.84566 1
gene 3 1 7 2.0207 0 6 2.0207 1
gene 1 2 7 4.20689 0 7 4.20689 1
gene 3 3 7 -0.440688 0 8 -0.440688 1
gene 3 4 7 2.87015 0 9 2.87015 1
gene 3 5 7 -0.0235075 0 10 -0.0235075 1
gene 2 6 7 -0.554952 0 24 -0.554952 1
gene 3 4 17 1.82691 0 34 1.82691 0
gene 3 17 7 -0.209479 0 35 -0.209479 1
gene 3 4 28 1 0 71 1 1
gene 3 28 17 -0.398341 0 72 -0.398341 1
genomeend 60

/* Organism #61 Fitness: 21 Error: 0 */
genomestart 61
trait 1 0.1 0 0 0 0 0 0 0 
trait 2 0.2 0 0 0 0 0 0 0 
trait 3 0.3 0 0 0 0 0 0 0 
node 1 2 1 3
node 2 1 1 1
node 3 3 1 1
node 4 1 1 1
node 5 2 1 1
node 6 3 0 2
node 7 1 0 2
node 17 2 0 0
node 28 1 0 0
gene 2 1 6 -5.56542 0 1 -5.56542 1
gene 3 2 6 3.94338 0 2 3.94338 1
gene 1 3 6 -1.32372 0 3 -1.32372 1
gene 2 4 6 -0.0789678 0 4 -0.0789678 1
gene 3 5 6 -3.12082 0 5 -3.12082 1
gene 3 1 7 -1.12143 0 6 -1.12143 1
gene 1 2 7 1.87081 0 7 1.87081 1
gene 3 3 7 -0.161077 0 8 -0.161077 1
gene 3 4 7 1.09005 0 9 1.09005 1
gene 3 5 7 -1.03178 0 10 -1.03178 1
gene 2 6 7 2.56175 0 24 2.56175 1
gene 3 4 17 5.8598 0 34 5.8598 1
gene 3 17 7 -0.0469888 0 35 -0.0469888 1
gene 3 4 28 -0.361863 0 71 -0.361863 1
gene 3 28 17 -1.37014 0 72 -1.37014 1
genomeend 61

/* Organism #62 Fitness: 7 Error: 0 */
genomestart 62
trait 1 0.1 0 0 0 0 0 0 0 
trait 2 0.2 0 0 0 0 0 0 0 
trait 3 0.3 0 0 0 0 0 0 0 
node 1 3 1 3
node 2 1 1 1
node 3 1 1 1
node 4 1 1 1
node 5 2 1 1
node 6 3 0 2
node 7 1 0 2
node 17 2 0 0
node 28 1 0 0
gene 2 1 6 -6.29131 0 1 -6.29131 1
gene 3 2 6 -0.483716 0 2 -0.483716 1
gene 1 3 6 -2.6791 0 3 -2.6791 1
gene 2 4 6 2.22855 0 4 2.22855 1
gene 3 5 6 0.3222 0 5 0.3222 1
gene 3 1 7 2.64942 0 6 2.64942 1
gene 1 2 7 2.86662 0 7 2.86662 1
gene 3 3 7 0.201913 0 8 0.201913 1
gene 3 4 7 3.10787 0 9 3.10787 1
gene 3 5 7 1.0491 0 10 1.0491 1
gene 2 6 7 1.65321 0 24 1.65321 1
gene 3 4 17 3.70573 0 34 3.70573 0
gene 3 17 7 -2.79731 0 35 -2.79731 1
gene 3 4 28 -0.673983 0 71 -0.673983 1
gene 3 28 17 1.78801 0 72 1.78801 1
genomeend 62

/* Organism #63 Fitness: 5 Error: 0 */
genomestart 63
trait 1 0.1 0 0 0 0 0 0 0 
trait 2 0.2 0 0 0 0 0 0 0 
trait 3 0.3 0 0 0 0 0 0 0 
node 1 3 1 3
node 2 1 1 1
node 3 3 1 1
node 4 1 1 1
node 5 2 1 1
node 6 3 0 2
node 7 1 0 2
node 17 2 0 0
node 28 1 0 0
gene 2 1 6 1.20921 0 1 1.20921 1
gene 3 2 6 4.34015 0 2 4.34015 1
gene 1 3 6 1.33866 0 3 1.33866 1
gene 2 4 6 4.79599 0 4 4.79599 1
gene 3 5 6 -4.14039 0 5 -4.14039 1
gene 3 1 7 2.83983 0 6 2.83983 1
gene 1 2 7 4.3218 0 7 4.3218 1
gene 3 3 7 3.16368 0 8 3.16368 1
gene 3 4 7 4.27592 0 9 4.27592 1
gene 3 5 7 2.48456 0 10 2.48456 1
gene 2 6 7 5.65289 0 24 5.65289 1
gene 3 4 17 4.81922 0 34 4.81922 0
gene 3 17 7 -2.51196 0 35 -2.51196 1
gene 3 4 28 0.270626 0 71 0.270626 1
gene 3 28 17 -0.398341 0 72 -0.398341 1
genomeend 63

/* Species #8 : (Size 2) (AF 31.5) (Age 10)  */


/* Organism #64 Fitness: 44 Error: 0 */
genomestart 64
trait 1 0.1 0 0 0 0 0 0 0 
trait 2 0 0.849507 0 0 0.96216 0 0 0 
trait 3 0.3 0 0 0 0 0 0 0 
node 1 3 1 3
node 2 1 1 1
node 3 3 1 1
node 4 1 1 1
node 5 2 1 1
node 6 3 0 2
node 7 1 0 2
node 17 1 0 0
gene 1 1 6 -4.15511 0 1 -4.15511 1
gene 3 2 6 1.51448 0 2 1.51448 1
gene 1 3 6 2.39349 0 3 2.39349 1
gene 2 4 6 -2.64979 0 4 -2.64979 1
gene 3 5 6 -5.05741 0 5 -5.05741 1
gene 3 1 7 -4.90037 0 6 -4.90037 1
gene 1 2 7 -1.44564 0 7 -1.44564 1
gene 3 3 7 -5.14975 0 8 -5.14975 1
gene 3 4 7 -0.302408 0 9 -0.302408 0
gene 3 5 7 1.65027 0 10 1.65027 1
gene 2 6 7 -3.54624 0 24 -3.54624 1
gene 3 4 17 -2.45345 0 34 -2.45345 1
gene 3 17 7 3.89701 0 35 3.89701 1
gene 2 1 17 1.91242 0 45 1.91242 1
genomeend 64

/* Organism #65 Fitness: 19 Error: 0 */
genomestart 65
trait 1 0.1 0 0 0 0 0 0 0 
trait 2 0 0.849507 0 0 0.96216 0 0 0 
trait 3 0.3 0 0 0 0 0 0 0 
node 1 3 1 3
node 2 1 1 1
node 3 3 1 1
node 4 1 1 1
node 5 2 1 1
node 6 3 0 2
node 7 1 0 2
node 17 1 0 0
gene 1 1 6 -4.57571 0 1 -4.57571 1
gene 3 2 6 -2.9801 0 2 -2.9801 1
gene 1 3 6 1.4353 0 3 1.4353 1
gene 2 4 6 0.504896 0 4 0.504896 1
gene 3 5 6 -1.13872 0 5 -1.13872 1
gene 3 1 7 -2.85312 0 6 -2.85312 1
gene 1 2 7 1.45949 0 7 1.45949 1
gene 3 3 7 -4.79276 0 8 -4.79276 1
gene 3 4 7 -1.08954 0 9 -1.08954 0
gene 3 5 7 2.20338 0 10 2.20338 1
gene 2 6 7 -1.94014 0 24 -1.94014 1
gene 3 4 17 -0.889948 0 34 -0.889948 1
gene 3 17 7 1.4734 0 35 1.4734 1
gene 2 1 17 1.38998 0 45 1.38998 1
genomeend 65

/* Species #9 : (Size 20) (AF 68.6) (Age 9)  */


/* Organism #66 Fitness: 95 Error: 0 */
genomestart 66
trait 1 0.1 0 0.0624664 0.0591844 0 0 0 0 
trait 2 0.2 0 0 0 0 0 0 0 
trait 3 0.3 0 0 0 0 0 0 0 
node 1 1 1 3
node 2 2 1 1
node 3 1 1 1
node 4 1 1 1
node 5 3 1 1
node 6 3 0 2
node 7 3 0 2
node 24 1 0 0
gene 3 1 6 -6.90457 0 1 -6.90457 1
gene 3 2 6 -0.654683 0 2 -0.654683 1
gene 2 3 6 0.831189 0 3 0.831189 1
gene 2 4 6 -1.25125 0 4 -1.25125 1
gene 1 5 6 -1.93277 0 5 -1.93277 1
gene 3 1 7 7.25646 0 6 7.25646 1
gene 2 2 7 2.07306 0 7 2.07306 1
gene 1 3 7 -1.21319 0 8 -1.21319 1
gene 2 4 7 2.2858 0 9 2.2858 1
gene 1 5 7 -5.87647 0 10 -5.87647 1
gene 1 3 24 4.06124 0 57 4.06124 1
gene 1 24 7 1.13239 0 58 1.13239 1
gene 3 6 7 2.12091 0 131 2.12091 1
genomeend 66

/* Organism #67 Fitness: 74 Error: 0 */
genomestart 67
trait 1 0.1 0 0.0624664 0.0591844 0 0 0 0 
trait 2 0.2 0 0 0 0 0 0 0 
trait 3 0.3 0 0 0 0 0 0 0 
node 1 1 1 3
node 2 2 1 1
node 3 1 1 1
node 4 1 1 1
node 5 3 1 1
node 6 3 0 2
node 7 3 0 2
node 24 1 0 0
gene 3 1 6 -7.04439 0 1 -7.04439 1
gene 3 2 6 -1.43024 0 2 -1.43024 1
gene 2 3 6 -1.7682 0 3 -1.7682 1
gene 2 4 6 0.315081 0 4 0.315081 1
gene 1 5 6 -1.59323 0 5 -1.59323 1
gene 3 1 7 8 0 6 8 1
gene 2 2 7 -1.15432 0 7 -1.15432 1
gene 1 3 7 -1.21319 0 8 -1.21319 1
gene 2 4 7 2.2858 0 9 2.2858 1
gene 1 5 7 -1.21871 0 10 -1.21871 1
gene 1 3 24 6.09785 0 57 6.09785 1
gene 1 24 7 1.62585 0 58 1.62585 1
gene 3 6 7 0.928943 0 131 0.928943 1
genomeend 67

/* Organism #68 Fitness: 72 Error: 0 */
genomestart 68
trait 1 0.1 0 0.0624664 0.0591844 0 0 0 0 
trait 2 0.2 0 0 0 0 0 0 0 
trait 3 0.3 0 0 0 0 0 0 0 
node 1 1 1 3
node 2 2 1 1
node 3 1 1 1
node 4 1 1 1
node 5 1 1 1
node 6 3 0 2
node 7 3 0 2
node 24 1 0 0
gene 3 1 6 -6.90457 0 1 -6.90457 1
gene 3 2 6 -0.654683 0 2 -0.654683 1
gene 2 3 6 0.831189 0 3 0.831189 1
gene 2 4 6 -1.25125 0 4 -1.25125 1
gene 1 5 6 -1.93277 0 5 -1.93277 1
gene 3 1 7 7.25646 0 6 7.25646 1
gene 2 2 7 2.34984 0 7 2.34984 1
gene 1 3 7 -1.21319 0 8 -1.21319 1
gene 2 4 7 0.20016 0 9 0.20016 1
gene 1 5 7 -5.87647 0 10 -5.87647 1
gene 1 3 24 1.81899 0 57 1.81899 1
gene 1 24 7 1.13239 0 58 1.13239 1
gene 3 6 7 -2.38082 0 131 -2.38082 1
genomeend 68

/* Organism #69 Fitness: 71 Error: 0 */
genomestart 69
trait 1 0.1 0 0.0624664 0.0591844 0 0 0 0 
trait 2 0.2 0 0 0 0 0 0 0 
trait 3 0.3 0 0 0 0 0 0 0 
node 1 1 1 3
node 2 2 1 1
node 3 1 1 1
node 4 1 1 1
node 5 3 1 1
node 6 3 0 2
node 7 3 0 2
node 24 1 0 0
gene 3 1 6 -5.78649 0 1 -5.78649 1
gene 3 2 6 -1.10144 0 2 -1.10144 1
gene 2 3 6 0.935494 0 3 0.935494 1
gene 2 4 6 -0.863436 0 4 -0.863436 1
gene 1 5 6 0.191764 0 5 0.191764 1
gene 3 1 7 8 0 6 8 1
gene 2 2 7 3.84262 0 7 3.84262 1
gene 1 3 7 0.774133 0 8 0.774133 1
gene 2 4 7 1.80635 0 9 1.80635 1
gene 1 5 7 -8 0 10 -8 1
gene 1 3 24 6.33023 0 57 6.33023 1
gene 1 24 7 1.13239 0 58 1.13239 1
gene 3 6 7 2.9594 0 131 2.9594 1
genomeend 69

/* Organism #70 Fitness: 78 Error: 0 */
genomestart 70
trait 1 0.1 0 0.0624664 0.0591844 0 0 0 0 
trait 2 0.2 0 0 0 0 0 0 0 
trait 3 0.3 0 0 0 0 0 0 0 
node 1 1 1 3
node 2 2 1 1
node 3 1 1 1
node 4 1 1 1
node 5 1 1 1
node 6 3 0 2
node 7 3 0 2
node 24 1 0 0
gene 3 1 6 -5.39506 0 1 -5.39506 1
gene 3 2 6 2.13281 0 2 2.13281 1
gene 2 3 6 0.333409 0 3 0.333409 1
gene 2 4 6 0.839605 0 4 0.839605 1
gene 1 5 6 -0.563611 0 5 -0.563611 1
gene 3 1 7 4.84285 0 6 4.84285 1
gene 2 2 7 2.34984 0 7 2.34984 1
gene 1 3 7 -4.16902 0 8 -4.16902 1
gene 2 4 7 0.20016 0 9 0.20016 1
gene 1 5 7 -1.68885 0 10 -1.68885 1
gene 1 3 24 1.81899 0 57 1.81899 1
gene 1 24 7 0.631463 0 58 0.631463 1
gene 3 6 7 -2.38082 0 131 -2.38082 1
genomeend 70

/* Organism #71 Fitness: 17 Error: 0 */
genomestart 71
trait 1 0.1 0 0.0624664 0.0591844 0 0 0 0 
trait 2 0.2 0 0 0 0 0 0 0 
trait 3 0.3 0 0 0 0 0 0 0 
node 1 1 1 3
node 2 2 1 1
node 3 1 1 1
node 4 1 1 1
node 5 3 1 1
node 6 3 0 2
node 7 3 0 2
node 24 1 0 0
gene 3 1 6 -4.12346 0 1 -4.12346 1
gene 3 2 6 -0.545722 0 2 -0.545722 1
gene 2 3 6 0.320684 0 3 0.320684 1
gene 2 4 6 0.864236 0 4 0.864236 1
gene 1 5 6 2.44438 0 5 2.44438 1
gene 3 1 7 1.26394 0 6 1.26394 1
gene 2 2 7 4.90274 0 7 4.90274 1
gene 1 3 7 1.14361 0 8 1.14361 1
gene 2 4 7 1.73553 0 9 1.73553 1
gene 1 5 7 -0.821405 0 10 -0.821405 1
gene 1 3 24 -1.17461 0 57 -1.17461 1
gene 1 24 7 1.90352 0 58 1.90352 1
gene 3 6 7 2.12091 0 131 2.12091 1
genomeend 71

/* Organism #72 Fitness: 74 Error: 0 */
genomestart 72
trait 1 0.1 0 0.0624664 0.0591844 0 0 0 0 
trait 2 0.2 0 0 0 0 0 0 0 
trait 3 0.3 0 0 0 0 0 0 0 
node 1 1 1 3
node 2 2 1 1
node 3 1 1 1
node 4 1 1 1
node 5 1 1 1
node 6 3 0 2
node 7 3 0 2
node 24 1 0 0
gene 3 1 6 -5.76222 0 1 -5.76222 1
gene 3 2 6 2.13281 0 2 2.13281 1
gene 2 3 6 1.47826 0 3 1.47826 1
gene 2 4 6 0.185655 0 4 0.185655 1
gene 1 5 6 1.62595 0 5 1.62595 1
gene 3 1 7 3.618 0 6 3.618 1
gene 2 2 7 1.36033 0 7 1.36033 1
gene 1 3 7 -2.25783 0 8 -2.25783 1
gene 2 4 7 0.757804 0 9 0.757804 1
gene 1 5 7 -0.92379 0 10 -0.92379 1
gene 1 3 24 4.03017 0 57 4.03017 1
gene 1 24 7 1.04079 0 58 1.04079 1
gene 3 6 7 0.602006 0 131 0.602006 1
genomeend 72

/* Organism #73 Fitness: 74 Error: 0 */
genomestart 73
trait 1 0.1 0 0.0624664 0.0591844 0 0 0 0 
trait 2 0.2 0 0 0 0 0 0 0 
trait 3 0.3 0 0 0 0 0 0 0 
node 1 1 1 3
node 2 2 1 1
node 3 1 1 1
node 4 1 1 1
node 5 1 1 1
node 6 3 0 2
node 7 3 0 2
node 24 1 0 0
gene 3 1 6 -7.77138 0 1 -7.77138 1
gene 3 2 6 0.983833 0 2 0.983833 1
gene 2 3 6 -1.52548 0 3 -1.52548 1
gene 2 4 6 1.29481 0 4 1.29481 1
gene 1 5 6 -2.57019 0 5 -2.57019 1
gene 3 1 7 5.5114 0 6 5.5114 1
gene 2 2 7 1.66471 0 7 1.66471 1
gene 1 3 7 -1.8296 0 8 -1.8296 1
gene 2 4 7 -0.782872 0 9 -0.782872 1
gene 1 5 7 -0.51463 0 10 -0.51463 1
gene 1 3 24 6.47723 0 57 6.47723 1
gene 1 24 7 1.25883 0 58 1.25883 1
gene 3 6 7 0.72477 0 131 0.72477 1
genomeend 73

/* Organism #74 Fitness: 74 Error: 0 */
genomestart 74
trait 1 0.1 0 0.0624664 0.0591844 0 0 0 0 
trait 2 0.2 0 0 0 0 0 0 0 
trait 3 0.3 0 0 0 0 0 0 0 
node 1 1 1 3
node 2 2 1 1
node 3 1 1 1
node 4 1 1 1
node 5 1 1 1
node 6 3 0 2
node 7 3 0 2
node 24 1 0 0
gene 3 1 6 -5.39506 0 1 -5.39506 1
gene 3 2 6 0.760932 0 2 0.760932 1
gene 2 3 6 0.457016 0 3 0.457016 1
gene 2 4 6 3.12339 0 4 3.12339 1
gene 1 5 6 -1.29694 0 5 -1.29694 1
gene 3 1 7 5.48424 0 6 5.48424 1
gene 2 2 7 3.54096 0 7 3.54096 1
gene 1 3 7 -4.75057 0 8 -4.75057 1
gene 2 4 7 0.768299 0 9 0.768299 1
gene 1 5 7 -1.38959 0 10 -1.38959 1
gene 1 3 24 2.83326 0 57 2.83326 1
gene 1 24 7 3.0532 0 58 3.0532 1
gene 3 6 7 -4.3718 0 131 -4.3718 1
genomeend 74

/* Organism #75 Fitness: 73 Error: 0 */
genomestart 75
trait 1 0.1 0 0.0624664 0.0591844 0 0 0 0 
trait 2 0.2 0 0 0 0 0 0 0 
trait 3 0.3 0 0 0 0 0 0 0 
node 1 1 1 3
node 2 2 1 1
node 3 1 1 1
node 4 1 1 1
node 5 1 1 1
node 6 3 0 2
node 7 3 0 2
node 24 1 0 0
gene 3 1 6 -6.90457 0 1 -6.90457 1
gene 3 2 6 -0.654683 0 2 -0.654683 1
gene 2 3 6 0.831189 0 3 0.831189 1
gene 2 4 6 -1.25125 0 4 -1.25125 1
gene 1 5 6 -0.563611 0 5 -0.563611 1
gene 3 1 7 7.25646 0 6 7.25646 1
gene 2 2 7 2.34984 0 7 2.34984 1
gene 1 3 7 -1.21319 0 8 -1.21319 1
gene 2 4 7 2.2858 0 9 2.2858 1
gene 1 5 7 -5.87647 0 10 -5.87647 1
gene 1 3 24 4.06124 0 57 4.06124 1
gene 1 24 7 0.631463 0 58 0.631463 1
gene 3 6 7 -2.38082 0 131 -2.38082 1
genomeend 75

/* Organism #76 Fitness: 75 Error: 0 */
genomestart 76
trait 1 0.1 0 0.0624664 0.0591844 0 0 0 0 
trait 2 0.2 0 0 0 0 0 0 0 
trait 3 0.3 0 0 0 0 0 0 0 
node 1 1 1 3
node 2 2 1 1
node 3 1 1 1
node 4 1 1 1
node 5 1 1 1
node 6 3 0 2
node 7 3 0 2
node 24 1 0 0
gene 3 1 6 -4.32891 0 1 -4.32891 1
gene 3 2 6 2.91713 0 2 2.91713 1
gene 2 3 6 0.237937 0 3 0.237937 1
gene 2 4 6 1.5371 0 4 1.5371 1
gene 1 5 6 -1.6963 0 5 -1.6963 1
gene 3 1 7 4.55132 0 6 4.55132 1
gene 2 2 7 0.472748 0 7 0.472748 1
gene 1 3 7 -4.17817 0 8 -4.17817 1
gene 2 4 7 -0.815598 0 9 -0.815598 1
gene 1 5 7 -3.5855 0 10 -3.5855 1
gene 1 3 24 4.55999 0 57 4.55999 1
gene 1 24 7 4.17273 0 58 4.17273 1
gene 3 6 7 -2.68134 0 131 -2.68134 1
genomeend 76

/* Organism #77 Fitness: 74 Error: 0 */
genomestart 77
trait 1 0.1 0 0.0624664 0.0591844 0 0 0 0 
trait 2 0.2 0 0 0 0 0 0 0 
trait 3 0.3 0 0 0 0 0 0 0 
node 1 1 1 3
node 2 2 1 1
node 3 1 1 1
node 4 1 1 1
node 5 1 1 1
node 6 3 0 2
node 7 3 0 2
node 24 1 0 0
gene 3 1 6 -4.47376 0 1 -4.47376 1
gene 3 2 6 0.0540517 0 2 0.0540517 1
gene 2 3 6 0.791973 0 3 0.791973 1
gene 2 4 6 0.0370707 0 4 0.0370707 1
gene 1 5 6 -1.97863 0 5 -1.97863 1
gene 3 1 7 7.01231 0 6 7.01231 1
gene 2 2 7 -1.10018 0 7 -1.10018 1
gene 1 3 7 -1.94345 0 8 -1.94345 1
gene 2 4 7 -1.26142 0 9 -1.26142 1
gene 1 5 7 -5.16661 0 10 -5.16661 1
gene 1 3 24 4.40235 0 57 4.40235 1
gene 1 24 7 2.11486 0 58 2.11486 1
gene 3 6 7 -3.2553 0 131 -3.2553 1
gene 2 4 24 0.3018 0 181 0.3018 1
genomeend 77

/* Organism #78 Fitness: 76 Error: 0 */
genomestart 78
trait 1 0.1 0 0.0624664 0.0591844 0 0 0 0 
trait 2 0.2 0 0 0 0 0 0 0 
trait 3 0.3 0 0 0 0 0 0 0 
node 1 1 1 3
node 2 2 1 1
node 3 1 1 1
node 4 1 1 1
node 5 1 1 1
node 6 3 0 2
node 7 3 0 2
node 24 1 0 0
gene 3 1 6 -5.87758 0 1 -5.87758 1
gene 3 2 6 3.38636 0 2 3.38636 1
gene 2 3 6 -1.08527 0 3 -1.08527 1
gene 2 4 6 3.63077 0 4 3.63077 1
gene 1 5 6 -0.953194 0 5 -0.953194 1
gene 3 1 7 2.32094 0 6 2.32094 1
gene 2 2 7 2.06142 0 7 2.06142 1
gene 1 3 7 -4.67759 0 8 -4.67759 1
gene 2 4 7 -2.66473 0 9 -2.66473 1
gene 1 5 7 -5.13691 0 10 -5.13691 1
gene 1 3 24 3.97218 0 57 3.97218 1
gene 1 24 7 1.14448 0 58 1.14448 1
gene 3 6 7 -2.68134 0 131 -2.68134 1
genomeend 78

/* Organism #79 Fitness: 5 Error: 0 */
genomestart 79
trait 1 0.1 0 0.0624664 0.0591844 0 0 0 0 
trait 2 0.2 0 0 0 0 0 0 0 
trait 3 0.3 0 0 0 0 0 0 0 
node 1 1 1 3
node 2 2 1 1
node 3 1 1 1
node 4 1 1 1
node 5 1 1 1
node 6 3 0 2
node 7 3 0 2
node 24 1 0 0
gene 3 1 6 0.453116 0 1 0.453116 1
gene 3 2 6 2.04284 0 2 2.04284 1
gene 2 3 6 1.9666 0 3 1.9666 1
gene 2 4 6 0.0269147 0 4 0.0269147 1
gene 1 5 6 0.575105 0 5 0.575105 1
gene 3 1 7 7.31226 0 6 7.31226 1
gene 2 2 7 0.2085 0 7 0.2085 1
gene 1 3 7 -3.05148 0 8 -3.05148 1
gene 2 4 7 -2.5386 0 9 -2.5386 1
gene 1 5 7 -7.39328 0 10 -7.39328 1
gene 1 3 24 -1.88064 0 57 -1.88064 1
gene 1 24 7 1.98191 0 58 1.98191 1
gene 3 6 7 0.738431 0 131 0.738431 1
gene 1 1 24 -2.92671 0 173 -2.92671 1
genomeend 79

/* Organism #80 Fitness: 74 Error: 0 */
genomestart 80
trait 1 0.1 0 0.0624664 0.0591844 0 0 0 0 
trait 2 0.2 0 0 0 0 0 0 0 
trait 3 0.3 0 0 0 0 0 0 0 
node 1 1 1 3
node 2 2 1 1
node 3 1 1 1
node 4 1 1 1
node 5 1 1 1
node 6 3 0 2
node 7 3 0 2
node 24 1 0 0
gene 3 1 6 -3.04109 0 1 -3.04109 1
gene 3 2 6 -0.977327 0 2 -0.977327 1
gene 2 3 6 1.46953 0 3 1.46953 1
gene 2 4 6 1.52786 0 4 1.52786 1
gene 1 5 6 -1.76979 0 5 -1.76979 1
gene 3 1 7 8 0 6 8 1
gene 2 2 7 0.0344728 0 7 0.0344728 1
gene 1 3 7 -3.71466 0 8 -3.71466 1
gene 2 4 7 -2.7634 0 9 -2.7634 1
gene 1 5 7 -3.14173 0 10 -3.14173 1
gene 1 3 24 6.18771 0 57 6.18771 1
gene 1 24 7 2.48154 0 58 2.48154 1
gene 3 6 7 -2.39061 0 131 -2.39061 1
gene 1 1 24 -0.500522 0 173 -0.500522 1
genomeend 80

/* Organism #81 Fitness: 72 Error: 0 */
genomestart 81
trait 1 0.1 0 0.0624664 0.0591844 0 0 0 0 
trait 2 0.2 0 0 0 0 0 0 0 
trait 3 0.3 0 0 0 0 0 0 0 
node 1 1 1 3
node 2 2 1 1
node 3 1 1 1
node 4 1 1 1
node 5 1 1 1
node 6 3 0 2
node 7 3 0 2
node 24 1 0 0
gene 3 1 6 -4.32891 0 1 -4.32891 1
gene 3 2 6 2.04284 0 2 2.04284 1
gene 2 3 6 0.645282 0 3 0.645282 1
gene 2 4 6 1.5371 0 4 1.5371 1
gene 1 5 6 0.192408 0 5 0.192408 1
gene 3 1 7 4.55132 0 6 4.55132 1
gene 2 2 7 0.56072 0 7 0.56072 1
gene 1 3 7 -4.05206 0 8 -4.05206 1
gene 2 4 7 -0.815598 0 9 -0.815598 1
gene 1 5 7 -5.69786 0 10 -5.69786 1
gene 1 3 24 4.55999 0 57 4.55999 1
gene 1 24 7 2.11486 0 58 2.11486 1
gene 3 6 7 -2.68134 0 131 -2.68134 1
genomeend 81

/* Organism #82 Fitness: 74 Error: 0 */
genomestart 82
trait 1 0.1 0 0.0624664 0.0591844 0 0 0 0 
trait 2 0.2 0 0 0 0 0 0 0 
trait 3 0.3 0 0 0 0 0 0 0 
node 1 1 1 3
node 2 2 1 1
node 3 1 1 1
node 4 1 1 1
node 5 1 1 1
node 6 3 0 2
node 7 3 0 2
node 24 1 0 0
gene 3 1 6 -6.61181 0 1 -6.61181 1
gene 3 2 6 -0.705666 0 2 -0.705666 1
gene 2 3 6 3.08648 0 3 3.08648 1
gene 2 4 6 2.34415 0 4 2.34415 1
gene 1 5 6 0.453411 0 5 0.453411 1
gene 3 1 7 8 0 6 8 1
gene 2 2 7 0.44847 0 7 0.44847 1
gene 1 3 7 -0.825528 0 8 -0.825528 1
gene 2 4 7 -0.376345 0 9 -0.376345 1
gene 2 5 7 -4.59983 0 10 -4.59983 1
gene 1 3 24 6.05846 0 57 6.05846 1
gene 1 24 7 3.87226 0 58 3.87226 1
gene 3 6 7 -2.75581 0 131 -2.75581 1
genomeend 82

/* Organism #83 Fitness: 74 Error: 0 */
genomestart 83
trait 1 0.1 0 0.0624664 0.0591844 0 0 0 0 
trait 2 0.2 0 0 0 0 0 0 0 
trait 3 0.3 0 0 0 0 0 0 0 
node 1 1 1 3
node 2 2 1 1
node 3 1 1 1
node 4 1 1 1
node 5 1 1 1
node 6 3 0 2
node 7 3 0 2
node 24 1 0 0
gene 3 1 6 -4.02652 0 1 -4.02652 1
gene 3 2 6 2.47999 0 2 2.47999 1
gene 2 3 6 0.441609 0 3 0.441609 1
gene 2 4 6 1.11364 0 4 1.11364 1
gene 1 5 6 -0.751945 0 5 -0.751945 1
gene 3 1 7 4.76876 0 6 4.76876 1
gene 2 2 7 0.516734 0 7 0.516734 1
gene 1 3 7 -4.11511 0 8 -4.11511 1
gene 2 4 7 -0.887883 0 9 -0.887883 1
gene 1 5 7 -4.64168 0 10 -4.64168 1
gene 1 3 24 4.8478 0 57 4.8478 1
gene 1 24 7 3.14379 0 58 3.14379 1
gene 3 6 7 -2.05414 0 131 -2.05414 1
genomeend 83

/* Organism #84 Fitness: 71 Error: 0 */
genomestart 84
trait 1 0.1 0 0.0624664 0.0591844 0 0 0 0 
trait 2 0.2 0 0 0 0 0 0 0 
trait 3 0.3 0 0 0 0 0 0 0 
node 1 1 1 3
node 2 2 1 1
node 3 1 1 1
node 4 1 1 1
node 5 1 1 1
node 6 3 0 2
node 7 3 0 2
node 24 1 0 0
gene 3 1 6 -5.43423 0 1 -5.43423 1
gene 3 2 6 0.437514 0 2 0.437514 1
gene 2 3 6 -1.00531 0 3 -1.00531 1
gene 2 4 6 -1.54862 0 4 -1.54862 1
gene 1 5 6 -1.26836 0 5 -1.26836 1
gene 3 1 7 5.69966 0 6 5.69966 1
gene 2 2 7 -0.0709296 0 7 -0.0709296 1
gene 1 3 7 -2.29366 0 8 -2.29366 1
gene 2 4 7 -0.529847 0 9 -0.529847 1
gene 1 5 7 -5.80079 0 10 -5.80079 1
gene 1 3 24 2.40565 0 57 2.40565 1
gene 1 24 7 2.11486 0 58 2.11486 1
gene 3 6 7 -1.80912 0 131 -1.80912 1
genomeend 84

/* Organism #85 Fitness: 75 Error: 0 */
genomestart 85
trait 1 0.1 0 0.0624664 0.0591844 0 0 0 0 
trait 2 0.2 0 0 0 0 0 0 0 
trait 3 0.3 0 0 0 0 0 0 0 
node 1 1 1 3
node 2 2 1 1
node 3 1 1 1
node 4 1 1 1
node 5 1 1 1
node 6 3 0 2
node 7 3 0 2
node 24 1 0 0
gene 3 1 6 -4.32891 0 1 -4.32891 1
gene 3 2 6 2.91713 0 2 2.91713 1
gene 2 3 6 0.237937 0 3 0.237937 1
gene 2 4 6 1.5371 0 4 1.5371 1
gene 1 5 6 -1.6963 0 5 -1.6963 1
gene 3 1 7 4.55132 0 6 4.55132 1
gene 2 2 7 0.472748 0 7 0.472748 1
gene 1 3 7 -4.17817 0 8 -4.17817 1
gene 2 4 7 -0.815598 0 9 -0.815598 1
gene 1 5 7 -3.5855 0 10 -3.5855 1
gene 1 3 24 4.55999 0 57 4.55999 1
gene 1 24 7 4.17273 0 58 4.17273 1
gene 3 6 7 -2.68134 0 131 -2.68134 1
genomeend 85

/* Species #10 : (Size 12) (AF 50.8333) (Age 9)  */


/* Organism #86 Fitness: 82 Error: 0 */
genomestart 86
trait 1 0.1 0 0 0 0 0 0 0 
trait 2 0.2 0 0 0 0 0 0 0 
trait 3 0.3 0 0 0 0 0 0 0 
node 1 3 1 3
node 2 1 1 1
node 3 3 1 1
node 4 1 1 1
node 5 2 1 1
node 6 3 0 2
node 7 1 0 2
node 17 1 0 0
node 29 1 0 0
gene 2 1 6 -2.9598 0 1 -2.9598 1
gene 3 2 6 3.12129 0 2 3.12129 1
gene 1 3 6 -2.26218 0 3 -2.26218 1
gene 2 4 6 -1.99471 0 4 -1.99471 1
gene 3 5 6 -1.74405 0 5 -1.74405 1
gene 3 1 7 4.04102 0 6 4.04102 1
gene 1 2 7 1.31886 0 7 1.31886 1
gene 3 3 7 -1.66108 0 8 -1.66108 1
gene 3 4 7 -3.11707 0 9 -3.11707 0
gene 3 5 7 0.258125 0 10 0.258125 0
gene 2 6 7 1.43679 0 24 1.43679 1
gene 3 4 17 1.19036 0 34 1.19036 1
gene 3 17 7 -3.18379 0 35 -3.18379 1
gene 2 1 17 1.15934 0 69 1.15934 1
gene 3 5 29 1 0 76 1 1
gene 3 29 7 -1.26128 0 77 -1.26128 1
genomeend 86

/* Organism #87 Fitness: 26 Error: 0 */
genomestart 87
trait 1 0.1 0 0 0 0 0 0 0 
trait 2 0.554678 0 0 0 0 0.474952 0.139601 0 
trait 3 0.3 0 0 0 0 0 0 0 
node 1 3 1 3
node 2 1 1 1
node 3 3 1 1
node 4 1 1 1
node 5 2 1 1
node 6 3 0 2
node 7 1 0 2
node 17 1 0 0
node 29 1 0 0
gene 2 1 6 -5.2244 0 1 -5.2244 1
gene 3 2 6 3.12129 0 2 3.12129 1
gene 1 3 6 -0.374443 0 3 -0.374443 1
gene 2 4 6 -2.25104 0 4 -2.25104 1
gene 3 5 6 1.85314 0 5 1.85314 1
gene 3 1 7 4.3338 0 6 4.3338 1
gene 1 2 7 1.31886 0 7 1.31886 1
gene 3 3 7 -2.33923 0 8 -2.33923 1
gene 3 4 7 -3.11707 0 9 -3.11707 0
gene 3 5 7 -1.36767 0 10 -1.36767 0
gene 2 6 7 -1.00006 0 24 -1.00006 1
gene 3 4 17 1.16145 0 34 1.16145 1
gene 3 17 7 -4.107 0 35 -4.107 1
gene 2 1 17 1.15934 0 69 1.15934 1
gene 3 5 29 0.2056 0 76 0.2056 1
gene 3 29 7 -0.257856 0 77 -0.257856 1
genomeend 87

/* Organism #88 Fitness: 71 Error: 0 */
genomestart 88
trait 1 0.1 0 0 0 0 0 0 0 
trait 2 0.377339 0 0 0 0 0.237476 0.0698003 0 
trait 3 0.915301 0 0.810972 0 0 0 0 0 
node 1 3 1 3
node 2 1 1 1
node 3 3 1 1
node 4 1 1 1
node 5 2 1 1
node 6 3 0 2
node 7 1 0 2
node 17 1 0 0
node 29 1 0 0
gene 2 1 6 -2.85996 0 1 -2.85996 1
gene 3 2 6 3.2401 0 2 3.2401 1
gene 1 3 6 -1.7531 0 3 -1.7531 1
gene 2 4 6 -3.52182 0 4 -3.52182 1
gene 3 5 6 -1.44038 0 5 -1.44038 1
gene 3 1 7 2.09557 0 6 2.09557 1
gene 1 2 7 3.46783 0 7 3.46783 1
gene 3 3 7 0.239712 0 8 0.239712 1
gene 3 4 7 -2.3627 0 9 -2.3627 0
gene 3 5 7 -0.0443144 0 10 -0.0443144 0
gene 2 6 7 0.963015 0 24 0.963015 1
gene 3 4 17 2.81535 0 34 2.81535 1
gene 3 17 7 -1.64269 0 35 -1.64269 1
gene 2 1 17 1.15934 0 69 1.15934 1
gene 3 5 29 1.26667 0 76 1.26667 1
gene 3 29 7 0.551472 0 77 0.551472 1
genomeend 88

/* Organism #89 Fitness: 75 Error: 0 */
genomestart 89
trait 1 0.1 0 0 0 0 0 0 0 
trait 2 0.377339 0 0 0 0 0.237476 0.0698003 0 
trait 3 0.3 0 0 0 0 0 0 0 
node 1 3 1 3
node 2 1 1 1
node 3 3 1 1
node 4 1 1 1
node 5 2 1 1
node 6 3 0 2
node 7 1 0 2
node 17 1 0 0
node 29 1 0 0
gene 2 1 6 -4.99887 0 1 -4.99887 1
gene 3 2 6 0.972948 0 2 0.972948 1
gene 1 3 6 -0.581612 0 3 -0.581612 1
gene 2 4 6 -0.582616 0 4 -0.582616 1
gene 3 5 6 -3.75663 0 5 -3.75663 1
gene 3 1 7 4.75985 0 6 4.75985 1
gene 1 2 7 0.730385 0 7 0.730385 1
gene 3 3 7 -2.36343 0 8 -2.36343 1
gene 3 4 7 -3.54039 0 9 -3.54039 0
gene 3 5 7 -1.3872 0 10 -1.3872 1
gene 2 6 7 0.710275 0 24 0.710275 1
gene 3 4 17 2.31099 0 34 2.31099 1
gene 3 17 7 -0.754533 0 35 -0.754533 1
gene 2 1 17 1.59289 0 69 1.59289 1
gene 3 5 29 1.1847 0 76 1.1847 1
gene 3 29 7 -0.475301 0 77 -0.475301 1
genomeend 89

/* Organism #90 Fitness: 19 Error: 0 */
genomestart 90
trait 1 0.1 0 0 0 0 0 0 0 
trait 2 0.2 0 0 0 0 0 0 0 
trait 3 0.3 0 0 0 0 0 0 0 
node 1 3 1 3
node 2 1 1 1
node 3 3 1 1
node 4 1 1 1
node 5 2 1 1
node 6 3 0 2
node 7 1 0 2
node 17 1 0 0
node 29 1 0 0
gene 2 1 6 -3.50658 0 1 -3.50658 1
gene 3 2 6 4.25639 0 2 4.25639 1
gene 1 3 6 -4.28353 0 3 -4.28353 1
gene 2 4 6 -4.38069 0 4 -4.38069 1
gene 3 5 6 -2.79333 0 5 -2.79333 1
gene 3 1 7 4.12431 0 6 4.12431 1
gene 1 2 7 -0.354315 0 7 -0.354315 1
gene 3 3 7 -3.99485 0 8 -3.99485 1
gene 3 4 7 -1.98534 0 9 -1.98534 0
gene 3 5 7 -0.451782 0 10 -0.451782 0
gene 2 6 7 3.50387 0 24 3.50387 1
gene 3 4 17 2.80709 0 34 2.80709 1
gene 3 17 7 -4.91073 0 35 -4.91073 1
gene 2 1 17 1.58602 0 69 1.58602 1
gene 3 5 29 1.45837 0 76 1.45837 1
gene 3 29 7 -1.26128 0 77 -1.26128 1
genomeend 90

/* Organism #91 Fitness: 82 Error: 0 */
genomestart 91
trait 1 0.1 0 0 0 0 0 0 0 
trait 2 0.377339 0 0 0 0 0.237476 0.0698003 0 
trait 3 0.3 0 0 0 0 0 0 0 
node 1 3 1 3
node 2 1 1 1
node 3 3 1 1
node 4 1 1 1
node 5 2 1 1
node 6 3 0 2
node 7 1 0 2
node 17 1 0 0
node 29 1 0 0
gene 2 1 6 -2.9598 0 1 -2.9598 1
gene 3 2 6 3.12129 0 2 3.12129 1
gene 1 3 6 -2.26218 0 3 -2.26218 1
gene 2 4 6 -1.99471 0 4 -1.99471 1
gene 3 5 6 -1.74405 0 5 -1.74405 1
gene 3 1 7 4.04102 0 6 4.04102 1
gene 1 2 7 1.31886 0 7 1.31886 1
gene 3 3 7 -1.66108 0 8 -1.66108 1
gene 3 4 7 -3.11707 0 9 -3.11707 0
gene 3 5 7 0.258125 0 10 0.258125 0
gene 2 6 7 1.43679 0 24 1.43679 1
gene 3 4 17 1.19036 0 34 1.19036 1
gene 3 17 7 -3.18379 0 35 -3.18379 1
gene 2 1 17 1.15934 0 69 1.15934 1
gene 3 5 29 1 0 76 1 1
gene 3 29 7 -1.26128 0 77 -1.26128 1
genomeend 91

/* Organism #92 Fitness: 8 Error: 0 */
genomestart 92
trait 1 0 0.981385 0 0 0 0 0.663778 0 
trait 2 0.2 0 0 0 0 0 0 0 
trait 3 0.3 0 0 0 0 0 0 0 
node 1 3 1 3
node 2 1 1 1
node 3 3 1 1
node 4 1 1 1
node 5 2 1 1
node 6 3 0 2
node 7 1 0 2
node 17 1 0 0
node 29 1 0 0
gene 2 1 6 -1.89703 0 1 -1.89703 1
gene 3 2 6 4.81468 0 2 4.81468 1
gene 1 3 6 -0.908661 0 3 -0.908661 1
gene 2 4 6 -3.03071 0 4 -3.03071 1
gene 3 5 6 -1.64114 0 5 -1.64114 1
gene 3 1 7 3.18599 0 6 3.18599 1
gene 1 2 7 0.231911 0 7 0.231911 1
gene 3 3 7 0.464556 0 8 0.464556 1
gene 3 4 7 -2.43115 0 9 -2.43115 0
gene 3 5 7 1.17686 0 10 1.17686 0
gene 2 6 7 0.2341 0 24 0.2341 1
gene 3 4 17 -0.0183068 0 34 -0.0183068 1
gene 3 17 7 -2.33743 0 35 -2.33743 1
gene 2 1 17 1.15934 0 69 1.15934 1
gene 3 5 29 1 0 76 1 1
gene 3 29 7 -0.711515 0 77 -0.711515 1
genomeend 92

/* Organism #93 Fitness: 8 Error: 0 */
genomestart 93
trait 1 0.1 0 0 0 0 0 0 0 
trait 2 0.377339 0 0 0 0 0.237476 0.0698003 0 
trait 3 0.3 0 0 0 0 0 0 0 
node 1 3 1 3
node 2 1 1 1
node 3 3 1 1
node 4 1 1 1
node 5 2 1 1
node 6 3 0 2
node 7 1 0 2
node 17 1 0 0
node 29 1 0 0
gene 2 1 6 -4.6392 0 1 -4.6392 1
gene 3 2 6 4.40479 0 2 4.40479 1
gene 3 3 6 0.122913 0 3 0.122913 1
gene 2 4 6 -3.52647 0 4 -3.52647 1
gene 3 5 6 -2.3511 0 5 -2.3511 1
gene 3 1 7 1.98206 0 6 1.98206 1
gene 1 2 7 2.40655 0 7 2.40655 1
gene 3 3 7 0.0548839 0 8 0.0548839 1
gene 3 4 7 -2.61669 0 9 -2.61669 0
gene 3 5 7 1.97083 0 10 1.97083 0
gene 2 6 7 3.80559 0 24 3.80559 1
gene 3 4 17 0.390134 0 34 0.390134 1
gene 3 17 7 -0.805362 0 35 -0.805362 1
gene 2 1 17 1.15934 0 69 1.15934 1
gene 3 5 29 1.39162 0 76 1.39162 1
gene 3 29 7 -2.98998 0 77 -2.98998 1
genomeend 93

/* Organism #94 Fitness: 70 Error: 0 */
genomestart 94
trait 1 0.1 0 0 0 0 0 0 0 
trait 2 0.2 0 0 0 0 0 0 0 
trait 3 0.3 0 0 0 0 0 0 0 
node 1 3 1 3
node 2 1 1 1
node 3 3 1 1
node 4 1 1 1
node 5 2 1 1
node 6 3 0 2
node 7 1 0 2
node 17 1 0 0
node 29 1 0 0
gene 2 1 6 -4.75955 0 1 -4.75955 1
gene 3 2 6 5.05906 0 2 5.05906 1
gene 1 3 6 -3.23629 0 3 -3.23629 1
gene 2 4 6 -2.91598 0 4 -2.91598 1
gene 3 5 6 -0.0445732 0 5 -0.0445732 1
gene 3 1 7 6.25045 0 6 6.25045 1
gene 1 2 7 2.21651 0 7 2.21651 1
gene 3 3 7 -3.96448 0 8 -3.96448 1
gene 3 4 7 -4.48851 0 9 -4.48851 0
gene 3 5 7 2.62653 0 10 2.62653 0
gene 2 6 7 -0.347307 0 24 -0.347307 1
gene 3 4 17 0.827832 0 34 0.827832 1
gene 3 17 7 -3.16598 0 35 -3.16598 1
gene 2 1 17 1.15934 0 69 1.15934 1
gene 3 5 29 -0.809687 0 76 -0.809687 1
gene 3 29 7 -1.26128 0 77 -1.26128 1
genomeend 94

/* Organism #95 Fitness: 71 Error: 0 */
genomestart 95
trait 1 0.1 0 0 0 0 0 0 0 
trait 2 0.2 0 0 0 0 0 0 0 
trait 3 0.3 0 0 0 0 0 0 0 
node 1 3 1 3
node 2 1 1 1
node 3 3 1 1
node 4 1 1 1
node 5 2 1 1
node 6 3 0 2
node 7 1 0 2
node 17 1 0 0
node 29 1 0 0
gene 2 1 6 -4.88221 0 1 -4.88221 1
gene 3 2 6 -2.24864 0 2 -2.24864 1
gene 1 3 6 -0.55896 0 3 -0.55896 1
gene 2 4 6 -1.50557 0 4 -1.50557 1
gene 3 5 6 -1.41865 0 5 -1.41865 1
gene 3 1 7 6.08889 0 6 6.08889 1
gene 1 2 7 -1.75257 0 7 -1.75257 1
gene 3 3 7 -3.22096 0 8 -3.22096 1
gene 3 4 7 -3.26655 0 9 -3.26655 0
gene 3 5 7 -0.963017 0 10 -0.963017 0
gene 2 6 7 -0.337155 0 24 -0.337155 1
gene 3 4 17 2.51521 0 34 2.51521 1
gene 3 17 7 -2.4017 0 35 -2.4017 1
gene 2 1 17 3.6028 0 69 3.6028 1
gene 3 5 29 1 0 76 1 1
gene 3 29 7 -1.05166 0 77 -1.05166 1
genomeend 95

/* Organism #96 Fitness: 82 Error: 0 */
genomestart 96
trait 1 0.1 0 0 0 0 0 0 0 
trait 2 0.554678 0 0 0 0 0.474952 0.139601 0 
trait 3 0.3 0 0 0 0 0 0 0 
node 1 3 1 3
node 2 1 1 1
node 3 3 1 1
node 4 1 1 1
node 5 2 1 1
node 6 3 0 2
node 7 1 0 2
node 17 1 0 0
node 29 1 0 0
gene 2 1 6 -2.9598 0 1 -2.9598 1
gene 3 2 6 3.12129 0 2 3.12129 1
gene 1 3 6 -2.26218 0 3 -2.26218 1
gene 2 4 6 -1.99471 0 4 -1.99471 1
gene 3 5 6 -1.74405 0 5 -1.74405 1
gene 3 1 7 4.04102 0 6 4.04102 1
gene 1 2 7 1.31886 0 7 1.31886 1
gene 3 3 7 -1.66108 0 8 -1.66108 1
gene 3 4 7 -3.11707 0 9 -3.11707 0
gene 3 5 7 0.258125 0 10 0.258125 0
gene 2 6 7 1.43679 0 24 1.43679 1
gene 3 4 17 1.19036 0 34 1.19036 1
gene 3 17 7 -3.18379 0 35 -3.18379 1
gene 2 1 17 1.15934 0 69 1.15934 1
gene 3 5 29 1 0 76 1 1
gene 3 29 7 -1.26128 0 77 -1.26128 1
genomeend 96

/* Organism #97 Fitness: 16 Error: 0 */
genomestart 97
trait 1 0.1 0 0 0 0 0 0 0 
trait 2 0.554678 0 0 0 0 0.474952 0.139601 0 
trait 3 0.3 0 0 0 0 0 0 0 
node 1 3 1 3
node 2 1 1 1
node 3 3 1 1
node 4 1 1 1
node 5 2 1 1
node 6 3 0 2
node 7 1 0 2
node 17 1 0 0
node 29 1 0 0
gene 2 1 6 -3.36049 0 1 -3.36049 1
gene 3 2 6 3.12129 0 2 3.12129 1
gene 1 3 6 -1.09824 0 3 -1.09824 1
gene 2 4 6 0.00540276 0 4 0.00540276 1
gene 3 5 6 -1.30365 0 5 -1.30365 1
gene 3 1 7 3.3266 0 6 3.3266 1
gene 1 2 7 2.56646 0 7 2.56646 1
gene 3 3 7 -1.39321 0 8 -1.39321 1
gene 3 4 7 -1.2337 0 9 -1.2337 0
gene 3 5 7 1.82292 0 10 1.82292 1
gene 2 6 7 2.18672 0 24 2.18672 1
gene 3 4 17 0.52771 0 34 0.52771 1
gene 3 17 7 -2.6058 0 35 -2.6058 1
gene 2 1 17 2.89603 0 69 2.89603 1
gene 3 5 29 0.0778346 0 76 0.0778346 1
gene 3 29 7 -1.20252 0 77 -1.20252 1
genomeend 97

/* Species #11 : (Size 10) (AF 74.9) (Age 7)  */


/* Organism #98 Fitness: 99 Error: 0 */
genomestart 98
trait 1 0.1 0 0 0 0 0 0 0 
trait 2 0.2 0 0 0 0 0 0.00829481 0.0140151 
trait 3 0.3 0 0 0 0 0 0 0 
node 1 1 1 3
node 2 2 1 1
node 3 3 1 1
node 4 2 1 1
node 5 2 1 1
node 6 1 0 2
node 7 1 0 2
node 14 1 0 0
node 16 1 0 0
gene 2 1 6 -4.38098 0 1 -4.38098 1
gene 1 2 6 -1.9068 0 2 -1.9068 1
gene 2 3 6 0.146495 0 3 0.146495 1
gene 2 4 6 1.35105 0 4 1.35105 1
gene 3 5 6 -0.365927 0 5 -0.365927 0
gene 3 1 7 3.05547 0 6 3.05547 1
gene 3 2 7 3.86566 0 7 3.86566 1
gene 2 3 7 -6.11347 0 8 -6.11347 1
gene 1 4 7 -0.534743 0 9 -0.534743 1
gene 2 5 7 -2.33386 0 10 -2.33386 1
gene 1 4 14 -0.0616211 0 27 -0.0616211 1
gene 1 14 6 0.191538 0 28 0.191538 1
gene 3 5 16 2.29946 0 32 2.29946 1
gene 3 16 6 -0.648737 0 33 -0.648737 1
gene 3 16 14 -1.40935 0 101 -1.40935 1
genomeend 98

/* Organism #99 Fitness: 97 Error: 0 */
genomestart 99
trait 1 0.1 0 0 0 0 0 0 0 
trait 2 0.2 0 0 0 0 0 0.00829481 0.0140151 
trait 3 0.3 0 0 0 0 0 0 0 
node 1 1 1 3
node 2 2 1 1
node 3 3 1 1
node 4 2 1 1
node 5 2 1 1
node 6 1 0 2
node 7 1 0 2
node 14 1 0 0
node 16 1 0 0
gene 2 1 6 -5.08821 0 1 -5.08821 1
gene 1 2 6 1.00155 0 2 1.00155 1
gene 2 3 6 2.1297 0 3 2.1297 1
gene 2 4 6 2.2848 0 4 2.2848 1
gene 3 5 6 -3.58427 0 5 -3.58427 0
gene 3 1 7 2.75618 0 6 2.75618 1
gene 3 2 7 5.69662 0 7 5.69662 1
gene 2 3 7 -7.22887 0 8 -7.22887 1
gene 1 4 7 0.0601679 0 9 0.0601679 1
gene 2 5 7 -2.33947 0 10 -2.33947 1
gene 1 4 14 -0.9477 0 27 -0.9477 1
gene 1 14 6 -2.98367 0 28 -2.98367 1
gene 3 5 16 -0.396641 0 32 -0.396641 1
gene 3 16 6 0.719808 0 33 0.719808 1
gene 3 16 14 -5.11272 0 101 -5.11272 1
genomeend 99

/* Organism #100 Fitness: 75 Error: 0 */
genomestart 100
trait 1 0.1 0 0 0 0 0 0 0 
trait 2 0.2 0 0 0 0 0 0.00829481 0.0140151 
trait 3 0.3 0 0 0 0 0 0 0 
node 1 1 1 3
node 2 2 1 1
node 3 3 1 1
node 4 2 1 1
node 5 2 1 1
node 6 1 0 2
node 7 1 0 2
node 14 1 0 0
node 16 1 0 0
gene 2 1 6 -6.03426 0 1 -6.03426 1
gene 1 2 6 0.166178 0 2 0.166178 1
gene 2 3 6 2.98064 0 3 2.98064 1
gene 2 4 6 3.38708 0 4 3.38708 1
gene 3 5 6 0.140345 0 5 0.140345 0
gene 3 1 7 4.04607 0 6 4.04607 1
gene 3 2 7 3.86566 0 7 3.86566 1
gene 2 3 7 -0.522144 0 8 -0.522144 1
gene 1 4 7 -2.14071 0 9 -2.14071 1
gene 2 5 7 -2.77876 0 10 -2.77876 1
gene 1 4 14 -0.545535 0 27 -0.545535 1
gene 1 14 6 0.512269 0 28 0.512269 1
gene 3 5 16 3.2463 0 32 3.2463 1
gene 3 16 6 -1.47775 0 33 -1.47775 1
gene 3 16 14 -0.964072 0 101 -0.964072 1
genomeend 100

/* Organism #101 Fitness: 55 Error: 0 */
genomestart 101
trait 1 0.1 0 0 0 0 0 0 0 
trait 2 0.2 0 0 0 0 0 0.00829481 0.0140151 
trait 3 0.20272 0 0 0 0 0 0 0 
node 1 1 1 3
node 2 2 1 1
node 3 3 1 1
node 4 2 1 1
node 5 2 1 1
node 6 1 0 2
node 7 1 0 2
node 14 1 0 0
node 16 1 0 0
gene 2 1 6 -3.18452 0 1 -3.18452 1
gene 1 2 6 -0.650633 0 2 -0.650633 1
gene 2 3 6 -2.28775 0 3 -2.28775 1
gene 2 4 6 0.759357 0 4 0.759357 1
gene 3 5 6 1.32881 0 5 1.32881 0
gene 3 1 7 0.786682 0 6 0.786682 1
gene 3 2 7 3.0937 0 7 3.0937 1
gene 2 3 7 -4.44014 0 8 -4.44014 1
gene 1 4 7 0.603063 0 9 0.603063 1
gene 2 5 7 -2.00118 0 10 -2.00118 1
gene 1 4 14 -1.05893 0 27 -1.05893 1
gene 1 14 6 -1.85817 0 28 -1.85817 1
gene 3 5 16 -2.48024 0 32 -2.48024 1
gene 3 16 6 -0.657272 0 33 -0.657272 1
gene 3 16 14 -0.701665 0 101 -0.701665 1
genomeend 101

/* Organism #102 Fitness: 68 Error: 0 */
genomestart 102
trait 1 0.1 0 0 0 0 0 0 0 
trait 2 0.2 0 0 0 0 0 0.00829481 0.0140151 
trait 3 0.3 0 0 0 0 0 0 0 
node 1 1 1 3
node 2 2 1 1
node 3 3 1 1
node 4 2 1 1
node 5 2 1 1
node 6 1 0 2
node 7 1 0 2
node 14 1 0 0
node 16 1 0 0
gene 2 1 6 -6.45722 0 1 -6.45722 1
gene 1 2 6 -1.6615 0 2 -1.6615 1
gene 2 3 6 0.852557 0 3 0.852557 1
gene 2 4 6 -0.657481 0 4 -0.657481 1
gene 3 5 6 -3.81287 0 5 -3.81287 0
gene 3 1 7 0.0934437 0 6 0.0934437 1
gene 3 2 7 2.8069 0 7 2.8069 1
gene 2 3 7 -6.61372 0 8 -6.61372 1
gene 1 4 7 -1.60311 0 9 -1.60311 1
gene 2 5 7 -1.05405 0 10 -1.05405 1
gene 1 4 14 -1.48232 0 27 -1.48232 1
gene 1 14 6 -1.89667 0 28 -1.89667 1
gene 3 5 16 0.385577 0 32 0.385577 1
gene 3 16 6 -0.675255 0 33 -0.675255 1
gene 3 16 14 -4.93508 0 101 -4.93508 1
genomeend 102

/* Organism #103 Fitness: 99 Error: 0 */
genomestart 103
trait 1 0.1 0 0 0 0 0 0 0 
trait 2 0.867019 0 0.192082 0 0 0 0.00829481 0.0140151 
trait 3 0.3 0 0 0 0 0 0 0 
node 1 1 1 3
node 2 2 1 1
node 3 3 1 1
node 4 2 1 1
node 5 2 1 1
node 6 1 0 2
node 7 1 0 2
node 14 1 0 0
node 16 1 0 0
gene 2 1 6 -6.61354 0 1 -6.61354 1
gene 1 2 6 -0.105409 0 2 -0.105409 1
gene 2 3 6 0.151851 0 3 0.151851 1
gene 2 4 6 2.13442 0 4 2.13442 1
gene 3 5 6 -3.49425 0 5 -3.49425 0
gene 3 1 7 5.31503 0 6 5.31503 1
gene 3 2 7 2.84267 0 7 2.84267 1
gene 2 3 7 -7.22592 0 8 -7.22592 1
gene 1 4 7 -1.09097 0 9 -1.09097 1
gene 2 5 7 -4.65911 0 10 -4.65911 1
gene 1 4 14 2.0587 0 27 2.0587 1
gene 1 14 6 -0.0281657 0 28 -0.0281657 1
gene 3 5 16 -0.580051 0 32 -0.580051 1
gene 3 16 6 -1.64565 0 33 -1.64565 1
gene 3 16 14 -3.56639 0 101 -3.56639 1
genomeend 103

/* Organism #104 Fitness: 47 Error: 0 */
genomestart 104
trait 1 0.1 0 0 0 0 0 0 0 
trait 2 0.2 0 0 0 0 0 0.00829481 0.0140151 
trait 3 0.3 0 0 0 0 0 0 0 
node 1 1 1 3
node 2 2 1 1
node 3 3 1 1
node 4 2 1 1
node 5 2 1 1
node 6 1 0 2
node 7 1 0 2
node 14 1 0 0
node 16 1 0 0
gene 2 1 6 -4.52058 0 1 -4.52058 1
gene 1 2 6 -1.63354 0 2 -1.63354 1
gene 2 3 6 -1.45377 0 3 -1.45377 1
gene 2 4 6 1.83623 0 4 1.83623 1
gene 3 5 6 1.58938 0 5 1.58938 0
gene 3 1 7 4.17366 0 6 4.17366 1
gene 3 2 7 2.94701 0 7 2.94701 1
gene 2 3 7 -7.33216 0 8 -7.33216 1
gene 1 4 7 -1.48229 0 9 -1.48229 1
gene 2 5 7 -2.68966 0 10 -2.68966 1
gene 1 4 14 2.21268 0 27 2.21268 1
gene 1 14 6 2.01933 0 28 2.01933 1
gene 3 5 16 1.5798 0 32 1.5798 1
gene 3 16 6 -0.395896 0 33 -0.395896 1
gene 3 16 14 -1.40935 0 101 -1.40935 1
genomeend 104

/* Organism #105 Fitness: 61 Error: 0 */
genomestart 105
trait 1 0.1 0 0 0 0 0 0 0 
trait 2 0.2 0 0 0 0 0 0.00829481 0.0140151 
trait 3 0.3 0 0 0 0 0 0 0 
node 1 1 1 3
node 2 1 1 1
node 3 3 1 1
node 4 2 1 1
node 5 2 1 1
node 6 1 0 2
node 7 1 0 2
node 14 1 0 0
node 16 1 0 0
gene 2 1 6 -6.51459 0 1 -6.51459 1
gene 1 2 6 -1.57425 0 2 -1.57425 1
gene 2 3 6 -0.506975 0 3 -0.506975 1
gene 2 4 6 1.56014 0 4 1.56014 1
gene 3 5 6 -0.8741 0 5 -0.8741 0
gene 3 1 7 5.79841 0 6 5.79841 1
gene 3 2 7 4.3596 0 7 4.3596 1
gene 2 3 7 -7.09651 0 8 -7.09651 1
gene 1 4 7 0.89298 0 9 0.89298 1
gene 2 5 7 -4.21904 0 10 -4.21904 1
gene 1 4 14 -1.43798 0 27 -1.43798 1
gene 1 14 6 1.13746 0 28 1.13746 1
gene 3 5 16 4.61042 0 32 4.61042 1
gene 3 16 6 0.719808 0 33 0.719808 1
gene 3 16 14 -1.76599 0 101 -1.76599 1
genomeend 105

/* Organism #106 Fitness: 48 Error: 0 */
genomestart 106
trait 1 0.1 0 0 0 0 0 0 0 
trait 2 0.2 0 0 0 0 0 0.00829481 0.875973 
trait 3 0.3 0 0 0 0 0 0 0 
node 1 1 1 3
node 2 2 1 1
node 3 3 1 1
node 4 2 1 1
node 5 2 1 1
node 6 1 0 2
node 7 1 0 2
node 14 1 0 0
node 16 1 0 0
gene 2 1 6 -4.05518 0 1 -4.05518 1
gene 1 2 6 -1.9068 0 2 -1.9068 1
gene 2 3 6 -1.98318 0 3 -1.98318 1
gene 2 4 6 0.154403 0 4 0.154403 1
gene 3 5 6 -0.752613 0 5 -0.752613 0
gene 3 1 7 3.47488 0 6 3.47488 1
gene 3 2 7 3.86566 0 7 3.86566 1
gene 2 3 7 -4.37707 0 8 -4.37707 1
gene 1 4 7 0.713161 0 9 0.713161 1
gene 2 5 7 -3.88569 0 10 -3.88569 1
gene 1 4 14 -1.54327 0 27 -1.54327 1
gene 1 14 6 -1.4507 0 28 -1.4507 1
gene 3 5 16 0.531369 0 32 0.531369 1
gene 3 16 6 0.891768 0 33 0.891768 1
gene 3 16 14 -1.78947 0 101 -1.78947 1
genomeend 106

/* Organism #107 Fitness: 100 Error: 0 */
genomestart 107
trait 1 0.1 0 0 0 0 0 0 0 
trait 2 0.2 0 0 0 0 0 0.00829481 0.0140151 
trait 3 0.3 0 0 0 0 0 0 0 
node 1 1 1 3
node 2 2 1 1
node 3 3 1 1
node 4 2 1 1
node 5 2 1 1
node 6 1 0 2
node 7 1 0 2
node 14 1 0 0
node 16 1 0 0
gene 2 1 6 -5.96139 0 1 -5.96139 1
gene 1 2 6 -1.9068 0 2 -1.9068 1
gene 2 3 6 0.852557 0 3 0.852557 1
gene 2 4 6 1.35105 0 4 1.35105 1
gene 3 5 6 -1.6608 0 5 -1.6608 0
gene 3 1 7 3.05547 0 6 3.05547 1
gene 3 2 7 3.86566 0 7 3.86566 1
gene 2 3 7 -7.23111 0 8 -7.23111 1
gene 1 4 7 -0.534743 0 9 -0.534743 1
gene 2 5 7 -2.33386 0 10 -2.33386 1
gene 1 4 14 0.841181 0 27 0.841181 1
gene 1 14 6 0.191538 0 28 0.191538 1
gene 3 5 16 0.912549 0 32 0.912549 1
gene 3 16 6 -0.648737 0 33 -0.648737 1
gene 3 16 14 -1.40935 0 101 -1.40935 1
genomeend 107

/* Species #12 : (Size 11) (AF 57.2727) (Age 6)  */


/* Organism #108 Fitness: 93 Error: 0 */
genomestart 108
trait 1 0.1 0 0 0 0 0 0 0 
trait 2 0.2 0 0 0 0 0 0.00829481 0.0140151 
trait 3 0.3 0 0 0 0 0 0 0 
node 1 1 1 3
node 2 2 1 1
node 3 3 1 1
node 4 2 1 1
node 5 2 1 1
node 6 1 0 2
node 7 1 0 2
node 14 1 0 0
node 16 1 0 0
node 40 1 0 0
node 46 1 0 0
gene 2 1 6 -0.342426 0 1 -0.342426 1
gene 1 2 6 -1.07727 0 2 -1.07727 1
gene 2 3 6 -2.29384 0 3 -2.29384 0
gene 2 4 6 2.01587 0 4 2.01587 1
gene 3 5 6 2.64573 0 5 2.64573 0
gene 3 1 7 3.03066 0 6 3.03066 1
gene 3 2 7 0.856483 0 7 0.856483 1
gene 2 3 7 -1.37732 0 8 -1.37732 1
gene 1 4 7 -2.36715 0 9 -2.36715 1
gene 2 5 7 -1.69676 0 10 -1.69676 1
gene 1 4 14 3.5555 0 27 3.5555 1
gene 1 14 6 -2.44938 0 28 -2.44938 1
gene 3 5 16 -2.70946 0 32 -2.70946 1
gene 3 16 6 0.899051 0 33 0.899051 1
gene 1 14 16 -0.177965 0 102 -0.177965 1
gene 2 3 40 1 0 117 0 0
gene 2 40 6 -2.29384 0 118 0 1
gene 2 3 46 1 0 138 0 1
gene 2 46 40 1 0 139 0 1
genomeend 108

/* Organism #109 Fitness: 93 Error: 0 */
genomestart 109
trait 1 0.1 0 0 0 0 0 0 0 
trait 2 0.2 0 0 0 0 0 0.00829481 0.0140151 
trait 3 0.3 0 0 0 0 0 0 0 
node 1 1 1 3
node 2 2 1 1
node 3 3 1 1
node 4 2 1 1
node 5 2 1 1
node 6 1 0 2
node 7 1 0 2
node 14 1 0 0
node 16 1 0 0
node 40 1 0 0
node 46 1 0 0
gene 2 1 6 -0.342426 0 1 -0.342426 1
gene 1 2 6 -1.07727 0 2 -1.07727 1
gene 2 3 6 -2.29384 0 3 -2.29384 0
gene 2 4 6 2.01587 0 4 2.01587 1
gene 3 5 6 2.64573 0 5 2.64573 0
gene 3 1 7 3.03066 0 6 3.03066 1
gene 3 2 7 0.856483 0 7 0.856483 1
gene 2 3 7 -1.37732 0 8 -1.37732 1
gene 1 4 7 -2.36715 0 9 -2.36715 1
gene 2 5 7 -1.69676 0 10 -1.69676 1
gene 1 4 14 3.5555 0 27 3.5555 1
gene 1 14 6 -2.44938 0 28 -2.44938 1
gene 3 5 16 -2.70946 0 32 -2.70946 1
gene 3 16 6 0.899051 0 33 0.899051 1
gene 1 14 16 -0.177965 0 102 -0.177965 1
gene 2 3 40 1 0 117 0 0
gene 2 40 6 -2.29384 0 118 0 1
gene 2 3 46 1 0 138 0 1
gene 2 46 40 1 0 139 0 1
genomeend 109

/* Organism #110 Fitness: 9 Error: 0 */
genomestart 110
trait 1 0.1 0 0 0 0 0 0 0 
trait 2 0.2 0 0 0 0 0 0.00829481 0.0140151 
trait 3 0.3 0 0 0 0 0 0 0 
node 1 1 1 3
node 2 2 1 1
node 3 3 1 1
node 4 2 1 1
node 5 2 1 1
node 6 1 0 2
node 7 1 0 2
node 14 1 0 0
node 16 1 0 0
node 40 1 0 0
node 46 1 0 0
gene 2 1 6 0.389452 0 1 0.389452 1
gene 1 2 6 0.523177 0 2 0.523177 1
gene 2 3 6 -0.841806 0 3 -0.841806 0
gene 2 4 6 2.01587 0 4 2.01587 1
gene 3 5 6 4.4619 0 5 4.4619 0
gene 3 1 7 3.36868 0 6 3.36868 1
gene 3 2 7 3.00534 0 7 3.00534 1
gene 2 3 7 -2.66693 0 8 -2.66693 1
gene 1 4 7 2.39666 0 9 2.39666 1
gene 2 5 7 -0.476777 0 10 -0.476777 1
gene 1 4 14 3.5555 0 27 3.5555 1
gene 1 14 6 -3.29168 0 28 -3.29168 1
gene 3 5 16 -4.75286 0 32 -4.75286 1
gene 3 16 6 3.35903 0 33 3.35903 1
gene 1 14 16 0.882139 0 102 0.882139 1
gene 2 3 40 2.47028 0 117 2.47028 0
gene 2 40 6 -3.80412 0 118 -3.80412 1
gene 2 3 46 0.775342 0 138 0.775342 1
gene 2 46 40 0.935909 0 139 0.935909 1
genomeend 110

/* Organism #111 Fitness: 83 Error: 0 */
genomestart 111
trait 1 0.0875 0 0 0.0421955 0 0 0 0 
trait 2 0.2 0 0 0 0 0 0.00829481 0.0140151 
trait 3 0.3 0 0 0 0 0 0 0 
node 1 1 1 3
node 2 2 1 1
node 3 3 1 1
node 4 2 1 1
node 5 2 1 1
node 6 1 0 2
node 7 1 0 2
node 14 1 0 0
node 16 1 0 0
node 40 1 0 0
node 46 1 0 0
node 58 1 0 0
gene 2 1 6 2.05811 0 1 2.05811 1
gene 1 2 6 -0.30317 0 2 -0.30317 0
gene 2 3 6 -1.08498 0 3 -1.08498 0
gene 2 4 6 1.41804 0 4 1.41804 1
gene 3 5 6 4.41142 0 5 4.41142 0
gene 3 1 7 4.74447 0 6 4.74447 1
gene 3 2 7 1.84191 0 7 1.84191 0
gene 2 3 7 -0.862837 0 8 -0.862837 1
gene 1 4 7 -1.62911 0 9 -1.62911 1
gene 2 5 7 -3.37667 0 10 -3.37667 1
gene 1 4 14 3.49531 0 27 3.49531 1
gene 1 14 6 -2.44938 0 28 -2.44938 1
gene 3 5 16 -3.19771 0 32 -3.19771 1
gene 3 16 6 -1.19349 0 33 -1.19349 1
gene 1 14 16 -2.63624 0 102 -2.63624 1
gene 2 3 40 0.626875 0 117 0.626875 0
gene 2 40 6 -2.1077 0 118 -2.1077 1
gene 2 3 46 1.83306 0 138 1.83306 1
gene 2 46 40 1 0 139 1 1
gene 3 2 58 1 0 177 0 1
gene 3 58 7 1.84191 0 178 0 1
genomeend 111

/* Organism #112 Fitness: 74 Error: 0 */
genomestart 112
trait 1 0.08125 0 0 0.0632933 0 0 0 0 
trait 2 0.2 0 0 0 0 0 0.00829481 0.0140151 
trait 3 0.3 0 0 0 0 0 0 0 
node 1 1 1 3
node 2 2 1 1
node 3 3 1 1
node 4 2 1 1
node 5 2 1 1
node 6 1 0 2
node 7 1 0 2
node 14 1 0 0
node 16 1 0 0
node 40 1 0 0
node 46 1 0 0
gene 2 1 6 -0.433948 0 1 -0.433948 1
gene 1 2 6 1.77555 0 2 1.77555 0
gene 2 3 6 2.11507 0 3 2.11507 1
gene 2 4 6 0.748539 0 4 0.748539 1
gene 3 5 6 0.20575 0 5 0.20575 1
gene 3 1 7 6.23898 0 6 6.23898 1
gene 3 2 7 3.41886 0 7 3.41886 1
gene 2 3 7 -1.74254 0 8 -1.74254 1
gene 1 4 7 1.34612 0 9 1.34612 1
gene 2 5 7 0.189984 0 10 0.189984 1
gene 1 4 14 2.25917 0 27 2.25917 1
gene 1 14 6 -4.39968 0 28 -4.39968 1
gene 3 5 16 -2.26528 0 32 -2.26528 1
gene 3 16 6 -4.03489 0 33 -4.03489 1
gene 1 14 16 -2.7522 0 102 -2.7522 1
gene 2 3 40 1.13006 0 117 1.13006 1
gene 2 40 6 -5.10292 0 118 -5.10292 1
gene 2 3 46 3.38028 0 138 3.38028 1
gene 2 46 40 1.26874 0 139 1.26874 1
genomeend 112

/* Organism #113 Fitness: 80 Error: 0 */
genomestart 113
trait 1 0.09375 0 0 0.0210978 0 0 0 0 
trait 2 0.2 0 0 0 0 0 0.00829481 0.0140151 
trait 3 0.3 0 0 0 0 0 0 0 
node 1 1 1 3
node 2 2 1 1
node 3 3 1 1
node 4 2 1 1
node 5 2 1 1
node 6 1 0 2
node 7 1 0 2
node 14 1 0 0
node 16 1 0 0
node 40 1 0 0
node 46 1 0 0
gene 2 1 6 2.05811 0 1 2.05811 1
gene 1 2 6 -0.30317 0 2 -0.30317 0
gene 2 3 6 -1.08498 0 3 -1.08498 0
gene 2 4 6 1.41804 0 4 1.41804 1
gene 3 5 6 2.64573 0 5 2.64573 0
gene 3 1 7 4.74447 0 6 4.74447 1
gene 3 2 7 1.84191 0 7 1.84191 1
gene 2 3 7 -0.862837 0 8 -0.862837 1
gene 1 4 7 -2.36715 0 9 -2.36715 1
gene 2 5 7 -3.37667 0 10 -3.37667 1
gene 1 4 14 3.5555 0 27 3.5555 1
gene 1 14 6 -2.44938 0 28 -2.44938 1
gene 3 5 16 -2.70946 0 32 -2.70946 1
gene 3 16 6 -1.19349 0 33 -1.19349 1
gene 1 14 16 -0.177965 0 102 -0.177965 1
gene 2 3 40 0.626875 0 117 0.626875 0
gene 2 40 6 -2.29384 0 118 0 1
gene 2 3 46 1.83306 0 138 1.83306 1
gene 2 46 40 1 0 139 1 1
genomeend 113

/* Organism #114 Fitness: 74 Error: 0 */
genomestart 114
trait 1 0.075 0 0 0.084391 0 0 0 0 
trait 2 0.2 0 0 0 0.526222 0 0.00829481 0.192613 
trait 3 0.3 0 0 0 0 0 0 0 
node 1 1 1 3
node 2 2 1 1
node 3 3 1 1
node 4 2 1 1
node 5 2 1 1
node 6 1 0 2
node 7 1 0 2
node 14 1 0 0
node 16 1 0 0
node 40 1 0 0
node 46 1 0 0
node 54 1 0 0
gene 2 1 6 -0.0889379 0 1 -0.0889379 1
gene 1 2 6 -2.33384 0 2 -2.33384 0
gene 2 3 6 -0.805988 0 3 -0.805988 0
gene 2 4 6 2.80476 0 4 2.80476 1
gene 3 5 6 4.41975 0 5 4.41975 0
gene 3 1 7 5.34359 0 6 5.34359 1
gene 3 2 7 2.75096 0 7 2.75096 1
gene 2 3 7 1.20621 0 8 1.20621 1
gene 1 4 7 -0.678905 0 9 -0.678905 1
gene 2 5 7 -2.71169 0 10 -2.71169 1
gene 1 4 14 -3.91383 0 27 -3.91383 1
gene 1 14 6 -2.60952 0 28 -2.60952 1
gene 3 5 16 0.577653 0 32 0.577653 1
gene 3 16 6 -1.92027 0 33 -1.92027 1
gene 1 14 16 -1.58118 0 102 -1.58118 1
gene 2 3 40 -3.00917 0 117 -3.00917 0
gene 2 40 6 -4.38359 0 118 -4.38359 1
gene 2 3 46 2.27015 0 138 2.27015 1
gene 2 46 40 1.10808 0 139 1.10808 1
gene 1 2 54 1.27124 0 159 1.27124 1
gene 1 54 6 -1.6741 0 160 -1.6741 1
genomeend 114

/* Organism #115 Fitness: 6 Error: 0 */
genomestart 115
trait 1 0.0875 0 0 0.0421955 0 0 0 0 
trait 2 0.2 0 0 0 0 0 0.00829481 0.0140151 
trait 3 0.3 0 0 0 0 0 0 0 
node 1 1 1 3
node 2 2 1 1
node 3 3 1 1
node 4 2 1 1
node 5 2 1 1
node 6 1 0 2
node 7 1 0 2
node 14 1 0 0
node 16 1 0 0
node 40 1 0 0
node 46 1 0 0
gene 2 1 6 2.74161 0 1 2.74161 1
gene 1 2 6 -0.798526 0 2 -0.798526 0
gene 2 3 6 -3.60163 0 3 -3.60163 0
gene 2 4 6 0.0606703 0 4 0.0606703 1
gene 3 5 6 1.47744 0 5 1.47744 0
gene 3 1 7 3.69466 0 6 3.69466 1
gene 3 2 7 0.224052 0 7 0.224052 1
gene 2 3 7 -1.414 0 8 -1.414 1
gene 1 4 7 1.04335 0 9 1.04335 1
gene 2 5 7 -1.30185 0 10 -1.30185 1
gene 1 4 14 0.470501 0 27 0.470501 1
gene 1 14 6 -2.44938 0 28 -2.44938 1
gene 3 5 16 -3.44927 0 32 -3.44927 1
gene 3 16 6 -0.181133 0 33 -0.181133 1
gene 1 14 16 0.439878 0 102 0.439878 1
gene 2 3 40 2.32814 0 117 2.32814 0
gene 2 40 6 -1.52319 0 118 -1.52319 1
gene 2 3 46 1.25688 0 138 1.25688 1
gene 2 46 40 1.39455 0 139 1.39455 1
genomeend 115

/* Organism #116 Fitness: 54 Error: 0 */
genomestart 116
trait 1 0.0875 0 0 0.0421955 0 0 0 0 
trait 2 0.2 0 0 0 0 0 0.00829481 0.0140151 
trait 3 0.3 0 0 0 0 0 0 0 
node 1 1 1 3
node 2 2 1 1
node 3 3 1 1
node 4 2 1 1
node 5 2 1 1
node 6 1 0 2
node 7 1 0 2
node 14 1 0 0
node 16 1 0 0
node 40 1 0 0
node 46 1 0 0
gene 2 1 6 -0.335581 0 1 -0.335581 1
gene 1 2 6 2.14497 0 2 2.14497 0
gene 2 3 6 -0.493309 0 3 -0.493309 0
gene 2 4 6 -1.54581 0 4 -1.54581 1
gene 3 5 6 4.41142 0 5 4.41142 0
gene 1 1 7 5.02686 0 6 5.02686 1
gene 3 2 7 1.84191 0 7 1.84191 1
gene 2 3 7 -2.3456 0 8 -2.3456 1
gene 1 4 7 -1.5179 0 9 -1.5179 1
gene 2 5 7 -3.37667 0 10 -3.37667 1
gene 1 4 14 3.80511 0 27 3.80511 1
gene 1 14 6 -0.70151 0 28 -0.70151 1
gene 3 5 16 -0.506669 0 32 -0.506669 1
gene 3 16 6 -2.60119 0 33 -2.60119 1
gene 1 14 16 0.412068 0 102 0.412068 1
gene 2 3 40 3.02253 0 117 3.02253 0
gene 2 40 6 -1.81803 0 118 -1.81803 1
gene 2 3 46 1.83306 0 138 1.83306 1
gene 2 46 40 2.89139 0 139 2.89139 1
genomeend 116

/* Organism #117 Fitness: 29 Error: 0 */
genomestart 117
trait 1 1 0 0 0.254545 0.132872 0 0 0 
trait 2 0.2 0 0 0 0 0 0.00829481 0.0140151 
trait 3 0.3 0 0 0 0 0 0 0 
node 1 1 1 3
node 2 2 1 1
node 3 3 1 1
node 4 2 1 1
node 5 2 1 1
node 6 1 0 2
node 7 1 0 2
node 14 1 0 0
node 16 1 0 0
node 40 1 0 0
node 46 1 0 0
gene 2 1 6 3.59367 0 1 3.59367 1
gene 1 2 6 -0.969129 0 2 -0.969129 0
gene 2 3 6 -2.43196 0 3 -2.43196 0
gene 2 4 6 3.23906 0 4 3.23906 1
gene 3 5 6 2.48017 0 5 2.48017 0
gene 3 1 7 5.61307 0 6 5.61307 1
gene 3 2 7 3.05356 0 7 3.05356 1
gene 2 3 7 -0.299483 0 8 -0.299483 1
gene 1 4 7 -1.21016 0 9 -1.21016 1
gene 2 5 7 -1.59523 0 10 -1.59523 1
gene 1 4 14 3.75713 0 27 3.75713 1
gene 1 14 6 -3.02673 0 28 -3.02673 1
gene 3 5 16 -2.47512 0 32 -2.47512 1
gene 3 16 6 -2.34944 0 33 -2.34944 1
gene 1 14 16 -1.66365 0 102 -1.66365 1
gene 2 3 40 2.18592 0 117 2.18592 0
gene 2 40 6 -2.1077 0 118 -2.1077 1
gene 2 3 46 1.83306 0 138 1.83306 1
gene 2 46 40 3.31063 0 139 3.31063 1
genomeend 117

/* Organism #118 Fitness: 35 Error: 0 */
genomestart 118
trait 1 0.0875 0 0 0.0421955 0 0 0 0 
trait 2 0.2 0 0 0 0 0 0.00829481 0.0140151 
trait 3 0.3 0 0 0 0 0 0 0 
node 1 1 1 3
node 2 2 1 1
node 3 3 1 1
node 4 2 1 1
node 5 2 1 1
node 6 1 0 2
node 7 1 0 2
node 14 1 0 0
node 16 1 0 0
node 40 1 0 0
node 46 1 0 0
gene 2 1 6 0.614154 0 1 0.614154 1
gene 1 2 6 -1.07727 0 2 -1.07727 1
gene 2 3 6 -2.17548 0 3 -2.17548 0
gene 2 4 6 1.59005 0 4 1.59005 1
gene 3 5 6 2.51834 0 5 2.51834 1
gene 3 1 7 3.18687 0 6 3.18687 1
gene 3 2 7 0.856483 0 7 0.856483 1
gene 2 3 7 -0.960805 0 8 -0.960805 1
gene 1 4 7 -1.30461 0 9 -1.30461 1
gene 2 5 7 -1.30185 0 10 -1.30185 1
gene 1 4 14 0.978731 0 27 0.978731 1
gene 1 14 6 -2.44938 0 28 -2.44938 1
gene 3 5 16 -2.02116 0 32 -2.02116 1
gene 3 16 6 -0.671819 0 33 -0.671819 1
gene 1 14 16 -0.177965 0 102 -0.177965 1
gene 2 3 40 0.0274889 0 117 -0.472511 0
gene 2 40 6 -2.73858 0 118 -1.59166 1
gene 2 3 46 1.63507 0 138 1.13507 1
gene 2 46 40 0.163789 0 139 -0.336211 1
genomeend 118

/* Species #13 : (Size 12) (AF 77.5833) (Age 4)  */


/* Organism #119 Fitness: 94 Error: 0 */
genomestart 119
trait 1 0.1 0 0.0624664 0.0591844 0 0 0 0 
trait 2 0.2 0 0 0 0 0 0 0 
trait 3 0.65 0.102122 0 0.311795 0.448457 0 0.427155 0 
node 1 1 1 3
node 2 2 1 1
node 3 1 1 1
node 4 1 1 1
node 5 3 1 1
node 6 3 0 2
node 7 3 0 2
node 24 1 0 0
gene 3 1 6 -5.11273 0 1 -5.11273 1
gene 3 2 6 -0.310498 0 2 -0.310498 1
gene 2 3 6 -0.280677 0 3 -0.280677 1
gene 2 4 6 -1.85366 0 4 -1.85366 1
gene 1 5 6 -3.64615 0 5 -3.64615 1
gene 3 1 7 5.45403 0 6 5.45403 1
gene 2 2 7 1.48303 0 7 1.48303 1
gene 1 3 7 -1.61324 0 8 -1.61324 1
gene 2 4 7 1.59724 0 9 1.59724 1
gene 1 5 7 -3.82776 0 10 -3.82776 1
gene 1 3 24 4.76518 0 57 4.76518 1
gene 1 24 7 -0.0675055 0 58 -0.0675055 1
gene 2 24 6 0.83153 0 130 0.83153 0
gene 3 6 7 -0.770549 0 148 -0.770549 1
genomeend 119

/* Organism #120 Fitness: 94 Error: 0 */
genomestart 120
trait 1 0.1 0 0.0624664 0.0591844 0 0 0 0 
trait 2 0.2 0 0 0 0 0 0 0 
trait 3 0.825 0.153183 0 0.467692 0.672686 0 0.640732 0 
node 1 1 1 3
node 2 2 1 1
node 3 1 1 1
node 4 1 1 1
node 5 3 1 1
node 6 3 0 2
node 7 3 0 2
node 24 1 0 0
gene 3 1 6 -5.95138 0 1 -5.95138 1
gene 3 2 6 -0.897083 0 2 -0.897083 1
gene 2 3 6 -0.8057 0 3 -0.8057 1
gene 2 4 6 -1.85366 0 4 -1.85366 1
gene 1 5 6 -3.64615 0 5 -3.64615 1
gene 3 1 7 6.16128 0 6 6.16128 1
gene 2 2 7 1.48303 0 7 1.48303 1
gene 1 3 7 -1.61324 0 8 -1.61324 1
gene 2 4 7 0.741039 0 9 0.741039 1
gene 1 5 7 -4.67657 0 10 -4.67657 1
gene 1 3 24 4.76518 0 57 4.76518 1
gene 1 24 7 0.737415 0 58 0.737415 1
gene 2 24 6 0.708741 0 130 0.708741 0
gene 3 6 7 0.198669 0 148 0.198669 1
gene 1 6 24 0.0823164 0 179 0.0823164 1
genomeend 120

/* Organism #121 Fitness: 76 Error: 0 */
genomestart 121
trait 1 0.1 0 0.0624664 0.0591844 0 0 0 0 
trait 2 0.2 0 0 0 0 0 0 0 
trait 3 1 0.204244 0 0.62359 0.896915 0 0.85431 0 
node 1 1 1 3
node 2 2 1 1
node 3 1 1 1
node 4 1 1 1
node 5 3 1 1
node 6 3 0 2
node 7 3 0 2
node 24 1 0 0
gene 3 1 6 -6.79004 0 1 -6.79004 1
gene 3 2 6 -1.48367 0 2 -1.48367 1
gene 2 3 6 -1.33072 0 3 -1.33072 1
gene 2 4 6 -1.85366 0 4 -1.85366 1
gene 1 5 6 -3.64615 0 5 -3.64615 1
gene 3 1 7 6.86854 0 6 6.86854 1
gene 2 2 7 1.48303 0 7 1.48303 1
gene 1 3 7 -1.61324 0 8 -1.61324 1
gene 2 4 7 -0.115159 0 9 -0.115159 1
gene 1 5 7 -5.52538 0 10 -5.52538 1
gene 1 3 24 4.76518 0 57 4.76518 1
gene 1 24 7 1.54234 0 58 1.54234 1
gene 2 24 6 0.585953 0 130 0.585953 1
gene 3 6 7 1.16789 0 148 1.16789 1
gene 2 1 24 -0.313948 0 180 -0.313948 1
genomeend 121

/* Organism #122 Fitness: 74 Error: 0 */
genomestart 122
trait 1 0.1 0 0.0624664 0.0591844 0 0 0 0 
trait 2 0.2 0 0 0 0 0 0 0 
trait 3 1 0.204244 0 0.62359 0.896915 0 0.85431 0 
node 1 1 1 3
node 2 2 1 1
node 3 1 1 1
node 4 1 1 1
node 5 3 1 1
node 6 3 0 2
node 7 3 0 2
node 24 1 0 0
gene 3 1 6 -8 0 1 -8 1
gene 3 2 6 -2.16822 0 2 -2.16822 1
gene 2 3 6 -1.61989 0 3 -1.61989 1
gene 2 4 6 -0.916695 0 4 -0.916695 1
gene 1 5 6 -2.51407 0 5 -2.51407 1
gene 3 1 7 6.78377 0 6 6.78377 1
gene 2 2 7 2.71052 0 7 2.71052 1
gene 1 3 7 -0.432503 0 8 -0.432503 1
gene 2 4 7 0.361068 0 9 0.361068 1
gene 1 5 7 -4.00617 0 10 -4.00617 1
gene 1 3 24 2.66345 0 57 2.66345 1
gene 1 24 7 2.34223 0 58 2.34223 1
gene 2 24 6 -0.224104 0 130 -0.224104 1
gene 3 6 7 1.16789 0 148 1.16789 1
genomeend 122

/* Organism #123 Fitness: 94 Error: 0 */
genomestart 123
trait 1 0.1 0 0.0624664 0.0591844 0 0 0 0 
trait 2 0.2 0 0 0 0 0 0 0 
trait 3 0.825 0.153183 0 0.467692 0.672686 0 0.640732 0 
node 1 1 1 3
node 2 2 1 1
node 3 1 1 1
node 4 1 1 1
node 5 3 1 1
node 6 3 0 2
node 7 3 0 2
node 24 1 0 0
gene 3 1 6 -5.95138 0 1 -5.95138 1
gene 3 2 6 -0.897083 0 2 -0.897083 1
gene 2 3 6 -0.8057 0 3 -0.8057 1
gene 2 4 6 -1.85366 0 4 -1.85366 1
gene 1 5 6 -3.64615 0 5 -3.64615 1
gene 3 1 7 6.16128 0 6 6.16128 1
gene 2 2 7 1.48303 0 7 1.48303 1
gene 1 3 7 -1.61324 0 8 -1.61324 1
gene 2 4 7 0.741039 0 9 0.741039 1
gene 1 5 7 -4.67657 0 10 -4.67657 1
gene 1 3 24 4.76518 0 57 4.76518 1
