
/* Species #1 : (Size 150) (AF 4668.88) (Age 1)  */


/* Organism #1 Fitness: 4600 Error: 0 */
/* ##------$ WINNER 1 SPECIES #1 $------## */
genomestart 1
trait 1 0.1 0 0 0 0 0 0 0 
trait 2 0.2 0 0 0 0 0 0 0 
trait 3 0.3 0 0 0 0 0 0 0 
node 1 2 1 3
node 2 2 1 1
node 3 3 1 1
node 4 2 1 1
node 5 3 1 1
node 6 2 0 2
node 7 1 0 2
gene 2 1 6 0.294522 0 1 0.294522 1
gene 2 2 6 -0.0384026 0 2 -0.0384026 1
gene 1 3 6 0.156914 0 3 0.156914 1
gene 1 4 6 -0.153271 0 4 -0.153271 1
gene 1 5 6 -0.704302 0 5 -0.704302 1
gene 3 1 7 -0.870677 0 6 -0.870677 1
gene 3 2 7 -0.677788 0 7 -0.677788 1
gene 3 3 7 -0.15668 0 8 -0.15668 1
gene 1 4 7 0.351085 0 9 0.351085 1
gene 3 5 7 0.764465 0 10 0.764465 1
genomeend 1

/* Organism #2 Fitness: 4606 Error: 0 */
/* ##------$ WINNER 2 SPECIES #1 $------## */
genomestart 2
trait 1 0.1 0 0 0 0 0 0 0 
trait 2 0.2 0 0 0 0 0 0 0 
trait 3 0.3 0 0 0 0 0 0 0 
node 1 3 1 3
node 2 3 1 1
node 3 2 1 1
node 4 1 1 1
node 5 1 1 1
node 6 1 0 2
node 7 2 0 2
gene 1 1 6 0.837351 0 1 0.837351 1
gene 3 2 6 0.780495 0 2 0.780495 1
gene 3 3 6 0.457762 0 3 0.457762 1
gene 2 4 6 -0.341248 0 4 -0.341248 1
gene 1 5 6 0.882552 0 5 0.882552 1
gene 1 1 7 0.413527 0 6 0.413527 1
gene 3 2 7 -0.352065 0 7 -0.352065 1
gene 1 3 7 -0.543867 0 8 -0.543867 1
gene 2 4 7 -0.562272 0 9 -0.562272 1
gene 2 5 7 -0.832199 0 10 -0.832199 1
genomeend 2

/* Organism #3 Fitness: 4750 Error: 0 */
/* ##------$ WINNER 3 SPECIES #1 $------## */
genomestart 3
trait 1 0.1 0 0 0 0 0 0 0 
trait 2 0.2 0 0 0 0 0 0 0 
trait 3 0.3 0 0 0 0 0 0 0 
node 1 2 1 3
node 2 1 1 1
node 3 2 1 1
node 4 2 1 1
node 5 2 1 1
node 6 2 0 2
node 7 3 0 2
gene 1 1 6 0.00864509 0 1 0.00864509 1
gene 2 2 6 -0.326719 0 2 -0.326719 1
gene 2 3 6 -0.144753 0 3 -0.144753 1
gene 2 4 6 0.406303 0 4 0.406303 1
gene 1 5 6 0.481221 0 5 0.481221 1
gene 2 1 7 0.984619 0 6 0.984619 1
gene 3 2 7 -0.22808 0 7 -0.22808 1
gene 2 3 7 -0.0982565 0 8 -0.0982565 1
gene 1 4 7 -0.864064 0 9 -0.864064 1
gene 1 5 7 -0.656925 0 10 -0.656925 1
genomeend 3

/* Organism #4 Fitness: 4776 Error: 0 */
/* ##------$ WINNER 4 SPECIES #1 $------## */
genomestart 4
trait 1 0.1 0 0 0 0 0 0 0 
trait 2 0.2 0 0 0 0 0 0 0 
trait 3 0.3 0 0 0 0 0 0 0 
node 1 3 1 3
node 2 3 1 1
node 3 2 1 1
node 4 2 1 1
node 5 3 1 1
node 6 1 0 2
node 7 1 0 2
gene 3 1 6 -0.499069 0 1 -0.499069 1
gene 3 2 6 -0.172788 0 2 -0.172788 1
gene 3 3 6 0.636195 0 3 0.636195 1
gene 3 4 6 0.480024 0 4 0.480024 1
gene 3 5 6 -0.882892 0 5 -0.882892 1
gene 2 1 7 0.364091 0 6 0.364091 1
gene 3 2 7 -0.378477 0 7 -0.378477 1
gene 1 3 7 0.706836 0 8 0.706836 1
gene 1 4 7 0.343481 0 9 0.343481 1
gene 2 5 7 -0.0512361 0 10 -0.0512361 1
genomeend 4

/* Organism #5 Fitness: 4600 Error: 0 */
/* ##------$ WINNER 5 SPECIES #1 $------## */
genomestart 5
trait 1 0.1 0 0 0 0 0 0 0 
trait 2 0.2 0 0 0 0 0 0 0 
trait 3 0.3 0 0 0 0 0 0 0 
node 1 1 1 3
node 2 3 1 1
node 3 2 1 1
node 4 2 1 1
node 5 1 1 1
node 6 1 0 2
node 7 1 0 2
gene 3 1 6 0.697938 0 1 0.697938 1
gene 1 2 6 0.503967 0 2 0.503967 1
gene 2 3 6 -0.639977 0 3 -0.639977 1
gene 2 4 6 0.949442 0 4 0.949442 1
gene 1 5 6 0.604353 0 5 0.604353 1
gene 3 1 7 -0.570723 0 6 -0.570723 1
gene 2 2 7 -0.253411 0 7 -0.253411 1
gene 3 3 7 0.816366 0 8 0.816366 1
gene 1 4 7 0.593838 0 9 0.593838 1
gene 3 5 7 -0.854475 0 10 -0.854475 1
genomeend 5

/* Organism #6 Fitness: 4704 Error: 0 */
/* ##------$ WINNER 6 SPECIES #1 $------## */
genomestart 6
trait 1 0.1 0 0 0 0 0 0 0 
trait 2 0.2 0 0 0 0 0 0 0 
trait 3 0.3 0 0 0 0 0 0 0 
node 1 1 1 3
node 2 3 1 1
node 3 2 1 1
node 4 1 1 1
node 5 1 1 1
node 6 2 0 2
node 7 3 0 2
gene 3 1 6 -0.745032 0 1 -0.745032 1
gene 2 2 6 -0.714945 0 2 -0.714945 1
gene 2 3 6 -0.86808 0 3 -0.86808 1
gene 1 4 6 -0.517892 0 4 -0.517892 1
gene 3 5 6 -0.851833 0 5 -0.851833 1
gene 2 1 7 -0.416153 0 6 -0.416153 1
gene 1 2 7 -0.827889 0 7 -0.827889 1
gene 3 3 7 0.134552 0 8 0.134552 1
gene 2 4 7 0.406653 0 9 0.406653 1
gene 1 5 7 -0.0956928 0 10 -0.0956928 1
genomeend 6

/* Organism #7 Fitness: 4601 Error: 0 */
/* ##------$ WINNER 7 SPECIES #1 $------## */
genomestart 7
trait 1 0.1 0 0 0 0 0 0 0 
trait 2 0.2 0 0 0 0 0 0 0 
trait 3 0.3 0 0 0 0 0 0 0 
node 1 3 1 3
node 2 1 1 1
node 3 3 1 1
node 4 2 1 1
node 5 3 1 1
node 6 2 0 2
node 7 1 0 2
gene 3 1 6 0.989898 0 1 0.989898 1
gene 1 2 6 -0.177101 0 2 -0.177101 1
gene 3 3 6 0.899203 0 3 0.899203 1
gene 2 4 6 -0.0252708 0 4 -0.0252708 1
gene 2 5 6 0.738036 0 5 0.738036 1
gene 2 1 7 -0.865361 0 6 -0.865361 1
gene 1 2 7 0.359022 0 7 0.359022 1
gene 1 3 7 0.0464233 0 8 0.0464233 1
gene 3 4 7 -0.864007 0 9 -0.864007 1
gene 2 5 7 -0.324268 0 10 -0.324268 1
genomeend 7

/* Organism #8 Fitness: 4760 Error: 0 */
/* ##------$ WINNER 8 SPECIES #1 $------## */
genomestart 8
trait 1 0.1 0 0 0 0 0 0 0 
trait 2 0.2 0 0 0 0 0 0 0 
trait 3 0.3 0 0 0 0 0 0 0 
node 1 3 1 3
node 2 2 1 1
node 3 3 1 1
node 4 3 1 1
node 5 1 1 1
node 6 2 0 2
node 7 2 0 2
gene 3 1 6 -0.225724 0 1 -0.225724 1
gene 3 2 6 -0.363363 0 2 -0.363363 1
gene 2 3 6 -0.198197 0 3 -0.198197 1
gene 3 4 6 0.341511 0 4 0.341511 1
gene 2 5 6 -0.317218 0 5 -0.317218 1
gene 2 1 7 -0.118812 0 6 -0.118812 1
gene 1 2 7 -0.474808 0 7 -0.474808 1
gene 2 3 7 -0.704201 0 8 -0.704201 1
gene 3 4 7 -0.400256 0 9 -0.400256 1
gene 2 5 7 0.612395 0 10 0.612395 1
genomeend 8

/* Organism #9 Fitness: 4600 Error: 0 */
/* ##------$ WINNER 9 SPECIES #1 $------## */
genomestart 9
trait 1 0.1 0 0 0 0 0 0 0 
trait 2 0.2 0 0 0 0 0 0 0 
trait 3 0.3 0 0 0 0 0 0 0 
node 1 3 1 3
node 2 2 1 1
node 3 3 1 1
node 4 2 1 1
node 5 2 1 1
node 6 1 0 2
node 7 3 0 2
gene 3 1 6 0.598807 0 1 0.598807 1
gene 3 2 6 0.595895 0 2 0.595895 1
gene 2 3 6 -0.177755 0 3 -0.177755 1
gene 2 4 6 -0.771743 0 4 -0.771743 1
gene 2 5 6 0.155136 0 5 0.155136 1
gene 3 1 7 -0.403068 0 6 -0.403068 1
gene 2 2 7 0.810106 0 7 0.810106 1
gene 1 3 7 0.509854 0 8 0.509854 1
gene 1 4 7 -0.0805637 0 9 -0.0805637 1
gene 1 5 7 -0.234907 0 10 -0.234907 1
genomeend 9

/* Organism #10 Fitness: 4776 Error: 0 */
/* ##------$ WINNER 10 SPECIES #1 $------## */
genomestart 10
trait 1 0.1 0 0 0 0 0 0 0 
trait 2 0.2 0 0 0 0 0 0 0 
trait 3 0.3 0 0 0 0 0 0 0 
node 1 3 1 3
node 2 1 1 1
node 3 1 1 1
node 4 1 1 1
node 5 3 1 1
node 6 2 0 2
node 7 3 0 2
gene 1 1 6 -0.24028 0 1 -0.24028 1
gene 2 2 6 -0.19001 0 2 -0.19001 1
gene 3 3 6 -0.289329 0 3 -0.289329 1
gene 2 4 6 -0.59963 0 4 -0.59963 1
gene 3 5 6 0.54333 0 5 0.54333 1
gene 1 1 7 0.789647 0 6 0.789647 1
gene 2 2 7 -0.0850643 0 7 -0.0850643 1
gene 3 3 7 -0.191667 0 8 -0.191667 1
gene 3 4 7 0.00554298 0 9 0.00554298 1
gene 1 5 7 0.2735 0 10 0.2735 1
genomeend 10

/* Organism #11 Fitness: 4616 Error: 0 */
/* ##------$ WINNER 11 SPECIES #1 $------## */
genomestart 11
trait 1 0.1 0 0 0 0 0 0 0 
trait 2 0.2 0 0 0 0 0 0 0 
trait 3 0.3 0 0 0 0 0 0 0 
node 1 2 1 3
node 2 1 1 1
node 3 2 1 1
node 4 3 1 1
node 5 1 1 1
node 6 1 0 2
node 7 2 0 2
gene 2 1 6 0.763584 0 1 0.763584 1
gene 2 2 6 0.875787 0 2 0.875787 1
gene 3 3 6 -0.519131 0 3 -0.519131 1
gene 2 4 6 -0.59529 0 4 -0.59529 1
gene 2 5 6 -0.388585 0 5 -0.388585 1
gene 1 1 7 0.828682 0 6 0.828682 1
gene 2 2 7 0.75048 0 7 0.75048 1
gene 3 3 7 -0.668433 0 8 -0.668433 1
gene 1 4 7 0.937461 0 9 0.937461 1
gene 2 5 7 0.792081 0 10 0.792081 1
genomeend 11

/* Organism #12 Fitness: 4699 Error: 0 */
/* ##------$ WINNER 12 SPECIES #1 $------## */
genomestart 12
trait 1 0.1 0 0 0 0 0 0 0 
trait 2 0.2 0 0 0 0 0 0 0 
trait 3 0.3 0 0 0 0 0 0 0 
node 1 2 1 3
node 2 3 1 1
node 3 3 1 1
node 4 2 1 1
node 5 1 1 1
node 6 3 0 2
node 7 1 0 2
gene 3 1 6 -0.279888 0 1 -0.279888 1
gene 1 2 6 -0.577674 0 2 -0.577674 1
gene 1 3 6 0.431369 0 3 0.431369 1
gene 3 4 6 -0.871831 0 4 -0.871831 1
gene 2 5 6 0.0181301 0 5 0.0181301 1
gene 3 1 7 -0.44169 0 6 -0.44169 1
gene 2 2 7 -0.513294 0 7 -0.513294 1
gene 1 3 7 -0.232372 0 8 -0.232372 1
gene 1 4 7 0.52998 0 9 0.52998 1
gene 3 5 7 -0.112204 0 10 -0.112204 1
genomeend 12

/* Organism #13 Fitness: 4708 Error: 0 */
/* ##------$ WINNER 13 SPECIES #1 $------## */
genomestart 13
trait 1 0.1 0 0 0 0 0 0 0 
trait 2 0.2 0 0 0 0 0 0 0 
trait 3 0.3 0 0 0 0 0 0 0 
node 1 3 1 3
node 2 1 1 1
node 3 2 1 1
node 4 3 1 1
node 5 1 1 1
node 6 3 0 2
node 7 2 0 2
gene 3 1 6 0.265539 0 1 0.265539 1
gene 3 2 6 0.168273 0 2 0.168273 1
gene 1 3 6 -0.770313 0 3 -0.770313 1
gene 2 4 6 -0.435915 0 4 -0.435915 1
gene 2 5 6 -0.0461402 0 5 -0.0461402 1
gene 3 1 7 0.674915 0 6 0.674915 1
gene 1 2 7 -0.653369 0 7 -0.653369 1
gene 3 3 7 0.468789 0 8 0.468789 1
gene 3 4 7 0.617994 0 9 0.617994 1
gene 2 5 7 0.745064 0 10 0.745064 1
genomeend 13

/* Organism #14 Fitness: 4700 Error: 0 */
/* ##------$ WINNER 14 SPECIES #1 $------## */
genomestart 14
trait 1 0.1 0 0 0 0 0 0 0 
trait 2 0.2 0 0 0 0 0 0 0 
trait 3 0.3 0 0 0 0 0 0 0 
node 1 3 1 3
node 2 3 1 1
node 3 2 1 1
node 4 3 1 1
node 5 3 1 1
node 6 3 0 2
node 7 1 0 2
gene 2 1 6 -0.351842 0 1 -0.351842 1
gene 2 2 6 -0.586568 0 2 -0.586568 1
gene 3 3 6 -0.719888 0 3 -0.719888 1
gene 1 4 6 0.446226 0 4 0.446226 1
gene 1 5 6 -0.257231 0 5 -0.257231 1
gene 1 1 7 -0.464926 0 6 -0.464926 1
gene 3 2 7 -0.416001 0 7 -0.416001 1
gene 3 3 7 -0.190284 0 8 -0.190284 1
gene 3 4 7 0.164926 0 9 0.164926 1
gene 3 5 7 -0.417252 0 10 -0.417252 1
genomeend 14

/* Organism #15 Fitness: 4619 Error: 0 */
/* ##------$ WINNER 15 SPECIES #1 $------## */
genomestart 15
trait 1 0.1 0 0 0 0 0 0 0 
trait 2 0.2 0 0 0 0 0 0 0 
trait 3 0.3 0 0 0 0 0 0 0 
node 1 1 1 3
node 2 1 1 1
node 3 3 1 1
node 4 1 1 1
node 5 3 1 1
node 6 3 0 2
node 7 1 0 2
gene 2 1 6 0.447857 0 1 0.447857 1
gene 1 2 6 -0.77257 0 2 -0.77257 1
gene 1 3 6 0.140064 0 3 0.140064 1
gene 3 4 6 0.946274 0 4 0.946274 1
gene 2 5 6 0.0415121 0 5 0.0415121 1
gene 3 1 7 0.413352 0 6 0.413352 1
gene 2 2 7 0.146752 0 7 0.146752 1
gene 2 3 7 -0.404216 0 8 -0.404216 1
gene 3 4 7 0.180456 0 9 0.180456 1
gene 2 5 7 0.552602 0 10 0.552602 1
genomeend 15

/* Organism #16 Fitness: 4707 Error: 0 */
/* ##------$ WINNER 16 SPECIES #1 $------## */
genomestart 16
trait 1 0.1 0 0 0 0 0 0 0 
trait 2 0.2 0 0 0 0 0 0 0 
trait 3 0.3 0 0 0 0 0 0 0 
node 1 2 1 3
node 2 1 1 1
node 3 3 1 1
node 4 1 1 1
node 5 2 1 1
node 6 2 0 2
node 7 1 0 2
gene 2 1 6 -0.208692 0 1 -0.208692 1
gene 3 2 6 0.988445 0 2 0.988445 1
gene 3 3 6 -0.602316 0 3 -0.602316 1
gene 2 4 6 -0.377965 0 4 -0.377965 1
gene 2 5 6 0.137127 0 5 0.137127 1
gene 3 1 7 -0.376502 0 6 -0.376502 1
gene 3 2 7 -0.629545 0 7 -0.629545 1
gene 1 3 7 0.299735 0 8 0.299735 1
gene 3 4 7 0.0396357 0 9 0.0396357 1
gene 3 5 7 -0.65187 0 10 -0.65187 1
genomeend 16

/* Organism #17 Fitness: 4605 Error: 0 */
/* ##------$ WINNER 17 SPECIES #1 $------## */
genomestart 17
trait 1 0.1 0 0 0 0 0 0 0 
trait 2 0.2 0 0 0 0 0 0 0 
trait 3 0.3 0 0 0 0 0 0 0 
node 1 1 1 3
node 2 1 1 1
node 3 3 1 1
node 4 1 1 1
node 5 2 1 1
node 6 2 0 2
node 7 3 0 2
gene 2 1 6 0.350979 0 1 0.350979 1
gene 3 2 6 0.684651 0 2 0.684651 1
gene 1 3 6 -0.617111 0 3 -0.617111 1
gene 3 4 6 0.0559864 0 4 0.0559864 1
gene 1 5 6 0.326977 0 5 0.326977 1
gene 1 1 7 0.0763077 0 6 0.0763077 1
gene 2 2 7 0.944095 0 7 0.944095 1
gene 2 3 7 -0.472093 0 8 -0.472093 1
gene 2 4 7 0.0352398 0 9 0.0352398 1
gene 3 5 7 0.332668 0 10 0.332668 1
genomeend 17

/* Organism #18 Fitness: 4605 Error: 0 */
/* ##------$ WINNER 18 SPECIES #1 $------## */
genomestart 18
trait 1 0.1 0 0 0 0 0 0 0 
trait 2 0.2 0 0 0 0 0 0 0 
trait 3 0.3 0 0 0 0 0 0 0 
node 1 3 1 3
node 2 1 1 1
node 3 2 1 1
node 4 2 1 1
node 5 1 1 1
node 6 1 0 2
node 7 1 0 2
gene 2 1 6 0.0848908 0 1 0.0848908 1
gene 3 2 6 0.51185 0 2 0.51185 1
gene 1 3 6 0.704533 0 3 0.704533 1
gene 1 4 6 -0.993848 0 4 -0.993848 1
gene 2 5 6 -0.66029 0 5 -0.66029 1
gene 2 1 7 -0.383764 0 6 -0.383764 1
gene 3 2 7 -0.0552334 0 7 -0.0552334 1
gene 1 3 7 0.139825 0 8 0.139825 1
gene 3 4 7 -0.18279 0 9 -0.18279 1
gene 3 5 7 0.612629 0 10 0.612629 1
genomeend 18

/* Organism #19 Fitness: 4607 Error: 0 */
/* ##------$ WINNER 19 SPECIES #1 $------## */
genomestart 19
trait 1 0.1 0 0 0 0 0 0 0 
trait 2 0.2 0 0 0 0 0 0 0 
trait 3 0.3 0 0 0 0 0 0 0 
node 1 1 1 3
node 2 3 1 1
node 3 3 1 1
node 4 3 1 1
node 5 2 1 1
node 6 1 0 2
node 7 1 0 2
gene 2 1 6 -0.0167684 0 1 -0.0167684 1
gene 1 2 6 0.178838 0 2 0.178838 1
gene 3 3 6 0.0319418 0 3 0.0319418 1
gene 2 4 6 -0.390368 0 4 -0.390368 1
gene 3 5 6 -0.120615 0 5 -0.120615 1
gene 2 1 7 -0.893194 0 6 -0.893194 1
gene 1 2 7 -0.373882 0 7 -0.373882 1
gene 1 3 7 0.0302678 0 8 0.0302678 1
gene 1 4 7 -0.0911675 0 9 -0.0911675 1
gene 3 5 7 0.422961 0 10 0.422961 1
genomeend 19

/* Organism #20 Fitness: 4600 Error: 0 */
/* ##------$ WINNER 20 SPECIES #1 $------## */
genomestart 20
trait 1 0.1 0 0 0 0 0 0 0 
trait 2 0.2 0 0 0 0 0 0 0 
trait 3 0.3 0 0 0 0 0 0 0 
node 1 2 1 3
node 2 1 1 1
node 3 1 1 1
node 4 2 1 1
node 5 3 1 1
node 6 1 0 2
node 7 1 0 2
gene 2 1 6 0.547791 0 1 0.547791 1
gene 2 2 6 0.617288 0 2 0.617288 1
gene 1 3 6 0.668324 0 3 0.668324 1
gene 2 4 6 -0.067414 0 4 -0.067414 1
gene 1 5 6 0.724496 0 5 0.724496 1
gene 3 1 7 -0.608031 0 6 -0.608031 1
gene 1 2 7 0.146025 0 7 0.146025 1
gene 1 3 7 0.509809 0 8 0.509809 1
gene 3 4 7 -0.234604 0 9 -0.234604 1
gene 3 5 7 -0.979781 0 10 -0.979781 1
genomeend 20

/* Organism #21 Fitness: 4616 Error: 0 */
/* ##------$ WINNER 21 SPECIES #1 $------## */
genomestart 21
trait 1 0.1 0 0 0 0 0 0 0 
trait 2 0.2 0 0 0 0 0 0 0 
trait 3 0.3 0 0 0 0 0 0 0 
node 1 2 1 3
node 2 3 1 1
node 3 3 1 1
node 4 2 1 1
node 5 3 1 1
node 6 3 0 2
node 7 2 0 2
gene 1 1 6 0.816626 0 1 0.816626 1
gene 2 2 6 0.415078 0 2 0.415078 1
gene 1 3 6 -0.32055 0 3 -0.32055 1
gene 1 4 6 -0.233178 0 4 -0.233178 1
gene 1 5 6 0.311399 0 5 0.311399 1
gene 2 1 7 0.901024 0 6 0.901024 1
gene 3 2 7 0.164231 0 7 0.164231 1
gene 1 3 7 -0.118927 0 8 -0.118927 1
gene 3 4 7 0.0423455 0 9 0.0423455 1
gene 3 5 7 0.394679 0 10 0.394679 1
genomeend 21

/* Organism #22 Fitness: 4601 Error: 0 */
/* ##------$ WINNER 22 SPECIES #1 $------## */
genomestart 22
trait 1 0.1 0 0 0 0 0 0 0 
trait 2 0.2 0 0 0 0 0 0 0 
trait 3 0.3 0 0 0 0 0 0 0 
node 1 3 1 3
node 2 1 1 1
node 3 2 1 1
node 4 1 1 1
node 5 2 1 1
node 6 2 0 2
node 7 2 0 2
gene 2 1 6 0.467354 0 1 0.467354 1
gene 2 2 6 0.935785 0 2 0.935785 1
gene 2 3 6 -0.634395 0 3 -0.634395 1
gene 2 4 6 -0.84021 0 4 -0.84021 1
gene 3 5 6 -0.802857 0 5 -0.802857 1
gene 1 1 7 0.00183393 0 6 0.00183393 1
gene 1 2 7 -0.153403 0 7 -0.153403 1
gene 1 3 7 0.283965 0 8 0.283965 1
gene 3 4 7 -0.84837 0 9 -0.84837 1
gene 1 5 7 -0.804857 0 10 -0.804857 1
genomeend 22

/* Organism #23 Fitness: 4600 Error: 0 */
/* ##------$ WINNER 23 SPECIES #1 $------## */
genomestart 23
trait 1 0.1 0 0 0 0 0 0 0 
trait 2 0.2 0 0 0 0 0 0 0 
trait 3 0.3 0 0 0 0 0 0 0 
node 1 3 1 3
node 2 1 1 1
node 3 3 1 1
node 4 2 1 1
node 5 3 1 1
node 6 1 0 2
node 7 2 0 2
gene 1 1 6 0.503219 0 1 0.503219 1
gene 1 2 6 0.257174 0 2 0.257174 1
gene 1 3 6 -0.160421 0 3 -0.160421 1
gene 1 4 6 0.630638 0 4 0.630638 1
gene 2 5 6 -0.912439 0 5 -0.912439 1
gene 3 1 7 0.0124176 0 6 0.0124176 1
gene 3 2 7 -0.622509 0 7 -0.622509 1
gene 2 3 7 0.0875859 0 8 0.0875859 1
gene 1 4 7 -0.63467 0 9 -0.63467 1
gene 3 5 7 0.864272 0 10 0.864272 1
genomeend 23

/* Organism #24 Fitness: 4600 Error: 0 */
/* ##------$ WINNER 24 SPECIES #1 $------## */
genomestart 24
trait 1 0.1 0 0 0 0 0 0 0 
trait 2 0.2 0 0 0 0 0 0 0 
trait 3 0.3 0 0 0 0 0 0 0 
node 1 2 1 3
node 2 2 1 1
node 3 3 1 1
node 4 3 1 1
node 5 3 1 1
node 6 1 0 2
node 7 2 0 2
gene 1 1 6 0.656248 0 1 0.656248 1
gene 2 2 6 -0.834255 0 2 -0.834255 1
gene 2 3 6 -0.222608 0 3 -0.222608 1
gene 1 4 6 -0.673985 0 4 -0.673985 1
gene 1 5 6 -0.765335 0 5 -0.765335 1
gene 2 1 7 -0.639135 0 6 -0.639135 1
gene 3 2 7 -0.714777 0 7 -0.714777 1
gene 1 3 7 -0.907639 0 8 -0.907639 1
gene 3 4 7 -0.325941 0 9 -0.325941 1
gene 3 5 7 0.325481 0 10 0.325481 1
genomeend 24

/* Organism #25 Fitness: 4777 Error: 0 */
/* ##------$ WINNER 25 SPECIES #1 $------## */
genomestart 25
trait 1 0.1 0 0 0 0 0 0 0 
trait 2 0.2 0 0 0 0 0 0 0 
trait 3 0.3 0 0 0 0 0 0 0 
node 1 1 1 3
node 2 1 1 1
node 3 2 1 1
node 4 3 1 1
node 5 2 1 1
node 6 2 0 2
node 7 3 0 2
gene 1 1 6 -0.505229 0 1 -0.505229 1
gene 3 2 6 0.641679 0 2 0.641679 1
gene 3 3 6 -0.442429 0 3 -0.442429 1
gene 1 4 6 0.475729 0 4 0.475729 1
gene 3 5 6 0.23175 0 5 0.23175 1
gene 2 1 7 0.501177 0 6 0.501177 1
gene 2 2 7 0.708599 0 7 0.708599 1
gene 2 3 7 0.833188 0 8 0.833188 1
gene 2 4 7 -0.163021 0 9 -0.163021 1
gene 3 5 7 -0.471228 0 10 -0.471228 1
genomeend 25

/* Organism #26 Fitness: 4600 Error: 0 */
/* ##------$ WINNER 26 SPECIES #1 $------## */
genomestart 26
trait 1 0.1 0 0 0 0 0 0 0 
trait 2 0.2 0 0 0 0 0 0 0 
trait 3 0.3 0 0 0 0 0 0 0 
node 1 2 1 3
node 2 1 1 1
node 3 2 1 1
node 4 2 1 1
node 5 3 1 1
node 6 3 0 2
node 7 3 0 2
gene 3 1 6 0.788512 0 1 0.788512 1
gene 2 2 6 -0.0550964 0 2 -0.0550964 1
gene 2 3 6 0.968693 0 3 0.968693 1
gene 2 4 6 -0.190541 0 4 -0.190541 1
gene 1 5 6 0.778642 0 5 0.778642 1
gene 2 1 7 -0.909426 0 6 -0.909426 1
gene 2 2 7 -0.338941 0 7 -0.338941 1
gene 2 3 7 -0.431092 0 8 -0.431092 1
gene 1 4 7 -0.884333 0 9 -0.884333 1
gene 3 5 7 0.221036 0 10 0.221036 1
genomeend 26

/* Organism #27 Fitness: 4751 Error: 0 */
/* ##------$ WINNER 27 SPECIES #1 $------## */
genomestart 27
trait 1 0.1 0 0 0 0 0 0 0 
trait 2 0.2 0 0 0 0 0 0 0 
trait 3 0.3 0 0 0 0 0 0 0 
node 1 3 1 3
node 2 2 1 1
node 3 3 1 1
node 4 3 1 1
node 5 3 1 1
node 6 2 0 2
node 7 1 0 2
gene 3 1 6 0.128615 0 1 0.128615 1
gene 3 2 6 -0.683168 0 2 -0.683168 1
gene 3 3 6 -0.594203 0 3 -0.594203 1
gene 3 4 6 -0.0578973 0 4 -0.0578973 1
gene 3 5 6 -0.0199566 0 5 -0.0199566 1
gene 2 1 7 0.291099 0 6 0.291099 1
gene 1 2 7 0.339502 0 7 0.339502 1
gene 1 3 7 0.530404 0 8 0.530404 1
gene 3 4 7 -0.424278 0 9 -0.424278 1
gene 2 5 7 0.965969 0 10 0.965969 1
genomeend 27

/* Organism #28 Fitness: 4776 Error: 0 */
/* ##------$ WINNER 28 SPECIES #1 $------## */
genomestart 28
trait 1 0.1 0 0 0 0 0 0 0 
trait 2 0.2 0 0 0 0 0 0 0 
trait 3 0.3 0 0 0 0 0 0 0 
node 1 1 1 3
node 2 3 1 1
node 3 1 1 1
node 4 2 1 1
node 5 3 1 1
node 6 1 0 2
node 7 1 0 2
gene 1 1 6 -0.911469 0 1 -0.911469 1
gene 3 2 6 0.798871 0 2 0.798871 1
gene 2 3 6 0.224084 0 3 0.224084 1
gene 2 4 6 -0.122191 0 4 -0.122191 1
gene 2 5 6 -0.981021 0 5 -0.981021 1
gene 2 1 7 0.333989 0 6 0.333989 1
gene 2 2 7 -0.156927 0 7 -0.156927 1
gene 1 3 7 -0.333171 0 8 -0.333171 1
gene 2 4 7 -0.190971 0 9 -0.190971 1
gene 2 5 7 -0.393585 0 10 -0.393585 1
genomeend 28

/* Organism #29 Fitness: 4610 Error: 0 */
/* ##------$ WINNER 29 SPECIES #1 $------## */
genomestart 29
trait 1 0.1 0 0 0 0 0 0 0 
trait 2 0.2 0 0 0 0 0 0 0 
trait 3 0.3 0 0 0 0 0 0 0 
node 1 1 1 3
node 2 3 1 1
node 3 2 1 1
node 4 1 1 1
node 5 2 1 1
node 6 1 0 2
node 7 3 0 2
gene 3 1 6 0.578708 0 1 0.578708 1
gene 3 2 6 -0.282431 0 2 -0.282431 1
gene 2 3 6 0.0163119 0 3 0.0163119 1
gene 1 4 6 -0.523522 0 4 -0.523522 1
gene 1 5 6 0.586129 0 5 0.586129 1
gene 2 1 7 0.406337 0 6 0.406337 1
gene 1 2 7 0.136493 0 7 0.136493 1
gene 2 3 7 0.569664 0 8 0.569664 1
gene 3 4 7 -0.251817 0 9 -0.251817 1
gene 3 5 7 0.101808 0 10 0.101808 1
genomeend 29

/* Organism #30 Fitness: 4653 Error: 0 */
/* ##------$ WINNER 30 SPECIES #1 $------## */
genomestart 30
trait 1 0.1 0 0 0 0 0 0 0 
trait 2 0.2 0 0 0 0 0 0 0 
trait 3 0.3 0 0 0 0 0 0 0 
node 1 2 1 3
node 2 2 1 1
node 3 3 1 1
node 4 1 1 1
node 5 3 1 1
node 6 3 0 2
node 7 3 0 2
gene 1 1 6 -0.1224 0 1 -0.1224 1
gene 1 2 6 -0.425357 0 2 -0.425357 1
gene 3 3 6 -0.770039 0 3 -0.770039 1
gene 2 4 6 0.144404 0 4 0.144404 1
gene 1 5 6 0.943704 0 5 0.943704 1
gene 2 1 7 -0.322092 0 6 -0.322092 1
gene 2 2 7 0.484132 0 7 0.484132 1
gene 1 3 7 0.956861 0 8 0.956861 1
gene 2 4 7 0.756753 0 9 0.756753 1
gene 2 5 7 0.484281 0 10 0.484281 1
genomeend 30

/* Organism #31 Fitness: 4600 Error: 0 */
/* ##------$ WINNER 31 SPECIES #1 $------## */
genomestart 31
trait 1 0.1 0 0 0 0 0 0 0 
trait 2 0.2 0 0 0 0 0 0 0 
trait 3 0.3 0 0 0 0 0 0 0 
node 1 2 1 3
node 2 3 1 1
node 3 2 1 1
node 4 1 1 1
node 5 2 1 1
node 6 2 0 2
node 7 3 0 2
gene 1 1 6 0.424241 0 1 0.424241 1
gene 3 2 6 -0.641085 0 2 -0.641085 1
gene 1 3 6 0.300975 0 3 0.300975 1
gene 1 4 6 -0.388291 0 4 -0.388291 1
gene 1 5 6 0.703833 0 5 0.703833 1
gene 3 1 7 -0.376639 0 6 -0.376639 1
gene 3 2 7 0.858917 0 7 0.858917 1
gene 3 3 7 0.719501 0 8 0.719501 1
gene 2 4 7 0.27417 0 9 0.27417 1
gene 2 5 7 -0.32207 0 10 -0.32207 1
genomeend 31

/* Organism #32 Fitness: 4598 Error: 0 */
/* ##------$ WINNER 32 SPECIES #1 $------## */
genomestart 32
trait 1 0.1 0 0 0 0 0 0 0 
trait 2 0.2 0 0 0 0 0 0 0 
trait 3 0.3 0 0 0 0 0 0 0 
node 1 1 1 3
node 2 1 1 1
node 3 2 1 1
node 4 2 1 1
node 5 1 1 1
node 6 2 0 2
node 7 2 0 2
gene 1 1 6 0.86727 0 1 0.86727 1
gene 3 2 6 -0.462612 0 2 -0.462612 1
gene 3 3 6 -0.899629 0 3 -0.899629 1
gene 1 4 6 -0.415236 0 4 -0.415236 1
gene 3 5 6 -0.623952 0 5 -0.623952 1
gene 3 1 7 0.0308922 0 6 0.0308922 1
gene 2 2 7 0.160463 0 7 0.160463 1
gene 2 3 7 0.911468 0 8 0.911468 1
gene 1 4 7 0.776435 0 9 0.776435 1
gene 1 5 7 0.464862 0 10 0.464862 1
genomeend 32

/* Organism #33 Fitness: 4626 Error: 0 */
/* ##------$ WINNER 33 SPECIES #1 $------## */
genomestart 33
trait 1 0.1 0 0 0 0 0 0 0 
trait 2 0.2 0 0 0 0 0 0 0 
trait 3 0.3 0 0 0 0 0 0 0 
node 1 3 1 3
node 2 2 1 1
node 3 1 1 1
node 4 2 1 1
node 5 3 1 1
node 6 3 0 2
node 7 2 0 2
gene 3 1 6 0.534063 0 1 0.534063 1
gene 1 2 6 -0.435515 0 2 -0.435515 1
gene 3 3 6 -0.100546 0 3 -0.100546 1
gene 2 4 6 0.761481 0 4 0.761481 1
gene 2 5 6 0.991518 0 5 0.991518 1
gene 3 1 7 0.868902 0 6 0.868902 1
gene 1 2 7 0.546628 0 7 0.546628 1
gene 1 3 7 -0.192789 0 8 -0.192789 1
gene 3 4 7 0.784174 0 9 0.784174 1
gene 1 5 7 -0.108499 0 10 -0.108499 1
genomeend 33

/* Organism #34 Fitness: 4738 Error: 0 */
/* ##------$ WINNER 34 SPECIES #1 $------## */
genomestart 34
trait 1 0.1 0 0 0 0 0 0 0 
trait 2 0.2 0 0 0 0 0 0 0 
trait 3 0.3 0 0 0 0 0 0 0 
node 1 3 1 3
node 2 2 1 1
node 3 2 1 1
node 4 3 1 1
node 5 3 1 1
node 6 1 0 2
node 7 3 0 2
gene 1 1 6 -0.745997 0 1 -0.745997 1
gene 3 2 6 -0.819124 0 2 -0.819124 1
gene 3 3 6 0.280339 0 3 0.280339 1
gene 1 4 6 0.107954 0 4 0.107954 1
gene 1 5 6 -0.956555 0 5 -0.956555 1
gene 2 1 7 -0.201422 0 6 -0.201422 1
gene 2 2 7 0.317227 0 7 0.317227 1
gene 1 3 7 0.584543 0 8 0.584543 1
gene 1 4 7 -0.765494 0 9 -0.765494 1
gene 2 5 7 -0.46624 0 10 -0.46624 1
genomeend 34

/* Organism #35 Fitness: 4841 Error: 0 */
/* ##------$ WINNER 35 SPECIES #1 $------## */
genomestart 35
trait 1 0.1 0 0 0 0 0 0 0 
trait 2 0.2 0 0 0 0 0 0 0 
trait 3 0.3 0 0 0 0 0 0 0 
node 1 2 1 3
node 2 3 1 1
node 3 2 1 1
node 4 2 1 1
node 5 1 1 1
node 6 1 0 2
node 7 1 0 2
gene 3 1 6 -0.445404 0 1 -0.445404 1
gene 2 2 6 -0.968865 0 2 -0.968865 1
gene 2 3 6 0.288141 0 3 0.288141 1
gene 1 4 6 -0.0392034 0 4 -0.0392034 1
gene 3 5 6 -0.539807 0 5 -0.539807 1
gene 3 1 7 0.762652 0 6 0.762652 1
gene 1 2 7 0.864677 0 7 0.864677 1
gene 1 3 7 0.89506 0 8 0.89506 1
gene 3 4 7 0.796188 0 9 0.796188 1
gene 1 5 7 -0.418969 0 10 -0.418969 1
genomeend 35

/* Organism #36 Fitness: 4603 Error: 0 */
/* ##------$ WINNER 36 SPECIES #1 $------## */
genomestart 36
trait 1 0.1 0 0 0 0 0 0 0 
trait 2 0.2 0 0 0 0 0 0 0 
trait 3 0.3 0 0 0 0 0 0 0 
node 1 2 1 3
node 2 1 1 1
node 3 2 1 1
node 4 3 1 1
node 5 1 1 1
node 6 3 0 2
node 7 2 0 2
gene 2 1 6 0.158085 0 1 0.158085 1
gene 1 2 6 -0.641687 0 2 -0.641687 1
gene 1 3 6 -0.336041 0 3 -0.336041 1
gene 3 4 6 -0.576325 0 4 -0.576325 1
gene 3 5 6 0.0663229 0 5 0.0663229 1
gene 2 1 7 -0.302733 0 6 -0.302733 1
gene 3 2 7 0.924478 0 7 0.924478 1
gene 1 3 7 0.187339 0 8 0.187339 1
gene 3 4 7 0.726203 0 9 0.726203 1
gene 3 5 7 -0.179685 0 10 -0.179685 1
genomeend 36

/* Organism #37 Fitness: 4776 Error: 0 */
/* ##------$ WINNER 37 SPECIES #1 $------## */
genomestart 37
trait 1 0.1 0 0 0 0 0 0 0 
trait 2 0.2 0 0 0 0 0 0 0 
trait 3 0.3 0 0 0 0 0 0 0 
node 1 2 1 3
node 2 3 1 1
node 3 1 1 1
node 4 1 1 1
node 5 3 1 1
node 6 1 0 2
node 7 3 0 2
gene 2 1 6 -0.54293 0 1 -0.54293 1
gene 3 2 6 0.916537 0 2 0.916537 1
gene 2 3 6 -0.551888 0 3 -0.551888 1
gene 2 4 6 0.440704 0 4 0.440704 1
gene 3 5 6 -0.479037 0 5 -0.479037 1
gene 3 1 7 0.0545878 0 6 0.0545878 1
gene 2 2 7 0.477283 0 7 0.477283 1
gene 2 3 7 0.877198 0 8 0.877198 1
gene 2 4 7 0.702171 0 9 0.702171 1
gene 3 5 7 -0.31675 0 10 -0.31675 1
genomeend 37

/* Organism #38 Fitness: 4600 Error: 0 */
/* ##------$ WINNER 38 SPECIES #1 $------## */
genomestart 38
trait 1 0.1 0 0 0 0 0 0 0 
trait 2 0.2 0 0 0 0 0 0 0 
trait 3 0.3 0 0 0 0 0 0 0 
node 1 1 1 3
node 2 2 1 1
node 3 2 1 1
node 4 1 1 1
node 5 3 1 1
node 6 1 0 2
node 7 1 0 2
gene 3 1 6 0.238019 0 1 0.238019 1
gene 3 2 6 -0.583977 0 2 -0.583977 1
gene 2 3 6 0.299132 0 3 0.299132 1
gene 3 4 6 0.062108 0 4 0.062108 1
gene 1 5 6 0.00913797 0 5 0.00913797 1
gene 1 1 7 -0.625287 0 6 -0.625287 1
gene 3 2 7 0.217828 0 7 0.217828 1
gene 1 3 7 -0.235099 0 8 -0.235099 1
gene 1 4 7 -0.570315 0 9 -0.570315 1
gene 1 5 7 -0.96218 0 10 -0.96218 1
genomeend 38

/* Organism #39 Fitness: 4606 Error: 0 */
/* ##------$ WINNER 39 SPECIES #1 $------## */
genomestart 39
trait 1 0.1 0 0 0 0 0 0 0 
trait 2 0.2 0 0 0 0 0 0 0 
trait 3 0.3 0 0 0 0 0 0 0 
node 1 2 1 3
node 2 2 1 1
node 3 3 1 1
node 4 2 1 1
node 5 3 1 1
node 6 1 0 2
node 7 2 0 2
gene 1 1 6 0.956955 0 1 0.956955 1
gene 1 2 6 -0.243363 0 2 -0.243363 1
gene 1 3 6 -0.87623 0 3 -0.87623 1
gene 3 4 6 -0.840446 0 4 -0.840446 1
gene 2 5 6 0.941516 0 5 0.941516 1
gene 2 1 7 0.477826 0 6 0.477826 1
gene 1 2 7 -0.25424 0 7 -0.25424 1
gene 2 3 7 -0.158962 0 8 -0.158962 1
gene 3 4 7 -0.244094 0 9 -0.244094 1
gene 2 5 7 0.472602 0 10 0.472602 1
genomeend 39

/* Organism #40 Fitness: 4776 Error: 0 */
/* ##------$ WINNER 40 SPECIES #1 $------## */
genomestart 40
trait 1 0.1 0 0 0 0 0 0 0 
trait 2 0.2 0 0 0 0 0 0 0 
trait 3 0.3 0 0 0 0 0 0 0 
node 1 1 1 3
node 2 2 1 1
node 3 1 1 1
node 4 2 1 1
node 5 2 1 1
node 6 2 0 2
node 7 1 0 2
gene 1 1 6 -0.678883 0 1 -0.678883 1
gene 2 2 6 -0.731535 0 2 -0.731535 1
gene 1 3 6 0.848357 0 3 0.848357 1
gene 3 4 6 0.516903 0 4 0.516903 1
gene 2 5 6 0.683711 0 5 0.683711 1
gene 3 1 7 0.127518 0 6 0.127518 1
gene 3 2 7 0.182779 0 7 0.182779 1
gene 2 3 7 0.062977 0 8 0.062977 1
gene 1 4 7 -0.437889 0 9 -0.437889 1
gene 1 5 7 0.231894 0 10 0.231894 1
genomeend 40

/* Organism #41 Fitness: 4776 Error: 0 */
/* ##------$ WINNER 41 SPECIES #1 $------## */
genomestart 41
trait 1 0.1 0 0 0 0 0 0 0 
trait 2 0.2 0 0 0 0 0 0 0 
trait 3 0.3 0 0 0 0 0 0 0 
node 1 2 1 3
node 2 2 1 1
node 3 3 1 1
node 4 3 1 1
node 5 2 1 1
node 6 3 0 2
node 7 3 0 2
gene 1 1 6 -0.221832 0 1 -0.221832 1
gene 2 2 6 0.685439 0 2 0.685439 1
gene 1 3 6 0.784141 0 3 0.784141 1
gene 1 4 6 0.80707 0 4 0.80707 1
gene 2 5 6 -0.116296 0 5 -0.116296 1
gene 1 1 7 0.543726 0 6 0.543726 1
gene 3 2 7 0.820218 0 7 0.820218 1
gene 2 3 7 0.780832 0 8 0.780832 1
gene 2 4 7 -0.324741 0 9 -0.324741 1
gene 1 5 7 -0.612416 0 10 -0.612416 1
genomeend 41

/* Organism #42 Fitness: 4696 Error: 0 */
/* ##------$ WINNER 42 SPECIES #1 $------## */
genomestart 42
trait 1 0.1 0 0 0 0 0 0 0 
trait 2 0.2 0 0 0 0 0 0 0 
trait 3 0.3 0 0 0 0 0 0 0 
node 1 1 1 3
node 2 1 1 1
node 3 3 1 1
node 4 2 1 1
node 5 3 1 1
node 6 2 0 2
node 7 2 0 2
gene 2 1 6 -0.929246 0 1 -0.929246 1
gene 2 2 6 -0.930362 0 2 -0.930362 1
gene 1 3 6 -0.672486 0 3 -0.672486 1
gene 1 4 6 -0.617137 0 4 -0.617137 1
gene 3 5 6 0.599765 0 5 0.599765 1
gene 3 1 7 -0.532985 0 6 -0.532985 1
gene 1 2 7 -0.00469982 0 7 -0.00469982 1
gene 1 3 7 -0.69434 0 8 -0.69434 1
gene 1 4 7 -0.961174 0 9 -0.961174 1
gene 1 5 7 0.45867 0 10 0.45867 1
genomeend 42

/* Organism #43 Fitness: 4776 Error: 0 */
/* ##------$ WINNER 43 SPECIES #1 $------## */
genomestart 43
trait 1 0.1 0 0 0 0 0 0 0 
trait 2 0.2 0 0 0 0 0 0 0 
trait 3 0.3 0 0 0 0 0 0 0 
node 1 2 1 3
node 2 3 1 1
node 3 1 1 1
node 4 2 1 1
node 5 1 1 1
node 6 2 0 2
node 7 3 0 2
gene 2 1 6 -0.173989 0 1 -0.173989 1
gene 3 2 6 0.916473 0 2 0.916473 1
gene 3 3 6 0.00541744 0 3 0.00541744 1
gene 1 4 6 -0.606581 0 4 -0.606581 1
gene 2 5 6 0.799729 0 5 0.799729 1
gene 3 1 7 0.176332 0 6 0.176332 1
gene 2 2 7 -0.11158 0 7 -0.11158 1
gene 2 3 7 -0.0984488 0 8 -0.0984488 1
gene 2 4 7 -0.912596 0 9 -0.912596 1
gene 1 5 7 -0.197497 0 10 -0.197497 1
genomeend 43

/* Organism #44 Fitness: 4776 Error: 0 */
/* ##------$ WINNER 44 SPECIES #1 $------## */
genomestart 44
trait 1 0.1 0 0 0 0 0 0 0 
trait 2 0.2 0 0 0 0 0 0 0 
trait 3 0.3 0 0 0 0 0 0 0 
node 1 1 1 3
node 2 2 1 1
node 3 2 1 1
node 4 3 1 1
node 5 1 1 1
node 6 3 0 2
node 7 3 0 2
gene 3 1 6 -0.649836 0 1 -0.649836 1
gene 1 2 6 0.0187081 0 2 0.0187081 1
gene 3 3 6 0.965322 0 3 0.965322 1
gene 3 4 6 -0.043824 0 4 -0.043824 1
gene 3 5 6 0.420426 0 5 0.420426 1
gene 3 1 7 0.574454 0 6 0.574454 1
gene 2 2 7 -0.604259 0 7 -0.604259 1
gene 1 3 7 0.52897 0 8 0.52897 1
gene 1 4 7 -0.504982 0 9 -0.504982 1
gene 3 5 7 -0.904813 0 10 -0.904813 1
genomeend 44

/* Organism #45 Fitness: 4601 Error: 0 */
/* ##------$ WINNER 45 SPECIES #1 $------## */
genomestart 45
trait 1 0.1 0 0 0 0 0 0 0 
trait 2 0.2 0 0 0 0 0 0 0 
trait 3 0.3 0 0 0 0 0 0 0 
node 1 1 1 3
node 2 3 1 1
node 3 3 1 1
node 4 3 1 1
node 5 3 1 1
node 6 1 0 2
node 7 1 0 2
gene 2 1 6 0.12261 0 1 0.12261 1
gene 3 2 6 -0.927031 0 2 -0.927031 1
gene 3 3 6 0.0984036 0 3 0.0984036 1
gene 1 4 6 -0.20501 0 4 -0.20501 1
gene 1 5 6 0.178917 0 5 0.178917 1
gene 2 1 7 -0.604668 0 6 -0.604668 1
gene 1 2 7 0.65569 0 7 0.65569 1
gene 3 3 7 0.87631 0 8 0.87631 1
gene 3 4 7 -0.808475 0 9 -0.808475 1
gene 3 5 7 0.399254 0 10 0.399254 1
genomeend 45

/* Organism #46 Fitness: 4775 Error: 0 */
/* ##------$ WINNER 46 SPECIES #1 $------## */
genomestart 46
trait 1 0.1 0 0 0 0 0 0 0 
trait 2 0.2 0 0 0 0 0 0 0 
trait 3 0.3 0 0 0 0 0 0 0 
node 1 2 1 3
node 2 2 1 1
node 3 2 1 1
node 4 3 1 1
node 5 1 1 1
node 6 1 0 2
node 7 3 0 2
gene 1 1 6 -0.413173 0 1 -0.413173 1
gene 2 2 6 0.184596 0 2 0.184596 1
gene 2 3 6 0.827158 0 3 0.827158 1
gene 2 4 6 -0.492561 0 4 -0.492561 1
gene 1 5 6 0.976727 0 5 0.976727 1
gene 3 1 7 0.896121 0 6 0.896121 1
gene 2 2 7 0.892601 0 7 0.892601 1
gene 3 3 7 -0.0670605 0 8 -0.0670605 1
gene 2 4 7 -0.898119 0 9 -0.898119 1
gene 2 5 7 0.43501 0 10 0.43501 1
genomeend 46

/* Organism #47 Fitness: 4600 Error: 0 */
/* ##------$ WINNER 47 SPECIES #1 $------## */
genomestart 47
trait 1 0.1 0 0 0 0 0 0 0 
trait 2 0.2 0 0 0 0 0 0 0 
trait 3 0.3 0 0 0 0 0 0 0 
node 1 3 1 3
node 2 3 1 1
node 3 1 1 1
node 4 2 1 1
node 5 3 1 1
node 6 2 0 2
node 7 2 0 2
gene 3 1 6 0.860063 0 1 0.860063 1
gene 2 2 6 0.34037 0 2 0.34037 1
gene 2 3 6 0.197604 0 3 0.197604 1
gene 1 4 6 -0.890639 0 4 -0.890639 1
gene 2 5 6 -0.15606 0 5 -0.15606 1
gene 2 1 7 -0.807288 0 6 -0.807288 1
gene 2 2 7 -0.21307 0 7 -0.21307 1
gene 3 3 7 -0.32574 0 8 -0.32574 1
gene 1 4 7 -0.54852 0 9 -0.54852 1
gene 3 5 7 -0.957903 0 10 -0.957903 1
genomeend 47

/* Organism #48 Fitness: 4632 Error: 0 */
/* ##------$ WINNER 48 SPECIES #1 $------## */
genomestart 48
trait 1 0.1 0 0 0 0 0 0 0 
trait 2 0.2 0 0 0 0 0 0 0 
trait 3 0.3 0 0 0 0 0 0 0 
node 1 3 1 3
node 2 3 1 1
node 3 1 1 1
node 4 2 1 1
node 5 2 1 1
node 6 1 0 2
node 7 3 0 2
gene 2 1 6 0.500249 0 1 0.500249 1
gene 3 2 6 0.39331 0 2 0.39331 1
gene 2 3 6 0.498738 0 3 0.498738 1
gene 2 4 6 0.76186 0 4 0.76186 1
gene 1 5 6 -0.760958 0 5 -0.760958 1
gene 2 1 7 0.949218 0 6 0.949218 1
gene 3 2 7 -0.697809 0 7 -0.697809 1
gene 3 3 7 -0.428402 0 8 -0.428402 1
gene 1 4 7 0.377669 0 9 0.377669 1
gene 1 5 7 -0.477571 0 10 -0.477571 1
genomeend 48

/* Organism #49 Fitness: 4776 Error: 0 */
/* ##------$ WINNER 49 SPECIES #1 $------## */
genomestart 49
trait 1 0.1 0 0 0 0 0 0 0 
trait 2 0.2 0 0 0 0 0 0 0 
trait 3 0.3 0 0 0 0 0 0 0 
node 1 1 1 3
node 2 1 1 1
node 3 1 1 1
node 4 2 1 1
node 5 3 1 1
node 6 3 0 2
node 7 3 0 2
gene 3 1 6 -0.548127 0 1 -0.548127 1
gene 1 2 6 -0.552058 0 2 -0.552058 1
gene 2 3 6 -0.621536 0 3 -0.621536 1
gene 2 4 6 0.692903 0 4 0.692903 1
gene 3 5 6 0.57204 0 5 0.57204 1
gene 2 1 7 0.153847 0 6 0.153847 1
gene 2 2 7 -0.164896 0 7 -0.164896 1
gene 1 3 7 -0.332985 0 8 -0.332985 1
gene 2 4 7 0.882644 0 9 0.882644 1
gene 1 5 7 0.292632 0 10 0.292632 1
genomeend 49

/* Organism #50 Fitness: 4610 Error: 0 */
/* ##------$ WINNER 50 SPECIES #1 $------## */
genomestart 50
trait 1 0.1 0 0 0 0 0 0 0 
trait 2 0.2 0 0 0 0 0 0 0 
trait 3 0.3 0 0 0 0 0 0 0 
node 1 1 1 3
node 2 2 1 1
node 3 3 1 1
node 4 3 1 1
node 5 1 1 1
node 6 1 0 2
node 7 3 0 2
gene 3 1 6 -0.00561863 0 1 -0.00561863 1
gene 2 2 6 -0.568732 0 2 -0.568732 1
gene 1 3 6 -0.0548672 0 3 -0.0548672 1
gene 1 4 6 0.975444 0 4 0.975444 1
gene 1 5 6 0.717315 0 5 0.717315 1
gene 2 1 7 -0.330362 0 6 -0.330362 1
gene 1 2 7 0.629685 0 7 0.629685 1
gene 2 3 7 -0.611556 0 8 -0.611556 1
gene 3 4 7 -0.936538 0 9 -0.936538 1
gene 3 5 7 -0.733694 0 10 -0.733694 1
genomeend 50

/* Organism #51 Fitness: 4776 Error: 0 */
/* ##------$ WINNER 51 SPECIES #1 $------## */
genomestart 51
trait 1 0.1 0 0 0 0 0 0 0 
trait 2 0.2 0 0 0 0 0 0 0 
trait 3 0.3 0 0 0 0 0 0 0 
node 1 1 1 3
node 2 1 1 1
node 3 2 1 1
node 4 2 1 1
node 5 1 1 1
node 6 1 0 2
node 7 1 0 2
gene 3 1 6 -0.29312 0 1 -0.29312 1
gene 3 2 6 -0.179971 0 2 -0.179971 1
gene 3 3 6 0.154844 0 3 0.154844 1
gene 3 4 6 0.0610724 0 4 0.0610724 1
gene 3 5 6 -0.0349132 0 5 -0.0349132 1
gene 1 1 7 0.345444 0 6 0.345444 1
gene 1 2 7 0.91246 0 7 0.91246 1
gene 2 3 7 -0.0343957 0 8 -0.0343957 1
gene 2 4 7 -0.242814 0 9 -0.242814 1
gene 1 5 7 0.341996 0 10 0.341996 1
genomeend 51

/* Organism #52 Fitness: 4688 Error: 0 */
/* ##------$ WINNER 52 SPECIES #1 $------## */
genomestart 52
trait 1 0.1 0 0 0 0 0 0 0 
trait 2 0.2 0 0 0 0 0 0 0 
trait 3 0.3 0 0 0 0 0 0 0 
node 1 1 1 3
node 2 1 1 1
node 3 2 1 1
node 4 1 1 1
node 5 2 1 1
node 6 2 0 2
node 7 2 0 2
gene 3 1 6 -0.742417 0 1 -0.742417 1
gene 2 2 6 -0.877683 0 2 -0.877683 1
gene 3 3 6 -0.902272 0 3 -0.902272 1
gene 1 4 6 0.237667 0 4 0.237667 1
gene 1 5 6 -0.949148 0 5 -0.949148 1
gene 2 1 7 -0.912549 0 6 -0.912549 1
gene 1 2 7 -0.562389 0 7 -0.562389 1
gene 3 3 7 -0.0879192 0 8 -0.0879192 1
gene 3 4 7 -0.217216 0 9 -0.217216 1
gene 2 5 7 -0.902572 0 10 -0.902572 1
genomeend 52

/* Organism #53 Fitness: 4660 Error: 0 */
/* ##------$ WINNER 53 SPECIES #1 $------## */
genomestart 53
trait 1 0.1 0 0 0 0 0 0 0 
trait 2 0.2 0 0 0 0 0 0 0 
trait 3 0.3 0 0 0 0 0 0 0 
node 1 2 1 3
node 2 3 1 1
node 3 2 1 1
node 4 1 1 1
node 5 3 1 1
node 6 2 0 2
node 7 1 0 2
gene 1 1 6 0.387283 0 1 0.387283 1
gene 3 2 6 0.448966 0 2 0.448966 1
gene 1 3 6 -0.877516 0 3 -0.877516 1
gene 2 4 6 -0.821032 0 4 -0.821032 1
gene 1 5 6 -0.535589 0 5 -0.535589 1
gene 2 1 7 0.968993 0 6 0.968993 1
gene 3 2 7 -0.811422 0 7 -0.811422 1
gene 1 3 7 -0.787264 0 8 -0.787264 1
gene 1 4 7 -0.740299 0 9 -0.740299 1
gene 2 5 7 -0.781941 0 10 -0.781941 1
genomeend 53

/* Organism #54 Fitness: 4601 Error: 0 */
/* ##------$ WINNER 54 SPECIES #1 $------## */
genomestart 54
trait 1 0.1 0 0 0 0 0 0 0 
trait 2 0.2 0 0 0 0 0 0 0 
trait 3 0.3 0 0 0 0 0 0 0 
node 1 3 1 3
node 2 3 1 1
node 3 3 1 1
node 4 3 1 1
node 5 2 1 1
node 6 3 0 2
node 7 1 0 2
gene 1 1 6 0.162288 0 1 0.162288 1
gene 2 2 6 -0.144905 0 2 -0.144905 1
gene 1 3 6 -0.815511 0 3 -0.815511 1
gene 3 4 6 0.652122 0 4 0.652122 1
gene 3 5 6 -0.626621 0 5 -0.626621 1
gene 3 1 7 -0.433579 0 6 -0.433579 1
gene 2 2 7 -0.222442 0 7 -0.222442 1
gene 2 3 7 -0.39117 0 8 -0.39117 1
gene 1 4 7 0.304566 0 9 0.304566 1
gene 2 5 7 -0.0234767 0 10 -0.0234767 1
genomeend 54

/* Organism #55 Fitness: 4775 Error: 0 */
/* ##------$ WINNER 55 SPECIES #1 $------## */
genomestart 55
trait 1 0.1 0 0 0 0 0 0 0 
trait 2 0.2 0 0 0 0 0 0 0 
trait 3 0.3 0 0 0 0 0 0 0 
node 1 3 1 3
node 2 3 1 1
node 3 2 1 1
node 4 2 1 1
node 5 1 1 1
node 6 3 0 2
node 7 2 0 2
gene 2 1 6 -0.897041 0 1 -0.897041 1
gene 2 2 6 0.648477 0 2 0.648477 1
gene 1 3 6 -0.563628 0 3 -0.563628 1
gene 2 4 6 0.201175 0 4 0.201175 1
gene 3 5 6 0.24535 0 5 0.24535 1
gene 2 1 7 0.875258 0 6 0.875258 1
gene 1 2 7 0.644682 0 7 0.644682 1
gene 1 3 7 -0.817695 0 8 -0.817695 1
gene 2 4 7 0.176585 0 9 0.176585 1
gene 1 5 7 0.469036 0 10 0.469036 1
genomeend 55

/* Organism #56 Fitness: 4679 Error: 0 */
/* ##------$ WINNER 56 SPECIES #1 $------## */
genomestart 56
trait 1 0.1 0 0 0 0 0 0 0 
trait 2 0.2 0 0 0 0 0 0 0 
trait 3 0.3 0 0 0 0 0 0 0 
node 1 2 1 3
node 2 1 1 1
node 3 3 1 1
node 4 3 1 1
node 5 1 1 1
node 6 3 0 2
node 7 1 0 2
gene 3 1 6 -0.256998 0 1 -0.256998 1
gene 1 2 6 0.179429 0 2 0.179429 1
gene 2 3 6 0.326624 0 3 0.326624 1
gene 3 4 6 -0.828881 0 4 -0.828881 1
gene 1 5 6 0.393494 0 5 0.393494 1
gene 1 1 7 -0.723006 0 6 -0.723006 1
gene 3 2 7 0.744531 0 7 0.744531 1
gene 3 3 7 0.678251 0 8 0.678251 1
gene 1 4 7 0.583436 0 9 0.583436 1
gene 1 5 7 -0.384106 0 10 -0.384106 1
genomeend 56

/* Organism #57 Fitness: 4603 Error: 0 */
/* ##------$ WINNER 57 SPECIES #1 $------## */
genomestart 57
trait 1 0.1 0 0 0 0 0 0 0 
trait 2 0.2 0 0 0 0 0 0 0 
trait 3 0.3 0 0 0 0 0 0 0 
node 1 2 1 3
node 2 1 1 1
node 3 3 1 1
node 4 1 1 1
node 5 2 1 1
node 6 3 0 2
node 7 1 0 2
gene 2 1 6 0.376029 0 1 0.376029 1
gene 2 2 6 -0.113707 0 2 -0.113707 1
gene 1 3 6 -0.556216 0 3 -0.556216 1
gene 3 4 6 -0.136324 0 4 -0.136324 1
gene 2 5 6 0.826073 0 5 0.826073 1
gene 2 1 7 -0.0110953 0 6 -0.0110953 1
gene 3 2 7 -0.878087 0 7 -0.878087 1
gene 2 3 7 -0.69334 0 8 -0.69334 1
gene 1 4 7 -0.532639 0 9 -0.532639 1
gene 1 5 7 -0.608821 0 10 -0.608821 1
genomeend 57

/* Organism #58 Fitness: 4730 Error: 0 */
/* ##------$ WINNER 58 SPECIES #1 $------## */
genomestart 58
trait 1 0.1 0 0 0 0 0 0 0 
trait 2 0.2 0 0 0 0 0 0 0 
trait 3 0.3 0 0 0 0 0 0 0 
node 1 2 1 3
node 2 3 1 1
node 3 3 1 1
node 4 3 1 1
node 5 3 1 1
node 6 1 0 2
node 7 3 0 2
gene 3 1 6 0.114695 0 1 0.114695 1
gene 2 2 6 -0.293832 0 2 -0.293832 1
gene 1 3 6 -0.691586 0 3 -0.691586 1
gene 1 4 6 0.968112 0 4 0.968112 1
gene 2 5 6 0.906001 0 5 0.906001 1
gene 2 1 7 0.648765 0 6 0.648765 1
gene 2 2 7 0.507379 0 7 0.507379 1
gene 1 3 7 0.669624 0 8 0.669624 1
gene 2 4 7 0.480162 0 9 0.480162 1
gene 2 5 7 0.533018 0 10 0.533018 1
genomeend 58

/* Organism #59 Fitness: 4630 Error: 0 */
/* ##------$ WINNER 59 SPECIES #1 $------## */
genomestart 59
trait 1 0.1 0 0 0 0 0 0 0 
trait 2 0.2 0 0 0 0 0 0 0 
trait 3 0.3 0 0 0 0 0 0 0 
node 1 3 1 3
node 2 1 1 1
node 3 3 1 1
node 4 1 1 1
node 5 3 1 1
node 6 2 0 2
node 7 3 0 2
gene 3 1 6 0.473087 0 1 0.473087 1
gene 3 2 6 0.686308 0 2 0.686308 1
gene 3 3 6 -0.215086 0 3 -0.215086 1
gene 1 4 6 0.960912 0 4 0.960912 1
gene 2 5 6 -0.190108 0 5 -0.190108 1
gene 3 1 7 0.671111 0 6 0.671111 1
gene 1 2 7 0.0799265 0 7 0.0799265 1
gene 2 3 7 -0.735516 0 8 -0.735516 1
gene 3 4 7 -0.80441 0 9 -0.80441 1
gene 1 5 7 0.461499 0 10 0.461499 1
genomeend 59

/* Organism #60 Fitness: 4709 Error: 0 */
/* ##------$ WINNER 60 SPECIES #1 $------## */
genomestart 60
trait 1 0.1 0 0 0 0 0 0 0 
trait 2 0.2 0 0 0 0 0 0 0 
trait 3 0.3 0 0 0 0 0 0 0 
node 1 1 1 3
node 2 2 1 1
node 3 3 1 1
node 4 3 1 1
node 5 2 1 1
node 6 2 0 2
node 7 2 0 2
gene 2 1 6 -0.893924 0 1 -0.893924 1
gene 1 2 6 0.805579 0 2 0.805579 1
gene 3 3 6 0.827571 0 3 0.827571 1
gene 3 4 6 0.968469 0 4 0.968469 1
gene 3 5 6 0.759823 0 5 0.759823 1
gene 1 1 7 -0.368701 0 6 -0.368701 1
gene 3 2 7 0.491973 0 7 0.491973 1
gene 2 3 7 0.439219 0 8 0.439219 1
gene 1 4 7 -0.819452 0 9 -0.819452 1
gene 1 5 7 -0.50695 0 10 -0.50695 1
genomeend 60

/* Organism #61 Fitness: 4694 Error: 0 */
/* ##------$ WINNER 61 SPECIES #1 $------## */
genomestart 61
trait 1 0.1 0 0 0 0 0 0 0 
trait 2 0.2 0 0 0 0 0 0 0 
trait 3 0.3 0 0 0 0 0 0 0 
node 1 3 1 3
node 2 3 1 1
node 3 3 1 1
node 4 3 1 1
node 5 2 1 1
node 6 1 0 2
node 7 1 0 2
gene 1 1 6 -0.406314 0 1 -0.406314 1
gene 3 2 6 0.0156357 0 2 0.0156357 1
gene 1 3 6 -0.979901 0 3 -0.979901 1
gene 1 4 6 -0.608847 0 4 -0.608847 1
gene 2 5 6 -0.934686 0 5 -0.934686 1
gene 3 1 7 -0.575092 0 6 -0.575092 1
gene 2 2 7 -0.721707 0 7 -0.721707 1
gene 3 3 7 0.446806 0 8 0.446806 1
gene 3 4 7 -0.860602 0 9 -0.860602 1
gene 3 5 7 0.509294 0 10 0.509294 1
genomeend 61

/* Organism #62 Fitness: 4775 Error: 0 */
/* ##------$ WINNER 62 SPECIES #1 $------## */
genomestart 62
trait 1 0.1 0 0 0 0 0 0 0 
trait 2 0.2 0 0 0 0 0 0 0 
trait 3 0.3 0 0 0 0 0 0 0 
node 1 2 1 3
node 2 2 1 1
node 3 3 1 1
node 4 1 1 1
node 5 1 1 1
node 6 1 0 2
node 7 2 0 2
gene 3 1 6 -0.310496 0 1 -0.310496 1
gene 2 2 6 -0.605132 0 2 -0.605132 1
gene 1 3 6 0.122285 0 3 0.122285 1
gene 3 4 6 0.547607 0 4 0.547607 1
gene 3 5 6 -0.819707 0 5 -0.819707 1
gene 1 1 7 0.388122 0 6 0.388122 1
gene 3 2 7 0.790278 0 7 0.790278 1
gene 3 3 7 -0.377366 0 8 -0.377366 1
gene 3 4 7 0.979835 0 9 0.979835 1
gene 1 5 7 0.910349 0 10 0.910349 1
genomeend 62

/* Organism #63 Fitness: 4686 Error: 0 */
/* ##------$ WINNER 63 SPECIES #1 $------## */
genomestart 63
trait 1 0.1 0 0 0 0 0 0 0 
trait 2 0.2 0 0 0 0 0 0 0 
trait 3 0.3 0 0 0 0 0 0 0 
node 1 3 1 3
node 2 2 1 1
node 3 1 1 1
node 4 2 1 1
node 5 3 1 1
node 6 2 0 2
node 7 2 0 2
gene 3 1 6 -0.537882 0 1 -0.537882 1
gene 2 2 6 -0.896569 0 2 -0.896569 1
gene 3 3 6 -0.755315 0 3 -0.755315 1
gene 3 4 6 0.197448 0 4 0.197448 1
gene 1 5 6 0.00429355 0 5 0.00429355 1
gene 2 1 7 -0.931605 0 6 -0.931605 1
gene 1 2 7 -0.392395 0 7 -0.392395 1
gene 2 3 7 -0.38822 0 8 -0.38822 1
gene 1 4 7 -0.396702 0 9 -0.396702 1
gene 1 5 7 -0.337004 0 10 -0.337004 1
genomeend 63

/* Organism #64 Fitness: 4600 Error: 0 */
/* ##------$ WINNER 64 SPECIES #1 $------## */
genomestart 64
trait 1 0.1 0 0 0 0 0 0 0 
trait 2 0.2 0 0 0 0 0 0 0 
trait 3 0.3 0 0 0 0 0 0 0 
node 1 3 1 3
node 2 2 1 1
node 3 2 1 1
node 4 3 1 1
node 5 2 1 1
node 6 1 0 2
node 7 1 0 2
gene 1 1 6 0.574603 0 1 0.574603 1
gene 3 2 6 0.538682 0 2 0.538682 1
gene 2 3 6 0.808753 0 3 0.808753 1
gene 3 4 6 0.836529 0 4 0.836529 1
gene 2 5 6 -0.845589 0 5 -0.845589 1
gene 1 1 7 -0.912689 0 6 -0.912689 1
gene 2 2 7 0.9725 0 7 0.9725 1
gene 1 3 7 0.448232 0 8 0.448232 1
gene 3 4 7 -0.0486897 0 9 -0.0486897 1
gene 3 5 7 -0.480289 0 10 -0.480289 1
genomeend 64

/* Organism #65 Fitness: 4602 Error: 0 */
/* ##------$ WINNER 65 SPECIES #1 $------## */
genomestart 65
trait 1 0.1 0 0 0 0 0 0 0 
trait 2 0.2 0 0 0 0 0 0 0 
trait 3 0.3 0 0 0 0 0 0 0 
node 1 3 1 3
node 2 2 1 1
node 3 2 1 1
node 4 2 1 1
node 5 3 1 1
node 6 2 0 2
node 7 1 0 2
gene 2 1 6 0.139953 0 1 0.139953 1
gene 3 2 6 -0.202466 0 2 -0.202466 1
gene 1 3 6 -0.702063 0 3 -0.702063 1
gene 2 4 6 0.957715 0 4 0.957715 1
gene 2 5 6 -0.628985 0 5 -0.628985 1
gene 1 1 7 -0.384332 0 6 -0.384332 1
gene 1 2 7 0.444149 0 7 0.444149 1
gene 2 3 7 -0.321381 0 8 -0.321381 1
gene 1 4 7 -0.462454 0 9 -0.462454 1
gene 1 5 7 0.815862 0 10 0.815862 1
genomeend 65

/* Organism #66 Fitness: 4775 Error: 0 */
/* ##------$ WINNER 66 SPECIES #1 $------## */
genomestart 66
trait 1 0.1 0 0 0 0 0 0 0 
trait 2 0.2 0 0 0 0 0 0 0 
trait 3 0.3 0 0 0 0 0 0 0 
node 1 3 1 3
node 2 2 1 1
node 3 1 1 1
node 4 2 1 1
node 5 3 1 1
node 6 3 0 2
node 7 2 0 2
gene 1 1 6 -0.192978 0 1 -0.192978 1
gene 1 2 6 0.674552 0 2 0.674552 1
gene 3 3 6 0.303024 0 3 0.303024 1
gene 1 4 6 0.78453 0 4 0.78453 1
gene 3 5 6 0.600356 0 5 0.600356 1
gene 2 1 7 0.65634 0 6 0.65634 1
gene 3 2 7 0.885721 0 7 0.885721 1
gene 1 3 7 0.432994 0 8 0.432994 1
gene 3 4 7 -0.30633 0 9 -0.30633 1
gene 1 5 7 -0.270443 0 10 -0.270443 1
genomeend 66

/* Organism #67 Fitness: 4600 Error: 0 */
/* ##------$ WINNER 67 SPECIES #1 $------## */
genomestart 67
trait 1 0.1 0 0 0 0 0 0 0 
trait 2 0.2 0 0 0 0 0 0 0 
trait 3 0.3 0 0 0 0 0 0 0 
node 1 2 1 3
node 2 2 1 1
node 3 3 1 1
node 4 1 1 1
node 5 3 1 1
node 6 2 0 2
node 7 3 0 2
gene 1 1 6 0.382351 0 1 0.382351 1
gene 2 2 6 0.33162 0 2 0.33162 1
gene 1 3 6 0.281423 0 3 0.281423 1
gene 3 4 6 0.697506 0 4 0.697506 1
gene 1 5 6 0.539666 0 5 0.539666 1
gene 3 1 7 -0.713221 0 6 -0.713221 1
gene 3 2 7 -0.64225 0 7 -0.64225 1
gene 2 3 7 0.399649 0 8 0.399649 1
gene 1 4 7 0.564978 0 9 0.564978 1
gene 2 5 7 -0.0162281 0 10 -0.0162281 1
genomeend 67

/* Organism #68 Fitness: 4599 Error: 0 */
/* ##------$ WINNER 68 SPECIES #1 $------## */
genomestart 68
trait 1 0.1 0 0 0 0 0 0 0 
trait 2 0.2 0 0 0 0 0 0 0 
trait 3 0.3 0 0 0 0 0 0 0 
node 1 3 1 3
node 2 3 1 1
node 3 3 1 1
node 4 1 1 1
node 5 1 1 1
node 6 1 0 2
node 7 3 0 2
gene 1 1 6 0.253736 0 1 0.253736 1
gene 3 2 6 0.49266 0 2 0.49266 1
gene 3 3 6 0.598876 0 3 0.598876 1
gene 2 4 6 -0.174674 0 4 -0.174674 1
gene 3 5 6 -0.413084 0 5 -0.413084 1
gene 3 1 7 -0.43406 0 6 -0.43406 1
gene 1 2 7 -0.963851 0 7 -0.963851 1
gene 2 3 7 0.414182 0 8 0.414182 1
gene 3 4 7 -0.88921 0 9 -0.88921 1
gene 2 5 7 -0.532034 0 10 -0.532034 1
genomeend 68

/* Organism #69 Fitness: 4604 Error: 0 */
/* ##------$ WINNER 69 SPECIES #1 $------## */
genomestart 69
trait 1 0.1 0 0 0 0 0 0 0 
trait 2 0.2 0 0 0 0 0 0 0 
trait 3 0.3 0 0 0 0 0 0 0 
node 1 3 1 3
node 2 1 1 1
node 3 3 1 1
node 4 3 1 1
node 5 3 1 1
node 6 2 0 2
node 7 1 0 2
gene 2 1 6 0.980966 0 1 0.980966 1
gene 3 2 6 -0.878367 0 2 -0.878367 1
gene 2 3 6 -0.431729 0 3 -0.431729 1
gene 3 4 6 -0.667821 0 4 -0.667821 1
gene 3 5 6 0.635192 0 5 0.635192 1
gene 2 1 7 0.24502 0 6 0.24502 1
gene 1 2 7 -0.548165 0 7 -0.548165 1
gene 2 3 7 0.256994 0 8 0.256994 1
gene 2 4 7 -0.169572 0 9 -0.169572 1
gene 1 5 7 -0.489241 0 10 -0.489241 1
genomeend 69

/* Organism #70 Fitness: 4608 Error: 0 */
/* ##------$ WINNER 70 SPECIES #1 $------## */
genomestart 70
trait 1 0.1 0 0 0 0 0 0 0 
trait 2 0.2 0 0 0 0 0 0 0 
trait 3 0.3 0 0 0 0 0 0 0 
node 1 3 1 3
node 2 3 1 1
node 3 1 1 1
node 4 1 1 1
node 5 1 1 1
node 6 3 0 2
node 7 1 0 2
gene 1 1 6 -0.0547088 0 1 -0.0547088 1
gene 3 2 6 0.789215 0 2 0.789215 1
gene 2 3 6 -0.411065 0 3 -0.411065 1
gene 2 4 6 -0.496898 0 4 -0.496898 1
gene 2 5 6 0.490342 0 5 0.490342 1
gene 3 1 7 -0.831797 0 6 -0.831797 1
gene 3 2 7 -0.722586 0 7 -0.722586 1
gene 3 3 7 0.140381 0 8 0.140381 1
gene 2 4 7 -0.368001 0 9 -0.368001 1
gene 1 5 7 -0.519273 0 10 -0.519273 1
genomeend 70

/* Organism #71 Fitness: 4775 Error: 0 */
/* ##------$ WINNER 71 SPECIES #1 $------## */
genomestart 71
trait 1 0.1 0 0 0 0 0 0 0 
trait 2 0.2 0 0 0 0 0 0 0 
trait 3 0.3 0 0 0 0 0 0 0 
node 1 3 1 3
node 2 3 1 1
node 3 3 1 1
node 4 2 1 1
node 5 2 1 1
node 6 1 0 2
node 7 3 0 2
gene 1 1 6 -0.357306 0 1 -0.357306 1
gene 3 2 6 0.508233 0 2 0.508233 1
gene 2 3 6 0.784202 0 3 0.784202 1
gene 3 4 6 -0.57214 0 4 -0.57214 1
gene 2 5 6 0.508211 0 5 0.508211 1
gene 2 1 7 0.560462 0 6 0.560462 1
gene 3 2 7 -0.685141 0 7 -0.685141 1
gene 1 3 7 -0.178127 0 8 -0.178127 1
gene 1 4 7 -0.349686 0 9 -0.349686 1
gene 2 5 7 0.596575 0 10 0.596575 1
genomeend 71

/* Organism #72 Fitness: 4598 Error: 0 */
/* ##------$ WINNER 72 SPECIES #1 $------## */
genomestart 72
trait 1 0.1 0 0 0 0 0 0 0 
trait 2 0.2 0 0 0 0 0 0 0 
trait 3 0.3 0 0 0 0 0 0 0 
node 1 2 1 3
node 2 2 1 1
node 3 1 1 1
node 4 2 1 1
node 5 1 1 1
node 6 3 0 2
node 7 3 0 2
gene 1 1 6 0.725474 0 1 0.725474 1
gene 3 2 6 0.689486 0 2 0.689486 1
gene 2 3 6 0.773892 0 3 0.773892 1
gene 2 4 6 -0.694671 0 4 -0.694671 1
gene 2 5 6 0.516338 0 5 0.516338 1
gene 3 1 7 -0.0396595 0 6 -0.0396595 1
gene 1 2 7 0.32958 0 7 0.32958 1
gene 3 3 7 0.468558 0 8 0.468558 1
gene 2 4 7 -0.749673 0 9 -0.749673 1
gene 2 5 7 -0.0673412 0 10 -0.0673412 1
genomeend 72

/* Organism #73 Fitness: 4686 Error: 0 */
/* ##------$ WINNER 73 SPECIES #1 $------## */
genomestart 73
trait 1 0.1 0 0 0 0 0 0 0 
trait 2 0.2 0 0 0 0 0 0 0 
trait 3 0.3 0 0 0 0 0 0 0 
node 1 2 1 3
node 2 2 1 1
node 3 1 1 1
node 4 3 1 1
node 5 2 1 1
node 6 2 0 2
node 7 1 0 2
gene 3 1 6 -0.479557 0 1 -0.479557 1
gene 1 2 6 -0.457654 0 2 -0.457654 1
gene 1 3 6 -0.588044 0 3 -0.588044 1
gene 1 4 6 0.795277 0 4 0.795277 1
gene 1 5 6 -0.80258 0 5 -0.80258 1
gene 3 1 7 -0.886742 0 6 -0.886742 1
gene 2 2 7 -0.437107 0 7 -0.437107 1
gene 2 3 7 -0.129484 0 8 -0.129484 1
gene 1 4 7 0.0641266 0 9 0.0641266 1
gene 1 5 7 0.504583 0 10 0.504583 1
genomeend 73

/* Organism #74 Fitness: 4600 Error: 0 */
/* ##------$ WINNER 74 SPECIES #1 $------## */
genomestart 74
trait 1 0.1 0 0 0 0 0 0 0 
trait 2 0.2 0 0 0 0 0 0 0 
trait 3 0.3 0 0 0 0 0 0 0 
node 1 2 1 3
node 2 3 1 1
node 3 1 1 1
node 4 3 1 1
node 5 1 1 1
node 6 3 0 2
node 7 2 0 2
gene 1 1 6 0.456559 0 1 0.456559 1
gene 2 2 6 -0.466579 0 2 -0.466579 1
gene 3 3 6 0.991363 0 3 0.991363 1
gene 1 4 6 0.645302 0 4 0.645302 1
gene 1 5 6 0.160765 0 5 0.160765 1
gene 2 1 7 -0.353912 0 6 -0.353912 1
gene 2 2 7 -0.741419 0 7 -0.741419 1
gene 2 3 7 0.589446 0 8 0.589446 1
gene 2 4 7 0.817324 0 9 0.817324 1
gene 3 5 7 0.689166 0 10 0.689166 1
genomeend 74

/* Organism #75 Fitness: 4600 Error: 0 */
/* ##------$ WINNER 75 SPECIES #1 $------## */
genomestart 75
trait 1 0.1 0 0 0 0 0 0 0 
trait 2 0.2 0 0 0 0 0 0 0 
trait 3 0.3 0 0 0 0 0 0 0 
node 1 1 1 3
node 2 3 1 1
node 3 2 1 1
node 4 3 1 1
node 5 3 1 1
node 6 2 0 2
node 7 1 0 2
gene 2 1 6 0.259158 0 1 0.259158 1
gene 3 2 6 -0.862112 0 2 -0.862112 1
gene 3 3 6 0.199722 0 3 0.199722 1
gene 1 4 6 -0.0235033 0 4 -0.0235033 1
gene 3 5 6 0.956303 0 5 0.956303 1
gene 1 1 7 -0.618966 0 6 -0.618966 1
gene 1 2 7 0.430893 0 7 0.430893 1
gene 2 3 7 -0.916411 0 8 -0.916411 1
gene 3 4 7 0.614825 0 9 0.614825 1
gene 1 5 7 0.485982 0 10 0.485982 1
genomeend 75

/* Organism #76 Fitness: 4598 Error: 0 */
/* ##------$ WINNER 76 SPECIES #1 $------## */
genomestart 76
trait 1 0.1 0 0 0 0 0 0 0 
trait 2 0.2 0 0 0 0 0 0 0 
trait 3 0.3 0 0 0 0 0 0 0 
node 1 3 1 3
node 2 1 1 1
node 3 3 1 1
node 4 2 1 1
node 5 1 1 1
node 6 3 0 2
node 7 2 0 2
gene 3 1 6 0.918945 0 1 0.918945 1
gene 3 2 6 -0.921643 0 2 -0.921643 1
gene 1 3 6 0.777253 0 3 0.777253 1
gene 2 4 6 -0.0694107 0 4 -0.0694107 1
gene 1 5 6 0.218869 0 5 0.218869 1
gene 3 1 7 0.0180198 0 6 0.0180198 1
gene 1 2 7 0.939966 0 7 0.939966 1
gene 2 3 7 -0.140788 0 8 -0.140788 1
gene 2 4 7 0.686494 0 9 0.686494 1
gene 1 5 7 -0.840509 0 10 -0.840509 1
genomeend 76

/* Organism #77 Fitness: 4696 Error: 0 */
/* ##------$ WINNER 77 SPECIES #1 $------## */
genomestart 77
trait 1 0.1 0 0 0 0 0 0 0 
trait 2 0.2 0 0 0 0 0 0 0 
trait 3 0.3 0 0 0 0 0 0 0 
node 1 3 1 3
node 2 1 1 1
node 3 3 1 1
node 4 1 1 1
node 5 2 1 1
node 6 1 0 2
node 7 1 0 2
gene 1 1 6 -0.548346 0 1 -0.548346 1
gene 3 2 6 -0.862948 0 2 -0.862948 1
gene 1 3 6 -0.510802 0 3 -0.510802 1
gene 3 4 6 0.458273 0 4 0.458273 1
gene 1 5 6 -0.117202 0 5 -0.117202 1
gene 1 1 7 -0.538789 0 6 -0.538789 1
gene 3 2 7 -0.90059 0 7 -0.90059 1
gene 3 3 7 0.24834 0 8 0.24834 1
gene 2 4 7 0.93831 0 9 0.93831 1
gene 1 5 7 0.387167 0 10 0.387167 1
genomeend 77

/* Organism #78 Fitness: 4599 Error: 0 */
/* ##------$ WINNER 78 SPECIES #1 $------## */
genomestart 78
trait 1 0.1 0 0 0 0 0 0 0 
trait 2 0.2 0 0 0 0 0 0 0 
trait 3 0.3 0 0 0 0 0 0 0 
node 1 1 1 3
node 2 1 1 1
node 3 3 1 1
node 4 3 1 1
node 5 2 1 1
node 6 1 0 2
node 7 2 0 2
gene 2 1 6 0.283919 0 1 0.283919 1
gene 2 2 6 -0.132169 0 2 -0.132169 1
gene 3 3 6 0.883269 0 3 0.883269 1
gene 3 4 6 0.305078 0 4 0.305078 1
gene 3 5 6 0.351792 0 5 0.351792 1
gene 1 1 7 -0.411296 0 6 -0.411296 1
gene 3 2 7 -0.812929 0 7 -0.812929 1
gene 2 3 7 -0.286925 0 8 -0.286925 1
gene 2 4 7 0.274002 0 9 0.274002 1
gene 2 5 7 -0.391323 0 10 -0.391323 1
genomeend 78

/* Organism #79 Fitness: 4618 Error: 0 */
/* ##------$ WINNER 79 SPECIES #1 $------## */
genomestart 79
trait 1 0.1 0 0 0 0 0 0 0 
trait 2 0.2 0 0 0 0 0 0 0 
trait 3 0.3 0 0 0 0 0 0 0 
node 1 1 1 3
node 2 3 1 1
node 3 1 1 1
node 4 1 1 1
node 5 1 1 1
node 6 2 0 2
node 7 2 0 2
gene 1 1 6 0.101761 0 1 0.101761 1
gene 1 2 6 -0.449348 0 2 -0.449348 1
gene 2 3 6 0.60175 0 3 0.60175 1
gene 1 4 6 -0.965378 0 4 -0.965378 1
gene 1 5 6 -0.922674 0 5 -0.922674 1
gene 1 1 7 -0.052544 0 6 -0.052544 1
gene 3 2 7 -0.408654 0 7 -0.408654 1
gene 3 3 7 -0.932275 0 8 -0.932275 1
gene 2 4 7 0.890475 0 9 0.890475 1
gene 2 5 7 0.464712 0 10 0.464712 1
genomeend 79

/* Organism #80 Fitness: 4765 Error: 0 */
/* ##------$ WINNER 80 SPECIES #1 $------## */
genomestart 80
trait 1 0.1 0 0 0 0 0 0 0 
trait 2 0.2 0 0 0 0 0 0 0 
trait 3 0.3 0 0 0 0 0 0 0 
node 1 3 1 3
node 2 1 1 1
node 3 1 1 1
node 4 3 1 1
node 5 3 1 1
node 6 2 0 2
node 7 3 0 2
gene 1 1 6 -0.0102561 0 1 -0.0102561 1
gene 1 2 6 0.985935 0 2 0.985935 1
gene 1 3 6 0.0546918 0 3 0.0546918 1
gene 1 4 6 0.325004 0 4 0.325004 1
gene 3 5 6 0.949458 0 5 0.949458 1
gene 3 1 7 0.344522 0 6 0.344522 1
gene 3 2 7 -0.511281 0 7 -0.511281 1
gene 2 3 7 -0.95365 0 8 -0.95365 1
gene 1 4 7 0.230709 0 9 0.230709 1
gene 3 5 7 0.690209 0 10 0.690209 1
genomeend 80

/* Organism #81 Fitness: 4775 Error: 0 */
/* ##------$ WINNER 81 SPECIES #1 $------## */
genomestart 81
trait 1 0.1 0 0 0 0 0 0 0 
trait 2 0.2 0 0 0 0 0 0 0 
trait 3 0.3 0 0 0 0 0 0 0 
node 1 2 1 3
node 2 1 1 1
node 3 2 1 1
node 4 3 1 1
node 5 3 1 1
node 6 1 0 2
node 7 1 0 2
gene 3 1 6 -0.310185 0 1 -0.310185 1
gene 3 2 6 0.0594841 0 2 0.0594841 1
gene 2 3 6 -0.560443 0 3 -0.560443 1
gene 2 4 6 0.52531 0 4 0.52531 1
gene 1 5 6 -0.30737 0 5 -0.30737 1
gene 3 1 7 0.964743 0 6 0.964743 1
gene 3 2 7 -0.832421 0 7 -0.832421 1
gene 2 3 7 0.264689 0 8 0.264689 1
gene 3 4 7 -0.0581711 0 9 -0.0581711 1
gene 3 5 7 -0.985367 0 10 -0.985367 1
genomeend 81

/* Organism #82 Fitness: 4776 Error: 0 */
/* ##------$ WINNER 82 SPECIES #1 $------## */
genomestart 82
trait 1 0.1 0 0 0 0 0 0 0 
trait 2 0.2 0 0 0 0 0 0 0 
trait 3 0.3 0 0 0 0 0 0 0 
node 1 3 1 3
node 2 1 1 1
node 3 2 1 1
node 4 1 1 1
node 5 1 1 1
node 6 3 0 2
node 7 3 0 2
gene 3 1 6 -0.991429 0 1 -0.991429 1
gene 1 2 6 -0.0315897 0 2 -0.0315897 1
gene 2 3 6 0.400854 0 3 0.400854 1
gene 1 4 6 -0.274351 0 4 -0.274351 1
gene 2 5 6 0.769967 0 5 0.769967 1
gene 1 1 7 0.328475 0 6 0.328475 1
gene 1 2 7 0.370883 0 7 0.370883 1
gene 1 3 7 -0.720146 0 8 -0.720146 1
gene 2 4 7 0.122004 0 9 0.122004 1
gene 3 5 7 -0.567522 0 10 -0.567522 1
genomeend 82

/* Organism #83 Fitness: 4688 Error: 0 */
/* ##------$ WINNER 83 SPECIES #1 $------## */
genomestart 83
trait 1 0.1 0 0 0 0 0 0 0 
trait 2 0.2 0 0 0 0 0 0 0 
trait 3 0.3 0 0 0 0 0 0 0 
node 1 3 1 3
node 2 1 1 1
node 3 2 1 1
node 4 2 1 1
node 5 2 1 1
node 6 3 0 2
node 7 3 0 2
gene 1 1 6 -0.762887 0 1 -0.762887 1
gene 1 2 6 0.608425 0 2 0.608425 1
gene 2 3 6 -0.301646 0 3 -0.301646 1
gene 1 4 6 -0.757198 0 4 -0.757198 1
gene 2 5 6 0.896245 0 5 0.896245 1
gene 1 1 7 -0.883843 0 6 -0.883843 1
gene 2 2 7 -0.492558 0 7 -0.492558 1
gene 3 3 7 0.104979 0 8 0.104979 1
gene 3 4 7 0.414097 0 9 0.414097 1
gene 3 5 7 -0.0751286 0 10 -0.0751286 1
genomeend 83

/* Organism #84 Fitness: 4777 Error: 0 */
/* ##------$ WINNER 84 SPECIES #1 $------## */
genomestart 84
trait 1 0.1 0 0 0 0 0 0 0 
trait 2 0.2 0 0 0 0 0 0 0 
trait 3 0.3 0 0 0 0 0 0 0 
node 1 3 1 3
node 2 2 1 1
node 3 2 1 1
node 4 3 1 1
node 5 1 1 1
node 6 3 0 2
node 7 3 0 2
gene 3 1 6 0.00626383 0 1 0.00626383 1
gene 1 2 6 0.368189 0 2 0.368189 1
gene 1 3 6 -0.67779 0 3 -0.67779 1
gene 1 4 6 0.65859 0 4 0.65859 1
gene 1 5 6 0.901712 0 5 0.901712 1
gene 1 1 7 0.00764546 0 6 0.00764546 1
gene 1 2 7 0.982459 0 7 0.982459 1
gene 3 3 7 -0.400728 0 8 -0.400728 1
gene 3 4 7 -0.0392284 0 9 -0.0392284 1
gene 3 5 7 0.859267 0 10 0.859267 1
genomeend 84

/* Organism #85 Fitness: 4776 Error: 0 */
/* ##------$ WINNER 85 SPECIES #1 $------## */
genomestart 85
trait 1 0.1 0 0 0 0 0 0 0 
trait 2 0.2 0 0 0 0 0 0 0 
trait 3 0.3 0 0 0 0 0 0 0 
node 1 3 1 3
node 2 1 1 1
node 3 1 1 1
node 4 3 1 1
node 5 2 1 1
node 6 3 0 2
node 7 1 0 2
gene 2 1 6 -0.514576 0 1 -0.514576 1
gene 3 2 6 -0.422065 0 2 -0.422065 1
gene 1 3 6 -0.563593 0 3 -0.563593 1
gene 2 4 6 -0.94323 0 4 -0.94323 1
gene 1 5 6 0.776684 0 5 0.776684 1
gene 1 1 7 0.619146 0 6 0.619146 1
gene 3 2 7 -0.663682 0 7 -0.663682 1
gene 1 3 7 -0.539356 0 8 -0.539356 1
gene 1 4 7 -0.470022 0 9 -0.470022 1
gene 1 5 7 0.740776 0 10 0.740776 1
genomeend 85

/* Organism #86 Fitness: 4601 Error: 0 */
/* ##------$ WINNER 86 SPECIES #1 $------## */
genomestart 86
trait 1 0.1 0 0 0 0 0 0 0 
trait 2 0.2 0 0 0 0 0 0 0 
trait 3 0.3 0 0 0 0 0 0 0 
node 1 1 1 3
node 2 3 1 1
node 3 2 1 1
node 4 3 1 1
node 5 1 1 1
node 6 2 0 2
node 7 2 0 2
gene 1 1 6 0.88659 0 1 0.88659 1
gene 1 2 6 0.350886 0 2 0.350886 1
gene 2 3 6 -0.419281 0 3 -0.419281 1
gene 3 4 6 0.362619 0 4 0.362619 1
gene 2 5 6 0.606663 0 5 0.606663 1
gene 2 1 7 -0.896483 0 6 -0.896483 1
gene 3 2 7 0.889874 0 7 0.889874 1
gene 3 3 7 -0.983867 0 8 -0.983867 1
gene 1 4 7 0.280261 0 9 0.280261 1
gene 1 5 7 -0.244668 0 10 -0.244668 1
genomeend 86

/* Organism #87 Fitness: 4604 Error: 0 */
/* ##------$ WINNER 87 SPECIES #1 $------## */
genomestart 87
trait 1 0.1 0 0 0 0 0 0 0 
trait 2 0.2 0 0 0 0 0 0 0 
trait 3 0.3 0 0 0 0 0 0 0 
node 1 2 1 3
node 2 3 1 1
node 3 1 1 1
node 4 1 1 1
node 5 2 1 1
node 6 1 0 2
node 7 3 0 2
gene 1 1 6 0.0690038 0 1 0.0690038 1
gene 1 2 6 0.999098 0 2 0.999098 1
gene 3 3 6 0.948292 0 3 0.948292 1
gene 2 4 6 -0.985471 0 4 -0.985471 1
gene 1 5 6 0.47896 0 5 0.47896 1
gene 3 1 7 -0.535561 0 6 -0.535561 1
gene 1 2 7 -0.712944 0 7 -0.712944 1
gene 3 3 7 -0.614837 0 8 -0.614837 1
gene 1 4 7 0.213829 0 9 0.213829 1
gene 3 5 7 0.376713 0 10 0.376713 1
genomeend 87

/* Organism #88 Fitness: 4617 Error: 0 */
/* ##------$ WINNER 88 SPECIES #1 $------## */
genomestart 88
trait 1 0.1 0 0 0 0 0 0 0 
trait 2 0.2 0 0 0 0 0 0 0 
trait 3 0.3 0 0 0 0 0 0 0 
node 1 1 1 3
node 2 1 1 1
node 3 2 1 1
node 4 3 1 1
node 5 3 1 1
node 6 3 0 2
node 7 3 0 2
gene 3 1 6 0.695402 0 1 0.695402 1
gene 1 2 6 0.915532 0 2 0.915532 1
gene 3 3 6 -0.776064 0 3 -0.776064 1
gene 3 4 6 -0.698969 0 4 -0.698969 1
gene 3 5 6 -0.903896 0 5 -0.903896 1
gene 2 1 7 0.743317 0 6 0.743317 1
gene 2 2 7 -0.143978 0 7 -0.143978 1
gene 1 3 7 -0.323625 0 8 -0.323625 1
gene 1 4 7 0.301222 0 9 0.301222 1
gene 2 5 7 -0.169949 0 10 -0.169949 1
genomeend 88

/* Organism #89 Fitness: 4751 Error: 0 */
/* ##------$ WINNER 89 SPECIES #1 $------## */
genomestart 89
trait 1 0.1 0 0 0 0 0 0 0 
trait 2 0.2 0 0 0 0 0 0 0 
trait 3 0.3 0 0 0 0 0 0 0 
node 1 3 1 3
node 2 1 1 1
node 3 2 1 1
node 4 3 1 1
node 5 1 1 1
node 6 3 0 2
node 7 1 0 2
gene 2 1 6 -0.121905 0 1 -0.121905 1
gene 1 2 6 0.388236 0 2 0.388236 1
gene 2 3 6 0.0500435 0 3 0.0500435 1
gene 1 4 6 -0.534156 0 4 -0.534156 1
gene 1 5 6 0.947442 0 5 0.947442 1
gene 1 1 7 -0.151143 0 6 -0.151143 1
gene 2 2 7 -0.728523 0 7 -0.728523 1
gene 2 3 7 -0.680173 0 8 -0.680173 1
gene 2 4 7 0.688444 0 9 0.688444 1
gene 1 5 7 -0.466153 0 10 -0.466153 1
genomeend 89

/* Organism #90 Fitness: 4618 Error: 0 */
/* ##------$ WINNER 90 SPECIES #1 $------## */
genomestart 90
trait 1 0.1 0 0 0 0 0 0 0 
trait 2 0.2 0 0 0 0 0 0 0 
trait 3 0.3 0 0 0 0 0 0 0 
node 1 3 1 3
node 2 1 1 1
node 3 1 1 1
node 4 2 1 1
node 5 1 1 1
node 6 1 0 2
node 7 1 0 2
gene 2 1 6 0.617142 0 1 0.617142 1
gene 3 2 6 -0.375388 0 2 -0.375388 1
gene 2 3 6 -0.552845 0 3 -0.552845 1
gene 2 4 6 0.612542 0 4 0.612542 1
gene 1 5 6 -0.784384 0 5 -0.784384 1
gene 2 1 7 0.657552 0 6 0.657552 1
gene 1 2 7 -0.704996 0 7 -0.704996 1
gene 1 3 7 0.076726 0 8 0.076726 1
gene 1 4 7 0.230727 0 9 0.230727 1
gene 2 5 7 -0.552742 0 10 -0.552742 1
genomeend 90

/* Organism #91 Fitness: 4612 Error: 0 */
/* ##------$ WINNER 91 SPECIES #1 $------## */
genomestart 91
trait 1 0.1 0 0 0 0 0 0 0 
trait 2 0.2 0 0 0 0 0 0 0 
trait 3 0.3 0 0 0 0 0 0 0 
node 1 3 1 3
node 2 2 1 1
node 3 2 1 1
node 4 1 1 1
node 5 2 1 1
node 6 1 0 2
node 7 3 0 2
gene 1 1 6 0.828614 0 1 0.828614 1
gene 2 2 6 -0.953024 0 2 -0.953024 1
gene 3 3 6 0.946787 0 3 0.946787 1
gene 3 4 6 -0.400261 0 4 -0.400261 1
gene 2 5 6 -0.331524 0 5 -0.331524 1
gene 1 1 7 0.643933 0 6 0.643933 1
gene 3 2 7 -0.289325 0 7 -0.289325 1
gene 1 3 7 -0.931943 0 8 -0.931943 1
gene 2 4 7 -0.170206 0 9 -0.170206 1
gene 2 5 7 -0.921938 0 10 -0.921938 1
genomeend 91

/* Organism #92 Fitness: 4776 Error: 0 */
/* ##------$ WINNER 92 SPECIES #1 $------## */
genomestart 92
trait 1 0.1 0 0 0 0 0 0 0 
trait 2 0.2 0 0 0 0 0 0 0 
trait 3 0.3 0 0 0 0 0 0 0 
node 1 2 1 3
node 2 2 1 1
node 3 3 1 1
node 4 2 1 1
node 5 3 1 1
node 6 2 0 2
node 7 1 0 2
gene 3 1 6 -0.982492 0 1 -0.982492 1
gene 1 2 6 -0.804687 0 2 -0.804687 1
gene 3 3 6 -0.814965 0 3 -0.814965 1
gene 2 4 6 0.477548 0 4 0.477548 1
gene 2 5 6 -0.913934 0 5 -0.913934 1
gene 2 1 7 0.977812 0 6 0.977812 1
gene 1 2 7 0.327745 0 7 0.327745 1
gene 3 3 7 -0.225575 0 8 -0.225575 1
gene 1 4 7 -0.339172 0 9 -0.339172 1
gene 1 5 7 -0.399549 0 10 -0.399549 1
genomeend 92

/* Organism #93 Fitness: 4621 Error: 0 */
/* ##------$ WINNER 93 SPECIES #1 $------## */
genomestart 93
trait 1 0.1 0 0 0 0 0 0 0 
trait 2 0.2 0 0 0 0 0 0 0 
trait 3 0.3 0 0 0 0 0 0 0 
node 1 3 1 3
node 2 2 1 1
node 3 3 1 1
node 4 3 1 1
node 5 3 1 1
node 6 3 0 2
node 7 3 0 2
gene 1 1 6 0.605653 0 1 0.605653 1
gene 3 2 6 0.997963 0 2 0.997963 1
gene 3 3 6 -0.383477 0 3 -0.383477 1
gene 2 4 6 -0.0959815 0 4 -0.0959815 1
gene 3 5 6 0.501948 0 5 0.501948 1
gene 2 1 7 0.9338 0 6 0.9338 1
gene 2 2 7 -0.482197 0 7 -0.482197 1
gene 3 3 7 0.966445 0 8 0.966445 1
gene 1 4 7 -0.98256 0 9 -0.98256 1
gene 1 5 7 -0.907549 0 10 -0.907549 1
genomeend 93

/* Organism #94 Fitness: 4775 Error: 0 */
/* ##------$ WINNER 94 SPECIES #1 $------## */
genomestart 94
trait 1 0.1 0 0 0 0 0 0 0 
trait 2 0.2 0 0 0 0 0 0 0 
trait 3 0.3 0 0 0 0 0 0 0 
node 1 2 1 3
node 2 3 1 1
node 3 2 1 1
node 4 3 1 1
node 5 2 1 1
node 6 2 0 2
node 7 3 0 2
gene 2 1 6 -0.346035 0 1 -0.346035 1
gene 1 2 6 -0.512863 0 2 -0.512863 1
gene 2 3 6 -0.184601 0 3 -0.184601 1
gene 1 4 6 -0.962641 0 4 -0.962641 1
gene 1 5 6 0.911648 0 5 0.911648 1
gene 3 1 7 0.12808 0 6 0.12808 1
gene 1 2 7 -0.190027 0 7 -0.190027 1
gene 1 3 7 -0.00510145 0 8 -0.00510145 1
gene 1 4 7 0.351991 0 9 0.351991 1
gene 2 5 7 0.286459 0 10 0.286459 1
genomeend 94

/* Organism #95 Fitness: 4704 Error: 0 */
/* ##------$ WINNER 95 SPECIES #1 $------## */
genomestart 95
trait 1 0.1 0 0 0 0 0 0 0 
trait 2 0.2 0 0 0 0 0 0 0 
trait 3 0.3 0 0 0 0 0 0 0 
node 1 3 1 3
node 2 2 1 1
node 3 2 1 1
node 4 1 1 1
node 5 2 1 1
node 6 2 0 2
node 7 1 0 2
gene 1 1 6 -0.765454 0 1 -0.765454 1
gene 2 2 6 0.513944 0 2 0.513944 1
gene 2 3 6 0.560645 0 3 0.560645 1
gene 1 4 6 -0.905032 0 4 -0.905032 1
gene 2 5 6 -0.0377897 0 5 -0.0377897 1
gene 2 1 7 -0.417447 0 6 -0.417447 1
gene 3 2 7 0.478712 0 7 0.478712 1
gene 1 3 7 0.719818 0 8 0.719818 1
gene 3 4 7 0.355336 0 9 0.355336 1
gene 1 5 7 -0.359958 0 10 -0.359958 1
genomeend 95

/* Organism #96 Fitness: 4600 Error: 0 */
/* ##------$ WINNER 96 SPECIES #1 $------## */
genomestart 96
trait 1 0.1 0 0 0 0 0 0 0 
trait 2 0.2 0 0 0 0 0 0 0 
trait 3 0.3 0 0 0 0 0 0 0 
node 1 1 1 3
node 2 2 1 1
node 3 1 1 1
node 4 2 1 1
node 5 1 1 1
node 6 2 0 2
node 7 1 0 2
gene 1 1 6 0.614515 0 1 0.614515 1
gene 2 2 6 0.751918 0 2 0.751918 1
gene 2 3 6 -0.849273 0 3 -0.849273 1
gene 3 4 6 0.994485 0 4 0.994485 1
gene 1 5 6 -0.358685 0 5 -0.358685 1
gene 1 1 7 -0.864516 0 6 -0.864516 1
gene 1 2 7 -0.256338 0 7 -0.256338 1
gene 3 3 7 0.772737 0 8 0.772737 1
gene 3 4 7 -0.465762 0 9 -0.465762 1
gene 3 5 7 -0.628603 0 10 -0.628603 1
genomeend 96

/* Organism #97 Fitness: 4607 Error: 0 */
/* ##------$ WINNER 97 SPECIES #1 $------## */
genomestart 97
trait 1 0.1 0 0 0 0 0 0 0 
trait 2 0.2 0 0 0 0 0 0 0 
trait 3 0.3 0 0 0 0 0 0 0 
node 1 3 1 3
node 2 1 1 1
node 3 1 1 1
node 4 2 1 1
node 5 2 1 1
node 6 1 0 2
node 7 2 0 2
gene 1 1 6 0.795891 0 1 0.795891 1
gene 2 2 6 -0.354949 0 2 -0.354949 1
gene 3 3 6 0.832177 0 3 0.832177 1
gene 2 4 6 0.266393 0 4 0.266393 1
gene 1 5 6 0.77769 0 5 0.77769 1
gene 1 1 7 0.462499 0 6 0.462499 1
gene 1 2 7 -0.532708 0 7 -0.532708 1
gene 1 3 7 0.240227 0 8 0.240227 1
gene 3 4 7 -0.506162 0 9 -0.506162 1
gene 3 5 7 -0.0292117 0 10 -0.0292117 1
genomeend 97

/* Organism #98 Fitness: 4740 Error: 0 */
/* ##------$ WINNER 98 SPECIES #1 $------## */
genomestart 98
trait 1 0.1 0 0 0 0 0 0 0 
trait 2 0.2 0 0 0 0 0 0 0 
trait 3 0.3 0 0 0 0 0 0 0 
node 1 2 1 3
node 2 1 1 1
node 3 2 1 1
node 4 1 1 1
node 5 1 1 1
node 6 1 0 2
node 7 3 0 2
gene 3 1 6 -0.440277 0 1 -0.440277 1
gene 3 2 6 0.395941 0 2 0.395941 1
gene 3 3 6 0.0822314 0 3 0.0822314 1
gene 2 4 6 -0.777096 0 4 -0.777096 1
gene 1 5 6 0.121428 0 5 0.121428 1
gene 3 1 7 -0.193271 0 6 -0.193271 1
gene 2 2 7 -0.784135 0 7 -0.784135 1
gene 1 3 7 0.840639 0 8 0.840639 1
gene 3 4 7 0.851666 0 9 0.851666 1
gene 1 5 7 0.2841 0 10 0.2841 1
genomeend 98

/* Organism #99 Fitness: 4725 Error: 0 */
/* ##------$ WINNER 99 SPECIES #1 $------## */
genomestart 99
trait 1 0.1 0 0 0 0 0 0 0 
trait 2 0.2 0 0 0 0 0 0 0 
trait 3 0.3 0 0 0 0 0 0 0 
node 1 3 1 3
node 2 2 1 1
node 3 1 1 1
node 4 3 1 1
node 5 2 1 1
node 6 2 0 2
node 7 1 0 2
gene 1 1 6 0.207892 0 1 0.207892 1
gene 1 2 6 -0.10942 0 2 -0.10942 1
gene 3 3 6 0.919404 0 3 0.919404 1
gene 1 4 6 0.532774 0 4 0.532774 1
gene 3 5 6 -0.317695 0 5 -0.317695 1
gene 2 1 7 0.577728 0 6 0.577728 1
gene 3 2 7 -0.412845 0 7 -0.412845 1
gene 1 3 7 -0.188694 0 8 -0.188694 1
gene 2 4 7 0.329629 0 9 0.329629 1
gene 2 5 7 -0.248059 0 10 -0.248059 1
genomeend 99

/* Organism #100 Fitness: 4613 Error: 0 */
/* ##------$ WINNER 100 SPECIES #1 $------## */
genomestart 100
trait 1 0.1 0 0 0 0 0 0 0 
trait 2 0.2 0 0 0 0 0 0 0 
trait 3 0.3 0 0 0 0 0 0 0 
node 1 2 1 3
node 2 3 1 1
node 3 1 1 1
node 4 3 1 1
node 5 2 1 1
node 6 2 0 2
node 7 2 0 2
gene 3 1 6 0.653775 0 1 0.653775 1
gene 2 2 6 0.451034 0 2 0.451034 1
gene 1 3 6 0.316417 0 3 0.316417 1
gene 3 4 6 -0.359809 0 4 -0.359809 1
gene 1 5 6 0.120303 0 5 0.120303 1
gene 3 1 7 0.511548 0 6 0.511548 1
gene 3 2 7 0.180003 0 7 0.180003 1
gene 2 3 7 -0.715779 0 8 -0.715779 1
gene 1 4 7 -0.311869 0 9 -0.311869 1
gene 2 5 7 -0.764316 0 10 -0.764316 1
genomeend 100

/* Organism #101 Fitness: 4686 Error: 0 */
/* ##------$ WINNER 101 SPECIES #1 $------## */
genomestart 101
trait 1 0.1 0 0 0 0 0 0 0 
trait 2 0.2 0 0 0 0 0 0 0 
trait 3 0.3 0 0 0 0 0 0 0 
node 1 2 1 3
node 2 2 1 1
node 3 2 1 1
node 4 1 1 1
node 5 3 1 1
node 6 1 0 2
node 7 3 0 2
gene 3 1 6 -0.552471 0 1 -0.552471 1
gene 1 2 6 0.0449401 0 2 0.0449401 1
gene 1 3 6 -0.0325765 0 3 -0.0325765 1
gene 3 4 6 -0.63175 0 4 -0.63175 1
gene 2 5 6 -0.0474785 0 5 -0.0474785 1
gene 1 1 7 -0.986466 0 6 -0.986466 1
gene 1 2 7 0.523674 0 7 0.523674 1
gene 2 3 7 0.337214 0 8 0.337214 1
gene 3 4 7 -0.436374 0 9 -0.436374 1
gene 2 5 7 0.797336 0 10 0.797336 1
genomeend 101

/* Organism #102 Fitness: 4705 Error: 0 */
/* ##------$ WINNER 102 SPECIES #1 $------## */
genomestart 102
trait 1 0.1 0 0 0 0 0 0 0 
trait 2 0.2 0 0 0 0 0 0 0 
trait 3 0.3 0 0 0 0 0 0 0 
node 1 2 1 3
node 2 1 1 1
node 3 1 1 1
node 4 3 1 1
node 5 1 1 1
node 6 3 0 2
node 7 1 0 2
gene 2 1 6 -0.486871 0 1 -0.486871 1
gene 1 2 6 0.447485 0 2 0.447485 1
gene 3 3 6 0.0196537 0 3 0.0196537 1
gene 1 4 6 -0.88637 0 4 -0.88637 1
gene 1 5 6 -0.467961 0 5 -0.467961 1
gene 3 1 7 -0.418163 0 6 -0.418163 1
gene 2 2 7 0.240144 0 7 0.240144 1
gene 2 3 7 -0.366079 0 8 -0.366079 1
gene 1 4 7 -0.3995 0 9 -0.3995 1
gene 3 5 7 0.496922 0 10 0.496922 1
genomeend 102

/* Organism #103 Fitness: 4605 Error: 0 */
/* ##------$ WINNER 103 SPECIES #1 $------## */
genomestart 103
trait 1 0.1 0 0 0 0 0 0 0 
trait 2 0.2 0 0 0 0 0 0 0 
trait 3 0.3 0 0 0 0 0 0 0 
node 1 2 1 3
node 2 3 1 1
node 3 2 1 1
node 4 3 1 1
node 5 3 1 1
node 6 3 0 2
node 7 2 0 2
gene 1 1 6 0.0208097 0 1 0.0208097 1
gene 3 2 6 0.970066 0 2 0.970066 1
gene 3 3 6 0.205651 0 3 0.205651 1
gene 1 4 6 -0.371331 0 4 -0.371331 1
gene 2 5 6 -0.912184 0 5 -0.912184 1
gene 1 1 7 -0.78691 0 6 -0.78691 1
gene 3 2 7 -0.747849 0 7 -0.747849 1
gene 2 3 7 0.900736 0 8 0.900736 1
gene 2 4 7 0.137979 0 9 0.137979 1
gene 2 5 7 -0.415142 0 10 -0.415142 1
genomeend 103

/* Organism #104 Fitness: 4599 Error: 0 */
/* ##------$ WINNER 104 SPECIES #1 $------## */
genomestart 104
trait 1 0.1 0 0 0 0 0 0 0 
trait 2 0.2 0 0 0 0 0 0 0 
trait 3 0.3 0 0 0 0 0 0 0 
node 1 3 1 3
node 2 3 1 1
node 3 3 1 1
node 4 2 1 1
node 5 2 1 1
node 6 2 0 2
node 7 3 0 2
gene 1 1 6 0.974537 0 1 0.974537 1
gene 1 2 6 0.199943 0 2 0.199943 1
gene 3 3 6 -0.442881 0 3 -0.442881 1
gene 3 4 6 0.850943 0 4 0.850943 1
gene 2 5 6 -0.240724 0 5 -0.240724 1
gene 3 1 7 -0.0391624 0 6 -0.0391624 1
gene 2 2 7 0.55851 0 7 0.55851 1
gene 2 3 7 0.864207 0 8 0.864207 1
gene 3 4 7 0.00184737 0 9 0.00184737 1
gene 1 5 7 -0.792357 0 10 -0.792357 1
genomeend 104

/* Organism #105 Fitness: 4609 Error: 0 */
/* ##------$ WINNER 105 SPECIES #1 $------## */
genomestart 105
trait 1 0.1 0 0 0 0 0 0 0 
trait 2 0.2 0 0 0 0 0 0 0 
trait 3 0.3 0 0 0 0 0 0 0 
node 1 2 1 3
node 2 3 1 1
node 3 1 1 1
node 4 2 1 1
node 5 3 1 1
node 6 3 0 2
node 7 3 0 2
gene 3 1 6 -0.0147051 0 1 -0.0147051 1
gene 1 2 6 0.157938 0 2 0.157938 1
gene 2 3 6 -0.736504 0 3 -0.736504 1
gene 3 4 6 0.727654 0 4 0.727654 1
gene 3 5 6 0.899954 0 5 0.899954 1
gene 1 1 7 -0.384993 0 6 -0.384993 1
gene 1 2 7 -0.937682 0 7 -0.937682 1
gene 1 3 7 -0.995057 0 8 -0.995057 1
gene 2 4 7 0.832208 0 9 0.832208 1
gene 2 5 7 -0.0711771 0 10 -0.0711771 1
genomeend 105

/* Organism #106 Fitness: 4773 Error: 0 */
/* ##------$ WINNER 106 SPECIES #1 $------## */
genomestart 106
trait 1 0.1 0 0 0 0 0 0 0 
trait 2 0.2 0 0 0 0 0 0 0 
trait 3 0.3 0 0 0 0 0 0 0 
node 1 2 1 3
node 2 2 1 1
node 3 2 1 1
node 4 3 1 1
node 5 2 1 1
node 6 3 0 2
node 7 1 0 2
gene 1 1 6 -0.698091 0 1 -0.698091 1
gene 2 2 6 0.681504 0 2 0.681504 1
gene 2 3 6 0.97853 0 3 0.97853 1
gene 2 4 6 0.152033 0 4 0.152033 1
gene 1 5 6 -0.0859659 0 5 -0.0859659 1
gene 2 1 7 -0.0503413 0 6 -0.0503413 1
gene 3 2 7 0.998848 0 7 0.998848 1
gene 2 3 7 -0.233418 0 8 -0.233418 1
gene 3 4 7 -0.943371 0 9 -0.943371 1
gene 2 5 7 0.739597 0 10 0.739597 1
genomeend 106

/* Organism #107 Fitness: 4775 Error: 0 */
/* ##------$ WINNER 107 SPECIES #1 $------## */
genomestart 107
trait 1 0.1 0 0 0 0 0 0 0 
trait 2 0.2 0 0 0 0 0 0 0 
trait 3 0.3 0 0 0 0 0 0 0 
node 1 2 1 3
node 2 2 1 1
node 3 2 1 1
node 4 3 1 1
node 5 3 1 1
node 6 2 0 2
node 7 1 0 2
gene 1 1 6 -0.38333 0 1 -0.38333 1
gene 2 2 6 0.66864 0 2 0.66864 1
gene 2 3 6 -0.519389 0 3 -0.519389 1
gene 1 4 6 -0.160677 0 4 -0.160677 1
gene 3 5 6 -0.734673 0 5 -0.734673 1
gene 3 1 7 0.597092 0 6 0.597092 1
gene 1 2 7 0.38092 0 7 0.38092 1
gene 2 3 7 -0.226642 0 8 -0.226642 1
gene 2 4 7 0.995914 0 9 0.995914 1
gene 3 5 7 0.432755 0 10 0.432755 1
genomeend 107

/* Organism #108 Fitness: 4605 Error: 0 */
/* ##------$ WINNER 108 SPECIES #1 $------## */
genomestart 108
trait 1 0.1 0 0 0 0 0 0 0 
trait 2 0.2 0 0 0 0 0 0 0 
trait 3 0.3 0 0 0 0 0 0 0 
node 1 3 1 3
node 2 2 1 1
node 3 3 1 1
node 4 2 1 1
node 5 1 1 1
node 6 1 0 2
node 7 1 0 2
gene 1 1 6 0.365586 0 1 0.365586 1
gene 1 2 6 0.115101 0 2 0.115101 1
gene 1 3 6 -0.91477 0 3 -0.91477 1
gene 1 4 6 -0.0715293 0 4 -0.0715293 1
gene 1 5 6 -0.284653 0 5 -0.284653 1
gene 2 1 7 0.0886484 0 6 0.0886484 1
gene 2 2 7 0.305041 0 7 0.305041 1
gene 2 3 7 -0.551547 0 8 -0.551547 1
gene 3 4 7 -0.00245277 0 9 -0.00245277 1
gene 2 5 7 -0.0184197 0 10 -0.0184197 1
genomeend 108

/* Organism #109 Fitness: 4693 Error: 0 */
/* ##------$ WINNER 109 SPECIES #1 $------## */
genomestart 109
trait 1 0.1 0 0 0 0 0 0 0 
trait 2 0.2 0 0 0 0 0 0 0 
trait 3 0.3 0 0 0 0 0 0 0 
node 1 2 1 3
node 2 2 1 1
node 3 2 1 1
node 4 3 1 1
node 5 1 1 1
node 6 1 0 2
node 7 3 0 2
gene 3 1 6 -0.83627 0 1 -0.83627 1
gene 1 2 6 -0.046248 0 2 -0.046248 1
gene 2 3 6 0.172351 0 3 0.172351 1
gene 2 4 6 -0.301465 0 4 -0.301465 1
gene 3 5 6 -0.0694482 0 5 -0.0694482 1
gene 1 1 7 -0.606495 0 6 -0.606495 1
gene 3 2 7 0.21654 0 7 0.21654 1
gene 3 3 7 0.889273 0 8 0.889273 1
gene 1 4 7 -0.0761342 0 9 -0.0761342 1
gene 3 5 7 0.117287 0 10 0.117287 1
genomeend 109

/* Organism #110 Fitness: 4690 Error: 0 */
/* ##------$ WINNER 110 SPECIES #1 $------## */
genomestart 110
trait 1 0.1 0 0 0 0 0 0 0 
trait 2 0.2 0 0 0 0 0 0 0 
trait 3 0.3 0 0 0 0 0 0 0 
node 1 1 1 3
node 2 2 1 1
node 3 1 1 1
node 4 3 1 1
node 5 2 1 1
node 6 2 0 2
node 7 3 0 2
gene 3 1 6 -0.41735 0 1 -0.41735 1
gene 3 2 6 -0.969785 0 2 -0.969785 1
gene 2 3 6 0.81043 0 3 0.81043 1
gene 1 4 6 0.500597 0 4 0.500597 1
gene 3 5 6 -0.596098 0 5 -0.596098 1
gene 2 1 7 -0.650494 0 6 -0.650494 1
gene 2 2 7 0.64837 0 7 0.64837 1
gene 3 3 7 0.704902 0 8 0.704902 1
gene 1 4 7 0.0933898 0 9 0.0933898 1
gene 3 5 7 0.340854 0 10 0.340854 1
genomeend 110

/* Organism #111 Fitness: 4770 Error: 0 */
/* ##------$ WINNER 111 SPECIES #1 $------## */
genomestart 111
trait 1 0.1 0 0 0 0 0 0 0 
trait 2 0.2 0 0 0 0 0 0 0 
trait 3 0.3 0 0 0 0 0 0 0 
node 1 1 1 3
node 2 2 1 1
node 3 3 1 1
node 4 3 1 1
node 5 2 1 1
node 6 3 0 2
node 7 2 0 2
gene 2 1 6 -0.649762 0 1 -0.649762 1
gene 2 2 6 -0.631514 0 2 -0.631514 1
gene 1 3 6 -0.400527 0 3 -0.400527 1
gene 1 4 6 0.185112 0 4 0.185112 1
gene 1 5 6 0.299555 0 5 0.299555 1
gene 1 1 7 -0.0750201 0 6 -0.0750201 1
gene 2 2 7 0.0922568 0 7 0.0922568 1
gene 2 3 7 0.0354038 0 8 0.0354038 1
gene 2 4 7 0.75312 0 9 0.75312 1
gene 1 5 7 -0.0834232 0 10 -0.0834232 1
genomeend 111

/* Organism #112 Fitness: 4745 Error: 0 */
/* ##------$ WINNER 112 SPECIES #1 $------## */
genomestart 112
trait 1 0.1 0 0 0 0 0 0 0 
trait 2 0.2 0 0 0 0 0 0 0 
trait 3 0.3 0 0 0 0 0 0 0 
node 1 1 1 3
node 2 1 1 1
node 3 1 1 1
node 4 3 1 1
node 5 1 1 1
node 6 2 0 2
node 7 3 0 2
gene 1 1 6 -0.673836 0 1 -0.673836 1
gene 3 2 6 0.639219 0 2 0.639219 1
gene 3 3 6 0.0185146 0 3 0.0185146 1
gene 3 4 6 0.018563 0 4 0.018563 1
gene 1 5 6 -0.063996 0 5 -0.063996 1
gene 2 1 7 -0.175884 0 6 -0.175884 1
gene 2 2 7 0.439172 0 7 0.439172 1
gene 3 3 7 0.426266 0 8 0.426266 1
gene 3 4 7 -0.69747 0 9 -0.69747 1
gene 1 5 7 0.380543 0 10 0.380543 1
genomeend 112

/* Organism #113 Fitness: 4598 Error: 0 */
/* ##------$ WINNER 113 SPECIES #1 $------## */
genomestart 113
trait 1 0.1 0 0 0 0 0 0 0 
trait 2 0.2 0 0 0 0 0 0 0 
trait 3 0.3 0 0 0 0 0 0 0 
node 1 2 1 3
node 2 2 1 1
node 3 3 1 1
node 4 2 1 1
node 5 2 1 1
node 6 3 0 2
node 7 2 0 2
gene 3 1 6 0.932429 0 1 0.932429 1
gene 2 2 6 -0.0459035 0 2 -0.0459035 1
gene 3 3 6 -0.00744781 0 3 -0.00744781 1
gene 2 4 6 -0.547848 0 4 -0.547848 1
gene 2 5 6 0.955132 0 5 0.955132 1
gene 3 1 7 0.000474661 0 6 0.000474661 1
gene 1 2 7 0.906257 0 7 0.906257 1
gene 3 3 7 -0.0105223 0 8 -0.0105223 1
gene 3 4 7 0.167472 0 9 0.167472 1
gene 2 5 7 -0.0221415 0 10 -0.0221415 1
genomeend 113

/* Organism #114 Fitness: 4772 Error: 0 */
/* ##------$ WINNER 114 SPECIES #1 $------## */
genomestart 114
trait 1 0.1 0 0 0 0 0 0 0 
trait 2 0.2 0 0 0 0 0 0 0 
trait 3 0.3 0 0 0 0 0 0 0 
node 1 2 1 3
node 2 3 1 1
node 3 3 1 1
node 4 2 1 1
node 5 3 1 1
node 6 1 0 2
node 7 3 0 2
gene 3 1 6 0.0411985 0 1 0.0411985 1
gene 3 2 6 -0.139169 0 2 -0.139169 1
gene 2 3 6 -0.631413 0 3 -0.631413 1
gene 1 4 6 -0.406142 0 4 -0.406142 1
gene 3 5 6 -0.943207 0 5 -0.943207 1
gene 3 1 7 0.322298 0 6 0.322298 1
gene 3 2 7 -0.928888 0 7 -0.928888 1
gene 2 3 7 0.900159 0 8 0.900159 1
gene 1 4 7 -0.285078 0 9 -0.285078 1
gene 1 5 7 -0.289604 0 10 -0.289604 1
genomeend 114

/* Organism #115 Fitness: 4604 Error: 0 */
/* ##------$ WINNER 115 SPECIES #1 $------## */
genomestart 115
trait 1 0.1 0 0 0 0 0 0 0 
trait 2 0.2 0 0 0 0 0 0 0 
trait 3 0.3 0 0 0 0 0 0 0 
node 1 1 1 3
node 2 1 1 1
node 3 2 1 1
node 4 1 1 1
node 5 3 1 1
node 6 1 0 2
node 7 1 0 2
gene 2 1 6 0.0483305 0 1 0.0483305 1
gene 2 2 6 0.312214 0 2 0.312214 1
gene 3 3 6 -0.744071 0 3 -0.744071 1
gene 1 4 6 -0.0361398 0 4 -0.0361398 1
gene 3 5 6 0.835849 0 5 0.835849 1
gene 1 1 7 -0.743085 0 6 -0.743085 1
gene 2 2 7 0.0556028 0 7 0.0556028 1
gene 2 3 7 -0.947311 0 8 -0.947311 1
gene 1 4 7 0.324998 0 9 0.324998 1
gene 2 5 7 -0.923079 0 10 -0.923079 1
genomeend 115

/* Organism #116 Fitness: 4712 Error: 0 */
/* ##------$ WINNER 116 SPECIES #1 $------## */
genomestart 116
trait 1 0.1 0 0 0 0 0 0 0 
trait 2 0.2 0 0 0 0 0 0 0 
trait 3 0.3 0 0 0 0 0 0 0 
node 1 1 1 3
node 2 3 1 1
node 3 3 1 1
node 4 3 1 1
node 5 1 1 1
node 6 1 0 2
node 7 2 0 2
gene 2 1 6 -0.728879 0 1 -0.728879 1
gene 1 2 6 -0.0404927 0 2 -0.0404927 1
gene 1 3 6 0.0840497 0 3 0.0840497 1
gene 3 4 6 -0.530673 0 4 -0.530673 1
gene 1 5 6 -0.585268 0 5 -0.585268 1
gene 1 1 7 -0.344494 0 6 -0.344494 1
gene 1 2 7 0.527422 0 7 0.527422 1
gene 2 3 7 -0.179039 0 8 -0.179039 1
gene 3 4 7 0.639139 0 9 0.639139 1
gene 3 5 7 0.775028 0 10 0.775028 1
genomeend 116

/* Organism #117 Fitness: 4603 Error: 0 */
/* ##------$ WINNER 117 SPECIES #1 $------## */
genomestart 117
trait 1 0.1 0 0 0 0 0 0 0 
trait 2 0.2 0 0 0 0 0 0 0 
trait 3 0.3 0 0 0 0 0 0 0 
node 1 2 1 3
node 2 3 1 1
node 3 1 1 1
node 4 1 1 1
node 5 1 1 1
node 6 1 0 2
node 7 2 0 2
gene 2 1 6 0.444669 0 1 0.444669 1
gene 3 2 6 -0.588513 0 2 -0.588513 1
gene 1 3 6 -0.328546 0 3 -0.328546 1
gene 1 4 6 0.857093 0 4 0.857093 1
gene 3 5 6 0.012215 0 5 0.012215 1
gene 3 1 7 0.069695 0 6 0.069695 1
gene 1 2 7 0.0106465 0 7 0.0106465 1
gene 1 3 7 0.203226 0 8 0.203226 1
gene 2 4 7 0.170049 0 9 0.170049 1
gene 2 5 7 -0.397857 0 10 -0.397857 1
genomeend 117

/* Organism #118 Fitness: 4639 Error: 0 */
/* ##------$ WINNER 118 SPECIES #1 $------## */
genomestart 118
trait 1 0.1 0 0 0 0 0 0 0 
trait 2 0.2 0 0 0 0 0 0 0 
trait 3 0.3 0 0 0 0 0 0 0 
node 1 2 1 3
node 2 1 1 1
node 3 1 1 1
node 4 3 1 1
node 5 1 1 1
node 6 3 0 2
node 7 2 0 2
gene 1 1 6 -0.196648 0 1 -0.196648 1
gene 2 2 6 -0.157245 0 2 -0.157245 1
gene 2 3 6 0.144939 0 3 0.144939 1
gene 3 4 6 0.842334 0 4 0.842334 1
gene 3 5 6 -0.513774 0 5 -0.513774 1
gene 1 1 7 -0.848735 0 6 -0.848735 1
gene 3 2 7 -0.402716 0 7 -0.402716 1
gene 2 3 7 0.372694 0 8 0.372694 1
gene 1 4 7 0.963783 0 9 0.963783 1
gene 2 5 7 0.0830334 0 10 0.0830334 1
genomeend 118

/* Organism #119 Fitness: 4776 Error: 0 */
/* ##------$ WINNER 119 SPECIES #1 $------## */
genomestart 119
trait 1 0.1 0 0 0 0 0 0 0 
trait 2 0.2 0 0 0 0 0 0 0 
trait 3 0.3 0 0 0 0 0 0 0 
node 1 1 1 3
node 2 3 1 1
node 3 3 1 1
node 4 2 1 1
node 5 2 1 1
node 6 2 0 2
node 7 3 0 2
gene 1 1 6 -0.193355 0 1 -0.193355 1
gene 2 2 6 -0.56914 0 2 -0.56914 1
gene 1 3 6 -0.988373 0 3 -0.988373 1
gene 1 4 6 -0.193392 0 4 -0.193392 1
gene 1 5 6 0.062224 0 5 0.062224 1
gene 1 1 7 0.20527 0 6 0.20527 1
gene 2 2 7 0.366866 0 7 0.366866 1
gene 2 3 7 -0.39056 0 8 -0.39056 1
gene 3 4 7 0.352399 0 9 0.352399 1
gene 3 5 7 0.571149 0 10 0.571149 1
genomeend 119

/* Organism #120 Fitness: 4600 Error: 0 */
/* ##------$ WINNER 120 SPECIES #1 $------## */
genomestart 120
trait 1 0.1 0 0 0 0 0 0 0 
trait 2 0.2 0 0 0 0 0 0 0 
trait 3 0.3 0 0 0 0 0 0 0 
node 1 1 1 3
node 2 3 1 1
node 3 3 1 1
node 4 2 1 1
node 5 1 1 1
node 6 2 0 2
node 7 2 0 2
gene 2 1 6 0.939799 0 1 0.939799 1
gene 1 2 6 -0.613841 0 2 -0.613841 1
gene 2 3 6 0.935463 0 3 0.935463 1
gene 1 4 6 0.650197 0 4 0.650197 1
gene 2 5 6 0.954481 0 5 0.954481 1
gene 2 1 7 -0.72352 0 6 -0.72352 1
gene 2 2 7 -0.623552 0 7 -0.623552 1
gene 3 3 7 -0.328916 0 8 -0.328916 1
gene 2 4 7 -0.492323 0 9 -0.492323 1
gene 2 5 7 -0.206431 0 10 -0.206431 1
genomeend 120

/* Organism #121 Fitness: 4697 Error: 0 */
/* ##------$ WINNER 121 SPECIES #1 $------## */
genomestart 121
trait 1 0.1 0 0 0 0 0 0 0 
trait 2 0.2 0 0 0 0 0 0 0 
trait 3 0.3 0 0 0 0 0 0 0 
node 1 1 1 3
node 2 3 1 1
node 3 2 1 1
node 4 2 1 1
node 5 2 1 1
node 6 2 0 2
node 7 3 0 2
gene 1 1 6 -0.81197 0 1 -0.81197 1
gene 1 2 6 0.52029 0 2 0.52029 1
gene 1 3 6 0.700279 0 3 0.700279 1
gene 2 4 6 0.787434 0 4 0.787434 1
gene 1 5 6 -0.639047 0 5 -0.639047 1
gene 3 1 7 -0.520609 0 6 -0.520609 1
gene 3 2 7 0.832685 0 7 0.832685 1
gene 1 3 7 -0.801333 0 8 -0.801333 1
gene 2 4 7 0.837373 0 9 0.837373 1
gene 2 5 7 0.552283 0 10 0.552283 1
genomeend 121

/* Organism #122 Fitness: 4600 Error: 0 */
/* ##------$ WINNER 122 SPECIES #1 $------## */
genomestart 122
trait 1 0.1 0 0 0 0 0 0 0 
trait 2 0.2 0 0 0 0 0 0 0 
trait 3 0.3 0 0 0 0 0 0 0 
node 1 1 1 3
node 2 3 1 1
node 3 1 1 1
node 4 3 1 1
node 5 3 1 1
node 6 2 0 2
node 7 2 0 2
gene 3 1 6 0.384289 0 1 0.384289 1
gene 1 2 6 -0.96187 0 2 -0.96187 1
gene 2 3 6 -0.756939 0 3 -0.756939 1
gene 2 4 6 -0.908755 0 4 -0.908755 1
gene 3 5 6 0.705371 0 5 0.705371 1
gene 3 1 7 -0.360836 0 6 -0.360836 1
gene 2 2 7 -0.391536 0 7 -0.391536 1
gene 1 3 7 -0.651711 0 8 -0.651711 1
gene 2 4 7 0.297581 0 9 0.297581 1
gene 2 5 7 -0.923144 0 10 -0.923144 1
genomeend 122

/* Organism #123 Fitness: 4601 Error: 0 */
/* ##------$ WINNER 123 SPECIES #1 $------## */
genomestart 123
trait 1 0.1 0 0 0 0 0 0 0 
trait 2 0.2 0 0 0 0 0 0 0 
trait 3 0.3 0 0 0 0 0 0 0 
node 1 2 1 3
node 2 1 1 1
node 3 2 1 1
node 4 1 1 1
node 5 1 1 1
node 6 3 0 2
node 7 2 0 2
gene 1 1 6 0.920662 0 1 0.920662 1
gene 2 2 6 -0.181256 0 2 -0.181256 1
gene 1 3 6 -0.664293 0 3 -0.664293 1
gene 1 4 6 0.329634 0 4 0.329634 1
gene 1 5 6 -0.0309712 0 5 -0.0309712 1
gene 3 1 7 -0.912337 0 6 -0.912337 1
gene 1 2 7 -0.590756 0 7 -0.590756 1
gene 1 3 7 -0.46411 0 8 -0.46411 1
gene 2 4 7 0.880502 0 9 0.880502 1
gene 1 5 7 -0.794533 0 10 -0.794533 1
genomeend 123

/* Organism #124 Fitness: 4691 Error: 0 */
/* ##------$ WINNER 124 SPECIES #1 $------## */
genomestart 124
trait 1 0.1 0 0 0 0 0 0 0 
trait 2 0.2 0 0 0 0 0 0 0 
trait 3 0.3 0 0 0 0 0 0 0 
node 1 1 1 3
node 2 3 1 1
node 3 2 1 1
node 4 2 1 1
node 5 2 1 1
node 6 2 0 2
node 7 2 0 2
gene 1 1 6 -0.686536 0 1 -0.686536 1
gene 3 2 6 0.681069 0 2 0.681069 1
gene 2 3 6 0.774244 0 3 0.774244 1
gene 1 4 6 -0.309098 0 4 -0.309098 1
gene 3 5 6 -0.266831 0 5 -0.266831 1
gene 3 1 7 -0.711082 0 6 -0.711082 1
gene 2 2 7 -0.871661 0 7 -0.871661 1
gene 2 3 7 0.789506 0 8 0.789506 1
gene 3 4 7 0.338951 0 9 0.338951 1
gene 2 5 7 0.910047 0 10 0.910047 1
genomeend 124

/* Organism #125 Fitness: 4600 Error: 0 */
/* ##------$ WINNER 125 SPECIES #1 $------## */
genomestart 125
trait 1 0.1 0 0 0 0 0 0 0 
trait 2 0.2 0 0 0 0 0 0 0 
trait 3 0.3 0 0 0 0 0 0 0 
node 1 3 1 3
node 2 3 1 1
node 3 2 1 1
node 4 2 1 1
node 5 2 1 1
node 6 2 0 2
node 7 2 0 2
gene 3 1 6 0.295322 0 1 0.295322 1
gene 2 2 6 -0.934773 0 2 -0.934773 1
gene 3 3 6 0.40158 0 3 0.40158 1
gene 1 4 6 -0.274379 0 4 -0.274379 1
gene 1 5 6 -0.481553 0 5 -0.481553 1
gene 1 1 7 -0.657885 0 6 -0.657885 1
gene 3 2 7 -0.0538676 0 7 -0.0538676 1
gene 1 3 7 0.530275 0 8 0.530275 1
gene 2 4 7 0.859923 0 9 0.859923 1
gene 3 5 7 0.507837 0 10 0.507837 1
genomeend 125

/* Organism #126 Fitness: 4606 Error: 0 */
/* ##------$ WINNER 126 SPECIES #1 $------## */
genomestart 126
trait 1 0.1 0 0 0 0 0 0 0 
trait 2 0.2 0 0 0 0 0 0 0 
trait 3 0.3 0 0 0 0 0 0 0 
node 1 2 1 3
node 2 3 1 1
node 3 2 1 1
node 4 1 1 1
node 5 1 1 1
node 6 1 0 2
node 7 1 0 2
gene 2 1 6 0.456624 0 1 0.456624 1
gene 1 2 6 0.0413267 0 2 0.0413267 1
gene 3 3 6 -0.371815 0 3 -0.371815 1
gene 2 4 6 0.745593 0 4 0.745593 1
gene 1 5 6 -0.00707347 0 5 -0.00707347 1
gene 3 1 7 0.207362 0 6 0.207362 1
gene 1 2 7 -0.760038 0 7 -0.760038 1
gene 3 3 7 0.0163046 0 8 0.0163046 1
gene 1 4 7 0.681834 0 9 0.681834 1
gene 2 5 7 0.683017 0 10 0.683017 1
genomeend 126

/* Organism #127 Fitness: 4602 Error: 0 */
/* ##------$ WINNER 127 SPECIES #1 $------## */
genomestart 127
trait 1 0.1 0 0 0 0 0 0 0 
trait 2 0.2 0 0 0 0 0 0 0 
trait 3 0.3 0 0 0 0 0 0 0 
node 1 2 1 3
node 2 3 1 1
node 3 1 1 1
node 4 2 1 1
node 5 3 1 1
node 6 2 0 2
node 7 3 0 2
gene 2 1 6 0.272754 0 1 0.272754 1
gene 2 2 6 0.442986 0 2 0.442986 1
gene 2 3 6 0.768817 0 3 0.768817 1
gene 2 4 6 -0.670478 0 4 -0.670478 1
gene 1 5 6 -0.160337 0 5 -0.160337 1
gene 1 1 7 -0.150204 0 6 -0.150204 1
gene 1 2 7 0.755616 0 7 0.755616 1
gene 1 3 7 -0.527958 0 8 -0.527958 1
gene 3 4 7 -0.459197 0 9 -0.459197 1
gene 2 5 7 0.0811129 0 10 0.0811129 1
genomeend 127

/* Organism #128 Fitness: 4600 Error: 0 */
/* ##------$ WINNER 128 SPECIES #1 $------## */
genomestart 128
trait 1 0.1 0 0 0 0 0 0 0 
trait 2 0.2 0 0 0 0 0 0 0 
trait 3 0.3 0 0 0 0 0 0 0 
node 1 3 1 3
node 2 2 1 1
node 3 2 1 1
node 4 3 1 1
node 5 3 1 1
node 6 2 0 2
node 7 2 0 2
gene 1 1 6 0.38634 0 1 0.38634 1
gene 3 2 6 0.671595 0 2 0.671595 1
gene 2 3 6 -0.605665 0 3 -0.605665 1
gene 2 4 6 -0.425532 0 4 -0.425532 1
gene 3 5 6 -0.676699 0 5 -0.676699 1
gene 3 1 7 -0.361625 0 6 -0.361625 1
gene 3 2 7 -0.0472209 0 7 -0.0472209 1
gene 1 3 7 0.467469 0 8 0.467469 1
gene 2 4 7 0.96984 0 9 0.96984 1
gene 1 5 7 0.765521 0 10 0.765521 1
genomeend 128

/* Organism #129 Fitness: 4599 Error: 0 */
/* ##------$ WINNER 129 SPECIES #1 $------## */
genomestart 129
trait 1 0.1 0 0 0 0 0 0 0 
trait 2 0.2 0 0 0 0 0 0 0 
trait 3 0.3 0 0 0 0 0 0 0 
node 1 2 1 3
node 2 2 1 1
node 3 1 1 1
node 4 1 1 1
node 5 3 1 1
node 6 1 0 2
node 7 3 0 2
gene 3 1 6 0.774205 0 1 0.774205 1
gene 1 2 6 0.604395 0 2 0.604395 1
gene 2 3 6 -0.515497 0 3 -0.515497 1
gene 2 4 6 -0.388188 0 4 -0.388188 1
gene 3 5 6 0.2742 0 5 0.2742 1
gene 3 1 7 -0.193683 0 6 -0.193683 1
gene 3 2 7 0.251229 0 7 0.251229 1
gene 3 3 7 -0.470697 0 8 -0.470697 1
gene 3 4 7 -0.927852 0 9 -0.927852 1
gene 1 5 7 -0.0708463 0 10 -0.0708463 1
genomeend 129

/* Organism #130 Fitness: 4601 Error: 0 */
/* ##------$ WINNER 130 SPECIES #1 $------## */
genomestart 130
trait 1 0.1 0 0 0 0 0 0 0 
trait 2 0.2 0 0 0 0 0 0 0 
trait 3 0.3 0 0 0 0 0 0 0 
node 1 3 1 3
node 2 3 1 1
node 3 2 1 1
node 4 1 1 1
node 5 2 1 1
node 6 3 0 2
node 7 1 0 2
gene 1 1 6 0.942657 0 1 0.942657 1
gene 2 2 6 0.196844 0 2 0.196844 1
gene 1 3 6 -0.710918 0 3 -0.710918 1
gene 3 4 6 0.627035 0 4 0.627035 1
gene 2 5 6 -0.476257 0 5 -0.476257 1
gene 3 1 7 -0.884535 0 6 -0.884535 1
gene 3 2 7 0.384741 0 7 0.384741 1
gene 2 3 7 -0.19825 0 8 -0.19825 1
gene 1 4 7 0.633664 0 9 0.633664 1
gene 2 5 7 -0.498013 0 10 -0.498013 1
genomeend 130

/* Organism #131 Fitness: 4600 Error: 0 */
/* ##------$ WINNER 131 SPECIES #1 $------## */
genomestart 131
trait 1 0.1 0 0 0 0 0 0 0 
trait 2 0.2 0 0 0 0 0 0 0 
trait 3 0.3 0 0 0 0 0 0 0 
node 1 2 1 3
node 2 3 1 1
node 3 3 1 1
node 4 3 1 1
node 5 1 1 1
node 6 1 0 2
node 7 3 0 2
gene 3 1 6 0.421615 0 1 0.421615 1
gene 3 2 6 -0.225936 0 2 -0.225936 1
gene 3 3 6 -0.134299 0 3 -0.134299 1
gene 1 4 6 0.357987 0 4 0.357987 1
gene 1 5 6 0.801707 0 5 0.801707 1
gene 2 1 7 -0.573467 0 6 -0.573467 1
gene 2 2 7 0.645746 0 7 0.645746 1
gene 2 3 7 0.0776855 0 8 0.0776855 1
gene 1 4 7 -0.554359 0 9 -0.554359 1
gene 2 5 7 0.536246 0 10 0.536246 1
genomeend 131

/* Organism #132 Fitness: 4600 Error: 0 */
/* ##------$ WINNER 132 SPECIES #1 $------## */
genomestart 132
trait 1 0.1 0 0 0 0 0 0 0 
trait 2 0.2 0 0 0 0 0 0 0 
trait 3 0.3 0 0 0 0 0 0 0 
node 1 3 1 3
node 2 3 1 1
node 3 1 1 1
node 4 3 1 1
node 5 3 1 1
node 6 3 0 2
node 7 3 0 2
gene 3 1 6 0.759295 0 1 0.759295 1
gene 1 2 6 0.536493 0 2 0.536493 1
gene 1 3 6 0.913308 0 3 0.913308 1
gene 2 4 6 -0.144477 0 4 -0.144477 1
gene 1 5 6 -0.717057 0 5 -0.717057 1
gene 1 1 7 -0.340606 0 6 -0.340606 1
gene 1 2 7 -0.253847 0 7 -0.253847 1
gene 1 3 7 -0.877693 0 8 -0.877693 1
gene 1 4 7 0.50906 0 9 0.50906 1
gene 1 5 7 -0.997076 0 10 -0.997076 1
genomeend 132

/* Organism #133 Fitness: 4912 Error: 0 */
/* ##------$ WINNER 133 SPECIES #1 $------## */
genomestart 133
trait 1 0.1 0 0 0 0 0 0 0 
trait 2 0.2 0 0 0 0 0 0 0 
trait 3 0.3 0 0 0 0 0 0 0 
node 1 1 1 3
node 2 1 1 1
node 3 1 1 1
node 4 2 1 1
node 5 3 1 1
node 6 2 0 2
node 7 2 0 2
gene 3 1 6 0.0917498 0 1 0.0917498 1
gene 2 2 6 -0.720171 0 2 -0.720171 1
gene 2 3 6 -0.181025 0 3 -0.181025 1
gene 3 4 6 0.716512 0 4 0.716512 1
gene 2 5 6 0.493048 0 5 0.493048 1
gene 3 1 7 0.143265 0 6 0.143265 1
gene 1 2 7 0.534886 0 7 0.534886 1
gene 2 3 7 -0.65799 0 8 -0.65799 1
gene 2 4 7 0.357044 0 9 0.357044 1
gene 3 5 7 -0.251151 0 10 -0.251151 1
genomeend 133

/* Organism #134 Fitness: 4605 Error: 0 */
/* ##------$ WINNER 134 SPECIES #1 $------## */
genomestart 134
trait 1 0.1 0 0 0 0 0 0 0 
trait 2 0.2 0 0 0 0 0 0 0 
trait 3 0.3 0 0 0 0 0 0 0 
node 1 3 1 3
node 2 3 1 1
node 3 2 1 1
node 4 3 1 1
node 5 2 1 1
node 6 2 0 2
node 7 1 0 2
gene 3 1 6 0.0336451 0 1 0.0336451 1
gene 2 2 6 -0.349089 0 2 -0.349089 1
gene 2 3 6 0.484496 0 3 0.484496 1
gene 1 4 6 0.415195 0 4 0.415195 1
gene 1 5 6 -0.559096 0 5 -0.559096 1
gene 2 1 7 -0.640641 0 6 -0.640641 1
gene 3 2 7 -0.874369 0 7 -0.874369 1
gene 2 3 7 -0.288748 0 8 -0.288748 1
gene 2 4 7 0.843501 0 9 0.843501 1
gene 2 5 7 0.370054 0 10 0.370054 1
genomeend 134

/* Organism #135 Fitness: 4599 Error: 0 */
/* ##------$ WINNER 135 SPECIES #1 $------## */
genomestart 135
trait 1 0.1 0 0 0 0 0 0 0 
trait 2 0.2 0 0 0 0 0 0 0 
trait 3 0.3 0 0 0 0 0 0 0 
node 1 2 1 3
node 2 1 1 1
node 3 2 1 1
node 4 1 1 1
node 5 2 1 1
node 6 3 0 2
node 7 2 0 2
gene 2 1 6 0.806611 0 1 0.806611 1
gene 3 2 6 -0.625841 0 2 -0.625841 1
gene 3 3 6 -0.290561 0 3 -0.290561 1
gene 1 4 6 -0.0760077 0 4 -0.0760077 1
gene 2 5 6 0.457156 0 5 0.457156 1
gene 1 1 7 -0.212845 0 6 -0.212845 1
gene 2 2 7 -0.751995 0 7 -0.751995 1
gene 2 3 7 0.785705 0 8 0.785705 1
gene 1 4 7 -0.086582 0 9 -0.086582 1
gene 3 5 7 0.233369 0 10 0.233369 1
genomeend 135

/* Organism #136 Fitness: 4776 Error: 0 */
/* ##------$ WINNER 136 SPECIES #1 $------## */
genomestart 136
trait 1 0.1 0 0 0 0 0 0 0 
trait 2 0.2 0 0 0 0 0 0 0 
trait 3 0.3 0 0 0 0 0 0 0 
node 1 2 1 3
node 2 1 1 1
node 3 1 1 1
node 4 1 1 1
node 5 3 1 1
node 6 2 0 2
node 7 1 0 2
gene 1 1 6 -0.735865 0 1 -0.735865 1
gene 3 2 6 0.679144 0 2 0.679144 1
gene 3 3 6 0.343283 0 3 0.343283 1
gene 1 4 6 -0.518208 0 4 -0.518208 1
gene 1 5 6 -0.592146 0 5 -0.592146 1
gene 3 1 7 0.162587 0 6 0.162587 1
gene 3 2 7 0.185424 0 7 0.185424 1
gene 3 3 7 0.340803 0 8 0.340803 1
gene 3 4 7 -0.0126869 0 9 -0.0126869 1
gene 1 5 7 0.356467 0 10 0.356467 1
genomeend 136

/* Organism #137 Fitness: 4600 Error: 0 */
/* ##------$ WINNER 137 SPECIES #1 $------## */
genomestart 137
trait 1 0.1 0 0 0 0 0 0 0 
trait 2 0.2 0 0 0 0 0 0 0 
trait 3 0.3 0 0 0 0 0 0 0 
node 1 3 1 3
node 2 2 1 1
node 3 2 1 1
node 4 1 1 1
node 5 3 1 1
node 6 1 0 2
node 7 2 0 2
gene 2 1 6 0.762176 0 1 0.762176 1
gene 1 2 6 0.768036 0 2 0.768036 1
gene 2 3 6 -0.0214474 0 3 -0.0214474 1
gene 1 4 6 -0.28616 0 4 -0.28616 1
gene 1 5 6 0.364124 0 5 0.364124 1
gene 2 1 7 -0.766654 0 6 -0.766654 1
gene 1 2 7 0.133617 0 7 0.133617 1
gene 3 3 7 -0.00265181 0 8 -0.00265181 1
gene 2 4 7 -0.206779 0 9 -0.206779 1
gene 1 5 7 0.0456324 0 10 0.0456324 1
genomeend 137

/* Organism #138 Fitness: 4600 Error: 0 */
/* ##------$ WINNER 138 SPECIES #1 $------## */
genomestart 138
trait 1 0.1 0 0 0 0 0 0 0 
trait 2 0.2 0 0 0 0 0 0 0 
trait 3 0.3 0 0 0 0 0 0 0 
node 1 2 1 3
node 2 1 1 1
node 3 1 1 1
node 4 1 1 1
node 5 2 1 1
node 6 3 0 2
node 7 2 0 2
gene 3 1 6 0.437716 0 1 0.437716 1
gene 3 2 6 -0.750906 0 2 -0.750906 1
gene 3 3 6 0.36145 0 3 0.36145 1
gene 3 4 6 0.777881 0 4 0.777881 1
gene 3 5 6 0.737361 0 5 0.737361 1
gene 1 1 7 -0.813295 0 6 -0.813295 1
gene 2 2 7 -0.709489 0 7 -0.709489 1
gene 1 3 7 0.473924 0 8 0.473924 1
gene 3 4 7 0.800373 0 9 0.800373 1
gene 3 5 7 -0.301542 0 10 -0.301542 1
genomeend 138

/* Organism #139 Fitness: 4735 Error: 0 */
/* ##------$ WINNER 139 SPECIES #1 $------## */
genomestart 139
trait 1 0.1 0 0 0 0 0 0 0 
trait 2 0.2 0 0 0 0 0 0 0 
trait 3 0.3 0 0 0 0 0 0 0 
node 1 1 1 3
node 2 2 1 1
node 3 1 1 1
node 4 2 1 1
node 5 1 1 1
node 6 3 0 2
node 7 3 0 2
gene 2 1 6 0.073443 0 1 0.073443 1
gene 3 2 6 0.648298 0 2 0.648298 1
gene 3 3 6 0.851305 0 3 0.851305 1
gene 2 4 6 0.342946 0 4 0.342946 1
gene 3 5 6 0.702604 0 5 0.702604 1
gene 3 1 7 0.607246 0 6 0.607246 1
gene 1 2 7 -0.899336 0 7 -0.899336 1
gene 3 3 7 -0.716782 0 8 -0.716782 1
gene 3 4 7 0.930066 0 9 0.930066 1
gene 3 5 7 -0.769201 0 10 -0.769201 1
genomeend 139

/* Organism #140 Fitness: 4608 Error: 0 */
/* ##------$ WINNER 140 SPECIES #1 $------## */
genomestart 140
trait 1 0.1 0 0 0 0 0 0 0 
trait 2 0.2 0 0 0 0 0 0 0 
trait 3 0.3 0 0 0 0 0 0 0 
node 1 2 1 3
node 2 1 1 1
node 3 3 1 1
node 4 2 1 1
node 5 1 1 1
node 6 3 0 2
node 7 3 0 2
gene 1 1 6 0.471922 0 1 0.471922 1
gene 2 2 6 0.312922 0 2 0.312922 1
gene 3 3 6 0.305566 0 3 0.305566 1
gene 3 4 6 -0.127249 0 4 -0.127249 1
gene 3 5 6 0.992665 0 5 0.992665 1
gene 3 1 7 0.294796 0 6 0.294796 1
gene 2 2 7 -0.404784 0 7 -0.404784 1
gene 1 3 7 0.00730469 0 8 0.00730469 1
gene 1 4 7 -0.347417 0 9 -0.347417 1
gene 2 5 7 0.859044 0 10 0.859044 1
genomeend 140

/* Organism #141 Fitness: 4600 Error: 0 */
/* ##------$ WINNER 141 SPECIES #1 $------## */
genomestart 141
trait 1 0.1 0 0 0 0 0 0 0 
trait 2 0.2 0 0 0 0 0 0 0 
trait 3 0.3 0 0 0 0 0 0 0 
node 1 3 1 3
node 2 2 1 1
node 3 3 1 1
node 4 2 1 1
node 5 1 1 1
node 6 3 0 2
node 7 3 0 2
gene 3 1 6 0.546008 0 1 0.546008 1
gene 3 2 6 -0.201569 0 2 -0.201569 1
gene 3 3 6 0.412925 0 3 0.412925 1
gene 1 4 6 -0.777036 0 4 -0.777036 1
gene 2 5 6 0.953436 0 5 0.953436 1
gene 1 1 7 -0.587426 0 6 -0.587426 1
gene 3 2 7 0.799488 0 7 0.799488 1
gene 1 3 7 0.930794 0 8 0.930794 1
gene 3 4 7 -0.52648 0 9 -0.52648 1
gene 3 5 7 -0.698089 0 10 -0.698089 1
genomeend 141

/* Organism #142 Fitness: 4617 Error: 0 */
/* ##------$ WINNER 142 SPECIES #1 $------## */
genomestart 142
trait 1 0.1 0 0 0 0 0 0 0 
trait 2 0.2 0 0 0 0 0 0 0 
trait 3 0.3 0 0 0 0 0 0 0 
node 1 2 1 3
node 2 3 1 1
node 3 3 1 1
node 4 2 1 1
node 5 3 1 1
node 6 1 0 2
node 7 2 0 2
gene 2 1 6 0.16994 0 1 0.16994 1
gene 1 2 6 0.559658 0 2 0.559658 1
gene 2 3 6 -0.627645 0 3 -0.627645 1
gene 3 4 6 -0.95517 0 4 -0.95517 1
gene 3 5 6 0.527028 0 5 0.527028 1
gene 3 1 7 0.0335157 0 6 0.0335157 1
gene 2 2 7 0.298211 0 7 0.298211 1
gene 3 3 7 0.295391 0 8 0.295391 1
gene 3 4 7 0.322905 0 9 0.322905 1
gene 1 5 7 0.313937 0 10 0.313937 1
genomeend 142

/* Organism #143 Fitness: 4776 Error: 0 */
/* ##------$ WINNER 143 SPECIES #1 $------## */
genomestart 143
trait 1 0.1 0 0 0 0 0 0 0 
trait 2 0.2 0 0 0 0 0 0 0 
trait 3 0.3 0 0 0 0 0 0 0 
node 1 1 1 3
node 2 2 1 1
node 3 1 1 1
node 4 3 1 1
node 5 1 1 1
node 6 1 0 2
node 7 1 0 2
gene 3 1 6 -0.709279 0 1 -0.709279 1
gene 2 2 6 -0.996005 0 2 -0.996005 1
gene 1 3 6 0.418507 0 3 0.418507 1
gene 3 4 6 0.780959 0 4 0.780959 1
gene 1 5 6 -0.967847 0 5 -0.967847 1
gene 2 1 7 0.376811 0 6 0.376811 1
gene 3 2 7 -0.653273 0 7 -0.653273 1
gene 3 3 7 -0.0796152 0 8 -0.0796152 1
gene 1 4 7 0.857066 0 9 0.857066 1
gene 1 5 7 0.999651 0 10 0.999651 1
genomeend 143

/* Organism #144 Fitness: 4600 Error: 0 */
/* ##------$ WINNER 144 SPECIES #1 $------## */
genomestart 144
trait 1 0.1 0 0 0 0 0 0 0 
trait 2 0.2 0 0 0 0 0 0 0 
trait 3 0.3 0 0 0 0 0 0 0 
node 1 1 1 3
node 2 1 1 1
node 3 1 1 1
node 4 2 1 1
node 5 1 1 1
node 6 3 0 2
node 7 2 0 2
gene 1 1 6 0.283196 0 1 0.283196 1
gene 1 2 6 0.663244 0 2 0.663244 1
gene 2 3 6 0.846043 0 3 0.846043 1
gene 2 4 6 -0.111275 0 4 -0.111275 1
gene 2 5 6 0.66829 0 5 0.66829 1
gene 1 1 7 -0.798945 0 6 -0.798945 1
gene 2 2 7 -0.542082 0 7 -0.542082 1
gene 2 3 7 0.310857 0 8 0.310857 1
gene 3 4 7 -0.431585 0 9 -0.431585 1
gene 1 5 7 -0.0506252 0 10 -0.0506252 1
genomeend 144

/* Organism #145 Fitness: 4776 Error: 0 */
/* ##------$ WINNER 145 SPECIES #1 $------## */
genomestart 145
trait 1 0.1 0 0 0 0 0 0 0 
trait 2 0.2 0 0 0 0 0 0 0 
trait 3 0.3 0 0 0 0 0 0 0 
node 1 2 1 3
node 2 3 1 1
node 3 1 1 1
node 4 3 1 1
node 5 2 1 1
node 6 3 0 2
node 7 3 0 2
gene 2 1 6 -0.197766 0 1 -0.197766 1
gene 3 2 6 -0.475264 0 2 -0.475264 1
gene 2 3 6 -0.73909 0 3 -0.73909 1
gene 1 4 6 0.0324025 0 4 0.0324025 1
gene 3 5 6 -0.771025 0 5 -0.771025 1
gene 3 1 7 0.654147 0 6 0.654147 1
gene 3 2 7 -0.128076 0 7 -0.128076 1
gene 1 3 7 -0.746887 0 8 -0.746887 1
gene 1 4 7 -0.40599 0 9 -0.40599 1
gene 1 5 7 0.900492 0 10 0.900492 1
genomeend 145

/* Organism #146 Fitness: 4771 Error: 0 */
/* ##------$ WINNER 146 SPECIES #1 $------## */
genomestart 146
trait 1 0.1 0 0 0 0 0 0 0 
trait 2 0.2 0 0 0 0 0 0 0 
trait 3 0.3 0 0 0 0 0 0 0 
node 1 1 1 3
node 2 1 1 1
node 3 2 1 1
node 4 1 1 1
node 5 1 1 1
node 6 3 0 2
node 7 1 0 2
gene 1 1 6 -0.0748964 0 1 -0.0748964 1
gene 3 2 6 -0.0914314 0 2 -0.0914314 1
gene 2 3 6 0.0422924 0 3 0.0422924 1
gene 2 4 6 0.736065 0 4 0.736065 1
gene 1 5 6 -0.911037 0 5 -0.911037 1
gene 3 1 7 0.896207 0 6 0.896207 1
gene 2 2 7 -0.408824 0 7 -0.408824 1
gene 1 3 7 0.33226 0 8 0.33226 1
gene 2 4 7 0.922873 0 9 0.922873 1
gene 1 5 7 -0.591195 0 10 -0.591195 1
genomeend 146

/* Organism #147 Fitness: 4599 Error: 0 */
/* ##------$ WINNER 147 SPECIES #1 $------## */
genomestart 147
trait 1 0.1 0 0 0 0 0 0 0 
trait 2 0.2 0 0 0 0 0 0 0 
trait 3 0.3 0 0 0 0 0 0 0 
node 1 3 1 3
node 2 3 1 1
node 3 1 1 1
node 4 3 1 1
node 5 2 1 1
node 6 1 0 2
node 7 3 0 2
gene 3 1 6 0.935339 0 1 0.935339 1
gene 2 2 6 0.441911 0 2 0.441911 1
gene 3 3 6 -0.323855 0 3 -0.323855 1
gene 1 4 6 0.819102 0 4 0.819102 1
gene 3 5 6 0.372813 0 5 0.372813 1
gene 3 1 7 -0.0968086 0 6 -0.0968086 1
gene 2 2 7 0.408415 0 7 0.408415 1
gene 2 3 7 -0.583678 0 8 -0.583678 1
gene 3 4 7 0.720355 0 9 0.720355 1
gene 2 5 7 -0.816551 0 10 -0.816551 1
genomeend 147

/* Organism #148 Fitness: 4616 Error: 0 */
/* ##------$ WINNER 148 SPECIES #1 $------## */
genomestart 148
trait 1 0.1 0 0 0 0 0 0 0 
trait 2 0.2 0 0 0 0 0 0 0 
trait 3 0.3 0 0 0 0 0 0 0 
node 1 1 1 3
node 2 1 1 1
node 3 1 1 1
node 4 3 1 1
node 5 1 1 1
node 6 2 0 2
node 7 2 0 2
gene 2 1 6 0.843206 0 1 0.843206 1
gene 2 2 6 -0.397419 0 2 -0.397419 1
gene 3 3 6 -0.259849 0 3 -0.259849 1
gene 1 4 6 -0.0724013 0 4 -0.0724013 1
gene 1 5 6 0.143937 0 5 0.143937 1
gene 3 1 7 0.912088 0 6 0.912088 1
gene 2 2 7 0.198518 0 7 0.198518 1
gene 3 3 7 0.249569 0 8 0.249569 1
gene 3 4 7 -0.819468 0 9 -0.819468 1
gene 1 5 7 0.814863 0 10 0.814863 1
genomeend 148

/* Organism #149 Fitness: 4606 Error: 0 */
/* ##------$ WINNER 149 SPECIES #1 $------## */
genomestart 149
trait 1 0.1 0 0 0 0 0 0 0 
trait 2 0.2 0 0 0 0 0 0 0 
trait 3 0.3 0 0 0 0 0 0 0 
node 1 3 1 3
node 2 1 1 1
node 3 2 1 1
node 4 2 1 1
node 5 3 1 1
node 6 3 0 2
node 7 2 0 2
gene 3 1 6 0.763872 0 1 0.763872 1
gene 2 2 6 -0.716877 0 2 -0.716877 1
gene 3 3 6 -0.262527 0 3 -0.262527 1
gene 3 4 6 -0.908596 0 4 -0.908596 1
gene 1 5 6 -0.474457 0 5 -0.474457 1
gene 2 1 7 0.36813 0 6 0.36813 1
gene 1 2 7 0.326519 0 7 0.326519 1
gene 2 3 7 0.398825 0 8 0.398825 1
gene 2 4 7 -0.026793 0 9 -0.026793 1
gene 2 5 7 -0.532898 0 10 -0.532898 1
genomeend 149

/* Organism #150 Fitness: 4690 Error: 0 */
/* ##------$ WINNER 150 SPECIES #1 $------## */
genomestart 150
trait 1 0.1 0 0 0 0 0 0 0 
trait 2 0.2 0 0 0 0 0 0 0 
trait 3 0.3 0 0 0 0 0 0 0 
node 1 3 1 3
node 2 3 1 1
node 3 2 1 1
node 4 2 1 1
node 5 2 1 1
node 6 1 0 2
node 7 3 0 2
gene 2 1 6 -0.443525 0 1 -0.443525 1
gene 3 2 6 -0.825675 0 2 -0.825675 1
gene 2 3 6 -0.746735 0 3 -0.746735 1
gene 3 4 6 0.696563 0 4 0.696563 1
gene 2 5 6 0.23632 0 5 0.23632 1
gene 2 1 7 -0.617509 0 6 -0.617509 1
gene 3 2 7 -0.0189781 0 7 -0.0189781 1
gene 1 3 7 -0.264799 0 8 -0.264799 1
gene 2 4 7 -0.652189 0 9 -0.652189 1
gene 2 5 7 -0.98331 0 10 -0.98331 1
genomeend 150
