
/* Species #51 : (Size 8) (AF 65.875) (Age 23)  */


/* Organism #0 Fitness: 110 Error: 0 */
genomestart 0
trait 1 0.1 0 0 0 0 0 0 0 
trait 2 0.28779 0 0 0.0426992 0 0 0 0 
trait 3 0.00410156 0.136731 0.0883757 0.438306 0.074912 0 0 0 
node 1 1 1 3
node 2 3 1 1
node 3 2 1 1
node 4 1 1 1
node 5 1 1 1
node 6 1 0 2
node 7 3 0 2
node 10 1 0 0
node 13 2 0 0
node 18 1 0 0
node 42 1 0 0
node 124 1 0 0
node 148 1 0 0
node 194 1 0 0
gene 2 1 6 -1.69524 0 1 -1.69524 1
gene 2 2 6 -0.0659326 0 2 -0.0659326 1
gene 3 3 6 -2.83688 0 3 -2.83688 1
gene 1 4 6 2.34121 0 4 2.34121 1
gene 3 5 6 5.62291 0 5 5.62291 1
gene 3 1 7 7.94342 0 6 7.94342 1
gene 1 2 7 -0.256789 0 7 -0.256789 0
gene 2 3 7 -1.64482 0 8 -1.64482 0
gene 3 4 7 -1.0801 0 9 -1.0801 1
gene 2 5 7 1.66391 0 10 1.66391 0
gene 1 5 10 7.47141 0 19 7.47141 1
gene 2 10 7 -8 0 20 -8 0
gene 1 2 13 2.38026 0 27 2.38026 1
gene 1 13 7 7.69368 0 28 7.69368 0
gene 2 5 18 8 0 38 8 1
gene 2 18 10 -1.03517 0 39 -1.03517 1
gene 2 10 42 -4.16766 0 137 -4.16766 0
gene 2 42 7 6.44841 0 138 6.44841 1
gene 3 3 124 3.43667 0 434 3.43667 1
gene 3 124 6 -0.625744 0 435 -0.625744 1
gene 2 10 148 -1.1331 0 525 -1.1331 1
gene 2 148 42 1.94349 0 526 1.94349 1
gene 2 6 10 0.0486326 0 540 0.0486326 1
gene 3 124 148 -0.675266 0 668 -0.675266 1
gene 1 13 194 -2.09938 0 736 -2.09938 1
gene 1 194 7 1.78797 0 737 1.78797 1
gene 1 10 194 -2.42998 0 945 -2.42998 1
genomeend 0

/* Organism #1 Fitness: 84 Error: 0 */
genomestart 1
trait 1 0.1 0 0 0 0 0 0 0 
trait 2 0.28779 0 0 0.0426992 0 0 0 0 
trait 3 0.00410156 0.136731 0.0883757 0.438306 0.074912 0 0 0 
node 1 1 1 3
node 2 3 1 1
node 3 2 1 1
node 4 1 1 1
node 5 1 1 1
node 6 1 0 2
node 7 3 0 2
node 10 1 0 0
node 13 2 0 0
node 18 1 0 0
node 42 3 0 0
node 124 1 0 0
node 148 1 0 0
node 194 1 0 0
gene 2 1 6 -4.37709 0 1 -4.37709 1
gene 2 2 6 -0.204868 0 2 -0.204868 1
gene 3 3 6 -3.59287 0 3 -3.59287 1
gene 1 4 6 4.93697 0 4 4.93697 1
gene 3 5 6 4.69506 0 5 4.69506 1
gene 3 1 7 6.86391 0 6 6.86391 1
gene 1 2 7 -1.47997 0 7 -1.47997 0
gene 2 3 7 -1.71575 0 8 -1.71575 0
gene 3 4 7 -1.6852 0 9 -1.6852 1
gene 2 5 7 1.48787 0 10 1.48787 0
gene 1 5 10 8 0 19 8 1
gene 2 10 7 -5.95797 0 20 -5.95797 0
gene 1 2 13 4.77498 0 27 4.77498 1
gene 1 13 7 6.48553 0 28 6.48553 0
gene 2 5 18 8 0 38 8 1
gene 2 18 10 -0.558578 0 39 -0.558578 1
gene 2 10 42 -6.15178 0 137 -6.15178 0
gene 2 42 7 8 0 138 8 1
gene 3 3 124 3.23459 0 434 3.23459 1
gene 3 124 6 -4.96693 0 435 -4.96693 1
gene 2 10 148 -3.19092 0 525 -3.19092 1
gene 2 148 42 2.18813 0 526 2.18813 1
gene 2 6 10 -1.299 0 540 -1.299 1
gene 3 124 148 -2.78745 0 668 -2.78745 1
gene 1 13 194 -3.62847 0 736 -3.62847 1
gene 1 194 7 0.721642 0 737 0.721642 1
gene 1 10 194 -2.97449 0 945 -2.97449 1
genomeend 1

/* Organism #2 Fitness: 62 Error: 0 */
genomestart 2
trait 1 0.1 0 0 0 0 0 0 0 
trait 2 0.28779 0 0 0.0426992 0 0 0 0 
trait 3 0.00410156 0.136731 0.0883757 0.438306 0.074912 0 0 0 
node 1 1 1 3
node 2 3 1 1
node 3 2 1 1
node 4 1 1 1
node 5 1 1 1
node 6 1 0 2
node 7 3 0 2
node 10 1 0 0
node 13 2 0 0
node 18 1 0 0
node 42 3 0 0
node 124 1 0 0
node 148 1 0 0
node 194 1 0 0
gene 2 1 6 -5.08395 0 1 -5.08395 1
gene 2 2 6 -0.822214 0 2 -0.822214 1
gene 3 3 6 -3.20241 0 3 -3.20241 1
gene 1 4 6 1.96092 0 4 1.96092 1
gene 3 5 6 6.09081 0 5 6.09081 1
gene 3 1 7 8 0 6 8 1
gene 1 2 7 -0.0112211 0 7 -0.0112211 0
gene 2 3 7 -1.53625 0 8 -1.53625 0
gene 3 4 7 -0.00430147 0 9 -0.00430147 1
gene 2 5 7 -0.687668 0 10 -0.687668 0
gene 1 5 10 5.75267 0 19 5.75267 1
gene 2 10 7 1.94833 0 20 1.94833 1
gene 1 2 13 4.75203 0 27 4.75203 1
gene 1 13 7 4.78484 0 28 4.78484 0
gene 2 5 18 5.93842 0 38 5.93842 1
gene 2 18 10 0.980201 0 39 0.980201 1
gene 2 10 42 -2.38015 0 137 -2.38015 0
gene 2 42 7 8 0 138 8 1
gene 3 3 124 2.77613 0 434 2.77613 1
gene 3 124 6 -3.84168 0 435 -3.84168 1
gene 2 10 148 -1.59462 0 525 -1.59462 1
gene 2 148 42 2.06581 0 526 2.06581 1
gene 2 6 10 0.425365 0 540 0.425365 1
gene 3 124 148 -1.59332 0 668 -1.59332 1
gene 1 13 194 -1.7069 0 736 -1.7069 1
gene 1 194 7 3.71044 0 737 3.71044 1
gene 1 10 194 -3.3312 0 945 -3.3312 1
genomeend 2

/* Organism #3 Fitness: 49 Error: 0 */
genomestart 3
trait 1 0.1 0 0 0 0 0 0 0 
trait 2 0.28779 0 0 0.0426992 0 0 0 0 
trait 3 0.00410156 0.136731 0.0883757 0.438306 0.074912 0 0 0 
node 1 1 1 3
node 2 3 1 1
node 3 2 1 1
node 4 1 1 1
node 5 1 1 1
node 6 1 0 2
node 7 3 0 2
node 10 1 0 0
node 13 2 0 0
node 18 1 0 0
node 42 1 0 0
node 124 1 0 0
node 148 1 0 0
node 194 1 0 0
gene 2 1 6 2.31069 0 1 2.31069 1
gene 2 2 6 -1.56302 0 2 -1.56302 1
gene 3 3 6 -4.51989 0 3 -4.51989 1
gene 1 4 6 1.03603 0 4 1.03603 1
gene 3 5 6 8 0 5 8 1
gene 3 1 7 8 0 6 8 1
gene 1 2 7 -1.10919 0 7 -1.10919 0
gene 2 3 7 -1.64482 0 8 -1.64482 0
gene 3 4 7 -3.27748 0 9 -3.27748 1
gene 2 5 7 1.66391 0 10 1.66391 0
gene 1 5 10 7.47141 0 19 7.47141 1
gene 2 10 7 -5.65921 0 20 -5.65921 0
gene 1 2 13 3.74799 0 27 3.74799 1
gene 1 13 7 1.02936 0 28 1.02936 0
gene 2 5 18 7.0281 0 38 7.0281 1
gene 2 18 10 -1.03517 0 39 -1.03517 1
gene 2 10 42 -1.79105 0 137 -1.79105 0
gene 2 42 7 4.91453 0 138 4.91453 1
gene 3 3 124 3.03284 0 434 3.03284 1
gene 3 124 6 -2.52235 0 435 -2.52235 1
gene 2 10 148 0.0227489 0 525 0.0227489 1
gene 2 148 42 2.77642 0 526 2.77642 1
gene 2 6 10 -1.2914 0 540 -1.2914 1
gene 3 124 148 0.403945 0 668 0.403945 1
gene 1 13 194 -2.80034 0 736 -2.80034 1
gene 1 194 7 1.78797 0 737 1.78797 1
gene 1 10 194 -1.07984 0 945 -1.07984 1
genomeend 3

/* Organism #4 Fitness: 29 Error: 0 */
genomestart 4
trait 1 0.1 0 0 0 0 0 0 0 
trait 2 0.28779 0 0 0.0426992 0 0 0 0 
trait 3 0.00410156 0.136731 0.0883757 0.438306 0.074912 0 0 0 
node 1 1 1 3
node 2 3 1 1
node 3 2 1 1
node 4 1 1 1
node 5 1 1 1
node 6 1 0 2
node 7 3 0 2
node 10 1 0 0
node 13 2 0 0
node 18 1 0 0
node 42 3 0 0
node 124 1 0 0
node 148 1 0 0
node 194 1 0 0
gene 2 1 6 -4.37709 0 1 -4.37709 1
gene 2 2 6 -0.204868 0 2 -0.204868 1
gene 3 3 6 -2.83688 0 3 -2.83688 1
gene 1 4 6 2.34121 0 4 2.34121 1
gene 3 5 6 5.62291 0 5 5.62291 1
gene 3 1 7 7.94342 0 6 7.94342 1
gene 1 2 7 -1.47997 0 7 -1.47997 0
gene 2 3 7 -1.71575 0 8 -1.71575 0
gene 3 4 7 -1.0801 0 9 -1.0801 1
gene 2 5 7 1.66391 0 10 1.66391 0
gene 1 5 10 8 0 19 8 1
gene 2 10 7 -8 0 20 -8 0
gene 1 2 13 4.77498 0 27 4.77498 1
gene 1 13 7 6.48553 0 28 6.48553 0
gene 2 5 18 8 0 38 8 1
gene 2 18 10 -1.03517 0 39 -1.03517 1
gene 2 10 42 -6.15178 0 137 -6.15178 0
gene 2 42 7 6.44841 0 138 6.44841 1
gene 3 3 124 3.23459 0 434 3.23459 1
gene 3 124 6 -0.625744 0 435 -0.625744 1
gene 2 10 148 -3.19092 0 525 -3.19092 1
gene 2 148 42 1.94349 0 526 1.94349 1
gene 2 6 10 0.0486326 0 540 0.0486326 1
gene 3 124 148 -0.675266 0 668 -0.675266 1
gene 1 13 194 -3.62847 0 736 -3.62847 1
gene 1 194 7 0.721642 0 737 0.721642 1
gene 1 10 194 -2.97449 0 945 -2.97449 1
gene 3 148 7 -0.35728 0 1030 -0.35728 1
genomeend 4

/* Organism #5 Fitness: 110 Error: 0 */
genomestart 5
trait 1 0.1 0 0 0 0 0 0 0 
trait 2 0.28779 0 0 0.0426992 0 0 0 0 
trait 3 0.00410156 0.136731 0.0883757 0.438306 0.074912 0 0 0 
node 1 1 1 3
node 2 3 1 1
node 3 2 1 1
node 4 1 1 1
node 5 1 1 1
node 6 1 0 2
node 7 3 0 2
node 10 1 0 0
node 13 2 0 0
node 18 1 0 0
node 42 1 0 0
node 124 1 0 0
node 148 1 0 0
node 194 1 0 0
gene 2 1 6 -1.69524 0 1 -1.69524 1
gene 2 2 6 -0.0659326 0 2 -0.0659326 1
gene 3 3 6 -2.83688 0 3 -2.83688 1
gene 1 4 6 2.34121 0 4 2.34121 1
gene 3 5 6 5.62291 0 5 5.62291 1
gene 3 1 7 7.94342 0 6 7.94342 1
gene 1 2 7 -0.256789 0 7 -0.256789 0
gene 2 3 7 -1.64482 0 8 -1.64482 0
gene 3 4 7 -1.0801 0 9 -1.0801 1
gene 2 5 7 1.66391 0 10 1.66391 0
gene 1 5 10 7.47141 0 19 7.47141 1
gene 2 10 7 -8 0 20 -8 0
gene 1 2 13 2.38026 0 27 2.38026 1
gene 1 13 7 7.69368 0 28 7.69368 0
gene 2 5 18 8 0 38 8 1
gene 2 18 10 -1.03517 0 39 -1.03517 1
gene 2 10 42 -4.16766 0 137 -4.16766 0
gene 2 42 7 6.44841 0 138 6.44841 1
gene 3 3 124 3.43667 0 434 3.43667 1
gene 3 124 6 -0.625744 0 435 -0.625744 1
gene 2 10 148 -1.1331 0 525 -1.1331 1
gene 2 148 42 1.94349 0 526 1.94349 1
gene 2 6 10 0.0486326 0 540 0.0486326 1
gene 3 124 148 -0.675266 0 668 -0.675266 1
gene 1 13 194 -2.09938 0 736 -2.09938 1
gene 1 194 7 1.78797 0 737 1.78797 1
gene 1 10 194 -2.42998 0 945 -2.42998 1
genomeend 5

/* Organism #6 Fitness: 16 Error: 0 */
genomestart 6
trait 1 0.1 0 0 0 0 0 0 0 
trait 2 0.28779 0 0 0.0426992 0 0 0 0 
trait 3 0.00410156 0.136731 0.0883757 0.438306 0.074912 0 0 0 
node 1 1 1 3
node 2 3 1 1
node 3 2 1 1
node 4 1 1 1
node 5 1 1 1
node 6 1 0 2
node 7 3 0 2
node 10 1 0 0
node 13 2 0 0
node 18 1 0 0
node 42 3 0 0
node 124 1 0 0
node 148 1 0 0
node 194 1 0 0
gene 2 1 6 0.63771 0 1 0.63771 1
gene 2 2 6 1.59221 0 2 1.59221 1
gene 3 3 6 -1.27377 0 3 -1.27377 1
gene 1 4 6 2.44309 0 4 2.44309 1
gene 3 5 6 4.30641 0 5 4.30641 1
gene 3 1 7 -2.2677 0 6 -2.2677 1
gene 1 2 7 0.466952 0 7 0.466952 0
gene 2 3 7 0.696928 0 8 0.696928 0
gene 3 4 7 -3.9931 0 9 -3.9931 1
gene 2 5 7 1.11233 0 10 1.11233 0
gene 1 5 10 7.24476 0 19 7.24476 1
gene 2 10 7 -5.95797 0 20 -5.95797 0
gene 1 2 13 2.6482 0 27 2.6482 1
gene 1 13 7 6.48553 0 28 6.48553 0
gene 2 5 18 7.43777 0 38 7.43777 1
gene 2 18 10 -1.16347 0 39 -1.16347 1
gene 2 10 42 -6.93619 0 137 -6.93619 0
gene 2 42 7 -1.44765 0 138 -1.44765 1
gene 3 3 124 3.63857 0 434 3.63857 1
gene 3 124 6 -4.96693 0 435 -4.96693 1
gene 2 10 148 -3.96617 0 525 -3.96617 1
gene 2 148 42 2.72169 0 526 2.72169 1
gene 2 6 10 -1.23687 0 540 -1.23687 1
gene 3 124 148 -2.36643 0 668 -2.36643 1
gene 1 13 194 -4.36401 0 736 -4.36401 1
gene 1 194 7 0.237716 0 737 0.237716 1
gene 1 10 194 -2.13126 0 945 -2.13126 1
genomeend 6

/* Organism #7 Fitness: 67 Error: 0 */
genomestart 7
trait 1 0.1 0 0 0 0 0 0 0 
trait 2 0.28779 0 0 0.0426992 0 0 0 0 
trait 3 0.00410156 0.136731 0.0883757 0.438306 0.074912 0 0 0 
node 1 1 1 3
node 2 3 1 1
node 3 2 1 1
node 4 1 1 1
node 5 1 1 1
node 6 1 0 2
node 7 3 0 2
node 10 1 0 0
node 13 2 0 0
node 18 1 0 0
node 42 3 0 0
node 124 1 0 0
node 148 1 0 0
node 194 1 0 0
gene 2 1 6 1.07026 0 1 1.07026 1
gene 2 2 6 1.84868 0 2 1.84868 1
gene 3 3 6 -2.3513 0 3 -2.3513 1
gene 1 4 6 4.35858 0 4 4.35858 1
gene 3 5 6 3.39297 0 5 3.39297 1
gene 3 1 7 8 0 6 8 1
gene 1 2 7 -1.96021 0 7 -1.96021 0
gene 2 3 7 -1.71575 0 8 -1.71575 0
gene 3 4 7 -1.0801 0 9 -1.0801 1
gene 2 5 7 1.48787 0 10 1.48787 0
gene 1 5 10 6.54431 0 19 6.54431 1
gene 2 10 7 -3.60559 0 20 -3.60559 0
gene 1 2 13 5.01131 0 27 5.01131 1
gene 1 13 7 -0.924202 0 28 -0.924202 0
gene 2 5 18 -0.353449 0 38 -0.353449 1
gene 2 18 10 -0.0835501 0 39 -0.0835501 1
gene 2 10 42 -7.47456 0 137 -7.47456 0
gene 2 42 7 8 0 138 8 1
gene 3 3 124 3.23459 0 434 3.23459 1
gene 3 124 6 -4.96693 0 435 -4.96693 1
gene 2 10 148 -2.23185 0 525 -2.23185 1
gene 2 148 42 3.83335 0 526 3.83335 1
gene 2 6 10 -0.0201059 0 540 -0.0201059 1
gene 3 124 148 1.59918 0 668 1.59918 1
gene 1 13 194 1.88288 0 736 1.88288 1
gene 1 194 7 -1.08965 0 737 -1.08965 1
gene 1 10 194 -3.22384 0 945 -3.22384 1
genomeend 7

/* Species #52 : (Size 50) (AF 2607.76) (Age 22)  */


/* Organism #8 Fitness: 5200 Error: 0 */
genomestart 8
trait 1 0.1 0 0 0 0 0 0 0 
trait 2 0.202591 0.00236529 0 0 0.00144811 0 0 0 
trait 3 0.00410156 0.136731 0.0883757 0.438306 0.074912 0 0 0 
node 1 3 1 3
node 2 3 1 1
node 3 2 1 1
node 4 1 1 1
node 5 3 1 1
node 6 1 0 2
node 7 3 0 2
node 10 1 0 0
node 13 2 0 0
node 18 1 0 0
node 42 1 0 0
node 124 1 0 0
node 148 1 0 0
node 195 1 0 0
gene 2 1 6 -3.3667 0 1 -3.3667 1
gene 2 2 6 -5.57612 0 2 -5.57612 1
gene 3 3 6 -5.62847 0 3 -5.62847 1
gene 1 4 6 2.5365 0 4 2.5365 1
gene 3 5 6 5.13875 0 5 5.13875 1
gene 3 1 7 2.49259 0 6 2.49259 1
gene 1 2 7 -2.82838 0 7 -2.82838 1
gene 2 3 7 0.16452 0 8 0.16452 0
gene 3 4 7 3.64478 0 9 3.64478 1
gene 2 5 7 5.309 0 10 5.309 1
gene 1 5 10 -3.20349 0 19 -3.20349 1
gene 2 10 7 0.54835 0 20 0.54835 0
gene 1 2 13 1.90411 0 27 1.90411 1
gene 1 13 7 -2.549 0 28 -2.549 1
gene 2 5 18 -5.16081 0 38 -5.16081 1
gene 2 18 10 -0.335304 0 39 -0.335304 1
gene 2 10 42 -7.18342 0 137 -7.18342 0
gene 2 42 7 1.80712 0 138 1.80712 1
gene 3 3 124 2.32035 0 434 2.32035 1
gene 3 124 6 -0.498525 0 435 -0.498525 1
gene 2 10 148 -2.48717 0 525 -2.48717 1
gene 2 148 42 1.60298 0 526 1.60298 1
gene 2 6 10 -1.10346 0 540 -1.10346 1
gene 3 124 148 -3.47232 0 668 -3.47232 1
gene 1 13 42 5.5897 0 684 5.5897 1
gene 3 124 195 4.66718 0 739 4.66718 1
gene 3 195 6 3.30315 0 740 3.30315 1
gene 3 2 148 -0.679781 0 794 -0.679781 1
gene 2 4 195 -1.08518 0 928 -1.08518 1
genomeend 8

/* Organism #9 Fitness: 20 Error: 0 */
genomestart 9
trait 1 0 0 0 0.687881 0 0 0 0 
trait 2 0.202591 0.00236529 0 0 0.00144811 0 0 0 
trait 3 0.00410156 0.136731 0.0883757 0.438306 0.074912 0 0 0 
node 1 3 1 3
node 2 3 1 1
node 3 2 1 1
node 4 1 1 1
node 5 3 1 1
node 6 1 0 2
node 7 3 0 2
node 10 1 0 0
node 13 2 0 0
node 18 1 0 0
node 42 1 0 0
node 124 1 0 0
node 148 1 0 0
node 195 1 0 0
gene 2 1 6 -1.62911 0 1 -1.62911 1
gene 2 2 6 -1.2315 0 2 -1.2315 1
gene 3 3 6 -3.52994 0 3 -3.52994 1
gene 1 4 6 1.80627 0 4 1.80627 1
gene 3 5 6 5.94658 0 5 5.94658 1
gene 3 1 7 2.47279 0 6 2.47279 1
gene 1 2 7 -2.82838 0 7 -2.82838 1
gene 2 3 7 -1.7312 0 8 -1.7312 0
gene 3 4 7 3.86386 0 9 3.86386 1
gene 2 5 7 5.309 0 10 5.309 1
gene 1 5 10 -2.27645 0 19 -2.27645 1
gene 2 10 7 -1.65779 0 20 -1.65779 0
gene 1 2 13 -0.105942 0 27 -0.105942 1
gene 3 13 7 -3.99809 0 28 -3.99809 1
gene 2 5 18 -4.41175 0 38 -4.41175 1
gene 2 18 10 2.48396 0 39 2.48396 1
gene 2 10 42 -8 0 137 -8 0
gene 2 42 7 0.599048 0 138 0.599048 1
gene 3 3 124 1.32989 0 434 1.32989 1
gene 3 124 6 -0.104853 0 435 -0.104853 1
gene 2 10 148 -2.48724 0 525 -2.48724 1
gene 2 148 42 1.72874 0 526 1.72874 1
gene 2 6 10 -2.06682 0 540 -2.06682 1
gene 3 124 148 -4.00213 0 668 -4.00213 1
gene 1 13 42 4.61311 0 684 4.61311 1
gene 3 124 195 5.38732 0 739 5.38732 1
gene 3 195 6 3.52383 0 740 3.52383 1
gene 3 2 148 -0.679781 0 794 -0.679781 1
gene 2 4 195 -1.08518 0 928 -1.08518 1
genomeend 9

/* Organism #10 Fitness: 30 Error: 0 */
genomestart 10
trait 1 0.1 0 0 0 0 0 0 0 
trait 2 0.202591 0.00236529 0 0 0.00144811 0 0 0 
trait 3 0.00410156 0.136731 0.0883757 0.438306 0.074912 0 0 0 
node 1 3 1 3
node 2 3 1 1
node 3 2 1 1
node 4 1 1 1
node 5 3 1 1
node 6 1 0 2
node 7 3 0 2
node 10 1 0 0
node 13 2 0 0
node 18 1 0 0
node 42 1 0 0
node 124 1 0 0
node 148 1 0 0
node 195 1 0 0
gene 2 1 6 1.37341 0 1 1.37341 1
gene 2 2 6 -7.26018 0 2 -7.26018 1
gene 3 3 6 -0.480791 0 3 -0.480791 1
gene 1 4 6 0.213406 0 4 0.213406 1
gene 3 5 6 4.50293 0 5 4.50293 1
gene 3 1 7 1.35254 0 6 1.35254 1
gene 1 2 7 -4.20179 0 7 -4.20179 0
gene 2 3 7 1.62042 0 8 1.62042 0
gene 3 4 7 1.21988 0 9 1.21988 1
gene 2 5 7 3.75447 0 10 3.75447 0
gene 1 5 10 -2.44051 0 19 -2.44051 1
gene 2 10 7 -0.862103 0 20 -0.862103 0
gene 1 2 13 -1.55176 0 27 -1.55176 1
gene 1 13 7 2.38283 0 28 2.38283 1
gene 2 5 18 -3.47398 0 38 -3.47398 1
gene 2 18 10 0.55858 0 39 0.55858 1
gene 2 10 42 -5.21207 0 137 -5.21207 0
gene 2 42 7 -0.014757 0 138 -0.014757 1
gene 3 3 124 1.91636 0 434 1.91636 1
gene 3 124 6 -1.45684 0 435 -1.45684 0
gene 2 10 148 -0.824966 0 525 -0.824966 1
gene 2 148 42 0.960856 0 526 0.960856 1
gene 2 6 10 -1.42088 0 540 -1.42088 1
gene 3 124 148 -4.96811 0 668 -4.96811 1
gene 1 13 42 3.16451 0 684 3.16451 1
gene 3 124 195 0.166184 0 739 0.166184 1
gene 3 195 6 -1.02296 0 740 -1.02296 1
gene 3 2 148 1.32835 0 794 1.32835 1
gene 2 4 195 -2.44185 0 928 -2.44185 1
genomeend 10

/* Organism #11 Fitness: 20 Error: 0 */
genomestart 11
trait 1 0.1 0 0 0 0 0 0 0 
trait 2 0.202591 0.00236529 0 0 0.00144811 0 0 0 
trait 3 0.00410156 0.136731 0.0883757 0.438306 0.074912 0 0 0 
node 1 3 1 3
node 2 3 1 1
node 3 2 1 1
node 4 1 1 1
node 5 3 1 1
node 6 1 0 2
node 7 3 0 2
node 10 1 0 0
node 13 2 0 0
node 18 1 0 0
node 42 1 0 0
node 124 1 0 0
node 148 1 0 0
node 195 1 0 0
gene 2 1 6 -1.15664 0 1 -1.15664 1
gene 2 2 6 -4.49743 0 2 -4.49743 1
gene 3 3 6 -3.66908 0 3 -3.66908 1
gene 1 4 6 0.411113 0 4 0.411113 1
gene 3 5 6 2.70475 0 5 2.70475 1
gene 3 1 7 2.56709 0 6 2.56709 1
gene 1 2 7 -3.00713 0 7 -3.00713 1
gene 2 3 7 -1.08102 0 8 -1.08102 0
gene 3 4 7 5.27699 0 9 5.27699 1
gene 2 5 7 7.65731 0 10 7.65731 1
gene 1 5 10 -5.55465 0 19 -5.55465 1
gene 2 10 7 2.20779 0 20 2.20779 0
gene 1 2 13 1.48496 0 27 1.48496 1
gene 1 13 7 -0.277471 0 28 -0.277471 1
gene 2 5 18 -6.92275 0 38 -6.92275 1
gene 2 18 10 0.13458 0 39 0.13458 1
gene 2 10 42 -6.0681 0 137 -6.0681 0
gene 2 42 7 3.76736 0 138 3.76736 1
gene 3 3 124 2.08151 0 434 2.08151 1
gene 3 124 6 -2.58598 0 435 -2.58598 1
gene 2 10 148 -2.69985 0 525 -2.69985 1
gene 2 148 42 2.85745 0 526 2.85745 1
gene 2 6 10 -1.17815 0 540 -1.17815 1
gene 3 124 148 -1.29029 0 668 -1.29029 1
gene 1 13 42 6.37935 0 684 6.37935 1
gene 3 124 195 5.20023 0 739 5.20023 1
gene 3 195 6 3.30315 0 740 3.30315 1
gene 3 2 148 -0.235817 0 794 -0.235817 1
gene 2 4 195 -1.08518 0 928 -1.08518 1
genomeend 11

/* Organism #12 Fitness: 74 Error: 0 */
genomestart 12
trait 1 0.1 0 0 0 0 0 0 0 
trait 2 0.202591 0.00236529 0 0 0.00144811 0 0 0 
trait 3 0.00410156 0.136731 0.0883757 0.438306 0.074912 0 0 0 
node 1 3 1 3
node 2 3 1 1
node 3 2 1 1
node 4 1 1 1
node 5 3 1 1
node 6 1 0 2
node 7 3 0 2
node 10 1 0 0
node 13 2 0 0
node 18 1 0 0
node 42 1 0 0
node 124 1 0 0
node 148 1 0 0
node 195 1 0 0
node 269 1 0 0
gene 2 1 6 -3.10362 0 1 -3.10362 1
gene 2 2 6 -8 0 2 -8 1
gene 3 3 6 -5.63718 0 3 -5.63718 0
gene 1 4 6 2.89539 0 4 2.89539 1
gene 3 5 6 3.12806 0 5 3.12806 1
gene 3 1 7 0.0493237 0 6 0.0493237 1
gene 1 2 7 -2.50048 0 7 -2.50048 1
gene 2 3 7 0.643291 0 8 0.643291 0
gene 3 4 7 5.18571 0 9 5.18571 1
gene 2 5 7 1.43291 0 10 1.43291 1
gene 1 5 10 -4.25929 0 19 -4.25929 1
gene 2 10 7 0.49807 0 20 0.49807 0
gene 1 2 13 4.45786 0 27 4.45786 1
gene 1 13 7 -0.587298 0 28 -0.587298 1
gene 2 5 18 -0.731708 0 38 -0.731708 1
gene 2 18 10 2.27547 0 39 2.27547 1
gene 2 10 42 -7.37261 0 137 -7.37261 0
gene 2 42 7 0.94679 0 138 0.94679 1
gene 3 3 124 3.51018 0 434 3.51018 1
gene 3 124 6 0.0175235 0 435 0.0175235 1
gene 2 10 148 0.405529 0 525 0.405529 1
gene 2 148 42 1.30186 0 526 1.30186 1
gene 2 6 10 -2.71449 0 540 -2.71449 1
gene 3 124 148 -5.65568 0 668 -5.65568 1
gene 1 13 42 5.07989 0 684 5.07989 1
gene 3 124 195 2.49034 0 739 2.49034 1
gene 3 195 6 1.36113 0 740 1.36113 1
gene 3 2 148 0.53023 0 794 0.53023 1
gene 2 4 195 -1.84948 0 928 -1.84948 1
gene 3 3 269 -0.956712 0 1018 -0.956712 1
gene 3 269 6 -7.62994 0 1019 -7.62994 1
genomeend 12

/* Organism #13 Fitness: 85 Error: 0 */
genomestart 13
trait 1 0.1 0 0 0 0 0 0 0 
trait 2 0.202591 0.00236529 0 0 0.00144811 0 0 0 
trait 3 0.00410156 0.136731 0.0883757 0.438306 0.074912 0 0 0 
node 1 3 1 3
node 2 3 1 1
node 3 2 1 1
node 4 1 1 1
node 5 3 1 1
node 6 1 0 2
node 7 3 0 2
node 10 1 0 0
node 13 2 0 0
node 18 1 0 0
node 42 1 0 0
node 124 1 0 0
node 148 1 0 0
node 195 1 0 0
gene 2 1 6 -3.3667 0 1 -3.3667 1
gene 2 2 6 -5.57612 0 2 -5.57612 1
gene 3 3 6 -5.62847 0 3 -5.62847 1
gene 1 4 6 2.5365 0 4 2.5365 1
gene 3 5 6 5.13875 0 5 5.13875 1
gene 2 1 7 2.49259 0 6 2.49259 1
gene 1 2 7 -2.82838 0 7 -2.82838 1
gene 2 3 7 0.16452 0 8 0.16452 0
gene 3 4 7 3.64478 0 9 3.64478 1
gene 2 5 7 5.309 0 10 5.309 0
gene 1 5 10 -3.20349 0 19 -3.20349 1
gene 2 10 7 0.54835 0 20 0.54835 0
gene 1 2 13 1.90411 0 27 1.90411 1
gene 1 13 7 -2.25657 0 28 -2.25657 1
gene 2 5 18 -5.16081 0 38 -5.16081 1
gene 2 18 10 -0.335304 0 39 -0.335304 1
gene 2 10 42 -7.18342 0 137 -7.18342 0
gene 2 42 7 1.80712 0 138 1.80712 1
gene 3 3 124 2.59932 0 434 2.59932 1
gene 3 124 6 -0.498525 0 435 -0.498525 0
gene 2 10 148 -2.48717 0 525 -2.48717 1
gene 2 148 42 1.60298 0 526 1.60298 1
gene 2 6 10 -1.10346 0 540 -1.10346 1
gene 3 124 148 -3.47232 0 668 -3.47232 1
gene 1 13 42 4.55942 0 684 4.55942 1
gene 3 124 195 4.66718 0 739 4.66718 1
gene 3 195 6 3.30315 0 740 3.30315 1
gene 3 2 148 -0.679781 0 794 -0.679781 1
gene 2 4 195 -1.08518 0 928 -1.08518 1
genomeend 13

/* Organism #14 Fitness: 77 Error: 0 */
genomestart 14
trait 1 0.1 0 0 0 0 0 0 0 
trait 2 0.202591 0.00236529 0 0 0.00144811 0 0 0 
trait 3 0.00410156 0.136731 0.0883757 0.438306 0.074912 0 0 0 
node 1 3 1 3
node 2 3 1 1
node 3 2 1 1
node 4 1 1 1
node 5 3 1 1
node 6 1 0 2
node 7 3 0 2
node 10 1 0 0
node 13 2 0 0
node 18 1 0 0
node 42 1 0 0
node 124 1 0 0
node 148 1 0 0
node 195 1 0 0
gene 2 1 6 -0.873432 0 1 -0.873432 1
gene 2 2 6 -4.76028 0 2 -4.76028 1
gene 3 3 6 -4.64707 0 3 -4.64707 1
gene 1 4 6 3.60364 0 4 3.60364 1
gene 3 5 6 2.6953 0 5 2.6953 1
gene 3 1 7 3.89181 0 6 3.89181 1
gene 1 2 7 4.06713 0 7 4.06713 0
gene 3 3 7 2.24366 0 8 2.24366 0
gene 3 4 7 2.01683 0 9 2.01683 1
gene 2 5 7 1.31773 0 10 1.31773 0
gene 1 5 10 -1.56964 0 19 -1.56964 1
gene 2 10 7 -2.57865 0 20 -2.57865 0
gene 1 2 13 1.29397 0 27 1.29397 1
gene 1 13 7 1.18263 0 28 1.18263 1
gene 2 5 18 -0.156822 0 38 -0.156822 1
gene 2 18 10 -1.49269 0 39 -1.49269 1
gene 2 10 42 -1.51635 0 137 -1.51635 0
gene 2 42 7 1.62555 0 138 1.62555 1
gene 3 3 124 3.99783 0 434 3.99783 1
gene 3 124 6 -1.77459 0 435 -1.77459 0
gene 2 10 148 -1.08476 0 525 -1.08476 1
gene 2 148 42 3.30282 0 526 3.30282 1
gene 2 6 10 1.13838 0 540 1.13838 1
gene 3 124 148 -4.72634 0 668 -4.72634 1
gene 1 13 42 0.652138 0 684 0.652138 1
gene 3 124 195 -1.48898 0 739 -1.48898 1
gene 3 195 6 0.531943 0 740 0.531943 1
gene 3 2 148 0.850779 0 794 0.850779 1
gene 2 4 195 -2.14452 0 928 -2.14452 1
genomeend 14

/* Organism #15 Fitness: 5200 Error: 0 */
genomestart 15
trait 1 0.1 0 0 0 0 0 0 0 
trait 2 0.202591 0.00236529 0 0 0.00144811 0 0 0 
trait 3 0.00410156 0.136731 0.0883757 0.438306 0.074912 0 0 0 
node 1 3 1 3
node 2 3 1 1
node 3 2 1 1
node 4 1 1 1
node 5 3 1 1
node 6 1 0 2
node 7 3 0 2
node 10 1 0 0
node 13 2 0 0
node 18 1 0 0
node 42 1 0 0
node 124 1 0 0
node 148 1 0 0
node 195 1 0 0
gene 2 1 6 -3.3667 0 1 -3.3667 1
gene 2 2 6 -5.57612 0 2 -5.57612 1
gene 3 3 6 -5.62847 0 3 -5.62847 1
gene 1 4 6 2.5365 0 4 2.5365 1
gene 3 5 6 5.13875 0 5 5.13875 1
gene 3 1 7 2.49259 0 6 2.49259 1
gene 1 2 7 -2.82838 0 7 -2.82838 1
gene 2 3 7 0.16452 0 8 0.16452 0
gene 3 4 7 3.64478 0 9 3.64478 1
gene 2 5 7 5.309 0 10 5.309 1
gene 1 5 10 -3.20349 0 19 -3.20349 1
gene 2 10 7 0.54835 0 20 0.54835 0
gene 1 2 13 1.90411 0 27 1.90411 1
gene 3 13 7 -2.549 0 28 -2.549 1
gene 2 5 18 -5.16081 0 38 -5.16081 1
gene 2 18 10 -0.335304 0 39 -0.335304 1
gene 2 10 42 -7.18342 0 137 -7.18342 0
gene 2 42 7 1.80712 0 138 1.80712 1
gene 3 3 124 2.32035 0 434 2.32035 1
gene 3 124 6 -0.498525 0 435 -0.498525 1
gene 2 10 148 -2.48717 0 525 -2.48717 1
gene 2 148 42 1.60298 0 526 1.60298 1
gene 2 6 10 -1.10346 0 540 -1.10346 1
gene 3 124 148 -3.47232 0 668 -3.47232 1
gene 1 13 42 5.5897 0 684 5.5897 1
gene 3 124 195 4.66718 0 739 4.66718 1
gene 3 195 6 3.30315 0 740 3.30315 1
gene 3 2 148 -0.679781 0 794 -0.679781 1
gene 2 4 195 -1.08518 0 928 -1.08518 1
genomeend 15

/* Organism #16 Fitness: 12 Error: 0 */
genomestart 16
trait 1 0.1 0 0 0 0 0 0 0 
trait 2 0.202591 0.00236529 0 0 0.00144811 0 0 0 
trait 3 0.00410156 0.136731 0.0883757 0.438306 0.074912 0 0 0 
node 1 3 1 3
node 2 3 1 1
node 3 2 1 1
node 4 1 1 1
node 5 2 1 1
node 6 1 0 2
node 7 3 0 2
node 10 1 0 0
node 13 2 0 0
node 18 1 0 0
node 42 1 0 0
node 124 1 0 0
node 148 1 0 0
node 195 1 0 0
node 269 1 0 0
gene 2 1 6 -0.0512908 0 1 -0.0512908 1
gene 2 2 6 -5.4355 0 2 -5.4355 1
gene 3 3 6 -7.01698 0 3 -7.01698 0
gene 1 4 6 2.20879 0 4 2.20879 1
gene 3 5 6 4.93248 0 5 4.93248 1
gene 3 1 7 2.3437 0 6 2.3437 1
gene 1 2 7 -1.52866 0 7 -1.52866 0
gene 2 3 7 1.8506 0 8 1.8506 0
gene 3 4 7 4.59296 0 9 4.59296 1
gene 2 5 7 5.20475 0 10 5.20475 1
gene 1 5 10 -3.36623 0 19 -3.36623 1
gene 2 10 7 -2.56096 0 20 -2.56096 0
gene 1 2 13 2.64678 0 27 2.64678 1
gene 1 13 7 -1.78405 0 28 -1.78405 1
gene 2 5 18 -2.59783 0 38 -2.59783 1
gene 2 18 10 2.8002 0 39 2.8002 1
gene 2 10 42 -5.97706 0 137 -5.97706 1
gene 2 42 7 1.39459 0 138 1.39459 1
gene 3 3 124 5.97503 0 434 5.97503 1
gene 3 124 6 -2.78686 0 435 -2.78686 0
gene 2 10 148 -2.47073 0 525 -2.47073 1
gene 2 148 42 1.47881 0 526 1.47881 1
gene 2 6 10 -4.95196 0 540 -4.95196 1
gene 3 124 148 -0.869156 0 668 -0.869156 1
gene 1 13 42 6.73078 0 684 6.73078 1
gene 3 124 195 6.29881 0 739 6.29881 1
gene 3 195 6 1.71934 0 740 1.71934 1
gene 3 2 148 -1.8319 0 794 -1.8319 1
gene 2 4 195 -2.69605 0 928 -2.69605 1
gene 3 3 269 1.60867 0 1018 1.60867 1
gene 3 269 6 -6.26687 0 1019 -6.26687 1
genomeend 16

/* Organism #17 Fitness: 18 Error: 0 */
genomestart 17
trait 1 0.1 0 0 0 0 0 0 0 
trait 2 0.202591 0.00236529 0 0 0.00144811 0 0 0 
trait 3 0.00410156 0.136731 0.0883757 0.438306 0.074912 0 0 0 
node 1 3 1 3
node 2 3 1 1
node 3 2 1 1
node 4 1 1 1
node 5 3 1 1
node 6 1 0 2
node 7 3 0 2
node 10 1 0 0
node 13 2 0 0
node 18 1 0 0
node 42 1 0 0
node 124 1 0 0
node 148 1 0 0
node 195 1 0 0
gene 2 1 6 -3.3667 0 1 -3.3667 1
gene 2 2 6 1.53912 0 2 1.53912 1
gene 3 3 6 -4.64437 0 3 -4.64437 1
gene 1 4 6 2.5365 0 4 2.5365 1
gene 3 5 6 2.72167 0 5 2.72167 1
gene 3 1 7 2.49259 0 6 2.49259 1
gene 1 2 7 -1.99487 0 7 -1.99487 1
gene 2 3 7 0.0355998 0 8 0.0355998 0
gene 3 4 7 3.64478 0 9 3.64478 1
gene 2 5 7 5.309 0 10 5.309 1
gene 1 5 10 -0.811703 0 19 -0.811703 1
gene 2 10 7 0.346023 0 20 0.346023 0
gene 1 2 13 2.69728 0 27 2.69728 1
gene 1 13 7 -3.76746 0 28 -3.76746 1
gene 2 5 18 2.28152 0 38 2.28152 1
gene 2 18 10 1.99672 0 39 1.99672 1
gene 2 10 42 -5.67515 0 137 -5.67515 0
gene 2 42 7 2.07239 0 138 2.07239 1
gene 3 3 124 2.32035 0 434 2.32035 1
gene 3 124 6 0.871106 0 435 0.871106 1
gene 2 10 148 -2.41645 0 525 -2.41645 1
gene 2 148 42 1.60298 0 526 1.60298 1
gene 2 6 10 0.419467 0 540 0.419467 1
gene 3 124 148 1.16205 0 668 1.16205 1
gene 1 13 42 7.76718 0 684 7.76718 1
gene 3 124 195 2.2422 0 739 2.2422 1
gene 3 195 6 5.4885 0 740 5.4885 1
gene 3 2 148 0.0776907 0 794 0.0776907 1
gene 2 4 195 1.29027 0 928 1.29027 1
genomeend 17

/* Organism #18 Fitness: 9 Error: 0 */
genomestart 18
trait 1 0.1 0 0 0 0 0 0 0 
trait 2 0.202591 0.00236529 0 0 0.00144811 0 0 0 
trait 3 0.00410156 0.136731 0.0883757 0.438306 0.074912 0 0 0 
node 1 3 1 3
node 2 3 1 1
node 3 2 1 1
node 4 1 1 1
node 5 3 1 1
node 6 1 0 2
node 7 3 0 2
node 10 1 0 0
node 13 2 0 0
node 18 1 0 0
node 42 1 0 0
node 124 1 0 0
node 148 1 0 0
node 195 1 0 0
gene 2 1 6 -2.09712 0 1 -2.09712 1
gene 2 2 6 -6.41532 0 2 -6.41532 1
gene 3 3 6 -5.62023 0 3 -5.62023 1
gene 1 4 6 1.27227 0 4 1.27227 1
gene 3 5 6 3.35397 0 5 3.35397 1
gene 3 1 7 -0.107275 0 6 -0.107275 1
gene 1 2 7 -1.6286 0 7 -1.6286 0
gene 2 3 7 -1.44691 0 8 -1.44691 0
gene 3 4 7 0.495747 0 9 0.495747 1
gene 2 5 7 2.38087 0 10 2.38087 1
gene 1 5 10 -5.20635 0 19 -5.20635 1
gene 2 10 7 0.0288868 0 20 0.0288868 1
gene 1 2 13 2.26854 0 27 2.26854 1
gene 1 13 7 0.626523 0 28 0.626523 1
gene 2 5 18 -5.46962 0 38 -5.46962 1
gene 2 18 10 0.474231 0 39 0.474231 1
gene 2 10 42 -1.60681 0 137 -1.60681 0
gene 2 42 7 1.16661 0 138 1.16661 1
gene 3 3 124 2.09068 0 434 2.09068 1
gene 3 124 6 1.46089 0 435 1.46089 1
gene 2 10 148 -2.82902 0 525 -2.82902 1
gene 2 148 42 2.32517 0 526 2.32517 1
gene 2 6 10 0.222464 0 540 0.222464 1
gene 3 124 148 1.58984 0 668 1.58984 1
gene 1 13 42 7.56849 0 684 7.56849 1
gene 3 124 195 6.57993 0 739 6.57993 1
gene 3 195 6 3.77685 0 740 3.77685 1
gene 3 2 148 -1.88354 0 794 -1.88354 1
gene 2 4 195 -3.32585 0 928 -3.32585 1
genomeend 18

/* Organism #19 Fitness: 76 Error: 0 */
genomestart 19
trait 1 0.1 0 0 0 0 0 0 0 
trait 2 0.202591 0.00236529 0 0 0.00144811 0 0 0 
trait 3 0.00410156 0.136731 0.0883757 0.438306 0.074912 0 0 0 
node 1 3 1 3
node 2 3 1 1
node 3 2 1 1
node 4 1 1 1
node 5 3 1 1
node 6 1 0 2
node 7 3 0 2
node 10 1 0 0
node 13 2 0 0
node 18 1 0 0
node 42 1 0 0
node 124 1 0 0
node 148 1 0 0
node 195 1 0 0
node 269 1 0 0
gene 2 1 6 -3.47835 0 1 -3.47835 1
gene 2 2 6 -7.80384 0 2 -7.80384 1
gene 3 3 6 -6.98687 0 3 -6.98687 0
gene 1 4 6 1.67286 0 4 1.67286 1
gene 3 5 6 2.78323 0 5 2.78323 1
gene 3 1 7 3.60888 0 6 3.60888 1
gene 1 2 7 -2.82024 0 7 -2.82024 0
gene 2 3 7 1.94268 0 8 1.94268 0
gene 3 4 7 3.80578 0 9 3.80578 1
gene 2 5 7 3.95542 0 10 3.95542 0
gene 1 5 10 -4.99885 0 19 -4.99885 1
gene 2 10 7 2.03128 0 20 2.03128 0
gene 1 2 13 2.49992 0 27 2.49992 1
gene 1 13 7 1.38382 0 28 1.38382 1
gene 2 5 18 -3.74711 0 38 -3.74711 1
gene 2 18 10 -1.99004 0 39 -1.99004 1
gene 2 10 42 1.37118 0 137 1.37118 0
gene 2 42 7 1.80712 0 138 1.80712 1
gene 3 3 124 -2.49155 0 434 -2.49155 1
gene 3 124 6 -1.89878 0 435 -1.89878 0
gene 2 10 148 -4.10071 0 525 -4.10071 1
gene 2 148 42 -0.0685905 0 526 -0.0685905 1
gene 2 6 10 -4.03637 0 540 -4.03637 1
gene 3 124 148 -4.09393 0 668 -4.09393 1
gene 1 13 42 5.5897 0 684 5.5897 1
gene 3 124 195 1.55965 0 739 1.55965 1
gene 3 195 6 0.548325 0 740 0.548325 1
gene 3 2 148 0.779331 0 794 0.779331 1
gene 2 4 195 -0.215677 0 928 -0.215677 1
gene 3 3 269 3.42375 0 1018 3.42375 1
gene 3 269 6 -7.18472 0 1019 -7.18472 1
genomeend 19

/* Organism #20 Fitness: 30 Error: 0 */
genomestart 20
trait 1 0.1 0 0 0 0 0 0 0 
trait 2 0 0.00236529 0 0 0.700103 0 0.993636 0 
trait 3 0.00410156 0.136731 0.0883757 0.438306 0.074912 0 0 0 
node 1 3 1 3
node 2 3 1 1
node 3 2 1 1
node 4 1 1 1
node 5 3 1 1
node 6 1 0 2
node 7 3 0 2
node 10 1 0 0
node 13 2 0 0
node 18 1 0 0
node 42 1 0 0
node 124 1 0 0
node 148 1 0 0
node 195 1 0 0
gene 2 1 6 -4.33651 0 1 -4.33651 1
gene 2 2 6 1.32047 0 2 1.32047 1
gene 3 3 6 -7.91177 0 3 -7.91177 1
gene 1 4 6 0.208863 0 4 0.208863 1
gene 3 5 6 0.57731 0 5 0.57731 1
gene 3 1 7 1.70557 0 6 1.70557 1
gene 1 2 7 -4.13591 0 7 -4.13591 0
gene 2 3 7 -0.97632 0 8 -0.97632 0
gene 3 4 7 0.740204 0 9 0.740204 1
gene 2 5 7 6.60466 0 10 6.60466 0
gene 1 5 10 -4.19598 0 19 -4.19598 1
gene 2 10 7 -3.15914 0 20 -3.15914 0
gene 1 2 13 2.68498 0 27 2.68498 1
gene 1 13 7 -0.496912 0 28 -0.496912 1
gene 2 5 18 2.37194 0 38 2.37194 1
gene 2 18 10 -0.234022 0 39 -0.234022 1
gene 2 10 42 -6.78476 0 137 -6.78476 0
gene 2 42 7 4.11618 0 138 4.11618 1
gene 3 3 124 -0.155479 0 434 -0.155479 1
gene 3 124 6 -0.887814 0 435 -0.887814 0
gene 2 10 148 -0.00890896 0 525 -0.00890896 1
gene 2 148 42 2.89316 0 526 2.89316 1
gene 2 6 10 -2.77024 0 540 -2.77024 1
gene 3 124 148 -0.171992 0 668 -0.171992 1
gene 1 13 42 3.347 0 684 3.347 1
gene 3 124 195 6.233 0 739 6.233 1
gene 3 195 6 5.03545 0 740 5.03545 1
gene 3 2 148 -0.576498 0 794 -0.576498 1
gene 2 4 195 -2.55555 0 928 -2.55555 1
genomeend 20

/* Organism #21 Fitness: 13072 Error: 0 */
genomestart 21
trait 1 0.1 0 0 0 0 0 0 0 
trait 2 0.202591 0.00236529 0 0 0.00144811 0 0 0 
trait 3 0.00410156 0.136731 0.0883757 0.438306 0.074912 0 0 0 
node 1 3 1 3
node 2 3 1 1
node 3 2 1 1
node 4 1 1 1
node 5 3 1 1
node 6 1 0 2
node 7 3 0 2
node 10 1 0 0
node 13 2 0 0
node 18 1 0 0
node 42 1 0 0
node 124 1 0 0
node 148 1 0 0
node 195 1 0 0
gene 2 1 6 -3.3667 0 1 -3.3667 1
gene 2 2 6 -5.57612 0 2 -5.57612 1
gene 3 3 6 -5.62847 0 3 -5.62847 1
gene 1 4 6 2.5365 0 4 2.5365 1
gene 3 5 6 5.13875 0 5 5.13875 1
gene 3 1 7 2.49259 0 6 2.49259 1
gene 1 2 7 -2.82838 0 7 -2.82838 1
gene 2 3 7 0.16452 0 8 0.16452 0
gene 3 4 7 3.64478 0 9 3.64478 1
gene 2 5 7 5.309 0 10 5.309 1
gene 1 5 10 -3.20349 0 19 -3.20349 1
gene 2 10 7 0.54835 0 20 0.54835 0
gene 1 2 13 1.90411 0 27 1.90411 1
gene 1 13 7 -2.549 0 28 -2.549 1
gene 2 5 18 -5.16081 0 38 -5.16081 1
gene 2 18 10 -0.335304 0 39 -0.335304 1
gene 2 10 42 -7.18342 0 137 -7.18342 0
gene 2 42 7 1.80712 0 138 1.80712 1
gene 3 3 124 2.32035 0 434 2.32035 1
gene 3 124 6 -0.498525 0 435 -0.498525 1
gene 2 10 148 -2.48717 0 525 -2.48717 1
gene 2 148 42 1.60298 0 526 1.60298 1
gene 2 6 10 -1.10346 0 540 -1.10346 1
gene 3 124 148 -3.47232 0 668 -3.47232 1
gene 1 13 42 5.5897 0 684 5.5897 1
gene 3 124 195 4.66718 0 739 4.66718 1
gene 3 195 6 3.30315 0 740 3.30315 1
gene 3 2 148 -0.679781 0 794 -0.679781 1
gene 2 4 195 -1.08518 0 928 -1.08518 1
gene 3 3 195 -0.237493 0 1031 -0.237493 1
genomeend 21

/* Organism #22 Fitness: 16 Error: 0 */
genomestart 22
trait 1 0.1 0 0 0 0 0 0 0 
trait 2 0.202591 0.00236529 0 0 0.00144811 0 0 0 
trait 3 0.00410156 0.136731 0.0883757 0.438306 0.074912 0 0 0 
node 1 3 1 3
node 2 3 1 1
node 3 2 1 1
node 4 1 1 1
node 5 3 1 1
node 6 1 0 2
node 7 3 0 2
node 10 1 0 0
node 13 2 0 0
node 18 1 0 0
node 42 1 0 0
node 124 1 0 0
node 148 1 0 0
node 195 1 0 0
gene 2 1 6 -4.43712 0 1 -4.43712 1
gene 2 2 6 0.112474 0 2 0.112474 1
gene 3 3 6 1.46832 0 3 1.46832 1
gene 1 4 6 2.25181 0 4 2.25181 1
gene 3 5 6 5.13875 0 5 5.13875 1
gene 3 1 7 2.08762 0 6 2.08762 1
gene 1 2 7 -1.92979 0 7 -1.92979 0
gene 2 3 7 0.824277 0 8 0.824277 0
gene 3 4 7 3.14311 0 9 3.14311 1
gene 2 5 7 4.98875 0 10 4.98875 0
gene 1 5 10 -0.699729 0 19 -0.699729 1
gene 2 10 7 -0.547926 0 20 -0.547926 0
gene 1 2 13 2.85964 0 27 2.85964 1
gene 1 13 7 -2.09883 0 28 -2.09883 1
gene 2 5 18 -5.16081 0 38 -5.16081 1
gene 2 18 10 -1.57507 0 39 -1.57507 1
gene 2 10 42 -5.7663 0 137 -5.7663 0
gene 2 42 7 1.70597 0 138 1.70597 1
gene 3 3 124 1.58701 0 434 1.58701 1
gene 3 124 6 0.558712 0 435 0.558712 0
gene 2 10 148 1.00914 0 525 1.00914 1
gene 2 148 42 2.31339 0 526 2.31339 1
gene 2 6 10 0.521873 0 540 0.521873 1
gene 3 124 148 -1.52946 0 668 -1.52946 1
gene 1 13 42 7.34351 0 684 7.34351 1
gene 3 124 195 0.960952 0 739 0.960952 1
gene 3 195 6 1.87393 0 740 1.87393 1
gene 3 2 148 -0.177489 0 794 -0.177489 1
gene 2 4 195 1.486 0 928 1.486 1
genomeend 22

/* Organism #23 Fitness: 66 Error: 0 */
genomestart 23
trait 1 0.1 0 0 0 0 0 0 0 
trait 2 0.202591 0.00236529 0 0 0.00144811 0 0 0 
trait 3 0.00410156 0.136731 0.0883757 0.438306 0.074912 0 0 0 
node 1 3 1 3
node 2 3 1 1
node 3 2 1 1
node 4 1 1 1
node 5 3 1 1
node 6 1 0 2
node 7 3 0 2
node 10 1 0 0
node 13 2 0 0
node 18 1 0 0
node 42 1 0 0
node 124 1 0 0
node 148 1 0 0
node 195 1 0 0
node 273 1 0 0
gene 2 1 6 -3.3667 0 1 -3.3667 1
gene 2 2 6 -5.57612 0 2 -5.57612 1
gene 3 3 6 -6.26687 0 3 -6.26687 1
gene 1 4 6 2.5365 0 4 2.5365 1
gene 3 5 6 5.13875 0 5 5.13875 1
gene 3 1 7 3.14163 0 6 3.14163 1
gene 1 2 7 -2.48782 0 7 -2.48782 0
gene 2 3 7 0.16452 0 8 0.16452 0
gene 3 4 7 2.52719 0 9 2.52719 1
gene 2 5 7 6.35794 0 10 6.35794 0
gene 1 5 10 -3.20349 0 19 -3.20349 1
gene 2 10 7 -0.684907 0 20 -0.684907 0
gene 1 2 13 1.5635 0 27 1.5635 1
gene 1 13 7 -2.25657 0 28 -2.25657 1
gene 2 5 18 -5.16081 0 38 -5.16081 1
gene 2 18 10 -0.234022 0 39 -0.234022 1
gene 2 10 42 -7.87179 0 137 -7.87179 0
gene 2 42 7 1.80712 0 138 1.80712 1
gene 3 3 124 2.59932 0 434 2.59932 1
gene 3 124 6 -0.498525 0 435 -0.498525 0
gene 2 10 148 -2.19378 0 525 -2.19378 1
gene 2 148 42 1.60298 0 526 1.60298 1
gene 2 6 10 -1.10346 0 540 -1.10346 1
gene 3 124 148 -3.47232 0 668 -3.47232 1
gene 1 13 42 4.55942 0 684 4.55942 0
gene 3 124 195 5.61966 0 739 5.61966 1
gene 3 195 6 3.30315 0 740 3.30315 1
gene 3 2 148 -0.576498 0 794 -0.576498 1
gene 2 4 195 -1.08518 0 928 -1.08518 1
gene 1 13 273 1 0 1032 0 1
gene 1 273 42 4.55942 0 1033 0 1
genomeend 23

/* Organism #24 Fitness: 73 Error: 0 */
genomestart 24
trait 1 0.1 0 0 0 0 0 0 0 
trait 2 0.202591 0.00236529 0 0 0.00144811 0 0 0 
trait 3 0.00410156 0.136731 0.0883757 0.438306 0.074912 0 0 0 
node 1 3 1 3
node 2 3 1 1
node 3 2 1 1
node 4 1 1 1
node 5 3 1 1
node 6 1 0 2
node 7 3 0 2
node 10 1 0 0
node 13 2 0 0
node 18 1 0 0
node 42 1 0 0
node 124 1 0 0
node 148 1 0 0
node 195 1 0 0
gene 2 1 6 -2.02727 0 1 -2.02727 1
gene 2 2 6 -6.77831 0 2 -6.77831 1
gene 3 3 6 -4.73321 0 3 -4.73321 1
gene 1 4 6 -2.07625 0 4 -2.07625 1
gene 3 5 6 5.13875 0 5 5.13875 1
gene 3 1 7 1.4001 0 6 1.4001 1
gene 1 2 7 -0.315481 0 7 -0.315481 1
gene 2 3 7 1.4795 0 8 1.4795 0
gene 3 4 7 3.64478 0 9 3.64478 1
gene 2 5 7 5.309 0 10 5.309 0
gene 1 5 10 -1.29955 0 19 -1.29955 1
gene 2 10 7 -0.90006 0 20 -0.90006 0
gene 1 2 13 2.40674 0 27 2.40674 1
gene 1 13 7 -0.783928 0 28 -0.783928 1
gene 2 5 18 -5.16081 0 38 -5.16081 1
gene 2 18 10 1.31867 0 39 1.31867 1
gene 2 10 42 -7.94015 0 137 -7.94015 0
gene 2 42 7 1.93308 0 138 1.93308 1
gene 3 3 124 3.24111 0 434 3.24111 1
gene 3 124 6 -2.51161 0 435 -2.51161 0
gene 2 10 148 -1.18294 0 525 -1.18294 1
gene 2 148 42 3.62467 0 526 3.62467 1
gene 2 6 10 -2.66337 0 540 -2.66337 1
gene 3 124 148 -0.190589 0 668 -0.190589 1
gene 1 13 42 4.97856 0 684 4.97856 1
gene 3 124 195 -0.908289 0 739 -0.908289 1
gene 3 195 6 3.03647 0 740 3.03647 1
gene 3 2 148 -1.84144 0 794 -1.84144 1
gene 2 4 195 0.0465754 0 928 0.0465754 1
genomeend 24

/* Organism #25 Fitness: 16 Error: 0 */
genomestart 25
trait 1 0.1 0 0 0 0 0 0 0 
trait 2 0.202591 0.00236529 0 0 0.00144811 0 0 0 
trait 3 0.00410156 0.136731 0.0883757 0.438306 0.074912 0 0 0 
node 1 3 1 3
node 2 3 1 1
node 3 2 1 1
node 4 1 1 1
node 5 3 1 1
node 6 1 0 2
node 7 3 0 2
node 10 1 0 0
node 13 2 0 0
node 18 1 0 0
node 42 1 0 0
node 124 1 0 0
node 148 1 0 0
node 195 1 0 0
gene 2 1 6 -2.77968 0 1 -2.77968 1
gene 2 2 6 -4.75226 0 2 -4.75226 1
gene 3 3 6 -3.55425 0 3 -3.55425 1
gene 1 4 6 1.31248 0 4 1.31248 1
gene 3 5 6 6.7895 0 5 6.7895 1
gene 3 1 7 2.36028 0 6 2.36028 1
gene 1 2 7 -3.57747 0 7 -3.57747 1
gene 2 3 7 -1.24579 0 8 -1.24579 0
gene 3 4 7 -0.362524 0 9 -0.362524 1
gene 2 5 7 5.6493 0 10 5.6493 1
gene 1 5 10 -1.14127 0 19 -1.14127 1
gene 2 10 7 -0.922716 0 20 -0.922716 0
gene 1 2 13 1.25334 0 27 1.25334 1
gene 3 13 7 -1.50868 0 28 -1.50868 1
gene 2 5 18 -6.61669 0 38 -6.61669 1
gene 2 18 10 -1.23769 0 39 -1.23769 1
gene 2 10 42 -7.78905 0 137 -7.78905 0
gene 2 42 7 1.80712 0 138 1.80712 1
gene 3 3 124 2.24289 0 434 2.24289 1
gene 3 124 6 -2.77934 0 435 -2.77934 1
gene 2 10 148 -0.95184 0 525 -0.95184 1
gene 2 148 42 1.59607 0 526 1.59607 1
gene 2 6 10 -1.66875 0 540 -1.66875 1
gene 3 124 148 -3.01409 0 668 -3.01409 1
gene 1 13 42 7.9805 0 684 7.9805 1
gene 3 124 195 2.54131 0 739 2.54131 1
gene 3 195 6 -0.490293 0 740 -0.490293 1
gene 3 2 148 -0.15754 0 794 -0.15754 1
gene 2 4 195 -2.95058 0 928 -2.95058 1
genomeend 25

/* Organism #26 Fitness: 100001 Error: 0 */
/* ##------$ WINNER 26 SPECIES #52 $------## */
genomestart 26
trait 1 0.1 0 0 0 0 0 0 0 
trait 2 0.202591 0.00236529 0 0 0.00144811 0 0 0 
trait 3 0.00410156 0.136731 0.0883757 0.438306 0.074912 0 0 0 
node 1 3 1 3
node 2 3 1 1
node 3 2 1 1
node 4 1 1 1
node 5 3 1 1
node 6 1 0 2
node 7 3 0 2
node 10 1 0 0
node 13 2 0 0
node 18 1 0 0
node 42 1 0 0
node 124 1 0 0
node 148 1 0 0
node 195 1 0 0
gene 2 1 6 -3.3667 0 1 -3.3667 1
gene 2 2 6 -5.57612 0 2 -5.57612 1
gene 3 3 6 -5.62847 0 3 -5.62847 1
gene 1 4 6 2.5365 0 4 2.5365 1
gene 3 5 6 5.13875 0 5 5.13875 1
gene 3 1 7 2.49259 0 6 2.49259 1
gene 1 2 7 -2.82838 0 7 -2.82838 1
gene 2 3 7 0.16452 0 8 0.16452 0
gene 3 4 7 3.64478 0 9 3.64478 1
gene 2 5 7 5.309 0 10 5.309 1
gene 1 5 10 -3.20349 0 19 -3.20349 1
gene 2 10 7 0.54835 0 20 0.54835 0
gene 1 2 13 1.90411 0 27 1.90411 1
gene 3 13 7 -2.549 0 28 -2.549 1
gene 2 5 18 -5.16081 0 38 -5.16081 1
gene 2 18 10 -0.335304 0 39 -0.335304 1
gene 2 10 42 -7.18342 0 137 -7.18342 0
gene 2 42 7 1.80712 0 138 1.80712 1
gene 3 3 124 2.32035 0 434 2.32035 1
gene 3 124 6 -0.498525 0 435 -0.498525 1
gene 2 10 148 -2.48717 0 525 -2.48717 1
gene 2 148 42 1.60298 0 526 1.60298 1
gene 2 6 10 -1.10346 0 540 -1.10346 1
gene 3 124 148 -3.47232 0 668 -3.47232 1
gene 1 13 42 5.5897 0 684 5.5897 1
gene 3 124 195 4.66718 0 739 4.66718 1
gene 3 195 6 3.30315 0 740 3.30315 1
gene 3 2 148 -0.679781 0 794 -0.679781 1
gene 2 4 195 -1.08518 0 928 -1.08518 1
gene 2 124 42 0.316876 0 1034 0.316876 1
genomeend 26

/* Organism #27 Fitness: 27 Error: 0 */
genomestart 27
trait 1 0.1 0 0 0 0 0 0.647259 0 
trait 2 0.101296 0.00236529 0 0 0.350775 0 0.496818 0 
trait 3 0.00410156 0.136731 0.0883757 0.438306 0.074912 0 0 0 
node 1 3 1 3
node 2 3 1 1
node 3 2 1 1
node 4 1 1 1
node 5 3 1 1
node 6 1 0 2
node 7 3 0 2
node 10 1 0 0
node 13 2 0 0
node 18 1 0 0
node 42 1 0 0
node 124 1 0 0
node 148 1 0 0
node 195 1 0 0
gene 2 1 6 1.1683 0 1 1.1683 1
gene 2 2 6 -5.06056 0 2 -5.06056 1
gene 3 3 6 -1.67106 0 3 -1.67106 1
gene 1 4 6 2.37835 0 4 2.37835 1
gene 3 5 6 3.87617 0 5 3.87617 1
gene 3 1 7 3.57999 0 6 3.57999 1
gene 1 2 7 1.86562 0 7 1.86562 0
gene 2 3 7 1.82769 0 8 1.82769 0
gene 3 4 7 -2.48158 0 9 -2.48158 1
gene 2 5 7 5.83347 0 10 5.83347 0
gene 1 5 10 -5.14553 0 19 -5.14553 1
gene 2 10 7 -2.34838 0 20 -2.34838 0
gene 1 2 13 0.998416 0 27 0.998416 1
gene 1 13 7 -0.876596 0 28 -0.876596 1
gene 2 5 18 -7.43097 0 38 -7.43097 1
gene 2 18 10 -2.4682 0 39 -2.4682 1
gene 2 10 42 -8 0 137 -8 1
gene 2 42 7 -0.268925 0 138 -0.268925 1
gene 3 3 124 0.989964 0 434 0.989964 1
gene 3 124 6 -0.953494 0 435 -0.953494 0
gene 2 10 148 -0.242429 0 525 -0.242429 1
gene 2 148 42 0.00619892 0 526 0.00619892 1
gene 2 6 10 0.419059 0 540 0.419059 1
gene 3 124 148 -3.51143 0 668 -3.51143 1
gene 1 13 42 5.07456 0 684 5.07456 1
gene 3 124 195 -0.425307 0 739 -0.425307 1
gene 3 195 6 4.94395 0 740 4.94395 1
gene 3 2 148 -2.34021 0 794 -2.34021 1
gene 2 4 195 -3.4768 0 928 -3.4768 1
genomeend 27

/* Organism #28 Fitness: 15 Error: 0 */
genomestart 28
trait 1 0.1 0 0 0 0 0 0 0 
trait 2 0.202591 0.00236529 0 0 0.00144811 0 0 0 
trait 3 0.00410156 0.136731 0.0883757 0.438306 0.074912 0 0 0 
node 1 3 1 3
node 2 3 1 1
node 3 2 1 1
node 4 1 1 1
node 5 3 1 1
node 6 1 0 2
node 7 3 0 2
node 10 1 0 0
node 13 2 0 0
node 18 1 0 0
node 42 1 0 0
node 124 1 0 0
node 148 1 0 0
node 195 1 0 0
gene 2 1 6 -2.98974 0 1 -2.98974 1
gene 2 2 6 -6.64438 0 2 -6.64438 1
gene 3 3 6 -6.22771 0 3 -6.22771 1
gene 1 4 6 1.69265 0 4 1.69265 1
gene 3 5 6 6.52483 0 5 6.52483 1
gene 2 1 7 3.22869 0 6 3.22869 1
gene 1 2 7 -2.01559 0 7 -2.01559 1
gene 2 3 7 -1.06686 0 8 -1.06686 0
gene 3 4 7 4.68947 0 9 4.68947 1
gene 2 5 7 5.3614 0 10 5.3614 1
gene 1 5 10 -2.01697 0 19 -2.01697 1
gene 2 10 7 0.119293 0 20 0.119293 0
gene 1 2 13 1.5602 0 27 1.5602 1
gene 1 13 7 -1.48286 0 28 -1.48286 1
gene 2 5 18 -7.22495 0 38 -7.22495 1
gene 2 18 10 -1.32913 0 39 -1.32913 1
gene 2 10 42 -6.67295 0 137 -6.67295 0
gene 2 42 7 0.686337 0 138 0.686337 1
gene 3 3 124 3.16023 0 434 3.16023 1
gene 3 124 6 -2.9168 0 435 -2.9168 1
gene 2 10 148 -0.27299 0 525 -0.27299 1
gene 2 148 42 3.10321 0 526 3.10321 1
gene 2 6 10 -1.87363 0 540 -1.87363 1
gene 3 124 148 -4.23242 0 668 -4.23242 1
gene 1 13 42 5.5897 0 684 5.5897 1
gene 3 124 195 5.20311 0 739 5.20311 1
gene 3 195 6 -0.734433 0 740 -0.734433 1
gene 3 2 148 0.955163 0 794 0.955163 1
gene 2 4 195 -0.706368 0 928 -0.706368 1
genomeend 28

/* Organism #29 Fitness: 20 Error: 0 */
genomestart 29
trait 1 0.1 0 0 0 0 0 0 0 
trait 2 0.202591 0.00236529 0 0 0.00144811 0 0 0 
trait 3 0.00410156 0.136731 0.0883757 0.438306 0.074912 0 0 0 
node 1 3 1 3
node 2 3 1 1
node 3 2 1 1
node 4 1 1 1
node 5 3 1 1
node 6 1 0 2
node 7 3 0 2
node 10 1 0 0
node 13 2 0 0
node 18 1 0 0
node 42 1 0 0
node 124 1 0 0
node 148 1 0 0
node 195 1 0 0
gene 2 1 6 -3.83583 0 1 -3.83583 1
gene 2 2 6 -6.51314 0 2 -6.51314 1
gene 3 3 6 -3.52087 0 3 -3.52087 1
gene 1 4 6 1.45296 0 4 1.45296 1
gene 3 5 6 7.40829 0 5 7.40829 1
gene 3 1 7 1.14444 0 6 1.14444 1
gene 1 2 7 -0.855694 0 7 -0.855694 1
gene 2 3 7 2.00204 0 8 2.00204 0
gene 3 4 7 4.94945 0 9 4.94945 1
gene 2 5 7 7.73138 0 10 7.73138 1
gene 1 5 10 -2.90569 0 19 -2.90569 1
gene 2 10 7 1.80158 0 20 1.80158 0
gene 1 2 13 -0.481529 0 27 -0.481529 1
gene 1 13 7 -3.31561 0 28 -3.31561 1
gene 2 5 18 -6.91571 0 38 -6.91571 1
gene 2 18 10 1.63131 0 39 1.63131 1
gene 2 10 42 -5.09946 0 137 -5.09946 0
gene 2 42 7 3.77169 0 138 3.77169 1
gene 3 3 124 2.07667 0 434 2.07667 1
gene 3 124 6 -0.325709 0 435 -0.325709 1
gene 2 10 148 -0.232962 0 525 -0.232962 1
gene 2 148 42 3.75713 0 526 3.75713 1
gene 2 6 10 -0.109438 0 540 -0.109438 1
gene 3 124 148 -3.73253 0 668 -3.73253 1
gene 1 13 42 5.5897 0 684 5.5897 1
gene 3 124 195 4.66718 0 739 4.66718 1
gene 3 195 6 2.88133 0 740 2.88133 1
gene 3 2 148 0.446334 0 794 0.446334 1
gene 2 4 195 -1.56591 0 928 -1.56591 1
genomeend 29

/* Organism #30 Fitness: 74 Error: 0 */
genomestart 30
trait 1 0.1 0 0 0 0 0 0 0 
trait 2 0.202591 0.00236529 0 0 0.00144811 0 0 0 
trait 3 0.00410156 0.136731 0.0883757 0.438306 0.074912 0 0 0 
node 1 3 1 3
node 2 3 1 1
node 3 2 1 1
node 4 1 1 1
node 5 3 1 1
node 6 1 0 2
node 7 3 0 2
node 10 1 0 0
node 13 2 0 0
node 18 1 0 0
node 42 1 0 0
node 124 1 0 0
node 148 1 0 0
node 195 1 0 0
gene 2 1 6 -5.82154 0 1 -5.82154 1
gene 2 2 6 -3.59033 0 2 -3.59033 1
gene 3 3 6 1.42429 0 3 1.42429 1
gene 1 4 6 5.48314 0 4 5.48314 1
gene 3 5 6 2.1129 0 5 2.1129 1
gene 3 1 7 2.49259 0 6 2.49259 1
gene 1 2 7 0.850703 0 7 0.850703 0
gene 2 3 7 -0.0702715 0 8 -0.0702715 0
gene 3 4 7 4.17681 0 9 4.17681 1
gene 2 5 7 -1.47941 0 10 -1.47941 1
gene 1 5 10 -5.38086 0 19 -5.38086 1
gene 2 10 7 -2.71697 0 20 -2.71697 0
gene 1 2 13 0.0684528 0 27 0.0684528 1
gene 1 13 7 0.785229 0 28 0.785229 1
gene 2 5 18 -5.77843 0 38 -5.77843 1
gene 2 18 10 0.365728 0 39 0.365728 1
gene 2 10 42 -8 0 137 -8 0
gene 2 42 7 3.29927 0 138 3.29927 1
gene 3 3 124 4.0621 0 434 4.0621 1
gene 3 124 6 0.965362 0 435 0.965362 0
gene 2 10 148 -1.6003 0 525 -1.6003 1
gene 2 148 42 3.89301 0 526 3.89301 1
gene 2 6 10 2.42699 0 540 2.42699 1
gene 3 124 148 -2.3961 0 668 -2.3961 1
gene 1 13 42 1.36434 0 684 1.36434 1
gene 3 124 195 8 0 739 8 1
gene 3 195 6 -1.27543 0 740 -1.27543 1
gene 3 2 148 -1.32141 0 794 -1.32141 1
gene 2 4 195 -2.15821 0 928 -2.15821 1
genomeend 30

/* Organism #31 Fitness: 13 Error: 0 */
genomestart 31
trait 1 0.00550706 0 0 0 0 0 0.0235921 0.579587 
trait 2 0.202591 0.00236529 0 0 0.00144811 0 0 0 
trait 3 0.00410156 0.136731 0.0883757 0.438306 0.074912 0 0 0 
node 1 3 1 3
node 2 3 1 1
node 3 2 1 1
node 4 1 1 1
node 5 3 1 1
node 6 1 0 2
node 7 3 0 2
node 10 1 0 0
node 13 2 0 0
node 18 1 0 0
node 42 1 0 0
node 124 1 0 0
node 148 1 0 0
node 195 1 0 0
gene 2 1 6 -1.40863 0 1 -1.40863 1
gene 2 2 6 -6.18323 0 2 -6.18323 1
gene 3 3 6 -5.5463 0 3 -5.5463 1
gene 1 4 6 2.37835 0 4 2.37835 1
gene 3 5 6 3.88133 0 5 3.88133 1
gene 3 1 7 -0.116187 0 6 -0.116187 1
gene 1 2 7 -2.6581 0 7 -2.6581 1
gene 2 3 7 0.931161 0 8 0.931161 0
gene 3 4 7 1.6396 0 9 1.6396 1
gene 2 5 7 5.75934 0 10 5.75934 0
gene 1 5 10 1.60232 0 19 1.60232 1
gene 2 10 7 -0.0682784 0 20 -0.0682784 0
gene 1 2 13 -0.069889 0 27 -0.069889 1
gene 1 13 7 -2.40278 0 28 -2.40278 1
gene 2 5 18 -6.81301 0 38 -6.81301 1
gene 2 18 10 -0.335304 0 39 -0.335304 1
gene 2 10 42 -5.887 0 137 -5.887 0
gene 2 42 7 1.38722 0 138 1.38722 1
gene 3 3 124 2.18318 0 434 2.18318 1
gene 3 124 6 1.61795 0 435 1.61795 0
gene 2 10 148 -2.34047 0 525 -2.34047 1
gene 2 148 42 1.47493 0 526 1.47493 1
gene 2 6 10 -2.86327 0 540 -2.86327 1
gene 3 124 148 -3.05318 0 668 -3.05318 1
gene 1 13 42 6.8552 0 684 6.8552 1
gene 3 124 195 5.76653 0 739 5.76653 1
gene 3 195 6 0.575747 0 740 0.575747 1
gene 3 2 148 -1.61632 0 794 -1.61632 1
gene 2 4 195 2.18839 0 928 2.18839 1
genomeend 31

/* Organism #32 Fitness: 10 Error: 0 */
genomestart 32
trait 1 0.1 0 0 0 0 0 0 0 
trait 2 0.202591 0.00236529 0 0 0.00144811 0 0 0 
trait 3 0.00410156 0.136731 0.0883757 0.438306 0.074912 0 0 0 
node 1 3 1 3
node 2 3 1 1
node 3 2 1 1
node 4 1 1 1
node 5 3 1 1
node 6 1 0 2
node 7 3 0 2
node 10 1 0 0
node 13 2 0 0
node 18 1 0 0
node 42 1 0 0
node 124 1 0 0
node 148 1 0 0
node 195 1 0 0
gene 2 1 6 -5.57093 0 1 -5.57093 1
gene 2 2 6 -8 0 2 -8 1
gene 3 3 6 -6.38953 0 3 -6.38953 1
gene 1 4 6 -0.147491 0 4 -0.147491 1
gene 3 5 6 4.35088 0 5 4.35088 1
gene 3 1 7 3.66256 0 6 3.66256 1
gene 1 2 7 1.2456 0 7 1.2456 0
gene 2 3 7 1.14778 0 8 1.14778 0
gene 3 4 7 0.259784 0 9 0.259784 1
gene 2 5 7 3.9849 0 10 3.9849 0
gene 1 5 10 -3.88347 0 19 -3.88347 1
gene 2 10 7 -0.714316 0 20 -0.714316 0
gene 1 2 13 2.29175 0 27 2.29175 1
gene 1 13 7 -6.64446 0 28 -6.64446 1
gene 2 5 18 -1.88185 0 38 -1.88185 1
gene 2 18 10 -1.236 0 39 -1.236 1
gene 2 10 42 -5.89446 0 137 -5.89446 0
gene 2 42 7 2.24114 0 138 2.24114 1
gene 3 3 124 2.97677 0 434 2.97677 1
gene 3 124 6 -1.5527 0 435 -1.5527 0
gene 2 10 148 -2.46502 0 525 -2.46502 1
gene 2 148 42 0.300573 0 526 0.300573 1
gene 2 6 10 -2.67169 0 540 -2.67169 1
gene 3 124 148 -2.87146 0 668 -2.87146 1
gene 1 13 42 -0.538689 0 684 -0.538689 1
gene 3 124 195 0.546174 0 739 0.546174 1
gene 3 195 6 1.65142 0 740 1.65142 1
gene 3 2 148 -2.4932 0 794 -2.4932 1
gene 2 4 195 0.676716 0 928 0.676716 1
genomeend 32

/* Organism #33 Fitness: 28 Error: 0 */
genomestart 33
trait 1 0.1 0 0 0 0 0 0 0 
trait 2 0.202591 0.00236529 0 0 0.00144811 0 0 0 
trait 3 0.00410156 0.136731 0.0883757 0.438306 0.074912 0 0 0 
node 1 3 1 3
node 2 3 1 1
node 3 2 1 1
node 4 1 1 1
node 5 3 1 1
node 6 1 0 2
node 7 3 0 2
node 10 1 0 0
node 13 2 0 0
node 18 1 0 0
node 42 1 0 0
node 124 1 0 0
node 148 1 0 0
node 195 1 0 0
gene 2 1 6 -1.83926 0 1 -1.83926 1
gene 2 2 6 -7.27946 0 2 -7.27946 1
gene 3 3 6 -4.06176 0 3 -4.06176 1
gene 1 4 6 -1.34161 0 4 -1.34161 1
gene 3 5 6 7.53105 0 5 7.53105 1
gene 3 1 7 2.32093 0 6 2.32093 1
gene 1 2 7 -4.48396 0 7 -4.48396 0
gene 2 3 7 -1.51539 0 8 -1.51539 0
gene 3 4 7 3.22592 0 9 3.22592 1
gene 2 5 7 4.47019 0 10 4.47019 0
gene 1 5 10 0.0615245 0 19 0.0615245 1
gene 2 10 7 0.937571 0 20 0.937571 0
gene 1 2 13 3.07532 0 27 3.07532 1
gene 1 13 7 -1.05301 0 28 -1.05301 1
gene 2 5 18 -5.91689 0 38 -5.91689 1
gene 2 18 10 -2.15723 0 39 -2.15723 1
gene 2 10 42 -4.88257 0 137 -4.88257 0
gene 2 42 7 2.00958 0 138 2.00958 1
gene 3 3 124 3.16484 0 434 3.16484 1
gene 3 124 6 0.522423 0 435 0.522423 0
gene 2 10 148 -0.952435 0 525 -0.952435 1
gene 2 148 42 0.67419 0 526 0.67419 1
gene 2 6 10 -1.08589 0 540 -1.08589 1
gene 3 124 148 -5.34448 0 668 -5.34448 1
gene 1 13 42 3.07767 0 684 3.07767 1
gene 3 124 195 3.94041 0 739 3.94041 1
gene 3 195 6 3.25434 0 740 3.25434 1
gene 3 2 148 0.0419473 0 794 0.0419473 1
gene 2 4 195 -1.4768 0 928 -1.4768 1
genomeend 33

/* Organism #34 Fitness: 63 Error: 0 */
genomestart 34
trait 1 0.1 0 0 0 0 0 0 0 
trait 2 0.202591 0.00236529 0 0 0.00144811 0 0 0 
trait 3 0.00410156 0.594625 0 0 0.074912 0 0.417805 0 
node 1 3 1 3
node 2 3 1 1
node 3 2 1 1
node 4 1 1 1
node 5 3 1 1
node 6 1 0 2
node 7 3 0 2
node 10 1 0 0
node 13 2 0 0
node 18 1 0 0
node 42 1 0 0
node 124 1 0 0
node 148 1 0 0
node 195 1 0 0
gene 2 1 6 -2.00009 0 1 -2.00009 1
gene 2 2 6 -4.82025 0 2 -4.82025 1
gene 3 3 6 -6.64966 0 3 -6.64966 1
gene 1 4 6 2.7717 0 4 2.7717 1
gene 3 5 6 0.542402 0 5 0.542402 1
gene 3 1 7 2.54484 0 6 2.54484 1
gene 1 2 7 -0.213652 0 7 -0.213652 0
gene 2 3 7 0.00478931 0 8 0.00478931 0
gene 3 4 7 -0.469753 0 9 -0.469753 1
gene 2 5 7 8 0 10 8 0
gene 1 5 10 -0.762738 0 19 -0.762738 1
gene 2 10 7 -0.785758 0 20 -0.785758 0
gene 1 2 13 0.646264 0 27 0.646264 1
gene 1 13 7 -0.515791 0 28 -0.515791 1
gene 2 5 18 -6.09694 0 38 -6.09694 1
gene 2 18 10 -2.77538 0 39 -2.77538 1
gene 2 10 42 -6.5836 0 137 -6.5836 1
gene 2 42 7 1.63191 0 138 1.63191 1
gene 3 3 124 4.66036 0 434 4.66036 1
gene 3 124 6 -1.50522 0 435 -1.50522 1
gene 2 10 148 -3.04582 0 525 -3.04582 1
gene 2 148 42 4.41675 0 526 4.41675 1
gene 2 6 10 0.656176 0 540 0.656176 1
gene 3 124 148 -2.60584 0 668 -2.60584 1
gene 1 13 42 1.69517 0 684 1.69517 1
gene 3 124 195 2.89679 0 739 2.89679 1
gene 3 195 6 2.20122 0 740 2.20122 1
gene 3 2 148 0.891094 0 794 0.891094 1
gene 2 4 195 -0.13953 0 928 -0.13953 1
genomeend 34

/* Organism #35 Fitness: 76 Error: 0 */
genomestart 35
trait 1 0.1 0 0 0 0 0 0 0 
trait 2 0.202591 0.00236529 0 0 0.00144811 0 0 0 
trait 3 0.00410156 0.136731 0.0883757 0.438306 0.074912 0 0 0 
node 1 3 1 3
node 2 3 1 1
node 3 2 1 1
node 4 1 1 1
node 5 3 1 1
node 6 1 0 2
node 7 3 0 2
node 10 1 0 0
node 13 2 0 0
node 18 1 0 0
node 42 1 0 0
node 124 1 0 0
node 148 1 0 0
node 195 1 0 0
gene 2 1 6 -5.34382 0 1 -5.34382 1
gene 2 2 6 -6.46226 0 2 -6.46226 1
gene 3 3 6 -7.37531 0 3 -7.37531 1
gene 1 4 6 0.00227914 0 4 0.00227914 1
gene 3 5 6 3.90073 0 5 3.90073 1
gene 3 1 7 2.93288 0 6 2.93288 1
gene 1 2 7 -0.350556 0 7 -0.350556 0
gene 2 3 7 -0.865615 0 8 -0.865615 0
gene 3 4 7 3.36051 0 9 3.36051 1
gene 2 5 7 4.6742 0 10 4.6742 0
gene 1 5 10 -1.42538 0 19 -1.42538 1
gene 2 10 7 -1.43053 0 20 -1.43053 0
gene 1 2 13 3.17622 0 27 3.17622 1
gene 1 13 7 -2.58398 0 28 -2.58398 1
gene 2 5 18 -3.38712 0 38 -3.38712 1
gene 2 18 10 -1.86094 0 39 -1.86094 1
gene 2 10 42 -8 0 137 -8 0
gene 2 42 7 2.44643 0 138 2.44643 1
gene 3 3 124 3.72011 0 434 3.72011 1
gene 3 124 6 -3.30417 0 435 -3.30417 0
gene 2 10 148 -1.67293 0 525 -1.67293 1
gene 2 148 42 2.56011 0 526 2.56011 1
gene 2 6 10 -0.776052 0 540 -0.776052 1
gene 3 124 148 -4.48961 0 668 -4.48961 1
gene 1 13 42 5.87866 0 684 5.87866 1
gene 3 124 195 1.27333 0 739 1.27333 1
gene 3 195 6 -1.29149 0 740 -1.29149 1
gene 3 2 148 -0.576498 0 794 -0.576498 1
gene 2 4 195 -1.36702 0 928 -1.36702 1
gene 3 18 7 -2.65539 0 1017 -2.65539 1
genomeend 35

/* Organism #36 Fitness: 10 Error: 0 */
genomestart 36
trait 1 0.1 0 0 0 0 0 0 0 
trait 2 0.202591 0.00236529 0 0 0.00144811 0 0 0 
trait 3 0.00410156 0.136731 0.0883757 0.438306 0.074912 0 0 0 
node 1 3 1 3
node 2 3 1 1
node 3 2 1 1
node 4 1 1 1
node 5 3 1 1
node 6 1 0 2
node 7 3 0 2
node 10 1 0 0
node 13 2 0 0
node 18 1 0 0
node 42 1 0 0
node 124 1 0 0
node 148 1 0 0
node 195 1 0 0
gene 2 1 6 -0.435717 0 1 -0.435717 1
gene 2 2 6 -0.336936 0 2 -0.336936 1
gene 3 3 6 -7.56659 0 3 -7.56659 1
gene 1 4 6 1.07333 0 4 1.07333 1
gene 3 5 6 -1.00006 0 5 -1.00006 1
gene 3 1 7 1.12798 0 6 1.12798 1
gene 1 2 7 -1.31164 0 7 -1.31164 0
gene 2 3 7 1.89823 0 8 1.89823 0
gene 3 4 7 3.1888 0 9 3.1888 1
gene 2 5 7 7.78868 0 10 7.78868 0
gene 1 5 10 -0.191457 0 19 -0.191457 1
gene 2 10 7 -0.0682784 0 20 -0.0682784 1
gene 1 2 13 1.35026 0 27 1.35026 1
gene 1 13 7 -4.44263 0 28 -4.44263 1
gene 2 5 18 -3.96745 0 38 -3.96745 1
gene 2 18 10 -0.335304 0 39 -0.335304 1
gene 2 10 42 -8 0 137 -8 0
gene 2 42 7 -1.36269 0 138 -1.36269 1
gene 3 3 124 3.02858 0 434 3.02858 1
gene 3 124 6 1.074 0 435 1.074 0
gene 2 10 148 -4.36843 0 525 -4.36843 1
gene 2 148 42 1.2414 0 526 1.2414 1
gene 2 6 10 -3.25003 0 540 -3.25003 1
gene 3 124 148 -4.23382 0 668 -4.23382 1
gene 1 13 42 7.29846 0 684 7.29846 1
gene 3 124 195 4.0577 0 739 4.0577 1
gene 3 195 6 -2.38475 0 740 -2.38475 1
gene 3 2 148 1.77363 0 794 1.77363 1
gene 2 4 195 -0.286047 0 928 -0.286047 1
genomeend 36

/* Organism #37 Fitness: 15 Error: 0 */
genomestart 37
trait 1 0.1 0 0 0 0 0 0 0 
trait 2 0.202591 0.00236529 0 0 0.00144811 0 0 0 
trait 3 0.00410156 0.136731 0.0883757 0.438306 0.074912 0 0 0 
node 1 3 1 3
node 2 3 1 1
node 3 2 1 1
node 4 1 1 1
node 5 3 1 1
node 6 1 0 2
node 7 3 0 2
node 10 1 0 0
node 13 2 0 0
node 18 1 0 0
node 42 1 0 0
node 124 1 0 0
node 148 1 0 0
node 195 1 0 0
gene 2 1 6 -3.31938 0 1 -3.31938 1
gene 2 2 6 -6.85263 0 2 -6.85263 1
gene 3 3 6 -7.701 0 3 -7.701 1
gene 1 4 6 4.229 0 4 4.229 1
gene 3 5 6 7.18733 0 5 7.18733 1
gene 3 1 7 4.27062 0 6 4.27062 1
gene 1 2 7 -1.40706 0 7 -1.40706 1
gene 2 3 7 0.25153 0 8 0.25153 0
gene 3 4 7 1.18257 0 9 1.18257 1
gene 2 5 7 3.6944 0 10 3.6944 1
gene 1 5 10 -1.50127 0 19 -1.50127 1
gene 2 10 7 0.562411 0 20 0.562411 0
gene 1 2 13 3.72831 0 27 3.72831 1
gene 1 13 7 -2.19913 0 28 -2.19913 1
gene 2 5 18 -4.79668 0 38 -4.79668 1
gene 2 18 10 -2.27659 0 39 -2.27659 1
gene 2 10 42 -8 0 137 -8 0
gene 2 42 7 0.131159 0 138 0.131159 1
gene 3 3 124 4.2444 0 434 4.2444 1
gene 3 124 6 -0.049526 0 435 -0.049526 1
gene 2 10 148 -3.32147 0 525 -3.32147 1
gene 2 148 42 1.31293 0 526 1.31293 1
gene 2 6 10 0.104029 0 540 0.104029 1
gene 3 124 148 -2.09538 0 668 -2.09538 1
gene 1 13 42 4.46504 0 684 4.46504 1
gene 3 124 195 2.51366 0 739 2.51366 1
gene 3 195 6 3.30315 0 740 3.30315 1
gene 3 2 148 -0.679781 0 794 -0.679781 1
gene 2 4 195 -1.95262 0 928 -1.95262 1
genomeend 37

/* Organism #38 Fitness: 16 Error: 0 */
genomestart 38
trait 1 0.1 0 0 0 0 0 0 0 
trait 2 0.101296 0.00236529 0 0 0.350775 0 0.496818 0 
trait 3 0.00410156 0.136731 0.0883757 0.438306 0.074912 0 0 0 
node 1 3 1 3
node 2 3 1 1
node 3 2 1 1
node 4 1 1 1
node 5 3 1 1
node 6 1 0 2
node 7 3 0 2
node 10 1 0 0
node 13 2 0 0
node 18 1 0 0
node 42 1 0 0
node 124 1 0 0
node 148 1 0 0
node 195 1 0 0
gene 2 1 6 -3.3667 0 1 -3.3667 1
gene 2 2 6 -5.57612 0 2 -5.57612 1
gene 3 3 6 -6.26687 0 3 -6.26687 1
gene 1 4 6 2.2202 0 4 2.2202 1
gene 3 5 6 5.13875 0 5 5.13875 1
gene 3 1 7 2.49259 0 6 2.49259 1
gene 1 2 7 -2.82838 0 7 -2.82838 0
gene 2 3 7 0.16452 0 8 0.16452 0
gene 3 4 7 2.52719 0 9 2.52719 1
gene 2 5 7 5.309 0 10 5.309 1
gene 1 5 10 -2.32355 0 19 -2.32355 1
gene 2 10 7 0.54835 0 20 0.54835 0
gene 1 2 13 1.90411 0 27 1.90411 1
gene 1 13 7 -2.549 0 28 -2.549 1
gene 2 5 18 -5.16081 0 38 -5.16081 1
gene 2 18 10 -0.335304 0 39 -0.335304 1
gene 2 10 42 -7.18342 0 137 -7.18342 0
gene 2 42 7 2.01683 0 138 2.01683 1
gene 3 3 124 2.32035 0 434 2.32035 1
gene 3 124 6 -1.89878 0 435 -1.89878 0
gene 2 10 148 -2.19378 0 525 -2.19378 1
gene 2 148 42 2.6264 0 526 2.6264 1
gene 2 6 10 -2.25275 0 540 -2.25275 1
gene 3 124 148 -3.71787 0 668 -3.71787 1
gene 1 13 42 4.55942 0 684 4.55942 1
gene 3 124 195 5.61966 0 739 5.61966 1
gene 3 195 6 3.30315 0 740 3.30315 1
gene 3 2 148 -0.679781 0 794 -0.679781 1
gene 2 4 195 -1.08518 0 928 -1.08518 1
genomeend 38

/* Organism #39 Fitness: 41 Error: 0 */
genomestart 39
trait 1 0.1 0 0 0 0 0 0 0 
trait 2 0.202591 0.00236529 0 0 0.00144811 0 0 0 
trait 3 0.00410156 0.136731 0.0883757 0.438306 0.074912 0 0 0 
node 1 3 1 3
node 2 3 1 1
node 3 2 1 1
node 4 1 1 1
node 5 3 1 1
node 6 1 0 2
node 7 3 0 2
node 10 1 0 0
node 13 2 0 0
node 18 1 0 0
node 42 1 0 0
node 124 1 0 0
node 148 1 0 0
node 195 1 0 0
gene 2 1 6 -1.77928 0 1 -1.77928 1
gene 2 2 6 -8 0 2 -8 1
gene 3 3 6 -7.62731 0 3 -7.62731 1
gene 1 4 6 0.0745673 0 4 0.0745673 1
gene 3 5 6 0.772619 0 5 0.772619 1
gene 3 1 7 1.33892 0 6 1.33892 1
gene 1 2 7 -4.08172 0 7 -4.08172 0
gene 2 3 7 0.777182 0 8 0.777182 0
gene 3 4 7 1.10801 0 9 1.10801 1
gene 2 5 7 4.06826 0 10 4.06826 0
gene 1 5 10 -2.32355 0 19 -2.32355 1
gene 2 10 7 -0.671147 0 20 -0.671147 0
gene 1 2 13 2.74465 0 27 2.74465 1
gene 1 13 7 -1.09133 0 28 -1.09133 1
gene 2 5 18 -7.1356 0 38 -7.1356 1
gene 2 18 10 -1.96466 0 39 -1.96466 1
gene 2 10 42 -7.62101 0 137 -7.62101 0
gene 2 42 7 1.83661 0 138 1.83661 1
gene 3 3 124 4.38356 0 434 4.38356 1
gene 3 124 6 -1.89878 0 435 -1.89878 0
gene 2 10 148 0.245009 0 525 0.245009 1
gene 2 148 42 4.93 0 526 4.93 1
gene 2 6 10 -1.04692 0 540 -1.04692 1
gene 3 124 148 1.33609 0 668 1.33609 1
gene 1 13 42 4.55942 0 684 4.55942 1
gene 3 124 195 7.93044 0 739 7.93044 1
gene 3 195 6 1.46409 0 740 1.46409 1
gene 3 2 148 0.0419473 0 794 0.0419473 1
gene 2 4 195 -0.836049 0 928 -0.836049 1
gene 1 195 18 0.0680256 0 1035 0.0680256 1
genomeend 39

/* Organism #40 Fitness: 73 Error: 0 */
genomestart 40
trait 1 0 0 0.0740673 0 0.623689 0 0 0 
trait 2 0.202591 0.00236529 0 0 0.00144811 0 0 0 
trait 3 0.00410156 0.136731 0.0883757 0.438306 0.074912 0 0 0 
node 1 3 1 3
node 2 3 1 1
node 3 2 1 1
node 4 1 1 1
node 5 3 1 1
node 6 1 0 2
node 7 3 0 2
node 10 1 0 0
node 13 2 0 0
node 18 1 0 0
node 42 1 0 0
node 124 1 0 0
node 148 1 0 0
node 195 1 0 0
gene 2 1 6 -3.71876 0 1 -3.71876 1
gene 2 2 6 -5.20536 0 2 -5.20536 1
gene 3 3 6 -7.82238 0 3 -7.82238 1
gene 1 4 6 3.85133 0 4 3.85133 1
gene 3 5 6 1.6562 0 5 1.6562 1
gene 3 1 7 0.611499 0 6 0.611499 1
gene 1 2 7 -1.40858 0 7 -1.40858 1
gene 2 3 7 -0.59911 0 8 -0.59911 0
gene 3 4 7 1.56735 0 9 1.56735 1
gene 2 5 7 0.673321 0 10 0.673321 0
gene 1 5 10 -4.74216 0 19 -4.74216 1
gene 2 10 7 -3.74666 0 20 -3.74666 0
gene 1 2 13 2.45773 0 27 2.45773 1
gene 1 13 7 -3.31536 0 28 -3.31536 1
gene 2 5 18 -6.19932 0 38 -6.19932 1
gene 2 18 10 -0.201076 0 39 -0.201076 1
gene 2 10 42 -5.60366 0 137 -5.60366 0
gene 2 42 7 2.9305 0 138 2.9305 1
gene 3 3 124 4.7118 0 434 4.7118 1
gene 3 124 6 -1.70429 0 435 -1.70429 1
gene 2 10 148 -2.55051 0 525 -2.55051 1
gene 2 148 42 4.18747 0 526 4.18747 1
gene 2 6 10 -2.38051 0 540 -2.38051 1
gene 3 124 148 -5.7702 0 668 -5.7702 1
gene 1 13 42 5.7316 0 684 5.7316 1
gene 3 124 195 -1.65264 0 739 -1.65264 1
gene 3 195 6 -0.532287 0 740 -0.532287 1
gene 3 2 148 -0.832121 0 794 -0.832121 1
gene 2 4 195 -1.18333 0 928 -1.18333 1
genomeend 40

/* Organism #41 Fitness: 14 Error: 0 */
genomestart 41
trait 1 0.1 0 0 0 0 0 0 0 
trait 2 0.202591 0.00236529 0 0 0.00144811 0 0 0 
trait 3 0.00410156 0.136731 0.0883757 0.438306 0.074912 0 0 0 
node 1 1 1 3
node 2 3 1 1
node 3 2 1 1
node 4 1 1 1
node 5 3 1 1
node 6 1 0 2
node 7 3 0 2
node 10 1 0 0
node 13 2 0 0
node 18 1 0 0
node 42 1 0 0
node 124 1 0 0
node 148 1 0 0
node 195 1 0 0
gene 2 1 6 -2.5355 0 1 -2.5355 1
gene 2 2 6 -3.7835 0 2 -3.7835 1
gene 3 3 6 -3.49979 0 3 -3.49979 1
gene 1 4 6 2.92328 0 4 2.92328 1
gene 3 5 6 7.43281 0 5 7.43281 1
gene 3 1 7 2.65428 0 6 2.65428 1
gene 1 2 7 -2.22638 0 7 -2.22638 1
gene 2 3 7 -1.52431 0 8 -1.52431 0
gene 3 4 7 1.74563 0 9 1.74563 1
gene 2 5 7 6.87909 0 10 6.87909 1
gene 1 5 10 -2.10711 0 19 -2.10711 1
gene 2 10 7 2.80859 0 20 2.80859 0
gene 1 2 13 1.44285 0 27 1.44285 1
gene 1 13 7 -2.21991 0 28 -2.21991 1
gene 2 5 18 -4.98179 0 38 -4.98179 1
gene 2 18 10 0.387091 0 39 0.387091 1
gene 2 10 42 -7.26576 0 137 -7.26576 0
gene 2 42 7 2.77613 0 138 2.77613 1
gene 3 3 124 3.85495 0 434 3.85495 1
gene 3 124 6 -0.37989 0 435 -0.37989 1
gene 2 10 148 -3.7078 0 525 -3.7078 1
gene 2 148 42 0.604246 0 526 0.604246 1
gene 2 6 10 0.561092 0 540 0.561092 1
gene 3 124 148 -2.35906 0 668 -2.35906 1
gene 1 13 42 5.23129 0 684 5.23129 1
gene 3 124 195 -0.485414 0 739 -0.485414 1
gene 3 195 6 3.30315 0 740 3.30315 1
gene 3 2 148 -0.679781 0 794 -0.679781 1
gene 2 4 195 -2.73062 0 928 -2.73062 1
genomeend 41

/* Organism #42 Fitness: 16 Error: 0 */
genomestart 42
trait 1 0.1 0 0 0 0 0 0 0 
trait 2 0.202591 0.00236529 0 0 0.00144811 0 0 0 
trait 3 0.00410156 0.136731 0.0883757 0.438306 0.074912 0 0 0 
node 1 3 1 3
node 2 3 1 1
node 3 2 1 1
node 4 1 1 1
node 5 3 1 1
node 6 1 0 2
node 7 3 0 2
node 10 1 0 0
node 13 2 0 0
node 18 1 0 0
node 42 1 0 0
node 124 1 0 0
node 148 1 0 0
node 195 1 0 0
gene 2 1 6 -5.19802 0 1 -5.19802 1
gene 2 2 6 -7.34582 0 2 -7.34582 1
gene 3 3 6 -3.56478 0 3 -3.56478 1
gene 1 4 6 0.364579 0 4 0.364579 1
gene 3 5 6 4.70318 0 5 4.70318 1
gene 3 1 7 1.70951 0 6 1.70951 1
gene 1 2 7 -0.607945 0 7 -0.607945 1
gene 2 3 7 -2.19394 0 8 -2.19394 0
gene 3 4 7 2.93842 0 9 2.93842 1
gene 2 5 7 5.64014 0 10 5.64014 1
gene 1 5 10 -4.7423 0 19 -4.7423 1
gene 2 10 7 0.0645311 0 20 0.0645311 0
gene 1 2 13 4.28783 0 27 4.28783 1
gene 3 13 7 -4.93116 0 28 -4.93116 1
gene 2 5 18 -3.34922 0 38 -3.34922 1
gene 2 18 10 -2.40452 0 39 -2.40452 1
gene 2 10 42 -6.38803 0 137 -6.38803 0
gene 2 42 7 -0.573406 0 138 -0.573406 1
gene 3 3 124 0.104625 0 434 0.104625 1
gene 3 124 6 -2.9961 0 435 -2.9961 1
gene 2 10 148 -2.21632 0 525 -2.21632 1
gene 2 148 42 -0.419225 0 526 -0.419225 1
gene 2 6 10 1.28038 0 540 1.28038 1
gene 3 124 148 -2.19654 0 668 -2.19654 1
gene 1 13 42 5.3308 0 684 5.3308 1
gene 3 124 195 3.04262 0 739 3.04262 1
gene 3 195 6 4.04995 0 740 4.04995 1
gene 3 2 148 -1.74551 0 794 -1.74551 1
gene 2 4 195 -1.08518 0 928 -1.08518 1
genomeend 42

/* Organism #43 Fitness: 18 Error: 0 */
genomestart 43
trait 1 0.1 0 0 0 0 0 0 0 
trait 2 0.202591 0.00236529 0 0 0.00144811 0 0 0 
trait 3 0.00410156 0.136731 0.0883757 0.438306 0.074912 0 0 0 
node 1 3 1 3
node 2 3 1 1
node 3 2 1 1
node 4 1 1 1
node 5 3 1 1
node 6 1 0 2
node 7 3 0 2
node 10 1 0 0
node 13 2 0 0
node 18 1 0 0
node 42 1 0 0
node 124 1 0 0
node 148 1 0 0
node 195 1 0 0
gene 2 1 6 -3.21559 0 1 -3.21559 1
gene 2 2 6 -7.48692 0 2 -7.48692 1
gene 3 3 6 -7.29208 0 3 -7.29208 1
gene 1 4 6 4.32473 0 4 4.32473 1
gene 3 5 6 5.84323 0 5 5.84323 1
gene 3 1 7 2.76225 0 6 2.76225 1
gene 1 2 7 -2.50469 0 7 -2.50469 1
gene 2 3 7 1.78055 0 8 1.78055 0
gene 3 4 7 6.06253 0 9 6.06253 1
gene 2 5 7 6.0282 0 10 6.0282 1
gene 1 5 10 -4.87988 0 19 -4.87988 1
gene 2 10 7 -1.62891 0 20 -1.62891 0
gene 1 2 13 1.65648 0 27 1.65648 1
gene 3 13 7 -3.07528 0 28 -3.07528 1
gene 2 5 18 -3.80299 0 38 -3.80299 1
gene 2 18 10 1.18029 0 39 1.18029 1
gene 2 10 42 -8 0 137 -8 0
gene 2 42 7 1.90923 0 138 1.90923 1
gene 3 3 124 3.25117 0 434 3.25117 1
gene 3 124 6 -1.23004 0 435 -1.23004 1
gene 2 10 148 -2.13834 0 525 -2.13834 1
gene 2 148 42 -0.319165 0 526 -0.319165 1
gene 2 6 10 -2.30645 0 540 -2.30645 1
gene 3 124 148 -5.18054 0 668 -5.18054 1
gene 1 13 42 5.5897 0 684 5.5897 1
gene 3 124 195 3.08815 0 739 3.08815 1
gene 3 195 6 3.30315 0 740 3.30315 1
gene 3 2 148 -0.679781 0 794 -0.679781 1
gene 2 4 195 -2.6683 0 928 -2.6683 1
genomeend 43

/* Organism #44 Fitness: 23 Error: 0 */
genomestart 44
trait 1 0.1 0 0 0 0 0 0 0 
trait 2 0.202591 0.00236529 0 0 0.00144811 0 0 0 
trait 3 0.00410156 0.136731 0.0883757 0.438306 0.074912 0 0 0 
node 1 3 1 3
node 2 3 1 1
node 3 2 1 1
node 4 1 1 1
node 5 3 1 1
node 6 1 0 2
node 7 3 0 2
node 10 1 0 0
node 13 2 0 0
node 18 1 0 0
node 42 1 0 0
node 124 1 0 0
node 148 1 0 0
node 195 1 0 0
gene 2 1 6 -5.38737 0 1 -5.38737 1
gene 2 2 6 -7.0111 0 2 -7.0111 1
gene 3 3 6 -4.35079 0 3 -4.35079 1
gene 1 4 6 2.05224 0 4 2.05224 1
gene 3 5 6 4.97241 0 5 4.97241 1
gene 3 1 7 0.00493665 0 6 0.00493665 1
gene 1 2 7 -0.853521 0 7 -0.853521 1
gene 2 3 7 2.2461 0 8 2.2461 0
gene 3 4 7 5.95564 0 9 5.95564 1
gene 2 5 7 6.51164 0 10 6.51164 1
gene 1 5 10 -2.72472 0 19 -2.72472 1
gene 2 10 7 -1.4196 0 20 -1.4196 0
gene 1 2 13 0.352549 0 27 0.352549 1
gene 1 13 7 -0.188689 0 28 -0.188689 1
gene 2 5 18 -2.86546 0 38 -2.86546 1
gene 2 18 10 0.316633 0 39 0.316633 1
gene 2 10 42 -7.97514 0 137 -7.97514 0
gene 2 42 7 2.24059 0 138 2.24059 1
gene 3 3 124 0.747658 0 434 0.747658 1
gene 3 124 6 1.16881 0 435 1.16881 1
gene 2 10 148 -4.53473 0 525 -4.53473 1
gene 2 148 42 0.921448 0 526 0.921448 1
gene 2 6 10 -2.55871 0 540 -2.55871 1
gene 3 124 148 -3.17842 0 668 -3.17842 1
gene 1 13 42 5.43685 0 684 5.43685 1
gene 3 124 195 -2.00413 0 739 -2.00413 1
gene 3 195 6 3.75635 0 740 3.75635 1
gene 3 2 148 -0.960713 0 794 -0.960713 1
gene 2 4 195 -1.5732 0 928 -1.5732 1
genomeend 44

/* Organism #45 Fitness: 81 Error: 0 */
genomestart 45
trait 1 0.1 0 0 0 0 0 0 0 
trait 2 0.202591 0.00236529 0 0 0.00144811 0 0 0 
trait 3 0.00410156 0.136731 0.0883757 0.438306 0.074912 0 0 0 
node 1 3 1 3
node 2 3 1 1
node 3 2 1 1
node 4 1 1 1
node 5 3 1 1
node 6 1 0 2
node 7 3 0 2
node 10 1 0 0
node 13 2 0 0
node 18 1 0 0
node 42 1 0 0
node 124 1 0 0
node 148 1 0 0
node 195 1 0 0
gene 2 1 6 -1.77928 0 1 -1.77928 1
gene 2 2 6 -7.9192 0 2 -7.9192 1
gene 3 3 6 -5.45302 0 3 -5.45302 1
gene 1 4 6 1.7071 0 4 1.7071 1
gene 3 5 6 0.772619 0 5 0.772619 1
gene 3 1 7 0.596125 0 6 0.596125 1
gene 1 2 7 -4.08172 0 7 -4.08172 0
gene 2 3 7 -1.48817 0 8 -1.48817 0
gene 3 4 7 1.10801 0 9 1.10801 1
gene 2 5 7 4.04676 0 10 4.04676 0
gene 1 5 10 -1.52393 0 19 -1.52393 1
gene 2 10 7 0.44779 0 20 0.44779 0
gene 1 2 13 2.74465 0 27 2.74465 1
gene 1 13 7 -1.09133 0 28 -1.09133 1
gene 2 5 18 -7.1356 0 38 -7.1356 1
gene 2 18 10 -1.96466 0 39 -1.96466 1
gene 2 10 42 -5.80055 0 137 -5.80055 0
gene 2 42 7 3.88146 0 138 3.88146 1
gene 3 3 124 3.69788 0 434 3.69788 1
gene 3 124 6 -1.89878 0 435 -1.89878 0
gene 2 10 148 -1.39758 0 525 -1.39758 1
gene 2 148 42 4.93 0 526 4.93 1
gene 2 6 10 0.521873 0 540 0.521873 1
gene 3 124 148 -6.12936 0 668 -6.12936 1
gene 1 13 42 4.55942 0 684 4.55942 1
gene 3 124 195 4.91792 0 739 4.91792 1
gene 3 195 6 0.62254 0 740 0.62254 1
gene 3 2 148 0.0419473 0 794 0.0419473 1
gene 2 4 195 -0.955775 0 928 -0.955775 1
genomeend 45

/* Organism #46 Fitness: 59 Error: 0 */
genomestart 46
trait 1 0.1 0 0 0 0 0 0 0 
trait 2 0.202591 0.00236529 0 0 0.00144811 0 0 0 
trait 3 0.00410156 0.136731 0.0883757 0.438306 0.074912 0 0 0 
node 1 3 1 3
node 2 3 1 1
node 3 2 1 1
node 4 1 1 1
node 5 3 1 1
node 6 1 0 2
node 7 3 0 2
node 10 1 0 0
node 13 2 0 0
node 18 1 0 0
node 42 1 0 0
node 124 1 0 0
node 148 1 0 0
node 195 1 0 0
gene 2 1 6 -1.77928 0 1 -1.77928 1
gene 2 2 6 -5.10051 0 2 -5.10051 1
gene 3 3 6 -5.62847 0 3 -5.62847 1
gene 1 4 6 2.5365 0 4 2.5365 1
gene 3 5 6 5.13875 0 5 5.13875 1
gene 3 1 7 2.49259 0 6 2.49259 1
gene 1 2 7 -4.08172 0 7 -4.08172 0
gene 2 3 7 -1.48817 0 8 -1.48817 0
gene 3 4 7 1.10801 0 9 1.10801 1
gene 2 5 7 7.36865 0 10 7.36865 0
gene 1 5 10 -3.20349 0 19 -3.20349 1
gene 2 10 7 -0.797169 0 20 -0.797169 0
gene 1 2 13 2.74465 0 27 2.74465 1
gene 1 13 7 -1.09133 0 28 -1.09133 1
gene 2 5 18 -5.16081 0 38 -5.16081 1
gene 2 18 10 -1.96466 0 39 -1.96466 1
gene 2 10 42 -7.18342 0 137 -7.18342 0
gene 2 42 7 1.83017 0 138 1.83017 1
gene 3 3 124 2.32035 0 434 2.32035 1
gene 3 124 6 -1.89878 0 435 -1.89878 0
gene 2 10 148 -2.48717 0 525 -2.48717 1
gene 2 148 42 4.93 0 526 4.93 1
gene 2 6 10 -1.10346 0 540 -1.10346 1
gene 3 124 148 -3.47232 0 668 -3.47232 1
gene 1 13 42 5.5897 0 684 5.5897 1
gene 3 124 195 4.91792 0 739 4.91792 1
gene 3 195 6 3.30315 0 740 3.30315 1
gene 3 2 148 -0.679781 0 794 -0.679781 1
gene 2 4 195 -1.08518 0 928 -1.08518 1
genomeend 46

/* Organism #47 Fitness: 60 Error: 0 */
genomestart 47
trait 1 0.1 0 0 0 0 0 0 0 
trait 2 0.202591 0.00236529 0 0 0.00144811 0 0 0 
trait 3 0.00410156 0.136731 0.0883757 0.438306 0.074912 0 0 0 
node 1 3 1 3
node 2 3 1 1
node 3 2 1 1
node 4 1 1 1
node 5 3 1 1
node 6 1 0 2
node 7 3 0 2
node 10 1 0 0
node 13 2 0 0
node 18 1 0 0
node 42 1 0 0
node 124 1 0 0
node 148 1 0 0
node 195 1 0 0
gene 2 1 6 -6.09036 0 1 -6.09036 1
gene 2 2 6 -6.75273 0 2 -6.75273 1
gene 3 3 6 -7.12788 0 3 -7.12788 1
gene 1 4 6 -0.322751 0 4 -0.322751 1
gene 3 5 6 4.67322 0 5 4.67322 1
gene 3 1 7 2.08583 0 6 2.08583 1
gene 1 2 7 -1.84712 0 7 -1.84712 1
gene 2 3 7 0.225274 0 8 0.225274 0
gene 3 4 7 4.50624 0 9 4.50624 1
gene 2 5 7 3.80617 0 10 3.80617 0
gene 1 5 10 -2.18416 0 19 -2.18416 1
gene 2 10 7 -1.08726 0 20 -1.08726 0
gene 1 2 13 3.31817 0 27 3.31817 1
gene 1 13 7 -3.81255 0 28 -3.81255 1
gene 2 5 18 -5.14388 0 38 -5.14388 1
gene 2 18 10 0.470622 0 39 0.470622 1
gene 2 10 42 -6.30048 0 137 -6.30048 0
gene 2 42 7 2.61171 0 138 2.61171 1
gene 3 3 124 0.94516 0 434 0.94516 1
gene 3 124 6 -1.72815 0 435 -1.72815 1
gene 2 10 148 -2.61355 0 525 -2.61355 1
gene 2 148 42 3.29312 0 526 3.29312 1
gene 2 6 10 -1.7484 0 540 -1.7484 1
gene 3 124 148 -3.25271 0 668 -3.25271 1
gene 1 13 42 5.87616 0 684 5.87616 1
gene 3 124 195 0.59595 0 739 0.59595 1
gene 3 195 6 1.62781 0 740 1.62781 1
gene 3 2 148 0.53023 0 794 0.53023 1
gene 2 4 195 -2.24274 0 928 -2.24274 1
genomeend 47

/* Organism #48 Fitness: 8 Error: 0 */
genomestart 48
trait 1 0.1 0 0 0 0 0 0 0 
trait 2 0.202591 0.00236529 0 0 0.00144811 0 0 0 
trait 3 0.00410156 0.136731 0.0883757 0.438306 0.074912 0 0 0 
node 1 3 1 3
node 2 3 1 1
node 3 2 1 1
node 4 1 1 1
node 5 3 1 1
node 6 1 0 2
node 7 3 0 2
node 10 1 0 0
node 13 2 0 0
node 18 1 0 0
node 42 1 0 0
node 124 1 0 0
node 148 1 0 0
node 195 1 0 0
gene 2 1 6 -4.64568 0 1 -4.64568 1
gene 2 2 6 -6.59426 0 2 -6.59426 1
gene 3 3 6 -7.05054 0 3 -7.05054 1
gene 1 4 6 1.99984 0 4 1.99984 1
gene 2 5 6 3.72299 0 5 3.72299 1
gene 3 1 7 0.180113 0 6 0.180113 1
gene 1 2 7 -2.62941 0 7 -2.62941 0
gene 2 3 7 0.592788 0 8 0.592788 0
gene 3 4 7 3.64478 0 9 3.64478 1
gene 2 5 7 3.5788 0 10 3.5788 0
gene 1 5 10 -2.90354 0 19 -2.90354 1
gene 2 10 7 2.90463 0 20 2.90463 0
gene 1 2 13 1.7338 0 27 1.7338 1
gene 1 13 7 -2.549 0 28 -2.549 1
gene 2 5 18 -3.63577 0 38 -3.63577 1
gene 2 18 10 -1.736 0 39 -1.736 1
gene 2 10 42 -0.353013 0 137 -0.353013 0
gene 2 42 7 -0.0907438 0 138 -0.0907438 1
gene 3 3 124 4.33003 0 434 4.33003 1
gene 3 124 6 -1.99963 0 435 -1.99963 0
gene 2 10 148 1.06833 0 525 1.06833 1
gene 2 148 42 0.218945 0 526 0.218945 1
gene 2 6 10 0.694666 0 540 0.694666 1
gene 3 124 148 -3.12859 0 668 -3.12859 1
gene 1 13 42 0.137017 0 684 0.137017 1
gene 3 124 195 3.21279 0 739 3.21279 1
gene 3 195 6 5.45762 0 740 5.45762 1
gene 3 2 148 -2.06508 0 794 -2.06508 1
gene 2 4 195 -1.02048 0 928 -1.02048 1
genomeend 48

/* Organism #49 Fitness: 60 Error: 0 */
genomestart 49
trait 1 0.1 0 0 0 0 0 0 0 
trait 2 0.202591 0.00236529 0 0 0.00144811 0 0 0 
trait 3 0.00410156 0.136731 0.0883757 0.438306 0.074912 0 0 0 
node 1 3 1 3
node 2 3 1 1
node 3 2 1 1
node 4 1 1 1
node 5 3 1 1
node 6 1 0 2
node 7 3 0 2
node 10 1 0 0
node 13 2 0 0
node 18 1 0 0
node 42 1 0 0
node 124 1 0 0
node 148 1 0 0
node 195 1 0 0
gene 2 1 6 -4.15364 0 1 -4.15364 1
gene 2 2 6 -5.46773 0 2 -5.46773 1
gene 3 3 6 -5.94767 0 3 -5.94767 1
gene 1 4 6 2.98579 0 4 2.98579 1
gene 3 5 6 3.05533 0 5 3.05533 1
gene 3 1 7 2.81711 0 6 2.81711 1
gene 1 2 7 -0.253054 0 7 -0.253054 0
gene 2 3 7 -0.169822 0 8 -0.169822 0
gene 3 4 7 2.78785 0 9 2.78785 1
gene 2 5 7 2.90534 0 10 2.90534 0
gene 1 5 10 -2.76352 0 19 -2.76352 1
gene 2 10 7 -1.50457 0 20 -1.50457 0
gene 1 2 13 0.815974 0 27 0.815974 1
gene 1 13 7 -1.23783 0 28 -1.23783 1
gene 2 5 18 -5.44943 0 38 -5.44943 1
gene 2 18 10 -0.863354 0 39 -0.863354 1
gene 2 10 42 -7.93589 0 137 -7.93589 1
gene 2 42 7 2.55319 0 138 2.55319 1
gene 3 3 124 2.96268 0 434 2.96268 1
gene 3 124 6 -0.885719 0 435 -0.885719 0
gene 2 10 148 -2.68232 0 525 -2.68232 1
gene 2 148 42 2.9429 0 526 2.9429 1
gene 2 6 10 0.100194 0 540 0.100194 1
gene 3 124 148 -4.09933 0 668 -4.09933 1
gene 1 13 42 5.76503 0 684 5.76503 1
gene 3 124 195 6.47034 0 739 6.47034 1
gene 3 195 6 1.65086 0 740 1.65086 1
gene 3 2 148 -1.25452 0 794 -1.25452 1
gene 2 4 195 -1.18333 0 928 -1.18333 1
genomeend 49

/* Organism #50 Fitness: 30 Error: 0 */
genomestart 50
trait 1 0.1 0 0 0 0 0 0 0 
trait 2 0.101296 0.00236529 0 0 0.350775 0 0.496818 0 
trait 3 0.00410156 0.136731 0.0883757 0.438306 0.074912 0 0 0 
node 1 3 1 3
node 2 3 1 1
node 3 2 1 1
node 4 1 1 1
node 5 3 1 1
node 6 1 0 2
node 7 3 0 2
node 10 1 0 0
node 13 2 0 0
node 18 1 0 0
node 42 1 0 0
node 124 1 0 0
node 148 1 0 0
node 195 1 0 0
gene 2 1 6 -1.95451 0 1 -1.95451 1
gene 2 2 6 -5.09836 0 2 -5.09836 1
gene 3 3 6 -5.62816 0 3 -5.62816 1
gene 1 4 6 3.29776 0 4 3.29776 1
gene 3 5 6 4.54951 0 5 4.54951 1
gene 3 1 7 0.99178 0 6 0.99178 1
gene 1 2 7 1.6513 0 7 1.6513 1
gene 2 3 7 1.03237 0 8 1.03237 0
gene 3 4 7 1.78144 0 9 1.78144 1
gene 2 5 7 3.00076 0 10 3.00076 0
gene 1 5 10 -4.75047 0 19 -4.75047 1
gene 2 10 7 -2.74294 0 20 -2.74294 0
gene 1 2 13 1.72313 0 27 1.72313 1
gene 1 13 7 -2.88462 0 28 -2.88462 1
gene 2 5 18 -7.36087 0 38 -7.36087 1
gene 2 18 10 -0.000712705 0 39 -0.000712705 1
gene 2 10 42 -6.05767 0 137 -6.05767 0
gene 3 42 7 1.28281 0 138 1.28281 1
gene 3 3 124 4.83125 0 434 4.83125 1
gene 3 124 6 0.711189 0 435 0.711189 0
gene 2 10 148 -3.06545 0 525 -3.06545 1
gene 2 148 42 0.728761 0 526 0.728761 1
gene 2 6 10 1.98722 0 540 1.98722 1
gene 3 124 148 -2.32818 0 668 -2.32818 1
gene 1 13 42 7.04788 0 684 7.04788 1
gene 3 124 195 7.08177 0 739 7.08177 1
gene 3 195 6 1.65086 0 740 1.65086 1
gene 3 2 148 -1.25452 0 794 -1.25452 1
gene 2 4 195 1.24821 0 928 1.24821 1
genomeend 50

/* Organism #51 Fitness: 68 Error: 0 */
genomestart 51
trait 1 0.1 0 0 0 0 0 0 0 
trait 2 0.202591 0.00236529 0 0 0.00144811 0 0 0 
trait 3 0.00410156 0.136731 0.0883757 0.438306 0.074912 0 0 0 
node 1 3 1 3
node 2 3 1 1
node 3 2 1 1
node 4 1 1 1
node 5 3 1 1
node 6 1 0 2
node 7 3 0 2
node 10 1 0 0
node 13 2 0 0
node 18 1 0 0
node 42 1 0 0
node 124 1 0 0
node 148 1 0 0
node 195 1 0 0
gene 2 1 6 -3.3667 0 1 -3.3667 1
gene 2 2 6 -6.79034 0 2 -6.79034 1
gene 3 3 6 -5.62847 0 3 -5.62847 1
gene 1 4 6 2.5365 0 4 2.5365 1
gene 3 5 6 5.13875 0 5 5.13875 1
gene 3 1 7 2.49259 0 6 2.49259 1
gene 1 2 7 -2.48782 0 7 -2.48782 0
gene 2 3 7 0.16452 0 8 0.16452 0
gene 3 4 7 3.64478 0 9 3.64478 1
gene 2 5 7 5.309 0 10 5.309 0
gene 1 5 10 -3.20349 0 19 -3.20349 1
gene 2 10 7 0.54835 0 20 0.54835 0
gene 1 2 13 1.5635 0 27 1.5635 1
gene 1 13 7 -2.25657 0 28 -2.25657 1
gene 2 5 18 -5.16081 0 38 -5.16081 1
gene 2 18 10 -0.335304 0 39 -0.335304 1
gene 2 10 42 -7.18342 0 137 -7.18342 0
gene 2 42 7 1.80712 0 138 1.80712 1
gene 3 3 124 2.59932 0 434 2.59932 1
gene 3 124 6 -0.498525 0 435 -0.498525 0
gene 2 10 148 -2.19378 0 525 -2.19378 1
gene 2 148 42 1.60298 0 526 1.60298 1
gene 2 6 10 -1.10346 0 540 -1.10346 1
gene 3 124 148 -3.47232 0 668 -3.47232 1
gene 1 13 42 5.5897 0 684 5.5897 1
gene 3 124 195 4.66718 0 739 4.66718 1
gene 3 195 6 3.30315 0 740 3.30315 1
gene 3 2 148 -0.679781 0 794 -0.679781 1
gene 2 4 195 -1.08518 0 928 -1.08518 1
genomeend 51

/* Organism #52 Fitness: 74 Error: 0 */
genomestart 52
trait 1 0.1 0 0 0 0 0 0 0 
trait 2 0.202591 0.00236529 0 0 0.00144811 0 0 0 
trait 3 0.00410156 0.136731 0.0883757 0.438306 0.074912 0 0 0 
node 1 3 1 3
node 2 3 1 1
node 3 2 1 1
node 4 1 1 1
node 5 3 1 1
node 6 1 0 2
node 7 3 0 2
node 10 1 0 0
node 13 2 0 0
node 18 1 0 0
node 42 1 0 0
node 124 1 0 0
node 148 1 0 0
node 195 1 0 0
node 269 1 0 0
gene 2 1 6 -4.40172 0 1 -4.40172 1
gene 2 2 6 -4.31727 0 2 -4.31727 1
gene 3 3 6 -4.85138 0 3 -4.85138 0
gene 1 4 6 0.65049 0 4 0.65049 1
gene 3 5 6 1.4566 0 5 1.4566 1
gene 3 1 7 1.61711 0 6 1.61711 1
gene 1 2 7 -1.00138 0 7 -1.00138 0
gene 2 3 7 1.18834 0 8 1.18834 0
gene 3 4 7 4.11494 0 9 4.11494 1
gene 2 5 7 0.232825 0 10 0.232825 0
gene 1 5 10 -1.20896 0 19 -1.20896 1
gene 2 10 7 -2.98295 0 20 -2.98295 1
gene 1 2 13 1.11752 0 27 1.11752 1
gene 1 13 7 0.202719 0 28 0.202719 1
gene 2 5 18 -5.73031 0 38 -5.73031 1
gene 2 18 10 0.978826 0 39 0.978826 1
gene 2 10 42 -8 0 137 -8 0
gene 2 42 7 2.50991 0 138 2.50991 1
gene 3 3 124 4.67927 0 434 4.67927 1
gene 3 124 6 -2.03502 0 435 -2.03502 1
gene 2 10 148 -3.98808 0 525 -3.98808 1
gene 2 148 42 3.07295 0 526 3.07295 1
gene 2 6 10 -2.8617 0 540 -2.8617 1
gene 3 124 148 -2.42724 0 668 -2.42724 1
gene 1 13 42 4.28433 0 684 4.28433 1
gene 3 124 195 5.9941 0 739 5.9941 1
gene 3 195 6 -0.033969 0 740 -0.033969 1
gene 3 2 148 -0.271639 0 794 -0.271639 1
gene 2 4 195 -0.871724 0 928 -0.871724 1
gene 3 3 269 -0.939616 0 1018 -0.939616 1
gene 3 269 6 -6.26687 0 1019 -6.26687 1
genomeend 52

/* Organism #53 Fitness: 17 Error: 0 */
genomestart 53
trait 1 0.1 0 0 0 0 0 0 0 
trait 2 0.202591 0.00236529 0 0 0.00144811 0 0 0 
trait 3 0.00410156 0.136731 0.0883757 0.438306 0.074912 0 0 0 
node 1 3 1 3
node 2 3 1 1
node 3 2 1 1
node 4 1 1 1
node 5 3 1 1
node 6 1 0 2
node 7 3 0 2
node 10 1 0 0
node 13 2 0 0
node 18 1 0 0
node 42 1 0 0
node 124 1 0 0
node 148 1 0 0
node 195 1 0 0
gene 2 1 6 -3.33286 0 1 -3.33286 1
gene 2 2 6 -8 0 2 -8 1
gene 3 3 6 -4.82431 0 3 -4.82431 1
gene 1 4 6 -2.3542 0 4 -2.3542 1
gene 3 5 6 2.55956 0 5 2.55956 1
gene 3 1 7 -1.83446 0 6 -1.83446 1
gene 1 2 7 -0.202765 0 7 -0.202765 0
gene 2 3 7 1.34359 0 8 1.34359 0
gene 3 4 7 3.90552 0 9 3.90552 1
gene 2 5 7 6.01893 0 10 6.01893 0
gene 1 5 10 -3.76696 0 19 -3.76696 1
gene 2 10 7 -1.16869 0 20 -1.16869 0
gene 1 2 13 2.28434 0 27 2.28434 1
gene 1 13 7 -6.29252 0 28 -6.29252 1
gene 2 5 18 -5.25177 0 38 -5.25177 1
gene 2 18 10 -0.213567 0 39 -0.213567 1
gene 2 10 42 -7.7551 0 137 -7.7551 0
gene 2 42 7 4.84068 0 138 4.84068 1
gene 3 3 124 4.71918 0 434 4.71918 1
gene 3 124 6 -0.542996 0 435 -0.542996 0
gene 2 10 148 0.291044 0 525 0.291044 1
gene 2 148 42 1.57514 0 526 1.57514 1
gene 2 6 10 2.74462 0 540 2.74462 1
gene 3 124 148 -6.84138 0 668 -6.84138 1
gene 1 13 42 6.5629 0 684 6.5629 1
gene 3 124 195 2.36638 0 739 2.36638 1
gene 3 195 6 -0.053116 0 740 -0.053116 1
gene 3 2 148 -0.585552 0 794 -0.585552 1
gene 2 4 195 0.366263 0 928 0.366263 1
genomeend 53

/* Organism #54 Fitness: 33 Error: 0 */
genomestart 54
trait 1 0.1 0 0 0 0 0 0 0 
trait 2 0.202591 0.00236529 0 0 0.00144811 0 0 0 
trait 3 0.00410156 0.136731 0.0883757 0.438306 0.074912 0 0 0 
node 1 3 1 3
node 2 3 1 1
node 3 2 1 1
node 4 1 1 1
node 5 3 1 1
node 6 1 0 2
node 7 3 0 2
node 10 1 0 0
node 13 2 0 0
node 18 1 0 0
node 42 1 0 0
node 124 1 0 0
node 148 1 0 0
node 195 1 0 0
gene 2 1 6 -3.3667 0 1 -3.3667 1
gene 2 2 6 -6.43213 0 2 -6.43213 1
gene 3 3 6 1.85877 0 3 1.85877 1
gene 1 4 6 3.58392 0 4 3.58392 1
gene 3 5 6 6.78235 0 5 6.78235 1
gene 2 1 7 0.776956 0 6 0.776956 1
gene 1 2 7 -4.3677 0 7 -4.3677 1
gene 2 3 7 -2.26331 0 8 -2.26331 0
gene 3 4 7 2.01103 0 9 2.01103 1
gene 2 5 7 2.877 0 10 2.877 1
gene 1 5 10 -3.20349 0 19 -3.20349 1
gene 2 10 7 2.28608 0 20 2.28608 0
gene 1 2 13 0.987029 0 27 0.987029 1
gene 1 13 7 -2.47107 0 28 -2.47107 1
gene 2 5 18 -6.42974 0 38 -6.42974 1
gene 2 18 10 2.43727 0 39 2.43727 1
gene 2 10 42 -7.18342 0 137 -7.18342 0
gene 2 42 7 3.45323 0 138 3.45323 1
gene 3 3 124 1.029 0 434 1.029 1
gene 3 124 6 -0.0369938 0 435 -0.0369938 1
gene 2 10 148 -4.32521 0 525 -4.32521 1
gene 2 148 42 2.13145 0 526 2.13145 1
gene 2 6 10 -2.27229 0 540 -2.27229 1
gene 3 124 148 -1.53033 0 668 -1.53033 1
gene 1 13 42 7.27661 0 684 7.27661 1
gene 3 124 195 5.68025 0 739 5.68025 1
gene 3 195 6 -1.02817 0 740 -1.02817 1
gene 3 2 148 -1.67823 0 794 -1.67823 1
gene 2 4 195 1.00898 0 928 1.00898 1
genomeend 54

/* Organism #55 Fitness: 13 Error: 0 */
genomestart 55
trait 1 0.406015 0 0 0 0 0 0 0 
trait 2 0.202591 0.00236529 0 0 0.00144811 0 0 0 
trait 3 0.00410156 0.136731 0.0883757 0.438306 0.074912 0 0 0 
node 1 3 1 3
node 2 3 1 1
node 3 2 1 1
node 4 1 1 1
node 5 3 1 1
node 6 1 0 2
node 7 3 0 2
node 10 1 0 0
node 13 2 0 0
node 18 1 0 0
node 42 1 0 0
node 124 1 0 0
node 148 1 0 0
node 195 3 0 0
gene 2 1 6 -4.64478 0 1 -4.64478 1
gene 2 2 6 -4.65811 0 2 -4.65811 1
gene 3 3 6 -3.86872 0 3 -3.86872 1
gene 1 4 6 4.3957 0 4 4.3957 1
gene 3 5 6 4.09028 0 5 4.09028 1
gene 3 1 7 0.879194 0 6 0.879194 1
gene 1 2 7 -2.47196 0 7 -2.47196 1
gene 2 3 7 -2.22212 0 8 -2.22212 0
gene 3 4 7 1.58183 0 9 1.58183 1
gene 2 5 7 4.38978 0 10 4.38978 1
gene 1 5 10 -2.72933 0 19 -2.72933 1
gene 2 10 7 2.04981 0 20 2.04981 0
gene 1 2 13 2.9575 0 27 2.9575 1
gene 1 13 7 -4.33301 0 28 -4.33301 1
gene 2 5 18 -6.0496 0 38 -6.0496 1
gene 2 18 10 -2.56462 0 39 -2.56462 1
gene 2 10 42 -7.73605 0 137 -7.73605 0
gene 2 42 7 2.7578 0 138 2.7578 1
gene 3 3 124 2.45721 0 434 2.45721 1
gene 3 124 6 0.294154 0 435 0.294154 1
gene 2 10 148 -0.178968 0 525 -0.178968 1
gene 2 148 42 2.50171 0 526 2.50171 1
gene 2 6 10 -1.16749 0 540 -1.16749 1
gene 3 124 148 -4.91104 0 668 -4.91104 1
gene 1 13 42 6.50759 0 684 6.50759 1
gene 3 124 195 4.66718 0 739 4.66718 1
gene 3 195 6 4.79312 0 740 4.79312 1
gene 3 2 148 -0.259021 0 794 -0.259021 1
gene 2 4 195 -0.69791 0 928 -0.69791 1
genomeend 55

/* Organism #56 Fitness: 5200 Error: 0 */
genomestart 56
trait 1 0.1 0 0 0 0 0 0 0 
trait 2 0.202591 0.00236529 0 0 0.00144811 0 0 0 
trait 3 0.00410156 0.136731 0.0883757 0.438306 0.074912 0 0 0 
node 1 3 1 3
node 2 3 1 1
node 3 3 1 1
node 4 1 1 1
node 5 3 1 1
node 6 1 0 2
node 7 3 0 2
node 10 1 0 0
node 13 2 0 0
node 18 1 0 0
node 42 1 0 0
node 124 1 0 0
node 148 1 0 0
node 195 1 0 0
gene 2 1 6 -3.3667 0 1 -3.3667 1
gene 2 2 6 -5.57612 0 2 -5.57612 1
gene 3 3 6 -5.62847 0 3 -5.62847 1
gene 1 4 6 2.5365 0 4 2.5365 1
gene 3 5 6 5.13875 0 5 5.13875 1
gene 3 1 7 2.49259 0 6 2.49259 1
gene 1 2 7 -2.82838 0 7 -2.82838 1
gene 2 3 7 0.16452 0 8 0.16452 0
gene 3 4 7 3.64478 0 9 3.64478 1
gene 2 5 7 5.309 0 10 5.309 1
gene 1 5 10 -3.20349 0 19 -3.20349 1
gene 2 10 7 0.54835 0 20 0.54835 0
gene 1 2 13 1.90411 0 27 1.90411 1
gene 3 13 7 -2.549 0 28 -2.549 1
gene 2 5 18 -5.16081 0 38 -5.16081 1
gene 2 18 10 -0.335304 0 39 -0.335304 1
gene 2 10 42 -7.18342 0 137 -7.18342 0
gene 2 42 7 1.80712 0 138 1.80712 1
gene 3 3 124 2.32035 0 434 2.32035 1
gene 3 124 6 -0.498525 0 435 -0.498525 1
gene 2 10 148 -2.48717 0 525 -2.48717 1
gene 2 148 42 1.60298 0 526 1.60298 1
gene 2 6 10 -1.10346 0 540 -1.10346 1
gene 3 124 148 -3.47232 0 668 -3.47232 1
gene 1 13 42 5.5897 0 684 5.5897 1
gene 3 124 195 4.66718 0 739 4.66718 1
gene 3 195 6 3.30315 0 740 3.30315 1
gene 3 2 148 -0.679781 0 794 -0.679781 1
gene 2 4 195 -1.08518 0 928 -1.08518 1
genomeend 56

/* Organism #57 Fitness: 38 Error: 0 */
genomestart 57
trait 1 0.1 0 0 0 0 0 0 0 
trait 2 0.202591 0.00236529 0 0 0.00144811 0 0 0 
trait 3 0.00410156 0.136731 0.0883757 0.438306 0.074912 0 0 0 
node 1 3 1 3
node 2 3 1 1
node 3 2 1 1
node 4 1 1 1
node 5 3 1 1
node 6 1 0 2
node 7 3 0 2
node 10 1 0 0
node 13 2 0 0
node 18 1 0 0
node 42 1 0 0
node 124 1 0 0
node 148 1 0 0
node 195 1 0 0
gene 2 1 6 -3.3667 0 1 -3.3667 1
gene 2 2 6 -5.57612 0 2 -5.57612 1
gene 3 3 6 -5.94767 0 3 -5.94767 0
gene 1 4 6 2.37835 0 4 2.37835 1
gene 3 5 6 5.13875 0 5 5.13875 1
gene 3 1 7 2.49259 0 6 2.49259 1
gene 1 2 7 -2.82838 0 7 -2.82838 0
gene 2 3 7 -0.0171864 0 8 -0.0171864 0
gene 3 4 7 3.64478 0 9 3.64478 1
gene 2 5 7 5.309 0 10 5.309 0
gene 1 5 10 -3.20349 0 19 -3.20349 1
gene 2 10 7 0.54835 0 20 0.54835 0
gene 1 2 13 1.7338 0 27 1.7338 1
gene 1 13 7 -2.549 0 28 -2.549 1
gene 2 5 18 -5.16081 0 38 -5.16081 1
gene 2 18 10 -0.335304 0 39 -0.335304 1
gene 2 10 42 -7.5276 0 137 -7.5276 0
gene 2 42 7 1.80712 0 138 1.80712 1
gene 3 3 124 2.45983 0 434 2.45983 1
gene 3 124 6 -1.19865 0 435 -1.19865 0
gene 2 10 148 -2.48717 0 525 -2.48717 1
gene 2 148 42 1.60298 0 526 1.60298 1
gene 2 6 10 -1.67811 0 540 -1.67811 1
gene 3 124 148 -3.47232 0 668 -3.47232 1
gene 1 13 42 5.5897 0 684 5.5897 1
gene 3 124 195 4.66718 0 739 4.66718 1
gene 3 195 6 3.03647 0 740 3.03647 1
gene 3 2 148 -0.679781 0 794 -0.679781 1
gene 2 4 195 -1.02048 0 928 -1.02048 1
genomeend 57

/* Species #53 : (Size 6) (AF 54.8333) (Age 21)  */


/* Organism #58 Fitness: 88 Error: 0 */
genomestart 58
trait 1 0.1 0 0 0 0 0 0 0 
trait 2 0.101296 0.0041975 0 0 0.00144811 0.00333471 0 0 
trait 3 0.00410156 0.136731 0.0883757 0.438306 0.074912 0 0 0 
node 1 1 1 3
node 2 3 1 1
node 3 2 1 1
node 4 1 1 1
node 5 1 1 1
node 6 1 0 2
node 7 3 0 2
node 10 1 0 0
node 13 2 0 0
node 18 1 0 0
node 42 1 0 0
node 124 1 0 0
node 148 1 0 0
node 198 1 0 0
node 200 1 0 0
gene 2 1 6 -2.58528 0 1 -2.58528 1
gene 2 2 6 0.5248 0 2 0.5248 1
gene 3 3 6 -3.10371 0 3 -3.10371 1
gene 1 4 6 2.51641 0 4 2.51641 1
gene 3 5 6 6.81409 0 5 6.81409 1
gene 3 1 7 3.3885 0 6 3.3885 1
gene 1 2 7 0.529823 0 7 0.529823 0
gene 2 3 7 4.20269 0 8 4.20269 0
gene 3 4 7 0.254943 0 9 0.254943 1
gene 2 5 7 3.69847 0 10 3.69847 0
gene 2 5 10 -1.41582 0 19 -1.41582 1
gene 2 10 7 -4.09405 0 20 -4.09405 0
gene 1 2 13 3.56153 0 27 3.56153 0
gene 1 13 7 -3.53496 0 28 -3.53496 1
gene 2 5 18 -2.04919 0 38 -2.04919 1
gene 2 18 10 1.92865 0 39 1.92865 0
gene 2 10 42 -0.756258 0 137 -0.756258 0
gene 2 42 7 6.41605 0 138 6.41605 1
gene 3 3 124 2.74695 0 434 2.74695 1
gene 3 124 6 -5.22109 0 435 -5.22109 1
gene 2 10 148 2.84915 0 525 2.84915 1
gene 2 148 42 -2.43174 0 526 -2.43174 1
gene 2 6 10 1.0771 0 540 1.0771 1
gene 1 2 18 1.10332 0 665 1.10332 1
gene 2 18 198 0.0880538 0 747 0.0880538 1
gene 2 198 10 2.22461 0 748 2.22461 1
gene 1 2 200 -0.514105 0 753 -0.514105 1
gene 1 200 13 0.478706 0 754 0.478706 1
genomeend 58

/* Organism #59 Fitness: 64 Error: 0 */
genomestart 59
trait 1 0.1 0 0 0 0 0 0 0 
trait 2 0.101296 0.0041975 0 0 0.00144811 0.00333471 0 0 
trait 3 0.00410156 0.136731 0.0883757 0.438306 0.074912 0 0 0 
node 1 1 1 3
node 2 3 1 1
node 3 2 1 1
node 4 1 1 1
node 5 1 1 1
node 6 1 0 2
node 7 3 0 2
node 10 1 0 0
node 13 2 0 0
node 18 1 0 0
node 42 1 0 0
node 124 1 0 0
node 148 1 0 0
node 198 1 0 0
node 200 1 0 0
gene 2 1 6 -2.9179 0 1 -2.9179 1
gene 2 2 6 -7.57474 0 2 -7.57474 1
gene 3 3 6 -2.40254 0 3 -2.40254 1
gene 1 4 6 -1.1546 0 4 -1.1546 1
gene 3 5 6 7.25686 0 5 7.25686 1
gene 3 1 7 5.66054 0 6 5.66054 1
gene 1 2 7 -4.77824 0 7 -4.77824 0
gene 2 3 7 1.69404 0 8 1.69404 0
gene 3 4 7 -0.138821 0 9 -0.138821 1
gene 2 5 7 -0.37996 0 10 -0.37996 0
gene 2 5 10 -0.822913 0 19 -0.822913 1
gene 2 10 7 -5.06282 0 20 -5.06282 0
gene 1 2 13 0.410455 0 27 0.410455 0
gene 1 13 7 -2.03835 0 28 -2.03835 1
gene 2 5 18 2.74744 0 38 2.74744 1
gene 2 18 10 -0.559128 0 39 -0.559128 0
gene 2 10 42 -6.14799 0 137 -6.14799 0
gene 2 42 7 7.69993 0 138 7.69993 1
gene 3 3 124 -1.82934 0 434 -1.82934 1
gene 3 124 6 -3.2562 0 435 -3.2562 1
gene 2 10 148 0.787356 0 525 0.787356 1
gene 2 148 42 -0.402411 0 526 -0.402411 1
gene 2 6 10 2.71083 0 540 2.71083 1
gene 1 2 18 0.205 0 665 0.205 1
gene 2 18 198 -1.0295 0 747 -1.0295 1
gene 2 198 10 -1.18851 0 748 -1.18851 1
gene 1 2 200 -0.181391 0 753 -0.181391 1
gene 1 200 13 -0.721016 0 754 -0.721016 1
genomeend 59

/* Organism #60 Fitness: 77 Error: 0 */
genomestart 60
trait 1 0.1 0 0 0 0 0 0 0 
trait 2 0.101296 0.0041975 0 0 0.00144811 0.00333471 0 0 
trait 3 0.00410156 0.136731 0.0883757 0.438306 0.074912 0 0 0 
node 1 1 1 3
node 2 3 1 1
node 3 2 1 1
node 4 1 1 1
node 5 1 1 1
node 6 1 0 2
node 7 3 0 2
node 10 1 0 0
node 13 2 0 0
node 18 1 0 0
node 42 1 0 0
node 124 1 0 0
node 148 1 0 0
node 198 1 0 0
node 200 1 0 0
node 274 1 0 0
gene 2 1 6 -2.56626 0 1 -2.56626 1
gene 2 2 6 -3.08897 0 2 -3.08897 1
gene 3 3 6 -2.50554 0 3 -2.50554 1
gene 1 4 6 0.404731 0 4 0.404731 1
gene 3 5 6 7.11335 0 5 7.11335 1
gene 3 1 7 4.06054 0 6 4.06054 1
gene 1 2 7 -1.53566 0 7 -1.53566 0
gene 2 3 7 3.23008 0 8 3.23008 0
gene 3 4 7 0.564465 0 9 0.564465 1
gene 2 5 7 2.89162 0 10 2.89162 0
gene 2 5 10 -2.01573 0 19 -2.01573 1
gene 2 10 7 -3.65239 0 20 -3.65239 0
gene 1 2 13 2.63487 0 27 2.63487 0
gene 1 13 7 -3.25904 0 28 -3.25904 1
gene 2 5 18 0.0538064 0 38 0.0538064 1
gene 2 18 10 0.740518 0 39 0.740518 1
gene 2 10 42 -3.86293 0 137 -3.86293 0
gene 2 42 7 7.05799 0 138 7.05799 1
gene 3 3 124 0.552736 0 434 0.552736 1
gene 3 124 6 -5.12053 0 435 -5.12053 1
gene 2 10 148 1.83487 0 525 1.83487 1
gene 2 148 42 -0.543372 0 526 -0.543372 1
gene 2 6 10 1.02272 0 540 1.02272 1
gene 1 2 18 0.243106 0 665 0.243106 1
gene 2 18 198 0.483149 0 747 0.483149 1
gene 2 198 10 1.62472 0 748 1.62472 1
gene 1 2 200 0.433386 0 753 0.433386 1
gene 1 200 13 0.201473 0 754 0.201473 1
gene 2 3 274 1 0 1036 0 1
gene 2 274 7 3.23008 0 1037 0 1
genomeend 60

/* Organism #61 Fitness: 6 Error: 0 */
genomestart 61
trait 1 0.1 0 0 0 0 0 0 0 
trait 2 0.101296 0.0041975 0 0 0.00144811 0.00333471 0 0 
trait 3 0.00410156 0.136731 0.0883757 0.438306 0.074912 0 0 0 
node 1 1 1 3
node 2 3 1 1
node 3 2 1 1
node 4 1 1 1
node 5 1 1 1
node 6 1 0 2
node 7 3 0 2
node 10 1 0 0
node 13 2 0 0
node 18 1 0 0
node 42 1 0 0
node 124 1 0 0
node 148 1 0 0
node 198 1 0 0
node 200 1 0 0
gene 2 1 6 2.13873 0 1 2.13873 1
gene 2 2 6 -0.798268 0 2 -0.798268 1
gene 3 3 6 1.56782 0 3 1.56782 1
gene 1 4 6 0.502436 0 4 0.502436 1
gene 3 5 6 8 0 5 8 1
gene 3 1 7 -1.35274 0 6 -1.35274 1
gene 1 2 7 2.38171 0 7 2.38171 0
gene 2 3 7 5.67423 0 8 5.67423 0
gene 3 4 7 -0.303055 0 9 -0.303055 1
gene 2 5 7 2.41212 0 10 2.41212 0
gene 2 5 10 -1.41582 0 19 -1.41582 1
gene 2 10 7 -1.96835 0 20 -1.96835 0
gene 1 2 13 -0.769797 0 27 -0.769797 0
gene 1 13 7 -2.85421 0 28 -2.85421 1
gene 2 5 18 -1.59939 0 38 -1.59939 1
gene 2 18 10 -0.329993 0 39 -0.329993 0
gene 2 10 42 -1.2269 0 137 -1.2269 0
gene 2 42 7 4.95127 0 138 4.95127 1
gene 3 3 124 5.23561 0 434 5.23561 1
gene 3 124 6 -7.16714 0 435 -7.16714 1
gene 2 10 148 -1.95694 0 525 -1.95694 1
gene 2 148 42 -3.04838 0 526 -3.04838 1
gene 2 6 10 -1.02792 0 540 -1.02792 1
gene 1 2 18 1.58375 0 665 1.58375 1
gene 2 18 198 -1.99102 0 747 -1.99102 1
gene 2 198 10 1.08216 0 748 1.08216 1
gene 1 2 200 0.490963 0 753 0.490963 1
gene 1 200 13 1.90868 0 754 1.90868 1
genomeend 61

/* Organism #62 Fitness: 8 Error: 0 */
genomestart 62
trait 1 0.1 0 0 0 0 0 0 0 
trait 2 0.101296 0.0041975 0 0 0.00144811 0.00333471 0 0 
trait 3 0.00410156 0.136731 0.0883757 0.438306 0.074912 0 0 0 
node 1 1 1 3
node 2 3 1 1
node 3 2 1 1
node 4 1 1 1
node 5 1 1 1
node 6 1 0 2
node 7 3 0 2
node 10 1 0 0
node 13 2 0 0
node 18 1 0 0
node 42 1 0 0
node 124 1 0 0
node 148 1 0 0
node 198 1 0 0
node 200 1 0 0
gene 2 1 6 0.847145 0 1 0.847145 1
gene 2 2 6 0.619919 0 2 0.619919 1
gene 3 3 6 -4.28114 0 3 -4.28114 1
gene 1 4 6 -1.48617 0 4 -1.48617 1
gene 3 5 6 7.18273 0 5 7.18273 1
gene 3 1 7 3.2569 0 6 3.2569 1
gene 1 2 7 -0.343861 0 7 -0.343861 0
gene 2 3 7 1.71743 0 8 1.71743 0
gene 3 4 7 0.845967 0 9 0.845967 1
gene 2 5 7 0.877627 0 10 0.877627 0
gene 2 5 10 -1.41582 0 19 -1.41582 1
gene 2 10 7 -6.22836 0 20 -6.22836 0
gene 1 2 13 5.85899 0 27 5.85899 0
gene 1 13 7 -5.23871 0 28 -5.23871 1
gene 2 5 18 -0.0578172 0 38 -0.0578172 1
gene 2 18 10 1.92865 0 39 1.92865 0
gene 2 10 42 0.799701 0 137 0.799701 0
gene 2 42 7 8 0 138 8 1
gene 3 3 124 2.74695 0 434 2.74695 1
gene 3 124 6 -5.92367 0 435 -5.92367 1
gene 2 10 148 4.2557 0 525 4.2557 1
gene 2 148 42 -2.43174 0 526 -2.43174 1
gene 2 6 10 2.44494 0 540 2.44494 1
gene 1 2 18 -0.780663 0 665 -0.780663 1
gene 2 18 198 -1.62526 0 747 -1.62526 1
gene 2 198 10 -0.0590939 0 748 -0.0590939 1
gene 1 2 200 -0.133351 0 753 -0.133351 1
gene 1 200 13 1.50931 0 754 1.50931 1
genomeend 62

/* Organism #63 Fitness: 86 Error: 0 */
genomestart 63
trait 1 0.1 0 0 0 0 0 0 0 
trait 2 0.101296 0.0041975 0 0 0.00144811 0.00333471 0 0 
trait 3 0.00410156 0.136731 0.0883757 0.438306 0.074912 0 0 0 
node 1 1 1 3
node 2 3 1 1
node 3 2 1 1
node 4 1 1 1
node 5 1 1 1
node 6 1 0 2
node 7 3 0 2
node 10 1 0 0
node 13 2 0 0
node 18 1 0 0
node 42 1 0 0
node 124 1 0 0
node 148 1 0 0
node 198 1 0 0
node 200 1 0 0
node 275 1 0 0
gene 2 1 6 -2.54723 0 1 -2.54723 1
gene 2 2 6 -6.70274 0 2 -6.70274 1
gene 3 3 6 -1.90737 0 3 -1.90737 1
gene 1 4 6 -1.70694 0 4 -1.70694 0
gene 3 5 6 7.4126 0 5 7.4126 1
gene 3 1 7 4.73257 0 6 4.73257 1
gene 1 2 7 -3.60114 0 7 -3.60114 0
gene 2 3 7 2.25747 0 8 2.25747 0
gene 3 4 7 0.873987 0 9 0.873987 1
gene 2 5 7 2.08477 0 10 2.08477 0
gene 2 5 10 -2.61564 0 19 -2.61564 1
gene 2 10 7 -3.21072 0 20 -3.21072 0
gene 1 2 13 1.70821 0 27 1.70821 0
gene 1 13 7 -2.98312 0 28 -2.98312 1
gene 2 5 18 2.1568 0 38 2.1568 1
gene 2 18 10 -0.447612 0 39 -0.447612 0
gene 2 10 42 -6.9696 0 137 -6.9696 0
gene 2 42 7 7.69993 0 138 7.69993 1
gene 3 3 124 -1.64147 0 434 -1.64147 1
gene 3 124 6 -5.01996 0 435 -5.01996 1
gene 2 10 148 0.820592 0 525 0.820592 1
gene 2 148 42 1.345 0 526 1.345 1
gene 2 6 10 0.96833 0 540 0.96833 1
gene 1 2 18 -0.617106 0 665 -0.617106 1
gene 2 18 198 0.878244 0 747 0.878244 1
gene 2 198 10 1.02483 0 748 1.02483 1
gene 1 2 200 1.38088 0 753 1.38088 1
gene 1 200 13 -0.07576 0 754 -0.07576 1
gene 1 4 275 1 0 1038 0 1
gene 1 275 6 -1.70694 0 1039 0 1
genomeend 63

/* Species #54 : (Size 5) (AF 36.8) (Age 20)  */


/* Organism #64 Fitness: 58 Error: 0 */
genomestart 64
trait 1 0.1 0 0 0 0 0 0 0 
trait 2 0.202591 0.00236529 0 0 0.00144811 0 0 0 
trait 3 0.00410156 0.136731 0.0883757 0.438306 0.074912 0 0 0 
node 1 1 1 3
node 2 3 1 1
node 3 2 1 1
node 4 1 1 1
node 5 1 1 1
node 6 1 0 2
node 7 3 0 2
node 10 1 0 0
node 13 2 0 0
node 18 1 0 0
node 42 1 0 0
node 124 1 0 0
node 148 1 0 0
node 182 1 0 0
node 201 3 0 0
node 242 1 0 0
gene 2 1 6 -5.87324 0 1 -5.87324 1
gene 2 2 6 1.17459 0 2 1.17459 1
gene 3 3 6 -6.03216 0 3 -6.03216 1
gene 1 4 6 1.25408 0 4 1.25408 1
gene 3 5 6 1.45053 0 5 1.45053 1
gene 3 1 7 4.85219 0 6 4.85219 1
gene 1 2 7 -0.208339 0 7 -0.208339 1
gene 2 3 7 8 0 8 8 0
gene 3 4 7 7.05651 0 9 7.05651 1
gene 2 5 7 0.498671 0 10 0.498671 0
gene 2 5 10 3.44995 0 19 3.44995 1
gene 2 10 7 -2.85413 0 20 -2.85413 1
gene 1 2 13 3.34051 0 27 3.34051 1
gene 1 13 7 3.7345 0 28 3.7345 1
gene 2 5 18 4.16325 0 38 4.16325 0
gene 2 18 10 -4.22746 0 39 -4.22746 1
gene 2 10 42 -4.50672 0 137 -4.50672 1
gene 2 42 7 2.60697 0 138 2.60697 1
gene 3 3 124 1.88235 0 434 1.88235 1
gene 3 124 6 -1.13809 0 435 -1.13809 1
gene 2 10 148 -2.59219 0 525 -2.59219 1
gene 2 148 42 -1.05234 0 526 -1.05234 0
gene 2 6 10 -4.25072 0 540 -4.25072 1
gene 1 13 10 4.75499 0 667 4.75499 0
gene 3 124 182 -2.84916 0 677 -2.84916 1
gene 3 182 6 0.0204118 0 678 0.0204118 1
gene 2 148 201 -0.385138 0 756 -0.385138 1
gene 2 201 42 2.13708 0 757 2.13708 1
gene 2 4 182 4.17695 0 767 4.17695 1
gene 1 13 242 1.66835 0 907 1.66835 1
gene 1 242 10 1.69783 0 908 1.69783 1
genomeend 64

/* Organism #65 Fitness: 10 Error: 0 */
genomestart 65
trait 1 0.1 0 0 0 0 0 0 0 
trait 2 0.202591 0.00236529 0 0 0.00144811 0 0 0 
trait 3 0.00410156 0.136731 0.0883757 0.438306 0.074912 0 0 0 
node 1 1 1 3
node 2 3 1 1
node 3 2 1 1
node 4 1 1 1
node 5 1 1 1
node 6 1 0 2
node 7 3 0 2
node 10 1 0 0
node 13 2 0 0
node 18 1 0 0
node 42 1 0 0
node 124 1 0 0
node 148 1 0 0
node 182 1 0 0
node 201 3 0 0
node 242 1 0 0
gene 2 1 6 -0.368183 0 1 -0.368183 1
gene 2 2 6 1.23004 0 2 1.23004 1
gene 3 3 6 -1.59178 0 3 -1.59178 1
gene 1 4 6 -0.284923 0 4 -0.284923 1
gene 3 5 6 0.940003 0 5 0.940003 1
gene 3 1 7 -1.03814 0 6 -1.03814 1
gene 1 2 7 -0.840468 0 7 -0.840468 1
gene 2 3 7 8 0 8 8 0
gene 3 4 7 7.42014 0 9 7.42014 1
gene 2 5 7 1.72709 0 10 1.72709 0
gene 2 5 10 -0.932056 0 19 -0.932056 1
gene 2 10 7 -4.9675 0 20 -4.9675 1
gene 1 2 13 -1.44609 0 27 -1.44609 1
gene 1 13 7 3.51885 0 28 3.51885 1
gene 2 5 18 2.31781 0 38 2.31781 0
gene 2 18 10 -4.26891 0 39 -4.26891 1
gene 2 10 42 0.730386 0 137 0.730386 1
gene 2 42 7 3.30102 0 138 3.30102 1
gene 3 3 124 1.44912 0 434 1.44912 1
gene 3 124 6 -0.693027 0 435 -0.693027 1
gene 2 10 148 1.64875 0 525 1.64875 1
gene 2 148 42 -2.09138 0 526 -2.09138 0
gene 2 6 10 -0.965539 0 540 -0.965539 1
gene 1 13 10 4.75499 0 667 4.75499 0
gene 3 124 182 -3.57238 0 677 -3.57238 1
gene 3 182 6 -0.419502 0 678 -0.419502 1
gene 2 148 201 -0.967543 0 756 -0.967543 1
gene 2 201 42 1.561 0 757 1.561 1
gene 2 4 182 -0.314478 0 767 -0.314478 1
gene 1 13 242 1.23555 0 907 1.23555 1
gene 1 242 10 -1.73934 0 908 -1.73934 1
genomeend 65

/* Organism #66 Fitness: 8 Error: 0 */
genomestart 66
trait 1 0.1 0 0 0 0 0 0 0 
trait 2 0.202591 0.00236529 0 0 0.00144811 0 0 0 
trait 3 0.00410156 0.136731 0.0883757 0.438306 0.074912 0 0 0 
node 1 1 1 3
node 2 3 1 1
node 3 2 1 1
node 4 1 1 1
node 5 1 1 1
node 6 1 0 2
node 7 3 0 2
node 10 1 0 0
node 13 2 0 0
node 18 1 0 0
node 42 1 0 0
node 124 2 0 0
node 148 1 0 0
node 182 1 0 0
node 201 3 0 0
node 242 1 0 0
gene 2 1 6 -4.04706 0 1 -4.04706 1
gene 2 2 6 -0.0521779 0 2 -0.0521779 1
gene 3 3 6 -6.53401 0 3 -6.53401 1
gene 1 4 6 0.930638 0 4 0.930638 1
gene 3 5 6 0.107458 0 5 0.107458 1
gene 3 1 7 1.35318 0 6 1.35318 1
gene 1 2 7 -0.266787 0 7 -0.266787 1
gene 2 3 7 8 0 8 8 0
gene 3 4 7 7.91582 0 9 7.91582 1
gene 2 5 7 0.107142 0 10 0.107142 0
gene 2 5 10 1.31768 0 19 1.31768 1
gene 2 10 7 -2.57497 0 20 -2.57497 1
gene 1 2 13 0.744643 0 27 0.744643 1
gene 1 13 7 -2.00558 0 28 -2.00558 1
gene 2 5 18 6.48607 0 38 6.48607 0
gene 2 18 10 -4.57665 0 39 -4.57665 1
gene 2 10 42 -5.99074 0 137 -5.99074 1
gene 2 42 7 -0.204416 0 138 -0.204416 1
gene 3 3 124 1.82211 0 434 1.82211 1
gene 3 124 6 0.0208798 0 435 0.0208798 1
gene 2 10 148 -1.0347 0 525 -1.0347 1
gene 2 148 42 0.320143 0 526 0.320143 0
gene 2 6 10 -2.71583 0 540 -2.71583 1
gene 1 13 10 3.50555 0 667 3.50555 0
gene 3 124 182 -3.55741 0 677 -3.55741 1
gene 3 182 6 -1.62617 0 678 -1.62617 1
gene 2 148 201 -2.49526 0 756 -2.49526 1
gene 2 201 42 -1.14939 0 757 -1.14939 1
gene 2 4 182 1.12892 0 767 1.12892 1
gene 1 13 242 2.53887 0 907 2.53887 1
gene 1 242 10 1.90639 0 908 1.90639 1
genomeend 66

/* Organism #67 Fitness: 71 Error: 0 */
genomestart 67
trait 1 0.1 0 0 0 0 0 0 0 
trait 2 0.202591 0.00236529 0 0 0.00144811 0 0 0 
trait 3 0.00410156 0.136731 0.0883757 0.438306 0.074912 0 0 0 
node 1 1 1 3
node 2 3 1 1
node 3 2 1 1
node 4 1 1 1
node 5 1 1 1
node 6 1 0 2
node 7 3 0 2
node 10 1 0 0
node 13 2 0 0
node 18 1 0 0
node 42 1 0 0
node 124 1 0 0
node 148 1 0 0
node 182 1 0 0
node 201 3 0 0
node 242 1 0 0
gene 2 1 6 -0.626863 0 1 -0.626863 1
gene 2 2 6 1.07411 0 2 1.07411 1
gene 3 3 6 -8 0 3 -8 1
gene 1 4 6 2.56462 0 4 2.56462 1
gene 3 5 6 -0.217766 0 5 -0.217766 1
gene 3 1 7 8 0 6 8 1
gene 1 2 7 -1.0652 0 7 -1.0652 1
gene 2 3 7 7.21203 0 8 7.21203 0
gene 3 4 7 8 0 9 8 1
gene 2 5 7 -2.12971 0 10 -2.12971 0
gene 2 5 10 3.15153 0 19 3.15153 1
gene 2 10 7 -0.902792 0 20 -0.902792 1
gene 1 2 13 2.68898 0 27 2.68898 1
gene 1 13 7 4.35434 0 28 4.35434 1
gene 2 5 18 4.16087 0 38 4.16087 0
gene 2 18 10 -2.62873 0 39 -2.62873 1
gene 2 10 42 -6.17943 0 137 -6.17943 1
gene 2 42 7 3.56815 0 138 3.56815 1
gene 3 3 124 1.88308 0 434 1.88308 1
gene 3 124 6 -1.36003 0 435 -1.36003 1
gene 2 10 148 -1.05374 0 525 -1.05374 1
gene 2 148 42 -1.64047 0 526 -1.64047 0
gene 2 6 10 -1.69479 0 540 -1.69479 1
gene 1 13 10 5.51791 0 667 5.51791 0
gene 3 124 182 -0.587174 0 677 -0.587174 1
gene 3 182 6 1.60665 0 678 1.60665 1
gene 2 148 201 -1.18681 0 756 -1.18681 1
gene 2 201 42 -0.923945 0 757 -0.923945 1
gene 2 4 182 2.4716 0 767 2.4716 1
gene 1 13 242 0.460527 0 907 0.460527 1
gene 1 242 10 4.96784 0 908 4.96784 1
genomeend 67

/* Organism #68 Fitness: 37 Error: 0 */
genomestart 68
trait 1 0.1 0 0 0 0 0 0 0 
trait 2 0.202591 0.00236529 0 0 0.00144811 0 0 0 
trait 3 0.00410156 0.136731 0.0883757 0.438306 0.074912 0 0 0 
node 1 1 1 3
node 2 3 1 1
node 3 2 1 1
node 4 1 1 1
node 5 1 1 1
