
/* Species #62 : (Size 11) (AF 7753.82) (Age 25)  */


/* Organism #0 Fitness: 7961 Error: 0 */
genomestart 0
trait 1 0.330695 0 0 0.429791 0.0953838 0 0 0.00602039 
trait 2 0.430949 0.084397 0 0 0 0.110377 0.0542487 0 
trait 3 0.2625 0 0.10897 0 0 0 0.0308883 0 
node 1 1 1 3
node 2 2 1 1
node 3 3 1 1
node 4 2 1 1
node 5 2 1 1
node 6 2 0 2
node 7 2 0 2
node 29 1 0 0
node 37 1 0 0
node 108 1 0 0
node 170 1 0 0
node 233 1 0 0
gene 1 1 6 0.0078683 0 1 0.0078683 1
gene 1 2 6 -1.72088 0 2 -1.72088 1
gene 3 3 6 0.36327 0 3 0.36327 1
gene 3 4 6 2.41056 0 4 2.41056 1
gene 3 5 6 0.736772 0 5 0.736772 1
gene 2 1 7 -0.0367634 0 6 -0.0367634 1
gene 3 2 7 -0.425018 0 7 -0.425018 1
gene 3 3 7 0.115917 0 8 0.115917 1
gene 3 4 7 -0.575764 0 9 -0.575764 1
gene 2 5 7 -0.641492 0 10 -0.641492 1
gene 3 6 7 1.21114 0 47 1.21114 1
gene 3 5 29 1.01786 0 67 1.01786 1
gene 3 29 6 0.63019 0 68 0.63019 1
gene 2 5 37 1 0 96 0 1
gene 2 37 7 -1.48965 0 97 0 1
gene 1 37 6 -0.886409 0 111 -0.886409 1
gene 1 2 37 -0.693276 0 132 -0.693276 1
gene 1 3 29 0.946967 0 140 0.946967 1
gene 2 4 29 0.708318 0 150 0.708318 1
gene 1 1 37 -0.487211 0 270 -0.487211 1
gene 1 37 108 1 0 360 0 1
gene 1 108 6 -0.886409 0 361 0 0
gene 3 1 108 -0.552751 0 564 -0.552751 1
gene 1 108 170 1 0 585 0 1
gene 1 170 6 -0.886409 0 586 0 1
gene 3 29 7 0.983914 0 761 0.983914 1
gene 1 170 7 0.792682 0 832 0.792682 1
gene 2 5 233 1 0 859 0 1
gene 2 233 7 -0.641492 0 860 0 1
gene 2 3 233 0.557923 0 963 0.557923 1
genomeend 0

/* Organism #1 Fitness: 7690 Error: 0 */
genomestart 1
trait 1 0.330695 0 0 0.429791 0.0953838 0 0 0.00602039 
trait 2 0.430949 0.084397 0 0 0 0.110377 0.0542487 0 
trait 3 0.2625 0 0.10897 0 0 0 0.0308883 0 
node 1 1 1 3
node 2 2 1 1
node 3 3 1 1
node 4 2 1 1
node 5 2 1 1
node 6 2 0 2
node 7 2 0 2
node 29 1 0 0
node 37 1 0 0
node 108 1 0 0
node 170 1 0 0
node 233 1 0 0
gene 1 1 6 -1.77108 0 1 -1.77108 1
gene 1 2 6 -1.37813 0 2 -1.37813 1
gene 3 3 6 0.15003 0 3 0.15003 1
gene 3 4 6 2.44983 0 4 2.44983 1
gene 3 5 6 -1.22551 0 5 -1.22551 1
gene 2 1 7 2.42651 0 6 2.42651 1
gene 3 2 7 1.81049 0 7 1.81049 1
gene 3 3 7 0.115917 0 8 0.115917 1
gene 3 4 7 0.246663 0 9 0.246663 1
gene 2 5 7 1.72249 0 10 1.72249 1
gene 3 6 7 1.20277 0 47 1.20277 1
gene 3 5 29 0.593577 0 67 0.593577 1
gene 3 29 6 1.92454 0 68 1.92454 1
gene 2 5 37 1.65968 0 96 1.65968 1
gene 2 37 7 -0.380201 0 97 -0.380201 1
gene 1 37 6 -1.48313 0 111 -1.48313 1
gene 1 2 37 -3.19304 0 132 -3.19304 1
gene 1 3 29 -1.50473 0 140 -1.50473 1
gene 2 4 29 -0.0416849 0 150 -0.0416849 1
gene 1 1 37 1.81344 0 270 1.81344 1
gene 1 37 108 1.80136 0 360 1.80136 1
gene 1 108 6 1.067 0 361 1.067 0
gene 3 1 108 -0.279903 0 564 -0.279903 1
gene 1 108 170 0.437327 0 585 0.437327 1
gene 1 170 6 1.44304 0 586 1.44304 1
gene 3 29 7 0.259437 0 761 0.259437 1
gene 1 170 7 3.12287 0 832 3.12287 1
gene 2 5 233 -0.73128 0 859 -0.73128 1
gene 2 233 7 -1.67078 0 860 -1.67078 1
gene 2 3 233 -1.08938 0 963 -1.08938 1
genomeend 1

/* Organism #2 Fitness: 7692 Error: 0 */
genomestart 2
trait 1 0.330695 0 0 0.429791 0.0953838 0 0 0.00602039 
trait 2 0.430949 0.084397 0 0 0 0.110377 0.0542487 0 
trait 3 0.2625 0 0.10897 0 0 0 0.0308883 0 
node 1 1 1 3
node 2 2 1 1
node 3 3 1 1
node 4 2 1 1
node 5 2 1 1
node 6 2 0 2
node 7 2 0 2
node 29 1 0 0
node 37 1 0 0
node 108 1 0 0
node 170 1 0 0
node 233 1 0 0
gene 1 1 6 -0.607309 0 1 -0.607309 1
gene 1 2 6 -1.84659 0 2 -1.84659 1
gene 3 3 6 0.36327 0 3 0.36327 1
gene 3 4 6 2.41056 0 4 2.41056 0
gene 3 5 6 1.01428 0 5 1.01428 1
gene 2 1 7 -0.0932402 0 6 -0.0932402 1
gene 3 2 7 -0.861064 0 7 -0.861064 1
gene 3 3 7 0.115917 0 8 0.115917 1
gene 3 4 7 -1.34001 0 9 -1.34001 1
gene 2 5 7 -0.641492 0 10 -0.641492 1
gene 3 6 7 1.21114 0 47 1.21114 1
gene 3 5 29 1.01786 0 67 1.01786 1
gene 3 29 6 0.63019 0 68 0.63019 1
gene 2 5 37 0.196307 0 96 -0.553693 1
gene 2 37 7 -1.48965 0 97 0 1
gene 1 37 6 -0.886409 0 111 -0.886409 1
gene 1 2 37 -0.693276 0 132 -0.693276 1
gene 1 3 29 -0.51567 0 140 -0.51567 1
gene 2 4 29 1.06829 0 150 1.06829 1
gene 1 1 37 -0.487211 0 270 -0.487211 1
gene 1 37 108 1 0 360 0 1
gene 1 108 6 -0.886409 0 361 0 0
gene 3 1 108 -0.552751 0 564 -0.552751 1
gene 1 108 170 0.356813 0 585 -0.143187 1
gene 1 170 6 -0.886409 0 586 0 1
gene 3 29 7 0.983914 0 761 0.983914 1
gene 1 170 7 0.792682 0 832 0.792682 1
gene 2 5 233 0.817436 0 859 0.0674356 1
gene 2 233 7 -0.641492 0 860 0 1
gene 2 3 233 0.557923 0 963 0.557923 1
genomeend 2

/* Organism #3 Fitness: 7690 Error: 0 */
genomestart 3
trait 1 0.330695 0 0 0.429791 0.0953838 0 0 0.00602039 
trait 2 0.430949 0.084397 0 0 0 0.110377 0.0542487 0 
trait 3 0.2625 0 0.10897 0 0 0 0.0308883 0 
node 1 1 1 3
node 2 2 1 1
node 3 3 1 1
node 4 2 1 1
node 5 2 1 1
node 6 2 0 2
node 7 2 0 2
node 29 1 0 0
node 37 1 0 0
node 108 1 0 0
node 170 1 0 0
node 233 1 0 0
gene 1 1 6 -0.29972 0 1 -0.29972 1
gene 1 2 6 -3.29962 0 2 -3.29962 1
gene 3 3 6 -0.475749 0 3 -0.475749 1
gene 3 4 6 -1.68253 0 4 -1.68253 0
gene 3 5 6 1.65294 0 5 1.65294 1
gene 2 1 7 2.48009 0 6 2.48009 1
gene 3 2 7 -0.643041 0 7 -0.643041 1
gene 3 3 7 -0.327567 0 8 -0.327567 1
gene 3 4 7 -0.957886 0 9 -0.957886 1
gene 2 5 7 0.341879 0 10 0.341879 1
gene 3 6 7 2.30785 0 47 2.30785 1
gene 3 5 29 0.593577 0 67 0.593577 1
gene 3 29 6 1.79526 0 68 1.79526 1
gene 2 5 37 -0.108978 0 96 -0.108978 1
gene 2 37 7 -2.33299 0 97 -2.33299 1
gene 1 37 6 0.659882 0 111 0.659882 1
gene 1 2 37 -2.82983 0 132 -2.82983 1
gene 1 3 29 1.89482 0 140 1.89482 1
gene 2 4 29 -0.487691 0 150 -0.487691 1
gene 1 1 37 -1.54531 0 270 -1.54531 1
gene 1 37 108 0.816043 0 360 0.816043 1
gene 1 108 6 -1.89519 0 361 -1.89519 0
gene 3 1 108 -0.548312 0 564 -0.548312 1
gene 1 108 170 2.39047 0 585 2.39047 1
gene 1 170 6 -0.375215 0 586 -0.375215 1
gene 3 29 7 0.175077 0 761 0.175077 1
gene 1 170 7 0.318201 0 832 0.318201 1
gene 2 5 233 1.47527 0 859 1.47527 1
gene 2 233 7 1.2879 0 860 1.2879 1
gene 2 3 233 2.32542 0 963 2.32542 1
genomeend 3

/* Organism #4 Fitness: 7960 Error: 0 */
genomestart 4
trait 1 0.330695 0 0 0.429791 0.0953838 0 0 0.00602039 
trait 2 0.430949 0.084397 0 0 0 0.110377 0.0542487 0 
trait 3 0.2625 0 0.10897 0 0 0 0.0308883 0 
node 1 1 1 3
node 2 2 1 1
node 3 3 1 1
node 4 2 1 1
node 5 2 1 1
node 6 2 0 2
node 7 2 0 2
node 29 1 0 0
node 37 1 0 0
node 108 1 0 0
node 170 1 0 0
node 233 1 0 0
gene 1 1 6 0.0078683 0 1 0.0078683 1
gene 1 2 6 -1.72088 0 2 -1.72088 1
gene 3 3 6 0.36327 0 3 0.36327 1
gene 3 4 6 2.41056 0 4 2.41056 0
gene 3 5 6 1.01428 0 5 1.01428 1
gene 2 1 7 -0.0367634 0 6 -0.0367634 1
gene 3 2 7 -0.861064 0 7 -0.861064 1
gene 3 3 7 0.115917 0 8 0.115917 1
gene 3 4 7 -0.575764 0 9 -0.575764 1
gene 2 5 7 -0.602768 0 10 -0.602768 1
gene 3 6 7 0.987469 0 47 0.987469 1
gene 3 5 29 1.01786 0 67 1.01786 1
gene 3 29 6 0.628933 0 68 0.628933 1
gene 2 5 37 0.196307 0 96 -0.553693 1
gene 2 37 7 -1.48965 0 97 0 1
gene 1 37 6 -0.886409 0 111 -0.886409 1
gene 1 2 37 -0.693276 0 132 -0.693276 1
gene 1 3 29 -0.51567 0 140 -0.51567 1
gene 2 4 29 0.708318 0 150 0.708318 1
gene 1 1 37 -0.487211 0 270 -0.487211 1
gene 1 37 108 1 0 360 0 1
gene 1 108 6 -0.886409 0 361 0 0
gene 3 1 108 -0.543872 0 564 -0.543872 1
gene 1 108 170 1 0 585 0 1
gene 1 170 6 -0.886409 0 586 0 1
gene 3 29 7 0.983914 0 761 0.983914 1
gene 1 170 7 0.792682 0 832 0.792682 1
gene 2 5 233 0.817436 0 859 0.0674356 1
gene 2 233 7 -0.641492 0 860 0 1
gene 2 3 233 0.557923 0 963 0.557923 1
genomeend 4

/* Organism #5 Fitness: 7690 Error: 0 */
genomestart 5
trait 1 0.330695 0 0 0.429791 0.0953838 0 0 0.00602039 
trait 2 0.430949 0.084397 0 0 0 0.110377 0.0542487 0 
trait 3 0.2625 0 0.10897 0 0 0 0.0308883 0 
node 1 1 1 3
node 2 2 1 1
node 3 3 1 1
node 4 2 1 1
node 5 2 1 1
node 6 2 0 2
node 7 2 0 2
node 29 1 0 0
node 37 1 0 0
node 108 1 0 0
node 170 1 0 0
node 233 1 0 0
gene 1 1 6 -2.48668 0 1 -2.48668 1
gene 1 2 6 -2.35223 0 2 -2.35223 1
gene 3 3 6 2.44008 0 3 2.44008 1
gene 3 4 6 -0.440761 0 4 -0.440761 0
gene 3 5 6 -0.976449 0 5 -0.976449 1
gene 2 1 7 1.89463 0 6 1.89463 1
gene 3 2 7 2.40542 0 7 2.40542 1
gene 3 3 7 -0.421439 0 8 -0.421439 1
gene 3 4 7 -1.06825 0 9 -1.06825 1
gene 2 5 7 1.51903 0 10 1.51903 1
gene 3 6 7 1.43293 0 47 1.43293 1
gene 3 5 29 -2.21994 0 67 -2.21994 1
gene 3 29 6 1.72802 0 68 1.72802 1
gene 2 5 37 1.58257 0 96 1.58257 1
gene 2 37 7 2.30621 0 97 2.30621 1
gene 1 37 6 -0.886409 0 111 -0.886409 1
gene 1 2 37 -1.81699 0 132 -1.81699 1
gene 1 3 29 -2.29182 0 140 -2.29182 1
gene 2 4 29 0.783822 0 150 0.783822 1
gene 1 1 37 1.05539 0 270 1.05539 1
gene 1 37 108 -0.790171 0 360 -0.790171 1
gene 1 108 6 -0.988148 0 361 -0.988148 0
gene 3 1 108 -0.552751 0 564 -0.552751 1
gene 1 108 170 1.82563 0 585 1.82563 1
gene 1 170 6 2.31029 0 586 2.31029 1
gene 3 29 7 1.70899 0 761 1.70899 1
gene 1 170 7 -0.0312104 0 832 -0.0312104 1
gene 2 5 233 1.50298 0 859 1.50298 1
gene 2 233 7 -1.81248 0 860 -1.81248 1
gene 2 3 233 -0.487773 0 963 -0.487773 1
genomeend 5

/* Organism #6 Fitness: 7953 Error: 0 */
genomestart 6
trait 1 0.330695 0 0 0.429791 0.0953838 0 0 0.00602039 
trait 2 0.430949 0.084397 0 0 0 0.110377 0.0542487 0 
trait 3 0.2625 0 0.10897 0 0 0 0.0308883 0 
node 1 1 1 3
node 2 2 1 1
node 3 3 1 1
node 4 2 1 1
node 5 2 1 1
node 6 2 0 2
node 7 2 0 2
node 29 1 0 0
node 37 1 0 0
node 108 1 0 0
node 170 1 0 0
node 233 1 0 0
gene 1 1 6 0.0078683 0 1 0.0078683 1
gene 1 2 6 -1.72088 0 2 -1.72088 1
gene 3 3 6 0.36327 0 3 0.36327 1
gene 3 4 6 2.41056 0 4 2.41056 1
gene 3 5 6 0.736772 0 5 0.736772 1
gene 2 1 7 -0.0367634 0 6 -0.0367634 1
gene 3 2 7 -0.425018 0 7 -0.425018 1
gene 3 3 7 0.115917 0 8 0.115917 1
gene 3 4 7 -0.575764 0 9 -0.575764 1
gene 2 5 7 -0.641492 0 10 -0.641492 1
gene 3 6 7 1.21114 0 47 1.21114 1
gene 3 5 29 1.01786 0 67 1.01786 1
gene 3 29 6 0.63019 0 68 0.63019 1
gene 2 5 37 1 0 96 0 1
gene 2 37 7 -1.48965 0 97 0 1
gene 1 37 6 -0.886409 0 111 -0.886409 1
gene 1 2 37 -0.693276 0 132 -0.693276 1
gene 1 3 29 0.946967 0 140 0.946967 1
gene 2 4 29 0.708318 0 150 0.708318 1
gene 1 1 37 -0.487211 0 270 -0.487211 1
gene 1 37 108 1 0 360 0 1
gene 1 108 6 -0.886409 0 361 0 0
gene 3 1 108 -0.552751 0 564 -0.552751 1
gene 1 108 170 1 0 585 0 1
gene 1 170 6 -0.886409 0 586 0 1
gene 3 29 7 0.983914 0 761 0.983914 1
gene 1 170 7 0.792682 0 832 0.792682 1
gene 2 5 233 1 0 859 0 1
gene 2 233 7 -0.641492 0 860 0 1
gene 2 3 233 0.557923 0 963 0.557923 1
gene 3 3 170 -0.545848 0 1206 -0.545848 1
genomeend 6

/* Organism #7 Fitness: 7631 Error: 0 */
genomestart 7
trait 1 0.330695 0 0 0.429791 0.0953838 0 0 0.00602039 
trait 2 0.430949 0.084397 0 0 0 0.110377 0.0542487 0 
trait 3 0.2625 0 0.10897 0 0 0 0.0308883 0 
node 1 1 1 3
node 2 2 1 1
node 3 3 1 1
node 4 2 1 1
node 5 2 1 1
node 6 2 0 2
node 7 2 0 2
node 29 1 0 0
node 37 1 0 0
node 108 1 0 0
node 170 1 0 0
node 233 1 0 0
gene 1 1 6 0.172299 0 1 0.172299 1
gene 1 2 6 -0.600497 0 2 -0.600497 1
gene 3 3 6 -0.6929 0 3 -0.6929 1
gene 3 4 6 3.49476 0 4 3.49476 1
gene 3 5 6 2.90293 0 5 2.90293 1
gene 2 1 7 1.14855 0 6 1.14855 1
gene 3 2 7 -1.69221 0 7 -1.69221 1
gene 3 3 7 0.689342 0 8 0.689342 1
gene 3 4 7 0.933671 0 9 0.933671 1
gene 2 5 7 -0.0676862 0 10 -0.0676862 1
gene 3 6 7 1.40046 0 47 1.40046 1
gene 3 5 29 2.51009 0 67 2.51009 1
gene 3 29 6 -1.50953 0 68 -1.50953 1
gene 2 5 37 2.51342 0 96 2.51342 1
gene 2 37 7 -0.264265 0 97 -0.264265 1
gene 1 37 6 1.11255 0 111 1.11255 1
gene 1 2 37 1.44964 0 132 1.44964 1
gene 1 3 29 1.5641 0 140 1.5641 1
gene 2 4 29 0.864118 0 150 0.864118 1
gene 1 1 37 -1.21764 0 270 -1.21764 1
gene 1 37 108 1.82011 0 360 1.82011 1
gene 1 108 6 -2.04073 0 361 -2.04073 0
gene 3 1 108 1.20857 0 564 1.20857 1
gene 1 108 170 -0.307389 0 585 -0.307389 1
gene 1 170 6 -0.981385 0 586 -0.981385 1
gene 3 29 7 0.983914 0 761 0.983914 1
gene 1 170 7 0.792682 0 832 0.792682 1
gene 2 5 233 -1.30442 0 859 -1.30442 1
gene 2 233 7 -1.34192 0 860 -1.34192 1
gene 2 3 233 0.557923 0 963 0.557923 1
genomeend 7

/* Organism #8 Fitness: 7689 Error: 0 */
genomestart 8
trait 1 0.330695 0 0 0.429791 0.0953838 0 0 0.00602039 
trait 2 0.430949 0.084397 0 0 0 0.110377 0.0542487 0 
trait 3 0.2625 0 0.10897 0 0 0 0.0308883 0 
node 1 1 1 3
node 2 2 1 1
node 3 3 1 1
node 4 2 1 1
node 5 2 1 1
node 6 2 0 2
node 7 2 0 2
node 29 1 0 0
node 37 1 0 0
node 108 1 0 0
node 170 1 0 0
node 233 1 0 0
gene 1 1 6 -0.317102 0 1 -0.317102 1
gene 1 2 6 -0.918541 0 2 -0.918541 1
gene 3 3 6 -0.76324 0 3 -0.76324 1
gene 3 4 6 3.76467 0 4 3.76467 1
gene 3 5 6 -2.13232 0 5 -2.13232 1
gene 2 1 7 1.84529 0 6 1.84529 1
gene 3 2 7 -0.425018 0 7 -0.425018 1
gene 3 3 7 -0.190901 0 8 -0.190901 1
gene 3 4 7 1.25859 0 9 1.25859 1
gene 2 5 7 1.48853 0 10 1.48853 1
gene 3 6 7 0.860877 0 47 0.860877 1
gene 3 5 29 0.862202 0 67 0.862202 1
gene 3 29 6 1.63567 0 68 1.63567 1
gene 2 5 37 -0.871638 0 96 -0.871638 1
gene 2 37 7 -0.608395 0 97 -0.608395 1
gene 1 37 6 2.41791 0 111 2.41791 1
gene 1 2 37 -0.911416 0 132 -0.911416 1
gene 1 3 29 2.05644 0 140 2.05644 1
gene 2 4 29 -1.74259 0 150 -1.74259 1
gene 1 1 37 2.32644 0 270 2.32644 1
gene 1 37 108 2.18342 0 360 2.18342 1
gene 1 108 6 -0.607971 0 361 -0.607971 0
gene 3 1 108 0.161501 0 564 0.161501 1
gene 1 108 170 3.39537 0 585 3.39537 1
gene 1 170 6 -3.30186 0 586 -3.30186 1
gene 3 29 7 0.983914 0 761 0.983914 1
gene 1 170 7 0.792682 0 832 0.792682 1
gene 2 5 233 0.764413 0 859 0.764413 1
gene 2 233 7 -0.369475 0 860 -0.369475 1
gene 2 3 233 0.557923 0 963 0.557923 1
genomeend 8

/* Organism #9 Fitness: 7642 Error: 0 */
genomestart 9
trait 1 0.330695 0 0 0.429791 0.0953838 0 0 0.00602039 
trait 2 0.430949 0.084397 0 0 0 0.110377 0 0.735662 
trait 3 0.2625 0 0.10897 0 0 0 0.0308883 0 
node 1 1 1 3
node 2 2 1 1
node 3 3 1 1
node 4 2 1 1
node 5 2 1 1
node 6 2 0 2
node 7 2 0 2
node 29 1 0 0
node 37 1 0 0
node 108 1 0 0
node 170 1 0 0
node 233 1 0 0
gene 1 1 6 0.0336583 0 1 0.0336583 1
gene 1 2 6 -4.23212 0 2 -4.23212 1
gene 3 3 6 2.08448 0 3 2.08448 1
gene 3 4 6 4.39172 0 4 4.39172 0
gene 3 5 6 -1.29986 0 5 -1.29986 1
gene 2 1 7 2.35992 0 6 2.35992 1
gene 3 2 7 -2.99479 0 7 -2.99479 1
gene 3 3 7 0.603601 0 8 0.603601 1
gene 3 4 7 2.05737 0 9 2.05737 1
gene 2 5 7 -1.96513 0 10 -1.96513 1
gene 3 6 7 3.38614 0 47 3.38614 1
gene 3 5 29 1.45993 0 67 1.45993 1
gene 3 29 6 -1.09854 0 68 -1.09854 1
gene 2 5 37 -0.714393 0 96 -0.714393 1
gene 2 37 7 1.45598 0 97 1.45598 1
gene 1 37 6 0.76711 0 111 0.76711 1
gene 1 2 37 -1.50657 0 132 -1.50657 1
gene 1 3 29 0.923508 0 140 0.923508 1
gene 2 4 29 0.223482 0 150 0.223482 1
gene 1 1 37 0.165104 0 270 0.165104 1
gene 1 37 108 -0.842201 0 360 -0.842201 1
gene 1 108 6 -1.53805 0 361 -1.53805 0
gene 3 1 108 0.533473 0 564 0.533473 1
gene 1 108 170 0.718925 0 585 0.718925 1
gene 1 170 6 -0.706428 0 586 -0.706428 1
gene 3 29 7 -0.000776439 0 761 -0.000776439 1
gene 1 170 7 1.9371 0 832 1.9371 1
gene 2 5 233 2.07003 0 859 2.07003 1
gene 2 233 7 -0.71165 0 860 -0.71165 1
gene 2 3 233 -0.672361 0 963 -0.672361 1
genomeend 9

/* Organism #10 Fitness: 7694 Error: 0 */
genomestart 10
trait 1 0.330695 0 0 0.429791 0.0953838 0 0 0.00602039 
trait 2 0.430949 0.084397 0 0 0 0.110377 0.0542487 0 
trait 3 0.2625 0 0.10897 0 0 0 0.0308883 0 
node 1 1 1 3
node 2 2 1 1
node 3 3 1 1
node 4 2 1 1
node 5 2 1 1
node 6 2 0 2
node 7 2 0 2
node 29 1 0 0
node 37 1 0 0
node 108 1 0 0
node 170 1 0 0
node 233 1 0 0
node 321 1 0 0
gene 1 1 6 -0.607309 0 1 -0.607309 1
gene 1 2 6 -1.84659 0 2 -1.84659 1
gene 3 3 6 -0.0632105 0 3 -0.0632105 1
gene 3 4 6 2.41056 0 4 2.41056 0
gene 3 5 6 1.01428 0 5 1.01428 1
gene 2 1 7 -0.0367634 0 6 -0.0367634 1
gene 3 2 7 -0.861064 0 7 -0.861064 1
gene 3 3 7 0.115917 0 8 0.115917 1
gene 3 4 7 -1.34001 0 9 -1.34001 1
gene 2 5 7 -0.602768 0 10 -0.602768 1
gene 3 6 7 0.987469 0 47 0.987469 1
gene 3 5 29 1.01786 0 67 1.01786 1
gene 3 29 6 0.63019 0 68 0.63019 1
gene 2 5 37 0.196307 0 96 -0.553693 1
gene 2 37 7 -1.48965 0 97 0 1
gene 1 37 6 -0.886409 0 111 -0.886409 1
gene 1 2 37 -1.15826 0 132 -1.15826 1
gene 1 3 29 0.946967 0 140 0.946967 1
gene 2 4 29 0.708318 0 150 0.708318 0
gene 1 1 37 -0.487211 0 270 -0.487211 1
gene 1 37 108 1 0 360 0 1
gene 1 108 6 -0.886409 0 361 0 0
gene 3 1 108 -0.552751 0 564 -0.552751 1
gene 1 108 170 0.356813 0 585 -0.143187 1
gene 1 170 6 -0.886409 0 586 0 1
gene 3 29 7 0.983914 0 761 0.983914 1
gene 1 170 7 0.792682 0 832 0.792682 1
gene 2 5 233 0.817436 0 859 0.0674356 1
gene 2 233 7 -0.641492 0 860 0 1
gene 2 3 233 0.557923 0 963 0.557923 1
gene 2 4 321 1 0 1207 0 1
gene 2 321 29 0.708318 0 1208 0 1
genomeend 10

/* Species #78 : (Size 12) (AF 7352.83) (Age 14)  */


/* Organism #11 Fitness: 7986 Error: 0 */
genomestart 11
trait 1 0.330695 0 0 0.429791 0.0953838 0 0 0.00602039 
trait 2 0.430949 0.084397 0 0 0 0.110377 0.0542487 0 
trait 3 0.2625 0 0.10897 0 0 0 0.0308883 0 
node 1 1 1 3
node 2 2 1 1
node 3 3 1 1
node 4 2 1 1
node 5 2 1 1
node 6 2 0 2
node 7 2 0 2
node 29 1 0 0
node 37 1 0 0
node 108 1 0 0
node 170 1 0 0
node 233 1 0 0
node 242 1 0 0
node 253 1 0 0
node 275 1 0 0
node 288 1 0 0
gene 1 1 6 0.0078683 0 1 0.0078683 1
gene 1 2 6 -1.72088 0 2 -1.72088 1
gene 3 3 6 0.36327 0 3 0.36327 1
gene 3 4 6 2.41056 0 4 2.41056 1
gene 3 5 6 0.736772 0 5 0.736772 1
gene 2 1 7 -0.0367634 0 6 -0.0367634 1
gene 3 2 7 -0.425018 0 7 -0.425018 1
gene 3 3 7 0.115917 0 8 0.115917 1
gene 3 4 7 -0.575764 0 9 -0.575764 1
gene 2 5 7 -0.641492 0 10 -0.641492 0
gene 3 6 7 1.21114 0 47 1.21114 0
gene 3 5 29 1.01786 0 67 1.01786 1
gene 3 29 6 0.63019 0 68 0.63019 1
gene 2 5 37 1 0 96 0 1
gene 2 37 7 -1.48965 0 97 0 1
gene 1 37 6 -0.886409 0 111 -0.886409 1
gene 1 2 37 -0.693276 0 132 -0.693276 1
gene 1 3 29 0.946967 0 140 0.946967 1
gene 2 4 29 0.708318 0 150 0.708318 1
gene 1 1 37 -0.487211 0 270 -0.487211 1
gene 1 37 108 1 0 360 0 1
gene 1 108 6 -0.886409 0 361 0 0
gene 3 1 108 -0.552751 0 564 -0.552751 1
gene 1 108 170 1 0 585 0 0
gene 1 170 6 -0.886409 0 586 0 1
gene 3 29 7 0.983914 0 761 0.983914 1
gene 1 170 7 0.792682 0 832 0.792682 1
gene 2 5 233 1 0 859 0 0
gene 2 233 7 -0.641492 0 860 0 1
gene 2 5 242 1 0 895 0 1
gene 2 242 233 1 0 896 0 1
gene 2 233 37 0.355238 0 914 0.355238 1
gene 3 6 253 1 0 933 0 1
gene 3 253 7 1.21114 0 934 0 1
gene 3 242 6 0.827672 0 1010 0.827672 1
gene 1 108 275 1 0 1024 0 1
gene 1 275 170 1 0 1025 0 1
gene 2 37 288 1 0 1060 0 1
gene 2 288 7 -1.48965 0 1061 0 1
gene 1 2 288 0.684493 0 1146 0 1
genomeend 11

/* Organism #12 Fitness: 7118 Error: 0 */
genomestart 12
trait 1 0.330695 0 0 0.429791 0.0953838 0 0 0.00602039 
trait 2 0.430949 0.084397 0 0 0 0.110377 0.0542487 0 
trait 3 0.2625 0 0.10897 0 0 0 0.0308883 0 
node 1 1 1 3
node 2 2 1 1
node 3 3 1 1
node 4 2 1 1
node 5 2 1 1
node 6 2 0 2
node 7 2 0 2
node 29 1 0 0
node 37 1 0 0
node 108 1 0 0
node 170 1 0 0
node 233 1 0 0
node 242 1 0 0
node 253 1 0 0
node 275 1 0 0
node 288 1 0 0
gene 1 1 6 2.43623 0 1 2.43623 1
gene 1 2 6 -1.42166 0 2 -1.42166 1
gene 3 3 6 -1.62684 0 3 -1.62684 1
gene 3 4 6 2.67826 0 4 2.67826 1
gene 3 5 6 -1.45889 0 5 -1.45889 1
gene 2 1 7 0.0781703 0 6 0.0781703 1
gene 3 2 7 -0.735755 0 7 -0.735755 1
gene 3 3 7 0.351321 0 8 0.351321 1
gene 3 4 7 -1.26698 0 9 -1.26698 1
gene 2 5 7 -0.4646 0 10 -0.4646 0
gene 3 6 7 3.46339 0 47 3.46339 0
gene 3 5 29 -0.759995 0 67 -0.759995 1
gene 3 29 6 1.56384 0 68 1.56384 1
gene 2 5 37 0.651848 0 96 0.651848 1
gene 2 37 7 -2.24673 0 97 -2.24673 1
gene 1 37 6 0.432603 0 111 0.432603 1
gene 1 2 37 -0.0925416 0 132 -0.0925416 1
gene 1 3 29 1.85503 0 140 1.85503 1
gene 2 4 29 0.638075 0 150 0.638075 1
gene 1 1 37 0.75279 0 270 0.75279 1
gene 1 37 108 3.1722 0 360 3.1722 1
gene 1 108 6 -1.84299 0 361 -1.84299 0
gene 3 1 108 -2.38934 0 564 -2.38934 1
gene 1 108 170 -1.16204 0 585 -1.16204 0
gene 1 170 6 -0.424422 0 586 -0.424422 1
gene 3 29 7 3.17524 0 761 3.17524 1
gene 1 170 7 -0.418198 0 832 -0.418198 1
gene 2 5 233 1.03657 0 859 1.03657 0
gene 2 233 7 -3.00581 0 860 -3.00581 1
gene 2 5 242 3.43415 0 895 3.43415 1
gene 2 242 233 0.347612 0 896 0.347612 1
gene 2 233 37 2.26212 0 914 2.26212 1
gene 3 6 253 2.40268 0 933 2.40268 1
gene 3 253 7 -0.908485 0 934 -0.908485 1
gene 3 242 6 -1.03681 0 1010 -1.03681 1
gene 1 108 275 1 0 1024 1 1
gene 1 275 170 1 0 1025 1 1
gene 2 37 288 -0.176108 0 1060 -0.176108 1
gene 2 288 7 -1.69652 0 1061 -1.69652 1
gene 1 2 288 2.35695 0 1146 2.35695 1
genomeend 12

/* Organism #13 Fitness: 6866 Error: 0 */
genomestart 13
trait 1 0.330695 0 0 0.429791 0.0953838 0 0 0.00602039 
trait 2 0.430949 0.084397 0 0 0 0.110377 0.0542487 0 
trait 3 0.2625 0 0.10897 0 0 0 0.0308883 0 
node 1 1 1 3
node 2 2 1 1
node 3 3 1 1
node 4 2 1 1
node 5 2 1 1
node 6 2 0 2
node 7 2 0 2
node 29 1 0 0
node 37 1 0 0
node 108 1 0 0
node 170 1 0 0
node 233 1 0 0
node 242 1 0 0
node 253 1 0 0
node 275 1 0 0
node 288 1 0 0
gene 1 1 6 2.00805 0 1 2.00805 1
gene 1 2 6 -1.17134 0 2 -1.17134 1
gene 3 3 6 -0.90954 0 3 -0.90954 1
gene 3 4 6 2.51661 0 4 2.51661 1
gene 3 5 6 -0.256338 0 5 -0.256338 1
gene 2 1 7 -0.357019 0 6 -0.357019 1
gene 3 2 7 -0.265428 0 7 -0.265428 1
gene 3 3 7 -0.548182 0 8 -0.548182 1
gene 3 4 7 1.81443 0 9 1.81443 1
gene 2 5 7 -0.436172 0 10 -0.436172 0
gene 3 6 7 -0.721293 0 47 -0.721293 0
gene 3 5 29 1.09544 0 67 1.09544 1
gene 3 29 6 1.17202 0 68 1.17202 1
gene 2 5 37 3.83868 0 96 3.83868 1
gene 2 37 7 -1.07712 0 97 -1.07712 0
gene 1 37 6 -2.13294 0 111 -2.13294 1
gene 1 2 37 1.76583 0 132 1.76583 1
gene 1 3 29 0.867382 0 140 0.867382 1
gene 2 4 29 -1.4092 0 150 -1.4092 1
gene 1 1 37 2.32779 0 270 2.32779 1
gene 1 37 108 4.03867 0 360 4.03867 1
gene 1 108 6 -0.107767 0 361 -0.107767 0
gene 3 1 108 0.110473 0 564 0.110473 1
gene 1 108 170 0.972352 0 585 0.972352 0
gene 1 170 6 -2.45045 0 586 -2.45045 1
gene 3 29 7 -1.94832 0 761 -1.94832 1
gene 1 170 7 1.18353 0 832 1.18353 1
gene 2 5 233 2.13961 0 859 2.13961 0
gene 2 233 7 -2.19521 0 860 -2.19521 1
gene 2 5 242 2.51836 0 895 2.51836 1
gene 2 242 233 1.9205 0 896 1.9205 1
gene 2 233 37 0.259151 0 914 0.259151 1
gene 3 6 253 0.592084 0 933 0.592084 1
gene 3 253 7 -1.92378 0 934 -1.92378 1
gene 3 242 6 -1.95695 0 1010 -1.95695 0
gene 1 108 275 -0.784616 0 1024 -0.784616 1
gene 1 275 170 -0.875545 0 1025 -0.875545 1
gene 2 37 288 2.81285 0 1060 2.81285 1
gene 2 288 7 -1.48965 0 1061 -1.48965 1
gene 1 2 288 -0.216724 0 1146 -0.216724 1
genomeend 13

/* Organism #14 Fitness: 7341 Error: 0 */
genomestart 14
trait 1 0.330695 0 0 0.429791 0.0953838 0 0 0.00602039 
trait 2 0.430949 0.084397 0 0 0 0.110377 0.0542487 0 
trait 3 0.2625 0 0.10897 0 0 0 0.0308883 0 
node 1 1 1 3
node 2 2 1 1
node 3 3 1 1
node 4 2 1 1
node 5 2 1 1
node 6 2 0 2
node 7 2 0 2
node 29 1 0 0
node 37 1 0 0
node 108 1 0 0
node 170 1 0 0
node 233 1 0 0
node 242 1 0 0
node 253 1 0 0
node 275 1 0 0
node 288 1 0 0
gene 1 1 6 1.07649 0 1 1.07649 1
gene 1 2 6 -3.99433 0 2 -3.99433 1
gene 3 3 6 0.58219 0 3 0.58219 1
gene 3 4 6 1.23738 0 4 1.23738 1
gene 3 5 6 0.681955 0 5 0.681955 1
gene 2 1 7 1.96414 0 6 1.96414 1
gene 3 2 7 1.26486 0 7 1.26486 1
gene 3 3 7 0.425681 0 8 0.425681 1
gene 3 4 7 -0.620068 0 9 -0.620068 1
gene 2 5 7 0.231315 0 10 0.231315 0
gene 3 6 7 2.78034 0 47 2.78034 0
gene 3 5 29 2.56602 0 67 2.56602 1
gene 3 29 6 -1.69674 0 68 -1.69674 1
gene 2 5 37 1.12261 0 96 1.12261 1
gene 2 37 7 -0.441796 0 97 -0.441796 1
gene 1 37 6 -2.88869 0 111 -2.88869 1
gene 1 2 37 0.292057 0 132 0.292057 1
gene 1 3 29 -0.265313 0 140 -0.265313 1
gene 2 4 29 -0.972395 0 150 -0.972395 1
gene 1 1 37 1.54781 0 270 1.54781 1
gene 1 37 108 3.03959 0 360 3.03959 1
gene 1 108 6 -2.82801 0 361 -2.82801 0
gene 3 1 108 0.726899 0 564 0.726899 1
gene 1 108 170 0.83933 0 585 0.83933 0
gene 1 170 6 0.000521043 0 586 0.000521043 1
gene 3 29 7 3.34995 0 761 3.34995 1
gene 1 170 7 0.0425461 0 832 0.0425461 1
gene 2 5 233 -0.400725 0 859 -0.400725 0
gene 2 233 7 -2.52709 0 860 -2.52709 1
gene 2 5 242 0.10391 0 895 0.10391 1
gene 2 242 233 -0.779832 0 896 -0.779832 1
gene 2 233 37 -0.882324 0 914 -0.882324 1
gene 3 6 253 0.0713732 0 933 0.0713732 1
gene 3 253 7 1.21114 0 934 1.21114 1
gene 3 242 6 0.827672 0 1010 0.827672 1
gene 1 108 275 1.00648 0 1024 1.00648 1
gene 1 275 170 -0.763061 0 1025 -0.763061 1
gene 2 37 288 -0.0606834 0 1060 -0.0606834 1
gene 2 288 7 -0.253004 0 1061 -0.253004 1
gene 1 2 288 3.14649 0 1146 3.14649 1
genomeend 14

/* Organism #15 Fitness: 7477 Error: 0 */
genomestart 15
trait 1 0.330695 0 0 0.429791 0.0953838 0 0 0.00602039 
trait 2 0.430949 0.084397 0 0 0 0.110377 0.0542487 0 
trait 3 0.2625 0 0.10897 0 0 0 0.0308883 0 
node 1 1 1 3
node 2 2 1 1
node 3 3 1 1
node 4 2 1 1
node 5 2 1 1
node 6 2 0 2
node 7 2 0 2
node 29 1 0 0
node 37 1 0 0
node 108 1 0 0
node 170 1 0 0
node 233 1 0 0
node 242 1 0 0
node 253 1 0 0
node 275 1 0 0
node 288 1 0 0
gene 1 1 6 -2.0733 0 1 -2.0733 1
gene 1 2 6 -3.1404 0 2 -3.1404 1
gene 3 3 6 0.97704 0 3 0.97704 1
gene 3 4 6 1.06515 0 4 1.06515 1
gene 3 5 6 -0.969608 0 5 -0.969608 1
gene 2 1 7 -1.58309 0 6 -1.58309 1
gene 3 2 7 0.533032 0 7 0.533032 1
gene 3 3 7 -0.654781 0 8 -0.654781 1
gene 3 4 7 -2.73158 0 9 -2.73158 1
gene 2 5 7 -2.01281 0 10 -2.01281 0
gene 3 6 7 3.63988 0 47 3.63988 0
gene 3 5 29 2.18029 0 67 2.18029 1
gene 3 29 6 -1.79211 0 68 -1.79211 1
gene 2 5 37 -0.682871 0 96 -0.682871 1
gene 2 37 7 -1.38646 0 97 -1.38646 1
gene 1 37 6 0.579991 0 111 0.579991 1
gene 1 2 37 -1.10308 0 132 -1.10308 1
gene 1 3 29 3.01535 0 140 3.01535 1
gene 2 4 29 0.0100713 0 150 0.0100713 1
gene 1 1 37 0.568996 0 270 0.568996 1
gene 1 37 108 -0.232836 0 360 -0.232836 1
gene 1 108 6 0.283495 0 361 0.283495 0
gene 3 1 108 -0.389878 0 564 -0.389878 1
gene 1 108 170 3.49385 0 585 3.49385 0
gene 1 170 6 -2.12169 0 586 -2.12169 1
gene 3 29 7 2.41244 0 761 2.41244 1
gene 1 170 7 1.88177 0 832 1.88177 1
gene 2 5 233 -0.900563 0 859 -0.900563 0
gene 2 233 7 0.221494 0 860 0.221494 1
gene 2 5 242 -0.698507 0 895 -0.698507 1
gene 2 242 233 0.109588 0 896 0.109588 1
gene 2 233 37 -0.587133 0 914 -0.587133 1
gene 3 6 253 0.307727 0 933 0.307727 1
gene 3 253 7 -1.01917 0 934 -1.01917 1
gene 3 242 6 -1.03087 0 1010 -1.03087 1
gene 1 108 275 -0.733338 0 1024 -0.733338 1
gene 1 275 170 -1.06912 0 1025 -1.06912 1
gene 2 37 288 -1.77118 0 1060 -1.77118 1
gene 2 288 7 2.4648 0 1061 2.4648 1
gene 1 2 288 0.684493 0 1146 0.684493 1
genomeend 15

/* Organism #16 Fitness: 7175 Error: 0 */
genomestart 16
trait 1 0.330695 0 0 0.429791 0.0953838 0 0 0.00602039 
trait 2 0.430949 0.084397 0 0 0 0.110377 0.0542487 0 
trait 3 0.2625 0 0.10897 0 0 0 0.0308883 0 
node 1 1 1 3
node 2 2 1 1
node 3 3 1 1
node 4 2 1 1
node 5 2 1 1
node 6 2 0 2
node 7 2 0 2
node 29 1 0 0
node 37 1 0 0
node 108 1 0 0
node 170 1 0 0
node 233 1 0 0
node 242 1 0 0
node 253 1 0 0
node 275 1 0 0
node 288 1 0 0
gene 1 1 6 1.77577 0 1 1.77577 1
gene 1 2 6 -3.0215 0 2 -3.0215 1
gene 3 3 6 1.05759 0 3 1.05759 1
gene 3 4 6 2.27768 0 4 2.27768 1
gene 3 5 6 0.736772 0 5 0.736772 1
gene 2 1 7 0.164455 0 6 0.164455 1
gene 3 2 7 -2.57179 0 7 -2.57179 1
gene 3 3 7 -2.02154 0 8 -2.02154 1
gene 3 4 7 1.73214 0 9 1.73214 1
gene 2 5 7 -0.327805 0 10 -0.327805 0
gene 3 6 7 2.56236 0 47 2.56236 1
gene 3 5 29 0.845931 0 67 0.845931 1
gene 3 29 6 0.63019 0 68 0.63019 1
gene 2 5 37 0.777799 0 96 0.777799 1
gene 2 37 7 -1.85928 0 97 -1.85928 1
gene 1 37 6 -1.83986 0 111 -1.83986 1
gene 1 2 37 -1.61602 0 132 -1.61602 1
gene 1 3 29 -0.304512 0 140 -0.304512 1
gene 2 4 29 2.49067 0 150 2.49067 1
gene 1 1 37 1.8033 0 270 1.8033 1
gene 1 37 108 2.01005 0 360 2.01005 1
gene 1 108 6 0.765123 0 361 0.765123 0
gene 3 1 108 -0.55792 0 564 -0.55792 1
gene 1 108 170 -2.43962 0 585 -2.43962 0
gene 1 170 6 -2.59067 0 586 -2.59067 1
gene 3 29 7 1.25105 0 761 1.25105 1
gene 1 170 7 -0.937841 0 832 -0.937841 1
gene 2 5 233 2.61625 0 859 2.61625 0
gene 2 233 7 0.260886 0 860 0.260886 1
gene 2 5 242 2.8112 0 895 2.8112 1
gene 2 242 233 0.083316 0 896 0.083316 1
gene 2 233 37 0.780728 0 914 0.780728 1
gene 3 6 253 2.98518 0 933 2.98518 1
gene 3 253 7 0.644757 0 934 0.644757 1
gene 3 242 6 1.69709 0 1010 1.69709 1
gene 1 108 275 -1.09517 0 1024 -1.09517 1
gene 1 275 170 3.16358 0 1025 3.16358 1
gene 2 37 288 0.352302 0 1060 0.352302 1
gene 2 288 7 -1.48965 0 1061 -1.48965 1
gene 1 2 288 -1.60512 0 1146 -1.60512 1
genomeend 16

/* Organism #17 Fitness: 7336 Error: 0 */
genomestart 17
trait 1 0.330695 0 0 0.429791 0.0953838 0 0 0.00602039 
trait 2 0.430949 0.084397 0 0 0 0.110377 0.0542487 0 
trait 3 0.2625 0 0.10897 0 0 0 0.0308883 0 
node 1 1 1 3
node 2 2 1 1
node 3 3 1 1
node 4 2 1 1
node 5 2 1 1
node 6 2 0 2
node 7 2 0 2
node 29 1 0 0
node 37 1 0 0
node 108 1 0 0
node 170 1 0 0
node 233 1 0 0
node 242 1 0 0
node 253 1 0 0
node 275 1 0 0
node 288 1 0 0
gene 1 1 6 1.50252 0 1 1.50252 1
gene 1 2 6 -3.87307 0 2 -3.87307 1
gene 3 3 6 -1.95548 0 3 -1.95548 1
gene 3 4 6 -1.49463 0 4 -1.49463 1
gene 3 5 6 1.14151 0 5 1.14151 1
gene 2 1 7 1.63166 0 6 1.63166 1
gene 3 2 7 1.8518 0 7 1.8518 1
gene 3 3 7 0.357285 0 8 0.357285 1
gene 3 4 7 0.23949 0 9 0.23949 1
gene 2 5 7 0.371893 0 10 0.371893 1
gene 3 6 7 2.19814 0 47 2.19814 0
gene 3 5 29 2.08325 0 67 2.08325 1
gene 3 29 6 -1.26812 0 68 -1.26812 1
gene 2 5 37 0.131971 0 96 0.131971 1
gene 2 37 7 -1.81954 0 97 -1.81954 0
gene 1 37 6 0.279953 0 111 0.279953 1
gene 1 2 37 -1.52533 0 132 -1.52533 1
gene 1 3 29 1.12864 0 140 1.12864 1
gene 2 4 29 0.171886 0 150 0.171886 1
gene 1 1 37 -2.13829 0 270 -2.13829 1
gene 1 37 108 1.73517 0 360 1.73517 1
gene 1 108 6 -1.25049 0 361 -1.25049 0
gene 3 1 108 -1.82295 0 564 -1.82295 1
gene 1 108 170 -0.557112 0 585 -0.557112 0
gene 1 170 6 -3.32341 0 586 -3.32341 1
gene 3 29 7 -2.41778 0 761 -2.41778 1
gene 1 170 7 2.13277 0 832 2.13277 1
gene 2 5 233 1.35546 0 859 1.35546 1
gene 2 233 7 -0.580735 0 860 -0.580735 1
gene 2 5 242 -1.20964 0 895 -1.20964 1
gene 2 242 233 1.80387 0 896 1.80387 1
gene 2 233 37 -0.481473 0 914 -0.481473 1
gene 3 6 253 0.63265 0 933 0.63265 1
gene 3 253 7 3.18317 0 934 3.18317 1
gene 3 242 6 0.310355 0 1010 0.310355 0
gene 1 108 275 2.06664 0 1024 2.06664 1
gene 1 275 170 2.87235 0 1025 2.87235 1
gene 2 37 288 2.59374 0 1060 2.59374 1
gene 2 288 7 -1.69723 0 1061 -1.69723 1
gene 1 2 288 1.59939 0 1146 1.59939 1
genomeend 17

/* Organism #18 Fitness: 7986 Error: 0 */
genomestart 18
trait 1 0.330695 0 0 0.429791 0.0953838 0 0 0.00602039 
trait 2 0.430949 0.084397 0 0 0 0.110377 0.0542487 0 
trait 3 0.2625 0 0.10897 0 0 0 0.0308883 0 
node 1 1 1 3
node 2 2 1 1
node 3 3 1 1
node 4 2 1 1
node 5 2 1 1
node 6 2 0 2
node 7 2 0 2
node 29 1 0 0
node 37 1 0 0
node 108 1 0 0
node 170 1 0 0
node 233 1 0 0
node 242 1 0 0
node 253 1 0 0
node 275 1 0 0
node 288 1 0 0
gene 1 1 6 0.0078683 0 1 0.0078683 1
gene 1 2 6 -1.72088 0 2 -1.72088 1
gene 3 3 6 0.36327 0 3 0.36327 1
gene 3 4 6 2.41056 0 4 2.41056 1
gene 3 5 6 0.736772 0 5 0.736772 1
gene 2 1 7 -0.0367634 0 6 -0.0367634 1
gene 3 2 7 -0.425018 0 7 -0.425018 1
gene 3 3 7 0.115917 0 8 0.115917 1
gene 3 4 7 -0.575764 0 9 -0.575764 1
gene 2 5 7 -0.641492 0 10 -0.641492 0
gene 3 6 7 1.21114 0 47 1.21114 0
gene 3 5 29 1.01786 0 67 1.01786 1
gene 3 29 6 0.63019 0 68 0.63019 1
gene 2 5 37 1 0 96 0 1
gene 2 37 7 -1.48965 0 97 0 1
gene 1 37 6 -0.886409 0 111 -0.886409 1
gene 1 2 37 -0.693276 0 132 -0.693276 1
gene 1 3 29 0.946967 0 140 0.946967 1
gene 2 4 29 0.708318 0 150 0.708318 1
gene 1 1 37 -0.487211 0 270 -0.487211 1
gene 1 37 108 1 0 360 0 1
gene 1 108 6 -0.886409 0 361 0 0
gene 3 1 108 -0.552751 0 564 -0.552751 1
gene 1 108 170 1 0 585 0 0
gene 1 170 6 -0.886409 0 586 0 1
gene 3 29 7 0.983914 0 761 0.983914 1
gene 1 170 7 0.792682 0 832 0.792682 1
gene 2 5 233 1 0 859 0 0
gene 2 233 7 -0.641492 0 860 0 1
gene 2 5 242 1 0 895 0 1
gene 2 242 233 1 0 896 0 1
gene 2 233 37 0.355238 0 914 0.355238 1
gene 3 6 253 1 0 933 0 1
gene 3 253 7 1.21114 0 934 0 1
gene 3 242 6 0.827672 0 1010 0.827672 1
gene 1 108 275 1 0 1024 0 1
gene 1 275 170 1 0 1025 0 1
gene 2 37 288 1 0 1060 0 1
gene 2 288 7 -1.48965 0 1061 0 1
gene 1 2 288 0.684493 0 1146 0 1
gene 3 5 253 -0.338715 0 1209 -0.338715 1
genomeend 18

/* Organism #19 Fitness: 7686 Error: 0 */
genomestart 19
trait 1 0.330695 0 0 0.429791 0.0953838 0 0 0.00602039 
trait 2 0.430949 0.084397 0 0 0 0.110377 0.0542487 0 
trait 3 0.2625 0 0.10897 0 0 0 0.0308883 0 
node 1 1 1 3
node 2 2 1 1
node 3 3 1 1
node 4 2 1 1
node 5 2 1 1
node 6 2 0 2
node 7 2 0 2
node 29 1 0 0
node 37 1 0 0
node 108 1 0 0
node 170 1 0 0
node 233 1 0 0
node 242 1 0 0
node 253 1 0 0
node 275 1 0 0
node 288 1 0 0
gene 1 1 6 -1.13035 0 1 -1.13035 1
gene 1 2 6 -1.16546 0 2 -1.16546 1
gene 3 3 6 0.36327 0 3 0.36327 1
gene 3 4 6 2.41056 0 4 2.41056 1
gene 3 5 6 0.736772 0 5 0.736772 1
gene 2 1 7 -0.0367634 0 6 -0.0367634 1
gene 3 2 7 -0.0591811 0 7 -0.0591811 1
gene 3 3 7 0.536934 0 8 0.536934 1
gene 3 4 7 -0.575764 0 9 -0.575764 1
gene 2 5 7 -0.543079 0 10 -0.543079 0
gene 3 6 7 1.21114 0 47 1.21114 0
gene 3 5 29 1.01786 0 67 1.01786 1
gene 3 29 6 -0.113232 0 68 -0.113232 1
gene 2 5 37 2.08407 0 96 1.58407 1
gene 2 37 7 -2.14943 0 97 -1.40461 0
gene 1 37 6 -2.13294 0 111 -2.13294 1
gene 1 2 37 -0.693276 0 132 -0.693276 1
gene 1 3 29 0.946967 0 140 0.946967 1
gene 2 4 29 1.15088 0 150 1.15088 1
gene 1 1 37 0.0340487 0 270 0.0340487 1
gene 1 37 108 1 0 360 0 1
gene 1 108 6 -2.84461 0 361 -2.4014 0
gene 3 1 108 -0.552751 0 564 -0.552751 1
gene 1 108 170 1.05039 0 585 0.550386 0
gene 1 170 6 -0.886409 0 586 0 1
gene 3 29 7 -0.253208 0 761 -0.253208 1
gene 1 170 7 0.918215 0 832 0.918215 1
gene 2 5 233 1 0 859 0 0
gene 2 233 7 -0.641492 0 860 0 1
gene 2 5 242 0.646164 0 895 0.146164 1
gene 2 242 233 -0.154137 0 896 -0.654137 1
gene 2 233 37 0.355238 0 914 0.355238 1
gene 3 6 253 1.26004 0 933 0.760043 1
gene 3 253 7 1.21114 0 934 0 1
gene 3 242 6 0.827672 0 1010 0.827672 0
gene 1 108 275 0.00433946 0 1024 -0.495661 1
gene 1 275 170 1.5288 0 1025 1.0288 1
gene 2 37 288 1 0 1060 0 1
gene 2 288 7 -1.48965 0 1061 0 1
gene 1 2 288 -0.102368 0 1146 -0.444615 1
genomeend 19

/* Organism #20 Fitness: 6786 Error: 0 */
genomestart 20
trait 1 0.330695 0 0 0.429791 0.0953838 0 0 0.00602039 
trait 2 0.430949 0.084397 0 0 0 0.110377 0.0542487 0 
trait 3 0.2625 0 0.10897 0 0 0 0.0308883 0 
node 1 1 1 3
node 2 2 1 1
node 3 3 1 1
node 4 2 1 1
node 5 2 1 1
node 6 2 0 2
node 7 2 0 2
node 29 1 0 0
node 37 1 0 0
node 108 1 0 0
node 170 1 0 0
node 233 1 0 0
node 242 1 0 0
node 253 1 0 0
node 275 1 0 0
node 288 1 0 0
gene 1 1 6 1.32092 0 1 1.32092 1
gene 1 2 6 0.688437 0 2 0.688437 1
gene 3 3 6 1.85414 0 3 1.85414 1
gene 3 4 6 3.17879 0 4 3.17879 1
gene 3 5 6 -1.12431 0 5 -1.12431 1
gene 2 1 7 -2.51148 0 6 -2.51148 1
gene 3 2 7 -2.10997 0 7 -2.10997 1
gene 3 3 7 -1.99931 0 8 -1.99931 1
gene 3 4 7 0.428747 0 9 0.428747 1
gene 2 5 7 -3.0409 0 10 -3.0409 0
gene 3 6 7 -0.314492 0 47 -0.314492 0
gene 3 5 29 1.14347 0 67 1.14347 1
gene 3 29 6 -0.483707 0 68 -0.483707 1
gene 2 5 37 -1.47788 0 96 -1.47788 1
gene 2 37 7 -0.828588 0 97 -0.828588 1
gene 1 37 6 -0.839181 0 111 -0.839181 1
gene 1 2 37 -2.65869 0 132 -2.65869 1
gene 1 3 29 0.841364 0 140 0.841364 1
gene 2 4 29 -0.743434 0 150 -0.743434 1
gene 1 1 37 -0.0127417 0 270 -0.0127417 1
gene 1 37 108 -1.38056 0 360 -1.38056 1
gene 1 108 6 -2.68318 0 361 -2.68318 0
gene 3 1 108 -0.714206 0 564 -0.714206 1
gene 1 108 170 0.919291 0 585 0.919291 0
gene 1 170 6 -0.0702787 0 586 -0.0702787 1
gene 3 29 7 1.57351 0 761 1.57351 1
gene 1 170 7 1.84616 0 832 1.84616 1
gene 2 5 233 1.04002 0 859 1.04002 0
gene 2 233 7 -0.49107 0 860 -0.49107 1
gene 2 5 242 2.3786 0 895 2.3786 1
gene 2 242 233 2.33661 0 896 2.33661 1
gene 2 233 37 1.41381 0 914 1.41381 1
gene 3 6 253 1.95586 0 933 1.95586 1
gene 3 253 7 1.21114 0 934 1.21114 1
gene 3 242 6 0.827672 0 1010 0.827672 1
gene 1 108 275 -1.01242 0 1024 -1.01242 1
gene 1 275 170 -0.933247 0 1025 -0.933247 1
gene 2 37 288 1 0 1060 1 1
gene 2 288 7 -1.48965 0 1061 -1.48965 1
gene 1 2 288 0.684493 0 1146 0.684493 1
genomeend 20

/* Organism #21 Fitness: 7691 Error: 0 */
genomestart 21
trait 1 0.330695 0 0 0.429791 0.0953838 0 0 0.00602039 
trait 2 0.430949 0.084397 0 0 0 0.110377 0.0542487 0 
trait 3 0.2625 0 0.10897 0 0 0 0.0308883 0 
node 1 1 1 3
node 2 2 1 1
node 3 3 1 1
node 4 2 1 1
node 5 2 1 1
node 6 2 0 2
node 7 2 0 2
node 29 1 0 0
node 37 1 0 0
node 108 1 0 0
node 170 1 0 0
node 233 1 0 0
node 242 1 0 0
node 253 1 0 0
node 275 1 0 0
node 288 1 0 0
gene 1 1 6 -1.13035 0 1 -1.13035 1
gene 1 2 6 -1.16546 0 2 -1.16546 1
gene 3 3 6 -0.28499 0 3 -0.28499 1
gene 3 4 6 0.983848 0 4 0.983848 1
gene 3 5 6 1.73267 0 5 1.73267 1
gene 2 1 7 0.406757 0 6 0.406757 1
gene 3 2 7 -0.0591811 0 7 -0.0591811 1
gene 3 3 7 0.536934 0 8 0.536934 1
gene 3 4 7 -1.31974 0 9 -1.31974 1
gene 2 5 7 -0.543079 0 10 -0.543079 1
gene 3 6 7 0.112977 0 47 0.112977 0
gene 3 5 29 2.75483 0 67 2.75483 1
gene 3 29 6 -0.113232 0 68 -0.113232 1
gene 2 5 37 2.08407 0 96 1.58407 1
gene 2 37 7 -2.14943 0 97 -1.40461 0
gene 1 37 6 -2.13294 0 111 -2.13294 1
gene 1 2 37 0.545859 0 132 0.545859 1
gene 1 3 29 1.31032 0 140 1.31032 1
gene 2 4 29 1.15088 0 150 1.15088 1
gene 1 1 37 0.0340487 0 270 0.0340487 1
gene 1 37 108 2.13515 0 360 1.63515 1
gene 1 108 6 -2.84461 0 361 -2.4014 0
gene 3 1 108 0.110473 0 564 0.110473 1
gene 1 108 170 1.05039 0 585 0.550386 1
gene 1 170 6 -2.0168 0 586 -1.57359 1
gene 3 29 7 -0.253208 0 761 -0.253208 1
gene 1 170 7 0.918215 0 832 0.918215 1
gene 2 5 233 1.10945 0 859 0.609446 0
gene 2 233 7 -1.21399 0 860 -0.893245 1
gene 2 5 242 0.646164 0 895 0.146164 1
gene 2 242 233 -0.154137 0 896 -0.654137 1
gene 2 233 37 0.894442 0 914 0.894442 1
gene 3 6 253 1.26004 0 933 0.760043 1
gene 3 253 7 1.56574 0 934 0.960173 1
gene 3 242 6 1.52821 0 1010 1.52821 0
gene 1 108 275 0.00433946 0 1024 -0.495661 1
gene 1 275 170 1.5288 0 1025 1.0288 1
gene 2 37 288 1.28852 0 1060 0.788519 1
gene 2 288 7 -1.40632 0 1061 -0.661492 1
gene 1 2 288 -0.102368 0 1146 -0.444615 1
genomeend 21

/* Organism #22 Fitness: 6786 Error: 0 */
genomestart 22
trait 1 0.330695 0 0 0.429791 0.0953838 0 0 0.00602039 
trait 2 0.430949 0.084397 0 0 0 0.110377 0.0542487 0 
trait 3 0.2625 0 0.10897 0 0 0 0.0308883 0 
node 1 1 1 3
node 2 2 1 1
node 3 3 1 1
node 4 2 1 1
node 5 2 1 1
node 6 2 0 2
node 7 2 0 2
node 29 1 0 0
node 37 1 0 0
node 108 1 0 0
node 170 1 0 0
node 233 1 0 0
node 242 1 0 0
node 253 1 0 0
node 275 1 0 0
node 288 1 0 0
gene 1 1 6 1.66686 0 1 1.66686 1
gene 1 2 6 -1.93264 0 2 -1.93264 1
gene 3 3 6 -2.39267 0 3 -2.39267 1
gene 3 4 6 0.716523 0 4 0.716523 1
gene 3 5 6 -1.23024 0 5 -1.23024 1
gene 2 1 7 -1.74383 0 6 -1.74383 1
gene 3 2 7 1.37457 0 7 1.37457 1
gene 3 3 7 -0.97795 0 8 -0.97795 1
gene 3 4 7 1.16601 0 9 1.16601 1
gene 2 5 7 -2.81094 0 10 -2.81094 1
gene 3 6 7 2.58361 0 47 2.58361 0
gene 3 5 29 0.437903 0 67 0.437903 1
gene 3 29 6 -1.73289 0 68 -1.73289 1
gene 2 5 37 0.880384 0 96 0.880384 1
gene 2 37 7 -1.63232 0 97 -1.63232 0
gene 1 37 6 -1.56286 0 111 -1.56286 1
gene 1 2 37 2.02869 0 132 2.02869 1
gene 1 3 29 1.43086 0 140 1.43086 1
gene 2 4 29 -0.791737 0 150 -0.791737 1
gene 1 1 37 -1.30267 0 270 -1.30267 1
gene 1 37 108 1.57483 0 360 1.57483 1
gene 1 108 6 0.537032 0 361 0.537032 0
gene 3 1 108 -0.0552238 0 564 -0.0552238 1
gene 1 108 170 0.465776 0 585 0.465776 0
gene 1 170 6 -0.126119 0 586 -0.126119 1
gene 3 29 7 2.32463 0 761 2.32463 1
gene 1 170 7 3.0309 0 832 3.0309 1
gene 2 5 233 2.07215 0 859 2.07215 0
gene 2 233 7 -2.80481 0 860 -2.80481 1
gene 2 5 242 2.33344 0 895 2.33344 1
gene 2 242 233 0.501492 0 896 0.501492 1
gene 2 233 37 -1.40926 0 914 -1.40926 1
gene 3 6 253 2.74663 0 933 2.74663 1
gene 3 253 7 3.04706 0 934 3.04706 1
gene 3 242 6 2.15267 0 1010 2.15267 0
gene 1 108 275 2.55723 0 1024 2.55723 1
gene 1 275 170 -1.019 0 1025 -1.019 1
gene 2 37 288 2.25657 0 1060 2.25657 1
gene 2 288 7 -1.44798 0 1061 -1.44798 1
gene 1 2 288 0.291062 0 1146 0.291062 1
genomeend 22

/* Species #81 : (Size 11) (AF 7552.45) (Age 5)  */


/* Organism #23 Fitness: 7961 Error: 0 */
genomestart 23
trait 1 0.330695 0 0 0.429791 0.0953838 0 0 0.00602039 
trait 2 0.430949 0.084397 0 0 0 0.110377 0.0542487 0 
trait 3 0.2625 0 0.10897 0 0 0 0.0308883 0 
node 1 1 1 3
node 2 2 1 1
node 3 3 1 1
node 4 2 1 1
node 5 2 1 1
node 6 2 0 2
node 7 2 0 2
node 29 1 0 0
node 37 1 0 0
node 108 1 0 0
node 170 1 0 0
node 233 1 0 0
node 305 1 0 0
node 309 1 0 0
gene 1 1 6 0.0078683 0 1 0.0078683 1
gene 1 2 6 -1.72088 0 2 -1.72088 1
gene 3 3 6 0.36327 0 3 0.36327 1
gene 3 4 6 2.41056 0 4 2.41056 1
gene 3 5 6 0.736772 0 5 0.736772 1
gene 2 1 7 -0.0367634 0 6 -0.0367634 1
gene 3 2 7 -0.425018 0 7 -0.425018 1
gene 3 3 7 0.115917 0 8 0.115917 1
gene 3 4 7 -0.575764 0 9 -0.575764 1
gene 2 5 7 -0.641492 0 10 -0.641492 1
gene 3 6 7 1.21114 0 47 1.21114 1
gene 3 5 29 1.01786 0 67 1.01786 0
gene 3 29 6 0.63019 0 68 0.63019 1
gene 2 5 37 1 0 96 0 1
gene 2 37 7 -1.48965 0 97 0 1
gene 1 37 6 -0.886409 0 111 -0.886409 1
gene 1 2 37 -0.693276 0 132 -0.693276 1
gene 1 3 29 0.946967 0 140 0.946967 0
gene 2 4 29 0.708318 0 150 0.708318 1
gene 1 1 37 -0.487211 0 270 -0.487211 1
gene 1 37 108 1 0 360 0 1
gene 1 108 6 -0.886409 0 361 0 0
gene 3 1 108 -0.552751 0 564 -0.552751 1
gene 1 108 170 1 0 585 0 1
gene 1 170 6 -0.886409 0 586 0 1
gene 3 29 7 0.983914 0 761 0.983914 1
gene 1 170 7 0.792682 0 832 0.792682 1
gene 2 5 233 1 0 859 0 1
gene 2 233 7 -0.641492 0 860 0 1
gene 2 3 233 0.557923 0 963 0.557923 1
gene 2 108 7 0.315681 0 1132 0.315681 1
gene 3 5 305 1 0 1151 0 1
gene 3 305 29 1.01786 0 1152 0 1
gene 1 3 309 1 0 1166 0 1
gene 1 309 29 0.946967 0 1167 0 1
genomeend 23

/* Organism #24 Fitness: 7116 Error: 0 */
genomestart 24
trait 1 0.330695 0 0 0.429791 0.0953838 0 0 0.00602039 
trait 2 0.430949 0.084397 0 0 0 0.110377 0.0542487 0 
trait 3 0.2625 0 0.10897 0 0 0 0.0308883 0 
node 1 1 1 3
node 2 2 1 1
node 3 3 1 1
node 4 2 1 1
node 5 2 1 1
node 6 2 0 2
node 7 2 0 2
node 29 1 0 0
node 37 1 0 0
node 108 1 0 0
node 170 1 0 0
node 233 1 0 0
node 305 1 0 0
node 309 1 0 0
gene 1 1 6 0.0078683 0 1 0.0078683 1
gene 1 2 6 -2.67657 0 2 -2.67657 1
gene 3 3 6 1.41602 0 3 1.41602 1
gene 3 4 6 3.14394 0 4 3.14394 1
gene 3 5 6 -2.30561 0 5 -2.30561 1
gene 2 1 7 -1.76214 0 6 -1.76214 1
gene 3 2 7 0.660059 0 7 0.660059 1
gene 3 3 7 2.17024 0 8 2.17024 1
gene 3 4 7 -0.45291 0 9 -0.45291 1
gene 2 5 7 0.297047 0 10 0.297047 1
gene 3 6 7 0.772972 0 47 0.772972 1
gene 3 5 29 1.01786 0 67 1.01786 0
gene 3 29 6 -0.0263476 0 68 -0.0263476 1
gene 2 5 37 1.62637 0 96 1.62637 1
gene 2 37 7 -1.36746 0 97 -1.36746 1
gene 1 37 6 -2.20522 0 111 -2.20522 1
gene 1 2 37 1.72698 0 132 1.72698 1
gene 1 3 29 0.635085 0 140 0.635085 0
gene 2 4 29 2.148 0 150 2.148 1
gene 1 1 37 0.76417 0 270 0.76417 1
gene 1 37 108 2.50393 0 360 2.50393 1
gene 1 108 6 1.46588 0 361 1.46588 0
gene 3 1 108 0.278072 0 564 0.278072 1
gene 1 108 170 1.30103 0 585 1.30103 1
gene 1 170 6 1.33979 0 586 1.33979 1
gene 3 29 7 0.0987367 0 761 0.0987367 1
gene 1 170 7 -1.12274 0 832 -1.12274 1
gene 2 5 233 0.074737 0 859 0.074737 1
gene 2 233 7 1.06551 0 860 1.06551 1
gene 2 3 233 -1.87759 0 963 -1.87759 1
gene 2 108 7 -1.6736 0 1132 -1.6736 1
gene 3 5 305 -0.657791 0 1151 -0.657791 1
gene 3 305 29 0.424081 0 1152 0.424081 1
gene 1 3 309 0.11873 0 1166 0.11873 1
gene 1 309 29 0.946967 0 1167 0.946967 1
genomeend 24

/* Organism #25 Fitness: 7961 Error: 0 */
genomestart 25
trait 1 0.330695 0 0 0.429791 0.0953838 0 0 0.00602039 
trait 2 0.430949 0.084397 0 0 0 0.110377 0.0542487 0 
trait 3 0.2625 0 0.10897 0 0 0 0.0308883 0 
node 1 1 1 3
node 2 2 1 1
node 3 3 1 1
node 4 2 1 1
node 5 2 1 1
node 6 2 0 2
node 7 2 0 2
node 29 1 0 0
node 37 1 0 0
node 108 1 0 0
node 170 1 0 0
node 233 1 0 0
node 305 1 0 0
node 309 1 0 0
gene 1 1 6 0.0078683 0 1 0.0078683 1
gene 1 2 6 -1.72088 0 2 -1.72088 1
gene 3 3 6 0.36327 0 3 0.36327 1
gene 3 4 6 2.41056 0 4 2.41056 1
gene 3 5 6 0.736772 0 5 0.736772 1
gene 2 1 7 -0.0367634 0 6 -0.0367634 1
gene 3 2 7 -0.425018 0 7 -0.425018 1
gene 3 3 7 0.115917 0 8 0.115917 1
gene 3 4 7 -0.575764 0 9 -0.575764 1
gene 2 5 7 -0.641492 0 10 -0.641492 1
gene 3 6 7 1.21114 0 47 1.21114 1
gene 3 5 29 1.01786 0 67 1.01786 0
gene 3 29 6 0.63019 0 68 0.63019 1
gene 2 5 37 1 0 96 0 1
gene 2 37 7 -1.48965 0 97 0 1
gene 1 37 6 -0.886409 0 111 -0.886409 1
gene 1 2 37 -0.693276 0 132 -0.693276 1
gene 1 3 29 0.946967 0 140 0.946967 0
gene 2 4 29 0.708318 0 150 0.708318 1
gene 1 1 37 -0.487211 0 270 -0.487211 1
gene 1 37 108 1 0 360 0 1
gene 1 108 6 -0.886409 0 361 0 0
gene 3 1 108 -0.552751 0 564 -0.552751 1
gene 1 108 170 1 0 585 0 1
gene 1 170 6 -0.886409 0 586 0 1
gene 3 29 7 0.983914 0 761 0.983914 1
gene 1 170 7 0.792682 0 832 0.792682 1
gene 2 5 233 1 0 859 0 1
gene 2 233 7 -0.641492 0 860 0 1
gene 2 3 233 0.557923 0 963 0.557923 1
gene 2 108 7 0.315681 0 1132 0.315681 1
gene 3 5 305 1 0 1151 0 1
gene 3 305 29 1.01786 0 1152 0 1
gene 1 3 309 1 0 1166 0 1
gene 1 309 29 0.946967 0 1167 0 1
genomeend 25

/* Organism #26 Fitness: 7478 Error: 0 */
genomestart 26
trait 1 0.330695 0 0 0.429791 0.0953838 0 0 0.00602039 
trait 2 0.430949 0.084397 0 0 0 0.110377 0.0542487 0 
trait 3 0.2625 0 0.10897 0 0 0 0.0308883 0 
node 1 1 1 3
node 2 2 1 1
node 3 3 1 1
node 4 2 1 1
node 5 2 1 1
node 6 2 0 2
node 7 2 0 2
node 29 1 0 0
node 37 1 0 0
node 108 1 0 0
node 170 1 0 0
node 233 1 0 0
node 305 1 0 0
node 309 1 0 0
gene 1 1 6 -1.07547 0 1 -1.07547 1
gene 1 2 6 0.289223 0 2 0.289223 1
gene 3 3 6 0.0553659 0 3 0.0553659 1
gene 3 4 6 3.36433 0 4 3.36433 1
gene 3 5 6 -1.34921 0 5 -1.34921 1
gene 2 1 7 -2.27109 0 6 -2.27109 1
gene 3 2 7 -1.42364 0 7 -1.42364 1
gene 3 3 7 -0.414658 0 8 -0.414658 1
gene 3 4 7 -1.84287 0 9 -1.84287 1
gene 2 5 7 -0.641492 0 10 -0.641492 1
gene 3 6 7 1.07953 0 47 1.07953 1
gene 3 5 29 -1.21705 0 67 -1.21705 0
gene 3 29 6 0.38259 0 68 0.38259 1
gene 2 5 37 3.04104 0 96 3.04104 1
gene 2 37 7 0.791246 0 97 0.791246 1
gene 1 37 6 0.706176 0 111 0.706176 1
gene 1 2 37 -0.665219 0 132 -0.665219 1
gene 1 3 29 -1.40784 0 140 -1.40784 0
gene 2 4 29 1.41613 0 150 1.41613 1
gene 1 1 37 -0.487211 0 270 -0.487211 1
gene 1 37 108 2.12354 0 360 2.12354 1
gene 1 108 6 -2.50886 0 361 -2.50886 0
gene 3 1 108 1.13449 0 564 1.13449 1
gene 1 108 170 3.18683 0 585 3.18683 1
gene 1 170 6 0.191774 0 586 0.191774 1
gene 3 29 7 1.42027 0 761 1.42027 1
gene 1 170 7 -2.27989 0 832 -2.27989 1
gene 2 5 233 2.86038 0 859 2.86038 1
gene 2 233 7 1.81401 0 860 1.81401 1
gene 2 3 233 2.15851 0 963 2.15851 1
gene 2 108 7 0.730602 0 1132 0.730602 1
gene 3 5 305 -2.19138 0 1151 -2.19138 1
gene 3 305 29 1.49419 0 1152 1.49419 1
gene 1 3 309 3.40296 0 1166 3.40296 1
gene 1 309 29 -0.664405 0 1167 -0.664405 1
genomeend 26

/* Organism #27 Fitness: 7960 Error: 0 */
genomestart 27
trait 1 0.330695 0 0 0.429791 0.0953838 0 0 0.00602039 
trait 2 0.430949 0.084397 0 0 0 0.110377 0.0542487 0 
trait 3 0.2625 0 0.10897 0 0 0 0.0308883 0 
node 1 1 1 3
node 2 2 1 1
node 3 3 1 1
node 4 2 1 1
node 5 2 1 1
node 6 2 0 2
node 7 2 0 2
node 29 1 0 0
node 37 1 0 0
node 108 1 0 0
node 170 1 0 0
node 233 1 0 0
node 305 1 0 0
node 309 1 0 0
gene 1 1 6 0.0078683 0 1 0.0078683 1
gene 1 2 6 -1.72088 0 2 -1.72088 1
gene 3 3 6 0.36327 0 3 0.36327 1
gene 3 4 6 2.41056 0 4 2.41056 1
gene 3 5 6 0.736772 0 5 0.736772 1
gene 2 1 7 -0.0367634 0 6 -0.0367634 1
gene 3 2 7 -0.425018 0 7 -0.425018 1
gene 3 3 7 0.115917 0 8 0.115917 1
gene 3 4 7 -0.575764 0 9 -0.575764 1
gene 2 5 7 -0.641492 0 10 -0.641492 1
gene 3 6 7 1.21114 0 47 1.21114 1
gene 3 5 29 1.01786 0 67 1.01786 1
gene 3 29 6 0.63019 0 68 0.63019 1
gene 2 5 37 1 0 96 0 1
gene 2 37 7 -1.48965 0 97 0 1
gene 1 37 6 -0.886409 0 111 -0.886409 1
gene 1 2 37 -0.693276 0 132 -0.693276 1
gene 1 3 29 0.946967 0 140 0.946967 0
gene 2 4 29 0.708318 0 150 0.708318 1
gene 1 1 37 -0.487211 0 270 -0.487211 1
gene 1 37 108 1 0 360 0 1
gene 1 108 6 -0.886409 0 361 0 0
gene 3 1 108 -0.552751 0 564 -0.552751 1
gene 1 108 170 1 0 585 0 1
gene 1 170 6 -0.886409 0 586 0 1
gene 3 29 7 0.983914 0 761 0.983914 1
gene 1 170 7 0.792682 0 832 0.792682 1
gene 2 5 233 1 0 859 0 1
gene 2 233 7 -0.641492 0 860 0 1
gene 2 3 233 0.557923 0 963 0.557923 1
gene 2 108 7 0.315681 0 1132 0.315681 1
gene 3 5 305 1 0 1151 0 1
gene 3 305 29 1.01786 0 1152 0 1
gene 1 3 309 1 0 1166 0 1
gene 1 309 29 0.946967 0 1167 0 1
genomeend 27

/* Organism #28 Fitness: 7605 Error: 0 */
genomestart 28
trait 1 0.330695 0 0 0.429791 0.0953838 0 0 0.00602039 
trait 2 0.430949 0.084397 0 0 0 0.110377 0.0542487 0 
trait 3 0.2625 0 0.10897 0 0 0 0.0308883 0 
node 1 1 1 3
node 2 2 1 1
node 3 3 1 1
node 4 2 1 1
node 5 2 1 1
node 6 2 0 2
node 7 2 0 2
node 29 1 0 0
node 37 1 0 0
node 108 1 0 0
node 170 1 0 0
node 233 1 0 0
node 305 1 0 0
node 309 1 0 0
gene 1 1 6 -0.300662 0 1 -0.300662 1
gene 1 2 6 -2.07028 0 2 -2.07028 1
gene 3 3 6 0.31616 0 3 0.31616 1
gene 3 4 6 2.36914 0 4 2.36914 1
gene 3 5 6 0.0861689 0 5 0.0861689 1
gene 2 1 7 -0.223076 0 6 -0.223076 1
gene 3 2 7 -2.11745 0 7 -2.11745 1
gene 3 3 7 -0.112073 0 8 -0.112073 1
gene 3 4 7 -2.70679 0 9 -2.70679 1
gene 2 5 7 0.244291 0 10 0.244291 1
gene 3 6 7 0.605491 0 47 0.605491 1
gene 3 5 29 -0.263303 0 67 -0.263303 0
gene 3 29 6 0.63019 0 68 0.63019 1
gene 2 5 37 -1.04582 0 96 -1.04582 1
gene 2 37 7 -2.04475 0 97 -2.04475 1
gene 1 37 6 -2.10203 0 111 -2.10203 1
gene 1 2 37 -0.602744 0 132 -0.602744 1
gene 1 3 29 -0.721473 0 140 -0.721473 0
gene 2 4 29 0.638605 0 150 0.638605 1
gene 1 1 37 0.849057 0 270 0.849057 1
gene 1 37 108 -1.26175 0 360 -1.26175 1
gene 1 108 6 -1.6744 0 361 -1.6744 0
gene 3 1 108 -0.552751 0 564 -0.552751 1
gene 1 108 170 -2.08399 0 585 -2.08399 1
gene 1 170 6 -0.781491 0 586 -0.781491 1
gene 3 29 7 -1.03766 0 761 -1.03766 1
gene 1 170 7 1.34584 0 832 1.34584 1
gene 2 5 233 3.0556 0 859 3.0556 1
gene 2 233 7 1.579 0 860 1.579 1
gene 2 3 233 0.557923 0 963 0.557923 1
gene 2 108 7 -1.30671 0 1132 -1.30671 1
gene 3 5 305 3.01446 0 1151 3.01446 1
gene 3 305 29 3.12286 0 1152 3.12286 1
gene 1 3 309 2.5744 0 1166 2.5744 1
gene 1 309 29 2.76637 0 1167 2.76637 1
genomeend 28

/* Organism #29 Fitness: 7353 Error: 0 */
genomestart 29
trait 1 0.330695 0 0 0.429791 0.0953838 0 0 0.00602039 
trait 2 0.138855 0.084397 0.386264 0.469593 0 1 0 0.674021 
trait 3 0.2625 0 0.10897 0 0 0 0.0308883 0 
node 1 1 1 3
node 2 2 1 1
node 3 3 1 1
node 4 2 1 1
node 5 2 1 1
node 6 2 0 2
node 7 2 0 2
node 29 1 0 0
node 37 1 0 0
node 108 1 0 0
node 170 1 0 0
node 233 1 0 0
node 305 1 0 0
node 309 1 0 0
gene 1 1 6 0.82384 0 1 0.82384 1
gene 1 2 6 2.20981 0 2 2.20981 1
gene 3 3 6 1.31682 0 3 1.31682 1
gene 3 4 6 2.16885 0 4 2.16885 1
gene 3 5 6 2.03801 0 5 2.03801 1
gene 2 1 7 1.94184 0 6 1.94184 1
gene 3 2 7 0.676727 0 7 0.676727 1
gene 3 3 7 0.16036 0 8 0.16036 1
gene 3 4 7 -1.80843 0 9 -1.80843 1
gene 2 5 7 -0.641492 0 10 -0.641492 1
gene 3 6 7 -0.83719 0 47 -0.83719 1
gene 3 5 29 2.21109 0 67 2.21109 0
gene 3 29 6 0.246951 0 68 0.246951 1
gene 2 5 37 1.29027 0 96 1.29027 1
gene 2 37 7 0.567495 0 97 0.567495 1
gene 1 37 6 -2.32167 0 111 -2.32167 1
gene 1 2 37 -0.201004 0 132 -0.201004 1
gene 1 3 29 0.345042 0 140 0.345042 0
gene 2 4 29 2.12684 0 150 2.12684 1
gene 1 1 37 -0.673639 0 270 -0.673639 1
gene 1 37 108 -1.23729 0 360 -1.23729 1
gene 1 108 6 -2.1321 0 361 -2.1321 0
gene 3 1 108 -0.607916 0 564 -0.607916 1
gene 1 108 170 0.70469 0 585 0.70469 1
gene 1 170 6 1.20086 0 586 1.20086 1
gene 3 29 7 1.48088 0 761 1.48088 1
gene 1 170 7 0.187603 0 832 0.187603 1
gene 2 5 233 0.766797 0 859 0.766797 1
gene 2 233 7 0.388865 0 860 0.388865 1
gene 2 3 233 -0.810558 0 963 -0.810558 1
gene 2 108 7 1.06805 0 1132 1.06805 1
gene 3 5 305 3.23768 0 1151 3.23768 1
gene 3 305 29 0.600955 0 1152 0.600955 1
gene 1 3 309 2.85082 0 1166 2.85082 1
gene 1 309 29 0.311502 0 1167 0.311502 1
genomeend 29

/* Organism #30 Fitness: 7476 Error: 0 */
genomestart 30
trait 1 0.330695 0 0 0.429791 0.0953838 0 0 0.00602039 
trait 2 0.430949 0.084397 0 0 0 0.110377 0.0542487 0 
trait 3 0.2625 0 0.10897 0 0 0 0.0308883 0 
node 1 1 1 3
node 2 2 1 1
node 3 3 1 1
node 4 2 1 1
node 5 2 1 1
node 6 2 0 2
node 7 3 0 2
node 29 1 0 0
node 37 1 0 0
node 108 1 0 0
node 170 1 0 0
node 233 1 0 0
node 305 1 0 0
node 309 1 0 0
gene 1 1 6 -1.89478 0 1 -1.89478 1
gene 1 2 6 -3.7651 0 2 -3.7651 1
gene 3 3 6 1.33804 0 3 1.33804 1
gene 3 4 6 4.6912 0 4 4.6912 1
gene 3 5 6 -0.603922 0 5 -0.603922 1
gene 2 1 7 -1.40828 0 6 -1.40828 1
gene 3 2 7 1.57509 0 7 1.57509 1
gene 3 3 7 0.120004 0 8 0.120004 1
gene 3 4 7 1.59762 0 9 1.59762 1
gene 2 5 7 -1.96523 0 10 -1.96523 1
gene 3 6 7 1.99664 0 47 1.99664 1
gene 3 5 29 0.109035 0 67 0.109035 0
gene 3 29 6 0.157426 0 68 0.157426 1
gene 2 5 37 0.92775 0 96 0.92775 1
gene 2 37 7 -0.943663 0 97 -0.943663 1
gene 1 37 6 -1.90951 0 111 -1.90951 1
gene 1 2 37 -3.02155 0 132 -3.02155 1
gene 1 3 29 0.349325 0 140 0.349325 0
gene 2 4 29 0.474919 0 150 0.474919 1
gene 1 1 37 -1.28522 0 270 -1.28522 1
gene 1 37 108 1.91107 0 360 1.91107 1
gene 1 108 6 1.42171 0 361 1.42171 0
gene 3 1 108 -1.80083 0 564 -1.80083 1
gene 1 108 170 -1.07599 0 585 -1.07599 1
gene 1 170 6 -3.12289 0 586 -3.12289 1
gene 3 29 7 0.765993 0 761 0.765993 1
gene 1 170 7 -0.264126 0 832 -0.264126 1
gene 2 5 233 -0.161353 0 859 -0.161353 1
gene 2 233 7 -1.93958 0 860 -1.93958 1
gene 2 3 233 0.557923 0 963 0.557923 1
gene 2 108 7 -0.541356 0 1132 -0.541356 1
gene 3 5 305 1.34787 0 1151 1.34787 1
gene 3 305 29 1.01976 0 1152 1.01976 1
gene 1 3 309 1 0 1166 1 1
gene 1 309 29 0.946967 0 1167 0.946967 1
genomeend 30

/* Organism #31 Fitness: 7689 Error: 0 */
genomestart 31
trait 1 0.330695 0 0 0.429791 0.0953838 0 0 0.00602039 
trait 2 0.430949 0.084397 0 0 0 0.110377 0.0542487 0 
trait 3 0.2625 0 0.10897 0 0 0 0.0308883 0 
node 1 1 1 3
node 2 2 1 1
node 3 3 1 1
node 4 2 1 1
node 5 2 1 1
node 6 2 0 2
node 7 2 0 2
node 29 1 0 0
node 37 1 0 0
node 108 1 0 0
node 170 1 0 0
node 233 1 0 0
node 305 1 0 0
node 309 1 0 0
gene 1 1 6 -0.216503 0 1 -0.216503 1
gene 1 2 6 -1.72088 0 2 -1.72088 1
gene 3 3 6 0.614858 0 3 0.614858 1
gene 3 4 6 0.392413 0 4 0.392413 1
gene 3 5 6 2.25995 0 5 2.25995 1
gene 2 1 7 0.491576 0 6 0.491576 1
gene 3 2 7 2.0276 0 7 2.0276 1
gene 3 3 7 0.115917 0 8 0.115917 1
gene 3 4 7 1.54463 0 9 1.54463 1
gene 2 5 7 -1.8752 0 10 -1.8752 1
gene 3 6 7 1.21114 0 47 1.21114 1
gene 3 5 29 3.28548 0 67 3.28548 0
gene 3 29 6 2.68717 0 68 2.68717 1
gene 2 5 37 1 0 96 1 1
gene 2 37 7 0.863 0 97 0.863 1
gene 1 37 6 -1.87302 0 111 -1.87302 1
gene 1 2 37 -0.0205839 0 132 -0.0205839 1
gene 1 3 29 2.11999 0 140 2.11999 0
gene 2 4 29 -1.69455 0 150 -1.69455 1
gene 1 1 37 -2.28951 0 270 -2.28951 1
gene 1 37 108 2.20334 0 360 2.20334 1
gene 1 108 6 -0.886409 0 361 -0.886409 0
gene 3 1 108 -0.552751 0 564 -0.552751 1
gene 1 108 170 1.38091 0 585 1.38091 1
gene 1 170 6 -0.886409 0 586 -0.886409 1
gene 3 29 7 1.03352 0 761 1.03352 1
gene 1 170 7 2.35619 0 832 2.35619 1
gene 2 5 233 2.63099 0 859 2.63099 1
gene 2 233 7 -0.641492 0 860 -0.641492 1
gene 2 3 233 0.557923 0 963 0.557923 1
gene 2 108 7 1.44525 0 1132 1.44525 1
gene 3 5 305 2.67272 0 1151 2.67272 1
gene 3 305 29 3.08193 0 1152 3.08193 1
gene 1 3 309 2.94368 0 1166 2.94368 1
gene 1 309 29 3.28805 0 1167 3.28805 1
genomeend 31

/* Organism #32 Fitness: 6788 Error: 0 */
genomestart 32
trait 1 0.330695 0 0 0.429791 0.0953838 0 0 0.00602039 
trait 2 0.430949 0.084397 0 0 0 0.110377 0.0542487 0 
trait 3 0.2625 0 0.10897 0 0 0 0.0308883 0 
node 1 1 1 3
node 2 2 1 1
node 3 3 1 1
node 4 2 1 1
node 5 2 1 1
node 6 2 0 2
node 7 2 0 2
node 29 1 0 0
node 37 1 0 0
node 108 1 0 0
node 170 1 0 0
node 233 1 0 0
node 305 1 0 0
node 309 1 0 0
gene 1 1 6 1.12988 0 1 1.12988 1
gene 1 2 6 -3.95758 0 2 -3.95758 1
gene 3 3 6 1.1005 0 3 1.1005 1
gene 3 4 6 3.03046 0 4 3.03046 1
gene 3 5 6 -0.465713 0 5 -0.465713 1
gene 2 1 7 -2.36044 0 6 -2.36044 1
gene 3 2 7 -2.0148 0 7 -2.0148 1
gene 3 3 7 -1.41263 0 8 -1.41263 1
gene 3 4 7 0.655926 0 9 0.655926 1
gene 2 5 7 0.299683 0 10 0.299683 1
gene 3 6 7 1.59776 0 47 1.59776 1
gene 3 5 29 -0.223162 0 67 -0.223162 0
gene 3 29 6 1.73051 0 68 1.73051 1
gene 2 5 37 0.906111 0 96 0.906111 1
gene 2 37 7 -0.743755 0 97 -0.743755 1
gene 1 37 6 1.57667 0 111 1.57667 1
gene 1 2 37 -0.622333 0 132 -0.622333 1
gene 1 3 29 2.59978 0 140 2.59978 0
gene 2 4 29 1.61913 0 150 1.61913 1
gene 1 1 37 -2.34642 0 270 -2.34642 1
gene 1 37 108 -1.35529 0 360 -1.35529 1
gene 1 108 6 -0.126993 0 361 -0.126993 0
gene 3 1 108 0.590087 0 564 0.590087 1
gene 1 108 170 2.86156 0 585 2.86156 1
gene 1 170 6 0.0889456 0 586 0.0889456 1
gene 3 29 7 -0.215842 0 761 -0.215842 1
gene 1 170 7 -0.576787 0 832 -0.576787 1
gene 2 5 233 0.144444 0 859 0.144444 1
gene 2 233 7 0.436066 0 860 0.436066 1
gene 2 3 233 2.42108 0 963 2.42108 1
gene 2 108 7 0.841482 0 1132 0.841482 1
gene 3 5 305 0.817884 0 1151 0.817884 1
gene 3 305 29 1.01786 0 1152 1.01786 1
gene 1 3 309 -0.953371 0 1166 -0.953371 1
gene 1 309 29 0.516077 0 1167 0.516077 1
genomeend 32

/* Organism #33 Fitness: 7690 Error: 0 */
genomestart 33
trait 1 0.330695 0 0 0.429791 0.0953838 0 0 0.00602039 
trait 2 0.430949 0.084397 0 0 0 0.110377 0.0542487 0 
trait 3 0.2625 0 0.10897 0 0 0 0.0308883 0 
node 1 1 1 3
node 2 2 1 1
node 3 3 1 1
node 4 2 1 1
node 5 2 1 1
node 6 2 0 2
node 7 2 0 2
node 29 1 0 0
node 37 1 0 0
node 108 1 0 0
node 170 1 0 0
node 233 1 0 0
node 305 1 0 0
node 309 1 0 0
gene 1 1 6 -0.513169 0 1 -0.513169 1
gene 1 2 6 -3.83343 0 2 -3.83343 1
gene 3 3 6 0.0971419 0 3 0.0971419 1
gene 3 4 6 4.14238 0 4 4.14238 1
gene 3 5 6 1.99394 0 5 1.99394 1
gene 2 1 7 1.8845 0 6 1.8845 1
gene 3 2 7 -2.40876 0 7 -2.40876 1
gene 3 3 7 0.445436 0 8 0.445436 1
gene 3 4 7 -1.3668 0 9 -1.3668 1
gene 2 5 7 -0.159725 0 10 -0.159725 1
gene 3 6 7 2.70824 0 47 2.70824 1
gene 3 5 29 -0.126502 0 67 -0.126502 0
gene 3 29 6 -0.462571 0 68 -0.462571 1
gene 2 5 37 -0.732708 0 96 -0.732708 1
gene 2 37 7 0.751854 0 97 0.751854 1
gene 3 37 6 -0.13795 0 111 -0.13795 1
gene 1 2 37 -2.24283 0 132 -2.24283 1
gene 1 3 29 1.83642 0 140 1.83642 0
gene 2 4 29 -1.57491 0 150 -1.57491 1
gene 1 1 37 1.02705 0 270 1.02705 1
gene 1 37 108 -1.35499 0 360 -1.35499 1
gene 1 108 6 -2.08787 0 361 -2.08787 0
gene 3 1 108 1.83452 0 564 1.83452 1
gene 1 108 170 3.11174 0 585 3.11174 1
gene 1 170 6 -1.92553 0 586 -1.92553 1
gene 3 29 7 2.61962 0 761 2.61962 1
gene 1 170 7 3.25137 0 832 3.25137 1
gene 2 5 233 2.17098 0 859 2.17098 1
gene 2 233 7 -0.604501 0 860 -0.604501 1
gene 2 3 233 0.557923 0 963 0.557923 1
gene 2 108 7 0.315681 0 1132 0.315681 1
gene 3 5 305 -2.4199 0 1151 -2.4199 1
gene 3 305 29 -1.46928 0 1152 -1.46928 1
gene 1 3 309 1 0 1166 1 1
gene 1 309 29 0.946967 0 1167 0.946967 1
genomeend 33

/* Species #82 : (Size 12) (AF 7565) (Age 5)  */


/* Organism #34 Fitness: 7694 Error: 0 */
genomestart 34
trait 1 0.330695 0 0 0.429791 0.0953838 0 0 0.00602039 
trait 2 0.430949 0.084397 0 0 0 0.110377 0.0542487 0 
trait 3 0.2625 0 0.10897 0 0 0 0.0308883 0 
node 1 1 1 3
node 2 2 1 1
node 3 3 1 1
node 4 2 1 1
node 5 2 1 1
node 6 2 0 2
node 7 2 0 2
node 29 1 0 0
node 37 1 0 0
node 108 1 0 0
node 170 1 0 0
node 233 1 0 0
node 306 1 0 0
gene 1 1 6 -1.68645 0 1 -1.68645 1
gene 1 2 6 -2.46398 0 2 -2.46398 1
gene 3 3 6 -2.67539 0 3 -2.67539 1
gene 3 4 6 1.85887 0 4 1.85887 0
gene 3 5 6 2.33691 0 5 2.33691 1
gene 2 1 7 1.08765 0 6 1.08765 1
gene 3 2 7 1.45092 0 7 1.45092 1
gene 3 3 7 -0.0359951 0 8 -0.0359951 1
gene 3 4 7 -2.92876 0 9 -2.92876 1
gene 2 5 7 -1.63576 0 10 -1.63576 1
gene 3 6 7 0.856239 0 47 0.856239 1
gene 3 5 29 3.26627 0 67 3.26627 1
gene 3 29 6 0.817097 0 68 0.817097 1
gene 2 5 37 3.06607 0 96 3.06607 1
gene 2 37 7 -1.34665 0 97 -1.34665 1
gene 1 37 6 1.02713 0 111 1.02713 1
gene 1 2 37 -2.67827 0 132 -2.67827 1
gene 1 3 29 -1.39252 0 140 -1.39252 1
gene 2 4 29 1.20102 0 150 1.20102 1
gene 1 1 37 -1.50452 0 270 -1.50452 1
gene 1 37 108 0.796377 0 360 0.796377 1
gene 1 108 6 -1.48862 0 361 -1.48862 1
gene 3 1 108 0.861878 0 564 0.861878 1
gene 1 108 170 -1.70176 0 585 -1.70176 1
gene 1 170 6 -0.988316 0 586 -0.988316 1
gene 3 29 7 -1.29347 0 761 -1.29347 1
gene 1 170 7 0.540449 0 832 0.540449 1
gene 2 5 233 -0.848608 0 859 -0.848608 1
gene 2 233 7 0.033491 0 860 0.033491 1
gene 2 3 233 1.76053 0 963 1.76053 1
gene 1 4 37 1.41022 0 1137 1.41022 1
gene 3 4 306 0.140286 0 1155 0.140286 1
gene 3 306 6 1.85887 0 1156 1.85887 1
genomeend 34

/* Organism #35 Fitness: 7638 Error: 0 */
genomestart 35
trait 1 0.330695 0 0 0.429791 0.0953838 0 0 0.00602039 
trait 2 0.430949 0.084397 0 0.148618 0 0.110377 0.0542487 0.429512 
trait 3 0.2625 0 0.10897 0 0 0 0.0308883 0 
node 1 1 1 3
node 2 2 1 1
node 3 3 1 1
node 4 2 1 1
node 5 2 1 1
node 6 2 0 2
node 7 2 0 2
node 29 1 0 0
node 37 1 0 0
node 108 1 0 0
node 170 1 0 0
node 233 1 0 0
node 306 1 0 0
node 315 1 0 0
gene 1 1 6 -2.90701 0 1 -2.90701 1
gene 1 2 6 1.46654 0 2 1.46654 1
gene 3 3 6 -1.34212 0 3 -1.34212 1
gene 3 4 6 4.24419 0 4 4.24419 0
gene 3 5 6 -4.2888 0 5 -4.2888 1
gene 2 1 7 -0.158764 0 6 -0.158764 1
gene 3 2 7 -1.58299 0 7 -1.58299 1
gene 3 3 7 -2.07701 0 8 -2.07701 1
gene 3 4 7 -1.78271 0 9 -1.78271 1
gene 2 5 7 0.871902 0 10 0.871902 1
gene 3 6 7 -1.96261 0 47 -1.96261 1
gene 3 5 29 2.52691 0 67 2.52691 1
gene 3 29 6 -3.93912 0 68 -3.93912 1
gene 2 5 37 3.63796 0 96 3.63796 1
gene 2 37 7 -0.719419 0 97 -0.719419 1
gene 1 37 6 2.91424 0 111 2.91424 1
gene 1 2 37 2.28392 0 132 2.28392 1
gene 1 3 29 -1.67005 0 140 -1.67005 1
gene 2 4 29 -0.412582 0 150 -0.412582 1
gene 1 1 37 1.42874 0 270 1.42874 1
gene 1 37 108 2.3135 0 360 2.3135 1
gene 1 108 6 0.73926 0 361 0.73926 1
gene 3 1 108 3.34171 0 564 3.34171 1
gene 1 108 170 -2.0136 0 585 -2.0136 1
gene 1 170 6 0.190423 0 586 0.190423 1
gene 3 29 7 0.0947113 0 761 0.0947113 1
gene 1 170 7 0.214374 0 832 0.214374 1
gene 2 5 233 1.81008 0 859 1.81008 1
gene 2 233 7 -1.54313 0 860 -1.54313 1
gene 1 3 233 -1.60472 0 963 -1.60472 1
gene 1 4 37 1.42548 0 1137 1.42548 1
gene 3 4 306 -0.930044 0 1155 -0.930044 1
gene 3 306 6 2.50874 0 1156 2.50874 1
gene 2 5 315 1 0 1185 1 1
gene 2 315 233 2.25357 0 1186 2.25357 1
genomeend 35

/* Organism #36 Fitness: 7690 Error: 0 */
genomestart 36
trait 1 0.330695 0 0 0.429791 0.0953838 0 0 0.00602039 
trait 2 0.430949 0.084397 0 0.0743089 0 0.110377 0.0542487 0.214756 
trait 3 0.2625 0 0.10897 0 0 0 0.0308883 0 
node 1 1 1 3
node 2 2 1 1
node 3 3 1 1
node 4 2 1 1
node 5 2 1 1
node 6 2 0 2
node 7 2 0 2
node 29 1 0 0
node 37 1 0 0
node 108 1 0 0
node 170 1 0 0
node 233 1 0 0
node 306 1 0 0
gene 1 1 6 -1.68645 0 1 -1.68645 1
gene 1 2 6 -2.46398 0 2 -2.46398 1
gene 3 3 6 -2.67539 0 3 -2.67539 1
gene 3 4 6 1.85887 0 4 1.85887 0
gene 3 5 6 2.33691 0 5 2.33691 1
gene 2 1 7 1.08765 0 6 1.08765 1
gene 3 2 7 -3.14161 0 7 -3.14161 1
gene 3 3 7 -0.0359951 0 8 -0.0359951 1
gene 3 4 7 -2.92876 0 9 -2.92876 1
gene 2 5 7 -1.63576 0 10 -1.63576 1
gene 3 6 7 1.37726 0 47 1.37726 1
gene 3 5 29 3.26627 0 67 3.26627 1
gene 3 29 6 0.817097 0 68 0.817097 1
gene 2 5 37 3.06607 0 96 3.06607 1
gene 2 37 7 0.696338 0 97 0.696338 1
gene 1 37 6 1.02713 0 111 1.02713 1
gene 1 2 37 -0.0350214 0 132 -0.0350214 1
gene 1 3 29 -1.39252 0 140 -1.39252 1
gene 2 4 29 1.20102 0 150 1.20102 1
gene 1 1 37 1.01496 0 270 1.01496 1
gene 1 37 108 5.02319 0 360 5.02319 1
gene 1 108 6 -1.11822 0 361 -1.11822 1
gene 3 1 108 0.874674 0 564 0.874674 1
gene 1 108 170 -1.70176 0 585 -1.70176 1
gene 1 170 6 -0.988316 0 586 -0.988316 1
gene 3 29 7 -1.29347 0 761 -1.29347 1
gene 1 170 7 0.540449 0 832 0.540449 1
gene 2 5 233 -0.848608 0 859 -0.848608 1
gene 2 233 7 0.934986 0 860 0.934986 1
gene 2 3 233 1.76053 0 963 1.76053 1
gene 1 4 37 -1.01334 0 1137 -1.01334 1
gene 3 4 306 0.140286 0 1155 0.140286 1
gene 3 306 6 1.85887 0 1156 1.85887 1
genomeend 36

/* Organism #37 Fitness: 7338 Error: 0 */
genomestart 37
trait 1 0.330695 0 0 0.429791 0.0953838 0 0 0.00602039 
trait 2 0.430949 0.084397 0 0.0743089 0 0.110377 0.0542487 0.214756 
trait 3 0.2625 0 0.10897 0 0 0 0.0308883 0 
node 1 1 1 3
node 2 2 1 1
node 3 3 1 1
node 4 2 1 1
node 5 2 1 1
node 6 2 0 2
node 7 1 0 2
node 29 1 0 0
node 37 1 0 0
node 108 1 0 0
node 170 1 0 0
node 233 1 0 0
node 306 1 0 0
gene 1 1 6 1.27315 0 1 1.27315 1
gene 1 2 6 -2.24234 0 2 -2.24234 1
gene 3 3 6 0.906236 0 3 0.906236 1
gene 3 4 6 1.85887 0 4 1.85887 0
gene 3 5 6 1.62254 0 5 1.62254 1
gene 2 1 7 2.537 0 6 2.537 1
gene 3 2 7 2.03386 0 7 2.03386 1
gene 3 3 7 -0.79195 0 8 -0.79195 1
gene 3 4 7 -2.58154 0 9 -2.58154 1
gene 2 5 7 1.46862 0 10 1.46862 1
gene 3 6 7 -1.0325 0 47 -1.0325 1
gene 3 5 29 5.22765 0 67 5.22765 1
gene 3 29 6 2.37386 0 68 2.37386 1
gene 2 5 37 3.54782 0 96 3.54782 1
gene 2 37 7 -1.5012 0 97 -1.5012 1
gene 1 37 6 -1.31739 0 111 -1.31739 1
gene 1 2 37 -2.0105 0 132 -2.0105 1
gene 1 3 29 -2.89422 0 140 -2.89422 1
gene 2 4 29 0.815043 0 150 0.815043 1
gene 1 1 37 1.58525 0 270 1.58525 1
gene 1 37 108 -0.557312 0 360 -0.557312 1
gene 1 108 6 2.20635 0 361 2.20635 1
gene 3 1 108 -1.37133 0 564 -1.37133 1
gene 1 108 170 -2.38763 0 585 -2.38763 1
gene 1 170 6 -0.591922 0 586 -0.591922 1
gene 3 29 7 -1.47014 0 761 -1.47014 1
gene 1 170 7 0.992284 0 832 0.992284 1
gene 2 5 233 -0.0790633 0 859 -0.0790633 1
gene 2 233 7 1.40925 0 860 1.40925 1
gene 2 3 233 1.13684 0 963 1.13684 1
gene 1 4 37 0.309393 0 1137 0.309393 1
gene 3 4 306 0.884302 0 1155 0.884302 1
gene 3 306 6 3.1857 0 1156 3.1857 1
genomeend 37

/* Organism #38 Fitness: 7362 Error: 0 */
genomestart 38
trait 1 0.330695 0 0 0.429791 0.0953838 0 0 0.00602039 
trait 2 0.430949 0.084397 0 0.0743089 0 0.110377 0.0542487 0.214756 
trait 3 0.2625 0 0.10897 0 0 0 0.0308883 0 
node 1 1 1 3
node 2 2 1 1
node 3 3 1 1
node 4 2 1 1
node 5 2 1 1
node 6 2 0 2
node 7 2 0 2
node 29 1 0 0
node 37 1 0 0
node 108 1 0 0
node 170 1 0 0
node 233 1 0 0
node 306 1 0 0
gene 1 1 6 0.733427 0 1 0.733427 1
gene 1 2 6 -3.13746 0 2 -3.13746 1
gene 3 3 6 -1.01518 0 3 -1.01518 1
gene 3 4 6 0.625899 0 4 0.625899 1
gene 3 5 6 -1.54731 0 5 -1.54731 1
gene 2 1 7 2.7018 0 6 2.7018 1
gene 3 2 7 -0.622924 0 7 -0.622924 1
gene 3 3 7 -3.16783 0 8 -3.16783 1
gene 3 4 7 -2.36021 0 9 -2.36021 1
gene 2 5 7 -1.9147 0 10 -1.9147 1
gene 3 6 7 3.52707 0 47 3.52707 1
gene 3 5 29 2.98317 0 67 2.98317 1
gene 3 29 6 -2.30818 0 68 -2.30818 1
gene 2 5 37 4.5771 0 96 4.5771 1
gene 2 37 7 -0.265978 0 97 -0.265978 1
gene 1 37 6 -1.25184 0 111 -1.25184 1
gene 1 2 37 0.111454 0 132 0.111454 1
gene 1 3 29 -0.228707 0 140 -0.228707 1
gene 2 4 29 0.795674 0 150 0.795674 1
gene 1 1 37 1.12932 0 270 1.12932 1
gene 1 37 108 4.42954 0 360 4.42954 1
gene 1 108 6 -2.44147 0 361 -2.44147 1
gene 3 1 108 1.20638 0 564 1.20638 1
gene 1 108 170 0.286881 0 585 0.286881 1
gene 1 170 6 -2.28447 0 586 -2.28447 1
gene 3 29 7 -2.17993 0 761 -2.17993 1
gene 1 170 7 2.90375 0 832 2.90375 1
gene 2 5 233 1.99267 0 859 1.99267 1
gene 2 233 7 1.25846 0 860 1.25846 1
gene 2 3 233 -1.81854 0 963 -1.81854 1
gene 1 4 37 -2.07173 0 1137 -2.07173 1
gene 3 4 306 2.23372 0 1155 2.23372 1
gene 3 306 6 5.88806 0 1156 5.88806 1
genomeend 38

/* Organism #39 Fitness: 7690 Error: 0 */
genomestart 39
trait 1 0.330695 0 0 0.429791 0.0953838 0 0 0.00602039 
trait 2 0.430949 0.084397 0 0.0743089 0 0.110377 0.0542487 0.214756 
trait 3 0.2625 0 0.10897 0 0 0 0.0308883 0 
node 1 1 1 3
node 2 2 1 1
node 3 3 1 1
node 4 2 1 1
node 5 2 1 1
node 6 2 0 2
node 7 2 0 2
node 29 1 0 0
node 37 1 0 0
node 108 1 0 0
node 170 1 0 0
node 233 1 0 0
node 306 1 0 0
gene 1 1 6 -1.62244 0 1 -1.62244 1
gene 1 2 6 -0.282105 0 2 -0.282105 1
gene 3 3 6 -0.985695 0 3 -0.985695 1
gene 3 4 6 5.60609 0 4 5.60609 0
gene 3 5 6 4.75628 0 5 4.75628 1
gene 2 1 7 1.1437 0 6 1.1437 1
gene 3 2 7 -2.55883 0 7 -2.55883 1
gene 3 3 7 -2.82078 0 8 -2.82078 1
gene 3 4 7 -0.644739 0 9 -0.644739 1
gene 2 5 7 0.103495 0 10 0.103495 1
gene 3 6 7 1.23922 0 47 1.23922 1
gene 3 5 29 1.01185 0 67 1.01185 1
gene 3 29 6 -1.91013 0 68 -1.91013 1
gene 2 5 37 1.92331 0 96 1.92331 1
gene 2 37 7 2.52759 0 97 2.52759 1
gene 1 37 6 -1.23803 0 111 -1.23803 1
gene 1 2 37 -0.325774 0 132 -0.325774 1
gene 1 3 29 -0.179876 0 140 -0.179876 1
gene 2 4 29 -0.793511 0 150 -0.793511 1
gene 1 1 37 2.2871 0 270 2.2871 1
gene 1 37 108 -1.0932 0 360 -1.0932 1
gene 1 108 6 -0.28553 0 361 -0.28553 1
gene 3 1 108 -0.922729 0 564 -0.922729 1
gene 1 108 170 0.0226939 0 585 0.0226939 1
gene 1 170 6 -3.20678 0 586 -3.20678 1
gene 3 29 7 -0.884364 0 761 -0.884364 1
gene 1 170 7 0.772709 0 832 0.772709 1
gene 2 5 233 2.06298 0 859 2.06298 1
gene 2 233 7 0.93299 0 860 0.93299 1
gene 1 3 233 -2.73411 0 963 -2.73411 1
gene 1 4 37 0.864588 0 1137 0.864588 1
gene 3 4 306 0.140286 0 1155 0.140286 1
gene 3 306 6 3.88577 0 1156 3.88577 1
genomeend 39

/* Organism #40 Fitness: 7690 Error: 0 */
genomestart 40
trait 1 0.330695 0 0 0.429791 0.0953838 0 0 0.00602039 
trait 2 0.430949 0.084397 0 0.0743089 0 0.110377 0.0542487 0.214756 
trait 3 0.2625 0 0.10897 0 0 0 0.0308883 0 
node 1 1 1 3
node 2 2 1 1
node 3 3 1 1
node 4 2 1 1
node 5 2 1 1
node 6 2 0 2
node 7 2 0 2
node 29 1 0 0
node 37 1 0 0
node 108 1 0 0
node 170 1 0 0
node 233 1 0 0
node 306 1 0 0
gene 1 1 6 -2.47072 0 1 -2.47072 1
gene 1 2 6 -4.18673 0 2 -4.18673 1
gene 3 3 6 0.773206 0 3 0.773206 1
gene 3 4 6 1.58563 0 4 1.58563 0
gene 3 5 6 -0.635349 0 5 -0.635349 1
gene 2 1 7 2.16685 0 6 2.16685 1
gene 3 2 7 -0.845341 0 7 -0.845341 1
gene 3 3 7 -1.50801 0 8 -1.50801 1
gene 3 4 7 0.147736 0 9 0.147736 1
gene 2 5 7 -0.912878 0 10 -0.912878 1
gene 3 6 7 -0.441889 0 47 -0.441889 1
gene 3 5 29 2.32652 0 67 2.32652 1
gene 3 29 6 -2.37566 0 68 -2.37566 1
gene 2 5 37 -2.39396 0 96 -2.39396 1
gene 2 37 7 0.816433 0 97 0.816433 1
gene 1 37 6 1.00061 0 111 1.00061 1
gene 1 2 37 -0.645859 0 132 -0.645859 1
gene 1 3 29 -2.13055 0 140 -2.13055 1
gene 2 4 29 1.20102 0 150 1.20102 1
gene 1 1 37 1.02387 0 270 1.02387 1
gene 1 37 108 1.17615 0 360 1.17615 1
gene 1 108 6 0.972656 0 361 0.972656 1
gene 3 1 108 2.94767 0 564 2.94767 1
gene 1 108 170 -3.3687 0 585 -3.3687 1
gene 1 170 6 -1.97202 0 586 -1.97202 1
gene 3 29 7 -1.69308 0 761 -1.69308 1
gene 1 170 7 2.78511 0 832 2.78511 1
gene 2 5 233 -0.675291 0 859 -0.675291 1
gene 2 233 7 1.94457 0 860 1.94457 1
gene 1 3 233 -1.16875 0 963 -1.16875 1
gene 1 4 37 0.198436 0 1137 0.198436 1
gene 3 4 306 -0.768467 0 1155 -0.768467 1
gene 3 306 6 1.73399 0 1156 1.73399 1
genomeend 40

/* Organism #41 Fitness: 7690 Error: 0 */
genomestart 41
trait 1 0.330695 0 0 0.429791 0.0953838 0 0 0.00602039 
trait 2 0.430949 0.084397 0 0 0 0.110377 0.0542487 0 
trait 3 0.2625 0 0.10897 0 0 0 0.0308883 0 
node 1 1 1 3
node 2 2 1 1
node 3 3 1 1
node 4 2 1 1
node 5 2 1 1
node 6 2 0 2
node 7 2 0 2
node 29 1 0 0
node 37 1 0 0
node 108 1 0 0
node 170 1 0 0
node 233 1 0 0
node 306 1 0 0
gene 1 1 6 -1.68645 0 1 -1.68645 1
gene 1 2 6 -2.46398 0 2 -2.46398 1
gene 3 3 6 -0.589473 0 3 -0.589473 1
gene 3 4 6 1.85887 0 4 1.85887 0
gene 3 5 6 2.33691 0 5 2.33691 1
gene 2 1 7 1.08765 0 6 1.08765 1
gene 3 2 7 1.45092 0 7 1.45092 1
gene 3 3 7 -0.0359951 0 8 -0.0359951 1
gene 3 4 7 -2.92876 0 9 -2.92876 1
gene 2 5 7 0.306452 0 10 0.306452 1
gene 3 6 7 0.856239 0 47 0.856239 1
gene 3 5 29 3.26627 0 67 3.26627 1
gene 3 29 6 0.817097 0 68 0.817097 1
gene 2 5 37 3.06607 0 96 3.06607 1
gene 2 37 7 -1.34665 0 97 -1.34665 1
gene 1 37 6 1.02713 0 111 1.02713 1
gene 1 2 37 -2.67827 0 132 -2.67827 1
gene 1 3 29 -1.39252 0 140 -1.39252 1
gene 2 4 29 1.20102 0 150 1.20102 1
gene 1 1 37 -1.50452 0 270 -1.50452 1
gene 1 37 108 0.796377 0 360 0.796377 1
gene 1 108 6 0.878237 0 361 0.878237 1
gene 3 1 108 0.861878 0 564 0.861878 1
gene 1 108 170 -1.70176 0 585 -1.70176 1
gene 1 170 6 -0.988316 0 586 -0.988316 1
gene 3 29 7 -1.29347 0 761 -1.29347 1
gene 1 170 7 0.540449 0 832 0.540449 1
gene 2 5 233 1.3486 0 859 1.3486 1
gene 2 233 7 0.033491 0 860 0.033491 1
gene 2 3 233 1.13684 0 963 1.13684 1
gene 1 4 37 1.41022 0 1137 1.41022 1
gene 3 4 306 0.140286 0 1155 0.140286 1
gene 3 306 6 3.88577 0 1156 3.88577 1
genomeend 41

/* Organism #42 Fitness: 7690 Error: 0 */
genomestart 42
trait 1 0.330695 0 0 0.429791 0.0953838 0 0 0.00602039 
trait 2 0.430949 0.084397 0 0 0 0.110377 0.0542487 0 
trait 3 0.2625 0 0.10897 0 0 0 0.0308883 0 
node 1 1 1 3
node 2 2 1 1
node 3 3 1 1
node 4 2 1 1
node 5 2 1 1
node 6 2 0 2
node 7 2 0 2
node 29 1 0 0
node 37 1 0 0
node 108 1 0 0
node 170 1 0 0
node 233 1 0 0
node 306 1 0 0
gene 1 1 6 -2.35783 0 1 -2.35783 1
gene 1 2 6 -2.46398 0 2 -2.46398 1
gene 3 3 6 -1.27453 0 3 -1.27453 1
gene 3 4 6 1.55008 0 4 1.55008 0
gene 3 5 6 2.15908 0 5 2.15908 1
gene 2 1 7 0.457317 0 6 0.457317 1
gene 3 2 7 -0.814873 0 7 -0.814873 1
gene 3 3 7 -2.47465 0 8 -2.47465 1
gene 3 4 7 -3.06319 0 9 -3.06319 1
gene 2 5 7 0.326348 0 10 0.326348 1
gene 3 6 7 -0.62892 0 47 -0.62892 1
gene 3 5 29 0.950189 0 67 0.950189 1
gene 3 29 6 0.969967 0 68 0.969967 1
gene 2 5 37 1.39957 0 96 1.39957 1
gene 2 37 7 0.105504 0 97 0.105504 1
gene 1 37 6 1.36013 0 111 1.36013 1
gene 1 2 37 2.30814 0 132 2.30814 1
gene 1 3 29 1.09986 0 140 1.09986 1
gene 2 4 29 1.66818 0 150 1.66818 1
gene 1 1 37 0.994488 0 270 0.994488 1
gene 1 37 108 2.66462 0 360 2.66462 1
gene 1 108 6 -0.654096 0 361 -0.654096 1
gene 3 1 108 1.01335 0 564 1.01335 1
gene 1 108 170 -3.4217 0 585 -3.4217 1
gene 1 170 6 -2.99229 0 586 -2.99229 1
gene 3 29 7 -0.231948 0 761 -0.231948 1
gene 1 170 7 2.39452 0 832 2.39452 1
gene 2 5 233 0.110039 0 859 0.110039 1
gene 2 233 7 1.22673 0 860 1.22673 1
gene 2 3 233 -0.390649 0 963 -0.390649 1
gene 1 4 37 -0.174007 0 1137 -0.174007 1
gene 3 4 306 -0.849456 0 1155 -0.849456 1
gene 3 306 6 2.86423 0 1156 2.86423 1
genomeend 42

/* Organism #43 Fitness: 7691 Error: 0 */
genomestart 43
trait 1 0.330695 0 0 0.429791 0.0953838 0 0 0.00602039 
trait 2 0.430949 0.084397 0 0.0743089 0 0.110377 0.0542487 0.214756 
trait 3 0.2625 0 0.10897 0 0 0 0.0308883 0 
node 1 1 1 3
node 2 2 1 1
node 3 3 1 1
node 4 2 1 1
node 5 2 1 1
node 6 2 0 2
node 7 2 0 2
node 29 1 0 0
node 37 1 0 0
node 108 1 0 0
node 170 1 0 0
node 233 1 0 0
node 306 1 0 0
gene 1 1 6 -1.68645 0 1 -1.68645 1
gene 1 2 6 -2.46398 0 2 -2.46398 1
gene 3 3 6 -0.589473 0 3 -0.589473 1
gene 3 4 6 3.05655 0 4 3.05655 0
gene 3 5 6 0.268583 0 5 0.268583 1
gene 2 1 7 0.443146 0 6 0.443146 1
gene 3 2 7 -0.845341 0 7 -0.845341 1
gene 3 3 7 -1.4822 0 8 -1.4822 1
gene 3 4 7 -2.92876 0 9 -2.92876 1
gene 2 5 7 0.306452 0 10 0.306452 1
gene 3 6 7 1.11675 0 47 1.11675 1
gene 3 5 29 3.26627 0 67 3.26627 1
gene 3 29 6 -0.386371 0 68 -0.386371 1
gene 2 5 37 3.06607 0 96 3.06607 1
gene 2 37 7 0.696338 0 97 0.696338 1
gene 1 37 6 1.02713 0 111 1.02713 1
gene 1 2 37 -1.12562 0 132 -1.12562 1
gene 1 3 29 -1.39252 0 140 -1.39252 1
gene 2 4 29 1.20102 0 150 1.20102 1
gene 1 1 37 0.594793 0 270 0.594793 1
gene 1 37 108 2.90978 0 360 2.90978 1
gene 1 108 6 -0.11999 0 361 -0.11999 1
gene 3 1 108 0.868276 0 564 0.868276 1
gene 1 108 170 -1.70176 0 585 -1.70176 1
gene 1 170 6 -1.89981 0 586 -1.89981 1
gene 3 29 7 -1.67809 0 761 -1.67809 1
gene 1 170 7 1.37144 0 832 1.37144 1
gene 2 5 233 1.07192 0 859 1.07192 1
gene 2 233 7 0.934986 0 860 0.934986 1
gene 1 3 233 -0.798637 0 963 -0.798637 1
gene 1 4 37 0.198436 0 1137 0.198436 1
gene 3 4 306 0.140286 0 1155 0.140286 1
gene 3 306 6 3.88577 0 1156 3.88577 1
gene 2 306 170 0.916866 0 1210 0.916866 1
genomeend 43

/* Organism #44 Fitness: 6942 Error: 0 */
genomestart 44
trait 1 0 0 0 0 0.791925 0.346814 0.808482 0.00602039 
trait 2 0.430949 0.084397 0 0 0 0.110377 0.0542487 0 
trait 3 0.2625 0 0.10897 0 0 0 0.0308883 0 
node 1 1 1 3
node 2 2 1 1
node 3 3 1 1
node 4 2 1 1
node 5 2 1 1
node 6 2 0 2
node 7 2 0 2
node 29 1 0 0
node 37 1 0 0
node 108 1 0 0
node 170 1 0 0
node 233 1 0 0
node 306 1 0 0
gene 1 1 6 0.221649 0 1 0.221649 1
gene 1 2 6 -3.51514 0 2 -3.51514 1
gene 3 3 6 0.877708 0 3 0.877708 1
gene 3 4 6 1.80921 0 4 1.80921 0
gene 3 5 6 -1.22822 0 5 -1.22822 1
gene 2 1 7 -2.48589 0 6 -2.48589 1
gene 3 2 7 -0.515061 0 7 -0.515061 1
gene 3 3 7 -1.44477 0 8 -1.44477 1
gene 3 4 7 -0.970604 0 9 -0.970604 1
gene 2 5 7 0.306452 0 10 0.306452 1
gene 3 6 7 0.118906 0 47 0.118906 1
gene 3 5 29 -1.709 0 67 -1.709 1
gene 3 29 6 0.0794075 0 68 0.0794075 1
gene 2 5 37 5.54264 0 96 5.54264 1
gene 2 37 7 0.888041 0 97 0.888041 1
gene 1 37 6 -0.598511 0 111 -0.598511 1
gene 1 2 37 -2.21623 0 132 -2.21623 1
gene 1 3 29 -2.45471 0 140 -2.45471 1
gene 2 4 29 -1.07323 0 150 -1.07323 1
gene 1 1 37 -0.515332 0 270 -0.515332 1
gene 1 37 108 -1.21201 0 360 -1.21201 1
gene 1 108 6 0.861437 0 361 0.861437 1
gene 3 1 108 0.861878 0 564 0.861878 1
gene 1 108 170 -2.24184 0 585 -2.24184 1
gene 1 170 6 -2.43095 0 586 -2.43095 1
gene 3 29 7 0.0428807 0 761 0.0428807 1
gene 1 170 7 0.116203 0 832 0.116203 1
gene 2 5 233 1.8626 0 859 1.8626 1
gene 2 233 7 2.64197 0 860 2.64197 1
gene 2 3 233 1.44574 0 963 1.44574 1
gene 1 4 37 -2.34325 0 1137 -2.34325 1
gene 3 4 306 -1.69506 0 1155 -1.69506 1
gene 3 306 6 6.35318 0 1156 6.35318 1
genomeend 44

/* Organism #45 Fitness: 7665 Error: 0 */
genomestart 45
trait 1 0.330695 0 0 0.429791 0.0953838 0 0 0.00602039 
trait 2 0.430949 0.084397 0 0.0743089 0 0.110377 0.0542487 0.214756 
trait 3 0.2625 0 0.10897 0 0 0 0.0308883 0 
node 1 1 1 3
node 2 2 1 1
node 3 3 1 1
node 4 2 1 1
node 5 2 1 1
node 6 2 0 2
node 7 2 0 2
node 29 1 0 0
node 37 1 0 0
node 108 1 0 0
node 170 1 0 0
node 233 1 0 0
node 306 1 0 0
gene 1 1 6 -1.68645 0 1 -1.68645 1
gene 1 2 6 -0.669341 0 2 -0.669341 1
gene 3 3 6 -0.656224 0 3 -0.656224 1
gene 3 4 6 4.054 0 4 4.054 1
gene 3 5 6 -2.19808 0 5 -2.19808 1
gene 2 1 7 -0.101203 0 6 -0.101203 1
gene 3 2 7 -3.1259 0 7 -3.1259 1
gene 3 3 7 -2.2909 0 8 -2.2909 1
gene 3 4 7 -1.49949 0 9 -1.49949 1
gene 2 5 7 2.00613 0 10 2.00613 1
gene 3 6 7 3.43286 0 47 3.43286 1
gene 3 5 29 4.38944 0 67 4.38944 1
gene 3 29 6 1.63627 0 68 1.63627 1
gene 2 5 37 0.719365 0 96 0.719365 1
gene 2 37 7 0.214518 0 97 0.214518 1
gene 1 37 6 -0.793305 0 111 -0.793305 1
gene 1 2 37 -1.12562 0 132 -1.12562 1
gene 1 3 29 0.67742 0 140 0.67742 1
gene 2 4 29 3.25922 0 150 3.25922 1
gene 1 1 37 -1.99132 0 270 -1.99132 1
gene 1 37 108 4.87345 0 360 4.87345 1
gene 1 108 6 -0.759004 0 361 -0.759004 1
gene 3 1 108 -1.4252 0 564 -1.4252 1
gene 1 108 170 -3.65697 0 585 -3.65697 1
gene 1 170 6 -0.345861 0 586 -0.345861 1
gene 3 29 7 -1.19847 0 761 -1.19847 1
gene 1 170 7 2.05914 0 832 2.05914 1
gene 2 5 233 -0.615567 0 859 -0.615567 1
gene 2 233 7 1.63406 0 860 1.63406 1
gene 2 3 233 -0.0905988 0 963 -0.0905988 1
gene 1 4 37 -0.562305 0 1137 -0.562305 1
gene 3 4 306 1.82766 0 1155 1.82766 1
gene 3 306 6 4.03819 0 1156 4.03819 1
genomeend 45

/* Species #83 : (Size 12) (AF 7529.58) (Age 5)  */


/* Organism #46 Fitness: 7959 Error: 0 */
genomestart 46
trait 1 0.330695 0 0 0.429791 0.0953838 0 0 0.00602039 
trait 2 0.430949 0.084397 0 0 0 0.110377 0.0542487 0 
trait 3 0.2625 0 0.10897 0 0 0 0.0308883 0 
node 1 1 1 3
node 2 2 1 1
node 3 3 1 1
node 4 2 1 1
node 5 2 1 1
node 6 2 0 2
node 7 2 0 2
node 29 1 0 0
node 37 1 0 0
node 108 1 0 0
node 170 1 0 0
node 233 1 0 0
node 242 1 0 0
node 253 1 0 0
node 275 1 0 0
node 288 1 0 0
node 307 1 0 0
gene 1 1 6 0.0078683 0 1 0.0078683 1
gene 1 2 6 -1.72088 0 2 -1.72088 1
gene 3 3 6 0.36327 0 3 0.36327 1
gene 3 4 6 2.41056 0 4 2.41056 1
gene 3 5 6 0.736772 0 5 0.736772 1
gene 2 1 7 -0.0367634 0 6 -0.0367634 1
gene 3 2 7 -0.425018 0 7 -0.425018 1
gene 3 3 7 0.115917 0 8 0.115917 1
gene 3 4 7 -0.575764 0 9 -0.575764 1
gene 2 5 7 -0.641492 0 10 -0.641492 1
gene 3 6 7 1.21114 0 47 1.21114 1
gene 3 5 29 1.01786 0 67 1.01786 1
gene 3 29 6 0.63019 0 68 0.63019 1
gene 2 5 37 1 0 96 0 1
gene 2 37 7 -1.48965 0 97 0 1
gene 1 37 6 -0.886409 0 111 -0.886409 1
gene 1 2 37 -0.693276 0 132 -0.693276 1
gene 1 3 29 0.946967 0 140 0.946967 1
gene 2 4 29 0.708318 0 150 0.708318 1
gene 1 1 37 -0.487211 0 270 -0.487211 1
gene 1 37 108 1 0 360 0 1
gene 1 108 6 -0.886409 0 361 0 1
gene 3 1 108 -0.552751 0 564 -0.552751 1
gene 1 108 170 1 0 585 0 0
gene 1 170 6 -0.886409 0 586 0 1
gene 3 29 7 0.983914 0 761 0.983914 1
gene 1 170 7 0.792682 0 832 0.792682 1
gene 2 5 233 1 0 859 0 0
gene 2 233 7 -0.641492 0 860 0 1
gene 2 5 242 1 0 895 0 1
gene 2 242 233 1 0 896 0 1
gene 2 233 37 0.355238 0 914 0.355238 1
gene 3 6 253 1 0 933 0 1
gene 3 253 7 1.21114 0 934 0 1
gene 3 242 6 0.827672 0 1010 0.827672 1
gene 1 108 275 1 0 1024 0 1
gene 1 275 170 1 0 1025 0 1
gene 2 37 288 1 0 1060 0 1
gene 2 288 7 -1.48965 0 1061 0 1
gene 3 5 288 0.909603 0 1145 0.909603 1
gene 1 275 307 1 0 1157 0 1
gene 1 307 170 1 0 1158 0 1
gene 2 242 170 0.269678 0 1190 0.269678 1
genomeend 46

/* Organism #47 Fitness: 7690 Error: 0 */
genomestart 47
trait 1 0.330695 0 0 0.429791 0.0953838 0 0 0.00602039 
trait 2 0.430949 0.084397 0.185966 0 0 0.0827824 0.0542487 0 
trait 3 0.2625 0 0.10897 0 0 0 0.0308883 0 
node 1 1 1 3
node 2 2 1 1
node 3 3 1 1
node 4 2 1 1
node 5 2 1 1
node 6 2 0 2
node 7 2 0 2
node 29 1 0 0
node 37 1 0 0
node 108 1 0 0
node 170 1 0 0
node 233 1 0 0
node 242 1 0 0
node 253 1 0 0
node 275 1 0 0
node 288 1 0 0
node 307 1 0 0
gene 1 1 6 -1.15722 0 1 -1.15722 1
gene 1 2 6 -3.60401 0 2 -3.60401 1
gene 3 3 6 0.825978 0 3 0.825978 1
gene 3 4 6 4.21731 0 4 4.21731 1
gene 3 5 6 2.13115 0 5 2.13115 1
gene 2 1 7 2.11251 0 6 2.11251 1
gene 3 2 7 -0.425018 0 7 -0.425018 1
gene 3 3 7 -3.44905 0 8 -3.44905 1
gene 3 4 7 1.61761 0 9 1.61761 1
gene 2 5 7 -2.87476 0 10 -2.87476 1
gene 3 6 7 0.64456 0 47 0.64456 1
gene 3 5 29 2.87071 0 67 2.87071 1
gene 3 29 6 0.723528 0 68 0.723528 1
gene 2 5 37 -0.622403 0 96 -0.622403 1
gene 2 37 7 -2.54093 0 97 -2.54093 0
gene 1 37 6 -4.59743 0 111 -4.59743 1
gene 1 2 37 -0.693276 0 132 -0.693276 1
gene 1 3 29 -0.350816 0 140 -0.350816 1
gene 2 4 29 -0.111882 0 150 -0.111882 1
gene 1 1 37 -1.48722 0 270 -1.48722 1
gene 1 37 108 3.31032 0 360 3.31032 1
gene 1 108 6 -0.886409 0 361 -0.886409 1
gene 3 1 108 0.0602797 0 564 0.0602797 1
gene 1 108 170 3.43911 0 585 3.43911 0
gene 1 170 6 -2.78896 0 586 -2.78896 1
gene 3 29 7 2.40467 0 761 2.40467 1
gene 1 170 7 0.105247 0 832 0.105247 1
gene 2 5 233 0.292562 0 859 0.292562 0
gene 2 233 7 1.61899 0 860 1.61899 1
gene 2 5 242 -1.42332 0 895 -1.42332 1
gene 2 242 233 0.850557 0 896 0.850557 1
gene 2 233 37 -2.07676 0 914 -2.07676 1
gene 3 6 253 4.07979 0 933 4.07979 1
gene 3 253 7 2.14156 0 934 2.14156 0
gene 3 242 6 0.0229445 0 1010 0.0229445 1
gene 1 108 275 0.514418 0 1024 0.514418 1
gene 1 275 170 -2.2653 0 1025 -2.2653 0
gene 2 37 288 1.29599 0 1060 1.29599 1
gene 2 288 7 0.40396 0 1061 0.40396 1
gene 3 5 288 0.0977837 0 1145 0.0977837 1
gene 1 275 307 1.32541 0 1157 1.32541 1
gene 1 307 170 1.63803 0 1158 1.63803 1
gene 2 242 170 -1.2655 0 1190 -1.2655 1
genomeend 47

/* Organism #48 Fitness: 7690 Error: 0 */
genomestart 48
trait 1 0.330695 0 0 0.429791 0.0953838 0 0 0.00602039 
trait 2 0.430949 0.084397 0.371932 0 0 0.0551883 0.0542487 0 
trait 3 0.2625 0 0.10897 0 0 0 0.0308883 0 
node 1 1 1 3
node 2 2 1 1
node 3 3 1 1
node 4 2 1 1
node 5 2 1 1
node 6 2 0 2
node 7 2 0 2
node 29 1 0 0
node 37 1 0 0
node 108 1 0 0
node 170 1 0 0
node 233 1 0 0
node 242 1 0 0
node 253 1 0 0
node 275 1 0 0
node 288 1 0 0
node 307 1 0 0
gene 1 1 6 -0.191005 0 1 -0.191005 1
gene 1 2 6 -2.92494 0 2 -2.92494 1
gene 3 3 6 -2.1228 0 3 -2.1228 1
gene 3 4 6 1.58879 0 4 1.58879 1
gene 3 5 6 0.519156 0 5 0.519156 1
gene 2 1 7 1.28313 0 6 1.28313 1
gene 3 2 7 0.12765 0 7 0.12765 1
gene 3 3 7 -0.167528 0 8 -0.167528 1
gene 3 4 7 0.977722 0 9 0.977722 1
gene 2 5 7 2.13575 0 10 2.13575 1
gene 3 6 7 1.60472 0 47 1.60472 1
gene 3 5 29 2.89324 0 67 2.89324 1
gene 3 29 6 2.17203 0 68 2.17203 1
gene 2 5 37 -0.755252 0 96 -0.755252 1
gene 2 37 7 -2.27407 0 97 -2.27407 0
gene 1 37 6 -0.21883 0 111 -0.21883 1
gene 1 2 37 -0.177043 0 132 -0.177043 1
gene 1 3 29 1.17037 0 140 1.17037 1
gene 2 4 29 1.90451 0 150 1.90451 1
gene 1 1 37 -2.99349 0 270 -2.99349 1
gene 1 37 108 0.481561 0 360 0.481561 1
gene 1 108 6 -0.541029 0 361 -0.541029 1
gene 3 1 108 0.170458 0 564 0.170458 1
gene 1 108 170 2.1277 0 585 2.1277 0
gene 1 170 6 -2.60097 0 586 -2.60097 1
gene 3 29 7 0.316955 0 761 0.316955 1
gene 1 170 7 -1.59073 0 832 -1.59073 1
gene 2 5 233 2.65085 0 859 2.65085 0
gene 2 233 7 0.638983 0 860 0.638983 1
gene 2 5 242 1.13795 0 895 1.13795 1
gene 2 242 233 1 0 896 1 1
gene 2 233 37 2.10432 0 914 2.10432 1
gene 3 6 253 -1.32271 0 933 -1.32271 1
gene 3 253 7 -0.312927 0 934 -0.312927 0
gene 3 242 6 0.160985 0 1010 0.160985 1
gene 1 108 275 1 0 1024 1 1
gene 1 275 170 -2.913 0 1025 -2.913 0
gene 2 37 288 1.14396 0 1060 1.14396 1
gene 2 288 7 0.941243 0 1061 0.941243 1
gene 3 5 288 0.270764 0 1145 0.270764 1
gene 1 275 307 1.6266 0 1157 1.6266 1
gene 1 307 170 0.637408 0 1158 0.637408 1
gene 2 4 108 0.218667 0 1199 0.218667 1
genomeend 48

/* Organism #49 Fitness: 7600 Error: 0 */
genomestart 49
trait 1 0.330695 0 0 0.429791 0.0953838 0 0 0.00602039 
trait 2 0.430949 0.084397 0.371932 0 0 0.0551883 0.0542487 0 
trait 3 0.2625 0 0.10897 0 0 0 0.0308883 0 
node 1 1 1 3
node 2 2 1 1
node 3 3 1 1
node 4 2 1 1
node 5 2 1 1
node 6 2 0 2
node 7 2 0 2
node 29 1 0 0
node 37 1 0 0
node 108 1 0 0
node 170 1 0 0
node 233 1 0 0
node 242 1 0 0
node 253 1 0 0
node 275 1 0 0
node 288 1 0 0
node 307 1 0 0
gene 1 1 6 -2.48152 0 1 -2.48152 1
gene 1 2 6 -3.44885 0 2 -3.44885 1
gene 3 3 6 0.36327 0 3 0.36327 1
gene 3 4 6 0.295259 0 4 0.295259 1
gene 3 5 6 0.318081 0 5 0.318081 1
gene 2 1 7 -0.23727 0 6 -0.23727 1
gene 3 2 7 -0.867328 0 7 -0.867328 1
gene 3 3 7 -3.58166 0 8 -3.58166 1
gene 3 4 7 0.480123 0 9 0.480123 1
gene 2 5 7 1.19698 0 10 1.19698 1
gene 3 6 7 2.01508 0 47 2.01508 1
gene 3 5 29 2.88632 0 67 2.88632 1
gene 3 29 6 1.58833 0 68 1.58833 1
gene 2 5 37 0.0557318 0 96 0.0557318 1
gene 2 37 7 2.17413 0 97 2.17413 0
gene 1 37 6 -3.14101 0 111 -3.14101 1
gene 1 2 37 2.4252 0 132 2.4252 1
gene 1 3 29 -1.96259 0 140 -1.96259 1
gene 2 4 29 2.25727 0 150 2.25727 1
gene 1 1 37 -1.49021 0 270 -1.49021 1
gene 1 37 108 2.58898 0 360 2.58898 1
gene 1 108 6 -0.844151 0 361 -0.844151 1
gene 3 1 108 0.452256 0 564 0.452256 1
gene 1 108 170 -1.62375 0 585 -1.62375 0
gene 1 170 6 -0.409354 0 586 -0.409354 1
gene 3 29 7 2.45865 0 761 2.45865 1
gene 1 170 7 1.00126 0 832 1.00126 1
gene 2 5 233 -0.713202 0 859 -0.713202 0
gene 2 233 7 -0.564971 0 860 -0.564971 1
gene 2 5 242 -0.892515 0 895 -0.892515 1
gene 2 242 233 2.45143 0 896 2.45143 1
gene 2 233 37 2.00759 0 914 2.00759 1
gene 3 6 253 2.33434 0 933 2.33434 1
gene 3 253 7 2.77261 0 934 2.77261 0
gene 3 242 6 2.24368 0 1010 2.24368 1
gene 1 108 275 0.422414 0 1024 0.422414 1
gene 1 275 170 -1.04036 0 1025 -1.04036 0
gene 2 37 288 1.40196 0 1060 1.40196 1
gene 2 288 7 -2.99925 0 1061 -2.99925 1
gene 3 5 288 1.61343 0 1145 1.61343 1
gene 1 275 307 1 0 1157 1 1
gene 1 307 170 1 0 1158 1 1
gene 2 4 108 2.70881 0 1199 2.70881 1
genomeend 49

/* Organism #50 Fitness: 7506 Error: 0 */
genomestart 50
trait 1 0.330695 0 0 0.429791 0.0953838 0 0 0.00602039 
trait 2 0.430949 0.084397 0.185966 0 0 0.0827824 0.0542487 0 
trait 3 0.2625 0 0.10897 0 0 0 0.0308883 0 
node 1 1 1 3
node 2 2 1 1
node 3 3 1 1
node 4 2 1 1
node 5 2 1 1
node 6 2 0 2
node 7 2 0 2
node 29 1 0 0
node 37 1 0 0
node 108 1 0 0
node 170 1 0 0
node 233 1 0 0
node 242 1 0 0
node 253 1 0 0
node 275 1 0 0
node 288 1 0 0
node 307 1 0 0
gene 1 1 6 -1.23683 0 1 -1.23683 1
gene 1 2 6 0.517686 0 2 0.517686 1
gene 3 3 6 1.5025 0 3 1.5025 1
gene 3 4 6 2.41056 0 4 2.41056 1
gene 3 5 6 1.80026 0 5 1.80026 1
gene 2 1 7 -0.578113 0 6 -0.578113 1
gene 3 2 7 -2.88589 0 7 -2.88589 1
gene 3 3 7 -0.715038 0 8 -0.715038 1
gene 3 4 7 -1.9738 0 9 -1.9738 1
gene 2 5 7 0.323237 0 10 0.323237 1
gene 3 6 7 2.18865 0 47 2.18865 1
gene 3 5 29 0.918279 0 67 0.918279 1
gene 3 29 6 1.0859 0 68 1.0859 1
gene 2 5 37 0.220627 0 96 0.220627 1
gene 2 37 7 0.506942 0 97 0.506942 1
gene 1 37 6 0.238531 0 111 0.238531 1
gene 1 2 37 -1.71019 0 132 -1.71019 1
gene 1 3 29 -2.12633 0 140 -2.12633 1
gene 2 4 29 -0.355998 0 150 -0.355998 1
gene 1 1 37 -1.61185 0 270 -1.61185 1
gene 1 37 108 -0.874858 0 360 -0.874858 1
gene 1 108 6 -1.95454 0 361 -1.95454 1
gene 3 1 108 -1.19652 0 564 -1.19652 1
gene 1 108 170 1 0 585 1 1
gene 1 170 6 -1.67767 0 586 -1.67767 1
gene 3 29 7 0.240862 0 761 0.240862 1
gene 1 170 7 1.08382 0 832 1.08382 1
gene 2 5 233 0.882263 0 859 0.882263 0
gene 2 233 7 -2.25042 0 860 -2.25042 1
gene 2 5 242 -0.877765 0 895 -0.877765 1
gene 2 242 233 -0.827442 0 896 -0.827442 1
gene 2 233 37 -0.00187315 0 914 -0.00187315 1
gene 3 6 253 0.863205 0 933 0.863205 1
gene 3 253 7 0.914376 0 934 0.914376 0
gene 3 242 6 1.00363 0 1010 1.00363 1
gene 1 108 275 1.02075 0 1024 1.02075 1
gene 1 275 170 1.56767 0 1025 1.56767 0
gene 2 37 288 1 0 1060 1 1
gene 2 288 7 -0.563623 0 1061 -0.563623 1
gene 3 5 288 -2.35649 0 1145 -2.35649 1
gene 1 275 307 -1.43971 0 1157 -1.43971 1
gene 1 307 170 -0.104688 0 1158 -0.104688 1
gene 2 242 170 0.911138 0 1190 0.911138 1
genomeend 50

/* Organism #51 Fitness: 6787 Error: 0 */
genomestart 51
trait 1 0.330695 0 0 0.429791 0.0953838 0 0 0.00602039 
trait 2 0.430949 0.084397 0 0 0 0.110377 0.0542487 0 
trait 3 0.2625 0 0.10897 0 0 0 0.0308883 0 
node 1 1 1 3
node 2 2 1 1
node 3 3 1 1
node 4 2 1 1
node 5 2 1 1
node 6 2 0 2
node 7 2 0 2
node 29 1 0 0
node 37 1 0 0
node 108 1 0 0
node 170 1 0 0
node 233 1 0 0
node 242 1 0 0
node 253 1 0 0
node 275 1 0 0
node 288 1 0 0
node 307 1 0 0
gene 1 1 6 1.23243 0 1 1.23243 1
gene 1 2 6 -1.26199 0 2 -1.26199 1
gene 3 3 6 2.64263 0 3 2.64263 1
gene 3 4 6 2.41056 0 4 2.41056 1
gene 3 5 6 -1.31242 0 5 -1.31242 1
gene 2 1 7 -1.77329 0 6 -1.77329 1
gene 3 2 7 -1.3035 0 7 -1.3035 1
gene 3 3 7 -0.993845 0 8 -0.993845 1
gene 3 4 7 -1.07923 0 9 -1.07923 1
gene 2 5 7 1.04795 0 10 1.04795 1
gene 3 6 7 -2.49169 0 47 -2.49169 1
gene 3 5 29 1.01786 0 67 1.01786 1
gene 3 29 6 0.479083 0 68 0.479083 1
gene 2 5 37 1 0 96 1 1
gene 2 37 7 -1.48965 0 97 -1.48965 1
gene 1 37 6 -0.311515 0 111 -0.311515 1
gene 1 2 37 -1.19644 0 132 -1.19644 1
gene 1 3 29 -0.976893 0 140 -0.976893 1
gene 2 4 29 1.24854 0 150 1.24854 1
gene 1 1 37 0.213461 0 270 0.213461 1
gene 1 37 108 1.53898 0 360 1.53898 1
gene 1 108 6 1.47487 0 361 1.47487 1
gene 3 1 108 1.70761 0 564 1.70761 1
gene 1 108 170 -0.261929 0 585 -0.261929 0
gene 1 170 6 -0.886409 0 586 -0.886409 1
gene 3 29 7 0.847416 0 761 0.847416 1
gene 1 170 7 3.17588 0 832 3.17588 1
gene 2 5 233 -0.0828915 0 859 -0.0828915 0
gene 2 233 7 1.4814 0 860 1.4814 1
gene 2 5 242 -2.27392 0 895 -2.27392 1
gene 2 242 233 0.435832 0 896 0.435832 1
gene 2 233 37 -1.98273 0 914 -1.98273 1
gene 3 6 253 3.3243 0 933 3.3243 1
gene 3 253 7 1.21114 0 934 1.21114 1
gene 3 242 6 -1.64195 0 1010 -1.64195 1
gene 1 108 275 1.11908 0 1024 1.11908 1
gene 1 275 170 1.35669 0 1025 1.35669 1
gene 2 37 288 1.83294 0 1060 1.83294 1
gene 2 288 7 -1.95517 0 1061 -1.95517 1
gene 3 5 288 -0.323958 0 1145 -0.323958 1
gene 1 275 307 -0.0644021 0 1157 -0.0644021 1
gene 1 307 170 1 0 1158 1 1
gene 2 242 170 -0.875156 0 1190 -0.875156 1
genomeend 51

/* Organism #52 Fitness: 7692 Error: 0 */
genomestart 52
trait 1 0.330695 0 0 0.429791 0.0953838 0 0 0.00602039 
trait 2 0.430949 0.084397 0 0.175433 0 0.110377 0.0542487 0.143361 
trait 3 0.2625 0 0.10897 0 0 0 0.0308883 0 
node 1 1 1 3
node 2 2 1 1
node 3 3 1 1
node 4 2 1 1
node 5 2 1 1
node 6 2 0 2
node 7 2 0 2
node 29 1 0 0
node 37 1 0 0
node 108 1 0 0
node 170 1 0 0
node 233 1 0 0
node 242 1 0 0
node 253 1 0 0
node 275 1 0 0
node 288 1 0 0
node 307 1 0 0
node 322 1 0 0
gene 1 1 6 0.0078683 0 1 0.0078683 1
gene 1 2 6 2.31574 0 2 2.31574 1
gene 3 3 6 0.36327 0 3 0.36327 1
gene 3 4 6 0.883144 0 4 0.883144 1
gene 3 5 6 -0.806589 0 5 -0.806589 1
gene 2 1 7 0.0946276 0 6 0.0946276 1
gene 3 2 7 1.99726 0 7 1.99726 1
gene 3 3 7 0.115917 0 8 0.115917 1
gene 3 4 7 -0.575764 0 9 -0.575764 1
gene 2 5 7 0.956049 0 10 0.956049 1
gene 3 6 7 -1.11821 0 47 -1.11821 1
gene 3 5 29 -1.31582 0 67 -1.31582 0
gene 3 29 6 -0.178342 0 68 -0.178342 1
gene 2 5 37 3.0631 0 96 3.0631 1
gene 2 37 7 -1.8445 0 97 -1.8445 0
gene 1 37 6 -0.886409 0 111 -0.886409 1
gene 1 2 37 1.95816 0 132 1.95816 1
gene 1 3 29 0.946967 0 140 0.946967 1
gene 2 4 29 0.992041 0 150 0.992041 1
gene 1 1 37 0.140739 0 270 0.140739 1
gene 1 37 108 1.37414 0 360 1.37414 1
gene 1 108 6 -0.758445 0 361 -0.758445 1
gene 3 1 108 0.81386 0 564 0.81386 1
gene 1 108 170 1 0 585 0 0
gene 1 170 6 -0.886409 0 586 0 1
gene 3 29 7 1.6092 0 761 1.6092 1
gene 1 170 7 0.792682 0 832 0.792682 1
gene 2 5 233 1 0 859 0 0
gene 2 233 7 -0.641492 0 860 0 1
gene 2 5 242 1 0 895 0 1
gene 2 242 233 1 0 896 0 1
gene 2 233 37 2.79639 0 914 2.79639 1
gene 3 6 253 1 0 933 0 1
gene 3 253 7 -0.516197 0 934 -0.516197 1
gene 3 242 6 1.19685 0 1010 1.19685 1
gene 1 108 275 1 0 1024 0 1
gene 1 275 170 1 0 1025 0 0
gene 2 37 288 -1.02563 0 1060 -1.02563 1
gene 2 288 7 -1.48965 0 1061 0 1
gene 3 5 288 0.909603 0 1145 0.909603 1
gene 1 275 307 1 0 1157 0 1
gene 1 307 170 1 0 1158 1 1
gene 2 242 170 0.269678 0 1190 0.269678 1
gene 3 5 322 1 0 1211 0 1
gene 3 322 29 -1.31582 0 1212 0 1
genomeend 52

/* Organism #53 Fitness: 7492 Error: 0 */
genomestart 53
trait 1 0 0 0 0.429791 0.572035 0 0 0 
trait 2 0.430949 0.084397 0.185966 0 0 0.0827824 0.0542487 0 
trait 3 0.2625 0 0.10897 0 0 0 0.0308883 0 
node 1 1 1 3
node 2 2 1 1
node 3 3 1 1
node 4 2 1 1
node 5 2 1 1
node 6 2 0 2
node 7 2 0 2
node 29 1 0 0
node 37 1 0 0
node 108 1 0 0
node 170 1 0 0
node 233 1 0 0
node 242 1 0 0
node 253 3 0 0
node 275 1 0 0
node 288 1 0 0
node 307 1 0 0
gene 1 1 6 -0.456496 0 1 -0.456496 1
gene 1 2 6 0.0980457 0 2 0.0980457 1
gene 3 3 6 -1.69341 0 3 -1.69341 1
gene 3 4 6 4.42664 0 4 4.42664 1
gene 3 5 6 0.0812936 0 5 0.0812936 1
gene 2 1 7 -0.705103 0 6 -0.705103 1
gene 3 2 7 0.297241 0 7 0.297241 1
gene 3 3 7 -1.13889 0 8 -1.13889 1
gene 3 4 7 -2.97541 0 9 -2.97541 1
gene 2 5 7 -0.641492 0 10 -0.641492 1
gene 3 6 7 -1.87723 0 47 -1.87723 1
gene 3 5 29 -0.547406 0 67 -0.547406 1
gene 3 29 6 0.389409 0 68 0.389409 1
gene 2 5 37 -0.565868 0 96 -0.565868 1
gene 2 37 7 0.694361 0 97 0.694361 0
gene 1 37 6 0.713625 0 111 0.713625 1
gene 1 2 37 -1.53736 0 132 -1.53736 1
gene 1 3 29 -1.10355 0 140 -1.10355 1
gene 2 4 29 3.81681 0 150 3.81681 1
gene 1 1 37 -0.631593 0 270 -0.631593 1
gene 1 37 108 0.317438 0 360 0.317438 1
gene 1 108 6 -3.02261 0 361 -3.02261 1
gene 3 1 108 0.315566 0 564 0.315566 1
gene 1 108 170 -0.385841 0 585 -0.385841 0
gene 1 170 6 -3.58953 0 586 -3.58953 1
gene 3 29 7 2.37731 0 761 2.37731 1
gene 1 170 7 1.49447 0 832 1.49447 1
gene 2 5 233 1.40512 0 859 1.40512 1
gene 2 233 7 2.07624 0 860 2.07624 1
gene 2 5 242 0.19443 0 895 0.19443 1
gene 2 242 233 2.94707 0 896 2.94707 1
gene 2 233 37 -0.945099 0 914 -0.945099 1
gene 3 6 253 -0.430719 0 933 -0.430719 1
gene 3 253 7 -1.05168 0 934 -1.05168 0
gene 3 242 6 0.748929 0 1010 0.748929 1
gene 1 108 275 0.394636 0 1024 0.394636 1
gene 1 275 170 -0.0201815 0 1025 -0.0201815 1
gene 2 37 288 1.87042 0 1060 1.87042 1
gene 2 288 7 -3.07648 0 1061 -3.07648 1
gene 3 5 288 -1.88124 0 1145 -1.88124 1
gene 1 275 307 1.00115 0 1157 1.00115 1
gene 1 307 170 -0.171444 0 1158 -0.171444 1
gene 2 242 170 1.05027 0 1190 1.05027 1
genomeend 53

/* Organism #54 Fitness: 7692 Error: 0 */
genomestart 54
trait 1 0.330695 0 0 0.429791 0.0953838 0 0 0.00602039 
trait 2 0.430949 0.084397 0.185966 0.175433 0 0.0827824 0.0542487 0.143361 
trait 3 0.2625 0 0.10897 0 0 0 0.0308883 0 
node 1 1 1 3
node 2 2 1 1
node 3 3 1 1
node 4 2 1 1
node 5 2 1 1
node 6 2 0 2
node 7 2 0 2
node 29 1 0 0
node 37 1 0 0
node 108 1 0 0
node 170 1 0 0
node 233 1 0 0
node 242 1 0 0
node 253 1 0 0
node 275 1 0 0
node 288 1 0 0
node 307 1 0 0
gene 1 1 6 0.0078683 0 1 0.0078683 1
gene 1 2 6 2.31574 0 2 2.31574 1
gene 3 3 6 0.36327 0 3 0.36327 1
gene 3 4 6 2.41056 0 4 2.41056 1
gene 3 5 6 -0.327888 0 5 -0.327888 1
gene 2 1 7 0.0946276 0 6 0.0946276 1
gene 3 2 7 1.99726 0 7 1.99726 1
gene 3 3 7 -1.54599 0 8 -1.54599 1
gene 3 4 7 -0.575764 0 9 -0.575764 1
gene 2 5 7 0.956049 0 10 0.956049 1
gene 3 6 7 -1.11821 0 47 -1.11821 1
gene 3 5 29 -1.31582 0 67 -1.31582 1
gene 3 29 6 0.63019 0 68 0.63019 1
gene 2 5 37 3.0631 0 96 3.0631 1
gene 2 37 7 -1.8445 0 97 -1.8445 0
gene 1 37 6 -2.37202 0 111 -2.37202 1
gene 1 2 37 -0.693276 0 132 -0.693276 1
gene 1 3 29 0.554034 0 140 0.554034 1
gene 2 4 29 3.17835 0 150 3.17835 1
gene 1 1 37 0.140739 0 270 0.140739 1
gene 1 37 108 1.47695 0 360 1.47695 1
gene 1 108 6 -3.02267 0 361 -3.02267 1
gene 3 1 108 0.81386 0 564 0.81386 1
gene 1 108 170 1 0 585 0 0
gene 1 170 6 0.147759 0 586 0.147759 1
gene 3 29 7 1.6092 0 761 1.6092 1
gene 1 170 7 0.792682 0 832 0.792682 1
gene 2 5 233 0.503749 0 859 0.503749 0
gene 2 233 7 -3.67519 0 860 -3.67519 1
gene 2 5 242 0.781853 0 895 0.781853 1
gene 2 242 233 3.13924 0 896 3.13924 1
gene 2 233 37 0.355238 0 914 0.355238 1
gene 3 6 253 2.33434 0 933 2.33434 1
gene 3 253 7 1.21114 0 934 0 0
gene 3 242 6 0.827672 0 1010 0.827672 1
gene 1 108 275 1 0 1024 0 1
gene 1 275 170 2.89305 0 1025 2.89305 0
gene 2 37 288 -1.02563 0 1060 -1.02563 1
gene 2 288 7 0.891632 0 1061 0.891632 1
gene 3 5 288 0.909603 0 1145 0.909603 1
gene 1 275 307 1 0 1157 0 1
gene 1 307 170 1 0 1158 0 1
gene 2 2 170 -0.817971 0 1193 -0.817971 1
genomeend 54

/* Organism #55 Fitness: 7692 Error: 0 */
genomestart 55
trait 1 0.330695 0 0 0.429791 0.0953838 0 0 0.00602039 
trait 2 0.430949 0.084397 0 0.175433 0 0.110377 0.0542487 0.143361 
trait 3 0.2625 0 0.10897 0 0 0 0.0308883 0 
node 1 1 1 3
node 2 2 1 1
node 3 3 1 1
node 4 2 1 1
node 5 2 1 1
node 6 2 0 2
node 7 2 0 2
node 29 1 0 0
node 37 1 0 0
node 108 1 0 0
node 170 1 0 0
node 233 1 0 0
node 242 1 0 0
node 253 1 0 0
node 275 1 0 0
node 288 1 0 0
node 307 1 0 0
gene 1 1 6 -0.123225 0 1 -0.123225 1
gene 1 2 6 -3.06362 0 2 -3.06362 1
gene 3 3 6 1.91022 0 3 1.91022 1
gene 3 4 6 4.26862 0 4 4.26862 1
gene 3 5 6 0.638771 0 5 0.638771 1
gene 2 1 7 1.49956 0 6 1.49956 1
gene 3 2 7 1.37542 0 7 1.37542 1
gene 3 3 7 -0.490668 0 8 -0.490668 1
gene 3 4 7 0.657631 0 9 0.657631 1
gene 2 5 7 -0.786832 0 10 -0.786832 1
gene 3 6 7 0.638773 0 47 0.638773 1
gene 3 5 29 -1.13426 0 67 -1.13426 1
gene 3 29 6 -1.66541 0 68 -1.66541 1
gene 2 5 37 1.89294 0 96 1.89294 1
gene 2 37 7 0.958882 0 97 0.958882 0
gene 1 37 6 -1.4306 0 111 -1.4306 1
gene 1 2 37 0.138685 0 132 0.138685 1
gene 1 3 29 2.07237 0 140 2.07237 1
gene 2 4 29 0.825322 0 150 0.825322 1
gene 1 1 37 -0.760869 0 270 -0.760869 1
gene 1 37 108 -1.06461 0 360 -1.06461 1
gene 1 108 6 -2.92104 0 361 -2.92104 1
gene 3 1 108 -1.24291 0 564 -1.24291 1
gene 1 108 170 1.29417 0 585 1.29417 0
gene 1 170 6 -0.192577 0 586 -0.192577 1
gene 3 29 7 1.47022 0 761 1.47022 1
gene 1 170 7 0.537074 0 832 0.537074 1
gene 2 5 233 2.46497 0 859 2.46497 0
gene 2 233 7 -2.52754 0 860 -2.52754 1
gene 2 5 242 1.15743 0 895 1.15743 1
gene 2 242 233 -0.566084 0 896 -0.566084 1
gene 2 233 37 0.448104 0 914 0.448104 1
gene 3 6 253 1.25862 0 933 1.25862 1
gene 3 253 7 1.48548 0 934 1.48548 1
gene 3 242 6 1.36369 0 1010 1.36369 1
gene 1 108 275 1.31707 0 1024 1.31707 1
gene 1 275 170 3.18421 0 1025 3.18421 0
gene 2 37 288 0.615685 0 1060 0.615685 1
gene 2 288 7 3.07432 0 1061 3.07432 1
gene 3 5 288 -0.70353 0 1145 -0.70353 1
gene 1 275 307 1.72002 0 1157 1.72002 1
gene 1 307 170 0.916423 0 1158 0.916423 1
gene 2 242 170 -1.09133 0 1190 -1.09133 1
genomeend 55

/* Organism #56 Fitness: 7691 Error: 0 */
genomestart 56
trait 1 0.330695 0 0 0.429791 0.0953838 0 0 0.00602039 
trait 2 0.430949 0.084397 0.185966 0 0 0.0827824 0.0542487 0 
trait 3 0.2625 0 0.10897 0 0 0 0.0308883 0 
node 1 1 1 3
node 2 2 1 1
node 3 3 1 1
node 4 2 1 1
node 5 2 1 1
node 6 2 0 2
node 7 2 0 2
node 29 1 0 0
node 37 1 0 0
node 108 1 0 0
node 170 1 0 0
node 233 1 0 0
node 242 1 0 0
node 253 1 0 0
node 275 1 0 0
node 288 1 0 0
node 307 1 0 0
gene 1 1 6 -0.126158 0 1 -0.126158 1
gene 1 2 6 -1.72088 0 2 -1.72088 1
gene 3 3 6 -1.89032 0 3 -1.89032 1
gene 3 4 6 0.246025 0 4 0.246025 1
gene 3 5 6 -0.823645 0 5 -0.823645 1
gene 2 1 7 -0.0529375 0 6 -0.0529375 1
gene 3 2 7 1.92915 0 7 1.92915 1
gene 3 3 7 -1.76667 0 8 -1.76667 1
gene 3 4 7 1.14551 0 9 1.14551 1
gene 2 5 7 -0.641492 0 10 -0.641492 1
gene 3 6 7 2.41641 0 47 2.41641 1
gene 3 5 29 0.735426 0 67 0.735426 1
gene 3 29 6 -0.333755 0 68 -0.333755 1
gene 2 5 37 -0.0660899 0 96 -0.0660899 1
gene 2 37 7 -0.207035 0 97 -0.207035 0
gene 1 37 6 -2.54659 0 111 -2.54659 1
gene 1 2 37 1.35416 0 132 1.35416 1
gene 1 3 29 0.349408 0 140 0.349408 1
gene 2 4 29 3.25438 0 150 3.25438 1
gene 1 1 37 1.76799 0 270 1.76799 1
gene 1 37 108 0.771783 0 360 0.771783 1
gene 1 108 6 -1.95454 0 361 -1.95454 1
gene 3 1 108 -1.19652 0 564 -1.19652 1
gene 1 108 170 2.61442 0 585 2.61442 0
