
/* Species #2 : (Size 6) (AF 16736) (Age 37)  */


/* Organism #0 Fitness: 241 Error: 0 */
genomestart 0
trait 1 0.1 0 0 0 0 0 0 0 
trait 2 0.2 0 0 0 0 0 0 0 
trait 3 0.3 0 0 0 0 0 0 0 
node 1 1 1 3
node 2 1 1 1
node 3 2 1 1
node 4 2 1 1
node 5 2 1 1
node 6 1 0 2
node 7 2 0 2
node 11 1 0 0
gene 2 1 6 0.834649 0 1 0.834649 1
gene 1 2 6 -0.448326 0 2 -0.448326 1
gene 3 3 6 -1.66333 0 3 -1.66333 1
gene 3 4 6 2.52125 0 4 2.52125 1
gene 3 5 6 -0.323846 0 5 -0.323846 0
gene 2 1 7 1.93654 0 6 1.93654 1
gene 3 2 7 -1.1081 0 7 -1.1081 1
gene 2 3 7 -2.34386 0 8 -2.34386 1
gene 3 4 7 -0.589865 0 9 -0.589865 1
gene 1 5 7 -3.34421 0 10 -3.34421 1
gene 3 5 11 0.118883 0 21 0.118883 1
gene 3 11 6 0.992922 0 22 0.992922 1
gene 3 7 11 -0.232861 0 36 -0.232861 1
gene 1 2 11 -0.905019 0 265 -0.905019 1
genomeend 0

/* Organism #1 Fitness: 5 Error: 0 */
genomestart 1
trait 1 0.1 0 0 0 0 0 0 0 
trait 2 0.2 0 0 0 0 0 0 0 
trait 3 0.3 0 0 0 0 0 0 0 
node 1 1 1 3
node 2 1 1 1
node 3 2 1 1
node 4 2 1 1
node 5 2 1 1
node 6 1 0 2
node 7 2 0 2
node 11 1 0 0
gene 2 1 6 -0.0315541 0 1 -0.0315541 1
gene 1 2 6 -2.78795 0 2 -2.78795 1
gene 3 3 6 0.104219 0 3 0.104219 1
gene 3 4 6 -2.29103 0 4 -2.29103 1
gene 3 5 6 2.46731 0 5 2.46731 0
gene 2 1 7 1.95091 0 6 1.95091 1
gene 3 2 7 0.758944 0 7 0.758944 1
gene 2 3 7 -1.07909 0 8 -1.07909 1
gene 3 4 7 0.895159 0 9 0.895159 1
gene 1 5 7 -5.45611 0 10 -5.45611 1
gene 3 5 11 2.46816 0 21 2.46816 1
gene 3 11 6 0.992922 0 22 0.992922 1
gene 3 7 11 0.962682 0 36 0.962682 1
gene 1 2 11 -2.03636 0 265 -2.03636 1
genomeend 1

/* Organism #2 Fitness: 100001 Error: 0 */
/* ##------$ WINNER 2 SPECIES #2 $------## */
genomestart 2
trait 1 0.1 0 0 0 0 0 0 0 
trait 2 0.2 0 0 0 0 0 0 0 
trait 3 0.3 0 0 0 0 0 0 0 
node 1 1 1 3
node 2 1 1 1
node 3 2 1 1
node 4 2 1 1
node 5 2 1 1
node 6 1 0 2
node 7 2 0 2
node 11 1 0 0
gene 2 1 6 2.34142 0 1 2.34142 1
gene 1 2 6 0.392952 0 2 0.392952 1
gene 3 3 6 -2.31055 0 3 -2.31055 1
gene 3 4 6 3.4086 0 4 3.4086 1
gene 3 5 6 0.187746 0 5 0.187746 0
gene 2 1 7 4.52391 0 6 4.52391 1
gene 3 2 7 -1.7771 0 7 -1.7771 1
gene 2 3 7 -2.75881 0 8 -2.75881 1
gene 3 4 7 -1.01218 0 9 -1.01218 1
gene 1 5 7 2.3193 0 10 2.3193 1
gene 3 5 11 -1.17806 0 21 -1.17806 1
gene 3 11 6 -1.67595 0 22 -1.67595 1
gene 3 7 11 -1.19822 0 36 -1.19822 1
gene 1 2 11 -1.26172 0 265 -1.26172 1
genomeend 2

/* Organism #3 Fitness: 31 Error: 0 */
genomestart 3
trait 1 0.1 0 0 0 0 0 0 0 
trait 2 0.2 0 0 0 0 0 0 0 
trait 3 0.3 0 0 0 0 0 0 0 
node 1 1 1 3
node 2 1 1 1
node 3 2 1 1
node 4 2 1 1
node 5 2 1 1
node 6 1 0 2
node 7 2 0 2
node 11 1 0 0
gene 2 1 6 1.98044 0 1 1.98044 1
gene 1 2 6 -0.154287 0 2 -0.154287 1
gene 3 3 6 -2.31055 0 3 -2.31055 1
gene 3 4 6 2.51704 0 4 2.51704 1
gene 3 5 6 0.647686 0 5 0.647686 0
gene 2 1 7 2.10032 0 6 2.10032 1
gene 3 2 7 -1.7771 0 7 -1.7771 1
gene 2 3 7 -3.43879 0 8 -3.43879 1
gene 3 4 7 -0.0892887 0 9 -0.0892887 1
gene 1 5 7 -3.47888 0 10 -3.47888 1
gene 3 5 11 1.16167 0 21 1.16167 1
gene 3 11 6 1.16577 0 22 1.16577 1
gene 3 7 11 0.77013 0 36 0.77013 1
gene 1 2 11 -0.672253 0 265 -0.672253 1
genomeend 3

/* Organism #4 Fitness: 86 Error: 0 */
genomestart 4
trait 1 0.1 0 0 0 0 0 0 0 
trait 2 0.2 0 0 0 0 0 0 0 
trait 3 0.3 0 0 0 0 0 0 0 
node 1 1 1 3
node 2 1 1 1
node 3 2 1 1
node 4 2 1 1
node 5 2 1 1
node 6 1 0 2
node 7 2 0 2
node 11 1 0 0
gene 2 1 6 0.565491 0 1 0.565491 1
gene 1 2 6 -0.154287 0 2 -0.154287 1
gene 3 3 6 -2.31055 0 3 -2.31055 1
gene 3 4 6 4.6267 0 4 4.6267 1
gene 3 5 6 -1.61533 0 5 -1.61533 0
gene 2 1 7 3.92758 0 6 3.92758 1
gene 3 2 7 -3.25511 0 7 -3.25511 1
gene 2 3 7 -5.41365 0 8 -5.41365 1
gene 3 4 7 2.06452 0 9 2.06452 1
gene 1 5 7 -4.68027 0 10 -4.68027 1
gene 3 5 11 1.06894 0 21 1.06894 1
gene 3 11 6 2.11364 0 22 2.11364 1
gene 3 7 11 -1.25593 0 36 -1.25593 1
gene 1 2 11 -2.52498 0 265 -2.52498 1
genomeend 4

/* Organism #5 Fitness: 52 Error: 0 */
genomestart 5
trait 1 0.1 0 0 0 0 0 0 0 
trait 2 0.2 0 0 0 0 0 0 0 
trait 3 0.3 0 0 0 0 0 0 0 
node 1 1 1 3
node 2 1 1 1
node 3 2 1 1
node 4 2 1 1
node 5 2 1 1
node 6 1 0 2
node 7 2 0 2
node 11 1 0 0
gene 2 1 6 -2.48665 0 1 -2.48665 1
gene 1 2 6 0.333957 0 2 0.333957 1
gene 3 3 6 -1.99304 0 3 -1.99304 1
gene 3 4 6 4.24312 0 4 4.24312 1
gene 3 5 6 1.89752 0 5 1.89752 0
gene 2 1 7 0.994283 0 6 0.994283 1
gene 3 2 7 -3.74017 0 7 -3.74017 1
gene 2 3 7 -6.58992 0 8 -6.58992 1
gene 3 4 7 -2.03085 0 9 -2.03085 1
gene 1 5 7 -1.67201 0 10 -1.67201 1
gene 3 5 11 -0.419651 0 21 -0.419651 1
gene 3 11 6 -1.145 0 22 -1.145 1
gene 3 7 11 -0.173756 0 36 -0.173756 1
gene 1 2 11 -2.74577 0 265 -2.74577 1
genomeend 5

/* Species #18 : (Size 11) (AF 61.0909) (Age 18)  */


/* Organism #6 Fitness: 92 Error: 0 */
genomestart 6
trait 1 0.075 0 0 0 0.0710627 0 0 0 
trait 2 0.848553 0 0 0 0 0 0 0 
trait 3 0.3 0 0 0 0 0 0 0 
node 1 3 1 3
node 2 1 1 1
node 3 3 1 1
node 4 2 1 1
node 5 3 1 1
node 6 1 0 2
node 7 2 0 2
node 21 1 0 0
node 76 1 0 0
gene 2 1 6 -4.58063 0 1 -4.58063 1
gene 3 2 6 0.220857 0 2 0.220857 1
gene 2 3 6 1.64076 0 3 1.64076 1
gene 1 4 6 -3.87131 0 4 -3.87131 1
gene 2 5 6 -1.76597 0 5 -1.76597 1
gene 2 1 7 1.94189 0 6 1.94189 1
gene 3 2 7 -2.73946 0 7 -2.73946 0
gene 2 3 7 -1.44584 0 8 -1.44584 1
gene 3 4 7 6.36546 0 9 6.36546 1
gene 1 5 7 -1.77299 0 10 -1.77299 1
gene 1 6 7 1.04277 0 38 1.04277 1
gene 3 2 21 -1.80478 0 48 -1.80478 1
gene 3 21 7 -0.0749245 0 49 -0.0749245 1
gene 2 6 21 -1.01503 0 252 -1.01503 1
gene 2 3 76 0.987472 0 259 0.987472 1
gene 2 76 6 -1.22632 0 260 -1.22632 1
gene 2 76 7 0.606956 0 338 0.606956 1
genomeend 6

/* Organism #7 Fitness: 71 Error: 0 */
genomestart 7
trait 1 0.075 0 0 0 0.0710627 0 0 0 
trait 2 0.848553 0 0 0 0 0 0 0 
trait 3 0.3 0 0 0 0 0 0 0 
node 1 3 1 3
node 2 1 1 1
node 3 3 1 1
node 4 2 1 1
node 5 3 1 1
node 6 1 0 2
node 7 2 0 2
node 21 1 0 0
node 76 1 0 0
gene 2 1 6 -6.67224 0 1 -6.67224 1
gene 3 2 6 1.64549 0 2 1.64549 1
gene 2 3 6 2.00355 0 3 2.00355 1
gene 1 4 6 -5.14578 0 4 -5.14578 1
gene 2 5 6 0.760138 0 5 0.760138 1
gene 2 1 7 2.09134 0 6 2.09134 1
gene 3 2 7 -4.18731 0 7 -4.18731 0
gene 1 3 7 -0.14982 0 8 -0.14982 1
gene 3 4 7 5.60286 0 9 5.60286 1
gene 1 5 7 -2.66537 0 10 -2.66537 1
gene 1 6 7 2.03662 0 38 2.03662 1
gene 3 2 21 2.0001 0 48 2.0001 1
gene 3 21 7 0.459774 0 49 0.459774 1
gene 2 6 21 -2.01717 0 252 -2.01717 1
gene 2 3 76 -0.474361 0 259 -0.474361 1
gene 2 76 6 1.29311 0 260 1.29311 1
gene 2 76 7 -1.23522 0 338 -1.23522 1
genomeend 7

/* Organism #8 Fitness: 97 Error: 0 */
genomestart 8
trait 1 0.075 0 0 0 0.0710627 0 0 0 
trait 2 0.848553 0 0 0 0 0 0 0 
trait 3 0.3 0 0 0 0 0 0 0 
node 1 3 1 3
node 2 1 1 1
node 3 3 1 1
node 4 2 1 1
node 5 3 1 1
node 6 1 0 2
node 7 2 0 2
node 21 1 0 0
node 76 1 0 0
gene 2 1 6 -4.67594 0 1 -4.67594 1
gene 3 2 6 -1.2367 0 2 -1.2367 1
gene 2 3 6 2.18588 0 3 2.18588 1
gene 1 4 6 -3.02863 0 4 -3.02863 1
gene 2 5 6 -3.03606 0 5 -3.03606 1
gene 2 1 7 1.54253 0 6 1.54253 1
gene 3 2 7 -2.13931 0 7 -2.13931 0
gene 2 3 7 -1.60756 0 8 -1.60756 1
gene 3 4 7 -1.17811 0 9 -1.17811 1
gene 1 5 7 0.810855 0 10 0.810855 1
gene 1 6 7 3.97524 0 38 3.97524 1
gene 3 2 21 -0.332256 0 48 -0.332256 1
gene 3 21 7 -0.805913 0 49 -0.805913 1
gene 2 6 21 -3.91856 0 252 -3.91856 1
gene 2 3 76 0.936384 0 259 0.936384 1
gene 2 76 6 -1.58765 0 260 -1.58765 1
gene 2 76 7 0.810854 0 338 0.810854 1
gene 2 3 21 0.736605 0 440 0.736605 1
genomeend 8

/* Organism #9 Fitness: 71 Error: 0 */
genomestart 9
trait 1 0.075 0 0 0 0.0710627 0 0 0 
trait 2 0.848553 0 0 0 0 0 0 0 
trait 3 0.3 0 0 0 0 0 0 0 
node 1 3 1 3
node 2 1 1 1
node 3 3 1 1
node 4 2 1 1
node 5 3 1 1
node 6 1 0 2
node 7 2 0 2
node 21 1 0 0
node 76 1 0 0
gene 2 1 6 -3.50311 0 1 -3.50311 1
gene 3 2 6 -1.35228 0 2 -1.35228 1
gene 2 3 6 -1.87069 0 3 -1.87069 1
gene 1 4 6 -3.36275 0 4 -3.36275 1
gene 2 5 6 -1.61828 0 5 -1.61828 1
gene 2 1 7 1.83871 0 6 1.83871 1
gene 3 2 7 -1.24218 0 7 -1.24218 0
gene 2 3 7 -1.00973 0 8 -1.00973 1
gene 3 4 7 7.63319 0 9 7.63319 1
gene 1 5 7 -3.07299 0 10 -3.07299 1
gene 1 6 7 3.0377 0 38 3.0377 1
gene 3 2 21 -2.50954 0 48 -2.50954 1
gene 3 21 7 -0.0749245 0 49 -0.0749245 1
gene 2 6 21 -1.11036 0 252 -1.11036 1
gene 2 3 76 2.13814 0 259 2.13814 1
gene 2 76 6 0.0334054 0 260 0.0334054 1
gene 2 76 7 -0.367137 0 338 -0.367137 1
genomeend 9

/* Organism #10 Fitness: 8 Error: 0 */
genomestart 10
trait 1 0.075 0 0 0.0444466 0.0710627 0.748081 0.781751 0 
trait 2 0.848553 0 0 0 0 0 0 0 
trait 3 0.3 0 0 0 0 0 0 0 
node 1 3 1 3
node 2 1 1 1
node 3 3 1 1
node 4 2 1 1
node 5 3 1 1
node 6 1 0 2
node 7 2 0 2
node 21 1 0 0
node 76 1 0 0
gene 2 1 6 -5.74157 0 1 -5.74157 1
gene 3 2 6 0.907374 0 2 0.907374 1
gene 2 3 6 3.03612 0 3 3.03612 1
gene 1 4 6 -5.30982 0 4 -5.30982 1
gene 2 5 6 -4.06722 0 5 -4.06722 1
gene 2 1 7 1.51434 0 6 1.51434 1
gene 3 2 7 -0.81311 0 7 -0.81311 0
gene 2 3 7 2.2424 0 8 2.2424 1
gene 3 4 7 8 0 9 8 1
gene 1 5 7 -3.5537 0 10 -3.5537 1
gene 2 6 7 1.72935 0 38 1.72935 1
gene 3 2 21 0.591964 0 48 0.591964 1
gene 3 21 7 -1.89283 0 49 -1.89283 1
gene 2 6 21 1.34121 0 252 1.34121 1
gene 2 3 76 2.07428 0 259 2.07428 1
gene 2 76 6 0.441282 0 260 0.441282 1
gene 2 76 7 0.727999 0 338 0.727999 1
genomeend 10

/* Organism #11 Fitness: 88 Error: 0 */
genomestart 11
trait 1 0.075 0 0 0 0.0710627 0 0 0 
trait 2 0.848553 0 0 0 0 0 0 0 
trait 3 0.3 0 0 0 0 0 0 0 
node 1 3 1 3
node 2 1 1 1
node 3 3 1 1
node 4 2 1 1
node 5 3 1 1
node 6 1 0 2
node 7 2 0 2
node 21 1 0 0
node 76 1 0 0
gene 2 1 6 -6.61753 0 1 -6.61753 1
gene 3 2 6 1.51394 0 2 1.51394 1
gene 2 3 6 0.426303 0 3 0.426303 1
gene 1 4 6 -5.071 0 4 -5.071 1
gene 2 5 6 -2.91195 0 5 -2.91195 1
gene 2 1 7 4.43872 0 6 4.43872 1
gene 3 2 7 -3.73217 0 7 -3.73217 1
gene 2 3 7 -0.698911 0 8 -0.698911 1
gene 3 4 7 0.783926 0 9 0.783926 1
gene 1 5 7 -4.19364 0 10 -4.19364 1
gene 1 6 7 2.25591 0 38 2.25591 1
gene 3 2 21 -3.47553 0 48 -3.47553 1
gene 2 21 7 1.90476 0 49 1.90476 1
gene 2 6 21 1.81177 0 252 1.81177 1
gene 2 3 76 3.32978 0 259 3.32978 1
gene 2 76 6 -2.78009 0 260 -2.78009 1
gene 2 76 7 -1.75762 0 338 -1.75762 1
genomeend 11

/* Organism #12 Fitness: 91 Error: 0 */
genomestart 12
trait 1 0.075 0 0 0 0.0710627 0 0 0 
trait 2 0.848553 0 0 0 0 0 0 0 
trait 3 0.3 0 0 0 0 0 0 0 
node 1 3 1 3
node 2 1 1 1
node 3 3 1 1
node 4 2 1 1
node 5 3 1 1
node 6 1 0 2
node 7 2 0 2
node 21 1 0 0
node 76 1 0 0
gene 2 1 6 -5.11856 0 1 -5.11856 1
gene 3 2 6 -0.226984 0 2 -0.226984 1
gene 2 3 6 1.91332 0 3 1.91332 1
gene 1 4 6 -4.26553 0 4 -4.26553 1
gene 2 5 6 -1.46794 0 5 -1.46794 1
gene 2 1 7 2.30711 0 6 2.30711 1
gene 3 2 7 -2.91989 0 7 -2.91989 0
gene 1 3 7 -1.75746 0 8 -1.75746 1
gene 3 4 7 6.41692 0 9 6.41692 1
gene 1 5 7 -2.15763 0 10 -2.15763 1
gene 1 6 7 1.53969 0 38 1.53969 1
gene 3 2 21 -1.59244 0 48 -1.59244 1
gene 3 21 7 0.197955 0 49 0.197955 1
gene 2 6 21 -1.5161 0 252 -1.5161 1
gene 2 3 76 0.987472 0 259 0.987472 1
gene 2 76 6 -1.48217 0 260 -1.48217 1
gene 2 76 7 0.606956 0 338 0.606956 1
genomeend 12

/* Organism #13 Fitness: 90 Error: 0 */
genomestart 13
trait 1 0.075 0 0 0 0.0710627 0 0 0 
trait 2 0.848553 0 0 0 0 0 0 0 
trait 3 0.3 0 0 0 0 0 0 0 
node 1 3 1 3
node 2 1 1 1
node 3 3 1 1
node 4 2 1 1
node 5 3 1 1
node 6 1 0 2
node 7 2 0 2
node 21 1 0 0
node 76 1 0 0
gene 2 1 6 -5.65648 0 1 -5.65648 1
gene 3 2 6 -0.674826 0 2 -0.674826 1
gene 2 3 6 2.18588 0 3 2.18588 1
gene 1 4 6 -4.65976 0 4 -4.65976 1
gene 2 5 6 -1.16991 0 5 -1.16991 1
gene 2 1 7 2.67234 0 6 2.67234 1
gene 3 2 7 -3.10032 0 7 -3.10032 0
gene 2 3 7 -2.06908 0 8 -2.06908 1
gene 3 4 7 6.46838 0 9 6.46838 1
gene 1 5 7 -2.54227 0 10 -2.54227 1
gene 1 6 7 2.03662 0 38 2.03662 1
gene 3 2 21 -1.3801 0 48 -1.3801 1
gene 3 21 7 0.470835 0 49 0.470835 1
gene 2 6 21 -2.01717 0 252 -2.01717 1
gene 2 3 76 0.987472 0 259 0.987472 1
gene 2 76 6 -1.73802 0 260 -1.73802 1
gene 2 76 7 0.606956 0 338 0.606956 1
genomeend 13

/* Organism #14 Fitness: 48 Error: 0 */
genomestart 14
trait 1 0.075 0 0 0 0.0710627 0 0 0 
trait 2 0.848553 0 0 0 0 0 0 0 
trait 3 0.3 0 0 0 0 0 0 0 
node 1 3 1 3
node 2 1 1 1
node 3 3 1 1
node 4 2 1 1
node 5 3 1 1
node 6 1 0 2
node 7 2 0 2
node 21 1 0 0
node 76 1 0 0
gene 2 1 6 -4.57048 0 1 -4.57048 1
gene 3 2 6 0.637322 0 2 0.637322 1
gene 2 3 6 4.03524 0 3 4.03524 1
gene 1 4 6 -4.67287 0 4 -4.67287 1
gene 2 5 6 0.835303 0 5 0.835303 1
gene 2 1 7 4.06391 0 6 4.06391 1
gene 3 2 7 -2.93672 0 7 -2.93672 0
gene 2 3 7 -2.89843 0 8 -2.89843 1
gene 3 4 7 7.54225 0 9 7.54225 1
gene 1 5 7 -0.0785042 0 10 -0.0785042 1
gene 1 6 7 2.90206 0 38 2.90206 1
gene 3 2 21 -0.493065 0 48 -0.493065 1
gene 3 21 7 -1.49166 0 49 -1.49166 1
gene 2 6 21 -0.114108 0 252 -0.114108 1
gene 2 3 76 0.27497 0 259 0.27497 1
gene 2 76 6 -0.600847 0 260 -0.600847 1
gene 2 76 7 0.606956 0 338 0.606956 1
gene 2 3 21 1.88302 0 440 1.88302 1
genomeend 14

/* Organism #15 Fitness: 8 Error: 0 */
genomestart 15
trait 1 0.075 0 0 0 0.0710627 0 0 0 
trait 2 0.848553 0 0 0 0 0 0 0 
trait 3 0.3 0 0 0 0 0 0 0 
node 1 3 1 3
node 2 1 1 1
node 3 3 1 1
node 4 2 1 1
node 5 3 1 1
node 6 1 0 2
node 7 2 0 2
node 21 1 0 0
node 76 1 0 0
gene 2 1 6 -4.85471 0 1 -4.85471 1
gene 3 2 6 -0.75399 0 2 -0.75399 1
gene 2 3 6 3.64118 0 3 3.64118 1
gene 1 4 6 -3.73747 0 4 -3.73747 1
gene 2 5 6 0.137216 0 5 0.137216 1
gene 2 1 7 3.73473 0 6 3.73473 1
gene 3 2 7 1.24044 0 7 1.24044 0
gene 2 3 7 -1.44584 0 8 -1.44584 1
gene 3 4 7 4.14854 0 9 4.14854 1
gene 1 5 7 -3.79932 0 10 -3.79932 1
gene 1 6 7 -0.535288 0 38 -0.535288 1
gene 3 2 21 -3.70018 0 48 -3.70018 1
gene 3 21 7 2.16558 0 49 2.16558 1
gene 2 6 21 -2.68769 0 252 -2.68769 1
gene 2 3 76 -1.94655 0 259 -1.94655 1
gene 2 76 6 1.81504 0 260 1.81504 1
gene 2 76 7 -1.39897 0 338 -1.39897 1
genomeend 15

/* Organism #16 Fitness: 8 Error: 0 */
genomestart 16
trait 1 0.075 0 0 0 0.0710627 0 0 0 
trait 2 0.848553 0 0 0 0 0 0 0 
trait 3 0.3 0 0 0 0 0 0 0 
node 1 3 1 3
node 2 1 1 1
node 3 3 1 1
node 4 2 1 1
node 5 3 1 1
node 6 1 0 2
node 7 2 0 2
node 21 1 0 0
node 76 1 0 0
gene 2 1 6 -3.64774 0 1 -3.64774 1
gene 3 2 6 1.44002 0 2 1.44002 1
gene 2 3 6 2.60176 0 3 2.60176 1
gene 1 4 6 -2.87226 0 4 -2.87226 1
gene 2 5 6 0.66303 0 5 0.66303 1
gene 2 1 7 3.56405 0 6 3.56405 1
gene 3 2 7 -4.72881 0 7 -4.72881 0
gene 2 3 7 -1.22303 0 8 -1.22303 1
gene 3 4 7 6.4671 0 9 6.4671 1
gene 1 5 7 -2.53098 0 10 -2.53098 1
gene 1 6 7 0.316269 0 38 0.316269 1
gene 3 2 21 -0.0360514 0 48 -0.0360514 1
gene 3 21 7 -2.41774 0 49 -2.41774 1
gene 2 6 21 0.0739016 0 252 0.0739016 1
gene 2 3 76 -0.0519615 0 259 -0.0519615 1
gene 2 76 6 0.200127 0 260 0.200127 1
gene 2 76 7 -1.90387 0 338 -1.90387 1
genomeend 16

/* Species #19 : (Size 8) (AF 60.75) (Age 18)  */


/* Organism #17 Fitness: 103 Error: 0 */
genomestart 17
trait 1 0.05625 0.231176 0.0973678 0 0.053297 0.165864 0.0606927 0 
trait 2 0.2 0 0 0 0 0 0 0 
trait 3 0.3 0 0 0 0 0 0 0 
node 1 3 1 3
node 2 1 1 1
node 3 3 1 1
node 4 2 1 1
node 5 3 1 1
node 6 1 0 2
node 7 2 0 2
node 21 1 0 0
node 78 2 0 0
gene 2 1 6 -3.50036 0 1 -3.50036 1
gene 3 2 6 -0.610792 0 2 -0.610792 1
gene 2 3 6 0.308817 0 3 0.308817 1
gene 1 4 6 -0.894967 0 4 -0.894967 1
gene 2 5 6 0.405109 0 5 0.405109 1
gene 2 1 7 2.0909 0 6 2.0909 1
gene 3 2 7 7.04944 0 7 7.04944 0
gene 2 3 7 -7.49992 0 8 -7.49992 1
gene 3 4 7 6.32514 0 9 6.32514 1
gene 2 5 7 -1.75716 0 10 -1.75716 1
gene 1 6 7 1.62365 0 38 1.62365 1
gene 3 2 21 3.42064 0 48 3.42064 1
gene 2 21 7 -3.9275 0 49 -3.9275 0
gene 1 21 78 -2.05718 0 263 -2.05718 1
gene 3 78 7 -2.943 0 264 -2.943 1
genomeend 17

/* Organism #18 Fitness: 30 Error: 0 */
genomestart 18
trait 1 0.05625 0.231176 0.0973678 0 0.053297 0.165864 0.0606927 0 
trait 2 0.2 0 0 0 0 0 0 0 
trait 3 0.3 0 0 0 0 0 0 0 
node 1 3 1 3
node 2 1 1 1
node 3 3 1 1
node 4 2 1 1
node 5 2 1 1
node 6 1 0 2
node 7 2 0 2
node 21 1 0 0
node 78 2 0 0
gene 2 1 6 -3.50036 0 1 -3.50036 1
gene 3 2 6 -0.448367 0 2 -0.448367 1
gene 2 3 6 0.308817 0 3 0.308817 1
gene 1 4 6 -2.07921 0 4 -2.07921 1
gene 2 5 6 0.997828 0 5 0.997828 1
gene 2 1 7 2.68328 0 6 2.68328 1
gene 3 2 7 7.62532 0 7 7.62532 0
gene 2 3 7 -6.01056 0 8 -6.01056 1
gene 3 4 7 0.335754 0 9 0.335754 1
gene 2 5 7 0.342059 0 10 0.342059 1
gene 1 6 7 4.0873 0 38 4.0873 1
gene 3 2 21 3.32909 0 48 3.32909 1
gene 2 21 7 -2.12367 0 49 -2.12367 1
gene 1 21 78 -3.4769 0 263 -3.4769 1
gene 3 78 7 -4.36095 0 264 -4.36095 1
genomeend 18

/* Organism #19 Fitness: 74 Error: 0 */
genomestart 19
trait 1 0.05625 0.231176 0.0973678 0 0.053297 0.165864 0.0606927 0 
trait 2 0.2 0 0 0 0 0 0 0 
trait 3 0.3 0 0 0 0 0 0 0 
node 1 3 1 3
node 2 1 1 1
node 3 3 1 1
node 4 2 1 1
node 5 3 1 1
node 6 1 0 2
node 7 2 0 2
node 21 1 0 0
node 78 2 0 0
gene 2 1 6 -4.03432 0 1 -4.03432 1
gene 3 2 6 -0.610792 0 2 -0.610792 1
gene 2 3 6 -1.73506 0 3 -1.73506 1
gene 1 4 6 0.169456 0 4 0.169456 1
gene 2 5 6 1.10655 0 5 1.10655 1
gene 2 1 7 1.32457 0 6 1.32457 1
gene 3 2 7 -0.772328 0 7 -0.772328 0
gene 2 3 7 -5.48611 0 8 -5.48611 1
gene 3 4 7 5.82494 0 9 5.82494 1
gene 2 5 7 -1.96931 0 10 -1.96931 1
gene 1 6 7 4.12118 0 38 4.12118 1
gene 3 2 21 5.75173 0 48 5.75173 1
gene 2 21 7 -6.34881 0 49 -6.34881 0
gene 1 21 78 -4.11307 0 263 -4.11307 1
gene 3 78 7 -4.53201 0 264 -4.53201 1
genomeend 19

/* Organism #20 Fitness: 76 Error: 0 */
genomestart 20
trait 1 0.05625 0.231176 0.0973678 0 0.053297 0.165864 0.0606927 0 
trait 2 0.2 0 0 0 0 0 0 0 
trait 3 0.3 0 0 0 0 0 0 0 
node 1 3 1 3
node 2 1 1 1
node 3 3 1 1
node 4 2 1 1
node 5 3 1 1
node 6 1 0 2
node 7 2 0 2
node 21 1 0 0
node 78 2 0 0
gene 2 1 6 -5.05656 0 1 -5.05656 1
gene 3 2 6 0.900286 0 2 0.900286 1
gene 2 3 6 2.51885 0 3 2.51885 1
gene 1 4 6 -3.61533 0 4 -3.61533 1
gene 2 5 6 1.38193 0 5 1.38193 1
gene 2 1 7 0.679071 0 6 0.679071 1
gene 3 2 7 8 0 7 8 0
gene 2 3 7 -8 0 8 -8 1
gene 3 4 7 7.3494 0 9 7.3494 1
gene 2 5 7 -1.31489 0 10 -1.31489 1
gene 1 6 7 3.52399 0 38 3.52399 1
gene 3 2 21 -0.836613 0 48 -0.836613 1
gene 2 21 7 -1.96244 0 49 -1.96244 0
gene 1 21 78 -2.05718 0 263 -2.05718 1
gene 3 78 7 -3.54217 0 264 -3.54217 1
genomeend 20

/* Organism #21 Fitness: 103 Error: 0 */
genomestart 21
trait 1 0.05625 0.231176 0.0973678 0 0.053297 0.165864 0.0606927 0 
trait 2 0.2 0 0 0 0 0 0 0 
trait 3 0.3 0 0 0 0 0 0 0 
node 1 3 1 3
node 2 1 1 1
node 3 3 1 1
node 4 2 1 1
node 5 3 1 1
node 6 1 0 2
node 7 2 0 2
node 21 1 0 0
node 78 2 0 0
gene 2 1 6 -2.86169 0 1 -2.86169 1
gene 3 2 6 -1.51828 0 2 -1.51828 1
gene 2 3 6 -0.22459 0 3 -0.22459 1
gene 1 4 6 -0.811822 0 4 -0.811822 1
gene 2 5 6 -0.8089 0 5 -0.8089 1
gene 2 1 7 2.47791 0 6 2.47791 1
gene 3 2 7 5.76119 0 7 5.76119 0
gene 2 3 7 -8 0 8 -8 1
gene 3 4 7 8 0 9 8 1
gene 2 5 7 -3.22114 0 10 -3.22114 1
gene 1 6 7 3.29155 0 38 3.29155 1
gene 3 2 21 1.99465 0 48 1.99465 1
gene 2 21 7 -4.88273 0 49 -4.88273 0
gene 1 21 78 -1.55254 0 263 -1.55254 1
gene 3 78 7 -2.943 0 264 -2.943 1
genomeend 21

/* Organism #22 Fitness: 12 Error: 0 */
genomestart 22
trait 1 0.05625 0.231176 0.0973678 0 0.053297 0.165864 0.0606927 0 
trait 2 0.2 0 0 0 0 0 0 0 
trait 3 0.3 0 0 0 0 0 0 0 
node 1 3 1 3
node 2 1 1 1
node 3 3 1 1
node 4 2 1 1
node 5 3 1 1
node 6 1 0 2
node 7 2 0 2
node 21 1 0 0
node 78 2 0 0
gene 2 1 6 -4.27846 0 1 -4.27846 1
gene 3 2 6 0.254469 0 2 0.254469 1
gene 2 3 6 1.41383 0 3 1.41383 1
gene 1 4 6 -0.0303619 0 4 -0.0303619 1
gene 2 5 6 1.13322 0 5 1.13322 1
gene 2 1 7 1.77008 0 6 1.77008 1
gene 3 2 7 -0.340221 0 7 -0.340221 0
gene 2 3 7 -7.15251 0 8 -7.15251 1
gene 3 4 7 6.83727 0 9 6.83727 1
gene 2 5 7 0.31971 0 10 0.31971 1
gene 1 6 7 0.228229 0 38 0.228229 1
gene 3 2 21 1.61417 0 48 1.61417 1
gene 2 21 7 -4.31039 0 49 -4.31039 1
gene 1 21 78 -1.95061 0 263 -1.95061 1
gene 3 78 7 -4.60704 0 264 -4.60704 1
genomeend 22

/* Organism #23 Fitness: 78 Error: 0 */
genomestart 23
trait 1 0.05625 0.231176 0.0973678 0 0.053297 0.165864 0.0606927 0 
trait 2 0.2 0 0 0 0 0 0 0 
trait 3 0.3 0 0 0 0 0 0 0 
node 1 3 1 3
node 2 1 1 1
node 3 3 1 1
node 4 2 1 1
node 5 3 1 1
node 6 1 0 2
node 7 2 0 2
node 21 3 0 0
node 78 2 0 0
gene 2 1 6 -4.02703 0 1 -4.02703 1
gene 3 2 6 2.4254 0 2 2.4254 1
gene 2 3 6 4.36624 0 3 4.36624 1
gene 1 4 6 -1.45472 0 4 -1.45472 1
gene 2 5 6 -1.11254 0 5 -1.11254 1
gene 2 1 7 1.69451 0 6 1.69451 1
gene 3 2 7 7.88689 0 7 7.88689 1
gene 2 3 7 -7.79372 0 8 -7.79372 1
gene 3 4 7 5.00214 0 9 5.00214 1
gene 2 5 7 -3.61663 0 10 -3.61663 1
gene 1 6 7 1.29143 0 38 1.29143 1
gene 3 2 21 0.760043 0 48 0.760043 1
gene 2 21 7 -3.24211 0 49 -3.24211 0
gene 1 21 78 -4.17816 0 263 -4.17816 1
gene 3 78 7 -3.54217 0 264 -3.54217 1
genomeend 23

/* Organism #24 Fitness: 10 Error: 0 */
genomestart 24
trait 1 0.05625 0.231176 0.0973678 0 0.053297 0.165864 0.0606927 0 
trait 2 0.2 0 0 0 0 0 0 0 
trait 3 0.3 0 0 0 0 0 0 0 
node 1 3 1 3
node 2 1 1 1
node 3 3 1 1
node 4 2 1 1
node 5 3 1 1
node 6 1 0 2
node 7 2 0 2
node 21 1 0 0
node 78 2 0 0
gene 2 1 6 0.24071 0 1 0.24071 1
gene 3 2 6 -1.10518 0 2 -1.10518 1
gene 2 3 6 1.46662 0 3 1.46662 1
gene 1 4 6 -5.00871 0 4 -5.00871 1
gene 2 5 6 3.10917 0 5 3.10917 1
gene 2 1 7 1.03567 0 6 1.03567 1
gene 3 2 7 6.9206 0 7 6.9206 0
gene 2 3 7 -2.04457 0 8 -2.04457 1
gene 3 4 7 6.90503 0 9 6.90503 1
gene 2 5 7 -1.63492 0 10 -1.63492 1
gene 1 6 7 5.98543 0 38 5.98543 1
gene 3 2 21 0.324 0 48 0.324 1
gene 2 21 7 -2.28123 0 49 -2.28123 0
gene 1 21 78 1.16933 0 263 1.16933 1
gene 3 78 7 -4.92143 0 264 -4.92143 1
genomeend 24

/* Species #20 : (Size 11) (AF 50.8182) (Age 17)  */


/* Organism #25 Fitness: 115 Error: 0 */
genomestart 25
trait 1 0.075 0 0 0 0.0710627 0 0 0 
trait 2 0.2 0 0 0 0 0 0 0 
trait 3 0.3 0 0 0 0 0 0 0 
node 1 3 1 3
node 2 1 1 1
node 3 3 1 1
node 4 2 1 1
node 5 3 1 1
node 6 1 0 2
node 7 2 0 2
node 21 1 0 0
gene 2 1 6 -5.18526 0 1 -5.18526 1
gene 3 2 6 -0.577969 0 2 -0.577969 1
gene 2 3 6 0.103028 0 3 0.103028 1
gene 1 4 6 -6.43812 0 4 -6.43812 1
gene 2 5 6 0.907492 0 5 0.907492 1
gene 2 1 7 1.87901 0 6 1.87901 1
gene 3 2 7 2.76593 0 7 2.76593 0
gene 2 3 7 -2.49852 0 8 -2.49852 1
gene 3 4 7 6.57028 0 9 6.57028 1
gene 2 5 7 -2.04963 0 10 -2.04963 1
gene 1 6 7 -1.83874 0 38 -1.83874 1
gene 3 2 21 -2.23918 0 48 -2.23918 1
gene 3 21 7 0.193381 0 49 0.193381 1
gene 1 5 21 2.06578 0 249 2.06578 1
gene 1 3 21 0.431249 0 268 0.431249 1
genomeend 25

/* Organism #26 Fitness: 11 Error: 0 */
genomestart 26
trait 1 0.075 0 0 0 0.0710627 0 0 0 
trait 2 0.2 0 0 0 0 0 0 0 
trait 3 0.3 0 0 0 0 0 0 0 
node 1 3 1 3
node 2 1 1 1
node 3 3 1 1
node 4 2 1 1
node 5 3 1 1
node 6 1 0 2
node 7 2 0 2
node 21 1 0 0
gene 2 1 6 1.99355 0 1 1.99355 1
gene 3 2 6 -1.79884 0 2 -1.79884 1
gene 2 3 6 -1.94845 0 3 -1.94845 1
gene 1 4 6 -4.76656 0 4 -4.76656 1
gene 2 5 6 0.907492 0 5 0.907492 1
gene 2 1 7 1.61767 0 6 1.61767 1
gene 3 2 7 -2.20298 0 7 -2.20298 0
gene 2 3 7 -0.108536 0 8 -0.108536 1
gene 3 4 7 0.434216 0 9 0.434216 1
gene 2 5 7 0.930596 0 10 0.930596 1
gene 1 6 7 -3.27706 0 38 -3.27706 1
gene 3 2 21 -3.2478 0 48 -3.2478 1
gene 3 21 7 1.2321 0 49 1.2321 1
gene 1 5 21 1.87602 0 249 1.87602 1
gene 1 3 21 -0.852358 0 268 -0.852358 1
genomeend 26

/* Organism #27 Fitness: 78 Error: 0 */
genomestart 27
trait 1 0.075 0 0 0 0.0710627 0 0 0 
trait 2 0.2 0 0 0 0 0 0 0 
trait 3 0.3 0 0 0 0 0 0 0 
node 1 3 1 3
node 2 1 1 1
node 3 3 1 1
node 4 2 1 1
node 5 3 1 1
node 6 1 0 2
node 7 2 0 2
node 21 1 0 0
gene 2 1 6 -6.62451 0 1 -6.62451 1
gene 3 2 6 0.267091 0 2 0.267091 1
gene 2 3 6 1.7792 0 3 1.7792 1
gene 1 4 6 -4.12307 0 4 -4.12307 1
gene 2 5 6 2.15031 0 5 2.15031 1
gene 2 1 7 4.19693 0 6 4.19693 1
gene 3 2 7 0.440496 0 7 0.440496 0
gene 2 3 7 -4.87712 0 8 -4.87712 1
gene 3 4 7 7.41005 0 9 7.41005 1
gene 2 5 7 -1.94387 0 10 -1.94387 1
gene 1 6 7 0.300527 0 38 0.300527 1
gene 3 2 21 -0.327605 0 48 -0.327605 1
gene 3 21 7 0.493497 0 49 0.493497 1
gene 1 5 21 2.06578 0 249 2.06578 1
gene 1 3 21 1.89272 0 268 1.89272 1
genomeend 27

/* Organism #28 Fitness: 4 Error: 0 */
genomestart 28
trait 1 0.075 0 0 0 0.0710627 0 0 0 
trait 2 0.2 0 0 0 0 0 0 0 
trait 3 0.3 0 0 0 0 0 0 0 
node 1 3 1 3
node 2 1 1 1
node 3 3 1 1
node 4 2 1 1
node 5 3 1 1
node 6 1 0 2
node 7 2 0 2
node 21 1 0 0
gene 2 1 6 1.69085 0 1 1.69085 1
gene 3 2 6 -0.996334 0 2 -0.996334 1
gene 2 3 6 2.59822 0 3 2.59822 1
gene 1 4 6 -8 0 4 -8 1
gene 2 5 6 0.599491 0 5 0.599491 1
gene 2 1 7 1.87901 0 6 1.87901 1
gene 3 2 7 0.684143 0 7 0.684143 0
gene 2 3 7 -0.461894 0 8 -0.461894 1
gene 3 4 7 6.57028 0 9 6.57028 1
gene 2 5 7 -3.05288 0 10 -3.05288 1
gene 1 6 7 -4.0823 0 38 -4.0823 1
gene 3 2 21 -2.23918 0 48 -2.23918 1
gene 3 21 7 -0.333231 0 49 -0.333231 1
gene 1 5 21 0.605244 0 249 0.605244 1
gene 1 3 21 -0.258289 0 268 -0.258289 1
genomeend 28

/* Organism #29 Fitness: 77 Error: 0 */
genomestart 29
trait 1 0.075 0.243033 0 0 0 0 0 0 
trait 2 0.2 0 0 0 0 0 0 0 
trait 3 0.3 0 0 0 0 0 0 0 
node 1 3 1 3
node 2 1 1 1
node 3 3 1 1
node 4 2 1 1
node 5 3 1 1
node 6 1 0 2
node 7 2 0 2
node 21 1 0 0
gene 2 1 6 -6.73561 0 1 -6.73561 1
gene 3 2 6 -2.8416 0 2 -2.8416 1
gene 2 3 6 2.40784 0 3 2.40784 1
gene 1 4 6 -7.36211 0 4 -7.36211 1
gene 2 5 6 -0.610842 0 5 -0.610842 1
gene 2 1 7 1.87901 0 6 1.87901 1
gene 3 2 7 1.58875 0 7 1.58875 0
gene 2 3 7 -3.7244 0 8 -3.7244 1
gene 3 4 7 7.10558 0 9 7.10558 1
gene 2 5 7 -2.04963 0 10 -2.04963 1
gene 1 6 7 -3.12612 0 38 -3.12612 1
gene 3 2 21 -2.51375 0 48 -2.51375 1
gene 3 21 7 0.353953 0 49 0.353953 1
gene 1 5 21 2.06578 0 249 2.06578 1
gene 1 3 21 2.86148 0 268 2.86148 1
genomeend 29

/* Organism #30 Fitness: 33 Error: 0 */
genomestart 30
trait 1 0.075 0 0 0 0.0710627 0 0 0 
trait 2 0.2 0 0 0 0 0 0 0 
trait 3 0.3 0 0 0 0 0 0 0 
node 1 3 1 3
node 2 1 1 1
node 3 3 1 1
node 4 2 1 1
node 5 3 1 1
node 6 1 0 2
node 7 2 0 2
node 21 1 0 0
gene 2 1 6 -5.94288 0 1 -5.94288 1
gene 3 2 6 -1.41264 0 2 -1.41264 1
gene 2 3 6 -2.36916 0 3 -2.36916 1
gene 1 4 6 -4.82797 0 4 -4.82797 1
gene 2 5 6 -0.147538 0 5 -0.147538 1
gene 2 1 7 1.94956 0 6 1.94956 1
gene 3 2 7 0.788067 0 7 0.788067 0
gene 2 3 7 -2.73331 0 8 -2.73331 1
gene 3 4 7 8 0 9 8 1
gene 2 5 7 -2.72685 0 10 -2.72685 1
gene 1 6 7 0.261071 0 38 0.261071 1
gene 3 2 21 -3.86386 0 48 -3.86386 1
gene 3 21 7 0.845159 0 49 0.845159 1
gene 1 5 21 0.239637 0 249 0.239637 1
gene 1 3 21 0.369248 0 268 0.369248 1
genomeend 30

/* Organism #31 Fitness: 79 Error: 0 */
genomestart 31
trait 1 0.075 0 0 0 0.0710627 0 0 0 
trait 2 0.2 0 0 0 0 0 0 0 
trait 3 0.3 0 0 0 0 0 0 0 
node 1 3 1 3
node 2 1 1 1
node 3 3 1 1
node 4 2 1 1
node 5 3 1 1
node 6 1 0 2
node 7 2 0 2
node 21 1 0 0
gene 2 1 6 -7.44705 0 1 -7.44705 1
gene 3 2 6 1.57777 0 2 1.57777 1
gene 2 3 6 -2.35021 0 3 -2.35021 1
gene 1 4 6 -6.31739 0 4 -6.31739 1
gene 2 5 6 1.38146 0 5 1.38146 1
gene 2 1 7 4.02029 0 6 4.02029 1
gene 3 2 7 0.243078 0 7 0.243078 0
gene 2 3 7 -2.49852 0 8 -2.49852 1
gene 3 4 7 5.49241 0 9 5.49241 1
gene 2 5 7 -3.37979 0 10 -3.37979 1
gene 1 6 7 -2.17766 0 38 -2.17766 1
gene 3 2 21 1.48037 0 48 1.48037 1
gene 3 21 7 -0.23721 0 49 -0.23721 1
gene 1 5 21 4.50921 0 249 4.50921 1
gene 1 3 21 -0.975818 0 268 -0.975818 1
genomeend 31

/* Organism #32 Fitness: 5 Error: 0 */
genomestart 32
trait 1 0.075 0 0 0 0.0710627 0 0 0 
trait 2 0.2 0 0 0 0 0 0 0 
trait 3 0.3 0 0 0 0 0 0 0 
node 1 3 1 3
node 2 1 1 1
node 3 3 1 1
node 4 2 1 1
node 5 3 1 1
node 6 1 0 2
node 7 2 0 2
node 21 1 0 0
gene 2 1 6 1.74497 0 1 1.74497 1
gene 3 2 6 -1.94495 0 2 -1.94495 1
gene 2 3 6 0.199654 0 3 0.199654 1
gene 1 4 6 -6.86599 0 4 -6.86599 1
gene 2 5 6 -0.226351 0 5 -0.226351 1
gene 2 1 7 1.25251 0 6 1.25251 1
gene 3 2 7 2.90449 0 7 2.90449 0
gene 2 3 7 2.04977 0 8 2.04977 1
gene 3 4 7 7.87465 0 9 7.87465 1
gene 2 5 7 -2.04963 0 10 -2.04963 1
gene 1 6 7 -0.273726 0 38 -0.273726 1
gene 3 2 21 0.318795 0 48 0.318795 1
gene 3 21 7 1.17806 0 49 1.17806 1
gene 1 5 21 3.3759 0 249 3.3759 1
gene 1 3 21 -0.679413 0 268 -0.679413 1
genomeend 32

/* Organism #33 Fitness: 74 Error: 0 */
genomestart 33
trait 1 0.075 0 0 0 0.0710627 0 0 0.0405815 
trait 2 0.2 0 0 0 0 0 0 0 
trait 3 0.3 0 0 0 0 0 0 0 
node 1 3 1 3
node 2 1 1 1
node 3 3 1 1
node 4 2 1 1
node 5 3 1 1
node 6 1 0 2
node 7 2 0 2
node 21 1 0 0
gene 2 1 6 -7.51312 0 1 -7.51312 1
gene 3 2 6 0.564996 0 2 0.564996 1
gene 2 3 6 2.36927 0 3 2.36927 1
gene 2 4 6 -4.59128 0 4 -4.59128 1
gene 2 5 6 2.21673 0 5 2.21673 1
gene 2 1 7 3.73543 0 6 3.73543 1
gene 3 2 7 1.76178 0 7 1.76178 0
gene 2 3 7 -0.201477 0 8 -0.201477 1
gene 3 4 7 6.57028 0 9 6.57028 1
gene 2 5 7 -2.04963 0 10 -2.04963 1
gene 1 6 7 -2.68224 0 38 -2.68224 1
gene 3 2 21 -3.88961 0 48 -3.88961 1
gene 3 21 7 0.193381 0 49 0.193381 1
gene 1 5 21 0.236882 0 249 0.236882 1
gene 1 3 21 0.749821 0 268 0.749821 1
genomeend 33

/* Organism #34 Fitness: 8 Error: 0 */
genomestart 34
trait 1 0.075 0 0 0 0.0710627 0 0 0 
trait 2 0.2 0 0 0 0 0 0 0 
trait 3 0.3 0 0 0 0 0 0 0 
node 1 3 1 3
node 2 1 1 1
node 3 3 1 1
node 4 2 1 1
node 5 3 1 1
node 6 1 0 2
node 7 2 0 2
node 21 1 0 0
gene 2 1 6 -3.59995 0 1 -3.59995 1
gene 3 2 6 -1.3575 0 2 -1.3575 1
gene 2 3 6 2.42043 0 3 2.42043 1
gene 1 4 6 1.71093 0 4 1.71093 1
gene 2 5 6 -0.611484 0 5 -0.611484 1
gene 2 1 7 3.30102 0 6 3.30102 1
gene 3 2 7 2.04086 0 7 2.04086 0
gene 2 3 7 -0.145352 0 8 -0.145352 1
gene 3 4 7 6.13736 0 9 6.13736 1
gene 2 5 7 -1.13381 0 10 -1.13381 1
gene 1 6 7 -1.83874 0 38 -1.83874 1
gene 3 2 21 -1.81029 0 48 -1.81029 1
gene 3 21 7 -0.696023 0 49 -0.696023 1
gene 1 5 21 0.920181 0 249 0.920181 1
gene 1 3 21 -1.94482 0 268 -1.94482 1
genomeend 34

/* Organism #35 Fitness: 75 Error: 0 */
genomestart 35
trait 1 0.075 0 0 0 0.0710627 0 0 0 
trait 2 0.2 0 0 0 0 0 0 0 
trait 3 0.3 0 0 0 0 0 0 0 
node 1 3 1 3
node 2 1 1 1
node 3 3 1 1
node 4 2 1 1
node 5 3 1 1
node 6 1 0 2
node 7 2 0 2
node 21 1 0 0
gene 2 1 6 -4.06271 0 1 -4.06271 1
gene 3 2 6 1.0949 0 2 1.0949 1
gene 2 3 6 1.08047 0 3 1.08047 1
gene 1 4 6 -8 0 4 -8 1
gene 2 5 6 1.57339 0 5 1.57339 1
gene 2 1 7 4.23024 0 6 4.23024 1
gene 3 2 7 4.49222 0 7 4.49222 0
gene 2 3 7 -3.19753 0 8 -3.19753 1
gene 3 4 7 5.73531 0 9 5.73531 1
gene 2 5 7 -1.46913 0 10 -1.46913 1
gene 1 6 7 -0.12164 0 38 -0.12164 1
gene 3 2 21 0.0597696 0 48 0.0597696 1
gene 3 21 7 -2.11966 0 49 -2.11966 1
gene 1 5 21 2.06578 0 249 2.06578 1
gene 1 3 21 2.81203 0 268 2.81203 1
genomeend 35

/* Species #21 : (Size 9) (AF 85.4444) (Age 15)  */


/* Organism #36 Fitness: 172 Error: 0 */
genomestart 36
trait 1 0.1 0 0 0 0 0 0 0 
trait 2 0.6 0 0.216946 0 0.135236 0 0 0.222124 
trait 3 0.3 0 0 0 0 0 0 0 
node 1 1 1 3
node 2 1 1 1
node 3 2 1 1
node 4 2 1 1
node 5 2 1 1
node 6 3 0 2
node 7 2 0 2
node 11 1 0 0
gene 2 1 6 -1.13675 0 1 -1.13675 1
gene 1 2 6 -0.448326 0 2 -0.448326 1
gene 3 3 6 -2.62016 0 3 -2.62016 1
gene 3 4 6 -0.374573 0 4 -0.374573 1
gene 3 5 6 -1.09758 0 5 -1.09758 0
gene 2 1 7 0.211117 0 6 0.211117 1
gene 3 2 7 -0.00742401 0 7 -0.00742401 1
gene 2 3 7 -0.376846 0 8 -0.376846 1
gene 3 4 7 1.07653 0 9 1.07653 1
gene 1 5 7 -4.63408 0 10 -4.63408 1
gene 3 5 11 -0.20708 0 21 -0.20708 1
gene 3 11 6 -4.31793 0 22 -4.31793 1
gene 3 7 11 0.458802 0 36 0.458802 1
gene 3 2 11 1.04593 0 244 1.04593 1
gene 1 4 11 -2.49817 0 287 -2.49817 1
gene 1 3 11 0.15311 0 391 0.15311 1
genomeend 36

/* Organism #37 Fitness: 36 Error: 0 */
genomestart 37
trait 1 0.1 0 0 0 0 0 0 0 
trait 2 0.6 0 0.216946 0 0.135236 0 0 0.222124 
trait 3 0.3 0 0 0 0 0 0 0 
node 1 1 1 3
node 2 1 1 1
node 3 3 1 1
node 4 2 1 1
node 5 2 1 1
node 6 3 0 2
node 7 2 0 2
node 11 1 0 0
gene 2 1 6 -1.11291 0 1 -1.11291 1
gene 1 2 6 3.91858 0 2 3.91858 1
gene 3 3 6 -3.30955 0 3 -3.30955 1
gene 3 4 6 -1.31956 0 4 -1.31956 1
gene 3 5 6 -1.26248 0 5 -1.26248 0
gene 2 1 7 3.13048 0 6 3.13048 1
gene 3 2 7 -0.599069 0 7 -0.599069 1
gene 2 3 7 0.716192 0 8 0.716192 1
gene 3 4 7 1.71525 0 9 1.71525 1
gene 1 5 7 -2.33863 0 10 -2.33863 1
gene 3 5 11 -0.0362713 0 21 -0.0362713 1
gene 3 11 6 -0.776732 0 22 -0.776732 1
gene 3 7 11 3.5489 0 36 3.5489 1
gene 3 2 11 5.18387 0 244 5.18387 1
gene 1 4 11 -3.23529 0 287 -3.23529 1
gene 1 3 11 2.15772 0 391 2.15772 1
genomeend 37

/* Organism #38 Fitness: 72 Error: 0 */
genomestart 38
trait 1 0.1 0 0 0 0 0 0 0 
trait 2 0.6 0 0.216946 0 0.135236 0 0 0.222124 
trait 3 0.3 0 0 0 0 0 0 0 
node 1 1 1 3
node 2 1 1 1
node 3 2 1 1
node 4 2 1 1
node 5 2 1 1
node 6 3 0 2
node 7 2 0 2
node 11 1 0 0
gene 2 1 6 -3.33207 0 1 -3.33207 1
gene 1 2 6 -0.119778 0 2 -0.119778 1
gene 3 3 6 -0.534329 0 3 -0.534329 1
gene 3 4 6 -1.07091 0 4 -1.07091 1
gene 3 5 6 1.32343 0 5 1.32343 0
gene 2 1 7 2.44566 0 6 2.44566 1
gene 3 2 7 0.411463 0 7 0.411463 1
gene 2 3 7 -0.247624 0 8 -0.247624 1
gene 3 4 7 -0.535402 0 9 -0.535402 1
gene 1 5 7 -4.63408 0 10 -4.63408 1
gene 3 5 11 1.51621 0 21 1.51621 1
gene 3 11 6 -4.04441 0 22 -4.04441 1
gene 3 7 11 2.68672 0 36 2.68672 1
gene 3 2 11 1.90343 0 244 1.90343 1
gene 1 4 11 2.12995 0 287 2.12995 1
gene 1 3 11 -1.4631 0 391 -1.4631 1
genomeend 38

/* Organism #39 Fitness: 66 Error: 0 */
genomestart 39
trait 1 0.1 0 0 0 0 0 0 0 
trait 2 0.6 0 0.216946 0 0.135236 0 0 0.222124 
trait 3 0.3 0 0 0 0 0 0 0 
node 1 1 1 3
node 2 1 1 1
node 3 2 1 1
node 4 2 1 1
node 5 2 1 1
node 6 3 0 2
node 7 2 0 2
node 11 1 0 0
gene 2 1 6 -1.13675 0 1 -1.13675 1
gene 1 2 6 1.65039 0 2 1.65039 1
gene 3 3 6 -2.62016 0 3 -2.62016 1
gene 3 4 6 -2.74702 0 4 -2.74702 1
gene 3 5 6 -1.24014 0 5 -1.24014 0
gene 2 1 7 2.60609 0 6 2.60609 1
gene 3 2 7 -0.00742401 0 7 -0.00742401 1
gene 2 3 7 -0.469968 0 8 -0.469968 1
gene 3 4 7 1.07653 0 9 1.07653 1
gene 1 5 7 -0.676077 0 10 -0.676077 1
gene 3 5 11 -0.20708 0 21 -0.20708 1
gene 3 11 6 -4.31793 0 22 -4.31793 1
gene 3 7 11 0.458802 0 36 0.458802 1
gene 3 2 11 2.7473 0 244 2.7473 1
gene 1 4 11 -3.23529 0 287 -3.23529 1
gene 1 3 11 2.15772 0 391 2.15772 1
gene 1 7 6 0.0109615 0 451 0.0109615 1
genomeend 39

/* Organism #40 Fitness: 72 Error: 0 */
genomestart 40
trait 1 0.1 0 0 0 0 0 0 0 
trait 2 0.6 0 0.216946 0 0.135236 0 0 0.222124 
trait 3 0.3 0 0 0 0 0 0 0 
node 1 1 1 3
node 2 1 1 1
node 3 3 1 1
node 4 2 1 1
node 5 2 1 1
node 6 3 0 2
node 7 2 0 2
node 11 1 0 0
gene 2 1 6 -1.67833 0 1 -1.67833 1
gene 1 2 6 1.40878 0 2 1.40878 1
gene 3 3 6 -1.49014 0 3 -1.49014 1
gene 3 4 6 -4.17764 0 4 -4.17764 1
gene 3 5 6 -0.757536 0 5 -0.757536 0
gene 2 1 7 4.00731 0 6 4.00731 1
gene 3 2 7 -2.6434 0 7 -2.6434 1
gene 2 3 7 1.30421 0 8 1.30421 1
gene 3 4 7 1.51219 0 9 1.51219 1
gene 1 5 7 -1.65047 0 10 -1.65047 1
gene 3 5 11 1.85817 0 21 1.85817 1
gene 3 11 6 -0.179457 0 22 -0.179457 1
gene 3 7 11 -0.633807 0 36 -0.633807 1
gene 3 2 11 2.7473 0 244 2.7473 1
gene 1 4 11 -3.23529 0 287 -3.23529 1
gene 1 3 11 2.15772 0 391 2.15772 1
genomeend 40

/* Organism #41 Fitness: 172 Error: 0 */
genomestart 41
trait 1 0.1 0 0 0 0 0 0 0 
trait 2 0.6 0 0.216946 0 0.135236 0 0 0.222124 
trait 3 0.3 0 0 0 0 0 0 0 
node 1 1 1 3
node 2 1 1 1
node 3 2 1 1
node 4 2 1 1
node 5 2 1 1
node 6 3 0 2
node 7 2 0 2
node 11 1 0 0
gene 2 1 6 -1.13675 0 1 -1.13675 1
gene 1 2 6 -0.448326 0 2 -0.448326 1
gene 3 3 6 -2.62016 0 3 -2.62016 1
gene 3 4 6 -0.374573 0 4 -0.374573 1
gene 3 5 6 -1.09758 0 5 -1.09758 0
gene 2 1 7 0.211117 0 6 0.211117 1
gene 3 2 7 -0.00742401 0 7 -0.00742401 1
gene 2 3 7 -0.376846 0 8 -0.376846 1
gene 3 4 7 1.07653 0 9 1.07653 1
gene 1 5 7 -4.63408 0 10 -4.63408 1
gene 3 5 11 -0.20708 0 21 -0.20708 1
gene 3 11 6 -4.31793 0 22 -4.31793 1
gene 3 7 11 0.458802 0 36 0.458802 1
gene 3 2 11 1.04593 0 244 1.04593 1
gene 1 4 11 -2.49817 0 287 -2.49817 1
gene 1 3 11 0.15311 0 391 0.15311 1
genomeend 41

/* Organism #42 Fitness: 29 Error: 0 */
genomestart 42
trait 1 0.1 0 0 0 0 0 0 0 
trait 2 0.6 0 0.216946 0 0.135236 0 0 0.222124 
trait 3 0.3 0 0 0 0 0 0 0 
node 1 1 1 3
node 2 1 1 1
node 3 3 1 1
node 4 2 1 1
node 5 2 1 1
node 6 3 0 2
node 7 2 0 2
node 11 1 0 0
gene 2 1 6 -2.73942 0 1 -2.73942 1
gene 1 2 6 1.72974 0 2 1.72974 1
gene 3 3 6 -4.29493 0 3 -4.29493 1
gene 3 4 6 -4.6049 0 4 -4.6049 1
gene 3 5 6 -2.74867 0 5 -2.74867 0
gene 3 1 7 2.4045 0 6 2.4045 1
gene 3 2 7 -0.196399 0 7 -0.196399 1
gene 2 3 7 0.997193 0 8 0.997193 1
gene 3 4 7 -1.16317 0 9 -1.16317 1
gene 1 5 7 1.68148 0 10 1.68148 1
gene 3 5 11 -1.99981 0 21 -1.99981 1
gene 3 11 6 -3.35044 0 22 -3.35044 1
gene 3 7 11 0.18646 0 36 0.18646 1
gene 3 2 11 2.7473 0 244 2.7473 1
gene 1 4 11 -1.33505 0 287 -1.33505 1
gene 1 3 11 2.15772 0 391 2.15772 1
genomeend 42

/* Organism #43 Fitness: 76 Error: 0 */
genomestart 43
trait 1 0.1 0 0 0 0 0 0 0 
trait 2 0.6 0 0.216946 0 0.135236 0 0 0.222124 
trait 3 0.3 0 0 0 0 0 0 0 
node 1 1 1 3
node 2 1 1 1
node 3 3 1 1
node 4 2 1 1
node 5 2 1 1
node 6 3 0 2
node 7 2 0 2
node 11 1 0 0
gene 2 1 6 -4.24833 0 1 -4.24833 1
gene 1 2 6 -0.754199 0 2 -0.754199 1
gene 3 3 6 -5.35196 0 3 -5.35196 1
gene 3 4 6 -1.11837 0 4 -1.11837 1
gene 3 5 6 -2.84915 0 5 -2.84915 1
gene 2 1 7 3.95871 0 6 3.95871 1
gene 3 2 7 -1.07118 0 7 -1.07118 1
gene 2 3 7 0.571262 0 8 0.571262 1
gene 3 4 7 0.689569 0 9 0.689569 1
gene 1 5 7 -1.33445 0 10 -1.33445 1
gene 3 5 11 2.76225 0 21 2.76225 1
gene 3 11 6 -4.88651 0 22 -4.88651 1
gene 3 7 11 3.49447 0 36 3.49447 1
gene 3 2 11 1.79716 0 244 1.79716 1
gene 1 4 11 -3.23529 0 287 -3.23529 1
gene 1 3 11 2.15772 0 391 2.15772 1
genomeend 43

/* Organism #44 Fitness: 74 Error: 0 */
genomestart 44
trait 1 0.1 0 0 0 0 0 0 0 
trait 2 0.6 0 0.216946 0 0.135236 0 0 0.222124 
trait 3 0.3 0 0 0 0 0 0 0 
node 1 1 1 3
node 2 1 1 1
node 3 2 1 1
node 4 2 1 1
node 5 2 1 1
node 6 3 0 2
node 7 2 0 2
node 11 1 0 0
gene 2 1 6 -3.08812 0 1 -3.08812 1
gene 1 2 6 1.65039 0 2 1.65039 1
gene 3 3 6 -3.34694 0 3 -3.34694 1
gene 3 4 6 -0.374573 0 4 -0.374573 1
gene 3 5 6 -1.24014 0 5 -1.24014 0
gene 2 1 7 2.60609 0 6 2.60609 1
gene 3 2 7 -2.28176 0 7 -2.28176 1
gene 2 3 7 -0.376846 0 8 -0.376846 1
gene 3 4 7 1.07653 0 9 1.07653 1
gene 1 5 7 -0.676077 0 10 -0.676077 1
gene 3 5 11 -0.20708 0 21 -0.20708 1
gene 3 11 6 -2.39757 0 22 -2.39757 1
gene 3 7 11 1.74576 0 36 1.74576 1
gene 3 2 11 1.04593 0 244 1.04593 1
gene 1 4 11 -2.49817 0 287 -2.49817 1
gene 1 3 11 2.15772 0 391 2.15772 1
gene 3 1 11 0.273584 0 452 0.273584 1
genomeend 44

/* Species #22 : (Size 9) (AF 63.1111) (Age 15)  */


/* Organism #45 Fitness: 154 Error: 0 */
genomestart 45
trait 1 0.0831475 0 0 0 0 0 0 0.242592 
trait 2 0.2 0 0 0 0 0 0 0 
trait 3 0.589555 0.593409 0 0 0 0 0.508383 0 
node 1 1 1 3
node 2 1 1 1
node 3 2 1 1
node 4 2 1 1
node 5 2 1 1
node 6 3 0 2
node 7 2 0 2
node 11 1 0 0
node 84 1 0 0
gene 2 1 6 -3.78742 0 1 -3.78742 1
gene 1 2 6 -0.448326 0 2 -0.448326 1
gene 3 3 6 -1.61154 0 3 -1.61154 1
gene 3 4 6 2.61249 0 4 2.61249 1
gene 3 5 6 -2.90524 0 5 -2.90524 0
gene 2 1 7 1.93654 0 6 1.93654 1
gene 3 2 7 -1.1081 0 7 -1.1081 1
gene 2 3 7 -0.376846 0 8 -0.376846 1
gene 3 4 7 -0.589865 0 9 -0.589865 1
gene 1 5 7 -2.45219 0 10 -2.45219 1
gene 3 5 11 -0.296331 0 21 -0.296331 1
gene 3 11 6 -3.51876 0 22 -3.51876 1
gene 3 7 11 -0.953188 0 36 -0.953188 1
gene 1 4 11 -0.398459 0 245 0 1
gene 1 7 6 0.949901 0 257 0.949901 1
gene 1 4 84 1 0 289 0 1
gene 1 84 11 -0.398459 0 290 0 1
gene 1 84 6 -0.0427136 0 309 -0.0427136 1
gene 2 3 84 -0.987483 0 329 -0.493741 1
genomeend 45

/* Organism #46 Fitness: 6 Error: 0 */
genomestart 46
trait 1 0.0831475 0 0 0 0 0 0 0.242592 
trait 2 0.2 0.676786 0 0 0 0 0.500336 0 
trait 3 0.589555 0.593409 0 0 0 0 0.508383 0 
node 1 1 1 3
node 2 1 1 1
node 3 2 1 1
node 4 2 1 1
node 5 2 1 1
node 6 3 0 2
node 7 2 0 2
node 11 1 0 0
node 84 1 0 0
gene 2 1 6 -5.88488 0 1 -5.88488 1
gene 1 2 6 -4.02379 0 2 -4.02379 1
gene 3 3 6 -1.44103 0 3 -1.44103 1
gene 3 4 6 3.80288 0 4 3.80288 1
gene 3 5 6 -0.81414 0 5 -0.81414 0
gene 2 1 7 -0.263664 0 6 -0.263664 1
gene 3 2 7 3.12588 0 7 3.12588 1
gene 2 3 7 -0.754319 0 8 -0.754319 1
gene 3 4 7 1.09533 0 9 1.09533 1
gene 1 5 7 0.697733 0 10 0.697733 1
gene 3 5 11 -0.942192 0 21 -0.942192 1
gene 3 11 6 -0.532575 0 22 -0.532575 1
gene 3 7 11 0.0151168 0 36 0.0151168 1
gene 1 4 11 2.14922 0 245 2.14922 1
gene 1 7 6 0.62459 0 257 0.62459 1
gene 1 4 84 1.20172 0 289 1.20172 1
gene 1 84 11 2.08129 0 290 2.08129 1
gene 1 84 6 2.63258 0 309 2.63258 1
gene 2 3 84 -1.81405 0 329 -1.81405 1
genomeend 46

/* Organism #47 Fitness: 15 Error: 0 */
genomestart 47
trait 1 0.0831475 0 0 0 0 0 0 0.242592 
trait 2 0.2 0 0 0 0 0 0 0 
trait 3 0.589555 0.593409 0 0 0 0 0.508383 0 
node 1 1 1 3
node 2 1 1 1
node 3 2 1 1
node 4 2 1 1
node 5 2 1 1
node 6 3 0 2
node 7 2 0 2
node 11 1 0 0
node 84 1 0 0
gene 2 1 6 2.276 0 1 2.276 1
gene 1 2 6 -0.448326 0 2 -0.448326 1
gene 3 3 6 -0.716299 0 3 -0.716299 1
gene 3 4 6 2.61249 0 4 2.61249 1
gene 3 5 6 2.28881 0 5 2.28881 0
gene 2 1 7 1.93654 0 6 1.93654 1
gene 3 2 7 1.2467 0 7 1.2467 1
gene 2 3 7 -0.376846 0 8 -0.376846 1
gene 3 4 7 -0.596907 0 9 -0.596907 1
gene 1 5 7 -2.45219 0 10 -2.45219 1
gene 1 5 11 -0.421527 0 21 -0.421527 1
gene 3 11 6 -1.28091 0 22 -1.28091 1
gene 3 7 11 0.353944 0 36 0.353944 1
gene 1 4 11 -0.413872 0 245 -0.413872 1
gene 1 7 6 0.261731 0 257 0.261731 1
gene 1 4 84 0.974325 0 289 0.974325 1
gene 1 84 11 1.60229 0 290 1.60229 1
gene 1 84 6 2.33969 0 309 2.33969 1
gene 2 3 84 -0.606886 0 329 -0.606886 1
genomeend 47

/* Organism #48 Fitness: 35 Error: 0 */
genomestart 48
trait 1 0.0831475 0 0 0 0 0 0 0.242592 
trait 2 0 0.153776 0 0 0 0 0.322527 0 
trait 3 0.589555 0.593409 0 0 0 0 0.508383 0 
node 1 1 1 3
node 2 1 1 1
node 3 2 1 1
node 4 2 1 1
node 5 2 1 1
node 6 3 0 2
node 7 2 0 2
node 11 1 0 0
node 84 1 0 0
gene 2 1 6 -5.66382 0 1 -5.66382 1
gene 1 2 6 -3.14263 0 2 -3.14263 1
gene 3 3 6 1.00485 0 3 1.00485 1
gene 3 4 6 -1.28209 0 4 -1.28209 1
gene 3 5 6 -0.764581 0 5 -0.764581 0
gene 2 1 7 -0.0573228 0 6 -0.0573228 1
gene 3 2 7 -0.12231 0 7 -0.12231 1
gene 2 3 7 -1.84794 0 8 -1.84794 1
gene 3 4 7 1.86593 0 9 1.86593 1
gene 1 5 7 -1.46371 0 10 -1.46371 1
gene 3 5 11 -2.56024 0 21 -2.56024 1
gene 3 11 6 -4.3959 0 22 -4.3959 1
gene 3 7 11 -3.0237 0 36 -3.0237 1
gene 1 4 11 -0.0626414 0 245 -0.0626414 1
gene 1 7 6 0.822445 0 257 0.822445 1
gene 1 4 84 0.486593 0 289 0.486593 1
gene 1 84 11 1.49495 0 290 1.49495 1
gene 1 84 6 0.708947 0 309 0.708947 1
gene 2 3 84 -2.40111 0 329 -2.40111 1
genomeend 48

/* Organism #49 Fitness: 72 Error: 0 */
genomestart 49
trait 1 0.0831475 0 0 0 0 0 0 0.242592 
trait 2 0.2 0.338393 0 0 0 0 0.250168 0 
trait 3 0.589555 0.593409 0 0 0 0 0.508383 0 
node 1 1 1 3
node 2 1 1 1
node 3 2 1 1
node 4 2 1 1
node 5 2 1 1
node 6 3 0 2
node 7 2 0 2
node 11 1 0 0
node 84 1 0 0
gene 2 1 6 -3.92228 0 1 -3.92228 1
gene 1 2 6 -1.02701 0 2 -1.02701 1
gene 3 3 6 -0.816137 0 3 -0.816137 1
gene 3 4 6 2.3007 0 4 2.3007 1
gene 3 5 6 -2.66456 0 5 -2.66456 0
gene 2 1 7 1.83447 0 6 1.83447 1
gene 3 2 7 -0.201485 0 7 -0.201485 1
gene 2 3 7 -1.3947 0 8 -1.3947 1
gene 3 4 7 0.0766483 0 9 0.0766483 1
gene 1 5 7 -2.08399 0 10 -2.08399 1
gene 3 5 11 -1.42829 0 21 -1.42829 1
gene 3 11 6 -3.27029 0 22 -3.27029 1
gene 3 7 11 -0.794528 0 36 -0.794528 1
gene 1 4 11 0.293511 0 245 0.49274 1
gene 1 7 6 0.132863 0 257 0.132863 1
gene 1 4 84 0.285039 0 289 -0.214961 1
gene 1 84 11 -0.398459 0 290 -0.199229 1
gene 1 84 6 0.50897 0 309 0.50897 1
gene 2 3 84 -0.987483 0 329 -0.740612 1
genomeend 49

/* Organism #50 Fitness: 61 Error: 0 */
genomestart 50
trait 1 0.0831475 0 0 0 0 0 0 0.242592 
trait 2 0.2 0.676786 0 0 0 0 0.500336 0 
trait 3 0.589555 0.593409 0 0 0 0 0.508383 0 
node 1 1 1 3
node 2 1 1 1
node 3 2 1 1
node 4 2 1 1
node 5 1 1 1
node 6 3 0 2
node 7 2 0 2
node 11 1 0 0
node 84 1 0 0
gene 2 1 6 -4.09422 0 1 -4.09422 1
gene 1 2 6 -1.13066 0 2 -1.13066 1
gene 3 3 6 -0.452619 0 3 -0.452619 1
gene 3 4 6 4.0313 0 4 4.0313 1
gene 3 5 6 -2.79683 0 5 -2.79683 0
gene 2 1 7 0.901001 0 6 0.901001 1
gene 3 2 7 -0.482188 0 7 -0.482188 1
gene 2 3 7 -0.934014 0 8 -0.934014 1
gene 3 4 7 0.523566 0 9 0.523566 1
gene 1 5 7 -1.78041 0 10 -1.78041 1
gene 3 5 11 -1.94071 0 21 -1.94071 1
gene 3 11 6 -5.43787 0 22 -5.43787 1
gene 3 7 11 -0.900427 0 36 -0.900427 1
gene 1 4 11 3.06322 0 245 3.06322 1
gene 1 7 6 -2.84009 0 257 -2.84009 1
gene 1 4 84 -0.00573587 0 289 -0.00573587 1
gene 1 84 11 -0.398459 0 290 -0.398459 1
gene 1 84 6 2.5799 0 309 2.5799 1
gene 2 3 84 -0.232703 0 329 -0.232703 1
genomeend 50

/* Organism #51 Fitness: 76 Error: 0 */
genomestart 51
trait 1 0.0831475 0 0 0 0 0 0 0.242592 
trait 2 0.2 0.338393 0 0 0 0 0.250168 0 
trait 3 0.589555 0.593409 0 0 0 0 0.508383 0 
node 1 1 1 3
node 2 1 1 1
node 3 2 1 1
node 4 2 1 1
node 5 2 1 1
node 6 3 0 2
node 7 2 0 2
node 11 1 0 0
node 84 1 0 0
gene 2 1 6 -2.81277 0 1 -2.81277 1
gene 1 2 6 -2.11133 0 2 -2.11133 1
gene 3 3 6 -0.778971 0 3 -0.778971 1
gene 3 4 6 2.3284 0 4 2.3284 1
gene 3 5 6 -1.44226 0 5 -1.44226 1
gene 2 1 7 2.35253 0 6 2.35253 1
gene 3 2 7 -0.965123 0 7 -0.965123 1
gene 2 3 7 -2.29512 0 8 -2.29512 1
gene 3 4 7 -0.529049 0 9 -0.529049 1
gene 1 5 7 -3.04086 0 10 -3.04086 1
gene 3 5 11 -0.628655 0 21 -0.628655 1
gene 3 11 6 -2.33593 0 22 -2.33593 1
gene 3 7 11 -0.933899 0 36 -0.933899 1
gene 1 4 11 0.155081 0 245 0.155081 1
gene 1 7 6 0.368067 0 257 0.368067 1
gene 1 4 84 -0.0247852 0 289 -0.0247852 1
gene 1 84 11 -0.374235 0 290 -0.374235 1
gene 1 84 6 -0.697519 0 309 -0.697519 1
gene 2 3 84 -0.987483 0 329 -0.987483 1
genomeend 51

/* Organism #52 Fitness: 69 Error: 0 */
genomestart 52
trait 1 0.0831475 0 0 0 0 0 0 0.242592 
trait 2 0.2 0.676786 0 0 0 0 0.500336 0 
trait 3 0.589555 0.593409 0 0 0 0 0.508383 0 
node 1 1 1 3
node 2 1 1 1
node 3 2 1 1
node 4 2 1 1
node 5 2 1 1
node 6 3 0 2
node 7 2 0 2
node 11 1 0 0
node 84 1 0 0
gene 2 1 6 -4.0029 0 1 -4.0029 1
gene 1 2 6 -0.913075 0 2 -0.913075 1
gene 3 3 6 1.33098 0 3 1.33098 1
gene 3 4 6 -0.396196 0 4 -0.396196 1
gene 3 5 6 -2.42387 0 5 -2.42387 0
gene 2 1 7 1.63319 0 6 1.63319 1
gene 3 2 7 -1.47847 0 7 -1.47847 1
gene 2 3 7 -0.141207 0 8 -0.141207 1
gene 3 4 7 -0.278788 0 9 -0.278788 1
gene 1 5 7 -3.33303 0 10 -3.33303 1
gene 3 5 11 -2.55661 0 21 -2.55661 1
gene 3 11 6 -1.00487 0 22 -1.00487 1
gene 3 7 11 -0.381255 0 36 -0.381255 1
gene 1 4 11 -2.25713 0 245 -2.25713 1
gene 1 7 6 -1.62633 0 257 -1.62633 1
gene 1 4 84 -1.66213 0 289 -1.66213 1
gene 1 84 11 1.9816 0 290 1.9816 1
gene 1 84 6 0.417529 0 309 0.417529 1
gene 2 3 84 -0.987483 0 329 -0.987483 1
genomeend 52

/* Organism #53 Fitness: 80 Error: 0 */
genomestart 53
trait 1 0.0831475 0 0 0 0 0 0 0.242592 
trait 2 0.2 0 0 0 0 0 0 0 
trait 3 0.589555 0.593409 0 0 0 0 0.508383 0 
node 1 1 1 3
node 2 1 1 1
node 3 2 1 1
node 4 2 1 1
node 5 2 1 1
node 6 3 0 2
node 7 2 0 2
node 11 1 0 0
node 84 1 0 0
gene 2 1 6 -1.5684 0 1 -1.5684 1
gene 1 2 6 -2.61696 0 2 -2.61696 1
gene 3 3 6 -1.53721 0 3 -1.53721 1
gene 3 4 6 2.66787 0 4 2.66787 1
gene 3 5 6 -0.460656 0 5 -0.460656 1
gene 2 1 7 2.97266 0 6 2.97266 1
gene 3 2 7 -2.63538 0 7 -2.63538 1
gene 2 3 7 -2.17769 0 8 -2.17769 1
gene 3 4 7 -1.80126 0 9 -1.80126 1
gene 1 5 7 -4.36594 0 10 -4.36594 1
gene 3 5 11 1.30293 0 21 1.30293 1
gene 3 11 6 -1.65006 0 22 -1.65006 1
gene 3 7 11 -1.23193 0 36 -1.23193 1
gene 1 4 11 -0.675318 0 245 -0.675318 1
gene 1 7 6 1.42031 0 257 1.42031 1
gene 1 4 84 0.380351 0 289 0.380351 1
gene 1 84 11 -0.350012 0 290 -0.350012 1
gene 1 84 6 -2.45569 0 309 -2.45569 1
gene 2 3 84 -0.987483 0 329 -0.987483 1
genomeend 53

/* Species #23 : (Size 9) (AF 68.6667) (Age 15)  */


/* Organism #54 Fitness: 92 Error: 0 */
genomestart 54
trait 1 0.075 0 0 0 0.0710627 0 0 0 
trait 2 0.2 0.755751 0.884306 0.245579 0 0 0 0 
trait 3 0.3 0 0 0 0 0 0 0 
node 1 3 1 3
node 2 1 1 1
node 3 3 1 1
node 4 2 1 1
node 5 3 1 1
node 6 1 0 2
node 7 2 0 2
node 21 1 0 0
node 76 1 0 0
node 81 3 0 0
node 125 1 0 0
gene 2 1 6 -1.86513 0 1 -1.86513 1
gene 3 2 6 2.25911 0 2 2.25911 1
gene 2 3 6 -0.823996 0 3 -0.823996 0
gene 1 4 6 6.0768 0 4 6.0768 1
gene 2 5 6 -0.649856 0 5 -0.649856 1
gene 2 1 7 0.558456 0 6 0.558456 1
gene 3 2 7 2.8071 0 7 2.8071 1
gene 2 3 7 0.346845 0 8 0.346845 1
gene 3 4 7 8 0 9 8 1
gene 2 5 7 -1.55273 0 10 -1.55273 1
gene 1 6 7 0.606827 0 38 0.606827 0
gene 3 2 21 0.557392 0 48 0.557392 1
gene 3 21 7 0.527946 0 49 0.527946 1
gene 2 6 21 0.432395 0 252 0.432395 1
gene 2 3 76 -7.27818 0 259 -7.27818 1
gene 2 76 6 -5.75142 0 260 -5.75142 0
gene 1 6 81 -2.5515 0 281 -2.5515 1
gene 1 81 7 2.15925 0 282 2.15925 1
gene 3 1 21 -1.44715 0 292 -1.44715 1
gene 2 76 125 1 0 422 0 1
gene 2 125 6 -5.75142 0 423 0 1
genomeend 54

/* Organism #55 Fitness: 92 Error: 0 */
genomestart 55
trait 1 0.075 0 0 0 0.0710627 0 0 0 
trait 2 0.2 0.755751 0.884306 0.245579 0 0 0 0 
trait 3 0.3 0 0 0 0 0 0 0 
node 1 3 1 3
node 2 1 1 1
node 3 3 1 1
node 4 2 1 1
node 5 3 1 1
node 6 1 0 2
node 7 2 0 2
node 21 1 0 0
node 76 1 0 0
node 81 3 0 0
node 125 1 0 0
gene 2 1 6 -1.86513 0 1 -1.86513 1
gene 3 2 6 2.25911 0 2 2.25911 1
gene 2 3 6 -0.823996 0 3 -0.823996 0
gene 1 4 6 6.0768 0 4 6.0768 1
gene 2 5 6 -0.649856 0 5 -0.649856 1
gene 2 1 7 0.558456 0 6 0.558456 1
gene 3 2 7 2.8071 0 7 2.8071 1
gene 2 3 7 0.346845 0 8 0.346845 1
gene 3 4 7 8 0 9 8 1
gene 2 5 7 -1.55273 0 10 -1.55273 1
gene 1 6 7 0.606827 0 38 0.606827 0
gene 3 2 21 0.557392 0 48 0.557392 1
gene 3 21 7 0.527946 0 49 0.527946 1
gene 2 6 21 0.432395 0 252 0.432395 1
gene 2 3 76 -7.27818 0 259 -7.27818 1
gene 2 76 6 -5.75142 0 260 -5.75142 0
gene 1 6 81 -2.5515 0 281 -2.5515 1
gene 1 81 7 2.15925 0 282 2.15925 1
gene 3 1 21 -1.44715 0 292 -1.44715 1
gene 2 76 125 1 0 422 0 1
gene 2 125 6 -5.75142 0 423 0 1
genomeend 55

/* Organism #56 Fitness: 92 Error: 0 */
genomestart 56
trait 1 0.075 0 0 0 0.0710627 0 0 0 
trait 2 0.2 0.755751 0.884306 0.245579 0 0 0 0 
trait 3 0 0.550062 0 0 0 0.0241566 0 0 
node 1 3 1 3
node 2 1 1 1
node 3 3 1 1
node 4 2 1 1
node 5 3 1 1
node 6 1 0 2
node 7 2 0 2
node 21 1 0 0
node 76 1 0 0
node 81 3 0 0
node 125 1 0 0
gene 2 1 6 -1.86513 0 1 -1.86513 1
gene 3 2 6 2.25911 0 2 2.25911 1
gene 2 3 6 -0.823996 0 3 -0.823996 0
gene 1 4 6 6.0768 0 4 6.0768 1
gene 2 5 6 -0.649856 0 5 -0.649856 1
gene 2 1 7 0.558456 0 6 0.558456 1
gene 3 2 7 2.8071 0 7 2.8071 1
gene 2 3 7 0.346845 0 8 0.346845 1
gene 3 4 7 8 0 9 8 1
gene 2 5 7 -1.55273 0 10 -1.55273 1
gene 1 6 7 0.606827 0 38 0.606827 0
gene 3 2 21 0.557392 0 48 0.557392 1
gene 3 21 7 0.527946 0 49 0.527946 1
gene 2 6 21 0.432395 0 252 0.432395 1
gene 2 3 76 -7.27818 0 259 -7.27818 1
gene 2 76 6 -5.75142 0 260 -5.75142 0
gene 1 6 81 -2.5515 0 281 -2.5515 1
gene 1 81 7 2.15925 0 282 2.15925 1
gene 3 1 21 -1.44715 0 292 -1.44715 1
gene 2 76 125 1 0 422 0 1
gene 2 125 6 -5.75142 0 423 0 1
genomeend 56

/* Organism #57 Fitness: 78 Error: 0 */
genomestart 57
trait 1 0.075 0 0 0 0.0710627 0 0 0 
trait 2 0.2 0.755751 0.884306 0.245579 0 0 0 0 
trait 3 0.3 0 0 0 0 0 0 0 
node 1 3 1 3
node 2 1 1 1
node 3 3 1 1
node 4 2 1 1
node 5 3 1 1
node 6 1 0 2
node 7 2 0 2
node 21 1 0 0
node 76 1 0 0
node 81 3 0 0
node 125 1 0 0
gene 2 1 6 -0.901404 0 1 -0.901404 1
gene 3 2 6 0.0111867 0 2 0.0111867 1
gene 2 3 6 1.54775 0 3 1.54775 0
gene 1 4 6 8 0 4 8 1
gene 2 5 6 -1.47257 0 5 -1.47257 1
gene 2 1 7 0.558456 0 6 0.558456 1
gene 3 2 7 -1.45613 0 7 -1.45613 1
gene 2 3 7 -2.14437 0 8 -2.14437 1
gene 3 4 7 1.15267 0 9 1.15267 1
gene 2 5 7 -1.55273 0 10 -1.55273 1
gene 1 6 7 0.261624 0 38 0.261624 0
gene 3 2 21 1.39286 0 48 1.39286 1
gene 3 21 7 -1.82997 0 49 -1.82997 1
gene 2 6 21 -0.174053 0 252 -0.174053 1
gene 2 3 76 -8 0 259 -8 1
gene 2 76 6 -3.76439 0 260 -3.76439 0
gene 1 6 81 0.651233 0 281 0.651233 1
gene 1 81 7 2.15925 0 282 2.15925 1
gene 3 1 21 -3.43034 0 292 -3.43034 1
gene 2 76 125 1.71612 0 422 1.71612 1
gene 2 125 6 -5.33767 0 423 -5.33767 1
genomeend 57

/* Organism #58 Fitness: 92 Error: 0 */
genomestart 58
trait 1 0.075 0 0 0 0.0710627 0 0 0 
trait 2 0.2 0.755751 0.884306 0.245579 0 0 0 0 
trait 3 0.3 0 0 0 0 0 0 0 
node 1 3 1 3
node 2 1 1 1
node 3 3 1 1
node 4 2 1 1
node 5 3 1 1
node 6 1 0 2
node 7 2 0 2
node 21 1 0 0
node 76 1 0 0
node 81 3 0 0
node 125 1 0 0
gene 2 1 6 -1.86513 0 1 -1.86513 1
gene 3 2 6 2.25911 0 2 2.25911 1
gene 2 3 6 -0.823996 0 3 -0.823996 0
gene 1 4 6 6.0768 0 4 6.0768 1
gene 2 5 6 -0.649856 0 5 -0.649856 1
gene 2 1 7 0.558456 0 6 0.558456 1
gene 3 2 7 2.8071 0 7 2.8071 1
gene 2 3 7 0.346845 0 8 0.346845 1
gene 3 4 7 8 0 9 8 1
gene 2 5 7 -1.55273 0 10 -1.55273 1
gene 1 6 7 0.606827 0 38 0.606827 0
gene 3 2 21 0.557392 0 48 0.557392 1
gene 3 21 7 0.527946 0 49 0.527946 1
gene 2 6 21 0.432395 0 252 0.432395 1
gene 2 3 76 -7.27818 0 259 -7.27818 1
gene 2 76 6 -5.75142 0 260 -5.75142 0
gene 1 6 81 -2.5515 0 281 -2.5515 1
gene 1 81 7 2.15925 0 282 2.15925 1
gene 3 1 21 -1.44715 0 292 -1.44715 1
gene 2 76 125 1 0 422 0 1
gene 2 125 6 -5.75142 0 423 0 1
genomeend 58

/* Organism #59 Fitness: 61 Error: 0 */
genomestart 59
trait 1 0.075 0 0 0 0.0710627 0 0 0 
trait 2 0.2 0.755751 0.884306 0.245579 0 0 0 0 
trait 3 0.3 0 0 0 0.294175 0 0 0 
node 1 3 1 3
node 2 1 1 1
node 3 3 1 1
node 4 2 1 1
node 5 3 1 1
node 6 1 0 2
node 7 2 0 2
node 21 1 0 0
node 76 1 0 0
node 81 3 0 0
node 125 1 0 0
gene 2 1 6 -0.575501 0 1 -0.575501 1
gene 3 2 6 4.36262 0 2 4.36262 1
gene 2 3 6 -2.44502 0 3 -2.44502 0
gene 1 4 6 6.63901 0 4 6.63901 1
gene 2 5 6 1.17331 0 5 1.17331 1
gene 2 1 7 2.40372 0 6 2.40372 1
gene 3 2 7 0.781759 0 7 0.781759 1
gene 2 3 7 -1.15187 0 8 -1.15187 1
gene 3 4 7 6.33652 0 9 6.33652 1
gene 2 5 7 -3.98561 0 10 -3.98561 1
gene 1 6 7 2.28019 0 38 2.28019 0
gene 3 2 21 1.5812 0 48 1.5812 1
gene 3 21 7 0.0924598 0 49 0.0924598 1
gene 2 6 21 -1.47733 0 252 -1.47733 1
gene 2 3 76 -5.31203 0 259 -5.31203 1
gene 2 76 6 -6.6299 0 260 -6.6299 1
gene 1 6 81 -3.74135 0 281 -3.74135 1
gene 1 81 7 3.2406 0 282 3.2406 1
gene 3 1 21 0.0100243 0 292 0.0100243 1
gene 2 76 125 -1.32919 0 422 -1.32919 1
gene 2 125 6 -4.30458 0 423 -4.30458 1
gene 3 5 81 0.716036 0 442 0.716036 1
genomeend 59

/* Organism #60 Fitness: 20 Error: 0 */
genomestart 60
trait 1 0.075 0 0 0 0.0710627 0 0 0 
trait 2 0.2 0.755751 0.884306 0.245579 0 0 0 0 
trait 3 0.3 0 0 0 0 0 0 0 
node 1 3 1 3
node 2 1 1 1
node 3 3 1 1
node 4 2 1 1
node 5 3 1 1
node 6 1 0 2
node 7 2 0 2
node 21 1 0 0
node 76 1 0 0
node 81 3 0 0
node 125 1 0 0
gene 2 1 6 0.0614655 0 1 0.0614655 1
gene 3 2 6 3.32047 0 2 3.32047 1
gene 2 3 6 0.657628 0 3 0.657628 0
gene 1 4 6 7.442 0 4 7.442 1
gene 2 5 6 -1.74826 0 5 -1.74826 1
gene 2 1 7 -0.509359 0 6 -0.509359 1
gene 3 2 7 3.90292 0 7 3.90292 1
gene 2 3 7 0.346845 0 8 0.346845 1
gene 3 4 7 6.7677 0 9 6.7677 1
gene 2 5 7 -2.4072 0 10 -2.4072 1
gene 1 6 7 -0.406711 0 38 -0.406711 1
gene 3 2 21 -1.91131 0 48 -1.91131 1
gene 3 21 7 0.712082 0 49 0.712082 1
gene 2 6 21 -1.71731 0 252 -1.71731 1
gene 2 3 76 -7.27818 0 259 -7.27818 1
gene 2 76 6 1.55133 0 260 1.55133 0
gene 1 6 81 -2.50785 0 281 -2.50785 1
gene 1 81 7 2.16391 0 282 2.16391 1
gene 3 1 21 -1.4203 0 292 -1.4203 1
gene 2 76 125 2.19604 0 422 2.19604 1
gene 2 125 6 -7.52633 0 423 -7.52633 1
genomeend 60

/* Organism #61 Fitness: 75 Error: 0 */
genomestart 61
trait 1 0.075 0 0 0 0.0710627 0 0 0 
trait 2 0.2 0.755751 0.884306 0.245579 0 0 0 0 
trait 3 0.3 0 0 0 0 0 0 0 
node 1 3 1 3
node 2 1 1 1
node 3 3 1 1
node 4 2 1 1
node 5 3 1 1
node 6 1 0 2
node 7 2 0 2
node 21 1 0 0
node 76 1 0 0
node 81 3 0 0
node 125 1 0 0
gene 2 1 6 -1.82841 0 1 -1.82841 1
gene 3 2 6 3.46072 0 2 3.46072 1
gene 2 3 6 0.0988372 0 3 0.0988372 1
gene 1 4 6 7.37597 0 4 7.37597 1
gene 2 5 6 -2.88152 0 5 -2.88152 1
gene 2 1 7 -1.62309 0 6 -1.62309 1
gene 3 2 7 0.373728 0 7 0.373728 1
gene 2 3 7 1.71097 0 8 1.71097 1
gene 3 4 7 5.82329 0 9 5.82329 1
gene 2 5 7 -1.34825 0 10 -1.34825 1
gene 1 6 7 -1.40919 0 38 -1.40919 0
gene 3 2 21 0.690976 0 48 0.690976 1
gene 3 21 7 2.14631 0 49 2.14631 1
gene 2 6 21 0.209768 0 252 0.209768 1
gene 2 3 76 -8 0 259 -8 1
gene 2 76 6 -3.85346 0 260 -3.85346 1
gene 1 6 81 -1.56786 0 281 -1.56786 1
gene 1 81 7 3.90446 0 282 3.90446 1
gene 3 1 21 -2.599 0 292 -2.599 1
gene 2 76 125 1 0 422 1 1
gene 2 125 6 -7.74893 0 423 -7.74893 1
genomeend 61

/* Organism #62 Fitness: 16 Error: 0 */
genomestart 62
trait 1 0.075 0 0 0 0.0710627 0 0 0 
trait 2 0.2 0.755751 0.884306 0.245579 0 0 0 0 
trait 3 0.3 0 0 0 0 0 0 0 
node 1 3 1 3
node 2 1 1 1
node 3 3 1 1
node 4 2 1 1
node 5 3 1 1
node 6 1 0 2
node 7 2 0 2
node 21 1 0 0
node 76 1 0 0
node 81 3 0 0
node 125 1 0 0
gene 2 1 6 -4.16785 0 1 -4.16785 1
gene 3 2 6 -0.0905822 0 2 -0.0905822 1
gene 2 3 6 -1.60827 0 3 -1.60827 0
gene 1 4 6 7.37282 0 4 7.37282 1
gene 2 5 6 0.409138 0 5 0.409138 1
gene 2 1 7 -2.06719 0 6 -2.06719 1
gene 3 2 7 1.16902 0 7 1.16902 1
gene 2 3 7 2.66593 0 8 2.66593 1
gene 3 4 7 7.33066 0 9 7.33066 1
gene 2 5 7 -2.71829 0 10 -2.71829 1
gene 1 6 7 -1.81026 0 38 -1.81026 0
gene 3 2 21 2.43635 0 48 2.43635 1
gene 3 21 7 1.13793 0 49 1.13793 1
gene 2 6 21 2.07454 0 252 2.07454 1
gene 2 3 76 -8 0 259 -8 1
gene 2 76 6 0.129883 0 260 0.129883 0
gene 1 6 81 -2.13314 0 281 -2.13314 1
gene 1 81 7 1.97265 0 282 1.97265 1
gene 3 1 21 -1.44715 0 292 -1.44715 1
gene 2 76 125 1.26036 0 422 1.26036 1
gene 2 125 6 -7.49335 0 423 -7.49335 1
gene 3 5 81 0.399063 0 442 0.399063 1
genomeend 62

/* Species #24 : (Size 7) (AF 39.1429) (Age 14)  */


/* Organism #63 Fitness: 78 Error: 0 */
genomestart 63
trait 1 0.075 0 0 0 0.0710627 0 0 0 
trait 2 0.122442 0 0.122753 0 0 0 0.0547179 0.337393 
trait 3 0.3 0 0 0 0 0 0 0 
node 1 3 1 3
node 2 1 1 1
node 3 3 1 1
node 4 2 1 1
node 5 3 1 1
node 6 1 0 2
node 7 2 0 2
node 21 1 0 0
node 78 1 0 0
node 85 1 0 0
node 87 1 0 0
gene 2 1 6 -1.64556 0 1 -1.64556 1
gene 3 2 6 -1.73125 0 2 -1.73125 1
gene 2 3 6 -3.3918 0 3 -3.3918 0
gene 1 4 6 -5.54922 0 4 -5.54922 1
gene 2 5 6 -2.09789 0 5 -2.09789 1
gene 2 1 7 5.82193 0 6 5.82193 1
gene 3 2 7 6.59751 0 7 6.59751 0
gene 2 3 7 -4.50026 0 8 -4.50026 1
gene 3 4 7 6.1468 0 9 6.1468 1
gene 2 5 7 1.59878 0 10 1.59878 1
gene 1 6 7 1.27965 0 38 1.27965 1
gene 3 2 21 -2.89133 0 48 -2.89133 1
gene 3 21 7 -0.150291 0 49 -0.150291 0
gene 1 21 78 0.327943 0 263 0.327943 0
gene 3 78 7 -3.90633 0 264 -3.90633 1
gene 1 21 85 3.39577 0 294 3.39577 1
gene 1 85 78 -0.270481 0 295 -0.270481 1
gene 2 3 87 0.172673 0 301 0.172673 1
gene 2 87 6 -0.721346 0 302 -0.721346 1
genomeend 63

/* Organism #64 Fitness: 35 Error: 0 */
genomestart 64
trait 1 0.075 0 0 0 0.0710627 0 0 0 
trait 2 0.122442 0 0.122753 0 0 0 0.0547179 0.337393 
trait 3 0.3 0 0 0 0 0 0 0 
node 1 3 1 3
node 2 1 1 1
node 3 3 1 1
node 4 2 1 1
node 5 3 1 1
node 6 1 0 2
node 7 2 0 2
node 21 1 0 0
node 78 1 0 0
node 85 1 0 0
node 87 1 0 0
gene 2 1 6 -1.17253 0 1 -1.17253 1
gene 3 2 6 -2.12149 0 2 -2.12149 1
gene 2 3 6 -4.605 0 3 -4.605 0
gene 1 4 6 -6.35395 0 4 -6.35395 1
gene 2 5 6 -1.96702 0 5 -1.96702 1
gene 2 1 7 3.99626 0 6 3.99626 1
gene 3 2 7 6.55036 0 7 6.55036 0
gene 2 3 7 -1.39148 0 8 -1.39148 1
gene 3 4 7 7.40663 0 9 7.40663 1
gene 2 5 7 2.04343 0 10 2.04343 1
gene 1 6 7 1.19993 0 38 1.19993 1
gene 3 2 21 -2.31951 0 48 -2.31951 1
gene 3 21 7 -1.73897 0 49 -1.73897 0
gene 1 21 78 3.2486 0 263 3.2486 0
gene 3 78 7 -2.5193 0 264 -2.5193 1
gene 1 21 85 2.97201 0 294 2.97201 1
gene 1 85 78 -0.987697 0 295 -0.987697 1
gene 2 3 87 1.35782 0 301 1.35782 1
gene 2 87 6 0.428904 0 302 0.428904 1
genomeend 64

/* Organism #65 Fitness: 73 Error: 0 */
genomestart 65
trait 1 0.075 0 0 0 0.0710627 0 0 0 
trait 2 0.122442 0 0.122753 0 0 0 0.0547179 0.337393 
trait 3 0.3 0 0 0 0 0 0 0 
node 1 3 1 3
node 2 1 1 1
node 3 3 1 1
node 4 2 1 1
node 5 3 1 1
node 6 1 0 2
node 7 2 0 2
node 21 1 0 0
node 78 1 0 0
node 85 1 0 0
node 87 1 0 0
gene 2 1 6 -0.626692 0 1 -0.626692 1
gene 3 2 6 -1.11086 0 2 -1.11086 1
gene 2 3 6 -1.55085 0 3 -1.55085 0
gene 1 4 6 -5.30246 0 4 -5.30246 1
gene 2 5 6 -1.74126 0 5 -1.74126 1
gene 2 1 7 3.47748 0 6 3.47748 1
gene 3 2 7 6.54764 0 7 6.54764 0
gene 2 3 7 -2.15993 0 8 -2.15993 1
gene 3 4 7 5.45704 0 9 5.45704 1
gene 2 5 7 -1.1222 0 10 -1.1222 1
gene 1 6 7 -0.210086 0 38 -0.210086 1
gene 3 2 21 -2.11175 0 48 -2.11175 1
gene 3 21 7 0.374679 0 49 0.374679 0
gene 1 21 78 -0.0948488 0 263 -0.0948488 0
gene 3 78 7 -4.73196 0 264 -4.73196 1
gene 1 21 85 1.69024 0 294 1.69024 1
gene 1 85 78 -0.444867 0 295 -0.444867 1
gene 2 3 87 -1.26574 0 301 -1.26574 1
gene 2 87 6 -1.34704 0 302 -1.34704 1
genomeend 65

/* Organism #66 Fitness: 19 Error: 0 */
genomestart 66
trait 1 0.075 0 0 0 0.0710627 0 0 0 
trait 2 0.122442 0 0.122753 0 0 0 0.0547179 0.337393 
trait 3 0.3 0 0 0 0 0 0 0 
node 1 3 1 3
node 2 1 1 1
node 3 3 1 1
node 4 2 1 1
node 5 3 1 1
node 6 1 0 2
node 7 2 0 2
node 21 1 0 0
node 78 1 0 0
node 85 1 0 0
node 87 1 0 0
gene 2 1 6 -4.15981 0 1 -4.15981 1
gene 3 2 6 -2.8222 0 2 -2.8222 1
gene 2 3 6 -1.49127 0 3 -1.49127 0
gene 1 4 6 -5.6295 0 4 -5.6295 1
gene 2 5 6 -2.55737 0 5 -2.55737 1
gene 2 1 7 0.489694 0 6 0.489694 1
gene 3 2 7 4.34928 0 7 4.34928 0
gene 2 3 7 -4.24201 0 8 -4.24201 1
gene 3 4 7 4.12993 0 9 4.12993 1
gene 2 5 7 2.09894 0 10 2.09894 1
gene 1 6 7 0.840951 0 38 0.840951 1
gene 3 2 21 -1.76163 0 48 -1.76163 1
gene 3 21 7 -1.72471 0 49 -1.72471 0
gene 1 21 78 0.281352 0 263 0.281352 0
gene 3 78 7 -6.46946 0 264 -6.46946 1
gene 1 21 85 2.5816 0 294 2.5816 1
gene 1 85 78 -2.03149 0 295 -2.03149 1
gene 2 3 87 -1.69422 0 301 -1.69422 1
gene 2 87 6 0.10043 0 302 0.10043 1
genomeend 66

/* Organism #67 Fitness: 17 Error: 0 */
genomestart 67
trait 1 0.075 0 0 0 0.0710627 0 0 0 
trait 2 0.122442 0 0.122753 0 0 0 0.0547179 0.337393 
trait 3 0.3 0 0 0 0.926017 0.176324 0 0 
node 1 3 1 3
node 2 1 1 1
node 3 3 1 1
node 4 2 1 1
node 5 3 1 1
node 6 1 0 2
node 7 2 0 2
node 21 1 0 0
node 78 1 0 0
node 85 1 0 0
node 87 1 0 0
gene 2 1 6 1.81475 0 1 1.81475 1
gene 3 2 6 -3.19983 0 2 -3.19983 1
gene 2 3 6 1.80924 0 3 1.80924 0
gene 1 4 6 -3.13254 0 4 -3.13254 1
gene 2 5 6 0.0555267 0 5 0.0555267 1
gene 2 1 7 1.19685 0 6 1.19685 1
gene 3 2 7 6.72725 0 7 6.72725 0
gene 2 3 7 -2.79092 0 8 -2.79092 1
gene 3 4 7 0.435424 0 9 0.435424 1
gene 2 5 7 0.334654 0 10 0.334654 1
gene 1 6 7 1.95701 0 38 1.95701 1
gene 3 2 21 0.63162 0 48 0.63162 1
gene 3 21 7 -1.42368 0 49 -1.42368 0
gene 1 21 78 2.3357 0 263 2.3357 0
gene 3 78 7 -6.11892 0 264 -6.11892 1
gene 1 21 85 2.3427 0 294 2.3427 1
gene 1 85 78 1.80334 0 295 1.80334 1
gene 2 3 87 1.30131 0 301 1.30131 1
gene 2 87 6 -0.721346 0 302 -0.721346 1
genomeend 67

/* Organism #68 Fitness: 17 Error: 0 */
genomestart 68
trait 1 0.075 0 0 0 0.0710627 0 0 0 
trait 2 0.122442 0 0.122753 0 0 0 0.0547179 0.337393 
trait 3 0.3 0 0 0 0 0 0 0 
node 1 3 1 3
node 2 1 1 1
node 3 3 1 1
node 4 2 1 1
node 5 3 1 1
node 6 1 0 2
node 7 2 0 2
node 21 1 0 0
node 78 1 0 0
node 85 1 0 0
node 87 1 0 0
gene 2 1 6 -2.93714 0 1 -2.93714 1
gene 3 2 6 -3.19983 0 2 -3.19983 1
gene 2 3 6 -1.83934 0 3 -1.83934 0
gene 1 4 6 -5.30673 0 4 -5.30673 1
gene 2 5 6 -4.12052 0 5 -4.12052 1
gene 2 1 7 5.2576 0 6 5.2576 1
gene 3 2 7 4.34928 0 7 4.34928 0
gene 2 3 7 -2.79092 0 8 -2.79092 1
gene 3 4 7 3.97098 0 9 3.97098 1
gene 2 5 7 2.00916 0 10 2.00916 1
gene 1 6 7 -0.474931 0 38 -0.474931 1
gene 3 2 21 -1.76163 0 48 -1.76163 1
gene 3 21 7 -1.92919 0 49 -1.92919 0
gene 1 21 78 1.37622 0 263 1.37622 0
gene 3 78 7 -5.93464 0 264 -5.93464 1
gene 1 21 85 1.37963 0 294 1.37963 1
gene 1 85 78 -0.270481 0 295 -0.270481 1
gene 2 3 87 2.54296 0 301 2.54296 1
gene 2 87 6 -0.721346 0 302 -0.721346 1
gene 2 5 21 -0.592855 0 453 -0.592855 1
genomeend 68

/* Organism #69 Fitness: 35 Error: 0 */
genomestart 69
trait 1 0.075 0 0 0 0.0710627 0 0 0 
trait 2 0.122442 0 0.122753 0 0 0 0.0547179 0.337393 
trait 3 0.3 0 0 0 0 0 0 0 
node 1 3 1 3
node 2 1 1 1
node 3 3 1 1
node 4 2 1 1
node 5 3 1 1
node 6 1 0 2
node 7 2 0 2
node 21 1 0 0
node 78 1 0 0
node 85 1 0 0
node 87 1 0 0
gene 2 1 6 -1.18118 0 1 -1.18118 1
gene 3 2 6 -0.78601 0 2 -0.78601 1
gene 2 3 6 -1.36536 0 3 -1.36536 0
gene 1 4 6 -5.72236 0 4 -5.72236 1
gene 2 5 6 -3.0373 0 5 -3.0373 1
gene 2 1 7 -1.07533 0 6 -1.07533 1
gene 3 2 7 3.93898 0 7 3.93898 0
gene 2 3 7 -1.41971 0 8 -1.41971 1
gene 3 4 7 4.18807 0 9 4.18807 1
gene 2 5 7 -1.59403 0 10 -1.59403 1
gene 1 6 7 0.494774 0 38 0.494774 1
gene 3 2 21 1.1219 0 48 1.1219 1
gene 3 21 7 2.24528 0 49 2.24528 0
gene 1 21 78 1.72817 0 263 1.72817 0
gene 3 78 7 -3.07547 0 264 -3.07547 1
gene 1 21 85 1.73114 0 294 1.73114 1
gene 1 85 78 -1.84066 0 295 -1.84066 1
gene 2 3 87 -1.68756 0 301 -1.68756 1
gene 2 87 6 -0.654829 0 302 -0.654829 1
genomeend 69

/* Species #25 : (Size 10) (AF 68) (Age 14)  */


/* Organism #70 Fitness: 99 Error: 0 */
genomestart 70
trait 1 0.075 0 0 0 0.0710627 0 0 0 
trait 2 0.171165 0.949263 0 0 0.690904 0 0.367165 0 
trait 3 0.3 0 0 0 0 0 0 0 
node 1 3 1 3
node 2 1 1 1
node 3 3 1 1
node 4 2 1 1
node 5 3 1 1
node 6 3 0 2
node 7 2 0 2
node 21 1 0 0
node 86 1 0 0
node 88 1 0 0
gene 2 1 6 -3.68612 0 1 -3.68612 1
gene 3 2 6 4.64215 0 2 4.64215 1
gene 2 3 6 0.324476 0 3 0.324476 1
gene 1 4 6 -3.29341 0 4 -3.29341 1
gene 2 5 6 -0.608373 0 5 -0.608373 1
gene 2 1 7 5.88191 0 6 5.88191 1
gene 3 2 7 6.20836 0 7 6.20836 1
gene 2 3 7 -6.65028 0 8 -6.65028 1
gene 3 4 7 0.307976 0 9 0.307976 1
gene 2 5 7 -4.04807 0 10 -4.04807 1
gene 1 6 7 -1.54753 0 38 -1.54753 1
gene 3 2 21 -3.98538 0 48 -3.98538 1
gene 3 21 7 -2.46362 0 49 -2.46362 1
gene 1 5 21 3.51103 0 249 3.51103 1
gene 1 3 21 2.55042 0 268 2.55042 1
gene 3 21 86 2.74375 0 296 2.74375 0
gene 3 86 7 3.14813 0 297 3.14813 1
gene 3 21 88 -1.31446 0 303 -1.31446 1
gene 3 88 86 -0.362232 0 304 -0.362232 1
genomeend 70

/* Organism #71 Fitness: 35 Error: 0 */
genomestart 71
trait 1 0.075 0 0 0 0.0710627 0 0 0 
trait 2 0.216974 0.844121 0 0 0.768178 0 0.377092 0 
trait 3 0.3 0 0 0 0 0 0 0 
node 1 3 1 3
node 2 1 1 1
node 3 3 1 1
node 4 2 1 1
node 5 3 1 1
node 6 3 0 2
node 7 2 0 2
node 21 1 0 0
node 86 1 0 0
node 88 1 0 0
gene 2 1 6 -2.38034 0 1 -2.38034 1
gene 3 2 6 6.33069 0 2 6.33069 1
gene 2 3 6 -2.28735 0 3 -2.28735 1
gene 1 4 6 -4.56946 0 4 -4.56946 1
gene 2 5 6 -1.43506 0 5 -1.43506 1
gene 2 1 7 7.86786 0 6 7.86786 1
gene 3 2 7 3.85808 0 7 3.85808 1
gene 2 3 7 -8 0 8 -8 1
gene 3 4 7 1.60772 0 9 1.60772 1
gene 2 5 7 -4.15387 0 10 -4.15387 1
gene 1 6 7 -1.73985 0 38 -1.73985 1
gene 3 2 21 -4.60169 0 48 -4.60169 1
gene 3 21 7 -1.91391 0 49 -1.91391 1
gene 1 5 21 2.88191 0 249 2.88191 1
gene 1 3 21 3.10488 0 268 3.10488 1
gene 3 21 86 2.02195 0 296 2.02195 1
gene 3 86 7 1.25123 0 297 1.25123 1
gene 3 21 88 0.794307 0 303 0.794307 1
gene 3 88 86 -1.5432 0 304 -1.5432 1
genomeend 71

/* Organism #72 Fitness: 99 Error: 0 */
genomestart 72
trait 1 0.075 0 0 0 0.0710627 0 0 0 
trait 2 0.262784 0.73898 0 0 0.845452 0 0.387019 0 
trait 3 0.3 0 0 0 0 0 0 0 
node 1 3 1 3
node 2 1 1 1
node 3 3 1 1
node 4 2 1 1
node 5 3 1 1
node 6 3 0 2
node 7 2 0 2
node 21 1 0 0
node 86 1 0 0
node 88 1 0 0
gene 2 1 6 -3.76069 0 1 -3.76069 1
gene 3 2 6 4.7786 0 2 4.7786 1
gene 2 3 6 -0.214952 0 3 -0.214952 1
gene 1 4 6 -2.16089 0 4 -2.16089 1
gene 2 5 6 -0.604607 0 5 -0.604607 1
gene 2 1 7 5.09758 0 6 5.09758 1
gene 3 2 7 5.27134 0 7 5.27134 1
gene 2 3 7 -5.44918 0 8 -5.44918 1
gene 3 4 7 -1.53155 0 9 -1.53155 1
gene 2 5 7 -5.59353 0 10 -5.59353 1
gene 1 6 7 -0.643964 0 38 -0.643964 1
gene 3 2 21 -2.42252 0 48 -2.42252 1
gene 3 21 7 -1.4542 0 49 -1.4542 1
gene 1 5 21 2.78114 0 249 2.78114 1
gene 1 3 21 4.35493 0 268 4.35493 1
gene 3 21 86 2.77093 0 296 2.77093 1
gene 3 86 7 2.23109 0 297 2.23109 1
gene 3 21 88 0.150979 0 303 0.150979 1
gene 3 88 86 -0.808921 0 304 -0.808921 1
gene 1 86 6 0.0868926 0 445 0.0868926 1
genomeend 72

/* Organism #73 Fitness: 99 Error: 0 */
genomestart 73
trait 1 0.075 0 0 0 0.0710627 0 0 0 
trait 2 0.171165 0.949263 0 0 0.690904 0 0.367165 0 
trait 3 0.3 0 0 0 0 0 0 0 
node 1 3 1 3
node 2 1 1 1
node 3 3 1 1
node 4 2 1 1
node 5 3 1 1
node 6 3 0 2
node 7 2 0 2
node 21 1 0 0
node 86 1 0 0
node 88 1 0 0
gene 2 1 6 -3.68612 0 1 -3.68612 1
gene 3 2 6 4.64215 0 2 4.64215 1
gene 2 3 6 0.324476 0 3 0.324476 1
gene 1 4 6 -3.29341 0 4 -3.29341 1
gene 2 5 6 -0.608373 0 5 -0.608373 1
gene 2 1 7 5.88191 0 6 5.88191 1
gene 3 2 7 6.20836 0 7 6.20836 1
gene 2 3 7 -6.65028 0 8 -6.65028 1
gene 3 4 7 0.307976 0 9 0.307976 1
gene 2 5 7 -4.04807 0 10 -4.04807 1
gene 1 6 7 -1.54753 0 38 -1.54753 1
gene 3 2 21 -3.98538 0 48 -3.98538 1
gene 3 21 7 -2.46362 0 49 -2.46362 1
gene 1 5 21 3.51103 0 249 3.51103 1
gene 1 3 21 2.55042 0 268 2.55042 1
gene 3 21 86 2.74375 0 296 2.74375 0
gene 3 86 7 3.14813 0 297 3.14813 1
gene 3 21 88 -1.31446 0 303 -1.31446 1
gene 3 88 86 -0.362232 0 304 -0.362232 1
genomeend 73

/* Organism #74 Fitness: 34 Error: 0 */
genomestart 74
trait 1 0.977329 0 0 0 0.671172 0 0 0 
trait 2 0.239879 0.791551 0 0 0.806815 0 0.382056 0 
trait 3 0.3 0 0 0 0 0 0 0 
node 1 3 1 3
node 2 1 1 1
node 3 3 1 1
node 4 2 1 1
node 5 3 1 1
node 6 3 0 2
node 7 2 0 2
node 21 1 0 0
node 86 1 0 0
node 88 1 0 0
gene 2 1 6 -1.9557 0 1 -1.9557 1
gene 3 2 6 3.46574 0 2 3.46574 1
gene 2 3 6 1.76017 0 3 1.76017 1
gene 1 4 6 -1.03264 0 4 -1.03264 1
gene 2 5 6 -0.0457001 0 5 -0.0457001 1
gene 2 1 7 0.882992 0 6 0.882992 1
gene 3 2 7 1.29532 0 7 1.29532 1
gene 2 3 7 -5.71596 0 8 -5.71596 1
gene 3 4 7 -0.961426 0 9 -0.961426 1
gene 2 5 7 -5.70874 0 10 -5.70874 1
gene 1 6 7 -0.643964 0 38 -0.643964 1
gene 3 2 21 -5.55413 0 48 -5.55413 1
gene 3 21 7 -1.44832 0 49 -1.44832 1
gene 1 5 21 2.56728 0 249 2.56728 1
gene 1 3 21 2.7435 0 268 2.7435 1
gene 3 21 86 0.417045 0 296 0.417045 0
gene 3 86 7 4.27745 0 297 4.27745 1
gene 3 21 88 0.150979 0 303 0.150979 1
gene 3 88 86 -0.421077 0 304 -0.421077 1
gene 1 86 6 -2.39651 0 445 -2.39651 1
genomeend 74

/* Organism #75 Fitness: 62 Error: 0 */
genomestart 75
trait 1 0.075 0 0 0 0.0710627 0 0 0 
trait 2 0.19407 0.896692 0 0 0.729541 0 0.372128 0 
trait 3 0.3 0 0 0 0 0 0 0 
node 1 3 1 3
node 2 1 1 1
node 3 3 1 1
node 4 2 1 1
node 5 3 1 1
node 6 3 0 2
node 7 2 0 2
node 21 1 0 0
node 86 1 0 0
node 88 1 0 0
gene 2 1 6 -2.96136 0 1 -2.96136 1
gene 3 2 6 4.72577 0 2 4.72577 1
gene 2 3 6 -0.881026 0 3 -0.881026 1
gene 1 4 6 -3.80357 0 4 -3.80357 1
gene 2 5 6 1.01982 0 5 1.01982 1
gene 2 1 7 4.64617 0 6 4.64617 1
gene 3 2 7 6.17273 0 7 6.17273 1
gene 2 3 7 -5.24522 0 8 -5.24522 1
gene 3 4 7 2.22064 0 9 2.22064 1
gene 2 5 7 -5.3175 0 10 -5.3175 1
gene 1 6 7 -3.24127 0 38 -3.24127 1
gene 3 2 21 -3.85412 0 48 -3.85412 1
gene 3 21 7 -4.08561 0 49 -4.08561 1
gene 1 5 21 5.99177 0 249 5.99177 1
gene 1 3 21 3.7144 0 268 3.7144 1
gene 3 21 86 0.429296 0 296 0.429296 1
gene 3 86 7 1.50221 0 297 1.50221 1
gene 3 21 88 -1.31446 0 303 -1.31446 1
gene 3 88 86 -2.51962 0 304 -2.51962 1
genomeend 75

/* Organism #76 Fitness: 74 Error: 0 */
genomestart 76
trait 1 0.075 0 0 0 0.0710627 0 0 0 
trait 2 0.19407 0.896692 0 0 0.729541 0 0.372128 0 
trait 3 0.3 0 0 0 0 0 0 0 
node 1 3 1 3
node 2 1 1 1
node 3 3 1 1
node 4 2 1 1
node 5 3 1 1
node 6 3 0 2
node 7 2 0 2
node 21 1 0 0
node 86 1 0 0
node 88 1 0 0
gene 2 1 6 -5.43927 0 1 -5.43927 1
gene 3 2 6 6.02817 0 2 6.02817 1
gene 2 3 6 2.09699 0 3 2.09699 1
gene 1 4 6 -4.36265 0 4 -4.36265 1
gene 2 5 6 -1.90399 0 5 -1.90399 1
gene 2 1 7 7.33044 0 6 7.33044 1
gene 3 2 7 3.95424 0 7 3.95424 1
gene 2 3 7 -3.3072 0 8 -3.3072 1
gene 3 4 7 -0.831086 0 9 -0.831086 1
gene 2 5 7 -3.86303 0 10 -3.86303 1
gene 1 6 7 -1.52748 0 38 -1.52748 1
gene 3 2 21 -5.66183 0 48 -5.66183 1
gene 3 21 7 -0.907557 0 49 -0.907557 1
gene 1 5 21 2.20664 0 249 2.20664 1
gene 1 3 21 4.98665 0 268 4.98665 1
gene 3 21 86 3.12458 0 296 3.12458 0
gene 3 86 7 5.4424 0 297 5.4424 1
gene 3 21 88 -1.31446 0 303 -1.31446 1
gene 3 88 86 -0.964183 0 304 -0.964183 1
genomeend 76

/* Organism #77 Fitness: 76 Error: 0 */
genomestart 77
trait 1 0.075 0 0 0 0.0710627 0 0 0 
trait 2 0.216974 0.844121 0 0 0.768178 0 0.377092 0 
trait 3 0.3 0 0 0 0 0 0 0 
node 1 3 1 3
node 2 1 1 1
node 3 3 1 1
node 4 2 1 1
node 5 3 1 1
node 6 3 0 2
node 7 2 0 2
node 21 1 0 0
node 86 1 0 0
node 88 1 0 0
gene 2 1 6 -1.32063 0 1 -1.32063 1
gene 3 2 6 4.01855 0 2 4.01855 1
gene 2 3 6 1.00794 0 3 1.00794 1
gene 1 4 6 -2.2814 0 4 -2.2814 1
gene 2 5 6 -2.22738 0 5 -2.22738 1
gene 2 1 7 5.46658 0 6 5.46658 1
gene 3 2 7 7.18893 0 7 7.18893 1
gene 2 3 7 -1.5577 0 8 -1.5577 1
gene 3 4 7 -2.07333 0 9 -2.07333 1
gene 2 5 7 1.66065 0 10 1.66065 1
gene 1 6 7 1.13512 0 38 1.13512 1
gene 3 2 21 -1.69476 0 48 -1.69476 1
gene 3 21 7 -1.94329 0 49 -1.94329 1
gene 1 5 21 0.757104 0 249 0.757104 1
gene 1 3 21 -0.539381 0 268 -0.539381 1
gene 3 21 86 4.54036 0 296 4.54036 0
gene 3 86 7 4.88908 0 297 4.88908 1
gene 3 21 88 -0.364904 0 303 -0.364904 1
gene 3 88 86 -0.585576 0 304 -0.585576 1
genomeend 77

/* Organism #78 Fitness: 30 Error: 0 */
genomestart 78
trait 1 0.075 0 0 0 0.0710627 0 0 0 
trait 2 0.262784 0.73898 0 0 0.845452 0 0.387019 0 
trait 3 0.3 0 0 0 0 0 0 0 
node 1 3 1 3
node 2 1 1 1
node 3 3 1 1
node 4 2 1 1
node 5 3 1 1
node 6 3 0 2
node 7 2 0 2
node 21 1 0 0
node 86 1 0 0
node 88 1 0 0
gene 2 1 6 -1.95172 0 1 -1.95172 1
gene 3 2 6 2.60427 0 2 2.60427 1
gene 2 3 6 -1.41324 0 3 -1.41324 1
gene 1 4 6 -1.13677 0 4 -1.13677 1
gene 2 5 6 -0.604607 0 5 -0.604607 1
gene 2 1 7 2.73284 0 6 2.73284 1
gene 3 2 7 5.27134 0 7 5.27134 1
gene 1 3 7 -2.96767 0 8 -2.96767 1
gene 3 4 7 0.332953 0 9 0.332953 1
gene 2 5 7 -5.69116 0 10 -5.69116 1
gene 1 6 7 2.1878 0 38 2.1878 1
gene 3 2 21 -4.42613 0 48 -4.42613 1
gene 3 21 7 -1.74419 0 49 -1.74419 1
gene 1 5 21 -1.08349 0 249 -1.08349 1
gene 1 3 21 4.35352 0 268 4.35352 1
gene 3 21 86 1.67149 0 296 1.67149 0
gene 3 86 7 3.68821 0 297 3.68821 1
gene 3 21 88 0.150979 0 303 0.150979 1
gene 3 88 86 -2.78219 0 304 -2.78219 1
gene 1 86 6 -0.188286 0 445 -0.188286 1
genomeend 78

/* Organism #79 Fitness: 72 Error: 0 */
genomestart 79
trait 1 0.075 0 0 0 0.0710627 0 0 0 
trait 2 0.171165 0.949263 0 0 0.690904 0 0.367165 0 
trait 3 0.3 0 0 0 0 0 0 0 
node 1 3 1 3
node 2 1 1 1
node 3 3 1 1
node 4 2 1 1
node 5 3 1 1
node 6 3 0 2
node 7 2 0 2
node 21 1 0 0
node 86 1 0 0
node 88 1 0 0
gene 2 1 6 -4.49404 0 1 -4.49404 1
gene 3 2 6 6.09251 0 2 6.09251 1
gene 2 3 6 1.57084 0 3 1.57084 1
gene 1 4 6 -2.86096 0 4 -2.86096 1
gene 2 5 6 -0.794469 0 5 -0.794469 1
gene 2 1 7 7.04327 0 6 7.04327 1
gene 3 2 7 5.12231 0 7 5.12231 1
gene 2 3 7 -4.32983 0 8 -4.32983 1
gene 3 4 7 -1.23451 0 9 -1.23451 1
gene 2 5 7 -3.45288 0 10 -3.45288 1
gene 1 6 7 -1.38348 0 38 -1.38348 1
gene 3 2 21 -2.38184 0 48 -2.38184 1
gene 3 21 7 -4.55533 0 49 -4.55533 1
gene 1 5 21 5.64585 0 249 5.64585 1
gene 1 3 21 1.36792 0 268 1.36792 1
gene 3 21 86 4.06023 0 296 4.06023 0
gene 3 86 7 3.14813 0 297 3.14813 1
gene 3 21 88 -1.31446 0 303 -1.31446 1
gene 3 88 86 2.19602 0 304 2.19602 1
genomeend 79

/* Species #26 : (Size 8) (AF 59.625) (Age 11)  */


/* Organism #80 Fitness: 91 Error: 0 */
genomestart 80
trait 1 0.1 0 0 0 0 0 0 0 
trait 2 0.2 0 0 0 0 0 0 0 
trait 3 0.3 0 0 0 0 0 0 0 
node 1 1 1 3
node 2 1 1 1
node 3 2 1 1
node 4 3 1 1
node 5 2 1 1
node 6 3 0 2
node 7 2 0 2
node 11 1 0 0
node 97 1 0 0
gene 2 1 6 -5.84378 0 1 -5.84378 1
gene 1 2 6 1.93585 0 2 1.93585 1
gene 3 3 6 -0.0682865 0 3 -0.0682865 1
gene 3 4 6 2.34034 0 4 2.34034 1
gene 3 5 6 -5.13019 0 5 -5.13019 1
gene 2 1 7 0.250085 0 6 0.250085 1
gene 3 2 7 -0.2479 0 7 -0.2479 1
gene 2 3 7 0.169777 0 8 0.169777 1
gene 3 4 7 1.18065 0 9 1.18065 1
gene 1 5 7 -0.814419 0 10 -0.814419 1
gene 3 5 11 -1.83609 0 21 -1.83609 1
gene 3 11 6 -3.64256 0 22 -3.64256 1
gene 3 7 11 -0.547991 0 36 -0.547991 1
gene 1 2 11 -3.15755 0 265 -3.15755 1
gene 2 4 11 2.14755 0 321 2.14755 1
gene 2 3 97 1 0 331 1 1
gene 2 97 7 1.68567 0 332 1.68567 1
gene 2 5 97 2.44831 0 351 2.44831 1
genomeend 80

/* Organism #81 Fitness: 73 Error: 0 */
genomestart 81
trait 1 0.1 0 0 0 0 0 0 0 
trait 2 0.2 0 0 0 0 0 0 0 
trait 3 0.3 0 0 0 0 0 0 0 
node 1 1 1 3
node 2 1 1 1
node 3 2 1 1
node 4 3 1 1
node 5 2 1 1
node 6 3 0 2
node 7 2 0 2
node 11 1 0 0
node 97 1 0 0
gene 2 1 6 -6.92772 0 1 -6.92772 1
gene 1 2 6 2.30091 0 2 2.30091 1
gene 3 3 6 2.14391 0 3 2.14391 1
gene 3 4 6 3.79544 0 4 3.79544 1
gene 3 5 6 -3.20084 0 5 -3.20084 1
gene 2 1 7 0.795312 0 6 0.795312 1
gene 3 2 7 -2.43648 0 7 -2.43648 1
gene 2 3 7 1.96036 0 8 1.96036 1
gene 3 4 7 3.08061 0 9 3.08061 1
gene 1 5 7 -1.10877 0 10 -1.10877 1
gene 3 5 11 0.134396 0 21 0.134396 1
gene 3 11 6 -3.82666 0 22 -3.82666 1
gene 3 7 11 -2.29043 0 36 -2.29043 0
gene 1 2 11 -3.05501 0 265 -3.05501 1
gene 2 4 11 1.75632 0 321 1.75632 1
gene 2 3 97 1.44947 0 331 1.44947 1
gene 2 97 7 1.19011 0 332 1.19011 1
gene 2 5 97 1.67675 0 351 1.67675 1
genomeend 81

/* Organism #82 Fitness: 74 Error: 0 */
genomestart 82
trait 1 0.1 0 0 0 0 0 0 0 
trait 2 0.2 0 0 0 0 0 0 0 
trait 3 0.3 0 0 0 0 0 0 0 
node 1 1 1 3
node 2 1 1 1
node 3 2 1 1
node 4 3 1 1
node 5 2 1 1
node 6 3 0 2
node 7 2 0 2
node 11 1 0 0
node 97 1 0 0
gene 2 1 6 -6.92498 0 1 -6.92498 1
gene 1 2 6 -1.02073 0 2 -1.02073 1
gene 3 3 6 0.43787 0 3 0.43787 1
gene 3 4 6 1.55157 0 4 1.55157 1
gene 3 5 6 -3.43839 0 5 -3.43839 1
gene 2 1 7 1.69738 0 6 1.69738 1
gene 3 2 7 2.05694 0 7 2.05694 1
gene 2 3 7 -0.739201 0 8 -0.739201 1
gene 3 4 7 2.3431 0 9 2.3431 1
gene 1 5 7 0.776523 0 10 0.776523 1
gene 3 5 11 -4.30136 0 21 -4.30136 1
gene 3 11 6 -2.08162 0 22 -2.08162 1
gene 3 7 11 -2.1929 0 36 -2.1929 0
gene 1 2 11 -3.92281 0 265 -3.92281 1
gene 2 4 11 -0.767283 0 321 -0.767283 1
gene 2 3 97 2.95196 0 331 2.95196 1
gene 2 97 7 2.5741 0 332 2.5741 1
gene 2 5 97 4.28811 0 351 4.28811 1
genomeend 82

/* Organism #83 Fitness: 38 Error: 0 */
genomestart 83
trait 1 0.1 0 0 0 0 0 0 0 
trait 2 0.2 0 0 0 0 0 0 0 
trait 3 0.3 0 0 0 0 0 0 0 
node 1 1 1 3
node 2 1 1 1
node 3 2 1 1
node 4 3 1 1
node 5 2 1 1
node 6 3 0 2
node 7 2 0 2
node 11 1 0 0
node 97 1 0 0
gene 2 1 6 -4.23678 0 1 -4.23678 1
gene 1 2 6 3.84359 0 2 3.84359 1
gene 3 3 6 -1.19221 0 3 -1.19221 1
gene 3 4 6 1.8554 0 4 1.8554 1
gene 3 5 6 -6.15543 0 5 -6.15543 1
gene 2 1 7 -0.637974 0 6 -0.637974 1
gene 3 2 7 -2.14852 0 7 -2.14852 1
gene 2 3 7 -1.81317 0 8 -1.81317 1
gene 3 4 7 0.306596 0 9 0.306596 1
gene 1 5 7 0.962478 0 10 0.962478 1
gene 3 5 11 -2.89612 0 21 -2.89612 1
gene 3 11 6 -2.03949 0 22 -2.03949 1
gene 3 7 11 -1.79508 0 36 -1.79508 1
gene 1 2 11 -2.06326 0 265 -2.06326 1
gene 2 4 11 3.4325 0 321 3.4325 1
gene 2 3 97 -0.714298 0 331 -0.714298 1
gene 2 97 7 1.68567 0 332 1.68567 1
gene 2 5 97 4.36293 0 351 4.36293 1
genomeend 83

/* Organism #84 Fitness: 75 Error: 0 */
genomestart 84
trait 1 0.1 0 0 0 0 0 0 0 
trait 2 0.2 0 0 0 0 0 0 0 
trait 3 0.3 0 0 0 0 0 0 0 
node 1 1 1 3
node 2 1 1 1
node 3 2 1 1
node 4 3 1 1
node 5 2 1 1
node 6 3 0 2
node 7 2 0 2
node 11 1 0 0
node 97 1 0 0
gene 2 1 6 -6.22256 0 1 -6.22256 1
gene 1 2 6 3.35174 0 2 3.35174 1
gene 3 3 6 -2.18003 0 3 -2.18003 1
gene 3 4 6 1.63061 0 4 1.63061 1
gene 3 5 6 -4.46062 0 5 -4.46062 1
gene 2 1 7 1.10783 0 6 1.10783 1
gene 3 2 7 -0.2479 0 7 -0.2479 1
gene 2 3 7 0.175276 0 8 0.175276 1
gene 3 4 7 1.18065 0 9 1.18065 1
gene 1 5 7 -0.371388 0 10 -0.371388 1
gene 3 5 11 -1.63506 0 21 -1.63506 1
gene 3 11 6 -1.202 0 22 -1.202 1
gene 3 7 11 -2.37032 0 36 -2.37032 1
gene 1 2 11 -3.3634 0 265 -3.3634 1
gene 2 4 11 -1.796 0 321 -1.796 1
gene 2 3 97 2.23956 0 331 2.23956 1
gene 2 97 7 0.248509 0 332 0.248509 1
gene 2 5 97 1.38224 0 351 1.38224 1
genomeend 84

/* Organism #85 Fitness: 91 Error: 0 */
genomestart 85
trait 1 0.1 0 0 0 0 0 0 0 
trait 2 0.2 0 0 0 0 0 0 0 
trait 3 0.3 0 0 0 0 0 0 0 
node 1 1 1 3
node 2 1 1 1
node 3 2 1 1
node 4 3 1 1
node 5 2 1 1
node 6 3 0 2
node 7 2 0 2
node 11 1 0 0
node 97 1 0 0
gene 2 1 6 -5.84378 0 1 -5.84378 1
gene 1 2 6 1.93585 0 2 1.93585 1
gene 3 3 6 -0.0682865 0 3 -0.0682865 1
gene 3 4 6 2.34034 0 4 2.34034 1
gene 3 5 6 -5.13019 0 5 -5.13019 1
gene 2 1 7 0.250085 0 6 0.250085 1
gene 3 2 7 -0.2479 0 7 -0.2479 1
gene 2 3 7 0.169777 0 8 0.169777 1
gene 3 4 7 1.18065 0 9 1.18065 1
gene 1 5 7 -0.814419 0 10 -0.814419 1
gene 3 5 11 -1.83609 0 21 -1.83609 1
gene 3 11 6 -3.64256 0 22 -3.64256 1
gene 3 7 11 -0.547991 0 36 -0.547991 1
gene 1 2 11 -3.15755 0 265 -3.15755 1
gene 2 4 11 2.14755 0 321 2.14755 1
gene 2 3 97 1 0 331 1 1
gene 2 97 7 1.68567 0 332 1.68567 1
gene 2 5 97 2.44831 0 351 2.44831 1
gene 2 97 6 0.537074 0 456 0.537074 1
genomeend 85

/* Organism #86 Fitness: 11 Error: 0 */
genomestart 86
trait 1 0.1 0 0 0 0 0 0 0 
trait 2 0.2 0 0 0 0 0 0 0 
trait 3 0.3 0 0 0 0 0 0 0 
node 1 1 1 3
node 2 1 1 1
node 3 2 1 1
node 4 3 1 1
node 5 2 1 1
node 6 3 0 2
node 7 2 0 2
node 11 1 0 0
node 97 1 0 0
gene 2 1 6 -6.80355 0 1 -6.80355 1
gene 1 2 6 2.12967 0 2 2.12967 1
gene 3 3 6 0.675158 0 3 0.675158 1
gene 3 4 6 4.58313 0 4 4.58313 1
gene 3 5 6 -2.8501 0 5 -2.8501 1
gene 2 1 7 -2.19587 0 6 -2.19587 1
gene 3 2 7 -1.37201 0 7 -1.37201 1
gene 2 3 7 0.689902 0 8 0.689902 1
gene 3 4 7 1.07027 0 9 1.07027 1
gene 1 5 7 -0.240277 0 10 -0.240277 1
gene 3 5 11 -2.95171 0 21 -2.95171 1
gene 3 11 6 -2.05454 0 22 -2.05454 1
gene 3 7 11 -1.2219 0 36 -1.2219 0
gene 1 2 11 -4.48156 0 265 -4.48156 1
gene 2 4 11 0.756761 0 321 0.756761 1
gene 2 3 97 -1.77 0 331 -1.77 1
gene 2 97 7 2.2766 0 332 2.2766 1
gene 2 5 97 0.56218 0 351 0.56218 1
genomeend 86

/* Organism #87 Fitness: 24 Error: 0 */
genomestart 87
trait 1 0.1 0 0 0 0 0 0 0 
trait 2 0.2 0 0 0 0 0 0 0 
trait 3 0.3 0 0 0 0 0 0 0 
node 1 1 1 3
node 2 1 1 1
node 3 2 1 1
node 4 3 1 1
node 5 3 1 1
node 6 3 0 2
node 7 2 0 2
node 11 1 0 0
node 97 1 0 0
gene 2 1 6 -7.05811 0 1 -7.05811 1
gene 1 2 6 3.66468 0 2 3.66468 1
gene 3 3 6 -0.0682865 0 3 -0.0682865 1
gene 3 4 6 -0.108568 0 4 -0.108568 1
gene 3 5 6 -0.14743 0 5 -0.14743 1
gene 2 1 7 -0.836285 0 6 -0.836285 1
gene 3 2 7 0.779606 0 7 0.779606 1
gene 2 3 7 -0.632834 0 8 -0.632834 1
gene 3 4 7 2.21816 0 9 2.21816 1
gene 1 5 7 -1.39879 0 10 -1.39879 1
gene 3 5 11 0.17491 0 21 0.17491 1
gene 3 11 6 -3.8319 0 22 -3.8319 1
gene 3 7 11 1.69486 0 36 1.69486 0
gene 1 2 11 -3.33744 0 265 -3.33744 1
gene 2 4 11 0.22563 0 321 0.22563 1
gene 2 3 97 -1.15045 0 331 -1.15045 1
gene 2 97 7 1.38581 0 332 1.38581 1
gene 2 5 97 2.44831 0 351 2.44831 1
genomeend 87

/* Species #27 : (Size 16) (AF 72.25) (Age 11)  */


/* Organism #88 Fitness: 133 Error: 0 */
genomestart 88
trait 1 0.1 0.0997506 0 0 0.033267 0 0 0 
trait 2 0.2 0 0 0 0 0 0 0 
trait 3 0.3 0 0 0 0 0 0 0 
node 1 1 1 3
node 2 1 1 1
node 3 2 1 1
node 4 2 1 1
node 5 2 1 1
node 6 3 0 2
node 7 2 0 2
node 11 1 0 0
node 98 1 0 0
gene 2 1 6 -3.78742 0 1 -3.78742 1
gene 1 2 6 -0.448326 0 2 -0.448326 1
gene 3 3 6 -1.61154 0 3 -1.61154 1
gene 3 4 6 2.61249 0 4 2.61249 1
gene 3 5 6 -2.90524 0 5 -2.90524 0
gene 2 1 7 1.93654 0 6 1.93654 1
gene 3 2 7 -1.1081 0 7 -1.1081 1
gene 2 3 7 -0.376846 0 8 -0.376846 1
gene 3 4 7 -0.589865 0 9 -0.589865 1
gene 1 5 7 -2.45219 0 10 -2.45219 1
gene 3 5 11 -0.296331 0 21 -0.296331 0
gene 3 11 6 -2.39927 0 22 -2.39927 1
gene 3 7 11 -0.953188 0 36 -0.953188 1
gene 1 2 11 -0.905019 0 265 -0.905019 1
gene 2 4 11 0.844973 0 321 0.844973 1
gene 3 5 98 1 0 333 0 1
gene 3 98 11 -0.296331 0 334 0 1
gene 2 3 11 -0.669186 0 355 -0.669186 1
gene 2 7 6 0.0479171 0 378 0.0479171 1
genomeend 88

/* Organism #89 Fitness: 74 Error: 0 */
genomestart 89
trait 1 0.1 0.0997506 0 0 0.033267 0 0 0 
trait 2 0.2 0 0 0 0 0 0 0 
trait 3 0.3 0 0 0 0 0 0 0 
node 1 1 1 3
node 2 1 1 1
node 3 2 1 1
node 4 2 1 1
node 5 2 1 1
node 6 3 0 2
node 7 2 0 2
node 11 1 0 0
node 98 1 0 0
gene 2 1 6 -2.42566 0 1 -2.42566 1
gene 1 2 6 -0.448326 0 2 -0.448326 1
gene 3 3 6 0.6223 0 3 0.6223 1
gene 3 4 6 0.537629 0 4 0.537629 1
gene 3 5 6 -4.63717 0 5 -4.63717 0
gene 2 1 7 3.66587 0 6 3.66587 1
gene 3 2 7 -2.6681 0 7 -2.6681 1
gene 2 3 7 1.47204 0 8 1.47204 1
gene 3 4 7 0.0947455 0 9 0.0947455 1
gene 1 5 7 -1.14605 0 10 -1.14605 1
gene 3 5 11 -1.37331 0 21 -1.37331 0
gene 3 11 6 -3.2596 0 22 -3.2596 1
gene 3 7 11 2.48382 0 36 2.48382 1
gene 1 2 11 -0.905019 0 265 -0.905019 1
gene 2 4 11 1.37821 0 321 1.37821 1
gene 3 5 98 -0.815841 0 333 -0.815841 1
gene 3 98 11 -0.296331 0 334 -0.296331 1
gene 2 3 11 -0.208236 0 355 -0.208236 1
gene 2 7 6 1.80264 0 378 1.80264 1
genomeend 89

/* Organism #90 Fitness: 46 Error: 0 */
genomestart 90
trait 1 0.1 0.0997506 0 0 0.033267 0 0 0 
trait 2 0.2 0 0 0 0 0 0 0 
trait 3 0.3 0 0 0 0 0 0 0 
node 1 1 1 3
node 2 1 1 1
node 3 2 1 1
node 4 2 1 1
node 5 2 1 1
node 6 3 0 2
node 7 3 0 2
node 11 1 0 0
node 98 1 0 0
gene 2 1 6 -2.08907 0 1 -2.08907 1
gene 1 2 6 0.302293 0 2 0.302293 1
gene 3 3 6 -2.67386 0 3 -2.67386 1
gene 3 4 6 1.67311 0 4 1.67311 1
gene 3 5 6 -1.11516 0 5 -1.11516 0
gene 2 1 7 2.17242 0 6 2.17242 1
gene 3 2 7 -0.91493 0 7 -0.91493 1
gene 2 3 7 -2.038 0 8 -2.038 1
gene 3 4 7 -1.21441 0 9 -1.21441 1
gene 1 5 7 -3.10677 0 10 -3.10677 1
gene 3 5 11 -1.84567 0 21 -1.84567 0
gene 3 11 6 -1.71097 0 22 -1.71097 1
gene 3 7 11 -1.55368 0 36 -1.55368 1
gene 1 2 11 -0.820844 0 265 -0.820844 1
gene 2 4 11 -0.000390645 0 321 -0.000390645 1
gene 3 5 98 0.359851 0 333 0.359851 1
gene 3 98 11 1.05174 0 334 1.05174 1
gene 2 3 11 -2.78153 0 355 -2.78153 1
gene 2 7 6 2.33544 0 378 2.33544 1
genomeend 90

/* Organism #91 Fitness: 9 Error: 0 */
genomestart 91
trait 1 0.1 0.0997506 0 0 0.033267 0 0 0 
trait 2 0.2 0 0 0 0 0 0 0 
trait 3 0.3 0 0 0 0 0 0 0 
node 1 1 1 3
node 2 1 1 1
node 3 2 1 1
node 4 2 1 1
node 5 2 1 1
node 6 3 0 2
node 7 2 0 2
node 11 1 0 0
node 98 1 0 0
gene 2 1 6 -0.252912 0 1 -0.252912 1
gene 1 2 6 1.56455 0 2 1.56455 1
gene 3 3 6 -3.13665 0 3 -3.13665 1
gene 3 4 6 -2.06406 0 4 -2.06406 1
gene 3 5 6 -3.20183 0 5 -3.20183 0
gene 2 1 7 0.438661 0 6 0.438661 1
gene 3 2 7 -2.8532 0 7 -2.8532 1
gene 2 3 7 0.885978 0 8 0.885978 1
gene 3 4 7 -0.589865 0 9 -0.589865 1
gene 1 5 7 -0.912363 0 10 -0.912363 1
gene 3 5 11 -0.395004 0 21 -0.395004 0
gene 3 11 6 -0.259458 0 22 -0.259458 1
gene 3 7 11 -1.95919 0 36 -1.95919 1
gene 1 2 11 1.09113 0 265 1.09113 1
gene 2 4 11 0.691855 0 321 0.691855 1
gene 3 5 98 -0.93213 0 333 -0.93213 1
gene 3 98 11 0.833395 0 334 0.833395 1
gene 2 3 11 -1.33496 0 355 -1.33496 1
gene 2 7 6 1.97372 0 378 1.97372 1
genomeend 91

/* Organism #92 Fitness: 75 Error: 0 */
genomestart 92
trait 1 0.1 0.0997506 0 0 0.033267 0 0 0 
trait 2 0.2 0 0 0 0 0 0 0 
trait 3 0.3 0 0 0 0 0 0 0 
node 1 1 1 3
node 2 1 1 1
node 3 2 1 1
node 4 2 1 1
node 5 2 1 1
node 6 3 0 2
node 7 2 0 2
node 11 1 0 0
node 98 1 0 0
gene 2 1 6 -3.39775 0 1 -3.39775 1
gene 1 2 6 -0.448326 0 2 -0.448326 1
gene 3 3 6 -0.42669 0 3 -0.42669 1
gene 3 4 6 -0.943687 0 4 -0.943687 1
gene 3 5 6 -5.39882 0 5 -5.39882 0
gene 2 1 7 2.32907 0 6 2.32907 1
gene 3 2 7 1.35127 0 7 1.35127 1
gene 2 3 7 0.111149 0 8 0.111149 1
gene 3 4 7 1.1415 0 9 1.1415 1
gene 1 5 7 -1.17914 0 10 -1.17914 1
gene 3 5 11 0.097014 0 21 0.097014 0
gene 3 11 6 -1.65813 0 22 -1.65813 1
gene 3 7 11 -2.63359 0 36 -2.63359 1
gene 1 2 11 -1.76416 0 265 -1.76416 1
gene 2 4 11 0.388842 0 321 0.388842 1
gene 3 5 98 -0.406334 0 333 -0.406334 1
gene 3 98 11 1.98805 0 334 1.98805 1
gene 2 3 11 -0.145386 0 355 -0.145386 1
gene 2 7 6 0.939722 0 378 0.939722 1
genomeend 92

/* Organism #93 Fitness: 45 Error: 0 */
genomestart 93
trait 1 0.1 0.0997506 0 0 0.033267 0 0 0 
trait 2 0.2 0 0 0 0 0 0 0 
trait 3 0.3 0 0 0 0 0 0 0 
node 1 1 1 3
node 2 1 1 1
node 3 2 1 1
node 4 2 1 1
node 5 2 1 1
node 6 3 0 2
node 7 2 0 2
node 11 1 0 0
node 98 1 0 0
gene 2 1 6 -3.19464 0 1 -3.19464 1
gene 1 2 6 -0.829296 0 2 -0.829296 1
gene 3 3 6 -4.10992 0 3 -4.10992 1
gene 3 4 6 3.79387 0 4 3.79387 1
gene 3 5 6 -0.706961 0 5 -0.706961 0
gene 2 1 7 2.86068 0 6 2.86068 1
gene 3 2 7 -1.35599 0 7 -1.35599 1
gene 2 3 7 1.76864 0 8 1.76864 1
gene 3 4 7 -1.15959 0 9 -1.15959 1
gene 1 5 7 -1.33273 0 10 -1.33273 1
gene 3 5 11 -2.53117 0 21 -2.53117 0
gene 3 11 6 -0.862988 0 22 -0.862988 1
gene 3 7 11 0.691901 0 36 0.691901 1
gene 1 2 11 0.370243 0 265 0.370243 1
gene 2 4 11 -0.793247 0 321 -0.793247 1
gene 3 5 98 1.79214 0 333 1.79214 1
gene 3 98 11 0.929609 0 334 0.929609 1
gene 2 3 11 -0.854612 0 355 -0.854612 1
gene 3 7 6 1.53772 0 378 1.53772 1
genomeend 93

/* Organism #94 Fitness: 61 Error: 0 */
genomestart 94
trait 1 0.1 0.0997506 0 0 0.033267 0 0 0 
trait 2 0.2 0 0 0 0 0 0 0 
trait 3 0.3 0 0 0 0 0 0 0 
node 1 1 1 3
node 2 1 1 1
node 3 2 1 1
node 4 2 1 1
node 5 2 1 1
node 6 3 0 2
node 7 2 0 2
node 11 1 0 0
node 98 1 0 0
gene 2 1 6 -5.25985 0 1 -5.25985 1
gene 1 2 6 -1.16874 0 2 -1.16874 1
gene 3 3 6 -3.50484 0 3 -3.50484 1
gene 3 4 6 3.80169 0 4 3.80169 1
gene 3 5 6 -0.783035 0 5 -0.783035 0
gene 2 1 7 0.612403 0 6 0.612403 1
gene 3 2 7 -1.07049 0 7 -1.07049 1
gene 2 3 7 -0.470198 0 8 -0.470198 1
gene 3 4 7 -1.73091 0 9 -1.73091 1
gene 1 5 7 -1.90738 0 10 -1.90738 1
gene 3 5 11 -2.36999 0 21 -2.36999 0
gene 3 11 6 -0.0147259 0 22 -0.0147259 1
gene 3 7 11 -1.606 0 36 -1.606 1
gene 1 2 11 -3.17829 0 265 -3.17829 1
gene 2 4 11 -0.696705 0 321 -0.696705 1
gene 3 5 98 -0.353285 0 333 -0.353285 1
gene 3 98 11 -1.58016 0 334 -1.58016 1
gene 2 3 11 -0.669186 0 355 -0.669186 1
gene 2 7 6 0.0479171 0 378 0.0479171 1
genomeend 94

/* Organism #95 Fitness: 133 Error: 0 */
genomestart 95
trait 1 0.1 0.0997506 0 0 0.033267 0 0 0 
trait 2 0.2 0 0 0 0 0 0 0 
trait 3 0.3 0 0 0 0 0 0 0 
node 1 1 1 3
node 2 1 1 1
node 3 2 1 1
node 4 2 1 1
node 5 2 1 1
node 6 3 0 2
node 7 2 0 2
node 11 1 0 0
node 98 1 0 0
gene 2 1 6 -3.78742 0 1 -3.78742 1
gene 1 2 6 -0.448326 0 2 -0.448326 1
gene 3 3 6 -1.61154 0 3 -1.61154 1
gene 3 4 6 2.61249 0 4 2.61249 1
gene 3 5 6 -2.90524 0 5 -2.90524 0
gene 2 1 7 1.93654 0 6 1.93654 1
gene 3 2 7 -1.1081 0 7 -1.1081 1
gene 2 3 7 -0.376846 0 8 -0.376846 1
gene 3 4 7 -0.589865 0 9 -0.589865 1
gene 1 5 7 -2.45219 0 10 -2.45219 1
gene 3 5 11 -0.296331 0 21 -0.296331 0
gene 3 11 6 -2.39927 0 22 -2.39927 1
gene 3 7 11 -0.953188 0 36 -0.953188 1
gene 1 2 11 -0.905019 0 265 -0.905019 1
gene 2 4 11 0.844973 0 321 0.844973 1
gene 3 5 98 1 0 333 0 1
gene 3 98 11 -0.296331 0 334 0 1
gene 2 3 11 -0.669186 0 355 -0.669186 1
gene 2 7 6 0.0479171 0 378 0.0479171 1
genomeend 95

/* Organism #96 Fitness: 133 Error: 0 */
genomestart 96
trait 1 0.1 0.0997506 0 0 0.033267 0 0 0 
trait 2 0.2 0 0 0 0 0 0 0 
trait 3 0.3 0 0 0 0 0 0 0 
node 1 1 1 3
node 2 1 1 1
node 3 2 1 1
node 4 2 1 1
node 5 2 1 1
node 6 3 0 2
node 7 2 0 2
node 11 1 0 0
node 98 1 0 0
gene 2 1 6 -3.78742 0 1 -3.78742 1
gene 1 2 6 -0.448326 0 2 -0.448326 1
gene 3 3 6 -1.61154 0 3 -1.61154 1
gene 3 4 6 2.61249 0 4 2.61249 1
gene 3 5 6 -2.90524 0 5 -2.90524 0
gene 2 1 7 1.93654 0 6 1.93654 1
gene 3 2 7 -1.1081 0 7 -1.1081 1
gene 2 3 7 -0.376846 0 8 -0.376846 1
gene 3 4 7 -0.589865 0 9 -0.589865 1
gene 1 5 7 -2.45219 0 10 -2.45219 1
gene 3 5 11 -0.296331 0 21 -0.296331 0
gene 3 11 6 -2.39927 0 22 -2.39927 1
gene 3 7 11 -0.953188 0 36 -0.953188 1
gene 1 2 11 -0.905019 0 265 -0.905019 1
gene 2 4 11 0.844973 0 321 0.844973 1
gene 3 5 98 1 0 333 0 1
gene 3 98 11 -0.296331 0 334 0 1
gene 2 3 11 -0.669186 0 355 -0.669186 1
gene 2 7 6 0.0479171 0 378 0.0479171 1
genomeend 96

/* Organism #97 Fitness: 76 Error: 0 */
genomestart 97
trait 1 0.1 0.0997506 0 0 0.033267 0 0 0 
trait 2 1 0 0 0.776705 0 0 0 0 
trait 3 0.3 0 0 0 0 0 0 0 
node 1 1 1 3
node 2 1 1 1
node 3 2 1 1
node 4 2 1 1
node 5 2 1 1
node 6 3 0 2
node 7 2 0 2
node 11 1 0 0
node 98 1 0 0
gene 2 1 6 -2.01188 0 1 -2.01188 1
gene 1 2 6 -0.296079 0 2 -0.296079 1
gene 3 3 6 -1.345 0 3 -1.345 1
gene 3 4 6 0.22824 0 4 0.22824 1
gene 3 5 6 -5.29442 0 5 -5.29442 0
gene 2 1 7 4.28799 0 6 4.28799 1
gene 3 2 7 0.848263 0 7 0.848263 1
gene 2 3 7 0.896273 0 8 0.896273 1
gene 3 4 7 1.45391 0 9 1.45391 1
gene 1 5 7 -3.8982 0 10 -3.8982 1
gene 3 5 11 1.69835 0 21 1.69835 0
gene 3 11 6 -3.4065 0 22 -3.4065 1
gene 3 7 11 1.00589 0 36 1.00589 1
gene 1 2 11 -1.36614 0 265 -1.36614 1
gene 2 4 11 1.41579 0 321 1.41579 1
gene 3 5 98 1.40306 0 333 1.40306 1
gene 3 98 11 -0.884764 0 334 -0.884764 1
gene 2 3 11 1.09584 0 355 1.09584 1
gene 2 7 6 -1.47032 0 378 -1.47032 1
genomeend 97

/* Organism #98 Fitness: 75 Error: 0 */
genomestart 98
trait 1 0.1 0.0997506 0 0 0.033267 0 0 0 
trait 2 0.2 0 0 0 0 0 0 0 
trait 3 0 0 0.29524 0 0 0 0 0 
node 1 1 1 3
node 2 1 1 1
node 3 2 1 1
node 4 2 1 1
node 5 2 1 1
node 6 3 0 2
node 7 2 0 2
node 11 1 0 0
node 98 1 0 0
gene 2 1 6 -3.78742 0 1 -3.78742 1
gene 1 2 6 -2.39505 0 2 -2.39505 1
gene 3 3 6 0.375019 0 3 0.375019 1
gene 3 4 6 0.793993 0 4 0.793993 1
gene 3 5 6 -0.85131 0 5 -0.85131 0
gene 2 1 7 2.66445 0 6 2.66445 1
gene 3 2 7 0.802405 0 7 0.802405 1
gene 2 3 7 -2.24912 0 8 -2.24912 1
gene 3 4 7 0.524899 0 9 0.524899 1
gene 1 5 7 -4.57566 0 10 -4.57566 1
gene 3 5 11 -0.133155 0 21 -0.133155 0
gene 3 11 6 -2.97505 0 22 -2.97505 1
gene 3 7 11 -2.74538 0 36 -2.74538 1
gene 1 2 11 -2.8223 0 265 -2.8223 1
gene 2 4 11 -0.180557 0 321 -0.180557 1
gene 3 5 98 3.48206 0 333 3.48206 1
gene 3 98 11 -0.296331 0 334 -0.296331 1
gene 2 3 11 -2.14838 0 355 -2.14838 1
gene 2 7 6 0.0479171 0 378 0.0479171 1
genomeend 98

/* Organism #99 Fitness: 18 Error: 0 */
genomestart 99
trait 1 0.1 0.0997506 0 0 0.033267 0 0 0 
trait 2 0.2 0 0 0 0 0 0 0 
trait 3 0.3 0 0 0 0 0 0 0 
node 1 1 1 3
node 2 1 1 1
node 3 2 1 1
node 4 2 1 1
node 5 2 1 1
node 6 3 0 2
node 7 2 0 2
node 11 1 0 0
node 98 1 0 0
gene 2 1 6 -3.32105 0 1 -3.32105 1
gene 1 2 6 -2.90763 0 2 -2.90763 1
gene 3 3 6 -2.25449 0 3 -2.25449 1
gene 3 4 6 5.07704 0 4 5.07704 1
gene 3 5 6 -3.69409 0 5 -3.69409 0
gene 2 1 7 2.59192 0 6 2.59192 1
gene 3 2 7 -1.28494 0 7 -1.28494 1
gene 2 3 7 1.92428 0 8 1.92428 1
gene 3 4 7 -0.0625492 0 9 -0.0625492 1
gene 1 5 7 -2.19356 0 10 -2.19356 1
gene 3 5 11 -0.732042 0 21 -0.732042 0
gene 3 11 6 -0.11005 0 22 -0.11005 1
gene 3 7 11 -1.23189 0 36 -1.23189 1
gene 1 2 11 -0.279644 0 265 -0.279644 1
gene 2 4 11 1.12881 0 321 1.12881 1
gene 3 5 98 0.416716 0 333 0.416716 1
gene 3 98 11 -0.319931 0 334 -0.319931 1
gene 2 3 11 1.74567 0 355 1.74567 1
gene 2 7 6 -1.04877 0 378 -1.04877 1
genomeend 99

/* Organism #100 Fitness: 120 Error: 0 */
genomestart 100
trait 1 0.1 0.0997506 0 0 0.033267 0 0 0 
trait 2 0.2 0 0 0 0 0 0 0 
trait 3 0.3 0 0 0 0 0 0 0 
node 1 1 1 3
node 2 1 1 1
node 3 2 1 1
node 4 2 1 1
node 5 2 1 1
node 6 3 0 2
node 7 2 0 2
node 11 1 0 0
node 98 1 0 0
gene 2 1 6 -3.78934 0 1 -3.78934 1
gene 1 2 6 -1.94047 0 2 -1.94047 1
gene 3 3 6 -2.59578 0 3 -2.59578 1
gene 3 4 6 2.82314 0 4 2.82314 1
gene 3 5 6 -0.663655 0 5 -0.663655 0
gene 2 1 7 1.95229 0 6 1.95229 1
gene 3 2 7 0.795861 0 7 0.795861 1
gene 2 3 7 1.16726 0 8 1.16726 1
gene 3 4 7 0.559502 0 9 0.559502 1
gene 1 5 7 -3.13191 0 10 -3.13191 1
gene 3 5 11 -0.518834 0 21 -0.518834 0
gene 3 11 6 -0.265824 0 22 -0.265824 1
gene 3 7 11 0.119973 0 36 0.119973 1
gene 1 2 11 -1.05173 0 265 -1.05173 1
gene 2 4 11 1.0798 0 321 1.0798 1
gene 3 5 98 -0.64193 0 333 -0.64193 1
gene 3 98 11 0.493301 0 334 0.493301 1
gene 2 3 11 0.733909 0 355 0.733909 1
gene 2 7 6 2.13707 0 378 2.13707 1
genomeend 100

/* Organism #101 Fitness: 66 Error: 0 */
genomestart 101
trait 1 0.1 0.0997506 0 0 0.033267 0 0 0 
trait 2 0.2 0 0 0 0 0 0 0 
trait 3 0.3 0 0 0 0 0 0 0 
node 1 1 1 3
node 2 1 1 1
node 3 2 1 1
node 4 2 1 1
node 5 2 1 1
node 6 3 0 2
node 7 2 0 2
node 11 1 0 0
node 98 1 0 0
gene 2 1 6 -5.69476 0 1 -5.69476 1
gene 1 2 6 -1.00149 0 2 -1.00149 1
gene 3 3 6 -3.94694 0 3 -3.94694 1
gene 3 4 6 4.75738 0 4 4.75738 1
gene 3 5 6 -5.37518 0 5 -5.37518 0
gene 2 1 7 3.57453 0 6 3.57453 1
gene 3 2 7 -1.9556 0 7 -1.9556 1
gene 2 3 7 -0.0742582 0 8 -0.0742582 1
gene 3 4 7 0.926727 0 9 0.926727 1
gene 1 5 7 0.398073 0 10 0.398073 1
gene 3 5 11 0.4909 0 21 0.4909 0
gene 3 11 6 0.809367 0 22 0.809367 1
gene 3 7 11 0.943935 0 36 0.943935 1
gene 1 2 11 -3.05433 0 265 -3.05433 1
gene 2 4 11 -1.36853 0 321 -1.36853 1
gene 3 5 98 2.72449 0 333 2.72449 1
gene 3 98 11 -0.83293 0 334 -0.83293 1
gene 2 3 11 -1.56567 0 355 -1.56567 1
gene 2 7 6 1.68077 0 378 1.68077 1
genomeend 101

/* Organism #102 Fitness: 43 Error: 0 */
genomestart 102
trait 1 0.1 0.0997506 0 0 0.033267 0 0 0 
trait 2 0.2 0 0 0 0 0 0 0 
trait 3 0.3 0 0 0 0 0 0 0 
node 1 1 1 3
node 2 1 1 1
node 3 2 1 1
node 4 2 1 1
node 5 2 1 1
node 6 3 0 2
node 7 2 0 2
node 11 1 0 0
node 98 1 0 0
gene 2 1 6 -2.84223 0 1 -2.84223 1
gene 1 2 6 -1.97817 0 2 -1.97817 1
gene 3 3 6 -3.39076 0 3 -3.39076 1
gene 3 4 6 4.14679 0 4 4.14679 1
gene 3 5 6 -4.62774 0 5 -4.62774 0
gene 2 1 7 0.881574 0 6 0.881574 1
gene 3 2 7 -1.33283 0 7 -1.33283 1
gene 2 3 7 -0.195188 0 8 -0.195188 1
gene 3 4 7 0.0520139 0 9 0.0520139 1
gene 1 5 7 -4.02082 0 10 -4.02082 1
gene 3 5 11 -0.00445876 0 21 -0.00445876 0
gene 3 11 6 -2.76291 0 22 -2.76291 1
gene 3 7 11 -1.86141 0 36 -1.86141 1
gene 1 2 11 0.24367 0 265 0.24367 1
gene 2 4 11 2.87015 0 321 2.87015 1
gene 3 5 98 2.84119 0 333 2.84119 1
gene 3 98 11 -0.296331 0 334 -0.296331 1
gene 2 3 11 1.28026 0 355 1.28026 1
gene 2 7 6 0.0479171 0 378 0.0479171 1
genomeend 102

/* Organism #103 Fitness: 49 Error: 0 */
genomestart 103
trait 1 0.1 0.0997506 0 0 0.033267 0 0 0 
trait 2 0.2 0 0 0 0 0 0 0 
trait 3 0.3 0 0 0 0 0 0 0 
node 1 1 1 3
node 2 1 1 1
node 3 2 1 1
node 4 2 1 1
node 5 2 1 1
node 6 3 0 2
node 7 2 0 2
node 11 1 0 0
node 98 1 0 0
gene 2 1 6 -2.95349 0 1 -2.95349 1
gene 1 2 6 -0.448326 0 2 -0.448326 1
gene 3 3 6 -2.03647 0 3 -2.03647 1
gene 3 4 6 0.281496 0 4 0.281496 1
gene 3 5 6 -2.90524 0 5 -2.90524 0
gene 2 1 7 4.28704 0 6 4.28704 1
gene 3 2 7 -1.1081 0 7 -1.1081 1
gene 2 3 7 0.725014 0 8 0.725014 1
gene 3 4 7 0.343771 0 9 0.343771 1
gene 1 5 7 -4.75817 0 10 -4.75817 1
gene 3 5 11 -0.296331 0 21 -0.296331 0
gene 3 11 6 -1.89938 0 22 -1.89938 1
gene 3 7 11 0.248527 0 36 0.248527 1
gene 1 2 11 -0.276691 0 265 -0.276691 1
gene 2 4 11 0.844973 0 321 0.844973 1
gene 3 5 98 1.13245 0 333 1.13245 1
gene 3 98 11 -0.821106 0 334 -0.821106 1
gene 2 3 11 0.235784 0 355 0.235784 1
gene 2 7 6 -0.686862 0 378 -0.686862 1
genomeend 103

/* Species #28 : (Size 8) (AF 79.5) (Age 10)  */


/* Organism #104 Fitness: 120 Error: 0 */
genomestart 104
trait 1 0.1 0 0 0 0 0 0 0 
trait 2 0.2 0 0 0 0 0 0 0 
trait 3 0.3 0 0 0 0 0 0 0 
node 1 1 1 3
node 2 1 1 1
node 3 2 1 1
node 4 2 1 1
node 5 2 1 1
node 6 3 0 2
node 7 2 0 2
node 11 1 0 0
node 102 1 0 0
node 105 1 0 0
gene 2 1 6 -3.78742 0 1 -3.78742 1
gene 1 2 6 -0.448326 0 2 -0.448326 1
gene 3 3 6 -1.61154 0 3 -1.61154 1
gene 3 4 6 2.61249 0 4 2.61249 1
gene 3 5 6 -2.90524 0 5 -2.90524 0
gene 2 1 7 1.93654 0 6 1.93654 1
gene 3 2 7 -1.1081 0 7 -1.1081 1
gene 2 3 7 -0.376846 0 8 -0.376846 1
gene 3 4 7 -0.589865 0 9 -0.589865 1
gene 1 5 7 -2.45219 0 10 -2.45219 1
gene 3 5 11 -0.296331 0 21 -0.296331 1
gene 3 11 6 -3.51876 0 22 -3.51876 1
gene 3 7 11 -0.953188 0 36 -0.953188 1
gene 1 2 11 -0.905019 0 265 -0.905019 0
gene 2 4 11 0.844973 0 321 0.844973 0
gene 1 2 102 1 0 345 0 1
gene 1 102 11 -0.905019 0 346 0 1
gene 2 4 105 1 0 359 0 1
gene 2 105 11 0.844973 0 360 0 1
genomeend 104

/* Organism #105 Fitness: 73 Error: 0 */
genomestart 105
trait 1 0.1 0 0 0 0 0 0 0 
trait 2 0.2 0 0 0 0 0 0 0 
trait 3 0.3 0 0 0 0 0 0 0 
node 1 1 1 3
node 2 1 1 1
node 3 2 1 1
node 4 2 1 1
node 5 2 1 1
node 6 3 0 2
node 7 2 0 2
node 11 1 0 0
node 102 1 0 0
node 105 1 0 0
gene 2 1 6 -3.90086 0 1 -3.90086 1
gene 1 2 6 -1.12096 0 2 -1.12096 1
gene 3 3 6 0.390999 0 3 0.390999 1
gene 3 4 6 1.95025 0 4 1.95025 1
gene 3 5 6 -1.80067 0 5 -1.80067 0
gene 2 1 7 3.77509 0 6 3.77509 1
gene 3 2 7 -1.70316 0 7 -1.70316 1
gene 2 3 7 -0.600983 0 8 -0.600983 1
gene 3 4 7 -0.86399 0 9 -0.86399 1
gene 1 5 7 -2.397 0 10 -2.397 1
gene 3 5 11 -1.80184 0 21 -1.80184 1
gene 3 11 6 -4.56858 0 22 -4.56858 1
gene 3 7 11 -1.18672 0 36 -1.18672 1
gene 1 2 11 0.298451 0 265 0.298451 0
gene 2 4 11 1.43079 0 321 1.43079 0
gene 1 2 102 -0.451762 0 345 -0.451762 1
gene 1 102 11 -0.270194 0 346 -0.270194 1
gene 2 4 105 2.60691 0 359 2.60691 1
gene 2 105 11 0.485634 0 360 0.485634 1
genomeend 105

/* Organism #106 Fitness: 55 Error: 0 */
genomestart 106
trait 1 0.1 0 0.020811 0 0 0.0707128 0.0508827 0 
trait 2 0.2 0 0 0 0 0 0 0 
trait 3 0.755125 0 0 0 0 0 0 0 
node 1 1 1 3
node 2 1 1 1
node 3 2 1 1
node 4 2 1 1
node 5 2 1 1
node 6 3 0 2
node 7 2 0 2
node 11 1 0 0
node 102 1 0 0
node 105 1 0 0
gene 2 1 6 -2.84961 0 1 -2.84961 1
gene 1 2 6 1.19308 0 2 1.19308 1
gene 3 3 6 -1.64628 0 3 -1.64628 1
gene 3 4 6 4.33848 0 4 4.33848 1
gene 3 5 6 -5.09444 0 5 -5.09444 0
gene 2 1 7 1.86296 0 6 1.86296 1
gene 3 2 7 -2.07307 0 7 -2.07307 1
gene 2 3 7 -1.86845 0 8 -1.86845 1
gene 3 4 7 -3.69282 0 9 -3.69282 1
gene 1 5 7 -1.96128 0 10 -1.96128 1
gene 3 5 11 -1.23773 0 21 -1.23773 1
gene 3 11 6 -5.8637 0 22 -5.8637 1
gene 3 7 11 0.069187 0 36 0.069187 1
gene 1 2 11 -1.15171 0 265 -1.15171 0
gene 2 4 11 0.124822 0 321 0.124822 0
gene 1 2 102 0.652781 0 345 0.652781 1
gene 1 102 11 0.187784 0 346 0.187784 1
gene 2 4 105 0.974628 0 359 0.974628 1
gene 2 105 11 2.82569 0 360 2.82569 1
genomeend 106

/* Organism #107 Fitness: 74 Error: 0 */
genomestart 107
trait 1 0.1 0 0.0416221 0 0 0.141426 0.101765 0 
trait 2 0.2 0 0 0 0 0 0 0 
trait 3 0.3 0 0 0 0 0 0 0 
node 1 1 1 3
node 2 1 1 1
node 3 2 1 1
node 4 3 1 1
node 5 2 1 1
node 6 3 0 2
node 7 2 0 2
node 11 1 0 0
node 102 1 0 0
node 105 1 0 0
