
/* Species #129 : (Size 7) (AF 11.0829) (Age 28)  */


/* Organism #0 Fitness: 15.388 Error: 0 */
genomestart 0
trait 1 0.0290472 0.00552208 0 0 0 0.0031835 0.113084 0.193656 
trait 2 1 0 0 0 0 0 0.180378 0.993401 
trait 3 0.3 0 0 0 0 0 0 0 
node 1 1 1 3
node 2 1 1 1
node 3 2 1 1
node 4 2 1 1
node 5 2 1 1
node 6 1 0 2
node 7 1 0 2
node 13 1 0 0
node 16 1 0 0
node 59 1 0 0
node 140 1 0 0
node 160 1 0 0
node 213 1 0 0
node 238 2 0 0
node 286 1 0 0
node 293 1 0 0
node 317 1 0 0
node 354 1 0 0
node 364 1 0 0
gene 1 1 6 -8 0 1 -8 1
gene 1 2 6 -6.72147 0 2 -6.72147 1
gene 2 3 6 -0.847086 0 3 -0.847086 1
gene 2 4 6 -7.79445 0 4 -7.79445 1
gene 1 5 6 4.78876 0 5 4.78876 0
gene 3 1 7 -1.43428 0 6 -1.43428 1
gene 2 2 7 7.47778 0 7 7.47778 1
gene 2 3 7 -3.41697 0 8 -3.41697 1
gene 1 4 7 2.51129 0 9 2.51129 1
gene 1 5 7 -7.55456 0 10 -7.55456 1
gene 2 4 13 -1.60727 0 25 -1.60727 1
gene 2 13 6 -0.0895057 0 26 -0.0895057 1
gene 3 1 13 2.35364 0 28 2.35364 1
gene 1 5 16 3.12783 0 38 3.12783 1
gene 1 16 6 0.673277 0 39 0.673277 1
gene 3 3 16 -7.56635 0 176 -7.56635 1
gene 2 13 59 4.62559 0 184 4.62559 1
gene 2 59 6 4.53768 0 185 4.53768 1
gene 1 13 16 -1.0676 0 263 -1.0676 1
gene 3 7 13 -2.54695 0 334 -2.54695 1
gene 3 7 6 -5.37549 0 356 -5.37549 1
gene 1 2 59 -3.92753 0 466 -3.92753 1
gene 2 4 140 -5.46956 0 482 -5.46956 1
gene 2 140 6 -0.398054 0 483 -0.398054 1
gene 2 13 160 -0.609712 0 551 -0.609712 1
gene 2 160 59 2.4343 0 552 2.4343 1
gene 2 7 59 -5.03956 0 562 -5.03956 1
gene 1 5 213 -0.539646 0 735 -0.539646 1
gene 1 213 16 5.34487 0 736 5.34487 1
gene 3 4 160 -5.11682 0 752 -5.11682 1
gene 1 160 6 5.30335 0 770 5.30335 1
gene 1 140 7 0.572697 0 789 0.572697 1
gene 1 4 59 -1.73199 0 793 -1.73199 1
gene 1 5 238 -0.628487 0 855 -0.628487 1
gene 1 238 6 0.998395 0 856 0.998395 1
gene 1 140 160 0.61151 0 915 0.61151 1
gene 3 2 16 -1.19412 0 1011 -1.19412 1
gene 1 4 238 -2.94577 0 1035 -2.94577 1
gene 3 7 286 1 0 1045 1 1
gene 3 286 13 1.93921 0 1046 1.93921 1
gene 2 140 238 -0.709478 0 1058 -0.709478 1
gene 2 3 238 0.589885 0 1071 0.589885 1
gene 2 4 293 1 0 1088 1 1
gene 2 293 140 -3.39717 0 1089 -3.39717 0
gene 1 2 160 0.347841 0 1148 0.347841 1
gene 2 140 317 1 0 1187 0 1
gene 2 317 238 -0.709478 0 1188 0 1
gene 3 293 286 0.372682 0 1214 0.372682 1
gene 2 140 354 1 0 1335 0 1
gene 2 354 238 -0.709478 0 1336 0 1
gene 2 293 364 1 0 1379 0 1
gene 2 364 140 -3.39717 0 1380 0 1
gene 2 13 354 0.0445713 0 1464 0.0445713 1
gene 1 238 160 0.185935 0 1474 0.185935 1
gene 1 213 286 -0.683639 0 1484 -0.683639 1
gene 1 364 286 -0.535561 0 1512 -0.535561 1
gene 2 286 16 0.195532 0 1584 0.195532 1
gene 2 317 286 -0.453025 0 1606 -0.453025 1
gene 2 1 140 0.260845 0 1711 0.260845 1
gene 1 1 213 -0.471169 0 1723 -0.471169 1
gene 1 4 364 0.313439 0 1832 0.313439 1
genomeend 0

/* Organism #1 Fitness: 12.8203 Error: 0 */
genomestart 1
trait 1 0.0290472 0.00552208 0 0 0 0.0031835 0.113084 0.193656 
trait 2 1 0 0 0 0 0 0.180378 0.993401 
trait 3 0.3 0 0 0 0 0 0 0 
node 1 1 1 3
node 2 1 1 1
node 3 2 1 1
node 4 2 1 1
node 5 2 1 1
node 6 1 0 2
node 7 1 0 2
node 13 1 0 0
node 16 1 0 0
node 59 1 0 0
node 140 1 0 0
node 160 1 0 0
node 213 1 0 0
node 238 2 0 0
node 286 1 0 0
node 293 1 0 0
node 317 1 0 0
node 354 1 0 0
node 364 1 0 0
gene 1 1 6 -7.65234 0 1 -7.65234 1
gene 1 2 6 -6.92232 0 2 -6.92232 1
gene 2 3 6 -1.86934 0 3 -1.86934 1
gene 2 4 6 -6.95918 0 4 -6.95918 1
gene 1 5 6 5.70503 0 5 5.70503 0
gene 3 1 7 -1.53812 0 6 -1.53812 1
gene 2 2 7 6.37736 0 7 6.37736 1
gene 2 3 7 -2.49882 0 8 -2.49882 1
gene 1 4 7 3.18226 0 9 3.18226 1
gene 1 5 7 -7.19263 0 10 -7.19263 1
gene 2 4 13 -2.14589 0 25 -2.14589 1
gene 2 13 6 -1.01752 0 26 -1.01752 1
gene 3 1 13 2.04997 0 28 2.04997 1
gene 1 5 16 3.5759 0 38 3.5759 1
gene 1 16 6 0.868096 0 39 0.868096 1
gene 3 3 16 -7.78317 0 176 -7.78317 1
gene 2 13 59 5.42813 0 184 5.42813 1
gene 2 59 6 4.07487 0 185 4.07487 1
gene 1 13 16 -2.01988 0 263 -2.01988 1
gene 3 7 13 -1.80652 0 334 -1.80652 1
gene 3 7 6 -6.525 0 356 -6.525 1
gene 1 2 59 -3.48182 0 466 -3.48182 1
gene 2 4 140 -5.42085 0 482 -5.42085 1
gene 2 140 6 -0.203226 0 483 -0.203226 1
gene 2 13 160 -0.625351 0 551 -0.625351 1
gene 2 160 59 1.72882 0 552 1.72882 1
gene 2 7 59 -5.82929 0 562 -5.82929 1
gene 1 5 213 -0.148672 0 735 -0.148672 1
gene 1 213 16 4.17257 0 736 4.17257 1
gene 3 4 160 -4.88356 0 752 -4.88356 1
gene 1 160 6 5.98984 0 770 5.98984 1
gene 1 140 7 1.66999 0 789 1.66999 1
gene 1 4 59 -2.68936 0 793 -2.68936 1
gene 1 5 238 -0.127851 0 855 -0.127851 1
gene 1 238 6 2.14864 0 856 2.14864 1
gene 1 140 160 -0.167262 0 915 -0.167262 1
gene 3 2 16 -0.107245 0 1011 -0.107245 1
gene 1 4 238 -3.67111 0 1035 -3.67111 1
gene 3 7 286 1.34988 0 1045 1.34988 1
gene 3 286 13 1.01075 0 1046 1.01075 1
gene 2 140 238 -0.138133 0 1058 -0.138133 1
gene 2 3 238 1.20847 0 1071 1.20847 1
gene 2 4 293 0.472878 0 1088 0.472878 1
gene 2 293 140 -2.44659 0 1089 -2.44659 0
gene 1 2 160 0.735842 0 1148 0.735842 1
gene 2 140 317 1.38118 0 1187 0.881181 1
gene 2 317 238 -0.879366 0 1188 -0.524627 1
gene 3 293 286 0.0969839 0 1214 0.0969839 1
gene 2 140 354 -0.0617465 0 1335 -0.561746 1
gene 2 354 238 -0.159596 0 1336 0.195143 1
gene 2 293 364 0.373136 0 1379 -0.126864 1
gene 2 364 140 -1.73022 0 1380 -0.0316338 1
gene 2 13 354 0.312607 0 1464 0.312607 1
gene 1 238 160 -0.971213 0 1474 -0.971213 1
gene 1 213 286 0.814349 0 1484 0.814349 1
gene 1 364 286 -0.516548 0 1512 -0.516548 1
gene 2 286 16 0.447878 0 1584 0.447878 1
gene 2 317 286 -0.453025 0 1606 -0.453025 1
gene 2 1 140 0.260845 0 1711 0.260845 1
gene 1 1 213 -0.943556 0 1723 -0.943556 1
gene 1 4 364 -0.696316 0 1832 -0.696316 1
genomeend 1

/* Organism #2 Fitness: 12.7565 Error: 0 */
genomestart 2
trait 1 0.0290472 0.00552208 0 0 0 0.0031835 0.113084 0.193656 
trait 2 1 0 0 0 0 0 0.180378 0.993401 
trait 3 0.3 0 0 0 0 0 0 0 
node 1 1 1 3
node 2 1 1 1
node 3 2 1 1
node 4 2 1 1
node 5 2 1 1
node 6 1 0 2
node 7 1 0 2
node 13 1 0 0
node 16 1 0 0
node 59 1 0 0
node 140 1 0 0
node 160 1 0 0
node 213 1 0 0
node 238 2 0 0
node 286 1 0 0
node 293 1 0 0
node 317 1 0 0
node 354 1 0 0
node 364 1 0 0
gene 1 1 6 -8 0 1 -8 1
gene 1 2 6 -6.33578 0 2 -6.33578 1
gene 2 3 6 -0.779344 0 3 -0.779344 1
gene 2 4 6 -8 0 4 -8 1
gene 1 5 6 4.7065 0 5 4.7065 0
gene 3 1 7 0.692982 0 6 0.692982 1
gene 2 2 7 8 0 7 8 1
gene 2 3 7 -3.8897 0 8 -3.8897 1
gene 1 4 7 3.58153 0 9 3.58153 1
gene 1 5 7 -6.81516 0 10 -6.81516 1
gene 2 4 13 -0.763183 0 25 -0.763183 1
gene 2 13 6 -2.51537 0 26 -2.51537 1
gene 3 1 13 2.25075 0 28 2.25075 1
gene 1 5 16 3.26823 0 38 3.26823 1
gene 1 16 6 -1.24425 0 39 -1.24425 1
gene 3 3 16 -6.46102 0 176 -6.46102 1
gene 2 13 59 3.36764 0 184 3.36764 1
gene 2 59 6 4.43504 0 185 4.43504 1
gene 1 13 16 -3.14998 0 263 -3.14998 1
gene 3 7 13 -0.315692 0 334 -0.315692 1
gene 3 7 6 -5.15656 0 356 -5.15656 1
gene 1 2 59 -2.65967 0 466 -2.65967 1
gene 2 4 140 -4.39076 0 482 -4.39076 1
gene 2 140 6 0.784294 0 483 0.784294 1
gene 2 13 160 -0.950049 0 551 -0.950049 1
gene 2 160 59 2.97263 0 552 2.97263 1
gene 2 7 59 -6.56476 0 562 -6.56476 1
gene 1 5 213 -0.494388 0 735 -0.494388 1
gene 1 213 16 7.31278 0 736 7.31278 1
gene 3 4 160 -6.83328 0 752 -6.83328 1
gene 1 160 6 7.11403 0 770 7.11403 1
gene 1 140 7 -1.80594 0 789 -1.80594 1
gene 1 4 59 -0.809398 0 793 -0.809398 1
gene 1 5 238 -1.64153 0 855 -1.64153 1
gene 1 238 6 0.557887 0 856 0.557887 1
gene 1 140 160 2.97254 0 915 2.97254 1
gene 3 2 16 0.341284 0 1011 0.341284 1
gene 1 4 238 -3.64448 0 1035 -3.64448 1
gene 3 7 286 1.44799 0 1045 1.44799 1
gene 3 286 13 1.31043 0 1046 1.31043 1
gene 2 140 238 -3.02308 0 1058 -3.02308 1
gene 2 3 238 -1.39318 0 1071 -1.39318 1
gene 2 4 293 0.454422 0 1088 0.454422 1
gene 2 293 140 -1.01843 0 1089 -1.01843 0
gene 1 2 160 0.496344 0 1148 0.496344 1
gene 2 140 317 2.51621 0 1187 2.51621 1
gene 2 317 238 1.48701 0 1188 1.48701 1
gene 3 293 286 1.48901 0 1214 1.48901 1
gene 2 140 354 1.17165 0 1335 1.17165 1
gene 2 354 238 1.73426 0 1336 1.73426 1
gene 2 293 364 -1.13232 0 1379 -1.13232 1
gene 2 364 140 -3.39717 0 1380 -3.39717 1
gene 2 13 354 0.0445713 0 1464 0.0445713 1
gene 1 238 160 0.185935 0 1474 0.185935 1
gene 1 213 286 0.412262 0 1484 0.412262 1
gene 1 364 286 0.125755 0 1512 0.125755 1
gene 2 286 16 0.195532 0 1584 0.195532 1
gene 2 317 286 0.743457 0 1606 0.743457 1
gene 2 1 140 -0.157423 0 1711 -0.157423 1
gene 1 1 213 1.44248 0 1723 1.44248 1
gene 1 4 364 1.9667 0 1832 1.9667 1
genomeend 2

/* Organism #3 Fitness: 12.549 Error: 0 */
genomestart 3
trait 1 0.0290472 0.00552208 0 0 0 0.0031835 0.113084 0.193656 
trait 2 1 0 0 0 0 0 0.180378 0.993401 
trait 3 0.3 0 0 0 0 0 0 0 
node 1 1 1 3
node 2 1 1 1
node 3 2 1 1
node 4 2 1 1
node 5 2 1 1
node 6 1 0 2
node 7 1 0 2
node 13 1 0 0
node 16 1 0 0
node 59 1 0 0
node 140 1 0 0
node 160 1 0 0
node 213 1 0 0
node 238 2 0 0
node 286 1 0 0
node 293 1 0 0
node 317 1 0 0
node 354 1 0 0
node 364 2 0 0
gene 1 1 6 -8 0 1 -8 1
gene 1 2 6 -4.57195 0 2 -4.57195 1
gene 2 3 6 1.72758 0 3 1.72758 1
gene 2 4 6 -7.05542 0 4 -7.05542 1
gene 1 5 6 6.83696 0 5 6.83696 0
gene 3 1 7 -3.61071 0 6 -3.61071 1
gene 2 2 7 -1.71628 0 7 -1.71628 1
gene 2 3 7 -0.600518 0 8 -0.600518 1
gene 1 4 7 -0.458782 0 9 -0.458782 1
gene 1 5 7 1.10999 0 10 1.10999 1
gene 2 4 13 -2.65353 0 25 -2.65353 1
gene 2 13 6 1.63848 0 26 1.63848 1
gene 3 1 13 3.43337 0 28 3.43337 1
gene 1 5 16 4.14448 0 38 4.14448 1
gene 1 16 6 0.673277 0 39 0.673277 1
gene 3 3 16 -8 0 176 -8 1
gene 2 13 59 4.54042 0 184 4.54042 1
gene 2 59 6 4.42661 0 185 4.42661 1
gene 1 13 16 -0.200436 0 263 -0.200436 1
gene 2 7 13 -3.96339 0 334 -3.96339 1
gene 3 7 6 -5.65163 0 356 -5.65163 1
gene 1 2 59 -2.3394 0 466 -2.3394 1
gene 2 4 140 -5.46956 0 482 -5.46956 1
gene 2 140 6 -0.398054 0 483 -0.398054 1
gene 2 13 160 1.51667 0 551 1.51667 1
gene 2 160 59 1.32527 0 552 1.32527 1
gene 2 7 59 -0.0810967 0 562 -0.0810967 1
gene 1 5 213 -1.81672 0 735 -1.81672 1
gene 1 213 16 6.27433 0 736 6.27433 1
gene 3 4 160 -4.99143 0 752 -4.99143 1
gene 1 160 6 3.1897 0 770 3.1897 1
gene 1 140 7 0.850694 0 789 0.850694 1
gene 1 4 59 -0.00341246 0 793 -0.00341246 1
gene 1 5 238 -2.32199 0 855 -2.32199 1
gene 1 238 6 -0.0651492 0 856 -0.0651492 1
gene 1 140 160 0.303358 0 915 0.303358 1
gene 3 2 16 -0.0163653 0 1011 -0.0163653 1
gene 1 4 238 0.0378205 0 1035 0.0378205 1
gene 3 7 286 1 0 1045 1 1
gene 3 286 13 0.646932 0 1046 0.646932 1
gene 2 140 238 0.90633 0 1058 0.90633 1
gene 2 3 238 2.23096 0 1071 2.23096 1
gene 2 4 293 0.353721 0 1088 0.353721 1
gene 2 293 140 -3.33546 0 1089 -3.33546 0
gene 1 2 160 -0.776742 0 1148 -0.776742 1
gene 2 140 317 3.03455 0 1187 3.03455 1
gene 2 317 238 -1.94893 0 1188 -1.94893 1
gene 3 293 286 2.04262 0 1214 2.04262 1
gene 2 140 354 -0.138606 0 1335 -0.138606 1
gene 2 354 238 1.67925 0 1336 1.67925 1
gene 2 293 364 3.07377 0 1379 3.07377 1
gene 2 364 140 -5.8214 0 1380 -5.8214 1
gene 2 13 354 1.63654 0 1464 1.63654 1
gene 1 238 160 2.10495 0 1474 2.10495 1
gene 1 213 286 -0.0627918 0 1484 -0.0627918 1
gene 1 364 286 -0.230724 0 1512 -0.230724 1
gene 2 286 16 0.520687 0 1584 0.520687 1
gene 2 317 286 -0.0383376 0 1606 -0.0383376 1
gene 2 1 140 -1.22023 0 1711 -1.22023 1
gene 1 1 213 0.520768 0 1723 0.520768 1
gene 1 4 364 2.09454 0 1832 2.09454 1
genomeend 3

/* Organism #4 Fitness: 5.36671 Error: 0 */
genomestart 4
trait 1 0.0290472 0.00552208 0 0 0 0.0031835 0.113084 0.193656 
trait 2 1 0 0 0 0 0 0.180378 0.993401 
trait 3 0.3 0 0 0 0 0 0 0 
node 1 1 1 3
node 2 1 1 1
node 3 2 1 1
node 4 2 1 1
node 5 2 1 1
node 6 1 0 2
node 7 1 0 2
node 13 1 0 0
node 16 1 0 0
node 59 1 0 0
node 140 1 0 0
node 160 1 0 0
node 213 1 0 0
node 238 2 0 0
node 286 1 0 0
node 293 1 0 0
node 317 1 0 0
node 354 1 0 0
node 364 1 0 0
gene 1 1 6 -8 0 1 -8 1
gene 1 2 6 -6.72261 0 2 -6.72261 1
gene 2 3 6 -4.02193 0 3 -4.02193 1
gene 2 4 6 -3.79991 0 4 -3.79991 1
gene 1 5 6 7.55572 0 5 7.55572 0
gene 3 1 7 0.653027 0 6 0.653027 1
gene 2 2 7 3.51501 0 7 3.51501 1
gene 2 3 7 0.799464 0 8 0.799464 1
gene 1 4 7 5.86468 0 9 5.86468 1
gene 1 5 7 -6.98391 0 10 -6.98391 1
gene 2 4 13 -2.27676 0 25 -2.27676 1
gene 2 13 6 -3.21532 0 26 -3.21532 1
gene 3 1 13 0.461551 0 28 0.461551 1
gene 1 5 16 6.4506 0 38 6.4506 1
gene 1 16 6 0.508413 0 39 0.508413 1
gene 3 3 16 -8 0 176 -8 1
gene 2 13 59 7.67162 0 184 7.67162 1
gene 2 59 6 4.54711 0 185 4.54711 1
gene 1 13 16 -3.17364 0 263 -3.17364 1
gene 3 7 13 1.0178 0 334 1.0178 1
gene 3 7 6 -8 0 356 -8 1
gene 1 2 59 -0.602533 0 466 -0.602533 1
gene 2 4 140 -6.58224 0 482 -6.58224 1
gene 2 140 6 0.485544 0 483 0.485544 1
gene 2 13 160 -1.21779 0 551 -1.21779 1
gene 2 160 59 0.264116 0 552 0.264116 1
gene 2 7 59 -7.56753 0 562 -7.56753 1
gene 1 5 213 1.86472 0 735 1.86472 1
gene 1 213 16 1.04009 0 736 1.04009 1
gene 3 4 160 -2.65615 0 752 -2.65615 1
gene 1 160 6 8 0 770 8 1
gene 1 140 7 1.28792 0 789 1.28792 1
gene 1 4 59 -5.11076 0 793 -5.11076 1
gene 1 5 238 -2.02033 0 855 -2.02033 1
gene 1 238 6 0.884575 0 856 0.884575 1
gene 1 140 160 0.658535 0 915 0.658535 1
gene 3 2 16 -0.293953 0 1011 -0.293953 1
gene 1 4 238 -1.91017 0 1035 -1.91017 1
gene 3 7 286 -0.629013 0 1045 -0.629013 1
gene 3 286 13 -1.19368 0 1046 -1.19368 1
gene 2 140 238 0.0399266 0 1058 0.0399266 1
gene 2 3 238 0.517023 0 1071 0.517023 1
gene 2 4 293 1.27939 0 1088 1.27939 1
gene 2 293 140 -1.70413 0 1089 -1.70413 0
gene 1 2 160 -0.359882 0 1148 -0.359882 1
gene 2 140 317 -0.0317621 0 1187 -0.0317621 1
gene 2 317 238 -1.55942 0 1188 -1.55942 1
gene 3 293 286 1.89936 0 1214 1.89936 1
gene 2 140 354 0.495115 0 1335 0.495115 1
gene 2 354 238 1.16804 0 1336 1.16804 1
gene 2 293 364 0.277287 0 1379 0.277287 1
gene 2 364 140 -1.78469 0 1380 -1.78469 1
gene 2 13 354 1.8415 0 1464 1.8415 1
gene 1 238 160 -1.10159 0 1474 -1.10159 1
gene 1 213 286 1.3275 0 1484 1.3275 1
gene 1 364 286 -0.118748 0 1512 -0.118748 1
gene 2 286 16 2.38895 0 1584 2.38895 1
gene 2 317 286 0.207349 0 1606 0.207349 1
gene 2 1 140 0.260845 0 1711 0.260845 1
gene 1 1 213 -1.43162 0 1723 -1.43162 1
gene 1 4 364 -1.70607 0 1832 -1.70607 1
genomeend 4

/* Organism #5 Fitness: 12.7303 Error: 0 */
genomestart 5
trait 1 0.0290472 0.00552208 0 0 0 0.0031835 0.113084 0.193656 
trait 2 1 0 0 0 0 0 0.180378 0.993401 
trait 3 0.3 0 0 0 0 0 0 0 
node 1 1 1 3
node 2 1 1 1
node 3 2 1 1
node 4 2 1 1
node 5 2 1 1
node 6 1 0 2
node 7 1 0 2
node 13 1 0 0
node 16 1 0 0
node 59 1 0 0
node 140 1 0 0
node 160 1 0 0
node 213 1 0 0
node 238 2 0 0
node 286 1 0 0
node 293 1 0 0
node 317 1 0 0
node 354 1 0 0
node 364 1 0 0
gene 1 1 6 -8 0 1 -8 1
gene 1 2 6 -6.72147 0 2 -6.72147 1
gene 2 3 6 1.4775 0 3 1.4775 1
gene 2 4 6 -7.53662 0 4 -7.53662 1
gene 1 5 6 4.99535 0 5 4.99535 0
gene 3 1 7 0.0820113 0 6 0.0820113 1
gene 2 2 7 6.69666 0 7 6.69666 1
gene 2 3 7 -3.39654 0 8 -3.39654 1
gene 1 4 7 4.26809 0 9 4.26809 1
gene 1 5 7 -8 0 10 -8 1
gene 2 4 13 -2.37715 0 25 -2.37715 1
gene 2 13 6 1.15164 0 26 1.15164 1
gene 3 1 13 4.08453 0 28 4.08453 1
gene 1 5 16 1.60891 0 38 1.60891 1
gene 1 16 6 2.97731 0 39 2.97731 1
gene 3 3 16 1.18524 0 176 1.18524 1
gene 2 13 59 4.62559 0 184 4.62559 1
gene 2 59 6 4.39982 0 185 4.39982 1
gene 1 13 16 -1.0676 0 263 -1.0676 1
gene 3 7 13 -0.120957 0 334 -0.120957 1
gene 3 7 6 -6.47577 0 356 -6.47577 1
gene 1 2 59 0.649903 0 466 0.649903 1
gene 2 4 140 -3.41731 0 482 -3.41731 1
gene 2 140 6 0.968774 0 483 0.968774 1
gene 2 13 160 -2.32534 0 551 -2.32534 1
gene 2 160 59 3.57156 0 552 3.57156 1
gene 2 7 59 -5.1661 0 562 -5.1661 1
gene 1 5 213 -1.22462 0 735 -1.22462 1
gene 1 213 16 6.61619 0 736 6.61619 1
gene 3 4 160 -5.60455 0 752 -5.60455 1
gene 1 160 6 5.30335 0 770 5.30335 1
gene 1 140 7 1.9036 0 789 1.9036 1
gene 1 4 59 -1.73199 0 793 -1.73199 1
gene 1 5 238 0.0711774 0 855 0.0711774 1
gene 1 238 6 -0.0548539 0 856 -0.0548539 1
gene 1 140 160 -0.0811366 0 915 -0.0811366 1
gene 3 2 16 2.25029 0 1011 2.25029 1
gene 1 4 238 -1.6642 0 1035 -1.6642 1
gene 3 7 286 0.392893 0 1045 0.392893 1
gene 3 286 13 3.38542 0 1046 3.38542 1
gene 2 140 238 -1.22556 0 1058 -1.22556 1
gene 2 3 238 -0.204401 0 1071 -0.204401 1
gene 2 4 293 0.141455 0 1088 0.141455 1
gene 2 293 140 -1.97118 0 1089 -1.97118 0
gene 1 2 160 2.82225 0 1148 2.82225 1
gene 2 140 317 1.91464 0 1187 1.91464 1
gene 2 317 238 -2.95272 0 1188 -2.95272 1
gene 3 293 286 2.4622 0 1214 2.4622 1
gene 2 140 354 -1.39425 0 1335 -1.39425 1
gene 2 354 238 -2.18714 0 1336 -2.18714 1
gene 2 293 364 0.0683117 0 1379 0.0683117 1
gene 2 364 140 -1.21291 0 1380 -1.21291 1
gene 2 13 354 0.493867 0 1464 0.493867 1
gene 1 238 160 0.185935 0 1474 0.185935 1
gene 1 213 286 0.457339 0 1484 0.457339 1
gene 1 364 286 -2.08586 0 1512 -2.08586 1
gene 2 286 16 1.46844 0 1584 1.46844 1
gene 2 317 286 -2.18527 0 1606 -2.18527 1
gene 2 1 140 0.534629 0 1711 0.534629 1
gene 1 1 213 -0.471169 0 1723 -0.471169 1
gene 1 4 364 -0.999472 0 1832 -0.999472 1
genomeend 5

/* Organism #6 Fitness: 5.96939 Error: 0 */
genomestart 6
trait 1 0.0290472 0.00552208 0 0 0 0.0031835 0.113084 0.193656 
trait 2 1 0 0 0 0 0 0.180378 0.993401 
trait 3 0.3 0 0 0 0 0 0 0 
node 1 1 1 3
node 2 1 1 1
node 3 2 1 1
node 4 2 1 1
node 5 2 1 1
node 6 1 0 2
node 7 1 0 2
node 13 1 0 0
node 16 1 0 0
node 59 1 0 0
node 140 1 0 0
node 160 1 0 0
node 213 1 0 0
node 238 2 0 0
node 286 1 0 0
node 293 1 0 0
node 317 1 0 0
node 354 1 0 0
node 364 1 0 0
gene 1 1 6 1.80611 0 1 1.80611 1
gene 1 2 6 -7.60301 0 2 -7.60301 1
gene 2 3 6 0.640078 0 3 0.640078 1
gene 2 4 6 0.0903157 0 4 0.0903157 1
gene 1 5 6 6.32212 0 5 6.32212 0
gene 3 1 7 -2.32904 0 6 -2.32904 1
gene 2 2 7 7.27542 0 7 7.27542 1
gene 2 3 7 -0.8556 0 8 -0.8556 1
gene 1 4 7 3.85323 0 9 3.85323 1
gene 1 5 7 -1.76255 0 10 -1.76255 1
gene 2 4 13 1.33846 0 25 1.33846 1
gene 2 13 6 -0.0895057 0 26 -0.0895057 1
gene 3 1 13 1.77835 0 28 1.77835 1
gene 1 5 16 1.1268 0 38 1.1268 1
gene 1 16 6 2.24121 0 39 2.24121 1
gene 3 3 16 1.67404 0 176 1.67404 1
gene 2 13 59 6.79366 0 184 6.79366 1
gene 2 59 6 3.14118 0 185 3.14118 1
gene 1 13 16 -2.97476 0 263 -2.97476 1
gene 3 7 13 1.07584 0 334 1.07584 1
gene 3 7 6 -3.2864 0 356 -3.2864 1
gene 1 2 59 -1.86794 0 466 -1.86794 1
gene 2 4 140 -7.55723 0 482 -7.55723 1
gene 2 140 6 -0.737665 0 483 -0.737665 1
gene 2 13 160 1.58646 0 551 1.58646 1
gene 2 160 59 4.34327 0 552 4.34327 1
gene 2 7 59 -7.94042 0 562 -7.94042 1
gene 1 5 213 0.852786 0 735 0.852786 1
gene 1 213 16 7.53945 0 736 7.53945 1
gene 3 4 160 -5.62845 0 752 -5.62845 1
gene 1 160 6 5.87417 0 770 5.87417 1
gene 1 140 7 3.8668 0 789 3.8668 1
gene 1 4 59 1.03249 0 793 1.03249 1
gene 1 5 238 0.310783 0 855 0.310783 1
gene 1 238 6 4.36191 0 856 4.36191 1
gene 1 140 160 -0.879139 0 915 -0.879139 1
gene 3 2 16 -2.61625 0 1011 -2.61625 1
gene 1 4 238 -4.47836 0 1035 -4.47836 1
gene 3 7 286 1.84291 0 1045 1.84291 1
gene 3 286 13 1.34535 0 1046 1.34535 1
gene 2 140 238 -0.372509 0 1058 -0.372509 1
gene 2 3 238 2.04596 0 1071 2.04596 1
gene 2 4 293 0.734837 0 1088 0.734837 1
gene 2 293 140 0.607807 0 1089 0.607807 0
gene 1 2 160 -1.9098 0 1148 -1.9098 1
gene 2 140 317 0.63488 0 1187 0.63488 1
gene 2 317 238 0.391776 0 1188 0.391776 1
gene 3 293 286 -0.347655 0 1214 -0.347655 1
gene 2 140 354 -0.429614 0 1335 -0.429614 1
gene 2 354 238 -0.201742 0 1336 -0.201742 1
gene 2 293 364 1.72178 0 1379 1.72178 1
gene 2 364 140 -3.97414 0 1380 -3.97414 1
gene 2 13 354 -0.10254 0 1464 -0.10254 1
gene 1 238 160 0.546167 0 1474 0.546167 1
gene 1 213 286 -0.686647 0 1484 -0.686647 1
gene 1 364 286 -0.497536 0 1512 -0.497536 1
gene 2 286 16 1.56014 0 1584 1.56014 1
gene 2 317 286 1.43172 0 1606 1.43172 1
gene 2 1 140 2.4084 0 1711 2.4084 1
gene 1 1 213 -0.479154 0 1723 -0.479154 1
gene 1 4 364 -3.1397 0 1832 -3.1397 1
genomeend 6

/* Species #134 : (Size 6) (AF 13.6354) (Age 24)  */


/* Organism #7 Fitness: 15.3887 Error: 0 */
genomestart 7
trait 1 0.0290472 0.00552208 0 0 0 0.0031835 0.113084 0.193656 
trait 2 1 0 0 0 0 0 0.180378 0.993401 
trait 3 0.3 0 0 0 0 0 0 0 
node 1 1 1 3
node 2 1 1 1
node 3 2 1 1
node 4 2 1 1
node 5 2 1 1
node 6 1 0 2
node 7 1 0 2
node 13 2 0 0
node 16 1 0 0
node 59 1 0 0
node 140 1 0 0
node 160 1 0 0
node 213 1 0 0
node 238 2 0 0
node 286 1 0 0
node 293 1 0 0
node 317 1 0 0
node 354 1 0 0
node 364 1 0 0
node 430 1 0 0
node 437 1 0 0
node 460 1 0 0
gene 1 1 6 -8 0 1 -8 1
gene 1 2 6 -6.72147 0 2 -6.72147 1
gene 2 3 6 -0.847086 0 3 -0.847086 1
gene 2 4 6 -7.79445 0 4 -7.79445 1
gene 1 5 6 4.78876 0 5 4.78876 0
gene 3 1 7 -1.43428 0 6 -1.43428 1
gene 2 2 7 7.47778 0 7 7.47778 1
gene 2 3 7 -3.41697 0 8 -3.41697 1
gene 1 4 7 2.51129 0 9 2.51129 1
gene 1 5 7 -7.55456 0 10 -7.55456 1
gene 2 4 13 -1.60727 0 25 -1.60727 1
gene 2 13 6 -0.0895057 0 26 -0.0895057 1
gene 3 1 13 2.35364 0 28 2.35364 1
gene 1 5 16 3.12783 0 38 3.12783 1
gene 1 16 6 0.673277 0 39 0.673277 1
gene 3 3 16 -7.56635 0 176 -7.56635 1
gene 2 13 59 4.62559 0 184 4.62559 1
gene 2 59 6 4.53768 0 185 4.53768 1
gene 1 13 16 -1.0676 0 263 -1.0676 1
gene 3 7 13 -2.54695 0 334 -2.54695 1
gene 3 7 6 -5.37549 0 356 -5.37549 1
gene 1 2 59 -3.92753 0 466 -3.92753 1
gene 2 4 140 -5.46956 0 482 -5.46956 1
gene 2 140 6 -0.398054 0 483 -0.398054 1
gene 2 13 160 -0.609712 0 551 -0.609712 0
gene 2 160 59 2.4343 0 552 2.4343 1
gene 2 7 59 -5.03956 0 562 -5.03956 1
gene 1 5 213 -0.539646 0 735 -0.539646 1
gene 1 213 16 5.34487 0 736 5.34487 1
gene 3 4 160 -5.11682 0 752 -5.11682 1
gene 1 160 6 5.30335 0 770 5.30335 1
gene 1 140 7 0.572697 0 789 0.572697 1
gene 1 4 59 -1.73199 0 793 -1.73199 1
gene 1 5 238 -0.628487 0 855 -0.628487 1
gene 1 238 6 0.998395 0 856 0.998395 1
gene 1 140 160 0.61151 0 915 0.61151 1
gene 3 2 16 -1.19412 0 1011 -1.19412 1
gene 1 4 238 -2.94577 0 1035 -2.94577 1
gene 3 7 286 1 0 1045 1 1
gene 3 286 13 1.93921 0 1046 1.93921 0
gene 2 140 238 -0.709478 0 1058 -0.709478 1
gene 2 3 238 0.589885 0 1071 0.589885 1
gene 2 4 293 1 0 1088 1 1
gene 2 293 140 -3.39717 0 1089 -3.39717 1
gene 1 2 160 0.347841 0 1148 0.347841 1
gene 2 140 317 1 0 1187 0 1
gene 2 317 238 -0.709478 0 1188 0 0
gene 3 293 286 0.372682 0 1214 0.372682 1
gene 2 140 354 1 0 1335 0 1
gene 2 354 238 -0.709478 0 1336 0 1
gene 2 293 364 1 0 1379 0 1
gene 2 364 140 -3.39717 0 1380 0 1
gene 2 13 354 0.0445713 0 1464 0.0445713 1
gene 1 238 160 0.185935 0 1474 0.185935 1
gene 1 213 286 -0.683639 0 1484 -0.683639 1
gene 1 364 286 -0.535561 0 1512 -0.535561 1
gene 2 364 16 -0.307029 0 1587 -0.307029 1
gene 1 1 140 0.681331 0 1605 0.681331 1
gene 2 13 430 1 0 1653 0 1
gene 2 430 160 -0.609712 0 1654 0 1
gene 2 317 437 1 0 1670 0 1
gene 2 437 238 -0.709478 0 1671 0 1
gene 3 286 460 1 0 1748 0 1
gene 3 460 13 1.93921 0 1749 0 1
gene 1 364 238 -0.0998701 0 1843 -0.0998701 1
genomeend 7

/* Organism #8 Fitness: 12.8206 Error: 0 */
genomestart 8
trait 1 0.0290472 0.00552208 0 0 0 0.0031835 0.113084 0.193656 
trait 2 1 0 0 0 0 0 0.180378 0.993401 
trait 3 0.3 0 0 0 0 0 0 0 
node 1 1 1 3
node 2 1 1 1
node 3 2 1 1
node 4 2 1 1
node 5 2 1 1
node 6 1 0 2
node 7 1 0 2
node 13 2 0 0
node 16 1 0 0
node 59 1 0 0
node 140 1 0 0
node 160 1 0 0
node 213 1 0 0
node 238 2 0 0
node 286 1 0 0
node 293 1 0 0
node 317 1 0 0
node 354 1 0 0
node 364 1 0 0
node 430 1 0 0
node 437 1 0 0
node 460 1 0 0
gene 1 1 6 -7.25515 0 1 -7.25515 1
gene 1 2 6 -5.01023 0 2 -5.01023 1
gene 2 3 6 -3.16332 0 3 -3.16332 1
gene 2 4 6 -8 0 4 -8 1
gene 1 5 6 1.13263 0 5 1.13263 0
gene 3 1 7 -1.69433 0 6 -1.69433 1
gene 2 2 7 8 0 7 8 1
gene 2 3 7 3.29608 0 8 3.29608 1
gene 1 4 7 -2.47342 0 9 -2.47342 1
gene 1 5 7 -8 0 10 -8 1
gene 2 4 13 -1.5031 0 25 -1.5031 1
gene 2 13 6 0.199676 0 26 0.199676 1
gene 1 1 13 5.90561 0 28 5.90561 1
gene 1 5 16 0.909211 0 38 0.909211 1
gene 1 16 6 0.801058 0 39 0.801058 1
gene 3 3 16 0.787581 0 176 0.787581 1
gene 2 13 59 0.216522 0 184 0.216522 1
gene 2 59 6 7.00985 0 185 7.00985 1
gene 1 13 16 -2.14897 0 263 -2.14897 1
gene 3 7 13 0.360473 0 334 0.360473 1
gene 3 7 6 -5.08332 0 356 -5.08332 1
gene 1 2 59 -1.47222 0 466 -1.47222 1
gene 2 4 140 -5.91913 0 482 -5.91913 1
gene 2 140 6 -2.13193 0 483 -2.13193 1
gene 2 13 160 1.18954 0 551 1.18954 0
gene 2 160 59 -0.407614 0 552 -0.407614 1
gene 2 7 59 2.19381 0 562 2.19381 1
gene 1 5 213 -0.0114181 0 735 -0.0114181 1
gene 1 213 16 6.07421 0 736 6.07421 1
gene 3 4 160 -6.18018 0 752 -6.18018 1
gene 1 160 6 3.4883 0 770 3.4883 1
gene 1 140 7 1.13045 0 789 1.13045 1
gene 1 4 59 -3.25273 0 793 -3.25273 1
gene 1 5 238 -1.93046 0 855 -1.93046 1
gene 1 238 6 1.8468 0 856 1.8468 1
gene 1 140 160 -0.898243 0 915 -0.898243 1
gene 3 2 16 -1.66857 0 1011 -1.66857 1
gene 1 4 238 0.113455 0 1035 0.113455 1
gene 3 7 286 2.55875 0 1045 2.55875 1
gene 3 286 13 0.651577 0 1046 0.651577 0
gene 2 140 238 -1.34576 0 1058 -1.34576 1
gene 2 3 238 1.40352 0 1071 1.40352 1
gene 2 4 293 5.57879 0 1088 5.57879 1
gene 2 293 140 -1.07986 0 1089 -1.07986 1
gene 1 2 160 -3.55262 0 1148 -3.55262 1
gene 2 140 317 -4.2269 0 1187 -4.2269 1
gene 2 317 238 2.5869 0 1188 2.5869 0
gene 3 293 286 -1.03882 0 1214 -1.03882 1
gene 2 140 354 -0.411992 0 1335 -0.411992 1
gene 2 354 238 1.5422 0 1336 1.5422 1
gene 2 293 364 3.95847 0 1379 3.95847 1
gene 2 364 140 -3.28434 0 1380 -3.28434 1
gene 2 13 354 -1.69916 0 1464 -1.69916 1
gene 1 238 160 0.609168 0 1474 0.609168 1
gene 1 213 286 0.164944 0 1484 0.164944 1
gene 1 364 286 0.247589 0 1512 0.247589 1
gene 2 364 16 -0.375663 0 1587 -0.375663 1
gene 1 1 140 1.74541 0 1605 1.74541 1
gene 2 13 430 2.221 0 1653 2.221 1
gene 2 430 160 1.09572 0 1654 1.09572 1
gene 2 317 437 2.82221 0 1670 2.82221 1
gene 2 437 238 -2.03712 0 1671 -2.03712 1
gene 3 286 460 -0.47616 0 1748 -0.47616 1
gene 3 460 13 1.88447 0 1749 1.88447 1
gene 1 364 238 -2.39098 0 1843 -2.39098 1
genomeend 8

/* Organism #9 Fitness: 12.7205 Error: 0 */
genomestart 9
trait 1 0.0290472 0.00552208 0 0 0 0.0031835 0.113084 0.193656 
trait 2 1 0 0 0 0 0 0.180378 0.993401 
trait 3 0.3 0 0 0 0 0 0 0 
node 1 1 1 3
node 2 1 1 1
node 3 2 1 1
node 4 2 1 1
node 5 2 1 1
node 6 1 0 2
node 7 1 0 2
node 13 2 0 0
node 16 1 0 0
node 59 1 0 0
node 140 1 0 0
node 160 1 0 0
node 213 1 0 0
node 238 2 0 0
node 286 1 0 0
node 293 1 0 0
node 317 1 0 0
node 354 1 0 0
node 364 1 0 0
node 430 1 0 0
node 437 1 0 0
node 460 1 0 0
gene 1 1 6 -6.08352 0 1 -6.08352 1
gene 1 2 6 -4.50725 0 2 -4.50725 1
gene 2 3 6 -2.70096 0 3 -2.70096 1
gene 2 4 6 -7.37095 0 4 -7.37095 1
gene 1 5 6 5.6533 0 5 5.6533 0
gene 3 1 7 -1.55165 0 6 -1.55165 1
gene 2 2 7 7.68987 0 7 7.68987 1
gene 2 3 7 -2.87494 0 8 -2.87494 1
gene 1 4 7 1.72685 0 9 1.72685 1
gene 1 5 7 -8 0 10 -8 1
gene 2 4 13 -1.45362 0 25 -1.45362 1
gene 2 13 6 -1.66061 0 26 -1.66061 1
gene 1 1 13 1.23506 0 28 1.23506 1
gene 1 5 16 4.75901 0 38 4.75901 1
gene 1 16 6 -1.78118 0 39 -1.78118 1
gene 3 3 16 -2.34752 0 176 -2.34752 1
gene 2 13 59 2.94382 0 184 2.94382 1
gene 2 59 6 7.23962 0 185 7.23962 1
gene 1 13 16 -0.141617 0 263 -0.141617 1
gene 3 7 13 -3.94175 0 334 -3.94175 1
gene 3 7 6 -4.68082 0 356 -4.68082 1
gene 1 2 59 -5.18638 0 466 -5.18638 1
gene 2 4 140 -6.16285 0 482 -6.16285 1
gene 2 140 6 0.893026 0 483 0.893026 1
gene 2 13 160 0.438728 0 551 0.438728 0
gene 2 160 59 0.249694 0 552 0.249694 1
gene 2 7 59 -3.1584 0 562 -3.1584 1
gene 1 5 213 0.955975 0 735 0.955975 1
gene 1 213 16 7.53927 0 736 7.53927 1
gene 3 4 160 -5.90205 0 752 -5.90205 1
gene 1 160 6 3.30125 0 770 3.30125 1
gene 1 140 7 0.0083016 0 789 0.0083016 1
gene 1 4 59 -1.60939 0 793 -1.60939 1
gene 1 5 238 -0.00203411 0 855 -0.00203411 1
gene 1 238 6 2.13422 0 856 2.13422 1
gene 1 140 160 -1.02288 0 915 -1.02288 1
gene 3 2 16 -0.733233 0 1011 -0.733233 1
gene 1 4 238 -0.589527 0 1035 -0.589527 1
gene 3 7 286 2.84268 0 1045 2.84268 1
gene 3 286 13 2.27881 0 1046 2.27881 0
gene 2 140 238 -3.30656 0 1058 -3.30656 1
gene 2 3 238 1.36189 0 1071 1.36189 1
gene 2 4 293 0.774375 0 1088 0.774375 1
gene 2 293 140 -3.4111 0 1089 -3.4111 1
gene 1 2 160 -1.58275 0 1148 -1.58275 1
gene 2 140 317 1.41901 0 1187 1.41901 1
gene 2 317 238 0.325025 0 1188 0.325025 1
gene 3 293 286 1.70762 0 1214 1.70762 1
gene 2 140 354 3.4263 0 1335 3.4263 1
gene 2 354 238 -2.73452 0 1336 -2.73452 1
gene 2 293 364 1.17047 0 1379 1.17047 1
gene 2 364 140 -2.02259 0 1380 -2.02259 1
gene 2 13 354 -2.01131 0 1464 -2.01131 1
gene 1 238 160 0.542014 0 1474 0.542014 1
gene 1 213 286 -1.59713 0 1484 -1.59713 1
gene 1 364 286 -0.258066 0 1512 -0.258066 1
gene 2 364 16 -2.42286 0 1587 -2.42286 1
gene 1 1 140 1.21337 0 1605 1.21337 1
gene 2 13 430 3.54728 0 1653 3.54728 1
gene 2 430 160 -1.07989 0 1654 -1.07989 1
gene 2 317 437 2.93449 0 1670 2.93449 1
gene 2 437 238 0.519781 0 1671 0.519781 1
gene 3 286 460 -1.78358 0 1748 -1.78358 1
gene 3 460 13 1.36218 0 1749 1.36218 1
gene 1 364 238 1.48769 0 1843 1.48769 1
genomeend 9

/* Organism #10 Fitness: 12.6028 Error: 0 */
genomestart 10
trait 1 0.0290472 0.00552208 0 0 0 0.0031835 0.113084 0.193656 
trait 2 1 0 0 0 0 0 0.180378 0.993401 
trait 3 0.3 0 0 0 0 0 0 0 
node 1 1 1 3
node 2 1 1 1
node 3 2 1 1
node 4 2 1 1
node 5 2 1 1
node 6 1 0 2
node 7 1 0 2
node 13 2 0 0
node 16 1 0 0
node 59 1 0 0
node 140 1 0 0
node 160 1 0 0
node 213 1 0 0
node 238 2 0 0
node 286 1 0 0
node 293 1 0 0
node 317 1 0 0
node 354 1 0 0
node 364 1 0 0
node 430 1 0 0
node 437 1 0 0
node 460 1 0 0
gene 1 1 6 -5.65162 0 1 -5.65162 1
gene 1 2 6 -6.12125 0 2 -6.12125 1
gene 2 3 6 -0.641573 0 3 -0.641573 1
gene 2 4 6 -8 0 4 -8 1
gene 1 5 6 -2.30829 0 5 -2.30829 0
gene 3 1 7 -0.40523 0 6 -0.40523 1
gene 2 2 7 -1.0847 0 7 -1.0847 1
gene 2 3 7 0.0428391 0 8 0.0428391 1
gene 1 4 7 -0.114321 0 9 -0.114321 1
gene 1 5 7 -5.42228 0 10 -5.42228 1
gene 2 4 13 -1.20484 0 25 -1.20484 1
gene 2 13 6 -3.06589 0 26 -3.06589 1
gene 3 1 13 -0.95216 0 28 -0.95216 1
gene 1 5 16 0.831973 0 38 0.831973 1
gene 1 16 6 0.0442296 0 39 0.0442296 1
gene 3 3 16 -3.54598 0 176 -3.54598 1
gene 2 13 59 -1.83705 0 184 -1.83705 1
gene 2 59 6 7.74547 0 185 7.74547 1
gene 1 13 16 -0.241227 0 263 -0.241227 1
gene 3 7 13 -4.12631 0 334 -4.12631 1
gene 3 7 6 -1.13423 0 356 -1.13423 1
gene 1 2 59 -1.44974 0 466 -1.44974 1
gene 2 4 140 -7.66063 0 482 -7.66063 1
gene 2 140 6 -2.03732 0 483 -2.03732 1
gene 2 13 160 1.34374 0 551 1.34374 1
gene 2 160 59 -0.226657 0 552 -0.226657 1
gene 2 7 59 -1.44513 0 562 -1.44513 1
gene 1 5 213 1.01487 0 735 1.01487 1
gene 1 213 16 0.557548 0 736 0.557548 1
gene 3 4 160 -0.126914 0 752 -0.126914 1
gene 1 160 6 4.66301 0 770 4.66301 1
gene 1 140 7 -0.0786366 0 789 -0.0786366 1
gene 1 4 59 -3.03636 0 793 -3.03636 1
gene 1 5 238 -2.44231 0 855 -2.44231 1
gene 1 238 6 2.21097 0 856 2.21097 1
gene 1 140 160 -1.15999 0 915 -1.15999 1
gene 3 2 16 -1.02553 0 1011 -1.02553 1
gene 1 4 238 1.89179 0 1035 1.89179 1
gene 3 7 286 -1.25247 0 1045 -1.25247 1
gene 3 286 13 2.73706 0 1046 2.73706 0
gene 2 140 238 -1.40499 0 1058 -1.40499 1
gene 2 3 238 0.258765 0 1071 0.258765 1
gene 2 4 293 1.82381 0 1088 1.82381 1
gene 2 293 140 -2.35474 0 1089 -2.35474 1
gene 1 2 160 0.871337 0 1148 0.871337 1
gene 2 140 317 -1.95991 0 1187 -1.95991 1
gene 2 317 238 -0.765097 0 1188 -0.765097 0
gene 3 293 286 2.11276 0 1214 2.11276 1
gene 2 140 354 0.246203 0 1335 0.246203 1
gene 2 354 238 2.26844 0 1336 2.26844 1
gene 2 293 364 1.91506 0 1379 1.91506 1
gene 2 364 140 -1.86023 0 1380 -1.86023 1
gene 2 13 354 0.380068 0 1464 0.380068 1
gene 1 238 160 1.44736 0 1474 1.44736 1
gene 1 213 286 1.52111 0 1484 1.52111 1
gene 1 364 286 1.45368 0 1512 1.45368 1
gene 2 364 16 0.34295 0 1587 0.34295 1
gene 1 1 140 2.2601 0 1605 2.2601 1
gene 2 13 430 3.58875 0 1653 3.58875 1
gene 2 430 160 -2.84366 0 1654 -2.84366 1
gene 2 317 437 2.31905 0 1670 2.31905 1
gene 2 437 238 -3.22325 0 1671 -3.22325 1
gene 3 286 460 -0.759438 0 1748 -0.759438 1
gene 3 460 13 2.7615 0 1749 2.7615 1
gene 1 364 238 -2.10242 0 1843 -2.10242 1
genomeend 10

/* Organism #11 Fitness: 12.8913 Error: 0 */
genomestart 11
trait 1 0.0290472 0.00552208 0 0 0 0.0031835 0.113084 0.193656 
trait 2 1 0 0 0 0 0 0.180378 0.993401 
trait 3 0.3 0 0 0 0 0 0 0 
node 1 1 1 3
node 2 1 1 1
node 3 2 1 1
node 4 2 1 1
node 5 2 1 1
node 6 1 0 2
node 7 1 0 2
node 13 2 0 0
node 16 1 0 0
node 59 1 0 0
node 140 1 0 0
node 160 1 0 0
node 213 1 0 0
node 238 2 0 0
node 286 1 0 0
node 293 1 0 0
node 317 1 0 0
node 354 1 0 0
node 364 1 0 0
node 430 1 0 0
node 437 1 0 0
node 460 1 0 0
gene 1 1 6 -8 0 1 -8 1
gene 1 2 6 0.932522 0 2 0.932522 1
gene 2 3 6 -0.773709 0 3 -0.773709 1
gene 2 4 6 -8 0 4 -8 1
gene 1 5 6 2.85422 0 5 2.85422 0
gene 3 1 7 -2.32702 0 6 -2.32702 1
gene 2 2 7 8 0 7 8 1
gene 2 3 7 -0.544292 0 8 -0.544292 1
gene 1 4 7 4.83274 0 9 4.83274 1
gene 1 5 7 -6.9499 0 10 -6.9499 1
gene 2 4 13 -1.83468 0 25 -1.83468 1
gene 2 13 6 1.73844 0 26 1.73844 1
gene 3 1 13 4.0771 0 28 4.0771 1
gene 1 5 16 3.12783 0 38 3.12783 1
gene 1 16 6 -0.50077 0 39 -0.50077 1
gene 3 3 16 -5.14778 0 176 -5.14778 1
gene 2 13 59 4.8817 0 184 4.8817 1
gene 2 59 6 5.78071 0 185 5.78071 1
gene 1 13 16 -1.0676 0 263 -1.0676 1
gene 3 7 13 2.21904 0 334 2.21904 1
gene 3 7 6 -5.37549 0 356 -5.37549 1
gene 1 2 59 -1.55094 0 466 -1.55094 1
gene 2 4 140 -3.92726 0 482 -3.92726 1
gene 2 140 6 1.6405 0 483 1.6405 1
gene 2 13 160 1.34156 0 551 1.34156 0
gene 2 160 59 3.60653 0 552 3.60653 1
gene 2 7 59 -3.91029 0 562 -3.91029 1
gene 1 5 213 -1.15618 0 735 -1.15618 1
gene 1 213 16 -1.68134 0 736 -1.68134 1
gene 3 4 160 -5.71415 0 752 -5.71415 1
gene 1 160 6 4.90581 0 770 4.90581 1
gene 1 140 7 -1.07834 0 789 -1.07834 1
gene 1 4 59 -0.0779404 0 793 -0.0779404 1
gene 1 5 238 1.22133 0 855 1.22133 1
gene 1 238 6 1.62092 0 856 1.62092 1
gene 1 140 160 -0.304614 0 915 -0.304614 1
gene 3 2 16 0.0925975 0 1011 0.0925975 1
gene 1 4 238 2.39918 0 1035 2.39918 1
gene 3 7 286 0.3122 0 1045 0.3122 1
gene 3 286 13 3.56453 0 1046 3.56453 0
gene 2 140 238 -2.02224 0 1058 -2.02224 1
gene 2 3 238 1.70838 0 1071 1.70838 1
gene 2 4 293 0.553812 0 1088 0.553812 1
gene 2 293 140 -1.71251 0 1089 -1.71251 1
gene 1 2 160 1.47101 0 1148 1.47101 1
gene 2 140 317 -1.34217 0 1187 -1.34217 1
gene 2 317 238 -1.24905 0 1188 -1.24905 0
gene 3 293 286 0.53151 0 1214 0.53151 1
gene 2 140 354 0.563279 0 1335 0.563279 1
gene 2 354 238 -2.14122 0 1336 -2.14122 1
gene 2 293 364 2.30311 0 1379 2.30311 1
gene 2 364 140 -1.42612 0 1380 -1.42612 1
gene 2 13 354 -0.517298 0 1464 -0.517298 1
gene 1 238 160 -0.879164 0 1474 -0.879164 1
gene 1 213 286 1.07006 0 1484 1.07006 1
gene 1 364 286 -1.11202 0 1512 -1.11202 1
gene 2 364 16 0.558362 0 1587 0.558362 1
gene 1 1 140 0.681331 0 1605 0.681331 1
gene 2 13 430 1.09527 0 1653 1.09527 1
gene 2 430 160 1.79495 0 1654 1.79495 1
gene 2 317 437 -0.309938 0 1670 -0.309938 1
gene 2 437 238 -0.696276 0 1671 -0.696276 1
gene 3 286 460 1 0 1748 1 1
gene 3 460 13 1.93921 0 1749 1.93921 1
gene 1 364 238 -1.04199 0 1843 -1.04199 1
genomeend 11

/* Organism #12 Fitness: 15.3887 Error: 0 */
genomestart 12
trait 1 0.0290472 0.00552208 0 0 0 0.0031835 0.113084 0.193656 
trait 2 1 0 0 0 0 0 0.180378 0.993401 
trait 3 0.3 0 0 0 0 0 0 0 
node 1 1 1 3
node 2 1 1 1
node 3 2 1 1
node 4 2 1 1
node 5 2 1 1
node 6 1 0 2
node 7 1 0 2
node 13 2 0 0
node 16 1 0 0
node 59 1 0 0
node 140 1 0 0
node 160 1 0 0
node 213 1 0 0
node 238 2 0 0
node 286 1 0 0
node 293 1 0 0
node 317 1 0 0
node 354 1 0 0
node 364 1 0 0
node 430 1 0 0
node 437 1 0 0
node 460 1 0 0
gene 1 1 6 -8 0 1 -8 1
gene 1 2 6 -6.72147 0 2 -6.72147 1
gene 2 3 6 -0.847086 0 3 -0.847086 1
gene 2 4 6 -7.79445 0 4 -7.79445 1
gene 1 5 6 4.78876 0 5 4.78876 0
gene 3 1 7 -1.43428 0 6 -1.43428 1
gene 2 2 7 7.47778 0 7 7.47778 1
gene 2 3 7 -3.41697 0 8 -3.41697 1
gene 1 4 7 2.51129 0 9 2.51129 1
gene 1 5 7 -7.55456 0 10 -7.55456 1
gene 2 4 13 -1.60727 0 25 -1.60727 1
gene 2 13 6 -0.0895057 0 26 -0.0895057 1
gene 3 1 13 2.35364 0 28 2.35364 1
gene 1 5 16 3.12783 0 38 3.12783 1
gene 1 16 6 0.673277 0 39 0.673277 1
gene 3 3 16 -7.56635 0 176 -7.56635 1
gene 2 13 59 4.62559 0 184 4.62559 1
gene 2 59 6 4.53768 0 185 4.53768 1
gene 1 13 16 -1.0676 0 263 -1.0676 1
gene 3 7 13 -2.54695 0 334 -2.54695 1
gene 3 7 6 -5.37549 0 356 -5.37549 1
gene 1 2 59 -3.92753 0 466 -3.92753 1
gene 2 4 140 -5.46956 0 482 -5.46956 1
gene 2 140 6 -0.398054 0 483 -0.398054 1
gene 2 13 160 -0.609712 0 551 -0.609712 0
gene 2 160 59 2.4343 0 552 2.4343 1
gene 2 7 59 -5.03956 0 562 -5.03956 1
gene 1 5 213 -0.539646 0 735 -0.539646 1
gene 1 213 16 5.34487 0 736 5.34487 1
gene 3 4 160 -5.11682 0 752 -5.11682 1
gene 1 160 6 5.30335 0 770 5.30335 1
gene 1 140 7 0.572697 0 789 0.572697 1
gene 1 4 59 -1.73199 0 793 -1.73199 1
gene 1 5 238 -0.628487 0 855 -0.628487 1
gene 1 238 6 0.998395 0 856 0.998395 1
gene 1 140 160 0.61151 0 915 0.61151 1
gene 3 2 16 -1.19412 0 1011 -1.19412 1
gene 1 4 238 -2.94577 0 1035 -2.94577 1
gene 3 7 286 1 0 1045 1 1
gene 3 286 13 1.93921 0 1046 1.93921 0
gene 2 140 238 -0.709478 0 1058 -0.709478 1
gene 2 3 238 0.589885 0 1071 0.589885 1
gene 2 4 293 1 0 1088 1 1
gene 2 293 140 -3.39717 0 1089 -3.39717 1
gene 1 2 160 0.347841 0 1148 0.347841 1
gene 2 140 317 1 0 1187 0 1
gene 2 317 238 -0.709478 0 1188 0 0
gene 3 293 286 0.372682 0 1214 0.372682 1
gene 2 140 354 1 0 1335 0 1
gene 2 354 238 -0.709478 0 1336 0 1
gene 2 293 364 1 0 1379 0 1
gene 2 364 140 -3.39717 0 1380 0 1
gene 2 13 354 0.0445713 0 1464 0.0445713 1
gene 1 238 160 0.185935 0 1474 0.185935 1
gene 1 213 286 -0.683639 0 1484 -0.683639 1
gene 1 364 286 -0.535561 0 1512 -0.535561 1
gene 2 364 16 -0.307029 0 1587 -0.307029 1
gene 1 1 140 0.681331 0 1605 0.681331 1
gene 2 13 430 1 0 1653 0 1
gene 2 430 160 -0.609712 0 1654 0 1
gene 2 317 437 1 0 1670 0 1
gene 2 437 238 -0.709478 0 1671 0 1
gene 3 286 460 1 0 1748 0 1
gene 3 460 13 1.93921 0 1749 0 1
gene 1 364 238 -0.0998701 0 1843 -0.0998701 1
genomeend 12

/* Species #146 : (Size 9) (AF 13.9469) (Age 8)  */


/* Organism #13 Fitness: 15.3875 Error: 0 */
genomestart 13
trait 1 0.0290472 0.00552208 0 0 0 0.0031835 0.113084 0.193656 
trait 2 1 0 0 0 0 0 0.180378 0.993401 
trait 3 0.3 0 0 0 0 0 0 0 
node 1 1 1 3
node 2 1 1 1
node 3 2 1 1
node 4 2 1 1
node 5 2 1 1
node 6 1 0 2
node 7 1 0 2
node 13 1 0 0
node 16 1 0 0
node 59 1 0 0
node 140 1 0 0
node 160 1 0 0
node 213 1 0 0
node 238 2 0 0
node 286 1 0 0
node 293 1 0 0
node 317 1 0 0
node 354 1 0 0
node 364 1 0 0
node 477 1 0 0
gene 1 1 6 -8 0 1 -8 1
gene 1 2 6 -6.72147 0 2 -6.72147 1
gene 2 3 6 -0.847086 0 3 -0.847086 1
gene 2 4 6 -7.79445 0 4 -7.79445 1
gene 1 5 6 4.78876 0 5 4.78876 0
gene 3 1 7 -1.43428 0 6 -1.43428 1
gene 2 2 7 7.47778 0 7 7.47778 1
gene 2 3 7 -3.41697 0 8 -3.41697 1
gene 1 4 7 2.51129 0 9 2.51129 1
gene 1 5 7 -7.55456 0 10 -7.55456 1
gene 2 4 13 -1.60727 0 25 -1.60727 1
gene 2 13 6 -0.0895057 0 26 -0.0895057 1
gene 3 1 13 2.35364 0 28 2.35364 1
gene 1 5 16 3.12783 0 38 3.12783 1
gene 1 16 6 0.673277 0 39 0.673277 1
gene 3 3 16 -7.56635 0 176 -7.56635 1
gene 2 13 59 4.62559 0 184 4.62559 1
gene 2 59 6 4.53768 0 185 4.53768 1
gene 1 13 16 -1.0676 0 263 -1.0676 1
gene 3 7 13 -2.54695 0 334 -2.54695 1
gene 3 7 6 -5.37549 0 356 -5.37549 1
gene 1 2 59 -3.92753 0 466 -3.92753 1
gene 2 4 140 -5.46956 0 482 -5.46956 1
gene 2 140 6 -0.398054 0 483 -0.398054 1
gene 2 13 160 -0.609712 0 551 -0.609712 1
gene 2 160 59 2.4343 0 552 2.4343 1
gene 2 7 59 -5.03956 0 562 -5.03956 1
gene 1 5 213 -0.539646 0 735 -0.539646 1
gene 1 213 16 5.34487 0 736 5.34487 1
gene 3 4 160 -5.11682 0 752 -5.11682 1
gene 1 160 6 5.30335 0 770 5.30335 1
gene 1 140 7 0.572697 0 789 0.572697 1
gene 1 4 59 -1.73199 0 793 -1.73199 1
gene 1 5 238 -0.628487 0 855 -0.628487 1
gene 1 238 6 0.998395 0 856 0.998395 1
gene 1 140 160 0.61151 0 915 0.61151 1
gene 3 2 16 -1.19412 0 1011 -1.19412 1
gene 1 4 238 -2.94577 0 1035 -2.94577 1
gene 3 7 286 1 0 1045 1 0
gene 3 286 13 1.93921 0 1046 1.93921 1
gene 2 140 238 -0.709478 0 1058 -0.709478 1
gene 2 3 238 0.589885 0 1071 0.589885 1
gene 2 4 293 1 0 1088 1 1
gene 2 293 140 -3.39717 0 1089 -3.39717 0
gene 1 2 160 0.347841 0 1148 0.347841 1
gene 2 140 317 1 0 1187 0 1
gene 2 317 238 -0.709478 0 1188 0 1
gene 3 293 286 0.372682 0 1214 0.372682 1
gene 2 140 354 1 0 1335 0 1
gene 2 354 238 -0.709478 0 1336 0 1
gene 2 293 364 1 0 1379 0 1
gene 2 364 140 -3.39717 0 1380 0 1
gene 2 13 354 0.0445713 0 1464 0.0445713 1
gene 1 238 160 0.185935 0 1474 0.185935 1
gene 1 213 286 -0.683639 0 1484 -0.683639 1
gene 1 364 286 -0.535561 0 1512 -0.535561 1
gene 2 286 16 0.195532 0 1584 0.195532 1
gene 2 317 286 -0.453025 0 1606 -0.453025 1
gene 2 1 140 0.260845 0 1711 0.260845 1
gene 1 1 213 -0.471169 0 1723 -0.471169 1
gene 1 213 13 0.0526124 0 1833 0.0526124 1
gene 3 7 477 1 0 1846 0 1
gene 3 477 286 1 0 1847 0 1
gene 2 7 238 -0.800527 0 1948 -0.800527 1
genomeend 13

/* Organism #14 Fitness: 15.3875 Error: 0 */
genomestart 14
trait 1 0.0290472 0.00552208 0 0 0 0.0031835 0.113084 0.193656 
trait 2 1 0 0 0 0 0 0.180378 0.993401 
trait 3 0.3 0 0 0 0 0 0 0 
node 1 1 1 3
node 2 1 1 1
node 3 2 1 1
node 4 2 1 1
node 5 2 1 1
node 6 1 0 2
node 7 1 0 2
node 13 1 0 0
node 16 1 0 0
node 59 1 0 0
node 140 1 0 0
node 160 1 0 0
node 213 1 0 0
node 238 2 0 0
node 286 1 0 0
node 293 1 0 0
node 317 1 0 0
node 354 1 0 0
node 364 1 0 0
node 477 1 0 0
gene 1 1 6 -8 0 1 -8 1
gene 1 2 6 -6.72147 0 2 -6.72147 1
gene 2 3 6 -0.847086 0 3 -0.847086 1
gene 2 4 6 -7.79445 0 4 -7.79445 1
gene 1 5 6 4.78876 0 5 4.78876 0
gene 3 1 7 -1.43428 0 6 -1.43428 1
gene 2 2 7 7.47778 0 7 7.47778 1
gene 2 3 7 -3.41697 0 8 -3.41697 1
gene 1 4 7 2.51129 0 9 2.51129 1
gene 1 5 7 -7.55456 0 10 -7.55456 1
gene 2 4 13 -1.60727 0 25 -1.60727 1
gene 2 13 6 -0.0895057 0 26 -0.0895057 1
gene 3 1 13 2.35364 0 28 2.35364 1
gene 1 5 16 3.12783 0 38 3.12783 1
gene 1 16 6 0.673277 0 39 0.673277 1
gene 3 3 16 -7.56635 0 176 -7.56635 1
gene 2 13 59 4.62559 0 184 4.62559 1
gene 2 59 6 4.53768 0 185 4.53768 1
gene 1 13 16 -1.0676 0 263 -1.0676 1
gene 3 7 13 -2.54695 0 334 -2.54695 1
gene 3 7 6 -5.37549 0 356 -5.37549 1
gene 1 2 59 -3.92753 0 466 -3.92753 1
gene 2 4 140 -5.46956 0 482 -5.46956 1
gene 2 140 6 -0.398054 0 483 -0.398054 1
gene 2 13 160 -0.609712 0 551 -0.609712 1
gene 2 160 59 2.4343 0 552 2.4343 1
gene 2 7 59 -5.03956 0 562 -5.03956 1
gene 1 5 213 -0.539646 0 735 -0.539646 1
gene 1 213 16 5.34487 0 736 5.34487 1
gene 3 4 160 -5.11682 0 752 -5.11682 1
gene 1 160 6 5.30335 0 770 5.30335 1
gene 1 140 7 0.572697 0 789 0.572697 1
gene 1 4 59 -1.73199 0 793 -1.73199 1
gene 1 5 238 -0.628487 0 855 -0.628487 1
gene 1 238 6 0.998395 0 856 0.998395 1
gene 1 140 160 0.61151 0 915 0.61151 1
gene 3 2 16 -1.19412 0 1011 -1.19412 1
gene 1 4 238 -2.94577 0 1035 -2.94577 1
gene 3 7 286 1 0 1045 1 0
gene 3 286 13 1.93921 0 1046 1.93921 1
gene 2 140 238 -0.709478 0 1058 -0.709478 1
gene 2 3 238 0.589885 0 1071 0.589885 1
gene 2 4 293 1 0 1088 1 1
gene 2 293 140 -3.39717 0 1089 -3.39717 0
gene 1 2 160 0.347841 0 1148 0.347841 1
gene 3 140 317 1 0 1187 0 1
gene 2 317 238 -0.709478 0 1188 0 1
gene 3 293 286 0.372682 0 1214 0.372682 1
gene 2 140 354 1 0 1335 0 1
gene 2 354 238 -0.709478 0 1336 0 1
gene 2 293 364 1 0 1379 0 1
gene 2 364 140 -3.39717 0 1380 0 1
gene 2 13 354 0.0445713 0 1464 0.0445713 1
gene 1 238 160 0.185935 0 1474 0.185935 1
gene 1 213 286 -0.683639 0 1484 -0.683639 1
gene 1 364 286 -0.535561 0 1512 -0.535561 1
gene 2 286 16 0.195532 0 1584 0.195532 1
gene 2 317 286 -0.453025 0 1606 -0.453025 1
gene 2 1 140 0.260845 0 1711 0.260845 1
gene 1 1 213 -0.471169 0 1723 -0.471169 1
gene 1 213 13 0.0526124 0 1833 0.0526124 1
gene 3 7 477 1 0 1846 0 1
gene 3 477 286 1 0 1847 0 1
gene 2 7 238 -0.800527 0 1948 -0.800527 1
genomeend 14

/* Organism #15 Fitness: 12.9961 Error: 0 */
genomestart 15
trait 1 0.0290472 0.00552208 0 0 0 0.0031835 0.113084 0.193656 
trait 2 1 0 0 0 0 0 0.180378 0.993401 
trait 3 0.3 0 0 0 0 0 0 0 
node 1 1 1 3
node 2 1 1 1
node 3 2 1 1
node 4 2 1 1
node 5 2 1 1
node 6 1 0 2
node 7 1 0 2
node 13 1 0 0
node 16 1 0 0
node 59 1 0 0
node 140 1 0 0
node 160 1 0 0
node 213 1 0 0
node 238 2 0 0
node 286 1 0 0
node 293 1 0 0
node 317 1 0 0
node 354 1 0 0
node 364 1 0 0
node 477 1 0 0
gene 1 1 6 -8 0 1 -8 1
gene 1 2 6 -7.96837 0 2 -7.96837 1
gene 2 3 6 0.0987822 0 3 0.0987822 1
gene 2 4 6 -8 0 4 -8 1
gene 1 5 6 3.19868 0 5 3.19868 0
gene 3 1 7 -0.196325 0 6 -0.196325 1
gene 2 2 7 8 0 7 8 1
gene 2 3 7 -5.18806 0 8 -5.18806 1
gene 1 4 7 4.53628 0 9 4.53628 1
gene 1 5 7 -6.48488 0 10 -6.48488 1
gene 2 4 13 0.705278 0 25 0.705278 1
gene 2 13 6 0.297546 0 26 0.297546 1
gene 3 1 13 1.38874 0 28 1.38874 1
gene 1 5 16 1.39722 0 38 1.39722 1
gene 1 16 6 2.7177 0 39 2.7177 1
gene 3 3 16 -7.32704 0 176 -7.32704 1
gene 2 13 59 4.29389 0 184 4.29389 1
gene 2 59 6 4.93437 0 185 4.93437 1
gene 1 13 16 -3.55758 0 263 -3.55758 1
gene 3 7 13 -0.807268 0 334 -0.807268 1
gene 3 7 6 -3.03834 0 356 -3.03834 1
gene 1 2 59 -4.04233 0 466 -4.04233 1
gene 2 4 140 -2.97447 0 482 -2.97447 1
gene 2 140 6 -1.84871 0 483 -1.84871 1
gene 2 13 160 1.47281 0 551 1.47281 1
gene 2 160 59 1.32005 0 552 1.32005 1
gene 2 7 59 -6.35307 0 562 -6.35307 1
gene 1 5 213 -3.03327 0 735 -3.03327 1
gene 1 213 16 6.10095 0 736 6.10095 1
gene 3 4 160 -6.68331 0 752 -6.68331 1
gene 1 160 6 3.10984 0 770 3.10984 1
gene 1 140 7 2.46796 0 789 2.46796 1
gene 1 4 59 0.676209 0 793 0.676209 1
gene 1 5 238 -2.54202 0 855 -2.54202 1
gene 1 238 6 2.71613 0 856 2.71613 1
gene 1 140 160 0.151087 0 915 0.151087 1
gene 3 2 16 -0.658599 0 1011 -0.658599 1
gene 1 4 238 -2.26029 0 1035 -2.26029 1
gene 3 7 286 -0.413045 0 1045 -0.413045 0
gene 3 286 13 3.13473 0 1046 3.13473 1
gene 2 140 238 -2.83367 0 1058 -2.83367 1
gene 2 3 238 0.426668 0 1071 0.426668 1
gene 2 4 293 0.923264 0 1088 0.923264 1
gene 2 293 140 -2.06791 0 1089 -2.06791 0
gene 1 2 160 1.54208 0 1148 1.54208 1
gene 2 140 317 2.75667 0 1187 2.75667 1
gene 2 317 238 -1.5474 0 1188 -1.5474 1
gene 3 293 286 -0.0835046 0 1214 -0.0835046 1
gene 2 140 354 3.31372 0 1335 3.31372 1
gene 2 354 238 -2.93609 0 1336 -2.93609 1
gene 2 293 364 -1.16962 0 1379 -1.16962 1
gene 2 364 140 -1.03478 0 1380 -1.03478 1
gene 2 13 354 -2.30845 0 1464 -2.30845 1
gene 1 238 160 -2.07661 0 1474 -2.07661 1
gene 1 213 286 0.289091 0 1484 0.289091 1
gene 1 364 286 0.146864 0 1512 0.146864 1
gene 2 286 16 0.195532 0 1584 0.195532 1
gene 2 317 286 -2.37066 0 1606 -2.37066 1
gene 2 1 140 0.260845 0 1711 0.260845 1
gene 1 1 213 -0.471169 0 1723 -0.471169 1
gene 1 213 13 1.09945 0 1833 1.09945 1
gene 3 7 477 -0.237467 0 1846 -0.237467 1
gene 3 477 286 1.02273 0 1847 1.02273 1
gene 2 7 238 -0.800527 0 1948 -0.800527 1
genomeend 15

/* Organism #16 Fitness: 15.3875 Error: 0 */
genomestart 16
trait 1 0.0290472 0.00552208 0 0 0 0.0031835 0.113084 0.193656 
trait 2 1 0 0 0 0 0 0.180378 0.993401 
trait 3 0.3 0 0 0 0 0 0 0 
node 1 1 1 3
node 2 1 1 1
node 3 2 1 1
node 4 2 1 1
node 5 2 1 1
node 6 1 0 2
node 7 1 0 2
node 13 1 0 0
node 16 1 0 0
node 59 1 0 0
node 140 1 0 0
node 160 1 0 0
node 213 1 0 0
node 238 2 0 0
node 286 1 0 0
node 293 1 0 0
node 317 1 0 0
node 354 1 0 0
node 364 1 0 0
node 477 1 0 0
gene 1 1 6 -8 0 1 -8 1
gene 1 2 6 -6.72147 0 2 -6.72147 1
gene 2 3 6 -0.847086 0 3 -0.847086 1
gene 2 4 6 -7.79445 0 4 -7.79445 1
gene 1 5 6 4.78876 0 5 4.78876 0
gene 3 1 7 -1.43428 0 6 -1.43428 1
gene 2 2 7 7.47778 0 7 7.47778 1
gene 2 3 7 -3.41697 0 8 -3.41697 1
gene 1 4 7 2.51129 0 9 2.51129 1
gene 1 5 7 -7.55456 0 10 -7.55456 1
gene 2 4 13 -1.60727 0 25 -1.60727 1
gene 2 13 6 -0.0895057 0 26 -0.0895057 1
gene 3 1 13 2.35364 0 28 2.35364 1
gene 1 5 16 3.12783 0 38 3.12783 1
gene 1 16 6 0.673277 0 39 0.673277 1
gene 3 3 16 -7.56635 0 176 -7.56635 1
gene 2 13 59 4.62559 0 184 4.62559 1
gene 2 59 6 4.53768 0 185 4.53768 1
gene 1 13 16 -1.0676 0 263 -1.0676 1
gene 3 7 13 -2.54695 0 334 -2.54695 1
gene 3 7 6 -5.37549 0 356 -5.37549 1
gene 1 2 59 -3.92753 0 466 -3.92753 1
gene 2 4 140 -5.46956 0 482 -5.46956 1
gene 2 140 6 -0.398054 0 483 -0.398054 1
gene 2 13 160 -0.609712 0 551 -0.609712 1
gene 2 160 59 2.4343 0 552 2.4343 1
gene 2 7 59 -5.03956 0 562 -5.03956 1
gene 1 5 213 -0.539646 0 735 -0.539646 1
gene 1 213 16 5.34487 0 736 5.34487 1
gene 3 4 160 -5.11682 0 752 -5.11682 1
gene 1 160 6 5.30335 0 770 5.30335 1
gene 1 140 7 0.572697 0 789 0.572697 1
gene 1 4 59 -1.73199 0 793 -1.73199 1
gene 1 5 238 -0.628487 0 855 -0.628487 1
gene 1 238 6 0.998395 0 856 0.998395 1
gene 1 140 160 0.61151 0 915 0.61151 1
gene 3 2 16 -1.19412 0 1011 -1.19412 1
gene 1 4 238 -2.94577 0 1035 -2.94577 1
gene 3 7 286 1 0 1045 1 0
gene 3 286 13 1.93921 0 1046 1.93921 1
gene 2 140 238 -0.709478 0 1058 -0.709478 1
gene 2 3 238 0.589885 0 1071 0.589885 1
gene 2 4 293 1 0 1088 1 1
gene 2 293 140 -3.39717 0 1089 -3.39717 0
gene 1 2 160 0.347841 0 1148 0.347841 1
gene 2 140 317 1 0 1187 0 1
gene 2 317 238 -0.709478 0 1188 0 1
gene 3 293 286 0.372682 0 1214 0.372682 1
gene 2 140 354 1 0 1335 0 1
gene 2 354 238 -0.709478 0 1336 0 1
gene 2 293 364 1 0 1379 0 1
gene 2 364 140 -3.39717 0 1380 0 1
gene 2 13 354 0.0445713 0 1464 0.0445713 1
gene 1 238 160 0.185935 0 1474 0.185935 1
gene 1 213 286 -0.683639 0 1484 -0.683639 1
gene 1 364 286 -0.535561 0 1512 -0.535561 1
gene 2 286 16 0.195532 0 1584 0.195532 1
gene 2 317 286 -0.453025 0 1606 -0.453025 1
gene 2 1 140 0.260845 0 1711 0.260845 1
gene 1 1 213 -0.471169 0 1723 -0.471169 1
gene 1 213 13 0.0526124 0 1833 0.0526124 1
gene 3 7 477 1 0 1846 0 1
gene 3 477 286 1 0 1847 0 1
gene 2 7 238 -0.800527 0 1948 -0.800527 1
gene 2 4 286 -0.813279 0 1965 -0.813279 1
genomeend 16

/* Organism #17 Fitness: 12.9936 Error: 0 */
genomestart 17
trait 1 0.0290472 0.00552208 0 0 0 0.0031835 0.113084 0.193656 
trait 2 1 0 0 0 0 0 0.180378 0.993401 
trait 3 0.3 0 0 0 0 0 0 0 
node 1 1 1 3
node 2 1 1 1
node 3 2 1 1
node 4 2 1 1
node 5 2 1 1
node 6 1 0 2
node 7 1 0 2
node 13 1 0 0
node 16 1 0 0
node 59 1 0 0
node 140 1 0 0
node 160 1 0 0
node 213 1 0 0
node 238 2 0 0
node 286 1 0 0
node 293 1 0 0
node 317 1 0 0
node 354 1 0 0
node 364 1 0 0
node 477 1 0 0
gene 1 1 6 -8 0 1 -8 1
gene 1 2 6 -5.603 0 2 -5.603 1
gene 2 3 6 -0.323565 0 3 -0.323565 1
gene 2 4 6 -6.02795 0 4 -6.02795 1
gene 1 5 6 4.53288 0 5 4.53288 0
gene 3 1 7 0.818178 0 6 0.818178 1
gene 2 2 7 7.56073 0 7 7.56073 1
gene 2 3 7 -2.63497 0 8 -2.63497 1
gene 1 4 7 0.133921 0 9 0.133921 1
gene 1 5 7 -7.60399 0 10 -7.60399 1
gene 2 4 13 -0.46591 0 25 -0.46591 1
gene 2 13 6 -0.156782 0 26 -0.156782 1
gene 3 1 13 1.79924 0 28 1.79924 1
gene 1 5 16 2.58884 0 38 2.58884 1
gene 1 16 6 0.585876 0 39 0.585876 1
gene 3 3 16 -8 0 176 -8 1
gene 2 13 59 2.17324 0 184 2.17324 1
gene 2 59 6 6.61367 0 185 6.61367 1
gene 1 13 16 1.21121 0 263 1.21121 1
gene 3 7 13 -4.48328 0 334 -4.48328 1
gene 3 7 6 -5.30841 0 356 -5.30841 1
gene 1 2 59 -5.39456 0 466 -5.39456 1
gene 2 4 140 -4.57434 0 482 -4.57434 1
gene 2 140 6 1.2442 0 483 1.2442 1
gene 2 13 160 -2.29792 0 551 -2.29792 1
gene 2 160 59 4.36265 0 552 4.36265 1
gene 2 7 59 -5.7269 0 562 -5.7269 1
gene 1 5 213 -1.40283 0 735 -1.40283 1
gene 1 213 16 5.76696 0 736 5.76696 1
gene 3 4 160 -6.1286 0 752 -6.1286 1
gene 1 160 6 3.83226 0 770 3.83226 1
gene 1 140 7 0.106841 0 789 0.106841 1
gene 1 4 59 -0.419937 0 793 -0.419937 1
gene 1 5 238 -2.52633 0 855 -2.52633 1
gene 1 238 6 -0.776361 0 856 -0.776361 1
gene 1 140 160 1.2963 0 915 1.2963 1
gene 3 2 16 1.16152 0 1011 1.16152 1
gene 1 4 238 -3.47896 0 1035 -3.47896 1
gene 3 7 286 3.46503 0 1045 3.46503 0
gene 3 286 13 0.145302 0 1046 0.145302 1
gene 2 140 238 1.64304 0 1058 1.64304 1
gene 2 3 238 1.74844 0 1071 1.74844 1
gene 2 4 293 2.85906 0 1088 2.85906 1
gene 2 293 140 -4.50726 0 1089 -4.50726 0
gene 1 2 160 1.48978 0 1148 1.48978 1
gene 2 140 317 1.16931 0 1187 1.16931 1
gene 2 317 238 -0.0672283 0 1188 -0.0672283 1
gene 3 293 286 -1.10673 0 1214 -1.10673 1
gene 2 140 354 2.85646 0 1335 2.85646 1
gene 2 354 238 0.278217 0 1336 0.278217 1
gene 2 293 364 2.24152 0 1379 2.24152 1
gene 2 364 140 2.37719 0 1380 2.37719 1
gene 2 13 354 -1.99339 0 1464 -1.99339 1
gene 1 238 160 0.092524 0 1474 0.092524 1
gene 1 213 286 1.76379 0 1484 1.76379 1
gene 1 364 286 -0.535561 0 1512 -0.535561 1
gene 2 286 16 -1.75837 0 1584 -1.75837 1
gene 2 317 286 1.24904 0 1606 1.24904 1
gene 2 1 140 2.23306 0 1711 2.23306 1
gene 1 1 213 2.2414 0 1723 2.2414 1
gene 1 213 13 0.0526124 0 1833 0.0526124 1
gene 3 7 477 2.4703 0 1846 2.4703 1
gene 3 477 286 1.74802 0 1847 1.74802 1
genomeend 17

/* Organism #18 Fitness: 12.8107 Error: 0 */
genomestart 18
trait 1 0.0290472 0.00552208 0 0 0 0.0031835 0.113084 0.193656 
trait 2 1 0 0 0 0 0 0.180378 0.993401 
trait 3 0.3 0 0 0 0 0 0 0 
node 1 1 1 3
node 2 1 1 1
node 3 2 1 1
node 4 2 1 1
node 5 1 1 1
node 6 1 0 2
node 7 1 0 2
node 13 1 0 0
node 16 1 0 0
node 59 1 0 0
node 140 1 0 0
node 160 1 0 0
node 213 1 0 0
node 238 2 0 0
node 286 1 0 0
node 293 1 0 0
node 317 1 0 0
node 354 1 0 0
node 364 1 0 0
node 477 1 0 0
gene 1 1 6 -7.79067 0 1 -7.79067 1
gene 1 2 6 -6.92428 0 2 -6.92428 1
gene 2 3 6 0.979372 0 3 0.979372 1
gene 2 4 6 -6.4556 0 4 -6.4556 1
gene 1 5 6 3.03881 0 5 3.03881 0
gene 3 1 7 -2.48544 0 6 -2.48544 1
gene 2 2 7 8 0 7 8 1
gene 2 3 7 -5.48478 0 8 -5.48478 1
gene 1 4 7 2.49559 0 9 2.49559 1
gene 1 5 7 -8 0 10 -8 1
gene 2 4 13 -1.69301 0 25 -1.69301 1
gene 2 13 6 0.517525 0 26 0.517525 1
gene 3 1 13 0.176715 0 28 0.176715 1
gene 1 5 16 4.37363 0 38 4.37363 1
gene 1 16 6 2.91403 0 39 2.91403 1
gene 3 3 16 -6.25574 0 176 -6.25574 1
gene 2 13 59 5.81502 0 184 5.81502 1
gene 2 59 6 2.20527 0 185 2.20527 1
gene 1 13 16 1.04783 0 263 1.04783 1
gene 3 7 13 -2.30158 0 334 -2.30158 1
gene 3 7 6 -3.54698 0 356 -3.54698 1
gene 1 2 59 -5.02041 0 466 -5.02041 1
gene 2 4 140 -3.00876 0 482 -3.00876 1
gene 2 140 6 -0.840817 0 483 -0.840817 1
gene 2 13 160 0.894505 0 551 0.894505 1
gene 2 160 59 4.58942 0 552 4.58942 1
gene 2 7 59 -6.80286 0 562 -6.80286 1
gene 1 5 213 0.845344 0 735 0.845344 1
gene 1 213 16 6.30342 0 736 6.30342 1
gene 3 4 160 -7.54545 0 752 -7.54545 1
gene 1 160 6 7.27617 0 770 7.27617 1
gene 1 140 7 0.853746 0 789 0.853746 1
gene 1 4 59 -1.64725 0 793 -1.64725 1
gene 1 5 238 -0.843734 0 855 -0.843734 1
gene 1 238 6 0.277604 0 856 0.277604 1
gene 1 140 160 -0.74776 0 915 -0.74776 1
gene 3 2 16 -0.451918 0 1011 -0.451918 1
gene 1 4 238 -1.46953 0 1035 -1.46953 1
gene 3 7 286 2.36531 0 1045 2.36531 0
gene 3 286 13 -0.470681 0 1046 -0.470681 1
gene 2 140 238 0.805975 0 1058 0.805975 1
gene 2 3 238 2.08816 0 1071 2.08816 1
gene 2 4 293 2.33933 0 1088 2.33933 1
gene 2 293 140 -4.59323 0 1089 -4.59323 1
gene 1 2 160 -0.714451 0 1148 -0.714451 1
gene 2 140 317 2.57148 0 1187 2.57148 1
gene 2 317 238 1.01433 0 1188 1.01433 1
gene 3 293 286 1.19752 0 1214 1.19752 1
gene 2 140 354 0.551332 0 1335 0.551332 1
gene 2 354 238 -2.86128 0 1336 -2.86128 1
gene 2 293 364 1.60739 0 1379 1.60739 1
gene 2 364 140 -5.87445 0 1380 -5.87445 1
gene 2 13 354 -1.82439 0 1464 -1.82439 1
gene 1 238 160 -1.44298 0 1474 -1.44298 1
gene 1 213 286 -2.21871 0 1484 -2.21871 1
gene 1 364 286 -0.535561 0 1512 -0.535561 1
gene 2 286 16 0.195532 0 1584 0.195532 1
gene 2 317 286 -0.882139 0 1606 -0.882139 1
gene 2 1 140 0.260845 0 1711 0.260845 1
gene 1 1 213 -0.471169 0 1723 -0.471169 1
gene 1 213 13 0.395454 0 1833 0.395454 1
gene 3 7 477 1 0 1846 1 1
gene 3 477 286 1 0 1847 1 1
gene 2 7 238 1.43235 0 1948 1.43235 1
genomeend 18

/* Organism #19 Fitness: 15.3875 Error: 0 */
genomestart 19
trait 1 0.475599 0.00552208 0 0 0.281358 0 0.476731 1 
trait 2 1 0 0 0 0 0 0.180378 0.993401 
trait 3 0.3 0 0 0 0 0 0 0 
node 1 1 1 3
node 2 1 1 1
node 3 2 1 1
node 4 2 1 1
node 5 2 1 1
node 6 1 0 2
node 7 1 0 2
node 13 1 0 0
node 16 1 0 0
node 59 1 0 0
node 140 1 0 0
node 160 1 0 0
node 213 1 0 0
node 238 2 0 0
node 286 1 0 0
node 293 1 0 0
node 317 1 0 0
node 354 1 0 0
node 364 1 0 0
node 477 1 0 0
gene 1 1 6 -8 0 1 -8 1
gene 1 2 6 -6.72147 0 2 -6.72147 1
gene 2 3 6 -0.847086 0 3 -0.847086 1
gene 2 4 6 -7.79445 0 4 -7.79445 1
gene 1 5 6 4.78876 0 5 4.78876 0
gene 3 1 7 -1.43428 0 6 -1.43428 1
gene 2 2 7 7.47778 0 7 7.47778 1
gene 2 3 7 -3.41697 0 8 -3.41697 1
gene 1 4 7 2.51129 0 9 2.51129 1
gene 1 5 7 -7.55456 0 10 -7.55456 1
gene 2 4 13 -1.60727 0 25 -1.60727 1
gene 2 13 6 -0.0895057 0 26 -0.0895057 1
gene 3 1 13 2.35364 0 28 2.35364 1
gene 1 5 16 3.12783 0 38 3.12783 1
gene 1 16 6 0.673277 0 39 0.673277 1
gene 3 3 16 -7.56635 0 176 -7.56635 1
gene 2 13 59 4.62559 0 184 4.62559 1
gene 2 59 6 4.53768 0 185 4.53768 1
gene 1 13 16 -1.0676 0 263 -1.0676 1
gene 3 7 13 -2.54695 0 334 -2.54695 1
gene 3 7 6 -5.37549 0 356 -5.37549 1
gene 1 2 59 -3.92753 0 466 -3.92753 1
gene 2 4 140 -5.46956 0 482 -5.46956 1
gene 2 140 6 -0.398054 0 483 -0.398054 1
gene 2 13 160 -0.609712 0 551 -0.609712 1
gene 2 160 59 2.4343 0 552 2.4343 1
gene 2 7 59 -5.03956 0 562 -5.03956 1
gene 1 5 213 -0.539646 0 735 -0.539646 1
gene 1 213 16 5.34487 0 736 5.34487 1
gene 3 4 160 -5.11682 0 752 -5.11682 1
gene 1 160 6 5.30335 0 770 5.30335 1
gene 1 140 7 0.572697 0 789 0.572697 1
gene 1 4 59 -1.73199 0 793 -1.73199 1
gene 1 5 238 -0.628487 0 855 -0.628487 1
gene 1 238 6 0.998395 0 856 0.998395 1
gene 1 140 160 0.61151 0 915 0.61151 1
gene 3 2 16 -1.19412 0 1011 -1.19412 1
gene 1 4 238 -2.94577 0 1035 -2.94577 1
gene 3 7 286 1 0 1045 1 0
gene 3 286 13 1.93921 0 1046 1.93921 1
gene 2 140 238 -0.709478 0 1058 -0.709478 1
gene 2 3 238 0.589885 0 1071 0.589885 1
gene 2 4 293 1 0 1088 1 1
gene 2 293 140 -3.39717 0 1089 -3.39717 0
gene 1 2 160 0.347841 0 1148 0.347841 1
gene 2 140 317 1 0 1187 0 1
gene 2 317 238 -0.709478 0 1188 0 1
gene 3 293 286 0.372682 0 1214 0.372682 1
gene 2 140 354 1 0 1335 0 1
gene 2 354 238 -0.709478 0 1336 0 1
gene 2 293 364 1 0 1379 0 1
gene 2 364 140 -3.39717 0 1380 0 1
gene 2 13 354 0.0445713 0 1464 0.0445713 1
gene 1 238 160 0.185935 0 1474 0.185935 1
gene 1 213 286 -0.683639 0 1484 -0.683639 1
gene 1 364 286 -0.535561 0 1512 -0.535561 1
gene 2 286 16 0.195532 0 1584 0.195532 1
gene 2 317 286 -0.453025 0 1606 -0.453025 1
gene 2 1 140 0.260845 0 1711 0.260845 1
gene 1 1 213 -0.471169 0 1723 -0.471169 1
gene 1 213 13 0.0526124 0 1833 0.0526124 1
gene 3 7 477 1 0 1846 0 1
gene 3 477 286 1 0 1847 0 1
gene 2 7 238 -0.800527 0 1948 -0.800527 1
genomeend 19

/* Organism #20 Fitness: 12.374 Error: 0 */
genomestart 20
trait 1 0.0290472 0.00552208 0 0 0 0.0031835 0.113084 0.193656 
trait 2 1 0 0 0 0 0 0.180378 0.993401 
trait 3 0.3 0 0 0 0 0 0 0 
node 1 1 1 3
node 2 1 1 1
node 3 2 1 1
node 4 2 1 1
node 5 2 1 1
node 6 1 0 2
node 7 1 0 2
node 13 1 0 0
node 16 1 0 0
node 59 1 0 0
node 140 1 0 0
node 160 1 0 0
node 213 1 0 0
node 238 2 0 0
node 286 1 0 0
node 293 1 0 0
node 317 1 0 0
node 354 1 0 0
node 364 1 0 0
node 477 1 0 0
gene 1 1 6 -8 0 1 -8 1
gene 1 2 6 -8 0 2 -8 1
gene 2 3 6 -1.67018 0 3 -1.67018 1
gene 2 4 6 -6.59034 0 4 -6.59034 1
gene 1 5 6 3.23942 0 5 3.23942 0
gene 3 1 7 -0.787199 0 6 -0.787199 1
gene 2 2 7 6.33702 0 7 6.33702 1
gene 2 3 7 -3.42323 0 8 -3.42323 1
gene 1 4 7 2.69367 0 9 2.69367 1
gene 1 5 7 -8 0 10 -8 1
gene 2 4 13 -2.27684 0 25 -2.27684 1
gene 2 13 6 -2.50215 0 26 -2.50215 1
gene 3 1 13 2.46356 0 28 2.46356 1
gene 1 5 16 1.69314 0 38 1.69314 1
gene 1 16 6 -0.830293 0 39 -0.830293 1
gene 3 3 16 -6.68731 0 176 -6.68731 1
gene 2 13 59 4.53312 0 184 4.53312 1
gene 2 59 6 2.32288 0 185 2.32288 1
gene 1 13 16 -2.09799 0 263 -2.09799 1
gene 3 7 13 -1.43106 0 334 -1.43106 1
gene 3 7 6 -7.72995 0 356 -7.72995 1
gene 1 2 59 -5.53141 0 466 -5.53141 1
gene 2 4 140 -5.98142 0 482 -5.98142 1
gene 2 140 6 -2.34447 0 483 -2.34447 1
gene 2 13 160 -1.42681 0 551 -1.42681 1
gene 2 160 59 4.15782 0 552 4.15782 1
gene 2 7 59 -5.79115 0 562 -5.79115 1
gene 1 5 213 -1.73462 0 735 -1.73462 1
gene 1 213 16 3.21301 0 736 3.21301 1
gene 3 4 160 -5.01624 0 752 -5.01624 1
gene 1 160 6 3.12909 0 770 3.12909 1
gene 1 140 7 1.46459 0 789 1.46459 1
gene 1 4 59 -0.266527 0 793 -0.266527 1
gene 1 5 238 -1.65058 0 855 -1.65058 1
gene 1 238 6 0.631432 0 856 0.631432 1
gene 1 140 160 3.10052 0 915 3.10052 1
gene 3 2 16 0.127233 0 1011 0.127233 1
gene 1 4 238 -3.23285 0 1035 -3.23285 1
gene 3 7 286 3.36338 0 1045 3.36338 0
gene 3 286 13 2.1944 0 1046 2.1944 1
gene 2 140 238 -0.520937 0 1058 -0.520937 1
gene 2 3 238 -1.73342 0 1071 -1.73342 1
gene 2 4 293 0.465907 0 1088 0.465907 1
gene 2 293 140 -4.76583 0 1089 -4.76583 0
gene 1 2 160 1.82906 0 1148 1.82906 1
gene 2 140 317 2.48029 0 1187 2.48029 1
gene 2 317 238 -0.144033 0 1188 -0.144033 1
gene 3 293 286 -2.02109 0 1214 -2.02109 1
gene 2 140 354 0.557124 0 1335 0.557124 1
gene 2 354 238 0.274458 0 1336 0.274458 1
gene 2 293 364 3.33628 0 1379 3.33628 1
gene 2 364 140 -2.09209 0 1380 -2.09209 1
gene 2 13 354 2.29257 0 1464 2.29257 1
gene 1 238 160 0.69773 0 1474 0.69773 1
gene 1 213 286 0.988542 0 1484 0.988542 1
gene 1 364 286 -1.5918 0 1512 -1.5918 1
gene 2 286 16 -0.807617 0 1584 -0.807617 1
gene 2 317 286 0.367841 0 1606 0.367841 1
gene 2 1 140 0.260845 0 1711 0.260845 1
gene 1 1 213 -0.471169 0 1723 -0.471169 1
gene 1 213 13 -1.68638 0 1833 -1.68638 1
gene 3 7 477 2.32903 0 1846 2.32903 1
gene 3 477 286 1 0 1847 1 1
genomeend 20

/* Organism #21 Fitness: 12.7974 Error: 0 */
genomestart 21
trait 1 0.0290472 0.00552208 0 0 0 0.0031835 0.113084 0.193656 
trait 2 1 0 0 0 0 0 0.180378 0.993401 
trait 3 0.3 0 0 0 0 0 0 0 
node 1 1 1 3
node 2 1 1 1
node 3 2 1 1
node 4 2 1 1
node 5 2 1 1
node 6 1 0 2
node 7 1 0 2
node 13 1 0 0
node 16 1 0 0
node 59 1 0 0
node 140 1 0 0
node 160 1 0 0
node 213 1 0 0
node 238 2 0 0
node 286 1 0 0
node 293 1 0 0
node 317 1 0 0
node 354 1 0 0
node 364 1 0 0
node 477 1 0 0
gene 1 1 6 -5.89476 0 1 -5.89476 1
gene 1 2 6 -8 0 2 -8 1
gene 2 3 6 -2.1126 0 3 -2.1126 1
gene 2 4 6 -7.5015 0 4 -7.5015 1
gene 1 5 6 2.72273 0 5 2.72273 0
gene 3 1 7 -0.196203 0 6 -0.196203 1
gene 2 2 7 6.94007 0 7 6.94007 1
gene 2 3 7 -3.38411 0 8 -3.38411 1
gene 1 4 7 1.9142 0 9 1.9142 1
gene 1 5 7 -8 0 10 -8 1
gene 2 4 13 -0.620843 0 25 -0.620843 1
gene 2 13 6 -1.37848 0 26 -1.37848 1
gene 3 1 13 0.140296 0 28 0.140296 1
gene 1 5 16 1.88819 0 38 1.88819 1
gene 1 16 6 0.136095 0 39 0.136095 1
gene 3 3 16 -8 0 176 -8 1
gene 2 13 59 2.5402 0 184 2.5402 1
gene 2 59 6 4.57034 0 185 4.57034 1
gene 1 13 16 -3.08758 0 263 -3.08758 1
gene 3 7 13 -2.29162 0 334 -2.29162 1
gene 3 7 6 -5.71963 0 356 -5.71963 1
gene 1 2 59 -6.36681 0 466 -6.36681 1
gene 2 4 140 -4.26554 0 482 -4.26554 1
gene 2 140 6 -2.00781 0 483 -2.00781 1
gene 2 13 160 -0.268057 0 551 -0.268057 1
gene 2 160 59 3.41036 0 552 3.41036 1
gene 2 7 59 -3.02173 0 562 -3.02173 1
gene 1 5 213 -2.83761 0 735 -2.83761 1
gene 1 213 16 6.6937 0 736 6.6937 1
gene 3 4 160 -7.05626 0 752 -7.05626 1
gene 1 160 6 5.27757 0 770 5.27757 1
gene 1 140 7 0.116895 0 789 0.116895 1
gene 1 4 59 -0.554858 0 793 -0.554858 1
gene 1 5 238 0.876713 0 855 0.876713 1
gene 1 238 6 2.61112 0 856 2.61112 1
gene 1 140 160 1.07197 0 915 1.07197 1
gene 3 2 16 0.662383 0 1011 0.662383 1
gene 1 4 238 -0.663978 0 1035 -0.663978 1
gene 3 7 286 2.21991 0 1045 2.21991 0
gene 3 286 13 0.935873 0 1046 0.935873 1
gene 2 140 238 -2.6136 0 1058 -2.6136 1
gene 2 3 238 1.64124 0 1071 1.64124 1
gene 2 4 293 0.355975 0 1088 0.355975 1
gene 2 293 140 -2.97251 0 1089 -2.97251 0
gene 1 2 160 -2.0711 0 1148 -2.0711 1
gene 2 140 317 3.18119 0 1187 3.18119 1
gene 2 317 238 -0.313243 0 1188 -0.313243 1
gene 3 293 286 1.89027 0 1214 1.89027 1
gene 2 140 354 -0.809228 0 1335 -0.809228 1
gene 2 354 238 -1.55774 0 1336 -1.55774 1
gene 2 293 364 1.58304 0 1379 1.58304 1
gene 2 364 140 -3.69644 0 1380 -3.69644 1
gene 2 13 354 2.40948 0 1464 2.40948 1
gene 1 238 160 0.185935 0 1474 0.185935 1
gene 1 213 286 -2.21817 0 1484 -2.21817 1
gene 1 364 286 -0.535561 0 1512 -0.535561 1
gene 2 286 16 0.479631 0 1584 0.479631 1
gene 2 317 286 -0.453025 0 1606 -0.453025 1
gene 2 1 140 1.99847 0 1711 1.99847 1
gene 1 1 213 -0.471169 0 1723 -0.471169 1
gene 1 213 13 -0.99711 0 1833 -0.99711 1
gene 3 7 477 1 0 1846 1 1
gene 3 477 286 0.91219 0 1847 0.91219 1
gene 2 7 238 -1.48118 0 1948 -1.48118 1
genomeend 21

/* Species #147 : (Size 8) (AF 12.1558) (Age 8)  */


/* Organism #22 Fitness: 15.3914 Error: 0 */
genomestart 22
trait 1 0.0290472 0.00552208 0 0 0 0.0031835 0.113084 0.193656 
trait 2 1 0 0 0 0 0 0.180378 0.993401 
trait 3 0.3 0 0 0 0 0 0 0 
node 1 1 1 3
node 2 1 1 1
node 3 2 1 1
node 4 2 1 1
node 5 2 1 1
node 6 1 0 2
node 7 1 0 2
node 13 1 0 0
node 16 1 0 0
node 59 1 0 0
node 140 1 0 0
node 160 1 0 0
node 213 1 0 0
node 238 2 0 0
node 286 1 0 0
node 293 1 0 0
node 317 1 0 0
node 354 1 0 0
node 364 1 0 0
node 481 1 0 0
gene 1 1 6 -8 0 1 -8 1
gene 1 2 6 -6.72147 0 2 -6.72147 1
gene 2 3 6 -0.847086 0 3 -0.847086 1
gene 2 4 6 -7.79445 0 4 -7.79445 1
gene 1 5 6 4.78876 0 5 4.78876 0
gene 3 1 7 -1.43428 0 6 -1.43428 1
gene 2 2 7 7.47778 0 7 7.47778 1
gene 2 3 7 -3.41697 0 8 -3.41697 1
gene 1 4 7 2.51129 0 9 2.51129 1
gene 1 5 7 -7.55456 0 10 -7.55456 1
gene 2 4 13 -1.60727 0 25 -1.60727 1
gene 2 13 6 -0.0895057 0 26 -0.0895057 1
gene 3 1 13 2.35364 0 28 2.35364 1
gene 1 5 16 3.12783 0 38 3.12783 0
gene 1 16 6 0.673277 0 39 0.673277 1
gene 3 3 16 -7.56635 0 176 -7.56635 1
gene 2 13 59 4.62559 0 184 4.62559 1
gene 2 59 6 4.53768 0 185 4.53768 1
gene 1 13 16 -1.0676 0 263 -1.0676 1
gene 3 7 13 -2.54695 0 334 -2.54695 1
gene 3 7 6 -5.37549 0 356 -5.37549 1
gene 1 2 59 -3.92753 0 466 -3.92753 1
gene 2 4 140 -5.46956 0 482 -5.46956 1
gene 2 140 6 -0.398054 0 483 -0.398054 1
gene 2 13 160 -0.609712 0 551 -0.609712 1
gene 2 160 59 2.4343 0 552 2.4343 1
gene 2 7 59 -5.03956 0 562 -5.03956 1
gene 1 5 213 -0.539646 0 735 -0.539646 1
gene 1 213 16 5.34487 0 736 5.34487 1
gene 3 4 160 -5.11682 0 752 -5.11682 1
gene 1 160 6 5.30335 0 770 5.30335 1
gene 1 140 7 0.572697 0 789 0.572697 1
gene 1 4 59 -1.73199 0 793 -1.73199 1
gene 1 5 238 -0.628487 0 855 -0.628487 1
gene 1 238 6 0.998395 0 856 0.998395 1
gene 1 140 160 0.61151 0 915 0.61151 1
gene 3 2 16 -1.19412 0 1011 -1.19412 1
gene 1 4 238 -2.94577 0 1035 -2.94577 1
gene 3 7 286 1 0 1045 1 1
gene 3 286 13 1.93921 0 1046 1.93921 1
gene 2 140 238 -0.709478 0 1058 -0.709478 1
gene 2 3 238 0.589885 0 1071 0.589885 1
gene 2 4 293 1 0 1088 1 1
gene 2 293 140 -3.39717 0 1089 -3.39717 0
gene 1 2 160 0.347841 0 1148 0.347841 1
gene 2 140 317 1 0 1187 0 1
gene 2 317 238 -0.709478 0 1188 0 1
gene 3 293 286 0.372682 0 1214 0.372682 1
gene 2 140 354 1 0 1335 0 1
gene 2 354 238 -0.709478 0 1336 0 1
gene 2 293 364 1 0 1379 0 1
gene 2 364 140 -3.39717 0 1380 0 1
gene 2 13 354 0.0445713 0 1464 0.0445713 1
gene 1 238 160 0.185935 0 1474 0.185935 1
gene 1 213 286 -0.683639 0 1484 -0.683639 1
gene 1 364 286 -0.535561 0 1512 -0.535561 1
gene 2 286 16 0.195532 0 1584 0.195532 1
gene 2 317 286 -0.453025 0 1606 -0.453025 1
gene 2 1 140 0.260845 0 1711 0.260845 1
gene 1 1 213 -0.471169 0 1723 -0.471169 1
gene 1 2 317 0.904087 0 1814 0.904087 1
gene 1 238 16 -0.528687 0 1848 -0.528687 1
gene 1 5 481 1 0 1863 0 1
gene 1 481 16 3.12783 0 1864 0 1
genomeend 22

/* Organism #23 Fitness: 5.9693 Error: 0 */
genomestart 23
trait 1 0.0290472 0.00552208 0 0 0 0.0031835 0.113084 0.193656 
trait 2 1 0 0 0 0 0 0.180378 0.993401 
trait 3 0.3 0 0 0 0 0 0 0 
node 1 1 1 3
node 2 1 1 1
node 3 2 1 1
node 4 2 1 1
node 5 2 1 1
node 6 1 0 2
node 7 1 0 2
node 13 1 0 0
node 16 1 0 0
node 59 1 0 0
node 140 1 0 0
node 160 1 0 0
node 213 1 0 0
node 238 2 0 0
node 286 1 0 0
node 293 1 0 0
node 317 1 0 0
node 354 1 0 0
node 364 1 0 0
node 481 1 0 0
gene 1 1 6 1.28299 0 1 1.28299 1
gene 1 2 6 -7.98355 0 2 -7.98355 1
gene 2 3 6 -1.85391 0 3 -1.85391 1
gene 2 4 6 -0.0641373 0 4 -0.0641373 1
gene 1 5 6 5.66872 0 5 5.66872 0
gene 3 1 7 -2.04858 0 6 -2.04858 1
gene 2 2 7 8 0 7 8 1
gene 2 3 7 -0.0275602 0 8 -0.0275602 1
gene 1 4 7 0.233556 0 9 0.233556 1
gene 1 5 7 -7.7251 0 10 -7.7251 1
gene 2 4 13 -1.5105 0 25 -1.5105 1
gene 2 13 6 -1.60177 0 26 -1.60177 1
gene 3 1 13 0.651852 0 28 0.651852 1
gene 1 5 16 0.555444 0 38 0.555444 1
gene 1 16 6 -0.779611 0 39 -0.779611 1
gene 3 3 16 -6.79959 0 176 -6.79959 1
gene 2 13 59 0.365361 0 184 0.365361 1
gene 2 59 6 -0.222099 0 185 -0.222099 1
gene 1 13 16 -1.26824 0 263 -1.26824 1
gene 3 7 13 1.24103 0 334 1.24103 1
gene 3 7 6 -6.98522 0 356 -6.98522 1
gene 1 2 59 1.63924 0 466 1.63924 1
gene 2 4 140 -5.46956 0 482 -5.46956 1
gene 2 140 6 -0.755877 0 483 -0.755877 1
gene 2 13 160 0.991738 0 551 0.991738 1
gene 2 160 59 2.4343 0 552 2.4343 1
gene 2 7 59 0.979371 0 562 0.979371 1
gene 1 5 213 1.30257 0 735 1.30257 1
gene 1 213 16 4.81238 0 736 4.81238 1
gene 3 4 160 -5.7598 0 752 -5.7598 1
gene 1 160 6 5.30335 0 770 5.30335 1
gene 1 140 7 1.24006 0 789 1.24006 1
gene 1 4 59 -1.74113 0 793 -1.74113 1
gene 1 5 238 -2.0894 0 855 -2.0894 1
gene 1 238 6 2.68248 0 856 2.68248 1
gene 1 140 160 1.00605 0 915 1.00605 1
gene 3 2 16 0.691666 0 1011 0.691666 1
gene 1 4 238 -2.07344 0 1035 -2.07344 1
gene 3 7 286 -0.199166 0 1045 -0.199166 1
gene 3 286 13 1.40126 0 1046 1.40126 1
gene 2 140 238 1.1931 0 1058 1.1931 1
gene 2 3 238 -1.93494 0 1071 -1.93494 1
gene 2 4 293 -1.40567 0 1088 -1.40567 1
gene 2 293 140 -3.06046 0 1089 -3.06046 0
gene 1 2 160 1.68097 0 1148 1.68097 1
gene 2 140 317 3.49621 0 1187 3.49621 1
gene 2 317 238 1.38539 0 1188 1.38539 1
gene 3 293 286 0.691969 0 1214 0.691969 1
gene 2 140 354 1.73502 0 1335 1.73502 1
gene 2 354 238 0.2981 0 1336 0.2981 1
gene 2 293 364 1.61878 0 1379 1.61878 1
gene 2 364 140 -2.4459 0 1380 -2.4459 1
gene 2 13 354 -1.02803 0 1464 -1.02803 1
gene 1 238 160 0.821937 0 1474 0.821937 1
gene 1 213 286 -3.10621 0 1484 -3.10621 1
gene 1 364 286 -0.535561 0 1512 -0.535561 1
gene 2 286 16 2.53234 0 1584 2.53234 1
gene 2 317 286 0.549317 0 1606 0.549317 1
gene 2 1 140 0.825241 0 1711 0.825241 1
gene 1 1 213 0.991407 0 1723 0.991407 1
gene 1 2 317 1.2679 0 1814 1.2679 1
gene 1 238 16 -2.77402 0 1848 -2.77402 1
gene 1 5 481 1.94422 0 1863 1.94422 1
gene 1 481 16 4.60111 0 1864 4.60111 1
genomeend 23

/* Organism #24 Fitness: 12.9781 Error: 0 */
genomestart 24
trait 1 0.0290472 0.00552208 0 0 0 0.0031835 0.113084 0.193656 
trait 2 1 0 0 0 0 0 0.180378 0.993401 
trait 3 0.3 0 0 0 0 0 0 0 
node 1 1 1 3
node 2 1 1 1
node 3 2 1 1
node 4 2 1 1
node 5 2 1 1
node 6 1 0 2
node 7 1 0 2
node 13 1 0 0
node 16 1 0 0
node 59 1 0 0
node 140 1 0 0
node 160 1 0 0
node 213 1 0 0
node 238 2 0 0
node 286 1 0 0
node 293 1 0 0
node 317 1 0 0
node 354 1 0 0
node 364 1 0 0
node 481 1 0 0
gene 1 1 6 -6.68066 0 1 -6.68066 1
gene 1 2 6 -8 0 2 -8 1
gene 2 3 6 -0.711993 0 3 -0.711993 1
gene 2 4 6 -6.53104 0 4 -6.53104 1
gene 1 5 6 2.962 0 5 2.962 0
gene 3 1 7 -0.053535 0 6 -0.053535 1
gene 2 2 7 6.23822 0 7 6.23822 1
gene 2 3 7 -2.58365 0 8 -2.58365 1
gene 1 4 7 0.0880309 0 9 0.0880309 1
gene 1 5 7 -7.17866 0 10 -7.17866 1
gene 2 4 13 -1.37304 0 25 -1.37304 1
gene 2 13 6 -2.52141 0 26 -2.52141 1
gene 3 1 13 2.1601 0 28 2.1601 1
gene 2 5 16 3.40434 0 38 3.40434 0
gene 1 16 6 -0.42344 0 39 -0.42344 1
gene 3 3 16 -8 0 176 -8 1
gene 2 13 59 2.24172 0 184 2.24172 1
gene 2 59 6 4.13668 0 185 4.13668 1
gene 1 13 16 -2.63821 0 263 -2.63821 1
gene 3 7 13 -3.73635 0 334 -3.73635 1
gene 3 7 6 -7.72646 0 356 -7.72646 1
gene 1 2 59 -1.53188 0 466 -1.53188 1
gene 2 4 140 -7.46091 0 482 -7.46091 1
gene 2 140 6 0.106358 0 483 0.106358 1
gene 2 13 160 -0.583126 0 551 -0.583126 1
gene 2 160 59 4.15126 0 552 4.15126 1
gene 2 7 59 -3.78324 0 562 -3.78324 1
gene 1 5 213 -0.212979 0 735 -0.212979 1
gene 1 213 16 3.52964 0 736 3.52964 1
gene 3 4 160 -7.56104 0 752 -7.56104 1
gene 1 160 6 4.20637 0 770 4.20637 1
gene 1 140 7 -0.377958 0 789 -0.377958 1
gene 1 4 59 -0.867735 0 793 -0.867735 1
gene 1 5 238 -0.534913 0 855 -0.534913 1
gene 1 238 6 0.680033 0 856 0.680033 1
gene 1 140 160 -1.74714 0 915 -1.74714 1
gene 3 2 16 -1.29701 0 1011 -1.29701 1
gene 1 4 238 -0.73523 0 1035 -0.73523 1
gene 3 7 286 2.09092 0 1045 2.09092 1
gene 3 286 13 1.02293 0 1046 1.02293 1
gene 2 140 238 0.0910738 0 1058 0.0910738 1
gene 2 3 238 -1.53056 0 1071 -1.53056 1
gene 2 4 293 0.795139 0 1088 0.795139 1
gene 2 293 140 -5.67485 0 1089 -5.67485 0
gene 1 2 160 2.65688 0 1148 2.65688 1
gene 2 140 317 2.61988 0 1187 2.61988 1
gene 2 317 238 -2.29016 0 1188 -2.29016 1
gene 3 293 286 -1.47181 0 1214 -1.47181 1
gene 2 140 354 1.87572 0 1335 1.87572 1
gene 2 354 238 0.7648 0 1336 0.7648 1
gene 2 293 364 1.59925 0 1379 1.59925 1
gene 2 364 140 -4.62113 0 1380 -4.62113 1
gene 2 13 354 0.0445713 0 1464 0.0445713 1
gene 1 238 160 -0.474265 0 1474 -0.474265 1
gene 1 213 286 -1.76663 0 1484 -1.76663 1
gene 1 364 286 -0.535561 0 1512 -0.535561 1
gene 2 286 16 0.195532 0 1584 0.195532 1
gene 2 317 286 -2.73508 0 1606 -2.73508 1
gene 2 1 140 -0.817582 0 1711 -0.817582 1
gene 1 1 213 0.638172 0 1723 0.638172 1
gene 1 2 317 0.578235 0 1814 0.578235 1
gene 1 238 16 -0.528687 0 1848 -0.528687 1
gene 1 5 481 2.3925 0 1863 2.3925 1
gene 1 481 16 5.07889 0 1864 5.07889 1
genomeend 24

/* Organism #25 Fitness: 12.5819 Error: 0 */
genomestart 25
trait 1 0.0290472 0.00552208 0 0 0 0.0031835 0.113084 0.193656 
trait 2 1 0 0 0 0 0 0.180378 0.993401 
trait 3 0.3 0 0 0 0 0 0 0 
node 1 1 1 3
node 2 1 1 1
node 3 2 1 1
node 4 2 1 1
node 5 2 1 1
node 6 1 0 2
node 7 1 0 2
node 13 1 0 0
node 16 1 0 0
node 59 1 0 0
node 140 1 0 0
node 160 1 0 0
node 213 1 0 0
node 238 2 0 0
node 286 1 0 0
node 293 1 0 0
node 317 1 0 0
node 354 1 0 0
node 364 1 0 0
node 481 1 0 0
gene 1 1 6 -8 0 1 -8 1
gene 1 2 6 -6.11718 0 2 -6.11718 1
gene 2 3 6 -1.17055 0 3 -1.17055 1
gene 2 4 6 0.818872 0 4 0.818872 1
gene 1 5 6 2.41924 0 5 2.41924 0
gene 3 1 7 0.184775 0 6 0.184775 1
gene 2 2 7 7.64971 0 7 7.64971 1
gene 2 3 7 -4.64216 0 8 -4.64216 1
gene 1 4 7 4.05283 0 9 4.05283 1
gene 1 5 7 -7.15674 0 10 -7.15674 1
gene 2 4 13 -4.06887 0 25 -4.06887 1
gene 2 13 6 0.0648841 0 26 0.0648841 1
gene 3 1 13 0.7451 0 28 0.7451 1
gene 1 5 16 -1.81162 0 38 -1.81162 0
gene 1 16 6 2.92216 0 39 2.92216 1
gene 3 3 16 -6.26355 0 176 -6.26355 1
gene 2 13 59 0.27878 0 184 0.27878 1
gene 2 59 6 4.11336 0 185 4.11336 1
gene 1 13 16 -1.59869 0 263 -1.59869 1
gene 3 7 13 -1.17718 0 334 -1.17718 1
gene 3 7 6 -4.24016 0 356 -4.24016 1
gene 1 2 59 -2.5865 0 466 -2.5865 1
gene 2 4 140 -5.94479 0 482 -5.94479 1
gene 2 140 6 -0.635631 0 483 -0.635631 1
gene 2 13 160 0.805993 0 551 0.805993 1
gene 2 160 59 0.254752 0 552 0.254752 1
gene 2 7 59 -3.58903 0 562 -3.58903 1
gene 1 5 213 -1.61395 0 735 -1.61395 1
gene 1 213 16 4.25159 0 736 4.25159 1
gene 3 4 160 -4.48784 0 752 -4.48784 1
gene 1 160 6 5.52005 0 770 5.52005 1
gene 1 140 7 0.572697 0 789 0.572697 1
gene 1 4 59 -4.2258 0 793 -4.2258 1
gene 1 5 238 1.17081 0 855 1.17081 1
gene 1 238 6 0.998395 0 856 0.998395 1
gene 1 140 160 0.61151 0 915 0.61151 1
gene 3 2 16 1.01579 0 1011 1.01579 1
gene 1 4 238 1.38994 0 1035 1.38994 1
gene 3 7 286 0.285621 0 1045 0.285621 1
gene 3 286 13 1.75914 0 1046 1.75914 1
gene 2 140 238 -0.709478 0 1058 -0.709478 1
gene 2 3 238 -0.868113 0 1071 -0.868113 1
gene 2 4 293 2.4367 0 1088 2.4367 1
gene 2 293 140 -3.95438 0 1089 -3.95438 0
gene 1 2 160 2.02059 0 1148 2.02059 1
gene 2 140 317 0.329484 0 1187 0.329484 1
gene 2 317 238 -2.4328 0 1188 -2.4328 1
gene 3 293 286 -0.591601 0 1214 -0.591601 1
gene 2 140 354 -0.101684 0 1335 -0.101684 1
gene 2 354 238 -0.772944 0 1336 -0.772944 1
gene 2 293 364 0.601153 0 1379 0.601153 1
gene 2 364 140 -1.72134 0 1380 -1.72134 1
gene 2 13 354 1.48912 0 1464 1.48912 1
gene 1 238 160 -2.16505 0 1474 -2.16505 1
gene 1 213 286 -1.22884 0 1484 -1.22884 1
gene 1 364 286 -0.437463 0 1512 -0.437463 1
gene 2 286 16 1.63458 0 1584 1.63458 1
gene 2 317 286 0.199219 0 1606 0.199219 1
gene 2 1 140 0.260845 0 1711 0.260845 1
gene 1 1 213 -1.54955 0 1723 -1.54955 1
gene 1 2 317 -0.108838 0 1814 -0.108838 1
gene 1 238 16 -2.37434 0 1848 -2.37434 1
gene 1 5 481 2.12638 0 1863 2.12638 1
gene 1 481 16 2.03255 0 1864 2.03255 1
genomeend 25

/* Organism #26 Fitness: 12.4711 Error: 0 */
genomestart 26
trait 1 0.0290472 0.00552208 0 0 0 0.0031835 0.113084 0.193656 
trait 2 1 0 0 0 0 0 0.180378 0.993401 
trait 3 0.3 0 0 0 0 0 0 0 
node 1 1 1 3
node 2 1 1 1
node 3 2 1 1
node 4 2 1 1
node 5 2 1 1
node 6 1 0 2
node 7 1 0 2
node 13 1 0 0
node 16 1 0 0
node 59 1 0 0
node 140 1 0 0
node 160 1 0 0
node 213 1 0 0
node 238 2 0 0
node 286 1 0 0
node 293 1 0 0
node 317 1 0 0
node 354 1 0 0
node 364 1 0 0
node 481 1 0 0
gene 1 1 6 -6.75841 0 1 -6.75841 1
gene 1 2 6 -7.235 0 2 -7.235 1
gene 2 3 6 -2.72833 0 3 -2.72833 1
gene 2 4 6 -7.92739 0 4 -7.92739 1
gene 1 5 6 2.39067 0 5 2.39067 0
gene 3 1 7 1.12871 0 6 1.12871 1
gene 2 2 7 6.90904 0 7 6.90904 1
gene 2 3 7 -3.07459 0 8 -3.07459 1
gene 1 4 7 -0.0993594 0 9 -0.0993594 1
gene 1 5 7 -8 0 10 -8 1
gene 2 4 13 -0.875947 0 25 -0.875947 1
gene 2 13 6 -2.20481 0 26 -2.20481 1
gene 3 1 13 -1.341 0 28 -1.341 1
gene 2 5 16 2.36937 0 38 2.36937 0
gene 1 16 6 -1.13911 0 39 -1.13911 1
gene 3 3 16 -8 0 176 -8 1
gene 2 13 59 1.95048 0 184 1.95048 1
gene 2 59 6 4.13668 0 185 4.13668 1
gene 1 13 16 -2.63821 0 263 -2.63821 1
gene 3 7 13 -5.84017 0 334 -5.84017 1
gene 3 7 6 -6.60642 0 356 -6.60642 1
gene 1 2 59 1.08485 0 466 1.08485 1
gene 2 4 140 -0.339479 0 482 -0.339479 1
gene 2 140 6 -1.74537 0 483 -1.74537 1
gene 2 13 160 -1.02617 0 551 -1.02617 1
gene 2 160 59 5.15791 0 552 5.15791 1
gene 2 7 59 -3.78324 0 562 -3.78324 1
gene 1 5 213 -1.42451 0 735 -1.42451 1
gene 1 213 16 3.52964 0 736 3.52964 1
gene 3 4 160 -5.69904 0 752 -5.69904 1
gene 1 160 6 3.5049 0 770 3.5049 1
gene 1 140 7 1.30374 0 789 1.30374 1
gene 1 4 59 0.199769 0 793 0.199769 1
gene 1 5 238 -0.534913 0 855 -0.534913 1
gene 1 238 6 2.83025 0 856 2.83025 1
gene 1 140 160 -1.74714 0 915 -1.74714 1
gene 3 2 16 1.1186 0 1011 1.1186 1
gene 1 4 238 -2.0476 0 1035 -2.0476 1
gene 3 7 286 0.838538 0 1045 0.838538 1
gene 3 286 13 -0.564813 0 1046 -0.564813 1
gene 2 140 238 -2.04746 0 1058 -2.04746 1
gene 2 3 238 -0.328862 0 1071 -0.328862 1
gene 2 4 293 0.516278 0 1088 0.516278 1
gene 2 293 140 -4.50411 0 1089 -4.50411 0
gene 1 2 160 3.07808 0 1148 3.07808 1
gene 2 140 317 3.71925 0 1187 3.71925 1
gene 2 317 238 -2.90508 0 1188 -2.90508 1
gene 3 293 286 -3.95183 0 1214 -3.95183 1
gene 2 140 354 4.20446 0 1335 4.20446 1
gene 2 354 238 3.01987 0 1336 3.01987 1
gene 2 293 364 0.732382 0 1379 0.732382 1
gene 2 364 140 -2.3828 0 1380 -2.3828 1
gene 2 13 354 2.11702 0 1464 2.11702 1
gene 1 238 160 -2.41063 0 1474 -2.41063 1
gene 1 213 286 -3.2234 0 1484 -3.2234 1
gene 1 364 286 -1.00078 0 1512 -1.00078 1
gene 2 286 16 -0.234023 0 1584 -0.234023 1
gene 2 317 286 -4.06538 0 1606 -4.06538 1
gene 2 1 140 0.293857 0 1711 0.293857 1
gene 1 1 213 0.638172 0 1723 0.638172 1
gene 1 2 317 -0.973168 0 1814 -0.973168 1
gene 1 238 16 -0.528687 0 1848 -0.528687 1
gene 1 5 481 1.18267 0 1863 1.18267 1
gene 1 481 16 5.32516 0 1864 5.32516 1
genomeend 26

/* Organism #27 Fitness: 12.7441 Error: 0 */
genomestart 27
trait 1 0.0290472 0.00552208 0 0 0 0.0031835 0.113084 0.193656 
trait 2 1 0 0 0 0 0 0.180378 0.993401 
trait 3 0.3 0 0 0 0 0 0 0 
node 1 1 1 3
node 2 1 1 1
node 3 2 1 1
node 4 2 1 1
node 5 2 1 1
node 6 1 0 2
node 7 1 0 2
node 13 1 0 0
node 16 1 0 0
node 59 1 0 0
node 140 1 0 0
node 160 1 0 0
node 213 1 0 0
node 238 2 0 0
node 286 1 0 0
node 293 1 0 0
node 317 1 0 0
node 354 1 0 0
node 364 2 0 0
node 481 1 0 0
gene 1 1 6 -6.25701 0 1 -6.25701 1
gene 1 2 6 -7.5646 0 2 -7.5646 1
gene 2 3 6 -3.21566 0 3 -3.21566 1
gene 2 4 6 -7.82537 0 4 -7.82537 1
gene 1 5 6 6.76524 0 5 6.76524 0
gene 3 1 7 -0.863671 0 6 -0.863671 1
gene 2 2 7 8 0 7 8 1
gene 2 3 7 -4.62128 0 8 -4.62128 1
gene 1 4 7 4.26744 0 9 4.26744 1
gene 1 5 7 -8 0 10 -8 1
gene 2 4 13 -0.829404 0 25 -0.829404 1
gene 2 13 6 1.24121 0 26 1.24121 1
gene 3 1 13 3.64128 0 28 3.64128 1
gene 1 5 16 4.77923 0 38 4.77923 0
gene 1 16 6 3.16175 0 39 3.16175 1
gene 3 3 16 -6.48179 0 176 -6.48179 1
gene 2 13 59 3.299 0 184 3.299 1
gene 2 59 6 4.43977 0 185 4.43977 1
gene 1 13 16 -1.24687 0 263 -1.24687 1
gene 3 7 13 -3.72969 0 334 -3.72969 1
gene 3 7 6 -5.86806 0 356 -5.86806 1
gene 1 2 59 -4.17625 0 466 -4.17625 1
gene 2 4 140 -7.05657 0 482 -7.05657 1
gene 2 140 6 0.831826 0 483 0.831826 1
gene 2 13 160 0.235692 0 551 0.235692 1
gene 2 160 59 0.9627 0 552 0.9627 1
gene 2 7 59 -7.52531 0 562 -7.52531 1
gene 1 5 213 0.0822721 0 735 0.0822721 1
gene 1 213 16 3.84017 0 736 3.84017 1
gene 3 4 160 -6.77151 0 752 -6.77151 1
gene 1 160 6 6.14203 0 770 6.14203 1
gene 1 140 7 0.000889929 0 789 0.000889929 1
gene 1 4 59 -0.629964 0 793 -0.629964 1
gene 1 5 238 1.55146 0 855 1.55146 1
gene 1 238 6 2.82507 0 856 2.82507 1
gene 1 140 160 1.76288 0 915 1.76288 1
gene 3 2 16 -3.25993 0 1011 -3.25993 1
gene 1 4 238 -0.575657 0 1035 -0.575657 1
gene 3 7 286 1.7034 0 1045 1.7034 1
gene 3 286 13 1.00591 0 1046 1.00591 1
gene 2 140 238 1.64641 0 1058 1.64641 1
gene 2 3 238 1.05237 0 1071 1.05237 1
gene 2 4 293 0.394949 0 1088 0.394949 1
gene 2 293 140 -4.55724 0 1089 -4.55724 0
gene 1 2 160 -0.78608 0 1148 -0.78608 1
gene 2 140 317 3.19989 0 1187 3.19989 1
gene 2 317 238 -0.48882 0 1188 -0.48882 1
gene 3 293 286 -0.0544688 0 1214 -0.0544688 1
gene 2 140 354 -1.40126 0 1335 -1.40126 1
gene 2 354 238 -3.09184 0 1336 -3.09184 1
gene 2 293 364 2.01153 0 1379 2.01153 1
gene 2 364 140 -4.60735 0 1380 -4.60735 1
gene 2 13 354 0.0445713 0 1464 0.0445713 1
gene 1 238 160 -2.1883 0 1474 -2.1883 1
gene 1 213 286 0.853012 0 1484 0.853012 1
gene 1 364 286 0.632492 0 1512 0.632492 1
gene 2 286 16 -1.72583 0 1584 -1.72583 1
gene 2 317 286 -2.10829 0 1606 -2.10829 1
gene 2 1 140 0.260845 0 1711 0.260845 1
gene 1 1 213 -1.62976 0 1723 -1.62976 1
gene 1 2 317 3.09436 0 1814 3.09436 1
gene 1 238 16 -1.46523 0 1848 -1.46523 1
gene 1 5 481 -0.0280158 0 1863 -0.0280158 1
gene 1 481 16 2.99299 0 1864 2.99299 1
genomeend 27

/* Organism #28 Fitness: 12.4023 Error: 0 */
genomestart 28
trait 1 0.0290472 0.00552208 0 0 0 0.0031835 0.113084 0.193656 
trait 2 1 0 0 0 0 0 0.180378 0.993401 
trait 3 0.3 0 0 0 0 0 0 0 
node 1 1 1 3
node 2 1 1 1
node 3 2 1 1
node 4 2 1 1
node 5 2 1 1
node 6 1 0 2
node 7 1 0 2
node 13 1 0 0
node 16 1 0 0
node 59 1 0 0
node 140 1 0 0
node 160 1 0 0
node 213 1 0 0
node 238 2 0 0
node 286 1 0 0
node 293 1 0 0
node 317 1 0 0
node 354 1 0 0
node 364 1 0 0
node 481 1 0 0
gene 1 1 6 -8 0 1 -8 1
gene 1 2 6 -8 0 2 -8 1
gene 2 3 6 -1.57552 0 3 -1.57552 1
gene 2 4 6 -5.79583 0 4 -5.79583 1
gene 1 5 6 5.20556 0 5 5.20556 0
gene 3 1 7 -3.82243 0 6 -3.82243 1
gene 2 2 7 5.36126 0 7 5.36126 1
gene 2 3 7 -2.24392 0 8 -2.24392 1
gene 1 4 7 4.08869 0 9 4.08869 1
gene 1 5 7 -5.28675 0 10 -5.28675 1
gene 2 4 13 -1.18262 0 25 -1.18262 1
gene 2 13 6 2.16315 0 26 2.16315 1
gene 3 1 13 1.94165 0 28 1.94165 1
gene 1 5 16 3.91018 0 38 3.91018 1
gene 1 16 6 0.227302 0 39 0.227302 1
gene 3 3 16 -8 0 176 -8 1
gene 2 13 59 2.74046 0 184 2.74046 1
gene 2 59 6 4.1247 0 185 4.1247 1
gene 1 13 16 1.21291 0 263 1.21291 1
gene 3 7 13 -2.4288 0 334 -2.4288 1
gene 3 7 6 -4.44194 0 356 -4.44194 1
gene 1 2 59 -2.06902 0 466 -2.06902 1
gene 2 4 140 -6.24142 0 482 -6.24142 1
gene 2 140 6 -0.367953 0 483 -0.367953 1
gene 2 13 160 -2.19274 0 551 -2.19274 1
gene 2 160 59 4.89266 0 552 4.89266 1
gene 2 7 59 -5.9299 0 562 -5.9299 1
gene 1 5 213 -2.0217 0 735 -2.0217 1
gene 1 213 16 4.61406 0 736 4.61406 1
gene 3 4 160 -6.50882 0 752 -6.50882 1
gene 1 160 6 7.16359 0 770 7.16359 1
gene 1 140 7 1.10127 0 789 1.10127 1
gene 1 4 59 -3.33056 0 793 -3.33056 1
gene 1 5 238 -0.289388 0 855 -0.289388 1
gene 1 238 6 -0.250714 0 856 -0.250714 1
gene 1 140 160 2.07556 0 915 2.07556 1
gene 3 2 16 -3.0084 0 1011 -3.0084 1
gene 1 4 238 -4.7467 0 1035 -4.7467 1
gene 3 7 286 -1.29643 0 1045 -1.29643 1
gene 3 286 13 1.2454 0 1046 1.2454 1
gene 2 140 238 -0.352921 0 1058 -0.352921 1
gene 2 3 238 0.533815 0 1071 0.533815 1
gene 2 4 293 -0.105222 0 1088 -0.105222 1
gene 2 293 140 -4.63495 0 1089 -4.63495 0
gene 1 2 160 1.25513 0 1148 1.25513 1
gene 2 140 317 -0.481155 0 1187 -0.481155 1
gene 2 317 238 -1.28824 0 1188 -1.28824 1
gene 3 293 286 0.151924 0 1214 0.151924 1
gene 2 140 354 0.0303565 0 1335 0.0303565 1
gene 2 354 238 0.720377 0 1336 0.720377 1
gene 2 293 364 2.98936 0 1379 2.98936 1
gene 2 364 140 -5.88366 0 1380 -5.88366 1
gene 2 13 354 0.0445713 0 1464 0.0445713 1
gene 1 238 160 1.642 0 1474 1.642 1
gene 1 213 286 -0.683639 0 1484 -0.683639 1
gene 1 364 286 1.94698 0 1512 1.94698 1
gene 2 286 16 -1.67328 0 1584 -1.67328 1
gene 2 317 286 1.7041 0 1606 1.7041 1
gene 2 1 140 1.63227 0 1711 1.63227 1
gene 1 1 213 1.18275 0 1723 1.18275 1
gene 1 2 317 0.735435 0 1814 0.735435 1
gene 1 238 16 1.95865 0 1848 1.95865 1
gene 1 5 481 0.994371 0 1863 0.994371 1
gene 1 481 16 -0.554006 0 1864 -0.554006 1
genomeend 28

/* Organism #29 Fitness: 12.708 Error: 0 */
genomestart 29
trait 1 0.0290472 0.00552208 0 0 0 0.0031835 0.113084 0.193656 
trait 2 1 0 0 0 0 0 0.180378 0.993401 
trait 3 0.3 0 0 0 0 0 0 0 
node 1 1 1 3
node 2 1 1 1
node 3 2 1 1
node 4 2 1 1
node 5 2 1 1
node 6 1 0 2
node 7 1 0 2
node 13 1 0 0
node 16 1 0 0
node 59 1 0 0
node 140 1 0 0
node 160 1 0 0
node 213 1 0 0
node 238 2 0 0
node 286 1 0 0
node 293 1 0 0
node 317 1 0 0
node 354 1 0 0
node 364 1 0 0
node 481 1 0 0
gene 1 1 6 -8 0 1 -8 1
gene 1 2 6 -7.30312 0 2 -7.30312 1
gene 2 3 6 -1.35034 0 3 -1.35034 1
gene 2 4 6 -4.82077 0 4 -4.82077 1
gene 1 5 6 2.49784 0 5 2.49784 0
gene 3 1 7 -1.72088 0 6 -1.72088 1
gene 2 2 7 6.25678 0 7 6.25678 1
gene 2 3 7 -3.86794 0 8 -3.86794 1
gene 1 4 7 0.749694 0 9 0.749694 1
gene 1 5 7 -5.4925 0 10 -5.4925 1
gene 2 4 13 -3.72704 0 25 -3.72704 1
gene 2 13 6 -3.35115 0 26 -3.35115 1
gene 3 1 13 2.79031 0 28 2.79031 1
gene 1 5 16 5.61217 0 38 5.61217 0
gene 1 16 6 1.26401 0 39 1.26401 1
gene 3 3 16 -7.37808 0 176 -7.37808 1
gene 2 13 59 3.40856 0 184 3.40856 1
gene 2 59 6 3.57342 0 185 3.57342 1
gene 1 13 16 0.0392285 0 263 0.0392285 1
gene 3 7 13 -3.66414 0 334 -3.66414 1
gene 3 7 6 -4.12542 0 356 -4.12542 1
gene 1 2 59 -0.515468 0 466 -0.515468 1
gene 2 4 140 -7.0159 0 482 -7.0159 1
gene 2 140 6 1.46965 0 483 1.46965 1
gene 2 13 160 -0.671824 0 551 -0.671824 1
gene 2 160 59 2.51844 0 552 2.51844 1
gene 2 7 59 -2.63322 0 562 -2.63322 1
gene 1 5 213 -1.41603 0 735 -1.41603 1
gene 1 213 16 4.58585 0 736 4.58585 1
gene 3 4 160 -8 0 752 -8 1
gene 1 160 6 3.57373 0 770 3.57373 1
gene 1 140 7 -0.860325 0 789 -0.860325 1
gene 1 4 59 -1.79181 0 793 -1.79181 1
gene 1 5 238 -2.67595 0 855 -2.67595 1
gene 1 238 6 1.03886 0 856 1.03886 1
gene 1 140 160 1.72927 0 915 1.72927 1
gene 3 2 16 -3.65436 0 1011 -3.65436 1
gene 1 4 238 0.122049 0 1035 0.122049 1
gene 3 7 286 0.852475 0 1045 0.852475 1
gene 3 286 13 3.19739 0 1046 3.19739 1
gene 2 140 238 2.11402 0 1058 2.11402 1
gene 2 3 238 -1.93053 0 1071 -1.93053 1
gene 2 4 293 2.54766 0 1088 2.54766 1
gene 2 293 140 -2.366 0 1089 -2.366 0
gene 1 2 160 1.24972 0 1148 1.24972 1
gene 2 140 317 3.16368 0 1187 3.16368 1
gene 2 317 238 0.481852 0 1188 0.481852 1
gene 3 293 286 -1.37461 0 1214 -1.37461 1
gene 2 140 354 1.90524 0 1335 1.90524 1
gene 2 354 238 -1.66634 0 1336 -1.66634 1
gene 2 293 364 -1.06346 0 1379 -1.06346 1
gene 2 364 140 -3.53651 0 1380 -3.53651 1
gene 2 13 354 -2.15227 0 1464 -2.15227 1
gene 1 238 160 0.0132017 0 1474 0.0132017 1
gene 1 213 286 -0.732636 0 1484 -0.732636 1
gene 1 364 286 -0.625223 0 1512 -0.625223 1
gene 2 286 16 0.195532 0 1584 0.195532 1
gene 2 317 286 0.722953 0 1606 0.722953 1
gene 2 1 140 -0.278369 0 1711 -0.278369 1
gene 1 1 213 -0.758227 0 1723 -0.758227 1
gene 1 2 317 -1.42848 0 1814 -1.42848 1
gene 1 238 16 -0.528687 0 1848 -0.528687 1
gene 1 5 481 1.69625 0 1863 1.69625 1
gene 1 481 16 -1.07625 0 1864 -1.07625 1
genomeend 29

/* Species #148 : (Size 7) (AF 13.5921) (Age 8)  */


/* Organism #30 Fitness: 15.3874 Error: 0 */
genomestart 30
trait 1 0.0290472 0.00552208 0 0 0 0.0031835 0.113084 0.193656 
trait 2 1 0 0 0 0 0 0.180378 0.993401 
trait 3 0.3 0 0 0 0 0 0 0 
node 1 1 1 3
node 2 1 1 1
node 3 2 1 1
node 4 2 1 1
node 5 2 1 1
node 6 1 0 2
node 7 1 0 2
node 13 1 0 0
node 16 1 0 0
node 59 1 0 0
node 140 1 0 0
node 160 1 0 0
node 213 1 0 0
node 238 2 0 0
node 286 1 0 0
node 293 1 0 0
node 317 1 0 0
node 354 1 0 0
node 364 1 0 0
gene 1 1 6 -8 0 1 -8 1
gene 1 2 6 -6.72147 0 2 -6.72147 1
gene 2 3 6 -0.847086 0 3 -0.847086 1
gene 2 4 6 -7.79445 0 4 -7.79445 1
gene 1 5 6 4.78876 0 5 4.78876 0
gene 3 1 7 -1.43428 0 6 -1.43428 1
gene 2 2 7 7.47778 0 7 7.47778 1
gene 2 3 7 -3.41697 0 8 -3.41697 1
gene 1 4 7 2.51129 0 9 2.51129 1
gene 1 5 7 -7.55456 0 10 -7.55456 1
gene 2 4 13 -1.60727 0 25 -1.60727 1
gene 2 13 6 -0.0895057 0 26 -0.0895057 1
gene 3 1 13 2.35364 0 28 2.35364 1
gene 1 5 16 3.12783 0 38 3.12783 1
gene 1 16 6 0.673277 0 39 0.673277 1
gene 3 3 16 -7.56635 0 176 -7.56635 1
gene 2 13 59 4.62559 0 184 4.62559 1
gene 2 59 6 4.53768 0 185 4.53768 1
gene 1 13 16 -1.0676 0 263 -1.0676 1
gene 3 7 13 -2.54695 0 334 -2.54695 1
gene 3 7 6 -5.37549 0 356 -5.37549 1
gene 1 2 59 -3.92753 0 466 -3.92753 1
gene 2 4 140 -5.46956 0 482 -5.46956 1
gene 2 140 6 -0.398054 0 483 -0.398054 1
gene 2 13 160 -0.609712 0 551 -0.609712 1
gene 2 160 59 2.4343 0 552 2.4343 1
gene 2 7 59 -5.03956 0 562 -5.03956 1
gene 1 5 213 -0.539646 0 735 -0.539646 1
gene 1 213 16 5.34487 0 736 5.34487 1
gene 3 4 160 -5.11682 0 752 -5.11682 1
gene 1 160 6 5.30335 0 770 5.30335 1
gene 1 140 7 0.572697 0 789 0.572697 1
gene 1 4 59 -1.73199 0 793 -1.73199 1
gene 1 5 238 -0.628487 0 855 -0.628487 1
gene 1 238 6 0.998395 0 856 0.998395 1
gene 1 140 160 0.61151 0 915 0.61151 1
gene 3 2 16 -1.19412 0 1011 -1.19412 1
gene 1 4 238 -2.94577 0 1035 -2.94577 1
gene 3 7 286 1 0 1045 1 1
gene 3 286 13 1.93921 0 1046 1.93921 1
gene 2 140 238 -0.709478 0 1058 -0.709478 1
gene 2 3 238 0.589885 0 1071 0.589885 1
gene 2 4 293 1 0 1088 1 1
gene 2 293 140 -3.39717 0 1089 -3.39717 0
gene 1 2 160 0.347841 0 1148 0.347841 1
gene 2 140 317 1 0 1187 0 1
gene 2 317 238 -0.709478 0 1188 0 1
gene 3 293 286 0.372682 0 1214 0.372682 1
gene 2 140 354 1 0 1335 0 1
gene 2 354 238 -0.709478 0 1336 0 1
gene 2 293 364 1 0 1379 0 1
gene 2 364 140 -3.39717 0 1380 0 1
gene 2 13 354 0.0445713 0 1464 0.0445713 1
gene 1 238 160 0.185935 0 1474 0.185935 1
gene 1 213 286 -0.683639 0 1484 -0.683639 1
gene 1 364 286 -0.535561 0 1512 -0.535561 1
gene 2 286 16 0.195532 0 1584 0.195532 1
gene 2 317 286 -0.453025 0 1606 -0.453025 1
gene 2 1 140 0.260845 0 1711 0.260845 1
gene 1 1 213 -0.471169 0 1723 -0.471169 1
gene 2 293 7 -0.134442 0 1830 -0.134442 1
gene 3 7 160 0.333368 0 1849 0.333368 1
genomeend 30

/* Organism #31 Fitness: 15.3874 Error: 0 */
genomestart 31
trait 1 0.0290472 0.00552208 0 0 0 0.0031835 0.113084 0.193656 
trait 2 1 0 0 0 0 0 0.180378 0.993401 
trait 3 0.3 0 0 0 0 0 0 0 
node 1 1 1 3
node 2 1 1 1
node 3 2 1 1
node 4 2 1 1
node 5 2 1 1
node 6 1 0 2
node 7 1 0 2
node 13 1 0 0
node 16 1 0 0
node 59 1 0 0
node 140 1 0 0
node 160 1 0 0
node 213 1 0 0
node 238 2 0 0
node 286 1 0 0
node 293 1 0 0
node 317 1 0 0
node 354 1 0 0
node 364 1 0 0
gene 1 1 6 -8 0 1 -8 1
gene 1 2 6 -6.72147 0 2 -6.72147 1
gene 2 3 6 -0.847086 0 3 -0.847086 1
gene 2 4 6 -7.79445 0 4 -7.79445 1
gene 1 5 6 4.78876 0 5 4.78876 0
gene 3 1 7 -1.43428 0 6 -1.43428 1
gene 2 2 7 7.47778 0 7 7.47778 1
gene 2 3 7 -3.41697 0 8 -3.41697 1
gene 1 4 7 2.51129 0 9 2.51129 1
gene 1 5 7 -7.55456 0 10 -7.55456 1
gene 2 4 13 -1.60727 0 25 -1.60727 1
gene 2 13 6 -0.0895057 0 26 -0.0895057 1
gene 3 1 13 2.35364 0 28 2.35364 1
gene 1 5 16 3.12783 0 38 3.12783 1
gene 1 16 6 0.673277 0 39 0.673277 1
gene 3 3 16 -7.56635 0 176 -7.56635 1
gene 2 13 59 4.62559 0 184 4.62559 1
gene 2 59 6 4.53768 0 185 4.53768 1
gene 1 13 16 -1.0676 0 263 -1.0676 1
gene 3 7 13 -2.54695 0 334 -2.54695 1
gene 3 7 6 -5.37549 0 356 -5.37549 1
gene 1 2 59 -3.92753 0 466 -3.92753 1
gene 2 4 140 -5.46956 0 482 -5.46956 1
gene 2 140 6 -0.398054 0 483 -0.398054 1
gene 2 13 160 -0.609712 0 551 -0.609712 1
gene 2 160 59 2.4343 0 552 2.4343 1
gene 2 7 59 -5.03956 0 562 -5.03956 1
gene 1 5 213 -0.539646 0 735 -0.539646 1
gene 1 213 16 5.34487 0 736 5.34487 1
gene 3 4 160 -5.11682 0 752 -5.11682 1
gene 1 160 6 5.30335 0 770 5.30335 1
gene 1 140 7 0.572697 0 789 0.572697 1
gene 1 4 59 -1.73199 0 793 -1.73199 1
gene 1 5 238 -0.628487 0 855 -0.628487 1
gene 1 238 6 0.998395 0 856 0.998395 1
gene 1 140 160 0.61151 0 915 0.61151 1
gene 3 2 16 -1.19412 0 1011 -1.19412 1
gene 1 4 238 -2.94577 0 1035 -2.94577 1
gene 3 7 286 1 0 1045 1 1
gene 3 286 13 1.93921 0 1046 1.93921 1
gene 2 140 238 -0.709478 0 1058 -0.709478 1
gene 2 3 238 0.589885 0 1071 0.589885 1
gene 2 4 293 1 0 1088 1 1
gene 2 293 140 -3.39717 0 1089 -3.39717 0
gene 1 2 160 0.347841 0 1148 0.347841 1
gene 2 140 317 1 0 1187 0 1
gene 2 317 238 -0.709478 0 1188 0 1
gene 3 293 286 0.372682 0 1214 0.372682 1
gene 2 140 354 1 0 1335 0 1
gene 2 354 238 -0.709478 0 1336 0 1
gene 2 293 364 1 0 1379 0 1
gene 2 364 140 -3.39717 0 1380 0 1
gene 2 13 354 0.0445713 0 1464 0.0445713 1
gene 1 238 160 0.185935 0 1474 0.185935 1
gene 1 213 286 -0.683639 0 1484 -0.683639 1
gene 1 364 286 -0.535561 0 1512 -0.535561 1
gene 2 286 16 0.195532 0 1584 0.195532 1
gene 2 317 286 -0.453025 0 1606 -0.453025 1
gene 2 1 140 0.260845 0 1711 0.260845 1
gene 1 1 213 -0.471169 0 1723 -0.471169 1
gene 2 293 7 -0.134442 0 1830 -0.134442 1
gene 3 7 160 0.333368 0 1849 0.333368 1
gene 1 364 13 0.253455 0 1966 0.253455 1
genomeend 31

/* Organism #32 Fitness: 13.221 Error: 0 */
genomestart 32
trait 1 0.0290472 0.00552208 0 0 0 0.0031835 0.113084 0.193656 
trait 2 1 0 0 0 0 0 0.180378 0.993401 
trait 3 0.3 0 0 0 0 0 0 0 
node 1 1 1 3
node 2 1 1 1
node 3 2 1 1
node 4 2 1 1
node 5 2 1 1
node 6 1 0 2
node 7 1 0 2
node 13 1 0 0
node 16 1 0 0
node 59 1 0 0
node 140 1 0 0
node 160 1 0 0
node 213 1 0 0
node 238 2 0 0
node 286 1 0 0
node 293 1 0 0
node 317 1 0 0
node 354 1 0 0
node 364 1 0 0
gene 1 1 6 -8 0 1 -8 1
gene 1 2 6 -8 0 2 -8 1
gene 2 3 6 0.349252 0 3 0.349252 1
gene 2 4 6 -8 0 4 -8 1
gene 1 5 6 4.78876 0 5 4.78876 0
gene 3 1 7 -2.13575 0 6 -2.13575 1
gene 2 2 7 5.08298 0 7 5.08298 1
gene 2 3 7 -2.19642 0 8 -2.19642 1
gene 1 4 7 2.51129 0 9 2.51129 1
gene 1 5 7 -1.62614 0 10 -1.62614 1
gene 2 4 13 -1.38489 0 25 -1.38489 1
gene 2 13 6 -1.58604 0 26 -1.58604 1
gene 3 1 13 2.35364 0 28 2.35364 1
gene 1 5 16 2.02733 0 38 2.02733 1
gene 1 16 6 -1.48511 0 39 -1.48511 1
gene 3 3 16 -8 0 176 -8 1
gene 2 13 59 -0.305124 0 184 -0.305124 1
gene 2 59 6 -1.78543 0 185 -1.78543 1
gene 1 13 16 -3.34204 0 263 -3.34204 1
gene 3 7 13 -3.94288 0 334 -3.94288 1
gene 3 7 6 -4.90622 0 356 -4.90622 1
gene 1 2 59 -1.57823 0 466 -1.57823 1
gene 2 4 140 -6.66693 0 482 -6.66693 1
gene 2 140 6 1.75128 0 483 1.75128 1
gene 2 13 160 0.88393 0 551 0.88393 1
gene 2 160 59 3.98165 0 552 3.98165 1
gene 2 7 59 -7.06705 0 562 -7.06705 1
gene 1 5 213 -2.65386 0 735 -2.65386 1
gene 1 213 16 5.50661 0 736 5.50661 1
gene 3 4 160 -1.79394 0 752 -1.79394 1
gene 1 160 6 6.89893 0 770 6.89893 1
gene 1 140 7 -0.756141 0 789 -0.756141 1
gene 1 4 59 -2.19365 0 793 -2.19365 1
gene 1 5 238 -2.61805 0 855 -2.61805 1
gene 1 238 6 -0.890521 0 856 -0.890521 1
gene 1 140 160 0.444189 0 915 0.444189 1
gene 3 2 16 -1.19412 0 1011 -1.19412 1
gene 1 4 238 -4.99646 0 1035 -4.99646 1
gene 3 7 286 1 0 1045 1 1
gene 3 286 13 3.69793 0 1046 3.69793 1
gene 2 140 238 -1.104 0 1058 -1.104 1
gene 2 3 238 0.400917 0 1071 0.400917 1
gene 2 4 293 2.93802 0 1088 2.93802 1
gene 2 293 140 -3.57306 0 1089 -3.57306 0
gene 1 2 160 2.67574 0 1148 2.67574 1
gene 2 140 317 -1.18743 0 1187 -1.18743 1
gene 2 317 238 -1.73336 0 1188 -1.73336 1
gene 3 293 286 2.20637 0 1214 2.20637 1
gene 2 140 354 -0.202849 0 1335 -0.202849 1
gene 2 354 238 -0.709478 0 1336 -0.709478 1
gene 2 293 364 -1.62689 0 1379 -1.62689 1
gene 2 364 140 -1.53897 0 1380 -1.53897 1
gene 2 13 354 0.0224941 0 1464 0.0224941 1
gene 1 238 160 2.47418 0 1474 2.47418 1
gene 1 213 286 1.58611 0 1484 1.58611 1
gene 1 364 286 0.103064 0 1512 0.103064 1
gene 2 286 16 -0.986808 0 1584 -0.986808 1
gene 2 317 286 -1.48494 0 1606 -1.48494 1
gene 2 1 140 1.63669 0 1711 1.63669 1
gene 1 1 213 -0.471169 0 1723 -0.471169 1
gene 2 293 7 0.668198 0 1830 0.668198 1
gene 3 7 160 -1.89437 0 1849 -1.89437 1
genomeend 32

/* Organism #33 Fitness: 12.9749 Error: 0 */
genomestart 33
trait 1 0.0290472 0.00552208 0 0 0 0.0031835 0.113084 0.193656 
trait 2 1 0 0 0 0 0 0.180378 0.993401 
trait 3 0.3 0 0 0 0 0 0 0 
node 1 1 1 3
node 2 1 1 1
node 3 2 1 1
node 4 2 1 1
node 5 2 1 1
node 6 1 0 2
node 7 1 0 2
node 13 1 0 0
node 16 1 0 0
node 59 1 0 0
node 140 1 0 0
node 160 1 0 0
node 213 1 0 0
node 238 2 0 0
node 286 1 0 0
node 293 1 0 0
node 317 1 0 0
node 354 1 0 0
node 364 1 0 0
gene 1 1 6 -8 0 1 -8 1
gene 1 2 6 -8 0 2 -8 1
gene 2 3 6 1.10307 0 3 1.10307 1
gene 2 4 6 -8 0 4 -8 1
gene 1 5 6 3.37524 0 5 3.37524 0
gene 3 1 7 0.901134 0 6 0.901134 1
gene 2 2 7 6.96758 0 7 6.96758 1
gene 2 3 7 -3.17144 0 8 -3.17144 1
gene 1 4 7 1.72326 0 9 1.72326 1
gene 1 5 7 -8 0 10 -8 1
gene 2 4 13 -0.0681819 0 25 -0.0681819 1
gene 2 13 6 -1.92632 0 26 -1.92632 1
gene 3 1 13 4.27524 0 28 4.27524 1
gene 1 5 16 3.75693 0 38 3.75693 1
gene 1 16 6 0.573934 0 39 0.573934 1
gene 3 3 16 -5.539 0 176 -5.539 1
gene 2 13 59 6.07656 0 184 6.07656 1
gene 2 59 6 4.13928 0 185 4.13928 1
gene 1 13 16 -0.153633 0 263 -0.153633 1
gene 3 7 13 -1.52414 0 334 -1.52414 1
gene 3 7 6 -5.82882 0 356 -5.82882 1
gene 1 2 59 -2.56557 0 466 -2.56557 1
gene 2 4 140 -7.59371 0 482 -7.59371 1
gene 2 140 6 -0.845443 0 483 -0.845443 1
gene 2 13 160 -2.29753 0 551 -2.29753 1
gene 2 160 59 1.24189 0 552 1.24189 1
gene 2 7 59 -5.26914 0 562 -5.26914 1
gene 1 5 213 -0.19289 0 735 -0.19289 1
gene 1 213 16 4.50018 0 736 4.50018 1
gene 3 4 160 -4.59371 0 752 -4.59371 1
gene 1 160 6 7.35404 0 770 7.35404 1
gene 1 140 7 0.317153 0 789 0.317153 1
gene 1 4 59 -3.42834 0 793 -3.42834 1
gene 1 5 238 -1.12999 0 855 -1.12999 1
gene 1 238 6 0.33826 0 856 0.33826 1
gene 1 140 160 -1.03902 0 915 -1.03902 1
gene 3 2 16 -0.71942 0 1011 -0.71942 1
gene 1 4 238 -0.962144 0 1035 -0.962144 1
gene 3 7 286 2.42649 0 1045 2.42649 1
gene 3 286 13 3.96135 0 1046 3.96135 1
gene 2 140 238 -2.64367 0 1058 -2.64367 1
gene 2 3 238 1.33152 0 1071 1.33152 1
gene 2 4 293 -0.191639 0 1088 -0.191639 1
gene 2 293 140 -5.60642 0 1089 -5.60642 0
gene 1 2 160 2.09574 0 1148 2.09574 1
gene 2 140 317 1.76689 0 1187 1.76689 1
gene 2 317 238 -2.3037 0 1188 -2.3037 1
gene 3 293 286 -0.952434 0 1214 -0.952434 1
gene 2 140 354 3.09438 0 1335 3.09438 1
gene 2 354 238 -1.17015 0 1336 -1.17015 1
gene 2 293 364 -0.594205 0 1379 -0.594205 1
gene 2 364 140 -1.15524 0 1380 -1.15524 1
gene 2 13 354 0.0445713 0 1464 0.0445713 1
gene 1 238 160 2.09834 0 1474 2.09834 1
gene 1 213 286 -0.683639 0 1484 -0.683639 1
gene 1 364 286 -0.535561 0 1512 -0.535561 1
gene 2 286 16 -1.79365 0 1584 -1.79365 1
gene 2 317 286 0.915445 0 1606 0.915445 1
gene 2 1 140 0.400955 0 1711 0.400955 1
gene 1 1 213 2.49202 0 1723 2.49202 1
gene 2 293 7 -1.78384 0 1830 -1.78384 1
gene 3 7 160 0.915644 0 1849 0.915644 1
genomeend 33

/* Organism #34 Fitness: 13.221 Error: 0 */
genomestart 34
trait 1 0.0290472 0.00552208 0 0 0 0.0031835 0.113084 0.193656 
trait 2 1 0 0 0 0 0 0.180378 0.993401 
trait 3 0.3 0 0 0 0 0 0 0 
node 1 1 1 3
node 2 1 1 1
node 3 2 1 1
node 4 2 1 1
node 5 2 1 1
node 6 1 0 2
node 7 1 0 2
node 13 1 0 0
node 16 1 0 0
node 59 1 0 0
node 140 1 0 0
node 160 1 0 0
node 213 1 0 0
node 238 2 0 0
node 286 1 0 0
node 293 1 0 0
node 317 1 0 0
node 354 1 0 0
node 364 1 0 0
node 509 1 0 0
gene 1 1 6 -8 0 1 -8 1
gene 1 2 6 -8 0 2 -8 1
gene 2 3 6 0.349252 0 3 0.349252 1
gene 2 4 6 -8 0 4 -8 1
gene 1 5 6 4.78876 0 5 4.78876 0
gene 3 1 7 -2.13575 0 6 -2.13575 1
gene 2 2 7 5.08298 0 7 5.08298 1
gene 2 3 7 -2.19642 0 8 -2.19642 1
gene 1 4 7 2.51129 0 9 2.51129 1
gene 1 5 7 -1.62614 0 10 -1.62614 1
gene 2 4 13 -1.38489 0 25 -1.38489 1
gene 2 13 6 -1.58604 0 26 -1.58604 1
gene 3 1 13 2.35364 0 28 2.35364 1
gene 1 5 16 2.02733 0 38 2.02733 1
gene 1 16 6 -1.48511 0 39 -1.48511 1
gene 3 3 16 -8 0 176 -8 1
gene 2 13 59 -0.305124 0 184 -0.305124 1
gene 2 59 6 -1.78543 0 185 -1.78543 1
gene 1 13 16 -3.34204 0 263 -3.34204 1
gene 3 7 13 -3.94288 0 334 -3.94288 1
gene 3 7 6 -4.90622 0 356 -4.90622 1
gene 1 2 59 -1.57823 0 466 -1.57823 1
gene 2 4 140 -6.66693 0 482 -6.66693 1
gene 2 140 6 1.75128 0 483 1.75128 1
gene 2 13 160 0.88393 0 551 0.88393 1
gene 2 160 59 3.98165 0 552 3.98165 1
gene 2 7 59 -7.06705 0 562 -7.06705 1
gene 1 5 213 -2.65386 0 735 -2.65386 1
gene 1 213 16 5.50661 0 736 5.50661 1
gene 3 4 160 -1.79394 0 752 -1.79394 1
gene 1 160 6 6.89893 0 770 6.89893 1
gene 1 140 7 -0.756141 0 789 -0.756141 1
gene 1 4 59 -2.19365 0 793 -2.19365 1
gene 1 5 238 -2.61805 0 855 -2.61805 1
gene 1 238 6 -0.890521 0 856 -0.890521 1
