
/* Species #1 : (Size 14) (AF 52.4286) (Age 12)  */


/* Organism #0 Fitness: 108 Error: 0 */
genomestart 0
trait 1 0.1 0 0 0 0 0 0 0 
trait 2 0.2 0 0 0 0 0 0 0 
trait 3 0.3 0 0 0 0 0 0 0 
node 1 3 1 3
node 2 3 1 1
node 3 2 1 1
node 4 3 1 1
node 5 3 1 1
node 6 1 0 2
node 7 1 0 2
gene 2 1 6 -0.499107 0 1 -0.499107 1
gene 3 2 6 0.382923 0 2 0.382923 1
gene 2 3 6 -0.140182 0 3 -0.140182 0
gene 2 4 6 -0.28157 0 4 -0.28157 1
gene 1 5 6 -0.302268 0 5 -0.302268 1
gene 2 1 7 0.396053 0 6 0.396053 1
gene 2 2 7 -1.39644 0 7 -1.39644 1
gene 3 3 7 0.629324 0 8 0.629324 1
gene 3 4 7 -0.815336 0 9 -0.815336 1
gene 3 5 7 -0.517373 0 10 -0.517373 1
gene 2 6 7 0.703682 0 22 0.703682 1
genomeend 0

/* Organism #1 Fitness: 72 Error: 0 */
genomestart 1
trait 1 0.102684 0 0 0 0 0 0 0 
trait 2 0.2 0 0 0 0 0 0 0 
trait 3 0.3 0 0 0 0 0 0 0 
node 1 1 1 3
node 2 3 1 1
node 3 3 1 1
node 4 1 1 1
node 5 2 1 1
node 6 2 0 2
node 7 1 0 2
node 39 1 0 0
gene 2 1 6 -1.57763 0 1 -1.57763 1
gene 3 2 6 1.40129 0 2 1.40129 1
gene 2 3 6 1.02713 0 3 1.02713 0
gene 3 4 6 -0.92468 0 4 -0.92468 1
gene 1 5 6 -0.202283 0 5 -0.202283 0
gene 2 1 7 1.62794 0 6 1.62794 1
gene 2 2 7 -2.01374 0 7 -2.01374 1
gene 3 3 7 1.25895 0 8 1.25895 1
gene 3 4 7 -1.00074 0 9 -1.00074 1
gene 3 5 7 -1.66393 0 10 -1.66393 1
gene 2 6 7 0.116861 0 22 0.116861 1
gene 1 5 39 1 0 123 0 1
gene 1 39 6 -0.202283 0 124 0 1
genomeend 1

/* Organism #2 Fitness: 7 Error: 0 */
genomestart 2
trait 1 0.105368 0 0 0 0 0 0 0 
trait 2 0.2 0 0 0 0 0 0 0 
trait 3 0.3 0 0 0 0 0 0 0 
node 1 1 1 3
node 2 3 1 1
node 3 3 1 1
node 4 1 1 1
node 5 2 1 1
node 6 2 0 2
node 7 1 0 2
gene 2 1 6 -1.25444 0 1 -1.25444 1
gene 3 2 6 -0.00110217 0 2 -0.00110217 1
gene 2 3 6 3.9286 0 3 3.9286 0
gene 3 4 6 -2.91982 0 4 -2.91982 1
gene 1 5 6 1.92398 0 5 1.92398 1
gene 2 1 7 2.07896 0 6 2.07896 1
gene 2 2 7 -1.92822 0 7 -1.92822 1
gene 3 3 7 1.42486 0 8 1.42486 1
gene 1 4 7 1.18419 0 9 1.18419 1
gene 3 5 7 -2.68454 0 10 -2.68454 1
gene 2 6 7 -0.46996 0 22 -0.46996 1
genomeend 2

/* Organism #3 Fitness: 25 Error: 0 */
genomestart 3
trait 1 0.102684 0 0 0 0 0 0 0 
trait 2 0.2 0 0 0 0 0 0 0 
trait 3 0.3 0 0 0 0 0 0 0 
node 1 1 1 3
node 2 3 1 1
node 3 3 1 1
node 4 1 1 1
node 5 2 1 1
node 6 2 0 2
node 7 1 0 2
gene 2 1 6 -1.57193 0 1 -1.57193 1
gene 3 2 6 1.30277 0 2 1.30277 1
gene 2 3 6 -2.19659 0 3 -2.19659 0
gene 2 4 6 -0.43157 0 4 -0.43157 1
gene 1 5 6 2.18548 0 5 2.18548 1
gene 2 1 7 -0.649315 0 6 -0.649315 1
gene 2 2 7 -3.31838 0 7 -3.31838 1
gene 3 3 7 2.23932 0 8 2.23932 1
gene 1 4 7 -0.517859 0 9 -0.517859 1
gene 3 5 7 -4.31754 0 10 -4.31754 1
gene 2 6 7 1.38104 0 22 1.38104 1
genomeend 3

/* Organism #4 Fitness: 75 Error: 0 */
genomestart 4
trait 1 0.105368 0 0 0 0 0 0 0 
trait 2 0.2 0 0 0 0 0 0 0 
trait 3 0.3 0 0 0 0 0 0 0 
node 1 1 1 3
node 2 3 1 1
node 3 3 1 1
node 4 1 1 1
node 5 2 1 1
node 6 2 0 2
node 7 1 0 2
gene 2 1 6 -3.65882 0 1 -3.65882 1
gene 3 2 6 0.566759 0 2 0.566759 1
gene 2 3 6 0.268793 0 3 0.268793 0
gene 3 4 6 0.251859 0 4 0.251859 1
gene 1 5 6 -1.95149 0 5 -1.95149 1
gene 2 1 7 3.80316 0 6 3.80316 1
gene 2 2 7 -4.60814 0 7 -4.60814 1
gene 3 3 7 -0.0364673 0 8 -0.0364673 1
gene 1 4 7 -0.0363891 0 9 -0.0363891 1
gene 3 5 7 -3.47925 0 10 -3.47925 1
gene 2 6 7 -0.0992207 0 22 -0.0992207 1
genomeend 4

/* Organism #5 Fitness: 75 Error: 0 */
genomestart 5
trait 1 0.105368 0 0 0 0 0 0 0 
trait 2 0.2 0 0 0 0 0 0 0 
trait 3 0.3 0 0 0 0 0 0 0 
node 1 1 1 3
node 2 3 1 1
node 3 3 1 1
node 4 1 1 1
node 5 2 1 1
node 6 2 0 2
node 7 1 0 2
gene 2 1 6 -3.96973 0 1 -3.96973 1
gene 3 2 6 4.60679 0 2 4.60679 1
gene 2 3 6 3.18391 0 3 3.18391 0
gene 3 4 6 -1.32455 0 4 -1.32455 1
gene 1 5 6 1.20968 0 5 1.20968 1
gene 2 1 7 2.15903 0 6 2.15903 1
gene 2 2 7 -3.50787 0 7 -3.50787 1
gene 3 3 7 -0.591035 0 8 -0.591035 1
gene 1 4 7 -3.13599 0 9 -3.13599 1
gene 3 5 7 -4.99242 0 10 -4.99242 1
gene 2 6 7 -0.46996 0 22 -0.46996 1
genomeend 5

/* Organism #6 Fitness: 69 Error: 0 */
genomestart 6
trait 1 0.102684 0 0 0 0 0 0 0 
trait 2 0.2 0 0 0 0 0 0 0 
trait 3 0.3 0 0 0 0 0 0 0 
node 1 3 1 3
node 2 3 1 1
node 3 2 1 1
node 4 3 1 1
node 5 3 1 1
node 6 1 0 2
node 7 1 0 2
gene 2 1 6 -1.57763 0 1 -1.57763 1
gene 3 2 6 1.40129 0 2 1.40129 1
gene 2 3 6 1.02713 0 3 1.02713 1
gene 2 4 6 -0.92468 0 4 -0.92468 1
gene 1 5 6 -0.202283 0 5 -0.202283 1
gene 2 1 7 1.62794 0 6 1.62794 1
gene 2 2 7 -2.01374 0 7 -2.01374 1
gene 3 3 7 1.25895 0 8 1.25895 1
gene 3 4 7 -1.00074 0 9 -1.00074 1
gene 3 5 7 -1.66393 0 10 -1.66393 1
gene 2 6 7 0.116861 0 22 0.116861 1
genomeend 6

/* Organism #7 Fitness: 10 Error: 0 */
genomestart 7
trait 1 0.1 0 0 0 0 0 0 0 
trait 2 0.2 0 0 0 0 0 0 0 
trait 3 0.3 0 0 0 0 0 0 0 
node 1 3 1 3
node 2 3 1 1
node 3 2 1 1
node 4 3 1 1
node 5 3 1 1
node 6 1 0 2
node 7 1 0 2
gene 2 1 6 -0.499107 0 1 -0.499107 1
gene 3 2 6 -2.03854 0 2 -2.03854 1
gene 2 3 6 -1.01701 0 3 -1.01701 0
gene 2 4 6 1.48018 0 4 1.48018 1
gene 1 5 6 -0.963108 0 5 -0.963108 1
gene 2 1 7 1.32669 0 6 1.32669 1
gene 2 2 7 1.83096 0 7 1.83096 1
gene 3 3 7 1.89691 0 8 1.89691 1
gene 3 4 7 0.858589 0 9 0.858589 1
gene 3 5 7 0.555513 0 10 0.555513 1
gene 2 6 7 0.703682 0 22 0.703682 1
genomeend 7

/* Organism #8 Fitness: 74 Error: 0 */
genomestart 8
trait 1 0.105368 0 0 0 0 0 0 0 
trait 2 0.2 0 0 0 0 0 0 0 
trait 3 0.3 0 0 0 0 0 0 0 
node 1 1 1 3
node 2 3 1 1
node 3 3 1 1
node 4 1 1 1
node 5 2 1 1
node 6 2 0 2
node 7 1 0 2
gene 2 1 6 -4.58855 0 1 -4.58855 1
gene 3 2 6 -0.0659093 0 2 -0.0659093 1
gene 2 3 6 0.972068 0 3 0.972068 0
gene 3 4 6 -0.19454 0 4 -0.19454 1
gene 1 5 6 2.07504 0 5 2.07504 1
gene 2 1 7 4.47883 0 6 4.47883 1
gene 2 2 7 -4.60199 0 7 -4.60199 1
gene 3 3 7 0.319193 0 8 0.319193 1
gene 1 4 7 -2.72721 0 9 -2.72721 1
gene 3 5 7 -2.81049 0 10 -2.81049 1
gene 2 6 7 -0.46996 0 22 -0.46996 1
genomeend 8

/* Organism #9 Fitness: 74 Error: 0 */
genomestart 9
trait 1 0.105368 0 0 0 0 0 0 0 
trait 2 0.2 0 0 0 0 0 0 0 
trait 3 0.3 0 0 0 0 0 0 0 
node 1 1 1 3
node 2 3 1 1
node 3 3 1 1
node 4 1 1 1
node 5 2 1 1
node 6 2 0 2
node 7 1 0 2
gene 2 1 6 -1.60782 0 1 -1.60782 1
gene 3 2 6 3.41961 0 2 3.41961 1
gene 2 3 6 2.41126 0 3 2.41126 0
gene 3 4 6 -2.13395 0 4 -2.13395 1
gene 1 5 6 -1.12191 0 5 -1.12191 1
gene 2 1 7 4.99246 0 6 4.99246 1
gene 2 2 7 -2.63104 0 7 -2.63104 1
gene 3 3 7 0.122398 0 8 0.122398 1
gene 1 4 7 -1.18614 0 9 -1.18614 1
gene 3 5 7 -1.49918 0 10 -1.49918 1
gene 2 6 7 -2.56771 0 22 -2.56771 1
genomeend 9

/* Organism #10 Fitness: 57 Error: 0 */
genomestart 10
trait 1 0.105368 0 0 0 0 0 0 0 
trait 2 0.2 0 0 0 0 0 0 0 
trait 3 0.3 0 0 0 0 0 0 0 
node 1 1 1 3
node 2 3 1 1
node 3 3 1 1
node 4 1 1 1
node 5 2 1 1
node 6 2 0 2
node 7 1 0 2
node 40 1 0 0
gene 2 1 6 -2.65616 0 1 -2.65616 1
gene 3 2 6 2.41966 0 2 2.41966 1
gene 2 3 6 2.19444 0 3 2.19444 0
gene 3 4 6 -1.56779 0 4 -1.56779 1
gene 1 5 6 -0.102298 0 5 -0.102298 1
gene 2 1 7 2.85982 0 6 2.85982 1
gene 2 2 7 -2.63104 0 7 -2.63104 1
gene 3 3 7 1.88857 0 8 1.88857 1
gene 1 4 7 -1.18614 0 9 -1.18614 0
gene 3 5 7 -2.81049 0 10 -2.81049 1
gene 2 6 7 -0.46996 0 22 -0.46996 1
gene 1 4 40 1 0 125 0 1
gene 1 40 7 -1.18614 0 126 0 1
genomeend 10

/* Organism #11 Fitness: 76 Error: 0 */
genomestart 11
trait 1 0.102684 0 0 0 0 0 0 0 
trait 2 0.2 0 0 0 0 0 0 0 
trait 3 0.3 0 0 0 0 0 0 0 
node 1 1 1 3
node 2 3 1 1
node 3 3 1 1
node 4 1 1 1
node 5 2 1 1
node 6 2 0 2
node 7 1 0 2
gene 2 1 6 -2.65616 0 1 -2.65616 1
gene 3 2 6 2.41966 0 2 2.41966 1
gene 2 3 6 2.19444 0 3 2.19444 0
gene 3 4 6 -1.56779 0 4 -1.56779 1
gene 1 5 6 -0.302268 0 5 -0.302268 1
gene 2 1 7 2.85982 0 6 2.85982 1
gene 2 2 7 -2.63104 0 7 -2.63104 1
gene 3 3 7 1.88857 0 8 1.88857 1
gene 1 4 7 -1.18614 0 9 -1.18614 1
gene 3 5 7 -2.81049 0 10 -2.81049 1
gene 2 6 7 -0.46996 0 22 -0.46996 1
genomeend 11

/* Organism #12 Fitness: 7 Error: 0 */
genomestart 12
trait 1 0.102684 0 0 0 0 0 0 0 
trait 2 0.2 0 0 0 0 0 0 0 
trait 3 0.3 0 0 0 0 0 0 0 
node 1 1 1 3
node 2 3 1 1
node 3 3 1 1
node 4 1 1 1
node 5 2 1 1
node 6 2 0 2
node 7 1 0 2
gene 2 1 6 -1.68144 0 1 -1.68144 1
gene 3 2 6 -0.468278 0 2 -0.468278 1
gene 2 3 6 -0.89811 0 3 -0.89811 0
gene 3 4 6 -3.07598 0 4 -3.07598 1
gene 1 5 6 2.03015 0 5 2.03015 1
gene 2 1 7 3.15044 0 6 3.15044 1
gene 2 2 7 -4.1518 0 7 -4.1518 1
gene 3 3 7 -0.587298 0 8 -0.587298 1
gene 3 4 7 -1.85248 0 9 -1.85248 1
gene 3 5 7 -2.10424 0 10 -2.10424 1
gene 2 6 7 -0.891644 0 22 -0.891644 1
genomeend 12

/* Organism #13 Fitness: 5 Error: 0 */
genomestart 13
trait 1 0.102684 0 0 0 0 0 0 0 
trait 2 0.2 0 0 0 0 0 0 0 
trait 3 0.3 0 0 0 0 0 0 0 
node 1 1 1 3
node 2 3 1 1
node 3 3 1 1
node 4 1 1 1
node 5 2 1 1
node 6 2 0 2
node 7 1 0 2
gene 2 1 6 1.37096 0 1 1.37096 1
gene 3 2 6 0.578736 0 2 0.578736 1
gene 2 3 6 -0.731386 0 3 -0.731386 0
gene 3 4 6 -3.17846 0 4 -3.17846 1
gene 1 5 6 1.20544 0 5 1.20544 1
gene 2 1 7 -0.798577 0 6 -0.798577 1
gene 2 2 7 -1.18889 0 7 -1.18889 1
gene 3 3 7 2.34755 0 8 2.34755 1
gene 3 4 7 1.50181 0 9 1.50181 1
gene 3 5 7 -2.40577 0 10 -2.40577 1
gene 2 6 7 -2.06983 0 22 -2.06983 1
genomeend 13

/* Species #2 : (Size 11) (AF 9152.55) (Age 10)  */


/* Organism #14 Fitness: 95 Error: 0 */
genomestart 14
trait 1 0.1 0 0 0 0 0 0 0 
trait 2 0.2 0 0 0 0 0 0 0 
trait 3 0.553226 0 0.272217 0 0 0 0 0 
node 1 2 1 3
node 2 1 1 1
node 3 3 1 1
node 4 2 1 1
node 5 2 1 1
node 6 1 0 2
node 7 2 0 2
node 13 3 0 0
gene 3 1 6 -3.69175 0 1 -3.69175 1
gene 3 2 6 -0.264166 0 2 -0.264166 1
gene 2 3 6 -0.479621 0 3 -0.479621 1
gene 1 4 6 -1.96394 0 4 -1.96394 1
gene 2 5 6 -1.57958 0 5 -1.57958 1
gene 1 1 7 2.48009 0 6 2.48009 1
gene 2 2 7 -1.67973 0 7 -1.67973 1
gene 3 3 7 4.19387 0 8 4.19387 0
gene 1 4 7 -0.204029 0 9 -0.204029 1
gene 2 5 7 -1.52021 0 10 -1.52021 1
gene 2 7 6 0.376097 0 11 0.376097 1
gene 3 3 13 0.927328 0 25 0.927328 1
gene 3 13 7 -0.722167 0 26 -0.722167 1
genomeend 14

/* Organism #15 Fitness: 74 Error: 0 */
genomestart 15
trait 1 0.1 0 0 0 0 0 0 0 
trait 2 0.2 0 0 0 0 0 0 0 
trait 3 0.553226 0 0.272217 0 0 0 0 0 
node 1 2 1 3
node 2 1 1 1
node 3 3 1 1
node 4 2 1 1
node 5 2 1 1
node 6 1 0 2
node 7 2 0 2
node 13 3 0 0
gene 3 1 6 -4.43843 0 1 -4.43843 1
gene 3 2 6 -2.20566 0 2 -2.20566 1
gene 2 3 6 -1.35325 0 3 -1.35325 1
gene 1 4 6 -1.12484 0 4 -1.12484 1
gene 2 5 6 -0.837554 0 5 -0.837554 1
gene 1 1 7 6.55413 0 6 6.55413 1
gene 2 2 7 0.57019 0 7 0.57019 1
gene 3 3 7 -1.34798 0 8 -1.34798 0
gene 1 4 7 0.777319 0 9 0.777319 1
gene 2 5 7 -2.9632 0 10 -2.9632 1
gene 2 7 6 0.763676 0 11 0.763676 1
gene 3 3 13 3.75797 0 25 3.75797 1
gene 3 13 7 -1.8458 0 26 -1.8458 1
genomeend 15

/* Organism #16 Fitness: 69 Error: 0 */
genomestart 16
trait 1 0.1 0 0 0 0 0 0 0 
trait 2 0.2 0 0 0 0 0 0 0 
trait 3 0.553226 0 0.272217 0 0 0 0 0 
node 1 2 1 3
node 2 1 1 1
node 3 3 1 1
node 4 2 1 1
node 5 2 1 1
node 6 1 0 2
node 7 2 0 2
node 13 3 0 0
gene 3 1 6 -4.63726 0 1 -4.63726 1
gene 3 2 6 -1.06441 0 2 -1.06441 1
gene 2 3 6 -3.33969 0 3 -3.33969 1
gene 1 4 6 1.83291 0 4 1.83291 1
gene 2 5 6 1.20744 0 5 1.20744 1
gene 1 1 7 4.55986 0 6 4.55986 1
gene 2 2 7 -3.08375 0 7 -3.08375 1
gene 3 3 7 3.6326 0 8 3.6326 0
gene 1 4 7 2.91013 0 9 2.91013 1
gene 2 5 7 -2.607 0 10 -2.607 1
gene 2 7 6 1.24048 0 11 1.24048 1
gene 3 3 13 0.422396 0 25 0.422396 1
gene 3 13 7 -0.29171 0 26 -0.29171 1
gene 2 13 6 -0.425027 0 94 -0.425027 1
gene 2 5 13 -0.908559 0 109 -0.908559 1
genomeend 16

/* Organism #17 Fitness: 100001 Error: 0 */
/* ##------$ WINNER 17 SPECIES #2 $------## */
genomestart 17
trait 1 0.1 0 0 0 0 0 0 0 
trait 2 0.2 0 0 0 0 0 0 0 
trait 3 0.553226 0 0.272217 0 0 0 0 0 
node 1 2 1 3
node 2 1 1 1
node 3 3 1 1
node 4 2 1 1
node 5 2 1 1
node 6 1 0 2
node 7 2 0 2
node 13 3 0 0
gene 3 1 6 -5.20884 0 1 -5.20884 1
gene 3 2 6 1.13483 0 2 1.13483 1
gene 2 3 6 -0.45866 0 3 -0.45866 1
gene 1 4 6 0.783179 0 4 0.783179 1
gene 2 5 6 -2.34771 0 5 -2.34771 1
gene 1 1 7 -2.38534 0 6 -2.38534 1
gene 2 2 7 -5.28703 0 7 -5.28703 1
gene 3 3 7 1.89673 0 8 1.89673 0
gene 1 4 7 -1.47863 0 9 -1.47863 1
gene 2 5 7 -1.93104 0 10 -1.93104 1
gene 2 7 6 0.125572 0 11 0.125572 1
gene 3 3 13 -0.0634912 0 25 -0.0634912 1
gene 3 13 7 0.999066 0 26 0.999066 1
gene 2 13 6 -4.00974 0 94 -4.00974 1
gene 2 5 13 -1.15593 0 109 -1.15593 1
genomeend 17

/* Organism #18 Fitness: 74 Error: 0 */
genomestart 18
trait 1 0.1 0 0 0 0 0 0 0 
trait 2 0.2 0 0 0 0 0 0 0 
trait 3 0.553226 0 0.272217 0 0 0 0 0 
node 1 2 1 3
node 2 1 1 1
node 3 3 1 1
node 4 2 1 1
node 5 2 1 1
node 6 1 0 2
node 7 2 0 2
node 13 3 0 0
gene 3 1 6 -5.83539 0 1 -5.83539 1
gene 3 2 6 -0.936985 0 2 -0.936985 1
gene 2 3 6 -0.203437 0 3 -0.203437 1
gene 1 4 6 -3.09265 0 4 -3.09265 1
gene 2 5 6 -2.78932 0 5 -2.78932 1
gene 1 1 7 5.60576 0 6 5.60576 1
gene 2 2 7 -2.24505 0 7 -2.24505 1
gene 3 3 7 2.67978 0 8 2.67978 0
gene 1 4 7 1.6126 0 9 1.6126 1
gene 2 5 7 -1.31227 0 10 -1.31227 1
gene 2 7 6 -1.38247 0 11 -1.38247 1
gene 3 3 13 1.65319 0 25 1.65319 1
gene 3 13 7 -1.69197 0 26 -1.69197 1
genomeend 18

/* Organism #19 Fitness: 74 Error: 0 */
genomestart 19
trait 1 0.1 0 0 0 0 0 0 0 
trait 2 0.2 0 0 0 0 0 0 0 
trait 3 0.553226 0 0.272217 0 0 0 0 0 
node 1 2 1 3
node 2 1 1 1
node 3 3 1 1
node 4 2 1 1
node 5 2 1 1
node 6 1 0 2
node 7 2 0 2
node 13 3 0 0
gene 3 1 6 -2.82788 0 1 -2.82788 1
gene 3 2 6 -2.00658 0 2 -2.00658 1
gene 2 3 6 0.511863 0 3 0.511863 1
gene 1 4 6 0.182439 0 4 0.182439 1
gene 2 5 6 -1.35773 0 5 -1.35773 1
gene 1 1 7 4.45227 0 6 4.45227 1
gene 2 2 7 -4.02299 0 7 -4.02299 1
gene 3 3 7 3.82679 0 8 3.82679 0
gene 1 4 7 0.658678 0 9 0.658678 1
gene 2 5 7 0.587434 0 10 0.587434 1
gene 2 7 6 0.922352 0 11 0.922352 1
gene 3 3 13 2.08397 0 25 2.08397 1
gene 3 13 7 -0.990581 0 26 -0.990581 1
gene 2 13 6 -2.37802 0 94 -2.37802 1
gene 2 5 13 -2.99158 0 109 -2.99158 1
genomeend 19

/* Organism #20 Fitness: 60 Error: 0 */
genomestart 20
trait 1 0.1 0 0 0 0 0 0 0 
trait 2 0.2 0 0 0 0 0 0 0 
trait 3 0.553226 0 0.272217 0 0 0 0 0 
node 1 2 1 3
node 2 1 1 1
node 3 3 1 1
node 4 2 1 1
node 5 2 1 1
node 6 1 0 2
node 7 2 0 2
node 13 3 0 0
gene 3 1 6 -5.83122 0 1 -5.83122 1
gene 3 2 6 0.308979 0 2 0.308979 1
gene 2 3 6 -1.64379 0 3 -1.64379 1
gene 1 4 6 -0.466621 0 4 -0.466621 1
gene 2 5 6 -3.13591 0 5 -3.13591 1
gene 1 1 7 1.05202 0 6 1.05202 1
gene 1 2 7 -2.32946 0 7 -2.32946 1
gene 3 3 7 3.64395 0 8 3.64395 1
gene 1 4 7 -0.760105 0 9 -0.760105 1
gene 2 5 7 -1.949 0 10 -1.949 1
gene 2 7 6 -0.51439 0 11 -0.51439 1
gene 3 3 13 0.927328 0 25 0.927328 1
gene 3 13 7 -2.419 0 26 -2.419 1
genomeend 20

/* Organism #21 Fitness: 75 Error: 0 */
genomestart 21
trait 1 0.1 0 0 0 0 0 0 0 
trait 2 0.2 0 0 0 0 0 0 0 
trait 3 0.553226 0 0.272217 0 0 0 0 0 
node 1 3 1 3
node 2 1 1 1
node 3 3 1 1
node 4 2 1 1
node 5 2 1 1
node 6 1 0 2
node 7 2 0 2
node 13 3 0 0
gene 3 1 6 -3.80252 0 1 -3.80252 1
gene 3 2 6 -1.35394 0 2 -1.35394 1
gene 2 3 6 -1.38578 0 3 -1.38578 1
gene 1 4 6 0.925541 0 4 0.925541 1
gene 2 5 6 -0.371467 0 5 -0.371467 1
gene 1 1 7 3.06898 0 6 3.06898 1
gene 2 2 7 -2.35682 0 7 -2.35682 1
gene 3 3 7 1.86772 0 8 1.86772 0
gene 1 4 7 0.0880004 0 9 0.0880004 1
gene 2 5 7 -0.659414 0 10 -0.659414 1
gene 2 7 6 2.29642 0 11 2.29642 1
gene 3 3 13 -2.59832 0 25 -2.59832 1
gene 3 13 7 -0.990581 0 26 -0.990581 1
gene 2 13 6 0.361484 0 94 0.361484 1
gene 2 5 13 -3.06007 0 109 -3.06007 1
genomeend 21

/* Organism #22 Fitness: 54 Error: 0 */
genomestart 22
trait 1 0.1 0 0 0 0 0 0 0 
trait 2 0.2 0 0 0 0 0 0 0 
trait 3 0.553226 0 0.272217 0 0 0 0 0 
node 1 2 1 3
node 2 1 1 1
node 3 3 1 1
node 4 2 1 1
node 5 2 1 1
node 6 1 0 2
node 7 2 0 2
node 13 3 0 0
gene 3 1 6 -2.17129 0 1 -2.17129 1
gene 3 2 6 -2.08582 0 2 -2.08582 1
gene 2 3 6 -3.25231 0 3 -3.25231 1
gene 1 4 6 -1.13707 0 4 -1.13707 1
gene 2 5 6 -0.285482 0 5 -0.285482 1
gene 1 1 7 3.4374 0 6 3.4374 1
gene 2 2 7 -5.92702 0 7 -5.92702 1
gene 3 3 7 2.45719 0 8 2.45719 0
gene 1 4 7 -1.27896 0 9 -1.27896 1
gene 2 5 7 -3.86751 0 10 -3.86751 1
gene 2 7 6 2.85354 0 11 2.85354 1
gene 3 3 13 -0.617175 0 25 -0.617175 1
gene 3 13 7 1.29474 0 26 1.29474 1
gene 2 13 6 -2.37802 0 94 -2.37802 1
gene 2 5 13 -1.19639 0 109 -1.19639 1
genomeend 22

/* Organism #23 Fitness: 74 Error: 0 */
genomestart 23
trait 1 0.1 0 0 0 0 0 0 0 
trait 2 0.2 0 0 0 0 0 0 0 
trait 3 0.553226 0 0.272217 0 0 0 0 0 
node 1 2 1 3
node 2 1 1 1
node 3 3 1 1
node 4 2 1 1
node 5 2 1 1
node 6 1 0 2
node 7 2 0 2
node 13 3 0 0
gene 3 1 6 -4.27164 0 1 -4.27164 1
gene 3 2 6 -1.1635 0 2 -1.1635 1
gene 2 3 6 -1.26262 0 3 -1.26262 1
gene 1 4 6 -3.3839 0 4 -3.3839 1
gene 2 5 6 0.59772 0 5 0.59772 1
gene 1 1 7 4.93771 0 6 4.93771 1
gene 2 2 7 -1.37713 0 7 -1.37713 1
gene 3 3 7 4.65883 0 8 4.65883 0
gene 1 4 7 1.64966 0 9 1.64966 1
gene 2 5 7 -0.201835 0 10 -0.201835 1
gene 2 7 6 -0.368563 0 11 -0.368563 1
gene 3 3 13 0.0412759 0 25 0.0412759 1
gene 3 13 7 -0.722167 0 26 -0.722167 1
genomeend 23

/* Organism #24 Fitness: 28 Error: 0 */
genomestart 24
trait 1 0.1 0 0 0 0 0 0 0 
trait 2 0.2 0 0 0 0 0 0 0 
trait 3 0.553226 0 0.272217 0 0 0 0 0 
node 1 2 1 3
node 2 1 1 1
node 3 3 1 1
node 4 2 1 1
node 5 2 1 1
node 6 1 0 2
node 7 3 0 2
node 13 3 0 0
gene 3 1 6 -4.63248 0 1 -4.63248 1
gene 3 2 6 -4.02843 0 2 -4.02843 1
gene 2 3 6 -3.91414 0 3 -3.91414 1
gene 1 4 6 1.7046 0 4 1.7046 1
gene 2 5 6 -0.923479 0 5 -0.923479 1
gene 1 1 7 1.66452 0 6 1.66452 1
gene 2 2 7 -6.51942 0 7 -6.51942 1
gene 3 3 7 1.70961 0 8 1.70961 0
gene 1 4 7 0.675845 0 9 0.675845 1
gene 2 5 7 -1.58008 0 10 -1.58008 1
gene 2 7 6 3.94835 0 11 3.94835 1
gene 3 3 13 -1.03258 0 25 -1.03258 1
gene 3 13 7 1.12291 0 26 1.12291 1
gene 2 13 6 -2.37802 0 94 -2.37802 1
gene 2 5 13 -4.39306 0 109 -4.39306 1
genomeend 24

/* Species #3 : (Size 15) (AF 61.8667) (Age 8)  */


/* Organism #25 Fitness: 87 Error: 0 */
genomestart 25
trait 1 0.142944 0 0 0 0 0 0 0 
trait 2 0.272267 0 0 0 0 0 0 0.246397 
trait 3 0.3 0.622212 0.226158 0 0 0 0.993605 0.229173 
node 1 1 1 3
node 2 3 1 1
node 3 3 1 1
node 4 1 1 1
node 5 2 1 1
node 6 2 0 2
node 7 1 0 2
node 15 1 0 0
gene 2 1 6 -5.28255 0 1 -5.28255 1
gene 1 2 6 8 0 2 8 1
gene 2 3 6 7.13868 0 3 7.13868 0
gene 3 4 6 -0.222163 0 4 -0.222163 1
gene 1 5 6 -2.55518 0 5 -2.55518 1
gene 2 1 7 1.85296 0 6 1.85296 1
gene 2 2 7 0.536528 0 7 0.536528 1
gene 1 3 7 -0.666409 0 8 -0.666409 0
gene 2 4 7 2.83391 0 9 2.83391 0
gene 1 5 7 -2.05687 0 10 -2.05687 1
gene 2 4 15 0.582678 0 30 0.582678 1
gene 2 15 7 1.51981 0 31 1.51981 1
genomeend 25

/* Organism #26 Fitness: 57 Error: 0 */
genomestart 26
trait 1 0.142944 0 0 0 0 0 0 0 
trait 2 0.272267 0 0 0 0 0 0 0.246397 
trait 3 0.3 0.622212 0.226158 0 0 0 0.993605 0.229173 
node 1 1 1 3
node 2 3 1 1
node 3 3 1 1
node 4 1 1 1
node 5 2 1 1
node 6 2 0 2
node 7 1 0 2
node 15 1 0 0
gene 2 1 6 -7.07483 0 1 -7.07483 1
gene 1 2 6 6.9105 0 2 6.9105 1
gene 2 3 6 8 0 3 8 0
gene 3 4 6 1.75375 0 4 1.75375 1
gene 1 5 6 -3.33951 0 5 -3.33951 1
gene 2 1 7 0.754529 0 6 0.754529 1
gene 2 2 7 -1.65293 0 7 -1.65293 1
gene 1 3 7 -1.4362 0 8 -1.4362 0
gene 2 4 7 1.27077 0 9 1.27077 0
gene 1 5 7 -4.21992 0 10 -4.21992 1
gene 2 4 15 0.582678 0 30 0.582678 1
gene 2 15 7 1.51981 0 31 1.51981 1
genomeend 26

/* Organism #27 Fitness: 71 Error: 0 */
genomestart 27
trait 1 0.142944 0 0 0 0 0 0 0 
trait 2 0.2542 0 0 0 0 0 0 0.184798 
trait 3 0.3 0.622212 0.226158 0 0 0 0.993605 0.229173 
node 1 1 1 3
node 2 3 1 1
node 3 3 1 1
node 4 1 1 1
node 5 2 1 1
node 6 2 0 2
node 7 1 0 2
node 15 1 0 0
gene 2 1 6 -7.49918 0 1 -7.49918 1
gene 1 2 6 0.194711 0 2 0.194711 1
gene 2 3 6 5.81918 0 3 5.81918 0
gene 3 4 6 -3.67249 0 4 -3.67249 1
gene 1 5 6 -0.908325 0 5 -0.908325 1
gene 2 1 7 2.3147 0 6 2.3147 1
gene 2 2 7 -0.462211 0 7 -0.462211 1
gene 1 3 7 -0.520921 0 8 -0.520921 0
gene 2 4 7 2.54079 0 9 2.54079 0
gene 1 5 7 -3.60595 0 10 -3.60595 1
gene 2 4 15 -1.13933 0 30 -1.13933 1
gene 2 15 7 1.51981 0 31 1.51981 1
genomeend 27

/* Organism #28 Fitness: 74 Error: 0 */
genomestart 28
trait 1 0.142944 0 0 0 0 0 0 0 
trait 2 0.236133 0 0 0 0 0 0 0.123199 
trait 3 0.3 0.622212 0.226158 0 0 0 0.993605 0.229173 
node 1 1 1 3
node 2 3 1 1
node 3 3 1 1
node 4 1 1 1
node 5 2 1 1
node 6 2 0 2
node 7 1 0 2
node 15 1 0 0
gene 2 1 6 -7.54616 0 1 -7.54616 1
gene 1 2 6 8 0 2 8 1
gene 2 3 6 8 0 3 8 0
gene 3 4 6 3.57353 0 4 3.57353 1
gene 1 5 6 -0.365115 0 5 -0.365115 1
gene 2 1 7 3.28699 0 6 3.28699 1
gene 2 2 7 5.13882 0 7 5.13882 1
gene 1 3 7 -1.32687 0 8 -1.32687 0
gene 2 4 7 -2.77292 0 9 -2.77292 0
gene 1 5 7 -2.28878 0 10 -2.28878 1
gene 2 4 15 -0.150176 0 30 -0.150176 1
gene 2 15 7 1.55715 0 31 1.55715 1
genomeend 28

/* Organism #29 Fitness: 73 Error: 0 */
genomestart 29
trait 1 0.142944 0 0 0 0 0 0 0 
trait 2 0.2542 0 0 0 0.879948 0 0 1 
trait 3 0.3 0.622212 0.226158 0 0 0 0.993605 0.229173 
node 1 1 1 3
node 2 3 1 1
node 3 3 1 1
node 4 1 1 1
node 5 2 1 1
node 6 2 0 2
node 7 1 0 2
node 15 1 0 0
gene 2 1 6 -0.863778 0 1 -0.863778 1
gene 1 2 6 3.96846 0 2 3.96846 1
gene 2 3 6 -0.452361 0 3 -0.452361 0
gene 3 4 6 -0.761497 0 4 -0.761497 1
gene 1 5 6 -2.15577 0 5 -2.15577 1
gene 2 1 7 2.30157 0 6 2.30157 1
gene 2 2 7 -0.675101 0 7 -0.675101 1
gene 1 3 7 2.4023 0 8 2.4023 0
gene 2 4 7 1.04301 0 9 1.04301 0
gene 1 5 7 -0.98853 0 10 -0.98853 1
gene 2 4 15 0.613761 0 30 0.613761 1
gene 2 15 7 3.64099 0 31 3.64099 1
genomeend 29

/* Organism #30 Fitness: 5 Error: 0 */
genomestart 30
trait 1 0.142944 0 0 0 0 0 0 0 
trait 2 0.2542 0 0 0 0 0 0 0.184798 
trait 3 0.3 0.622212 0.226158 0 0 0 0.993605 0.229173 
node 1 1 1 3
node 2 3 1 1
node 3 3 1 1
node 4 1 1 1
node 5 2 1 1
node 6 2 0 2
node 7 1 0 2
node 15 1 0 0
gene 2 1 6 -2.87051 0 1 -2.87051 1
gene 1 2 6 2.68525 0 2 2.68525 1
gene 2 3 6 7.56934 0 3 7.56934 1
gene 3 4 6 0.962471 0 4 0.962471 1
gene 1 5 6 -0.503249 0 5 -0.503249 1
gene 2 1 7 0.606333 0 6 0.606333 1
gene 2 2 7 -0.155692 0 7 -0.155692 1
gene 1 3 7 -0.081105 0 8 -0.081105 1
gene 2 4 7 4.11258 0 9 4.11258 0
gene 1 5 7 -1.70123 0 10 -1.70123 1
gene 2 4 15 -0.141652 0 30 -0.141652 1
gene 2 15 7 0.14432 0 31 0.14432 1
genomeend 30

/* Organism #31 Fitness: 71 Error: 0 */
genomestart 31
trait 1 0.142944 0 0 0 0 0 0 0 
trait 2 0.236133 0 0 0 0 0 0 0.123199 
trait 3 0.3 0.622212 0.226158 0 0 0 0.993605 0.229173 
node 1 1 1 3
node 2 3 1 1
node 3 3 1 1
node 4 1 1 1
node 5 2 1 1
node 6 2 0 2
node 7 1 0 2
node 15 1 0 0
gene 2 1 6 -5.93083 0 1 -5.93083 1
gene 1 2 6 5.6532 0 2 5.6532 1
gene 2 3 6 5.68241 0 3 5.68241 0
gene 3 4 6 0.767484 0 4 0.767484 1
gene 1 5 6 -2.66966 0 5 -2.66966 1
gene 2 1 7 0.982577 0 6 0.982577 1
gene 2 2 7 1.67272 0 7 1.67272 1
gene 1 3 7 -1.42584 0 8 -1.42584 0
gene 2 4 7 1.07081 0 9 1.07081 0
gene 1 5 7 -2.52188 0 10 -2.52188 1
gene 2 4 15 -0.796838 0 30 -0.796838 1
gene 2 15 7 2.83888 0 31 2.83888 1
genomeend 31

/* Organism #32 Fitness: 10 Error: 0 */
genomestart 32
trait 1 0.142944 0 0 0 0 0 0 0 
trait 2 0.2 0 0 0 0 0 0 0 
trait 3 0.3 0.622212 0.226158 0 0 0 0.993605 0.229173 
node 1 1 1 3
node 2 3 1 1
node 3 3 1 1
node 4 1 1 1
node 5 2 1 1
node 6 2 0 2
node 7 1 0 2
node 15 1 0 0
gene 2 1 6 -8 0 1 -8 1
gene 1 2 6 3.54795 0 2 3.54795 1
gene 2 3 6 3.00304 0 3 3.00304 1
gene 3 4 6 -0.177019 0 4 -0.177019 1
gene 1 5 6 -2.7438 0 5 -2.7438 1
gene 2 1 7 -1.92083 0 6 -1.92083 1
gene 2 2 7 2.95387 0 7 2.95387 1
gene 1 3 7 -2.6085 0 8 -2.6085 0
gene 2 4 7 1.38666 0 9 1.38666 0
gene 1 5 7 -1.29941 0 10 -1.29941 1
gene 2 4 15 -1.28034 0 30 -1.28034 1
gene 2 15 7 -0.767443 0 31 -0.767443 1
genomeend 32

/* Organism #33 Fitness: 10 Error: 0 */
genomestart 33
trait 1 0.142944 0 0 0 0 0 0 0 
trait 2 0.218067 0 0 0 0 0 0 0.0615993 
trait 3 0.3 0.622212 0.226158 0 0 0 0.993605 0.229173 
node 1 1 1 3
node 2 3 1 1
node 3 3 1 1
node 4 1 1 1
node 5 2 1 1
node 6 2 0 2
node 7 1 0 2
node 15 1 0 0
gene 2 1 6 -3.52631 0 1 -3.52631 1
gene 1 2 6 0.00607042 0 2 0.00607042 1
gene 2 3 6 3.76211 0 3 3.76211 0
gene 3 4 6 0.911923 0 4 0.911923 1
gene 1 5 6 -4.54146 0 5 -4.54146 1
gene 2 1 7 0.390433 0 6 0.390433 1
gene 2 2 7 -0.667385 0 7 -0.667385 1
gene 1 3 7 -1.69195 0 8 -1.69195 0
gene 2 4 7 1.47872 0 9 1.47872 1
gene 1 5 7 -1.69715 0 10 -1.69715 1
gene 2 4 15 -1.65784 0 30 -1.65784 1
gene 2 15 7 1.2989 0 31 1.2989 1
genomeend 33

/* Organism #34 Fitness: 87 Error: 0 */
genomestart 34
trait 1 0.142944 0 0 0 0 0 0 0 
trait 2 0.272267 0 0 0 0 0 0 0.246397 
trait 3 0.3 0.622212 0.226158 0 0 0 0.993605 0.229173 
node 1 1 1 3
node 2 3 1 1
node 3 3 1 1
node 4 1 1 1
node 5 2 1 1
node 6 2 0 2
node 7 1 0 2
node 15 1 0 0
gene 2 1 6 -5.28255 0 1 -5.28255 1
gene 1 2 6 8 0 2 8 1
gene 2 3 6 7.13868 0 3 7.13868 0
gene 3 4 6 -0.222163 0 4 -0.222163 1
gene 1 5 6 -2.55518 0 5 -2.55518 1
gene 2 1 7 1.85296 0 6 1.85296 1
gene 2 2 7 0.536528 0 7 0.536528 1
gene 1 3 7 -0.666409 0 8 -0.666409 0
gene 2 4 7 2.83391 0 9 2.83391 0
gene 1 5 7 -2.05687 0 10 -2.05687 1
gene 2 4 15 0.582678 0 30 0.582678 1
gene 2 15 7 1.51981 0 31 1.51981 1
genomeend 34

/* Organism #35 Fitness: 74 Error: 0 */
genomestart 35
trait 1 0.142944 0 0 0 0 0 0 0 
trait 2 0.272267 0 0 0 0 0 0 0.246397 
trait 3 0.3 0.622212 0.226158 0 0 0 0.993605 0.229173 
node 1 1 1 3
node 2 3 1 1
node 3 3 1 1
node 4 1 1 1
node 5 2 1 1
node 6 2 0 2
node 7 1 0 2
node 15 1 0 0
gene 2 1 6 -5.28255 0 1 -5.28255 1
gene 1 2 6 6.5139 0 2 6.5139 1
gene 2 3 6 7.13868 0 3 7.13868 0
gene 3 4 6 0.0219903 0 4 0.0219903 1
gene 1 5 6 -2.98678 0 5 -2.98678 1
gene 2 1 7 4.19109 0 6 4.19109 1
gene 2 2 7 1.43891 0 7 1.43891 1
gene 1 3 7 -1.91629 0 8 -1.91629 0
gene 2 4 7 4.02858 0 9 4.02858 0
gene 1 5 7 -0.575105 0 10 -0.575105 1
gene 2 4 15 0.582678 0 30 0.582678 1
gene 2 15 7 2.0567 0 31 2.0567 1
genomeend 35

/* Organism #36 Fitness: 74 Error: 0 */
genomestart 36
trait 1 0.142944 0 0 0 0 0 0 0 
trait 2 0.218067 0 0 0 0 0 0 0.0615993 
trait 3 0.3 0.622212 0.226158 0 0 0 0.993605 0.229173 
node 1 1 1 3
node 2 3 1 1
node 3 3 1 1
node 4 1 1 1
node 5 2 1 1
node 6 2 0 2
node 7 1 0 2
node 15 1 0 0
gene 2 1 6 -7.29509 0 1 -7.29509 1
gene 1 2 6 4.93302 0 2 4.93302 1
gene 2 3 6 8 0 3 8 0
gene 3 4 6 1.70095 0 4 1.70095 1
gene 1 5 6 -2.74961 0 5 -2.74961 1
gene 2 1 7 2.06419 0 6 2.06419 1
gene 2 2 7 -1.79913 0 7 -1.79913 1
gene 1 3 7 2.25207 0 8 2.25207 0
gene 2 4 7 0.83553 0 9 0.83553 0
gene 1 5 7 -4.0126 0 10 -4.0126 1
gene 2 4 15 0.0756693 0 30 0.0756693 1
gene 2 15 7 4.18836 0 31 4.18836 1
genomeend 36

/* Organism #37 Fitness: 73 Error: 0 */
genomestart 37
trait 1 0.142944 0 0 0 0 0 0 0 
trait 2 0.2542 0 0 0 0 0 0 0.184798 
trait 3 0.3 0.622212 0.226158 0 0 0 0.993605 0.229173 
node 1 1 1 3
node 2 3 1 1
node 3 3 1 1
node 4 1 1 1
node 5 2 1 1
node 6 2 0 2
node 7 1 0 2
node 15 1 0 0
gene 2 1 6 -5.28255 0 1 -5.28255 1
gene 1 2 6 8 0 2 8 1
gene 2 3 6 8 0 3 8 0
gene 3 4 6 -0.222163 0 4 -0.222163 1
gene 1 5 6 -2.02938 0 5 -2.02938 1
gene 2 1 7 1.85296 0 6 1.85296 1
gene 2 2 7 -1.88673 0 7 -1.88673 1
gene 1 3 7 -0.666409 0 8 -0.666409 0
gene 2 4 7 0.83553 0 9 0.83553 0
gene 1 5 7 -2.05687 0 10 -2.05687 1
gene 2 4 15 -1.13933 0 30 -1.13933 1
gene 2 15 7 2.75109 0 31 2.75109 1
genomeend 37

/* Organism #38 Fitness: 70 Error: 0 */
genomestart 38
trait 1 0.142944 0 0 0 0 0 0 0 
trait 2 0.236133 0 0 0 0 0 0 0.123199 
trait 3 0.3 0.622212 0.226158 0 0 0 0.993605 0.229173 
node 1 1 1 3
node 2 3 1 1
node 3 3 1 1
node 4 1 1 1
node 5 2 1 1
node 6 2 0 2
node 7 3 0 2
node 15 1 0 0
gene 2 1 6 -6.27804 0 1 -6.27804 1
gene 1 2 6 5.30729 0 2 5.30729 1
gene 2 3 6 4.67582 0 3 4.67582 0
gene 3 4 6 0.0667127 0 4 0.0667127 1
gene 1 5 6 -1.46891 0 5 -1.46891 1
gene 2 1 7 -1.10779 0 6 -1.10779 1
gene 2 2 7 1.42131 0 7 1.42131 1
gene 1 3 7 -0.92163 0 8 -0.92163 0
gene 2 4 7 4.12265 0 9 4.12265 0
gene 1 5 7 -0.913144 0 10 -0.913144 1
gene 2 4 15 -2.17635 0 30 -2.17635 1
gene 2 15 7 4.34786 0 31 4.34786 1
genomeend 38

/* Organism #39 Fitness: 92 Error: 0 */
genomestart 39
trait 1 0.142944 0 0 0 0 0 0 0 
trait 2 0.2542 0 0 0 0 0 0 0.184798 
trait 3 0.3 0.622212 0.226158 0 0 0 0.993605 0.229173 
node 1 1 1 3
node 2 3 1 1
node 3 3 1 1
node 4 1 1 1
node 5 2 1 1
node 6 2 0 2
node 7 1 0 2
node 15 1 0 0
gene 2 1 6 -1.01836 0 1 -1.01836 1
gene 1 2 6 8 0 2 8 1
gene 2 3 6 7.13868 0 3 7.13868 0
gene 3 4 6 -2.41153 0 4 -2.41153 1
gene 1 5 6 -2.02938 0 5 -2.02938 1
gene 2 1 7 1.85296 0 6 1.85296 1
gene 2 2 7 0.536528 0 7 0.536528 1
gene 1 3 7 -0.666409 0 8 -0.666409 0
gene 2 4 7 0.83553 0 9 0.83553 0
gene 1 5 7 -2.05687 0 10 -2.05687 1
gene 2 4 15 -1.13933 0 30 -1.13933 1
gene 2 15 7 2.75109 0 31 2.75109 1
genomeend 39

/* Species #4 : (Size 11) (AF 51.5455) (Age 8)  */


/* Organism #40 Fitness: 101 Error: 0 */
genomestart 40
trait 1 0.1 0 0 0 0 0 0 0 
trait 2 0.2 0 0 0 0 0 0 0 
trait 3 0.3 0 0 0 0 0 0 0 
node 1 1 1 3
node 2 3 1 1
node 3 3 1 1
node 4 1 1 1
node 5 2 1 1
node 6 2 0 2
node 7 1 0 2
node 16 1 0 0
gene 2 1 6 0.224809 0 1 0.224809 1
gene 1 2 6 -3.27477 0 2 -3.27477 1
gene 1 3 6 -3.99786 0 3 -3.99786 1
gene 2 4 6 1.3336 0 4 1.3336 0
gene 1 5 6 -2.5996 0 5 -2.5996 0
gene 2 1 7 0.167456 0 6 0.167456 1
gene 2 2 7 -0.561437 0 7 -0.561437 1
gene 2 3 7 -0.397457 0 8 -0.397457 1
gene 3 4 7 0.0811643 0 9 0.0811643 1
gene 2 5 7 -0.991701 0 10 -0.991701 1
gene 2 4 16 1.0592 0 32 1.0592 1
gene 2 16 6 2.70826 0 33 2.70826 1
gene 2 5 16 -1.82069 0 42 -1.82069 1
genomeend 40

/* Organism #41 Fitness: 36 Error: 0 */
genomestart 41
trait 1 0.1 0 0 0 0 0 0 0 
trait 2 0.2 0 0 0 0 0 0 0 
trait 3 0.3 0 0 0 0 0 0 0 
node 1 1 1 3
node 2 3 1 1
node 3 3 1 1
node 4 1 1 1
node 5 2 1 1
node 6 2 0 2
node 7 1 0 2
node 16 1 0 0
gene 2 1 6 0.786405 0 1 0.786405 1
gene 1 2 6 -1.66782 0 2 -1.66782 1
gene 1 3 6 -2.91181 0 3 -2.91181 1
gene 2 4 6 1.37951 0 4 1.37951 0
gene 1 5 6 -4.80806 0 5 -4.80806 0
gene 2 1 7 1.46066 0 6 1.46066 1
gene 2 2 7 -0.0408556 0 7 -0.0408556 1
gene 2 3 7 -2.26749 0 8 -2.26749 1
gene 3 4 7 2.44284 0 9 2.44284 1
gene 2 5 7 -1.2058 0 10 -1.2058 1
gene 2 4 16 3.32429 0 32 3.32429 1
gene 2 16 6 -1.40854 0 33 -1.40854 1
gene 2 5 16 -2.8164 0 42 -2.8164 1
genomeend 41

/* Organism #42 Fitness: 71 Error: 0 */
genomestart 42
trait 1 0.1 0 0 0 0 0 0 0 
trait 2 0.2 0 0 0 0 0 0 0 
trait 3 0.3 0 0 0 0 0 0 0 
node 1 3 1 3
node 2 3 1 1
node 3 3 1 1
node 4 1 1 1
node 5 2 1 1
node 6 2 0 2
node 7 1 0 2
node 16 1 0 0
gene 2 1 6 0.224809 0 1 0.224809 1
gene 1 2 6 -3.27477 0 2 -3.27477 1
gene 1 3 6 -3.99786 0 3 -3.99786 1
gene 2 4 6 1.3336 0 4 1.3336 0
gene 1 5 6 -2.5996 0 5 -2.5996 0
gene 2 1 7 0.167456 0 6 0.167456 1
gene 2 2 7 -0.561437 0 7 -0.561437 1
gene 2 3 7 -0.397457 0 8 -0.397457 1
gene 3 4 7 0.0811643 0 9 0.0811643 1
gene 2 5 7 -0.991701 0 10 -0.991701 1
gene 2 4 16 1.0592 0 32 1.0592 1
gene 2 16 6 2.70826 0 33 2.70826 1
gene 2 5 16 -1.82069 0 42 -1.82069 1
gene 2 2 16 0.145337 0 127 0.145337 1
genomeend 42

/* Organism #43 Fitness: 37 Error: 0 */
genomestart 43
trait 1 0.1 0 0 0 0 0 0 0 
trait 2 0.2 0 0 0 0 0 0 0 
trait 3 0.3 0 0 0 0 0 0 0 
node 1 1 1 3
node 2 3 1 1
node 3 3 1 1
node 4 1 1 1
node 5 2 1 1
node 6 2 0 2
node 7 1 0 2
node 16 1 0 0
gene 2 1 6 -2.00655 0 1 -2.00655 1
gene 1 2 6 -2.00081 0 2 -2.00081 1
gene 1 3 6 -2.2582 0 3 -2.2582 1
gene 2 4 6 2.90834 0 4 2.90834 1
gene 1 5 6 -3.67544 0 5 -3.67544 1
gene 2 1 7 -1.58835 0 6 -1.58835 1
gene 2 2 7 -2.2155 0 7 -2.2155 1
gene 2 3 7 -0.106852 0 8 -0.106852 1
gene 3 4 7 0.050097 0 9 0.050097 1
gene 2 5 7 -3.36342 0 10 -3.36342 1
gene 2 4 16 1.86759 0 32 1.86759 1
gene 2 16 6 2.70826 0 33 2.70826 1
gene 2 5 16 -2.25378 0 42 -2.25378 1
genomeend 43

/* Organism #44 Fitness: 11 Error: 0 */
genomestart 44
trait 1 0.1 0 0 0 0 0 0 0 
trait 2 0.2 0 0 0 0 0 0 0 
trait 3 0.3 0 0 0 0 0 0 0 
node 1 1 1 3
node 2 3 1 1
node 3 3 1 1
node 4 1 1 1
node 5 3 1 1
node 6 2 0 2
node 7 1 0 2
node 16 1 0 0
gene 2 1 6 -0.871608 0 1 -0.871608 1
gene 1 2 6 -1.36159 0 2 -1.36159 1
gene 1 3 6 -3.99786 0 3 -3.99786 1
gene 2 4 6 0.795165 0 4 0.795165 0
gene 1 5 6 1.41507 0 5 1.41507 0
gene 2 1 7 -0.875561 0 6 -0.875561 1
gene 2 2 7 -2.79228 0 7 -2.79228 1
gene 2 3 7 -2.47152 0 8 -2.47152 1
gene 3 4 7 0.0811643 0 9 0.0811643 1
gene 2 5 7 -1.88782 0 10 -1.88782 1
gene 2 4 16 1.0592 0 32 1.0592 1
gene 2 16 6 3.09572 0 33 3.09572 1
gene 2 5 16 -3.28046 0 42 -3.28046 1
genomeend 44

/* Organism #45 Fitness: 13 Error: 0 */
genomestart 45
trait 1 0.1 0 0 0 0 0 0 0 
trait 2 0.2 0 0 0 0 0 0 0 
trait 3 0.3 0 0 0 0 0 0 0 
node 1 1 1 3
node 2 3 1 1
node 3 3 1 1
node 4 1 1 1
node 5 2 1 1
node 6 2 0 2
node 7 1 0 2
node 16 1 0 0
gene 2 1 6 1.42176 0 1 1.42176 1
gene 1 2 6 -2.10353 0 2 -2.10353 1
gene 1 3 6 -0.560222 0 3 -0.560222 1
gene 2 4 6 3.37528 0 4 3.37528 0
gene 1 5 6 -1.20086 0 5 -1.20086 0
gene 2 1 7 -1.89024 0 6 -1.89024 1
gene 2 2 7 -0.366437 0 7 -0.366437 1
gene 2 3 7 -1.7174 0 8 -1.7174 1
gene 3 4 7 1.70037 0 9 1.70037 1
gene 2 5 7 -0.691832 0 10 -0.691832 1
gene 2 4 16 0.132988 0 32 0.132988 1
gene 2 16 6 4.93121 0 33 4.93121 1
gene 2 5 16 -2.18072 0 42 -2.18072 1
genomeend 45

/* Organism #46 Fitness: 84 Error: 0 */
genomestart 46
trait 1 0.1 0 0 0 0 0 0 0 
trait 2 0.2 0 0 0 0 0 0 0 
trait 3 0.3 0 0 0 0 0 0 0 
node 1 1 1 3
node 2 3 1 1
node 3 3 1 1
node 4 1 1 1
node 5 2 1 1
node 6 2 0 2
node 7 1 0 2
node 16 1 0 0
node 41 1 0 0
gene 2 1 6 0.224809 0 1 0.224809 1
gene 1 2 6 -3.27477 0 2 -3.27477 1
gene 1 3 6 -3.99786 0 3 -3.99786 1
gene 2 4 6 1.3336 0 4 1.3336 0
gene 1 5 6 -2.5996 0 5 -2.5996 0
gene 2 1 7 0.167456 0 6 0.167456 1
gene 2 2 7 -0.561437 0 7 -0.561437 1
gene 2 3 7 -0.397457 0 8 -0.397457 1
gene 3 4 7 0.0811643 0 9 0.0811643 1
gene 2 5 7 -0.991701 0 10 -0.991701 1
gene 2 4 16 1.0592 0 32 1.0592 1
gene 2 16 6 2.70826 0 33 2.70826 1
gene 2 5 16 -1.82069 0 42 -1.82069 0
gene 2 5 41 1 0 128 0 1
gene 2 41 16 -1.82069 0 129 0 1
genomeend 46

/* Organism #47 Fitness: 55 Error: 0 */
genomestart 47
trait 1 0.1 0 0 0 0 0 0 0 
trait 2 0.2 0 0 0 0 0 0 0 
trait 3 0.3 0 0 0 0 0 0 0 
node 1 3 1 3
node 2 3 1 1
node 3 3 1 1
node 4 1 1 1
node 5 2 1 1
node 6 2 0 2
node 7 1 0 2
node 16 1 0 0
gene 2 1 6 -1.32308 0 1 -1.32308 1
gene 1 2 6 -1.20045 0 2 -1.20045 1
gene 1 3 6 -6.29453 0 3 -6.29453 1
gene 2 4 6 -0.220695 0 4 -0.220695 0
gene 1 5 6 -0.484667 0 5 -0.484667 0
gene 2 1 7 1.3511 0 6 1.3511 1
gene 2 2 7 -1.95489 0 7 -1.95489 1
gene 2 3 7 -1.11146 0 8 -1.11146 1
gene 3 4 7 2.42134 0 9 2.42134 1
gene 2 5 7 0.175965 0 10 0.175965 1
gene 2 4 16 2.76602 0 32 2.76602 1
gene 2 16 6 -2.14143 0 33 -2.14143 1
gene 2 5 16 -3.89953 0 42 -3.89953 1
genomeend 47

/* Organism #48 Fitness: 18 Error: 0 */
genomestart 48
trait 1 0.1 0 0 0 0 0 0 0 
trait 2 0.2 0 0 0 0 0 0 0 
trait 3 0.3 0 0 0 0 0 0 0 
node 1 3 1 3
node 2 3 1 1
node 3 3 1 1
node 4 1 1 1
node 5 2 1 1
node 6 2 0 2
node 7 1 0 2
node 16 1 0 0
gene 2 1 6 -2.09032 0 1 -2.09032 1
gene 1 2 6 -1.54089 0 2 -1.54089 1
gene 1 3 6 -1.94215 0 3 -1.94215 1
gene 2 4 6 1.70451 0 4 1.70451 0
gene 1 5 6 -4.43933 0 5 -4.43933 0
gene 2 1 7 2.19269 0 6 2.19269 1
gene 2 2 7 0.666799 0 7 0.666799 1
gene 2 3 7 -2.85513 0 8 -2.85513 1
gene 3 4 7 -1.35777 0 9 -1.35777 1
gene 2 5 7 1.26406 0 10 1.26406 1
gene 2 4 16 1.68259 0 32 1.68259 1
gene 2 16 6 0.740202 0 33 0.740202 1
gene 2 5 16 -1.82069 0 42 -1.82069 1
genomeend 48

/* Organism #49 Fitness: 50 Error: 0 */
genomestart 49
trait 1 0.1 0 0 0 0 0 0 0 
trait 2 0.2 0 0 0 0 0 0 0 
trait 3 0.3 0 0 0 0 0 0 0 
node 1 3 1 3
node 2 3 1 1
node 3 3 1 1
node 4 1 1 1
node 5 2 1 1
node 6 2 0 2
node 7 1 0 2
node 16 1 0 0
gene 2 1 6 -1.62865 0 1 -1.62865 1
gene 1 2 6 -1.64454 0 2 -1.64454 1
gene 1 3 6 -1.93371 0 3 -1.93371 1
gene 2 4 6 0.655723 0 4 0.655723 1
gene 1 5 6 -1.28991 0 5 -1.28991 1
gene 2 1 7 2.33618 0 6 2.33618 1
gene 2 2 7 0.0733707 0 7 0.0733707 1
gene 2 3 7 -0.0513413 0 8 -0.0513413 1
gene 3 4 7 -2.38832 0 9 -2.38832 1
gene 2 5 7 -0.0555478 0 10 -0.0555478 1
gene 2 4 16 0.431142 0 32 0.431142 1
gene 2 16 6 1.45495 0 33 1.45495 1
gene 2 5 16 0.262637 0 42 0.262637 1
genomeend 49

/* Organism #50 Fitness: 91 Error: 0 */
genomestart 50
trait 1 0.1 0 0 0 0 0 0 0 
trait 2 0.2 0 0 0 0 0 0 0 
trait 3 0.3 0 0 0 0 0 0 0 
node 1 1 1 3
node 2 3 1 1
node 3 3 1 1
node 4 1 1 1
node 5 2 1 1
node 6 2 0 2
node 7 1 0 2
node 16 1 0 0
gene 2 1 6 0.224809 0 1 0.224809 1
gene 1 2 6 -3.27477 0 2 -3.27477 1
gene 1 3 6 -3.99786 0 3 -3.99786 1
gene 2 4 6 1.3336 0 4 1.3336 0
gene 1 5 6 -2.5996 0 5 -2.5996 0
gene 2 1 7 0.167456 0 6 0.167456 1
gene 2 2 7 -0.561437 0 7 -0.561437 1
gene 2 3 7 -0.397457 0 8 -0.397457 1
gene 3 4 7 0.0811643 0 9 0.0811643 1
gene 2 5 7 -0.991701 0 10 -0.991701 1
gene 2 4 16 1.0592 0 32 1.0592 1
gene 2 16 6 2.70826 0 33 2.70826 1
gene 2 5 16 -1.82069 0 42 -1.82069 1
gene 1 3 16 0.601243 0 130 0.601243 1
genomeend 50

/* Species #5 : (Size 14) (AF 56.2857) (Age 8)  */


/* Organism #51 Fitness: 93 Error: 0 */
genomestart 51
trait 1 0.1 0 0 0 0 0 0 0 
trait 2 0.2 0 0 0 0 0 0.71818 0 
trait 3 0.3 0 0 0 0 0 0 0 
node 1 2 1 3
node 2 3 1 1
node 3 3 1 1
node 4 3 1 1
node 5 2 1 1
node 6 3 0 2
node 7 3 0 2
node 18 3 0 0
gene 2 1 6 -3.35004 0 1 -3.35004 1
gene 1 2 6 0.312564 0 2 0.312564 1
gene 1 3 6 1.72557 0 3 1.72557 0
gene 2 4 6 -0.733052 0 4 -0.733052 1
gene 2 5 6 -0.47189 0 5 -0.47189 0
gene 1 1 7 0.213344 0 6 0.213344 1
gene 3 2 7 -2.4682 0 7 -2.4682 1
gene 2 3 7 0.216534 0 8 0.216534 1
gene 1 4 7 2.04002 0 9 2.04002 1
gene 2 5 7 -2.62002 0 10 -2.62002 1
gene 1 3 18 -1.45247 0 39 -1.45247 1
gene 1 18 6 -1.09496 0 40 -1.09496 1
genomeend 51

/* Organism #52 Fitness: 74 Error: 0 */
genomestart 52
trait 1 0.1 0 0 0 0 0 0 0 
trait 2 0.2 0 0 0 0 0 0.71818 0 
trait 3 0.3 0 0 0 0 0 0 0 
node 1 2 1 3
node 2 3 1 1
node 3 3 1 1
node 4 3 1 1
node 5 2 1 1
node 6 3 0 2
node 7 3 0 2
node 18 3 0 0
gene 2 1 6 -4.47807 0 1 -4.47807 1
gene 1 2 6 -1.60875 0 2 -1.60875 1
gene 1 3 6 4.54624 0 3 4.54624 0
gene 2 4 6 -0.587271 0 4 -0.587271 1
gene 2 5 6 -0.108327 0 5 -0.108327 0
gene 1 1 7 6.01876 0 6 6.01876 1
gene 3 2 7 2.23623 0 7 2.23623 1
gene 2 3 7 0.841236 0 8 0.841236 1
gene 1 4 7 -0.571229 0 9 -0.571229 1
gene 2 5 7 -1.85686 0 10 -1.85686 1
gene 1 3 18 0.0260971 0 39 0.0260971 1
gene 1 18 6 -0.196092 0 40 -0.196092 1
genomeend 52

/* Organism #53 Fitness: 74 Error: 0 */
genomestart 53
trait 1 0.1 0 0 0 0 0 0 0 
trait 2 0.1 0 0 0 0 0 0.795367 0.318498 
trait 3 0.3 0 0 0 0 0 0 0 
node 1 2 1 3
node 2 3 1 1
node 3 3 1 1
node 4 3 1 1
node 5 2 1 1
node 6 3 0 2
node 7 3 0 2
node 18 3 0 0
gene 2 1 6 -5.22616 0 1 -5.22616 1
gene 1 2 6 0.0102205 0 2 0.0102205 1
gene 1 3 6 1.48856 0 3 1.48856 0
gene 2 4 6 -1.2648 0 4 -1.2648 1
gene 2 5 6 0.845747 0 5 0.845747 0
gene 1 1 7 3.18793 0 6 3.18793 1
gene 3 2 7 -0.724294 0 7 -0.724294 1
gene 2 3 7 -1.70895 0 8 -1.70895 1
gene 1 4 7 1.12564 0 9 1.12564 1
gene 2 5 7 -0.201915 0 10 -0.201915 1
gene 1 3 18 -2.23484 0 39 -2.23484 1
gene 1 18 6 2.24853 0 40 2.24853 1
genomeend 53

/* Organism #54 Fitness: 19 Error: 0 */
genomestart 54
trait 1 0.1 0 0 0 0 0 0 0 
trait 2 0.2 0 0 0 0 0 0.71818 0 
trait 3 0.3 0 0 0 0 0 0 0 
node 1 2 1 3
node 2 3 1 1
node 3 3 1 1
node 4 3 1 1
node 5 2 1 1
node 6 3 0 2
node 7 3 0 2
node 18 3 0 0
gene 2 1 6 -2.62454 0 1 -2.62454 1
gene 1 2 6 -2.35298 0 2 -2.35298 1
gene 1 3 6 -0.367985 0 3 -0.367985 0
gene 2 4 6 0.0582703 0 4 0.0582703 1
gene 2 5 6 -0.492004 0 5 -0.492004 0
gene 1 1 7 -0.848786 0 6 -0.848786 1
gene 3 2 7 -0.313305 0 7 -0.313305 1
gene 2 3 7 -0.442216 0 8 -0.442216 1
gene 1 4 7 2.46883 0 9 2.46883 1
gene 2 5 7 -1.47918 0 10 -1.47918 1
gene 1 3 18 0.795187 0 39 0.795187 1
gene 1 18 6 0.0562984 0 40 0.0562984 1
genomeend 54

/* Organism #55 Fitness: 73 Error: 0 */
genomestart 55
trait 1 0.1 0 0 0 0 0 0 0 
trait 2 0.2 0 0 0 0 0 0.71818 0 
trait 3 0.3 0 0 0 0 0 0 0 
node 1 2 1 3
node 2 3 1 1
node 3 3 1 1
node 4 3 1 1
node 5 2 1 1
node 6 3 0 2
node 7 3 0 2
node 18 3 0 0
gene 2 1 6 -3.93445 0 1 -3.93445 1
gene 1 2 6 -1.06667 0 2 -1.06667 1
gene 1 3 6 0.358305 0 3 0.358305 0
gene 2 4 6 1.26447 0 4 1.26447 1
gene 2 5 6 0.316593 0 5 0.316593 0
gene 1 1 7 2.21185 0 6 2.21185 1
gene 3 2 7 -3.54154 0 7 -3.54154 1
gene 2 3 7 -0.1096 0 8 -0.1096 1
gene 1 4 7 1.7872 0 9 1.7872 1
gene 2 5 7 -1.77028 0 10 -1.77028 1
gene 1 3 18 -0.127293 0 39 -0.127293 1
gene 1 18 6 -1.09496 0 40 -1.09496 1
genomeend 55

/* Organism #56 Fitness: 74 Error: 0 */
genomestart 56
trait 1 0.1 0 0 0 0 0 0 0 
trait 2 0.1 0 0 0 0 0 0.795367 0.318498 
trait 3 0.3 0 0 0 0 0 0 0 
node 1 2 1 3
node 2 3 1 1
node 3 3 1 1
node 4 3 1 1
node 5 2 1 1
node 6 3 0 2
node 7 3 0 2
node 18 3 0 0
gene 2 1 6 -2.39881 0 1 -2.39881 1
gene 1 2 6 -1.81561 0 2 -1.81561 1
gene 1 3 6 4.20214 0 3 4.20214 0
gene 2 4 6 1.62022 0 4 1.62022 1
gene 2 5 6 3.01392 0 5 3.01392 0
gene 1 1 7 5.77157 0 6 5.77157 1
gene 3 2 7 0.39761 0 7 0.39761 1
gene 2 3 7 1.29581 0 8 1.29581 1
gene 1 4 7 3.17357 0 9 3.17357 1
gene 2 5 7 0.358537 0 10 0.358537 1
gene 1 3 18 -3.12639 0 39 -3.12639 1
gene 1 18 6 0.689716 0 40 0.689716 1
genomeend 56

/* Organism #57 Fitness: 72 Error: 0 */
genomestart 57
trait 1 0.1 0 0 0 0 0 0 0 
trait 2 0.1 0 0 0 0 0 0.795367 0.318498 
trait 3 0.3 0 0 0 0 0 0 0 
node 1 2 1 3
node 2 3 1 1
node 3 3 1 1
node 4 3 1 1
node 5 2 1 1
node 6 3 0 2
node 7 3 0 2
node 18 3 0 0
gene 2 1 6 -2.44393 0 1 -2.44393 1
gene 1 2 6 0.471538 0 2 0.471538 1
gene 1 3 6 -0.679316 0 3 -0.679316 0
gene 3 4 6 -1.03509 0 4 -1.03509 1
gene 2 5 6 -1.46891 0 5 -1.46891 1
gene 1 1 7 3.30695 0 6 3.30695 1
gene 3 2 7 -1.98135 0 7 -1.98135 1
gene 2 3 7 -0.453545 0 8 -0.453545 1
gene 1 4 7 0.911887 0 9 0.911887 1
gene 2 5 7 -3.39992 0 10 -3.39992 1
gene 1 3 18 -0.997755 0 39 -0.997755 1
gene 1 18 6 -0.0356376 0 40 -0.0356376 1
genomeend 57

/* Organism #58 Fitness: 6 Error: 0 */
genomestart 58
trait 1 0.1 0 0 0 0 0 0 0 
trait 2 0.2 0 0 0 0 0 0.71818 0 
trait 3 0.3 0 0 0 0 0 0 0 
node 1 2 1 3
node 2 3 1 1
node 3 3 1 1
node 4 3 1 1
node 5 2 1 1
node 6 3 0 2
node 7 3 0 2
node 18 3 0 0
gene 2 1 6 -3.66817 0 1 -3.66817 1
gene 1 2 6 0.876145 0 2 0.876145 1
gene 1 3 6 -0.260711 0 3 -0.260711 0
gene 2 4 6 -1.98393 0 4 -1.98393 1
gene 2 5 6 0.91327 0 5 0.91327 0
gene 1 1 7 -1.44522 0 6 -1.44522 1
gene 3 2 7 -4.1462 0 7 -4.1462 1
gene 2 3 7 0.730813 0 8 0.730813 1
gene 1 4 7 3.30037 0 9 3.30037 1
gene 2 5 7 -0.138337 0 10 -0.138337 1
gene 1 3 18 -3.28473 0 39 -3.28473 1
gene 1 18 6 0.469495 0 40 0.469495 1
genomeend 58

/* Organism #59 Fitness: 6 Error: 0 */
genomestart 59
trait 1 0.1 0 0 0 0 0 0 0 
trait 2 0.2 0 0 0 0 0 0.71818 0 
trait 3 0.3 0 0 0 0 0 0 0 
node 1 2 1 3
node 2 3 1 1
node 3 3 1 1
node 4 3 1 1
node 5 2 1 1
node 6 3 0 2
node 7 3 0 2
node 18 3 0 0
gene 2 1 6 0.603227 0 1 0.603227 1
gene 1 2 6 1.87641 0 2 1.87641 1
gene 1 3 6 0.273285 0 3 0.273285 0
gene 2 4 6 2.14482 0 4 2.14482 1
gene 2 5 6 3.50815 0 5 3.50815 0
gene 1 1 7 4.91959 0 6 4.91959 1
gene 3 2 7 -1.91476 0 7 -1.91476 1
gene 2 3 7 0.439235 0 8 0.439235 1
gene 1 4 7 0.692673 0 9 0.692673 1
gene 2 5 7 -5.22055 0 10 -5.22055 1
gene 1 3 18 -2.91702 0 39 -2.91702 1
gene 1 18 6 -2.19953 0 40 -2.19953 1
genomeend 59

/* Organism #60 Fitness: 75 Error: 0 */
genomestart 60
trait 1 0.1 0 0 0 0 0 0 0 
trait 2 0.2 0 0 0 0 0 0.71818 0 
trait 3 0.3 0 0 0 0 0 0 0 
node 1 2 1 3
node 2 3 1 1
node 3 3 1 1
node 4 3 1 1
node 5 2 1 1
node 6 3 0 2
node 7 3 0 2
node 18 3 0 0
node 42 1 0 0
gene 2 1 6 -3.64145 0 1 -3.64145 1
gene 1 2 6 -0.0765215 0 2 -0.0765215 1
gene 1 3 6 2.3674 0 3 2.3674 1
gene 2 4 6 -0.497196 0 4 -0.497196 1
gene 2 5 6 0.851748 0 5 0.851748 1
gene 1 1 7 2.4205 0 6 2.4205 1
gene 3 2 7 -1.23782 0 7 -1.23782 1
gene 2 3 7 -0.126046 0 8 -0.126046 1
gene 1 4 7 1.9089 0 9 1.9089 1
gene 2 5 7 -1.1293 0 10 -1.1293 1
gene 1 3 18 -1.59437 0 39 -1.59437 0
gene 1 18 6 -0.355717 0 40 -0.355717 1
gene 1 3 42 1 0 131 0 1
gene 1 42 18 -1.59437 0 132 0 1
genomeend 60

/* Organism #61 Fitness: 75 Error: 0 */
genomestart 61
trait 1 0.1 0 0 0 0 0 0 0 
trait 2 0.2 0 0 0 0 0 0.71818 0 
trait 3 0.3 0 0 0 0 0 0 0 
node 1 2 1 3
node 2 3 1 1
node 3 3 1 1
node 4 3 1 1
node 5 2 1 1
node 6 3 0 2
node 7 3 0 2
node 18 3 0 0
gene 2 1 6 -4.94006 0 1 -4.94006 1
gene 1 2 6 -0.806227 0 2 -0.806227 1
gene 1 3 6 2.22049 0 3 2.22049 1
gene 2 4 6 -1.42176 0 4 -1.42176 1
gene 2 5 6 2.63915 0 5 2.63915 1
gene 1 1 7 1.1625 0 6 1.1625 1
gene 3 2 7 -3.45932 0 7 -3.45932 1
gene 2 3 7 -0.699581 0 8 -0.699581 1
gene 1 4 7 -2.3306 0 9 -2.3306 1
gene 2 5 7 -0.202785 0 10 -0.202785 1
gene 1 3 18 -1.32628 0 39 -1.32628 1
gene 1 18 6 0.273472 0 40 0.273472 1
genomeend 61

/* Organism #62 Fitness: 68 Error: 0 */
genomestart 62
trait 1 0.1 0 0 0 0 0 0 0 
trait 2 0.2 0 0 0 0 0 0.71818 0 
trait 3 0.3 0 0 0 0 0 0 0 
node 1 2 1 3
node 2 3 1 1
node 3 3 1 1
node 4 3 1 1
node 5 2 1 1
node 6 3 0 2
node 7 3 0 2
node 18 3 0 0
gene 2 1 6 -4.78425 0 1 -4.78425 1
gene 1 2 6 0.312564 0 2 0.312564 1
gene 1 3 6 -0.0926098 0 3 -0.0926098 0
gene 2 4 6 0.46739 0 4 0.46739 1
gene 2 5 6 1.67015 0 5 1.67015 0
gene 1 1 7 1.39151 0 6 1.39151 1
gene 3 2 7 -4.45434 0 7 -4.45434 1
gene 2 3 7 -0.0991044 0 8 -0.0991044 1
gene 1 4 7 1.55166 0 9 1.55166 1
gene 2 5 7 -2.46569 0 10 -2.46569 1
gene 1 3 18 -0.00274633 0 39 -0.00274633 1
gene 1 18 6 -0.242934 0 40 -0.242934 1
genomeend 62

/* Organism #63 Fitness: 8 Error: 0 */
genomestart 63
trait 1 0.1 0 0 0 0 0 0 0 
trait 2 0.2 0 0 0 0 0 0.511833 0 
trait 3 0.3 0 0 0 0 0 0 0 
node 1 2 1 3
node 2 3 1 1
node 3 3 1 1
node 4 3 1 1
node 5 2 1 1
node 6 3 0 2
node 7 3 0 2
node 18 3 0 0
gene 2 1 6 -0.980857 0 1 -0.980857 1
gene 1 2 6 -0.0765215 0 2 -0.0765215 1
gene 1 3 6 2.3674 0 3 2.3674 1
gene 2 4 6 -0.192433 0 4 -0.192433 1
gene 2 5 6 -0.194457 0 5 -0.194457 1
gene 1 1 7 1.49701 0 6 1.49701 1
gene 3 2 7 -0.862326 0 7 -0.862326 1
gene 2 3 7 -0.214502 0 8 -0.214502 1
gene 1 4 7 0.459599 0 9 0.459599 1
gene 2 5 7 -1.76168 0 10 -1.76168 1
gene 1 3 18 -0.265934 0 39 -0.265934 1
gene 1 18 6 -1.7372 0 40 -1.7372 1
genomeend 63

/* Organism #64 Fitness: 71 Error: 0 */
genomestart 64
trait 1 0.1 0 0 0 0 0 0 0 
trait 2 0.1 0 0 0 0 0 0.795367 0.318498 
trait 3 0.3 0 0 0 0 0 0 0 
node 1 2 1 3
node 2 3 1 1
node 3 3 1 1
node 4 3 1 1
node 5 2 1 1
node 6 3 0 2
node 7 3 0 2
node 18 3 0 0
gene 2 1 6 -3.57161 0 1 -3.57161 1
gene 1 2 6 2.11685 0 2 2.11685 1
gene 1 3 6 1.97391 0 3 1.97391 0
gene 2 4 6 -1.77532 0 4 -1.77532 1
gene 2 5 6 1.71674 0 5 1.71674 0
gene 1 1 7 1.08633 0 6 1.08633 1
gene 3 2 7 -2.1191 0 7 -2.1191 1
gene 2 3 7 -0.940055 0 8 -0.940055 1
gene 1 4 7 2.80165 0 9 2.80165 1
gene 2 5 7 -2.98522 0 10 -2.98522 1
gene 1 3 18 -1.33942 0 39 -1.33942 1
gene 1 18 6 -3.16591 0 40 -3.16591 1
genomeend 64

/* Species #6 : (Size 11) (AF 33.3636) (Age 8)  */


/* Organism #65 Fitness: 78 Error: 0 */
genomestart 65
trait 1 0.1 0 0 0 0 0 0 0 
trait 2 0.2 0 0 0 0 0 0 0 
trait 3 0 0.234068 0.0462031 0 0.400964 0 0 0.650935 
node 1 2 1 3
node 2 3 1 1
node 3 2 1 1
node 4 3 1 1
node 5 3 1 1
node 6 2 0 2
node 7 1 0 2
node 14 1 0 0
gene 2 1 6 -3.74595 0 1 -3.74595 1
gene 1 2 6 1.70854 0 2 1.70854 1
gene 1 3 6 0.419025 0 3 0.419025 1
gene 2 4 6 1.01478 0 4 1.01478 1
gene 3 5 6 -0.782285 0 5 -0.782285 0
gene 1 1 7 5.09915 0 6 5.09915 1
gene 3 2 7 0.13736 0 7 0.13736 0
gene 3 3 7 3.0493 0 8 3.0493 1
gene 2 4 7 2.63498 0 9 2.63498 1
gene 2 5 7 5.69525 0 10 5.69525 1
gene 2 2 14 5.14472 0 28 5.14472 1
gene 2 14 7 2.72551 0 29 2.72551 1
genomeend 65

/* Organism #66 Fitness: 7 Error: 0 */
genomestart 66
trait 1 0.1 0 0 0 0 0 0 0 
trait 2 0.2 0 0 0 0 0 0 0 
trait 3 0 0.234068 0.0462031 0 0.400964 0 0 0.650935 
node 1 2 1 3
node 2 3 1 1
node 3 2 1 1
node 4 3 1 1
node 5 3 1 1
node 6 2 0 2
node 7 1 0 2
node 14 1 0 0
gene 2 1 6 -3.83885 0 1 -3.83885 1
gene 1 2 6 3.6828 0 2 3.6828 1
gene 1 3 6 -2.61681 0 3 -2.61681 1
gene 2 4 6 0.313731 0 4 0.313731 1
gene 3 5 6 0.751708 0 5 0.751708 0
gene 1 1 7 -1.53823 0 6 -1.53823 1
gene 3 2 7 -1.82251 0 7 -1.82251 0
gene 3 3 7 2.77512 0 8 2.77512 1
gene 2 4 7 -2.17175 0 9 -2.17175 1
gene 2 5 7 0.0727713 0 10 0.0727713 1
gene 2 2 14 5.14472 0 28 5.14472 1
gene 2 14 7 0.391376 0 29 0.391376 1
genomeend 66

/* Organism #67 Fitness: 5 Error: 0 */
genomestart 67
trait 1 0.1 0 0 0.681999 0 0 0.508737 0 
trait 2 0.2 0 0 0 0 0 0 0 
trait 3 0 0.234068 0.0462031 0 0.400964 0 0 0.650935 
node 1 2 1 3
node 2 3 1 1
node 3 2 1 1
node 4 3 1 1
node 5 3 1 1
node 6 2 0 2
node 7 1 0 2
node 14 1 0 0
gene 2 1 6 1.12368 0 1 1.12368 1
gene 1 2 6 -1.62821 0 2 -1.62821 1
gene 1 3 6 0.429569 0 3 0.429569 1
gene 2 4 6 2.5046 0 4 2.5046 1
gene 3 5 6 1.19062 0 5 1.19062 0
gene 1 1 7 3.36121 0 6 3.36121 1
gene 3 2 7 0.13736 0 7 0.13736 0
gene 3 3 7 2.61427 0 8 2.61427 1
gene 2 4 7 0.641567 0 9 0.641567 1
gene 2 5 7 4.31668 0 10 4.31668 1
gene 2 2 14 5.14472 0 28 5.14472 1
gene 2 14 7 4.69798 0 29 4.69798 1
genomeend 67

/* Organism #68 Fitness: 51 Error: 0 */
genomestart 68
trait 1 0.1 0 0 0 0 0 0 0 
trait 2 0.2 0 0 0 0 0 0 0 
trait 3 0 0.234068 0.0462031 0 0.400964 0 0 0.650935 
node 1 2 1 3
node 2 3 1 1
node 3 2 1 1
node 4 3 1 1
node 5 3 1 1
node 6 2 0 2
node 7 1 0 2
node 14 1 0 0
gene 2 1 6 -4.93682 0 1 -4.93682 1
gene 1 2 6 3.87988 0 2 3.87988 1
gene 1 3 6 -2.29386 0 3 -2.29386 1
gene 2 4 6 0.639653 0 4 0.639653 1
gene 3 5 6 -2.87139 0 5 -2.87139 1
gene 1 1 7 2.79438 0 6 2.79438 1
gene 3 2 7 0.71983 0 7 0.71983 0
gene 3 3 7 4.80314 0 8 4.80314 1
gene 2 4 7 2.38539 0 9 2.38539 1
gene 2 5 7 0.729339 0 10 0.729339 1
gene 2 2 14 5.14472 0 28 5.14472 1
gene 2 14 7 0.533646 0 29 0.533646 1
genomeend 68

/* Organism #69 Fitness: 6 Error: 0 */
genomestart 69
trait 1 0.1 0 0 0 0 0 0 0 
trait 2 0.2 0 0 0 0 0 0 0 
trait 3 0 0.234068 0.0462031 0 0.400964 0 0 0.650935 
node 1 2 1 3
node 2 3 1 1
node 3 2 1 1
node 4 3 1 1
node 5 3 1 1
node 6 2 0 2
node 7 1 0 2
node 14 1 0 0
gene 2 1 6 -5.07968 0 1 -5.07968 1
gene 1 2 6 2.68782 0 2 2.68782 1
gene 1 3 6 0.434317 0 3 0.434317 1
gene 2 4 6 1.01478 0 4 1.01478 1
gene 3 5 6 0.992391 0 5 0.992391 0
gene 1 1 7 -2.03934 0 6 -2.03934 1
gene 3 2 7 -1.49555 0 7 -1.49555 0
gene 3 3 7 1.39202 0 8 1.39202 1
gene 2 4 7 4.81538 0 9 4.81538 1
gene 2 5 7 0.19384 0 10 0.19384 1
gene 2 2 14 -1.00721 0 28 -1.00721 1
gene 2 14 7 0.434508 0 29 0.434508 1
genomeend 69

/* Organism #70 Fitness: 8 Error: 0 */
genomestart 70
trait 1 0.1 0 0 0 0 0 0 0 
trait 2 0.2 0 0 0 0 0 0 0 
trait 3 0 0.234068 0.0462031 0 0.400964 0 0 0.650935 
node 1 2 1 3
node 2 3 1 1
node 3 2 1 1
node 4 3 1 1
node 5 3 1 1
node 6 2 0 2
node 7 1 0 2
node 14 1 0 0
gene 2 1 6 -1.80741 0 1 -1.80741 1
gene 1 2 6 2.18732 0 2 2.18732 1
gene 1 3 6 2.07933 0 3 2.07933 1
gene 2 4 6 3.3328 0 4 3.3328 1
gene 3 5 6 1.54961 0 5 1.54961 0
gene 1 1 7 3.02383 0 6 3.02383 1
gene 3 2 7 1.28467 0 7 1.28467 0
gene 3 3 7 1.01784 0 8 1.01784 1
gene 2 4 7 3.98173 0 9 3.98173 1
gene 2 5 7 6.0107 0 10 6.0107 1
gene 2 2 14 -0.998167 0 28 -0.998167 1
gene 2 14 7 4.63136 0 29 4.63136 1
genomeend 70

/* Organism #71 Fitness: 73 Error: 0 */
genomestart 71
trait 1 0.1 0 0 0 0 0 0 0 
trait 2 0.2 0 0 0 0 0 0 0 
trait 3 0 0.234068 0.0462031 0 0.400964 0 0 0.650935 
node 1 2 1 3
node 2 3 1 1
node 3 2 1 1
node 4 3 1 1
node 5 3 1 1
node 6 2 0 2
node 7 1 0 2
node 14 1 0 0
gene 2 1 6 -2.1301 0 1 -2.1301 1
gene 1 2 6 -0.614563 0 2 -0.614563 1
gene 3 3 6 -1.19522 0 3 -1.19522 1
gene 2 4 6 0.478482 0 4 0.478482 1
gene 3 5 6 -3.18264 0 5 -3.18264 0
gene 1 1 7 6.43147 0 6 6.43147 1
gene 3 2 7 0.460666 0 7 0.460666 0
gene 3 3 7 2.03408 0 8 2.03408 1
gene 2 4 7 0.352278 0 9 0.352278 1
gene 2 5 7 7.57799 0 10 7.57799 1
gene 2 2 14 7.02362 0 28 7.02362 1
gene 2 14 7 2.72551 0 29 2.72551 1
genomeend 71

/* Organism #72 Fitness: 27 Error: 0 */
genomestart 72
trait 1 0.1 0 0 0 0 0 0 0 
trait 2 0.2 0 0 0 0 0 0 0 
trait 3 0 0.234068 0.0462031 0 0.400964 0 0 0.650935 
node 1 2 1 3
node 2 3 1 1
node 3 2 1 1
node 4 3 1 1
node 5 3 1 1
node 6 2 0 2
node 7 1 0 2
node 14 1 0 0
gene 2 1 6 -2.84306 0 1 -2.84306 1
gene 1 2 6 2.62319 0 2 2.62319 1
gene 1 3 6 2.21189 0 3 2.21189 1
gene 2 4 6 -0.0717043 0 4 -0.0717043 1
gene 3 5 6 -3.14742 0 5 -3.14742 0
gene 1 1 7 4.42941 0 6 4.42941 1
gene 3 2 7 1.38365 0 7 1.38365 0
gene 3 3 7 3.25034 0 8 3.25034 1
gene 2 4 7 1.93384 0 9 1.93384 1
gene 2 5 7 5.11607 0 10 5.11607 1
gene 2 2 14 5.14472 0 28 5.14472 1
gene 2 14 7 -2.43179 0 29 -2.43179 1
genomeend 72

/* Organism #73 Fitness: 31 Error: 0 */
genomestart 73
trait 1 0.1 0 0 0 0 0 0 0 
trait 2 0.2 0 0 0 0 0 0 0 
trait 3 0 0.234068 0.0462031 0 0.400964 0 0 0.650935 
node 1 2 1 3
node 2 3 1 1
node 3 2 1 1
node 4 3 1 1
node 5 3 1 1
node 6 2 0 2
node 7 1 0 2
node 14 1 0 0
gene 2 1 6 -2.126 0 1 -2.126 1
gene 1 2 6 1.79742 0 2 1.79742 1
gene 1 3 6 -2.23946 0 3 -2.23946 1
gene 2 4 6 2.42539 0 4 2.42539 1
gene 3 5 6 -2.45017 0 5 -2.45017 0
gene 1 1 7 4.61649 0 6 4.61649 1
gene 3 2 7 1.60515 0 7 1.60515 0
gene 3 3 7 2.4179 0 8 2.4179 1
gene 2 4 7 3.16098 0 9 3.16098 1
gene 2 5 7 3.64338 0 10 3.64338 1
gene 2 2 14 5.14472 0 28 5.14472 1
gene 2 14 7 0.381882 0 29 0.381882 1
genomeend 73

/* Organism #74 Fitness: 74 Error: 0 */
genomestart 74
trait 1 0.1 0 0 0 0 0 0 0 
trait 2 0.2 0 0 0 0 0 0 0 
trait 3 0 0.234068 0.0462031 0 0.400964 0 0 0.650935 
node 1 2 1 3
node 2 3 1 1
node 3 2 1 1
node 4 3 1 1
node 5 3 1 1
node 6 2 0 2
node 7 1 0 2
node 14 1 0 0
gene 2 1 6 -2.71548 0 1 -2.71548 1
gene 1 2 6 0.00315462 0 2 0.00315462 1
gene 1 3 6 -1.07271 0 3 -1.07271 1
gene 2 4 6 2.71137 0 4 2.71137 1
gene 3 5 6 -2.68782 0 5 -2.68782 1
gene 1 1 7 5.74539 0 6 5.74539 1
gene 3 2 7 0.140157 0 7 0.140157 0
gene 3 3 7 3.40532 0 8 3.40532 1
gene 2 4 7 2.3618 0 9 2.3618 1
gene 2 5 7 7.77633 0 10 7.77633 1
gene 2 2 14 4.22333 0 28 4.22333 1
gene 2 14 7 4.44364 0 29 4.44364 1
genomeend 74

/* Organism #75 Fitness: 7 Error: 0 */
genomestart 75
trait 1 0.1 0 0 0 0 0 0 0 
trait 2 0.2 0 0 0 0 0 0 0 
trait 3 0 0.234068 0.0462031 0 0.400964 0 0 0.650935 
node 1 2 1 3
node 2 3 1 1
node 3 2 1 1
node 4 3 1 1
node 5 3 1 1
node 6 2 0 2
node 7 1 0 2
node 14 1 0 0
gene 2 1 6 -4.05225 0 1 -4.05225 1
gene 1 2 6 1.20628 0 2 1.20628 1
gene 1 3 6 -0.0970766 0 3 -0.0970766 1
gene 2 4 6 -1.13346 0 4 -1.13346 1
gene 3 5 6 0.105483 0 5 0.105483 0
gene 1 1 7 2.72609 0 6 2.72609 1
gene 3 2 7 2.15023 0 7 2.15023 0
gene 3 3 7 4.52808 0 8 4.52808 1
gene 2 4 7 3.73382 0 9 3.73382 1
gene 2 5 7 7.54238 0 10 7.54238 1
gene 2 2 14 3.91703 0 28 3.91703 1
gene 2 14 7 2.72551 0 29 2.72551 1
genomeend 75

/* Species #7 : (Size 16) (AF 56.625) (Age 8)  */


/* Organism #76 Fitness: 93 Error: 0 */
genomestart 76
trait 1 0.1 0 0 0 0 0 0 0 
trait 2 0.2 0 0 0 0 0 0 0 
trait 3 0.3 0 0 0 0 0 0 0 
node 1 2 1 3
node 2 3 1 1
node 3 3 1 1
node 4 2 1 1
node 5 2 1 1
node 6 3 0 2
node 7 3 0 2
node 19 1 0 0
gene 2 1 6 -2.61199 0 1 -2.61199 1
gene 1 2 6 1.62962 0 2 1.62962 1
gene 1 3 6 1.30046 0 3 1.30046 1
gene 2 4 6 -1.77735 0 4 -1.77735 1
gene 2 5 6 -0.709478 0 5 -0.709478 1
gene 2 1 7 0.65835 0 6 0.65835 1
gene 3 2 7 -3.43759 0 7 -3.43759 1
gene 2 3 7 -0.588981 0 8 -0.588981 1
gene 2 4 7 1.50067 0 9 1.50067 1
gene 3 5 7 -0.126855 0 10 -0.126855 0
gene 3 5 19 -1.19244 0 43 -1.19244 1
gene 3 19 7 -0.697545 0 44 -0.697545 1
gene 3 2 19 -1.04664 0 60 -1.04664 1
genomeend 76

/* Organism #77 Fitness: 93 Error: 0 */
genomestart 77
trait 1 0.1 0 0 0 0 0 0 0 
trait 2 0.2 0 0 0 0 0 0 0 
trait 3 0.3 0 0 0 0 0 0 0 
node 1 2 1 3
node 2 3 1 1
node 3 3 1 1
node 4 2 1 1
node 5 2 1 1
node 6 3 0 2
node 7 3 0 2
node 19 1 0 0
gene 2 1 6 -2.61199 0 1 -2.61199 1
gene 1 2 6 1.62962 0 2 1.62962 1
gene 1 3 6 1.30046 0 3 1.30046 1
gene 2 4 6 -1.77735 0 4 -1.77735 1
gene 2 5 6 -0.709478 0 5 -0.709478 1
gene 2 1 7 0.65835 0 6 0.65835 1
gene 3 2 7 -3.43759 0 7 -3.43759 1
gene 2 3 7 -0.588981 0 8 -0.588981 1
gene 2 4 7 1.50067 0 9 1.50067 1
gene 3 5 7 -0.126855 0 10 -0.126855 0
gene 3 5 19 -1.19244 0 43 -1.19244 1
gene 3 19 7 -0.697545 0 44 -0.697545 1
gene 3 2 19 -1.04664 0 60 -1.04664 1
genomeend 77

/* Organism #78 Fitness: 10 Error: 0 */
genomestart 78
trait 1 0.1 0 0 0.842928 0 0 0 0 
trait 2 0.2 0 0 0 0 0 0 0 
trait 3 0.3 0 0 0 0 0 0 0 
node 1 2 1 3
node 2 3 1 1
node 3 3 1 1
node 4 2 1 1
node 5 2 1 1
node 6 3 0 2
node 7 3 0 2
node 19 1 0 0
gene 2 1 6 -3.2886 0 1 -3.2886 1
gene 1 2 6 1.70767 0 2 1.70767 1
gene 1 3 6 3.03648 0 3 3.03648 1
gene 2 4 6 -4.19366 0 4 -4.19366 1
gene 2 5 6 1.69941 0 5 1.69941 1
gene 2 1 7 0.65835 0 6 0.65835 1
gene 3 2 7 -3.99961 0 7 -3.99961 1
gene 2 3 7 -2.81206 0 8 -2.81206 1
gene 2 4 7 -0.826846 0 9 -0.826846 1
gene 3 5 7 -1.26388 0 10 -1.26388 0
gene 3 5 19 -3.56843 0 43 -3.56843 1
gene 3 19 7 1.18629 0 44 1.18629 1
gene 3 2 19 -0.542762 0 60 -0.542762 1
genomeend 78

/* Organism #79 Fitness: 82 Error: 0 */
genomestart 79
trait 1 0.1 0 0 0 0 0 0 0 
trait 2 0.2 0 0 0 0 0 0 0 
trait 3 0.3 0 0 0 0 0 0 0 
node 1 3 1 3
node 2 3 1 1
node 3 3 1 1
node 4 2 1 1
node 5 2 1 1
node 6 3 0 2
node 7 3 0 2
node 19 1 0 0
gene 2 1 6 -2.61199 0 1 -2.61199 1
gene 1 2 6 0.729603 0 2 0.729603 1
gene 1 3 6 0.616026 0 3 0.616026 1
gene 2 4 6 -1.35009 0 4 -1.35009 1
gene 2 5 6 -0.709478 0 5 -0.709478 1
gene 2 1 7 0.65835 0 6 0.65835 1
gene 3 2 7 -3.43759 0 7 -3.43759 1
gene 2 3 7 -0.588981 0 8 -0.588981 1
gene 2 4 7 0.757906 0 9 0.757906 1
gene 3 5 7 -0.228748 0 10 -0.228748 0
gene 3 5 19 -0.0962214 0 43 -0.596221 1
gene 3 19 7 -0.514093 0 44 -0.348773 1
gene 3 2 19 -1.04664 0 60 -1.04664 1
genomeend 79

/* Organism #80 Fitness: 6 Error: 0 */
genomestart 80
trait 1 0.1 0 0 0 0 0 0 0 
trait 2 0.2 0 0 0 0 0 0 0 
trait 3 0.3 0 0 0 0 0 0 0 
node 1 2 1 3
node 2 3 1 1
node 3 3 1 1
node 4 2 1 1
node 5 2 1 1
node 6 3 0 2
node 7 3 0 2
node 19 1 0 0
gene 2 1 6 -1.68516 0 1 -1.68516 1
gene 1 2 6 -1.58306 0 2 -1.58306 1
gene 1 3 6 0.956802 0 3 0.956802 1
gene 2 4 6 2.46048 0 4 2.46048 1
gene 2 5 6 -1.84129 0 5 -1.84129 1
gene 2 1 7 -0.43833 0 6 -0.43833 1
gene 3 2 7 -3.51253 0 7 -3.51253 1
gene 2 3 7 1.29976 0 8 1.29976 1
gene 2 4 7 -0.975927 0 9 -0.975927 1
gene 3 5 7 -2.13221 0 10 -2.13221 0
gene 3 5 19 -2.56101 0 43 -2.56101 1
gene 3 19 7 1.66094 0 44 1.66094 1
gene 3 2 19 -1.453 0 60 -1.453 1
genomeend 80

/* Organism #81 Fitness: 94 Error: 0 */
genomestart 81
trait 1 0.1 0 0 0 0 0 0 0 
trait 2 0.2 0 0 0 0 0 0 0 
trait 3 0.3 0 0 0 0 0 0 0 
node 1 2 1 3
node 2 3 1 1
node 3 3 1 1
node 4 2 1 1
node 5 2 1 1
node 6 3 0 2
node 7 3 0 2
node 19 1 0 0
gene 2 1 6 -1.73358 0 1 -1.73358 1
gene 1 2 6 0.729603 0 2 0.729603 1
gene 1 3 6 0.616026 0 3 0.616026 1
gene 2 4 6 -1.35009 0 4 -1.35009 1
gene 2 5 6 -0.61478 0 5 -0.61478 1
gene 2 1 7 0.634449 0 6 0.634449 1
gene 3 2 7 -2.36305 0 7 -2.36305 1
gene 2 3 7 -0.0760701 0 8 -0.0760701 1
gene 2 4 7 0.757906 0 9 0.757906 1
gene 3 5 7 -0.126855 0 10 -0.126855 0
gene 3 5 19 -1.19244 0 43 -1.19244 1
gene 3 19 7 -0.697545 0 44 -0.697545 1
gene 3 2 19 -1.04664 0 60 -1.04664 1
genomeend 81

/* Organism #82 Fitness: 82 Error: 0 */
genomestart 82
trait 1 0.1 0 0 0 0 0 0 0 
trait 2 0.2 0.709487 0 0 0 0 0 0 
trait 3 0.3 0 0 0 0 0 0 0 
node 1 3 1 3
node 2 3 1 1
node 3 3 1 1
node 4 2 1 1
node 5 2 1 1
node 6 3 0 2
node 7 3 0 2
node 19 1 0 0
gene 2 1 6 -1.73358 0 1 -1.73358 1
gene 1 2 6 0.729603 0 2 0.729603 1
gene 1 3 6 0.616026 0 3 0.616026 1
gene 2 4 6 -1.35009 0 4 -1.35009 1
gene 2 5 6 -0.61478 0 5 -0.61478 1
gene 2 1 7 0.634449 0 6 0.634449 1
gene 3 2 7 -2.36305 0 7 -2.36305 1
gene 2 3 7 -0.0760701 0 8 -0.0760701 1
gene 2 4 7 0.757906 0 9 0.757906 1
gene 3 5 7 -0.228748 0 10 -0.228748 0
gene 3 5 19 -0.0962214 0 43 -0.596221 1
gene 3 19 7 -0.514093 0 44 -0.348773 1
gene 3 2 19 -1.04664 0 60 -1.04664 1
gene 3 7 6 0.0674764 0 120 0.0674764 1
genomeend 82

/* Organism #83 Fitness: 6 Error: 0 */
genomestart 83
trait 1 0.1 0 0 0 0 0 0 0 
trait 2 0.2 0 0 0 0 0 0 0 
trait 3 0.3 0 0 0 0 0 0 0 
node 1 3 1 3
node 2 3 1 1
node 3 3 1 1
node 4 2 1 1
node 5 2 1 1
node 6 3 0 2
node 7 3 0 2
node 19 1 0 0
gene 2 1 6 -2.7619 0 1 -2.7619 1
gene 1 2 6 3.03469 0 2 3.03469 1
gene 1 3 6 -1.34857 0 3 -1.34857 1
gene 2 4 6 0.800431 0 4 0.800431 1
gene 2 5 6 0.7675 0 5 0.7675 1
gene 2 1 7 -0.493661 0 6 -0.493661 1
gene 3 2 7 -2.01407 0 7 -2.01407 1
gene 2 3 7 -0.376821 0 8 -0.376821 1
gene 2 4 7 -0.542051 0 9 -0.542051 1
gene 3 5 7 -1.32715 0 10 -1.32715 0
gene 3 5 19 -1.19244 0 43 -1.19244 1
gene 3 19 7 -0.588028 0 44 -0.588028 1
gene 3 2 19 -1.04664 0 60 -1.04664 1
genomeend 83

/* Organism #84 Fitness: 36 Error: 0 */
genomestart 84
trait 1 0.1 0 0 0 0 0 0 0 
trait 2 0.2 0 0 0 0 0 0 0 
trait 3 0.3 0 0 0 0 0 0 0 
node 1 3 1 3
node 2 3 1 1
node 3 3 1 1
node 4 2 1 1
node 5 2 1 1
node 6 3 0 2
node 7 3 0 2
node 19 1 0 0
gene 2 1 6 -0.50434 0 1 -0.50434 1
gene 1 2 6 0.729603 0 2 0.729603 1
gene 1 3 6 -0.580159 0 3 -0.580159 1
gene 2 4 6 -3.44825 0 4 -3.44825 1
gene 2 5 6 -0.520474 0 5 -0.520474 1
gene 2 1 7 -0.507189 0 6 -0.507189 1
gene 3 2 7 -4.98291 0 7 -4.98291 1
gene 2 3 7 -0.0760701 0 8 -0.0760701 1
gene 2 4 7 -0.312844 0 9 -0.312844 1
gene 3 5 7 2.15344 0 10 2.15344 0
gene 3 5 19 -1.19244 0 43 -1.19244 1
gene 3 19 7 -1.13732 0 44 -1.13732 1
gene 3 2 19 -2.16461 0 60 -2.16461 1
genomeend 84

/* Organism #85 Fitness: 84 Error: 0 */
genomestart 85
trait 1 0.1 0 0 0 0 0 0 0 
trait 2 0.2 0 0 0 0 0 0 0 
trait 3 0.3 0 0 0 0 0 0 0 
node 1 3 1 3
node 2 3 1 1
node 3 3 1 1
node 4 2 1 1
node 5 2 1 1
node 6 3 0 2
node 7 3 0 2
node 19 1 0 0
gene 2 1 6 -2.21169 0 1 -2.21169 1
gene 1 2 6 2.17277 0 2 2.17277 1
gene 1 3 6 2.25282 0 3 2.25282 1
gene 2 4 6 -1.86947 0 4 -1.86947 1
gene 2 5 6 0.192014 0 5 0.192014 1
gene 2 1 7 1.20589 0 6 1.20589 1
gene 3 2 7 -4.81202 0 7 -4.81202 1
gene 2 3 7 -0.741674 0 8 -0.741674 1
gene 2 4 7 0.15403 0 9 0.15403 1
gene 3 5 7 1.44916 0 10 1.44916 0
gene 3 5 19 -2.83809 0 43 -2.83809 1
gene 3 19 7 -1.47549 0 44 -1.47549 1
gene 3 2 19 -1.11636 0 60 -1.11636 1
genomeend 85

/* Organism #86 Fitness: 22 Error: 0 */
genomestart 86
trait 1 0.1 0 0 0 0 0 0 0 
trait 2 0.2 0 0 0 0 0 0 0 
trait 3 0.3 0 0 0 0 0 0 0 
node 1 3 1 3
node 2 3 1 1
node 3 3 1 1
node 4 2 1 1
node 5 2 1 1
node 6 3 0 2
node 7 3 0 2
node 19 1 0 0
gene 2 1 6 -1.73358 0 1 -1.73358 1
gene 1 2 6 -2.25726 0 2 -2.25726 1
gene 1 3 6 2.16353 0 3 2.16353 1
gene 2 4 6 -1.2594 0 4 -1.2594 1
gene 2 5 6 -2.50437 0 5 -2.50437 1
gene 2 1 7 1.55696 0 6 1.55696 1
gene 3 2 7 2.2494 0 7 2.2494 1
gene 2 3 7 -1.4164 0 8 -1.4164 1
gene 2 4 7 0.894541 0 9 0.894541 1
gene 3 5 7 1.40866 0 10 1.40866 0
gene 3 5 19 2.1409 0 43 2.1409 1
gene 3 19 7 -0.514093 0 44 -0.514093 1
gene 3 2 19 -1.04664 0 60 -1.04664 1
genomeend 86

/* Organism #87 Fitness: 77 Error: 0 */
genomestart 87
trait 1 0.1 0 0 0 0 0 0 0 
trait 2 0.2 0 0 0 0 0 0 0 
trait 3 0.3 0 0 0 0 0 0 0 
node 1 3 1 3
node 2 3 1 1
node 3 3 1 1
node 4 2 1 1
node 5 2 1 1
node 6 3 0 2
node 7 3 0 2
node 19 1 0 0
gene 2 1 6 -3.42658 0 1 -3.42658 1
gene 1 2 6 3.2009 0 2 3.2009 1
gene 1 3 6 -0.0781918 0 3 -0.0781918 1
gene 2 4 6 1.12698 0 4 1.12698 1
gene 2 5 6 0.0744573 0 5 0.0744573 1
gene 2 1 7 2.37457 0 6 2.37457 1
gene 3 2 7 -4.47785 0 7 -4.47785 1
gene 2 3 7 -1.557 0 8 -1.557 1
gene 2 4 7 -0.661126 0 9 -0.661126 1
gene 3 5 7 -0.0202202 0 10 -0.0202202 0
gene 3 5 19 2.20694 0 43 2.20694 1
gene 3 19 7 -2.98028 0 44 -2.98028 1
gene 3 2 19 0.931187 0 60 0.931187 1
gene 3 7 6 1.81152 0 120 1.81152 1
genomeend 87

/* Organism #88 Fitness: 6 Error: 0 */
genomestart 88
trait 1 0.1 0 0 0 0 0 0 0 
trait 2 0.2 0 0 0 0 0 0 0 
trait 3 0.3 0 0 0 0 0 0 0 
node 1 2 1 3
node 2 3 1 1
node 3 3 1 1
node 4 2 1 1
node 5 2 1 1
node 6 3 0 2
node 7 2 0 2
node 19 1 0 0
gene 2 1 6 -2.61199 0 1 -2.61199 1
gene 1 2 6 -0.201148 0 2 -0.201148 1
gene 1 3 6 1.71852 0 3 1.71852 1
gene 2 4 6 -3.06644 0 4 -3.06644 1
gene 2 5 6 0.00955635 0 5 0.00955635 1
gene 2 1 7 -1.8376 0 6 -1.8376 1
gene 3 2 7 -3.08181 0 7 -3.08181 1
gene 2 3 7 -1.02151 0 8 -1.02151 1
gene 2 4 7 1.50067 0 9 1.50067 1
gene 3 5 7 -0.523683 0 10 -0.523683 0
gene 3 5 19 -2.49693 0 43 -2.49693 1
gene 3 19 7 -0.740169 0 44 -0.740169 1
gene 3 2 19 -1.88363 0 60 -1.88363 1
genomeend 88

/* Organism #89 Fitness: 85 Error: 0 */
genomestart 89
trait 1 0.1 0 0 0 0 0 0 0 
trait 2 0.2 0 0 0 0 0 0 0 
trait 3 0.3 0 0 0 0 0 0 0 
node 1 2 1 3
node 2 3 1 1
node 3 3 1 1
node 4 2 1 1
node 5 2 1 1
node 6 3 0 2
node 7 3 0 2
node 19 1 0 0
gene 2 1 6 -2.61199 0 1 -2.61199 1
gene 1 2 6 1.17961 0 2 1.17961 1
gene 1 3 6 0.958243 0 3 0.958243 1
gene 2 4 6 -1.56372 0 4 -1.56372 1
gene 2 5 6 -0.709478 0 5 -0.709478 1
gene 2 1 7 0.65835 0 6 0.65835 1
gene 3 2 7 -3.43759 0 7 -3.43759 1
gene 2 3 7 -0.588981 0 8 -0.588981 1
gene 2 4 7 1.50067 0 9 1.50067 1
gene 3 5 7 -0.177801 0 10 -0.177801 1
gene 3 5 19 -1.19244 0 43 -1.19244 1
gene 3 19 7 -0.697545 0 44 -0.697545 1
gene 3 2 19 -1.04664 0 60 -1.04664 1
gene 3 6 7 0.0527941 0 133 0.0527941 1
genomeend 89

/* Organism #90 Fitness: 37 Error: 0 */
genomestart 90
trait 1 0 0 0.781429 0 0 0 0 0 
trait 2 0.2 0 0 0 0 0 0 0 
trait 3 0.3 0 0 0 0 0 0 0 
node 1 2 1 3
node 2 3 1 1
node 3 3 1 1
node 4 2 1 1
node 5 2 1 1
node 6 3 0 2
node 7 3 0 2
node 19 1 0 0
gene 2 1 6 -1.30277 0 1 -1.30277 1
gene 1 2 6 0.644084 0 2 0.644084 1
gene 1 3 6 -1.05331 0 3 -1.05331 1
gene 2 4 6 0.416207 0 4 0.416207 1
gene 2 5 6 -1.75784 0 5 -1.75784 1
gene 2 1 7 -1.63149 0 6 -1.63149 1
gene 3 2 7 -5.04443 0 7 -5.04443 1
gene 2 3 7 0.663903 0 8 0.663903 1
gene 2 4 7 3.63825 0 9 3.63825 1
gene 3 5 7 -0.126855 0 10 -0.126855 0
gene 3 5 19 -2.506 0 43 -2.506 1
gene 3 19 7 -0.694278 0 44 -0.694278 1
gene 3 2 19 0.417395 0 60 0.417395 1
genomeend 90

/* Organism #91 Fitness: 93 Error: 0 */
genomestart 91
trait 1 0.1 0 0 0 0 0 0 0 
trait 2 0.2 0 0 0 0 0 0 0 
trait 3 0.3 0 0 0 0 0 0 0 
node 1 2 1 3
node 2 3 1 1
node 3 3 1 1
node 4 2 1 1
node 5 2 1 1
node 6 2 0 2
node 7 3 0 2
node 19 1 0 0
gene 2 1 6 -2.61199 0 1 -2.61199 1
gene 1 2 6 1.17961 0 2 1.17961 1
gene 1 3 6 0.958243 0 3 0.958243 1
gene 2 4 6 -1.56372 0 4 -1.56372 1
gene 2 5 6 -0.709478 0 5 -0.709478 1
gene 2 1 7 0.65835 0 6 0.65835 1
gene 3 2 7 -3.43759 0 7 -3.43759 1
gene 2 3 7 -0.588981 0 8 -0.588981 1
gene 2 4 7 1.50067 0 9 1.50067 1
gene 3 5 7 -0.177801 0 10 -0.177801 0
gene 3 5 19 -1.19244 0 43 -1.19244 1
gene 3 19 7 -0.697545 0 44 -0.697545 1
gene 3 2 19 -1.04664 0 60 -1.04664 1
genomeend 91

/* Species #8 : (Size 10) (AF 40.5) (Age 6)  */


/* Organism #92 Fitness: 77 Error: 0 */
genomestart 92
trait 1 0.1 0 0 0 0 0 0 0 
trait 2 0.2 0 0 0 0 0 0 0 
trait 3 0.3 0 0 0 0 0 0 0 
node 1 2 1 3
node 2 3 1 1
node 3 3 1 1
node 4 2 1 1
node 5 2 1 1
node 6 3 0 2
node 7 3 0 2
node 23 1 0 0
gene 2 1 6 -2.38787 0 1 -2.38787 1
gene 1 2 6 0.770885 0 2 0.770885 1
gene 1 3 6 0.527564 0 3 0.527564 1
gene 3 4 6 -0.0878143 0 4 -0.0878143 1
gene 1 5 6 -0.888665 0 5 -0.888665 1
gene 2 1 7 1.19394 0 6 1.19394 1
gene 3 2 7 0.319243 0 7 0.319243 1
gene 2 3 7 -0.361714 0 8 -0.361714 1
gene 1 4 7 -0.208186 0 9 -0.208186 1
gene 3 5 7 -0.591853 0 10 -0.591853 0
gene 2 7 6 0.947856 0 41 0.947856 1
gene 3 5 23 1 0 61 0 1
gene 3 23 7 -0.591853 0 62 0 1
gene 3 2 23 -0.849551 0 90 -0.849551 1
genomeend 92

/* Organism #93 Fitness: 5 Error: 0 */
genomestart 93
trait 1 0.1 0 0 0 0 0 0 0 
trait 2 0.2 0 0 0 0 0 0 0 
trait 3 0.3 0 0 0 0 0 0 0 
node 1 2 1 3
node 2 3 1 1
node 3 3 1 1
node 4 2 1 1
node 5 2 1 1
node 6 3 0 2
node 7 3 0 2
node 23 1 0 0
gene 2 1 6 -1.88993 0 1 -1.88993 1
gene 1 2 6 0.645837 0 2 0.645837 1
gene 1 3 6 2.08508 0 3 2.08508 1
gene 3 4 6 1.46802 0 4 1.46802 1
gene 1 5 6 2.38149 0 5 2.38149 1
gene 2 1 7 1.57793 0 6 1.57793 1
gene 3 2 7 -2.0507 0 7 -2.0507 1
gene 2 3 7 0.130346 0 8 0.130346 1
gene 1 4 7 -1.44795 0 9 -1.44795 1
gene 3 5 7 -0.591853 0 10 -0.591853 0
gene 2 7 6 1.11972 0 41 1.11972 1
gene 3 5 23 2.69929 0 61 2.69929 1
gene 3 23 7 -2.21733 0 62 -2.21733 1
gene 3 2 23 -1.26214 0 90 -1.26214 1
genomeend 93

/* Organism #94 Fitness: 11 Error: 0 */
genomestart 94
trait 1 0.1 0 0 0 0 0 0 0 
trait 2 0.2 0 0 0 0 0 0 0 
trait 3 0.3 0 0 0 0 0 0 0 
node 1 2 1 3
node 2 3 1 1
node 3 3 1 1
node 4 2 1 1
node 5 2 1 1
node 6 3 0 2
node 7 3 0 2
node 23 1 0 0
gene 2 1 6 -3.52813 0 1 -3.52813 1
gene 1 2 6 0.552721 0 2 0.552721 1
gene 1 3 6 -1.1605 0 3 -1.1605 1
gene 3 4 6 -1.53151 0 4 -1.53151 1
gene 1 5 6 -0.888665 0 5 -0.888665 1
gene 2 1 7 -0.960469 0 6 -0.960469 1
gene 3 2 7 -1.32641 0 7 -1.32641 1
gene 2 3 7 0.861497 0 8 0.861497 1
gene 1 4 7 -1.43977 0 9 -1.43977 1
gene 3 5 7 -0.986868 0 10 -0.986868 0
gene 2 7 6 -0.642156 0 41 -0.642156 1
gene 3 5 23 1.4025 0 61 1.4025 1
gene 3 23 7 -1.10774 0 62 -1.10774 1
gene 3 2 23 -2.75812 0 90 -2.75812 1
genomeend 94

/* Organism #95 Fitness: 85 Error: 0 */
genomestart 95
trait 1 0.1 0 0 0 0 0 0 0 
trait 2 0.2 0 0 0 0 0 0 0.964493 
trait 3 0.3 0 0 0 0 0 0 0 
node 1 2 1 3
node 2 3 1 1
node 3 3 1 1
node 4 2 1 1
node 5 2 1 1
node 6 3 0 2
node 7 3 0 2
node 23 1 0 0
gene 2 1 6 -3.87254 0 1 -3.87254 1
gene 1 2 6 1.63801 0 2 1.63801 1
gene 1 3 6 1.06252 0 3 1.06252 1
gene 3 4 6 0.932704 0 4 0.932704 1
gene 1 5 6 0.342168 0 5 0.342168 1
gene 2 1 7 3.19646 0 6 3.19646 1
gene 3 2 7 -0.556917 0 7 -0.556917 1
gene 2 3 7 -2.79859 0 8 -2.79859 1
gene 1 4 7 -2.00608 0 9 -2.00608 1
gene 3 5 7 1.05444 0 10 1.05444 0
gene 2 7 6 -1.53517 0 41 -1.53517 1
gene 3 5 23 3.0808 0 61 3.0808 1
gene 3 23 7 -2.12865 0 62 -2.12865 1
gene 3 2 23 -0.849551 0 90 -0.849551 1
genomeend 95

/* Organism #96 Fitness: 75 Error: 0 */
genomestart 96
trait 1 0.1 0 0 0 0 0 0 0 
trait 2 0.2 0 0 0 0 0 0 0 
trait 3 0.3 0 0 0 0 0 0 0 
node 1 2 1 3
node 2 3 1 1
node 3 3 1 1
node 4 2 1 1
node 5 2 1 1
node 6 3 0 2
node 7 3 0 2
node 23 1 0 0
node 43 1 0 0
gene 2 1 6 -2.38787 0 1 -2.38787 1
gene 1 2 6 0.770885 0 2 0.770885 1
gene 1 3 6 0.527564 0 3 0.527564 1
gene 3 4 6 -0.0878143 0 4 -0.0878143 1
gene 1 5 6 -0.888665 0 5 -0.888665 1
gene 2 1 7 1.19394 0 6 1.19394 1
gene 3 2 7 0.319243 0 7 0.319243 1
gene 2 3 7 -0.361714 0 8 -0.361714 1
gene 1 4 7 -0.208186 0 9 -0.208186 1
gene 3 5 7 -0.591853 0 10 -0.591853 0
gene 2 7 6 0.947856 0 41 0.947856 1
gene 3 5 23 1 0 61 0 1
gene 3 23 7 -0.591853 0 62 0 0
gene 3 2 23 -0.849551 0 90 -0.849551 1
gene 3 23 43 1 0 134 0 1
gene 3 43 7 -0.591853 0 135 0 1
genomeend 96

/* Organism #97 Fitness: 28 Error: 0 */
genomestart 97
trait 1 0.1 0 0 0 0 0 0 0 
trait 2 0.2 0 0 0 0 0 0 0 
trait 3 0.3 0 0 0 0 0 0 0 
node 1 2 1 3
node 2 3 1 1
node 3 3 1 1
node 4 2 1 1
node 5 3 1 1
node 6 3 0 2
node 7 3 0 2
node 23 1 0 0
gene 2 1 6 -2.98298 0 1 -2.98298 1
gene 1 2 6 -0.880906 0 2 -0.880906 1
gene 1 3 6 -1.26363 0 3 -1.26363 1
gene 3 4 6 -1.56062 0 4 -1.56062 1
gene 1 5 6 1.60526 0 5 1.60526 1
gene 2 1 7 2.91253 0 6 2.91253 1
gene 3 2 7 -1.8887 0 7 -1.8887 1
gene 2 3 7 0.248305 0 8 0.248305 1
gene 1 4 7 -0.434897 0 9 -0.434897 1
gene 3 5 7 -0.803383 0 10 -0.803383 0
gene 2 7 6 2.57397 0 41 2.57397 1
gene 3 5 23 1.33265 0 61 1.33265 1
gene 3 23 7 -2.2938 0 62 -2.2938 1
gene 3 2 23 -0.849551 0 90 -0.849551 1
genomeend 97

/* Organism #98 Fitness: 5 Error: 0 */
genomestart 98
trait 1 0.1 0 0 0 0 0 0 0 
trait 2 0.2 0 0 0 0 0 0 0 
trait 3 0.3 0 0 0 0 0 0 0 
node 1 2 1 3
node 2 3 1 1
node 3 3 1 1
node 4 2 1 1
node 5 2 1 1
node 6 3 0 2
node 7 3 0 2
node 23 1 0 0
gene 2 1 6 -2.38787 0 1 -2.38787 1
gene 1 2 6 -1.36401 0 2 -1.36401 1
gene 1 3 6 2.31343 0 3 2.31343 1
gene 3 4 6 -0.219136 0 4 -0.219136 1
gene 1 5 6 2.41137 0 5 2.41137 1
gene 2 1 7 0.643019 0 6 0.643019 1
gene 3 2 7 -1.82919 0 7 -1.82919 1
gene 2 3 7 0.544587 0 8 0.544587 1
gene 1 4 7 -2.46987 0 9 -2.46987 1
gene 3 5 7 -2.10595 0 10 -2.10595 0
gene 2 7 6 0.00143325 0 41 0.00143325 1
gene 3 5 23 2.12131 0 61 2.12131 1
gene 3 23 7 -2.79983 0 62 -2.79983 1
gene 3 2 23 0.569001 0 90 0.569001 1
genomeend 98

/* Organism #99 Fitness: 25 Error: 0 */
genomestart 99
trait 1 0.1 0 0 0 0 0 0 0 
trait 2 0.2 0 0 0 0 0 0 0 
trait 3 0.3 0 0 0 0 0 0 0 
node 1 2 1 3
node 2 3 1 1
node 3 3 1 1
node 4 2 1 1
node 5 2 1 1
node 6 3 0 2
node 7 3 0 2
node 23 1 0 0
gene 2 1 6 0.00945994 0 1 0.00945994 1
gene 1 2 6 0.0336334 0 2 0.0336334 1
gene 1 3 6 -1.36614 0 3 -1.36614 1
gene 3 4 6 -0.528357 0 4 -0.528357 1
gene 1 5 6 -0.249251 0 5 -0.249251 1
gene 2 1 7 -0.942332 0 6 -0.942332 1
gene 3 2 7 1.25784 0 7 1.25784 1
gene 2 3 7 1.37188 0 8 1.37188 1
gene 1 4 7 -0.107063 0 9 -0.107063 1
gene 3 5 7 0.508981 0 10 0.508981 0
gene 2 7 6 1.20867 0 41 1.20867 1
gene 3 5 23 -1.39676 0 61 -1.39676 1
gene 3 23 7 -0.129199 0 62 -0.129199 1
gene 3 2 23 -0.849551 0 90 -0.849551 1
genomeend 99

/* Organism #100 Fitness: 77 Error: 0 */
genomestart 100
trait 1 0.1 0 0 0 0 0 0 0 
trait 2 0.2 0 0 0 0 0 0 0 
trait 3 0.3 0 0 0 0 0 0 0 
node 1 2 1 3
node 2 3 1 1
node 3 3 1 1
node 4 2 1 1
node 5 2 1 1
node 6 3 0 2
node 7 3 0 2
node 23 1 0 0
gene 2 1 6 -2.38787 0 1 -2.38787 1
gene 1 2 6 0.770885 0 2 0.770885 1
gene 1 3 6 0.527564 0 3 0.527564 1
gene 3 4 6 -0.0878143 0 4 -0.0878143 1
gene 1 5 6 -0.888665 0 5 -0.888665 1
gene 2 1 7 1.19394 0 6 1.19394 1
gene 3 2 7 0.319243 0 7 0.319243 1
gene 2 3 7 -0.361714 0 8 -0.361714 1
gene 1 4 7 -0.208186 0 9 -0.208186 1
gene 3 5 7 -0.591853 0 10 -0.591853 0
gene 2 7 6 0.947856 0 41 0.947856 1
gene 3 5 23 1 0 61 0 1
gene 3 23 7 -0.591853 0 62 0 1
gene 3 2 23 -0.849551 0 90 -0.849551 1
gene 1 23 6 0.258247 0 136 0.258247 1
genomeend 100

/* Organism #101 Fitness: 17 Error: 0 */
genomestart 101
trait 1 0.1 0 0 0 0 0 0 0 
trait 2 0.2 0 0 0 0 0 0 0 
trait 3 0.3 0 0 0 0 0 0 0 
node 1 2 1 3
node 2 3 1 1
node 3 3 1 1
node 4 2 1 1
node 5 2 1 1
node 6 3 0 2
node 7 3 0 2
node 23 1 0 0
gene 2 1 6 -3.09849 0 1 -3.09849 1
gene 1 2 6 1.59194 0 2 1.59194 1
gene 1 3 6 2.46314 0 3 2.46314 1
gene 3 4 6 1.6148 0 4 1.6148 1
gene 1 5 6 -1.85431 0 5 -1.85431 1
gene 2 1 7 1.85907 0 6 1.85907 1
gene 3 2 7 0.319243 0 7 0.319243 1
gene 2 3 7 -1.69069 0 8 -1.69069 1
gene 1 4 7 -0.208186 0 9 -0.208186 1
gene 3 5 7 -1.09526 0 10 -1.09526 0
gene 2 7 6 0.0799959 0 41 0.0799959 1
gene 3 5 23 2.39551 0 61 2.39551 1
gene 3 23 7 -0.883188 0 62 -0.883188 1
gene 3 2 23 -0.451308 0 90 -0.451308 1
genomeend 101

/* Species #9 : (Size 13) (AF 56.0769) (Age 6)  */


/* Organism #102 Fitness: 95 Error: 0 */
genomestart 102
trait 1 0.1 0 0 0 0 0 0 0 
trait 2 0.2 0 0 0 0 0 0 0 
trait 3 0.3 0 0 0.818199 0 0 0 0.426921 
node 1 1 1 3
node 2 3 1 1
node 3 3 1 1
node 4 1 1 1
node 5 2 1 1
node 6 2 0 2
node 7 1 0 2
node 16 1 0 0
gene 2 1 6 -0.642214 0 1 -0.642214 1
gene 3 2 6 -0.400095 0 2 -0.400095 1
gene 1 3 6 -1.65556 0 3 -1.65556 1
gene 2 4 6 -1.78218 0 4 -1.78218 0
gene 1 5 6 -0.0827394 0 5 -0.0827394 0
gene 2 1 7 2.20982 0 6 2.20982 1
gene 2 2 7 -0.659717 0 7 -0.659717 1
gene 2 3 7 -1.46711 0 8 -1.46711 1
gene 3 4 7 -0.946352 0 9 -0.946352 1
gene 2 5 7 -1.10389 0 10 -1.10389 1
gene 2 4 16 1 0 32 1 1
gene 2 16 6 -1.64053 0 33 -1.64053 1
gene 1 3 16 -1.8294 0 52 -1.8294 1
gene 1 1 16 2.50748 0 71 2.50748 1
genomeend 102

/* Organism #103 Fitness: 71 Error: 0 */
genomestart 103
trait 1 0.1 0 0 0 0 0 0 0 
trait 2 0.2 0 0 0 0 0 0 0 
trait 3 0.3 0 0 0.818199 0 0 0 0.426921 
node 1 1 1 3
node 2 3 1 1
node 3 3 1 1
node 4 1 1 1
node 5 2 1 1
node 6 2 0 2
node 7 1 0 2
node 16 1 0 0
gene 2 1 6 -1.14265 0 1 -1.14265 1
gene 3 2 6 0.938878 0 2 0.938878 1
gene 1 3 6 -1.0801 0 3 -1.0801 1
gene 2 4 6 0.21624 0 4 0.21624 0
gene 1 5 6 2.21727 0 5 2.21727 0
gene 2 1 7 3.00275 0 6 3.00275 1
gene 2 2 7 -1.45113 0 7 -1.45113 1
gene 2 3 7 -0.44557 0 8 -0.44557 1
gene 3 4 7 -0.630662 0 9 -0.630662 1
gene 2 5 7 -3.48884 0 10 -3.48884 1
gene 2 4 16 -1.4291 0 32 -1.4291 1
gene 2 16 6 -3.13579 0 33 -3.13579 1
gene 1 3 16 -2.16824 0 52 -2.16824 1
gene 1 1 16 0.0423382 0 71 0.0423382 1
genomeend 103

/* Organism #104 Fitness: 61 Error: 0 */
genomestart 104
trait 1 0.1 0 0 0 0 0 0 0 
trait 2 0.2 0 0 0 0 0 0 0 
trait 3 0.3 0 0 0.818199 0 0 0 0.426921 
node 1 1 1 3
node 2 3 1 1
node 3 3 1 1
node 4 1 1 1
node 5 2 1 1
node 6 2 0 2
node 7 1 0 2
node 16 1 0 0
gene 2 1 6 -0.342437 0 1 -0.342437 1
gene 3 2 6 -0.400095 0 2 -0.400095 1
gene 1 3 6 1.19166 0 3 1.19166 1
gene 2 4 6 0.474105 0 4 0.474105 0
gene 1 5 6 1.34711 0 5 1.34711 0
gene 2 1 7 0.464629 0 6 0.464629 1
gene 2 2 7 -2.15097 0 7 -2.15097 1
gene 2 3 7 -2.30783 0 8 -2.30783 1
gene 3 4 7 1.72714 0 9 1.72714 1
gene 2 5 7 -2.0102 0 10 -2.0102 1
gene 2 4 16 0.89296 0 32 0.89296 1
gene 2 16 6 -3.30468 0 33 -3.30468 1
gene 1 3 16 -0.949621 0 52 -0.949621 1
gene 1 1 16 4.11957 0 71 4.11957 1
genomeend 104

/* Organism #105 Fitness: 10 Error: 0 */
genomestart 105
trait 1 0.1 0 0 0 0 0 0 0 
trait 2 0.2 0 0 0 0 0 0 0 
trait 3 0.3 0 0 0.715924 0 0 0 0.373556 
node 1 1 1 3
node 2 3 1 1
node 3 3 1 1
node 4 1 1 1
node 5 2 1 1
node 6 2 0 2
node 7 1 0 2
node 16 1 0 0
gene 2 1 6 -0.363171 0 1 -0.363171 1
gene 3 2 6 -2.44887 0 2 -2.44887 1
gene 1 3 6 -3.70442 0 3 -3.70442 1
gene 2 4 6 -4.12802 0 4 -4.12802 0
gene 1 5 6 -2.60865 0 5 -2.60865 0
gene 2 1 7 0.00830986 0 6 0.00830986 1
gene 2 2 7 0.224803 0 7 0.224803 1
gene 2 3 7 0.148524 0 8 0.148524 1
gene 3 4 7 -1.00258 0 9 -1.00258 1
gene 2 5 7 1.288 0 10 1.288 1
gene 2 4 16 -0.345257 0 32 -0.345257 1
gene 2 16 6 -4.30825 0 33 -4.30825 1
gene 1 3 16 -1.8294 0 52 -1.8294 1
gene 1 1 16 2.50748 0 71 2.50748 1
genomeend 105

/* Organism #106 Fitness: 74 Error: 0 */
genomestart 106
trait 1 0.1 0 0 0 0 0 0 0 
trait 2 0.2 0 0 0 0 0 0 0 
trait 3 0.3 0 0 0.715924 0 0 0 0.373556 
node 1 1 1 3
node 2 3 1 1
node 3 3 1 1
node 4 1 1 1
node 5 2 1 1
node 6 2 0 2
node 7 1 0 2
node 16 1 0 0
gene 2 1 6 -2.53057 0 1 -2.53057 1
gene 3 2 6 -1.87388 0 2 -1.87388 1
gene 1 3 6 -1.65556 0 3 -1.65556 1
gene 2 4 6 -1.78218 0 4 -1.78218 0
gene 1 5 6 -1.4916 0 5 -1.4916 0
gene 2 1 7 3.04233 0 6 3.04233 1
gene 2 2 7 -2.83453 0 7 -2.83453 1
gene 2 3 7 -1.46711 0 8 -1.46711 1
gene 3 4 7 -0.946352 0 9 -0.946352 1
gene 2 5 7 1.61132 0 10 1.61132 1
gene 2 4 16 0.677477 0 32 0.677477 1
gene 2 16 6 -3.25323 0 33 -3.25323 1
gene 1 3 16 -1.8294 0 52 -1.8294 1
gene 1 1 16 3.62021 0 71 3.62021 1
genomeend 106

/* Organism #107 Fitness: 61 Error: 0 */
genomestart 107
trait 1 0.1 0 0 0 0 0 0 0 
trait 2 0.2 0 0 0 0 0 0 0 
trait 3 0.3 0 0 0.818199 0 0 0 0.426921 
node 1 1 1 3
node 2 3 1 1
node 3 3 1 1
node 4 1 1 1
node 5 2 1 1
node 6 2 0 2
node 7 1 0 2
node 16 1 0 0
gene 2 1 6 -0.79137 0 1 -0.79137 1
gene 3 2 6 0.53072 0 2 0.53072 1
gene 1 3 6 -0.679202 0 3 -0.679202 1
gene 2 4 6 -1.42563 0 4 -1.42563 0
gene 1 5 6 0.6307 0 5 0.6307 0
gene 2 1 7 3.42216 0 6 3.42216 1
gene 2 2 7 -0.659717 0 7 -0.659717 1
gene 2 3 7 -1.24727 0 8 -1.24727 1
gene 3 4 7 -2.48303 0 9 -2.48303 1
gene 2 5 7 -4.69999 0 10 -4.69999 1
gene 2 4 16 3.53285 0 32 3.53285 1
gene 2 16 6 -1.64493 0 33 -1.64493 1
gene 1 3 16 -1.11341 0 52 -1.11341 1
gene 1 1 16 3.5722 0 71 3.5722 1
genomeend 107

/* Organism #108 Fitness: 31 Error: 0 */
genomestart 108
trait 1 0.1 0 0 0 0 0 0 0 
trait 2 0.2 0 0 0 0 0 0 0 
trait 3 0.3 0 0 0.715924 0 0 0 0.373556 
node 1 1 1 3
node 2 3 1 1
node 3 3 1 1
node 4 1 1 1
node 5 2 1 1
node 6 2 0 2
node 7 1 0 2
node 16 1 0 0
gene 2 1 6 -1.58639 0 1 -1.58639 1
gene 3 2 6 -1.13699 0 2 -1.13699 1
gene 1 3 6 -3.04647 0 3 -3.04647 1
gene 2 4 6 -2.06256 0 4 -2.06256 0
gene 1 5 6 -0.787172 0 5 -0.787172 0
gene 2 1 7 2.62607 0 6 2.62607 1
gene 2 2 7 -1.74712 0 7 -1.74712 1
gene 2 3 7 -1.62699 0 8 -1.62699 1
gene 1 4 7 0.168851 0 9 0.168851 1
gene 2 5 7 0.253716 0 10 0.253716 1
gene 2 4 16 0.838738 0 32 0.838738 1
gene 2 16 6 -2.44688 0 33 -2.44688 1
gene 1 3 16 -3.01685 0 52 -3.01685 1
gene 1 1 16 3.06385 0 71 3.06385 1
genomeend 108

/* Organism #109 Fitness: 90 Error: 0 */
genomestart 109
trait 1 0.1 0 0 0 0 0 0 0 
trait 2 0.2 0 0 0 0 0 0 0 
trait 3 0.3 0 0 0.818199 0 0 0 0.426921 
node 1 1 1 3
node 2 3 1 1
node 3 3 1 1
node 4 1 1 1
node 5 2 1 1
node 6 2 0 2
node 7 1 0 2
node 16 1 0 0
node 40 1 0 0
gene 2 1 6 -1.8596 0 1 -1.8596 1
gene 3 2 6 -1.43176 0 2 -1.43176 1
gene 1 3 6 -1.16738 0 3 -1.16738 1
gene 2 4 6 -2.93039 0 4 -2.93039 0
gene 1 5 6 -0.114153 0 5 -0.114153 0
gene 2 1 7 3.13078 0 6 3.13078 1
gene 2 2 7 -1.06732 0 7 -1.06732 1
gene 2 3 7 -1.64283 0 8 -1.64283 1
gene 3 4 7 -0.823339 0 9 -0.823339 0
gene 2 5 7 -1.67218 0 10 -1.67218 1
gene 2 4 16 2.09968 0 32 2.09968 1
gene 2 16 6 -1.84243 0 33 -1.84243 1
gene 1 3 16 -2.31702 0 52 -2.31702 1
gene 1 1 16 3.03984 0 71 3.03984 1
gene 3 4 40 1 0 125 0 1
gene 3 40 7 -0.823339 0 126 0 1
genomeend 109

/* Organism #110 Fitness: 20 Error: 0 */
genomestart 110
trait 1 0.1 0 0 0 0 0 0 0 
trait 2 0.2 0 0 0 0 0 0 0 
trait 3 0.3 0 0 0.613649 0 0 0 0.320191 
node 1 1 1 3
node 2 3 1 1
node 3 3 1 1
node 4 1 1 1
node 5 2 1 1
node 6 2 0 2
node 7 1 0 2
node 16 1 0 0
gene 2 1 6 -0.194247 0 1 -0.194247 1
gene 3 2 6 -3.79595 0 2 -3.79595 1
gene 1 3 6 -4.92373 0 3 -4.92373 1
gene 2 4 6 0.136215 0 4 0.136215 0
gene 1 5 6 -1.45815 0 5 -1.45815 0
gene 2 1 7 0.92275 0 6 0.92275 1
gene 2 2 7 -3.64525 0 7 -3.64525 1
gene 2 3 7 -2.25044 0 8 -2.25044 1
gene 1 4 7 2.06375 0 9 2.06375 1
gene 2 5 7 0.0258989 0 10 0.0258989 1
gene 2 4 16 2.12741 0 32 2.12741 1
gene 2 16 6 -3.65 0 33 -3.65 1
gene 1 3 16 -3.45331 0 52 -3.45331 1
gene 1 1 16 3.39923 0 71 3.39923 1
gene 1 7 16 0.650903 0 113 0.650903 1
genomeend 110

/* Organism #111 Fitness: 28 Error: 0 */
genomestart 111
trait 1 0 0 0 0 0 0 0 0.699293 
trait 2 0.2 0 0 0 0 0 0 0 
trait 3 0.3 0 0 0.715924 0 0 0 0.373556 
node 1 1 1 3
node 2 3 1 1
node 3 3 1 1
node 4 1 1 1
node 5 2 1 1
node 6 2 0 2
node 7 1 0 2
node 16 1 0 0
gene 2 1 6 -2.35878 0 1 -2.35878 1
gene 3 2 6 -1.7675 0 2 -1.7675 1
gene 1 3 6 -4.67943 0 3 -4.67943 1
gene 2 4 6 -1.54256 0 4 -1.54256 0
gene 1 5 6 -1.15783 0 5 -1.15783 0
gene 2 1 7 4.49544 0 6 4.49544 1
gene 2 2 7 -0.64113 0 7 -0.64113 1
gene 2 3 7 -3.94146 0 8 -3.94146 1
gene 3 4 7 -2.21437 0 9 -2.21437 1
gene 2 5 7 1.25254 0 10 1.25254 1
gene 2 4 16 -0.858753 0 32 -0.858753 1
gene 2 16 6 -1.54283 0 33 -1.54283 1
gene 1 3 16 -2.93804 0 52 -2.93804 1
gene 1 1 16 1.04893 0 71 1.04893 1
genomeend 111

/* Organism #112 Fitness: 23 Error: 0 */
genomestart 112
trait 1 0.1 0 0 0 0 0 0 0 
trait 2 0.2 0 0 0 0 0 0 0 
trait 3 0.3 0 0 0.715924 0 0 0 0.373556 
node 1 1 1 3
node 2 3 1 1
node 3 3 1 1
node 4 1 1 1
node 5 2 1 1
node 6 2 0 2
node 7 1 0 2
node 16 1 0 0
gene 2 1 6 0.422453 0 1 0.422453 1
gene 3 2 6 -0.712245 0 2 -0.712245 1
gene 1 3 6 -3.65393 0 3 -3.65393 1
gene 2 4 6 -3.2709 0 4 -3.2709 0
gene 1 5 6 -0.316502 0 5 -0.316502 0
gene 2 1 7 1.81575 0 6 1.81575 1
gene 2 2 7 -3.02153 0 7 -3.02153 1
gene 2 3 7 -3.23049 0 8 -3.23049 1
gene 1 4 7 2.49325 0 9 2.49325 1
gene 2 5 7 1.24497 0 10 1.24497 1
gene 2 4 16 1.54927 0 32 1.54927 1
gene 2 16 6 -0.591516 0 33 -0.591516 1
gene 1 3 16 -5.0734 0 52 -5.0734 1
gene 1 1 16 2.17453 0 71 2.17453 1
genomeend 112

/* Organism #113 Fitness: 71 Error: 0 */
genomestart 113
trait 1 0.1 0 0 0 0 0 0 0 
trait 2 0.2 0 0 0 0 0 0 0 
trait 3 0.3 0 0 0.715924 0 0 0 0.373556 
node 1 1 1 3
node 2 3 1 1
node 3 3 1 1
node 4 1 1 1
node 5 2 1 1
node 6 2 0 2
node 7 1 0 2
node 16 1 0 0
gene 2 1 6 -0.610811 0 1 -0.610811 1
gene 3 2 6 0.164159 0 2 0.164159 1
gene 1 3 6 -2.50759 0 3 -2.50759 1
gene 2 4 6 -0.199188 0 4 -0.199188 0
gene 1 5 6 -0.980427 0 5 -0.980427 1
gene 2 1 7 0.845468 0 6 0.845468 1
gene 2 2 7 -0.829394 0 7 -0.829394 1
gene 2 3 7 -0.641511 0 8 -0.641511 1
gene 1 4 7 1.17589 0 9 1.17589 1
gene 2 5 7 -1.80878 0 10 -1.80878 1
gene 2 4 16 1.77891 0 32 1.77891 1
gene 2 16 6 -4.64633 0 33 -4.64633 1
gene 1 3 16 -3.01685 0 52 -3.01685 1
gene 1 1 16 1.2716 0 71 1.2716 1
genomeend 113

/* Organism #114 Fitness: 94 Error: 0 */
genomestart 114
trait 1 0.1 0 0 0 0 0 0 0 
trait 2 0.2 0 0 0 0 0 0 0 
trait 3 0.3 0 0 0.818199 0 0 0 0.426921 
node 1 1 1 3
node 2 3 1 1
node 3 3 1 1
node 4 1 1 1
node 5 2 1 1
node 6 3 0 2
node 7 1 0 2
node 16 1 0 0
gene 2 1 6 -2.45889 0 1 -2.45889 1
gene 3 2 6 -1.79198 0 2 -1.79198 1
gene 1 3 6 -2.60032 0 3 -2.60032 1
gene 2 4 6 -5.11334 0 4 -5.11334 0
gene 1 5 6 -0.717855 0 5 -0.717855 0
gene 2 1 7 2.93983 0 6 2.93983 1
gene 2 2 7 -3.66672 0 7 -3.66672 1
gene 2 3 7 -1.90851 0 8 -1.90851 1
gene 3 4 7 0.386854 0 9 0.386854 1
gene 2 5 7 -1.99439 0 10 -1.99439 1
gene 2 4 16 2.4706 0 32 2.4706 1
gene 2 16 6 -3.95513 0 33 -3.95513 1
gene 1 3 16 -4.71927 0 52 -4.71927 1
gene 1 1 16 3.5722 0 71 3.5722 1
genomeend 114

/* Species #10 : (Size 13) (AF 28.5385) (Age 6)  */


/* Organism #115 Fitness: 82 Error: 0 */
genomestart 115
trait 1 0.1 0 0 0 0 0 0 0 
trait 2 0.2 0 0 0 0 0 0 0 
trait 3 0.3 0 0 0 0 0 0 0 
node 1 2 1 3
node 2 3 1 1
node 3 3 1 1
node 4 2 1 1
node 5 2 1 1
node 6 3 0 2
node 7 3 0 2
node 19 1 0 0
node 27 1 0 0
gene 2 1 6 -1.74597 0 1 -1.74597 1
gene 1 2 6 -2.2144 0 2 -2.2144 0
gene 1 3 6 0.254672 0 3 0.254672 1
gene 2 4 6 -0.997655 0 4 -0.997655 1
gene 2 5 6 -0.443513 0 5 -0.443513 1
gene 2 1 7 0.610547 0 6 0.610547 1
gene 3 2 7 -0.746354 0 7 -0.746354 1
gene 2 3 7 0.216179 0 8 0.216179 1
gene 2 4 7 1.42785 0 9 1.42785 1
gene 3 5 7 1.76281 0 10 1.76281 0
gene 3 5 19 1 0 43 1 1
gene 3 19 7 -0.595073 0 44 -0.595073 1
gene 1 6 7 -1.66583 0 51 -1.66583 1
gene 1 2 27 -0.327572 0 75 -0.327572 1
gene 1 27 6 -0.480774 0 76 -0.480774 1
gene 3 2 19 -0.603448 0 100 -0.603448 1
genomeend 115

/* Organism #116 Fitness: 13 Error: 0 */
genomestart 116
trait 1 0.1 0 0 0 0 0 0 0 
trait 2 0.2 0 0 0 0 0 0 0 
trait 3 0.3 0 0 0 0 0 0 0 
node 1 2 1 3
node 2 3 1 1
node 3 3 1 1
node 4 2 1 1
node 5 2 1 1
node 6 3 0 2
node 7 3 0 2
node 19 1 0 0
node 27 1 0 0
gene 2 1 6 -1.35937 0 1 -1.35937 1
gene 1 2 6 1.80783 0 2 1.80783 0
gene 1 3 6 1.26642 0 3 1.26642 1
gene 2 4 6 -2.31214 0 4 -2.31214 1
gene 2 5 6 -2.50005 0 5 -2.50005 1
gene 2 1 7 0.270526 0 6 0.270526 1
gene 3 2 7 0.794738 0 7 0.794738 1
gene 2 3 7 -0.881277 0 8 -0.881277 1
gene 2 4 7 -0.76633 0 9 -0.76633 1
gene 3 5 7 1.79993 0 10 1.79993 0
gene 3 5 19 -0.0017769 0 43 -0.0017769 1
gene 3 19 7 -0.115663 0 44 -0.115663 1
gene 1 6 7 2.41545 0 51 2.41545 1
gene 3 2 27 1 0 75 1 1
gene 1 27 6 1.85341 0 76 1.85341 1
gene 1 2 19 -0.76684 0 93 -0.76684 1
genomeend 116

/* Organism #117 Fitness: 8 Error: 0 */
genomestart 117
trait 1 0.1 0 0 0 0 0 0 0 
trait 2 0.2 0 0 0 0 0 0 0 
trait 3 0.3 0 0 0 0 0 0 0 
node 1 2 1 3
node 2 3 1 1
node 3 3 1 1
node 4 2 1 1
node 5 2 1 1
node 6 3 0 2
node 7 3 0 2
node 19 1 0 0
node 27 1 0 0
gene 2 1 6 0.442741 0 1 0.442741 1
gene 1 2 6 0.5648 0 2 0.5648 1
gene 1 3 6 0.0931316 0 3 0.0931316 1
gene 2 4 6 -0.960246 0 4 -0.960246 1
gene 2 5 6 1.48118 0 5 1.48118 1
gene 2 1 7 0.610547 0 6 0.610547 1
gene 3 2 7 -3.40628 0 7 -3.40628 1
gene 2 3 7 -0.0738008 0 8 -0.0738008 1
gene 2 4 7 1.59564 0 9 1.59564 1
gene 3 5 7 1.76281 0 10 1.76281 0
gene 3 5 19 0.74376 0 43 0.74376 1
gene 3 19 7 1.05444 0 44 1.05444 1
gene 1 6 7 -2.26327 0 51 -2.26327 1
gene 1 2 27 -0.327572 0 75 -0.327572 1
gene 1 27 6 -1.41556 0 76 -1.41556 1
gene 3 2 19 -0.430372 0 100 -0.430372 1
genomeend 117

/* Organism #118 Fitness: 5 Error: 0 */
genomestart 118
trait 1 0.1 0 0 0 0 0 0 0 
trait 2 0.2 0 0 0 0 0 0 0 
trait 3 0.3 0 0 0 0 0 0 0 
node 1 2 1 3
node 2 3 1 1
node 3 3 1 1
node 4 2 1 1
node 5 2 1 1
node 6 3 0 2
node 7 3 0 2
node 19 1 0 0
node 27 1 0 0
gene 2 1 6 1.31497 0 1 1.31497 1
gene 1 2 6 -1.11043 0 2 -1.11043 0
gene 1 3 6 1.69587 0 3 1.69587 1
gene 2 4 6 -0.0662712 0 4 -0.0662712 1
gene 2 5 6 -0.268981 0 5 -0.268981 1
gene 2 1 7 2.09587 0 6 2.09587 1
gene 3 2 7 -1.44638 0 7 -1.44638 1
gene 2 3 7 1.11149 0 8 1.11149 1
gene 2 4 7 -0.684796 0 9 -0.684796 1
gene 3 5 7 2.92697 0 10 2.92697 0
gene 3 5 19 1 0 43 1 1
gene 3 19 7 1.82619 0 44 1.82619 1
gene 1 6 7 0.56593 0 51 0.56593 1
gene 1 2 27 -1.63402 0 75 -1.63402 1
gene 1 27 6 1.97534 0 76 1.97534 1
gene 3 2 19 1.71805 0 100 1.71805 1
genomeend 118

/* Organism #119 Fitness: 5 Error: 0 */
genomestart 119
trait 1 0.1 0 0 0 0 0 0 0 
trait 2 0.2 0 0 0 0 0 0 0 
trait 3 0.3 0 0 0 0 0 0 0 
node 1 2 1 3
node 2 3 1 1
node 3 3 1 1
node 4 2 1 1
node 5 2 1 1
node 6 3 0 2
node 7 3 0 2
node 19 1 0 0
node 27 1 0 0
gene 2 1 6 -1.74995 0 1 -1.74995 1
gene 1 2 6 0.600221 0 2 0.600221 0
gene 1 3 6 2.03367 0 3 2.03367 1
gene 2 4 6 -3.16976 0 4 -3.16976 1
gene 2 5 6 -0.747056 0 5 -0.747056 1
gene 2 1 7 -1.40616 0 6 -1.40616 1
gene 3 2 7 -1.43463 0 7 -1.43463 1
gene 2 3 7 0.665585 0 8 0.665585 1
gene 2 4 7 0.243411 0 9 0.243411 1
gene 3 5 7 2.01281 0 10 2.01281 0
gene 3 5 19 1.46335 0 43 1.46335 1
gene 3 19 7 1.35974 0 44 1.35974 1
gene 1 6 7 2.15012 0 51 2.15012 1
gene 3 2 27 1 0 75 1 1
gene 1 27 6 2.01216 0 76 2.01216 1
gene 1 2 19 0.222103 0 93 0.222103 1
genomeend 119

/* Organism #120 Fitness: 74 Error: 0 */
genomestart 120
trait 1 0.1 0 0 0 0 0 0 0 
trait 2 0 0 0.10937 0 0.00714127 0 0 0 
trait 3 0.3 0 0 0 0 0 0 0 
node 1 2 1 3
node 2 3 1 1
node 3 3 1 1
node 4 2 1 1
node 5 2 1 1
node 6 3 0 2
node 7 3 0 2
node 19 1 0 0
node 27 1 0 0
gene 2 1 6 -1.70897 0 1 -1.70897 1
gene 1 2 6 -0.797795 0 2 -0.797795 0
gene 1 3 6 -1.51663 0 3 -1.51663 1
gene 2 4 6 -2.6949 0 4 -2.6949 1
gene 2 5 6 -2.74147 0 5 -2.74147 1
gene 2 1 7 3.03876 0 6 3.03876 1
gene 3 2 7 0.863522 0 7 0.863522 1
gene 2 3 7 1.78261 0 8 1.78261 1
gene 2 4 7 1.34468 0 9 1.34468 1
gene 3 5 7 1.95988 0 10 1.95988 0
gene 3 5 19 1.42555 0 43 1.42555 1
gene 3 19 7 0.980804 0 44 0.980804 1
gene 1 6 7 -1.79682 0 51 -1.79682 1
gene 1 2 27 -0.729181 0 75 -0.729181 1
gene 1 27 6 -1.43195 0 76 -1.43195 1
gene 3 2 19 -0.603448 0 100 -0.603448 1
genomeend 120

/* Organism #121 Fitness: 6 Error: 0 */
genomestart 121
trait 1 0.1 0 0 0 0 0 0 0 
trait 2 0.2 0 0 0 0 0 0 0 
trait 3 0.3 0 0 0 0 0 0 0 
node 1 2 1 3
node 2 3 1 1
node 3 3 1 1
node 4 2 1 1
node 5 2 1 1
node 6 3 0 2
node 7 3 0 2
node 19 1 0 0
node 27 1 0 0
gene 2 1 6 -1.56564 0 1 -1.56564 1
gene 1 2 6 1.57505 0 2 1.57505 0
gene 1 3 6 2.05757 0 3 2.05757 1
gene 2 4 6 -1.07434 0 4 -1.07434 1
gene 2 5 6 0.502109 0 5 0.502109 1
gene 2 1 7 -1.80076 0 6 -1.80076 1
gene 3 2 7 -3.41486 0 7 -3.41486 1
gene 2 3 7 2.49293 0 8 2.49293 1
gene 2 4 7 -2.10762 0 9 -2.10762 1
gene 3 5 7 0.399579 0 10 0.399579 0
gene 3 5 19 -0.0972181 0 43 -0.0972181 1
gene 3 19 7 -2.23707 0 44 -2.23707 1
gene 1 6 7 -2.59113 0 51 -2.59113 1
gene 3 2 27 -0.844508 0 75 -0.844508 1
gene 1 27 6 -0.325593 0 76 -0.325593 1
gene 3 2 19 -0.378095 0 100 -0.378095 1
genomeend 121

/* Organism #122 Fitness: 8 Error: 0 */
genomestart 122
trait 1 0.1 0 0 0 0 0 0 0 
trait 2 0.2 0 0 0 0 0 0 0 
trait 3 0.3 0 0 0 0 0 0 0 
node 1 2 1 3
node 2 3 1 1
node 3 3 1 1
node 4 2 1 1
node 5 2 1 1
node 6 3 0 2
node 7 3 0 2
node 19 1 0 0
node 27 1 0 0
gene 2 1 6 -1.30057 0 1 -1.30057 1
gene 1 2 6 -1.34099 0 2 -1.34099 0
gene 1 3 6 -1.60406 0 3 -1.60406 1
gene 2 4 6 -1.51129 0 4 -1.51129 1
gene 2 5 6 0.838001 0 5 0.838001 1
gene 2 1 7 -0.350914 0 6 -0.350914 1
gene 3 2 7 -1.85976 0 7 -1.85976 1
gene 2 3 7 1.44032 0 8 1.44032 1
gene 2 4 7 0.721496 0 9 0.721496 1
gene 3 5 7 0.0788956 0 10 0.0788956 0
gene 3 5 19 1 0 43 1 1
gene 3 19 7 -2.74717 0 44 -2.74717 1
gene 1 6 7 -1.49273 0 51 -1.49273 1
gene 1 2 27 -0.327572 0 75 -0.327572 1
gene 1 27 6 1.38673 0 76 1.38673 1
gene 3 2 19 -0.603448 0 100 -0.603448 1
genomeend 122

/* Organism #123 Fitness: 7 Error: 0 */
genomestart 123
trait 1 0.1 0 0 0 0 0 0 0 
trait 2 0.2 0 0 0 0 0 0 0 
trait 3 0.3 0 0 0 0 0 0 0 
node 1 2 1 3
node 2 3 1 1
node 3 3 1 1
node 4 2 1 1
node 5 2 1 1
node 6 3 0 2
node 7 3 0 2
node 19 1 0 0
node 27 1 0 0
gene 2 1 6 -1.72502 0 1 -1.72502 1
gene 1 2 6 -2.43361 0 2 -2.43361 0
gene 1 3 6 -0.5971 0 3 -0.5971 1
gene 2 4 6 -0.540276 0 4 -0.540276 1
gene 2 5 6 -0.675121 0 5 -0.675121 1
gene 2 1 7 -1.00258 0 6 -1.00258 1
gene 3 2 7 -2.03772 0 7 -2.03772 1
gene 2 3 7 0.0430525 0 8 0.0430525 1
gene 2 4 7 -2.32758 0 9 -2.32758 1
gene 3 5 7 -2.10257 0 10 -2.10257 0
gene 3 5 19 0.284572 0 43 0.284572 1
gene 3 19 7 0.976345 0 44 0.976345 1
gene 1 6 7 2.50274 0 51 2.50274 1
gene 1 2 27 -1.41146 0 75 -1.41146 1
gene 1 27 6 -2.58859 0 76 -2.58859 1
gene 1 2 19 0.632229 0 93 0.632229 1
genomeend 123

/* Organism #124 Fitness: 74 Error: 0 */
genomestart 124
trait 1 0.1 0 0 0 0 0 0 0 
trait 2 0.2 0 0 0 0 0 0 0 
trait 3 0.3 0 0 0 0 0 0 0 
node 1 2 1 3
node 2 3 1 1
node 3 3 1 1
node 4 2 1 1
node 5 2 1 1
node 6 3 0 2
node 7 3 0 2
node 19 1 0 0
node 27 1 0 0
gene 2 1 6 0.023616 0 1 0.023616 1
gene 1 2 6 -0.00981952 0 2 -0.00981952 0
gene 1 3 6 -1.99039 0 3 -1.99039 1
gene 2 4 6 -3.07889 0 4 -3.07889 1
gene 2 5 6 -0.733004 0 5 -0.733004 1
gene 2 1 7 2.97804 0 6 2.97804 1
gene 3 2 7 -1.6325 0 7 -1.6325 1
gene 2 3 7 0.506247 0 8 0.506247 1
gene 2 4 7 -0.394337 0 9 -0.394337 1
gene 3 5 7 0.108484 0 10 0.108484 0
gene 3 5 19 2.8847 0 43 2.8847 1
gene 3 19 7 -1.92394 0 44 -1.92394 1
gene 1 6 7 0.0571491 0 51 0.0571491 1
gene 1 2 27 -0.327572 0 75 -0.327572 1
gene 1 27 6 -0.480774 0 76 -0.480774 1
gene 3 2 19 -0.603448 0 100 -0.603448 1
genomeend 124

/* Organism #125 Fitness: 27 Error: 0 */
genomestart 125
trait 1 0.1 0 0 0 0 0 0 0 
trait 2 0.2 0 0 0 0 0 0 0 
trait 3 0.3 0 0 0 0 0 0 0 
node 1 2 1 3
node 2 3 1 1
node 3 3 1 1
node 4 2 1 1
node 5 2 1 1
node 6 3 0 2
node 7 3 0 2
node 19 1 0 0
node 27 1 0 0
gene 2 1 6 -0.319855 0 1 -0.319855 1
gene 1 2 6 1.84095 0 2 1.84095 0
gene 1 3 6 -1.84129 0 3 -1.84129 1
gene 2 4 6 -1.88274 0 4 -1.88274 1
gene 2 5 6 1.9299 0 5 1.9299 1
gene 2 1 7 2.58579 0 6 2.58579 1
gene 3 2 7 -1.06282 0 7 -1.06282 1
gene 2 3 7 -1.66834 0 8 -1.66834 1
gene 2 4 7 -1.12696 0 9 -1.12696 1
gene 3 5 7 1.01774 0 10 1.01774 0
gene 3 5 19 0.330748 0 43 0.330748 1
gene 3 19 7 1.21673 0 44 1.21673 1
gene 1 6 7 1.25602 0 51 1.25602 1
gene 3 2 27 1 0 75 1 1
gene 1 27 6 -1.79797 0 76 -1.79797 1
gene 1 2 19 -1.83023 0 93 -1.83023 1
genomeend 125

/* Organism #126 Fitness: 42 Error: 0 */
genomestart 126
trait 1 0.1 0 0 0 0 0 0 0 
trait 2 0.2 0 0 0 0 0 0 0 
trait 3 0.3 0 0.259951 0 0 0 0 0.227597 
node 1 2 1 3
node 2 3 1 1
node 3 3 1 1
node 4 2 1 1
node 5 2 1 1
node 6 3 0 2
node 7 3 0 2
node 19 1 0 0
node 27 1 0 0
gene 2 1 6 -3.10241 0 1 -3.10241 1
gene 1 2 6 -0.455428 0 2 -0.455428 0
gene 1 3 6 0.75898 0 3 0.75898 1
gene 2 4 6 -2.81012 0 4 -2.81012 1
gene 2 5 6 -1.6656 0 5 -1.6656 1
gene 2 1 7 -1.08775 0 6 -1.08775 1
gene 3 2 7 -2.48861 0 7 -2.48861 1
gene 2 3 7 -1.01147 0 8 -1.01147 1
gene 2 4 7 -0.110202 0 9 -0.110202 1
gene 3 5 7 3.43518 0 10 3.43518 0
gene 3 5 19 3.1248 0 43 3.1248 1
gene 3 19 7 -3.02854 0 44 -3.02854 1
gene 1 6 7 -2.26767 0 51 -2.26767 1
gene 1 2 27 -0.888608 0 75 -0.888608 1
gene 1 27 6 -0.480774 0 76 -0.480774 1
gene 3 2 19 0.27389 0 100 0.27389 1
genomeend 126

/* Organism #127 Fitness: 20 Error: 0 */
genomestart 127
trait 1 0.1 0 0 0 0 0 0 0 
trait 2 0.2 0 0 0 0 0 0 0 
trait 3 0.3 0 0 0 0 0 0 0 
node 1 2 1 3
node 2 3 1 1
node 3 3 1 1
node 4 2 1 1
node 5 2 1 1
node 6 3 0 2
node 7 3 0 2
node 19 3 0 0
node 27 1 0 0
gene 2 1 6 -2.7076 0 1 -2.7076 1
gene 1 2 6 -2.75538 0 2 -2.75538 0
gene 1 3 6 -2.30592 0 3 -2.30592 1
gene 2 4 6 0.478186 0 4 0.478186 1
gene 2 5 6 -2.7205 0 5 -2.7205 1
gene 2 1 7 -1.55732 0 6 -1.55732 1
gene 3 2 7 -0.948793 0 7 -0.948793 1
gene 2 3 7 0.47415 0 8 0.47415 1
gene 2 4 7 0.0979528 0 9 0.0979528 1
gene 3 5 7 0.621589 0 10 0.621589 1
gene 3 5 19 1.80672 0 43 1.80672 1
gene 3 19 7 -2.43782 0 44 -2.43782 1
gene 1 6 7 -2.1876 0 51 -2.1876 1
gene 1 2 27 0.653824 0 75 0.653824 1
gene 1 27 6 -2.11838 0 76 -2.11838 1
gene 3 2 19 1.04268 0 100 1.04268 1
genomeend 127

/* Species #11 : (Size 12) (AF 44.4167) (Age 5)  */


/* Organism #128 Fitness: 113 Error: 0 */
genomestart 128
trait 1 0.1 0 0 0 0 0 0 0 
trait 2 0.2 0 0 0 0 0 0 0 
trait 3 0.3 0 0 0 0 0 0 0 
node 1 1 1 3
node 2 3 1 1
node 3 3 1 1
node 4 1 1 1
node 5 2 1 1
node 6 2 0 2
node 7 1 0 2
node 16 1 0 0
node 25 1 0 0
node 29 1 0 0
gene 2 1 6 -1.35624 0 1 -1.35624 1
gene 1 2 6 -3.50398 0 2 -3.50398 1
gene 1 3 6 -1.34995 0 3 -1.34995 1
gene 2 4 6 -0.818584 0 4 -0.818584 0
gene 1 5 6 -1.20274 0 5 -1.20274 1
gene 2 1 7 0.889084 0 6 0.889084 1
gene 2 2 7 -2.15176 0 7 -2.15176 1
gene 2 3 7 -1.91575 0 8 -1.91575 1
gene 3 4 7 -0.183892 0 9 -0.183892 1
gene 3 5 7 0.141327 0 10 0.141327 1
gene 2 4 16 1.01776 0 32 1.01776 1
gene 2 16 6 -1.29366 0 33 -1.29366 0
gene 2 5 16 -1.92297 0 42 -1.92297 0
gene 2 5 25 2.00306 0 69 2.00306 1
gene 2 25 16 -0.0473931 0 70 -0.0473931 1
gene 1 5 29 -3.15928 0 81 -3.15928 1
gene 1 29 6 -1.20429 0 82 -1.20429 1
genomeend 128

/* Organism #129 Fitness: 25 Error: 0 */
genomestart 129
trait 1 0.1 0 0 0 0 0 0 0 
trait 2 0.2 0 0 0 0 0 0 0 
trait 3 0.3 0 0 0 0 0 0 0 
node 1 1 1 3
node 2 3 1 1
node 3 3 1 1
node 4 1 1 1
node 5 2 1 1
node 6 2 0 2
node 7 1 0 2
node 16 1 0 0
node 25 1 0 0
node 29 1 0 0
gene 2 1 6 -1.35624 0 1 -1.35624 1
gene 1 2 6 -0.221076 0 2 -0.221076 0
gene 1 3 6 -1.34995 0 3 -1.34995 1
gene 2 4 6 -0.501521 0 4 -0.501521 0
gene 1 5 6 -1.20274 0 5 -1.20274 0
gene 2 1 7 0.610547 0 6 0.610547 1
gene 2 2 7 -0.320996 0 7 -0.320996 1
gene 2 3 7 -0.850378 0 8 -0.850378 1
gene 3 4 7 -0.183892 0 9 -0.183892 1
gene 3 5 7 -0.34945 0 10 -0.34945 1
gene 2 4 16 1.01776 0 32 1.01776 1
gene 2 16 6 -1.29366 0 33 -1.29366 0
gene 2 5 16 -1.92297 0 42 -1.92297 0
gene 2 5 25 2.00306 0 69 2.00306 1
gene 2 25 16 -0.0473931 0 70 -0.0473931 1
gene 1 5 29 1 0 81 0 1
gene 1 29 6 -0.402553 0 82 0 1
genomeend 129

/* Organism #130 Fitness: 6 Error: 0 */
genomestart 130
trait 1 0.1 0 0 0 0 0 0 0 
trait 2 0.2 0 0 0 0 0 0 0 
trait 3 0.3 0 0 0 0 0 0 0 
node 1 1 1 3
node 2 3 1 1
node 3 3 1 1
node 4 1 1 1
node 5 2 1 1
node 6 2 0 2
node 7 1 0 2
node 16 1 0 0
node 25 1 0 0
node 29 1 0 0
gene 2 1 6 -2.88606 0 1 -2.88606 1
gene 1 2 6 -3.11763 0 2 -3.11763 1
gene 1 3 6 -0.408836 0 3 -0.408836 1
gene 2 4 6 -1.74943 0 4 -1.74943 0
gene 1 5 6 -0.468721 0 5 -0.468721 0
gene 2 1 7 -1.19657 0 6 -1.19657 1
gene 2 2 7 0.142876 0 7 0.142876 1
gene 2 3 7 -0.711229 0 8 -0.711229 1
gene 3 4 7 2.42536 0 9 2.42536 1
gene 3 5 7 0.276258 0 10 0.276258 1
gene 2 4 16 -0.345596 0 32 -0.345596 1
gene 2 16 6 1.00646 0 33 1.00646 1
gene 2 5 16 2.6836 0 42 2.6836 0
gene 2 5 25 2.78991 0 69 2.78991 1
gene 2 25 16 2.06184 0 70 2.06184 1
gene 1 5 29 -0.748438 0 81 -0.748438 1
gene 1 29 6 -2.60876 0 82 -2.60876 1
genomeend 130

/* Organism #131 Fitness: 9 Error: 0 */
genomestart 131
trait 1 0.1 0 0 0 0 0 0 0 
trait 2 0.2 0 0 0 0 0 0 0 
trait 3 0.3 0 0 0 0 0 0 0 
node 1 1 1 3
node 2 3 1 1
node 3 3 1 1
node 4 1 1 1
node 5 2 1 1
node 6 2 0 2
node 7 1 0 2
node 16 1 0 0
node 25 1 0 0
node 29 1 0 0
gene 2 1 6 -0.483173 0 1 -0.483173 1
gene 1 2 6 -0.165296 0 2 -0.165296 0
gene 1 3 6 -2.0546 0 3 -2.0546 1
gene 2 4 6 0.0427419 0 4 0.0427419 0
gene 1 5 6 1.66471 0 5 1.66471 0
gene 2 1 7 -0.766192 0 6 -0.766192 1
gene 2 2 7 0.464668 0 7 0.464668 1
gene 2 3 7 -2.99709 0 8 -2.99709 1
gene 3 4 7 3.14684 0 9 3.14684 1
gene 3 5 7 0.957959 0 10 0.957959 1
gene 2 4 16 1.34419 0 32 1.34419 1
gene 2 16 6 0.273901 0 33 0.273901 1
gene 2 5 16 2.25429 0 42 2.25429 0
gene 2 5 25 -1.87856 0 69 -1.87856 1
gene 2 25 16 -1.68683 0 70 -1.68683 1
gene 1 5 29 2.06765 0 81 2.06765 1
gene 1 29 6 0.904466 0 82 0.904466 1
genomeend 131

/* Organism #132 Fitness: 73 Error: 0 */
genomestart 132
trait 1 0.1 0 0 0 0 0 0 0 
trait 2 0.2 0 0 0 0 0 0 0 
trait 3 0.3 0 0 0 0 0 0 0 
node 1 1 1 3
node 2 3 1 1
node 3 3 1 1
node 4 1 1 1
node 5 2 1 1
node 6 2 0 2
node 7 1 0 2
node 16 1 0 0
node 25 1 0 0
node 29 1 0 0
gene 2 1 6 -3.06349 0 1 -3.06349 1
gene 1 2 6 -4.0632 0 2 -4.0632 1
gene 1 3 6 0.290868 0 3 0.290868 1
gene 2 4 6 -0.213801 0 4 -0.213801 0
gene 1 5 6 2.36292 0 5 2.36292 0
gene 2 1 7 2.75052 0 6 2.75052 1
gene 2 2 7 0.54162 0 7 0.54162 1
gene 2 3 7 -1.10894 0 8 -1.10894 1
gene 3 4 7 -2.33465 0 9 -2.33465 1
gene 3 5 7 -2.30058 0 10 -2.30058 1
gene 2 4 16 -1.27817 0 32 -1.27817 1
gene 2 16 6 -1.92262 0 33 -1.92262 0
gene 2 5 16 -1.56591 0 42 -1.56591 0
gene 2 5 25 -0.881648 0 69 -0.881648 1
gene 2 25 16 1.38343 0 70 1.38343 1
gene 1 5 29 -1.96983 0 81 -1.96983 1
gene 1 29 6 -1.39963 0 82 -1.39963 1
genomeend 132

/* Organism #133 Fitness: 53 Error: 0 */
genomestart 133
trait 1 0.1 0 0 0 0 0 0 0 
trait 2 0.2 0 0 0 0 0 0 0 
trait 3 0.3 0 0 0 0 0 0 0 
node 1 1 1 3
node 2 3 1 1
node 3 3 1 1
node 4 1 1 1
node 5 2 1 1
node 6 2 0 2
node 7 1 0 2
node 16 1 0 0
node 25 1 0 0
node 29 1 0 0
node 37 1 0 0
gene 2 1 6 -3.06007 0 1 -3.06007 1
gene 1 2 6 -1.4046 0 2 -1.4046 1
gene 1 3 6 -3.63612 0 3 -3.63612 1
gene 2 4 6 -2.69022 0 4 -2.69022 0
gene 1 5 6 3.20097 0 5 3.20097 0
gene 2 1 7 2.89711 0 6 2.89711 1
gene 2 2 7 -1.34574 0 7 -1.34574 1
gene 2 3 7 0.210013 0 8 0.210013 1
gene 3 4 7 -0.972496 0 9 -0.972496 1
gene 3 5 7 0.186599 0 10 0.186599 1
gene 2 4 16 0.465893 0 32 0.465893 1
gene 2 16 6 0.890441 0 33 0.890441 0
gene 2 5 16 2.55662 0 42 2.55662 0
gene 2 5 25 -0.687449 0 69 -0.687449 1
gene 2 25 16 0.241237 0 70 0.241237 1
gene 1 5 29 0.190432 0 81 0.190432 1
gene 3 29 6 -2.19823 0 82 -2.19823 1
gene 2 16 37 0.697405 0 114 0.697405 1
gene 2 37 6 0.755154 0 115 0.755154 1
genomeend 133

/* Organism #134 Fitness: 60 Error: 0 */
genomestart 134
trait 1 0.1 0 0 0 0 0 0 0 
trait 2 0.2 0 0 0 0 0 0 0 
trait 3 0.26601 0 0 0 0 0 0 0 
node 1 1 1 3
node 2 3 1 1
node 3 3 1 1
node 4 1 1 1
node 5 2 1 1
node 6 2 0 2
node 7 1 0 2
node 16 1 0 0
node 25 1 0 0
node 29 1 0 0
gene 2 1 6 -2.5705 0 1 -2.5705 1
gene 1 2 6 -1.10172 0 2 -1.10172 1
gene 1 3 6 -1.15295 0 3 -1.15295 1
gene 2 4 6 -1.27421 0 4 -1.27421 1
gene 1 5 6 -0.00384912 0 5 -0.00384912 0
gene 2 1 7 1.51202 0 6 1.51202 1
