/* Organism #48 Fitness: 14.489317 Time: 0 */
genomestart 48
trait 1 0.100000 0.000000 0.000000 0.000000 0.000000 0.000000 0.000000 0.000000 
trait 2 0.211995 0.000000 0.000000 0.000000 0.101809 0.000000 0.000000 0.000000 
trait 3 0.300000 0.000000 0.000000 0.035440 0.000000 0.000000 0.000000 0.000000 
node 1 2 1 3
node 2 3 1 1
node 3 3 1 1
node 4 1 1 1
node 5 1 1 1
node 6 1 0 2
node 7 1 0 2
node 19 1 0 0
node 34 1 0 0
node 102 1 0 0
gene 1 1 6 -2.05008 0 1 -2.05008 1
gene 2 2 6 -4.71076 0 2 -4.71076 1
gene 2 3 6 -2.74084 0 3 -2.74084 0
gene 3 4 6 -0.356972 0 4 -0.356972 0
gene 3 5 6 0.396205 0 5 0.396205 0
gene 3 1 7 -1.43099 0 6 -1.43099 1
gene 3 2 7 4.47922 0 7 4.47922 1
gene 1 3 7 2.09529 0 8 2.09529 1
gene 3 4 7 -0.584296 0 9 -0.584296 0
gene 2 5 7 -1.62197 0 10 -1.62197 1
gene 1 7 6 6.29197 0 17 6.29197 1
gene 3 4 19 -1.71628 0 38 -1.71628 1
gene 3 19 7 3.94425 0 39 3.94425 1
gene 3 4 34 1.14405 0 82 1.14405 1
gene 3 34 6 1.72747 0 83 1.72747 1
gene 2 3 102 1 0 327 0 1
gene 2 102 6 -2.74084 0 328 0 1
genomeend 48


